
/* Species #7 : (Size 7) (AF 12.3342) (Age 44)  */


/* Organism #0 Fitness: 16 Error: 5.04769e-08 */
genomestart 0
trait 1 0.1 0.0576945 0 0 0 0.706582 0 0.74137 
trait 2 0.2 0 0.0210098 0.0202803 0.0336948 0 0 0.0346538 
trait 3 0.263249 0 0.023181 0 0.281361 0 0.0426411 0.00501003 
node 1 3 1 3
node 2 3 1 1
node 3 3 1 1
node 4 1 0 2
node 23 1 0 0
node 55 1 0 0
gene 2 1 4 8 0 1 8 1
gene 3 2 4 -5.38643 0 2 -5.38643 1
gene 1 3 4 -8 0 3 -8 1
gene 3 2 23 3.53449 0 40 3.53449 1
gene 3 23 4 -1.72653 0 41 -1.72653 1
gene 2 3 23 -1.3426 0 44 -1.3426 1
gene 1 3 55 1.25366 0 117 1.25366 1
gene 1 55 4 3.53051 0 118 3.53051 1
gene 2 1 55 1.01182 0 143 1.01182 1
gene 2 1 23 -0.632498 0 530 -0.632498 1
genomeend 0

/* Organism #1 Fitness: 16 Error: 5.42882e-07 */
genomestart 1
trait 1 0.1 0.0576945 0 0 0 0.706582 0 0.74137 
trait 2 0.2 0 0.0210098 0.0202803 0.0336948 0 0 0.0346538 
trait 3 0.263249 0 0.023181 0 0.281361 0 0.0426411 0.00501003 
node 1 3 1 3
node 2 3 1 1
node 3 3 1 1
node 4 1 0 2
node 23 1 0 0
node 55 1 0 0
gene 2 1 4 6.88969 0 1 6.88969 1
gene 3 2 4 -5.43674 0 2 -5.43674 1
gene 1 3 4 -7.25335 0 3 -7.25335 1
gene 3 2 23 4.6615 0 40 4.6615 1
gene 3 23 4 -1.06229 0 41 -1.06229 1
gene 2 3 23 -0.597606 0 44 -0.597606 1
gene 1 3 55 1.78783 0 117 1.78783 1
gene 1 55 4 3.64696 0 118 3.64696 1
gene 2 1 55 1.13435 0 143 1.13435 1
gene 2 1 23 -0.632498 0 530 -0.632498 1
gene 2 23 55 -0.935772 0 559 -0.935772 1
genomeend 1

/* Organism #2 Fitness: 4.19178 Error: 1.95262 */
genomestart 2
trait 1 0.1 0.0576945 0 0 0 0.706582 0 0.74137 
trait 2 0.2 0 0.0210098 0.0202803 0.0336948 0 0 0.0346538 
trait 3 0.263249 0 0.023181 0 0.281361 0 0.0426411 0.00501003 
node 1 3 1 3
node 2 3 1 1
node 3 3 1 1
node 4 1 0 2
node 23 1 0 0
node 55 1 0 0
gene 2 1 4 5.95239 0 1 5.95239 1
gene 3 2 4 -7.24425 0 2 -7.24425 1
gene 1 3 4 -7.73101 0 3 -7.73101 1
gene 3 2 23 4.07453 0 40 4.07453 1
gene 3 23 4 -1.18833 0 41 -1.18833 1
gene 2 3 23 -1.14631 0 44 -1.14631 1
gene 1 3 55 3.39533 0 117 3.39533 1
gene 1 55 4 1.16247 0 118 1.16247 1
gene 2 1 55 1.5689 0 143 1.5689 1
gene 2 1 23 -0.632498 0 530 -0.632498 1
genomeend 2

/* Organism #3 Fitness: 2.2086 Error: 2.51386 */
genomestart 3
trait 1 0.1 0.0576945 0 0 0 0.706582 0 0.74137 
trait 2 0.2 0 0.0210098 0.0202803 0.0336948 0 0 0.0346538 
trait 3 0.263249 0 0.023181 0 0.281361 0 0.0426411 0.00501003 
node 1 3 1 3
node 2 3 1 1
node 3 3 1 1
node 4 1 0 2
node 23 1 0 0
node 55 1 0 0
gene 2 1 4 5.77938 0 1 5.77938 1
gene 3 2 4 2.43324 0 2 2.43324 1
gene 1 3 4 -8 0 3 -8 1
gene 3 2 23 6.37319 0 40 6.37319 1
gene 3 23 4 -2.00734 0 41 -2.00734 1
gene 2 3 23 -0.622738 0 44 -0.622738 1
gene 1 3 55 1.29399 0 117 1.29399 1
gene 1 55 4 2.20855 0 118 2.20855 1
gene 2 1 55 -0.213202 0 143 -0.213202 1
genomeend 3

/* Organism #4 Fitness: 15.9508 Error: 0.00615384 */
genomestart 4
trait 1 0.1 0.0576945 0 0 0 0.706582 0 0.74137 
trait 2 0.2 0 0.0210098 0.0202803 0.0336948 0 0 0.0346538 
trait 3 0.263249 0 0.023181 0 0.281361 0 0.0426411 0.00501003 
node 1 3 1 3
node 2 3 1 1
node 3 3 1 1
node 4 1 0 2
node 23 1 0 0
node 55 1 0 0
gene 2 1 4 5.7707 0 1 5.7707 1
gene 3 2 4 -6.58581 0 2 -6.58581 1
gene 1 3 4 -5.81533 0 3 -5.81533 1
gene 3 2 23 5.90844 0 40 5.90844 1
gene 3 23 4 0.236977 0 41 0.236977 1
gene 2 3 23 -2.4698 0 44 -2.4698 1
gene 1 3 55 1.25366 0 117 1.25366 1
gene 1 55 4 5.36092 0 118 5.36092 1
gene 2 1 55 2.77406 0 143 2.77406 1
gene 2 1 23 0.496505 0 530 0.496505 1
genomeend 4

/* Organism #5 Fitness: 15.9997 Error: 3.50762e-05 */
genomestart 5
trait 1 0.1 0.0576945 0 0 0 0.706582 0 0.74137 
trait 2 0.2 0 0.0210098 0.0202803 0.0336948 0 0 0.0346538 
trait 3 0.263249 0 0.023181 0 0.281361 0 0.0426411 0.00501003 
node 1 3 1 3
node 2 3 1 1
node 3 3 1 1
node 4 1 0 2
node 23 1 0 0
node 55 1 0 0
gene 2 1 4 5.77938 0 1 5.77938 1
gene 3 2 4 -5.48704 0 2 -5.48704 1
gene 1 3 4 -6.5067 0 3 -6.5067 1
gene 3 2 23 5.78852 0 40 5.78852 1
gene 3 23 4 -1.72653 0 41 -1.72653 1
gene 2 3 23 -1.3426 0 44 -1.3426 1
gene 1 3 55 1.25366 0 117 1.25366 1
gene 1 55 4 3.53051 0 118 3.53051 1
gene 2 1 55 1.25688 0 143 1.25688 1
gene 2 1 23 -0.632498 0 530 -0.632498 1
genomeend 5

/* Organism #6 Fitness: 15.9884 Error: 0.00145368 */
genomestart 6
trait 1 0.1 0.0576945 0 0 0 0.706582 0 0.74137 
trait 2 0.2 0 0.0210098 0.0202803 0.0336948 0 0 0.0346538 
trait 3 0.263249 0 0.023181 0 0.281361 0 0.0426411 0.00501003 
node 1 3 1 3
node 2 3 1 1
node 3 3 1 1
node 4 1 0 2
node 23 1 0 0
node 55 1 0 0
gene 2 1 4 8 0 1 8 1
gene 3 2 4 -4.9502 0 2 -4.9502 1
gene 1 3 4 -6.91686 0 3 -6.91686 1
gene 3 2 23 3.50594 0 40 3.50594 1
gene 3 23 4 -1.92669 0 41 -1.92669 1
gene 2 3 23 -1.52987 0 44 -1.52987 1
gene 1 3 55 1.91454 0 117 1.91454 1
gene 1 55 4 3.8268 0 118 3.8268 1
gene 2 1 55 -0.575776 0 143 -0.575776 1
gene 2 1 23 -0.632498 0 530 -0.632498 1
genomeend 6

/* Species #9 : (Size 7) (AF 13.6095) (Age 42)  */


/* Organism #7 Fitness: 16 Error: 1.4973e-07 */
genomestart 7
trait 1 0.1 0.0576945 0 0 0 0 0 0.0136104 
trait 2 0.2 0 0.0210098 0.0202803 0.0336948 0 0 0.0346538 
trait 3 0.263249 0 0.040325 0.016148 0.00133847 0 0.039976 0.00501003 
node 1 3 1 3
node 2 3 1 1
node 3 3 1 1
node 4 2 0 2
node 23 1 0 0
node 55 1 0 0
node 61 1 0 0
gene 2 1 4 5.2367 0 1 5.2367 1
gene 3 2 4 -3.17558 0 2 -3.17558 1
gene 1 3 4 -8 0 3 -8 1
gene 3 2 23 2.28621 0 40 2.28621 1
gene 3 23 4 2.56914 0 41 2.56914 1
gene 2 3 23 3.54862 0 44 3.54862 0
gene 1 3 55 0.930901 0 117 0.930901 1
gene 1 55 4 3.57406 0 118 3.57406 1
gene 1 2 55 -1.80104 0 125 -1.80104 1
gene 2 3 61 5.62576 0 137 5.62576 1
gene 2 61 23 2.85886 0 138 2.85886 1
gene 2 1 23 -1.21101 0 144 -1.21101 1
gene 1 2 61 2.31398 0 228 2.31398 1
gene 3 55 61 -1.90974 0 260 -1.90974 1
gene 1 55 23 2.09302 0 355 2.09302 1
genomeend 7

/* Organism #8 Fitness: 5.32293 Error: 1.69285 */
genomestart 8
trait 1 0.1 0.0576945 0 0 0 0 0 0.0136104 
trait 2 0.2 0 0.0210098 0.0202803 0.0336948 0 0 0.0346538 
trait 3 0.263249 0 0.040325 0.016148 0.00133847 0 0.039976 0.00501003 
node 1 3 1 3
node 2 3 1 1
node 3 3 1 1
node 4 2 0 2
node 23 1 0 0
node 55 1 0 0
node 61 1 0 0
gene 2 1 4 3.82999 0 1 3.82999 1
gene 3 2 4 -5.50044 0 2 -5.50044 1
gene 1 3 4 0.967951 0 3 0.967951 1
gene 3 2 23 2.31591 0 40 2.31591 1
gene 3 23 4 2.44595 0 41 2.44595 1
gene 2 3 23 2.08655 0 44 2.08655 0
gene 1 3 55 5.11416 0 117 5.11416 1
gene 1 55 4 -0.977179 0 118 -0.977179 1
gene 1 2 55 0.850966 0 125 0.850966 1
gene 2 3 61 8 0 137 8 1
gene 2 61 23 4.47112 0 138 4.47112 1
gene 2 1 23 -2.20355 0 144 -2.20355 1
gene 1 2 61 4.30638 0 228 4.30638 1
gene 3 55 61 -0.347739 0 260 -0.347739 1
gene 1 55 23 4.01995 0 355 4.01995 1
genomeend 8

/* Organism #9 Fitness: 15.9868 Error: 0.00165031 */
genomestart 9
trait 1 0.1 0.0576945 0 0 0 0 0 0.0136104 
trait 2 0.2 0 0.0210098 0.0202803 0.0336948 0 0 0.0346538 
trait 3 0.263249 0 0.040325 0.016148 0.00133847 0 0.039976 0.00501003 
node 1 3 1 3
node 2 3 1 1
node 3 3 1 1
node 4 2 0 2
node 23 1 0 0
node 55 1 0 0
node 61 1 0 0
gene 2 1 4 6.82816 0 1 6.82816 1
gene 3 2 4 -6.75541 0 2 -6.75541 1
gene 1 3 4 -8 0 3 -8 1
gene 3 2 23 0.346211 0 40 0.346211 1
gene 3 23 4 4.54464 0 41 4.54464 1
gene 2 3 23 5.3838 0 44 5.3838 0
gene 1 3 55 5.48919 0 117 5.48919 1
gene 1 55 4 2.09934 0 118 2.09934 1
gene 1 2 55 0.432564 0 125 0.432564 1
gene 2 3 61 5.57598 0 137 5.57598 1
gene 2 61 23 3.47294 0 138 3.47294 1
gene 2 1 23 -4.32512 0 144 -4.32512 1
gene 1 2 61 1.64163 0 228 1.64163 1
gene 3 55 61 1.43503 0 260 1.43503 1
gene 1 55 23 1.63476 0 355 1.63476 1
genomeend 9

/* Organism #10 Fitness: 15.9052 Error: 0.011863 */
genomestart 10
trait 1 0.1 0.0576945 0 0 0 0 0 0.0136104 
trait 2 0.2 0 0.0210098 0.0202803 0.0336948 0 0 0.0346538 
trait 3 0.263249 0 0.040325 0.016148 0.00133847 0 0.039976 0.00501003 
node 1 3 1 3
node 2 3 1 1
node 3 3 1 1
node 4 2 0 2
node 23 1 0 0
node 55 1 0 0
node 61 1 0 0
gene 2 1 4 5.37487 0 1 5.37487 1
gene 3 2 4 -6.00931 0 2 -6.00931 1
gene 1 3 4 -5.60161 0 3 -5.60161 1
gene 3 2 23 1.49865 0 40 1.49865 1
gene 3 23 4 2.21087 0 41 2.21087 1
gene 2 3 23 1.77964 0 44 1.77964 0
gene 1 3 55 5.98821 0 117 5.98821 1
gene 1 55 4 1.52918 0 118 1.52918 1
gene 1 2 55 -1.33028 0 125 -1.33028 1
gene 2 3 61 7.38654 0 137 7.38654 1
gene 2 61 23 2.15863 0 138 2.15863 1
gene 2 1 23 -3.49747 0 144 -3.49747 1
gene 1 2 61 5.39309 0 228 5.39309 1
gene 3 55 61 -2.5217 0 260 -2.5217 1
gene 1 55 23 3.34884 0 355 3.34884 1
genomeend 10

/* Organism #11 Fitness: 10.4705 Error: 0.764184 */
genomestart 11
trait 1 0.280466 0 0 0 0.394456 0.198314 0.661552 0.0136104 
trait 2 0.2 0 0.0210098 0.0202803 0.0336948 0 0 0.0346538 
trait 3 0.263249 0 0.040325 0.016148 0.00133847 0 0.039976 0.00501003 
node 1 3 1 3
node 2 3 1 1
node 3 3 1 1
node 4 2 0 2
node 23 1 0 0
node 55 1 0 0
node 61 1 0 0
gene 2 1 4 2.79199 0 1 2.79199 1
gene 3 2 4 -1.61488 0 2 -1.61488 1
gene 1 3 4 -7.03441 0 3 -7.03441 1
gene 3 2 23 1.85537 0 40 1.85537 1
gene 3 23 4 3.25186 0 41 3.25186 1
gene 2 3 23 4.96499 0 44 4.96499 1
gene 1 3 55 -0.333652 0 117 -0.333652 1
gene 1 55 4 4.6391 0 118 4.6391 1
gene 1 2 55 -0.278356 0 125 -0.278356 1
gene 2 3 61 5.26239 0 137 5.26239 1
gene 2 61 23 5.18382 0 138 5.18382 1
gene 2 1 23 -2.49182 0 144 -2.49182 1
gene 3 2 61 2.37573 0 228 2.37573 1
gene 3 55 61 -3.38787 0 260 -3.38787 1
gene 1 55 23 -0.620834 0 355 -0.620834 1
genomeend 11

/* Organism #12 Fitness: 15.9928 Error: 0.000905255 */
genomestart 12
trait 1 0.1 0.0576945 0 0 0 0 0 0.0136104 
trait 2 0.2 0 0.0210098 0.0202803 0.0336948 0 0 0.0346538 
trait 3 0.263249 0 0.040325 0.016148 0.00133847 0 0.039976 0.00501003 
node 1 3 1 3
node 2 3 1 1
node 3 3 1 1
node 4 2 0 2
node 23 1 0 0
node 55 1 0 0
node 61 1 0 0
gene 2 1 4 6.00205 0 1 6.00205 1
gene 3 2 4 -4.17528 0 2 -4.17528 1
gene 1 3 4 -5.7824 0 3 -5.7824 1
gene 3 2 23 3.21789 0 40 3.21789 1
gene 3 23 4 2.53068 0 41 2.53068 1
gene 2 3 23 1.70937 0 44 1.70937 0
gene 1 3 55 -1.44392 0 117 -1.44392 1
gene 1 55 4 3.08028 0 118 3.08028 1
gene 1 2 55 -0.0643082 0 125 -0.0643082 1
gene 2 3 61 3.76573 0 137 3.76573 1
gene 2 61 23 4.11254 0 138 4.11254 1
gene 3 1 23 -1.15071 0 144 -1.15071 1
gene 1 2 61 2.03168 0 228 2.03168 1
gene 3 55 61 0.211802 0 260 0.211802 1
gene 1 55 23 -1.63033 0 355 -1.63033 1
genomeend 12

/* Organism #13 Fitness: 15.5883 Error: 0.0518033 */
genomestart 13
trait 1 0.1 0.0576945 0 0 0 0 0 0.0136104 
trait 2 0.2 0 0.0210098 0.0202803 0.0336948 0 0 0.0346538 
trait 3 0.263249 0 0.040325 0.016148 0.00133847 0 0.039976 0.00501003 
node 1 3 1 3
node 2 3 1 1
node 3 3 1 1
node 4 2 0 2
node 23 1 0 0
node 55 1 0 0
node 61 1 0 0
gene 2 1 4 4.59575 0 1 4.59575 1
gene 3 2 4 -6.75488 0 2 -6.75488 1
gene 1 3 4 -8 0 3 -8 1
gene 3 2 23 2.68306 0 40 2.68306 1
gene 3 23 4 5.20677 0 41 5.20677 1
gene 2 3 23 5.49068 0 44 5.49068 1
gene 1 3 55 3.53437 0 117 3.53437 1
gene 1 55 4 4.362 0 118 4.362 1
gene 1 2 55 1.96295 0 125 1.96295 1
gene 2 3 61 4.53962 0 137 4.53962 1
gene 2 61 23 3.75819 0 138 3.75819 1
gene 2 1 23 -2.10493 0 144 -2.10493 1
gene 1 2 61 0.99708 0 228 0.99708 1
gene 3 55 61 -0.282713 0 260 -0.282713 1
gene 1 55 23 3.31624 0 355 3.31624 1
genomeend 13

/* Species #10 : (Size 9) (AF 12.9777) (Age 41)  */


/* Organism #14 Fitness: 16 Error: 2.0747e-08 */
genomestart 14
trait 1 0.1 0.0540886 0.033849 0.0622569 0.0123676 0.0104437 0 0.0127597 
trait 2 0.143989 0.393233 0.396842 0.0101402 0.459931 0 0.382566 0.394902 
trait 3 0.286753 0 0 0 0.00145798 0 0.0464483 0.00501003 
node 1 1 1 3
node 2 3 1 1
node 3 3 1 1
node 4 2 0 2
node 23 1 0 0
node 62 1 0 0
node 132 1 0 0
node 155 1 0 0
gene 2 1 4 8 0 1 8 1
gene 1 2 4 -2.6605 0 2 -2.6605 1
gene 1 3 4 -7.75799 0 3 -7.75799 1
gene 3 2 23 8 0 40 8 1
gene 3 23 4 -4.89295 0 41 -4.89295 1
gene 1 1 23 -3.46695 0 78 -3.46695 1
gene 2 3 23 -0.920916 0 130 -0.920916 1
gene 2 3 62 1.96327 0 139 1.96327 1
gene 2 62 23 1.16399 0 140 1.16399 1
gene 1 62 4 3.50167 0 152 3.50167 1
gene 1 1 62 2.18509 0 173 2.18509 1
gene 2 2 62 -0.995947 0 251 -0.995947 0
gene 2 2 132 1 0 380 0 0
gene 2 132 62 -0.995947 0 381 0 1
gene 2 2 155 1 0 461 0 1
gene 2 155 132 1 0 462 0 1
gene 3 1 155 -0.675528 0 546 -0.675528 1
genomeend 14

/* Organism #15 Fitness: 4 Error: 2 */
genomestart 15
trait 1 0.1 0.0540886 0.033849 0.0622569 0.0123676 0.0104437 0 0.0127597 
trait 2 0.143989 0.393233 0.396842 0.0101402 0.459931 0 0.382566 0.394902 
trait 3 0.286753 0 0 0 0.00145798 0 0.0464483 0.00501003 
node 1 1 1 3
node 2 3 1 1
node 3 3 1 1
node 4 2 0 2
node 23 1 0 0
node 62 1 0 0
node 132 2 0 0
node 155 1 0 0
gene 2 1 4 8 0 1 8 1
gene 1 2 4 1.72003 0 2 1.72003 1
gene 1 3 4 1.68737 0 3 1.68737 1
gene 3 2 23 6.20575 0 40 6.20575 1
gene 3 23 4 0.274271 0 41 0.274271 1
gene 1 1 23 -1.92753 0 78 -1.92753 1
gene 2 3 23 -0.876461 0 130 -0.876461 1
gene 2 3 62 1.0734 0 139 1.0734 1
gene 3 62 23 1.94985 0 140 1.94985 1
gene 1 62 4 5.71781 0 152 5.71781 1
gene 1 1 62 0.268678 0 173 0.268678 1
gene 2 2 62 -2.46609 0 251 -2.46609 0
gene 2 2 132 1.50561 0 380 1.50561 0
gene 2 132 62 1.08303 0 381 1.08303 1
gene 2 2 155 0.277565 0 461 0.277565 1
gene 2 155 132 1 0 462 1 1
genomeend 15

/* Organism #16 Fitness: 9.00073 Error: 0.999879 */
genomestart 16
trait 1 0.1 0.0540886 0.033849 0.0622569 0.0123676 0.0104437 0 0.0127597 
trait 2 0.143989 0.393233 0.396842 0.0101402 0.459931 0 0.382566 0.394902 
trait 3 0.286753 0 0 0 0.00145798 0 0.0464483 0.00501003 
node 1 1 1 3
node 2 3 1 1
node 3 3 1 1
node 4 2 0 2
node 23 1 0 0
node 62 1 0 0
node 132 1 0 0
node 155 1 0 0
gene 2 1 4 8 0 1 8 1
gene 1 2 4 -1.73546 0 2 -1.73546 1
gene 1 3 4 -7.85189 0 3 -7.85189 1
gene 3 2 23 8 0 40 8 1
gene 3 23 4 -5.07331 0 41 -5.07331 1
gene 1 1 23 -5.47556 0 78 -5.47556 1
gene 2 3 23 -2.65082 0 130 -2.65082 1
gene 2 3 62 2.46513 0 139 2.46513 1
gene 2 62 23 -0.140046 0 140 -0.140046 1
gene 1 62 4 4.49552 0 152 4.49552 1
gene 1 1 62 3.05492 0 173 3.05492 1
gene 2 2 62 0.913587 0 251 0.913587 0
gene 2 2 132 3.40835 0 380 3.40835 0
gene 2 132 62 -1.26498 0 381 -1.26498 1
gene 2 2 155 -0.998934 0 461 -0.998934 1
gene 2 155 132 1.95201 0 462 1.95201 1
gene 3 1 155 0.656689 0 546 0.656689 1
genomeend 16

/* Organism #17 Fitness: 15.8675 Error: 0.016598 */
genomestart 17
trait 1 0.1 0.0540886 0.033849 0.0622569 0.0123676 0.0104437 0 0.0127597 
trait 2 0.143989 0.393233 0.396842 0.0101402 0.459931 0 0.382566 0.394902 
trait 3 0.286753 0 0 0 0.00145798 0 0.0464483 0.00501003 
node 1 1 1 3
node 2 3 1 1
node 3 3 1 1
node 4 2 0 2
node 23 1 0 0
node 62 1 0 0
node 132 1 0 0
node 155 1 0 0
gene 2 1 4 8 0 1 8 1
gene 1 2 4 -0.78072 0 2 -0.78072 1
gene 1 3 4 -5.72815 0 3 -5.72815 1
gene 3 2 23 7.28677 0 40 7.28677 1
gene 3 23 4 -3.69498 0 41 -3.69498 1
gene 1 1 23 -1.39404 0 78 -1.39404 1
gene 2 3 23 -0.449407 0 130 -0.449407 1
gene 2 3 62 3.55489 0 139 3.55489 1
gene 2 62 23 0.908105 0 140 0.908105 1
gene 1 62 4 1.37495 0 152 1.37495 1
gene 1 1 62 3.39443 0 173 3.39443 1
gene 2 2 62 -2.6044 0 251 -2.6044 0
gene 2 2 132 -1.02068 0 380 -1.02068 1
gene 2 132 62 -2.58954 0 381 -2.58954 1
gene 2 2 155 3.08839 0 461 3.08839 1
gene 2 155 132 -1.45221 0 462 -1.45221 1
genomeend 17

/* Organism #18 Fitness: 9.00957 Error: 0.998405 */
genomestart 18
trait 1 0.1 0.0540886 0.033849 0.0622569 0.0123676 0.0104437 0 0.0127597 
trait 2 0.143989 0.393233 0.396842 0.0101402 0.459931 0 0.382566 0.394902 
trait 3 0.286753 0 0 0 0.00145798 0 0.0464483 0.00501003 
node 1 1 1 3
node 2 3 1 1
node 3 3 1 1
node 4 2 0 2
node 23 1 0 0
node 62 1 0 0
node 132 1 0 0
node 155 1 0 0
gene 2 1 4 8 0 1 8 1
gene 1 2 4 -3.30191 0 2 -3.30191 1
gene 1 3 4 -5.7804 0 3 -5.7804 1
gene 3 2 23 8 0 40 8 1
gene 3 23 4 -3.56293 0 41 -3.56293 1
gene 1 1 23 -5.4126 0 78 -5.4126 1
gene 2 3 23 0.328942 0 130 0.328942 1
gene 2 3 62 4.13386 0 139 4.13386 1
gene 2 62 23 2.42022 0 140 2.42022 1
gene 1 62 4 5.95287 0 152 5.95287 1
gene 1 1 62 3.07821 0 173 3.07821 1
gene 2 2 62 -1.13357 0 251 -1.13357 0
gene 2 2 132 0.30409 0 380 0.30409 0
gene 2 132 62 1.09529 0 381 1.09529 1
gene 1 2 155 1.84109 0 461 1.84109 1
gene 2 155 132 3.37611 0 462 3.37611 1
gene 3 1 155 -0.675528 0 546 -0.675528 1
genomeend 18

/* Organism #19 Fitness: 15.7629 Error: 0.0297507 */
genomestart 19
trait 1 0.1 0.0540886 0.033849 0.0622569 0.0123676 0.0104437 0 0.0127597 
trait 2 0.143989 0.393233 0.396842 0.0101402 0.459931 0 0.382566 0.394902 
trait 3 0.286753 0 0 0 0.00145798 0 0.0464483 0.00501003 
node 1 1 1 3
node 2 3 1 1
node 3 3 1 1
node 4 2 0 2
node 23 1 0 0
node 62 1 0 0
node 132 1 0 0
node 155 1 0 0
gene 2 1 4 8 0 1 8 1
gene 1 2 4 -2.94384 0 2 -2.94384 1
gene 1 3 4 -8 0 3 -8 1
gene 3 2 23 8 0 40 8 1
gene 3 23 4 -5.86456 0 41 -5.86456 1
gene 1 1 23 -4.62272 0 78 -4.62272 1
gene 2 3 23 -1.06246 0 130 -1.06246 1
gene 2 3 62 4.43283 0 139 4.43283 1
gene 2 62 23 3.51747 0 140 3.51747 1
gene 1 62 4 1.52004 0 152 1.52004 1
gene 1 1 62 3.40373 0 173 3.40373 1
gene 2 2 62 -0.356033 0 251 -0.356033 0
gene 2 2 132 2.35478 0 380 2.35478 0
gene 2 132 62 0.796241 0 381 0.796241 1
gene 2 2 155 2.93373 0 461 2.93373 1
gene 2 155 132 -0.0919371 0 462 -0.0919371 1
gene 3 1 155 0.775929 0 546 0.775929 1
genomeend 19

/* Organism #20 Fitness: 16 Error: 3.83069e-07 */
genomestart 20
trait 1 0.1 0.0540886 0.033849 0.0622569 0.0123676 0.0104437 0 0.0127597 
trait 2 0.143989 0.393233 0.396842 0.0101402 0.459931 0 0.382566 0.394902 
trait 3 0.286753 0 0 0 0.00145798 0 0.0464483 0.00501003 
node 1 1 1 3
node 2 3 1 1
node 3 3 1 1
node 4 2 0 2
node 23 1 0 0
node 62 1 0 0
node 132 1 0 0
node 155 1 0 0
gene 2 1 4 6.42884 0 1 6.42884 1
gene 1 2 4 -3.88005 0 2 -3.88005 1
gene 1 3 4 -8 0 3 -8 1
gene 3 2 23 7.34572 0 40 7.34572 1
gene 3 23 4 -4.85429 0 41 -4.85429 1
gene 1 1 23 -5.24761 0 78 -5.24761 1
gene 2 3 23 -1.94235 0 130 -1.94235 1
gene 2 3 62 1.8406 0 139 1.8406 1
gene 2 62 23 2.04857 0 140 2.04857 1
gene 1 62 4 5.31138 0 152 5.31138 1
gene 1 1 62 3.59368 0 173 3.59368 1
gene 2 2 62 -1.7672 0 251 -1.7672 0
gene 2 2 132 0.546867 0 380 0.546867 1
gene 2 132 62 -1.13616 0 381 -1.13616 1
gene 2 2 155 -1.16165 0 461 -1.16165 1
gene 2 155 132 -0.681534 0 462 -0.681534 1
gene 3 1 155 -0.675528 0 546 -0.675528 1
genomeend 20

/* Organism #21 Fitness: 15.1717 Error: 0.104916 */
genomestart 21
trait 1 0.1 0.0540886 0.033849 0.0622569 0.0123676 0.0104437 0 0.0127597 
trait 2 0.143989 0.393233 0.396842 0.0101402 0.459931 0 0.382566 0.394902 
trait 3 0.286753 0 0 0 0.00145798 0 0.0464483 0.00501003 
node 1 1 1 3
node 2 3 1 1
node 3 3 1 1
node 4 2 0 2
node 23 1 0 0
node 62 1 0 0
node 132 1 0 0
node 155 1 0 0
gene 2 1 4 8 0 1 8 1
gene 1 2 4 -4.54388 0 2 -4.54388 1
gene 1 3 4 -8 0 3 -8 1
gene 3 2 23 0.129149 0 40 0.129149 1
gene 3 23 4 -6.35576 0 41 -6.35576 1
gene 1 1 23 -3.43668 0 78 -3.43668 1
gene 2 3 23 -2.75585 0 130 -2.75585 1
gene 2 3 62 -0.202718 0 139 -0.202718 1
gene 2 62 23 0.636684 0 140 0.636684 1
gene 1 62 4 4.13326 0 152 4.13326 1
gene 1 1 62 2.18509 0 173 2.18509 1
gene 2 2 62 0.734789 0 251 0.734789 0
gene 2 2 132 3.01945 0 380 3.01945 0
gene 2 132 62 -1.88818 0 381 -1.88818 1
gene 2 2 155 -1.659 0 461 -1.659 1
gene 2 155 132 -0.121622 0 462 -0.121622 1
gene 3 1 155 -1.37721 0 546 -1.37721 1
genomeend 21

/* Organism #22 Fitness: 15.9867 Error: 0.00166052 */
genomestart 22
trait 1 0.1 0.0540886 0.033849 0.0622569 0.0123676 0.0104437 0 0.0127597 
trait 2 0.143989 0.393233 0.396842 0.0101402 0.459931 0 0.382566 0.394902 
trait 3 0.286753 0 0 0 0.00145798 0 0.0464483 0.00501003 
node 1 1 1 3
node 2 3 1 1
node 3 3 1 1
node 4 2 0 2
node 23 1 0 0
node 62 1 0 0
node 132 1 0 0
node 155 1 0 0
gene 2 1 4 5.94532 0 1 5.94532 1
gene 1 2 4 -0.712971 0 2 -0.712971 1
gene 1 3 4 -5.96175 0 3 -5.96175 1
gene 3 2 23 7.26953 0 40 7.26953 1
gene 3 23 4 -6.16167 0 41 -6.16167 1
gene 1 1 23 -5.80973 0 78 -5.80973 1
gene 2 3 23 0.792496 0 130 0.792496 1
gene 2 3 62 3.44336 0 139 3.44336 1
gene 2 62 23 2.58571 0 140 2.58571 1
gene 1 62 4 5.59159 0 152 5.59159 1
gene 1 1 62 2.06688 0 173 2.06688 1
gene 2 2 62 -1.3638 0 251 -1.3638 0
gene 2 2 132 1.2453 0 380 1.2453 1
gene 2 132 62 -0.0880839 0 381 -0.0880839 1
gene 2 2 155 1 0 461 1 1
gene 2 155 132 1 0 462 1 1
genomeend 22

/* Species #11 : (Size 6) (AF 10.5148) (Age 36)  */


/* Organism #23 Fitness: 16 Error: 2.90227e-15 */
genomestart 23
trait 1 0.1 0.0540886 0.033849 0.0622569 0.0123676 0.0104437 0 0.0127597 
trait 2 0.143989 0.549203 0.396842 0.0101402 1 0 0.382566 0.394902 
trait 3 0.286753 0 0 0 0.144672 0 0.0464483 0.00501003 
node 1 3 1 3
node 2 3 1 1
node 3 3 1 1
node 4 2 0 2
node 23 1 0 0
node 62 1 0 0
gene 2 1 4 3.38731 0 1 3.38731 1
gene 3 2 4 -7.04107 0 2 -7.04107 1
gene 1 3 4 -4.2264 0 3 -4.2264 1
gene 3 2 23 -0.471439 0 40 -0.471439 1
gene 3 23 4 2.46467 0 41 2.46467 1
gene 1 1 23 -0.643785 0 78 -0.643785 1
gene 2 3 23 -0.300339 0 130 -0.300339 0
gene 2 3 62 -2.90322 0 139 -2.90322 1
gene 2 62 23 2.47212 0 140 2.47212 1
gene 2 62 4 8 0 152 8 1
gene 1 2 62 -4.04892 0 166 -4.04892 1
gene 3 1 62 5.63487 0 184 5.63487 1
genomeend 23

/* Organism #24 Fitness: 4.02473 Error: 1.99383 */
genomestart 24
trait 1 0.1 0.0540886 0.033849 0.0622569 0.0123676 0.0104437 0 0.0127597 
trait 2 0.143989 0.549203 0.396842 0.0101402 1 0 0.382566 0.394902 
trait 3 0.286753 0 0 0 0.144672 0 0.0464483 0.00501003 
node 1 3 1 3
node 2 3 1 1
node 3 3 1 1
node 4 2 0 2
node 23 1 0 0
node 62 1 0 0
gene 2 1 4 3.38731 0 1 3.38731 1
gene 3 2 4 -6.52468 0 2 -6.52468 1
gene 1 3 4 -4.2264 0 3 -4.2264 1
gene 3 2 23 -1.45473 0 40 -1.45473 1
gene 3 23 4 2.46467 0 41 2.46467 1
gene 1 1 23 -3.02281 0 78 -3.02281 1
gene 2 3 23 0.181702 0 130 0.181702 0
gene 2 3 62 -1.57286 0 139 -1.57286 1
gene 2 62 23 0.205361 0 140 0.205361 1
gene 2 62 4 -0.192851 0 152 -0.192851 1
gene 1 2 62 -4.91538 0 166 -4.91538 0
gene 3 1 62 5.33581 0 184 5.33581 1
genomeend 24

/* Organism #25 Fitness: 9.00002 Error: 0.999997 */
genomestart 25
trait 1 0.1 0.0540886 0.033849 0.0622569 0.0123676 0.0104437 0 0.0127597 
trait 2 0.143989 0.549203 0.396842 0.0101402 1 0 0.382566 0.394902 
trait 3 0.286753 0 0 0 0.144672 0 0.0464483 0.00501003 
node 1 3 1 3
node 2 3 1 1
node 3 3 1 1
node 4 2 0 2
node 23 1 0 0
node 62 1 0 0
gene 2 1 4 3.38731 0 1 3.38731 1
gene 3 2 4 -7.04107 0 2 -7.04107 1
gene 1 3 4 -4.2264 0 3 -4.2264 1
gene 3 2 23 -0.471439 0 40 -0.471439 1
gene 3 23 4 2.46467 0 41 2.46467 1
gene 1 1 23 -0.643785 0 78 -0.643785 1
gene 2 3 23 -0.300339 0 130 -0.300339 0
gene 2 3 62 -2.90322 0 139 -2.90322 1
gene 2 62 23 2.47212 0 140 2.47212 1
gene 2 62 4 8 0 152 8 1
gene 1 2 62 -4.04892 0 166 -4.04892 0
gene 3 1 62 5.63487 0 184 5.63487 1
genomeend 25

/* Organism #26 Fitness: 9.06402 Error: 0.989348 */
genomestart 26
trait 1 0.1 0.0540886 0.033849 0.0622569 0.0123676 0.0104437 0 0.0127597 
trait 2 0.143989 0.549203 0.396842 0.0101402 1 0 0.382566 0.394902 
trait 3 0.286753 0 0 0 0.144672 0 0.0464483 0.00501003 
node 1 3 1 3
node 2 3 1 1
node 3 3 1 1
node 4 2 0 2
node 23 1 0 0
node 62 1 0 0
gene 2 1 4 1.21411 0 1 1.21411 1
gene 3 2 4 -4.84295 0 2 -4.84295 1
gene 1 3 4 -5.14064 0 3 -5.14064 1
gene 3 2 23 -0.281728 0 40 -0.281728 1
gene 3 23 4 4.11845 0 41 4.11845 1
gene 1 1 23 -0.246061 0 78 -0.246061 1
gene 2 3 23 -2.52644 0 130 -2.52644 0
gene 2 3 62 -3.75933 0 139 -3.75933 1
gene 2 62 23 4.59899 0 140 4.59899 1
gene 2 62 4 8 0 152 8 1
gene 1 2 62 -1.86465 0 166 -1.86465 0
gene 3 1 62 3.92793 0 184 3.92793 1
genomeend 26

/* Organism #27 Fitness: 16 Error: 1.11479e-09 */
genomestart 27
trait 1 0.1 0.0540886 0.033849 0.0622569 0.0123676 0.0104437 0 0.0127597 
trait 2 0.143989 0.549203 0.396842 0.0101402 1 0 0.382566 0.394902 
trait 3 0.286753 0 0 0 0.144672 0 0.0464483 0.00501003 
node 1 3 1 3
node 2 3 1 1
node 3 3 1 1
node 4 2 0 2
node 23 1 0 0
node 62 1 0 0
gene 2 1 4 4.10358 0 1 4.10358 1
gene 3 2 4 -8 0 2 -8 1
gene 1 3 4 -2.57507 0 3 -2.57507 1
gene 3 2 23 -0.009582 0 40 -0.009582 1
gene 3 23 4 0.238225 0 41 0.238225 1
gene 1 1 23 -0.378987 0 78 -0.378987 1
gene 2 3 23 -1.26945 0 130 -1.26945 0
gene 2 3 62 -1.51157 0 139 -1.51157 1
gene 2 62 23 2.04622 0 140 2.04622 1
gene 2 62 4 8 0 152 8 1
gene 1 2 62 -4.83848 0 166 -4.83848 1
gene 3 1 62 5.63487 0 184 5.63487 1
genomeend 27

/* Organism #28 Fitness: 9.00001 Error: 0.999998 */
genomestart 28
trait 1 0.1 0.0540886 0 0.0622569 0.0123676 0.0104437 0.981194 0 
trait 2 0.143989 0.549203 0.396842 0.0101402 1 0 0.382566 0.394902 
trait 3 0.286753 0 0 0 0.144672 0 0.0464483 0.00501003 
node 1 3 1 3
node 2 3 1 1
node 3 3 1 1
node 4 2 0 2
node 23 1 0 0
node 62 1 0 0
gene 2 1 4 4.36281 0 1 4.36281 1
gene 3 2 4 -7.30595 0 2 -7.30595 1
gene 1 3 4 -3.24911 0 3 -3.24911 1
gene 3 2 23 -1.41843 0 40 -1.41843 1
gene 3 23 4 2.12521 0 41 2.12521 1
gene 1 1 23 1.00679 0 78 1.00679 1
gene 2 3 23 -0.535794 0 130 -0.535794 0
gene 2 3 62 -4.58113 0 139 -4.58113 1
gene 2 62 23 1.71899 0 140 1.71899 1
gene 2 62 4 8 0 152 8 1
gene 1 2 62 -4.04892 0 166 -4.04892 1
gene 3 1 62 -1.24928 0 184 -1.24928 1
genomeend 28

/* Species #12 : (Size 7) (AF 11.4888) (Age 32)  */


/* Organism #29 Fitness: 16 Error: 3.06165e-07 */
genomestart 29
trait 1 0.311131 0.0446231 0.167149 0 0.153012 0 0 0.0312623 
trait 2 1 0 0.0430417 0.00887263 0.0918419 0.856818 0 0.46423 
trait 3 0.290573 0 0.00143787 0 0.00360311 0.00287801 0.0334238 0.00360096 
node 1 1 1 3
node 2 3 1 1
node 3 3 1 1
node 4 1 0 2
node 23 3 0 0
node 79 1 0 0
node 84 1 0 0
gene 2 1 4 6.74785 0 1 6.74785 1
gene 3 2 4 -7.98427 0 2 -7.98427 1
gene 1 3 4 -8 0 3 -8 1
gene 3 2 23 8 0 40 8 1
gene 3 23 4 4.06109 0 41 4.06109 0
gene 2 3 23 1.26202 0 44 1.26202 1
gene 3 1 23 4.18475 0 106 4.18475 1
gene 3 23 79 -2.60477 0 200 -2.60477 1
gene 3 79 4 -2.53609 0 201 -2.53609 1
gene 3 23 84 2.92718 0 215 2.92718 1
gene 3 84 4 6.19069 0 216 6.19069 1
gene 2 3 84 2.55757 0 293 2.55757 1
gene 3 2 84 4.60469 0 318 4.60469 1
gene 1 84 79 0.37709 0 445 0.37709 1
gene 3 3 79 0.371411 0 475 0.371411 1
genomeend 29

/* Organism #30 Fitness: 13.9233 Error: 0.268609 */
genomestart 30
trait 1 0.311131 0.0446231 0.167149 0 0.153012 0 0 0.0312623 
trait 2 1 0 0.0430417 0.00887263 0.0918419 0.856818 0 0.46423 
trait 3 0.290573 0 0.00143787 0 0.00360311 0.00287801 0.0334238 0.00360096 
node 1 1 1 3
node 2 3 1 1
node 3 3 1 1
node 4 1 0 2
node 23 3 0 0
node 79 1 0 0
node 84 1 0 0
gene 2 1 4 4.00215 0 1 4.00215 1
gene 1 2 4 -6.27168 0 2 -6.27168 1
gene 1 3 4 -8 0 3 -8 1
gene 3 2 23 8 0 40 8 1
gene 3 23 4 -2.27718 0 41 -2.27718 0
gene 2 3 23 4.09762 0 44 4.09762 1
gene 3 1 23 -0.24665 0 106 -0.24665 1
gene 3 23 79 -3.28946 0 200 -3.28946 1
gene 3 79 4 -6.55452 0 201 -6.55452 1
gene 3 23 84 -0.266355 0 215 -0.266355 1
gene 3 84 4 7.61756 0 216 7.61756 1
gene 2 3 84 3.99244 0 293 3.99244 1
gene 3 2 84 0.117595 0 318 0.117595 1
gene 1 84 79 0.108081 0 445 0.108081 1
gene 3 3 79 -1.29375 0 475 -1.29375 1
genomeend 30

/* Organism #31 Fitness: 15.9952 Error: 0.000595383 */
genomestart 31
trait 1 0.311131 0.0446231 0.167149 0 0.153012 0 0 0.0312623 
trait 2 1 0 0.0430417 0.00887263 0.0918419 0.856818 0 0.46423 
trait 3 0.290573 0 0.00143787 0 0.00360311 0.00287801 0.0334238 0.00360096 
node 1 1 1 3
node 2 3 1 1
node 3 3 1 1
node 4 1 0 2
node 23 3 0 0
node 79 1 0 0
node 84 1 0 0
gene 2 1 4 7.89567 0 1 7.89567 1
gene 1 2 4 -8 0 2 -8 1
gene 1 3 4 -8 0 3 -8 1
gene 3 2 23 8 0 40 8 1
gene 3 23 4 2.03072 0 41 2.03072 0
gene 2 3 23 1.46957 0 44 1.46957 1
gene 3 1 23 5.00343 0 106 5.00343 1
gene 3 23 79 -1.67466 0 200 -1.67466 1
gene 3 79 4 -1.40491 0 201 -1.40491 1
gene 3 23 84 4.20281 0 215 4.20281 1
gene 3 84 4 8 0 216 8 1
gene 2 3 84 0.632093 0 293 0.632093 1
gene 3 2 84 3.72907 0 318 3.72907 1
gene 1 84 79 1.19066 0 445 1.19066 1
gene 3 3 79 1.90901 0 475 1.90901 1
genomeend 31

/* Organism #32 Fitness: 3.96956 Error: 2.00763 */
genomestart 32
trait 1 0.311131 0.0446231 0.167149 0 0.153012 0 0 0.0312623 
trait 2 1 0 0.0430417 0.00887263 0.0918419 0.856818 0 0.46423 
trait 3 0.290573 0 0.00143787 0 0.00360311 0.00287801 0.0334238 0.00360096 
node 1 1 1 3
node 2 3 1 1
node 3 3 1 1
node 4 1 0 2
node 23 3 0 0
node 79 1 0 0
node 84 1 0 0
gene 2 1 4 4.2499 0 1 4.2499 1
gene 1 2 4 -6.72983 0 2 -6.72983 1
gene 1 3 4 -8 0 3 -8 1
gene 3 2 23 6.33868 0 40 6.33868 1
gene 3 23 4 4.13339 0 41 4.13339 0
gene 2 3 23 0.0382653 0 44 0.0382653 1
gene 3 1 23 -0.653907 0 106 -0.653907 1
gene 3 23 79 -2.3014 0 200 -2.3014 1
gene 3 79 4 -6.16171 0 201 -6.16171 1
gene 3 23 84 -0.417168 0 215 -0.417168 1
gene 3 84 4 5.99403 0 216 5.99403 1
gene 2 3 84 3.40934 0 293 3.40934 1
gene 3 2 84 -0.154872 0 318 -0.154872 1
gene 1 84 79 2.58506 0 445 2.58506 1
gene 3 3 79 0.203393 0 475 0.203393 1
genomeend 32

/* Organism #33 Fitness: 4.00057 Error: 1.99986 */
genomestart 33
trait 1 0.311131 0.0446231 0.167149 0 0.153012 0 0 0.0312623 
trait 2 1 0 0.0430417 0.00887263 0.0918419 0.856818 0 0.46423 
trait 3 0.290573 0 0.00143787 0 0.00360311 0.00287801 0.0334238 0.00360096 
node 1 1 1 3
node 2 3 1 1
node 3 3 1 1
node 4 1 0 2
node 23 3 0 0
node 79 1 0 0
node 84 1 0 0
gene 2 1 4 0.977206 0 1 0.977206 1
gene 3 2 4 -7.77683 0 2 -7.77683 1
gene 1 3 4 -8 0 3 -8 1
gene 3 2 23 7.90531 0 40 7.90531 1
gene 3 23 4 3.70803 0 41 3.70803 0
gene 2 3 23 2.9194 0 44 2.9194 1
gene 3 1 23 4.18475 0 106 4.18475 1
gene 3 23 79 -3.8732 0 200 -3.8732 1
gene 3 79 4 -2.53609 0 201 -2.53609 1
gene 3 23 84 4.31815 0 215 4.31815 1
gene 3 84 4 4.94101 0 216 4.94101 1
gene 2 3 84 0.325766 0 293 0.325766 1
gene 3 2 84 5.36387 0 318 5.36387 1
gene 1 84 79 -0.687979 0 445 -0.687979 1
gene 3 3 79 0.371411 0 475 0.371411 1
genomeend 33

/* Organism #34 Fitness: 16 Error: 1.95942e-08 */
genomestart 34
trait 1 0.311131 0.0446231 0.167149 0 0.153012 0 0 0.0312623 
trait 2 1 0 0.0430417 0.00887263 0.0918419 0.856818 0 0.46423 
trait 3 0.290573 0 0.00143787 0 0.00360311 0.00287801 0.0334238 0.00360096 
node 1 1 1 3
node 2 3 1 1
node 3 3 1 1
node 4 1 0 2
node 23 3 0 0
node 79 1 0 0
node 84 1 0 0
gene 2 1 4 6.74785 0 1 6.74785 1
gene 1 2 4 -8 0 2 -8 1
gene 1 3 4 -8 0 3 -8 1
gene 3 2 23 8 0 40 8 1
gene 3 23 4 4.6207 0 41 4.6207 0
gene 2 3 23 2.14613 0 44 2.14613 1
gene 3 1 23 4.18475 0 106 4.18475 1
gene 3 23 79 -1.6456 0 200 -1.6456 1
gene 3 79 4 -2.53609 0 201 -2.53609 1
gene 3 23 84 2.69193 0 215 2.69193 1
gene 3 84 4 6.19069 0 216 6.19069 1
gene 2 3 84 2.55757 0 293 2.55757 1
gene 3 2 84 4.33509 0 318 4.33509 1
gene 1 84 79 0.37709 0 445 0.37709 1
gene 3 3 79 0.371411 0 475 0.371411 1
gene 3 1 79 0.635166 0 560 0.635166 1
genomeend 34

/* Organism #35 Fitness: 10.5332 Error: 0.754515 */
genomestart 35
trait 1 0.311131 0.0446231 0.167149 0 0.153012 0 0 0.0312623 
trait 2 1 0 0.0430417 0.00887263 0.0918419 0.856818 0 0.46423 
trait 3 0.290573 0 0.00143787 0 0.00360311 0.00287801 0.0334238 0.00360096 
node 1 1 1 3
node 2 3 1 1
node 3 3 1 1
node 4 1 0 2
node 23 3 0 0
node 79 1 0 0
node 84 1 0 0
gene 2 1 4 8 0 1 8 1
gene 1 2 4 -8 0 2 -8 1
gene 1 3 4 -7.81774 0 3 -7.81774 1
gene 3 2 23 6.60255 0 40 6.60255 1
gene 3 23 4 4.93768 0 41 4.93768 0
gene 2 3 23 4.11422 0 44 4.11422 1
gene 3 1 23 3.61663 0 106 3.61663 1
gene 3 23 79 -1.316 0 200 -1.316 1
gene 3 79 4 -7.05495 0 201 -7.05495 1
gene 3 23 84 2.37823 0 215 2.37823 1
gene 3 84 4 6.40508 0 216 6.40508 1
gene 2 3 84 4.41294 0 293 4.41294 1
gene 3 2 84 4.9385 0 318 4.9385 1
gene 1 84 79 1.53079 0 445 1.53079 1
gene 3 3 79 0.462112 0 475 0.462112 1
genomeend 35

/* Species #14 : (Size 10) (AF 13.1719) (Age 32)  */


/* Organism #36 Fitness: 16 Error: 4.89818e-09 */
genomestart 36
trait 1 0.1 0.0576945 0 0 0 0 0 0.0136104 
trait 2 0.2 0 0.0399766 0.0107079 0.314222 0 0 0.0346538 
trait 3 0.263249 0 0.023181 0 0.281361 0 0.0426411 0.00501003 
node 1 3 1 3
node 2 3 1 1
node 3 3 1 1
node 4 1 0 2
node 23 1 0 0
node 55 1 0 0
node 87 1 0 0
node 145 1 0 0
gene 2 1 4 7.93369 0 1 7.93369 1
gene 3 2 4 -7.50163 0 2 -7.50163 1
gene 1 3 4 -8 0 3 -8 1
gene 3 2 23 -4.12549 0 40 -4.12549 1
gene 3 23 4 -7.23702 0 41 -7.23702 1
gene 1 3 23 -1.82937 0 44 -1.82937 1
gene 1 3 55 -0.151332 0 117 -0.151332 1
gene 1 55 4 4.74857 0 118 4.74857 1
gene 2 1 55 0.11006 0 143 0.11006 1
gene 3 2 55 -0.731466 0 208 -0.731466 1
gene 2 3 87 1.23692 0 224 1.23692 1
gene 2 87 23 -3.3504 0 225 -3.3504 1
gene 1 55 87 2.18123 0 319 2.18123 1
gene 3 87 4 2.56931 0 326 2.56931 1
gene 1 55 145 -0.642928 0 427 -0.642928 1
gene 1 145 4 2.53119 0 428 2.53119 1
gene 2 1 87 1.65277 0 438 1.65277 1
gene 1 87 145 -0.14003 0 502 -0.14003 1
genomeend 36

/* Organism #37 Fitness: 16 Error: 3.61518e-06 */
genomestart 37
trait 1 0.1 0.0576945 0 0 0 0 0 0.0136104 
trait 2 0.2 0 0.0399766 0.0107079 0.314222 0 0 0.0346538 
trait 3 0.263249 0 0.023181 0 0.281361 0 0.0426411 0.00501003 
node 1 3 1 3
node 2 3 1 1
node 3 3 1 1
node 4 1 0 2
node 23 1 0 0
node 55 1 0 0
node 87 1 0 0
node 145 1 0 0
gene 2 1 4 8 0 1 8 1
gene 3 2 4 -6.68225 0 2 -6.68225 1
gene 1 3 4 -7.78031 0 3 -7.78031 1
gene 3 2 23 -6.30667 0 40 -6.30667 1
gene 3 23 4 -8 0 41 -8 1
gene 1 3 23 -4.25453 0 44 -4.25453 1
gene 1 3 55 1.46922 0 117 1.46922 1
gene 1 55 4 2.30706 0 118 2.30706 1
gene 2 1 55 0.314784 0 143 0.314784 1
gene 3 2 55 -0.0535898 0 208 -0.0535898 1
gene 2 3 87 -1.10813 0 224 -1.10813 1
gene 2 87 23 -3.01697 0 225 -3.01697 1
gene 1 55 87 1.87876 0 319 1.87876 1
gene 3 87 4 0.255456 0 326 0.255456 1
gene 1 55 145 -2.58194 0 427 -2.58194 1
gene 1 145 4 1.88052 0 428 1.88052 1
gene 2 1 87 -1.2417 0 438 -1.2417 1
gene 1 87 145 -2.54058 0 502 -2.54058 1
genomeend 37

/* Organism #38 Fitness: 8.99974 Error: 1.00004 */
genomestart 38
trait 1 0.1 0.0576945 0 0 0 0 0 0.0136104 
trait 2 0.2 0 0.0399766 0.0107079 0.314222 0 0 0.0346538 
trait 3 0.263249 0 0.023181 0 0.281361 0 0.0426411 0.00501003 
node 1 3 1 3
node 2 3 1 1
node 3 3 1 1
node 4 1 0 2
node 23 1 0 0
node 55 1 0 0
node 87 1 0 0
node 145 1 0 0
gene 2 1 4 0.1782 0 1 0.1782 1
gene 3 2 4 -8 0 2 -8 1
gene 1 3 4 -0.54725 0 3 -0.54725 1
gene 3 2 23 -3.38297 0 40 -3.38297 1
gene 3 23 4 -8 0 41 -8 1
gene 1 3 23 -2.31561 0 44 -2.31561 1
gene 1 3 55 2.05653 0 117 2.05653 1
gene 1 55 4 2.54234 0 118 2.54234 1
gene 2 1 55 0.796144 0 143 0.796144 1
gene 3 2 55 -0.731466 0 208 -0.731466 1
gene 2 3 87 -0.515081 0 224 -0.515081 1
gene 2 87 23 -2.05329 0 225 -2.05329 1
gene 1 55 87 0.830203 0 319 0.830203 1
gene 3 87 4 4.57059 0 326 4.57059 1
gene 1 55 145 -0.255134 0 427 -0.255134 1
gene 1 145 4 0.419869 0 428 0.419869 1
gene 2 1 87 0.0419062 0 438 0.0419062 1
gene 1 87 145 -0.906988 0 502 -0.906988 1
genomeend 38

/* Organism #39 Fitness: 9.01055 Error: 0.998243 */
genomestart 39
trait 1 0.1 0.0576945 0 0 0 0 0 0.0136104 
trait 2 0.2 0 0.0399766 0.0107079 0.314222 0 0 0.0346538 
trait 3 0.263249 0 0.023181 0 0.281361 0 0.0426411 0.00501003 
node 1 3 1 3
node 2 3 1 1
node 3 3 1 1
node 4 1 0 2
node 23 1 0 0
node 55 1 0 0
node 87 1 0 0
node 145 1 0 0
gene 2 1 4 7.93369 0 1 7.93369 1
gene 3 2 4 -7.44108 0 2 -7.44108 1
gene 1 3 4 -5.95092 0 3 -5.95092 1
gene 3 2 23 -4.51414 0 40 -4.51414 1
gene 3 23 4 -0.729483 0 41 -0.729483 1
gene 1 3 23 -3.28748 0 44 -3.28748 1
gene 1 3 55 -1.79807 0 117 -1.79807 1
gene 1 55 4 3.49969 0 118 3.49969 1
gene 2 1 55 0.11006 0 143 0.11006 1
gene 3 2 55 -0.725738 0 208 -0.725738 1
gene 2 3 87 1.45615 0 224 1.45615 1
gene 2 87 23 -0.994187 0 225 -0.994187 1
gene 1 55 87 4.18509 0 319 4.18509 1
gene 3 87 4 3.12513 0 326 3.12513 1
gene 1 55 145 -3.12942 0 427 -3.12942 1
gene 1 145 4 3.76198 0 428 3.76198 1
gene 2 1 87 1.65277 0 438 1.65277 1
gene 1 87 145 0.659327 0 502 0.659327 1
genomeend 39

/* Organism #40 Fitness: 16 Error: 1.94729e-06 */
genomestart 40
trait 1 0.1 0 0 0.387451 0 0 0 0 
trait 2 0.2 0 0.0399766 0.0107079 0.314222 0 0 0.0346538 
trait 3 0.263249 0 0.023181 0 0.281361 0 0.0426411 0.00501003 
node 1 3 1 3
node 2 3 1 1
node 3 3 1 1
node 4 1 0 2
node 23 1 0 0
node 55 1 0 0
node 87 1 0 0
node 145 1 0 0
gene 2 1 4 2.25403 0 1 2.25403 1
gene 3 2 4 -0.202109 0 2 -0.202109 1
gene 1 3 4 -7.13058 0 3 -7.13058 1
gene 3 2 23 -5.51844 0 40 -5.51844 1
gene 3 23 4 -1.42032 0 41 -1.42032 1
gene 1 3 23 -1.82937 0 44 -1.82937 1
gene 1 3 55 -0.0781289 0 117 -0.0781289 1
gene 1 55 4 6.62225 0 118 6.62225 1
gene 2 1 55 1.16214 0 143 1.16214 1
gene 3 2 55 -1.76129 0 208 -1.76129 1
gene 2 3 87 3.34163 0 224 3.34163 1
gene 2 87 23 -3.7824 0 225 -3.7824 1
gene 1 55 87 0.889126 0 319 0.889126 1
gene 3 87 4 0.0804148 0 326 0.0804148 1
gene 1 55 145 -0.642928 0 427 -0.642928 1
gene 1 145 4 2.10093 0 428 2.10093 1
gene 2 1 87 0.0267546 0 438 0.0267546 1
gene 1 87 145 1.53513 0 502 1.53513 1
genomeend 40

/* Organism #41 Fitness: 16 Error: 4.89818e-09 */
genomestart 41
trait 1 0.1 0.0576945 0 0 0 0 0 0.0136104 
trait 2 0.2 0 0.0399766 0.0107079 0.314222 0 0 0.0346538 
trait 3 0.263249 0 0.023181 0 0.281361 0 0.0426411 0.00501003 
node 1 3 1 3
node 2 3 1 1
node 3 3 1 1
node 4 1 0 2
node 23 1 0 0
node 55 1 0 0
node 87 1 0 0
node 145 1 0 0
gene 2 1 4 7.93369 0 1 7.93369 1
gene 3 2 4 -7.50163 0 2 -7.50163 1
gene 1 3 4 -8 0 3 -8 1
gene 3 2 23 -4.12549 0 40 -4.12549 1
gene 3 23 4 -7.23702 0 41 -7.23702 1
gene 1 3 23 -1.82937 0 44 -1.82937 1
gene 1 3 55 -0.151332 0 117 -0.151332 1
gene 1 55 4 4.74857 0 118 4.74857 1
gene 2 1 55 0.11006 0 143 0.11006 1
gene 3 2 55 -0.731466 0 208 -0.731466 1
gene 2 3 87 1.23692 0 224 1.23692 1
gene 2 87 23 -3.3504 0 225 -3.3504 1
gene 1 55 87 2.18123 0 319 2.18123 1
gene 3 87 4 2.56931 0 326 2.56931 1
gene 1 55 145 -0.642928 0 427 -0.642928 1
gene 1 145 4 2.53119 0 428 2.53119 1
gene 2 1 87 1.65277 0 438 1.65277 1
gene 1 87 145 -0.14003 0 502 -0.14003 1
genomeend 41

/* Organism #42 Fitness: 16 Error: 4.89818e-09 */
genomestart 42
trait 1 0.1 0.0576945 0 0 0 0 0 0.0136104 
trait 2 0.2 0 0.0399766 0.0107079 0.314222 0 0 0.0346538 
trait 3 0.263249 0 0.023181 0 0.281361 0 0.0426411 0.00501003 
node 1 3 1 3
node 2 3 1 1
node 3 3 1 1
node 4 1 0 2
node 23 1 0 0
node 55 1 0 0
node 87 1 0 0
node 145 1 0 0
gene 2 1 4 7.93369 0 1 7.93369 1
gene 3 2 4 -7.50163 0 2 -7.50163 1
gene 1 3 4 -8 0 3 -8 1
gene 3 2 23 -4.12549 0 40 -4.12549 1
gene 3 23 4 -7.23702 0 41 -7.23702 1
gene 1 3 23 -1.82937 0 44 -1.82937 1
gene 1 3 55 -0.151332 0 117 -0.151332 1
gene 1 55 4 4.74857 0 118 4.74857 1
gene 2 1 55 0.11006 0 143 0.11006 1
gene 3 2 55 -0.731466 0 208 -0.731466 1
gene 2 3 87 1.23692 0 224 1.23692 1
gene 2 87 23 -3.3504 0 225 -3.3504 1
gene 1 55 87 2.18123 0 319 2.18123 1
gene 3 87 4 2.56931 0 326 2.56931 1
gene 1 55 145 -0.642928 0 427 -0.642928 1
gene 1 145 4 2.53119 0 428 2.53119 1
gene 2 1 87 1.65277 0 438 1.65277 1
gene 1 87 145 -0.14003 0 502 -0.14003 1
genomeend 42

/* Organism #43 Fitness: 15.9113 Error: 0.0111008 */
genomestart 43
trait 1 0.1 0.0576945 0 0 0 0 0 0.0136104 
trait 2 0.2 0 0.0399766 0.0107079 0.314222 0 0 0.0346538 
trait 3 0.263249 0 0.023181 0 0.281361 0 0.0426411 0.00501003 
node 1 3 1 3
node 2 3 1 1
node 3 3 1 1
node 4 1 0 2
node 23 1 0 0
node 55 1 0 0
node 87 1 0 0
node 145 1 0 0
gene 2 1 4 7.07087 0 1 7.07087 1
gene 3 2 4 -5.64484 0 2 -5.64484 1
gene 1 3 4 -8 0 3 -8 1
gene 3 2 23 -6.0615 0 40 -6.0615 1
gene 3 23 4 -7.55995 0 41 -7.55995 1
gene 1 3 23 -2.74336 0 44 -2.74336 1
gene 1 3 55 -0.771812 0 117 -0.771812 1
gene 1 55 4 6.48668 0 118 6.48668 1
gene 2 1 55 -1.18059 0 143 -1.18059 1
gene 3 2 55 -1.46004 0 208 -1.46004 1
gene 2 3 87 2.25447 0 224 2.25447 1
gene 3 87 23 -4.60549 0 225 -4.60549 1
gene 1 55 87 0.145425 0 319 0.145425 1
gene 3 87 4 4.58282 0 326 4.58282 1
gene 1 55 145 -0.0340922 0 427 -0.0340922 1
gene 1 145 4 3.23051 0 428 3.23051 1
gene 2 1 87 3.64275 0 438 3.64275 1
gene 1 87 145 -0.14003 0 502 -0.14003 1
gene 2 1 23 0.582311 0 552 0.582311 1
genomeend 43

/* Organism #44 Fitness: 9.00777 Error: 0.998705 */
genomestart 44
trait 1 0.1 0.0576945 0 0 0 0 0 0.0136104 
trait 2 0.2 0 0.0399766 0.0107079 0.314222 0 0 0.0346538 
trait 3 0.263249 0 0.023181 0 0.281361 0 0.0426411 0.00501003 
node 1 3 1 3
node 2 3 1 1
node 3 3 1 1
node 4 1 0 2
node 23 1 0 0
node 55 1 0 0
node 87 1 0 0
node 145 1 0 0
gene 2 1 4 7.61666 0 1 7.61666 1
gene 3 2 4 -6.16161 0 2 -6.16161 1
gene 1 3 4 -5.8268 0 3 -5.8268 1
gene 3 2 23 -4.18959 0 40 -4.18959 1
gene 3 23 4 -8 0 41 -8 1
gene 1 3 23 -3.44607 0 44 -3.44607 1
gene 1 3 55 2.2887 0 117 2.2887 1
gene 1 55 4 5.51737 0 118 5.51737 1
gene 2 1 55 2.41669 0 143 2.41669 1
gene 3 2 55 0.787762 0 208 0.787762 1
gene 2 3 87 2.24213 0 224 2.24213 1
gene 3 87 23 -1.96834 0 225 -1.96834 1
gene 1 55 87 3.87751 0 319 3.87751 1
gene 3 87 4 0.204497 0 326 0.204497 1
gene 1 55 145 -0.69944 0 427 -0.69944 1
gene 1 145 4 1.13914 0 428 1.13914 1
gene 2 1 87 2.85145 0 438 2.85145 1
gene 1 87 145 -2.34533 0 502 -2.34533 1
gene 2 1 23 1.20835 0 552 1.20835 1
genomeend 44

/* Organism #45 Fitness: 8.78921 Error: 1.03534 */
genomestart 45
trait 1 0.1 0.0576945 0 0 0 0 0 0.0136104 
trait 2 0.2 0 0.0399766 0.0107079 0.314222 0 0 0.0346538 
trait 3 0.263249 0 0.023181 0 0.281361 0 0.0426411 0.00501003 
node 1 3 1 3
node 2 3 1 1
node 3 3 1 1
node 4 1 0 2
node 23 1 0 0
node 55 1 0 0
node 87 1 0 0
node 145 1 0 0
gene 2 1 4 7.93369 0 1 7.93369 1
gene 3 2 4 -7.50163 0 2 -7.50163 1
gene 1 3 4 -8 0 3 -8 1
gene 3 2 23 0.638532 0 40 0.638532 1
gene 3 23 4 -8 0 41 -8 1
gene 1 3 23 -1.08093 0 44 -1.08093 1
gene 1 3 55 -0.406753 0 117 -0.406753 1
gene 1 55 4 4.35034 0 118 4.35034 1
gene 2 1 55 -1.00895 0 143 -1.00895 1
gene 3 2 55 -1.76755 0 208 -1.76755 1
gene 2 3 87 3.00306 0 224 3.00306 1
gene 3 87 23 -5.22157 0 225 -5.22157 1
gene 1 55 87 0.786971 0 319 0.786971 1
gene 3 87 4 4.87872 0 326 4.87872 1
gene 1 55 145 1.28031 0 427 1.28031 1
gene 1 145 4 1.38239 0 428 1.38239 1
gene 2 1 87 -1.37287 0 438 -1.37287 1
gene 1 87 145 1.46995 0 502 1.46995 1
gene 2 1 23 1.6528 0 552 1.6528 1
genomeend 45

/* Species #15 : (Size 8) (AF 15.9996) (Age 31)  */


/* Organism #46 Fitness: 16 Error: 1.13005e-09 */
genomestart 46
trait 1 0.1 0.0576945 0 0 0 0 0 0.0136104 
trait 2 0.593919 0 0.0821528 0.0202803 0.593712 0 0 0.277109 
trait 3 0.263249 0 0.023181 0 0.281361 0 0.0426411 0.00501003 
node 1 3 1 3
node 2 3 1 1
node 3 3 1 1
node 4 1 0 2
node 23 1 0 0
node 55 1 0 0
node 81 1 0 0
node 126 1 0 0
gene 2 1 4 8 0 1 8 1
gene 3 2 4 -8 0 2 -8 1
gene 1 3 4 -7.36631 0 3 -7.36631 1
gene 3 2 23 -1.77683 0 40 -1.77683 1
gene 3 23 4 4.39322 0 41 4.39322 1
gene 2 3 23 -7.36507 0 44 -7.36507 0
gene 1 3 55 3.14275 0 117 3.14275 1
gene 2 55 4 -0.342303 0 118 -0.342303 1
gene 2 1 55 0.041774 0 143 0.041774 1
gene 2 3 81 2.4092 0 206 2.4092 0
gene 2 81 23 3.46381 0 207 3.46381 1
gene 3 1 81 0.0235323 0 226 0.0235323 1
gene 2 3 126 -1.41029 0 356 -1.41029 1
gene 2 126 81 2.20947 0 357 2.20947 1
genomeend 46

/* Organism #47 Fitness: 16 Error: 1.13005e-09 */
genomestart 47
trait 1 0.1 0.0576945 0 0 0 0 0 0.0136104 
trait 2 0.593919 0 0.0821528 0.0202803 0.593712 0 0 0.277109 
trait 3 0.263249 0 0.023181 0 0.281361 0 0.0426411 0.00501003 
node 1 3 1 3
node 2 3 1 1
node 3 3 1 1
node 4 1 0 2
node 23 1 0 0
node 55 1 0 0
node 81 1 0 0
node 126 1 0 0
gene 2 1 4 8 0 1 8 1
gene 3 2 4 -8 0 2 -8 1
gene 1 3 4 -7.36631 0 3 -7.36631 1
gene 3 2 23 -1.77683 0 40 -1.77683 1
gene 3 23 4 4.39322 0 41 4.39322 1
gene 2 3 23 -7.36507 0 44 -7.36507 0
gene 1 3 55 3.14275 0 117 3.14275 1
gene 2 55 4 -0.342303 0 118 -0.342303 1
gene 2 1 55 0.041774 0 143 0.041774 1
gene 2 3 81 2.4092 0 206 2.4092 0
gene 2 81 23 3.46381 0 207 3.46381 1
gene 3 1 81 0.0235323 0 226 0.0235323 1
gene 2 3 126 -1.41029 0 356 -1.41029 1
gene 2 126 81 2.20947 0 357 2.20947 1
genomeend 47

/* Organism #48 Fitness: 16 Error: 7.51351e-08 */
genomestart 48
trait 1 0.1 0.0576945 0 0 0 0 0 0.0136104 
trait 2 0.593919 0 0.0821528 0.0202803 0.593712 0 0 0.277109 
trait 3 0.263249 0 0.023181 0 0.281361 0 0.0426411 0.00501003 
node 1 3 1 3
node 2 3 1 1
node 3 3 1 1
node 4 1 0 2
node 23 1 0 0
node 55 1 0 0
node 81 1 0 0
node 126 1 0 0
gene 2 1 4 7.86786 0 1 7.86786 1
gene 3 2 4 -8 0 2 -8 1
gene 1 3 4 -7.61261 0 3 -7.61261 1
gene 3 2 23 -2.92136 0 40 -2.92136 1
gene 3 23 4 4.34849 0 41 4.34849 1
gene 2 3 23 -8 0 44 -8 0
gene 1 3 55 0.822722 0 117 0.822722 1
gene 2 55 4 0.0900236 0 118 0.0900236 1
gene 2 1 55 0.820371 0 143 0.820371 1
gene 2 3 81 2.35011 0 206 2.35011 0
gene 2 81 23 3.95081 0 207 3.95081 1
gene 3 1 81 1.41419 0 226 1.41419 1
gene 2 3 126 1.43539 0 356 1.43539 1
gene 2 126 81 2.9138 0 357 2.9138 1
genomeend 48

/* Organism #49 Fitness: 16 Error: 2.23009e-06 */
genomestart 49
trait 1 0.1 0.0576945 0 0 0 0 0 0.0136104 
trait 2 0.593919 0 0.0821528 0.0202803 0.593712 0 0 0.277109 
trait 3 0.263249 0 0.023181 0 0 0 0.0426411 0 
node 1 3 1 3
node 2 3 1 1
node 3 3 1 1
node 4 1 0 2
node 23 1 0 0
node 55 1 0 0
node 81 1 0 0
node 126 1 0 0
gene 2 1 4 6.06923 0 1 6.06923 1
gene 3 2 4 -5.59921 0 2 -5.59921 1
gene 1 3 4 -6.82012 0 3 -6.82012 1
gene 3 2 23 -1.42256 0 40 -1.42256 1
gene 3 23 4 6.2944 0 41 6.2944 1
gene 2 3 23 -8 0 44 -8 0
gene 1 3 55 5.53648 0 117 5.53648 1
gene 2 55 4 -2.82524 0 118 -2.82524 1
gene 2 1 55 0.782405 0 143 0.782405 1
gene 2 3 81 2.99659 0 206 2.99659 0
gene 2 81 23 4.65984 0 207 4.65984 1
gene 3 1 81 1.10089 0 226 1.10089 1
gene 2 3 126 -0.931744 0 356 -0.931744 1
gene 2 126 81 0.737478 0 357 0.737478 1
genomeend 49

/* Organism #50 Fitness: 15.9999 Error: 8.00291e-06 */
genomestart 50
trait 1 0.1 0.0576945 0 0 0 0 0 0.0136104 
trait 2 0.593919 0 0.0821528 0.0202803 0.593712 0 0 0.277109 
trait 3 0.263249 0 0.023181 0 0.281361 0 0.0426411 0.00501003 
node 1 3 1 3
node 2 3 1 1
node 3 3 1 1
node 4 1 0 2
node 23 1 0 0
node 55 1 0 0
node 81 1 0 0
node 126 1 0 0
node 184 2 0 0
gene 2 1 4 6.38384 0 1 6.38384 1
gene 3 2 4 -7.30825 0 2 -7.30825 1
gene 1 3 4 -7.19473 0 3 -7.19473 1
gene 3 2 23 -2.89242 0 40 -2.89242 1
gene 3 23 4 6.57655 0 41 6.57655 1
gene 2 3 23 -8 0 44 -8 0
gene 1 3 55 5.24856 0 117 5.24856 1
gene 2 55 4 -0.840568 0 118 -0.840568 1
gene 2 1 55 -2.43191 0 143 -2.43191 1
gene 2 3 81 1.11157 0 206 1.11157 0
gene 2 81 23 5.19115 0 207 5.19115 1
gene 3 1 81 1.29024 0 226 1.29024 1
gene 2 3 126 0.423494 0 356 0.423494 0
gene 1 126 81 3.13546 0 357 3.13546 1
gene 2 3 184 -0.530654 0 555 -0.530654 1
gene 2 184 126 -1.41029 0 556 -1.41029 1
genomeend 50

/* Organism #51 Fitness: 15.9982 Error: 0.000230529 */
genomestart 51
trait 1 0.1 0.0576945 0 0 0 0 0 0.0136104 
trait 2 0.593919 0 0.0821528 0.0202803 0.593712 0 0 0.277109 
trait 3 0.263249 0 0.023181 0 0.281361 0 0.0426411 0.00501003 
node 1 3 1 3
node 2 3 1 1
node 3 3 1 1
node 4 1 0 2
node 23 1 0 0
node 55 1 0 0
node 81 1 0 0
node 126 1 0 0
gene 2 1 4 7.58049 0 1 7.58049 1
gene 3 2 4 -5.94182 0 2 -5.94182 1
gene 1 3 4 -5.13685 0 3 -5.13685 1
gene 3 2 23 -2.37131 0 40 -2.37131 1
gene 3 23 4 5.49757 0 41 5.49757 1
gene 2 3 23 -8 0 44 -8 0
gene 1 3 55 3.63353 0 117 3.63353 1
gene 2 55 4 1.03494 0 118 1.03494 1
gene 2 1 55 -0.629473 0 143 -0.629473 1
gene 2 3 81 0.11963 0 206 0.11963 0
gene 2 81 23 1.25855 0 207 1.25855 1
gene 3 1 81 1.37943 0 226 1.37943 1
gene 2 3 126 1.04997 0 356 1.04997 1
gene 2 126 81 2.47937 0 357 2.47937 1
genomeend 51

/* Organism #52 Fitness: 15.9999 Error: 1.17522e-05 */
genomestart 52
trait 1 0.1 0.0576945 0 0 0 0 0 0.0136104 
trait 2 0.593919 0 0.0821528 0.0202803 0.593712 0 0 0.277109 
trait 3 0.263249 0 0.023181 0 0.281361 0 0.0426411 0.00501003 
node 1 3 1 3
node 2 3 1 1
node 3 3 1 1
node 4 1 0 2
node 23 1 0 0
node 55 1 0 0
node 81 1 0 0
node 126 1 0 0
gene 2 1 4 8 0 1 8 1
gene 3 2 4 -8 0 2 -8 1
gene 1 3 4 -7.36631 0 3 -7.36631 1
gene 3 2 23 -1.77683 0 40 -1.77683 1
gene 3 23 4 4.39322 0 41 4.39322 1
gene 2 3 23 -7.36507 0 44 -7.36507 0
gene 1 3 55 3.14275 0 117 3.14275 1
gene 2 55 4 -0.342303 0 118 -0.342303 1
gene 2 1 55 0.041774 0 143 0.041774 1
gene 2 3 81 2.4092 0 206 2.4092 0
gene 2 81 23 3.46381 0 207 3.46381 1
gene 3 1 81 0.0235323 0 226 0.0235323 1
gene 2 3 126 -1.41029 0 356 -1.41029 0
gene 2 126 81 2.20947 0 357 2.20947 1
genomeend 52

/* Organism #53 Fitness: 15.9988 Error: 0.000151286 */
genomestart 53
trait 1 0.1 0.0576945 0 0 0 0 0 0.0136104 
trait 2 0.593919 0 0.0821528 0.0202803 0.593712 0 0 0.277109 
trait 3 0.263249 0 0.023181 0 0.281361 0 0.0426411 0.00501003 
node 1 3 1 3
node 2 3 1 1
node 3 2 1 1
node 4 1 0 2
node 23 1 0 0
node 55 1 0 0
node 81 1 0 0
node 126 1 0 0
gene 2 1 4 8 0 1 8 1
gene 3 2 4 -6.2319 0 2 -6.2319 1
gene 1 3 4 -8 0 3 -8 1
gene 3 2 23 -4.14442 0 40 -4.14442 1
gene 3 23 4 2.99473 0 41 2.99473 1
gene 2 3 23 -7.69377 0 44 -7.69377 0
gene 1 3 55 2.55202 0 117 2.55202 1
gene 2 55 4 -0.0423501 0 118 -0.0423501 1
gene 2 1 55 0.289984 0 143 0.289984 1
gene 2 3 81 -0.0671347 0 206 -0.0671347 0
gene 2 81 23 3.33416 0 207 3.33416 1
gene 3 1 81 0.201412 0 226 0.201412 1
gene 2 3 126 0.166083 0 356 0.166083 1
gene 2 126 81 2.20947 0 357 2.20947 1
genomeend 53

/* Species #16 : (Size 6) (AF 14.1435) (Age 30)  */


/* Organism #54 Fitness: 16 Error: 1.47404e-07 */
genomestart 54
trait 1 0.1 0.0576945 0.110738 0 0 0 0 0.428254 
trait 2 0.2 0 0.0210098 0.0202803 0.0336948 0.132647 0 0.0346538 
trait 3 0 0 0.379153 0 0.0764277 0 0.0313885 0.252965 
node 1 3 1 3
node 2 3 1 1
node 3 3 1 1
node 4 1 0 2
node 23 1 0 0
node 37 1 0 0
node 123 1 0 0
gene 2 1 4 5.88127 0 1 5.88127 1
gene 3 2 4 1.53194 0 2 1.53194 0
gene 1 3 4 -6.67685 0 3 -6.67685 1
gene 3 2 23 8 0 40 8 1
gene 3 23 4 -2.57936 0 41 -2.57936 1
gene 1 3 37 1.94567 0 74 1.94567 1
gene 1 37 4 7.05211 0 75 7.05211 1
gene 1 3 23 -6.89628 0 169 -6.89628 1
gene 2 1 23 2.35213 0 220 2.35213 1
gene 1 2 37 -4.78529 0 235 -4.78529 1
gene 3 37 23 -4.22908 0 299 -4.22908 1
gene 3 37 123 0.896267 0 342 0.896267 1
gene 3 123 23 -1.80385 0 343 -1.80385 1
gene 3 2 123 -0.910772 0 450 -0.910772 1
genomeend 54

/* Organism #55 Fitness: 15.512 Error: 0.0614737 */
genomestart 55
trait 1 0.1 0.0576945 0.110738 0 0 0 0 0.428254 
trait 2 0.2 0 0.0210098 0.0202803 0.0336948 0.132647 0 0.0346538 
trait 3 0 0 0.379153 0 0.0764277 0 0.0313885 0.252965 
node 1 3 1 3
node 2 3 1 1
node 3 3 1 1
node 4 1 0 2
node 23 1 0 0
node 37 1 0 0
node 123 1 0 0
gene 2 1 4 8 0 1 8 1
gene 3 2 4 -0.231885 0 2 -0.231885 0
gene 1 3 4 -8 0 3 -8 1
gene 3 2 23 5.50848 0 40 5.50848 1
gene 3 23 4 -0.632 0 41 -0.632 1
gene 1 3 37 1.37954 0 74 1.37954 1
gene 1 37 4 4.98522 0 75 4.98522 1
gene 1 3 23 2.13285 0 169 2.13285 1
gene 2 1 23 0.58781 0 220 0.58781 1
gene 1 2 37 -2.21937 0 235 -2.21937 1
gene 3 37 23 -7.06264 0 299 -7.06264 1
gene 3 37 123 0.439183 0 342 0.439183 1
gene 3 123 23 -2.01875 0 343 -2.01875 1
gene 3 2 123 1.75517 0 450 1.75517 1
genomeend 55

/* Organism #56 Fitness: 14.6268 Error: 0.175505 */
genomestart 56
trait 1 0.1 0.0576945 0.110738 0 0 0 0 0.428254 
trait 2 0.2 0 0.0210098 0.0202803 0.0336948 0.132647 0 0.0346538 
trait 3 0 0 0.379153 0 0.0764277 0 0.0313885 0.252965 
node 1 3 1 3
node 2 3 1 1
node 3 3 1 1
node 4 1 0 2
node 23 1 0 0
node 37 1 0 0
node 123 1 0 0
gene 2 1 4 3.48065 0 1 3.48065 1
gene 3 2 4 1.73682 0 2 1.73682 0
gene 1 3 4 -8 0 3 -8 1
gene 1 2 23 8 0 40 8 1
gene 3 23 4 1.48518 0 41 1.48518 1
gene 3 3 37 3.50243 0 74 3.50243 1
gene 1 37 4 4.83353 0 75 4.83353 1
gene 1 3 23 -8 0 169 -8 1
gene 2 1 23 1.09631 0 220 1.09631 1
gene 1 2 37 -5.12682 0 235 -5.12682 1
gene 3 37 23 -6.01912 0 299 -6.01912 1
gene 3 37 123 -3.48538 0 342 -3.48538 1
gene 3 123 23 1.98147 0 343 1.98147 1
gene 3 2 123 -0.595514 0 450 -0.595514 1
genomeend 56

/* Organism #57 Fitness: 14.7036 Error: 0.16547 */
genomestart 57
trait 1 0.1 0.0576945 0.110738 0 0 0 0 0.428254 
trait 2 0.2 0 0.0210098 0.0202803 0.0336948 0.132647 0 0.0346538 
trait 3 0 0 0.379153 0 0.0764277 0 0.0313885 0.252965 
node 1 3 1 3
node 2 3 1 1
node 3 3 1 1
node 4 1 0 2
node 23 1 0 0
node 37 1 0 0
node 123 1 0 0
gene 2 1 4 3.59824 0 1 3.59824 1
gene 3 2 4 0.881074 0 2 0.881074 0
gene 1 3 4 -8 0 3 -8 1
gene 1 2 23 8 0 40 8 1
gene 3 23 4 -3.26843 0 41 -3.26843 1
gene 1 3 37 3.29728 0 74 3.29728 1
gene 1 37 4 5.84167 0 75 5.84167 1
gene 1 3 23 -8 0 169 -8 1
gene 2 1 23 2.96116 0 220 2.96116 1
gene 1 2 37 -3.92643 0 235 -3.92643 1
gene 3 37 23 0.272147 0 299 0.272147 1
gene 3 37 123 -1.63933 0 342 -1.63933 1
gene 3 123 23 -3.31848 0 343 -3.31848 1
gene 3 2 123 -3.17913 0 450 -3.17913 1
genomeend 57

/* Organism #58 Fitness: 8.01836 Error: 1.16833 */
genomestart 58
trait 1 0.1 0.0576945 0.110738 0 0 0 0 0.428254 
trait 2 0.2 0 0.0210098 0.0202803 0.0336948 0.132647 0 0.0346538 
trait 3 0 0 0.379153 0 0.0764277 0 0.0313885 0.252965 
node 1 3 1 3
node 2 3 1 1
node 3 3 1 1
node 4 1 0 2
node 23 1 0 0
node 37 1 0 0
node 123 1 0 0
gene 2 1 4 5.88127 0 1 5.88127 1
gene 3 2 4 3.91462 0 2 3.91462 0
gene 1 3 4 -6.06155 0 3 -6.06155 1
gene 3 2 23 8 0 40 8 1
gene 3 23 4 -1.56006 0 41 -1.56006 1
gene 1 3 37 -0.555827 0 74 -0.555827 1
gene 1 37 4 0.636162 0 75 0.636162 1
gene 1 3 23 -7.59652 0 169 -7.59652 1
gene 2 1 23 2.88147 0 220 2.88147 1
gene 1 2 37 0.510079 0 235 0.510079 1
gene 3 37 23 -4.22908 0 299 -4.22908 1
gene 3 37 123 0.896267 0 342 0.896267 1
gene 3 123 23 1.03271 0 343 1.03271 1
gene 3 2 123 1.39171 0 450 1.39171 1
genomeend 58

/* Organism #59 Fitness: 16 Error: 6.72939e-07 */
genomestart 59
trait 1 0.1 0.0576945 0.110738 0 0 0 0 0.428254 
trait 2 0.2 0 0.0210098 0.0202803 0.0336948 0.132647 0 0.0346538 
trait 3 0 0 0.379153 0 0.0764277 0 0.0313885 0.252965 
node 1 3 1 3
node 2 3 1 1
node 3 3 1 1
node 4 1 0 2
node 23 1 0 0
node 37 1 0 0
node 123 1 0 0
gene 2 1 4 6.05036 0 1 6.05036 1
gene 3 2 4 -0.845795 0 2 -0.845795 0
gene 1 3 4 -6.47498 0 3 -6.47498 1
gene 3 2 23 6.95041 0 40 6.95041 1
gene 3 23 4 -2.57936 0 41 -2.57936 1
gene 1 3 37 3.62004 0 74 3.62004 1
gene 1 37 4 6.45378 0 75 6.45378 1
gene 1 3 23 -5.86573 0 169 -5.86573 1
gene 2 1 23 0.223706 0 220 0.223706 1
gene 1 2 37 -5.00808 0 235 -5.00808 1
gene 3 37 23 -2.98268 0 299 -2.98268 1
gene 3 37 123 -1.62996 0 342 -1.62996 1
gene 3 123 23 -0.652069 0 343 -0.652069 1
gene 3 2 123 1.50769 0 450 1.50769 1
genomeend 59

/* Species #17 : (Size 7) (AF 9.36472) (Age 30)  */


/* Organism #60 Fitness: 15.9979 Error: 0.000265138 */
genomestart 60
trait 1 0.1 0.0576945 0 0 0 0 0 0.0136104 
trait 2 0.15 0 0.0210098 0.0202803 0.107408 0 0.179192 0.0346538 
trait 3 0.263249 0 0.023181 0 0.281361 0 0.0426411 0.00501003 
node 1 3 1 3
node 2 3 1 1
node 3 3 1 1
node 4 3 0 2
node 23 1 0 0
node 55 1 0 0
node 91 1 0 0
gene 2 1 4 6.58738 0 1 6.58738 1
gene 3 2 4 -3.1668 0 2 -3.1668 1
gene 1 3 4 -4.43008 0 3 -4.43008 1
gene 3 2 23 -1.92392 0 40 -1.92392 1
gene 3 23 4 -0.277931 0 41 -0.277931 1
gene 2 3 23 -1.26162 0 44 -1.26162 1
gene 1 3 55 -3.04204 0 117 -3.04204 1
gene 1 55 4 3.00413 0 118 3.00413 1
gene 2 1 55 -0.0406323 0 143 -0.0406323 1
gene 3 2 55 -0.692401 0 208 -0.692401 1
gene 3 2 91 8 0 240 8 1
gene 3 91 4 -0.774933 0 241 -0.774933 1
gene 3 1 91 -0.492283 0 321 -0.492283 1
gene 2 1 23 1.66423 0 335 1.66423 1
gene 1 55 91 -0.180192 0 520 -0.180192 1
genomeend 60

/* Organism #61 Fitness: 9.10199 Error: 0.98305 */
genomestart 61
trait 1 0.1 0.0576945 0 0 0 0 0 0.0136104 
trait 2 0.15 0 0.0210098 0.0202803 0.107408 0 0.179192 0.0346538 
trait 3 0.263249 0 0.023181 0 0.281361 0 0.0426411 0.00501003 
node 1 3 1 3
node 2 3 1 1
node 3 3 1 1
node 4 3 0 2
node 23 1 0 0
node 55 1 0 0
node 91 1 0 0
gene 2 1 4 4.25769 0 1 4.25769 1
gene 3 2 4 -4.9144 0 2 -4.9144 1
gene 1 3 4 -2.04828 0 3 -2.04828 1
gene 3 2 23 -3.115 0 40 -3.115 1
gene 3 23 4 0.830044 0 41 0.830044 1
gene 2 3 23 -0.835956 0 44 -0.835956 1
gene 1 3 55 -2.51596 0 117 -2.51596 1
gene 1 55 4 1.98314 0 118 1.98314 1
gene 2 1 55 0.786474 0 143 0.786474 1
gene 3 2 55 0.640573 0 208 0.640573 1
gene 3 2 91 8 0 240 8 1
gene 3 91 4 -2.14988 0 241 -2.14988 1
gene 3 1 91 -2.07497 0 321 -2.07497 1
gene 2 1 23 1.66423 0 335 1.66423 1
gene 1 55 91 -0.180192 0 520 -0.180192 1
genomeend 61

/* Organism #62 Fitness: 15.9979 Error: 0.000265138 */
genomestart 62
trait 1 0.1 0.0576945 0 0 0 0 0 0.0136104 
trait 2 0.15 0 0.0210098 0.0202803 0.107408 0 0.179192 0.0346538 
trait 3 0.263249 0 0.023181 0 0.281361 0 0.0426411 0.00501003 
node 1 3 1 3
node 2 3 1 1
node 3 3 1 1
node 4 3 0 2
node 23 1 0 0
node 55 1 0 0
node 91 1 0 0
gene 2 1 4 6.58738 0 1 6.58738 1
gene 3 2 4 -3.1668 0 2 -3.1668 1
gene 1 3 4 -4.43008 0 3 -4.43008 1
gene 3 2 23 -1.92392 0 40 -1.92392 1
gene 3 23 4 -0.277931 0 41 -0.277931 1
gene 2 3 23 -1.26162 0 44 -1.26162 1
gene 1 3 55 -3.04204 0 117 -3.04204 1
gene 1 55 4 3.00413 0 118 3.00413 1
gene 2 1 55 -0.0406323 0 143 -0.0406323 1
gene 3 2 55 -0.692401 0 208 -0.692401 1
gene 3 2 91 8 0 240 8 1
gene 3 91 4 -0.774933 0 241 -0.774933 1
gene 3 1 91 -0.492283 0 321 -0.492283 1
gene 2 1 23 1.66423 0 335 1.66423 1
gene 1 55 91 -0.180192 0 520 -0.180192 1
genomeend 62

/* Organism #63 Fitness: 8.85281 Error: 1.02463 */
genomestart 63
trait 1 0.1 0.0576945 0 0 0 0 0 0.0136104 
trait 2 0.15 0 0.0210098 0.0202803 0.107408 0 0.179192 0.0346538 
trait 3 0.263249 0 0.023181 0 0.281361 0 0.0426411 0.00501003 
node 1 3 1 3
node 2 3 1 1
node 3 3 1 1
node 4 3 0 2
node 23 1 0 0
node 55 1 0 0
node 91 1 0 0
gene 2 1 4 4.33137 0 1 4.33137 1
gene 3 2 4 -1.80068 0 2 -1.80068 1
gene 1 3 4 -6.05833 0 3 -6.05833 1
gene 3 2 23 -0.633239 0 40 -0.633239 1
gene 3 23 4 -2.36935 0 41 -2.36935 1
gene 2 3 23 -0.798283 0 44 -0.798283 1
gene 1 3 55 -1.29108 0 117 -1.29108 1
gene 1 55 4 4.23528 0 118 4.23528 1
gene 2 1 55 -2.39656 0 143 -2.39656 1
gene 3 2 55 -2.23304 0 208 -2.23304 1
gene 3 2 91 8 0 240 8 1
gene 3 91 4 0.571055 0 241 0.571055 1
gene 3 1 91 1.35869 0 321 1.35869 1
gene 2 1 23 1.66423 0 335 1.66423 1
gene 1 55 91 1.74088 0 520 1.74088 1
genomeend 63

/* Organism #64 Fitness: 2.21938 Error: 2.51024 */
genomestart 64
trait 1 0.1 0.0576945 0 0 0 0 0 0.0136104 
trait 2 0.15 0 0.0210098 0.0202803 0.107408 0 0.179192 0.0346538 
trait 3 0.263249 0 0.023181 0 0.281361 0 0.0426411 0.00501003 
node 1 3 1 3
node 2 3 1 1
node 3 3 1 1
node 4 3 0 2
node 23 1 0 0
node 55 1 0 0
node 91 1 0 0
gene 2 1 4 0.490523 0 1 0.490523 1
gene 3 2 4 -3.1668 0 2 -3.1668 1
gene 1 3 4 -4.53023 0 3 -4.53023 1
gene 3 2 23 -3.91217 0 40 -3.91217 1
gene 3 23 4 -0.60839 0 41 -0.60839 1
gene 2 3 23 -1.25998 0 44 -1.25998 1
gene 1 3 55 1.94656 0 117 1.94656 1
gene 1 55 4 3.00413 0 118 3.00413 1
gene 2 1 55 -1.33678 0 143 -1.33678 1
gene 3 2 55 -2.87465 0 208 -2.87465 1
gene 3 2 91 1.22618 0 240 1.22618 1
gene 3 91 4 0.115342 0 241 0.115342 1
gene 3 1 91 0.436348 0 321 0.436348 1
gene 2 1 23 1.21792 0 335 1.21792 1
gene 1 55 91 -1.04287 0 520 -1.04287 1
genomeend 64

/* Organism #65 Fitness: 4 Error: 2 */
genomestart 65
trait 1 0.1 0.0576945 0 0 0 0 0 0.0136104 
trait 2 0.15 0 0.0210098 0.0202803 0.107408 0 0.179192 0.0346538 
trait 3 0.263249 0 0.023181 0 0.281361 0 0.0426411 0.00501003 
node 1 3 1 3
node 2 2 1 1
node 3 3 1 1
node 4 3 0 2
node 23 1 0 0
node 55 1 0 0
node 91 1 0 0
gene 2 1 4 5.11056 0 1 5.11056 1
gene 3 2 4 0.306978 0 2 0.306978 1
gene 1 3 4 -2.40501 0 3 -2.40501 1
gene 3 2 23 -0.0392976 0 40 -0.0392976 1
gene 3 23 4 -0.513709 0 41 -0.513709 1
gene 2 3 23 -2.92005 0 44 -2.92005 1
gene 1 3 55 -1.57067 0 117 -1.57067 1
gene 1 55 4 5.21706 0 118 5.21706 1
gene 2 1 55 -0.941437 0 143 -0.941437 1
gene 3 2 55 -1.14376 0 208 -1.14376 1
gene 3 2 91 7.47992 0 240 7.47992 1
gene 3 91 4 1.21511 0 241 1.21511 1
gene 3 1 91 1.86313 0 321 1.86313 1
gene 2 1 23 0.754182 0 335 0.754182 1
gene 1 55 91 0.120861 0 520 0.120861 1
genomeend 65

/* Organism #66 Fitness: 9.3831 Error: 0.936816 */
genomestart 66
trait 1 0.1 0.0576945 0 0 0 0 0 0.0136104 
trait 2 0.15 0 0.0210098 0.0202803 0.107408 0 0.179192 0.0346538 
trait 3 0.263249 0 0.023181 0 0.281361 0 0.0426411 0.00501003 
node 1 3 1 3
node 2 3 1 1
node 3 3 1 1
node 4 3 0 2
node 23 1 0 0
node 55 1 0 0
node 91 1 0 0
gene 2 1 4 6.43358 0 1 6.43358 1
gene 3 2 4 -2.45778 0 2 -2.45778 1
gene 1 3 4 -4.1838 0 3 -4.1838 1
gene 3 2 23 -0.902402 0 40 -0.902402 1
gene 3 23 4 -1.05121 0 41 -1.05121 1
gene 2 3 23 -1.63164 0 44 -1.63164 1
gene 1 3 55 -0.940823 0 117 -0.940823 1
gene 1 55 4 1.77762 0 118 1.77762 1
gene 2 1 55 0.71655 0 143 0.71655 1
gene 3 2 55 -2.70524 0 208 -2.70524 1
gene 3 2 91 8 0 240 8 1
gene 3 91 4 0.924738 0 241 0.924738 1
gene 3 1 91 -0.657682 0 321 -0.657682 1
gene 2 1 23 2.19965 0 335 2.19965 1
gene 1 55 91 -0.209493 0 520 -0.209493 1
genomeend 66

/* Species #19 : (Size 8) (AF 15.9784) (Age 26)  */


/* Organism #67 Fitness: 16 Error: 3.32049e-09 */
genomestart 67
trait 1 0.0556152 0.0320869 0 0 0 0 0 0.00756943 
trait 2 0.2 0 0.0210098 0.0202803 0.0336948 0 0 0.0346538 
trait 3 0.619642 0 0 0 0.000764841 0 0.0243663 0.553175 
node 1 3 1 3
node 2 3 1 1
node 3 3 1 1
node 4 2 0 2
node 23 1 0 0
node 48 3 0 0
node 105 1 0 0
gene 2 1 4 8 0 1 8 1
gene 3 2 4 -7.52488 0 2 -7.52488 1
gene 1 3 4 -1.41421 0 3 -1.41421 1
gene 3 2 23 8 0 40 8 1
gene 3 23 4 -2.35276 0 41 -2.35276 1
gene 2 3 23 -6.78667 0 44 -6.78667 1
gene 3 23 48 4.47172 0 100 4.47172 1
gene 3 48 4 8 0 101 8 1
gene 3 3 48 -6.36902 0 203 -6.36902 1
gene 3 2 105 2.59973 0 282 2.59973 1
gene 3 105 4 -4.34623 0 283 -4.34623 1
gene 2 23 105 -2.3351 0 421 -2.3351 1
gene 3 1 105 -0.267542 0 440 -0.267542 1
gene 1 1 23 0.783927 0 504 0.783927 1
genomeend 67

/* Organism #68 Fitness: 16 Error: 3.49716e-09 */
genomestart 68
trait 1 0.0556152 0.0320869 0 0 0 0 0 0.00756943 
trait 2 0.2 0 0.0210098 0.0202803 0.0336948 0 0 0.0346538 
trait 3 0.619642 0 0 0 0.000764841 0 0.0243663 0.553175 
node 1 3 1 3
node 2 3 1 1
node 3 3 1 1
node 4 2 0 2
node 23 1 0 0
node 48 3 0 0
node 105 1 0 0
gene 2 1 4 7.79971 0 1 7.79971 1
gene 3 2 4 -7.52488 0 2 -7.52488 1
gene 1 3 4 -2.67296 0 3 -2.67296 1
gene 3 2 23 8 0 40 8 1
gene 3 23 4 -0.208201 0 41 -0.208201 1
gene 2 3 23 -6.78667 0 44 -6.78667 1
gene 3 23 48 4.47172 0 100 4.47172 1
gene 3 48 4 8 0 101 8 1
gene 3 3 48 -8 0 203 -8 1
gene 3 2 105 3.12952 0 282 3.12952 1
gene 3 105 4 -4.34623 0 283 -4.34623 1
gene 2 23 105 -2.3351 0 421 -2.3351 1
gene 3 1 105 -0.267542 0 440 -0.267542 1
gene 1 1 23 0.783927 0 504 0.783927 1
genomeend 68

/* Organism #69 Fitness: 15.995 Error: 0.000620896 */
genomestart 69
trait 1 0.0556152 0.0320869 0 0 0 0 0 0.00756943 
trait 2 0.2 0 0.0210098 0.0202803 0.0336948 0 0 0.0346538 
trait 3 0.619642 0 0 0 0.000764841 0 0.0243663 0.553175 
node 1 3 1 3
node 2 3 1 1
node 3 3 1 1
node 4 2 0 2
node 23 1 0 0
node 48 3 0 0
node 105 1 0 0
gene 2 1 4 7.79971 0 1 7.79971 1
gene 3 2 4 -4.2531 0 2 -4.2531 1
gene 1 3 4 -2.67296 0 3 -2.67296 1
gene 3 2 23 4.27595 0 40 4.27595 1
gene 3 23 4 1.16547 0 41 1.16547 1
gene 2 3 23 -6.09571 0 44 -6.09571 1
gene 3 23 48 4.71282 0 100 4.71282 1
gene 3 48 4 8 0 101 8 1
gene 3 3 48 -8 0 203 -8 1
gene 3 2 105 4.03049 0 282 4.03049 1
gene 3 105 4 -2.3736 0 283 -2.3736 1
gene 2 23 105 0.83973 0 421 0.83973 1
gene 3 1 105 1.23177 0 440 1.23177 1
gene 1 1 23 -0.121876 0 504 -0.121876 1
gene 2 105 48 -0.626575 0 533 -0.626575 1
genomeend 69

/* Organism #70 Fitness: 15.9988 Error: 0.000145279 */
genomestart 70
trait 1 0.0556152 0.0320869 0 0 0 0 0 0.00756943 
trait 2 0.2 0 0.0210098 0.0202803 0.0336948 0 0 0.0346538 
trait 3 0.619642 0 0 0 0.000764841 0 0.0243663 0.553175 
node 1 3 1 3
node 2 3 1 1
node 3 3 1 1
node 4 2 0 2
node 23 1 0 0
node 48 3 0 0
node 105 1 0 0
gene 2 1 4 8 0 1 8 1
gene 3 2 4 -7.52488 0 2 -7.52488 1
gene 1 3 4 -1.41421 0 3 -1.41421 1
gene 3 2 23 8 0 40 8 1
gene 3 23 4 -2.35276 0 41 -2.35276 1
gene 2 3 23 -8 0 44 -8 1
gene 3 23 48 2.59254 0 100 2.59254 1
gene 3 48 4 8 0 101 8 1
gene 3 3 48 -8 0 203 -8 1
gene 3 2 105 2.59973 0 282 2.59973 1
gene 3 105 4 -4.34623 0 283 -4.34623 1
gene 2 23 105 -1.2234 0 421 -1.2234 1
gene 3 1 105 -0.267542 0 440 -0.267542 1
gene 1 1 23 0.783927 0 504 0.783927 1
genomeend 70

/* Organism #71 Fitness: 16 Error: 3.32049e-09 */
genomestart 71
trait 1 0.0556152 0.0320869 0 0 0 0 0 0.00756943 
trait 2 0.2 0 0.0210098 0.0202803 0.0336948 0 0 0.0346538 
trait 3 0.619642 0 0 0 0.000764841 0 0.0243663 0.553175 
node 1 3 1 3
node 2 3 1 1
node 3 3 1 1
node 4 2 0 2
node 23 1 0 0
node 48 3 0 0
node 105 1 0 0
gene 2 1 4 8 0 1 8 1
gene 3 2 4 -7.52488 0 2 -7.52488 1
gene 1 3 4 -1.41421 0 3 -1.41421 1
gene 3 2 23 8 0 40 8 1
gene 3 23 4 -2.35276 0 41 -2.35276 1
gene 2 3 23 -6.78667 0 44 -6.78667 1
gene 3 23 48 4.47172 0 100 4.47172 1
gene 3 48 4 8 0 101 8 1
gene 3 3 48 -6.36902 0 203 -6.36902 1
gene 3 2 105 2.59973 0 282 2.59973 1
gene 3 105 4 -4.34623 0 283 -4.34623 1
gene 2 23 105 -2.3351 0 421 -2.3351 1
gene 3 1 105 -0.267542 0 440 -0.267542 1
gene 1 1 23 0.783927 0 504 0.783927 1
genomeend 71

/* Organism #72 Fitness: 15.846 Error: 0.0193016 */
genomestart 72
trait 1 0.0556152 0.0320869 0 0 0 0 0 0.00756943 
trait 2 0.2 0 0.0210098 0.0202803 0.0336948 0 0 0.0346538 
trait 3 0.619642 0 0 0 0.000764841 0 0.0243663 0.553175 
node 1 3 1 3
node 2 3 1 1
node 3 3 1 1
node 4 2 0 2
node 23 1 0 0
node 48 3 0 0
node 105 1 0 0
gene 2 1 4 8 0 1 8 1
gene 3 2 4 -7.98138 0 2 -7.98138 1
gene 1 3 4 -0.976514 0 3 -0.976514 1
gene 3 2 23 7.40723 0 40 7.40723 1
gene 3 23 4 0.675434 0 41 0.675434 1
gene 2 3 23 -7.34818 0 44 -7.34818 1
gene 3 23 48 2.32601 0 100 2.32601 1
gene 3 48 4 5.83251 0 101 5.83251 1
gene 3 3 48 -8 0 203 -8 1
gene 3 2 105 1.05576 0 282 1.05576 1
gene 3 105 4 -3.63026 0 283 -3.63026 1
gene 2 23 105 -3.21995 0 421 -3.21995 1
gene 3 1 105 -0.267542 0 440 -0.267542 1
gene 1 1 23 -0.102377 0 504 -0.102377 1
genomeend 72

/* Organism #73 Fitness: 15.9987 Error: 0.000163805 */
genomestart 73
trait 1 0.0556152 0.0320869 0 0 0 0 0 0.00756943 
trait 2 0.2 0 0.0210098 0.0202803 0.0336948 0 0 0.0346538 
trait 3 0.619642 0 0 0 0.000764841 0 0.0243663 0.553175 
node 1 3 1 3
node 2 3 1 1
node 3 3 1 1
node 4 2 0 2
node 23 1 0 0
node 48 3 0 0
node 105 1 0 0
gene 2 1 4 8 0 1 8 1
gene 3 2 4 -7.59177 0 2 -7.59177 1
gene 1 3 4 -1.34917 0 3 -1.34917 1
gene 3 2 23 8 0 40 8 1
gene 3 23 4 -1.33739 0 41 -1.33739 1
gene 2 3 23 2.45767 0 44 2.45767 1
gene 3 23 48 1.83958 0 100 1.83958 1
gene 3 48 4 6.58923 0 101 6.58923 1
gene 3 3 48 -6.98598 0 203 -6.98598 1
gene 3 2 105 0.966964 0 282 0.966964 1
gene 3 105 4 -5.88775 0 283 -5.88775 1
gene 2 23 105 -1.17478 0 421 -1.17478 1
gene 3 1 105 0.34301 0 440 0.34301 1
gene 1 1 23 1.86656 0 504 1.86656 1
genomeend 73

/* Organism #74 Fitness: 15.9888 Error: 0.00140057 */
genomestart 74
trait 1 0.0556152 0.0320869 0 0 0 0 0 0.00756943 
trait 2 0.2 0 0.0210098 0.0202803 0.0336948 0 0 0.0346538 
trait 3 0.619642 0 0 0 0.000764841 0 0.0243663 0.553175 
node 1 3 1 3
node 2 3 1 1
node 3 3 1 1
node 4 2 0 2
node 23 1 0 0
node 48 3 0 0
node 105 1 0 0
gene 2 1 4 7.78223 0 1 7.78223 1
gene 3 2 4 -3.03824 0 2 -3.03824 1
gene 1 3 4 -2.49194 0 3 -2.49194 1
gene 3 2 23 6.77805 0 40 6.77805 1
gene 3 23 4 -3.63922 0 41 -3.63922 1
gene 2 3 23 -6.70747 0 44 -6.70747 1
gene 3 23 48 5.7429 0 100 5.7429 1
gene 3 48 4 8 0 101 8 1
gene 3 3 48 -8 0 203 -8 1
gene 3 2 105 3.9332 0 282 3.9332 1
gene 3 105 4 -2.56257 0 283 -2.56257 1
gene 2 23 105 -3.28342 0 421 -3.28342 1
gene 3 1 105 -2.50232 0 440 -2.50232 1
gene 1 1 23 0.783927 0 504 0.783927 1
genomeend 74

/* Species #20 : (Size 7) (AF 16) (Age 26)  */


/* Organism #75 Fitness: 16 Error: 1.6763e-07 */
genomestart 75
trait 1 0 0.0320869 0 0.344672 0.197339 0 0.628476 0.018245 
trait 2 0.2 0 0.0210098 0.0202803 0.0336948 0 0 0.0346538 
trait 3 0.150428 0 0 0 0.000764841 0 0.0243663 0.00501003 
node 1 3 1 3
node 2 3 1 1
node 3 3 1 1
node 4 2 0 2
node 23 1 0 0
node 48 3 0 0
node 106 1 0 0
gene 2 1 4 4.21297 0 1 4.21297 1
gene 3 2 4 -7.73789 0 2 -7.73789 1
gene 1 3 4 -7.83335 0 3 -7.83335 1
gene 3 2 23 0.71841 0 40 0.71841 1
gene 3 23 4 -1.10487 0 41 -1.10487 1
gene 2 3 23 -2.16883 0 44 -2.16883 1
gene 3 23 48 3.35173 0 100 3.35173 1
gene 3 48 4 7.80063 0 101 7.80063 1
gene 1 3 48 1.37342 0 203 1.37342 1
gene 3 3 106 1.45834 0 284 1.45834 1
gene 3 106 48 3.05185 0 285 3.05185 1
gene 3 2 106 0.930351 0 534 0.930351 1
genomeend 75

/* Organism #76 Fitness: 16 Error: 1.78506e-08 */
genomestart 76
trait 1 0 0.0320869 0 0.344672 0.197339 0 0.628476 0.018245 
trait 2 0.2 0 0.0210098 0.0202803 0.0336948 0 0 0.0346538 
trait 3 0.150428 0 0 0 0.000764841 0 0.0243663 0.00501003 
node 1 3 1 3
node 2 3 1 1
node 3 3 1 1
node 4 2 0 2
node 23 1 0 0
node 48 3 0 0
node 106 1 0 0
gene 2 1 4 4.11281 0 1 4.11281 1
gene 3 2 4 -7.3877 0 2 -7.3877 1
gene 1 3 4 -7.74388 0 3 -7.74388 1
gene 3 2 23 1.51399 0 40 1.51399 1
gene 3 23 4 -0.712575 0 41 -0.712575 1
gene 2 3 23 -0.978582 0 44 -0.978582 1
gene 3 23 48 4.3363 0 100 4.3363 1
gene 3 48 4 7.90031 0 101 7.90031 1
gene 1 3 48 2.34354 0 203 2.34354 1
gene 3 3 106 2.43779 0 284 2.43779 1
gene 3 106 48 1.98293 0 285 1.98293 1
gene 3 2 106 0.930351 0 534 0.930351 1
gene 3 1 23 -0.251393 0 561 -0.251393 1
genomeend 76

/* Organism #77 Fitness: 16 Error: 1.72545e-08 */
genomestart 77
trait 1 0 0.0320869 0 0.344672 0.197339 0 0.628476 0.018245 
trait 2 0.2 0 0.0210098 0.0202803 0.0336948 0 0 0.0346538 
trait 3 0.150428 0 0 0 0.000764841 0 0.0243663 0.00501003 
node 1 3 1 3
node 2 3 1 1
node 3 3 1 1
node 4 2 0 2
node 23 1 0 0
node 48 3 0 0
node 106 1 0 0
gene 2 1 4 4.01265 0 1 4.01265 1
gene 3 2 4 -7.73789 0 2 -7.73789 1
gene 1 3 4 -7.65442 0 3 -7.65442 1
gene 3 2 23 2.30957 0 40 2.30957 1
gene 3 23 4 -0.320279 0 41 -0.320279 1
gene 2 3 23 0.211667 0 44 0.211667 1
gene 3 23 48 3.35173 0 100 3.35173 1
gene 3 48 4 8 0 101 8 1
gene 1 3 48 1.37342 0 203 1.37342 1
gene 3 3 106 1.45834 0 284 1.45834 1
gene 3 106 48 0.914014 0 285 0.914014 1
gene 3 2 106 0.930351 0 534 0.930351 1
genomeend 77

/* Organism #78 Fitness: 16 Error: 5.11368e-08 */
genomestart 78
trait 1 0 0.0320869 0 0.344672 0.197339 0 0.628476 0.018245 
trait 2 0.2 0 0.0210098 0.0202803 0.0336948 0 0 0.0346538 
trait 3 0.150428 0 0 0 0.000764841 0 0.0243663 0.00501003 
node 1 3 1 3
node 2 3 1 1
node 3 3 1 1
node 4 2 0 2
node 23 1 0 0
node 48 3 0 0
node 106 1 0 0
gene 2 1 4 4.4612 0 1 4.4612 1
gene 3 2 4 -7.3877 0 2 -7.3877 1
gene 1 3 4 -8 0 3 -8 1
gene 3 2 23 0.177527 0 40 0.177527 1
gene 3 23 4 -0.401402 0 41 -0.401402 1
gene 2 3 23 0.617432 0 44 0.617432 1
gene 3 23 48 2.0208 0 100 2.0208 1
gene 3 48 4 7.90031 0 101 7.90031 1
gene 1 3 48 -0.424577 0 203 -0.424577 1
gene 3 3 106 0.385618 0 284 0.385618 1
gene 3 106 48 0.672217 0 285 0.672217 1
gene 3 2 106 -0.867476 0 534 -0.867476 1
genomeend 78

/* Organism #79 Fitness: 16 Error: 5.94259e-08 */
genomestart 79
trait 1 0 0.0320869 0 0.344672 0.197339 0 0.628476 0.018245 
trait 2 0.2 0 0.0210098 0.0202803 0.0336948 0 0 0.0346538 
trait 3 0.150428 0 0 0 0.000764841 0 0.0243663 0.00501003 
node 1 3 1 3
node 2 3 1 1
node 3 3 1 1
node 4 2 0 2
node 23 1 0 0
node 48 3 0 0
node 106 1 0 0
gene 2 1 4 4.01265 0 1 4.01265 1
gene 3 2 4 -7.0375 0 2 -7.0375 1
gene 1 3 4 -7.83335 0 3 -7.83335 1
gene 3 2 23 2.30957 0 40 2.30957 1
gene 3 23 4 -0.320279 0 41 -0.320279 1
gene 2 3 23 0.211667 0 44 0.211667 1
gene 3 23 48 3.35173 0 100 3.35173 1
gene 3 48 4 7.80063 0 101 7.80063 1
gene 1 3 48 3.31366 0 203 3.31366 1
gene 3 3 106 1.45834 0 284 1.45834 1
gene 3 106 48 3.05185 0 285 3.05185 1
gene 3 2 106 0.930351 0 534 0.930351 1
gene 3 106 4 -0.307978 0 562 -0.307978 1
genomeend 79

/* Organism #80 Fitness: 16 Error: 3.38131e-06 */
genomestart 80
trait 1 0 0.0320869 0 0.344672 0.197339 0 0.628476 0.018245 
trait 2 0.2 0 0.0210098 0.0202803 0.0336948 0 0 0.0346538 
trait 3 0.150428 0 0 0 0.000764841 0 0.0243663 0.00501003 
node 1 3 1 3
node 2 3 1 1
node 3 3 1 1
node 4 2 0 2
node 23 1 0 0
node 48 3 0 0
node 106 1 0 0
gene 2 1 4 4.17341 0 1 4.17341 1
gene 3 2 4 -8 0 2 -8 1
gene 1 3 4 -6.78507 0 3 -6.78507 1
gene 3 2 23 0.527266 0 40 0.527266 1
gene 3 23 4 1.61628 0 41 1.61628 1
gene 2 3 23 -1.21268 0 44 -1.21268 1
gene 3 23 48 2.85221 0 100 2.85221 1
gene 3 48 4 8 0 101 8 1
gene 1 3 48 3.74294 0 203 3.74294 1
gene 3 3 106 4.28957 0 284 4.28957 1
gene 3 106 48 1.31018 0 285 1.31018 1
gene 3 2 106 2.67529 0 534 2.67529 1
genomeend 80

/* Organism #81 Fitness: 15.9999 Error: 1.36395e-05 */
genomestart 81
trait 1 0 0.0320869 0 0.344672 0.197339 0 0.628476 0.018245 
trait 2 0.2 0 0.0210098 0.0202803 0.0336948 0 0 0.0346538 
trait 3 0.150428 0 0 0 0.000764841 0 0.0243663 0.00501003 
node 1 3 1 3
node 2 3 1 1
node 3 3 1 1
node 4 2 0 2
node 23 1 0 0
node 48 3 0 0
node 106 1 0 0
gene 2 1 4 2.1623 0 1 2.1623 1
gene 3 2 4 -8 0 2 -8 1
gene 1 3 4 -5.48605 0 3 -5.48605 1
gene 3 2 23 2.43427 0 40 2.43427 1
gene 3 23 4 1.07162 0 41 1.07162 1
gene 2 3 23 -1.67288 0 44 -1.67288 1
gene 3 23 48 5.73499 0 100 5.73499 1
gene 3 48 4 8 0 101 8 1
gene 1 3 48 5.02619 0 203 5.02619 1
gene 3 3 106 1.14988 0 284 1.14988 1
gene 3 106 48 2.84975 0 285 2.84975 1
gene 3 2 106 2.65592 0 534 2.65592 1
genomeend 81

/* Species #21 : (Size 6) (AF 10.3777) (Age 24)  */


/* Organism #82 Fitness: 16 Error: 2.24095e-09 */
genomestart 82
trait 1 0.799732 0.0288473 0.251039 0.463087 0 0 0.603997 0.428254 
trait 2 0.2 0.213442 0.0999708 0.0202803 0.0168474 0.132647 0 0.0346538 
trait 3 0 0 0.379153 0 0.0764277 0 0.0313885 0.252965 
node 1 3 1 3
node 2 3 1 1
node 3 3 1 1
node 4 2 0 2
node 23 1 0 0
node 37 1 0 0
node 109 3 0 0
node 152 1 0 0
gene 3 1 4 8 0 1 8 1
gene 3 2 4 -1.32851 0 2 -1.32851 1
gene 1 3 4 -3.37482 0 3 -3.37482 1
gene 3 2 23 5.20226 0 40 5.20226 1
gene 3 23 4 -7.34487 0 41 -7.34487 1
gene 1 3 37 -4.70981 0 74 -4.70981 1
gene 1 37 4 6.31867 0 75 6.31867 1
gene 1 3 23 -8 0 169 -8 1
gene 2 1 23 4.34741 0 220 4.34741 1
gene 1 2 37 1.03566 0 235 1.03566 1
gene 1 2 109 -2.26645 0 297 -2.26645 1
gene 1 109 37 7.2855 0 298 7.2855 1
gene 1 109 152 2.7117 0 453 2.7117 1
gene 1 152 37 2.333 0 454 2.333 1
gene 2 109 23 -0.847668 0 469 -0.847668 1
genomeend 82

/* Organism #83 Fitness: 3.28961 Error: 2.18627 */
genomestart 83
trait 1 0.799732 0.0288473 0.251039 0.463087 0 0 0.603997 0.428254 
trait 2 0.2 0 0.0999708 0 0.0168474 0.132647 0 0 
trait 3 0 0 0.379153 0 0.0764277 0 0.0313885 0.252965 
node 1 3 1 3
node 2 3 1 1
node 3 3 1 1
node 4 2 0 2
node 23 1 0 0
node 37 1 0 0
node 109 3 0 0
node 152 2 0 0
gene 3 1 4 -1.20054 0 1 -1.20054 1
gene 3 2 4 -3.49029 0 2 -3.49029 1
gene 1 3 4 -5.37051 0 3 -5.37051 1
gene 3 2 23 6.41639 0 40 6.41639 1
gene 3 23 4 0.800669 0 41 0.800669 1
gene 1 3 37 -4.70981 0 74 -4.70981 1
gene 1 37 4 0.69929 0 75 0.69929 1
gene 1 3 23 -8 0 169 -8 1
gene 2 1 23 6.65816 0 220 6.65816 1
gene 1 2 37 1.93836 0 235 1.93836 1
gene 1 2 109 -4.12995 0 297 -4.12995 1
gene 1 109 37 8 0 298 8 1
gene 1 109 152 -0.43913 0 453 -0.43913 1
gene 1 152 37 0.507433 0 454 0.507433 1
gene 2 109 23 -0.847668 0 469 -0.847668 1
genomeend 83

/* Organism #84 Fitness: 15.9764 Error: 0.00294665 */
genomestart 84
trait 1 0.799732 0.0288473 0.251039 0.463087 0 0 0.603997 0.428254 
trait 2 0.2 0.213442 0.0999708 0.0202803 0.0168474 0.132647 0 0.0346538 
trait 3 0 0 0.379153 0 0.0764277 0 0.0313885 0.252965 
node 1 3 1 3
node 2 3 1 1
node 3 3 1 1
node 4 2 0 2
node 23 1 0 0
node 37 1 0 0
node 109 3 0 0
node 152 1 0 0
gene 3 1 4 7.21688 0 1 7.21688 1
gene 3 2 4 -1.93502 0 2 -1.93502 1
gene 1 3 4 -5.12397 0 3 -5.12397 1
gene 3 2 23 8 0 40 8 1
gene 3 23 4 -8 0 41 -8 1
gene 1 3 37 -1.48327 0 74 -1.48327 1
gene 1 37 4 7.80107 0 75 7.80107 1
gene 1 3 23 -5.84065 0 169 -5.84065 1
gene 2 1 23 5.48944 0 220 5.48944 1
gene 1 2 37 0.211105 0 235 0.211105 1
gene 1 2 109 -3.50406 0 297 -3.50406 1
gene 1 109 37 7.89626 0 298 7.89626 1
gene 1 109 152 0.94909 0 453 0.94909 1
gene 1 152 37 -0.422139 0 454 -0.422139 1
gene 2 109 23 -0.980498 0 469 -0.980498 1
genomeend 84

/* Organism #85 Fitness: 9.0001 Error: 0.999983 */
genomestart 85
trait 1 0.799732 0.0288473 1 0.463087 0 0 0.603997 0.428254 
trait 2 0.2 0.213442 0.0999708 0.0202803 0.0168474 0.132647 0 0.0346538 
trait 3 0 0 0.379153 0 0.0764277 0 0.0313885 0.252965 
node 1 3 1 3
node 2 3 1 1
node 3 3 1 1
node 4 2 0 2
node 23 1 0 0
node 37 1 0 0
node 109 3 0 0
node 152 1 0 0
gene 3 1 4 8 0 1 8 1
gene 3 2 4 -3.12118 0 2 -3.12118 1
gene 1 3 4 -5.59441 0 3 -5.59441 1
gene 3 2 23 6.95603 0 40 6.95603 1
gene 3 23 4 -5.14985 0 41 -5.14985 1
gene 1 3 37 -1.93124 0 74 -1.93124 1
gene 1 37 4 8 0 75 8 1
gene 1 3 23 -7.70064 0 169 -7.70064 1
gene 2 1 23 2.99891 0 220 2.99891 1
gene 1 2 37 0.682905 0 235 0.682905 1
gene 1 2 109 1.18313 0 297 1.18313 1
gene 1 109 37 6.46425 0 298 6.46425 1
gene 1 109 152 2.94661 0 453 2.94661 1
gene 1 152 37 2.71687 0 454 2.71687 1
gene 2 109 23 -1.46013 0 469 -1.46013 1
genomeend 85

/* Organism #86 Fitness: 9 Error: 1 */
genomestart 86
trait 1 1 0 0.251039 0.463087 0 0 0.603997 0.428254 
trait 2 0.2 0.213442 0.0999708 0.0202803 0.0168474 0.132647 0 0.0346538 
trait 3 0 0 0.379153 0 0.0764277 0 0.0313885 0.252965 
node 1 3 1 3
node 2 3 1 1
node 3 3 1 1
node 4 2 0 2
node 23 1 0 0
node 37 1 0 0
node 109 3 0 0
node 152 1 0 0
gene 3 1 4 7.63791 0 1 7.63791 1
gene 3 2 4 -5.30544 0 2 -5.30544 1
gene 1 3 4 -4.79471 0 3 -4.79471 1
gene 3 2 23 6.84127 0 40 6.84127 1
gene 3 23 4 -6.73686 0 41 -6.73686 1
gene 1 3 37 -2.55475 0 74 -2.55475 1
gene 1 37 4 5.09461 0 75 5.09461 1
gene 1 3 23 -8 0 169 -8 1
gene 2 1 23 3.00076 0 220 3.00076 1
gene 1 2 37 -2.47815 0 235 -2.47815 1
gene 1 2 109 -0.40647 0 297 -0.40647 1
gene 1 109 37 7.43292 0 298 7.43292 1
gene 1 109 152 -0.40181 0 453 -0.40181 1
gene 1 152 37 0.0899903 0 454 0.0899903 1
gene 2 109 23 -0.183064 0 469 -0.183064 1
genomeend 86

/* Organism #87 Fitness: 9 Error: 1 */
genomestart 87
trait 1 0.799732 0.0288473 0.251039 0.463087 0 0 0.603997 0.428254 
trait 2 0.2 0.213442 0.0999708 0.0202803 0.0168474 0.132647 0 0.0346538 
trait 3 0 0 0.379153 0 0.0764277 0 0.0313885 0.252965 
node 1 1 1 3
node 2 3 1 1
node 3 3 1 1
node 4 2 0 2
node 23 1 0 0
node 37 1 0 0
node 109 3 0 0
node 152 1 0 0
gene 3 1 4 8 0 1 8 1
gene 3 2 4 -0.864334 0 2 -0.864334 1
gene 1 3 4 -3.74437 0 3 -3.74437 1
gene 3 2 23 5.65399 0 40 5.65399 1
gene 3 23 4 -8 0 41 -8 1
gene 1 3 37 1.78912 0 74 1.78912 1
gene 1 37 4 5.75515 0 75 5.75515 1
gene 1 3 23 -8 0 169 -8 1
gene 2 1 23 4.51353 0 220 4.51353 1
gene 1 2 37 0.983574 0 235 0.983574 1
gene 1 2 109 0.94092 0 297 0.94092 1
gene 1 109 37 4.40289 0 298 4.40289 1
gene 1 109 152 3.12999 0 453 3.12999 1
gene 1 152 37 2.55005 0 454 2.55005 1
gene 2 109 23 -2.4582 0 469 -2.4582 1
genomeend 87

/* Species #22 : (Size 8) (AF 14.9396) (Age 23)  */


/* Organism #88 Fitness: 16 Error: 7.68389e-09 */
genomestart 88
trait 1 0.075 0.0576945 0.155012 0 0 0 0 0.0136104 
trait 2 0.2 0 0.0532763 0 0.827144 0 0 0.798345 
trait 3 0.300856 0 0.00161445 0 0.00445539 0.00396113 0.024437 0.00250501 
node 1 2 1 3
node 2 3 1 1
node 3 3 1 1
node 4 2 0 2
node 23 2 0 0
node 112 1 0 0
gene 2 1 4 3.9497 0 1 3.9497 1
gene 3 2 4 -8 0 2 -8 1
gene 1 3 4 -1.40759 0 3 -1.40759 0
gene 3 2 23 -4.26831 0 40 -4.26831 0
gene 3 23 4 8 0 41 8 1
gene 2 3 23 -8 0 44 -8 1
gene 3 1 23 3.12775 0 83 3.12775 1
gene 3 2 112 -4.72182 0 305 -4.72182 1
gene 3 112 23 -2.84446 0 306 -2.84446 1
gene 2 112 4 0.126478 0 314 0.126478 1
gene 2 1 112 0.582937 0 365 0.582937 1
gene 1 3 112 0.326287 0 537 0.326287 1
genomeend 88

/* Organism #89 Fitness: 15.9854 Error: 0.00182742 */
genomestart 89
trait 1 0.075 0.0576945 0.155012 0 0 0 0 0.0136104 
trait 2 0.2 0 0.0532763 0 0.827144 0 0 0.798345 
trait 3 0.300856 0 0.00161445 0 0.00445539 0.00396113 0.024437 0.00250501 
node 1 2 1 3
node 2 3 1 1
node 3 3 1 1
node 4 2 0 2
node 23 2 0 0
node 112 1 0 0
gene 2 1 4 5.95839 0 1 5.95839 1
gene 3 2 4 -7.23241 0 2 -7.23241 1
gene 1 3 4 0.203363 0 3 0.203363 0
gene 3 2 23 -6.07862 0 40 -6.07862 0
gene 3 23 4 8 0 41 8 1
gene 2 3 23 -5.53355 0 44 -5.53355 1
gene 3 1 23 1.50458 0 83 1.50458 1
gene 3 2 112 0.335317 0 305 0.335317 1
gene 3 112 23 -2.84446 0 306 -2.84446 1
gene 2 112 4 -1.97281 0 314 -1.97281 1
gene 2 1 112 -1.5127 0 365 -1.5127 1
gene 1 3 112 0.779942 0 537 0.779942 0
genomeend 89

/* Organism #90 Fitness: 16 Error: 7.73556e-09 */
genomestart 90
trait 1 0.075 0.0576945 0.155012 0 0 0 0 0.0136104 
trait 2 0.2 0 0.0532763 0 0.827144 0 0 0.798345 
trait 3 0.300856 0 0.00161445 0 0.00445539 0.00396113 0.024437 0.00250501 
node 1 2 1 3
node 2 3 1 1
node 3 3 1 1
node 4 2 0 2
node 23 2 0 0
node 112 1 0 0
gene 2 1 4 3.9497 0 1 3.9497 1
gene 3 2 4 -8 0 2 -8 1
gene 1 3 4 -1.40759 0 3 -1.40759 0
gene 3 2 23 -4.26831 0 40 -4.26831 0
gene 3 23 4 8 0 41 8 1
gene 2 3 23 -8 0 44 -8 1
gene 3 1 23 3.12775 0 83 3.12775 1
gene 3 2 112 -4.72182 0 305 -4.72182 1
gene 3 112 23 -2.84446 0 306 -2.84446 1
gene 2 112 4 0.126478 0 314 0.126478 1
gene 2 1 112 0.582937 0 365 0.582937 1
gene 1 3 112 0.326287 0 537 0.326287 0
genomeend 90

/* Organism #91 Fitness: 15.9917 Error: 0.00103302 */
genomestart 91
trait 1 0.075 0.0576945 0.155012 0 0 0 0 0.0136104 
trait 2 0.2 0 0.0532763 0 0.827144 0 0 0.798345 
trait 3 0.300856 0 0.00161445 0 0.00445539 0.00396113 0.024437 0.00250501 
node 1 2 1 3
node 2 3 1 1
node 3 3 1 1
node 4 2 0 2
node 23 2 0 0
node 112 1 0 0
gene 2 1 4 2.55226 0 1 2.55226 1
gene 3 2 4 -6.03797 0 2 -6.03797 1
gene 1 3 4 -0.399945 0 3 -0.399945 0
gene 3 2 23 -6.02777 0 40 -6.02777 0
gene 3 23 4 7.84387 0 41 7.84387 1
gene 2 3 23 -5.8203 0 44 -5.8203 1
gene 3 1 23 4.97876 0 83 4.97876 1
gene 3 2 112 -5.03637 0 305 -5.03637 1
gene 3 112 23 -1.803 0 306 -1.803 1
gene 2 112 4 -1.15628 0 314 -1.15628 1
gene 2 1 112 2.29041 0 365 2.29041 1
gene 1 3 112 0.326287 0 537 0.326287 0
genomeend 91

/* Organism #92 Fitness: 16 Error: 2.00256e-06 */
genomestart 92
trait 1 0.075 0.0576945 0.155012 0 0 0 0 0.0136104 
trait 2 0.2 0 0.0532763 0 0.827144 0 0 0.798345 
trait 3 0.300856 0 0.00161445 0 0.00445539 0.00396113 0.024437 0.00250501 
node 1 2 1 3
node 2 3 1 1
node 3 3 1 1
node 4 2 0 2
node 23 2 0 0
node 112 1 0 0
gene 2 1 4 5.29486 0 1 5.29486 1
gene 3 2 4 -8 0 2 -8 1
gene 1 3 4 -2.53803 0 3 -2.53803 0
gene 3 2 23 -2.34234 0 40 -2.34234 0
gene 3 23 4 5.71672 0 41 5.71672 1
gene 2 3 23 -8 0 44 -8 1
gene 3 1 23 3.17014 0 83 3.17014 1
gene 3 2 112 -3.8377 0 305 -3.8377 1
gene 3 112 23 -0.480002 0 306 -0.480002 1
gene 2 112 4 0.342422 0 314 0.342422 1
gene 2 1 112 0.582937 0 365 0.582937 1
gene 1 3 112 0.326287 0 537 0.326287 1
genomeend 92

/* Organism #93 Fitness: 15.9999 Error: 1.18845e-05 */
genomestart 93
trait 1 0.075 0.0576945 0.155012 0 0 0 0 0.0136104 
trait 2 0.2 0 0.0532763 0 0.827144 0 0 0.798345 
trait 3 0.300856 0 0.00161445 0 0.00445539 0.00396113 0.024437 0.00250501 
node 1 2 1 3
node 2 3 1 1
node 3 3 1 1
node 4 2 0 2
node 23 2 0 0
node 112 1 0 0
gene 2 1 4 4.3601 0 1 4.3601 1
gene 3 2 4 -6.75874 0 2 -6.75874 1
gene 1 3 4 -0.78287 0 3 -0.78287 0
gene 3 2 23 -2.92024 0 40 -2.92024 0
gene 3 23 4 8 0 41 8 1
gene 2 3 23 -5.7837 0 44 -5.7837 1
gene 3 1 23 4.88698 0 83 4.88698 1
gene 3 2 112 -6.91058 0 305 -6.91058 1
gene 3 112 23 -2.73819 0 306 -2.73819 1
gene 2 112 4 -0.81803 0 314 -0.81803 1
gene 2 1 112 0.582937 0 365 0.582937 1
gene 1 3 112 -0.346693 0 537 -0.346693 1
genomeend 93

/* Organism #94 Fitness: 16 Error: 1.7697e-07 */
genomestart 94
trait 1 0.075 0.0576945 0.155012 0 0 0 0 0.0136104 
trait 2 0.2 0 0.0532763 0 0.827144 0 0 0.798345 
trait 3 0.300856 0 0.00161445 0 0.00445539 0.00396113 0.024437 0.00250501 
node 1 2 1 3
node 2 3 1 1
node 3 3 1 1
node 4 2 0 2
node 23 2 0 0
node 112 1 0 0
gene 2 1 4 3.29713 0 1 3.29713 1
gene 3 2 4 -8 0 2 -8 1
gene 1 3 4 -3.34453 0 3 -3.34453 0
gene 3 2 23 -5.53868 0 40 -5.53868 0
gene 3 23 4 8 0 41 8 1
gene 2 3 23 -8 0 44 -8 1
gene 3 1 23 3.12775 0 83 3.12775 1
gene 3 2 112 -6.86798 0 305 -6.86798 1
gene 3 112 23 -3.77181 0 306 -3.77181 1
gene 2 112 4 0.841196 0 314 0.841196 1
gene 2 1 112 -1.55093 0 365 -1.55093 1
gene 1 3 112 0.326287 0 537 0.326287 1
genomeend 94

/* Organism #95 Fitness: 7.54 Error: 1.25409 */
genomestart 95
trait 1 0.283362 0 0.155012 0 0 0.526548 0 0.0136104 
trait 2 0.2 0 0.0532763 0 0.827144 0 0 0.798345 
trait 3 0.300856 0 0.00161445 0 0.00445539 0.00396113 0.024437 0.00250501 
node 1 2 1 3
node 2 3 1 1
node 3 3 1 1
node 4 2 0 2
node 23 2 0 0
node 112 1 0 0
gene 2 1 4 0.373362 0 1 0.373362 1
gene 3 2 4 -7.60766 0 2 -7.60766 1
gene 1 3 4 -0.155945 0 3 -0.155945 1
gene 3 2 23 -4.87548 0 40 -4.87548 1
gene 3 23 4 8 0 41 8 1
gene 2 3 23 -6.0514 0 44 -6.0514 1
gene 3 1 23 3.68874 0 83 3.68874 1
gene 3 2 112 -2.44086 0 305 -2.44086 1
gene 3 112 23 -3.80871 0 306 -3.80871 1
gene 2 112 4 0.239182 0 314 0.239182 1
gene 2 1 112 -1.07264 0 365 -1.07264 1
gene 1 3 112 -0.410513 0 537 -0.410513 0
genomeend 95

/* Species #23 : (Size 5) (AF 8.6374) (Age 23)  */


/* Organism #96 Fitness: 8.99995 Error: 1.00001 */
genomestart 96
trait 1 0.1 0.0576945 0 0 0 0 0 0.0136104 
trait 2 0.1 0 0.0210098 0.464117 0.453182 0 0 0.0346538 
trait 3 0 0 0 0 0.281361 0.55744 0 0 
node 1 3 1 3
node 2 3 1 1
node 3 3 1 1
node 4 1 0 2
node 23 1 0 0
node 55 1 0 0
node 115 1 0 0
node 131 1 0 0
gene 2 1 4 7.01115 0 1 7.01115 1
gene 2 2 4 -7.86085 0 2 -7.86085 0
gene 1 3 4 -6.79723 0 3 -6.79723 1
gene 3 2 23 1.33492 0 40 1.33492 1
gene 3 23 4 -2.66864 0 41 -2.66864 0
gene 2 3 23 -0.10995 0 44 -0.10995 1
gene 1 3 55 3.15637 0 117 3.15637 1
gene 1 55 4 3.55444 0 118 3.55444 1
gene 2 1 55 -0.115804 0 143 -0.115804 1
gene 2 23 55 1.17214 0 307 1.17214 1
gene 2 2 115 4.21873 0 316 4.21873 1
gene 2 115 4 -7.92935 0 317 -7.92935 1
gene 3 23 115 -5.335 0 366 -5.335 1
gene 3 23 131 -3.06188 0 378 -3.06188 1
gene 3 131 4 1.16331 0 379 1.16331 1
gene 1 3 131 1.93231 0 494 1.93231 1
genomeend 96

/* Organism #97 Fitness: 9 Error: 1 */
genomestart 97
trait 1 0.1 0.0576945 0 0 0 0 0 0.0136104 
trait 2 0.1 0 0.0210098 0.464117 0.453182 0 0 0.0346538 
trait 3 0 0 0 0 0.281361 0.55744 0 0 
node 1 3 1 3
node 2 3 1 1
node 3 3 1 1
node 4 1 0 2
node 23 1 0 0
node 55 1 0 0
node 115 1 0 0
node 131 1 0 0
gene 2 1 4 6.6555 0 1 6.6555 1
gene 2 2 4 -5.51924 0 2 -5.51924 0
gene 1 3 4 -6.64961 0 3 -6.64961 1
gene 3 2 23 2.71211 0 40 2.71211 1
gene 3 23 4 -2.90002 0 41 -2.90002 0
gene 2 3 23 -0.270161 0 44 -0.270161 1
gene 1 3 55 1.08777 0 117 1.08777 1
gene 1 55 4 4.6619 0 118 4.6619 1
gene 2 1 55 0.293033 0 143 0.293033 1
gene 2 23 55 1.72581 0 307 1.72581 1
gene 2 2 115 1.81152 0 316 1.81152 1
gene 2 115 4 -7.44035 0 317 -7.44035 1
gene 3 23 115 -7.66127 0 366 -7.66127 1
gene 3 23 131 -3.06188 0 378 -3.06188 1
gene 3 131 4 1.16331 0 379 1.16331 1
gene 1 3 131 3.91137 0 494 3.91137 1
genomeend 97

/* Organism #98 Fitness: 1.00013 Error: 2.99993 */
genomestart 98
trait 1 0.1 0.0576945 0 0 0 0 0 0.0136104 
trait 2 0.1 0 0.0210098 0.464117 0.453182 0 0 0.0346538 
trait 3 0 0 0 0 0.281361 0.55744 0 0 
node 1 3 1 3
node 2 3 1 1
node 3 3 1 1
node 4 1 0 2
node 23 1 0 0
node 55 1 0 0
node 115 1 0 0
node 131 1 0 0
gene 2 1 4 -0.884466 0 1 -0.884466 1
gene 2 2 4 1.12846 0 2 1.12846 0
gene 1 3 4 -7.75197 0 3 -7.75197 1
gene 1 2 23 0.393691 0 40 0.393691 1
gene 3 23 4 -2.60691 0 41 -2.60691 0
gene 2 3 23 -2.15074 0 44 -2.15074 1
gene 1 3 55 4.70037 0 117 4.70037 1
gene 1 55 4 5.0105 0 118 5.0105 1
gene 2 1 55 1.50276 0 143 1.50276 1
gene 2 23 55 1.17214 0 307 1.17214 1
gene 2 2 115 6.50841 0 316 6.50841 1
gene 2 115 4 -6.56077 0 317 -6.56077 1
gene 3 23 115 1.16786 0 366 1.16786 1
gene 3 23 131 -1.77942 0 378 -1.77942 1
gene 3 131 4 -0.727281 0 379 -0.727281 1
gene 1 3 131 2.45734 0 494 2.45734 1
genomeend 98

/* Organism #99 Fitness: 8.99999 Error: 1 */
genomestart 99
trait 1 0.1 0.0576945 0 0 0 0 0 0.0136104 
trait 2 0.1 0 0.0210098 0.464117 0.453182 0 0 0.0346538 
trait 3 0 0 0 0 0.281361 0.55744 0 0 
node 1 3 1 3
node 2 3 1 1
node 3 3 1 1
node 4 1 0 2
node 23 1 0 0
node 55 1 0 0
node 115 1 0 0
node 131 1 0 0
gene 2 1 4 5.51115 0 1 5.51115 1
gene 2 2 4 -8 0 2 -8 0
gene 1 3 4 -8 0 3 -8 1
gene 3 2 23 1.0515 0 40 1.0515 1
gene 3 23 4 -2.16766 0 41 -2.16766 0
gene 2 3 23 1.57606 0 44 1.57606 1
gene 1 3 55 4.73684 0 117 4.73684 1
gene 1 55 4 3.45483 0 118 3.45483 1
gene 2 1 55 0.248907 0 143 0.248907 1
gene 2 23 55 2.71134 0 307 2.71134 1
gene 2 2 115 3.51889 0 316 3.51889 1
gene 2 115 4 -8 0 317 -8 1
gene 3 23 115 -7.04241 0 366 -7.04241 1
gene 3 23 131 -2.16846 0 378 -2.16846 1
gene 3 131 4 1.16331 0 379 1.16331 1
gene 1 3 131 1.93231 0 494 1.93231 1
genomeend 99

/* Organism #100 Fitness: 15.187 Error: 0.102956 */
genomestart 100
trait 1 0.1 0.0576945 0 0 0 0 0 0.0136104 
trait 2 0.1 0 0.0210098 0.464117 0.453182 0 0 0.0346538 
trait 3 0 0 0.508832 0 0 0.55744 0.898199 0 
node 1 3 1 3
node 2 3 1 1
node 3 1 1 1
node 4 1 0 2
node 23 1 0 0
node 55 1 0 0
node 115 1 0 0
node 131 1 0 0
gene 2 1 4 8 0 1 8 1
gene 2 2 4 -6.22289 0 2 -6.22289 0
gene 1 3 4 -5.19865 0 3 -5.19865 1
gene 3 2 23 0.664289 0 40 0.664289 1
gene 3 23 4 -1.31187 0 41 -1.31187 0
gene 2 3 23 -0.702997 0 44 -0.702997 1
gene 1 3 55 5.53549 0 117 5.53549 1
gene 1 55 4 3.60372 0 118 3.60372 1
gene 2 1 55 1.52621 0 143 1.52621 1
gene 2 23 55 0.53227 0 307 0.53227 1
gene 2 2 115 3.68042 0 316 3.68042 1
gene 2 115 4 -8 0 317 -8 1
gene 3 23 115 -4.57392 0 366 -4.57392 1
gene 3 23 131 1.35412 0 378 1.35412 1
gene 3 131 4 1.16331 0 379 1.16331 1
gene 1 3 131 0.334189 0 494 0.334189 1
genomeend 100

/* Species #24 : (Size 7) (AF 9.98274) (Age 22)  */


/* Organism #101 Fitness: 15.9954 Error: 0.000581157 */
genomestart 101
trait 1 0.1 0.0576945 0 0 0 0 0 0.0136104 
trait 2 0.2 0 0.0210098 0.0202803 0.0336948 0 0 0.0346538 
trait 3 0.263249 0 0.023181 0 0.281361 0 0.0426411 0.00501003 
node 1 3 1 3
node 2 3 1 1
node 3 3 1 1
node 4 1 0 2
node 23 1 0 0
node 55 1 0 0
node 91 1 0 0
node 118 1 0 0
gene 2 1 4 5.58726 0 1 5.58726 1
gene 3 2 4 -2.24117 0 2 -2.24117 1
gene 1 3 4 -6.30359 0 3 -6.30359 1
gene 3 2 23 4.40675 0 40 4.40675 0
gene 3 23 4 -3.92683 0 41 -3.92683 1
gene 2 3 23 -4.00603 0 44 -4.00603 1
gene 1 3 55 5.8678 0 117 5.8678 1
gene 1 55 4 3.40613 0 118 3.40613 1
gene 2 1 55 1.13857 0 143 1.13857 1
gene 3 2 55 1.07768 0 208 1.07768 1
gene 3 2 91 2.59253 0 240 2.59253 1
gene 3 91 4 -2.16444 0 241 -2.16444 1
gene 3 2 118 0.465835 0 327 0.465835 1
gene 3 118 23 1.6881 0 328 1.6881 1
gene 3 1 118 -3.25732 0 337 -3.25732 1
gene 1 23 91 -0.620005 0 354 -0.620005 1
genomeend 101

/* Organism #102 Fitness: 2.64629 Error: 2.37326 */
genomestart 102
trait 1 0.1 0.0576945 0 0 0 0 0 0.0136104 
trait 2 0.2 0 0.0210098 0.0202803 0.0336948 0 0 0.0346538 
trait 3 0.263249 0 0.023181 0 0.281361 0 0.0426411 0.00501003 
node 1 3 1 3
node 2 3 1 1
node 3 3 1 1
node 4 1 0 2
node 23 1 0 0
node 55 1 0 0
node 91 1 0 0
node 118 1 0 0
gene 2 1 4 0.181772 0 1 0.181772 1
gene 3 2 4 -3.63188 0 2 -3.63188 1
gene 1 3 4 2.37833 0 3 2.37833 1
gene 3 2 23 3.52935 0 40 3.52935 0
gene 3 23 4 -2.29339 0 41 -2.29339 1
gene 2 3 23 -4.00603 0 44 -4.00603 1
gene 1 3 55 -2.14666 0 117 -2.14666 1
gene 1 55 4 0.0321429 0 118 0.0321429 1
gene 2 1 55 3.34078 0 143 3.34078 1
gene 3 2 55 1.08983 0 208 1.08983 1
gene 3 2 91 2.65305 0 240 2.65305 1
gene 3 91 4 0.953974 0 241 0.953974 1
gene 3 2 118 -2.01941 0 327 -2.01941 1
gene 3 118 23 3.03402 0 328 3.03402 1
gene 3 1 118 -2.02655 0 337 -2.02655 1
gene 1 23 91 -0.620005 0 354 -0.620005 1
genomeend 102

/* Organism #103 Fitness: 15.9982 Error: 0.000219119 */
genomestart 103
trait 1 0.1 0.0576945 0 0 0 0 0 0.0136104 
trait 2 0.2 0 0.0210098 0.0202803 0.0336948 0 0 0.0346538 
trait 3 0.263249 0 0.023181 0 0.281361 0 0.0426411 0.00501003 
node 1 3 1 3
node 2 3 1 1
node 3 3 1 1
node 4 1 0 2
node 23 1 0 0
node 55 1 0 0
node 91 1 0 0
node 118 1 0 0
gene 2 1 4 5.58726 0 1 5.58726 1
gene 3 2 4 -2.24117 0 2 -2.24117 1
gene 1 3 4 -6.30359 0 3 -6.30359 1
gene 3 2 23 4.40675 0 40 4.40675 0
gene 3 23 4 -3.92683 0 41 -3.92683 1
gene 2 3 23 -4.00603 0 44 -4.00603 1
gene 1 3 55 5.8678 0 117 5.8678 1
gene 1 55 4 3.40613 0 118 3.40613 1
gene 2 1 55 1.13857 0 143 1.13857 1
gene 3 2 55 1.07768 0 208 1.07768 1
gene 3 2 91 2.59253 0 240 2.59253 1
gene 3 91 4 -2.16444 0 241 -2.16444 1
gene 3 2 118 0.465835 0 327 0.465835 1
gene 3 118 23 1.6881 0 328 1.6881 1
gene 3 1 118 -3.25732 0 337 -3.25732 1
gene 1 23 91 -0.620005 0 354 -0.620005 1
gene 3 1 91 -0.9561 0 563 -0.9561 1
genomeend 103

/* Organism #104 Fitness: 6.48039 Error: 1.45434 */
genomestart 104
trait 1 0.1 0.0576945 0 0 0 0 0 0.0136104 
trait 2 0.2 0 0.0210098 0.0202803 0.0336948 0 0 0.0346538 
trait 3 0.263249 0 0.023181 0 0.281361 0 0.0426411 0.00501003 
node 1 3 1 3
node 2 3 1 1
node 3 3 1 1
node 4 1 0 2
node 23 1 0 0
node 55 1 0 0
node 91 1 0 0
node 118 1 0 0
gene 2 1 4 5.06432 0 1 5.06432 1
gene 3 2 4 -0.174223 0 2 -0.174223 1
gene 1 3 4 -6.92583 0 3 -6.92583 1
gene 3 2 23 5.54339 0 40 5.54339 0
gene 3 23 4 -3.21472 0 41 -3.21472 1
gene 2 3 23 -3.30512 0 44 -3.30512 1
gene 1 3 55 6.63772 0 117 6.63772 1
gene 1 55 4 1.28338 0 118 1.28338 1
gene 2 1 55 -0.830494 0 143 -0.830494 1
gene 3 2 55 0.0056788 0 208 0.0056788 1
gene 3 2 91 0.401272 0 240 0.401272 1
gene 3 91 4 -3.51684 0 241 -3.51684 1
gene 3 2 118 -1.39831 0 327 -1.39831 1
gene 3 118 23 0.065051 0 328 0.065051 1
gene 3 1 118 -5.55196 0 337 -5.55196 1
gene 1 23 91 0.238533 0 354 0.238533 1
genomeend 104

/* Organism #105 Fitness: 9.00682 Error: 0.998863 */
genomestart 105
trait 1 0.1 0.0576945 0 0 0 0 0 0.0136104 
trait 2 0.2 0 0.0210098 0.0202803 0.0336948 0 0 0.0346538 
trait 3 0.263249 0 0.023181 0 0.281361 0 0.0426411 0.00501003 
node 1 3 1 3
node 2 3 1 1
node 3 3 1 1
node 4 1 0 2
node 23 1 0 0
node 55 1 0 0
node 91 1 0 0
node 118 1 0 0
gene 2 1 4 6.358 0 1 6.358 1
gene 3 2 4 -0.37076 0 2 -0.37076 1
gene 1 3 4 -7.84567 0 3 -7.84567 1
gene 3 2 23 -0.407994 0 40 -0.407994 0
gene 3 23 4 -4.56784 0 41 -4.56784 1
gene 2 3 23 -6.39632 0 44 -6.39632 1
gene 1 3 55 6.87151 0 117 6.87151 1
gene 1 55 4 1.22394 0 118 1.22394 1
gene 2 1 55 1.79388 0 143 1.79388 1
gene 3 2 55 3.56465 0 208 3.56465 1
gene 3 2 91 5.05815 0 240 5.05815 1
gene 3 91 4 -2.22477 0 241 -2.22477 1
gene 3 2 118 1.80713 0 327 1.80713 1
gene 3 118 23 3.01646 0 328 3.01646 1
gene 3 1 118 -4.37555 0 337 -4.37555 1
gene 1 23 91 -0.590866 0 354 -0.590866 1
genomeend 105

/* Organism #106 Fitness: 3.75671 Error: 2.06178 */
genomestart 106
trait 1 0.1 0.0576945 0 0 0 0 0 0.0136104 
trait 2 0.2 0 0.0210098 0.0202803 0.0336948 0 0 0.0346538 
trait 3 0.263249 0 0.023181 0 0.281361 0 0.0426411 0.00501003 
node 1 3 1 3
node 2 3 1 1
node 3 3 1 1
node 4 1 0 2
node 23 1 0 0
node 55 1 0 0
node 91 1 0 0
node 118 1 0 0
gene 2 1 4 3.73295 0 1 3.73295 1
gene 3 2 4 1.36075 0 2 1.36075 1
gene 1 3 4 -7.82609 0 3 -7.82609 1
gene 3 2 23 6.07797 0 40 6.07797 0
gene 3 23 4 1.78555 0 41 1.78555 1
gene 2 3 23 -2.04581 0 44 -2.04581 1
gene 1 3 55 7.30982 0 117 7.30982 1
gene 1 55 4 5.65832 0 118 5.65832 1
gene 2 1 55 2.81915 0 143 2.81915 1
gene 3 2 55 -0.0604293 0 208 -0.0604293 1
gene 3 2 91 1.87128 0 240 1.87128 1
gene 3 91 4 -2.16444 0 241 -2.16444 1
gene 3 2 118 -1.53565 0 327 -1.53565 1
gene 3 118 23 -0.580972 0 328 -0.580972 1
gene 3 1 118 -3.27193 0 337 -3.27193 1
gene 1 23 91 -2.1587 0 354 -2.1587 1
genomeend 106

/* Organism #107 Fitness: 15.9954 Error: 0.000581157 */
genomestart 107
trait 1 0.1 0.0576945 0 0 0 0 0 0.0136104 
trait 2 0.2 0 0.0210098 0.0202803 0.0336948 0 0 0.0346538 
trait 3 0.263249 0 0.023181 0 0.281361 0 0.0426411 0.00501003 
node 1 3 1 3
node 2 3 1 1
node 3 3 1 1
node 4 1 0 2
node 23 1 0 0
node 55 1 0 0
node 91 1 0 0
node 118 1 0 0
gene 2 1 4 5.58726 0 1 5.58726 1
gene 3 2 4 -2.24117 0 2 -2.24117 1
gene 1 3 4 -6.30359 0 3 -6.30359 1
gene 3 2 23 4.40675 0 40 4.40675 0
gene 3 23 4 -3.92683 0 41 -3.92683 1
gene 2 3 23 -4.00603 0 44 -4.00603 1
gene 1 3 55 5.8678 0 117 5.8678 1
gene 1 55 4 3.40613 0 118 3.40613 1
gene 2 1 55 1.13857 0 143 1.13857 1
gene 3 2 55 1.07768 0 208 1.07768 1
gene 3 2 91 2.59253 0 240 2.59253 1
gene 3 91 4 -2.16444 0 241 -2.16444 1
gene 3 2 118 0.465835 0 327 0.465835 1
gene 3 118 23 1.6881 0 328 1.6881 1
gene 3 1 118 -3.25732 0 337 -3.25732 1
gene 1 23 91 -0.620005 0 354 -0.620005 1
genomeend 107

/* Species #25 : (Size 7) (AF 12.1265) (Age 18)  */


/* Organism #108 Fitness: 16 Error: 1.19063e-07 */
genomestart 108
trait 1 0.1 0.0576945 0 0 0 0 0 0.0136104 
trait 2 0.2 0 0.0210098 0.0202803 0.0336948 0 0 0.0346538 
trait 3 0.263249 0 0.08065 0.032296 0.00133847 0 0.0373109 0.00501003 
node 1 3 1 3
node 2 3 1 1
node 3 3 1 1
node 4 2 0 2
node 23 1 0 0
node 55 1 0 0
node 61 1 0 0
node 92 1 0 0
node 110 1 0 0
node 161 1 0 0
gene 2 1 4 2.44042 0 1 2.44042 1
gene 3 2 4 3.52596 0 2 3.52596 0
gene 1 3 4 -5.7359 0 3 -5.7359 1
gene 3 2 23 -4.41759 0 40 -4.41759 1
gene 3 23 4 0.813093 0 41 0.813093 1
gene 2 3 23 2.80974 0 44 2.80974 1
gene 1 3 55 2.18371 0 117 2.18371 0
gene 1 55 4 8 0 118 8 1
gene 1 2 55 -5.43826 0 125 -5.43826 1
gene 2 3 61 -0.709064 0 137 -0.709064 0
gene 2 61 23 -2.70451 0 138 -2.70451 1
gene 2 1 23 -0.163151 0 144 -0.163151 1
gene 2 3 92 -0.700028 0 242 -0.700028 0
gene 2 92 61 -0.950477 0 243 -0.950477 1
gene 2 61 4 5.1354 0 279 5.1354 1
gene 2 3 110 1.90196 0 300 1.90196 1
gene 2 110 92 2.26933 0 301 2.26933 1
gene 1 92 55 0.816048 0 358 0.816048 1
gene 2 1 92 -1.63214 0 410 -1.63214 1
gene 1 3 161 1 0 479 0 1
gene 1 161 55 2.18371 0 480 0 1
genomeend 108

/* Organism #109 Fitness: 8.89284 Error: 1.01791 */
genomestart 109
trait 1 0.1 0.0576945 0 0 0 0 0 0.0136104 
trait 2 0.2 0 0.0210098 0.0202803 0.0336948 0 0 0.0346538 
trait 3 0.263249 0 0.08065 0.032296 0.00133847 0 0.0373109 0.00501003 
node 1 3 1 3
node 2 3 1 1
node 3 3 1 1
node 4 2 0 2
node 23 1 0 0
node 55 1 0 0
node 61 1 0 0
node 92 1 0 0
node 110 1 0 0
node 161 1 0 0
gene 2 1 4 1.87578 0 1 1.87578 1
gene 3 2 4 3.94164 0 2 3.94164 0
gene 1 3 4 -2.38028 0 3 -2.38028 1
gene 3 2 23 -3.69545 0 40 -3.69545 1
gene 3 23 4 0.813093 0 41 0.813093 1
gene 2 3 23 1.3916 0 44 1.3916 1
gene 1 3 55 3.68023 0 117 3.68023 0
gene 1 55 4 7.22097 0 118 7.22097 1
gene 1 2 55 0.773745 0 125 0.773745 1
gene 2 3 61 -2.75121 0 137 -2.75121 0
gene 2 61 23 -5.11315 0 138 -5.11315 1
gene 2 1 23 1.49064 0 144 1.49064 1
gene 2 3 92 0.0527983 0 242 0.0527983 0
gene 2 92 61 -2.31832 0 243 -2.31832 1
gene 2 61 4 4.89638 0 279 4.89638 1
gene 2 3 110 -0.269345 0 300 -0.269345 1
gene 2 110 92 2.26933 0 301 2.26933 1
gene 1 92 55 -0.81986 0 358 -0.81986 1
gene 2 1 92 0.805228 0 410 0.805228 1
gene 1 3 161 2.53243 0 479 2.53243 1
gene 1 161 55 1.96924 0 480 1.96924 1
genomeend 109

/* Organism #110 Fitness: 15.9998 Error: 2.19539e-05 */
genomestart 110
trait 1 0.1 0.0576945 0 0 0 0 0 0.0136104 
trait 2 0.2 0 0.0210098 0.0202803 0.0336948 0 0 0.0346538 
trait 3 0.263249 0 0.08065 0.032296 0.00133847 0 0.0373109 0.00501003 
node 1 3 1 3
node 2 3 1 1
node 3 3 1 1
node 4 2 0 2
node 23 1 0 0
node 55 1 0 0
node 61 1 0 0
node 92 1 0 0
node 110 1 0 0
node 161 1 0 0
gene 2 1 4 0.983262 0 1 0.983262 1
gene 3 2 4 1.82772 0 2 1.82772 0
gene 1 3 4 -4.26758 0 3 -4.26758 1
gene 3 2 23 -3.24735 0 40 -3.24735 1
gene 3 23 4 0.794678 0 41 0.794678 1
gene 2 3 23 1.83159 0 44 1.83159 1
gene 1 3 55 2.09439 0 117 2.09439 0
gene 1 55 4 8 0 118 8 1
gene 1 2 55 -6.72161 0 125 -6.72161 1
gene 2 3 61 -2.30242 0 137 -2.30242 0
gene 2 61 23 -0.460974 0 138 -0.460974 1
gene 2 1 23 -2.05435 0 144 -2.05435 1
gene 2 3 92 0.914892 0 242 0.914892 0
gene 2 92 61 -0.539561 0 243 -0.539561 1
gene 2 61 4 6.99288 0 279 6.99288 1
gene 2 3 110 0.453393 0 300 0.453393 1
gene 2 110 92 0.460479 0 301 0.460479 1
gene 1 92 55 -0.0861558 0 358 -0.0861558 1
gene 2 1 92 -0.168247 0 410 -0.168247 1
gene 1 3 161 1 0 479 1 1
gene 1 161 55 1.07387 0 480 1.07387 1
genomeend 110

/* Organism #111 Fitness: 9 Error: 1 */
genomestart 111
trait 1 0.1 0.0576945 0 0 0 0 0 0.0136104 
trait 2 0.2 0 0.0210098 0.0202803 0.0336948 0 0 0.0346538 
trait 3 0.263249 0 0.08065 0.032296 0.00133847 0 0.0373109 0.00501003 
node 1 3 1 3
node 2 3 1 1
node 3 3 1 1
node 4 2 0 2
node 23 1 0 0
node 55 1 0 0
node 61 1 0 0
node 92 1 0 0
node 110 1 0 0
node 161 1 0 0
gene 2 1 4 2.80778 0 1 2.80778 1
gene 3 2 4 2.20178 0 2 2.20178 0
gene 1 3 4 -4.09743 0 3 -4.09743 1
gene 3 2 23 -5.73562 0 40 -5.73562 1
gene 3 23 4 -1.22476 0 41 -1.22476 1
gene 2 3 23 2.85743 0 44 2.85743 1
gene 1 3 55 2.60523 0 117 2.60523 0
gene 1 55 4 8 0 118 8 1
gene 1 2 55 -4.68452 0 125 -4.68452 1
gene 2 3 61 -1.58434 0 137 -1.58434 0
gene 2 61 23 -0.90209 0 138 -0.90209 1
gene 2 1 23 -2.59626 0 144 -2.59626 1
gene 2 3 92 1.77692 0 242 1.77692 0
gene 2 92 61 0.938289 0 243 0.938289 1
gene 2 61 4 5.7132 0 279 5.7132 1
gene 2 3 110 -0.217166 0 300 -0.217166 1
gene 2 110 92 0.224537 0 301 0.224537 1
gene 1 92 55 1.23611 0 358 1.23611 1
gene 2 1 92 0.433816 0 410 0.433816 1
gene 1 3 161 3.36781 0 479 3.36781 1
gene 1 161 55 2.18371 0 480 2.18371 1
genomeend 111

/* Organism #112 Fitness: 4.00104 Error: 1.99974 */
genomestart 112
trait 1 0.1 0.0576945 0 0 0 0 0 0.0136104 
trait 2 0.2 0 0.0210098 0.0202803 0.0336948 0 0 0.0346538 
trait 3 0.263249 0 0.08065 0.032296 0.00133847 0 0.0373109 0.00501003 
node 1 3 1 3
node 2 3 1 1
node 3 3 1 1
node 4 2 0 2
node 23 1 0 0
node 55 1 0 0
node 61 1 0 0
node 92 1 0 0
node 110 1 0 0
node 161 1 0 0
gene 2 1 4 3.64223 0 1 3.64223 1
gene 3 2 4 2.638 0 2 2.638 0
gene 1 3 4 -6.35416 0 3 -6.35416 1
