
/* Species #1 : (Size 19) (AF 13.3101) (Age 30)  */


/* Organism #0 Fitness: 15.9999 Error: 6.35377e-06 */
genomestart 0
trait 1 0.130853 0.299115 0.0643348 0.182264 0 0 0 0.0836582 
trait 2 0.2 0.00371727 0.0383264 0.0503469 0.0868424 0 0 0.0562157 
trait 3 0.286066 0.00735071 0.00293232 0.0660015 0.0173826 0.00158429 0.107147 0.0119282 
node 1 2 1 3
node 2 3 1 1
node 3 1 1 1
node 4 3 0 2
gene 1 1 4 7.98779 0 1 7.98779 1
gene 2 2 4 -5.27203 0 2 -5.27203 1
gene 1 3 4 -5.4095 0 3 -5.4095 1
genomeend 0

/* Organism #1 Fitness: 7.10089 Error: 1.33525 */
genomestart 1
trait 1 0.130791 0.299317 0.298378 0.182985 0 0 0 0.0854896 
trait 2 0.2 0.00385522 0.0380085 0.0500297 0.0866193 0 0 0.0558036 
trait 3 0.286475 0.00779577 0.00414867 0.0650921 0.0181918 0.00159525 0.1063 0.0147176 
node 1 2 1 3
node 2 3 1 1
node 3 1 1 1
node 4 3 0 2
gene 1 1 4 -1.72363 0 1 -1.72363 1
gene 2 2 4 1.86283 0 2 1.86283 1
gene 1 3 4 -6.79576 0 3 -6.79576 1
genomeend 1

/* Organism #2 Fitness: 9.00688 Error: 0.998854 */
genomestart 2
trait 1 0.13076 0.299418 0.532295 0.183346 0 0 0 0.0864054 
trait 2 0.2 0.00392419 0.0378496 0.0498711 0.0865077 0 0 0.0555975 
trait 3 0.286679 0.0080183 0.00475685 0.0646373 0.0185964 0.00160073 0.105877 0.0161124 
node 1 2 1 3
node 2 3 1 1
node 3 1 1 1
node 4 3 0 2
gene 1 1 4 8 0 1 8 1
gene 2 2 4 -1.20391 0 2 -1.20391 1
gene 1 3 4 -5.42181 0 3 -5.42181 1
genomeend 2

/* Organism #3 Fitness: 15.9999 Error: 6.50311e-06 */
genomestart 3
trait 1 0.130729 0.299518 0.532422 0.183706 0 0 0 0.0873211 
trait 2 0.2 0.00399316 0.0376907 0.0497125 0.0863961 0 0 0.0553915 
trait 3 0.286884 0.00824083 0.00536502 0.0641826 0.019001 0.00160621 0.105454 0.0175071 
node 1 2 1 3
node 2 3 1 1
node 3 1 1 1
node 4 3 0 2
gene 1 1 4 7.98564 0 1 7.98564 1
gene 3 2 4 -5.27203 0 2 -5.27203 1
gene 1 3 4 -5.42489 0 3 -5.42489 1
genomeend 3

/* Organism #4 Fitness: 15.9999 Error: 6.35377e-06 */
genomestart 4
trait 1 0.130853 0.299115 0.0643348 0.182264 0 0 0 0.0836582 
trait 2 0.2 0.00371727 0.0383264 0.0503469 0.0868424 0 0 0.0562157 
trait 3 0.286066 0.00735071 0.00293232 0.0660015 0.0173826 0.00158429 0.107147 0.0119282 
node 1 2 1 3
node 2 3 1 1
node 3 1 1 1
node 4 1 0 2
gene 1 1 4 7.98779 0 1 7.98779 1
gene 2 2 4 -5.27203 0 2 -5.27203 1
gene 1 3 4 -5.4095 0 3 -5.4095 1
genomeend 4

/* Organism #5 Fitness: 15.9955 Error: 0.000565195 */
genomestart 5
trait 1 0.13076 0.299418 0.532295 0.183346 0 0 0 0.0864054 
trait 2 0.2 0.00392419 0.0378496 0.0498711 0.0865077 0 0 0.0555975 
trait 3 0.286679 0.0080183 0.00475685 0.0646373 0.0185964 0.00160073 0.105877 0.0161124 
node 1 2 1 3
node 2 2 1 1
node 3 1 1 1
node 4 3 0 2
gene 1 1 4 8 0 1 8 1
gene 3 2 4 -3.88019 0 2 -3.88019 1
gene 1 3 4 -6.47817 0 3 -6.47817 1
genomeend 5

/* Organism #6 Fitness: 3.91584 Error: 2.02115 */
genomestart 6
trait 1 0.130853 0.299115 0.0643348 0.182264 0 0 0 0.0836582 
trait 2 0.2 0.00371727 0.0383264 0.0503469 0.0868424 0 0 0.0562157 
trait 3 0.286066 0.00735071 0.00293232 0.0660015 0.0173826 0.00158429 0.107147 0.0119282 
node 1 2 1 3
node 2 3 1 1
node 3 1 1 1
node 4 3 0 2
gene 1 1 4 5.91261 0 1 5.91261 1
gene 2 2 4 1.60232 0 2 1.60232 1
gene 1 3 4 -5.13395 0 3 -5.13395 1
genomeend 6

/* Organism #7 Fitness: 13.767 Error: 0.289609 */
genomestart 7
trait 1 0.130729 0.299518 0.532422 0.183706 0 0 0 0.0873211 
trait 2 0.2 0.00399316 0.0376907 0.0497125 0.0863961 0 0 0.0553915 
trait 3 0.286884 0.00824083 0.00536502 0.0641826 0.019001 0.00160621 0.105454 0.0175071 
node 1 2 1 3
node 2 3 1 1
node 3 1 1 1
node 4 3 0 2
gene 1 1 4 8 0 1 8 1
gene 2 2 4 -5.41913 0 2 -5.41913 1
gene 1 3 4 -7.81778 0 3 -7.81778 1
genomeend 7

/* Organism #8 Fitness: 13.7926 Error: 0.286163 */
genomestart 8
trait 1 0.130822 0.299216 0.298251 0.182625 0 0 0 0.0845739 
trait 2 0.2 0.00378624 0.0381675 0.0501883 0.0867308 0 0 0.0560096 
trait 3 0.28627 0.00757324 0.00354049 0.0655468 0.0177872 0.00158977 0.106724 0.0133229 
node 1 2 1 3
node 2 3 1 1
node 3 1 1 1
node 4 3 0 2
gene 1 1 4 8 0 1 8 1
gene 2 2 4 -4.22973 0 2 -4.22973 1
gene 1 3 4 -3.9559 0 3 -3.9559 1
genomeend 8

/* Organism #9 Fitness: 15.8495 Error: 0.0188624 */
genomestart 9
trait 1 0.130791 0.299317 0.532167 0.182985 0 0 0 0.0854896 
trait 2 0.2 0.00385522 0.0380085 0.0500297 0.0866193 0 0 0.0558036 
trait 3 0.286475 0.00779577 0.00414867 0.0650921 0.0181918 0.00159525 0.1063 0.0147176 
node 1 2 1 3
node 2 3 1 1
node 3 1 1 1
node 4 3 0 2
gene 1 1 4 8 0 1 8 1
gene 2 2 4 -7.19754 0 2 -7.19754 1
gene 1 3 4 -3.84782 0 3 -3.84782 1
genomeend 9

/* Organism #10 Fitness: 15.8665 Error: 0.0167191 */
genomestart 10
trait 1 0.130822 0.299216 0.298251 0.182625 0 0 0 0.0845739 
trait 2 0.2 0.00378624 0.0381675 0.0501883 0.0867308 0 0 0.0560096 
trait 3 0.28627 0.00757324 0.00354049 0.0655468 0.0177872 0.00158977 0.106724 0.0133229 
node 1 2 1 3
node 2 3 1 1
node 3 1 1 1
node 4 3 0 2
gene 1 1 4 5.69328 0 1 5.69328 1
gene 2 2 4 -4.86565 0 2 -4.86565 1
gene 1 3 4 -3.44818 0 3 -3.44818 1
genomeend 10

/* Organism #11 Fitness: 12.2529 Error: 0.499581 */
genomestart 11
trait 1 0.130729 0.299518 0.532422 0.183706 0 0 0 0.0873211 
trait 2 0.2 0.00399316 0.0376907 0.0497125 0.0863961 0 0 0.0553915 
trait 3 0.286884 0.00824083 0.00536502 0.0641826 0.019001 0.00160621 0.105454 0.0175071 
node 1 2 1 3
node 2 3 1 1
node 3 1 1 1
node 4 3 0 2
node 72 1 0 0
gene 1 1 4 7.98635 0 1 7.98635 1
gene 3 2 4 -5.27203 0 2 -5.27203 1
gene 1 3 4 -5.42797 0 3 -5.42797 0
gene 1 3 72 1 0 174 0 1
gene 1 72 4 -5.42797 0 175 0 1
genomeend 11

/* Organism #12 Fitness: 13.3901 Error: 0.340755 */
genomestart 12
trait 1 0.130853 0.299115 0.0643348 0.182264 0 0 0 0.0836582 
trait 2 0.2 0.00371727 0.0383264 0.0503469 0.0868424 0 0 0.0562157 
trait 3 0.286066 0.00735071 0.00293232 0.0660015 0.0173826 0.00158429 0.107147 0.0119282 
node 1 2 1 3
node 2 3 1 1
node 3 1 1 1
node 4 3 0 2
gene 1 1 4 7.13941 0 1 7.13941 1
gene 2 2 4 -4.74098 0 2 -4.74098 1
gene 1 3 4 -7.00539 0 3 -7.00539 1
genomeend 12

/* Organism #13 Fitness: 15.9999 Error: 6.4178e-06 */
genomestart 13
trait 1 0.130791 0.299317 0.298378 0.182985 0 0 0 0.0854896 
trait 2 0.2 0.00385522 0.0380085 0.0500297 0.0866193 0 0 0.0558036 
trait 3 0.286475 0.00779577 0.00414867 0.0650921 0.0181918 0.00159525 0.1063 0.0147176 
node 1 2 1 3
node 2 3 1 1
node 3 1 1 1
node 4 3 0 2
gene 1 1 4 7.98635 0 1 7.98635 1
gene 2 2 4 -5.27203 0 2 -5.27203 1
gene 1 3 4 -5.41566 0 3 -5.41566 1
genomeend 13

/* Organism #14 Fitness: 4.03064 Error: 1.99235 */
genomestart 14
trait 1 0.130791 0.299317 0.298378 0.182985 0 0 0 0.0854896 
trait 2 0.2 0.00385522 0.0380085 0.0500297 0.0866193 0 0 0.0558036 
trait 3 0.286475 0.00779577 0.00414867 0.0650921 0.0181918 0.00159525 0.1063 0.0147176 
node 1 2 1 3
node 2 3 1 1
node 3 1 1 1
node 4 3 0 2
gene 1 1 4 5.6172 0 1 5.6172 1
gene 2 2 4 -6.60953 0 2 -6.60953 1
gene 1 3 4 -7.40001 0 3 -7.40001 1
genomeend 14

/* Organism #15 Fitness: 15.9984 Error: 0.000194618 */
genomestart 15
trait 1 0.130853 0.299115 0.0643348 0.182264 0 0 0 0.0836582 
trait 2 0.2 0.00371727 0.0383264 0.0503469 0.0868424 0 0 0.0562157 
trait 3 0.286066 0.00735071 0.00293232 0.0660015 0.0173826 0.00158429 0.107147 0.0119282 
node 1 2 1 3
node 2 3 1 1
node 3 1 1 1
node 4 3 0 2
gene 1 1 4 5.95787 0 1 5.95787 1
gene 2 2 4 -4.04638 0 2 -4.04638 1
gene 1 3 4 -4.06061 0 3 -4.06061 1
genomeend 15

/* Organism #16 Fitness: 15.9968 Error: 0.000402069 */
genomestart 16
trait 1 0.130791 0.299317 0.532167 0.182985 0 0 0 0.0854896 
trait 2 0.2 0.00385522 0.0380085 0.0500297 0.0866193 0 0 0.0558036 
trait 3 0.286475 0.00779577 0.00414867 0.0650921 0.0181918 0.00159525 0.1063 0.0147176 
node 1 2 1 3
node 2 3 1 1
node 3 1 1 1
node 4 3 0 2
gene 1 1 4 8 0 1 8 1
gene 2 2 4 -4.87274 0 2 -4.87274 1
gene 1 3 4 -4.71515 0 3 -4.71515 1
genomeend 16

/* Organism #17 Fitness: 15.9366 Error: 0.00792916 */
genomestart 17
trait 1 0.130729 0.299518 0.532422 0.183706 0 0 0 0.0873211 
trait 2 0.2 0.00399316 0.0376907 0.0497125 0.0863961 0 0 0.0553915 
trait 3 0.286884 0.00824083 0.00536502 0.0641826 0.019001 0.00160621 0.105454 0.0175071 
node 1 2 1 3
node 2 3 1 1
node 3 1 1 1
node 4 3 0 2
gene 1 1 4 8 0 1 8 1
gene 3 2 4 -5.5484 0 2 -5.5484 1
gene 1 3 4 -7.01915 0 3 -7.01915 1
genomeend 17

/* Organism #18 Fitness: 15.9917 Error: 0.00104248 */
genomestart 18
trait 1 0.130791 0.299317 0.298378 0.182985 0 0 0 0.0854896 
trait 2 0.2 0.00385522 0.0380085 0.0500297 0.0866193 0 0 0.0558036 
trait 3 0.286475 0.00779577 0.00414867 0.0650921 0.0181918 0.00159525 0.1063 0.0147176 
node 1 2 1 3
node 2 3 1 1
node 3 1 1 1
node 4 3 0 2
gene 1 1 4 7.68001 0 1 7.68001 1
gene 3 2 4 -3.14201 0 2 -3.14201 1
gene 1 3 4 -5.98443 0 3 -5.98443 1
genomeend 18

/* Species #2 : (Size 14) (AF 11.9509) (Age 20)  */


/* Organism #19 Fitness: 15.9988 Error: 0.000147727 */
genomestart 19
trait 1 0.1 0.0554408 0.0211556 0.0389106 0.00772974 0.00652728 0 0.0130787 
trait 2 0.163243 0.258059 0.26765 0.0136258 0.313412 0 0.251059 0.271067 
trait 3 0.288516 0 0 0 0.00146694 0 0.0467339 0.00501003 
node 1 3 1 3
node 2 3 1 1
node 3 3 1 1
node 4 1 0 2
node 23 1 0 0
gene 2 1 4 6.27101 0 1 6.27101 1
gene 3 2 4 -1.13377 0 2 -1.13377 1
gene 1 3 4 -3.89048 0 3 -3.89048 1
gene 3 2 23 2.94784 0 40 2.94784 1
gene 3 23 4 -3.21096 0 41 -2.86766 1
gene 1 1 23 -0.788814 0 78 -0.788814 1
gene 1 3 23 -0.652434 0 156 -0.652434 1
genomeend 19

/* Organism #20 Fitness: 4.02878 Error: 1.99282 */
genomestart 20
trait 1 0.1 0.0547647 0.0275023 0.0505838 0.0100487 0.00848547 0 0.0129192 
trait 2 0.160617 0.276492 0.285267 0.0131505 0.333392 0 0.268991 0.287953 
trait 3 0.287635 0 0 0 0.00146246 0 0.0465911 0.00501003 
node 1 3 1 3
node 2 3 1 1
node 3 3 1 1
node 4 1 0 2
node 23 1 0 0
gene 2 1 4 5.99648 0 1 5.99648 1
gene 3 2 4 0.811805 0 2 0.811805 1
gene 1 3 4 -2.32935 0 3 -2.32935 1
gene 3 2 23 3.68817 0 40 3.68817 1
gene 3 23 4 -3.53857 0 41 -3.53857 1
gene 1 1 23 0.275502 0 78 0.275502 1
gene 1 3 23 -3.14125 0 169 -3.14125 1
genomeend 20

/* Organism #21 Fitness: 15.9988 Error: 0.000154949 */
genomestart 21
trait 1 0.1 0.0551028 0.024329 0.0447472 0.0088892 0.00750638 0 0.012999 
trait 2 0.16193 0.267275 0.276458 0.0133882 0.323402 0 0.260025 0.27951 
trait 3 0.288075 0 0 0 0.0014647 0 0.0466625 0.00501003 
node 1 3 1 3
node 2 3 1 1
node 3 3 1 1
node 4 1 0 2
node 23 1 0 0
gene 2 1 4 6.36893 0 1 6.36893 1
gene 3 2 4 -1.13377 0 2 -1.13377 1
gene 1 3 4 -3.89048 0 3 -3.89048 1
gene 3 2 23 2.94784 0 40 2.94784 1
gene 3 23 4 -3.21096 0 41 -2.86766 1
gene 1 1 23 -0.788814 0 78 -0.788814 1
gene 1 3 23 -0.652434 0 156 -0.652434 1
genomeend 21

/* Organism #22 Fitness: 10.7859 Error: 0.715816 */
genomestart 22
trait 1 0.1 0.0547647 0.0275023 0.0505838 0.0100487 0.00848547 0 0.0129192 
trait 2 0.160617 0.276492 0.285267 0.0131505 0.333392 0 0.268991 0.287953 
trait 3 0.287635 0 0 0 0.00146246 0 0.0465911 0.00501003 
node 1 3 1 3
node 2 3 1 1
node 3 3 1 1
node 4 2 0 2
node 23 1 0 0
node 72 1 0 0
gene 2 1 4 6.36893 0 1 6.36893 1
gene 3 2 4 -1.13377 0 2 -1.13377 1
gene 1 3 4 -3.89048 0 3 -3.89048 0
gene 3 2 23 2.94784 0 40 2.94784 1
gene 3 23 4 -3.47757 0 41 -3.01983 1
gene 1 1 23 -0.788814 0 78 -0.788814 1
gene 1 3 23 -0.652434 0 156 -0.652434 1
gene 1 3 72 1 0 174 0 1
gene 1 72 4 -3.89048 0 175 0 1
genomeend 22

/* Organism #23 Fitness: 12.248 Error: 0.500279 */
genomestart 23
trait 1 0.1 0.0547647 0.0275023 0.0505838 0.0100487 0.00848547 0 0.0129192 
trait 2 0.160617 0.276492 0.285267 0.0131505 0.333392 0 0.268991 0.287953 
trait 3 0.287635 0 0 0 0.00146246 0 0.0465911 0.00501003 
node 1 3 1 3
node 2 3 1 1
node 3 3 1 1
node 4 2 0 2
node 23 1 0 0
node 73 1 0 0
gene 2 1 4 6.36893 0 1 6.36893 1
gene 3 2 4 -1.13377 0 2 -1.13377 0
gene 1 3 4 -3.89048 0 3 -3.89048 1
gene 3 2 23 2.94784 0 40 2.94784 1
gene 3 23 4 -3.47757 0 41 -3.01983 1
gene 1 1 23 -0.788814 0 78 -0.788814 1
gene 1 3 23 -0.652434 0 156 -0.652434 1
gene 3 2 73 1 0 176 0 1
gene 3 73 4 -1.13377 0 177 0 1
genomeend 23

/* Organism #24 Fitness: 15.9817 Error: 0.00228336 */
genomestart 24
trait 1 0.1 0.0547647 0.0275023 0.0505838 0.0100487 0.00848547 0 0.0129192 
trait 2 0.160617 0.276492 0.285267 0.0131505 0.333392 0 0.268991 0.287953 
trait 3 0.287635 0 0 0 0.00146246 0 0.0465911 0.00501003 
node 1 3 1 3
node 2 2 1 1
node 3 3 1 1
node 4 1 0 2
node 23 1 0 0
gene 2 1 4 7.21718 0 1 7.21718 1
gene 3 2 4 -3.5574 0 2 -3.5574 1
gene 1 3 4 -4.89265 0 3 -4.89265 1
gene 1 2 23 1.50443 0 40 1.50443 1
gene 3 23 4 -2.42319 0 41 -2.42319 1
gene 1 1 23 1.11986 0 78 1.11986 1
gene 1 3 23 -2.66479 0 156 -2.66479 1
genomeend 24

/* Organism #25 Fitness: 15.9983 Error: 0.000206991 */
genomestart 25
trait 1 0.1 0.0547647 0.0275023 0.0505838 0.0100487 0.00848547 0 0.0129192 
trait 2 0.160617 0.276492 0.285267 0.0131505 0.333392 0 0.268991 0.287953 
trait 3 0.287635 0 0 0 0.00146246 0 0.0465911 0.00501003 
node 1 3 1 3
node 2 3 1 1
node 3 3 1 1
node 4 1 0 2
node 23 1 0 0
gene 2 1 4 6.36893 0 1 6.36893 1
gene 3 2 4 -1.13377 0 2 -1.13377 1
gene 1 3 4 -3.89048 0 3 -3.89048 1
gene 3 2 23 2.94784 0 40 2.94784 1
gene 3 23 4 -3.47757 0 41 -3.01983 1
gene 1 1 23 -0.788814 0 78 -0.788814 1
gene 1 3 23 -0.652434 0 156 -0.652434 1
genomeend 25

/* Organism #26 Fitness: 1.01402 Error: 2.99302 */
genomestart 26
trait 1 0.1 0.0547647 0.0275023 0.0505838 0.0100487 0.00848547 0 0.0129192 
trait 2 0.160617 0.276492 0.285267 0.0131505 0.333392 0 0.268991 0.287953 
trait 3 0.287635 0 0 0 0.00146246 0 0.0465911 0.00501003 
node 1 3 1 3
node 2 3 1 1
node 3 3 1 1
node 4 1 0 2
node 23 1 0 0
gene 2 1 4 8 0 1 8 1
gene 3 2 4 2.3768 0 2 2.3768 1
gene 1 3 4 -5.81186 0 3 -5.81186 1
gene 3 2 23 -0.0203272 0 40 -0.0203272 1
gene 3 23 4 -3.24399 0 41 -3.24399 1
gene 1 1 23 1.82247 0 78 1.82247 1
gene 1 3 23 1.40112 0 169 1.40112 1
genomeend 26

/* Organism #27 Fitness: 9 Error: 1 */
genomestart 27
trait 1 0.1 0.0554408 0.0211556 0.0389106 0.00772974 0.00652728 0 0.0130787 
trait 2 0.163243 0.258059 0.26765 0.0136258 0.313412 0 0.251059 0.271067 
trait 3 0.288516 0 0 0 0.00146694 0 0.0467339 0.00501003 
node 1 3 1 3
node 2 3 1 1
node 3 3 1 1
node 4 1 0 2
node 23 1 0 0
gene 2 1 4 8 0 1 8 1
gene 3 2 4 -1.94358 0 2 -1.94358 1
gene 1 3 4 -2.74964 0 3 -2.74964 1
gene 3 2 23 3.7785 0 40 3.7785 1
gene 3 23 4 -3.01402 0 41 -3.01402 1
gene 1 1 23 -2.32535 0 78 -2.32535 1
gene 1 3 23 -2.67035 0 156 -2.67035 1
genomeend 27

/* Organism #28 Fitness: 9.26334 Error: 0.956427 */
genomestart 28
trait 1 0.1 0.0547647 0.0275023 0.0505838 0.0100487 0.00848547 0 0.0129192 
trait 2 0.160617 0.276492 0.285267 0.0131505 0.333392 0 0.268991 0.287953 
trait 3 0.287635 0 0 0 0.00146246 0 0.0465911 0.00501003 
node 1 3 1 3
node 2 3 1 1
node 3 3 1 1
node 4 2 0 2
node 23 1 0 0
gene 2 1 4 8 0 1 8 1
gene 3 2 4 -1.04556 0 2 -1.04556 1
gene 1 3 4 -3.30351 0 3 -3.30351 1
gene 3 2 23 1.20557 0 40 1.20557 1
gene 3 23 4 -3.02497 0 41 -3.02497 1
gene 1 1 23 1.04433 0 78 1.04433 1
gene 1 3 23 0.599868 0 156 0.599868 1
genomeend 28

/* Organism #29 Fitness: 15.9983 Error: 0.000206991 */
genomestart 29
trait 1 0.1 0.0547647 0.0275023 0.0505838 0.0100487 0.00848547 0 0.0129192 
trait 2 0.160617 0.276492 0.285267 0.0131505 0.333392 0 0.268991 0.287953 
trait 3 0.287635 0 0 0 0.00146246 0 0.0465911 0.00501003 
node 1 3 1 3
node 2 3 1 1
node 3 3 1 1
node 4 2 0 2
node 23 1 0 0
gene 2 1 4 6.36893 0 1 6.36893 1
gene 3 2 4 -1.13377 0 2 -1.13377 1
gene 1 3 4 -3.89048 0 3 -3.89048 1
gene 3 2 23 2.94784 0 40 2.94784 1
gene 3 23 4 -3.47757 0 41 -3.01983 1
gene 1 1 23 -0.788814 0 78 -0.788814 1
gene 1 3 23 -0.652434 0 156 -0.652434 1
genomeend 29

/* Organism #30 Fitness: 9 Error: 1 */
genomestart 30
trait 1 0.1 0.0547647 0.0275023 0.0505838 0.0100487 0.00848547 0 0.0129192 
trait 2 0.160617 0.276492 0.285267 0.0131505 0.333392 0 0.268991 0.287953 
trait 3 0.287635 0 0 0 0.00146246 0 0.0465911 0.00501003 
node 1 3 1 3
node 2 3 1 1
node 3 3 1 1
node 4 2 0 2
node 23 1 0 0
gene 2 1 4 5.59201 0 1 5.59201 1
gene 3 2 4 -1.13377 0 2 -1.13377 1
gene 1 3 4 -2.04466 0 3 -2.04466 1
gene 3 2 23 2.94784 0 40 2.94784 1
gene 1 23 4 1.10634 0 41 1.10634 1
gene 1 1 23 -2.93282 0 78 -2.93282 1
gene 1 3 23 0.52467 0 156 0.52467 1
genomeend 30

/* Organism #31 Fitness: 15.9983 Error: 0.000206991 */
genomestart 31
trait 1 0.1 0.0547647 0.0275023 0.0505838 0.0100487 0.00848547 0 0.0129192 
trait 2 0.160617 0.276492 0.285267 0.0131505 0.333392 0 0.268991 0.287953 
trait 3 0.287635 0 0 0 0.00146246 0 0.0465911 0.00501003 
node 1 3 1 3
node 2 3 1 1
node 3 3 1 1
node 4 2 0 2
node 23 1 0 0
gene 2 1 4 6.36893 0 1 6.36893 1
gene 3 2 4 -1.13377 0 2 -1.13377 1
gene 1 3 4 -3.89048 0 3 -3.89048 1
gene 3 2 23 2.94784 0 40 2.94784 1
gene 3 23 4 -3.47757 0 41 -3.01983 1
gene 1 1 23 -0.788814 0 78 -0.788814 1
gene 1 3 23 -0.652434 0 156 -0.652434 1
genomeend 31

/* Organism #32 Fitness: 15.9983 Error: 0.000207673 */
genomestart 32
trait 1 0.1 0.0547647 0.0275023 0.0505838 0.0100487 0.00848547 0 0.0129192 
trait 2 0.160617 0.276492 0.285267 0.0131505 0.333392 0 0.268991 0.287953 
trait 3 0.287635 0 0 0 0.00146246 0 0.0465911 0.00501003 
node 1 3 1 3
node 2 3 1 1
node 3 3 1 1
node 4 1 0 2
node 23 1 0 0
gene 2 1 4 6.36893 0 1 6.36893 1
gene 3 2 4 -1.13377 0 2 -1.13377 1
gene 1 3 4 -3.89048 0 3 -3.89048 1
gene 3 2 23 2.94784 0 40 2.94784 1
gene 3 23 4 -3.47757 0 41 -3.01983 1
gene 1 1 23 -0.788814 0 78 -0.788814 1
gene 1 3 23 -0.909638 0 169 -0.909638 1
genomeend 32

/* Species #3 : (Size 17) (AF 12.1115) (Age 15)  */


/* Organism #33 Fitness: 15.9871 Error: 0.0016165 */
genomestart 33
trait 1 0.1 0.0576945 0.110738 0 0 0 0 0.428254 
trait 2 0.2 0 0.0210098 0.0202803 0.0336948 0.132647 0 0.0346538 
trait 3 0.300856 0 0.0826598 0 0.0764277 0.101405 0.0523488 0.00501003 
node 1 3 1 3
node 2 3 1 1
node 3 3 1 1
node 4 2 0 2
node 23 1 0 0
node 37 1 0 0
gene 2 1 4 6.27531 0 1 6.27531 1
gene 3 2 4 0.931276 0 2 0.931276 0
gene 1 3 4 -5.35037 0 3 -5.35037 1
gene 3 2 23 1.84175 0 40 1.84175 1
gene 3 23 4 -5.98394 0 41 -5.98394 1
gene 1 3 37 1.11653 0 74 1.11653 1
gene 1 37 4 3.69392 0 75 3.69392 1
genomeend 33

/* Organism #34 Fitness: 15.995 Error: 0.000621003 */
genomestart 34
trait 1 0.1 0.0576945 0 0 0 0 0 0.0136104 
trait 2 0.2 0 0.0210098 0.0202803 0.0336948 0.132647 0 0.0346538 
trait 3 0.300856 0 0.0826598 0 0.0764277 0.101405 0.0523488 0.00501003 
node 1 2 1 3
node 2 3 1 1
node 3 3 1 1
node 4 2 0 2
node 23 1 0 0
node 37 1 0 0
gene 2 1 4 7.68465 0 1 7.68465 1
gene 3 2 4 2.46164 0 2 2.46164 0
gene 1 3 4 -5.88026 0 3 -5.88026 1
gene 3 2 23 0.670453 0 40 0.670453 1
gene 3 23 4 -7.32593 0 41 -7.32593 1
gene 1 3 37 1.82489 0 74 1.82489 1
gene 1 37 4 3.62138 0 75 3.62138 1
genomeend 34

/* Organism #35 Fitness: 8.99584 Error: 1.00069 */
genomestart 35
trait 1 0.1 0.0576945 0.0553691 0 0 0 0 0.220932 
trait 2 0.2 0 0.0210098 0.0202803 0.0336948 0.132647 0 0.0346538 
trait 3 0.300856 0 0.0826598 0 0.0764277 0.101405 0.0523488 0.00501003 
node 1 3 1 3
node 2 3 1 1
node 3 3 1 1
node 4 2 0 2
node 23 1 0 0
node 37 1 0 0
gene 2 1 4 7.99625 0 1 7.99625 1
gene 3 2 4 -0.989557 0 2 -0.989557 0
gene 1 3 4 -5.19575 0 3 -5.19575 1
gene 3 2 23 1.6697 0 40 1.6697 1
gene 3 23 4 -3.91034 0 41 -3.91034 1
gene 1 3 37 2.39383 0 74 2.39383 1
gene 1 37 4 2.95358 0 75 2.95358 1
gene 1 3 23 -2.96257 0 169 -2.96257 1
genomeend 35

/* Organism #36 Fitness: 8.09002 Error: 1.1557 */
genomestart 36
trait 1 0.1 0.0576945 0.110738 0 0 0 0 0.428254 
trait 2 0.2 0 0.0210098 0.0202803 0.0336948 0.132647 0 0.0346538 
trait 3 0.300856 0 0.0826598 0 0.0764277 0.101405 0.0523488 0.00501003 
node 1 3 1 3
node 2 3 1 1
node 3 3 1 1
node 4 2 0 2
node 23 1 0 0
node 37 1 0 0
gene 2 1 4 7.13177 0 1 7.13177 1
gene 3 2 4 2.68813 0 2 2.68813 0
gene 1 3 4 -7.25477 0 3 -7.25477 1
gene 3 2 23 1.82748 0 40 1.82748 1
gene 3 23 4 -8 0 41 -8 1
gene 1 3 37 -0.366737 0 74 -0.366737 1
gene 1 37 4 2.42895 0 75 2.42895 1
genomeend 36

/* Organism #37 Fitness: 4.64792 Error: 1.8441 */
genomestart 37
trait 1 0.1 0.0576945 0.110738 0 0 0 0 0.428254 
trait 2 0.2 0 0.0210098 0.0202803 0.0336948 0.132647 0 0.0346538 
trait 3 0.300856 0 0.0826598 0 0.0764277 0.101405 0.0523488 0.00501003 
node 1 3 1 3
node 2 1 1 1
node 3 3 1 1
node 4 2 0 2
node 23 1 0 0
node 37 1 0 0
gene 2 1 4 4.16855 0 1 4.16855 1
gene 3 2 4 0.725751 0 2 0.725751 0
gene 1 3 4 -6.18219 0 3 -6.18219 1
gene 3 2 23 2.75154 0 40 2.75154 1
gene 3 23 4 2.3815 0 41 2.3815 1
gene 1 3 37 -1.5698 0 74 -1.5698 1
gene 1 37 4 2.79486 0 75 2.79486 1
genomeend 37

/* Organism #38 Fitness: 15.9957 Error: 0.000541445 */
genomestart 38
trait 1 0.1 0.0576945 0.110738 0 0 0 0 0.428254 
trait 2 0.2 0 0.0210098 0.0202803 0.0336948 0.132647 0 0.0346538 
trait 3 0.300856 0.248196 0.958776 0 0.0764277 0.101405 0.0283942 0.00501003 
node 1 3 1 3
node 2 3 1 1
node 3 3 1 1
node 4 2 0 2
node 23 1 0 0
node 37 1 0 0
gene 2 1 4 6.27531 0 1 6.27531 1
gene 3 2 4 0.520227 0 2 0.520227 0
gene 1 3 4 -5.35037 0 3 -5.35037 1
gene 3 2 23 1.84175 0 40 1.84175 1
gene 3 23 4 -6.05394 0 41 -6.05394 1
gene 1 3 37 0.947929 0 74 0.947929 1
gene 1 37 4 3.40248 0 75 3.40248 1
gene 1 3 23 -0.909638 0 169 0 1
genomeend 38

/* Organism #39 Fitness: 15.6831 Error: 0.0398064 */
genomestart 39
trait 1 0.1 0.0576945 0.0553691 0 0 0 0 0.220932 
trait 2 0.2 0 0.0210098 0.0202803 0.0336948 0.132647 0 0.0346538 
trait 3 0.300856 0 0.0826598 0 0.0764277 0.101405 0.0523488 0.00501003 
node 1 2 1 3
node 2 3 1 1
node 3 3 1 1
node 4 2 0 2
node 23 1 0 0
node 37 1 0 0
gene 2 1 4 6.3501 0 1 6.3501 1
gene 3 2 4 1.1368 0 2 1.1368 0
gene 1 3 4 -5.61532 0 3 -5.61532 1
gene 3 2 23 1.2561 0 40 1.2561 1
gene 3 23 4 -6.15726 0 41 -6.15726 1
gene 1 3 37 1.20083 0 74 1.20083 1
gene 1 37 4 3.83963 0 75 3.83963 1
gene 1 3 23 -0.909638 0 169 0 1
genomeend 39

/* Organism #40 Fitness: 14.7081 Error: 0.164891 */
genomestart 40
trait 1 0.1 0.0576945 0.110738 0 0 0 0 0.428254 
trait 2 0.2 0 0.0210098 0.0202803 0.0336948 0.132647 0 0.0346538 
trait 3 0.300856 0 0.0826598 0 0.0764277 0.101405 0.0523488 0.00501003 
node 1 3 1 3
node 2 3 1 1
node 3 3 1 1
node 4 2 0 2
node 23 1 0 0
node 37 1 0 0
gene 2 1 4 8 0 1 8 1
gene 3 2 4 2.39584 0 2 2.39584 0
gene 1 3 4 -5.27609 0 3 -5.27609 1
gene 3 2 23 1.56762 0 40 1.56762 1
gene 3 23 4 -3.94661 0 41 -3.94661 1
gene 1 3 37 -0.11036 0 74 -0.11036 1
gene 1 37 4 2.41479 0 75 2.41479 1
genomeend 40

/* Organism #41 Fitness: 15.9871 Error: 0.0016165 */
genomestart 41
trait 1 0.1 0.0576945 0.110738 0 0 0 0 0.428254 
trait 2 0.2 0 0.0210098 0.0202803 0.0336948 0.132647 0 0.0346538 
trait 3 0.300856 0 0.0826598 0 0.0764277 0.101405 0.0523488 0.00501003 
node 1 3 1 3
node 2 3 1 1
node 3 3 1 1
node 4 2 0 2
node 23 1 0 0
node 37 1 0 0
gene 2 1 4 6.27531 0 1 6.27531 1
gene 3 2 4 0.931276 0 2 0.931276 0
gene 1 3 4 -5.35037 0 3 -5.35037 1
gene 3 2 23 1.84175 0 40 1.84175 1
gene 3 23 4 -5.98394 0 41 -5.98394 1
gene 1 3 37 1.11653 0 74 1.11653 1
gene 1 37 4 3.69392 0 75 3.69392 1
genomeend 41

/* Organism #42 Fitness: 15.9891 Error: 0.00136151 */
genomestart 42
trait 1 0.1 0.0576945 0.110738 0 0 0 0 0.428254 
trait 2 0.2 0 0.0210098 0.0202803 0.0336948 0.132647 0 0.0346538 
trait 3 0.300856 0 0.0826598 0 0.0764277 0.101405 0.0523488 0.00501003 
node 1 3 1 3
node 2 3 1 1
node 3 3 1 1
node 4 2 0 2
node 23 1 0 0
node 37 1 0 0
gene 2 1 4 6.20052 0 1 6.20052 1
gene 3 2 4 0.725751 0 2 0.725751 0
gene 1 3 4 -5.08543 0 3 -5.08543 1
gene 3 2 23 2.74916 0 40 2.74916 1
gene 3 23 4 -6.01894 0 41 -6.01894 1
gene 1 3 37 1.03223 0 74 1.03223 1
gene 1 37 4 3.5482 0 75 3.5482 1
gene 1 3 23 -0.909638 0 169 0 1
genomeend 42

/* Organism #43 Fitness: 9.24436 Error: 0.959546 */
genomestart 43
trait 1 0.1 0.0576945 0.110738 0 0 0 0 0.428254 
trait 2 0.2 0 0.0210098 0.0202803 0.0336948 0.132647 0 0.0346538 
trait 3 0.300856 0 0.0826598 0 0.0764277 0.101405 0.0523488 0.00501003 
node 1 3 1 3
node 2 3 1 1
node 3 3 1 1
node 4 2 0 2
node 23 1 0 0
node 37 1 0 0
gene 2 1 4 5.81959 0 1 5.81959 1
gene 3 2 4 -0.138542 0 2 -0.138542 0
gene 1 3 4 -3.76175 0 3 -3.76175 1
gene 3 2 23 2.39485 0 40 2.39485 1
gene 3 23 4 -8 0 41 -8 1
gene 2 3 37 3.57256 0 74 3.57256 1
gene 1 37 4 3.11109 0 75 3.11109 1
genomeend 43

/* Organism #44 Fitness: 15.9871 Error: 0.0016165 */
genomestart 44
trait 1 0.1 0.0576945 0.0553691 0 0 0 0 0.220932 
trait 2 0.2 0 0.0210098 0.0202803 0.0336948 0.132647 0 0.0346538 
trait 3 0.300856 0 0.0826598 0 0.0764277 0.101405 0.0523488 0.00501003 
node 1 2 1 3
node 2 3 1 1
node 3 3 1 1
node 4 2 0 2
node 23 1 0 0
node 37 1 0 0
gene 2 1 4 6.27531 0 1 6.27531 1
gene 3 2 4 1.34232 0 2 1.34232 0
gene 1 3 4 -5.35037 0 3 -5.35037 1
gene 3 2 23 1.84175 0 40 1.84175 1
gene 3 23 4 -5.98394 0 41 -5.98394 1
gene 1 3 37 1.11653 0 74 1.11653 1
gene 1 37 4 3.69392 0 75 3.69392 1
genomeend 44

/* Organism #45 Fitness: 3.4899 Error: 2.13187 */
genomestart 45
trait 1 0.1 0.0576945 0 0 0 0 0 0.0136104 
trait 2 0.2 0 0.0210098 0.0202803 0.0336948 0.132647 0 0.0346538 
trait 3 0.300856 0 0.0826598 0 0.0764277 0.101405 0.0523488 0.00501003 
node 1 2 1 3
node 2 3 1 1
node 3 3 1 1
node 4 2 0 2
node 23 1 0 0
node 37 1 0 0
gene 2 1 4 5.4747 0 1 5.4747 1
gene 3 2 4 2.53601 0 2 2.53601 0
gene 1 3 4 -5.94217 0 3 -5.94217 1
gene 3 2 23 -1.19667 0 40 -1.19667 1
gene 3 23 4 -8 0 41 -8 1
gene 1 3 37 -0.811581 0 74 -0.811581 1
gene 1 37 4 5.91625 0 75 5.91625 1
genomeend 45

/* Organism #46 Fitness: 15.6978 Error: 0.0379512 */
genomestart 46
trait 1 0.1 0.0576945 0.110738 0 0 0 0 0.428254 
trait 2 0.2 0 0.0210098 0.0202803 0.0336948 0.132647 0 0.0346538 
trait 3 0.300856 0 0.0826598 0 0.0764277 0.101405 0.0523488 0.00501003 
node 1 3 1 3
node 2 3 1 1
node 3 3 1 1
node 4 2 0 2
node 23 1 0 0
node 37 1 0 0
gene 2 1 4 8 0 1 8 1
gene 3 2 4 -0.893444 0 2 -0.893444 0
gene 1 3 4 -4.00595 0 3 -4.00595 1
gene 3 2 23 3.49103 0 40 3.49103 1
gene 3 23 4 -7.19036 0 41 -7.19036 1
gene 1 3 37 -0.901033 0 74 -0.901033 1
gene 1 37 4 1.32104 0 75 1.32104 1
gene 1 3 23 -0.754615 0 169 -0.754615 1
genomeend 46

/* Organism #47 Fitness: 4.20263 Error: 1.94997 */
genomestart 47
trait 1 0.1 0.0576945 0.0553691 0 0 0 0 0.220932 
trait 2 0.2 0 0.0210098 0.0202803 0.0336948 0.132647 0 0.0346538 
trait 3 0.300856 0 0.0826598 0 0.0764277 0.101405 0.0523488 0.00501003 
node 1 3 1 3
node 2 3 1 1
node 3 3 1 1
node 4 2 0 2
node 23 1 0 0
node 37 1 0 0
gene 2 1 4 6.3501 0 1 6.3501 1
gene 3 2 4 1.38636 0 2 1.38636 0
gene 1 3 4 -7.26625 0 3 -7.26625 1
gene 3 2 23 1.86613 0 40 1.86613 1
gene 3 23 4 -5.09361 0 41 -5.09361 1
gene 1 3 37 1.84893 0 74 1.84893 1
gene 1 37 4 -1.02171 0 75 -1.02171 1
genomeend 47

/* Organism #48 Fitness: 15.9855 Error: 0.00181801 */
genomestart 48
trait 1 0.1 0.0576945 0.110738 0 0 0 0 0.428254 
trait 2 0.2 0 0.0210098 0.0202803 0.0336948 0.132647 0 0.0346538 
trait 3 0.300856 0 0.0826598 0 0.0764277 0.101405 0.0523488 0.00501003 
node 1 3 1 3
node 2 3 1 1
node 3 3 1 1
node 4 2 0 2
node 23 1 0 0
node 37 1 0 0
gene 2 1 4 6.12573 0 1 6.12573 1
gene 3 2 4 0.520227 0 2 0.520227 0
gene 1 3 4 -4.82048 0 3 -4.82048 1
gene 3 2 23 3.65658 0 40 3.65658 1
gene 3 23 4 -6.05394 0 41 -6.05394 1
gene 1 3 37 0.947929 0 74 0.947929 1
gene 1 37 4 3.40248 0 75 3.40248 1
genomeend 48

/* Organism #49 Fitness: 9.20869 Error: 0.965418 */
genomestart 49
trait 1 0.1 0.0576945 0.110738 0 0 0 0 0.428254 
trait 2 0.2 0 0.0210098 0.0202803 0.0336948 0.132647 0 0.0346538 
trait 3 0.300856 0 0.0826598 0 0.0764277 0.101405 0.0523488 0.00501003 
node 1 3 1 3
node 2 3 1 1
node 3 3 1 1
node 4 2 0 2
node 23 1 0 0
node 37 1 0 0
gene 2 1 4 5.11112 0 1 5.11112 1
gene 3 2 4 -0.376514 0 2 -0.376514 0
gene 1 3 4 -5.70066 0 3 -5.70066 1
gene 3 2 23 1.29672 0 40 1.29672 1
gene 3 23 4 -4.43765 0 41 -4.43765 1
gene 1 3 37 0.933995 0 74 0.933995 1
gene 1 37 4 2.18137 0 75 2.18137 1
genomeend 49

/* Species #4 : (Size 21) (AF 13.0803) (Age 14)  */


/* Organism #50 Fitness: 16 Error: 1.72256e-06 */
genomestart 50
trait 1 0.0390625 0.0288473 0.198461 0 0.466323 0 0 0.0991651 
trait 2 0.2 0 0.0298831 0.0202803 0.0336948 0 0 0.0346538 
trait 3 0.277351 0 0.00121084 0 0.00250732 0.00148542 0.0449784 0.00501003 
node 1 3 1 3
node 2 3 1 1
node 3 3 1 1
node 4 2 0 2
node 23 1 0 0
gene 2 1 4 8 0 1 8 1
gene 3 2 4 -5.98449 0 2 -5.98449 1
gene 1 3 4 -6.15356 0 3 -6.15356 1
gene 3 2 23 3.94843 0 40 3.94843 1
gene 3 23 4 1.42507 0 41 1.42507 1
gene 2 3 23 3.96691 0 44 3.96691 1
gene 3 1 23 0.930843 0 106 0.930843 1
genomeend 50

/* Organism #51 Fitness: 16 Error: 1.56829e-06 */
genomestart 51
trait 1 0.0488281 0.0360591 0.182754 0 0.349742 0 0 0.0777764 
trait 2 0.2 0 0.0298831 0.0202803 0.0336948 0 0 0.0346538 
trait 3 0.277351 0 0.00121084 0 0.00250732 0.00148542 0.0449784 0.00501003 
node 1 3 1 3
node 2 3 1 1
node 3 3 1 1
node 4 1 0 2
node 23 1 0 0
gene 2 1 4 7.91912 0 1 7.91912 1
gene 3 2 4 -5.98449 0 2 -5.98449 1
gene 1 3 4 -6.67766 0 3 -6.67766 1
gene 3 2 23 1.09363 0 40 1.09363 1
gene 3 23 4 2.01359 0 41 2.01359 1
gene 2 3 23 3.96691 0 44 3.96691 1
gene 3 1 23 -0.115486 0 106 -0.115486 1
genomeend 51

/* Organism #52 Fitness: 15.9999 Error: 6.66346e-06 */
genomestart 52
trait 1 0.0488281 0.0360591 0.182754 0 0.349742 0 0 0.0777764 
trait 2 0.2 0 0.0298831 0.0202803 0.0336948 0 0 0.0346538 
trait 3 0.277351 0 0.00121084 0 0.00250732 0.00148542 0.0449784 0.00501003 
node 1 3 1 3
node 2 3 1 1
node 3 3 1 1
node 4 2 0 2
node 23 1 0 0
gene 2 1 4 7.91912 0 1 7.91912 1
gene 3 2 4 -5.61603 0 2 -5.61603 1
gene 1 3 4 -6.15356 0 3 -6.15356 1
gene 3 2 23 3.94843 0 40 3.94843 1
gene 3 23 4 1.42507 0 41 1.42507 1
gene 2 3 23 5.54491 0 44 5.54491 1
gene 3 1 23 0.930843 0 106 0.930843 1
genomeend 52

/* Organism #53 Fitness: 9.82055 Error: 0.866225 */
genomestart 53
trait 1 0.0390625 0.0288473 0.198461 0 0.466323 0 0 0.0991651 
trait 2 0.2 0 0.0298831 0.0202803 0.0336948 0 0 0.0346538 
trait 3 0.277351 0 0.00121084 0 0.00250732 0.00148542 0.0449784 0.00501003 
node 1 3 1 3
node 2 3 1 1
node 3 3 1 1
node 4 2 0 2
node 23 1 0 0
gene 2 1 4 6.68941 0 1 6.68941 1
gene 3 2 4 -4.19624 0 2 -4.19624 1
gene 1 3 4 -3.9527 0 3 -3.9527 1
gene 2 2 23 6.32686 0 40 6.32686 1
gene 3 23 4 1.83888 0 41 1.83888 1
gene 2 3 23 6.44522 0 44 6.44522 1
gene 3 1 23 -1.11352 0 106 -1.11352 1
genomeend 53

/* Organism #54 Fitness: 15.9693 Error: 0.0038411 */
genomestart 54
trait 1 0.0488281 0.0360591 0.182754 0 0.349742 0 0 0.0777764 
trait 2 0.2 0 0.0298831 0.0202803 0.0336948 0 0 0.0346538 
trait 3 0.277351 0 0.00121084 0 0.00250732 0.00148542 0.0449784 0.00501003 
node 1 3 1 3
node 2 3 1 1
node 3 3 1 1
node 4 2 0 2
node 23 1 0 0
gene 2 1 4 7.26254 0 1 7.26254 1
gene 3 2 4 -5.80026 0 2 -5.80026 1
gene 1 3 4 -5.55041 0 3 -5.55041 1
gene 3 2 23 2.07883 0 40 2.07883 1
gene 3 23 4 2.9594 0 41 2.9594 1
gene 2 3 23 6.33822 0 44 6.33822 1
gene 3 1 23 2.58146 0 106 2.58146 1
genomeend 54

/* Organism #55 Fitness: 16 Error: 3.8638e-06 */
genomestart 55
trait 1 0.0488281 0.0360591 0.182754 0 0.349742 0 0 0.0777764 
trait 2 0.2 0 0.0298831 0.0202803 0.0336948 0 0 0.0346538 
trait 3 0.277351 0 0.00121084 0 0.00250732 0.00148542 0.0449784 0.00501003 
node 1 3 1 3
node 2 3 1 1
node 3 3 1 1
node 4 1 0 2
node 23 1 0 0
gene 2 1 4 7.95956 0 1 7.95956 1
gene 3 2 4 -5.80026 0 2 -5.80026 1
gene 1 3 4 -6.41561 0 3 -6.41561 1
gene 3 2 23 2.52103 0 40 2.52103 1
gene 3 23 4 1.71933 0 41 1.71933 1
gene 2 3 23 4.75591 0 44 4.75591 1
gene 3 1 23 0.407678 0 106 0.407678 1
genomeend 55

/* Organism #56 Fitness: 15.9913 Error: 0.0010912 */
genomestart 56
trait 1 0.0683594 0.0504827 0.151342 0 0.116581 0 0 0.0349991 
trait 2 0.2 0 0.0298831 0.0202803 0.0477946 0.311873 0 0.0173269 
trait 3 0.277351 0 0.00121084 0 0.00250732 0.00148542 0.0449784 0.00501003 
node 1 3 1 3
node 2 3 1 1
node 3 3 1 1
node 4 1 0 2
node 23 1 0 0
gene 2 1 4 8 0 1 8 1
gene 3 2 4 -5.24757 0 2 -5.24757 1
gene 1 3 4 -5.43135 0 3 -5.43135 1
gene 3 2 23 1.36498 0 40 1.36498 1
gene 3 23 4 1.29407 0 41 1.29407 1
gene 2 3 23 4.47714 0 44 4.47714 1
gene 3 1 23 -0.907082 0 106 -0.907082 1
genomeend 56

/* Organism #57 Fitness: 9.24873 Error: 0.958827 */
genomestart 57
trait 1 0.078125 0.0576945 0.135635 0 0 0 0 0.0136104 
trait 2 0.2 0 0.0298831 0.0202803 0.0336948 0 0 0.0346538 
trait 3 0.277351 0 0.00121084 0 0.00250732 0.00148542 0.0449784 0.00501003 
node 1 3 1 3
node 2 3 1 1
node 3 3 1 1
node 4 1 0 2
node 23 1 0 0
gene 2 1 4 8 0 1 8 1
gene 3 2 4 -3.73794 0 2 -3.73794 1
gene 1 3 4 -7.84083 0 3 -7.84083 1
gene 3 2 23 -1.76116 0 40 -1.76116 1
gene 3 23 4 -0.813071 0 41 -0.813071 1
gene 2 3 23 0.244145 0 44 0.244145 1
gene 3 1 23 0.568084 0 106 0.568084 1
genomeend 57

/* Organism #58 Fitness: 15.7055 Error: 0.0369787 */
genomestart 58
trait 1 0.0683594 0.0504827 0.151342 0 0.116581 0 0 0.0349991 
trait 2 0.2 0 0.0298831 0.0202803 0.0477946 0.311873 0 0.0173269 
trait 3 0.277351 0.255514 0.00121084 0 0.00250732 0.00148542 0.0449784 0 
node 1 3 1 3
node 2 3 1 1
node 3 3 1 1
node 4 1 0 2
node 23 1 0 0
gene 2 1 4 6.61042 0 1 6.61042 1
gene 3 2 4 -5.6407 0 2 -5.6407 1
gene 1 3 4 -6.56527 0 3 -6.56527 1
gene 3 2 23 -0.764712 0 40 -0.764712 1
gene 3 23 4 0.67066 0 41 0.67066 1
gene 2 3 23 6.22213 0 44 6.22213 1
gene 3 1 23 -1.33898 0 106 -1.33898 1
genomeend 58

/* Organism #59 Fitness: 14.8561 Error: 0.145644 */
genomestart 59
trait 1 0.0585938 0.0432709 0.167048 0 0.233162 0 0 0.0563878 
trait 2 0.2 0 0.0298831 0.0202803 0.0336948 0 0 0.0346538 
trait 3 0.277351 0 0.00121084 0 0.00250732 0.00148542 0.0449784 0.00501003 
node 1 3 1 3
node 2 3 1 1
node 3 3 1 1
node 4 1 0 2
node 23 1 0 0
gene 2 1 4 8 0 1 8 1
gene 3 2 4 -4.26544 0 2 -4.26544 1
gene 1 3 4 -8 0 3 -8 1
gene 3 2 23 1.43127 0 40 1.43127 1
gene 3 23 4 0.359277 0 41 0.359277 1
gene 2 3 23 7.85683 0 44 7.85683 1
gene 3 1 23 -2.26198 0 106 -2.26198 1
genomeend 59

/* Organism #60 Fitness: 8.96831 Error: 1.00529 */
genomestart 60
trait 1 0.0585938 0.0432709 0.167048 0 0.233162 0 0 0.0563878 
trait 2 0.2 0 0.0298831 0.0202803 0.0618943 0.623747 0 0 
trait 3 0.277351 0 0.00121084 0 0.00250732 0.00148542 0.0449784 0.00501003 
node 1 3 1 3
node 2 3 1 1
node 3 3 1 1
node 4 2 0 2
node 23 1 0 0
node 73 1 0 0
gene 2 1 4 8 0 1 8 1
gene 3 2 4 -5.64533 0 2 -5.64533 0
gene 1 3 4 -6.47569 0 3 -6.47569 1
gene 3 2 23 1.36498 0 40 1.36498 1
gene 3 23 4 1.29407 0 41 1.29407 1
gene 2 3 23 4.47714 0 44 4.47714 1
gene 3 1 23 -0.907082 0 106 -0.907082 1
gene 3 2 73 1 0 176 0 1
gene 3 73 4 -5.64533 0 177 0 1
genomeend 60

/* Organism #61 Fitness: 15.9961 Error: 0.000484112 */
genomestart 61
trait 1 0.0390625 0.0288473 0.198461 0 0.466323 0 0 0.0991651 
trait 2 0.2 0 0.0298831 0.0202803 0.0336948 0 0 0.0346538 
trait 3 0.277351 0 0.00121084 0 0.00250732 0.00148542 0.0449784 0.00501003 
node 1 3 1 3
node 2 3 1 1
node 3 3 1 1
node 4 2 0 2
node 23 1 0 0
gene 2 1 4 8 0 1 8 1
gene 3 2 4 -5.48751 0 2 -5.48751 1
gene 1 3 4 -3.7023 0 3 -3.7023 1
gene 3 2 23 2.26361 0 40 2.26361 1
gene 3 23 4 -0.95105 0 41 -0.95105 1
gene 2 3 23 5.56586 0 44 5.56586 1
gene 3 1 23 3.25427 0 106 3.25427 1
genomeend 61

/* Organism #62 Fitness: 15.9945 Error: 0.000687636 */
genomestart 62
trait 1 0.0390625 0.0288473 0.198461 0 0.466323 0 0 0.0991651 
trait 2 0.2 0 0 0.0202803 0.0680968 0 0.343822 0.0346538 
trait 3 0.277351 0 0.00121084 0 0.00250732 0.00148542 0.0449784 0.00501003 
node 1 3 1 3
node 2 3 1 1
node 3 3 1 1
node 4 2 0 2
node 23 1 0 0
gene 2 1 4 7.44386 0 1 7.44386 1
gene 3 2 4 -6.0917 0 2 -6.0917 1
gene 1 3 4 -7.69335 0 3 -7.69335 1
gene 3 2 23 4.2993 0 40 4.2993 1
gene 3 23 4 1.72828 0 41 1.72828 1
gene 2 3 23 3.47554 0 44 3.47554 1
gene 3 1 23 0.353469 0 106 0.353469 1
genomeend 62

/* Organism #63 Fitness: 3.96984 Error: 2.00755 */
genomestart 63
trait 1 0.0585938 0.0432709 0.167048 0 0.233162 0 0 0.0563878 
trait 2 0.2 0 0.0298831 0.0202803 0.0618943 0.623747 0 0 
trait 3 0.277351 0 0.00121084 0 0.00250732 0.00148542 0.0449784 0.00501003 
node 1 3 1 3
node 2 3 1 1
node 3 3 1 1
node 4 2 0 2
node 23 1 0 0
gene 2 1 4 0.304574 0 1 0.304574 1
gene 3 2 4 -4.84939 0 2 -4.84939 1
gene 1 3 4 -5.10238 0 3 -5.10238 1
gene 3 2 23 -0.44568 0 40 -0.44568 1
gene 3 23 4 0.686515 0 41 0.686515 1
gene 2 3 23 4.66911 0 44 4.66911 1
gene 3 1 23 1.49263 0 106 1.49263 1
genomeend 63

/* Organism #64 Fitness: 9.00002 Error: 0.999997 */
genomestart 64
trait 1 0.0390625 0.0288473 0.198461 0 0.466323 0 0 0.0991651 
trait 2 0.2 0 0.0298831 0.0202803 0.0336948 0 0 0.0346538 
trait 3 0.277351 0 0.00121084 0 0.00250732 0.00148542 0.0449784 0.00501003 
node 1 3 1 3
node 2 3 1 1
node 3 3 1 1
node 4 2 0 2
node 23 1 0 0
gene 2 1 4 8 0 1 8 1
gene 3 2 4 -3.57816 0 2 -3.57816 1
gene 1 3 4 -5.66008 0 3 -5.66008 1
gene 3 2 23 3.23522 0 40 3.23522 1
gene 3 23 4 3.84129 0 41 3.84129 1
gene 2 3 23 2.6372 0 44 2.6372 1
gene 3 1 23 2.96375 0 106 2.96375 1
genomeend 64

/* Organism #65 Fitness: 4.00026 Error: 1.99994 */
genomestart 65
trait 1 0.0488281 0.0360591 0.182754 0 0.349742 0 0 0.0777764 
trait 2 0.2 0 0.0298831 0.0202803 0.0477946 0.311873 0 0.0173269 
trait 3 0.277351 0 0.00121084 0 0.00250732 0.00148542 0.0449784 0.00501003 
node 1 3 1 3
node 2 3 1 1
node 3 3 1 1
node 4 2 0 2
node 23 1 0 0
gene 2 1 4 5.54448 0 1 5.54448 1
gene 3 2 4 -7.64189 0 2 -7.64189 1
gene 1 3 4 -8 0 3 -8 1
gene 3 2 23 0.963748 0 40 0.963748 1
gene 3 23 4 0.257109 0 41 0.257109 1
gene 2 3 23 5.0762 0 44 5.0762 1
gene 3 1 23 -1.1916 0 106 -1.1916 1
genomeend 65

/* Organism #66 Fitness: 15.9303 Error: 0.00872579 */
genomestart 66
trait 1 0.0585938 0.0432709 0.167048 0 0.233162 0 0 0.0563878 
trait 2 0.2 0 0.0298831 0.0202803 0.0336948 0 0 0.0346538 
trait 3 0.277351 0 0.00121084 0 0.00250732 0.00148542 0.0449784 0.00501003 
node 1 3 1 3
node 2 3 1 1
node 3 3 1 1
node 4 1 0 2
node 23 1 0 0
gene 2 1 4 8 0 1 8 1
gene 3 2 4 -7.49777 0 2 -7.49777 1
gene 1 3 4 -8 0 3 -8 1
gene 3 2 23 5.09731 0 40 5.09731 1
gene 3 23 4 0.977821 0 41 0.977821 1
gene 2 3 23 3.47419 0 44 3.47419 1
gene 3 1 23 -1.35379 0 106 -1.35379 1
genomeend 66

/* Organism #67 Fitness: 14.3089 Error: 0.217287 */
genomestart 67
trait 1 0.0585938 0.0432709 0.167048 0 0.233162 0 0 0.0563878 
trait 2 0.2 0.659783 0 0.0202803 0.0336948 0 0 0.0346538 
trait 3 0.277351 0 0.00121084 0 0.00250732 0.00148542 0.0449784 0.00501003 
node 1 3 1 3
node 2 3 1 1
node 3 1 1 1
node 4 1 0 2
node 23 1 0 0
gene 2 1 4 8 0 1 8 1
gene 3 2 4 -5.63618 0 2 -5.63618 1
gene 1 3 4 -8 0 3 -8 1
gene 3 2 23 2.98906 0 40 2.98906 1
gene 3 23 4 0.260254 0 41 0.260254 1
gene 2 3 23 7.88424 0 44 7.88424 1
gene 3 1 23 0.791677 0 106 0.791677 1
genomeend 67

/* Organism #68 Fitness: 15.9995 Error: 6.5978e-05 */
genomestart 68
trait 1 0.362321 0 0.155012 0 0 0 0 0.0136104 
trait 2 0.2 0 0.0532763 0 0.827144 0 0 0.798345 
trait 3 0.300856 0 0.00161445 0 0.00445539 0.00396113 0.024437 0.00250501 
node 1 2 1 3
node 2 3 1 1
node 3 3 1 1
node 4 2 0 2
node 23 1 0 0
gene 2 1 4 4.6467 0 1 4.6467 1
gene 3 2 4 -5.74571 0 2 -5.74571 1
gene 1 3 4 -5.22537 0 3 -5.22537 1
gene 3 2 23 4.65317 0 40 4.65317 1
gene 3 23 4 3.06928 0 41 3.06928 1
gene 2 3 23 -0.952935 0 44 -0.952935 1
gene 3 1 23 3.26926 0 83 3.26926 1
genomeend 68

/* Organism #69 Fitness: 9.09238 Error: 0.984642 */
genomestart 69
trait 1 0 0.278124 0.155012 0.49599 0.28875 0 0.927104 0.0136104 
trait 2 0.2 0 0.0532763 0 0.827144 0 0 0.798345 
trait 3 0.300856 0 0.00161445 0 0.00445539 0.00396113 0.024437 0.00250501 
node 1 2 1 3
node 2 3 1 1
node 3 3 1 1
node 4 2 0 2
node 23 3 0 0
gene 2 1 4 5.17627 0 1 5.17627 1
gene 3 2 4 -6.00675 0 2 -6.00675 1
gene 1 3 4 -4.13897 0 3 -4.13897 1
gene 3 2 23 4.45173 0 40 4.45173 1
gene 3 23 4 5.81437 0 41 5.81437 1
gene 2 3 23 -1.02959 0 44 -1.02959 1
gene 2 1 23 6.31105 0 83 6.31105 1
genomeend 69

/* Organism #70 Fitness: 15.8346 Error: 0.0207319 */
genomestart 70
trait 1 0.075 0.0576945 0.155012 0 0 0 0 0.0136104 
trait 2 0.2 0 0.0532763 0 0.827144 0 0 0.798345 
trait 3 0.300856 0 0.00161445 0 0.00445539 0.00396113 0.024437 0.00250501 
node 1 2 1 3
node 2 3 1 1
node 3 3 1 1
node 4 2 0 2
node 23 1 0 0
gene 2 1 4 6.25613 0 1 6.25613 1
gene 3 2 4 -7.01884 0 2 -7.01884 1
gene 1 3 4 -5.33134 0 3 -5.33134 1
gene 3 2 23 4.7523 0 40 4.7523 1
gene 3 23 4 5.31116 0 41 5.31116 1
gene 2 3 23 -0.571072 0 44 -0.571072 1
gene 3 1 23 4.92948 0 83 4.92948 1
genomeend 70

/* Species #5 : (Size 13) (AF 9.04583) (Age 12)  */


/* Organism #71 Fitness: 15.944 Error: 0.00701108 */
genomestart 71
trait 1 0.05 0.0288473 0 0 0 0 0 0.00680518 
trait 2 0.2 0 0.0210098 0.0202803 0.0336948 0 0 0.0346538 
trait 3 0.150428 0 0 0 0.000764841 0 0.0243663 0.00501003 
node 1 3 1 3
node 2 3 1 1
node 3 3 1 1
node 4 2 0 2
node 23 1 0 0
node 48 3 0 0
gene 2 1 4 2.72893 0 1 2.72893 1
gene 3 2 4 -3.37821 0 2 -3.37821 1
gene 1 3 4 -1.44051 0 3 -1.44051 1
gene 3 2 23 -0.918521 0 40 -0.918521 1
gene 3 23 4 0.98887 0 41 0.98887 1
gene 2 3 23 3.35444 0 44 3.35444 1
gene 3 23 48 -0.816618 0 100 -0.816618 1
gene 3 48 4 4.41382 0 101 4.41382 1
genomeend 71

/* Organism #72 Fitness: 10.5608 Error: 0.750265 */
genomestart 72
trait 1 0.075 0.0432709 0 0 0 0 0 0.0102078 
trait 2 0.2 0 0.0210098 0.0202803 0.0336948 0 0 0.0346538 
trait 3 0.150428 0 0 0 0.000764841 0 0.0243663 0.00501003 
node 1 3 1 3
node 2 3 1 1
node 3 3 1 1
node 4 2 0 2
node 23 1 0 0
node 48 3 0 0
gene 2 1 4 3.00476 0 1 3.00476 1
gene 3 2 4 -1.80812 0 2 -1.80812 1
gene 1 3 4 -1.68296 0 3 -1.68296 1
gene 3 2 23 -3.48217 0 40 -3.48217 1
gene 3 23 4 -0.589577 0 41 -0.589577 0
gene 2 3 23 4.15186 0 44 4.15186 1
gene 3 23 48 -0.0453921 0 100 -0.0453921 1
gene 3 48 4 1.58989 0 101 1.58989 1
genomeend 72

/* Organism #73 Fitness: 3.76255 Error: 2.06027 */
genomestart 73
trait 1 0.075 0.0432709 0 0 0 0 0 0.0102078 
trait 2 0.2 0 0.0210098 0.0202803 0.0336948 0 0 0.0346538 
trait 3 0.150428 0 0 0 0.000764841 0 0.0243663 0.00501003 
node 1 3 1 3
node 2 3 1 1
node 3 3 1 1
node 4 2 0 2
node 23 1 0 0
node 48 3 0 0
gene 2 1 4 -2.02025 0 1 -2.02025 1
gene 3 2 4 -3.08506 0 2 -3.08506 1
gene 1 3 4 -2.9538 0 3 -2.9538 1
gene 3 2 23 1.82007 0 40 1.82007 1
gene 3 23 4 -0.481972 0 41 -0.481972 0
gene 2 3 23 -2.15404 0 44 -2.15404 1
gene 3 23 48 0.0879666 0 100 0.0879666 1
gene 3 48 4 4.65396 0 101 4.65396 1
genomeend 73

/* Organism #74 Fitness: 9 Error: 1 */
genomestart 74
trait 1 0.0625 0.0360591 0 0 0 0 0 0.00850648 
trait 2 0.2 0 0.0210098 0.0202803 0.0336948 0 0 0.0346538 
trait 3 0.150428 0 0 0 0.000764841 0 0.0243663 0.00501003 
node 1 3 1 3
node 2 3 1 1
node 3 3 1 1
node 4 2 0 2
node 23 1 0 0
node 48 3 0 0
gene 2 1 4 5.01586 0 1 5.01586 1
gene 3 2 4 -3.22631 0 2 -3.22631 1
gene 1 3 4 0.803611 0 3 0.803611 1
gene 3 2 23 1.08055 0 40 1.08055 1
gene 3 23 4 -0.79675 0 41 -0.79675 0
gene 2 3 23 4.37181 0 44 4.37181 1
gene 3 23 48 1.43546 0 100 1.43546 1
gene 3 48 4 3.92096 0 101 3.92096 1
genomeend 74

/* Organism #75 Fitness: 4.61575 Error: 1.85157 */
genomestart 75
trait 1 0.05625 0.0324532 0 0 0 0 0 0.00765583 
trait 2 0.2 0 0.0210098 0.0202803 0.0336948 0 0 0.0346538 
trait 3 0.150428 0 0 0 0.000764841 0 0.0243663 0.00501003 
node 1 3 1 3
node 2 3 1 1
node 3 2 1 1
node 4 2 0 2
node 23 1 0 0
node 48 3 0 0
gene 2 1 4 0.064001 0 1 0.064001 1
gene 3 2 4 -3.0527 0 2 -3.0527 1
gene 1 3 4 -2.51512 0 3 -2.51512 1
gene 3 2 23 -1.48666 0 40 -1.48666 1
gene 3 23 4 0.580979 0 41 0.580979 0
gene 2 3 23 -1.41482 0 44 -1.41482 1
gene 3 23 48 1.1102 0 100 1.1102 1
gene 3 48 4 4.14532 0 101 4.14532 1
genomeend 75

/* Organism #76 Fitness: 9.70436 Error: 0.884817 */
genomestart 76
trait 1 0.075 0.0432709 0 0 0 0 0 0.0102078 
trait 2 0.2 0 0.0210098 0.0202803 0.0336948 0 0 0.0346538 
trait 3 0.150428 0 0 0 0.000764841 0 0.0243663 0.00501003 
node 1 3 1 3
node 2 3 1 1
node 3 3 1 1
node 4 2 0 2
node 23 1 0 0
node 48 3 0 0
gene 2 1 4 2.55402 0 1 2.55402 1
gene 3 2 4 -2.52901 0 2 -2.52901 1
gene 1 3 4 -1.83529 0 3 -1.83529 1
gene 3 2 23 0.656226 0 40 0.656226 1
gene 3 23 4 0.330603 0 41 0.330603 0
gene 2 3 23 3.47454 0 44 3.47454 1
gene 3 23 48 -0.590123 0 100 -0.590123 1
gene 3 48 4 3.52606 0 101 3.52606 1
gene 2 2 48 0.693427 0 178 0.693427 1
genomeend 76

/* Organism #77 Fitness: 1.01538 Error: 2.99234 */
genomestart 77
trait 1 0.075 0.0432709 0 0 0 0 0 0.0102078 
trait 2 0.2 0 0.0210098 0.0202803 0.0336948 0 0 0.0346538 
trait 3 0.150428 0 0 0 0.000764841 0 0.0243663 0.00501003 
node 1 3 1 3
node 2 3 1 1
node 3 3 1 1
node 4 2 0 2
node 23 1 0 0
node 48 1 0 0
gene 2 1 4 -1.63025 0 1 -1.63025 1
gene 3 2 4 -0.609948 0 2 -0.609948 1
gene 3 3 4 2.44558 0 3 2.44558 1
gene 3 2 23 -6.44508 0 40 -6.44508 1
gene 3 23 4 0.179622 0 41 0.179622 0
gene 2 3 23 2.26586 0 44 2.26586 1
gene 3 23 48 -0.947967 0 100 -0.947967 1
gene 3 48 4 2.93465 0 101 2.93465 1
genomeend 77

/* Organism #78 Fitness: 2.98582 Error: 2.27205 */
genomestart 78
trait 1 0.06875 0.039665 0 0 0 0 0 0.00935712 
trait 2 0.2 0 0.0210098 0.0202803 0.0336948 0 0 0.0346538 
trait 3 0.150428 0 0 0 0.000764841 0 0.0243663 0.00501003 
node 1 3 1 3
node 2 3 1 1
node 3 2 1 1
node 4 2 0 2
node 23 1 0 0
node 48 3 0 0
gene 2 1 4 0.148552 0 1 0.148552 1
gene 3 2 4 -3.72044 0 2 -3.72044 1
gene 1 3 4 -3.50562 0 3 -3.50562 1
gene 3 2 23 -1.71046 0 40 -1.71046 1
gene 3 23 4 0.330603 0 41 0.330603 0
gene 2 3 23 4.52231 0 44 4.52231 1
gene 3 23 48 -1.4486 0 100 -1.4486 1
gene 3 48 4 1.86808 0 101 1.86808 1
genomeend 78

/* Organism #79 Fitness: 12.7455 Error: 0.429916 */
genomestart 79
trait 1 0.06875 0.039665 0 0 0 0 0 0.00935712 
trait 2 0.2 0 0.0210098 0.0202803 0.0336948 0 0 0.0346538 
trait 3 0.150428 0 0 0 0.000764841 0 0.0243663 0.00501003 
node 1 3 1 3
node 2 3 1 1
node 3 3 1 1
node 4 2 0 2
node 23 1 0 0
node 48 3 0 0
gene 2 1 4 1.07201 0 1 1.07201 1
gene 3 2 4 -2.81997 0 2 -2.81997 1
gene 1 3 4 -1.83529 0 3 -1.83529 1
gene 3 2 23 0.656226 0 40 0.656226 1
gene 3 23 4 0.330603 0 41 0.330603 0
gene 2 3 23 3.47454 0 44 3.47454 1
gene 3 23 48 1.94465 0 100 1.94465 1
gene 3 48 4 3.52606 0 101 3.52606 1
genomeend 79

/* Organism #80 Fitness: 15.5974 Error: 0.0506445 */
genomestart 80
trait 1 0.0625 0.0360591 0 0 0 0 0 0.00850648 
trait 2 0.2 0 0.0210098 0.0202803 0.0336948 0 0 0.0346538 
trait 3 0.150428 0 0 0 0.000764841 0 0.0243663 0.00501003 
node 1 3 1 3
node 2 3 1 1
node 3 3 1 1
node 4 2 0 2
node 23 1 0 0
node 48 3 0 0
gene 2 1 4 2.64148 0 1 2.64148 1
gene 3 2 4 -2.95361 0 2 -2.95361 1
gene 1 3 4 -1.6379 0 3 -1.6379 1
gene 3 2 23 -0.131147 0 40 -0.131147 1
gene 3 23 4 0.659737 0 41 0.659737 0
gene 1 3 23 3.41449 0 44 3.41449 1
gene 3 23 48 -0.703371 0 100 -0.703371 1
gene 3 48 4 3.96994 0 101 3.96994 1
genomeend 80

/* Organism #81 Fitness: 9.21553 Error: 0.96429 */
genomestart 81
trait 1 0.05625 0.0324532 0 0 0 0 0 0.00765583 
trait 2 0.2 0 0.0210098 0.0202803 0.0336948 0 0 0.0346538 
trait 3 0.150428 0 0 0 0.000764841 0 0.0243663 0.00501003 
node 1 3 1 3
node 2 3 1 1
node 3 2 1 1
node 4 2 0 2
node 23 1 0 0
node 48 3 0 0
node 72 1 0 0
gene 2 1 4 2.72893 0 1 2.72893 1
gene 3 2 4 -3.37821 0 2 -3.37821 1
gene 1 3 4 -0.919921 0 3 -0.919921 0
gene 3 2 23 -1.81914 0 40 -1.81914 1
gene 3 23 4 0.904707 0 41 0.904707 0
gene 2 3 23 -1.51296 0 44 -1.51296 1
gene 3 23 48 -0.816618 0 100 -0.816618 1
gene 3 48 4 4.41382 0 101 4.41382 1
gene 1 3 72 1 0 174 0 1
gene 1 72 4 -0.919921 0 175 0 1
genomeend 81

/* Organism #82 Fitness: 8.32022 Error: 1.11552 */
genomestart 82
trait 1 0.0625 0.0360591 0 0 0 0 0 0.00850648 
trait 2 0.2 0 0.0210098 0.0202803 0.0336948 0 0 0.0346538 
trait 3 0.150428 0 0 0 0.000764841 0 0.0243663 0.00501003 
node 1 3 1 3
node 2 3 1 1
node 3 3 1 1
node 4 2 0 2
node 23 1 0 0
node 48 3 0 0
gene 2 1 4 1.22651 0 1 1.22651 1
gene 3 2 4 -3.06323 0 2 -3.06323 1
gene 1 3 4 -1.38852 0 3 -1.38852 1
gene 3 2 23 -1.51931 0 40 -1.51931 1
gene 3 23 4 1.73736 0 41 1.73736 0
gene 2 3 23 2.72007 0 44 2.72007 1
gene 3 23 48 -0.335914 0 100 -0.335914 1
gene 3 48 4 2.729 0 101 2.729 1
genomeend 82

/* Organism #83 Fitness: 14.1286 Error: 0.241201 */
genomestart 83
trait 1 0.05 0.0288473 0 0 0 0 0 0.00680518 
trait 2 0.2 0 0.0210098 0.0202803 0.0336948 0 0 0.0346538 
trait 3 0.150428 0 0 0 0.000764841 0 0.0243663 0.00501003 
node 1 3 1 3
node 2 3 1 1
node 3 3 1 1
node 4 2 0 2
node 23 1 0 0
node 48 3 0 0
gene 2 1 4 5.00028 0 1 5.00028 1
gene 3 2 4 -5.8655 0 2 -5.8655 1
gene 1 3 4 -2.79334 0 3 -2.79334 1
gene 3 2 23 -3.02581 0 40 -3.02581 1
gene 3 23 4 -1.17512 0 41 -1.17512 1
gene 2 3 23 -2.47166 0 44 -2.47166 1
gene 3 23 48 1.06614 0 100 1.06614 1
gene 3 48 4 2.19594 0 101 2.19594 1
genomeend 83

/* Species #6 : (Size 16) (AF 12.4049) (Age 10)  */


/* Organism #84 Fitness: 15.9991 Error: 0.000112462 */
genomestart 84
trait 1 0.075 0.0576945 0.155012 0 0 0 0 0.0136104 
trait 2 0.2 0 0.0532763 0 0.827144 0 0 0.798345 
trait 3 0.300856 0 0.00161445 0 0.00445539 0.00396113 0.024437 0.00250501 
node 1 2 1 3
node 2 3 1 1
node 3 3 1 1
node 4 2 0 2
node 23 1 0 0
gene 2 1 4 4.32666 0 1 4.32666 1
gene 3 2 4 -6.33627 0 2 -6.33627 1
gene 1 3 4 -4.39028 0 3 -4.39028 1
gene 3 2 23 5.82395 0 40 5.82395 1
gene 3 23 4 3.86304 0 41 3.86304 1
gene 2 3 23 -2.79311 0 44 -2.79311 1
gene 3 1 23 5.25187 0 83 5.25187 1
genomeend 84

/* Organism #85 Fitness: 3.99977 Error: 2.00006 */
genomestart 85
trait 1 0.0375 0.167909 0.155012 0.247995 0.144375 0 0.463552 0.0136104 
trait 2 0.2 0 0.0532763 0 0.827144 0 0 0.798345 
trait 3 0.300856 0 0.00161445 0 0.00445539 0.00396113 0.024437 0.00250501 
node 1 2 1 3
node 2 3 1 1
node 3 3 1 1
node 4 2 0 2
node 23 3 0 0
gene 2 1 4 -1.97987 0 1 -1.97987 1
gene 3 2 4 -4.84798 0 2 -4.84798 1
gene 1 3 4 -3.34238 0 3 -3.34238 1
gene 3 2 23 1.35985 0 40 1.35985 1
gene 3 23 4 4.02519 0 41 4.02519 1
gene 2 3 23 -1.4416 0 44 -1.4416 1
gene 3 1 23 0.839959 0 83 0.839959 1
genomeend 85

/* Organism #86 Fitness: 15.8803 Error: 0.014991 */
genomestart 86
trait 1 0.0375 0.167909 0.155012 0.247995 0.144375 0 0.463552 0.0136104 
trait 2 0.2 0 0.0532763 0 0.827144 0 0 0.798345 
trait 3 0.300856 0 0.00161445 0 0.00445539 0.00396113 0.024437 0.00250501 
node 1 2 1 3
node 2 3 1 1
node 3 3 1 1
node 4 2 0 2
node 23 3 0 0
gene 2 1 4 4.65441 0 1 4.65441 1
gene 3 2 4 -4.49678 0 2 -4.49678 1
gene 1 3 4 -4.91181 0 3 -4.91181 1
gene 3 2 23 6.46512 0 40 6.46512 1
gene 3 23 4 3.90426 0 41 3.90426 1
gene 2 3 23 -2.12958 0 44 -2.12958 1
gene 2 1 23 5.12206 0 83 5.12206 1
genomeend 86

/* Organism #87 Fitness: 3.9994 Error: 2.00015 */
genomestart 87
trait 1 0.075 0.0576945 0.155012 0 0 0 0 0.0136104 
trait 2 0.2 0 0.0532763 0 0.827144 0 0 0.798345 
trait 3 0.300856 0 0.00161445 0 0.00445539 0.00396113 0.024437 0.00250501 
node 1 2 1 3
node 2 3 1 1
node 3 3 1 1
node 4 2 0 2
node 23 1 0 0
gene 2 1 4 1.78668 0 1 1.78668 1
gene 3 2 4 -6.50089 0 2 -6.50089 1
gene 1 3 4 -5.93968 0 3 -5.93968 1
gene 3 2 23 8 0 40 8 1
gene 3 23 4 1.78372 0 41 1.78372 1
gene 2 3 23 -0.612767 0 44 -0.612767 1
gene 3 1 23 -1.55098 0 83 -1.55098 1
genomeend 87

/* Organism #88 Fitness: 9.0087 Error: 0.998551 */
genomestart 88
trait 1 0.0375 0.167909 0.155012 0.247995 0.144375 0 0.463552 0.0136104 
trait 2 0.2 0 0.0532763 0 0.827144 0 0 0.798345 
trait 3 0.300856 0 0.00161445 0 0.00445539 0.00396113 0.024437 0.00250501 
node 1 2 1 3
node 2 3 1 1
node 3 3 1 1
node 4 2 0 2
node 23 1 0 0
gene 2 1 4 2.09068 0 1 2.09068 1
gene 3 2 4 -1.58469 0 2 -1.58469 1
gene 1 3 4 -3.30223 0 3 -3.30223 1
gene 3 2 23 5.14128 0 40 5.14128 1
gene 3 23 4 4.12335 0 41 4.12335 1
gene 2 3 23 -4.81875 0 44 -4.81875 1
gene 3 1 23 6.5046 0 83 6.5046 1
genomeend 88

/* Organism #89 Fitness: 8.72098 Error: 1.04687 */
genomestart 89
trait 1 0.0375 0.167909 0.155012 0.247995 0.144375 0 0.463552 0.0136104 
trait 2 0.2 0 0.0532763 0 0.827144 0 0 0.798345 
trait 3 0.300856 0 0.00161445 0 0.00445539 0.00396113 0.024437 0.00250501 
node 1 1 1 3
node 2 3 1 1
node 3 3 1 1
node 4 2 0 2
node 23 1 0 0
gene 2 1 4 3.24111 0 1 3.24111 1
gene 3 2 4 -2.46116 0 2 -2.46116 1
gene 1 3 4 1.85128 0 3 1.85128 1
gene 3 2 23 8 0 40 8 1
gene 3 23 4 -0.168231 0 41 -0.168231 1
gene 2 3 23 -1.3709 0 44 -1.3709 1
gene 3 1 23 6.28703 0 83 6.28703 1
genomeend 89

/* Organism #90 Fitness: 8.50398 Error: 1.08384 */
genomestart 90
trait 1 0.075 0.0576945 0.155012 0 0 0 0 0.0136104 
trait 2 0.2 0 0.0532763 0 0.827144 0 0 0.798345 
trait 3 0.300856 0 0.00161445 0 0.00445539 0.00396113 0.024437 0.00250501 
node 1 2 1 3
node 2 3 1 1
node 3 3 1 1
node 4 2 0 2
node 23 1 0 0
gene 2 1 4 4.16866 0 1 4.16866 1
gene 1 2 4 -8 0 2 -8 1
gene 1 3 4 -2.66098 0 3 -2.66098 1
gene 3 2 23 6.77748 0 40 6.77748 1
gene 3 23 4 -1.02212 0 41 -1.02212 1
gene 2 3 23 -2.80676 0 44 -2.80676 1
gene 3 1 23 4.88217 0 83 4.88217 1
genomeend 90

/* Organism #91 Fitness: 12.6295 Error: 0.446205 */
genomestart 91
trait 1 0.0375 0.167909 0.155012 0.247995 0.144375 0 0.463552 0.0136104 
trait 2 0.2 0 0.0532763 0 0.827144 0 0 0.798345 
trait 3 0.300856 0 0.00161445 0 0.00445539 0.00396113 0.024437 0.00250501 
node 1 2 1 3
node 2 3 1 1
node 3 3 1 1
node 4 2 0 2
node 23 3 0 0
gene 2 1 4 2.50953 0 1 2.50953 1
gene 3 2 4 -5.10063 0 2 -5.10063 1
gene 1 3 4 -2.08055 0 3 -2.08055 1
gene 3 2 23 5.24212 0 40 5.24212 1
gene 3 23 4 2.635 0 41 2.635 1
gene 2 3 23 -2.02818 0 44 -2.02818 1
gene 2 1 23 4.15284 0 83 4.15284 1
genomeend 91

/* Organism #92 Fitness: 15.984 Error: 0.00199981 */
genomestart 92
trait 1 0.075 0.0576945 0.155012 0 0 0 0 0.0136104 
trait 2 0.2 0 0.0532763 0 0.827144 0 0 0.798345 
trait 3 0.300856 0 0.00161445 0 0.00445539 0.00396113 0.024437 0.00250501 
node 1 2 1 3
node 2 3 1 1
node 3 3 1 1
node 4 2 0 2
node 23 1 0 0
gene 2 1 4 4.16866 0 1 4.16866 1
gene 3 2 4 -6.76986 0 2 -6.76986 1
gene 1 3 4 -3.9379 0 3 -3.9379 1
gene 3 2 23 6.77748 0 40 6.77748 1
gene 3 23 4 3.86304 0 41 3.86304 1
gene 2 3 23 -2.79311 0 44 -2.79311 1
gene 3 1 23 5.25187 0 83 5.25187 1
genomeend 92

/* Organism #93 Fitness: 15.9982 Error: 0.000218809 */
genomestart 93
trait 1 0.075 0.0576945 0.155012 0 0 0 0 0.0136104 
trait 2 0.2 0 0.0532763 0 0.827144 0 0 0.798345 
trait 3 0.300856 0 0.00161445 0 0.00445539 0.00396113 0.024437 0.00250501 
node 1 2 1 3
node 2 3 1 1
node 3 3 1 1
node 4 2 0 2
node 23 1 0 0
gene 2 1 4 4.16866 0 1 4.16866 1
gene 3 2 4 -6.76986 0 2 -6.76986 1
gene 1 3 4 -3.9379 0 3 -3.9379 1
gene 3 2 23 6.77748 0 40 6.77748 1
gene 3 23 4 4.80936 0 41 4.80936 1
gene 2 3 23 -2.60677 0 44 -2.60677 1
gene 3 1 23 4.88217 0 83 4.88217 1
genomeend 93

/* Organism #94 Fitness: 9.0001 Error: 0.999984 */
genomestart 94
trait 1 0.075 0.0576945 0.155012 0 0 0 0 0.0136104 
trait 2 0.2 0 0.0532763 0 0.827144 0 0 0.798345 
trait 3 0.300856 0 0.00161445 0 0.00445539 0.00396113 0.024437 0.00250501 
node 1 2 1 3
node 2 3 1 1
node 3 3 1 1
node 4 2 0 2
node 23 1 0 0
gene 2 1 4 3.42174 0 1 3.42174 1
gene 3 2 4 -7.62602 0 2 -7.62602 1
gene 1 3 4 -2.42499 0 3 -2.42499 1
gene 3 2 23 7.0853 0 40 7.0853 1
gene 3 23 4 1.96827 0 41 1.96827 1
gene 2 3 23 -1.68831 0 44 -1.68831 1
gene 3 1 23 7.16738 0 83 7.16738 1
genomeend 94

/* Organism #95 Fitness: 14.8098 Error: 0.151653 */
genomestart 95
trait 1 0.075 0.0576945 0.155012 0 0 0 0 0.0136104 
trait 2 0.2 0 0.0532763 0 0.827144 0 0 0.798345 
trait 3 0.300856 0 0.00161445 0 0.00445539 0.00396113 0.024437 0.00250501 
node 1 2 1 3
node 2 3 1 1
node 3 3 1 1
node 4 2 0 2
node 23 1 0 0
gene 2 1 4 6.54918 0 1 6.54918 1
gene 3 2 4 -8 0 2 -8 1
gene 1 3 4 -2.12282 0 3 -2.12282 1
gene 3 2 23 4.50264 0 40 4.50264 1
gene 3 23 4 3.22374 0 41 3.22374 1
gene 2 3 23 -2.28158 0 44 -2.28158 1
gene 3 1 23 5.06324 0 83 5.06324 1
genomeend 95

/* Organism #96 Fitness: 15.9985 Error: 0.000190952 */
genomestart 96
trait 1 0.075 0.0576945 0.155012 0 0 0 0 0.0136104 
trait 2 0.2 0 0.0532763 0 0.827144 0 0 0.798345 
trait 3 0.300856 0 0.00161445 0 0.00445539 0.00396113 0.024437 0.00250501 
node 1 2 1 3
node 2 3 1 1
node 3 3 1 1
node 4 2 0 2
node 23 1 0 0
node 74 1 0 0
gene 2 1 4 4.16866 0 1 4.16866 1
gene 3 2 4 -6.76986 0 2 -6.76986 1
gene 1 3 4 -3.9379 0 3 -3.9379 1
gene 3 2 23 6.77748 0 40 6.77748 1
gene 3 23 4 4.80936 0 41 4.80936 0
gene 2 3 23 -2.60677 0 44 -2.60677 1
gene 3 1 23 4.88217 0 83 4.88217 1
gene 3 23 74 1 0 179 0 1
gene 3 74 4 4.80936 0 180 0 1
genomeend 96

/* Organism #97 Fitness: 15.9994 Error: 7.27899e-05 */
genomestart 97
trait 1 0.075 0.0576945 0.155012 0 0 0 0 0.0136104 
trait 2 0.2 0 0.0532763 0 0.827144 0 0 0.798345 
trait 3 0.300856 0 0.00161445 0 0.00445539 0.00396113 0.024437 0.00250501 
node 1 2 1 3
node 2 3 1 1
node 3 3 1 1
node 4 2 0 2
node 23 1 0 0
gene 2 1 4 4.24766 0 1 4.24766 1
gene 3 2 4 -6.55306 0 2 -6.55306 1
gene 1 3 4 -4.16409 0 3 -4.16409 1
gene 3 2 23 6.30072 0 40 6.30072 1
gene 3 23 4 4.3362 0 41 4.3362 1
gene 2 3 23 -2.69994 0 44 -2.69994 1
gene 3 1 23 5.06702 0 83 5.06702 1
genomeend 97

/* Organism #98 Fitness: 15.9522 Error: 0.00598012 */
genomestart 98
trait 1 0.075 0.0576945 0.155012 0 0 0 0 0.0136104 
trait 2 0.2 0 0.0532763 0 0.827144 0 0 0.798345 
trait 3 0.300856 0 0.00161445 0 0.00445539 0.00396113 0.024437 0.00250501 
node 1 2 1 3
node 2 3 1 1
node 3 3 1 1
node 4 2 0 2
node 23 1 0 0
gene 2 1 4 3.82036 0 1 3.82036 1
gene 3 2 4 -5.55508 0 2 -5.55508 1
gene 1 3 4 -3.13618 0 3 -3.13618 1
gene 3 2 23 6.35433 0 40 6.35433 1
gene 3 23 4 3.83138 0 41 3.83138 1
gene 2 3 23 -2.73542 0 44 -2.73542 1
gene 3 1 23 4.98243 0 83 4.98243 1
genomeend 98

/* Organism #99 Fitness: 15.9942 Error: 0.000720583 */
genomestart 99
trait 1 0.0375 0.167909 0.155012 0.247995 0.144375 0 0.463552 0.0136104 
trait 2 0.2 0 0.0532763 0 0.827144 0 0 0.798345 
trait 3 0.300856 0 0.00161445 0 0.00445539 0.00396113 0.024437 0.00250501 
node 1 2 1 3
node 2 3 1 1
node 3 3 1 1
node 4 2 0 2
node 23 3 0 0
gene 2 1 4 4.32666 0 1 4.32666 1
gene 3 2 4 -6.33627 0 2 -6.33627 1
gene 1 3 4 -4.16426 0 3 -4.16426 1
gene 3 2 23 6.07812 0 40 6.07812 1
gene 3 23 4 3.47929 0 41 3.47929 1
gene 2 3 23 -2.79311 0 44 -2.79311 1
gene 3 1 23 5.25187 0 83 5.25187 1
genomeend 99

/* Species #7 : (Size 12) (AF 8.82107) (Age 9)  */


/* Organism #100 Fitness: 15.8189 Error: 0.022697 */
genomestart 100
trait 1 0.1 0.0576945 0 0 0 0 0 0.0136104 
trait 2 0.2 0 0.0210098 0.0202803 0.0336948 0 0 0.0346538 
trait 3 0.263249 0 0.0618159 0 0.748064 0 0.0426411 0.00501003 
node 1 3 1 3
node 2 3 1 1
node 3 3 1 1
node 4 1 0 2
node 23 1 0 0
node 55 1 0 0
gene 2 1 4 8 0 1 8 1
gene 3 2 4 -0.988394 0 2 -0.988394 1
gene 1 3 4 -3.58407 0 3 -3.58407 1
gene 3 2 23 3.4843 0 40 3.4843 1
gene 3 23 4 -4.09726 0 41 -4.09726 1
gene 2 3 23 -2.74853 0 44 -2.74853 1
gene 1 3 55 2.98321 0 117 2.98321 1
gene 1 55 4 -0.200929 0 118 -0.200929 1
gene 1 1 55 3.16317 0 143 3.16317 1
genomeend 100

/* Organism #101 Fitness: 9.00106 Error: 0.999823 */
genomestart 101
trait 1 0.1 0.0576945 0 0 0 0 0 0.0136104 
trait 2 0.2 0 0.0210098 0.0202803 0.0336948 0 0 0.0346538 
trait 3 0.263249 0 0.030908 0 0.374701 0 0.0426411 0.00501003 
node 1 3 1 3
node 2 3 1 1
node 3 3 1 1
node 4 1 0 2
node 23 1 0 0
node 55 1 0 0
gene 2 1 4 5.80733 0 1 5.80733 1
gene 3 2 4 -2.43232 0 2 -2.43232 1
gene 1 3 4 -2.96732 0 3 -2.96732 1
gene 3 2 23 -2.18023 0 40 -2.18023 1
gene 3 23 4 -2.87772 0 41 -2.87772 1
gene 2 3 23 -1.50704 0 44 -1.50704 1
gene 1 3 55 2.94385 0 117 2.94385 1
gene 1 55 4 1.34688 0 118 1.34688 1
gene 2 1 55 4.22875 0 143 4.22875 1
genomeend 101

/* Organism #102 Fitness: 4 Error: 2 */
genomestart 102
trait 1 0.1 0.0576945 0 0 0 0 0 0.0136104 
trait 2 0.2 0 0.0210098 0.0202803 0.0336948 0 0 0.0346538 
trait 3 0.263249 0 0.030908 0 0.374701 0 0.0426411 0.00501003 
node 1 3 1 3
node 2 3 1 1
node 3 3 1 1
node 4 1 0 2
node 23 1 0 0
node 55 1 0 0
gene 2 1 4 0.484178 0 1 0.484178 1
gene 3 2 4 0.503239 0 2 0.503239 1
gene 1 3 4 -4.65689 0 3 -4.65689 1
gene 3 2 23 0.288669 0 40 0.288669 1
gene 3 23 4 -6.83916 0 41 -6.83916 1
gene 2 3 23 -2.62453 0 44 -2.62453 1
gene 1 3 55 3.48241 0 117 3.48241 1
gene 1 55 4 -0.0762508 0 118 -0.0762508 1
gene 1 1 55 2.33466 0 143 2.33466 1
genomeend 102

/* Organism #103 Fitness: 9.05092 Error: 0.991526 */
genomestart 103
trait 1 0.1 0.0576945 0 0 0 0 0 0.0136104 
trait 2 0.2 0 0.0210098 0.0202803 0.0336948 0 0 0.0346538 
trait 3 0.263249 0 0 0 0.00133847 0 0.0426411 0.00501003 
node 1 3 1 3
node 2 3 1 1
node 3 3 1 1
node 4 1 0 2
node 23 2 0 0
node 55 1 0 0
gene 2 1 4 8 0 1 8 1
gene 3 2 4 -0.301953 0 2 -0.301953 1
gene 1 3 4 -8 0 3 -8 1
gene 3 2 23 -0.250018 0 40 -0.250018 1
gene 3 23 4 -4.77867 0 41 -4.77867 1
gene 2 3 23 -2.6365 0 44 -2.6365 1
gene 1 3 55 2.0365 0 117 2.0365 1
gene 1 55 4 -0.914012 0 118 -0.914012 1
gene 2 1 55 2.26111 0 143 2.26111 1
genomeend 103

/* Organism #104 Fitness: 3.99974 Error: 2.00006 */
genomestart 104
trait 1 0.1 0.0576945 0 0 0 0 0 0.0136104 
trait 2 0.2 0 0.0210098 0.0202803 0.0336948 0 0 0.0346538 
trait 3 0.263249 0 0 0 0.00133847 0 0.0426411 0.00501003 
node 1 3 1 3
node 2 3 1 1
node 3 3 1 1
node 4 1 0 2
node 23 1 0 0
node 55 1 0 0
gene 2 1 4 5.26415 0 1 5.26415 1
gene 3 2 4 -1.31239 0 2 -1.31239 1
gene 1 3 4 -3.69466 0 3 -3.69466 1
gene 3 2 23 3.96173 0 40 3.96173 1
gene 3 23 4 -6.68607 0 41 -6.68607 1
gene 2 3 23 1.54271 0 44 1.54271 1
gene 1 3 55 1.61651 0 117 1.61651 1
gene 1 55 4 0.0457882 0 118 0.0457882 1
gene 2 1 55 0.199142 0 143 0.199142 1
genomeend 104

/* Organism #105 Fitness: 4.84402 Error: 1.79909 */
genomestart 105
trait 1 0.1 0.0576945 0 0 0 0 0 0.0136104 
trait 2 0.2 0 0.0210098 0.0202803 0.0336948 0 0 0.0346538 
trait 3 0.263249 0 0.030908 0 0.374701 0 0.0426411 0.00501003 
node 1 3 1 3
node 2 3 1 1
node 3 3 1 1
node 4 1 0 2
node 23 1 0 0
node 55 1 0 0
gene 2 1 4 5.79447 0 1 5.79447 1
gene 3 2 4 -0.166104 0 2 -0.166104 1
gene 1 3 4 -6.2423 0 3 -6.2423 1
gene 3 2 23 1.09095 0 40 1.09095 1
gene 3 23 4 -7.53149 0 41 -7.53149 1
gene 2 3 23 -3.56836 0 44 -3.56836 1
gene 1 3 55 1.35971 0 117 1.35971 1
gene 1 55 4 0.563555 0 118 0.563555 1
gene 2 1 55 -0.0104937 0 143 -0.0104937 1
genomeend 105

/* Organism #106 Fitness: 4 Error: 2 */
genomestart 106
trait 1 0.1 0.0576945 0 0 0 0 0 0.0136104 
trait 2 0.2 0 0.0210098 0.0202803 0.0336948 0 0 0.0346538 
trait 3 0.263249 0 0 0 0.00133847 0 0.0426411 0.00501003 
node 1 3 1 3
node 2 3 1 1
node 3 3 1 1
node 4 1 0 2
node 23 1 0 0
node 55 1 0 0
gene 2 1 4 6.63452 0 1 6.63452 1
gene 3 2 4 0.38767 0 2 0.38767 1
gene 1 3 4 1.36897 0 3 1.36897 1
gene 3 2 23 1.22415 0 40 1.22415 1
gene 3 23 4 -1.18557 0 41 -1.18557 1
gene 3 3 23 -1.39558 0 44 -1.39558 1
gene 1 3 55 1.03421 0 117 1.03421 1
gene 1 55 4 1.77912 0 118 1.77912 1
gene 2 1 55 -2.47718 0 143 -2.47718 1
genomeend 106

/* Organism #107 Fitness: 8.99997 Error: 1 */
genomestart 107
trait 1 0.1 0.0576945 0 0 0 0 0 0.0136104 
trait 2 0.2 0 0.0210098 0.0202803 0.0336948 0 0 0.0346538 
trait 3 0.263249 0 0 0 0.00133847 0 0.0426411 0.00501003 
node 1 3 1 3
node 2 3 1 1
node 3 3 1 1
node 4 1 0 2
node 23 1 0 0
node 55 1 0 0
gene 2 1 4 7.36114 0 1 7.36114 1
gene 3 2 4 -0.704422 0 2 -0.704422 1
gene 1 3 4 -6.77955 0 3 -6.77955 1
gene 3 2 23 1.51947 0 40 1.51947 1
gene 3 23 4 -5.71173 0 41 -5.71173 1
gene 2 3 23 0.672757 0 44 0.672757 1
gene 1 3 55 2.49855 0 117 2.49855 1
gene 1 55 4 1.55047 0 118 1.55047 1
gene 2 1 55 0.92867 0 143 0.92867 1
genomeend 107

/* Organism #108 Fitness: 15.9859 Error: 0.00176887 */
genomestart 108
trait 1 0.1 0.0576945 0 0 0 0 0 0.0136104 
trait 2 0.2 0 0.0210098 0.0202803 0.0336948 0 0 0.0346538 
trait 3 0.263249 0 0.030908 0 0.374701 0 0.0426411 0.00501003 
node 1 3 1 3
node 2 3 1 1
node 3 3 1 1
node 4 1 0 2
node 23 1 0 0
node 55 1 0 0
gene 2 1 4 8 0 1 8 1
gene 3 2 4 -0.988394 0 2 -0.988394 1
gene 1 3 4 -6.47025 0 3 -6.47025 1
gene 3 2 23 3.4843 0 40 3.4843 1
gene 3 23 4 -4.09726 0 41 -4.09726 1
gene 2 3 23 -2.74853 0 44 -2.74853 1
gene 1 3 55 2.98321 0 117 2.98321 1
gene 1 55 4 2.16287 0 118 2.16287 1
gene 2 1 55 -1.09552 0 143 -1.09552 1
genomeend 108

/* Organism #109 Fitness: 10.7619 Error: 0.719467 */
genomestart 109
trait 1 0.1 0.0576945 0 0 0 0 0 0.0136104 
trait 2 0.2 0 0.0210098 0.0202803 0.0336948 0 0 0.0346538 
trait 3 0.263249 0 0.030908 0 0.374701 0 0.0426411 0.00501003 
node 1 3 1 3
node 2 3 1 1
node 3 3 1 1
node 4 1 0 2
node 23 1 0 0
node 55 1 0 0
gene 2 1 4 8 0 1 8 1
gene 3 2 4 -0.988394 0 2 -0.988394 1
gene 1 3 4 -3.58407 0 3 -3.58407 1
gene 3 2 23 3.4843 0 40 3.4843 1
gene 3 23 4 -3.31885 0 41 -3.31885 1
gene 2 3 23 -2.74853 0 44 -2.74853 1
gene 1 3 55 0.289774 0 117 0.289774 1
gene 1 55 4 -0.200929 0 118 -0.200929 1
gene 2 1 55 -1.09552 0 143 -1.09552 1
genomeend 109

/* Organism #110 Fitness: 15.3905 Error: 0.076931 */
genomestart 110
trait 1 0.1 0.0576945 0 0 0 0 0 0.0136104 
trait 2 0.2 0 0.0210098 0.0202803 0.0336948 0 0 0.0346538 
trait 3 0.263249 0 0 0 0.00133847 0 0.0426411 0.00501003 
node 1 3 1 3
node 2 3 1 1
node 3 3 1 1
node 4 1 0 2
node 23 1 0 0
node 55 1 0 0
gene 2 1 4 8 0 1 8 1
gene 3 2 4 -1.3194 0 2 -1.3194 1
gene 1 3 4 -5.72972 0 3 -5.72972 1
gene 3 2 23 1.22415 0 40 1.22415 1
gene 3 23 4 -6.21391 0 41 -6.21391 1
gene 2 3 23 -0.265555 0 44 -0.265555 1
gene 1 3 55 1.03421 0 117 1.03421 1
gene 1 55 4 0.0484276 0 118 0.0484276 1
gene 2 1 55 0.523442 0 143 0.523442 1
genomeend 110

/* Organism #111 Fitness: 4 Error: 2 */
genomestart 111
trait 1 0.1 0.0576945 0 0 0 0 0 0.0136104 
trait 2 1 0 0 0.0202803 0.0336948 0 0 0.0346538 
trait 3 0.263249 0 0 0 0.00133847 0 0.0426411 0.00501003 
node 1 3 1 3
node 2 2 1 1
node 3 3 1 1
node 4 1 0 2
node 23 1 0 0
node 55 1 0 0
gene 2 1 4 5.61575 0 1 5.61575 1
gene 3 2 4 1.8695 0 2 1.8695 1
gene 1 3 4 1.97936 0 3 1.97936 1
gene 3 2 23 2.58128 0 40 2.58128 1
gene 3 23 4 0.589975 0 41 0.589975 1
gene 2 3 23 -0.647359 0 44 -0.647359 1
gene 1 3 55 -0.81108 0 117 -0.81108 1
gene 1 55 4 -0.299997 0 118 -0.299997 1
gene 2 1 55 1.59868 0 143 1.59868 1
genomeend 111

/* Species #8 : (Size 12) (AF 6.58257) (Age 7)  */


/* Organism #112 Fitness: 9.24016 Error: 0.960237 */
genomestart 112
trait 1 0.1 0.0576945 0 0 0 0 0 0.0136104 
trait 2 0.2 0 0.0210098 0.0202803 0.0336948 0 0 0.0346538 
trait 3 0.150428 0 0 0 0.000764841 0 0.0243663 0.00501003 
node 1 3 1 3
node 2 3 1 1
node 3 3 1 1
node 4 2 0 2
node 23 1 0 0
node 48 1 0 0
node 60 1 0 0
gene 2 1 4 0.0546045 0 1 0.0546045 1
gene 3 2 4 -1.60496 0 2 -1.60496 0
gene 1 3 4 -1.94653 0 3 -1.94653 1
gene 3 2 23 1.21477 0 40 1.21477 1
gene 3 23 4 3.94327 0 41 3.94327 0
gene 2 3 23 -1.03252 0 44 -1.03252 1
gene 3 23 48 0.733484 0 100 0.733484 1
gene 3 48 4 1.40088 0 101 1.40088 0
gene 3 48 60 0.705123 0 135 0.705123 1
gene 3 60 4 1.78897 0 136 1.78897 1
gene 3 2 48 -2.13589 0 148 -2.13589 1
gene 3 1 60 -0.114047 0 164 -0.114047 1
genomeend 112

/* Organism #113 Fitness: 9.06767 Error: 0.988743 */
genomestart 113
trait 1 0.1 0.0576945 0 0 0 0 0 0.0136104 
trait 2 0.2 0 0.0210098 0.0202803 0.0336948 0 0 0.0346538 
trait 3 0.150428 0 0 0 0.000764841 0 0.0243663 0.00501003 
node 1 3 1 3
node 2 3 1 1
node 3 3 1 1
node 4 2 0 2
node 23 1 0 0
node 48 1 0 0
node 60 1 0 0
gene 2 1 4 0.944973 0 1 0.944973 1
gene 3 2 4 -2.8375 0 2 -2.8375 1
gene 1 3 4 -1.00397 0 3 -1.00397 1
gene 3 2 23 -0.883628 0 40 -0.883628 1
gene 3 23 4 2.16971 0 41 2.16971 0
gene 2 3 23 -0.0749272 0 44 -0.0749272 1
gene 3 23 48 1.52335 0 100 1.52335 1
gene 3 48 4 1.0495 0 101 1.0495 0
gene 3 48 60 0.232551 0 135 0.232551 1
gene 3 60 4 2.87622 0 136 2.87622 1
gene 3 2 48 -0.843247 0 148 -0.843247 1
gene 3 1 60 -0.114047 0 164 -0.114047 1
gene 3 1 48 -0.919201 0 181 -0.919201 1
genomeend 113

/* Organism #114 Fitness: 9 Error: 1 */
genomestart 114
trait 1 0.1 0.0576945 0 0 0 0 0 0.0136104 
trait 2 0.2 0 0.0210098 0.0202803 0.0336948 0 0 0.0346538 
trait 3 0.150428 0 0 0 0.000764841 0 0.0243663 0.00501003 
node 1 3 1 3
node 2 3 1 1
node 3 3 1 1
node 4 2 0 2
node 23 1 0 0
node 48 1 0 0
node 60 1 0 0
gene 2 1 4 3.27042 0 1 3.27042 1
gene 3 2 4 -0.459218 0 2 -0.459218 1
gene 1 3 4 -0.0122037 0 3 -0.0122037 1
gene 3 2 23 0.522252 0 40 0.522252 1
gene 3 23 4 -0.842758 0 41 -0.842758 0
gene 2 3 23 -0.208899 0 44 -0.208899 1
gene 3 23 48 -1.82196 0 100 -1.82196 1
gene 3 48 4 4.2132 0 101 4.2132 0
gene 3 48 60 0.884736 0 135 0.884736 1
gene 3 60 4 4.19036 0 136 4.19036 1
gene 3 2 48 -2.29641 0 148 -2.29641 1
gene 3 1 60 2.36792 0 164 2.36792 1
genomeend 114

/* Organism #115 Fitness: 1.01005 Error: 2.99499 */
genomestart 115
trait 1 0.1 0.0576945 0 0 0 0 0 0.0136104 
trait 2 0.2 0 0.0210098 0.0202803 0.0336948 0 0 0.0346538 
trait 3 0.150428 0 0 0 0.000764841 0 0.0243663 0.00501003 
node 1 3 1 3
node 2 3 1 1
node 3 3 1 1
node 4 2 0 2
node 23 1 0 0
node 48 1 0 0
node 60 1 0 0
gene 2 1 4 -1.37586 0 1 -1.37586 1
gene 3 2 4 2.18095 0 2 2.18095 0
gene 1 3 4 1.70087 0 3 1.70087 1
gene 3 2 23 2.7249 0 40 2.7249 1
gene 3 23 4 5.98823 0 41 5.98823 0
gene 2 3 23 -1.4139 0 44 -1.4139 1
gene 3 23 48 1.82804 0 100 1.82804 1
gene 3 48 4 3.82292 0 101 3.82292 0
gene 3 48 60 -0.131918 0 135 -0.131918 1
gene 3 60 4 3.38766 0 136 3.38766 1
gene 3 2 48 -3.62677 0 148 -3.62677 1
gene 3 1 60 -1.43438 0 164 -1.43438 1
genomeend 115

/* Organism #116 Fitness: 9 Error: 1 */
genomestart 116
trait 1 0.1 0.0576945 0 0 0 0 0 0.0136104 
trait 2 0.2 0 0.0210098 0.0202803 0.0336948 0 0 0.0346538 
trait 3 0.150428 0 0 0 0.000764841 0 0.0243663 0.00501003 
node 1 3 1 3
node 2 3 1 1
node 3 3 1 1
node 4 2 0 2
node 23 1 0 0
node 48 1 0 0
node 60 1 0 0
gene 2 1 4 1.59437 0 1 1.59437 1
gene 3 2 4 -2.14441 0 2 -2.14441 0
gene 1 3 4 0.60589 0 3 0.60589 1
gene 3 2 23 1.35838 0 40 1.35838 1
gene 3 23 4 2.34491 0 41 2.34491 0
gene 2 3 23 0.714907 0 44 0.714907 1
gene 3 23 48 -1.93968 0 100 -1.93968 1
gene 3 48 4 -1.68504 0 101 -1.68504 0
gene 3 48 60 2.43638 0 135 2.43638 1
gene 3 60 4 4.44845 0 136 4.44845 1
gene 2 2 48 -1.26631 0 148 -1.26631 1
gene 3 1 60 -0.114047 0 164 -0.114047 1
genomeend 116

/* Organism #117 Fitness: 11.7821 Error: 0.567495 */
genomestart 117
trait 1 0.1 0.0576945 0 0 0 0 0 0.0136104 
trait 2 0.2 0 0.0210098 0.0202803 0.0336948 0 0 0.0346538 
trait 3 0.150428 0 0 0 0.000764841 0 0.0243663 0.00501003 
node 1 3 1 3
node 2 3 1 1
node 3 3 1 1
node 4 2 0 2
node 23 1 0 0
node 48 1 0 0
node 60 1 0 0
gene 2 1 4 1.42776 0 1 1.42776 1
gene 3 2 4 -4.67717 0 2 -4.67717 0
gene 1 3 4 -2.60965 0 3 -2.60965 1
gene 3 2 23 -0.222177 0 40 -0.222177 1
gene 3 23 4 3.33595 0 41 3.33595 0
gene 2 3 23 -1.97167 0 44 -1.97167 1
gene 3 23 48 0.620254 0 100 0.620254 1
gene 3 48 4 1.52879 0 101 1.52879 0
gene 3 48 60 2.49284 0 135 2.49284 1
gene 3 60 4 1.15559 0 136 1.15559 1
gene 3 2 48 -3.80097 0 148 -3.80097 1
gene 3 1 60 -0.0884306 0 164 -0.0884306 1
genomeend 117

/* Organism #118 Fitness: 2.25104 Error: 2.49965 */
genomestart 118
trait 1 0.1 0.0576945 0 0 0 0 0 0.0136104 
trait 2 0.2 0 0.0210098 0.0202803 0.0336948 0 0 0.0346538 
trait 3 0.150428 0 0 0 0.000764841 0 0.0243663 0.00501003 
node 1 3 1 3
node 2 3 1 1
node 3 3 1 1
node 4 2 0 2
node 23 1 0 0
node 48 1 0 0
node 60 1 0 0
gene 2 1 4 -1.66365 0 1 -1.66365 1
gene 3 2 4 -0.165519 0 2 -0.165519 0
gene 1 3 4 -0.921197 0 3 -0.921197 1
gene 3 2 23 -0.754643 0 40 -0.754643 1
gene 3 23 4 3.55425 0 41 3.55425 0
gene 2 3 23 -3.79588 0 44 -3.79588 1
gene 3 23 48 0.939779 0 100 0.939779 1
gene 3 48 4 2.71953 0 101 2.71953 0
gene 3 48 60 -2.06288 0 135 -2.06288 1
gene 3 60 4 4.359 0 136 4.359 1
gene 3 2 48 -0.236614 0 148 -0.236614 1
gene 3 1 60 -1.22882 0 164 -1.22882 1
genomeend 118

/* Organism #119 Fitness: 9 Error: 1 */
genomestart 119
trait 1 0.1 0.0576945 0 0 0 0 0 0.0136104 
trait 2 0.2 0 0.0210098 0.0202803 0.0336948 0 0 0.0346538 
trait 3 0.150428 0 0 0 0.000764841 0 0.0243663 0.00501003 
node 1 3 1 3
node 2 3 1 1
node 3 3 1 1
node 4 2 0 2
node 23 1 0 0
node 48 1 0 0
node 60 1 0 0
gene 2 1 4 2.32385 0 1 2.32385 1
gene 3 2 4 -0.720364 0 2 -0.720364 0
gene 1 3 4 -0.438999 0 3 -0.438999 1
gene 3 2 23 -1.67587 0 40 -1.67587 1
gene 3 23 4 0.409226 0 41 0.409226 0
gene 2 3 23 0.237165 0 44 0.237165 1
gene 3 23 48 0.222825 0 100 0.222825 1
gene 3 48 4 0.501301 0 101 0.501301 0
gene 3 48 60 3.72875 0 135 3.72875 1
gene 3 60 4 5.2953 0 136 5.2953 1
gene 3 2 48 -0.843247 0 148 -0.843247 1
gene 3 1 60 2.25882 0 164 2.25882 1
genomeend 119

/* Organism #120 Fitness: 9.00089 Error: 0.999851 */
genomestart 120
trait 1 0.1 0.0576945 0 0 0 0 0 0.0136104 
trait 2 0.2 0 0.0210098 0.0202803 0.0336948 0 0 0.0346538 
trait 3 0.150428 0 0 0 0.000764841 0 0.0243663 0.00501003 
node 1 3 1 3
node 2 3 1 1
node 3 3 1 1
node 4 2 0 2
node 23 1 0 0
node 48 1 0 0
node 60 1 0 0
gene 2 1 4 0.0546045 0 1 0.0546045 1
gene 3 2 4 1.91907 0 2 1.91907 0
gene 1 3 4 0.450456 0 3 0.450456 1
gene 3 2 23 1.21477 0 40 1.21477 1
gene 3 23 4 3.94327 0 41 3.94327 0
gene 2 3 23 -2.34802 0 44 -2.34802 1
gene 3 23 48 2.44554 0 100 2.44554 1
gene 3 48 4 1.40088 0 101 1.40088 0
gene 3 48 60 0.705123 0 135 0.705123 1
gene 3 60 4 3.50964 0 136 3.50964 1
gene 3 2 48 -1.16874 0 148 -1.16874 1
gene 3 1 60 -0.114047 0 164 -0.114047 1
genomeend 120

/* Organism #121 Fitness: 1.10953 Error: 2.94666 */
genomestart 121
trait 1 0.1 0.0576945 0 0 0 0 0 0.0136104 
trait 2 0.20192 0.352199 0 0 0.676006 0.630201 0 0 
trait 3 0.150428 0 0 0 0.000764841 0 0.0243663 0.00501003 
node 1 3 1 3
node 2 3 1 1
node 3 3 1 1
node 4 2 0 2
node 23 1 0 0
node 48 1 0 0
node 60 1 0 0
gene 2 1 4 -1.44632 0 1 -1.44632 1
gene 3 2 4 2.44648 0 2 2.44648 0
gene 1 3 4 -1.94653 0 3 -1.94653 1
gene 3 2 23 -0.197939 0 40 -0.197939 1
gene 3 23 4 3.35529 0 41 3.35529 0
gene 2 3 23 -2.0746 0 44 -2.0746 1
gene 3 23 48 0.147852 0 100 0.147852 1
gene 3 48 4 -1.72336 0 101 -1.72336 0
gene 3 48 60 0.41901 0 135 0.41901 1
gene 3 60 4 0.665746 0 136 0.665746 1
gene 3 2 48 -1.16874 0 148 -1.16874 1
gene 3 1 60 -1.45845 0 164 -1.45845 1
genomeend 121

/* Organism #122 Fitness: 4.07165 Error: 1.98217 */
genomestart 122
trait 1 0.1 0.0576945 0 0 0 0 0 0.0136104 
trait 2 0.2 0 0.0210098 0.0202803 0.0336948 0 0 0.0346538 
trait 3 0.150428 0 0 0 0.000764841 0 0.0243663 0.00501003 
node 1 3 1 3
node 2 3 1 1
node 3 3 1 1
node 4 2 0 2
node 23 1 0 0
node 48 1 0 0
node 60 1 0 0
gene 2 1 4 0.417202 0 1 0.417202 1
gene 3 2 4 0.157051 0 2 0.157051 1
gene 1 3 4 -0.748037 0 3 -0.748037 1
gene 3 2 23 1.57145 0 40 1.57145 1
gene 3 23 4 3.52876 0 41 3.52876 0
gene 2 3 23 -1.69027 0 44 -1.69027 1
gene 3 23 48 1.58951 0 100 1.58951 1
gene 3 48 4 2.97954 0 101 2.97954 0
gene 3 48 60 1.75544 0 135 1.75544 1
gene 3 60 4 2.6493 0 136 2.6493 1
gene 3 2 48 -1.65232 0 148 -1.65232 1
gene 3 1 60 -0.114047 0 164 -0.114047 1
genomeend 122

/* Organism #123 Fitness: 4.4577 Error: 1.88867 */
genomestart 123
trait 1 0.1 0.0576945 0 0 0 0 0 0.0136104 
trait 2 0.2 0 0.0210098 0.0202803 0.0336948 0 0 0.0346538 
trait 3 0.150428 0 0 0 0.000764841 0.451283 0.0243663 0.00501003 
node 1 3 1 3
node 2 3 1 1
node 3 3 1 1
node 4 1 0 2
node 23 1 0 0
node 48 1 0 0
node 60 1 0 0
gene 2 1 4 1.57731 0 1 1.57731 1
gene 3 2 4 -5.17021 0 2 -5.17021 1
gene 1 3 4 -2.1276 0 3 -2.1276 1
gene 3 2 23 0.293316 0 40 0.293316 1
gene 3 23 4 3.87545 0 41 3.87545 0
gene 2 3 23 0.59259 0 44 0.59259 1
gene 3 23 48 0.5121 0 100 0.5121 1
gene 3 48 4 3.18896 0 101 3.18896 0
gene 3 48 60 -0.49096 0 135 -0.49096 1
gene 3 60 4 2.19849 0 136 2.19849 1
gene 3 2 48 -2.13589 0 148 -2.13589 1
gene 3 1 60 -0.114047 0 164 -0.114047 1
genomeend 123

/* Species #9 : (Size 11) (AF 12.7242) (Age 7)  */


/* Organism #124 Fitness: 15.7003 Error: 0.0376405 */
genomestart 124
trait 1 0.1 0.0576945 0 0 0 0 0 0.0136104 
trait 2 0.2 0 0.0210098 0.0202803 0.0336948 0 0 0.0346538 
trait 3 0.263249 0 0 0 0.00133847 0 0.0426411 0.00501003 
node 1 3 1 3
node 2 3 1 1
node 3 3 1 1
node 4 2 0 2
node 23 1 0 0
node 55 1 0 0
node 61 1 0 0
gene 2 1 4 1.62299 0 1 1.62299 1
gene 3 2 4 1.84336 0 2 1.84336 0
gene 1 3 4 -3.12065 0 3 -3.12065 1
gene 3 2 23 -2.11639 0 40 -2.11639 1
gene 3 23 4 2.01888 0 41 2.01888 1
gene 2 3 23 1.63815 0 44 1.63815 0
gene 1 3 55 1.14067 0 117 1.14067 1
gene 1 55 4 2.1469 0 118 2.1469 1
gene 1 2 55 -3.8212 0 125 -3.8212 1
gene 2 3 61 1.23892 0 137 1.23892 1
gene 2 61 23 -1.36224 0 138 -1.36224 1
gene 2 1 23 0.44594 0 144 0.44594 1
genomeend 124

/* Organism #125 Fitness: 8.99983 Error: 1.00003 */
genomestart 125
trait 1 0.1 0.0576945 0 0 0 0 0 0.0136104 
trait 2 0.2 0 0.0210098 0.0202803 0.0336948 0 0 0.0346538 
trait 3 0.263249 0 0 0 0.00133847 0 0.0426411 0.00501003 
node 1 3 1 3
node 2 3 1 1
node 3 3 1 1
node 4 2 0 2
node 23 1 0 0
node 55 1 0 0
node 61 1 0 0
gene 2 1 4 3.9561 0 1 3.9561 1
gene 3 2 4 0.534268 0 2 0.534268 0
gene 1 3 4 -2.51637 0 3 -2.51637 1
gene 3 2 23 0.0275847 0 40 0.0275847 1
gene 3 23 4 4.09885 0 41 4.09885 1
gene 2 3 23 -0.626524 0 44 -0.626524 0
gene 1 3 55 -1.14143 0 117 -1.14143 1
gene 1 55 4 2.1469 0 118 2.1469 1
gene 1 2 55 -2.46516 0 125 -2.46516 1
gene 2 3 61 3.17614 0 137 3.17614 1
gene 2 61 23 -0.676328 0 138 -0.676328 1
gene 2 1 23 0.445864 0 144 0.445864 1
genomeend 125

/* Organism #126 Fitness: 15.6681 Error: 0.0417061 */
genomestart 126
trait 1 0.1 0.0576945 0 0 0 0 0 0.0136104 
trait 2 0.2 0 0.0210098 0.0202803 0.0336948 0 0 0.0346538 
trait 3 0.263249 0 0 0 0.00133847 0 0.0426411 0.00501003 
node 1 3 1 3
node 2 3 1 1
node 3 3 1 1
node 4 2 0 2
node 23 1 0 0
node 55 1 0 0
node 61 1 0 0
node 75 1 0 0
gene 2 1 4 1.62299 0 1 1.62299 1
gene 3 2 4 1.84336 0 2 1.84336 0
gene 1 3 4 -3.12065 0 3 -3.12065 1
gene 3 2 23 -2.11639 0 40 -2.11639 0
gene 3 23 4 2.01888 0 41 2.01888 1
gene 2 3 23 1.63815 0 44 1.63815 0
gene 1 3 55 1.14067 0 117 1.14067 1
gene 1 55 4 2.1469 0 118 2.1469 1
gene 1 2 55 -3.8212 0 125 -3.8212 1
gene 2 3 61 1.23892 0 137 1.23892 1
gene 2 61 23 -1.36224 0 138 -1.36224 1
gene 2 1 23 0.44594 0 144 0.44594 1
gene 3 2 75 1 0 182 0 1
gene 3 75 23 -2.11639 0 183 0 1
genomeend 126

/* Organism #127 Fitness: 15.7047 Error: 0.0370831 */
genomestart 127
trait 1 0.1 0.0576945 0 0 0 0 0 0.0136104 
trait 2 0.2 0 0.0210098 0.0202803 0.0336948 0 0 0.0346538 
trait 3 0.263249 0 0 0 0.00133847 0 0.0426411 0.00501003 
node 1 3 1 3
node 2 3 1 1
node 3 3 1 1
node 4 2 0 2
node 23 1 0 0
node 55 1 0 0
node 61 1 0 0
gene 2 1 4 2.45458 0 1 2.45458 1
gene 3 2 4 1.72201 0 2 1.72201 0
gene 1 3 4 -3.12065 0 3 -3.12065 1
gene 3 2 23 -1.71814 0 40 -1.71814 1
gene 3 23 4 1.55228 0 41 1.55228 1
gene 2 3 23 1.12469 0 44 1.12469 0
gene 1 3 55 1.14067 0 117 1.14067 1
gene 1 55 4 2.11912 0 118 2.11912 1
gene 1 2 55 -3.26429 0 125 -3.26429 1
gene 2 3 61 1.15228 0 137 1.15228 1
gene 2 61 23 -1.50054 0 138 -1.50054 1
gene 2 1 23 0.183257 0 144 0.183257 1
genomeend 127

/* Organism #128 Fitness: 8.13174 Error: 1.14838 */
genomestart 128
trait 1 0.1 0.0576945 0 0 0 0 0 0.0136104 
trait 2 0.2 0 0.0210098 0.0202803 0.0336948 0 0 0.0346538 
trait 3 0.263249 0 0 0 0.00133847 0 0.0426411 0.00501003 
node 1 3 1 3
node 2 3 1 1
node 3 3 1 1
node 4 2 0 2
node 23 1 0 0
node 55 1 0 0
node 61 1 0 0
gene 2 1 4 0.354734 0 1 0.354734 1
gene 3 2 4 3.22287 0 2 3.22287 0
gene 1 3 4 1.18877 0 3 1.18877 1
gene 3 2 23 -1.81736 0 40 -1.81736 1
gene 3 23 4 4.45766 0 41 4.45766 1
gene 2 3 23 1.90955 0 44 1.90955 1
gene 1 3 55 -0.173853 0 117 -0.173853 1
gene 1 55 4 2.4526 0 118 2.4526 1
gene 1 2 55 -5.22414 0 125 -5.22414 1
gene 2 3 61 2.91279 0 137 2.91279 1
gene 2 61 23 -2.33774 0 138 -2.33774 1
gene 2 1 23 -1.35548 0 144 -1.35548 1
genomeend 128

/* Organism #129 Fitness: 14.2003 Error: 0.23167 */
genomestart 129
trait 1 0.1 0.0576945 0 0 0 0 0 0.0136104 
trait 2 0.2 0 0.0210098 0.0202803 0.0336948 0 0 0.0346538 
trait 3 0.263249 0 0 0 0.00133847 0 0.0426411 0.00501003 
node 1 3 1 3
node 2 3 1 1
node 3 3 1 1
node 4 2 0 2
node 23 1 0 0
node 55 1 0 0
node 61 1 0 0
gene 2 1 4 0.255705 0 1 0.255705 1
gene 3 2 4 -0.152879 0 2 -0.152879 0
gene 1 3 4 -1.89411 0 3 -1.89411 1
gene 3 2 23 -1.97262 0 40 -1.97262 1
gene 3 23 4 0.627071 0 41 0.627071 1
gene 2 3 23 -1.46694 0 44 -1.46694 1
gene 1 3 55 4.60974 0 117 4.60974 1
gene 1 55 4 2.57697 0 118 2.57697 1
gene 1 2 55 -6.56528 0 125 -6.56528 1
gene 2 3 61 0.987851 0 137 0.987851 1
gene 2 61 23 -3.98518 0 138 -3.98518 1
gene 2 1 23 -3.93906 0 144 -3.93906 1
genomeend 129

/* Organism #130 Fitness: 11.5629 Error: 0.599574 */
genomestart 130
trait 1 0.1 0.0576945 0 0 0 0 0 0.0136104 
trait 2 0.2 0 0.0210098 0.0202803 0.0336948 0 0 0.0346538 
trait 3 0.263249 0 0 0 0.00133847 0 0.0426411 0.00501003 
node 1 3 1 3
node 2 3 1 1
node 3 3 1 1
node 4 2 0 2
node 23 1 0 0
node 55 1 0 0
node 61 1 0 0
gene 2 1 4 -0.0818695 0 1 -0.0818695 1
gene 3 2 4 0.372009 0 2 0.372009 0
gene 1 3 4 -3.2044 0 3 -3.2044 1
gene 3 2 23 -1.64933 0 40 -1.64933 1
gene 3 23 4 3.43357 0 41 3.43357 1
gene 2 3 23 -0.216571 0 44 -0.216571 0
gene 1 3 55 2.8385 0 117 2.8385 1
gene 1 55 4 3.78281 0 118 3.78281 1
gene 1 2 55 -3.43003 0 125 -3.43003 1
gene 2 3 61 -0.708917 0 137 -0.708917 1
gene 2 61 23 -4.89205 0 138 -4.89205 1
gene 2 1 23 1.11885 0 144 1.11885 1
genomeend 130

/* Organism #131 Fitness: 15.429 Error: 0.0720259 */
genomestart 131
trait 1 0.1 0.0576945 0 0 0 0 0 0.0136104 
trait 2 0.2 0 0.0210098 0.0202803 0.0336948 0 0 0.0346538 
trait 3 0.263249 0 0 0 0.00133847 0 0.0426411 0.00501003 
node 1 3 1 3
node 2 3 1 1
node 3 3 1 1
node 4 2 0 2
node 23 1 0 0
node 55 1 0 0
node 61 1 0 0
gene 2 1 4 2.05431 0 1 2.05431 1
gene 3 2 4 -0.821601 0 2 -0.821601 0
gene 1 3 4 -2.61568 0 3 -2.61568 1
gene 3 2 23 -2.25814 0 40 -2.25814 1
gene 3 23 4 2.3693 0 41 2.3693 1
gene 2 3 23 3.01066 0 44 3.01066 0
gene 1 3 55 2.46628 0 117 2.46628 1
gene 1 55 4 -0.124505 0 118 -0.124505 1
gene 1 2 55 -3.88371 0 125 -3.88371 1
gene 2 3 61 -0.535048 0 137 -0.535048 1
gene 2 61 23 -1.63883 0 138 -1.63883 1
gene 2 1 23 1.55 0 144 1.55 1
genomeend 131

/* Organism #132 Fitness: 7.67171 Error: 1.23022 */
genomestart 132
trait 1 0.1 0.0576945 0 0 0 0 0 0.0136104 
trait 2 0.2 0 0.0210098 0.0202803 0.0336948 0 0 0.0346538 
trait 3 0.263249 0 0 0.210391 0.00133847 0 0.225834 0.00501003 
node 1 3 1 3
node 2 3 1 1
node 3 3 1 1
node 4 2 0 2
node 23 1 0 0
node 55 1 0 0
node 61 1 0 0
gene 2 1 4 3.48761 0 1 3.48761 1
gene 3 2 4 3.42289 0 2 3.42289 0
gene 1 3 4 -2.70729 0 3 -2.70729 1
gene 3 2 23 2.33204 0 40 2.33204 1
gene 3 23 4 2.50536 0 41 2.50536 1
gene 2 3 23 0.603919 0 44 0.603919 0
gene 1 3 55 0.898688 0 117 0.898688 1
gene 1 55 4 0.252346 0 118 0.252346 1
gene 1 2 55 -6.31728 0 125 -6.31728 1
gene 2 3 61 1.25663 0 137 1.25663 1
gene 2 61 23 -4.11227 0 138 -4.11227 1
gene 2 1 23 1.96975 0 144 1.96975 1
genomeend 132

/* Organism #133 Fitness: 10.9715 Error: 0.687672 */
genomestart 133
trait 1 0.1 0.0576945 0 0 0 0 0 0.0136104 
trait 2 0.2 0 0.0210098 0.0202803 0.0336948 0 0 0.0346538 
trait 3 0.263249 0 0 0 0.00133847 0 0.0426411 0.00501003 
node 1 3 1 3
node 2 3 1 1
node 3 3 1 1
node 4 2 0 2
node 23 1 0 0
node 55 1 0 0
node 61 1 0 0
gene 2 1 4 1.02973 0 1 1.02973 1
gene 3 2 4 -0.593238 0 2 -0.593238 1
gene 1 3 4 -0.71313 0 3 -0.71313 1
gene 3 2 23 -2.096 0 40 -2.096 1
gene 3 23 4 0.643646 0 41 0.643646 1
gene 2 3 23 -1.1581 0 44 -1.1581 0
gene 1 3 55 -0.341765 0 117 -0.341765 1
gene 1 55 4 -1.26274 0 118 -1.26274 1
gene 1 2 55 -4.83383 0 125 -4.83383 1
gene 2 3 61 2.17624 0 137 2.17624 1
gene 2 61 23 -3.33647 0 138 -3.33647 1
gene 2 1 23 1.73447 0 144 1.73447 1
genomeend 133

/* Organism #134 Fitness: 15.9261 Error: 0.00925241 */
genomestart 134
trait 1 0.1 0.0576945 0 0 0 0 0 0.0136104 
trait 2 0.2 0 0.0210098 0.0202803 0.0336948 0 0 0.0346538 
trait 3 0.263249 0 0 0 0.00133847 0 0.0426411 0.00501003 
node 1 3 1 3
node 2 3 1 1
node 3 3 1 1
node 4 2 0 2
node 23 1 0 0
node 55 1 0 0
node 61 1 0 0
gene 2 1 4 1.18207 0 1 1.18207 1
gene 3 2 4 0.692539 0 2 0.692539 0
gene 1 3 4 -2.39066 0 3 -2.39066 1
gene 3 2 23 -3.13726 0 40 -3.13726 1
gene 3 23 4 2.67594 0 41 2.67594 1
gene 2 3 23 1.11221 0 44 1.11221 0
gene 1 3 55 0.351555 0 117 0.351555 1
gene 1 55 4 2.7061 0 118 2.7061 1
gene 1 2 55 -5.00864 0 125 -5.00864 1
gene 2 3 61 1.5139 0 137 1.5139 1
gene 2 61 23 -0.931196 0 138 -0.931196 1
gene 2 1 23 0.108728 0 144 0.108728 1
genomeend 134

/* Species #10 : (Size 14) (AF 10.0368) (Age 6)  */


/* Organism #135 Fitness: 15.9969 Error: 0.000393127 */
genomestart 135
trait 1 0.1 0.0540886 0.033849 0.0622569 0.0123676 0.0104437 0 0.0127597 
trait 2 0.143989 0.393233 0.396842 0.0101402 0.459931 0 0.382566 0.394902 
trait 3 0.286753 0 0 0 0.00145798 0 0.0464483 0.00501003 
node 1 3 1 3
node 2 3 1 1
node 3 3 1 1
node 4 2 0 2
node 23 1 0 0
node 62 1 0 0
gene 2 1 4 7.41558 0 1 7.41558 1
gene 3 2 4 -2.62921 0 2 -2.62921 1
gene 1 3 4 -3.55247 0 3 -3.55247 1
gene 3 2 23 2.38924 0 40 2.38924 1
gene 3 23 4 -3.47757 0 41 -3.01983 1
gene 1 1 23 0.299856 0 78 0.299856 1
gene 2 3 23 -0.230807 0 130 0 0
gene 2 3 62 1 0 139 0 1
gene 2 62 23 -0.230807 0 140 0 1
gene 1 62 4 0.539607 0 152 0.539607 1
gene 1 1 62 0.381605 0 173 0.381605 1
genomeend 135

/* Organism #136 Fitness: 1.17077 Error: 2.91798 */
genomestart 136
trait 1 0.1 0.0540886 0.033849 0.0622569 0.0123676 0.0104437 0 0.0127597 
trait 2 0.143989 0.393233 0.396842 0.0101402 0.459931 0 0.382566 0.394902 
trait 3 0.286753 0 0 0 0.00145798 0 0.0464483 0.00501003 
node 1 3 1 3
node 2 3 1 1
node 3 3 1 1
node 4 2 0 2
node 23 1 0 0
node 62 1 0 0
gene 2 1 4 -1.60044 0 1 -1.60044 1
gene 3 2 4 -2.62921 0 2 -2.62921 1
gene 1 3 4 1.93814 0 3 1.93814 1
gene 3 2 23 4.0539 0 40 4.0539 1
gene 3 23 4 -1.88476 0 41 -1.88476 1
gene 1 1 23 0.0678602 0 78 0.0678602 1
gene 2 3 23 -2.51012 0 130 -2.51012 0
gene 2 3 62 0.943385 0 139 0.943385 1
gene 2 62 23 -2.38209 0 140 -2.38209 1
gene 1 62 4 -0.836223 0 152 -0.836223 1
gene 1 2 62 0.369782 0 166 0.369782 1
genomeend 136

/* Organism #137 Fitness: 4.27158 Error: 1.93322 */
genomestart 137
trait 1 0.1 0.0540886 0.033849 0.0622569 0.0123676 0.0104437 0 0.0127597 
trait 2 0.143989 0.393233 0.396842 0.0101402 0.459931 0 0.382566 0.394902 
trait 3 0.286753 0 0 0 0.00145798 0 0.0464483 0.00501003 
node 1 3 1 3
node 2 3 1 1
node 3 3 1 1
node 4 2 0 2
node 23 1 0 0
node 62 1 0 0
gene 2 1 4 5.45074 0 1 5.45074 1
gene 3 2 4 -3.23716 0 2 -3.23716 1
gene 1 3 4 -4.41017 0 3 -4.41017 1
gene 3 2 23 4.27206 0 40 4.27206 1
gene 3 23 4 -4.99493 0 41 -4.99493 1
gene 1 1 23 -0.745608 0 78 -0.745608 1
gene 2 3 23 -1.92931 0 130 -1.92931 0
gene 2 3 62 0.0126676 0 139 0.0126676 1
gene 2 62 23 -1.54457 0 140 -1.54457 1
gene 1 62 4 -1.92172 0 152 -1.92172 1
gene 1 1 62 0.295319 0 173 0.295319 1
genomeend 137

/* Organism #138 Fitness: 9 Error: 1 */
genomestart 138
trait 1 0.1 0.0540886 0.033849 0.0622569 0.0123676 0.0104437 0 0.0127597 
trait 2 0.143989 0.393233 0.396842 0.0101402 0.459931 0 0.382566 0.394902 
trait 3 0.286753 0 0 0 0.00145798 0 0.0464483 0.00501003 
node 1 3 1 3
node 2 3 1 1
node 3 3 1 1
node 4 2 0 2
node 23 1 0 0
node 62 1 0 0
gene 2 1 4 8 0 1 8 1
gene 3 2 4 -1.62652 0 2 -1.62652 1
gene 1 3 4 -0.996828 0 3 -0.996828 1
gene 3 2 23 3.03549 0 40 3.03549 1
gene 3 23 4 1.88112 0 41 1.88112 1
gene 1 1 23 0.843679 0 78 0.843679 1
gene 2 3 23 -0.295029 0 130 -0.295029 0
gene 2 3 62 0.748506 0 139 0.748506 1
gene 2 62 23 1.31339 0 140 1.31339 1
gene 1 62 4 -0.441706 0 152 -0.441706 1
gene 1 1 62 1.4639 0 173 1.4639 1
genomeend 138

/* Organism #139 Fitness: 9.00003 Error: 0.999996 */
genomestart 139
trait 1 0.1 0.0540886 0.033849 0.0622569 0.0123676 0.0104437 0 0.0127597 
trait 2 0.143989 0.393233 0.396842 0.0101402 0.459931 0 0.382566 0.394902 
trait 3 0.286753 0 0 0 0.00145798 0 0.0464483 0.00501003 
node 1 3 1 3
node 2 3 1 1
node 3 3 1 1
node 4 2 0 2
node 23 1 0 0
node 62 1 0 0
gene 2 1 4 6.75232 0 1 6.75232 1
gene 3 2 4 -0.194088 0 2 -0.194088 1
gene 1 3 4 -3.01111 0 3 -3.01111 1
gene 3 2 23 1.41042 0 40 1.41042 1
gene 3 23 4 -1.58382 0 41 -1.58382 1
gene 1 1 23 0.299856 0 78 0.299856 1
gene 2 3 23 1.11232 0 130 1.11232 0
gene 2 3 62 1.48564 0 139 1.48564 1
gene 2 62 23 -0.577077 0 140 -0.577077 1
gene 1 62 4 0.539607 0 152 0.539607 1
gene 1 1 62 0.717368 0 173 0.717368 1
genomeend 139

/* Organism #140 Fitness: 15.6916 Error: 0.0387381 */
genomestart 140
trait 1 0.1 0.0540886 0.033849 0.0622569 0.0123676 0.0104437 0 0.0127597 
trait 2 0.143989 0.393233 0.396842 0.0101402 0.459931 0 0.382566 0.394902 
trait 3 0.286753 0 0 0 0.00145798 0 0.0464483 0.00501003 
node 1 3 1 3
node 2 3 1 1
node 3 3 1 1
node 4 2 0 2
node 23 1 0 0
node 62 1 0 0
gene 2 1 4 8 0 1 8 1
gene 3 2 4 -2.34361 0 2 -2.34361 1
gene 1 3 4 -3.55247 0 3 -3.55247 1
gene 3 2 23 2.36848 0 40 2.36848 1
gene 3 23 4 -3.47491 0 41 -3.47491 1
gene 1 1 23 1.92592 0 78 1.92592 1
gene 2 3 23 -1.10194 0 130 -1.10194 0
gene 2 3 62 2.46223 0 139 2.46223 1
gene 2 62 23 -1.85982 0 140 -1.85982 1
gene 1 62 4 0.72155 0 152 0.72155 1
gene 1 2 62 -1.33963 0 166 -1.33963 1
genomeend 140

/* Organism #141 Fitness: 15.4152 Error: 0.0737754 */
genomestart 141
trait 1 0.1 0.0540886 0.033849 0.0622569 0.0123676 0.0104437 0 0.0127597 
trait 2 0.143989 0.393233 0.396842 0.0101402 0.459931 0 0.382566 0.394902 
trait 3 0.286753 0 0 0 0.00145798 0 0.0464483 0.00501003 
node 1 3 1 3
node 2 3 1 1
node 3 3 1 1
node 4 2 0 2
node 23 1 0 0
node 62 1 0 0
gene 2 1 4 6.24346 0 1 6.24346 1
gene 3 2 4 -0.828868 0 2 -0.828868 1
gene 1 3 4 -3.86674 0 3 -3.86674 1
gene 3 2 23 4.77372 0 40 4.77372 1
gene 3 23 4 -4.89521 0 41 -4.89521 1
gene 1 1 23 1.27686 0 78 1.27686 1
gene 2 3 23 -1.68309 0 130 -1.68309 0
gene 2 3 62 2.36141 0 139 2.36141 1
gene 2 62 23 -2.52038 0 140 -2.52038 1
gene 1 62 4 2.12952 0 152 2.12952 1
gene 1 1 62 -1.97087 0 173 -1.97087 1
genomeend 141

/* Organism #142 Fitness: 4.00048 Error: 1.99988 */
genomestart 142
trait 1 0.1 0.0540886 0.033849 0.0622569 0.0123676 0.0104437 0 0.0127597 
trait 2 0.143989 0.393233 0.396842 0.0101402 0.459931 0 0.382566 0.394902 
trait 3 0.286753 0 0 0 0.00145798 0 0.0464483 0.00501003 
node 1 3 1 3
node 2 3 1 1
node 3 3 1 1
node 4 2 0 2
node 23 1 0 0
node 62 1 0 0
gene 2 1 4 6.70849 0 1 6.70849 1
gene 3 2 4 -4.57601 0 2 -4.57601 1
gene 1 3 4 -4.12347 0 3 -4.12347 1
gene 3 2 23 -0.755407 0 40 -0.755407 1
gene 3 23 4 -4.42215 0 41 -4.42215 1
gene 1 1 23 1.76168 0 78 1.76168 1
gene 2 3 23 1.30027 0 130 1.30027 0
gene 2 3 62 -1.03905 0 139 -1.03905 1
gene 2 62 23 2.25515 0 140 2.25515 1
gene 1 62 4 1.46507 0 152 1.46507 1
gene 1 1 62 -1.78069 0 173 -1.78069 1
genomeend 142

/* Organism #143 Fitness: 15.9969 Error: 0.000393127 */
genomestart 143
trait 1 0.1 0.0540886 0.033849 0.0622569 0.0123676 0.0104437 0 0.0127597 
trait 2 0.143989 0.393233 0.396842 0.0101402 0.459931 0 0.382566 0.394902 
trait 3 0.286753 0 0 0 0.00145798 0 0.0464483 0.00501003 
node 1 3 1 3
node 2 3 1 1
node 3 3 1 1
node 4 2 0 2
node 23 1 0 0
node 62 1 0 0
gene 2 1 4 7.41558 0 1 7.41558 1
gene 3 2 4 -2.62921 0 2 -2.62921 1
gene 1 3 4 -3.55247 0 3 -3.55247 1
gene 3 2 23 2.38924 0 40 2.38924 1
gene 3 23 4 -3.47757 0 41 -3.01983 1
gene 1 1 23 0.299856 0 78 0.299856 1
gene 2 3 23 -0.230807 0 130 0 0
gene 2 3 62 1 0 139 0 1
gene 2 62 23 -0.230807 0 140 0 1
gene 1 62 4 0.539607 0 152 0.539607 1
gene 1 1 62 0.381605 0 173 0 1
genomeend 143

/* Organism #144 Fitness: 9.006 Error: 0.999 */
genomestart 144
trait 1 0.1 0.0540886 0.033849 0.0622569 0.0123676 0.0104437 0 0.0127597 
trait 2 0.143989 0.393233 0.396842 0.0101402 0.459931 0 0.382566 0.394902 
trait 3 0.286753 0 0 0 0.00145798 0 0.0464483 0.00501003 
node 1 3 1 3
node 2 3 1 1
node 3 3 1 1
node 4 2 0 2
node 23 1 0 0
node 62 1 0 0
gene 2 1 4 7.63624 0 1 7.63624 1
gene 3 2 4 -0.76876 0 2 -0.76876 1
gene 1 3 4 -5.41034 0 3 -5.41034 1
gene 3 2 23 0.852534 0 40 0.852534 1
gene 3 23 4 -5.07664 0 41 -5.07664 1
gene 1 1 23 -1.73028 0 78 -1.73028 1
gene 2 3 23 -2.08006 0 130 -2.08006 0
gene 2 3 62 0.704764 0 139 0.704764 1
gene 2 62 23 -0.742114 0 140 -0.742114 1
gene 1 62 4 2.91136 0 152 2.91136 1
gene 1 2 62 -1.83772 0 166 -1.83772 1
genomeend 144

/* Organism #145 Fitness: 15.9969 Error: 0.000393127 */
genomestart 145
trait 1 0.1 0.0540886 0.033849 0.0622569 0.0123676 0.0104437 0 0.0127597 
trait 2 0.143989 0.393233 0.396842 0.0101402 0.459931 0 0.382566 0.394902 
trait 3 0.286753 0 0 0 0.00145798 0 0.0464483 0.00501003 
node 1 3 1 3
node 2 3 1 1
node 3 3 1 1
node 4 2 0 2
node 23 1 0 0
node 62 1 0 0
gene 2 1 4 7.41558 0 1 7.41558 1
gene 3 2 4 -2.62921 0 2 -2.62921 1
gene 1 3 4 -3.55247 0 3 -3.55247 1
gene 3 2 23 2.38924 0 40 2.38924 1
gene 3 23 4 -3.47757 0 41 -3.01983 1
gene 1 1 23 0.299856 0 78 0.299856 1
gene 2 3 23 -0.230807 0 130 0 0
gene 2 3 62 1 0 139 0 1
gene 2 62 23 -0.230807 0 140 0 1
gene 1 62 4 0.539607 0 152 0.539607 1
gene 1 1 62 0.381605 0 173 0 1
genomeend 145

/* Organism #146 Fitness: 5.07183 Error: 1.74793 */
genomestart 146
trait 1 0.1 0.0540886 0.033849 0.0622569 0.0123676 0.0104437 0 0.0127597 
trait 2 0.143989 0.393233 0.396842 0.0101402 0.459931 0 0.382566 0.394902 
trait 3 0.286753 0 0 0 0.00145798 0 0.0464483 0.00501003 
node 1 3 1 3
node 2 3 1 1
node 3 3 1 1
node 4 2 0 2
node 23 1 0 0
node 62 1 0 0
gene 2 1 4 5.16809 0 1 5.16809 1
gene 3 2 4 -1.11403 0 2 -1.11403 1
gene 1 3 4 -2.33635 0 3 -2.33635 1
gene 3 2 23 1.36645 0 40 1.36645 1
gene 3 23 4 -4.26548 0 41 -4.26548 1
gene 1 1 23 2.32925 0 78 2.32925 1
gene 2 3 23 -1.08314 0 130 -1.08314 1
gene 2 3 62 -0.812727 0 139 -0.812727 1
gene 2 62 23 -0.495945 0 140 -0.495945 1
gene 2 62 4 1.78031 0 152 1.78031 1
gene 1 1 62 -1.39753 0 173 -1.39753 1
genomeend 146

/* Organism #147 Fitness: 15.8975 Error: 0.012837 */
genomestart 147
trait 1 0.1 0.0540886 0.033849 0.0622569 0.0123676 0.0104437 0 0.0127597 
trait 2 0.143989 0.393233 0.396842 0.0101402 0.459931 0 0.382566 0.394902 
trait 3 0.286753 0 0 0 0.00145798 0 0.0464483 0.00501003 
node 1 3 1 3
node 2 3 1 1
node 3 3 1 1
node 4 2 0 2
node 23 1 0 0
node 62 1 0 0
gene 2 1 4 6.29477 0 1 6.29477 1
gene 3 2 4 -2.76133 0 2 -2.76133 1
gene 1 3 4 -2.68386 0 3 -2.68386 1
gene 3 2 23 1.6313 0 40 1.6313 1
gene 3 23 4 -4.64638 0 41 -4.64638 1
gene 1 1 23 2.3347 0 78 2.3347 1
gene 2 3 23 -0.487508 0 130 -0.487508 0
gene 2 3 62 0.484656 0 139 0.484656 1
gene 2 62 23 1.44803 0 140 1.44803 1
gene 1 62 4 2.35057 0 152 2.35057 1
gene 1 1 62 0.381605 0 173 0.381605 1
genomeend 147

/* Organism #148 Fitness: 3.99991 Error: 2.00002 */
genomestart 148
trait 1 0.1 0.0540886 0.033849 0.0622569 0.0123676 0.0104437 0 0.0127597 
trait 2 0.143989 0.393233 0.396842 0.0101402 0.459931 0 0.382566 0.394902 
trait 3 0.286753 0 0 0 0.00145798 0 0.0464483 0.00501003 
node 1 3 1 3
node 2 3 1 1
node 3 3 1 1
node 4 2 0 2
node 23 1 0 0
node 62 1 0 0
gene 2 1 4 8 0 1 8 1
gene 3 2 4 1.38179 0 2 1.38179 1
gene 1 3 4 -1.62253 0 3 -1.62253 1
gene 3 2 23 3.53615 0 40 3.53615 1
gene 3 23 4 -3.69037 0 41 -3.69037 1
gene 1 1 23 2.42028 0 78 2.42028 1
gene 2 3 23 -0.230807 0 130 -0.230807 0
gene 2 3 62 2.2406 0 139 2.2406 1
gene 2 62 23 -0.0362983 0 140 -0.0362983 1
gene 1 62 4 -0.503121 0 152 -0.503121 1
gene 1 1 62 1.70355 0 173 1.70355 1
genomeend 148

/* Species #11 : (Size 1) (AF 15.9958) (Age 1)  */


/* Organism #149 Fitness: 15.9958 Error: 0.000519094 */
genomestart 149
trait 1 0.1 0.0540886 0.033849 0.0622569 0.0123676 0.0104437 0 0.0127597 
trait 2 0.143989 0.393233 0.396842 0.0101402 0.459931 0 0.382566 0.394902 
trait 3 0.286753 0 0 0 0.00145798 0 0.0464483 0.00501003 
node 1 3 1 3
node 2 3 1 1
node 3 3 1 1
node 4 2 0 2
node 23 1 0 0
node 62 1 0 0
gene 2 1 4 7.41558 0 1 7.41558 1
gene 3 2 4 -2.62921 0 2 -2.62921 1
gene 1 3 4 -3.55247 0 3 -3.55247 1
gene 3 2 23 2.38924 0 40 2.38924 1
gene 3 23 4 -3.47757 0 41 -3.01983 1
gene 1 1 23 0.299856 0 78 0.299856 1
gene 2 3 23 -0.230807 0 130 0 0
gene 2 3 62 1 0 139 0 1
gene 2 62 23 -0.230807 0 140 0 1
gene 1 62 4 0.539607 0 152 0.539607 1
gene 1 2 62 0.00449287 0 166 0.00449287 1
gene 3 1 62 0.116996 0 184 0.116996 1
genomeend 149
