
/* Species #1 : (Size 13) (AF 11.6884) (Age 15)  */


/* Organism #0 Fitness: 15.9991 Error: 0.000115795 */
genomestart 0
trait 1 0.075 0.132775 0 0 0 0 0 0 
trait 2 0.2 0 0 0 0 0 0 0 
trait 3 0.3 0 0 0 0 0 0 0 
node 1 1 1 3
node 2 2 1 1
node 3 2 1 1
node 4 2 0 2
node 7 1 0 0
node 9 1 0 0
gene 1 1 4 0.448752 0 1 0.448752 1
gene 1 2 4 -1.37008 0 2 -1.37008 0
gene 1 3 4 -5.32788 0 3 -5.32788 1
gene 1 2 7 -4.39391 0 8 -4.39391 1
gene 1 7 4 2.07378 0 9 2.07378 1
gene 1 7 9 6.28905 0 12 6.28905 1
gene 1 9 4 5.94977 0 13 5.94977 1
genomeend 0

/* Organism #1 Fitness: 3.56966 Error: 2.11065 */
genomestart 1
trait 1 0.075 0.132775 0 0 0 0 0 0 
trait 2 0 0 0.300063 0.996616 0.736688 0.0816729 0 0 
trait 3 0.3 0 0 0 0 0 0 0 
node 1 1 1 3
node 2 2 1 1
node 3 2 1 1
node 4 2 0 2
node 7 1 0 0
node 9 1 0 0
gene 1 1 4 -0.785799 0 1 -0.785799 1
gene 1 2 4 -1.8423 0 2 -1.8423 0
gene 1 3 4 -2.43399 0 3 -2.43399 1
gene 1 2 7 -2.09569 0 8 -2.09569 1
gene 1 7 4 3.92531 0 9 3.92531 1
gene 1 7 9 3.77251 0 12 3.77251 1
gene 1 9 4 -0.765688 0 13 -0.765688 1
genomeend 1

/* Organism #2 Fitness: 8.95034 Error: 1.00829 */
genomestart 2
trait 1 0.075 0.132775 0 0 0 0 0 0 
trait 2 0 0 0.300063 0.996616 0.736688 0.0816729 0 0 
trait 3 0.3 0 0 0 0 0 0 0 
node 1 1 1 3
node 2 2 1 1
node 3 2 1 1
node 4 2 0 2
node 7 1 0 0
node 9 1 0 0
gene 1 1 4 1.45513 0 1 1.45513 1
gene 1 2 4 -3.3056 0 2 -3.3056 0
gene 1 3 4 -7.75276 0 3 -7.75276 1
gene 1 2 7 1.47164 0 8 1.47164 1
gene 1 7 4 4.43386 0 9 4.43386 1
gene 1 7 9 7.93904 0 12 7.93904 1
gene 1 9 4 5.05232 0 13 5.05232 1
genomeend 2

/* Organism #3 Fitness: 15.7971 Error: 0.0254491 */
genomestart 3
trait 1 0.075 0.132775 0 0 0 0 0 0 
trait 2 0.1 0 0.150032 0.498308 0.368344 0.0408364 0 0 
trait 3 0.3 0 0 0 0 0 0 0 
node 1 1 1 3
node 2 2 1 1
node 3 2 1 1
node 4 2 0 2
node 7 1 0 0
node 9 1 0 0
gene 1 1 4 0.791304 0 1 0.791304 1
gene 1 2 4 -4.14079 0 2 -4.14079 0
gene 1 3 4 -6.89606 0 3 -6.89606 1
gene 3 2 7 -1.37702 0 8 -1.37702 1
gene 1 7 4 5.11528 0 9 5.11528 1
gene 1 7 9 6.62165 0 12 6.62165 1
gene 1 9 4 4.28739 0 13 4.28739 1
genomeend 3

/* Organism #4 Fitness: 15.9964 Error: 0.000451646 */
genomestart 4
trait 1 0.075 0.132775 0 0 0 0 0 0 
trait 2 0.1 0 0.150032 0.498308 0.368344 0.0408364 0 0 
trait 3 0.3 0 0 0 0 0 0 0 
node 1 1 1 3
node 2 2 1 1
node 3 2 1 1
node 4 2 0 2
node 7 1 0 0
node 9 1 0 0
gene 1 1 4 2.10607 0 1 2.10607 1
gene 1 2 4 -3.17088 0 2 -3.17088 0
gene 1 3 4 -6.54207 0 3 -6.54207 1
gene 1 2 7 -1.39067 0 8 -1.39067 1
gene 1 7 4 5.10511 0 9 5.10511 1
gene 1 7 9 7.43243 0 12 7.43243 1
gene 1 9 4 5.62379 0 13 5.62379 1
genomeend 4

/* Organism #5 Fitness: 15.993 Error: 0.000871871 */
genomestart 5
trait 1 0.075 0.132775 0 0 0 0 0 0 
trait 2 0.2 0 0 0 0 0 0 0 
trait 3 0.3 0 0 0 0 0 0 0 
node 1 1 1 3
node 2 2 1 1
node 3 2 1 1
node 4 2 0 2
node 7 1 0 0
node 9 1 0 0
gene 1 1 4 1.30309 0 1 1.30309 1
gene 1 2 4 -1.71362 0 2 -1.71362 0
gene 1 3 4 -5.94115 0 3 -5.94115 1
gene 1 2 7 -4.4901 0 8 -4.4901 1
gene 1 7 4 3.16947 0 9 3.16947 1
gene 1 7 9 7.14453 0 12 7.14453 1
gene 1 9 4 4.48556 0 13 4.48556 1
genomeend 5

/* Organism #6 Fitness: 9.00002 Error: 0.999997 */
genomestart 6
trait 1 0.075 0.132775 0 0 0 0 0 0 
trait 2 0.2 0 0 0 0 0 0 0 
trait 3 0.3 0 0 0 0 0 0 0 
node 1 1 1 3
node 2 2 1 1
node 3 2 1 1
node 4 2 0 2
node 7 1 0 0
node 9 1 0 0
gene 1 1 4 -1.52073 0 1 -1.52073 1
gene 1 2 4 -3.11719 0 2 -3.11719 1
gene 1 3 4 -1.65026 0 3 -1.65026 1
gene 1 2 7 2.00492 0 8 2.00492 1
gene 1 7 4 3.33268 0 9 3.33268 1
gene 1 7 9 7.64131 0 12 7.64131 1
gene 1 9 4 5.56719 0 13 5.56719 1
genomeend 6

/* Organism #7 Fitness: 8.99937 Error: 1.0001 */
genomestart 7
trait 1 0.075 0.132775 0 0 0 0 0 0 
trait 2 0.1 0 0.150032 0.498308 0.368344 0.0408364 0 0 
trait 3 0.3 0 0 0 0 0 0 0 
node 1 1 1 3
node 2 2 1 1
node 3 2 1 1
node 4 2 0 2
node 7 1 0 0
node 9 1 0 0
gene 1 1 4 0.981512 0 1 0.981512 1
gene 1 2 4 -1.37005 0 2 -1.37005 0
gene 1 3 4 -6.92878 0 3 -6.92878 1
gene 1 2 7 -4.79746 0 8 -4.79746 1
gene 1 7 4 2.34706 0 9 2.34706 1
gene 1 7 9 6.01225 0 12 6.01225 1
gene 1 9 4 1.76002 0 13 1.76002 1
genomeend 7

/* Organism #8 Fitness: 15.7901 Error: 0.0263236 */
genomestart 8
trait 1 0.075 0.132775 0 0 0 0 0 0 
trait 2 0.2 0 0 0 0 0 0 0 
trait 3 0.3 0 0 0 0 0 0 0 
node 1 1 1 3
node 2 2 1 1
node 3 2 1 1
node 4 2 0 2
node 7 1 0 0
node 9 1 0 0
gene 1 1 4 2.03894 0 1 2.03894 1
gene 1 2 4 -2.16202 0 2 -2.16202 0
gene 1 3 4 -4.38403 0 3 -4.38403 1
gene 1 2 7 -2.35596 0 8 -2.35596 1
gene 1 7 4 6.65321 0 9 6.65321 1
gene 1 7 9 8 0 12 8 1
gene 1 9 4 3.22303 0 13 3.22303 1
genomeend 8

/* Organism #9 Fitness: 9.00048 Error: 0.99992 */
genomestart 9
trait 1 0.075 0.132775 0 0 0 0 0 0 
trait 2 0.2 0 0 0 0 0 0 0 
trait 3 0.3 0 0 0 0 0 0 0 
node 1 1 1 3
node 2 2 1 1
node 3 2 1 1
node 4 2 0 2
node 7 1 0 0
node 9 1 0 0
node 49 1 0 0
gene 1 1 4 1.76136 0 1 1.76136 1
gene 1 2 4 -1.37008 0 2 -1.37008 0
gene 1 3 4 -5.32788 0 3 -5.32788 1
gene 1 2 7 -4.39391 0 8 -4.39391 1
gene 1 7 4 2.07378 0 9 2.07378 1
gene 1 7 9 6.28905 0 12 6.28905 1
gene 1 9 4 5.94977 0 13 5.94977 0
gene 1 9 49 1 0 136 0 1
gene 1 49 4 5.94977 0 137 0 1
genomeend 9

/* Organism #10 Fitness: 10.0742 Error: 0.826015 */
genomestart 10
trait 1 0.075 0.132775 0 0 0 0 0 0 
trait 2 0.2 0 0 0 0 0 0 0 
trait 3 0.3 0 0 0 0 0 0 0 
node 1 1 1 3
node 2 2 1 1
node 3 2 1 1
node 4 2 0 2
node 7 1 0 0
node 9 1 0 0
gene 1 1 4 -1.11903 0 1 -1.11903 1
gene 1 2 4 -1.34817 0 2 -1.34817 0
gene 1 3 4 -8 0 3 -8 1
gene 1 2 7 -2.94148 0 8 -2.94148 1
gene 1 7 4 1.60542 0 9 1.60542 1
gene 1 7 9 6.39292 0 12 6.39292 1
gene 1 9 4 8 0 13 8 1
genomeend 10

/* Organism #11 Fitness: 12.7133 Error: 0.434423 */
genomestart 11
trait 1 0.075 0.132775 0 0 0 0 0 0 
trait 2 0.2 0 0 0 0 0 0 0 
trait 3 0.3 0 0 0 0 0 0 0 
node 1 1 1 3
node 2 2 1 1
node 3 2 1 1
node 4 2 0 2
node 7 1 0 0
node 9 1 0 0
gene 1 1 4 2.73821 0 1 2.73821 1
gene 1 2 4 -0.486575 0 2 -0.486575 0
gene 1 3 4 -5.90671 0 3 -5.90671 1
gene 1 2 7 -2.29165 0 8 -2.29165 1
gene 1 7 4 1.4889 0 9 1.4889 1
gene 1 7 9 8 0 12 8 1
gene 1 9 4 6.22827 0 13 6.22827 1
genomeend 11

/* Organism #12 Fitness: 10.0662 Error: 0.827276 */
genomestart 12
trait 1 0.075 0.132775 0 0 0 0 0 0 
trait 2 0.2 0 0 0 0 0 0 0 
trait 3 0.3 0 0 0 0 0 0 0 
node 1 1 1 3
node 2 2 1 1
node 3 2 1 1
node 4 2 0 2
node 7 1 0 0
node 9 1 0 0
gene 1 1 4 -0.0525099 0 1 -0.0525099 1
gene 1 2 4 0.971651 0 2 0.971651 0
gene 1 3 4 -7.19212 0 3 -7.19212 1
gene 1 2 7 -4.76108 0 8 -4.76108 1
gene 1 7 4 4.55886 0 9 4.55886 1
gene 1 7 9 5.00673 0 12 5.00673 1
gene 1 9 4 4.64713 0 13 4.64713 1
genomeend 12

/* Species #2 : (Size 20) (AF 13.2951) (Age 13)  */


/* Organism #13 Fitness: 16 Error: 1.19105e-06 */
genomestart 13
trait 1 0.09375 0 0 0 0 0 0 0.0410816 
trait 2 0.2 0 0 0 0 0 0 0 
trait 3 0.3 0.315813 0 0.204437 0 0 0.569674 0 
node 1 2 1 3
node 2 3 1 1
node 3 3 1 1
node 4 3 0 2
node 5 1 0 0
gene 2 1 4 2.79062 0 1 2.79062 1
gene 3 2 4 -6.25077 0 2 -6.25077 1
gene 3 3 4 -6.19497 0 3 -6.19497 0
gene 2 3 5 -4.10318 0 4 -4.10318 1
gene 3 5 4 6.93816 0 5 6.93816 1
gene 3 2 5 1.88617 0 109 1.88617 1
genomeend 13

/* Organism #14 Fitness: 15.9941 Error: 0.000737628 */
genomestart 14
trait 1 0.0875 0 0 0 0 0 0 0.0821631 
trait 2 0.2 0 0 0 0 0 0 0 
trait 3 0.3 0.317751 0 0.205691 0 0 0.573168 0 
node 1 2 1 3
node 2 3 1 1
node 3 3 1 1
node 4 3 0 2
node 5 1 0 0
gene 2 1 4 1.76205 0 1 1.76205 1
gene 3 2 4 -3.2799 0 2 -3.2799 1
gene 3 3 4 -5.60608 0 3 -5.60608 0
gene 2 3 5 -7.17994 0 4 -7.17994 1
gene 3 5 4 8 0 5 8 1
gene 3 2 5 1.97257 0 109 1.97257 1
genomeend 14

/* Organism #15 Fitness: 15.9991 Error: 0.000112824 */
genomestart 15
trait 1 0.08125 0 0 0 0 0 0 0.123245 
trait 2 0.2 0 0 0 0 0 0 0 
trait 3 0.3 0.316782 0 0.205064 0 0 0.571421 0 
node 1 2 1 3
node 2 3 1 1
node 3 3 1 1
node 4 3 0 2
node 5 1 0 0
gene 2 1 4 3.25817 0 1 3.25817 1
gene 3 2 4 -5.24555 0 2 -5.24555 1
gene 3 3 4 -5.88348 0 3 -5.88348 0
gene 2 3 5 -3.98688 0 4 -3.98688 1
gene 3 5 4 7.94737 0 5 7.94737 1
genomeend 15

/* Organism #16 Fitness: 9.33351 Error: 0.944921 */
genomestart 16
trait 1 0.08125 0 0 0 0 0 0 0.123245 
trait 2 0.2 0 0 0 0 0 0 0 
trait 3 0.3 0.316782 0 0.205064 0 0 0.571421 0 
node 1 2 1 3
node 2 3 1 1
node 3 3 1 1
node 4 3 0 2
node 5 1 0 0
gene 2 1 4 4.66666 0 1 4.66666 1
gene 3 2 4 -6.31721 0 2 -6.31721 1
gene 3 3 4 -5.24339 0 3 -5.24339 1
gene 2 3 5 -3.12678 0 4 -3.12678 1
gene 3 5 4 6.95729 0 5 6.95729 1
genomeend 16

/* Organism #17 Fitness: 15.9961 Error: 0.000482065 */
genomestart 17
trait 1 0.0875 0 0 0 0 0 0 0.0821631 
trait 2 0.2 0 0 0 0 0 0 0 
trait 3 0.3 0.316782 0 0.205064 0 0 0.571421 0 
node 1 2 1 3
node 2 3 1 1
node 3 3 1 1
node 4 3 0 2
node 5 1 0 0
gene 2 1 4 1.55124 0 1 1.55124 1
gene 3 2 4 -4.37188 0 2 -4.37188 1
gene 3 3 4 -6.16135 0 3 -6.16135 0
gene 2 3 5 -2.5181 0 4 -2.5181 1
gene 3 5 4 8 0 5 8 1
gene 2 2 5 0.662995 0 109 0.662995 1
genomeend 17

/* Organism #18 Fitness: 15.6616 Error: 0.0425242 */
genomestart 18
trait 1 0.08125 0 0 0 0 0 0 0.123245 
trait 2 0.2 0 0 0 0 0 0 0 
trait 3 0.3 0.316782 0 0.205064 0 0 0.571421 0 
node 1 2 1 3
node 2 3 1 1
node 3 3 1 1
node 4 3 0 2
node 5 1 0 0
gene 2 1 4 4.08791 0 1 4.08791 1
gene 3 2 4 -4.72033 0 2 -4.72033 1
gene 3 3 4 -4.07943 0 3 -4.07943 0
gene 2 3 5 -3.27161 0 4 -3.27161 1
gene 3 5 4 7.38577 0 5 7.38577 1
genomeend 18

/* Organism #19 Fitness: 16 Error: 5.03629e-07 */
genomestart 19
trait 1 0.090625 0 0 0 0 0 0 0.0616224 
trait 2 0.2 0 0 0 0 0 0 0 
trait 3 0.3 0.316782 0 0.205064 0 0 0.571421 0 
node 1 2 1 3
node 2 3 1 1
node 3 3 1 1
node 4 3 0 2
node 5 1 0 0
gene 2 1 4 3.22124 0 1 3.22124 1
gene 3 2 4 -6.25077 0 2 -6.25077 1
gene 3 3 4 -6.19497 0 3 -6.19497 0
gene 2 3 5 -4.94566 0 4 -4.94566 1
gene 3 5 4 6.93816 0 5 6.93816 1
gene 3 2 5 1.88617 0 109 1.88617 1
genomeend 19

/* Organism #20 Fitness: 15.967 Error: 0.00412317 */
genomestart 20
trait 1 0.08125 0 0 0 0 0 0 0.123245 
trait 2 0.2 0 0 0 0 0 0 0 
trait 3 0.3 0.316782 0 0.205064 0 0 0.571421 0 
node 1 2 1 3
node 2 3 1 1
node 3 3 1 1
node 4 3 0 2
node 5 1 0 0
gene 2 1 4 2.16974 0 1 2.16974 1
gene 3 2 4 -3.28519 0 2 -3.28519 1
gene 3 3 4 -5.95287 0 3 -5.95287 0
gene 2 3 5 -7.33642 0 4 -7.33642 1
gene 3 5 4 8 0 5 8 1
genomeend 20

/* Organism #21 Fitness: 15.9996 Error: 5.25594e-05 */
genomestart 21
trait 1 0.08125 0 0 0 0 0 0 0.123245 
trait 2 0.2 0 0 0 0 0 0 0 
trait 3 0.3 0.317751 0 0.205691 0 0 0.573168 0 
node 1 2 1 3
node 2 3 1 1
node 3 3 1 1
node 4 3 0 2
node 5 1 0 0
gene 2 1 4 3.13779 0 1 3.13779 1
gene 3 2 4 -5.13956 0 2 -5.13956 1
gene 3 3 4 -5.24298 0 3 -5.24298 0
gene 2 3 5 -4.46627 0 4 -4.46627 1
gene 3 5 4 7.94737 0 5 7.94737 1
gene 3 2 5 0.924716 0 109 0.924716 1
genomeend 21

/* Organism #22 Fitness: 15.9991 Error: 0.000112824 */
genomestart 22
trait 1 0.0875 0 0 0 0 0 0 0.0821631 
trait 2 0.2 0 0 0 0 0 0 0 
trait 3 0.3 0.315813 0 0.204437 0 0 0.569674 0 
node 1 2 1 3
node 2 1 1 1
node 3 3 1 1
node 4 3 0 2
node 5 1 0 0
gene 2 1 4 3.25817 0 1 3.25817 1
gene 3 2 4 -5.24555 0 2 -5.24555 1
gene 3 3 4 -5.88348 0 3 -5.88348 0
gene 2 3 5 -4.94566 0 4 -4.94566 1
gene 3 5 4 7.94737 0 5 7.94737 1
genomeend 22

/* Organism #23 Fitness: 5.47417 Error: 1.66031 */
genomestart 23
trait 1 0.0875 0 0 0 0 0 0 0.0821631 
trait 2 0.2 0 0 0 0 0 0 0 
trait 3 0.3 0.316782 0 0.205064 0 0 0.571421 0 
node 1 2 1 3
node 2 3 1 1
node 3 3 1 1
node 4 3 0 2
node 5 1 0 0
gene 2 1 4 -0.130225 0 1 -0.130225 1
gene 3 2 4 -5.23985 0 2 -5.23985 1
gene 3 3 4 -4.69265 0 3 -4.69265 0
gene 2 3 5 -7.04281 0 4 -7.04281 1
gene 3 5 4 2.08048 0 5 2.08048 1
gene 3 2 5 -1.19455 0 109 -1.19455 1
genomeend 23

/* Organism #24 Fitness: 9 Error: 1 */
genomestart 24
trait 1 0.0875 0 0 0 0 0 0 0.0821631 
trait 2 0.2 0 0 0 0 0 0 0 
trait 3 0.3 0.315813 0 0.204437 0 0 0.569674 0 
node 1 2 1 3
node 2 3 1 1
node 3 3 1 1
node 4 3 0 2
node 5 1 0 0
gene 2 1 4 4.01179 0 1 4.01179 1
gene 3 2 4 -1.14119 0 2 -1.14119 1
gene 3 3 4 -1.22412 0 3 -1.22412 0
gene 2 3 5 -0.406672 0 4 -0.406672 1
gene 3 5 4 8 0 5 8 1
genomeend 24

/* Organism #25 Fitness: 5.55571 Error: 1.64294 */
genomestart 25
trait 1 0.0875 0 0 0 0 0 0 0.0821631 
trait 2 0.2 0 0 0 0 0 0 0 
trait 3 0.3 0.317751 0 0.205691 0 0 0.573168 0 
node 1 2 1 3
node 2 3 1 1
node 3 3 1 1
node 4 3 0 2
node 5 1 0 0
gene 2 1 4 -0.110483 0 1 -0.110483 1
gene 3 2 4 -3.34468 0 2 -3.34468 1
gene 3 3 4 -4.18905 0 3 -4.18905 0
gene 2 3 5 -6.1661 0 4 -6.1661 1
gene 3 5 4 1.71494 0 5 1.71494 1
gene 3 2 5 -1.43368 0 109 -1.43368 1
genomeend 25

/* Organism #26 Fitness: 10.9182 Error: 0.695731 */
genomestart 26
trait 1 0.09375 0 0 0 0 0 0 0.0410816 
trait 2 0.2 0 0 0 0 0 0 0 
trait 3 0.3 0.315813 0 0.204437 0 0 0.569674 0 
node 1 2 1 3
node 2 3 1 1
node 3 3 1 1
node 4 3 0 2
node 5 1 0 0
gene 2 1 4 3.4242 0 1 3.4242 1
gene 3 2 4 -5.87504 0 2 -5.87504 1
gene 3 3 4 -4.94206 0 3 -4.94206 0
gene 2 3 5 -4.01497 0 4 -4.01497 1
gene 3 5 4 5.46178 0 5 5.46178 1
gene 3 2 5 3.99829 0 109 3.99829 1
genomeend 26

/* Organism #27 Fitness: 9.0059 Error: 0.999017 */
genomestart 27
trait 1 0.084375 0 0 0 0 0 0 0.102704 
trait 2 0.2 0 0 0 0 0 0 0 
trait 3 0.3 0.316782 0 0.205064 0 0 0.571421 0 
node 1 2 1 3
node 2 3 1 1
node 3 3 1 1
node 4 3 0 2
node 5 1 0 0
gene 2 1 4 4.01259 0 1 4.01259 1
gene 3 2 4 -2.61034 0 2 -2.61034 1
gene 3 3 4 -8 0 3 -8 0
gene 2 3 5 -3.39201 0 4 -3.39201 1
gene 3 5 4 8 0 5 8 1
gene 3 2 5 -0.443785 0 109 -0.443785 1
genomeend 27

/* Organism #28 Fitness: 16 Error: 2.05834e-06 */
genomestart 28
trait 1 0.084375 0 0 0 0 0 0 0.102704 
trait 2 0.2 0 0 0 0 0 0 0 
trait 3 0.3 0.316782 0 0.205064 0 0 0.571421 0 
node 1 2 1 3
node 2 3 1 1
node 3 3 1 1
node 4 3 0 2
node 5 1 0 0
gene 2 1 4 2.92248 0 1 2.92248 1
gene 3 2 4 -5.64787 0 2 -5.64787 1
gene 3 3 4 -5.8425 0 3 -5.8425 0
gene 2 3 5 -4.04503 0 4 -4.04503 1
gene 3 5 4 7.46908 0 5 7.46908 1
gene 3 2 5 1.88617 0 109 1.88617 1
genomeend 28

/* Organism #29 Fitness: 15.9986 Error: 0.000172059 */
genomestart 29
trait 1 0.08125 0 0 0 0 0 0 0.123245 
trait 2 0.2 0 0 0 0 0 0 0 
trait 3 0.3 0.316782 0 0.205064 0 0 0.571421 0 
node 1 2 1 3
node 2 3 1 1
node 3 3 1 1
node 4 3 0 2
node 5 1 0 0
gene 2 1 4 3.25817 0 1 3.25817 1
gene 3 2 4 -5.04498 0 2 -5.04498 1
gene 3 3 4 -5.49003 0 3 -5.49003 0
gene 2 3 5 -3.98688 0 4 -3.98688 1
gene 3 5 4 7.94737 0 5 7.94737 1
genomeend 29

/* Organism #30 Fitness: 16 Error: 4.59634e-06 */
genomestart 30
trait 1 0.0875 0 0 0 0 0 0 0.0821631 
trait 2 0.2 0 0 0 0 0 0 0 
trait 3 0.3 0.316782 0 0.205064 0 0 0.571421 0 
node 1 2 1 3
node 2 3 1 1
node 3 3 1 1
node 4 3 0 2
node 5 1 0 0
gene 1 1 4 3.49415 0 1 3.49415 1
gene 3 2 4 -5.99544 0 2 -5.99544 1
gene 3 3 4 -6.56859 0 3 -6.56859 0
gene 2 3 5 -6.53453 0 4 -6.53453 1
gene 3 5 4 6.61216 0 5 6.61216 1
gene 3 2 5 0.834556 0 109 0.834556 1
genomeend 30

/* Organism #31 Fitness: 15.9986 Error: 0.000168899 */
genomestart 31
trait 1 0.0875 0 0 0 0 0 0 0.0821631 
trait 2 0.2 0 0 0 0 0 0 0 
trait 3 0.3 0.317751 0 0.205691 0 0 0.573168 0 
node 1 2 1 3
node 2 3 1 1
node 3 3 1 1
node 4 3 0 2
node 5 1 0 0
gene 2 1 4 1.7653 0 1 1.7653 1
gene 3 2 4 -6.23412 0 2 -6.23412 1
gene 3 3 4 -6.04255 0 3 -6.04255 0
gene 2 3 5 -3.76048 0 4 -3.76048 1
gene 3 5 4 8 0 5 8 1
gene 3 2 5 0.460203 0 109 0.460203 1
genomeend 31

/* Organism #32 Fitness: 9.00011 Error: 0.999982 */
genomestart 32
trait 1 0.08125 0 0 0 0 0 0 0.123245 
trait 2 0.2 0 0 0 0 0 0 0 
trait 3 0.3 0.317751 0 0.205691 0 0 0.573168 0 
node 1 2 1 3
node 2 3 1 1
node 3 3 1 1
node 4 2 0 2
node 5 1 0 0
gene 2 1 4 3.57312 0 1 3.57312 1
gene 3 2 4 -6.56737 0 2 -6.56737 1
gene 3 3 4 -6.43659 0 3 -6.43659 0
gene 2 3 5 -3.9114 0 4 -3.9114 1
gene 3 5 4 8 0 5 8 1
gene 3 2 5 -0.451373 0 109 -0.451373 1
genomeend 32

/* Species #4 : (Size 12) (AF 10.7408) (Age 11)  */


/* Organism #33 Fitness: 10.9883 Error: 0.685145 */
genomestart 33
trait 1 0.1 0 0 0 0 0 0 0 
trait 2 0.2 0 0 0 0 0 0 0 
trait 3 0.335929 0 0 0 0.0589332 0 0.0754634 0 
node 1 2 1 3
node 2 1 1 1
node 3 1 1 1
node 4 3 0 2
node 17 1 0 0
gene 2 1 4 4.50274 0 1 4.50274 1
gene 1 2 4 -0.717248 0 2 -0.717248 1
gene 3 3 4 -3.62972 0 3 -3.62972 1
gene 1 2 17 -1.32956 0 39 -1.32956 1
gene 1 17 4 7.7265 0 40 7.7265 1
gene 2 1 17 -0.569202 0 104 -0.569202 1
genomeend 33

/* Organism #34 Fitness: 9 Error: 1 */
genomestart 34
trait 1 0.1 0 0 0 0 0 0 0 
trait 2 0.2 0 0 0 0 0 0 0 
trait 3 0.335929 0 0 0 0.0589332 0 0.0754634 0 
node 1 2 1 3
node 2 1 1 1
node 3 1 1 1
node 4 3 0 2
node 17 1 0 0
gene 2 1 4 3.54679 0 1 3.54679 1
gene 1 2 4 0.664914 0 2 0.664914 1
gene 3 3 4 -2.18559 0 3 -2.18559 1
gene 1 2 17 -0.513799 0 39 -0.513799 0
gene 1 17 4 8 0 40 8 1
gene 2 1 17 0.381178 0 104 0.381178 1
genomeend 34

/* Organism #35 Fitness: 10.9639 Error: 0.688823 */
genomestart 35
trait 1 0.1 0 0 0 0 0 0 0 
trait 2 0.2 0 0 0 0 0 0 0 
trait 3 0.335929 0 0 0 0.0589332 0 0.0754634 0 
node 1 2 1 3
node 2 1 1 1
node 3 1 1 1
node 4 3 0 2
node 17 3 0 0
node 43 1 0 0
gene 2 1 4 2.4086 0 1 2.4086 1
gene 1 2 4 -1.72705 0 2 -1.72705 1
gene 3 3 4 -2.08346 0 3 -2.08346 1
gene 1 2 17 -2.66892 0 39 -2.66892 0
gene 1 17 4 6.87493 0 40 6.87493 1
gene 2 1 17 -2.62199 0 104 -2.62199 1
gene 1 2 43 1.1179 0 118 1.1179 1
gene 1 43 17 -2.60927 0 119 -2.60927 1
genomeend 35

/* Organism #36 Fitness: 9.0003 Error: 0.999951 */
genomestart 36
trait 1 0.1 0 0 0 0 0 0 0 
trait 2 0.2 0 0 0 0 0 0 0 
trait 3 0.335929 0 0 0 0.0589332 0 0.0754634 0 
node 1 2 1 3
node 2 1 1 1
node 3 1 1 1
node 4 3 0 2
node 17 3 0 0
gene 2 1 4 5.94809 0 1 5.94809 1
gene 1 2 4 -1.54487 0 2 -1.54487 1
gene 3 3 4 -2.56826 0 3 -2.56826 1
gene 1 2 17 1.15214 0 39 1.15214 1
gene 1 17 4 6.1215 0 40 6.1215 1
gene 2 1 17 -1.86526 0 104 -1.86526 1
genomeend 36

/* Organism #37 Fitness: 9.29377 Error: 0.951432 */
genomestart 37
trait 1 0.1 0 0 0 0 0 0 0 
trait 2 0.2 0 0 0 0 0 0 0 
trait 3 0.335929 0 0 0 0.0589332 0 0.0754634 0 
node 1 2 1 3
node 2 1 1 1
node 3 1 1 1
node 4 3 0 2
node 17 3 0 0
gene 2 1 4 4.50274 0 1 4.50274 1
gene 1 2 4 -0.717248 0 2 -0.717248 1
gene 3 3 4 -3.62972 0 3 -3.62972 1
gene 1 2 17 -1.32956 0 39 -1.32956 0
gene 1 17 4 7.7265 0 40 7.7265 1
gene 2 1 17 -0.569202 0 104 -0.569202 1
genomeend 37

/* Organism #38 Fitness: 8.99999 Error: 1 */
genomestart 38
trait 1 0.1 0 0 0 0 0 0 0 
trait 2 0.2 0 0 0 0 0 0 0 
trait 3 0.329941 0 0 0 0.049111 0 0.0628862 0 
node 1 2 1 3
node 2 1 1 1
node 3 1 1 1
node 4 3 0 2
node 17 1 0 0
gene 2 1 4 5.89213 0 1 5.89213 1
gene 1 2 4 -2.39437 0 2 -2.39437 0
gene 3 3 4 -4.0623 0 3 -4.0623 1
gene 1 2 17 -0.0180795 0 39 -0.0180795 1
gene 1 17 4 5.48963 0 40 5.48963 1
gene 2 1 17 0.938494 0 104 0.938494 1
genomeend 38

/* Organism #39 Fitness: 9 Error: 1 */
genomestart 39
trait 1 0.1 0 0 0 0 0 0 0 
trait 2 0.2 0.935416 0.151159 0 0 0 0 0.462093 
trait 3 0.323953 0 0 0 0.0392888 0 0.050309 0 
node 1 2 1 3
node 2 1 1 1
node 3 1 1 1
node 4 3 0 2
node 17 3 0 0
gene 2 1 4 6.52684 0 1 6.52684 1
gene 1 2 4 -1.56357 0 2 -1.56357 0
gene 3 3 4 -3.46341 0 3 -3.46341 1
gene 1 2 17 -0.361284 0 39 -0.361284 1
gene 1 17 4 7.45863 0 40 7.45863 1
gene 2 1 17 -0.604603 0 104 -0.604603 1
genomeend 39

/* Organism #40 Fitness: 9.08024 Error: 0.986657 */
genomestart 40
trait 1 0.1 0 0 0 0 0 0 0 
trait 2 0.2 0 0 0 0 0 0 0 
trait 3 0.329941 0 0 0 0.049111 0 0.0628862 0 
node 1 2 1 3
node 2 1 1 1
node 3 1 1 1
node 4 3 0 2
node 17 1 0 0
gene 2 1 4 4.50274 0 1 4.50274 1
gene 1 2 4 -2.78487 0 2 -2.78487 0
gene 3 3 4 -3.62972 0 3 -3.62972 1
gene 1 2 17 -2.28661 0 39 -2.28661 1
gene 1 17 4 7.7265 0 40 7.7265 1
gene 2 1 17 -0.361196 0 104 -0.361196 1
genomeend 40

/* Organism #41 Fitness: 9.41558 Error: 0.931519 */
genomestart 41
trait 1 0.1 0 0 0 0 0 0 0 
trait 2 0.2 0 0 0 0 0 0 0 
trait 3 0.329941 0 0 0 0.049111 0 0.0628862 0 
node 1 2 1 3
node 2 1 1 1
node 3 1 1 1
node 4 3 0 2
node 17 1 0 0
gene 2 1 4 4.50274 0 1 4.50274 1
gene 1 2 4 -2.78487 0 2 -2.78487 0
gene 3 3 4 -5.90059 0 3 -5.90059 1
gene 1 2 17 -1.32956 0 39 -1.32956 1
gene 1 17 4 6.02899 0 40 6.02899 1
gene 2 1 17 -0.361196 0 104 -0.361196 1
genomeend 41

/* Organism #42 Fitness: 15.9547 Error: 0.00566106 */
genomestart 42
trait 1 0.1 0 0 0 0 0 0 0 
trait 2 0.2 0.0797305 0 0 0 0 0.372508 0 
trait 3 0.329941 0 0 0 0.049111 0 0.0628862 0 
node 1 2 1 3
node 2 1 1 1
node 3 1 1 1
node 4 3 0 2
node 17 1 0 0
gene 2 1 4 5.30962 0 1 5.30962 1
gene 1 2 4 -1.75106 0 2 -1.75106 1
gene 3 3 4 -4.76515 0 3 -4.76515 1
gene 1 2 17 -1.80808 0 39 -1.80808 1
gene 1 17 4 6.87775 0 40 6.87775 1
gene 2 1 17 -0.465199 0 104 -0.465199 1
genomeend 42

/* Organism #43 Fitness: 12.2158 Error: 0.504888 */
genomestart 43
trait 1 0.1 0 0 0 0 0 0 0 
trait 2 0.2 0 0 0 0 0 0 0 
trait 3 0.323953 0 0 0 0.0392888 0 0.050309 0 
node 1 2 1 3
node 2 1 1 1
node 3 1 1 1
node 4 3 0 2
node 17 1 0 0
gene 2 1 4 8 0 1 8 1
gene 1 2 4 -4.80956 0 2 -4.80956 0
gene 3 3 4 -8 0 3 -8 1
gene 1 2 17 -2.02388 0 39 -2.02388 1
gene 1 17 4 5.6761 0 40 5.6761 1
gene 2 1 17 0.548632 0 104 0.548632 1
genomeend 43

/* Organism #44 Fitness: 14.9768 Error: 0.130017 */
genomestart 44
trait 1 0.1 0 0 0 0 0 0 0 
trait 2 0.2 0 0 0 0 0 0 0 
trait 3 0.335929 0 0 0 0.0589332 0 0.0754634 0 
node 1 2 1 3
node 2 1 1 1
node 3 1 1 1
node 4 1 0 2
node 17 3 0 0
node 43 1 0 0
gene 2 1 4 2.46236 0 1 2.46236 1
gene 1 2 4 -2.53549 0 2 -2.53549 1
gene 3 3 4 -3.47912 0 3 -3.47912 1
gene 1 2 17 0.643284 0 39 0.643284 0
gene 1 17 4 8 0 40 8 1
gene 2 1 17 -0.569202 0 104 -0.569202 1
gene 1 2 43 -1.45431 0 118 -1.45431 1
gene 1 43 17 1.09357 0 119 1.09357 1
genomeend 44

/* Species #5 : (Size 12) (AF 8.83022) (Age 11)  */


/* Organism #45 Fitness: 14.1689 Error: 0.235842 */
genomestart 45
trait 1 0.1 0 0 0 0 0 0 0 
trait 2 0.2 0 0 0 0 0 0 0 
trait 3 0.3 0 0 0 0 0 0 0 
node 1 1 1 3
node 2 2 1 1
node 3 2 1 1
node 4 2 0 2
node 7 1 0 0
node 8 1 0 0
node 12 1 0 0
gene 1 1 4 -0.635366 0 1 -0.635366 1
gene 1 2 4 -1.35269 0 2 -1.35269 0
gene 1 3 4 -1.59919 0 3 -1.59919 1
gene 1 2 7 -0.656259 0 8 -0.656259 1
gene 1 7 4 4.21833 0 9 4.21833 0
gene 1 2 8 -2.34791 0 10 -2.34791 1
gene 1 8 7 1.6723 0 11 1.6723 1
gene 1 7 12 0.848893 0 22 0.848893 1
gene 1 12 4 2.55953 0 23 2.55953 1
gene 1 3 8 0.658397 0 123 0.658397 1
genomeend 45

/* Organism #46 Fitness: 9 Error: 1 */
genomestart 46
trait 1 0.1 0 0 0 0 0 0 0 
trait 2 0.2 0 0 0 0 0 0 0 
trait 3 0.3 0 0 0 0 0 0 0 
node 1 1 1 3
node 2 2 1 1
node 3 2 1 1
node 4 2 0 2
node 7 1 0 0
node 8 1 0 0
node 12 1 0 0
gene 1 1 4 1.66714 0 1 1.66714 1
gene 1 2 4 -0.1209 0 2 -0.1209 0
gene 1 3 4 -0.405616 0 3 -0.405616 1
gene 1 2 7 0.532833 0 8 0.532833 1
gene 1 7 4 0.200432 0 9 0.200432 0
gene 1 2 8 -0.661632 0 10 -0.661632 1
gene 1 8 7 0.849579 0 11 0.849579 1
gene 1 7 12 1.932 0 22 1.932 1
gene 1 12 4 4.23809 0 23 4.23809 1
genomeend 46

/* Organism #47 Fitness: 8.98826 Error: 1.00196 */
genomestart 47
trait 1 0.1 0 0 0 0 0 0 0 
trait 2 0.2 0 0 0 0 0 0 0 
trait 3 0.3 0 0 0 0 0 0 0 
node 1 1 1 3
node 2 2 1 1
node 3 1 1 1
node 4 2 0 2
node 7 1 0 0
node 8 1 0 0
node 12 1 0 0
gene 1 1 4 -1.34074 0 1 -1.34074 1
gene 1 2 4 -1.37057 0 2 -1.37057 0
gene 1 3 4 -2.16138 0 3 -2.16138 1
gene 1 2 7 0.855849 0 8 0.855849 1
gene 1 7 4 -0.494862 0 9 -0.494862 0
gene 1 2 8 -0.169862 0 10 -0.169862 1
gene 1 8 7 1.12479 0 11 1.12479 1
gene 1 7 12 3.08859 0 22 3.08859 1
gene 1 12 4 3.42341 0 23 3.42341 1
gene 1 3 8 -1.16662 0 123 -1.16662 1
genomeend 47

/* Organism #48 Fitness: 1.04189 Error: 2.97927 */
genomestart 48
trait 1 0.1 0 0 0 0 0 0 0 
trait 2 0.2 0 0 0 0 0 0 0 
trait 3 0.3 0 0 0 0 0 0 0 
node 1 1 1 3
node 2 2 1 1
node 3 2 1 1
node 4 2 0 2
node 7 1 0 0
node 8 1 0 0
node 12 1 0 0
gene 1 1 4 -2.12313 0 1 -2.12313 1
gene 1 2 4 -0.833053 0 2 -0.833053 0
gene 1 3 4 -0.66001 0 3 -0.66001 1
gene 1 2 7 -1.49124 0 8 -1.49124 1
gene 1 7 4 3.56303 0 9 3.56303 0
gene 1 2 8 -3.37707 0 10 -3.37707 1
gene 1 8 7 1.65992 0 11 1.65992 1
gene 1 7 12 3.16067 0 22 3.16067 1
gene 1 12 4 1.30791 0 23 1.30791 1
gene 1 3 8 0.658397 0 123 0.658397 1
genomeend 48

/* Organism #49 Fitness: 14.8465 Error: 0.146885 */
genomestart 49
trait 1 0.1 0 0 0 0 0 0 0 
trait 2 0.2 0 0 0 0 0 0 0 
trait 3 0.3 0 0 0 0 0 0 0 
node 1 1 1 3
node 2 2 1 1
node 3 2 1 1
node 4 2 0 2
node 7 1 0 0
node 8 1 0 0
node 12 1 0 0
gene 1 1 4 -0.173229 0 1 -0.173229 1
gene 1 2 4 -1.07862 0 2 -1.07862 1
gene 1 3 4 -2.01158 0 3 -2.01158 1
gene 1 2 7 1.04392 0 8 1.04392 1
gene 1 7 4 6.58742 0 9 6.58742 0
gene 1 2 8 -1.36657 0 10 -1.36657 1
gene 1 8 7 2.59815 0 11 2.59815 1
gene 1 7 12 1.58068 0 22 1.58068 1
gene 1 12 4 2.61987 0 23 2.61987 1
genomeend 49

/* Organism #50 Fitness: 7.01609 Error: 1.35121 */
genomestart 50
trait 1 0.1 0 0 0 0 0 0 0 
trait 2 0.2 0 0 0 0 0 0 0 
trait 3 0.3 0 0 0 0 0 0 0 
node 1 1 1 3
node 2 2 1 1
node 3 2 1 1
node 4 2 0 2
node 7 1 0 0
node 8 1 0 0
node 12 1 0 0
gene 1 1 4 -0.554607 0 1 -0.554607 1
gene 1 2 4 -0.928984 0 2 -0.928984 0
gene 1 3 4 -3.00423 0 3 -3.00423 1
gene 1 2 7 -2.98715 0 8 -2.98715 1
gene 1 7 4 4.781 0 9 4.781 0
gene 1 2 8 -2.97092 0 10 -2.97092 1
gene 1 8 7 1.01412 0 11 1.01412 1
gene 1 7 12 1.11013 0 22 1.11013 1
gene 2 12 4 1.38709 0 23 1.38709 1
genomeend 50

/* Organism #51 Fitness: 8.79524 Error: 1.03432 */
genomestart 51
trait 1 0.1 0 0 0 0 0 0 0 
trait 2 0.2 0 0 0 0 0 0 0 
trait 3 0.3 0 0 0 0 0 0 0 
node 1 1 1 3
node 2 2 1 1
node 3 2 1 1
node 4 1 0 2
node 7 1 0 0
node 8 1 0 0
node 12 1 0 0
gene 1 1 4 -0.862781 0 1 -0.862781 1
gene 1 2 4 -2.68789 0 2 -2.68789 0
gene 1 3 4 -2.53211 0 3 -2.53211 1
gene 1 2 7 -1.73595 0 8 -1.73595 1
gene 1 7 4 3.58307 0 9 3.58307 0
gene 1 2 8 -4.79755 0 10 -4.79755 1
gene 1 8 7 1.2074 0 11 1.2074 1
gene 1 7 12 0.697948 0 22 0.697948 1
gene 1 12 4 2.94834 0 23 2.94834 1
gene 1 3 8 -1.06562 0 123 -1.06562 1
genomeend 51

/* Organism #52 Fitness: 10.2652 Error: 0.796063 */
genomestart 52
trait 1 0.1 0 0 0 0 0 0 0 
trait 2 0.2 0 0 0 0 0 0 0 
trait 3 0.3 0 0 0 0 0 0 0 
node 1 1 1 3
node 2 2 1 1
node 3 2 1 1
node 4 2 0 2
node 7 1 0 0
node 8 1 0 0
node 12 1 0 0
gene 1 1 4 -0.302358 0 1 -0.302358 1
gene 1 2 4 -2.32885 0 2 -2.32885 0
gene 1 3 4 -2.67764 0 3 -2.67764 1
gene 1 2 7 -0.498833 0 8 -0.498833 1
gene 1 7 4 2.45938 0 9 2.45938 0
gene 1 2 8 -3.20445 0 10 -3.20445 1
gene 1 8 7 3.94328 0 11 3.94328 1
gene 1 7 12 2.41493 0 22 2.41493 1
gene 1 12 4 2.71185 0 23 2.71185 1
gene 1 3 8 1.78688 0 123 1.78688 1
genomeend 52

/* Organism #53 Fitness: 15.5655 Error: 0.0546816 */
genomestart 53
trait 1 0.1 0 0 0 0 0 0 0 
trait 2 0.2 0 0 0 0 0 0 0 
trait 3 0.3 0 0 0 0 0 0 0 
node 1 1 1 3
node 2 2 1 1
node 3 2 1 1
node 4 2 0 2
node 7 1 0 0
node 8 1 0 0
node 12 1 0 0
gene 1 1 4 0.417969 0 1 0.417969 1
gene 1 2 4 -0.130317 0 2 -0.130317 0
gene 1 3 4 -2.68795 0 3 -2.68795 1
gene 1 2 7 -3.05324 0 8 -3.05324 1
gene 1 7 4 6.16625 0 9 6.16625 0
gene 1 2 8 -0.376331 0 10 -0.376331 1
gene 1 8 7 0.779162 0 11 0.779162 1
gene 1 7 12 1.97325 0 22 1.97325 1
gene 1 12 4 2.94161 0 23 2.94161 1
genomeend 53

/* Organism #54 Fitness: 7.75754 Error: 1.21476 */
genomestart 54
trait 1 0.1 0 0 0 0 0 0 0 
trait 2 0.2 0 0 0 0 0 0 0 
trait 3 0.3 0 0 0 0 0 0 0 
node 1 1 1 3
node 2 2 1 1
node 3 2 1 1
node 4 2 0 2
node 7 1 0 0
node 8 2 0 0
node 12 1 0 0
gene 1 1 4 0.751267 0 1 0.751267 1
gene 1 2 4 -3.18745 0 2 -3.18745 0
gene 1 3 4 -3.69906 0 3 -3.69906 1
gene 1 2 7 1.03958 0 8 1.03958 1
gene 1 7 4 3.06547 0 9 3.06547 0
gene 1 2 8 -4.69333 0 10 -4.69333 1
gene 1 8 7 0.466821 0 11 0.466821 1
gene 1 7 12 -0.687939 0 22 -0.687939 1
gene 1 12 4 3.82472 0 23 3.82472 1
genomeend 54

/* Organism #55 Fitness: 2.00785 Error: 2.58301 */
genomestart 55
trait 1 0.1 0 0 0 0 0 0 0 
trait 2 0.2 0 0 0 0 0 0 0 
trait 3 0.3 0 0 0 0 0 0 0 
node 1 1 1 3
node 2 2 1 1
node 3 2 1 1
node 4 2 0 2
node 7 1 0 0
node 8 1 0 0
node 12 1 0 0
gene 1 1 4 -1.41648 0 1 -1.41648 1
gene 1 2 4 0.641422 0 2 0.641422 0
gene 1 3 4 -1.59739 0 3 -1.59739 1
gene 1 2 7 -0.397243 0 8 -0.397243 1
gene 1 7 4 2.74028 0 9 2.74028 0
gene 1 2 8 -4.72719 0 10 -4.72719 1
gene 1 8 7 1.58821 0 11 1.58821 1
gene 1 7 12 -0.577694 0 22 -0.577694 1
gene 1 12 4 1.44899 0 23 1.44899 1
genomeend 55

/* Organism #56 Fitness: 6.50965 Error: 1.4486 */
genomestart 56
trait 1 0.1 0 0 0 0 0 0 0 
trait 2 0.2 0 0 0 0 0 0 0 
trait 3 0.3 0 0 0 0 0 0 0 
node 1 1 1 3
node 2 2 1 1
node 3 2 1 1
node 4 2 0 2
node 7 1 0 0
node 8 1 0 0
node 12 1 0 0
gene 1 1 4 0.495238 0 1 0.495238 1
gene 1 2 4 -3.62914 0 2 -3.62914 0
gene 1 3 4 -0.912455 0 3 -0.912455 1
gene 1 2 7 2.01082 0 8 2.01082 1
gene 1 7 4 3.1244 0 9 3.1244 0
gene 1 2 8 -1.94205 0 10 -1.94205 1
gene 1 8 7 1.23089 0 11 1.23089 1
gene 1 7 12 -0.278068 0 22 -0.278068 1
gene 1 12 4 0.198812 0 23 0.198812 1
gene 1 3 8 2.01852 0 123 2.01852 1
genomeend 56

/* Species #6 : (Size 13) (AF 9.42791) (Age 10)  */


/* Organism #57 Fitness: 15.956 Error: 0.00550883 */
genomestart 57
trait 1 0.1 0 0 0 0 0 0 0 
trait 2 0.2 0 0 0 0.0659515 0.268668 0 0 
trait 3 0.3 0 0 0 0 0 0 0 
node 1 1 1 3
node 2 2 1 1
node 3 2 1 1
node 4 2 0 2
node 7 1 0 0
node 9 1 0 0
node 25 1 0 0
gene 1 1 4 -0.0134142 0 1 -0.0134142 1
gene 1 2 4 0.825152 0 2 0.825152 0
gene 1 3 4 -3.65588 0 3 -3.65588 1
gene 1 2 7 -1.66333 0 8 -1.66333 1
gene 1 7 4 6.16551 0 9 6.16551 0
gene 1 7 9 4.45079 0 12 4.45079 1
gene 1 9 4 7.12568 0 13 7.12568 0
gene 2 1 9 -2.5287 0 45 -2.5287 1
gene 1 9 25 4.48586 0 60 4.48586 1
gene 1 25 4 4.95689 0 61 4.95689 1
genomeend 57

/* Organism #58 Fitness: 8.6627 Error: 1.05675 */
genomestart 58
trait 1 0.1 0 0 0 0 0 0 0 
trait 2 0.2 0 0 0 0.0329758 0.134334 0 0 
trait 3 0.3 0 0 0 0 0 0 0 
node 1 1 1 3
node 2 2 1 1
node 3 2 1 1
node 4 2 0 2
node 7 1 0 0
node 9 1 0 0
node 25 1 0 0
node 45 1 0 0
gene 2 1 4 0.533433 0 1 0.533433 1
gene 1 2 4 1.48106 0 2 1.48106 0
gene 1 3 4 -2.64988 0 3 -2.64988 0
gene 1 2 7 -2.52959 0 8 -2.52959 1
gene 1 7 4 6.21741 0 9 6.21741 0
gene 1 7 9 3.60736 0 12 3.60736 1
gene 1 9 4 0.708662 0 13 0.708662 0
gene 2 1 9 -2.67547 0 45 -2.67547 1
gene 1 9 25 5.84054 0 60 5.84054 1
gene 1 25 4 2.75361 0 61 2.75361 1
gene 1 3 45 1 0 124 1 1
gene 1 45 4 -2.78927 0 125 -2.78927 1
genomeend 58

/* Organism #59 Fitness: 8.69308 Error: 1.0516 */
genomestart 59
trait 1 0.1 0 0 0 0 0 0 0 
trait 2 0.2 0 0 0 0.0659515 0.268668 0 0 
trait 3 0.3 0 0 0 0 0 0 0 
node 1 1 1 3
node 2 2 1 1
node 3 2 1 1
node 4 2 0 2
node 7 1 0 0
node 9 1 0 0
node 25 1 0 0
gene 1 1 4 0.000986514 0 1 0.000986514 1
gene 1 2 4 1.25646 0 2 1.25646 0
gene 1 3 4 -1.73776 0 3 -1.73776 1
gene 1 2 7 -2.00616 0 8 -2.00616 1
gene 1 7 4 6.16551 0 9 6.16551 0
gene 1 7 9 -2.4506 0 12 -2.4506 1
gene 1 9 4 0.81822 0 13 0.81822 0
gene 2 1 9 -1.17422 0 45 -1.17422 1
gene 1 9 25 3.41588 0 60 3.41588 1
gene 1 25 4 3.31087 0 61 3.31087 1
genomeend 59

/* Organism #60 Fitness: 15.9608 Error: 0.00490857 */
genomestart 60
trait 1 0.417461 0 0 0 0 0 0 0 
trait 2 0.2 0 0 0 0.0577076 0.235084 0 0 
trait 3 0.3 0 0 0 0 0 0 0 
node 1 1 1 3
node 2 2 1 1
node 3 2 1 1
node 4 2 0 2
node 7 1 0 0
node 9 1 0 0
node 25 1 0 0
gene 1 1 4 -0.842981 0 1 -0.842981 1
gene 1 2 4 1.03333 0 2 1.03333 0
gene 1 3 4 -2.828 0 3 -2.828 1
gene 1 2 7 -1.49285 0 8 -1.49285 1
gene 1 7 4 3.90258 0 9 3.90258 0
gene 1 7 9 4.45079 0 12 4.45079 1
gene 1 9 4 7.08943 0 13 7.08943 0
gene 2 1 9 -2.18888 0 45 -2.18888 1
gene 1 9 25 4.51791 0 60 4.51791 1
gene 1 25 4 4.95689 0 61 4.95689 1
genomeend 60

/* Organism #61 Fitness: 8.99996 Error: 1.00001 */
genomestart 61
trait 1 0.1 0 0 0 0 0 0 0 
trait 2 0.2 0 0 0 0.0577076 0.235084 0 0 
trait 3 0.3 0 0 0 0 0 0 0 
node 1 1 1 3
node 2 2 1 1
node 3 2 1 1
node 4 2 0 2
node 7 1 0 0
node 9 1 0 0
node 25 1 0 0
gene 1 1 4 2.4827 0 1 2.4827 1
gene 1 2 4 2.96424 0 2 2.96424 1
gene 1 3 4 -5.58818 0 3 -5.58818 1
gene 1 2 7 -0.0290655 0 8 -0.0290655 1
gene 1 7 4 6.34893 0 9 6.34893 1
gene 1 7 9 2.32631 0 12 2.32631 1
gene 1 9 4 6.65221 0 13 6.65221 0
gene 2 1 9 -4.95811 0 45 -4.95811 1
gene 1 9 25 4.27461 0 60 4.27461 1
gene 1 25 4 4.7544 0 61 4.7544 1
genomeend 61

/* Organism #62 Fitness: 8.91304 Error: 1.01453 */
genomestart 62
trait 1 0.1 0 0 0 0 0 0 0 
trait 2 0.2 0 0 0 0.0329758 0.134334 0 0 
trait 3 0.3 0 0 0 0 0 0 0 
node 1 1 1 3
node 2 2 1 1
node 3 2 1 1
node 4 2 0 2
node 7 1 0 0
node 9 1 0 0
node 25 1 0 0
node 45 1 0 0
gene 1 1 4 0.818721 0 1 0.818721 1
gene 1 2 4 2.14208 0 2 2.14208 0
gene 1 3 4 -4.30977 0 3 -4.30977 0
gene 1 2 7 -0.527707 0 8 -0.527707 1
gene 1 7 4 -1.71925 0 9 -1.71925 0
gene 1 7 9 -0.710399 0 12 -0.710399 1
gene 1 9 4 3.62472 0 13 3.62472 0
gene 2 1 9 -1.95334 0 45 -1.95334 1
gene 1 9 25 2.95624 0 60 2.95624 1
gene 1 25 4 4.52758 0 61 4.52758 1
gene 1 3 45 -2.46747 0 124 -2.46747 1
gene 1 45 4 -4.17054 0 125 -4.17054 1
genomeend 62

/* Organism #63 Fitness: 9 Error: 1 */
genomestart 63
trait 1 0.1 0 0 0 0 0 0 0 
trait 2 0.2 0 0 0 0.0412197 0.167917 0 0 
trait 3 0.3 0 0 0 0 0 0 0 
node 1 1 1 3
node 2 2 1 1
node 3 2 1 1
node 4 2 0 2
node 7 1 0 0
node 9 1 0 0
node 25 1 0 0
gene 1 1 4 0.105034 0 1 0.105034 1
gene 1 2 4 0.825152 0 2 0.825152 0
gene 1 3 4 -2.90639 0 3 -2.90639 0
gene 1 2 7 -2.24225 0 8 -2.24225 1
gene 1 7 4 6.16551 0 9 6.16551 0
gene 1 7 9 4.45079 0 12 4.45079 1
gene 1 9 4 4.41111 0 13 4.41111 1
gene 2 1 9 -2.5287 0 45 -2.5287 1
gene 1 9 25 3.71121 0 60 3.71121 1
gene 1 25 4 4.95689 0 61 4.95689 1
genomeend 63

/* Organism #64 Fitness: 8.99992 Error: 1.00001 */
genomestart 64
trait 1 0.1 0 0 0 0 0 0 0 
trait 2 0.2 0 0 0 0.0577076 0.235084 0 0 
trait 3 0.3 0 0 0.154744 0 0 0 0 
node 1 1 1 3
node 2 1 1 1
node 3 2 1 1
node 4 2 0 2
node 7 1 0 0
node 9 1 0 0
node 25 1 0 0
gene 1 1 4 -1.06553 0 1 -1.06553 1
gene 1 2 4 2.59465 0 2 2.59465 0
gene 1 3 4 -5.72321 0 3 -5.72321 1
gene 1 2 7 -2.23589 0 8 -2.23589 1
gene 1 7 4 4.84767 0 9 4.84767 0
gene 1 7 9 4.79324 0 12 4.79324 1
gene 1 9 4 8 0 13 8 0
gene 2 1 9 -0.399441 0 45 -0.399441 1
gene 1 9 25 6.65919 0 60 6.65919 1
gene 1 25 4 3.51407 0 61 3.51407 1
genomeend 64

/* Organism #65 Fitness: 5.27759 Error: 1.7027 */
genomestart 65
trait 1 0.1 0 0 0 0 0 0 0 
trait 2 0.2 0 0 0 0.0659515 0.268668 0 0 
trait 3 0.3 0 0 0 0 0 0 0 
node 1 1 1 3
node 2 2 1 1
node 3 2 1 1
node 4 2 0 2
node 7 1 0 0
node 9 1 0 0
node 25 1 0 0
gene 1 1 4 -1.75 0 1 -1.75 1
gene 1 2 4 1.83803 0 2 1.83803 0
gene 1 3 4 -3.65588 0 3 -3.65588 1
gene 1 2 7 -2.99681 0 8 -2.99681 1
gene 1 7 4 -0.777111 0 9 -0.777111 0
gene 1 7 9 5.05522 0 12 5.05522 1
gene 1 9 4 6.38272 0 13 6.38272 0
gene 2 1 9 -2.5287 0 45 -2.5287 1
gene 1 9 25 4.19924 0 60 4.19924 1
gene 1 25 4 3.15242 0 61 3.15242 1
genomeend 65

/* Organism #66 Fitness: 5.13862 Error: 1.73315 */
genomestart 66
trait 1 0.1 0 0 0 0 0 0 0 
trait 2 0.2 0 0 0 0.0659515 0.268668 0 0 
trait 3 0.3 0 0 0 0 0 0 0 
node 1 1 1 3
node 2 2 1 1
node 3 2 1 1
node 4 2 0 2
node 7 1 0 0
node 9 1 0 0
node 25 1 0 0
gene 1 1 4 0.826336 0 1 0.826336 1
gene 1 2 4 -1.41619 0 2 -1.41619 0
gene 1 3 4 -5.23994 0 3 -5.23994 1
gene 1 2 7 -1.929 0 8 -1.929 1
gene 1 7 4 4.13996 0 9 4.13996 0
gene 1 7 9 5.84015 0 12 5.84015 1
gene 1 9 4 8 0 13 8 0
gene 2 1 9 -1.21142 0 45 -1.21142 1
gene 1 9 25 6.71688 0 60 6.71688 1
gene 1 25 4 -1.97236 0 61 -1.97236 1
genomeend 66

/* Organism #67 Fitness: 8.96135 Error: 1.00645 */
genomestart 67
trait 1 0.1 0 0 0 0 0 0 0 
trait 2 0.2 0 0 0 0.0494637 0.201501 0 0 
trait 3 0.3 0 0 0 0 0 0 0 
node 1 1 1 3
node 2 1 1 1
node 3 2 1 1
node 4 2 0 2
node 7 1 0 0
node 9 1 0 0
node 25 1 0 0
gene 1 1 4 -1.64917 0 1 -1.64917 1
gene 1 2 4 -2.08065 0 2 -2.08065 0
gene 2 3 4 -1.81496 0 3 -1.81496 1
gene 1 2 7 2.40908 0 8 2.40908 1
gene 1 7 4 4.02541 0 9 4.02541 0
gene 1 7 9 2.83833 0 12 2.83833 1
gene 1 9 4 7.12568 0 13 7.12568 0
gene 2 1 9 -1.06846 0 45 -1.06846 1
gene 1 9 25 1.36411 0 60 1.36411 1
gene 1 25 4 3.74668 0 61 3.74668 1
genomeend 67

/* Organism #68 Fitness: 8.99983 Error: 1.00003 */
genomestart 68
trait 1 0.1 0 0 0 0 0 0 0 
trait 2 0.2 0 0 0 0.0494637 0.201501 0 0 
trait 3 0.3 0 0 0 0 0 0 0 
node 1 1 1 3
node 2 2 1 1
node 3 2 1 1
node 4 2 0 2
node 7 1 0 0
node 9 1 0 0
node 25 1 0 0
gene 1 1 4 -0.406475 0 1 -0.406475 1
gene 1 2 4 -0.43183 0 2 -0.43183 0
gene 1 3 4 -4.63008 0 3 -4.63008 1
gene 1 2 7 -0.120797 0 8 -0.120797 1
gene 1 7 4 5.80041 0 9 5.80041 0
gene 1 7 9 2.34377 0 12 2.34377 1
gene 1 9 4 1.6886 0 13 1.6886 0
gene 2 1 9 -0.254366 0 45 -0.254366 1
gene 1 9 25 3.44226 0 60 3.44226 1
gene 1 25 4 2.65631 0 61 2.65631 1
genomeend 68

/* Organism #69 Fitness: 9 Error: 1 */
genomestart 69
trait 1 0.1 0 0 0 0 0 0 0 
trait 2 0.20228 0 0 0 0.0494637 0.201501 0 0 
trait 3 0.3 0 0 0 0 0 0 0 
node 1 1 1 3
node 2 2 1 1
node 3 2 1 1
node 4 2 0 2
node 7 1 0 0
node 9 1 0 0
node 25 1 0 0
gene 1 1 4 -0.311189 0 1 -0.311189 1
gene 1 2 4 -1.15644 0 2 -1.15644 0
gene 1 3 4 -1.85881 0 3 -1.85881 0
gene 1 2 7 0.606535 0 8 0.606535 1
gene 1 7 4 5.62707 0 9 5.62707 0
gene 1 7 9 5.57092 0 12 5.57092 1
gene 1 9 4 3.13744 0 13 3.13744 0
gene 2 1 9 -0.867313 0 45 -0.867313 1
gene 1 9 25 5.95069 0 60 5.95069 1
gene 1 25 4 4.95689 0 61 4.95689 1
genomeend 69

/* Species #7 : (Size 11) (AF 7.53) (Age 10)  */


/* Organism #70 Fitness: 9.01795 Error: 0.99701 */
genomestart 70
trait 1 0.1 0 0 0 0 0 0 0 
trait 2 0.2 0 0 0 0 0 0 0 
trait 3 0.3 0 0 0 0 0 0 0 
node 1 1 1 3
node 2 2 1 1
node 3 3 1 1
node 4 2 0 2
node 7 1 0 0
node 13 1 0 0
node 26 1 0 0
gene 1 1 4 -1.20374 0 1 -1.20374 1
gene 1 2 4 5.04664 0 2 5.04664 0
gene 1 3 4 -0.0598397 0 3 -0.0598397 1
gene 1 2 7 5.03062 0 8 5.03062 0
gene 1 7 4 3.8841 0 9 3.8841 1
gene 1 2 13 -0.0436781 0 24 -0.0436781 0
gene 1 13 7 1.97275 0 25 1.97275 1
gene 1 2 26 1.41509 0 62 1.41509 1
gene 2 26 13 0.874813 0 63 0.874813 1
gene 3 26 7 -2.44813 0 71 -2.44813 1
genomeend 70

/* Organism #71 Fitness: 9 Error: 1 */
genomestart 71
trait 1 0.1 0 0 0 0 0 0 0 
trait 2 0.210389 0 0 0 0 0 0 0 
trait 3 0.3 0 0 0 0 0 0 0 
node 1 1 1 3
node 2 2 1 1
node 3 3 1 1
node 4 2 0 2
node 7 1 0 0
node 13 1 0 0
node 26 1 0 0
gene 1 1 4 -1.20374 0 1 -1.20374 1
gene 1 2 4 5.65111 0 2 5.65111 0
gene 1 3 4 -0.0598397 0 3 -0.0598397 1
gene 1 2 7 2.71777 0 8 2.71777 0
gene 1 7 4 8 0 9 8 1
gene 1 2 13 -0.0436781 0 24 -0.0436781 0
gene 1 13 7 2.83498 0 25 2.83498 1
gene 1 2 26 1.41509 0 62 1.41509 1
gene 2 26 13 -0.0751882 0 63 -0.0751882 1
gene 3 26 7 0.111018 0 71 0.111018 1
genomeend 71

/* Organism #72 Fitness: 9 Error: 1 */
genomestart 72
trait 1 0.1 0 0 0 0 0 0 0 
trait 2 0.210389 0 0 0 0 0 0 0 
trait 3 0.3 0 0 0 0 0 0 0 
node 1 1 1 3
node 2 2 1 1
node 3 3 1 1
node 4 2 0 2
node 7 1 0 0
node 13 1 0 0
node 26 1 0 0
gene 1 1 4 1.83847 0 1 1.83847 1
gene 1 2 4 7.14542 0 2 7.14542 0
gene 1 3 4 0.724812 0 3 0.724812 1
gene 1 2 7 3.78267 0 8 3.78267 1
gene 1 7 4 6.88273 0 9 6.88273 1
gene 1 2 13 4.31582 0 24 4.31582 0
gene 1 13 7 2.83975 0 25 2.83975 1
gene 1 2 26 -1.21099 0 62 -1.21099 1
gene 2 26 13 1.16198 0 63 1.16198 1
gene 3 26 7 -2.59392 0 71 -2.59392 0
genomeend 72

/* Organism #73 Fitness: 9 Error: 1 */
genomestart 73
trait 1 0.1 0 0 0 0 0 0 0 
trait 2 0.2 0 0 0 0 0 0 0 
trait 3 0.3 0 0 0 0 0 0 0 
node 1 1 1 3
node 2 2 1 1
node 3 3 1 1
node 4 2 0 2
node 7 1 0 0
node 13 1 0 0
node 26 1 0 0
node 47 1 0 0
gene 1 1 4 0.297366 0 1 0.297366 1
gene 1 2 4 4.35803 0 2 4.35803 0
gene 1 3 4 3.14817 0 3 3.14817 1
gene 1 2 7 5.22263 0 8 5.22263 0
gene 1 7 4 8 0 9 8 1
gene 1 2 13 1.7631 0 24 1.7631 1
gene 1 13 7 3.61857 0 25 3.61857 1
gene 1 2 26 1.66579 0 62 1.66579 1
gene 2 26 13 0.945209 0 63 0.945209 1
gene 3 26 7 -1.90623 0 71 -1.90623 0
gene 3 26 47 0.958743 0 128 0.958743 1
gene 3 47 7 -1.15921 0 129 -1.15921 1
genomeend 73

/* Organism #74 Fitness: 2.2638 Error: 2.49541 */
genomestart 74
trait 1 0.1 0 0 0 0 0 0 0 
trait 2 0.2 0 0 0 0 0 0 0 
trait 3 0.3 0 0 0 0 0 0 0 
node 1 1 1 3
node 2 2 1 1
node 3 3 1 1
node 4 2 0 2
node 7 1 0 0
node 13 1 0 0
node 26 1 0 0
gene 1 1 4 -1.20374 0 1 -1.20374 1
gene 1 2 4 5.04664 0 2 5.04664 0
gene 1 3 4 1.11406 0 3 1.11406 1
gene 1 2 7 1.05858 0 8 1.05858 0
gene 1 7 4 0.721138 0 9 0.721138 1
gene 1 2 13 1.0855 0 24 1.0855 0
gene 1 13 7 2.04501 0 25 2.04501 1
gene 1 2 26 1.09343 0 62 1.09343 1
gene 2 26 13 0.374115 0 63 0.374115 1
gene 3 26 7 -4.06852 0 71 -4.06852 1
genomeend 74

/* Organism #75 Fitness: 9 Error: 1 */
genomestart 75
trait 1 0.1 0 0 0 0 0 0 0 
trait 2 0.210389 0 0 0 0 0 0 0 
trait 3 0.3 0 0 0 0 0 0 0 
node 1 1 1 3
node 2 2 1 1
node 3 3 1 1
node 4 2 0 2
node 7 1 0 0
node 13 1 0 0
node 26 1 0 0
gene 1 1 4 0.586921 0 1 0.586921 1
gene 1 2 4 5.77851 0 2 5.77851 0
gene 1 3 4 2.93644 0 3 2.93644 1
gene 1 2 7 2.71777 0 8 2.71777 0
gene 1 7 4 8 0 9 8 1
gene 1 2 13 3.97492 0 24 3.97492 0
gene 1 13 7 5.55169 0 25 5.55169 1
gene 1 2 26 0.920298 0 62 0.920298 1
gene 2 26 13 2.39914 0 63 2.39914 1
gene 3 26 7 -1.15921 0 71 -1.15921 0
gene 2 3 26 0.647237 0 140 0.647237 1
genomeend 75

/* Organism #76 Fitness: 2.29774 Error: 2.48417 */
genomestart 76
trait 1 0.1 0 0 0 0 0 0 0 
trait 2 0.2 0 0 0 0 0 0 0 
trait 3 0.3 0 0 0 0 0 0 0 
node 1 1 1 3
node 2 2 1 1
node 3 3 1 1
node 4 2 0 2
node 7 1 0 0
node 13 1 0 0
node 26 1 0 0
gene 1 1 4 -0.972882 0 1 -0.972882 1
gene 1 2 4 5.09721 0 2 5.09721 0
gene 1 3 4 2.4387 0 3 2.4387 1
gene 1 2 7 6.94173 0 8 6.94173 0
gene 1 7 4 5.51455 0 9 5.51455 1
gene 1 2 13 0.970209 0 24 0.970209 0
gene 1 13 7 2.19677 0 25 2.19677 1
gene 1 2 26 1.19246 0 62 1.19246 1
gene 2 26 13 -0.852131 0 63 -0.852131 1
gene 3 26 7 -4.22565 0 71 -4.22565 1
genomeend 76

/* Organism #77 Fitness: 9 Error: 1 */
genomestart 77
trait 1 0.1 0 0 0 0 0 0 0 
trait 2 0.2 0 0 0 0 0 0 0 
trait 3 0.3 0 0 0 0 0 0 0 
node 1 1 1 3
node 2 2 1 1
node 3 3 1 1
node 4 2 0 2
node 7 1 0 0
node 13 1 0 0
node 26 1 0 0
node 47 1 0 0
gene 1 1 4 -1.05397 0 1 -1.05397 1
gene 1 2 4 3.66536 0 2 3.66536 0
gene 1 3 4 4.07012 0 3 4.07012 1
gene 1 2 7 2.74012 0 8 2.74012 0
gene 1 7 4 8 0 9 8 1
gene 1 2 13 3.52234 0 24 3.52234 1
gene 1 13 7 6.07468 0 25 6.07468 1
gene 1 2 26 1.80696 0 62 1.80696 1
gene 2 26 13 0.479049 0 63 0.479049 1
gene 3 26 7 0.762127 0 71 0.762127 0
gene 3 26 47 0.555018 0 128 0.555018 1
gene 3 47 7 1.3382 0 129 1.3382 1
genomeend 77

/* Organism #78 Fitness: 9 Error: 1 */
genomestart 78
trait 1 0.1 0 0 0 0 0 0 0 
trait 2 0.220778 0 0 0 0 0 0 0 
trait 3 0.3 0 0 0 0 0 0 0 
node 1 1 1 3
node 2 2 1 1
node 3 3 1 1
node 4 2 0 2
node 7 1 0 0
node 13 1 0 0
node 26 1 0 0
gene 1 1 4 2.52138 0 1 2.52138 1
gene 1 2 4 7.49992 0 2 7.49992 0
gene 1 3 4 3.75248 0 3 3.75248 1
gene 1 2 7 4.5805 0 8 4.5805 0
gene 1 7 4 8 0 9 8 1
gene 1 2 13 3.53162 0 24 3.53162 0
gene 1 13 7 4.77094 0 25 4.77094 1
gene 1 2 26 -1.42544 0 62 -1.42544 1
gene 2 26 13 1.80557 0 63 1.80557 1
gene 3 26 7 1.34059 0 71 1.34059 1
genomeend 78

/* Organism #79 Fitness: 6.25055 Error: 1.49989 */
genomestart 79
trait 1 0.1 0 0 0 0 0 0 0 
trait 2 0.2 0 0 0 0 0 0 0 
trait 3 0.3 0 0 0 0 0 0 0 
node 1 1 1 3
node 2 2 1 1
node 3 3 1 1
node 4 2 0 2
node 7 1 0 0
node 13 2 0 0
node 26 1 0 0
gene 1 1 4 0.648737 0 1 0.648737 1
gene 1 2 4 4.65054 0 2 4.65054 0
gene 1 3 4 0.890281 0 3 0.890281 1
gene 1 2 7 -1.47992 0 8 -1.47992 0
gene 1 7 4 5.76778 0 9 5.76778 1
gene 1 2 13 2.30763 0 24 2.30763 0
gene 1 13 7 -0.822559 0 25 -0.822559 1
gene 1 2 26 1.63268 0 62 1.63268 1
gene 2 26 13 4.37371 0 63 4.37371 1
gene 3 26 7 -2.79005 0 71 -2.79005 1
genomeend 79

/* Organism #80 Fitness: 9 Error: 1 */
genomestart 80
trait 1 0.1 0 0 0 0 0 0 0 
trait 2 0.220778 0 0 0 0 0 0 0 
trait 3 0.3 0 0 0 0 0 0 0 
node 1 1 1 3
node 2 2 1 1
node 3 3 1 1
node 4 2 0 2
node 7 1 0 0
node 13 1 0 0
node 26 1 0 0
gene 1 1 4 -0.249484 0 1 -0.249484 1
gene 1 2 4 7.44768 0 2 7.44768 0
gene 1 3 4 0.440068 0 3 0.440068 1
gene 1 2 7 4.6323 0 8 4.6323 0
gene 1 7 4 7.94173 0 9 7.94173 1
gene 1 2 13 3.29622 0 24 3.29622 0
gene 1 13 7 1.49597 0 25 1.49597 1
gene 1 2 26 -2.5493 0 62 -2.5493 1
gene 2 26 13 -0.98027 0 63 -0.98027 1
gene 3 26 7 0.201655 0 71 0.201655 1
genomeend 80

/* Species #9 : (Size 15) (AF 11.9122) (Age 8)  */


/* Organism #81 Fitness: 15.986 Error: 0.00175569 */
genomestart 81
trait 1 0.0875 0 0 0.0148478 0 0.0366957 0 0 
trait 2 0.2 0 0 0 0 0 0 0 
trait 3 0.3 0 0 0 0 0 0 0 
node 1 1 1 3
node 2 2 1 1
node 3 2 1 1
node 4 2 0 2
node 7 2 0 0
gene 1 1 4 1.7401 0 1 1.7401 1
gene 1 2 4 6.87052 0 2 6.87052 0
gene 1 3 4 -3.10212 0 3 -3.10212 1
gene 1 2 7 -1.41365 0 8 -1.41365 1
gene 1 7 4 4.12147 0 9 4.12147 1
gene 3 1 7 0.21201 0 51 0.21201 1
genomeend 81

/* Organism #82 Fitness: 15.986 Error: 0.00175569 */
genomestart 82
trait 1 0.0875 0 0 0.0148478 0 0.0366957 0 0 
trait 2 0.2 0 0 0.281071 0.360645 0.485933 0 0.334267 
trait 3 0.295312 0 0.00678684 0 0.00596946 0 0.00767117 0 
node 1 1 1 3
node 2 2 1 1
node 3 2 1 1
node 4 2 0 2
node 7 2 0 0
gene 1 1 4 1.7401 0 1 1.7401 1
gene 1 2 4 6.87052 0 2 6.87052 0
gene 1 3 4 -3.10212 0 3 -3.10212 1
gene 1 2 7 -1.41365 0 8 -1.41365 1
gene 1 7 4 4.12147 0 9 4.12147 1
gene 3 1 7 0.21201 0 51 0.21201 1
genomeend 82

/* Organism #83 Fitness: 2.81206 Error: 2.32308 */
genomestart 83
trait 1 0.0875 0 0 0.0148478 0 0.0366957 0 0 
trait 2 0.2 0 0 0.281071 0.360645 0.485933 0.722124 0.87776 
trait 3 0.295312 0 0.00678684 0 0.00596946 0 0.00767117 0 
node 1 1 1 3
node 2 2 1 1
node 3 2 1 1
node 4 2 0 2
node 7 2 0 0
gene 1 1 4 2.73921 0 1 2.73921 1
gene 1 2 4 6.87052 0 2 6.87052 1
gene 1 3 4 -3.46142 0 3 -3.46142 1
gene 1 2 7 -3.31226 0 8 -3.31226 1
gene 1 7 4 0.249938 0 9 0.249938 1
gene 3 1 7 -2.13243 0 51 -2.13243 1
genomeend 83

/* Organism #84 Fitness: 8.99921 Error: 1.00013 */
genomestart 84
trait 1 0.0875 0 0 0.0148478 0 0.0366957 0 0 
trait 2 0.2 0 0 0 0 0 0 0 
trait 3 0.3 0 0 0 0 0 0 0 
node 1 1 1 3
node 2 2 1 1
node 3 2 1 1
node 4 2 0 2
node 7 2 0 0
gene 1 1 4 1.69588 0 1 1.69588 1
gene 3 2 4 7.46983 0 2 7.46983 0
gene 1 3 4 0.9586 0 3 0.9586 1
gene 1 2 7 0.357214 0 8 0.357214 1
gene 1 7 4 3.51432 0 9 3.51432 1
gene 3 1 7 -0.451593 0 51 -0.451593 1
genomeend 84

/* Organism #85 Fitness: 15.986 Error: 0.00175569 */
genomestart 85
trait 1 0.0875 0 0 0.0148478 0 0.0366957 0 0 
trait 2 0.2 0 0 0 0 0 0 0 
trait 3 0.3 0 0 0 0 0 0 0 
node 1 1 1 3
node 2 2 1 1
node 3 2 1 1
node 4 2 0 2
node 7 2 0 0
gene 1 1 4 1.7401 0 1 1.7401 1
gene 1 2 4 6.87052 0 2 6.87052 0
gene 1 3 4 -3.10212 0 3 -3.10212 1
gene 1 2 7 -1.41365 0 8 -1.41365 1
gene 1 7 4 4.12147 0 9 4.12147 1
gene 3 1 7 0.21201 0 51 0.21201 1
genomeend 85

/* Organism #86 Fitness: 8.97018 Error: 1.00497 */
genomestart 86
trait 1 0.0875 0 0 0.0148478 0 0.0366957 0 0 
trait 2 0.2 0 0 0 0 0 0 0 
trait 3 0.3 0 0 0 0 0 0 0 
node 1 1 1 3
node 2 2 1 1
node 3 2 1 1
node 4 2 0 2
node 7 2 0 0
gene 1 1 4 0.137865 0 1 0.137865 1
gene 1 2 4 7.29417 0 2 7.29417 0
gene 1 3 4 -1.60685 0 3 -1.60685 1
gene 1 2 7 -0.593687 0 8 -0.593687 1
gene 1 7 4 2.06382 0 9 2.06382 1
gene 3 1 7 0.784804 0 51 0.784804 1
gene 2 3 7 -1.20182 0 122 -1.20182 1
genomeend 86

/* Organism #87 Fitness: 8.99999 Error: 1 */
genomestart 87
trait 1 0.0875 0 0 0.0148478 0 0.0366957 0 0 
trait 2 0.2 0 0 0 0 0 0 0 
trait 3 0.3 0 0 0 0 0 0 0 
node 1 1 1 3
node 2 2 1 1
node 3 2 1 1
node 4 2 0 2
node 7 2 0 0
gene 1 1 4 3.91669 0 1 3.91669 1
gene 1 2 4 0.697251 0 2 0.697251 0
gene 1 3 4 2.46198 0 3 2.46198 1
gene 1 2 7 -2.10115 0 8 -2.10115 1
gene 1 7 4 5.54112 0 9 5.54112 1
gene 3 1 7 -1.59476 0 51 -1.59476 1
genomeend 87

/* Organism #88 Fitness: 15.986 Error: 0.00175569 */
genomestart 88
trait 1 0.0875 0 0 0.0148478 0 0.0366957 0 0 
trait 2 0.2 0 0 0.281071 0.360645 0.485933 0 0.334267 
trait 3 0.295312 0 0.00678684 0 0.00596946 0 0.00767117 0 
node 1 1 1 3
node 2 2 1 1
node 3 2 1 1
node 4 2 0 2
node 7 2 0 0
gene 1 1 4 1.7401 0 1 1.7401 1
gene 1 2 4 6.87052 0 2 6.87052 0
gene 1 3 4 -3.10212 0 3 -3.10212 1
gene 1 2 7 -1.41365 0 8 -1.41365 1
gene 1 7 4 4.12147 0 9 4.12147 1
gene 3 1 7 0.21201 0 51 0.21201 1
genomeend 88

/* Organism #89 Fitness: 8.99998 Error: 1 */
genomestart 89
trait 1 0.0875 0 0 0.0148478 0 0.0366957 0 0 
trait 2 0.2 0 0 0 0 0 0 0 
trait 3 0.3 0 0 0 0 0 0 0 
node 1 1 1 3
node 2 2 1 1
node 3 2 1 1
node 4 2 0 2
node 7 2 0 0
gene 1 1 4 1.83699 0 1 1.83699 1
gene 1 2 4 8 0 2 8 0
gene 1 3 4 -2.41108 0 3 -2.41108 1
gene 1 2 7 0.307108 0 8 0.307108 1
gene 1 7 4 6.60725 0 9 6.60725 1
gene 3 1 7 -0.078811 0 51 -0.078811 1
gene 2 3 7 0.0644615 0 122 0.0644615 1
genomeend 89

/* Organism #90 Fitness: 8.99952 Error: 1.00008 */
genomestart 90
trait 1 0.0875 0 0 0.0148478 0 0.0366957 0 0 
trait 2 0.2 0 0 0 0 0 0 0 
trait 3 0.3 0 0 0 0 0 0 0 
node 1 1 1 3
node 2 2 1 1
node 3 2 1 1
node 4 2 0 2
node 7 2 0 0
gene 1 1 4 4.08937 0 1 4.08937 1
gene 1 2 4 7.82693 0 2 7.82693 1
gene 1 3 4 -3.47665 0 3 -3.47665 1
gene 1 2 7 -3.27428 0 8 -3.27428 1
gene 1 7 4 3.83171 0 9 3.83171 1
gene 3 1 7 1.5392 0 51 1.5392 1
gene 2 3 7 2.04688 0 122 2.04688 1
genomeend 90

/* Organism #91 Fitness: 15.9027 Error: 0.0121857 */
genomestart 91
trait 1 0.0875 0 0 0.0148478 0 0.0366957 0 0 
trait 2 0.2 0 0 0 0 0 0 0 
trait 3 0.3 0 0 0 0 0 0 0 
node 1 1 1 3
node 2 2 1 1
node 3 2 1 1
node 4 2 0 2
node 7 2 0 0
gene 1 1 4 3.84211 0 1 3.84211 1
gene 1 2 4 6.0555 0 2 6.0555 0
gene 1 3 4 -4.76264 0 3 -4.76264 1
gene 1 2 7 -1.84739 0 8 -1.84739 1
gene 1 7 4 3.63515 0 9 3.63515 1
gene 3 1 7 0.100096 0 51 0.100096 1
genomeend 91

/* Organism #92 Fitness: 8.99985 Error: 1.00003 */
genomestart 92
trait 1 0.0875 0 0 0.0148478 0 0.0366957 0 0 
trait 2 0.2 0.624481 0 0 0.177651 0.033763 0 0.803476 
trait 3 0.3 0 0 0 0 0 0 0 
node 1 1 1 3
node 2 2 1 1
node 3 2 1 1
node 4 2 0 2
node 7 2 0 0
gene 1 1 4 0.135759 0 1 0.135759 1
gene 1 2 4 5.75938 0 2 5.75938 1
gene 1 3 4 -3.26157 0 3 -3.26157 1
gene 1 2 7 -0.579701 0 8 -0.579701 1
gene 1 7 4 5.36887 0 9 5.36887 1
gene 3 1 7 0.334181 0 51 0.334181 1
gene 2 3 7 0.525088 0 122 0.525088 1
genomeend 92

/* Organism #93 Fitness: 15.986 Error: 0.00175569 */
genomestart 93
trait 1 0.0875 0 0 0.0148478 0 0.0366957 0 0 
trait 2 0.2 0 0 0.281071 0.360645 0.485933 0 0.334267 
trait 3 0.295312 0 0.00678684 0 0.00596946 0 0.00767117 0 
node 1 1 1 3
node 2 2 1 1
node 3 2 1 1
node 4 2 0 2
node 7 2 0 0
gene 1 1 4 1.7401 0 1 1.7401 1
gene 1 2 4 6.87052 0 2 6.87052 0
gene 1 3 4 -3.10212 0 3 -3.10212 1
gene 1 2 7 -1.41365 0 8 -1.41365 1
gene 1 7 4 4.12147 0 9 4.12147 1
gene 3 1 7 0.21201 0 51 0.21201 1
genomeend 93

/* Organism #94 Fitness: 10.0842 Error: 0.824434 */
genomestart 94
trait 1 0.0875 0 0 0.0148478 0 0.0366957 0 0 
trait 2 0.2 0 0 0 0 0 0 0 
trait 3 0.3 0 0 0 0 0 0 0 
node 1 1 1 3
node 2 2 1 1
node 3 2 1 1
node 4 2 0 2
node 7 2 0 0
gene 1 1 4 4.14107 0 1 4.14107 1
gene 1 2 4 7.92155 0 2 7.92155 0
gene 1 3 4 -3.9549 0 3 -3.9549 1
gene 1 2 7 -2.38308 0 8 -2.38308 1
gene 1 7 4 4.12147 0 9 4.12147 1
gene 3 1 7 0.21201 0 51 0.21201 1
gene 2 3 7 1.4722 0 122 1.4722 1
genomeend 94

/* Organism #95 Fitness: 15.986 Error: 0.00175569 */
genomestart 95
trait 1 0.0875 0 0 0.0148478 0 0.0366957 0 0 
trait 2 0.2 0 0 0.281071 0.360645 0.485933 0 0.334267 
trait 3 0.295312 0 0.00678684 0 0.00596946 0 0.00767117 0 
node 1 1 1 3
node 2 2 1 1
node 3 2 1 1
node 4 2 0 2
node 7 2 0 0
gene 1 1 4 1.7401 0 1 1.7401 1
gene 1 2 4 6.87052 0 2 6.87052 0
gene 1 3 4 -3.10212 0 3 -3.10212 1
gene 1 2 7 -1.41365 0 8 -1.41365 1
gene 1 7 4 4.12147 0 9 4.12147 1
gene 3 1 7 0.21201 0 51 0.21201 1
genomeend 95

/* Species #10 : (Size 14) (AF 10.0622) (Age 8)  */


/* Organism #96 Fitness: 12.596 Error: 0.450916 */
genomestart 96
trait 1 0.1 0 0 0 0 0 0 0 
trait 2 0.2 0 0 0 0 0 0 0 
trait 3 0.3 0 0 0 0 0 0 0 
node 1 1 1 3
node 2 2 1 1
node 3 2 1 1
node 4 2 0 2
node 7 1 0 0
node 13 1 0 0
node 19 1 0 0
gene 1 1 4 0.757211 0 1 0.757211 1
gene 1 2 4 -1.63891 0 2 -1.63891 0
gene 1 3 4 0.791497 0 3 0.791497 0
gene 1 2 7 -3.12814 0 8 -3.12814 0
gene 1 7 4 5.21171 0 9 5.21171 1
gene 1 2 13 -2.58585 0 24 -2.58585 1
gene 1 13 7 2.72499 0 25 2.72499 1
gene 1 3 19 4.607 0 47 4.607 1
gene 1 19 4 -3.40335 0 48 -3.40335 1
genomeend 96

/* Organism #97 Fitness: 11.0718 Error: 0.672569 */
genomestart 97
trait 1 0.1 0 0 0 0 0 0 0 
trait 2 0.2 0 0 0 0 0 0 0 
trait 3 0.3 0 0 0 0 0 0 0 
node 1 1 1 3
node 2 2 1 1
node 3 2 1 1
node 4 2 0 2
node 7 1 0 0
node 13 1 0 0
node 19 1 0 0
gene 1 1 4 0.472972 0 1 0.472972 1
gene 1 2 4 -2.03544 0 2 -2.03544 0
gene 1 3 4 4.90475 0 3 4.90475 0
gene 1 2 7 -3.34223 0 8 -3.34223 0
gene 1 7 4 3.64098 0 9 3.64098 1
gene 1 2 13 -6.9991 0 24 -6.9991 1
gene 1 13 7 1.60389 0 25 1.60389 1
gene 1 3 19 5.64928 0 47 5.64928 1
gene 1 19 4 -4.02268 0 48 -4.02268 1
genomeend 97

/* Organism #98 Fitness: 15.6492 Error: 0.0440936 */
genomestart 98
trait 1 0.1 0 0 0 0 0 0 0 
trait 2 0.2 0 0 0 0 0 0 0 
trait 3 0.3 0 0 0 0 0 0 0 
node 1 1 1 3
node 2 2 1 1
node 3 2 1 1
node 4 2 0 2
node 7 1 0 0
node 13 1 0 0
node 19 1 0 0
gene 1 1 4 0.874143 0 1 0.874143 1
gene 1 2 4 -1.63891 0 2 -1.63891 0
gene 1 3 4 3.08699 0 3 3.08699 0
gene 1 2 7 -3.12814 0 8 -3.12814 0
gene 1 7 4 3.70604 0 9 3.70604 1
gene 1 2 13 -2.58585 0 24 -2.58585 1
gene 1 13 7 2.72499 0 25 2.72499 1
gene 1 3 19 3.52341 0 47 3.52341 1
gene 1 19 4 -3.40335 0 48 -3.40335 1
genomeend 98

/* Organism #99 Fitness: 8.99997 Error: 1.00001 */
genomestart 99
trait 1 0.1 0 0 0 0 0 0 0 
trait 2 0.2 0 0 0 0 0 0 0 
trait 3 0.3 0 0 0 0 0 0 0 
node 1 1 1 3
node 2 2 1 1
node 3 2 1 1
node 4 2 0 2
node 7 1 0 0
node 13 1 0 0
node 19 1 0 0
gene 1 1 4 2.88799 0 1 2.88799 1
gene 1 2 4 0.895021 0 2 0.895021 0
gene 1 3 4 0.407618 0 3 0.407618 0
gene 1 2 7 -2.62867 0 8 -2.62867 0
gene 1 7 4 4.12892 0 9 4.12892 1
gene 1 2 13 -3.40283 0 24 -3.40283 1
gene 1 13 7 2.01557 0 25 2.01557 1
gene 1 3 19 -0.27476 0 47 -0.27476 1
gene 1 19 4 -3.26862 0 48 -3.26862 1
genomeend 99

/* Organism #100 Fitness: 8.9995 Error: 1.00008 */
genomestart 100
trait 1 0.1 0 0 0 0 0 0 0 
trait 2 0.2 0 0 0 0 0 0 0 
trait 3 0.3 0 0 0 0 0 0 0 
node 1 1 1 3
node 2 2 1 1
node 3 2 1 1
node 4 2 0 2
node 7 1 0 0
node 13 1 0 0
node 19 1 0 0
gene 1 1 4 -0.904536 0 1 -0.904536 1
gene 1 2 4 -0.748201 0 2 -0.748201 0
gene 1 3 4 -1.354 0 3 -1.354 0
gene 1 2 7 2.29242 0 8 2.29242 0
gene 1 7 4 4.09378 0 9 4.09378 1
gene 1 2 13 -1.31067 0 24 -1.31067 1
gene 1 13 7 1.62077 0 25 1.62077 1
gene 1 3 19 5.29275 0 47 5.29275 1
gene 1 19 4 1.49021 0 48 1.49021 1
genomeend 100

/* Organism #101 Fitness: 2.83393 Error: 2.31657 */
genomestart 101
trait 1 0.1 0 0 0 0 0 0 0 
trait 2 0.2 0 0 0 0 0 0 0 
trait 3 0.3 0 0 0 0 0 0 0 
node 1 1 1 3
node 2 2 1 1
node 3 2 1 1
node 4 2 0 2
node 7 1 0 0
node 13 1 0 0
node 19 1 0 0
gene 1 1 4 -1.25714 0 1 -1.25714 1
gene 1 2 4 0.453525 0 2 0.453525 0
gene 1 3 4 -1.91119 0 3 -1.91119 0
gene 1 2 7 -2.20822 0 8 -2.20822 0
gene 1 7 4 3.08796 0 9 3.08796 1
gene 1 2 13 -1.51383 0 24 -1.51383 1
gene 1 13 7 4.18275 0 25 4.18275 1
gene 1 3 19 2.53045 0 47 2.53045 1
gene 1 19 4 -6.48649 0 48 -6.48649 1
genomeend 101

/* Organism #102 Fitness: 9 Error: 1 */
genomestart 102
trait 1 0.1 0 0 0 0 0 0 0 
trait 2 0.2 0 0 0 0 0 0 0 
trait 3 0.3 0 0 0 0 0 0 0 
node 1 1 1 3
node 2 2 1 1
node 3 2 1 1
node 4 2 0 2
node 7 1 0 0
node 13 1 0 0
node 19 1 0 0
gene 1 1 4 1.48249 0 1 1.48249 1
gene 1 2 4 -2.80948 0 2 -2.80948 0
gene 1 3 4 5.19558 0 3 5.19558 0
gene 1 2 7 -0.485947 0 8 -0.485947 0
gene 1 7 4 8 0 9 8 1
gene 1 2 13 -5.45878 0 24 -5.45878 1
gene 1 13 7 1.7789 0 25 1.7789 1
gene 1 3 19 4.19436 0 47 4.19436 1
gene 1 19 4 -1.99028 0 48 -1.99028 1
genomeend 102

/* Organism #103 Fitness: 10.6789 Error: 0.732147 */
genomestart 103
trait 1 0.1 0 0 0 0 0 0 0 
trait 2 0.2 0 0 0 0 0 0 0 
trait 3 0.3 0 0 0 0 0 0 0 
node 1 1 1 3
node 2 2 1 1
node 3 2 1 1
node 4 2 0 2
node 7 1 0 0
node 13 1 0 0
node 19 1 0 0
gene 1 1 4 0.799653 0 1 0.799653 1
gene 1 2 4 -0.860589 0 2 -0.860589 0
gene 1 3 4 1.59778 0 3 1.59778 0
gene 1 2 7 -3.89633 0 8 -3.89633 0
gene 1 7 4 5.22302 0 9 5.22302 1
gene 1 2 13 -1.41534 0 24 -1.41534 1
gene 1 13 7 4.59299 0 25 4.59299 1
gene 1 3 19 2.30614 0 47 2.30614 1
gene 1 19 4 -3.23487 0 48 -3.23487 1
genomeend 103

/* Organism #104 Fitness: 9.00001 Error: 0.999999 */
genomestart 104
trait 1 0.1 0 0 0 0 0 0 0 
trait 2 0.2 0 0 0 0 0 0 0 
trait 3 0.3 0 0 0 0 0 0 0 
node 1 1 1 3
node 2 2 1 1
node 3 2 1 1
node 4 2 0 2
node 7 1 0 0
node 13 1 0 0
node 19 1 0 0
gene 1 1 4 1.76339 0 1 1.76339 1
gene 1 2 4 -2.38 0 2 -2.38 0
gene 1 3 4 -0.280807 0 3 -0.280807 0
gene 1 2 7 -1.48019 0 8 -1.48019 0
gene 1 7 4 5.94543 0 9 5.94543 1
gene 1 2 13 -3.47312 0 24 -3.47312 1
gene 1 13 7 4.083 0 25 4.083 1
gene 1 3 19 5.27406 0 47 5.27406 1
gene 1 19 4 -1.96911 0 48 -1.96911 1
genomeend 104

/* Organism #105 Fitness: 15.9829 Error: 0.00214158 */
genomestart 105
trait 1 0.1 0 0 0 0 0 0 0 
trait 2 0.2 0 0 0 0 0 0 0 
trait 3 0.3 0 0 0 0 0 0 0 
node 1 1 1 3
node 2 2 1 1
node 3 2 1 1
node 4 2 0 2
node 7 1 0 0
node 13 1 0 0
node 19 1 0 0
gene 1 1 4 1.19828 0 1 1.19828 1
gene 1 2 4 -2.33364 0 2 -2.33364 0
gene 1 3 4 3.57092 0 3 3.57092 0
gene 1 2 7 -4.24255 0 8 -4.24255 0
gene 1 7 4 6.69563 0 9 6.69563 1
gene 1 2 13 -4.47416 0 24 -4.47416 1
gene 1 13 7 4.11389 0 25 4.11389 1
gene 1 3 19 3.76315 0 47 3.76315 1
gene 1 19 4 -6.41226 0 48 -6.41226 1
genomeend 105

/* Organism #106 Fitness: 8.98063 Error: 1.00323 */
genomestart 106
trait 1 0.1 0 0 0 0 0 0 0 
trait 2 0.2 0 0 0 0 0 0 0 
trait 3 0.3 0 0 0 0 0 0 0 
node 1 1 1 3
node 2 2 1 1
node 3 2 1 1
node 4 2 0 2
node 7 1 0 0
node 13 1 0 0
node 19 1 0 0
gene 1 1 4 -0.825576 0 1 -0.825576 1
gene 1 2 4 -3.90519 0 2 -3.90519 0
gene 1 3 4 2.18757 0 3 2.18757 0
gene 1 2 7 -4.05818 0 8 -4.05818 0
gene 1 7 4 4.78202 0 9 4.78202 1
gene 1 2 13 0.329963 0 24 0.329963 1
gene 1 13 7 6.06181 0 25 6.06181 1
gene 1 3 19 4.26013 0 47 4.26013 1
gene 1 19 4 -5.30616 0 48 -5.30616 1
genomeend 106

/* Organism #107 Fitness: 9.07823 Error: 0.986989 */
genomestart 107
trait 1 0.1 0 0 0 0 0 0 0 
trait 2 0.2 0 0 0 0 0 0 0 
trait 3 0 0 0 0 0 0 0.0475028 0.0029127 
node 1 1 1 3
node 2 2 1 1
node 3 2 1 1
node 4 2 0 2
node 7 1 0 0
node 13 1 0 0
node 19 1 0 0
gene 1 1 4 0.4799 0 1 0.4799 1
gene 1 2 4 -0.991709 0 2 -0.991709 0
gene 1 3 4 0.907885 0 3 0.907885 0
gene 1 2 7 -4.71128 0 8 -4.71128 0
gene 1 7 4 4.2875 0 9 4.2875 1
gene 1 2 13 -3.64563 0 24 -3.64563 1
gene 1 13 7 1.83782 0 25 1.83782 1
gene 1 3 19 5.5998 0 47 5.5998 1
gene 1 19 4 -1.74741 0 48 -1.74741 1
genomeend 107

/* Organism #108 Fitness: 9 Error: 1 */
genomestart 108
trait 1 0.1 0 0 0 0 0 0 0 
trait 2 0.449337 0 0 0 0 0 0 0 
trait 3 0.3 0 0 0 0 0 0 0 
node 1 1 1 3
node 2 2 1 1
node 3 2 1 1
node 4 2 0 2
node 7 1 0 0
node 13 2 0 0
node 19 1 0 0
node 32 1 0 0
gene 1 1 4 3.7441 0 1 3.7441 1
gene 1 2 4 -1.211 0 2 -1.211 1
gene 1 3 4 -1.44054 0 3 -1.44054 0
gene 1 2 7 0.67026 0 8 0.67026 0
gene 1 7 4 6.00827 0 9 6.00827 1
gene 1 2 13 2.25266 0 24 2.25266 0
gene 1 13 7 2.00644 0 25 2.00644 1
gene 1 3 19 3.24104 0 47 3.24104 1
gene 1 19 4 -0.552085 0 48 -0.552085 1
gene 1 2 32 1.765 0 79 1.765 1
gene 1 32 13 -1.4679 0 80 -1.4679 1
genomeend 108

/* Organism #109 Fitness: 9 Error: 1 */
genomestart 109
trait 1 0.1 0 0 0 0 0 0 0 
trait 2 0.449337 0 0 0 0 0 0 0 
trait 3 0.3 0 0 0 0 0 0 0 
node 1 1 1 3
node 2 2 1 1
node 3 2 1 1
node 4 2 0 2
node 7 1 0 0
node 13 1 0 0
node 19 1 0 0
node 32 1 0 0
gene 1 1 4 1.4826 0 1 1.4826 1
gene 1 2 4 -1.78293 0 2 -1.78293 1
gene 1 3 4 1.26976 0 3 1.26976 0
gene 1 2 7 -0.0162546 0 8 -0.0162546 0
gene 1 7 4 4.39597 0 9 4.39597 1
gene 1 2 13 5.25207 0 24 5.25207 0
gene 1 13 7 1.69305 0 25 1.69305 1
gene 1 3 19 1.60795 0 47 1.60795 1
gene 1 19 4 -0.214396 0 48 -0.214396 1
gene 1 2 32 1.52331 0 79 1.52331 1
gene 1 32 13 0.83976 0 80 0.83976 1
genomeend 109

/* Species #12 : (Size 12) (AF 8.58333) (Age 7)  */


/* Organism #110 Fitness: 9 Error: 1 */
genomestart 110
trait 1 0.1 0 0 0 0 0 0 0 
trait 2 0.532449 0 0 0 0 0 0 0 
trait 3 0.3 0 0 0 0 0 0 0 
node 1 1 1 3
node 2 2 1 1
node 3 3 1 1
node 4 2 0 2
node 7 1 0 0
node 13 1 0 0
node 26 1 0 0
node 29 3 0 0
gene 1 1 4 1.54861 0 1 1.54861 1
gene 1 2 4 3.73782 0 2 3.73782 1
gene 1 3 4 -2.16758 0 3 -2.16758 0
gene 1 2 7 2.76463 0 8 2.76463 0
gene 1 7 4 7.38736 0 9 7.38736 1
gene 1 2 13 1.65751 0 24 1.65751 0
gene 1 13 7 2.16317 0 25 2.16317 0
gene 1 2 26 2.36226 0 62 2.36226 1
gene 1 26 13 2.06994 0 63 2.06994 1
gene 1 13 29 0.628092 0 72 0.628092 1
gene 1 29 7 2.9123 0 73 2.9123 1
gene 3 29 4 -0.133637 0 85 -0.133637 1
genomeend 110

/* Organism #111 Fitness: 9 Error: 1 */
genomestart 111
trait 1 0.1 0 0 0 0 0 0 0 
trait 2 0.532449 0 0 0 0 0 0 0 
trait 3 0.3 0 0 0 0 0 0 0 
node 1 1 1 3
node 2 2 1 1
node 3 3 1 1
node 4 2 0 2
node 7 1 0 0
node 13 1 0 0
node 26 1 0 0
node 29 3 0 0
gene 1 1 4 0.145031 0 1 0.145031 1
gene 1 2 4 1.01854 0 2 1.01854 1
gene 1 3 4 -4.3489 0 3 -4.3489 0
gene 1 2 7 1.10797 0 8 1.10797 1
gene 1 7 4 8 0 9 8 1
gene 1 2 13 2.17557 0 24 2.17557 0
gene 1 13 7 4.46988 0 25 4.46988 0
gene 1 2 26 1.19148 0 62 1.19148 1
gene 1 26 13 0.806167 0 63 0.806167 1
gene 1 13 29 0.233653 0 72 0.233653 1
gene 2 29 7 2.20309 0 73 2.20309 1
gene 3 29 4 0.402179 0 85 0.402179 1
gene 1 13 4 0.804525 0 141 0.804525 1
genomeend 111

/* Organism #112 Fitness: 9 Error: 1 */
genomestart 112
trait 1 0.1 0 0 0 0 0 0 0 
trait 2 0.532449 0 0 0 0 0 0 0 
trait 3 0.3 0 0 0 0 0 0 0 
node 1 1 1 3
node 2 2 1 1
node 3 3 1 1
node 4 2 0 2
node 7 1 0 0
node 13 1 0 0
node 26 1 0 0
node 29 3 0 0
gene 1 1 4 0.566976 0 1 0.566976 1
gene 1 2 4 4.01544 0 2 4.01544 1
gene 1 3 4 -0.595772 0 3 -0.595772 1
gene 1 2 7 4.60924 0 8 4.60924 1
gene 1 7 4 8 0 9 8 1
gene 1 2 13 2.36824 0 24 2.36824 0
gene 1 13 7 0.11626 0 25 0.11626 0
gene 1 2 26 2.12441 0 62 2.12441 1
gene 1 26 13 2.06994 0 63 2.06994 1
gene 1 13 29 1.32106 0 72 1.32106 1
gene 1 29 7 1.52691 0 73 1.52691 1
gene 3 29 4 -0.133637 0 85 -0.133637 1
genomeend 112

/* Organism #113 Fitness: 9 Error: 1 */
genomestart 113
trait 1 0.1 0 0 0 0 0 0 0 
trait 2 0.532449 0 0 0 0 0 0 0 
trait 3 0.3 0 0 0 0 0 0 0 
node 1 1 1 3
node 2 2 1 1
node 3 3 1 1
node 4 2 0 2
node 7 1 0 0
node 13 1 0 0
node 26 1 0 0
node 29 3 0 0
gene 1 1 4 2.01692 0 1 2.01692 1
gene 1 2 4 2.20431 0 2 2.20431 1
gene 1 3 4 -3.89185 0 3 -3.89185 0
gene 1 2 7 4.64765 0 8 4.64765 0
gene 1 7 4 7.44507 0 9 7.44507 1
gene 1 2 13 -0.0565351 0 24 -0.0565351 0
gene 1 13 7 0.353209 0 25 0.353209 0
gene 1 2 26 0.472426 0 62 0.472426 1
gene 1 26 13 0.755634 0 63 0.755634 1
gene 1 13 29 0.628092 0 72 0.628092 1
gene 1 29 7 2.01912 0 73 2.01912 1
gene 3 29 4 1.27959 0 85 1.27959 1
genomeend 113

/* Organism #114 Fitness: 9 Error: 1 */
genomestart 114
trait 1 0.1 0 0 0 0 0 0 0 
trait 2 0.532449 0 0 0 0 0 0 0 
trait 3 0.3 0 0 0 0 0 0 0 
node 1 1 1 3
node 2 2 1 1
node 3 3 1 1
node 4 2 0 2
node 7 1 0 0
node 13 1 0 0
node 26 1 0 0
node 29 3 0 0
gene 1 1 4 3.06846 0 1 3.06846 1
gene 1 2 4 3.58555 0 2 3.58555 1
gene 1 3 4 -4.19488 0 3 -4.19488 0
gene 1 2 7 1.26664 0 8 1.26664 0
gene 1 7 4 7.38736 0 9 7.38736 1
gene 1 2 13 1.04607 0 24 1.04607 0
gene 1 13 7 -0.064598 0 25 -0.064598 0
gene 1 2 26 2.36226 0 62 2.36226 1
gene 1 26 13 -0.352763 0 63 -0.352763 1
gene 1 13 29 -1.64129 0 72 -1.64129 1
gene 1 29 7 4.24241 0 73 4.24241 1
gene 3 29 4 -0.133637 0 85 -0.133637 1
genomeend 114

/* Organism #115 Fitness: 9 Error: 1 */
genomestart 115
trait 1 0.1 0 0 0 0 0 0 0 
trait 2 0.532449 0 0 0 0 0 0 0 
trait 3 0.3 0 0 0 0 0 0 0 
node 1 1 1 3
node 2 2 1 1
node 3 3 1 1
node 4 2 0 2
node 7 1 0 0
node 13 1 0 0
node 26 1 0 0
node 29 3 0 0
gene 1 1 4 0.145031 0 1 0.145031 1
gene 1 2 4 3.73782 0 2 3.73782 1
gene 1 3 4 -4.3489 0 3 -4.3489 0
gene 1 2 7 1.10797 0 8 1.10797 0
gene 1 7 4 8 0 9 8 1
gene 1 2 13 2.17557 0 24 2.17557 0
gene 1 13 7 2.16317 0 25 2.16317 0
gene 1 2 26 1.19148 0 62 1.19148 1
gene 1 26 13 0.806167 0 63 0.806167 1
gene 1 13 29 0.233653 0 72 0.233653 1
gene 1 29 7 2.9123 0 73 2.9123 1
gene 3 29 4 0.402179 0 85 0.402179 1
genomeend 115

/* Organism #116 Fitness: 4 Error: 2 */
genomestart 116
trait 1 0.1 0 0 0 0 0 0 0 
trait 2 0.532449 0 0 0 0 0 0 0 
trait 3 0.3 0 0 0 0 0 0 0 
node 1 1 1 3
node 2 2 1 1
node 3 3 1 1
node 4 2 0 2
node 7 1 0 0
node 13 1 0 0
node 26 1 0 0
node 29 3 0 0
gene 1 1 4 0.0917608 0 1 0.0917608 1
gene 1 2 4 4.95502 0 2 4.95502 1
gene 1 3 4 -3.07973 0 3 -3.07973 0
gene 1 2 7 2.42647 0 8 2.42647 0
gene 1 7 4 -1.70217 0 9 -1.70217 1
gene 1 2 13 0.0879079 0 24 0.0879079 0
gene 1 13 7 -0.217009 0 25 -0.217009 0
gene 1 2 26 -0.797045 0 62 -0.797045 1
gene 1 26 13 -0.586926 0 63 -0.586926 1
gene 1 13 29 0.701624 0 72 0.701624 1
gene 1 29 7 3.03906 0 73 3.03906 1
gene 3 29 4 -2.54299 0 85 -2.54299 1
genomeend 116

/* Organism #117 Fitness: 9 Error: 1 */
genomestart 117
trait 1 0.1 0 0 0 0 0 0 0 
trait 2 0.532449 0 0 0 0 0 0 0 
trait 3 0.3 0 0 0 0 0 0 0 
node 1 1 1 3
node 2 2 1 1
node 3 3 1 1
node 4 2 0 2
node 7 1 0 0
node 13 1 0 0
node 26 1 0 0
node 29 3 0 0
gene 1 1 4 0.811809 0 1 0.811809 1
gene 1 2 4 6.51149 0 2 6.51149 1
gene 1 3 4 -3.00013 0 3 -3.00013 0
gene 1 2 7 4.12703 0 8 4.12703 0
gene 1 7 4 7.55538 0 9 7.55538 1
gene 1 2 13 2.04575 0 24 2.04575 0
gene 1 13 7 0.650701 0 25 0.650701 1
gene 1 2 26 2.08639 0 62 2.08639 1
gene 1 26 13 0.421307 0 63 0.421307 1
gene 1 13 29 0.988648 0 72 0.988648 1
gene 1 29 7 3.15144 0 73 3.15144 1
gene 3 29 4 -1.28486 0 85 -1.28486 1
genomeend 117

/* Organism #118 Fitness: 9 Error: 1 */
genomestart 118
trait 1 0.1 0 0 0 0 0 0 0 
trait 2 0.532449 0 0 0 0 0 0 0 
trait 3 0.3 0 0 0 0 0 0 0 
node 1 1 1 3
node 2 2 1 1
node 3 3 1 1
node 4 2 0 2
node 7 1 0 0
node 13 1 0 0
node 26 1 0 0
node 29 3 0 0
gene 1 1 4 0.846821 0 1 0.846821 1
gene 1 2 4 2.37818 0 2 2.37818 1
gene 1 3 4 -3.25824 0 3 -3.25824 0
gene 1 2 7 1.9363 0 8 1.9363 0
gene 1 7 4 7.69368 0 9 7.69368 1
gene 1 2 13 1.91654 0 24 1.91654 0
gene 1 13 7 3.31653 0 25 3.31653 0
gene 1 2 26 1.77687 0 62 1.77687 1
gene 1 26 13 1.43805 0 63 1.43805 1
gene 1 13 29 0.430873 0 72 0.430873 1
gene 1 29 7 2.5577 0 73 2.5577 1
gene 3 29 4 0.134271 0 85 0.134271 1
genomeend 118

/* Organism #119 Fitness: 9 Error: 1 */
genomestart 119
trait 1 0.1 0 0 0 0 0 0 0 
trait 2 0.532449 0 0 0 0 0 0 0 
trait 3 0.3 0 0 0 0 0 0 0 
node 1 1 1 3
node 2 2 1 1
node 3 3 1 1
node 4 2 0 2
node 7 1 0 0
node 13 1 0 0
node 26 1 0 0
node 29 3 0 0
gene 1 1 4 3.70602 0 1 3.70602 1
gene 1 2 4 5.02745 0 2 5.02745 1
gene 1 3 4 -2.9821 0 3 -2.9821 0
gene 1 2 7 3.30255 0 8 3.30255 0
gene 1 7 4 7.33871 0 9 7.33871 1
gene 1 2 13 0.763455 0 24 0.763455 0
gene 1 13 7 -0.270986 0 25 -0.270986 0
gene 1 2 26 2.78607 0 62 2.78607 1
gene 1 26 13 -0.346982 0 63 -0.346982 1
gene 1 13 29 2.92043 0 72 2.92043 1
gene 1 29 7 3.51916 0 73 3.51916 1
gene 3 29 4 2.22235 0 85 2.22235 1
genomeend 119

/* Organism #120 Fitness: 8.99999 Error: 1 */
genomestart 120
trait 1 0.1 0 0 0 0 0 0 0 
trait 2 0.532449 0 0 0 0 0 0 0 
trait 3 0.3 0 0 0 0 0 0 0 
node 1 1 1 3
node 2 2 1 1
node 3 3 1 1
node 4 2 0 2
node 7 1 0 0
node 13 1 0 0
node 26 1 0 0
node 29 3 0 0
gene 1 1 4 1.78005 0 1 1.78005 1
gene 1 2 4 7.72628 0 2 7.72628 1
gene 1 3 4 -3.73405 0 3 -3.73405 0
gene 1 2 7 0.745867 0 8 0.745867 0
gene 1 7 4 5.35779 0 9 5.35779 1
gene 1 2 13 2.35869 0 24 2.35869 0
gene 1 13 7 2.03991 0 25 2.03991 0
gene 1 2 26 1.35831 0 62 1.35831 1
gene 2 26 13 3.05911 0 63 3.05911 1
gene 1 13 29 -1.24782 0 72 -1.24782 1
gene 2 29 7 2.20309 0 73 2.20309 1
gene 3 29 4 -0.133637 0 85 -0.133637 1
genomeend 120

/* Organism #121 Fitness: 9 Error: 1 */
genomestart 121
trait 1 0.1 0 0 0 0 0 0 0 
trait 2 0.532449 0 0 0 0 0 0 0 
trait 3 0.3 0 0 0 0 0 0 0 
node 1 1 1 3
node 2 2 1 1
node 3 3 1 1
node 4 2 0 2
node 7 1 0 0
node 13 1 0 0
node 26 1 0 0
node 29 3 0 0
gene 1 1 4 -1.7744 0 1 -1.7744 1
gene 1 2 4 -1.42914 0 2 -1.42914 1
gene 1 3 4 -2.23796 0 3 -2.23796 0
gene 1 2 7 1.70677 0 8 1.70677 0
gene 1 7 4 5.8427 0 9 5.8427 1
gene 1 2 13 -0.20241 0 24 -0.20241 0
gene 1 13 7 4.00911 0 25 4.00911 0
gene 1 2 26 0.668976 0 62 0.668976 1
gene 1 26 13 0.386538 0 63 0.386538 1
gene 1 13 29 0.00832215 0 72 0.00832215 1
gene 2 29 7 4.69718 0 73 4.69718 1
gene 3 29 4 2.65569 0 85 2.65569 1
genomeend 121

/* Species #13 : (Size 9) (AF 8.95458) (Age 5)  */


/* Organism #122 Fitness: 9 Error: 1 */
genomestart 122
trait 1 0.1 0 0 0.843742 0 0 0 0.286308 
trait 2 0.2 0 0 0 0 0 0 0 
trait 3 0.3 0 0 0 0 0 0 0 
node 1 2 1 3
node 2 1 1 1
node 3 1 1 1
node 4 3 0 2
node 17 1 0 0
node 38 1 0 0
node 48 1 0 0
gene 2 1 4 -1.37352 0 1 -1.37352 1
gene 1 2 4 2.89104 0 2 2.89104 0
gene 3 3 4 0.209301 0 3 0.209301 0
gene 1 2 17 -1.79689 0 39 -1.79689 1
gene 1 17 4 7.86938 0 40 7.86938 1
gene 1 17 38 -0.335849 0 96 -0.335849 1
gene 1 38 4 6.65915 0 97 6.65915 0
gene 1 38 48 1 0 132 0 1
gene 1 48 4 6.65915 0 133 0 1
genomeend 122

/* Organism #123 Fitness: 9 Error: 1 */
genomestart 123
trait 1 0.1 0 0 0.421871 0 0 0 0.143154 
trait 2 0.2 0 0 0 0 0 0 0 
trait 3 0.3 0 0.462728 0 0.332814 0 0 0 
node 1 2 1 3
node 2 1 1 1
node 3 1 1 1
node 4 3 0 2
node 17 1 0 0
node 38 1 0 0
gene 2 1 4 0.72104 0 1 0.72104 1
gene 1 2 4 -0.543672 0 2 -0.543672 0
gene 3 3 4 -1.23794 0 3 -1.23794 0
gene 1 2 17 -2.27121 0 39 -2.27121 1
gene 1 17 4 5.17012 0 40 5.17012 0
gene 1 17 38 1.22289 0 96 1.22289 1
gene 1 38 4 6.34269 0 97 6.34269 1
genomeend 123

/* Organism #124 Fitness: 9 Error: 1 */
genomestart 124
trait 1 0.1 0 0 0.843742 0 0 0 0.286308 
trait 2 0.2 0 0 0 0 0 0 0 
trait 3 0.3 0 0 0 0 0 0 0 
node 1 2 1 3
node 2 1 1 1
node 3 1 1 1
node 4 3 0 2
node 17 1 0 0
node 38 1 0 0
node 48 1 0 0
gene 2 1 4 -3.39882 0 1 -3.39882 1
gene 1 2 4 3.34174 0 2 3.34174 0
gene 3 3 4 -0.00864095 0 3 -0.00864095 0
gene 1 2 17 -1.46689 0 39 -1.46689 1
gene 1 17 4 8 0 40 8 1
gene 1 17 38 -0.152918 0 96 -0.152918 1
gene 1 38 4 4.58637 0 97 4.58637 0
gene 1 38 48 3.3978 0 132 3.3978 1
gene 1 48 4 5.01936 0 133 5.01936 1
genomeend 124

/* Organism #125 Fitness: 8.9982 Error: 1.0003 */
genomestart 125
trait 1 0.1 0 0 0.843742 0 0 0 0.286308 
trait 2 0.2 0 0 0 0 0 0 0 
trait 3 0.3 0 0.925457 0 0.665627 0 0 0 
node 1 2 1 3
node 2 1 1 1
node 3 1 1 1
node 4 3 0 2
node 17 1 0 0
node 38 1 0 0
gene 2 1 4 -5.01944 0 1 -5.01944 1
gene 1 2 4 1.0657 0 2 1.0657 0
gene 3 3 4 -1.98912 0 3 -1.98912 0
gene 1 2 17 -0.396088 0 39 -0.396088 1
gene 1 17 4 7.48444 0 40 7.48444 1
gene 1 17 38 -0.0231955 0 96 -0.0231955 1
gene 1 38 4 6.31056 0 97 6.31056 1
genomeend 125

/* Organism #126 Fitness: 9 Error: 1 */
genomestart 126
trait 1 0.1 0 0 0.843742 0 0 0 0.286308 
trait 2 0.2 0 0 0 0 0 0 0 
trait 3 0.3 0 0.462728 0 0.332814 0 0 0 
node 1 2 1 3
node 2 1 1 1
node 3 1 1 1
node 4 3 0 2
node 17 1 0 0
node 38 1 0 0
node 48 1 0 0
gene 2 1 4 -1.87131 0 1 -1.87131 1
gene 1 2 4 2.89104 0 2 2.89104 0
gene 3 3 4 -0.816559 0 3 -0.816559 0
gene 1 2 17 -1.43388 0 39 -1.43388 1
gene 1 17 4 7.05076 0 40 7.05076 1
gene 1 17 38 0.480462 0 96 0.480462 1
gene 1 38 4 8 0 97 8 1
gene 1 38 48 -0.441464 0 132 -0.441464 1
gene 1 48 4 0.388738 0 133 0.388738 1
genomeend 126

/* Organism #127 Fitness: 8.98423 Error: 1.00263 */
genomestart 127
trait 1 0.1 0 0 0.843742 0 0 0 0.286308 
trait 2 0.2 0 0 0 0 0 0 0 
trait 3 0.3 0 0.925457 0 0.665627 0 0 0 
node 1 2 1 3
node 2 1 1 1
node 3 1 1 1
node 4 3 0 2
node 17 1 0 0
node 38 1 0 0
gene 2 1 4 -4.73534 0 1 -4.73534 1
gene 1 2 4 -1.06821 0 2 -1.06821 0
gene 3 3 4 0.751199 0 3 0.751199 0
gene 1 2 17 -2.70745 0 39 -2.70745 1
gene 1 17 4 8 0 40 8 1
gene 1 17 38 -0.33672 0 96 -0.33672 1
gene 1 38 4 6.85301 0 97 6.85301 1
genomeend 127

/* Organism #128 Fitness: 9 Error: 1 */
genomestart 128
trait 1 0.1 0 0 0.843742 0 0 0 0.286308 
trait 2 0.2 0 0 0 0 0 0 0 
trait 3 0.3 0 0.925457 0 0.665627 0 0 0 
node 1 2 1 3
node 2 1 1 1
node 3 1 1 1
node 4 3 0 2
node 17 1 0 0
node 38 1 0 0
gene 2 1 4 -3.05882 0 1 -3.05882 1
gene 1 2 4 0.549752 0 2 0.549752 0
gene 3 3 4 0.406501 0 3 0.406501 0
gene 1 2 17 -1.96594 0 39 -1.96594 1
gene 1 17 4 8 0 40 8 1
gene 1 17 38 0.427153 0 96 0.427153 1
gene 1 38 4 8 0 97 8 1
genomeend 128

/* Organism #129 Fitness: 8.60879 Error: 1.06593 */
genomestart 129
trait 1 0.1 0 0 0.232218 0 0 0 0.286308 
trait 2 0.2 0 0 0 0 0 0 0 
trait 3 0.3 0 0.462728 0 0.332814 0 0 0 
node 1 2 1 3
node 2 1 1 1
node 3 1 1 1
node 4 3 0 2
node 17 1 0 0
node 38 1 0 0
node 48 1 0 0
gene 2 1 4 -2.90655 0 1 -2.90655 1
gene 1 2 4 -2.19923 0 2 -2.19923 1
gene 3 3 4 2.68055 0 3 2.68055 0
gene 1 2 17 1.57897 0 39 1.57897 1
gene 1 17 4 6.75003 0 40 6.75003 1
gene 1 17 38 -1.10762 0 96 -1.10762 1
gene 1 38 4 8 0 97 8 0
gene 1 38 48 -1.69366 0 132 -1.69366 1
gene 1 48 4 0.58097 0 133 0.58097 1
genomeend 129

/* Organism #130 Fitness: 9 Error: 1 */
genomestart 130
trait 1 0.1 0 0 0.843742 0 0 0 0.286308 
trait 2 0.2 0 0 0 0 0 0 0 
trait 3 0.3 0 0.462728 0 0.332814 0 0 0 
node 1 2 1 3
node 2 1 1 1
node 3 1 1 1
node 4 3 0 2
node 17 1 0 0
node 38 1 0 0
node 48 1 0 0
gene 2 1 4 -3.05882 0 1 -3.05882 1
gene 1 2 4 1.81239 0 2 1.81239 0
gene 3 3 4 2.38029 0 3 2.38029 0
gene 1 2 17 -0.798264 0 39 -0.798264 1
gene 1 17 4 6.2972 0 40 6.2972 1
gene 1 17 38 -2.37978 0 96 -2.37978 1
gene 1 38 4 6.08426 0 97 6.08426 0
gene 1 38 48 1.79376 0 132 1.79376 1
gene 1 48 4 7.30849 0 133 7.30849 1
genomeend 130

/* Species #14 : (Size 11) (AF 7.73015) (Age 5)  */


/* Organism #131 Fitness: 9 Error: 1 */
genomestart 131
trait 1 0.1 0 0 0 0 0 0 0 
trait 2 0.2 0 0 0 0 0 0 0 
trait 3 0.3 0 0 0 0 0 0 0 
node 1 1 1 3
node 2 2 1 1
node 3 3 1 1
node 4 2 0 2
node 7 1 0 0
node 13 1 0 0
gene 1 1 4 -1.4113 0 1 -1.4113 1
gene 1 2 4 5.05738 0 2 5.05738 1
gene 1 3 4 0.380777 0 3 0.380777 1
gene 1 2 7 -0.480593 0 8 -0.480593 1
gene 1 7 4 6.95001 0 9 6.95001 1
gene 1 2 13 3.84157 0 24 3.84157 0
gene 1 13 7 1.35848 0 25 1.35848 1
gene 2 1 13 2.17781 0 108 2.17781 1
gene 2 3 7 0.562907 0 122 0 1
genomeend 131

/* Organism #132 Fitness: 2.21758 Error: 2.51084 */
genomestart 132
trait 1 0.1 0 0 0 0 0 0 0 
trait 2 0.2 0 0 0 0 0 0 0 
trait 3 0.461603 0.0636284 0.960541 0 0 0 0 0 
node 1 1 1 3
node 2 2 1 1
node 3 3 1 1
node 4 2 0 2
node 7 1 0 0
node 13 1 0 0
gene 1 1 4 -1.39769 0 1 -1.39769 1
gene 1 2 4 -0.36343 0 2 -0.36343 1
gene 1 3 4 0.97381 0 3 0.97381 1
gene 1 2 7 -0.480593 0 8 -0.480593 0
gene 1 7 4 0.495781 0 9 0.495781 1
gene 1 2 13 0.243378 0 24 0.243378 0
gene 1 13 7 3.01989 0 25 3.01989 1
gene 2 1 13 4.46545 0 108 4.46545 1
genomeend 132

/* Organism #133 Fitness: 8.99794 Error: 1.00034 */
genomestart 133
trait 1 0.1 0 0 0 0 0 0 0 
trait 2 0.2 0 0 0 0 0 0 0 
trait 3 0.3 0 0 0 0 0 0 0 
node 1 1 1 3
node 2 2 1 1
node 3 3 1 1
node 4 2 0 2
node 7 1 0 0
node 13 1 0 0
gene 1 1 4 -2.05975 0 1 -2.05975 1
gene 1 2 4 2.57589 0 2 2.57589 1
gene 1 3 4 1.98294 0 3 1.98294 1
gene 1 2 7 -2.42547 0 8 -2.42547 1
gene 1 7 4 5.39537 0 9 5.39537 1
gene 1 2 13 5.78636 0 24 5.78636 0
gene 1 13 7 2.18473 0 25 2.18473 1
gene 2 1 13 0.835562 0 108 0.835562 1
gene 2 3 7 -0.165063 0 122 -0.165063 1
genomeend 133

/* Organism #134 Fitness: 8.77923 Error: 1.03702 */
genomestart 134
trait 1 0.1 0 0 0 0 0 0 0 
trait 2 0.2 0 0 0 0 0 0 0 
trait 3 0.3 0 0 0 0 0 0 0 
node 1 1 1 3
node 2 2 1 1
node 3 3 1 1
node 4 2 0 2
node 7 1 0 0
node 13 2 0 0
gene 1 1 4 0.256321 0 1 0.256321 1
gene 1 2 4 0.374905 0 2 0.374905 1
gene 1 3 4 1.15557 0 3 1.15557 1
gene 1 2 7 -1.87135 0 8 -1.87135 1
gene 1 7 4 8 0 9 8 1
gene 1 2 13 3.84157 0 24 3.84157 0
gene 1 13 7 0.740454 0 25 0.740454 1
gene 2 1 13 2.17781 0 108 2.17781 1
gene 2 3 7 0.562907 0 122 0.562907 1
genomeend 134

/* Organism #135 Fitness: 9 Error: 1 */
genomestart 135
trait 1 0.1 0 0 0 0 0 0 0 
trait 2 0.2 0 0 0 0 0 0 0 
trait 3 0.3 0 0 0 0 0 0 0 
node 1 1 1 3
node 2 2 1 1
node 3 3 1 1
node 4 2 0 2
node 7 1 0 0
node 13 1 0 0
gene 1 1 4 -1.4113 0 1 -1.4113 1
gene 1 2 4 5.05738 0 2 5.05738 1
gene 1 3 4 0.380777 0 3 0.380777 1
gene 1 2 7 -0.480593 0 8 -0.480593 0
gene 1 7 4 6.95001 0 9 6.95001 1
gene 1 2 13 3.84157 0 24 3.84157 0
gene 1 13 7 1.35848 0 25 1.35848 1
gene 2 1 13 2.17781 0 108 2.17781 1
gene 2 3 7 0.562907 0 122 0 1
genomeend 135

/* Organism #136 Fitness: 4.23912 Error: 1.94109 */
genomestart 136
trait 1 0.1 0 0 0 0 0 0 0 
trait 2 0.2 0 0 0 0 0 0 0 
trait 3 0.3 0 0 0 0 0 0 0 
node 1 1 1 3
node 2 2 1 1
node 3 3 1 1
node 4 2 0 2
node 7 1 0 0
node 13 1 0 0
gene 1 1 4 -1.58278 0 1 -1.58278 1
gene 1 2 4 2.86746 0 2 2.86746 1
gene 1 3 4 2.77134 0 3 2.77134 1
gene 1 2 7 -2.6087 0 8 -2.6087 0
gene 1 7 4 6.83225 0 9 6.83225 1
gene 1 2 13 2.19948 0 24 2.19948 0
gene 1 13 7 -0.987791 0 25 -0.987791 1
gene 2 1 13 1.88452 0 108 1.88452 1
genomeend 136

/* Organism #137 Fitness: 6.79906 Error: 1.3925 */
genomestart 137
trait 1 0.1 0 0 0 0 0 0 0 
trait 2 0.2 0 0 0 0 0 0 0 
trait 3 0.3 0 0 0 0 0 0 0 
node 1 1 1 3
node 2 2 1 1
node 3 3 1 1
node 4 2 0 2
node 7 1 0 0
node 13 1 0 0
gene 1 1 4 -3.83834 0 1 -3.83834 1
gene 1 2 4 6.69539 0 2 6.69539 1
gene 1 3 4 -1.16545 0 3 -1.16545 1
gene 1 2 7 -1.44464 0 8 -1.44464 1
gene 1 7 4 6.85614 0 9 6.85614 1
gene 1 2 13 4.00581 0 24 4.00581 0
gene 1 13 7 1.83405 0 25 1.83405 1
gene 2 1 13 -0.226384 0 108 -0.226384 1
gene 2 3 7 -0.237665 0 122 -0.237665 1
genomeend 137

/* Organism #138 Fitness: 9 Error: 1 */
genomestart 138
trait 1 0.1 0 0 0 0 0 0 0 
trait 2 0.2 0 0 0 0 0 0 0 
trait 3 0.3 0 0 0 0 0 0 0 
node 1 1 1 3
node 2 2 1 1
node 3 3 1 1
node 4 2 0 2
node 7 1 0 0
node 13 1 0 0
gene 1 1 4 -0.721282 0 1 -0.721282 1
gene 1 2 4 3.83146 0 2 3.83146 1
gene 1 3 4 0.380777 0 3 0.380777 1
gene 1 2 7 -2.35949 0 8 -2.35949 1
gene 1 7 4 4.89049 0 9 4.89049 1
gene 1 2 13 1.88307 0 24 1.88307 0
gene 1 13 7 3.22761 0 25 3.22761 1
gene 2 1 13 4.43402 0 108 4.43402 1
gene 2 3 7 -1.1266 0 122 -1.1266 1
genomeend 138

/* Organism #139 Fitness: 9 Error: 1 */
genomestart 139
trait 1 0.1 0 0 0 0 0 0 0 
trait 2 0.2 0 0 0 0 0 0 0 
trait 3 0.3 0 0 0 0 0 0 0 
node 1 1 1 3
node 2 2 1 1
node 3 3 1 1
node 4 2 0 2
node 7 1 0 0
node 13 1 0 0
gene 1 1 4 0.421172 0 1 0.421172 1
gene 1 2 4 2.11068 0 2 2.11068 1
gene 1 3 4 0.380777 0 3 0.380777 1
gene 1 2 7 -0.433143 0 8 -0.433143 0
gene 1 7 4 6.05311 0 9 6.05311 1
gene 1 2 13 1.72979 0 24 1.72979 0
gene 1 13 7 0.268464 0 25 0.268464 1
gene 2 1 13 0.279403 0 108 0.279403 1
genomeend 139

/* Organism #140 Fitness: 9 Error: 1 */
genomestart 140
trait 1 0.1 0 0 0 0 0 0 0 
trait 2 0.2 0 0 0 0 0 0 0 
trait 3 0.3 0 0 0 0 0 0 0 
node 1 1 1 3
node 2 2 1 1
node 3 3 1 1
node 4 2 0 2
node 7 1 0 0
node 13 1 0 0
gene 1 1 4 -2.24617 0 1 -2.24617 1
gene 1 2 4 3.29578 0 2 3.29578 1
gene 1 3 4 -0.00663757 0 3 -0.00663757 1
gene 1 2 7 -1.69146 0 8 -1.69146 1
gene 1 7 4 7.20871 0 9 7.20871 1
gene 1 2 13 4.69046 0 24 4.69046 0
gene 1 13 7 3.70199 0 25 3.70199 1
gene 2 1 13 1.76519 0 108 1.76519 1
gene 2 3 7 2.91424 0 122 2.91424 1
genomeend 140

/* Organism #141 Fitness: 8.99876 Error: 1.00021 */
genomestart 141
trait 1 0.1 0 0.946464 0 0.369636 0 0 0.598524 
trait 2 0.2 0 0 0 0 0 0 0 
trait 3 0.3 0 0 0 0 0 0 0 
node 1 1 1 3
node 2 2 1 1
node 3 3 1 1
node 4 2 0 2
node 7 1 0 0
node 13 1 0 0
gene 1 1 4 0.958864 0 1 0.958864 1
gene 1 2 4 3.99811 0 2 3.99811 1
gene 1 3 4 2.67738 0 3 2.67738 1
gene 1 2 7 -1.01371 0 8 -1.01371 1
gene 1 7 4 5.58113 0 9 5.58113 1
gene 1 2 13 4.02186 0 24 4.02186 0
gene 1 13 7 -0.380457 0 25 -0.380457 1
gene 2 1 13 3.83852 0 108 3.83852 1
gene 2 3 7 0.53612 0 122 0.53612 1
genomeend 141

/* Species #15 : (Size 7) (AF 8.1172) (Age 5)  */


/* Organism #142 Fitness: 9.27353 Error: 0.954752 */
genomestart 142
trait 1 0.1 0 0 0 0 0 0 0 
trait 2 0.449337 0 0 0 0 0 0 0 
trait 3 0.3 0 0 0 0 0 0 0 
node 1 1 1 3
node 2 2 1 1
node 3 2 1 1
node 4 2 0 2
node 7 1 0 0
node 13 1 0 0
node 19 1 0 0
node 32 1 0 0
gene 1 1 4 -2.15727 0 1 -2.15727 1
gene 1 2 4 0.156555 0 2 0.156555 1
gene 1 3 4 3.92159 0 3 3.92159 0
gene 1 2 7 2.10078 0 8 2.10078 0
gene 1 7 4 4.90942 0 9 4.90942 1
gene 1 2 13 3.45274 0 24 3.45274 0
gene 1 13 7 1.64647 0 25 1.64647 1
gene 1 3 19 -1.13574 0 47 -1.13574 1
gene 1 19 4 0.780213 0 48 0.780213 1
gene 1 2 32 1.765 0 79 1.765 1
gene 1 32 13 -0.907295 0 80 -0.907295 1
genomeend 142

/* Organism #143 Fitness: 9 Error: 1 */
genomestart 143
trait 1 0.1 0 0 0 0 0 0 0 
trait 2 0.449337 0 0 0 0 0 0 0 
trait 3 0.3 0 0 0 0 0 0 0 
node 1 1 1 3
node 2 2 1 1
node 3 2 1 1
node 4 2 0 2
node 7 1 0 0
node 13 1 0 0
node 19 1 0 0
node 32 1 0 0
gene 1 1 4 -2.15727 0 1 -2.15727 1
gene 1 2 4 0.590289 0 2 0.590289 1
gene 1 3 4 0.499505 0 3 0.499505 0
gene 1 2 7 2.35329 0 8 2.35329 0
gene 1 7 4 4.29749 0 9 4.29749 1
gene 1 2 13 3.45274 0 24 3.45274 0
gene 1 13 7 2.75949 0 25 2.75949 1
gene 1 3 19 0.748825 0 47 0.748825 1
gene 1 19 4 3.37277 0 48 3.37277 1
gene 1 2 32 1.28163 0 79 1.28163 1
gene 1 32 13 1.43881 0 80 1.43881 1
genomeend 143

/* Organism #144 Fitness: 9 Error: 1 */
genomestart 144
trait 1 0.1 0 0 0 0 0 0 0 
trait 2 0.449337 0 0 0 0 0 0 0 
trait 3 0.3 0 0 0 0 0 0 0 
node 1 1 1 3
node 2 2 1 1
node 3 2 1 1
node 4 2 0 2
node 7 1 0 0
node 13 1 0 0
node 19 1 0 0
node 32 1 0 0
gene 1 1 4 1.17707 0 1 1.17707 1
gene 1 2 4 -0.588155 0 2 -0.588155 1
gene 1 3 4 2.98891 0 3 2.98891 0
gene 1 2 7 3.90466 0 8 3.90466 1
gene 1 7 4 4.68517 0 9 4.68517 1
gene 1 2 13 2.90853 0 24 2.90853 0
gene 1 13 7 1.68487 0 25 1.68487 1
gene 1 3 19 -1.69869 0 47 -1.69869 1
gene 1 19 4 3.74353 0 48 3.74353 1
gene 1 2 32 3.13171 0 79 3.13171 1
gene 1 32 13 1.43881 0 80 1.43881 1
gene 3 3 13 -1.00515 0 134 -1.00515 1
genomeend 144

/* Organism #145 Fitness: 3.14173 Error: 2.22751 */
genomestart 145
trait 1 0.1 0 0 0 0 0 0 0 
trait 2 0.449337 0 0 0 0 0 0 0 
trait 3 0.3 0 0 0 0 0 0 0 
node 1 1 1 3
node 2 2 1 1
node 3 2 1 1
node 4 2 0 2
node 7 1 0 0
node 13 1 0 0
node 19 1 0 0
node 32 1 0 0
gene 1 1 4 -2.93674 0 1 -2.93674 1
gene 1 2 4 -0.719787 0 2 -0.719787 1
gene 1 3 4 5.79602 0 3 5.79602 0
gene 1 2 7 1.77785 0 8 1.77785 0
gene 1 7 4 7.25546 0 9 7.25546 1
gene 1 2 13 1.63055 0 24 1.63055 0
gene 1 13 7 -2.07109 0 25 -2.07109 1
gene 1 3 19 0.771326 0 47 0.771326 1
gene 1 19 4 -0.541432 0 48 -0.541432 1
gene 1 2 32 0.55355 0 79 0.55355 1
gene 1 32 13 0.108153 0 80 0.108153 1
genomeend 145

/* Organism #146 Fitness: 8.41562 Error: 1.09903 */
genomestart 146
trait 1 0.1 0 0 0 0 0 0 0 
trait 2 0.449337 0 0 0 0 0 0 0 
trait 3 0.3 0 0 0 0 0 0 0 
node 1 1 1 3
node 2 2 1 1
node 3 2 1 1
node 4 2 0 2
node 7 1 0 0
node 13 1 0 0
node 19 1 0 0
node 32 1 0 0
gene 1 1 4 1.5658 0 1 1.5658 1
gene 1 2 4 -0.797665 0 2 -0.797665 1
gene 1 3 4 -0.174215 0 3 -0.174215 0
gene 1 2 7 3.92571 0 8 3.92571 0
gene 1 7 4 -2.01279 0 9 -2.01279 1
gene 1 2 13 2.87242 0 24 2.87242 1
gene 1 13 7 -2.25074 0 25 -2.25074 1
gene 1 3 19 0.351185 0 47 0.351185 1
gene 1 19 4 0.905603 0 48 0.905603 1
gene 1 2 32 -2.28426 0 79 -2.28426 1
gene 1 32 13 1.07634 0 80 1.07634 1
gene 3 3 13 0.586468 0 134 0.586468 1
genomeend 146

/* Organism #147 Fitness: 9 Error: 1 */
genomestart 147
trait 1 0.1 0 0 0 0 0 0 0 
trait 2 0.449337 0 0 0 0 0 0 0 
trait 3 0.3 0 0 0 0 0 0 0 
node 1 1 1 3
node 2 2 1 1
node 3 2 1 1
node 4 2 0 2
node 7 1 0 0
node 13 1 0 0
node 19 1 0 0
node 32 1 0 0
gene 1 1 4 1.68662 0 1 1.68662 1
gene 1 2 4 -2.20627 0 2 -2.20627 1
gene 1 3 4 4.00367 0 3 4.00367 0
gene 1 2 7 4.09866 0 8 4.09866 0
gene 1 7 4 4.80908 0 9 4.80908 1
gene 1 2 13 2.34705 0 24 2.34705 0
gene 1 13 7 1.64647 0 25 1.64647 1
gene 1 3 19 0.430283 0 47 0.430283 1
gene 1 19 4 1.98568 0 48 1.98568 1
gene 1 2 32 1.40728 0 79 1.40728 1
gene 1 32 13 2.21 0 80 2.21 1
genomeend 147

/* Organism #148 Fitness: 8.98954 Error: 1.00174 */
genomestart 148
trait 1 0.1 0 0 0 0 0 0 0 
trait 2 0.449337 0 0 0 0 0 0 0 
trait 3 0.3 0 0 0 0 0 0 0 
node 1 1 1 3
node 2 2 1 1
node 3 2 1 1
node 4 2 0 2
node 7 1 0 0
node 13 1 0 0
node 19 1 0 0
node 32 1 0 0
gene 1 1 4 1.17538 0 1 1.17538 1
gene 1 2 4 -2.17438 0 2 -2.17438 1
gene 1 3 4 5.16199 0 3 5.16199 0
gene 1 2 7 4.54665 0 8 4.54665 0
gene 1 7 4 5.213 0 9 5.213 1
gene 1 2 13 3.43917 0 24 3.43917 0
gene 1 13 7 0.319876 0 25 0.319876 1
gene 1 3 19 -3.22955 0 47 -3.22955 1
gene 1 19 4 -1.5022 0 48 -1.5022 1
gene 1 2 32 3.44164 0 79 3.44164 1
gene 1 32 13 -0.268302 0 80 -0.268302 1
genomeend 148

/* Species #16 : (Size 1) (AF 14.0862) (Age 1)  */


/* Organism #149 Fitness: 14.0862 Error: 0.246837 */
genomestart 149
trait 1 0.1 0 0 0 0 0 0 0 
trait 2 0.2 0 0 0 0 0 0 0 
trait 3 0.3 0 0 0 0 0 0 0 
node 1 1 1 3
node 2 2 1 1
node 3 2 1 1
node 4 2 0 2
node 7 1 0 0
node 8 1 0 0
node 12 1 0 0
node 50 1 0 0
gene 1 1 4 -0.635366 0 1 -0.635366 1
gene 1 2 4 -1.35269 0 2 -1.35269 0
gene 1 3 4 -1.59919 0 3 -1.59919 1
gene 1 2 7 -0.656259 0 8 -0.656259 0
gene 1 7 4 4.21833 0 9 4.21833 0
gene 1 2 8 -2.34791 0 10 -2.34791 1
gene 1 8 7 1.6723 0 11 1.6723 1
gene 1 7 12 0.848893 0 22 0.848893 1
gene 1 12 4 2.55953 0 23 2.55953 1
gene 1 2 50 1 0 138 0 1
gene 1 50 7 -0.656259 0 139 0 1
genomeend 149
