
/* Species #57 : (Size 6) (AF 13.6673) (Age 18)  */


/* Organism #0 Fitness: 16 Error: 3.08578e-10 */
genomestart 0
trait 1 0.174215 0.0220945 0.0260485 0 0 0 0.0958787 0.0621698 
trait 2 0.2 0 0.00427095 0 0.0751076 0 0.000764936 0 
trait 3 0.285383 0.0300801 0.0566317 0 0.75213 0 0.0220778 0.00473381 
node 1 3 1 3
node 2 1 1 1
node 3 2 1 1
node 4 2 0 2
node 6 3 0 0
node 53 2 0 0
node 67 1 0 0
node 131 1 0 0
node 265 1 0 0
node 270 1 0 0
node 318 1 0 0
gene 1 1 4 7.51723 0 1 7.51723 1
gene 1 2 4 -6.86455 0 2 -6.86455 0
gene 1 3 4 -5.94798 0 3 -5.94798 1
gene 1 3 6 0.5428 0 6 0.5428 0
gene 1 6 4 -0.558934 0 7 -0.558934 1
gene 2 1 6 -1.62084 0 85 -1.62084 1
gene 1 6 53 3.42983 0 152 3.42983 0
gene 1 53 4 6.15437 0 153 6.15437 1
gene 1 3 67 -1.84486 0 193 -1.84486 1
gene 1 67 4 7.50212 0 194 7.50212 1
gene 1 6 131 0.186141 0 415 0.186141 1
gene 1 131 53 1.89023 0 416 1.89023 0
gene 3 131 67 2.4816 0 594 2.4816 1
gene 3 2 53 -1.93196 0 634 -1.93196 1
gene 3 67 53 -1.21225 0 648 -1.21225 1
gene 2 1 131 -0.166091 0 899 0.00236779 1
gene 1 2 265 1.40546 0 907 1.40546 1
gene 1 265 4 -6.27596 0 908 -6.27596 1
gene 1 131 270 1.54308 0 928 0.793076 1
gene 1 270 53 1.22194 0 929 0.305486 1
gene 1 2 270 -0.0914387 0 1059 -0.0914387 0
gene 1 2 318 1 0 1089 0 1
gene 1 318 270 -0.0914387 0 1090 0 1
genomeend 0

/* Organism #1 Fitness: 16 Error: 5.87941e-06 */
genomestart 1
trait 1 0.174215 0.0220945 0.0260485 0 0 0 0.0958787 0.0621698 
trait 2 0.2 0 0.00427095 0 0.0751076 0 0.000764936 0 
trait 3 0.285383 0.0300801 0.0566317 0 0.75213 0 0.0220778 0.00473381 
node 1 3 1 3
node 2 1 1 1
node 3 2 1 1
node 4 2 0 2
node 6 3 0 0
node 53 2 0 0
node 67 1 0 0
node 131 1 0 0
node 265 1 0 0
node 270 1 0 0
node 318 1 0 0
gene 1 1 4 5.51662 0 1 5.51662 1
gene 1 2 4 -7.07065 0 2 -7.07065 0
gene 1 3 4 -7.3541 0 3 -7.3541 1
gene 1 3 6 -1.00685 0 6 -1.00685 1
gene 1 6 4 -0.392886 0 7 -0.392886 1
gene 2 1 6 -2.03598 0 85 -2.03598 1
gene 1 6 53 3.29217 0 152 3.29217 1
gene 1 53 4 7.29818 0 153 7.29818 1
gene 1 3 67 -1.47428 0 193 -1.47428 1
gene 1 67 4 7.94984 0 194 7.94984 1
gene 1 6 131 -1.30554 0 415 -1.30554 1
gene 1 131 53 -0.105803 0 416 -0.105803 0
gene 3 131 67 2.49875 0 594 2.49875 1
gene 3 2 53 -4.40173 0 634 -4.40173 1
gene 3 67 53 -0.143692 0 648 -0.143692 1
gene 2 1 131 -0.718332 0 899 -0.718332 1
gene 1 2 265 1.18915 0 907 1.18915 1
gene 1 265 4 -4.54061 0 908 -4.54061 1
gene 1 131 270 2.00982 0 928 2.00982 1
gene 1 270 53 0.459307 0 929 0.459307 1
gene 1 2 270 -0.501891 0 1059 -0.501891 0
gene 1 2 318 1.83782 0 1089 1.83782 1
gene 1 318 270 1.14401 0 1090 1.14401 1
genomeend 1

/* Organism #2 Fitness: 9 Error: 1 */
genomestart 2
trait 1 0.174215 0.0220945 0.0260485 0 0 0 0.0958787 0.0621698 
trait 2 0.2 0 0.00427095 0 0.0751076 0 0.000764936 0 
trait 3 0.285383 0.0300801 0.0566317 0 0.75213 0 0.0220778 0.00473381 
node 1 3 1 3
node 2 1 1 1
node 3 2 1 1
node 4 2 0 2
node 6 3 0 0
node 53 2 0 0
node 67 1 0 0
node 131 1 0 0
node 265 1 0 0
node 270 1 0 0
node 318 1 0 0
gene 1 1 4 7.4045 0 1 7.4045 1
gene 1 2 4 -8 0 2 -8 0
gene 1 3 4 -6.34775 0 3 -6.34775 1
gene 1 3 6 0.738246 0 6 0.738246 0
gene 1 6 4 -1.94824 0 7 -1.94824 1
gene 2 1 6 -0.925009 0 85 -0.925009 1
gene 1 6 53 5.68562 0 152 5.68562 0
gene 1 53 4 3.85958 0 153 3.85958 1
gene 1 3 67 -0.855012 0 193 -0.855012 1
gene 1 67 4 8 0 194 8 1
gene 1 6 131 1.99294 0 415 1.99294 1
gene 1 131 53 1.48742 0 416 1.48742 0
gene 3 131 67 4.83011 0 594 4.83011 1
gene 3 2 53 -4.01441 0 634 -4.01441 1
gene 3 67 53 -3.67026 0 648 -3.67026 1
gene 2 1 131 1.02774 0 899 1.02774 1
gene 1 2 265 1.00429 0 907 1.00429 1
gene 1 265 4 -5.07328 0 908 -5.07328 1
gene 1 131 270 1.46321 0 928 1.46321 1
gene 1 270 53 0.739261 0 929 0.739261 1
gene 1 2 270 -2.36624 0 1059 -2.36624 0
gene 1 2 318 0.262504 0 1089 0.262504 1
gene 1 318 270 -0.0914387 0 1090 -0.0914387 1
genomeend 2

/* Organism #3 Fitness: 16 Error: 5.95618e-10 */
genomestart 3
trait 1 0.174215 0.0220945 0.0260485 0 0 0 0.0958787 0.0621698 
trait 2 0.2 0 0.00427095 0 0.0751076 0 0.000764936 0 
trait 3 0.285383 0.0300801 0.0566317 0 0.75213 0 0.0220778 0.00473381 
node 1 3 1 3
node 2 1 1 1
node 3 2 1 1
node 4 2 0 2
node 6 3 0 0
node 53 2 0 0
node 67 1 0 0
node 131 1 0 0
node 265 1 0 0
node 270 1 0 0
node 318 1 0 0
node 321 1 0 0
gene 1 1 4 7.51723 0 1 7.51723 1
gene 1 2 4 -6.86455 0 2 -6.86455 0
gene 1 3 4 -5.69598 0 3 -5.69598 1
gene 1 3 6 0.5428 0 6 0.5428 0
gene 1 6 4 -0.558934 0 7 -0.558934 1
gene 2 1 6 -1.62084 0 85 -1.62084 1
gene 1 6 53 3.91013 0 152 3.91013 0
gene 1 53 4 6.15437 0 153 6.15437 1
gene 1 3 67 -2.32833 0 193 -2.32833 1
gene 1 67 4 7.50212 0 194 7.50212 1
gene 1 6 131 -0.289668 0 415 -0.289668 0
gene 1 131 53 1.89023 0 416 1.89023 0
gene 3 131 67 2.18548 0 594 2.18548 1
gene 3 2 53 -1.93196 0 634 -1.93196 1
gene 3 67 53 -1.21225 0 648 -1.21225 1
gene 2 1 131 -0.334135 0 899 -0.109524 1
gene 1 2 265 0.972834 0 907 0.972834 1
gene 1 265 4 -6.27596 0 908 -6.27596 1
gene 1 131 270 1 0 928 0 1
gene 1 270 53 1.22194 0 929 0 1
gene 1 2 270 -0.620216 0 1059 -0.620216 0
gene 1 2 318 1 0 1089 0 1
gene 1 318 270 -0.0914387 0 1090 0 1
gene 1 6 321 1 0 1098 0 1
gene 1 321 131 -0.289668 0 1099 0 1
genomeend 3

/* Organism #4 Fitness: 9.00389 Error: 0.999353 */
genomestart 4
trait 1 0.174215 0.0220945 0.0260485 0 0 0 0.0958787 0.0621698 
trait 2 0.2 0 0.00427095 0 0.0751076 0 0.000764936 0 
trait 3 0.285383 0.0300801 0.0566317 0 0.75213 0 0.0220778 0.00473381 
node 1 3 1 3
node 2 1 1 1
node 3 2 1 1
node 4 2 0 2
node 6 3 0 0
node 53 2 0 0
node 67 1 0 0
node 131 1 0 0
node 265 1 0 0
node 270 1 0 0
node 318 1 0 0
gene 1 1 4 6.18977 0 1 6.18977 1
gene 1 2 4 -6.46111 0 2 -6.46111 0
gene 1 3 4 -7.7022 0 3 -7.7022 1
gene 1 3 6 1.8853 0 6 1.8853 0
gene 1 6 4 -0.251106 0 7 -0.251106 1
gene 2 1 6 -2.72905 0 85 -2.72905 1
gene 1 6 53 4.42629 0 152 4.42629 0
gene 1 53 4 4.02149 0 153 4.02149 1
gene 1 3 67 -4.22434 0 193 -4.22434 1
gene 1 67 4 7.94103 0 194 7.94103 1
gene 1 6 131 1.82066 0 415 1.82066 1
gene 1 131 53 0.353775 0 416 0.353775 0
gene 2 131 67 2.4816 0 594 2.4816 1
gene 3 2 53 0.12258 0 634 0.12258 1
gene 3 67 53 -1.14875 0 648 -1.14875 1
gene 2 1 131 -0.436734 0 899 -0.436734 1
gene 1 2 265 2.2653 0 907 2.2653 1
gene 1 265 4 -8 0 908 -8 1
gene 1 131 270 -0.0286635 0 928 -0.0286635 1
gene 1 270 53 3.37369 0 929 3.37369 1
gene 1 2 270 -0.124329 0 1059 -0.124329 0
gene 1 2 318 -0.834867 0 1089 -0.834867 1
gene 1 318 270 0.460995 0 1090 0.460995 1
genomeend 4

/* Organism #5 Fitness: 16 Error: 3.73291e-09 */
genomestart 5
trait 1 0.174215 0.0220945 0.0260485 0 0 0 0.0958787 0.0621698 
trait 2 0.2 0 0.00427095 0 0.0751076 0 0.000764936 0 
trait 3 0.285383 0.0300801 0.0566317 0 0.75213 0 0.0220778 0.00473381 
node 1 3 1 3
node 2 1 1 1
node 3 2 1 1
node 4 2 0 2
node 6 3 0 0
node 53 2 0 0
node 67 1 0 0
node 131 1 0 0
node 265 1 0 0
node 270 1 0 0
gene 1 1 4 8 0 1 8 1
gene 1 2 4 -7.34905 0 2 -7.34905 0
gene 1 3 4 -8 0 3 -8 1
gene 1 3 6 -0.301253 0 6 -0.301253 0
gene 1 6 4 -0.702143 0 7 -0.702143 1
gene 2 1 6 -1.13637 0 85 -1.13637 1
gene 1 6 53 5.57503 0 152 5.57503 1
gene 1 53 4 7.09847 0 153 7.09847 1
gene 1 3 67 -3.65587 0 193 -3.65587 1
gene 1 67 4 8 0 194 8 1
gene 1 6 131 -1.2375 0 415 -1.2375 1
gene 1 131 53 2.86698 0 416 2.86698 0
gene 3 131 67 1.30631 0 594 1.30631 1
gene 3 2 53 -2.30134 0 634 -2.30134 1
gene 3 67 53 -0.393633 0 648 -0.393633 1
gene 2 1 131 0.37403 0 899 0.37403 1
gene 1 2 265 0.539621 0 907 0.539621 1
gene 1 265 4 -6.27596 0 908 -6.27596 1
gene 1 131 270 0.995372 0 928 0.995372 1
gene 1 270 53 1.22194 0 929 1.22194 1
gene 1 2 270 -0.620216 0 1059 -0.620216 1
genomeend 5

/* Species #58 : (Size 9) (AF 12.9316) (Age 18)  */


/* Organism #6 Fitness: 16 Error: 2.08843e-18 */
genomestart 6
trait 1 0.174215 0.0220945 0.0260485 0 0 0 0.0958787 0.0621698 
trait 2 0.2 0 0.00427095 0 0.0751076 0 0.000764936 0 
trait 3 0.285383 0.0300801 0.0566317 0 0.75213 0 0.0220778 0.00473381 
node 1 1 1 3
node 2 1 1 1
node 3 2 1 1
node 4 2 0 2
node 6 3 0 0
node 53 2 0 0
node 67 1 0 0
node 131 1 0 0
gene 1 1 4 6.23695 0 1 6.23695 1
gene 1 2 4 -8 0 2 -8 1
gene 1 3 4 -6.62772 0 3 -6.62772 1
gene 1 3 6 1.89407 0 6 1.89407 0
gene 1 6 4 -1.48677 0 7 -1.48677 0
gene 3 1 6 1.35754 0 85 1.35754 1
gene 1 6 53 5.47345 0 152 5.47345 0
gene 1 53 4 8 0 153 8 1
gene 1 3 67 -4.90905 0 193 -4.90905 1
gene 1 67 4 3.36077 0 194 3.36077 1
gene 1 6 131 -0.379335 0 415 -0.379335 1
gene 1 131 53 1.08626 0 416 1.08626 1
gene 3 131 67 0.812714 0 594 0.812714 1
gene 3 2 53 -2.5428 0 634 -2.5428 1
gene 3 67 53 2.71566 0 648 2.71566 1
gene 3 1 67 1.67949 0 903 1.67949 1
gene 2 1 53 0.612244 0 909 0.612244 1
gene 2 3 131 1.13891 0 930 1.13891 1
gene 1 6 67 0.453012 0 961 0.453012 1
gene 2 1 131 1.48127 0 983 1.48127 1
genomeend 6

/* Organism #7 Fitness: 10.6616 Error: 0.734783 */
genomestart 7
trait 1 0.174215 0.0220945 0.0260485 0 0 0 0.0958787 0.0621698 
trait 2 0.2 0 0.00427095 0 0.0751076 0 0.000764936 0 
trait 3 0.285383 0.0300801 0.0566317 0 0.75213 0 0.0220778 0.00473381 
node 1 1 1 3
node 2 1 1 1
node 3 2 1 1
node 4 2 0 2
node 6 3 0 0
node 53 2 0 0
node 67 1 0 0
node 131 1 0 0
gene 1 1 4 6.62757 0 1 6.62757 1
gene 1 2 4 -8 0 2 -8 1
gene 1 3 4 -7.76412 0 3 -7.76412 1
gene 1 3 6 1.85368 0 6 1.85368 0
gene 1 6 4 0.886526 0 7 0.886526 0
gene 3 1 6 -2.2188 0 85 -2.2188 1
gene 1 6 53 4.71578 0 152 4.71578 0
gene 1 53 4 6.15749 0 153 6.15749 1
gene 1 3 67 -2.37062 0 193 -2.37062 1
gene 1 67 4 3.39176 0 194 3.39176 1
gene 1 6 131 -2.70033 0 415 -2.70033 1
gene 1 131 53 4.11198 0 416 4.11198 1
gene 3 131 67 1.01679 0 594 1.01679 1
gene 3 2 53 -3.72314 0 634 -3.72314 1
gene 3 67 53 4.3874 0 648 4.3874 1
gene 3 1 67 2.92699 0 903 2.92699 1
gene 2 1 53 3.24112 0 909 3.24112 1
gene 2 3 131 -2.46041 0 930 -2.46041 1
gene 1 6 67 0.858741 0 961 0.858741 1
gene 2 1 131 -1.52249 0 983 -1.52249 1
genomeend 7

/* Organism #8 Fitness: 12.989 Error: 0.395972 */
genomestart 8
trait 1 0.174215 0.0220945 0.0260485 0 0 0 0.0958787 0.0621698 
trait 2 0.2 0 0.00427095 0 0.0751076 0 0.000764936 0 
trait 3 0.285383 0.0300801 0.0566317 0 0.75213 0 0.0220778 0.00473381 
node 1 1 1 3
node 2 1 1 1
node 3 2 1 1
node 4 2 0 2
node 6 3 0 0
node 53 2 0 0
node 67 1 0 0
node 131 1 0 0
gene 1 1 4 6.61091 0 1 6.61091 1
gene 1 2 4 -0.602825 0 2 -0.602825 1
gene 1 3 4 -6.4187 0 3 -6.4187 1
gene 1 3 6 3.17088 0 6 3.17088 0
gene 1 6 4 0.506107 0 7 0.506107 0
gene 3 1 6 0.12269 0 85 0.12269 1
gene 1 6 53 4.48695 0 152 4.48695 0
gene 1 53 4 8 0 153 8 1
gene 1 3 67 -4.90905 0 193 -4.90905 1
gene 1 67 4 3.75268 0 194 3.75268 1
gene 1 6 131 -2.599 0 415 -2.599 1
gene 1 131 53 -0.756238 0 416 -0.756238 1
gene 3 131 67 0.505983 0 594 0.505983 1
gene 3 2 53 -0.875467 0 634 -0.875467 1
gene 3 67 53 0.693678 0 648 0.693678 1
gene 3 1 67 2.69131 0 903 2.69131 1
gene 2 1 53 -1.95175 0 909 -1.95175 1
gene 2 3 131 -2.39079 0 930 -2.39079 1
gene 1 6 67 -0.606783 0 961 -0.606783 1
gene 2 1 131 1.09228 0 983 1.09228 1
genomeend 8

/* Organism #9 Fitness: 9.04148 Error: 0.993094 */
genomestart 9
trait 1 0.174215 0.0220945 0.0260485 0 0 0 0.0958787 0.0621698 
trait 2 0.2 0 0.00427095 0 0.0751076 0 0.000764936 0 
trait 3 0.285383 0.0300801 0.0566317 0 0.75213 0 0.0220778 0.00473381 
node 1 1 1 3
node 2 1 1 1
node 3 2 1 1
node 4 2 0 2
node 6 3 0 0
node 53 2 0 0
node 67 1 0 0
node 131 1 0 0
gene 1 1 4 4.58521 0 1 4.58521 1
gene 1 2 4 -7.65503 0 2 -7.65503 1
gene 1 3 4 -7.10879 0 3 -7.10879 1
gene 1 3 6 3.23166 0 6 3.23166 0
gene 1 6 4 -2.29836 0 7 -2.29836 0
gene 3 1 6 -0.815456 0 85 -0.815456 1
gene 1 6 53 3.92191 0 152 3.92191 0
gene 1 53 4 8 0 153 8 1
gene 1 3 67 -2.51741 0 193 -2.51741 1
gene 1 67 4 3.18801 0 194 3.18801 1
gene 1 6 131 -0.0705219 0 415 -0.0705219 1
gene 1 131 53 1.66872 0 416 1.66872 1
gene 3 131 67 2.87324 0 594 2.87324 1
gene 3 2 53 -4.06573 0 634 -4.06573 1
gene 3 67 53 5.13714 0 648 5.13714 1
gene 3 1 67 2.69961 0 903 2.69961 1
gene 2 1 53 -0.737845 0 909 -0.737845 1
gene 2 3 131 1.13891 0 930 1.13891 1
gene 1 6 67 0.453012 0 961 0.453012 1
gene 2 1 131 2.15303 0 983 2.15303 1
genomeend 9

/* Organism #10 Fitness: 8.87362 Error: 1.02114 */
genomestart 10
trait 1 0.174215 0.0220945 0.0260485 0 0 0 0.0958787 0.0621698 
trait 2 0.2 0 0.00427095 0 0.0751076 0 0.000764936 0 
trait 3 0.285383 0.0300801 0.0566317 0 0.75213 0 0.0220778 0.00473381 
node 1 1 1 3
node 2 1 1 1
node 3 2 1 1
node 4 2 0 2
node 6 3 0 0
node 53 2 0 0
node 67 1 0 0
node 131 1 0 0
gene 1 1 4 5.42228 0 1 5.42228 1
gene 1 2 4 1.47902 0 2 1.47902 1
gene 1 3 4 -4.58975 0 3 -4.58975 1
gene 1 3 6 0.0661678 0 6 0.0661678 0
gene 1 6 4 -2.05194 0 7 -2.05194 0
gene 3 1 6 0.0847936 0 85 0.0847936 1
gene 1 6 53 7.73751 0 152 7.73751 0
gene 1 53 4 -0.0543405 0 153 -0.0543405 1
gene 1 3 67 -6.75877 0 193 -6.75877 1
gene 1 67 4 3.36077 0 194 3.36077 1
gene 1 6 131 1.18145 0 415 1.18145 1
gene 1 131 53 -1.19314 0 416 -1.19314 1
gene 3 131 67 2.56071 0 594 2.56071 1
gene 3 2 53 -2.60947 0 634 -2.60947 1
gene 3 67 53 5.12386 0 648 5.12386 1
gene 3 1 67 -0.246916 0 903 -0.246916 1
gene 2 1 53 2.11637 0 909 2.11637 1
gene 2 3 131 1.58881 0 930 1.58881 1
gene 1 6 67 0.453012 0 961 0.453012 1
gene 2 1 131 1.48127 0 983 1.48127 1
genomeend 10

/* Organism #11 Fitness: 13.7627 Error: 0.290187 */
genomestart 11
trait 1 0.174215 0.0220945 0.0260485 0 0 0 0.0958787 0.0621698 
trait 2 0.2 0 0.00427095 0 0.0751076 0 0.000764936 0 
trait 3 0.285383 0.0300801 0.0566317 0 0.75213 0 0.0220778 0.00473381 
node 1 1 1 3
node 2 1 1 1
node 3 2 1 1
node 4 2 0 2
node 6 3 0 0
node 53 2 0 0
node 67 1 0 0
node 131 1 0 0
gene 1 1 4 6.6695 0 1 6.6695 1
gene 1 2 4 -7.93863 0 2 -7.93863 1
gene 1 3 4 -6.60644 0 3 -6.60644 1
gene 1 3 6 -0.0763312 0 6 -0.0763312 0
gene 1 6 4 1.36088 0 7 1.36088 0
gene 3 1 6 3.15919 0 85 3.15919 1
gene 1 6 53 6.13146 0 152 6.13146 0
gene 1 53 4 7.7365 0 153 7.7365 1
gene 1 3 67 -2.85527 0 193 -2.85527 1
gene 1 67 4 4.73532 0 194 4.73532 1
gene 1 6 131 -0.594796 0 415 -0.594796 1
gene 1 131 53 0.553251 0 416 0.553251 1
gene 3 131 67 -0.966917 0 594 -0.966917 1
gene 3 2 53 -2.22455 0 634 -2.22455 1
gene 3 67 53 1.83669 0 648 1.83669 1
gene 3 1 67 0.371729 0 903 0.371729 1
gene 2 1 53 2.72667 0 909 2.72667 1
gene 2 3 131 0.14993 0 930 0.14993 1
gene 1 6 67 -1.26226 0 961 -1.26226 1
gene 2 1 131 4.03081 0 983 4.03081 1
genomeend 11

/* Organism #12 Fitness: 15.9971 Error: 0.000359936 */
genomestart 12
trait 1 0.174215 0.0220945 0.0260485 0 0 0 0.0958787 0.0621698 
trait 2 0.2 0 0.00427095 0 0.0751076 0 0.000764936 0 
trait 3 0.285383 0.0300801 0.0566317 0 0.75213 0 0.0220778 0.00473381 
node 1 1 1 3
node 2 1 1 1
node 3 2 1 1
node 4 2 0 2
node 6 3 0 0
node 53 2 0 0
node 67 1 0 0
node 131 1 0 0
gene 1 1 4 4.34522 0 1 4.34522 1
gene 1 2 4 -8 0 2 -8 1
gene 1 3 4 -8 0 3 -8 1
gene 1 3 6 2.07757 0 6 2.07757 0
gene 1 6 4 0.811203 0 7 0.811203 0
gene 3 1 6 0.578978 0 85 0.578978 1
gene 1 6 53 2.84942 0 152 2.84942 0
gene 1 53 4 8 0 153 8 1
gene 1 3 67 -3.67304 0 193 -3.67304 1
gene 1 67 4 3.27135 0 194 3.27135 1
gene 1 6 131 -1.97267 0 415 -1.97267 1
gene 1 131 53 5.30032 0 416 5.30032 1
gene 3 131 67 0.45193 0 594 0.45193 1
gene 3 2 53 -4.79622 0 634 -4.79622 1
gene 3 67 53 2.21835 0 648 2.21835 1
gene 3 1 67 4.24224 0 903 4.24224 1
gene 2 1 53 -0.547337 0 909 -0.547337 1
gene 2 3 131 0.0234201 0 930 0.0234201 1
gene 1 6 67 -0.869543 0 961 -0.869543 1
gene 2 1 131 1.9035 0 983 1.9035 1
genomeend 12

/* Organism #13 Fitness: 16 Error: 6.04705e-14 */
genomestart 13
trait 1 0.174215 0.0220945 0.0260485 0 0 0 0.0958787 0.0621698 
trait 2 0.2 0 0.00427095 0 0.0751076 0 0.000764936 0 
trait 3 0.285383 0.0300801 0.0566317 0 0.75213 0 0.0220778 0.00473381 
node 1 1 1 3
node 2 1 1 1
node 3 2 1 1
node 4 2 0 2
node 6 3 0 0
node 53 2 0 0
node 67 1 0 0
node 131 1 0 0
gene 1 1 4 8 0 1 8 1
gene 1 2 4 -8 0 2 -8 1
gene 1 3 4 -6.79354 0 3 -6.79354 1
gene 1 3 6 0.153536 0 6 0.153536 0
gene 1 6 4 -0.541817 0 7 -0.541817 0
gene 3 1 6 2.75676 0 85 2.75676 1
gene 1 6 53 4.67034 0 152 4.67034 0
gene 1 53 4 8 0 153 8 1
gene 1 3 67 -4.79116 0 193 -4.79116 1
gene 1 67 4 -0.797859 0 194 -0.797859 1
gene 1 6 131 -0.54567 0 415 -0.54567 1
gene 1 131 53 1.86392 0 416 1.86392 1
gene 3 131 67 0.59572 0 594 0.59572 1
gene 3 2 53 -4.88651 0 634 -4.88651 1
gene 3 67 53 4.14408 0 648 4.14408 1
gene 3 1 67 0.987428 0 903 0.987428 1
gene 2 1 53 -0.728586 0 909 -0.728586 1
gene 2 3 131 0.174754 0 930 0.174754 1
gene 1 6 67 0.918831 0 961 0.918831 1
gene 2 1 131 2.80002 0 983 2.80002 1
genomeend 13

/* Organism #14 Fitness: 13.0585 Error: 0.386346 */
genomestart 14
trait 1 0.174215 0.0220945 0.0260485 0 0 0 0.0958787 0.0621698 
trait 2 0.2 0 0.00427095 0 0.0751076 0 0.000764936 0 
trait 3 0.285383 0.0300801 0.0566317 0 0.75213 0 0.0220778 0.00473381 
node 1 1 1 3
node 2 1 1 1
node 3 2 1 1
node 4 2 0 2
node 6 3 0 0
node 53 2 0 0
node 67 1 0 0
node 131 1 0 0
gene 1 1 4 3.79402 0 1 3.79402 1
gene 1 2 4 -7.32014 0 2 -7.32014 1
gene 1 3 4 1.04873 0 3 1.04873 1
gene 1 3 6 2.56234 0 6 2.56234 0
gene 1 6 4 0.898413 0 7 0.898413 1
gene 3 1 6 3.72307 0 85 3.72307 1
gene 1 6 53 -2.34518 0 152 -2.34518 1
gene 1 53 4 8 0 153 8 1
gene 1 3 67 -6.94579 0 193 -6.94579 1
gene 1 67 4 2.72203 0 194 2.72203 1
gene 1 6 131 -0.48801 0 415 -0.48801 1
gene 1 131 53 -1.63092 0 416 -1.63092 1
gene 3 131 67 2.55692 0 594 2.55692 1
gene 3 2 53 -3.41529 0 634 -3.41529 1
gene 3 67 53 1.30657 0 648 1.30657 1
gene 3 1 67 1.67949 0 903 1.67949 1
gene 2 1 53 0.612244 0 909 0.612244 1
gene 2 3 131 1.13891 0 930 1.13891 1
gene 1 6 67 0.0105276 0 961 0.0105276 1
gene 2 1 131 1.83213 0 983 1.83213 1
genomeend 14

/* Species #59 : (Size 7) (AF 9.28071) (Age 17)  */


/* Organism #15 Fitness: 15.9998 Error: 2.32576e-05 */
genomestart 15
trait 1 0.0743957 0 0.0130243 0.460496 0 0 0.00576263 0.0420243 
trait 2 0.2 0 0.00427095 0 0.0751076 0 0.000764936 0 
trait 3 0.820079 1 0 0 0.111762 0 0 0.00473381 
node 1 3 1 3
node 2 1 1 1
node 3 1 1 1
node 4 1 0 2
node 6 2 0 0
node 53 1 0 0
node 57 2 0 0
node 190 2 0 0
node 310 1 0 0
gene 2 1 4 6.82192 0 1 6.82192 1
gene 2 2 4 -6.33386 0 2 -6.33386 1
gene 3 3 4 -1.7736 0 3 -1.7736 1
gene 1 3 6 -1.0362 0 6 -1.0362 1
gene 1 6 4 3.75364 0 7 3.75364 1
gene 3 1 6 0.786668 0 85 0.786668 1
gene 1 6 53 -2.541 0 152 -2.541 1
gene 1 53 4 -3.54128 0 153 -3.54128 1
gene 1 3 57 -2.24691 0 165 -2.24691 0
gene 1 57 6 0.302268 0 166 0.302268 1
gene 1 2 57 -0.44089 0 241 -0.44089 1
gene 1 1 53 0.567101 0 383 0.567101 1
gene 1 53 190 -2.54296 0 623 -2.54296 1
gene 1 190 4 2.23967 0 624 2.23967 1
gene 1 57 190 -2.17324 0 816 -2.17324 1
gene 1 2 190 -1.42078 0 892 -1.42078 1
gene 1 3 310 1 0 1062 0 1
gene 1 310 57 -2.24691 0 1063 0 1
genomeend 15

/* Organism #16 Fitness: 8.99475 Error: 1.00087 */
genomestart 16
trait 1 0.0743957 0 0.0130243 0.460496 0 0 0.00576263 0.0420243 
trait 2 0.2 0 0.00427095 0 0.0751076 0 0.000764936 0 
trait 3 0.820079 1 0 0 0.111762 0 0 0.00473381 
node 1 3 1 3
node 2 1 1 1
node 3 1 1 1
node 4 1 0 2
node 6 2 0 0
node 53 1 0 0
node 57 2 0 0
node 190 2 0 0
node 310 1 0 0
gene 2 1 4 4.50774 0 1 4.50774 1
gene 2 2 4 -6.52541 0 2 -6.52541 1
gene 3 3 4 -0.434453 0 3 -0.434453 1
gene 1 3 6 -0.522531 0 6 -0.522531 1
gene 1 6 4 4.35763 0 7 4.35763 1
gene 3 1 6 0.564487 0 85 0.564487 1
gene 1 6 53 -0.479109 0 152 -0.479109 1
gene 1 53 4 -4.386 0 153 -4.386 1
gene 1 3 57 -2.58814 0 165 -2.58814 0
gene 1 57 6 1.88423 0 166 1.88423 1
gene 1 2 57 -1.63607 0 241 -1.63607 1
gene 1 1 53 -1.54786 0 383 -1.54786 1
gene 1 53 190 -3.0832 0 623 -3.0832 1
gene 1 190 4 4.44216 0 624 4.44216 1
gene 1 57 190 -2.17324 0 816 -2.17324 1
gene 1 2 190 0.701729 0 892 0.701729 1
gene 1 3 310 3.00472 0 1062 3.00472 1
gene 1 310 57 -1.83346 0 1063 -1.83346 1
genomeend 16

/* Organism #17 Fitness: 8.99993 Error: 1.00001 */
genomestart 17
trait 1 0.0743957 0 0.0130243 0.460496 0 0 0.00576263 0.0420243 
trait 2 0.2 0 0.00427095 0 0.0751076 0 0.000764936 0 
trait 3 0.820079 1 0 0 0.111762 0 0 0.00473381 
node 1 3 1 3
node 2 1 1 1
node 3 1 1 1
node 4 1 0 2
node 6 2 0 0
node 53 1 0 0
node 57 2 0 0
node 190 2 0 0
node 310 1 0 0
gene 2 1 4 -0.622976 0 1 -0.622976 1
gene 2 2 4 -6.33386 0 2 -6.33386 1
gene 3 3 4 0.325467 0 3 0.325467 1
gene 1 3 6 1.05276 0 6 1.05276 1
gene 1 6 4 6.10306 0 7 6.10306 1
gene 3 1 6 -1.04106 0 85 -1.04106 1
gene 1 6 53 -0.100903 0 152 -0.100903 1
gene 1 53 4 0.364057 0 153 0.364057 1
gene 1 3 57 -1.93595 0 165 -1.93595 0
gene 1 57 6 -1.54139 0 166 -1.54139 1
gene 1 2 57 -2.78139 0 241 -2.78139 1
gene 1 1 53 1.32864 0 383 1.32864 1
gene 1 53 190 1.94034 0 623 1.94034 1
gene 1 190 4 2.54136 0 624 2.54136 1
gene 1 57 190 -1.70002 0 816 -1.70002 1
gene 1 2 190 -3.45879 0 892 -3.45879 1
gene 1 3 310 0.816891 0 1062 0.816891 1
gene 1 310 57 -1.92915 0 1063 -1.92915 1
genomeend 17

/* Organism #18 Fitness: 8.99998 Error: 1 */
genomestart 18
trait 1 0.0743957 0 0.0130243 0.460496 0 0 0.00576263 0.0420243 
trait 2 0.2 0 0.00427095 0 0.0751076 0 0.000764936 0 
trait 3 0.820079 1 0.573567 0 0.76579 0 0 0.00473381 
node 1 3 1 3
node 2 1 1 1
node 3 1 1 1
node 4 1 0 2
node 6 2 0 0
node 53 1 0 0
node 57 2 0 0
node 190 2 0 0
node 310 1 0 0
gene 2 1 4 4.60649 0 1 4.60649 1
gene 2 2 4 0.643669 0 2 0.643669 1
gene 3 3 4 -1.19766 0 3 -1.19766 1
gene 1 3 6 -2.01484 0 6 -2.01484 1
gene 1 6 4 5.3915 0 7 5.3915 1
gene 3 1 6 1.38619 0 85 1.38619 1
gene 1 6 53 -4.57444 0 152 -4.57444 1
gene 1 53 4 -1.99704 0 153 -1.99704 1
gene 1 3 57 -2.45971 0 165 -2.45971 0
gene 1 57 6 1.93669 0 166 1.93669 1
gene 1 2 57 2.25884 0 241 2.25884 1
gene 1 1 53 0.2592 0 383 0.2592 1
gene 1 53 190 -0.943049 0 623 -0.943049 1
gene 1 190 4 1.22816 0 624 1.22816 1
gene 1 57 190 0.144761 0 816 0.144761 1
gene 1 2 190 -2.29716 0 892 -2.29716 1
gene 1 3 310 2.44317 0 1062 2.44317 1
gene 1 310 57 -3.75155 0 1063 -3.75155 1
genomeend 18

/* Organism #19 Fitness: 8.94684 Error: 1.00887 */
genomestart 19
trait 1 0.0743957 0 0.0130243 0.460496 0 0 0.00576263 0.0420243 
trait 2 0.2 0 0.00427095 0 0.0751076 0 0.000764936 0 
trait 3 0.820079 1 0 0 0.111762 0 0 0.00473381 
node 1 3 1 3
node 2 1 1 1
node 3 1 1 1
node 4 1 0 2
node 6 2 0 0
node 53 1 0 0
node 57 2 0 0
node 190 2 0 0
node 310 1 0 0
gene 2 1 4 8 0 1 8 1
gene 2 2 4 -0.902104 0 2 -0.902104 1
gene 3 3 4 -0.413528 0 3 -0.413528 1
gene 1 3 6 -1.47105 0 6 -1.47105 1
gene 1 6 4 3.60089 0 7 3.60089 1
gene 3 1 6 1.76975 0 85 1.76975 1
gene 1 6 53 -0.126985 0 152 -0.126985 1
gene 1 53 4 -2.10999 0 153 -2.10999 1
gene 1 3 57 -3.90295 0 165 -3.90295 0
gene 1 57 6 -1.14208 0 166 -1.14208 1
gene 1 2 57 0.479726 0 241 0.479726 1
gene 1 1 53 0.567101 0 383 0.567101 1
gene 1 53 190 -1.33229 0 623 -1.33229 1
gene 1 190 4 0.828177 0 624 0.828177 1
gene 1 57 190 -3.94314 0 816 -3.94314 1
gene 1 2 190 0.460221 0 892 0.460221 1
gene 1 3 310 -0.285592 0 1062 -0.285592 1
gene 1 310 57 -4.4363 0 1063 -4.4363 1
genomeend 19

/* Organism #20 Fitness: 4.02362 Error: 1.9941 */
genomestart 20
trait 1 0.0743957 0 0.0130243 0.460496 0 0 0.00576263 0.0420243 
trait 2 0.2 0 0.00427095 0 0.0751076 0 0.000764936 0 
trait 3 0.820079 1 0 0 0.111762 0 0 0.00473381 
node 1 3 1 3
node 2 1 1 1
node 3 1 1 1
node 4 1 0 2
node 6 2 0 0
node 53 1 0 0
node 57 2 0 0
node 190 2 0 0
node 310 1 0 0
gene 2 1 4 5.75412 0 1 5.75412 1
gene 2 2 4 -4.41553 0 2 -4.41553 1
gene 3 3 4 -2.83091 0 3 -2.83091 1
gene 1 3 6 -3.14661 0 6 -3.14661 1
gene 1 6 4 4.49716 0 7 4.49716 1
gene 3 1 6 -0.688144 0 85 -0.688144 1
gene 1 6 53 -0.489431 0 152 -0.489431 1
gene 1 53 4 -4.96752 0 153 -4.96752 1
gene 1 3 57 -3.86995 0 165 -3.86995 0
gene 1 57 6 2.58061 0 166 2.58061 1
gene 1 2 57 -1.63078 0 241 -1.63078 1
gene 1 1 53 0.279093 0 383 0.279093 1
gene 1 53 190 -4.51835 0 623 -4.51835 1
gene 1 190 4 4.73733 0 624 4.73733 1
gene 1 57 190 -2.04924 0 816 -2.04924 1
gene 1 2 190 -2.97101 0 892 -2.97101 1
gene 1 3 310 -1.54427 0 1062 -1.54427 1
gene 1 310 57 -1.10479 0 1063 -1.10479 1
genomeend 20

/* Organism #21 Fitness: 9 Error: 1 */
genomestart 21
trait 1 0.0743957 0 0.0130243 0.460496 0 0 0.00576263 0.0420243 
trait 2 0.2 0 0.00427095 0 0.0751076 0 0.000764936 0 
trait 3 0.820079 1 0 0 0.111762 0 0 0.00473381 
node 1 3 1 3
node 2 1 1 1
node 3 1 1 1
node 4 1 0 2
node 6 2 0 0
node 53 1 0 0
node 57 2 0 0
node 190 2 0 0
node 310 1 0 0
gene 2 1 4 7.47937 0 1 7.47937 1
gene 2 2 4 -4.99099 0 2 -4.99099 1
gene 3 3 4 -1.7736 0 3 -1.7736 1
gene 1 3 6 2.02632 0 6 2.02632 1
gene 1 6 4 5.25277 0 7 5.25277 1
gene 3 1 6 0.302281 0 85 0.302281 1
gene 1 6 53 -1.74494 0 152 -1.74494 1
gene 1 53 4 0.07577 0 153 0.07577 1
gene 1 3 57 -2.11716 0 165 -2.11716 0
gene 1 57 6 1.51399 0 166 1.51399 1
gene 1 2 57 0.0978614 0 241 0.0978614 1
gene 1 1 53 -0.565851 0 383 -0.565851 1
gene 1 53 190 -2.54296 0 623 -2.54296 1
gene 1 190 4 -0.224202 0 624 -0.224202 1
gene 1 57 190 -0.0185688 0 816 -0.0185688 1
gene 1 2 190 -1.56337 0 892 -1.56337 1
gene 1 3 310 -0.0943771 0 1062 -0.0943771 1
gene 1 310 57 -0.763158 0 1063 -0.763158 1
genomeend 21

/* Species #60 : (Size 9) (AF 15.2025) (Age 17)  */


/* Organism #22 Fitness: 16 Error: 1.77581e-15 */
genomestart 22
trait 1 0.174215 0.0220945 0.0260485 0 0 0 0.0958787 0.0621698 
trait 2 0.2 0 0.00427095 0 0.0751076 0 0.000764936 0 
trait 3 0.285383 0.0300801 0.0566317 0 0.75213 0 0.0220778 0.00473381 
node 1 3 1 3
node 2 1 1 1
node 3 2 1 1
node 4 2 0 2
node 6 3 0 0
node 53 2 0 0
node 67 1 0 0
node 131 1 0 0
gene 1 1 4 8 0 1 8 1
gene 1 2 4 -6.01092 0 2 -6.01092 1
gene 1 3 4 -6.89834 0 3 -6.89834 1
gene 1 3 6 -2.63263 0 6 -2.63263 0
gene 1 6 4 4.25118 0 7 4.25118 1
gene 3 1 6 -0.14854 0 85 -0.14854 1
gene 1 6 53 -0.505638 0 152 -0.505638 0
gene 1 53 4 8 0 153 8 1
gene 1 3 67 -6.33698 0 193 -6.33698 1
gene 1 67 4 3.87179 0 194 3.87179 1
gene 1 6 131 2.57764 0 415 2.57764 1
gene 1 131 53 2.66655 0 416 2.66655 1
gene 3 131 67 2.49848 0 594 2.49848 1
gene 3 2 53 -2.76405 0 634 -2.76405 1
gene 3 67 53 0.931168 0 648 0.931168 1
gene 1 2 131 4.76718 0 904 4.76718 1
gene 1 3 53 -2.04546 0 912 -2.04546 1
gene 3 131 4 -1.99011 0 936 -1.99011 1
gene 2 2 6 -1.42849 0 962 -1.42849 1
gene 1 1 67 0.481024 0 1020 0.481024 1
genomeend 22

/* Organism #23 Fitness: 9 Error: 1 */
genomestart 23
trait 1 0.174215 0.0220945 0.0260485 0 0 0 0.0958787 0.0621698 
trait 2 0.2 0 0.00427095 0 0.0751076 0 0.000764936 0 
trait 3 0.285383 0.0300801 0.0566317 0 0.75213 0 0.0220778 0.00473381 
node 1 3 1 3
node 2 1 1 1
node 3 2 1 1
node 4 2 0 2
node 6 3 0 0
node 53 2 0 0
node 67 1 0 0
node 131 1 0 0
gene 1 1 4 8 0 1 8 1
gene 1 2 4 -4.6577 0 2 -4.6577 1
gene 1 3 4 -6.76064 0 3 -6.76064 1
gene 1 3 6 -0.835732 0 6 -0.835732 0
gene 1 6 4 2.12682 0 7 2.12682 1
gene 3 1 6 0.483373 0 85 0.483373 1
gene 1 6 53 0.52841 0 152 0.52841 1
gene 1 53 4 7.5071 0 153 7.5071 1
gene 1 3 67 2.19398 0 193 2.19398 1
gene 1 67 4 1.40841 0 194 1.40841 1
gene 1 6 131 0.295935 0 415 0.295935 1
gene 1 131 53 2.34367 0 416 2.34367 1
gene 3 131 67 4.08554 0 594 4.08554 1
gene 3 2 53 -3.72493 0 634 -3.72493 1
gene 3 67 53 1.61252 0 648 1.61252 1
gene 1 2 131 7.25773 0 904 7.25773 1
gene 1 3 53 -0.278123 0 912 -0.278123 1
gene 3 131 4 -0.814327 0 936 -0.814327 1
gene 2 2 6 2.04098 0 962 2.04098 1
gene 1 1 67 -1.6723 0 1020 -1.6723 1
genomeend 23

/* Organism #24 Fitness: 16 Error: 6.5735e-08 */
genomestart 24
trait 1 0.174215 0.0220945 0.0260485 0 0 0 0.0958787 0.0621698 
trait 2 0.2 0 0.00427095 0 0.0751076 0 0.000764936 0 
trait 3 0.285383 0.0300801 0.0566317 0 0.75213 0 0.0220778 0.00473381 
node 1 3 1 3
node 2 1 1 1
node 3 2 1 1
node 4 2 0 2
node 6 3 0 0
node 53 2 0 0
node 67 1 0 0
node 131 1 0 0
gene 1 1 4 2.22385 0 1 2.22385 1
gene 1 2 4 -5.09489 0 2 -5.09489 1
gene 1 3 4 -6.89834 0 3 -6.89834 1
gene 1 3 6 -0.598297 0 6 -0.598297 0
gene 1 6 4 5.70053 0 7 5.70053 1
gene 3 1 6 1.99438 0 85 1.99438 1
gene 1 6 53 -0.00279129 0 152 -0.00279129 0
gene 1 53 4 7.70709 0 153 7.70709 1
gene 1 3 67 0.905915 0 193 0.905915 1
gene 1 67 4 3.26581 0 194 3.26581 1
gene 1 6 131 1.31073 0 415 1.31073 1
gene 1 131 53 2.77576 0 416 2.77576 1
gene 3 131 67 1.05645 0 594 1.05645 1
gene 3 2 53 -2.76405 0 634 -2.76405 1
gene 3 67 53 0.0914325 0 648 0.0914325 1
gene 1 2 131 5.43464 0 904 5.43464 1
gene 1 3 53 -4.21295 0 912 -4.21295 1
gene 3 131 4 0.162068 0 936 0.162068 1
gene 2 2 6 -3.84928 0 962 -3.84928 1
gene 1 1 67 -1.04852 0 1020 -1.04852 1
genomeend 24

/* Organism #25 Fitness: 15.9977 Error: 0.000282577 */
genomestart 25
trait 1 0.174215 0.0220945 0.0260485 0 0 0 0.0958787 0.0621698 
trait 2 0.2 0 0.00427095 0 0.0751076 0 0.000764936 0 
trait 3 0.285383 0.0300801 0.0566317 0 0.75213 0 0.0220778 0.00473381 
node 1 3 1 3
node 2 1 1 1
node 3 2 1 1
node 4 2 0 2
node 6 3 0 0
node 53 2 0 0
node 67 1 0 0
node 131 1 0 0
gene 1 1 4 7.94901 0 1 7.94901 1
gene 1 2 4 -5.07178 0 2 -5.07178 1
gene 1 3 4 -6.99688 0 3 -6.99688 1
gene 1 3 6 0.445781 0 6 0.445781 0
gene 1 6 4 3.40149 0 7 3.40149 1
gene 3 1 6 -1.28269 0 85 -1.28269 1
gene 1 6 53 1.86538 0 152 1.86538 0
gene 1 53 4 -0.285984 0 153 -0.285984 1
gene 1 3 67 -0.864627 0 193 -0.864627 1
gene 1 67 4 2.25253 0 194 2.25253 1
gene 1 6 131 4.27582 0 415 4.27582 1
gene 1 131 53 3.4942 0 416 3.4942 1
gene 3 131 67 2.49848 0 594 2.49848 1
gene 3 2 53 1.63807 0 634 1.63807 1
gene 3 67 53 -0.682048 0 648 -0.682048 1
gene 1 2 131 4.70496 0 904 4.70496 1
gene 1 3 53 -3.76028 0 912 -3.76028 1
gene 3 131 4 -1.99011 0 936 -1.99011 1
gene 2 2 6 0.0628695 0 962 0.0628695 1
gene 1 1 67 0.481024 0 1020 0.481024 1
genomeend 25

/* Organism #26 Fitness: 16 Error: 2.73098e-14 */
genomestart 26
trait 1 0.39059 0 0.0260485 0 0 0 0.592243 0.569577 
trait 2 0.2 0 0.00427095 0 0.0751076 0 0.000764936 0 
trait 3 0.285383 0.0300801 0.0566317 0 0.75213 0 0.0220778 0.00473381 
node 1 3 1 3
node 2 1 1 1
node 3 2 1 1
node 4 2 0 2
node 6 3 0 0
node 53 2 0 0
node 67 1 0 0
node 131 1 0 0
gene 1 1 4 8 0 1 8 1
gene 1 2 4 -8 0 2 -8 1
gene 1 3 4 -6.9378 0 3 -6.9378 1
gene 1 3 6 -1.05311 0 6 -1.05311 0
gene 1 6 4 4.25118 0 7 4.25118 1
gene 3 1 6 1.39641 0 85 1.39641 1
gene 1 6 53 -0.505638 0 152 -0.505638 0
gene 1 53 4 8 0 153 8 1
gene 1 3 67 -6.33698 0 193 -6.33698 1
gene 1 67 4 6.25271 0 194 6.25271 1
gene 1 6 131 0.573739 0 415 0.573739 1
gene 1 131 53 2.2628 0 416 2.2628 1
gene 3 131 67 0.641705 0 594 0.641705 1
gene 3 2 53 -2.13959 0 634 -2.13959 1
gene 3 67 53 2.89943 0 648 2.89943 1
gene 1 2 131 2.09686 0 904 2.09686 1
gene 1 3 53 -0.782235 0 912 -0.782235 1
gene 3 131 4 0.0485637 0 936 0.0485637 1
gene 2 2 6 -1.96214 0 962 -1.96214 1
gene 1 1 67 -0.911188 0 1020 -0.911188 1
genomeend 26

/* Organism #27 Fitness: 15.8303 Error: 0.0212659 */
genomestart 27
trait 1 0.174215 0.0220945 0.0260485 0 0 0 0.0958787 0.0621698 
trait 2 0.2 0 0.00427095 0 0.0751076 0 0.000764936 0 
trait 3 0.285383 0.0300801 0.0566317 0 0.75213 0 0.0220778 0.00473381 
node 1 3 1 3
node 2 1 1 1
node 3 2 1 1
node 4 2 0 2
node 6 3 0 0
node 53 2 0 0
node 67 1 0 0
node 131 1 0 0
gene 1 1 4 6.90799 0 1 6.90799 1
gene 1 2 4 -3.66686 0 2 -3.66686 1
gene 1 3 4 -6.75726 0 3 -6.75726 1
gene 1 3 6 -2.63263 0 6 -2.63263 0
gene 1 6 4 3.86278 0 7 3.86278 1
gene 3 1 6 -1.18421 0 85 -1.18421 1
gene 1 6 53 -1.56386 0 152 -1.56386 0
gene 1 53 4 8 0 153 8 1
gene 1 3 67 2.03179 0 193 2.03179 1
gene 1 67 4 2.04737 0 194 2.04737 1
gene 1 6 131 3.83427 0 415 3.83427 1
gene 1 131 53 2.82365 0 416 2.82365 1
gene 3 131 67 1.34406 0 594 1.34406 1
gene 3 2 53 -0.914971 0 634 -0.914971 1
gene 3 67 53 1.14537 0 648 1.14537 1
gene 1 2 131 3.29161 0 904 3.29161 1
gene 1 3 53 -3.1936 0 912 -3.1936 1
gene 3 131 4 -1.99011 0 936 -1.99011 1
gene 2 2 6 -1.27527 0 962 -1.27527 1
gene 1 1 67 2.07784 0 1020 2.07784 1
genomeend 27

/* Organism #28 Fitness: 15.9947 Error: 0.000663413 */
genomestart 28
trait 1 0.174215 0.0220945 0.0260485 0 0 0 0.0958787 0.0621698 
trait 2 0.2 0 0.00427095 0 0.0751076 0 0.000764936 0 
trait 3 0.285383 0.0300801 0.0566317 0 0.75213 0 0.0220778 0.00473381 
node 1 3 1 3
node 2 1 1 1
node 3 2 1 1
node 4 2 0 2
node 6 3 0 0
node 53 2 0 0
node 67 1 0 0
node 131 1 0 0
gene 1 1 4 7.51805 0 1 7.51805 1
gene 1 2 4 -7.7416 0 2 -7.7416 1
gene 1 3 4 -5.08859 0 3 -5.08859 1
gene 1 3 6 -4.20983 0 6 -4.20983 0
gene 1 6 4 2.41366 0 7 2.41366 1
gene 3 1 6 -1.26542 0 85 -1.26542 1
gene 1 6 53 1.50931 0 152 1.50931 0
gene 1 53 4 8 0 153 8 1
gene 1 3 67 -5.32667 0 193 -5.32667 1
gene 1 67 4 4.94808 0 194 4.94808 1
gene 1 6 131 2.94305 0 415 2.94305 1
gene 1 131 53 1.71856 0 416 1.71856 1
gene 3 131 67 0.0539781 0 594 0.0539781 1
gene 3 2 53 -0.729213 0 634 -0.729213 1
gene 3 67 53 0.16599 0 648 0.16599 1
gene 1 2 131 3.1479 0 904 3.1479 1
gene 1 3 53 -1.86018 0 912 -1.86018 1
gene 3 131 4 -1.99011 0 936 -1.99011 1
gene 2 2 6 -1.6476 0 962 -1.6476 1
gene 1 1 67 0.481024 0 1020 0.481024 1
genomeend 28

/* Organism #29 Fitness: 16 Error: 3.91027e-08 */
genomestart 29
trait 1 0.174215 0.0220945 0.0260485 0 0 0 0.0958787 0.0621698 
trait 2 0.2 0 0.00427095 0 0.0751076 0 0.000764936 0 
trait 3 0.285383 0.0300801 0.0566317 0 0.75213 0 0.0220778 0.00473381 
node 1 3 1 3
node 2 1 1 1
node 3 2 1 1
node 4 2 0 2
node 6 3 0 0
node 53 2 0 0
node 67 1 0 0
node 131 1 0 0
gene 1 1 4 8 0 1 8 1
gene 1 2 4 -6.35268 0 2 -6.35268 1
gene 1 3 4 -8 0 3 -8 1
gene 1 3 6 -4.69207 0 6 -4.69207 0
gene 1 6 4 5.39667 0 7 5.39667 1
gene 3 1 6 1.7284 0 85 1.7284 1
gene 1 6 53 -2.14398 0 152 -2.14398 0
gene 1 53 4 8 0 153 8 1
gene 1 3 67 -4.8445 0 193 -4.8445 1
gene 1 67 4 3.16381 0 194 3.16381 1
gene 1 6 131 0.791604 0 415 0.791604 1
gene 1 131 53 1.17571 0 416 1.17571 1
gene 3 131 67 2.78383 0 594 2.78383 1
gene 3 2 53 -4.3864 0 634 -4.3864 1
gene 3 67 53 3.23755 0 648 3.23755 1
gene 1 2 131 6.83267 0 904 6.83267 1
gene 1 3 53 -3.28406 0 912 -3.28406 1
gene 3 131 4 -1.94658 0 936 -1.94658 1
gene 2 2 6 -1.42849 0 962 -1.42849 1
gene 1 1 67 0.319908 0 1020 0.319908 1
genomeend 29

/* Organism #30 Fitness: 16 Error: 2.07794e-11 */
genomestart 30
trait 1 0.174215 0.0220945 0.0260485 0 0 0 0.0958787 0.0621698 
trait 2 0.2 0 0.00427095 0 0.0751076 0 0.000764936 0 
trait 3 0.285383 0.0300801 0.0566317 0 0.75213 0 0.0220778 0.00473381 
node 1 3 1 3
node 2 1 1 1
node 3 2 1 1
node 4 2 0 2
node 6 3 0 0
node 53 2 0 0
node 67 1 0 0
node 131 1 0 0
gene 1 1 4 7.06479 0 1 7.06479 1
gene 1 2 4 -3.991 0 2 -3.991 1
gene 1 3 4 -7.61949 0 3 -7.61949 1
gene 1 3 6 -3.86113 0 6 -3.86113 0
gene 1 6 4 2.51058 0 7 2.51058 1
gene 3 1 6 -1.69258 0 85 -1.69258 1
gene 1 6 53 -2.07493 0 152 -2.07493 0
gene 1 53 4 6.77529 0 153 6.77529 1
gene 1 3 67 -4.11151 0 193 -4.11151 1
gene 1 67 4 5.45672 0 194 5.45672 1
gene 1 6 131 3.74781 0 415 3.74781 1
gene 1 131 53 0.878042 0 416 0.878042 1
gene 3 131 67 2.42203 0 594 2.42203 1
gene 3 2 53 -4.97594 0 634 -4.97594 1
gene 3 67 53 2.15837 0 648 2.15837 1
gene 1 2 131 6.43226 0 904 6.43226 1
gene 1 3 53 0.393546 0 912 0.393546 1
gene 3 131 4 -0.466181 0 936 -0.466181 1
gene 2 2 6 -1.42849 0 962 -1.42849 1
gene 1 1 67 0.481024 0 1020 0.481024 1
genomeend 30

/* Species #61 : (Size 9) (AF 11.9028) (Age 16)  */


/* Organism #31 Fitness: 16 Error: 1.37641e-14 */
genomestart 31
trait 1 0.174215 0.0220945 0.0260485 0 0 0 0.0958787 0.0621698 
trait 2 0.2 0 0.00427095 0 0.0751076 0 0.000764936 0 
trait 3 0.285383 0.0300801 0.0566317 0 0.75213 0 0.0220778 0.00473381 
node 1 3 1 3
node 2 1 1 1
node 3 2 1 1
node 4 2 0 2
node 6 3 0 0
node 53 2 0 0
node 67 1 0 0
node 131 1 0 0
gene 1 1 4 5.91722 0 1 5.91722 1
gene 1 2 4 -6.1966 0 2 -6.1966 1
gene 1 3 4 -6.80403 0 3 -6.80403 1
gene 1 3 6 2.38842 0 6 2.38842 0
gene 1 6 4 1.009 0 7 1.009 0
gene 3 1 6 1.2504 0 85 1.2504 1
gene 1 6 53 4.77342 0 152 4.77342 0
gene 1 53 4 7.39619 0 153 7.39619 1
gene 1 3 67 -2.93491 0 193 -2.93491 1
gene 1 67 4 6.45224 0 194 6.45224 1
gene 1 6 131 -3.87192 0 415 -3.87192 1
gene 1 131 53 0.535521 0 416 0.535521 1
gene 3 131 67 -1.08473 0 594 -1.08473 1
gene 3 2 53 -2.28518 0 634 -2.28518 1
gene 3 67 53 2.27681 0 648 2.27681 1
gene 3 1 53 1.24909 0 915 1.24909 1
gene 1 2 131 -0.397495 0 927 -0.397495 1
genomeend 31

/* Organism #32 Fitness: 4 Error: 2 */
genomestart 32
trait 1 0.174215 0.0220945 0.0260485 0 0 0 0.0958787 0.0621698 
trait 2 0.2 0 0.00427095 0 0.0751076 0 0.000764936 0 
trait 3 0.285383 0.0300801 0.0566317 0 0.75213 0 0.0220778 0.00473381 
node 1 3 1 3
node 2 1 1 1
node 3 2 1 1
node 4 2 0 2
node 6 3 0 0
node 53 2 0 0
node 67 1 0 0
node 131 1 0 0
gene 1 1 4 -2.36384 0 1 -2.36384 1
gene 1 2 4 -6.05688 0 2 -6.05688 1
gene 1 3 4 -8 0 3 -8 1
gene 1 3 6 2.3097 0 6 2.3097 1
gene 1 6 4 -1.29861 0 7 -1.29861 0
gene 3 1 6 1.01123 0 85 1.01123 1
gene 1 6 53 3.74541 0 152 3.74541 0
gene 1 53 4 7.85063 0 153 7.85063 1
gene 1 3 67 -2.93481 0 193 -2.93481 1
gene 1 67 4 -2.20975 0 194 -2.20975 1
gene 1 6 131 2.45298 0 415 2.45298 1
gene 1 131 53 0.546188 0 416 0.546188 1
gene 3 131 67 1.63664 0 594 1.63664 1
gene 3 2 53 -1.84586 0 634 -1.84586 1
gene 3 67 53 2.80837 0 648 2.80837 1
gene 3 1 53 -1.89525 0 915 -1.89525 1
gene 1 2 131 0.129207 0 927 0.129207 1
gene 1 3 53 -2.02286 0 1091 -2.02286 1
genomeend 32

/* Organism #33 Fitness: 15.5374 Error: 0.0582534 */
genomestart 33
trait 1 0.174215 0.0220945 0.0260485 0 0 0 0.0958787 0.0621698 
trait 2 0.2 0 0.00427095 0 0.0751076 0 0.000764936 0 
trait 3 0.142691 0.0300801 0.166148 0 0.75213 0.252485 0.0220778 0.00473381 
node 1 3 1 3
node 2 1 1 1
node 3 2 1 1
node 4 2 0 2
node 6 3 0 0
node 53 2 0 0
node 67 1 0 0
node 131 1 0 0
gene 1 1 4 6.64615 0 1 6.64615 1
gene 1 2 4 -6.90857 0 2 -6.90857 1
gene 1 3 4 -6.80403 0 3 -6.80403 1
gene 1 3 6 4.25543 0 6 4.25543 0
gene 1 6 4 2.71165 0 7 2.71165 0
gene 3 1 6 -0.375655 0 85 -0.375655 1
gene 1 6 53 5.38654 0 152 5.38654 0
gene 1 53 4 7.39619 0 153 7.39619 1
gene 1 3 67 -3.96424 0 193 -3.96424 1
gene 1 67 4 7.10126 0 194 7.10126 1
gene 1 6 131 2.43947 0 415 2.43947 1
gene 1 131 53 -0.215147 0 416 -0.215147 1
gene 3 131 67 0.4589 0 594 0.4589 1
gene 3 2 53 -1.68957 0 634 -1.68957 1
gene 3 67 53 4.42141 0 648 4.42141 1
gene 3 1 53 2.23732 0 915 2.23732 1
gene 1 2 131 -0.183852 0 927 -0.183852 1
genomeend 33

/* Organism #34 Fitness: 9 Error: 1 */
genomestart 34
trait 1 0.174215 0.0220945 0.0260485 0 0 0 0.0958787 0.0621698 
trait 2 0.2 0 0.00427095 0 0.0751076 0 0.000764936 0 
trait 3 0.285383 0.0300801 0.0566317 0 0.75213 0 0.0220778 0.00473381 
node 1 3 1 3
node 2 1 1 1
node 3 2 1 1
node 4 2 0 2
node 6 3 0 0
node 53 2 0 0
node 67 1 0 0
node 131 1 0 0
gene 1 1 4 5.04324 0 1 5.04324 1
gene 1 2 4 -4.18653 0 2 -4.18653 1
gene 1 3 4 -6.80403 0 3 -6.80403 1
gene 1 3 6 3.84519 0 6 3.84519 0
gene 1 6 4 2.32527 0 7 2.32527 0
gene 3 1 6 1.55223 0 85 1.55223 1
gene 1 6 53 7.17393 0 152 7.17393 0
gene 1 53 4 7.2282 0 153 7.2282 1
gene 1 3 67 1.46481 0 193 1.46481 1
gene 1 67 4 5.5416 0 194 5.5416 1
gene 1 6 131 -3.57597 0 415 -3.57597 1
gene 1 131 53 0.103601 0 416 0.103601 1
gene 3 131 67 -3.19625 0 594 -3.19625 1
gene 3 2 53 -1.80449 0 634 -1.80449 1
gene 3 67 53 3.27126 0 648 3.27126 1
gene 3 1 53 1.24909 0 915 1.24909 1
gene 1 2 131 -0.397495 0 927 -0.397495 1
genomeend 34

/* Organism #35 Fitness: 16 Error: 2.46547e-09 */
genomestart 35
trait 1 0.174215 0.0220945 0.0260485 0 0 0 0.0958787 0.0621698 
trait 2 0.2 0 0.00427095 0 0.0751076 0 0.000764936 0 
trait 3 0 0.0300801 0.275664 0 0.75213 0.504971 0.0220778 0.00473381 
node 1 3 1 3
node 2 2 1 1
node 3 2 1 1
node 4 2 0 2
node 6 3 0 0
node 53 2 0 0
node 67 1 0 0
node 131 1 0 0
gene 1 1 4 8 0 1 8 1
gene 1 2 4 -4.02515 0 2 -4.02515 1
gene 1 3 4 -8 0 3 -8 1
gene 1 3 6 1.72654 0 6 1.72654 0
gene 1 6 4 -0.778181 0 7 -0.778181 0
gene 3 1 6 3.40291 0 85 3.40291 1
gene 1 6 53 4.40852 0 152 4.40852 0
gene 1 53 4 6.52136 0 153 6.52136 1
gene 1 3 67 -5.10589 0 193 -5.10589 1
gene 1 67 4 5.87154 0 194 5.87154 1
gene 1 6 131 -5.21892 0 415 -5.21892 1
gene 1 131 53 -1.83696 0 416 -1.83696 1
gene 3 131 67 -1.09121 0 594 -1.09121 1
gene 3 2 53 -3.78671 0 634 -3.78671 1
gene 3 67 53 0.410377 0 648 0.410377 1
gene 3 1 53 1.08868 0 915 1.08868 1
gene 1 2 131 1.81539 0 927 1.81539 1
genomeend 35

/* Organism #36 Fitness: 16 Error: 4.28007e-06 */
genomestart 36
trait 1 0.174215 0.0220945 0.0260485 0 0 0 0.0958787 0.0621698 
trait 2 0.2 0 0.00427095 0 0.0751076 0 0.000764936 0 
trait 3 0.142691 0.0300801 0.166148 0 0.75213 0.252485 0.0220778 0.00473381 
node 1 3 1 3
node 2 1 1 1
node 3 2 1 1
node 4 2 0 2
node 6 3 0 0
node 53 2 0 0
node 67 1 0 0
node 131 1 0 0
gene 1 1 4 5.81615 0 1 5.81615 1
gene 1 2 4 -6.1966 0 2 -6.1966 1
gene 1 3 4 -7.26369 0 3 -7.26369 1
gene 1 3 6 3.6043 0 6 3.6043 0
gene 1 6 4 0.994672 0 7 0.994672 0
gene 3 1 6 1.2504 0 85 1.2504 1
gene 1 6 53 4.77342 0 152 4.77342 0
gene 1 53 4 7.85063 0 153 7.85063 1
gene 1 3 67 -2.30765 0 193 -2.30765 1
gene 1 67 4 6.28011 0 194 6.28011 1
gene 1 6 131 -3.87192 0 415 -3.87192 1
gene 1 131 53 -1.33774 0 416 -1.33774 1
gene 3 131 67 -1.08473 0 594 -1.08473 1
gene 3 2 53 -2.28518 0 634 -2.28518 1
gene 3 67 53 2.27681 0 648 2.27681 1
gene 3 1 53 2.41438 0 915 2.41438 1
gene 1 2 131 -0.397495 0 927 -0.397495 1
genomeend 36

/* Organism #37 Fitness: 5.74203 Error: 1.60375 */
genomestart 37
trait 1 0.174215 0.0220945 0.0260485 0 0 0 0.0958787 0.0621698 
trait 2 0.2 0 0.00427095 0 0.0751076 0 0.000764936 0 
trait 3 0.142691 0.0300801 0.166148 0 0.75213 0.252485 0.0220778 0.00473381 
node 1 3 1 3
node 2 1 1 1
node 3 2 1 1
node 4 2 0 2
node 6 3 0 0
node 53 2 0 0
node 67 1 0 0
node 131 1 0 0
gene 1 1 4 5.06568 0 1 5.06568 1
gene 1 2 4 -7.34812 0 2 -7.34812 1
gene 1 3 4 -5.16719 0 3 -5.16719 1
gene 1 3 6 1.24912 0 6 1.24912 0
gene 1 6 4 0.929076 0 7 0.929076 0
gene 3 1 6 3.43503 0 85 3.43503 1
gene 1 6 53 2.69712 0 152 2.69712 0
gene 1 53 4 7.35882 0 153 7.35882 1
gene 1 3 67 0.0851851 0 193 0.0851851 1
gene 1 67 4 -0.372242 0 194 -0.372242 1
gene 1 6 131 -1.96734 0 415 -1.96734 1
gene 1 131 53 -2.22083 0 416 -2.22083 1
gene 3 131 67 -3.17665 0 594 -3.17665 1
gene 3 2 53 -5.59189 0 634 -5.59189 1
gene 3 67 53 -1.86635 0 648 -1.86635 1
gene 3 1 53 1.24909 0 915 1.24909 1
gene 1 2 131 -1.2776 0 927 -1.2776 1
genomeend 37

/* Organism #38 Fitness: 8.8801 Error: 1.02005 */
genomestart 38
trait 1 0.174215 0.0220945 0.0260485 0 0 0 0.0958787 0.0621698 
trait 2 0.2 0 0.00427095 0 0.0751076 0 0.000764936 0 
trait 3 0.142691 0.0300801 0.166148 0 0.75213 0.252485 0.0220778 0.00473381 
node 1 3 1 3
node 2 1 1 1
node 3 2 1 1
node 4 2 0 2
node 6 3 0 0
node 53 2 0 0
node 67 1 0 0
node 131 1 0 0
gene 1 1 4 5.42322 0 1 5.42322 1
gene 1 2 4 -6.85418 0 2 -6.85418 1
gene 1 3 4 -4.74403 0 3 -4.74403 1
gene 1 3 6 0.850765 0 6 0.850765 0
gene 1 6 4 2.22836 0 7 2.22836 0
gene 3 1 6 -0.477417 0 85 -0.477417 1
gene 1 6 53 4.62726 0 152 4.62726 0
gene 1 53 4 7.62341 0 153 7.62341 1
gene 1 3 67 -0.336271 0 193 -0.336271 1
gene 1 67 4 0.438149 0 194 0.438149 1
gene 1 6 131 -5.10437 0 415 -5.10437 1
gene 1 131 53 -2.50921 0 416 -2.50921 1
gene 3 131 67 0.149861 0 594 0.149861 1
gene 3 2 53 -1.70211 0 634 -1.70211 1
gene 3 67 53 0.678622 0 648 0.678622 1
gene 3 1 53 -1.19102 0 915 -1.19102 1
gene 1 2 131 -0.77445 0 927 -0.77445 1
genomeend 38

/* Organism #39 Fitness: 15.9659 Error: 0.00426003 */
genomestart 39
trait 1 0.174215 0.0220945 0.0260485 0 0 0 0.0958787 0.0621698 
trait 2 0.2 0 0.00427095 0 0.0751076 0 0.000764936 0 
trait 3 0.285383 0.0300801 0.0566317 0 0.75213 0 0.0220778 0.00473381 
node 1 3 1 3
node 2 1 1 1
node 3 2 1 1
node 4 2 0 2
node 6 3 0 0
node 53 2 0 0
node 67 1 0 0
node 131 1 0 0
gene 1 1 4 5.81615 0 1 5.81615 1
gene 1 2 4 -4.80519 0 2 -4.80519 1
gene 1 3 4 -7.26369 0 3 -7.26369 1
gene 1 3 6 3.6043 0 6 3.6043 1
gene 1 6 4 0.994672 0 7 0.994672 0
gene 3 1 6 0.529654 0 85 0.529654 1
gene 1 6 53 3.97938 0 152 3.97938 0
gene 1 53 4 7.85063 0 153 7.85063 1
gene 1 3 67 -2.30765 0 193 -2.30765 1
gene 1 67 4 6.28011 0 194 6.28011 1
gene 1 6 131 -2.99488 0 415 -2.99488 1
gene 1 131 53 -1.33774 0 416 -1.33774 1
gene 3 131 67 -0.559538 0 594 -0.559538 1
gene 3 2 53 -3.77838 0 634 -3.77838 1
gene 3 67 53 2.80837 0 648 2.80837 1
gene 3 1 53 2.41438 0 915 2.41438 1
gene 1 2 131 -0.397495 0 927 -0.397495 1
gene 1 3 53 -0.741047 0 1091 -0.741047 1
gene 3 1 67 -0.870446 0 1100 -0.870446 1
genomeend 39

/* Species #62 : (Size 9) (AF 10.7047) (Age 15)  */


/* Organism #40 Fitness: 16 Error: 8.93222e-12 */
genomestart 40
trait 1 0.174215 0.0220945 0.0260485 0 0 0 0.0958787 0.0621698 
trait 2 0.1 0.210888 0.00427095 0.144718 0.0751076 0 0.131695 0 
trait 3 0.285383 0.0300801 0.0566317 0 0.75213 0 0.0220778 0.00473381 
node 1 3 1 3
node 2 1 1 1
node 3 2 1 1
node 4 1 0 2
node 6 3 0 0
node 53 2 0 0
node 67 1 0 0
node 131 1 0 0
node 274 1 0 0
node 297 1 0 0
gene 1 1 4 7.83044 0 1 7.83044 1
gene 1 2 4 -3.66095 0 2 -3.66095 1
gene 1 3 4 -8 0 3 -8 1
gene 1 3 6 -2.50923 0 6 -2.50923 0
gene 1 6 4 2.17839 0 7 2.17839 0
gene 3 1 6 3.867 0 85 3.867 1
gene 1 6 53 -0.15972 0 152 -0.15972 0
gene 1 53 4 8 0 153 8 1
gene 1 3 67 -5.12152 0 193 -5.12152 1
gene 1 67 4 4.01548 0 194 4.01548 1
gene 1 6 131 -5.10021 0 415 -5.10021 0
gene 1 131 53 -0.878986 0 416 -0.878986 1
gene 3 131 67 -4.84125 0 594 -4.84125 1
gene 3 2 53 -5.50772 0 634 -5.50772 1
gene 3 67 53 2.83128 0 648 2.83128 1
gene 3 1 53 4.0152 0 915 4.0152 1
gene 1 3 274 -0.070988 0 943 -0.070988 1
gene 1 274 4 -6.43875 0 944 -6.43875 1
gene 1 6 297 2.2857 0 1021 2.2857 1
gene 1 297 131 -2.87361 0 1022 -2.87361 1
genomeend 40

/* Organism #41 Fitness: 15.4849 Error: 0.0649162 */
genomestart 41
trait 1 0.174215 0.0220945 0.0260485 0 0 0 0.0958787 0.0621698 
trait 2 0.1 0.210888 0.00427095 0.144718 0.0751076 0 0.131695 0 
trait 3 0.285383 0.0300801 0.0566317 0 0.75213 0 0.0220778 0.00473381 
node 1 3 1 3
node 2 1 1 1
node 3 2 1 1
node 4 1 0 2
node 6 3 0 0
node 53 2 0 0
node 67 1 0 0
node 131 1 0 0
node 274 1 0 0
node 297 1 0 0
node 319 1 0 0
gene 1 1 4 8 0 1 8 1
gene 1 2 4 -2.47218 0 2 -2.47218 1
gene 1 3 4 -7.67634 0 3 -7.67634 1
gene 1 3 6 -2.73827 0 6 -2.73827 0
gene 1 6 4 1.36099 0 7 1.36099 0
gene 3 1 6 5.47413 0 85 5.47413 1
gene 1 6 53 -2.23026 0 152 -2.23026 0
gene 1 53 4 6.79156 0 153 6.79156 1
gene 1 3 67 -5.27987 0 193 -5.27987 1
gene 1 67 4 2.99957 0 194 2.99957 1
gene 1 6 131 -7.09575 0 415 -7.09575 0
gene 1 131 53 -1.92018 0 416 -1.92018 1
gene 3 131 67 -5.04072 0 594 -5.04072 1
gene 3 2 53 -3.93172 0 634 -3.93172 1
gene 3 67 53 1.79484 0 648 1.79484 1
gene 3 1 53 2.66241 0 915 2.66241 1
gene 1 3 274 2.3702 0 943 2.3702 1
gene 1 274 4 -6.57355 0 944 -6.57355 1
gene 1 6 297 4.41604 0 1021 4.41604 1
gene 1 297 131 1.85493 0 1022 1.85493 0
gene 1 297 319 1 0 1092 1 1
gene 1 319 131 -3.61005 0 1093 -3.61005 1
genomeend 41

/* Organism #42 Fitness: 4 Error: 2 */
genomestart 42
trait 1 0.174215 0.0220945 0.0260485 0 0 0 0.0958787 0.0621698 
trait 2 0.1 0.210888 0.00427095 0.144718 0.0751076 0 0.131695 0 
trait 3 0.285383 0.0300801 0.0566317 0 0.75213 0 0.0220778 0.00473381 
node 1 3 1 3
node 2 1 1 1
node 3 2 1 1
node 4 1 0 2
node 6 3 0 0
node 53 2 0 0
node 67 1 0 0
node 131 1 0 0
node 274 1 0 0
node 297 1 0 0
node 319 1 0 0
gene 1 1 4 -0.411622 0 1 -0.411622 1
gene 1 2 4 -2.52631 0 2 -2.52631 1
gene 1 3 4 -6.83832 0 3 -6.83832 1
gene 1 3 6 -3.61759 0 6 -3.61759 0
gene 1 6 4 2.17839 0 7 2.17839 0
gene 3 1 6 4.60988 0 85 4.60988 1
gene 1 6 53 0.93468 0 152 0.93468 0
gene 1 53 4 -0.62547 0 153 -0.62547 1
gene 1 3 67 -5.49405 0 193 -5.49405 1
gene 1 67 4 3.93502 0 194 3.93502 1
gene 1 6 131 -5.51321 0 415 -5.51321 0
gene 1 131 53 1.01461 0 416 1.01461 1
gene 3 131 67 -2.68423 0 594 -2.68423 1
gene 3 2 53 -0.833618 0 634 -0.833618 1
gene 3 67 53 2.83128 0 648 2.83128 1
gene 3 1 53 5.93224 0 915 5.93224 1
gene 1 3 274 0.415192 0 943 0.415192 1
gene 1 274 4 -6.43875 0 944 -6.43875 1
gene 1 6 297 -2.31211 0 1021 -2.31211 1
gene 1 297 131 0.785594 0 1022 0.785594 0
gene 1 297 319 -0.509439 0 1092 -0.509439 1
gene 1 319 131 0.215598 0 1093 0.215598 1
genomeend 42

/* Organism #43 Fitness: 15.9998 Error: 2.04063e-05 */
genomestart 43
trait 1 0.174215 0.0220945 0.0260485 0 0 0 0.0958787 0.0621698 
trait 2 0.1 0.210888 0.00427095 0.144718 0.0751076 0 0.131695 0 
trait 3 0.285383 0.0300801 0.0566317 0 0.75213 0 0.0220778 0.00473381 
node 1 3 1 3
node 2 1 1 1
node 3 2 1 1
node 4 1 0 2
node 6 3 0 0
node 53 2 0 0
node 67 1 0 0
node 131 1 0 0
node 274 1 0 0
node 297 1 0 0
node 319 1 0 0
gene 1 1 4 8 0 1 8 1
gene 1 2 4 -4.59532 0 2 -4.59532 1
gene 1 3 4 -8 0 3 -8 1
gene 1 3 6 -3.77566 0 6 -3.77566 0
gene 1 6 4 1.42128 0 7 1.42128 0
gene 3 1 6 2.01949 0 85 2.01949 1
gene 1 6 53 -0.851769 0 152 -0.851769 0
gene 1 53 4 7.30881 0 153 7.30881 1
gene 1 3 67 -3.30031 0 193 -3.30031 1
gene 1 67 4 3.24768 0 194 3.24768 1
gene 1 6 131 -5.28655 0 415 -5.28655 0
gene 1 131 53 -1.45463 0 416 -1.45463 1
gene 3 131 67 -5.82498 0 594 -5.82498 1
gene 3 2 53 -5.37415 0 634 -5.37415 1
gene 3 67 53 2.64465 0 648 2.64465 1
gene 3 1 53 3.66168 0 915 3.66168 1
gene 1 3 274 -2.14513 0 943 -2.14513 1
gene 1 274 4 -6.31653 0 944 -6.31653 1
gene 1 6 297 0.308571 0 1021 0.308571 1
gene 1 297 131 -1.11226 0 1022 -1.11226 0
gene 1 297 319 1 0 1092 1 1
gene 1 319 131 -1.01992 0 1093 -1.01992 1
genomeend 43

/* Organism #44 Fitness: 9.9289 Error: 0.848985 */
genomestart 44
trait 1 0.174215 0.0220945 0.0260485 0 0 0 0.0958787 0.0621698 
trait 2 0.1 0.210888 0.00427095 0.144718 0.0751076 0 0.131695 0 
trait 3 0.285383 0.0300801 0.0566317 0 0.75213 0 0.0220778 0.00473381 
node 1 3 1 3
node 2 1 1 1
node 3 2 1 1
node 4 1 0 2
node 6 3 0 0
node 53 2 0 0
node 67 1 0 0
node 131 1 0 0
node 274 1 0 0
node 297 1 0 0
gene 1 1 4 8 0 1 8 1
gene 1 2 4 -3.99441 0 2 -3.99441 1
gene 1 3 4 -7.20166 0 3 -7.20166 1
gene 1 3 6 -2.17414 0 6 -2.17414 1
gene 1 6 4 1.80828 0 7 1.80828 1
gene 3 1 6 2.98943 0 85 2.98943 1
gene 1 6 53 1.74475 0 152 1.74475 1
gene 1 53 4 6.7001 0 153 6.7001 1
gene 1 3 67 -4.81001 0 193 -4.81001 1
gene 1 67 4 2.82744 0 194 2.82744 1
gene 1 6 131 -4.36362 0 415 -4.36362 0
gene 1 131 53 1.17391 0 416 1.17391 1
gene 3 131 67 -6.85843 0 594 -6.85843 1
gene 3 2 53 -5.24671 0 634 -5.24671 1
gene 3 67 53 4.65318 0 648 4.65318 1
gene 3 1 53 3.38203 0 915 3.38203 1
gene 1 3 274 -0.494124 0 943 -0.494124 1
gene 1 274 4 -4.82757 0 944 -4.82757 1
gene 1 6 297 2.2857 0 1021 2.2857 1
gene 1 297 131 -3.08339 0 1022 -3.08339 0
genomeend 44

/* Organism #45 Fitness: 9.0001 Error: 0.999984 */
genomestart 45
trait 1 0.174215 0.0220945 0.0260485 0 0 0 0.0958787 0.0621698 
trait 2 0.1 0.210888 0.00427095 0.144718 0.0751076 0 0.131695 0 
trait 3 0.285383 0.0300801 0.0566317 0 0.75213 0 0.0220778 0.00473381 
node 1 3 1 3
node 2 1 1 1
node 3 2 1 1
node 4 1 0 2
node 6 3 0 0
node 53 2 0 0
node 67 1 0 0
node 131 1 0 0
node 274 1 0 0
node 297 1 0 0
gene 1 1 4 6.81635 0 1 6.81635 1
gene 1 2 4 1.63589 0 2 1.63589 1
gene 1 3 4 -8 0 3 -8 1
gene 1 3 6 -1.19266 0 6 -1.19266 0
gene 1 6 4 1.04854 0 7 1.04854 0
gene 3 1 6 3.867 0 85 3.867 1
gene 1 6 53 -1.20878 0 152 -1.20878 0
gene 1 53 4 6.74405 0 153 6.74405 1
gene 1 3 67 0.0665982 0 193 0.0665982 1
gene 1 67 4 5.65374 0 194 5.65374 1
gene 1 6 131 0.375407 0 415 0.375407 0
gene 1 131 53 1.53618 0 416 1.53618 1
gene 3 131 67 -5.63498 0 594 -5.63498 1
gene 3 2 53 -5.50772 0 634 -5.50772 1
gene 3 67 53 2.82296 0 648 2.82296 1
gene 3 1 53 -1.51876 0 915 -1.51876 1
gene 1 3 274 0.668006 0 943 0.668006 1
gene 1 274 4 -1.4913 0 944 -1.4913 1
gene 1 6 297 0.792848 0 1021 0.792848 1
gene 1 297 131 -1.3352 0 1022 -1.3352 1
genomeend 45

/* Organism #46 Fitness: 5.92835 Error: 1.56518 */
genomestart 46
trait 1 0.174215 0.0220945 0.0260485 0 0 0 0.0958787 0.0621698 
trait 2 0.1 0.0730769 0 0.144718 0 0 0.131695 0 
trait 3 0.285383 0.0300801 0.0566317 0 0.75213 0 0.0220778 0.00473381 
node 1 3 1 3
node 2 1 1 1
node 3 2 1 1
node 4 1 0 2
node 6 3 0 0
node 53 2 0 0
node 67 1 0 0
node 131 1 0 0
node 274 1 0 0
node 297 1 0 0
node 319 1 0 0
gene 1 1 4 6.16421 0 1 6.16421 1
gene 1 2 4 -2.32992 0 2 -2.32992 1
gene 1 3 4 -8 0 3 -8 1
gene 1 3 6 -1.3266 0 6 -1.3266 0
gene 1 6 4 0.102696 0 7 0.102696 0
gene 3 1 6 1.44678 0 85 1.44678 1
gene 1 6 53 0.113344 0 152 0.113344 0
gene 1 53 4 8 0 153 8 1
gene 1 3 67 -2.86625 0 193 -2.86625 1
gene 1 67 4 -1.35717 0 194 -1.35717 1
gene 1 6 131 -6.35213 0 415 -6.35213 0
gene 1 131 53 -0.693912 0 416 -0.693912 1
gene 3 131 67 -4.84125 0 594 -4.84125 1
gene 3 2 53 -5.58142 0 634 -5.58142 1
gene 3 67 53 2.63642 0 648 2.63642 1
gene 3 1 53 2.25157 0 915 2.25157 1
gene 1 3 274 0.432806 0 943 0.432806 1
gene 1 274 4 -7.15949 0 944 -7.15949 1
gene 1 6 297 1.80789 0 1021 1.80789 1
gene 1 297 131 -4.67953 0 1022 -4.67953 0
gene 1 297 319 0.885014 0 1092 0.885014 1
gene 1 319 131 -0.831147 0 1093 -0.831147 1
genomeend 46

/* Organism #47 Fitness: 16 Error: 6.08329e-10 */
genomestart 47
trait 1 0.174215 0.0220945 0.0260485 0 0 0 0.0958787 0.0621698 
trait 2 0.1 0.210888 0.00427095 0.144718 0.0751076 0 0.131695 0 
trait 3 0.285383 0.0300801 0.0566317 0 0.75213 0 0.0220778 0.00473381 
node 1 3 1 3
node 2 1 1 1
node 3 2 1 1
node 4 1 0 2
node 6 3 0 0
node 53 2 0 0
node 67 1 0 0
node 131 1 0 0
node 274 1 0 0
node 297 1 0 0
gene 1 1 4 7.83044 0 1 7.83044 1
gene 1 2 4 -3.66095 0 2 -3.66095 1
gene 1 3 4 -8 0 3 -8 1
gene 1 3 6 -2.50923 0 6 -2.50923 0
gene 1 6 4 2.17839 0 7 2.17839 1
gene 3 1 6 3.867 0 85 3.867 1
gene 1 6 53 -0.15972 0 152 -0.15972 0
gene 1 53 4 8 0 153 8 1
gene 1 3 67 -5.12152 0 193 -5.12152 1
gene 1 67 4 4.01548 0 194 4.01548 1
gene 1 6 131 -5.10021 0 415 -5.10021 0
gene 1 131 53 -0.878986 0 416 -0.878986 1
gene 3 131 67 -4.84125 0 594 -4.84125 1
gene 3 2 53 -5.50772 0 634 -5.50772 1
gene 3 67 53 2.83128 0 648 2.83128 1
gene 3 1 53 4.0152 0 915 4.0152 1
gene 1 3 274 -0.070988 0 943 -0.070988 1
gene 1 274 4 -6.43875 0 944 -6.43875 1
gene 1 6 297 2.2857 0 1021 2.2857 1
gene 1 297 131 -2.87361 0 1022 -2.87361 1
genomeend 47

/* Organism #48 Fitness: 4 Error: 2 */
genomestart 48
trait 1 0.174215 0.0220945 0.0260485 0 0 0 0.0958787 0.0621698 
trait 2 0.1 0.210888 0.00427095 0.144718 0.0751076 0 0.131695 0 
trait 3 0.285383 0.0300801 0.0566317 0 0.75213 0 0.0220778 0.00473381 
node 1 3 1 3
node 2 1 1 1
node 3 2 1 1
node 4 1 0 2
node 6 3 0 0
node 53 2 0 0
node 67 1 0 0
node 131 1 0 0
node 274 1 0 0
node 297 1 0 0
node 319 1 0 0
gene 1 1 4 -2.27877 0 1 -2.27877 1
gene 1 2 4 -5.07618 0 2 -5.07618 1
gene 1 3 4 -8 0 3 -8 1
gene 1 3 6 -3.86606 0 6 -3.86606 0
gene 1 6 4 0.359426 0 7 0.359426 0
gene 3 1 6 3.95965 0 85 3.95965 1
gene 1 6 53 -0.15972 0 152 -0.15972 0
gene 1 53 4 5.66397 0 153 5.66397 1
gene 1 3 67 -5.12152 0 193 -5.12152 1
gene 1 67 4 5.47326 0 194 5.47326 1
gene 1 6 131 -6.34185 0 415 -6.34185 0
gene 1 131 53 -0.878986 0 416 -0.878986 1
gene 3 131 67 -1.41451 0 594 -1.41451 1
gene 3 2 53 -4.33965 0 634 -4.33965 1
gene 3 67 53 2.47191 0 648 2.47191 1
gene 3 1 53 2.03013 0 915 2.03013 1
gene 1 3 274 -0.576134 0 943 -0.576134 1
gene 1 274 4 -6.22527 0 944 -6.22527 1
gene 1 6 297 0.349318 0 1021 0.349318 1
gene 1 297 131 -2.35886 0 1022 -2.35886 0
gene 1 297 319 1 0 1092 1 1
gene 1 319 131 -3.67639 0 1093 -3.67639 1
genomeend 48

/* Species #63 : (Size 7) (AF 14.4232) (Age 14)  */


/* Organism #49 Fitness: 15.9996 Error: 5.6075e-05 */
genomestart 49
trait 1 0.174215 0.0220945 0.0260485 0 0 0 0.0958787 0.0621698 
trait 2 0.2 0 0.00427095 0 0.0751076 0 0.000764936 0 
trait 3 0.285383 0.0300801 0.0566317 0 0.75213 0 0.0220778 0.00473381 
node 1 3 1 3
node 2 1 1 1
node 3 2 1 1
node 4 2 0 2
node 6 3 0 0
node 53 2 0 0
node 67 1 0 0
node 131 1 0 0
node 265 1 0 0
gene 1 1 4 8 0 1 8 1
gene 1 2 4 -5.79564 0 2 -5.79564 0
gene 1 3 4 -6.25314 0 3 -6.25314 1
gene 1 3 6 3.26875 0 6 3.26875 0
gene 1 6 4 -0.271956 0 7 -0.271956 1
gene 3 1 6 2.96219 0 85 2.96219 1
gene 1 6 53 5.91422 0 152 5.91422 0
gene 1 53 4 7.4784 0 153 7.4784 1
gene 1 3 67 -1.85884 0 193 -1.85884 1
gene 1 67 4 4.10636 0 194 4.10636 1
gene 1 6 131 -0.289668 0 415 -0.289668 1
gene 1 131 53 2.56946 0 416 2.56946 1
gene 3 131 67 -0.523189 0 594 -0.523189 1
gene 3 2 53 -1.00339 0 634 -1.00339 1
gene 3 67 53 -1.77461 0 648 -1.77461 1
gene 2 1 131 -1.75745 0 899 -1.75745 1
gene 1 2 265 1 0 907 1 1
gene 1 265 4 -6.39353 0 908 -6.39353 1
gene 2 1 67 -0.247216 0 949 -0.247216 1
gene 1 67 265 -0.77955 0 980 -0.77955 1
genomeend 49

/* Organism #50 Fitness: 12.3199 Error: 0.490028 */
genomestart 50
trait 1 0.174215 0.0220945 0.0260485 0 0 0 0.0958787 0.0621698 
trait 2 0.2 0 0.00427095 0 0.0751076 0 0.000764936 0 
trait 3 0.285383 0.0300801 0.0566317 0 0.75213 0 0.0220778 0.00473381 
node 1 3 1 3
node 2 1 1 1
node 3 2 1 1
node 4 2 0 2
node 6 3 0 0
node 53 2 0 0
node 67 1 0 0
node 131 1 0 0
node 265 1 0 0
gene 1 1 4 8 0 1 8 1
gene 1 2 4 -3.97874 0 2 -3.97874 0
gene 1 3 4 -7.37281 0 3 -7.37281 1
gene 1 3 6 1.73727 0 6 1.73727 0
gene 1 6 4 -0.771618 0 7 -0.771618 1
gene 3 1 6 1.78159 0 85 1.78159 1
gene 1 6 53 6.49507 0 152 6.49507 0
gene 1 53 4 8 0 153 8 1
gene 1 3 67 -3.60816 0 193 -3.60816 1
gene 1 67 4 4.68033 0 194 4.68033 1
gene 1 6 131 -0.29621 0 415 -0.29621 1
gene 1 131 53 3.85387 0 416 3.85387 1
gene 3 131 67 -0.636035 0 594 -0.636035 1
gene 3 2 53 -0.780639 0 634 -0.780639 1
gene 3 67 53 -1.0491 0 648 -1.0491 1
gene 2 1 131 -2.17886 0 899 -2.17886 1
gene 1 2 265 -0.94284 0 907 -0.94284 1
gene 1 265 4 -6.37672 0 908 -6.37672 1
gene 2 1 67 -1.95766 0 949 -1.95766 1
gene 1 67 265 -0.77955 0 980 -0.77955 1
genomeend 50

/* Organism #51 Fitness: 15.6855 Error: 0.0395133 */
genomestart 51
trait 1 0.174215 0.0220945 0.0260485 0 0 0 0.0958787 0.0621698 
trait 2 0.2 0 0.00427095 0 0.0751076 0 0.000764936 0 
trait 3 0.285383 0.0300801 0.0566317 0 0.75213 0 0.0220778 0.00473381 
node 1 3 1 3
node 2 1 1 1
node 3 2 1 1
node 4 2 0 2
node 6 3 0 0
node 53 2 0 0
node 67 1 0 0
node 131 1 0 0
node 265 1 0 0
gene 1 1 4 7.58975 0 1 7.58975 1
gene 1 2 4 -7.68041 0 2 -7.68041 0
gene 1 3 4 -7.92857 0 3 -7.92857 1
gene 1 3 6 3.75845 0 6 3.75845 0
gene 1 6 4 0.271243 0 7 0.271243 1
gene 3 1 6 4.11458 0 85 4.11458 1
gene 1 6 53 3.51335 0 152 3.51335 0
gene 1 53 4 5.59598 0 153 5.59598 1
gene 1 3 67 -2.35478 0 193 -2.35478 1
gene 1 67 4 1.75439 0 194 1.75439 1
gene 1 6 131 1.22013 0 415 1.22013 1
gene 1 131 53 4.27739 0 416 4.27739 1
gene 3 131 67 -2.88889 0 594 -2.88889 1
gene 3 2 53 1.08319 0 634 1.08319 1
gene 3 67 53 -3.72575 0 648 -3.72575 1
gene 2 1 131 -0.564443 0 899 -0.564443 1
gene 1 2 265 0.7725 0 907 0.7725 1
gene 1 265 4 -6.31406 0 908 -6.31406 1
gene 2 1 67 1.35965 0 949 1.35965 1
gene 1 67 265 0.484882 0 980 0.484882 1
genomeend 51

/* Organism #52 Fitness: 8.99971 Error: 1.00005 */
genomestart 52
trait 1 0.174215 0.0220945 0.0260485 0 0 0 0.0958787 0.0621698 
trait 2 0.2 0 0.00427095 0 0.0751076 0 0.000764936 0 
trait 3 0.285383 0.0300801 0.0566317 0 0.75213 0 0.0220778 0.00473381 
node 1 3 1 3
node 2 1 1 1
node 3 1 1 1
node 4 2 0 2
node 6 3 0 0
node 53 2 0 0
node 67 1 0 0
node 131 1 0 0
node 265 1 0 0
gene 1 1 4 8 0 1 8 1
gene 1 2 4 -5.79564 0 2 -5.79564 1
gene 1 3 4 -6.25314 0 3 -6.25314 1
gene 1 3 6 3.26875 0 6 3.26875 0
gene 1 6 4 -0.271956 0 7 -0.271956 1
gene 3 1 6 2.96219 0 85 2.96219 1
gene 1 6 53 5.91422 0 152 5.91422 0
gene 1 53 4 7.4784 0 153 7.4784 1
gene 1 3 67 -1.85884 0 193 -1.85884 1
gene 1 67 4 4.10636 0 194 4.10636 1
gene 1 6 131 -0.289668 0 415 -0.289668 1
gene 1 131 53 2.56946 0 416 2.56946 1
gene 3 131 67 -0.523189 0 594 -0.523189 1
gene 3 2 53 -1.00339 0 634 -1.00339 1
gene 3 67 53 -1.77461 0 648 -1.77461 1
gene 2 1 131 -1.75745 0 899 -1.75745 1
gene 1 2 265 1 0 907 1 1
gene 1 265 4 -6.39353 0 908 -6.39353 1
gene 2 1 67 -0.247216 0 949 -0.247216 1
gene 1 67 265 -0.77955 0 980 -0.77955 1
genomeend 52

/* Organism #53 Fitness: 15.9996 Error: 5.6075e-05 */
genomestart 53
trait 1 0.174215 0.0220945 0.0260485 0 0 0 0.0958787 0.0621698 
trait 2 0.2 0 0.00427095 0 0.0751076 0 0.000764936 0 
trait 3 0.285383 0.0300801 0.0566317 0 0.75213 0 0.0220778 0.00473381 
node 1 3 1 3
node 2 1 1 1
node 3 2 1 1
node 4 2 0 2
node 6 3 0 0
node 53 2 0 0
node 67 1 0 0
node 131 1 0 0
node 265 1 0 0
gene 1 1 4 8 0 1 8 1
gene 1 2 4 -5.79564 0 2 -5.79564 0
gene 1 3 4 -6.25314 0 3 -6.25314 1
gene 1 3 6 3.26875 0 6 3.26875 0
gene 1 6 4 -0.271956 0 7 -0.271956 1
gene 3 1 6 2.96219 0 85 2.96219 1
gene 1 6 53 5.91422 0 152 5.91422 0
gene 1 53 4 7.4784 0 153 7.4784 1
gene 1 3 67 -1.85884 0 193 -1.85884 1
gene 1 67 4 4.10636 0 194 4.10636 1
gene 1 6 131 -0.289668 0 415 -0.289668 1
gene 1 131 53 2.56946 0 416 2.56946 1
gene 3 131 67 -0.523189 0 594 -0.523189 1
gene 3 2 53 -1.00339 0 634 -1.00339 1
gene 3 67 53 -1.77461 0 648 -1.77461 1
gene 2 1 131 -1.75745 0 899 -1.75745 1
gene 1 2 265 1 0 907 1 1
gene 1 265 4 -6.39353 0 908 -6.39353 1
gene 2 1 67 -0.247216 0 949 -0.247216 1
gene 1 67 265 -0.77955 0 980 -0.77955 1
genomeend 53

/* Organism #54 Fitness: 15.9586 Error: 0.00517759 */
genomestart 54
trait 1 0.174215 0.0220945 0.0260485 0 0 0 0.0958787 0.0621698 
trait 2 0.2 0 0.00427095 0 0.0751076 0 0.000764936 0 
trait 3 0.285383 0.0300801 0.0566317 0 0.75213 0 0.0220778 0.00473381 
node 1 3 1 3
node 2 1 1 1
node 3 2 1 1
node 4 2 0 2
node 6 3 0 0
node 53 2 0 0
node 67 1 0 0
node 131 1 0 0
node 265 1 0 0
node 322 1 0 0
gene 1 1 4 8 0 1 8 1
gene 1 2 4 -5.79564 0 2 -5.79564 0
gene 1 3 4 -6.25314 0 3 -6.25314 1
gene 1 3 6 3.26875 0 6 3.26875 0
gene 1 6 4 -0.271956 0 7 -0.271956 1
gene 3 1 6 2.96219 0 85 2.96219 1
gene 1 6 53 5.91422 0 152 5.91422 0
gene 1 53 4 7.4784 0 153 7.4784 0
gene 1 3 67 -1.85884 0 193 -1.85884 1
gene 1 67 4 4.10636 0 194 4.10636 1
gene 1 6 131 -0.289668 0 415 -0.289668 1
gene 1 131 53 2.56946 0 416 2.56946 1
gene 3 131 67 -0.523189 0 594 -0.523189 1
gene 3 2 53 -1.00339 0 634 -1.00339 1
gene 3 67 53 -1.77461 0 648 -1.77461 1
gene 2 1 131 -1.75745 0 899 -1.75745 1
gene 1 2 265 1 0 907 1 1
gene 1 265 4 -6.39353 0 908 -6.39353 1
gene 2 1 67 -0.247216 0 949 -0.247216 1
gene 1 67 265 -0.77955 0 980 -0.77955 1
gene 1 53 322 1 0 1101 0 1
gene 1 322 4 7.4784 0 1102 0 1
genomeend 54

/* Organism #55 Fitness: 15.9995 Error: 5.673e-05 */
genomestart 55
trait 1 0.174215 0.0220945 0.0260485 0 0 0 0.0958787 0.0621698 
trait 2 0.2 0 0.00427095 0 0.0751076 0 0.000764936 0 
trait 3 0.285383 0.0300801 0.0566317 0 0.75213 0 0.0220778 0.00473381 
node 1 3 1 3
node 2 1 1 1
node 3 2 1 1
node 4 2 0 2
node 6 3 0 0
node 53 2 0 0
node 67 1 0 0
node 131 1 0 0
node 265 1 0 0
node 321 1 0 0
gene 1 1 4 8 0 1 8 1
gene 1 2 4 -5.79564 0 2 -5.79564 0
gene 1 3 4 -6.25314 0 3 -6.25314 1
gene 1 3 6 3.26875 0 6 3.26875 0
gene 1 6 4 -0.271956 0 7 -0.271956 1
gene 3 1 6 2.96219 0 85 2.96219 1
gene 1 6 53 5.91422 0 152 5.91422 0
gene 1 53 4 7.4784 0 153 7.4784 1
gene 1 3 67 -1.85884 0 193 -1.85884 1
gene 1 67 4 4.10636 0 194 4.10636 1
gene 1 6 131 -0.289668 0 415 -0.289668 0
gene 1 131 53 2.56946 0 416 2.56946 1
gene 3 131 67 -0.523189 0 594 -0.523189 1
gene 3 2 53 -1.00339 0 634 -1.00339 1
gene 3 67 53 -1.77461 0 648 -1.77461 1
gene 2 1 131 -1.75745 0 899 -1.75745 1
gene 1 2 265 1 0 907 1 1
gene 1 265 4 -6.39353 0 908 -6.39353 1
gene 2 1 67 -0.247216 0 949 -0.247216 1
gene 1 67 265 -0.77955 0 980 -0.77955 1
gene 1 6 321 1 0 1098 0 1
gene 1 321 131 -0.289668 0 1099 0 1
genomeend 55

/* Species #65 : (Size 9) (AF 12.5955) (Age 12)  */


/* Organism #56 Fitness: 16 Error: 4.34594e-10 */
genomestart 56
trait 1 0.174215 0.0220945 0.0260485 0 0 0 0.0958787 0.0621698 
trait 2 0.2 0 0.00427095 0 0.0751076 0 0.000764936 0 
trait 3 0.285383 0.0300801 0.0566317 0 0.75213 0 0.0220778 0.00473381 
node 1 3 1 3
node 2 1 1 1
node 3 2 1 1
node 4 2 0 2
node 6 3 0 0
node 53 2 0 0
node 67 1 0 0
node 131 1 0 0
node 266 1 0 0
node 282 1 0 0
gene 1 1 4 8 0 1 8 1
gene 1 2 4 -7.99145 0 2 -7.99145 0
gene 1 3 4 -7.68142 0 3 -7.68142 1
gene 1 3 6 1.19014 0 6 1.19014 1
gene 1 6 4 -0.677741 0 7 -0.677741 0
gene 3 1 6 0.600337 0 85 0.600337 1
gene 1 6 53 3.78152 0 152 3.78152 0
gene 1 53 4 7.04497 0 153 7.04497 1
gene 1 3 67 -2.96617 0 193 -2.96617 1
gene 1 67 4 5.21198 0 194 5.21198 1
gene 1 6 131 0.343132 0 415 0.343132 1
gene 1 131 53 0.370497 0 416 0.370497 1
gene 3 131 67 0.411329 0 594 0.411329 1
gene 3 2 53 -0.96329 0 634 -0.96329 1
gene 3 67 53 0.40356 0 648 0.40356 0
gene 3 131 4 0.43367 0 900 0 1
gene 3 67 266 1 0 913 0 1
gene 3 266 53 0.40356 0 914 0 1
gene 1 131 266 0.0780136 0 955 0.0780136 1
gene 1 2 282 1 0 975 0 1
gene 1 282 4 -7.99145 0 976 0 1
gene 2 53 282 -0.121374 0 987 -0.121374 1
genomeend 56

/* Organism #57 Fitness: 16 Error: 4.34576e-10 */
genomestart 57
trait 1 0.174215 0.0220945 0.0260485 0 0 0 0.0958787 0.0621698 
trait 2 0.2 0 0.00427095 0 0.0751076 0 0.000764936 0 
trait 3 0.285383 0.0300801 0.0566317 0 0.75213 0 0.0220778 0.00473381 
node 1 3 1 3
node 2 1 1 1
node 3 2 1 1
node 4 2 0 2
node 6 3 0 0
node 53 2 0 0
node 67 1 0 0
node 131 1 0 0
node 266 1 0 0
node 282 1 0 0
gene 1 1 4 8 0 1 8 1
gene 1 2 4 -7.99145 0 2 -7.99145 0
gene 1 3 4 -7.68142 0 3 -7.68142 1
gene 1 3 6 1.19014 0 6 1.19014 1
gene 1 6 4 -0.677741 0 7 -0.677741 0
gene 3 1 6 0.600337 0 85 0.600337 1
gene 1 6 53 3.78152 0 152 3.78152 0
gene 1 53 4 7.04497 0 153 7.04497 1
gene 1 3 67 -2.96617 0 193 -2.96617 1
gene 1 67 4 5.21198 0 194 5.21198 1
gene 1 6 131 0.343132 0 415 0.343132 1
gene 1 131 53 0.370497 0 416 0.370497 1
gene 3 131 67 0.411329 0 594 0.411329 1
gene 3 2 53 -0.96329 0 634 -0.96329 1
gene 3 67 53 0.40356 0 648 0.40356 0
gene 3 131 4 0.43367 0 900 0 1
gene 3 67 266 3.4914 0 913 3.4914 1
gene 3 266 53 0.40356 0 914 0 1
gene 1 131 266 0.0780136 0 955 0.0780136 1
gene 1 2 282 1 0 975 0 1
gene 1 282 4 -7.99145 0 976 -7.99145 1
gene 2 53 282 -0.121374 0 987 -0.121374 1
genomeend 57

/* Organism #58 Fitness: 1.4968 Error: 2.77656 */
genomestart 58
trait 1 0.174215 0.0220945 0.141082 0 0.706169 0 1 0 
trait 2 0.2 0 0.00427095 0 0.0751076 0 0.000764936 0 
trait 3 0.285383 0.0300801 0.0566317 0 0.75213 0 0.0220778 0.00473381 
node 1 3 1 3
node 2 1 1 1
node 3 2 1 1
node 4 2 0 2
node 6 3 0 0
node 53 2 0 0
node 67 1 0 0
node 131 1 0 0
node 266 1 0 0
node 282 1 0 0
gene 1 1 4 6.2578 0 1 6.2578 1
gene 1 2 4 -1.42208 0 2 -1.42208 0
gene 1 3 4 -6.0987 0 3 -6.0987 1
gene 1 3 6 -0.522918 0 6 -0.522918 1
gene 1 6 4 1.3229 0 7 1.3229 0
gene 3 1 6 0.743174 0 85 0.743174 1
gene 1 6 53 1.90444 0 152 1.90444 0
gene 1 53 4 6.74108 0 153 6.74108 1
gene 1 3 67 -1.64641 0 193 -1.64641 1
gene 1 67 4 5.41623 0 194 5.41623 1
gene 1 6 131 0.343132 0 415 0.343132 1
gene 1 131 53 0.60522 0 416 0.60522 1
gene 3 131 67 -1.77405 0 594 -1.77405 1
gene 3 2 53 -1.87618 0 634 -1.87618 1
gene 3 67 53 -0.689076 0 648 -0.689076 0
gene 3 131 4 0.43367 0 900 0.43367 1
gene 3 67 266 3.49841 0 913 3.49841 1
gene 3 266 53 0.00283636 0 914 0.00283636 1
gene 1 131 266 -2.09809 0 955 -2.09809 1
gene 1 2 282 -0.824515 0 975 -0.824515 1
gene 1 282 4 -7.14811 0 976 -7.14811 1
gene 2 53 282 2.05756 0 987 2.05756 1
genomeend 58

/* Organism #59 Fitness: 9 Error: 1 */
genomestart 59
trait 1 0.174215 0.0220945 0.0260485 0 0 0 0.0958787 0.0621698 
trait 2 0.2 0 0.00427095 0 0.0751076 0 0.000764936 0 
trait 3 0.285383 0.0300801 0.0566317 0 0.75213 0 0.0220778 0.00473381 
node 1 3 1 3
node 2 1 1 1
node 3 2 1 1
node 4 2 0 2
node 6 3 0 0
node 53 2 0 0
node 67 1 0 0
node 131 1 0 0
node 266 2 0 0
node 282 1 0 0
gene 1 1 4 8 0 1 8 1
gene 1 2 4 -6.6396 0 2 -6.6396 0
gene 1 3 4 1.02795 0 3 1.02795 1
gene 1 3 6 0.837674 0 6 0.837674 1
gene 1 6 4 -0.677741 0 7 -0.677741 0
gene 3 1 6 -0.274406 0 85 -0.274406 1
gene 1 6 53 5.98084 0 152 5.98084 0
gene 1 53 4 8 0 153 8 1
gene 1 3 67 -3.36582 0 193 -3.36582 1
gene 1 67 4 6.98938 0 194 6.98938 1
gene 1 6 131 1.32085 0 415 1.32085 1
gene 1 131 53 -0.815591 0 416 -0.815591 1
gene 3 131 67 -0.799183 0 594 -0.799183 1
gene 3 2 53 -0.979368 0 634 -0.979368 1
gene 3 67 53 2.66421 0 648 2.66421 0
gene 3 131 4 -0.198981 0 900 -0.198981 1
gene 3 67 266 1 0 913 1 1
gene 3 266 53 1.49579 0 914 1.49579 1
gene 1 131 266 2.17995 0 955 2.17995 1
gene 1 2 282 1.3329 0 975 1.3329 1
gene 1 282 4 0.912876 0 976 0.912876 1
gene 2 53 282 -0.968054 0 987 -0.968054 1
genomeend 59

/* Organism #60 Fitness: 9 Error: 1 */
genomestart 60
trait 1 0.174215 0.0220945 0.0260485 0 0 0 0.0958787 0.0621698 
trait 2 0.2 0 0.00427095 0 0.0751076 0 0.000764936 0 
trait 3 0.285383 0.0300801 0.0566317 0 0.75213 0 0.0220778 0.00473381 
node 1 3 1 3
node 2 1 1 1
node 3 2 1 1
node 4 2 0 2
node 6 3 0 0
node 53 2 0 0
node 67 1 0 0
node 131 1 0 0
node 266 1 0 0
node 282 1 0 0
gene 1 1 4 6.74976 0 1 6.74976 1
gene 1 2 4 -8 0 2 -8 0
gene 1 3 4 -7.0584 0 3 -7.0584 1
gene 1 3 6 3.36839 0 6 3.36839 1
gene 1 6 4 -1.59104 0 7 -1.59104 0
gene 3 1 6 -0.603211 0 85 -0.603211 1
gene 1 6 53 4.61235 0 152 4.61235 0
gene 1 53 4 6.19439 0 153 6.19439 1
gene 1 3 67 -1.53689 0 193 -1.53689 1
gene 1 67 4 7.27068 0 194 7.27068 1
gene 1 6 131 -0.462385 0 415 -0.462385 1
gene 1 131 53 1.95179 0 416 1.95179 1
gene 3 131 67 -1.47693 0 594 -1.47693 1
gene 3 2 53 1.19637 0 634 1.19637 1
gene 3 67 53 -0.702076 0 648 -0.702076 0
gene 3 131 4 1.1661 0 900 1.1661 1
gene 3 67 266 0.251434 0 913 0.251434 1
gene 3 266 53 2.55839 0 914 2.55839 1
gene 1 131 266 0.0780136 0 955 0.0780136 1
gene 1 2 282 0.0558923 0 975 0.0558923 1
gene 1 282 4 -8 0 976 -8 1
gene 2 53 282 -0.831876 0 987 -0.831876 1
genomeend 60

/* Organism #61 Fitness: 16 Error: 3.80837e-08 */
genomestart 61
trait 1 0.174215 0.0220945 0.0260485 0 0 0 0.0958787 0.0621698 
trait 2 0.2 0 0.00427095 0 0.0751076 0 0.000764936 0 
trait 3 0.285383 0.0300801 0.0566317 0 0.75213 0 0.0220778 0.00473381 
node 1 3 1 3
node 2 1 1 1
node 3 2 1 1
node 4 2 0 2
node 6 3 0 0
node 53 2 0 0
node 67 1 0 0
node 131 1 0 0
node 266 1 0 0
node 282 1 0 0
gene 1 1 4 8 0 1 8 1
gene 1 2 4 -7.99145 0 2 -7.99145 0
gene 1 3 4 -7.68142 0 3 -7.68142 1
gene 1 3 6 1.19014 0 6 1.19014 1
gene 1 6 4 -0.677741 0 7 -0.677741 0
gene 3 1 6 0.600337 0 85 0.600337 1
gene 1 6 53 3.78152 0 152 3.78152 0
gene 1 53 4 7.04497 0 153 7.04497 1
gene 1 3 67 -2.96617 0 193 -2.96617 1
gene 1 67 4 5.21198 0 194 5.21198 1
gene 1 6 131 0.343132 0 415 0.343132 1
gene 1 131 53 0.370497 0 416 0.370497 1
gene 3 131 67 0.411329 0 594 0.411329 1
gene 3 2 53 -0.96329 0 634 -0.96329 1
gene 3 67 53 0.40356 0 648 0.40356 0
gene 3 131 4 0.43367 0 900 0 1
gene 3 67 266 3.4914 0 913 3.4914 1
gene 3 266 53 0.40356 0 914 0 1
gene 1 131 266 -1.21453 0 955 -1.21453 1
gene 1 2 282 1 0 975 0 1
gene 1 282 4 -7.99145 0 976 -7.99145 1
gene 2 53 282 -0.121374 0 987 -0.121374 1
genomeend 61

/* Organism #62 Fitness: 16 Error: 3.09766e-06 */
genomestart 62
trait 1 0.174215 0.0220945 0.0260485 0 0 0 0.0958787 0.0621698 
trait 2 0.2 0 0.00427095 0 0.0751076 0 0.000764936 0 
trait 3 0.285383 0.0300801 0.0566317 0 0.75213 0 0.0220778 0.00473381 
node 1 3 1 3
node 2 1 1 1
node 3 2 1 1
node 4 2 0 2
node 6 3 0 0
node 53 2 0 0
node 67 1 0 0
node 131 1 0 0
node 266 1 0 0
node 282 1 0 0
node 323 1 0 0
gene 1 1 4 8 0 1 8 1
gene 1 2 4 -7.99145 0 2 -7.99145 0
gene 1 3 4 -7.68142 0 3 -7.68142 0
gene 1 3 6 1.19014 0 6 1.19014 1
gene 1 6 4 -0.677741 0 7 -0.677741 0
gene 3 1 6 0.600337 0 85 0.600337 1
gene 1 6 53 3.78152 0 152 3.78152 0
gene 1 53 4 7.04497 0 153 7.04497 1
gene 1 3 67 -2.96617 0 193 -2.96617 1
gene 1 67 4 5.21198 0 194 5.21198 1
gene 1 6 131 0.343132 0 415 0.343132 1
gene 1 131 53 0.370497 0 416 0.370497 1
gene 3 131 67 0.411329 0 594 0.411329 1
gene 3 2 53 -0.96329 0 634 -0.96329 1
gene 3 67 53 0.40356 0 648 0.40356 0
gene 3 131 4 0.43367 0 900 0 1
gene 3 67 266 3.4914 0 913 3.4914 1
gene 3 266 53 0.40356 0 914 0 1
gene 1 131 266 -1.21453 0 955 -1.21453 1
gene 1 2 282 1 0 975 0 1
gene 1 282 4 -7.99145 0 976 -7.99145 1
gene 2 53 282 -0.121374 0 987 -0.121374 1
gene 1 3 323 1 0 1103 0 1
gene 1 323 4 -7.68142 0 1104 0 1
genomeend 62

/* Organism #63 Fitness: 15.1754 Error: 0.104443 */
genomestart 63
trait 1 0.174215 0.0220945 0.0260485 0 0 0 0.0958787 0.0621698 
trait 2 0.2 0 0.00427095 0 0.0751076 0 0.000764936 0 
trait 3 0.285383 0.0300801 0.0566317 0 0.75213 0 0.0220778 0.00473381 
node 1 3 1 3
node 2 1 1 1
node 3 2 1 1
node 4 2 0 2
node 6 3 0 0
node 53 2 0 0
node 67 1 0 0
node 131 1 0 0
node 266 1 0 0
node 282 1 0 0
gene 1 1 4 8 0 1 8 1
gene 1 2 4 -6.59167 0 2 -6.59167 0
gene 1 3 4 -5.18615 0 3 -5.18615 1
gene 1 3 6 2.4271 0 6 2.4271 1
gene 1 6 4 1.54737 0 7 1.54737 0
gene 3 1 6 2.95758 0 85 2.95758 1
gene 1 6 53 5.8047 0 152 5.8047 0
gene 1 53 4 4.84878 0 153 4.84878 1
gene 1 3 67 -0.746482 0 193 -0.746482 1
gene 1 67 4 6.94845 0 194 6.94845 1
gene 1 6 131 2.51934 0 415 2.51934 1
gene 1 131 53 1.78599 0 416 1.78599 1
gene 3 131 67 -1.06213 0 594 -1.06213 1
gene 3 2 53 -1.96244 0 634 -1.96244 1
gene 3 67 53 1.71532 0 648 1.71532 0
gene 3 131 4 0.689009 0 900 0.689009 1
gene 3 67 266 5.47313 0 913 5.47313 1
gene 3 266 53 0.368625 0 914 0.368625 1
gene 1 131 266 0.996619 0 955 0.996619 1
gene 1 2 282 1 0 975 1 1
gene 1 282 4 -7.50293 0 976 -7.50293 1
gene 2 53 282 -0.121374 0 987 -0.121374 1
genomeend 63

/* Organism #64 Fitness: 14.6869 Error: 0.167648 */
genomestart 64
trait 1 0.174215 0.0220945 0.0260485 0 0 0 0.0958787 0.0621698 
trait 2 0.2 0 0.00427095 0 0.0751076 0 0.000764936 0 
trait 3 0.285383 0.0300801 0.0566317 0 0.75213 0 0.0220778 0.00473381 
node 1 3 1 3
node 2 1 1 1
node 3 2 1 1
node 4 2 0 2
node 6 3 0 0
node 53 2 0 0
node 67 1 0 0
node 131 1 0 0
node 266 1 0 0
node 282 1 0 0
gene 1 1 4 8 0 1 8 1
gene 1 2 4 -8 0 2 -8 0
gene 1 3 4 -5.24107 0 3 -5.24107 1
gene 1 3 6 1.84289 0 6 1.84289 1
gene 1 6 4 -2.66721 0 7 -2.66721 0
gene 3 1 6 1.91506 0 85 1.91506 1
gene 1 6 53 1.42476 0 152 1.42476 0
gene 1 53 4 8 0 153 8 1
gene 1 3 67 -2.35514 0 193 -2.35514 1
gene 1 67 4 5.21198 0 194 5.21198 1
gene 1 6 131 -2.27693 0 415 -2.27693 1
gene 1 131 53 -0.649096 0 416 -0.649096 1
gene 3 131 67 -0.669509 0 594 -0.669509 1
gene 3 2 53 -0.96329 0 634 -0.96329 1
gene 3 67 53 -1.53337 0 648 -1.53337 0
gene 3 131 4 -0.10206 0 900 -0.10206 1
gene 3 67 266 0.943663 0 913 0.943663 1
gene 3 266 53 -0.275242 0 914 -0.275242 1
gene 1 131 266 0.0780136 0 955 0.0780136 1
gene 1 2 282 1.85535 0 975 1.85535 1
gene 1 282 4 -7.14865 0 976 -7.14865 1
gene 2 53 282 0.242505 0 987 0.242505 1
genomeend 64

/* Species #66 : (Size 9) (AF 11.9611) (Age 12)  */


/* Organism #65 Fitness: 16 Error: 1.20432e-15 */
genomestart 65
trait 1 0.174215 0.0220945 0.0260485 0 0 0 0.0958787 0.0621698 
trait 2 0.2 0 0.00427095 0 0.0751076 0 0.000764936 0 
trait 3 0.285383 0.0300801 0.0283159 0 0.700572 0 0.0110389 0.00473381 
node 1 3 1 3
node 2 1 1 1
node 3 2 1 1
node 4 2 0 2
node 6 3 0 0
node 53 2 0 0
node 67 1 0 0
node 131 1 0 0
gene 1 1 4 5.79419 0 1 5.79419 1
gene 1 2 4 -6.32572 0 2 -6.32572 1
gene 1 3 4 -6.71663 0 3 -6.71663 1
gene 1 3 6 1.98903 0 6 1.98903 0
gene 1 6 4 -2.54979 0 7 -2.54979 0
gene 3 1 6 0.245241 0 85 0.245241 1
gene 1 6 53 3.27492 0 152 3.27492 0
gene 1 53 4 8 0 153 8 1
gene 1 3 67 -5.57322 0 193 -5.57322 1
gene 1 67 4 3.48338 0 194 3.48338 1
gene 1 6 131 -0.899973 0 415 -0.899973 1
gene 1 131 53 6.63993 0 416 6.63993 1
gene 3 131 67 -3.58345 0 594 -3.58345 1
gene 3 2 53 -3.25396 0 634 -3.25396 1
gene 3 67 53 2.71814 0 648 2.71814 1
gene 3 1 67 1.35806 0 903 1.35806 1
gene 2 1 53 1.18586 0 909 1.18586 1
gene 3 1 131 -0.57294 0 977 -0.57294 1
genomeend 65

/* Organism #66 Fitness: 16 Error: 1.20432e-15 */
genomestart 66
trait 1 0.174215 0.0220945 0.0260485 0 0 0 0.0958787 0.0621698 
trait 2 0.2 0 0.00427095 0 0.0751076 0 0.000764936 0 
trait 3 0.285383 0.0300801 0.0283159 0 0.700572 0 0.0110389 0.00473381 
node 1 3 1 3
node 2 1 1 1
node 3 2 1 1
node 4 2 0 2
node 6 3 0 0
node 53 2 0 0
node 67 1 0 0
node 131 1 0 0
gene 1 1 4 5.79419 0 1 5.79419 1
gene 1 2 4 -6.32572 0 2 -6.32572 1
gene 1 3 4 -6.71663 0 3 -6.71663 1
gene 1 3 6 1.98903 0 6 1.98903 0
gene 1 6 4 -2.54979 0 7 -2.54979 0
gene 3 1 6 0.245241 0 85 0.245241 1
gene 1 6 53 3.27492 0 152 3.27492 0
gene 1 53 4 8 0 153 8 1
gene 1 3 67 -5.57322 0 193 -5.57322 1
gene 1 67 4 3.48338 0 194 3.48338 1
gene 1 6 131 -0.899973 0 415 -0.899973 1
gene 1 131 53 6.63993 0 416 6.63993 1
gene 3 131 67 -3.58345 0 594 -3.58345 1
gene 3 2 53 -3.25396 0 634 -3.25396 1
gene 3 67 53 2.71814 0 648 2.71814 1
gene 3 1 67 1.35806 0 903 1.35806 1
gene 2 1 53 1.18586 0 909 1.18586 1
gene 3 1 131 -0.57294 0 977 -0.57294 1
genomeend 66

/* Organism #67 Fitness: 9 Error: 1 */
genomestart 67
trait 1 0.174215 0.0220945 0.0260485 0 0 0 0.0958787 0.0621698 
trait 2 0.2 0 0.00427095 0 0.0751076 0 0.000764936 0 
trait 3 0.285383 0.0300801 0.0283159 0 0.700572 0 0.0110389 0.00473381 
node 1 3 1 3
node 2 1 1 1
node 3 2 1 1
node 4 2 0 2
node 6 3 0 0
node 53 2 0 0
node 67 1 0 0
node 131 1 0 0
gene 1 1 4 6.18424 0 1 6.18424 1
gene 1 2 4 1.87236 0 2 1.87236 1
gene 1 3 4 -7.66561 0 3 -7.66561 1
gene 1 3 6 2.30228 0 6 2.30228 0
gene 1 6 4 -0.631274 0 7 -0.631274 0
gene 3 1 6 -1.50824 0 85 -1.50824 1
gene 1 6 53 5.76458 0 152 5.76458 0
gene 1 53 4 8 0 153 8 1
gene 1 3 67 -5.52476 0 193 -5.52476 1
gene 1 67 4 5.79943 0 194 5.79943 1
gene 1 6 131 -2.33578 0 415 -2.33578 1
gene 1 131 53 8 0 416 8 1
gene 3 131 67 -2.34461 0 594 -2.34461 1
gene 3 2 53 -3.98077 0 634 -3.98077 1
gene 3 67 53 1.34224 0 648 1.34224 1
gene 3 1 67 1.25675 0 903 1.25675 1
gene 2 1 53 1.08479 0 909 1.08479 1
gene 3 1 131 2.34914 0 977 2.34914 1
genomeend 67

/* Organism #68 Fitness: 14.3275 Error: 0.214831 */
genomestart 68
trait 1 0.174215 0.0220945 0.0260485 0 0 0 0.0958787 0.0621698 
trait 2 0.2 0 0.00427095 0 0.0751076 0 0.000764936 0 
trait 3 0.285383 0.0300801 0.0283159 0 0.700572 0 0.0110389 0.00473381 
node 1 3 1 3
node 2 1 1 1
node 3 2 1 1
node 4 2 0 2
node 6 3 0 0
node 53 2 0 0
node 67 1 0 0
node 131 1 0 0
gene 1 1 4 3.64408 0 1 3.64408 1
gene 1 2 4 -4.3112 0 2 -4.3112 1
gene 1 3 4 -5.64012 0 3 -5.64012 1
gene 1 3 6 2.37735 0 6 2.37735 0
gene 1 6 4 -4.95939 0 7 -4.95939 0
gene 3 1 6 0.574282 0 85 0.574282 1
gene 1 6 53 5.02228 0 152 5.02228 0
gene 1 53 4 6.04404 0 153 6.04404 1
gene 1 3 67 -5.69048 0 193 -5.69048 1
gene 1 67 4 2.44057 0 194 2.44057 1
gene 1 6 131 1.28244 0 415 1.28244 1
gene 1 131 53 8 0 416 8 1
gene 3 131 67 -4.22479 0 594 -4.22479 1
gene 3 2 53 -3.31321 0 634 -3.31321 1
gene 3 67 53 3.30721 0 648 3.30721 1
gene 3 1 67 1.31304 0 903 1.31304 1
gene 2 1 53 -0.465222 0 909 -0.465222 1
gene 3 1 131 1.8844 0 977 1.8844 1
genomeend 68

/* Organism #69 Fitness: 16 Error: 1.20432e-15 */
genomestart 69
trait 1 0.174215 0.0220945 0.0260485 0 0 0 0.0958787 0.0621698 
trait 2 0.2 0 0.00427095 0 0.0751076 0 0.000764936 0 
trait 3 0.285383 0.0300801 0.0283159 0 0.700572 0 0.0110389 0.00473381 
node 1 3 1 3
node 2 1 1 1
node 3 3 1 1
node 4 2 0 2
node 6 3 0 0
node 53 2 0 0
node 67 1 0 0
node 131 1 0 0
gene 1 1 4 5.79419 0 1 5.79419 1
gene 1 2 4 -6.32572 0 2 -6.32572 1
gene 1 3 4 -6.71663 0 3 -6.71663 1
gene 1 3 6 1.98903 0 6 1.98903 0
gene 1 6 4 -2.54979 0 7 -2.54979 0
gene 3 1 6 0.245241 0 85 0.245241 1
gene 1 6 53 3.27492 0 152 3.27492 0
gene 1 53 4 8 0 153 8 1
gene 1 3 67 -5.57322 0 193 -5.57322 1
gene 1 67 4 3.48338 0 194 3.48338 1
gene 1 6 131 -0.899973 0 415 -0.899973 1
gene 1 131 53 6.63993 0 416 6.63993 1
gene 3 131 67 -3.58345 0 594 -3.58345 1
gene 3 2 53 -3.25396 0 634 -3.25396 1
gene 3 67 53 2.71814 0 648 2.71814 1
gene 3 1 67 1.35806 0 903 1.35806 1
gene 2 1 53 1.18586 0 909 1.18586 1
gene 3 1 131 -0.57294 0 977 -0.57294 1
genomeend 69

/* Organism #70 Fitness: 9 Error: 1 */
genomestart 70
trait 1 0.174215 0.0220945 0.0260485 0 0 0 0.0958787 0.0621698 
trait 2 0.2 0 0.00427095 0 0.0751076 0 0.000764936 0 
trait 3 0.285383 0.0300801 0.0283159 0 0.700572 0 0.0110389 0.00473381 
node 1 3 1 3
node 2 1 1 1
node 3 2 1 1
node 4 2 0 2
node 6 3 0 0
node 53 2 0 0
node 67 1 0 0
node 131 1 0 0
gene 1 1 4 7.93144 0 1 7.93144 1
gene 1 2 4 -6.48015 0 2 -6.48015 1
gene 1 3 4 -4.23217 0 3 -4.23217 1
gene 1 3 6 4.40884 0 6 4.40884 0
gene 1 6 4 -3.23667 0 7 -3.23667 0
gene 3 1 6 -1.76198 0 85 -1.76198 1
gene 1 6 53 2.67883 0 152 2.67883 0
gene 1 53 4 7.13484 0 153 7.13484 1
gene 1 3 67 -5.72663 0 193 -5.72663 1
gene 1 67 4 5.44971 0 194 5.44971 1
gene 1 6 131 1.45179 0 415 1.45179 1
gene 1 131 53 5.43154 0 416 5.43154 1
gene 3 131 67 -4.1734 0 594 -4.1734 1
gene 3 2 53 -1.48792 0 634 -1.48792 1
gene 3 67 53 0.235007 0 648 0.235007 1
gene 3 1 67 0.509767 0 903 0.509767 1
gene 2 1 53 2.53657 0 909 2.53657 1
gene 3 1 131 -0.770831 0 977 -0.770831 1
genomeend 70

/* Organism #71 Fitness: 15.9972 Error: 0.000345738 */
genomestart 71
trait 1 0.174215 0.0220945 0.0260485 0 0 0 0.0958787 0.0621698 
trait 2 0.2 0 0.00427095 0 0.0751076 0 0.000764936 0 
trait 3 0.285383 0.0300801 0.0283159 0 0.700572 0 0.0110389 0.00473381 
node 1 3 1 3
node 2 1 1 1
node 3 2 1 1
node 4 2 0 2
node 6 3 0 0
node 53 2 0 0
node 67 1 0 0
node 131 1 0 0
gene 1 1 4 3.64083 0 1 3.64083 1
gene 1 2 4 -5.33242 0 2 -5.33242 1
gene 1 3 4 -8 0 3 -8 1
gene 1 3 6 1.0436 0 6 1.0436 0
gene 1 6 4 -2.55924 0 7 -2.55924 0
gene 3 1 6 2.19453 0 85 2.19453 1
gene 1 6 53 4.2067 0 152 4.2067 0
gene 1 53 4 5.97781 0 153 5.97781 1
gene 1 3 67 -6.96035 0 193 -6.96035 1
gene 1 67 4 1.72047 0 194 1.72047 1
gene 1 6 131 0.160833 0 415 0.160833 1
gene 1 131 53 7.52343 0 416 7.52343 1
gene 3 131 67 -1.89621 0 594 -1.89621 1
gene 3 2 53 -3.26758 0 634 -3.26758 1
gene 3 67 53 2.23495 0 648 2.23495 1
gene 3 1 67 1.35268 0 903 1.35268 1
gene 2 1 53 1.18586 0 909 1.18586 1
gene 3 1 131 -0.57294 0 977 -0.57294 1
genomeend 71

/* Organism #72 Fitness: 9.07328 Error: 0.987811 */
genomestart 72
trait 1 0.174215 0.0220945 0.0260485 0 0 0 0.0958787 0.0621698 
trait 2 0.2 0 0.00427095 0 0.0751076 0 0.000764936 0 
trait 3 0.285383 0.0300801 0.0283159 0 0.700572 0 0.0110389 0.00473381 
node 1 3 1 3
node 2 1 1 1
node 3 2 1 1
node 4 2 0 2
node 6 3 0 0
node 53 2 0 0
node 67 1 0 0
node 131 1 0 0
gene 1 1 4 7.12967 0 1 7.12967 1
gene 1 2 4 -6.16692 0 2 -6.16692 1
gene 1 3 4 -6.52038 0 3 -6.52038 1
gene 1 3 6 2.74674 0 6 2.74674 1
gene 1 6 4 -0.463923 0 7 -0.463923 0
gene 3 1 6 -0.311126 0 85 -0.311126 1
gene 1 6 53 2.97576 0 152 2.97576 0
gene 2 53 4 6.45025 0 153 6.45025 1
gene 1 3 67 -7.42483 0 193 -7.42483 1
gene 1 67 4 2.43508 0 194 2.43508 1
gene 1 6 131 -0.19556 0 415 -0.19556 1
gene 1 131 53 5.88163 0 416 5.88163 1
gene 3 131 67 -2.41617 0 594 -2.41617 1
gene 3 2 53 -3.72083 0 634 -3.72083 1
gene 3 67 53 4.0401 0 648 4.0401 1
gene 3 1 67 1.35806 0 903 1.35806 1
gene 2 1 53 0.428917 0 909 0.428917 1
gene 3 1 131 0.754384 0 977 0.754384 1
genomeend 72

/* Organism #73 Fitness: 2.25143 Error: 2.49952 */
genomestart 73
trait 1 0.174215 0.0220945 0.0260485 0 0 0 0.0958787 0.0621698 
trait 2 0.2 0 0.00427095 0 0.0751076 0 0.000764936 0 
trait 3 0.758196 0.0300801 0.0283159 0 0.700572 0 0.0110389 0.00473381 
node 1 3 1 3
node 2 1 1 1
node 3 2 1 1
node 4 2 0 2
node 6 3 0 0
node 53 2 0 0
node 67 1 0 0
node 131 1 0 0
gene 1 1 4 1.75497 0 1 1.75497 1
gene 1 2 4 -5.4948 0 2 -5.4948 1
gene 1 3 4 -8 0 3 -8 1
gene 1 3 6 1.87407 0 6 1.87407 1
gene 1 6 4 -1.94429 0 7 -1.94429 0
gene 3 1 6 -2.06604 0 85 -2.06604 1
gene 1 6 53 3.56782 0 152 3.56782 0
gene 1 53 4 -2.23107 0 153 -2.23107 1
gene 1 3 67 -4.87844 0 193 -4.87844 1
gene 1 67 4 -1.3186 0 194 -1.3186 1
gene 1 6 131 0.905478 0 415 0.905478 1
gene 1 131 53 -2.39345 0 416 -2.39345 1
gene 3 131 67 -1.96145 0 594 -1.96145 1
gene 3 2 53 -3.16437 0 634 -3.16437 1
gene 3 67 53 4.21418 0 648 4.21418 1
gene 3 1 67 2.94259 0 903 2.94259 1
gene 2 1 53 1.81776 0 909 1.81776 1
gene 3 1 131 -2.7565 0 977 -2.7565 1
genomeend 73

/* Species #67 : (Size 2) (AF 5.98806) (Age 12)  */


/* Organism #74 Fitness: 7.97409 Error: 1.17616 */
genomestart 74
trait 1 0.174215 0.0220945 0.0260485 0 0 0 0.0958787 0.0621698 
trait 2 0.2 0 0.00427095 0 0.0751076 0 0.000764936 0 
trait 3 0.285383 0.0300801 0.0566317 0 0.75213 0 0.0220778 0.00473381 
node 1 3 1 3
node 2 1 1 1
node 3 2 1 1
node 4 1 0 2
node 6 3 0 0
node 53 2 0 0
node 67 2 0 0
node 131 1 0 0
node 278 1 0 0
gene 1 1 4 1.11508 0 1 1.11508 1
gene 1 2 4 0.0901451 0 2 0.0901451 1
gene 1 3 4 -0.823454 0 3 -0.823454 1
gene 1 3 6 0.728942 0 6 0.728942 0
gene 1 6 4 2.00288 0 7 2.00288 0
gene 1 1 6 1.4485 0 85 1.4485 1
gene 1 6 53 2.9658 0 152 2.9658 0
gene 1 53 4 -7.35071 0 153 -7.35071 0
gene 1 3 67 -5.0867 0 193 -5.0867 1
gene 1 67 4 3.03036 0 194 3.03036 1
gene 1 6 131 -0.33893 0 415 -0.33893 1
gene 1 131 53 5.09077 0 416 5.09077 1
gene 3 131 67 4.73458 0 594 4.73458 1
gene 3 2 53 -7.92346 0 634 -7.92346 1
gene 3 67 53 -5.20081 0 648 -5.20081 1
gene 3 1 53 5.01693 0 915 5.01693 1
gene 1 2 131 3.24659 0 927 3.24659 1
gene 1 53 278 -2.23077 0 964 -2.23077 1
gene 1 278 4 0.665837 0 965 0.665837 1
genomeend 74

/* Organism #75 Fitness: 4.00202 Error: 1.99949 */
genomestart 75
trait 1 0.174215 0.0220945 0.0260485 0 0 0 0.0958787 0.0621698 
trait 2 0.2 0 0.00427095 0 0.0751076 0 0.000764936 0 
trait 3 0.285383 0.0300801 0.0566317 0 0.75213 0 0.0220778 0.00473381 
node 1 3 1 3
node 2 1 1 1
node 3 2 1 1
node 4 1 0 2
node 6 3 0 0
node 53 2 0 0
node 67 1 0 0
node 131 1 0 0
node 278 1 0 0
gene 1 1 4 -2.4823 0 1 -2.4823 1
gene 1 2 4 1.04899 0 2 1.04899 1
gene 1 3 4 -0.283747 0 3 -0.283747 1
gene 1 3 6 -1.11342 0 6 -1.11342 0
gene 1 6 4 -0.27518 0 7 -0.27518 0
gene 3 1 6 1.68569 0 85 1.68569 1
gene 1 6 53 2.62435 0 152 2.62435 0
gene 1 53 4 -5.3416 0 153 -5.3416 0
gene 1 3 67 -4.18857 0 193 -4.18857 1
gene 1 67 4 5.29386 0 194 5.29386 1
gene 1 6 131 0.371978 0 415 0.371978 1
gene 1 131 53 5.20525 0 416 5.20525 1
gene 3 131 67 4.57691 0 594 4.57691 1
gene 3 2 53 -8 0 634 -8 1
gene 3 67 53 -2.84467 0 648 -2.84467 1
gene 3 1 53 2.12324 0 915 2.12324 1
gene 1 2 131 2.32635 0 927 2.32635 1
gene 1 53 278 -1.09996 0 964 -1.09996 1
gene 1 278 4 -0.209055 0 965 -0.209055 1
genomeend 75

/* Species #68 : (Size 6) (AF 13.6647) (Age 11)  */


/* Organism #76 Fitness: 16 Error: 5.44175e-07 */
genomestart 76
trait 1 0.174215 0 0.572098 0 0 0 0.0958787 0.0621698 
trait 2 0.2 0 0.00427095 0 0.0751076 0 0.000764936 0 
trait 3 0.285383 0.0300801 0.0566317 0 0.75213 0 0.0220778 0.00473381 
node 1 3 1 3
node 2 1 1 1
node 3 2 1 1
node 4 2 0 2
node 6 3 0 0
node 53 2 0 0
node 67 1 0 0
node 131 1 0 0
node 265 3 0 0
gene 1 1 4 8 0 1 8 1
gene 1 2 4 -6.67731 0 2 -6.67731 0
gene 1 3 4 -7.52393 0 3 -7.52393 1
gene 1 3 6 5.74841 0 6 5.74841 0
gene 1 6 4 4.59401 0 7 4.59401 1
gene 3 1 6 4.58038 0 85 4.58038 1
gene 1 6 53 8 0 152 8 0
gene 1 53 4 7.48589 0 153 7.48589 1
gene 1 3 67 1.95274 0 193 1.95274 1
gene 1 67 4 2.92669 0 194 2.92669 1
gene 1 6 131 -0.593064 0 415 -0.593064 1
gene 1 131 53 4.02382 0 416 4.02382 1
gene 3 131 67 0.865346 0 594 0.865346 1
gene 2 2 53 -5.61212 0 634 -5.61212 1
gene 3 67 53 6.46386 0 648 6.46386 1
gene 2 1 131 -0.371075 0 899 -0.371075 1
gene 1 2 265 1.92454 0 907 1.92454 1
gene 1 265 4 -8 0 908 -8 1
gene 2 1 67 -4.1594 0 949 -4.1594 1
gene 3 265 131 -0.932675 0 973 -0.932675 1
gene 1 3 131 1.49274 0 986 1.49274 1
genomeend 76

/* Organism #77 Fitness: 16 Error: 4.65725e-06 */
genomestart 77
trait 1 0.174215 0.00552364 0.435586 0 0 0 0.0958787 0.0621698 
trait 2 0.2 0 0.00427095 0 0.0751076 0 0.000764936 0 
trait 3 0.285383 0.0300801 0.0566317 0 0.75213 0 0.0220778 0.00473381 
node 1 3 1 3
node 2 1 1 1
node 3 2 1 1
node 4 2 0 2
node 6 3 0 0
node 53 2 0 0
node 67 1 0 0
node 131 1 0 0
node 265 3 0 0
gene 1 1 4 7.12028 0 1 7.12028 1
gene 1 2 4 -6.67731 0 2 -6.67731 0
gene 1 3 4 -6.20865 0 3 -6.20865 1
gene 1 3 6 8 0 6 8 0
gene 1 6 4 4.59401 0 7 4.59401 1
gene 3 1 6 2.89577 0 85 2.89577 1
gene 1 6 53 7.95647 0 152 7.95647 0
gene 1 53 4 7.48589 0 153 7.48589 1
gene 1 3 67 1.95274 0 193 1.95274 1
gene 1 67 4 4.02833 0 194 4.02833 1
gene 1 6 131 -0.593064 0 415 -0.593064 1
gene 1 131 53 5.73155 0 416 5.73155 1
gene 3 131 67 0.865346 0 594 0.865346 1
gene 2 2 53 -5.61212 0 634 -5.61212 1
gene 3 67 53 6.46386 0 648 6.46386 1
gene 2 1 131 -0.371075 0 899 -0.371075 1
gene 1 2 265 1.92454 0 907 1.92454 1
gene 1 265 4 -8 0 908 -8 1
gene 2 1 67 -4.1594 0 949 -4.1594 1
gene 3 265 131 -3.05469 0 973 -3.05469 1
gene 1 3 131 1.49274 0 986 1.49274 1
genomeend 77

/* Organism #78 Fitness: 8.99141 Error: 1.00143 */
genomestart 78
trait 1 0.174215 0.00552364 0.435586 0 0 0 0.0958787 0.0621698 
trait 2 0.2 0 0.00427095 0 0.0751076 0 0.000764936 0 
trait 3 0.285383 0.0300801 0.0566317 0 0.75213 0 0.0220778 0.00473381 
node 1 3 1 3
node 2 1 1 1
node 3 2 1 1
node 4 2 0 2
node 6 3 0 0
node 53 2 0 0
node 67 1 0 0
node 131 1 0 0
node 265 3 0 0
gene 1 1 4 5.16614 0 1 5.16614 1
gene 1 2 4 -2.44042 0 2 -2.44042 0
gene 1 3 4 -6.87238 0 3 -6.87238 1
gene 1 3 6 8 0 6 8 0
gene 1 6 4 6.90554 0 7 6.90554 1
gene 3 1 6 -0.292467 0 85 -0.292467 1
gene 1 6 53 8 0 152 8 0
gene 1 53 4 1.52368 0 153 1.52368 1
gene 1 3 67 4.21378 0 193 4.21378 1
gene 1 67 4 4.22927 0 194 4.22927 1
gene 1 6 131 0.30585 0 415 0.30585 1
gene 1 131 53 5.48983 0 416 5.48983 1
gene 3 131 67 1.37487 0 594 1.37487 1
gene 3 2 53 -6.50333 0 634 -6.50333 1
gene 3 67 53 -2.44226 0 648 -2.44226 1
gene 2 1 131 1.52495 0 899 1.52495 1
gene 1 2 265 -1.49018 0 907 -1.49018 1
gene 1 265 4 -8 0 908 -8 1
gene 2 1 67 -2.60725 0 949 -2.60725 1
gene 3 265 131 -1.99368 0 973 -1.99368 1
gene 1 3 131 -0.263532 0 986 -0.263532 1
genomeend 78

/* Organism #79 Fitness: 15.9997 Error: 3.63483e-05 */
genomestart 79
trait 1 0.174215 0.00552364 0.435586 0 0 0 0.0958787 0.0621698 
trait 2 0.2 0 0.00427095 0 0.0751076 0 0.000764936 0 
trait 3 0.285383 0.0300801 0.0566317 0 0.75213 0 0.0220778 0.00473381 
node 1 3 1 3
node 2 1 1 1
node 3 2 1 1
node 4 2 0 2
node 6 3 0 0
node 53 2 0 0
node 67 1 0 0
node 131 1 0 0
node 265 3 0 0
gene 1 1 4 7.56014 0 1 7.56014 1
gene 1 2 4 -6.67731 0 2 -6.67731 0
gene 1 3 4 -6.86629 0 3 -6.86629 1
gene 1 3 6 6.8742 0 6 6.8742 1
gene 1 6 4 4.59401 0 7 4.59401 1
gene 3 1 6 3.73808 0 85 3.73808 1
gene 1 6 53 7.97823 0 152 7.97823 0
gene 1 53 4 7.48589 0 153 7.48589 1
gene 1 3 67 1.95274 0 193 1.95274 1
gene 1 67 4 3.47751 0 194 3.47751 1
gene 1 6 131 -0.593064 0 415 -0.593064 1
gene 1 131 53 4.87768 0 416 4.87768 1
gene 3 131 67 0.361537 0 594 0.361537 1
gene 2 2 53 -4.72634 0 634 -4.72634 1
gene 3 67 53 6.46386 0 648 6.46386 1
gene 2 1 131 -0.371075 0 899 -0.371075 1
gene 1 2 265 1.92454 0 907 1.92454 1
gene 1 265 4 -7.3644 0 908 -7.3644 1
gene 2 1 67 -4.1594 0 949 -4.1594 1
gene 3 265 131 -1.99368 0 973 -1.99368 1
gene 1 3 131 1.49274 0 986 1.49274 1
genomeend 79

/* Organism #80 Fitness: 9 Error: 1 */
genomestart 80
trait 1 0.174215 0.00552364 0.435586 0 0 0 0.0958787 0.0621698 
trait 2 0.2 0 0.00427095 0 0.0751076 0 0.000764936 0 
trait 3 0.285383 0.0300801 0.0566317 0 0.75213 0 0.0220778 0.00473381 
node 1 3 1 3
node 2 1 1 1
node 3 2 1 1
node 4 2 0 2
node 6 3 0 0
node 53 2 0 0
node 67 1 0 0
node 131 1 0 0
node 265 3 0 0
gene 1 1 4 8 0 1 8 1
gene 1 2 4 -6.43301 0 2 -6.43301 0
gene 1 3 4 -6.2547 0 3 -6.2547 1
gene 1 3 6 7.1811 0 6 7.1811 0
gene 1 6 4 3.17511 0 7 3.17511 1
gene 3 1 6 4.18395 0 85 4.18395 1
gene 1 6 53 8 0 152 8 0
gene 1 53 4 4.98768 0 153 4.98768 1
gene 1 3 67 3.00874 0 193 3.00874 1
gene 1 67 4 4.7351 0 194 4.7351 1
gene 1 6 131 -2.12781 0 415 -2.12781 1
gene 1 131 53 5.47926 0 416 5.47926 1
gene 3 131 67 -1.07697 0 594 -1.07697 1
gene 2 2 53 -6.59585 0 634 -6.59585 1
gene 3 67 53 8 0 648 8 1
gene 2 1 131 0.125335 0 899 0.125335 1
gene 1 2 265 3.12909 0 907 3.12909 1
gene 1 265 4 -7.3644 0 908 -7.3644 1
gene 2 1 67 -2.32808 0 949 -2.32808 1
gene 3 265 131 0.678532 0 973 0.678532 1
gene 1 3 131 -1.50645 0 986 -1.50645 1
genomeend 80

/* Organism #81 Fitness: 15.9972 Error: 0.000353501 */
genomestart 81
trait 1 0.174215 0.00552364 0.435586 0 0 0 0.0958787 0.0621698 
trait 2 0.2 0 0.00427095 0 0.0751076 0 0.000764936 0 
trait 3 0.285383 0.0300801 0.0566317 0 0.75213 0 0.0220778 0.00473381 
node 1 3 1 3
node 2 1 1 1
node 3 2 1 1
node 4 2 0 2
node 6 3 0 0
node 53 2 0 0
node 67 1 0 0
node 131 1 0 0
node 265 3 0 0
gene 1 1 4 8 0 1 8 1
gene 1 2 4 -6.67731 0 2 -6.67731 0
gene 1 3 4 -6.20865 0 3 -6.20865 1
gene 1 3 6 8 0 6 8 0
gene 1 6 4 4.59401 0 7 4.59401 1
gene 3 1 6 4.58038 0 85 4.58038 1
gene 1 6 53 7.95647 0 152 7.95647 0
gene 1 53 4 7.48589 0 153 7.48589 1
gene 1 3 67 1.95274 0 193 1.95274 1
gene 1 67 4 4.02833 0 194 4.02833 1
gene 1 6 131 -0.593064 0 415 -0.593064 1
gene 1 131 53 4.02382 0 416 4.02382 1
gene 3 131 67 0.865346 0 594 0.865346 1
gene 2 2 53 -5.61212 0 634 -5.61212 1
gene 3 67 53 6.46386 0 648 6.46386 1
gene 2 1 131 -0.371075 0 899 -0.371075 1
gene 1 2 265 1.92454 0 907 1.92454 1
gene 1 265 4 -8 0 908 -8 1
gene 2 1 67 -4.1594 0 949 -4.1594 1
gene 3 265 131 -0.932675 0 973 -0.932675 1
gene 1 3 131 1.49274 0 986 1.49274 1
genomeend 81

/* Species #69 : (Size 10) (AF 13.1639) (Age 10)  */


/* Organism #82 Fitness: 15.9999 Error: 8.46432e-06 */
genomestart 82
trait 1 0.174215 0.0220945 0.0260485 0 0 0 0.0958787 0.0621698 
trait 2 0.2 0 0.00427095 0 0.0751076 0 0.000764936 0 
trait 3 0.285383 0.0300801 0.0566317 0 0.75213 0 0.0220778 0.00473381 
node 1 3 1 3
node 2 1 1 1
node 3 2 1 1
node 4 2 0 2
node 6 3 0 0
node 53 1 0 0
node 67 1 0 0
node 131 1 0 0
gene 1 1 4 5.97681 0 1 5.97681 1
gene 1 2 4 -7.68118 0 2 -7.68118 1
gene 1 3 4 -5.90077 0 3 -5.90077 1
gene 1 3 6 1.9969 0 6 1.9969 0
gene 1 6 4 1.20869 0 7 1.20869 1
gene 3 1 6 0.998632 0 85 0.998632 1
gene 1 6 53 1.3143 0 152 1.3143 0
gene 1 53 4 -0.776565 0 153 -0.776565 1
gene 1 3 67 1.46864 0 193 1.46864 1
gene 1 67 4 4.03283 0 194 4.03283 1
gene 1 6 131 0.367621 0 415 0.367621 1
gene 1 131 53 -0.345915 0 416 -0.345915 1
gene 3 131 67 2.48992 0 594 2.48992 1
gene 3 2 53 -2.22034 0 634 -2.22034 1
gene 3 67 53 0.720572 0 648 0.720572 1
gene 1 2 131 0.377455 0 904 0.377455 1
gene 1 3 53 0.17514 0 912 0.17514 1
gene 2 6 67 0.499849 0 1066 0.499849 1
gene 1 3 131 0.0511935 0 1069 0.0511935 1
gene 2 1 131 -0.268252 0 1081 -0.268252 1
genomeend 82

/* Organism #83 Fitness: 15.9022 Error: 0.0122393 */
genomestart 83
trait 1 0.174215 0.0220945 0.0260485 0 0 0 0.0958787 0.0621698 
trait 2 0.2 0 0.00427095 0 0.0751076 0 0.000764936 0 
trait 3 0.285383 0.0300801 0.0566317 0 0.75213 0 0.0220778 0.00473381 
node 1 3 1 3
node 2 1 1 1
node 3 2 1 1
node 4 2 0 2
node 6 3 0 0
node 53 1 0 0
node 67 1 0 0
node 131 1 0 0
gene 1 1 4 7.63453 0 1 7.63453 1
gene 1 2 4 -6.50015 0 2 -6.50015 1
gene 1 3 4 -7.91443 0 3 -7.91443 1
gene 1 3 6 3.59748 0 6 3.59748 0
gene 1 6 4 0.37796 0 7 0.37796 1
gene 3 1 6 -1.33899 0 85 -1.33899 1
gene 1 6 53 2.4443 0 152 2.4443 0
gene 1 53 4 -2.35157 0 153 -2.35157 1
gene 1 3 67 0.49127 0 193 0.49127 1
gene 1 67 4 5.889 0 194 5.889 1
gene 1 6 131 1.08629 0 415 1.08629 1
gene 1 131 53 -0.0865624 0 416 -0.0865624 1
gene 3 131 67 3.79447 0 594 3.79447 1
gene 3 2 53 -4.38284 0 634 -4.38284 1
gene 3 67 53 -1.73234 0 648 -1.73234 1
gene 1 2 131 0.0706063 0 904 0.0706063 1
gene 1 3 53 -0.476584 0 912 -0.476584 1
gene 2 6 67 0.507744 0 1066 0.507744 1
gene 1 3 131 0.0511935 0 1069 0.0511935 1
gene 2 1 131 -0.268252 0 1081 -0.268252 1
genomeend 83

/* Organism #84 Fitness: 9 Error: 1 */
genomestart 84
trait 1 0.174215 0.0220945 0.0260485 0 0 0 0.0958787 0.0621698 
trait 2 0.2 0 0.00427095 0 0.0751076 0 0.000764936 0 
trait 3 0.285383 0.0300801 0.0566317 0 0.75213 0 0.0220778 0.00473381 
node 1 3 1 3
node 2 1 1 1
node 3 2 1 1
node 4 2 0 2
node 6 3 0 0
node 53 1 0 0
node 67 1 0 0
node 131 1 0 0
gene 1 1 4 5.09916 0 1 5.09916 1
gene 1 2 4 -6.45368 0 2 -6.45368 1
gene 1 3 4 1.30144 0 3 1.30144 1
gene 1 3 6 0.314669 0 6 0.314669 0
gene 1 6 4 1.20869 0 7 1.20869 1
gene 3 1 6 0.954875 0 85 0.954875 1
gene 1 6 53 2.70119 0 152 2.70119 0
gene 1 53 4 1.25118 0 153 1.25118 1
gene 1 3 67 2.27572 0 193 2.27572 1
gene 1 67 4 4.03283 0 194 4.03283 1
gene 1 6 131 0.664079 0 415 0.664079 1
gene 1 131 53 -2.63387 0 416 -2.63387 1
gene 3 131 67 4.56198 0 594 4.56198 1
gene 3 2 53 -2.22034 0 634 -2.22034 1
gene 3 67 53 -1.14193 0 648 -1.14193 1
gene 1 2 131 -1.2046 0 904 -1.2046 1
gene 1 3 53 0.203635 0 912 0.203635 1
gene 2 6 67 0.386215 0 1066 0.386215 1
gene 1 3 131 -2.06853 0 1069 -2.06853 1
gene 2 1 131 -1.06453 0 1081 -1.06453 1
genomeend 84

/* Organism #85 Fitness: 9.00005 Error: 0.999992 */
genomestart 85
trait 1 0.174215 0.0220945 0.0260485 0 0 0 0.0958787 0.0621698 
trait 2 0.2 0 0.00427095 0 0.0751076 0 0.000764936 0 
trait 3 0.285383 0.0300801 0.0566317 0 0.75213 0 0.0220778 0.00473381 
node 1 3 1 3
node 2 1 1 1
node 3 2 1 1
node 4 2 0 2
node 6 3 0 0
node 53 1 0 0
node 67 1 0 0
node 131 1 0 0
gene 1 1 4 8 0 1 8 1
gene 1 2 4 -8 0 2 -8 1
gene 1 3 4 -6.51497 0 3 -6.51497 1
gene 1 3 6 1.2723 0 6 1.2723 0
gene 1 6 4 2.88772 0 7 2.88772 1
gene 3 1 6 2.10849 0 85 2.10849 1
gene 1 6 53 -0.14423 0 152 -0.14423 0
gene 1 53 4 0.135312 0 153 0.135312 1
gene 1 3 67 1.99141 0 193 1.99141 1
gene 1 67 4 6.02236 0 194 6.02236 1
gene 1 6 131 2.22515 0 415 2.22515 1
gene 1 131 53 0.493663 0 416 0.493663 1
gene 3 131 67 4.22011 0 594 4.22011 1
gene 3 2 53 -2.39934 0 634 -2.39934 1
gene 3 67 53 1.07098 0 648 1.07098 1
gene 1 2 131 -0.61313 0 904 -0.61313 1
gene 1 3 53 -0.724949 0 912 -0.724949 1
gene 2 6 67 0.88947 0 1066 0.88947 1
gene 1 3 131 -0.442159 0 1069 -0.442159 1
gene 2 1 131 -0.361678 0 1081 -0.361678 1
genomeend 85

/* Organism #86 Fitness: 8.99997 Error: 1.00001 */
genomestart 86
trait 1 0.174215 0.0220945 0.0260485 0 0 0 0.0958787 0.0621698 
trait 2 0.2 0 0.00427095 0 0.0751076 0 0.000764936 0 
trait 3 0.285383 0.0300801 0.0566317 0 0.75213 0 0.0220778 0.00473381 
node 1 3 1 3
node 2 1 1 1
node 3 2 1 1
node 4 2 0 2
node 6 3 0 0
node 53 1 0 0
node 67 1 0 0
node 131 1 0 0
gene 1 1 4 0.351103 0 1 0.351103 1
gene 1 2 4 0.326046 0 2 0.326046 1
gene 1 3 4 -7.08737 0 3 -7.08737 1
gene 1 3 6 0.00536704 0 6 0.00536704 0
gene 1 6 4 -0.108814 0 7 -0.108814 1
gene 3 1 6 -0.258647 0 85 -0.258647 1
gene 1 6 53 3.247 0 152 3.247 0
gene 1 53 4 0.0620293 0 153 0.0620293 1
gene 1 3 67 1.90716 0 193 1.90716 1
gene 1 67 4 4.03283 0 194 4.03283 1
gene 1 6 131 0.914178 0 415 0.914178 1
gene 1 131 53 -2.35917 0 416 -2.35917 1
gene 3 131 67 4.94313 0 594 4.94313 1
gene 3 2 53 -1.28885 0 634 -1.28885 1
gene 3 67 53 0.720572 0 648 0.720572 1
gene 1 2 131 -0.94291 0 904 -0.94291 1
gene 1 3 53 -0.422555 0 912 -0.422555 1
gene 2 6 67 1.2628 0 1066 1.2628 1
gene 1 3 131 -0.0334106 0 1069 -0.0334106 1
gene 2 1 131 -0.78511 0 1081 -0.78511 1
genomeend 86

/* Organism #87 Fitness: 15.9999 Error: 7.4854e-06 */
genomestart 87
trait 1 0.174215 0.0220945 0.0260485 0 0 0 0.0958787 0.0621698 
trait 2 0.2 0 0.00427095 0 0.0751076 0 0.000764936 0 
trait 3 0.285383 0.0300801 0.0566317 0 0.75213 0 0.0220778 0.00473381 
node 1 3 1 3
node 2 1 1 1
node 3 2 1 1
node 4 2 0 2
node 6 3 0 0
node 53 1 0 0
node 67 1 0 0
node 131 1 0 0
gene 1 1 4 5.97681 0 1 5.97681 1
gene 1 2 4 -7.68118 0 2 -7.68118 1
gene 1 3 4 -5.90077 0 3 -5.90077 1
gene 1 3 6 1.9969 0 6 1.9969 0
gene 1 6 4 1.20869 0 7 1.20869 1
gene 3 1 6 0.998632 0 85 0.998632 1
gene 1 6 53 1.3143 0 152 1.3143 0
gene 1 53 4 -0.776565 0 153 -0.776565 1
gene 1 3 67 1.46864 0 193 1.46864 1
gene 1 67 4 4.03283 0 194 4.03283 1
gene 1 6 131 0.367621 0 415 0.367621 1
gene 1 131 53 -0.345915 0 416 -0.345915 1
gene 3 131 67 2.48992 0 594 2.48992 1
gene 3 2 53 -2.22034 0 634 -2.22034 1
gene 3 67 53 0.720572 0 648 0.720572 1
gene 1 2 131 0.377455 0 904 0.377455 1
gene 1 3 53 0.17514 0 912 0.17514 1
gene 2 6 67 0.499849 0 1066 0.499849 1
gene 1 3 131 0.0511935 0 1069 0.0511935 1
gene 2 1 131 -0.268252 0 1081 -0.268252 1
gene 2 1 53 0.95805 0 1105 0.95805 1
genomeend 87

/* Organism #88 Fitness: 15.9999 Error: 7.81595e-06 */
genomestart 88
trait 1 0.174215 0.0220945 0.0260485 0 0 0 0.0958787 0.0621698 
trait 2 0.2 0 0.00427095 0 0.0751076 0 0.000764936 0 
trait 3 0.285383 0.0300801 0.0566317 0 0.75213 0 0.0220778 0.00473381 
node 1 3 1 3
node 2 1 1 1
node 3 2 1 1
node 4 2 0 2
node 6 3 0 0
node 53 1 0 0
node 67 1 0 0
node 131 1 0 0
gene 1 1 4 5.97681 0 1 5.97681 1
gene 1 2 4 -7.68118 0 2 -7.68118 1
gene 1 3 4 -5.90077 0 3 -5.90077 1
gene 1 3 6 1.9969 0 6 1.9969 1
gene 1 6 4 1.20869 0 7 1.20869 1
gene 3 1 6 0.998632 0 85 0.998632 1
gene 1 6 53 1.3143 0 152 1.3143 0
gene 1 53 4 -0.776565 0 153 -0.776565 1
gene 1 3 67 1.46864 0 193 1.46864 1
gene 1 67 4 4.03283 0 194 4.03283 1
gene 1 6 131 0.367621 0 415 0.367621 1
gene 1 131 53 -0.345915 0 416 -0.345915 1
gene 3 131 67 2.48992 0 594 2.48992 1
gene 3 2 53 -2.22034 0 634 -2.22034 1
gene 3 67 53 0.720572 0 648 0.720572 1
gene 1 2 131 0.377455 0 904 0.377455 1
gene 1 3 53 0.17514 0 912 0.17514 1
gene 2 6 67 0.499849 0 1066 0.499849 1
gene 1 3 131 0.0511935 0 1069 0.0511935 1
gene 2 1 131 -0.268252 0 1081 -0.268252 1
gene 2 1 53 0.95805 0 1105 0 1
genomeend 88

/* Organism #89 Fitness: 15.9999 Error: 8.46432e-06 */
genomestart 89
trait 1 0.174215 0.0220945 0.0260485 0 0 0 0.0958787 0.0621698 
trait 2 0.2 0 0.00427095 0 0.0751076 0 0.000764936 0 
trait 3 0.285383 0.0300801 0.0566317 0 0.75213 0 0.0220778 0.00473381 
