
/* Species #7 : (Size 7) (AF 11.843) (Age 64)  */


/* Organism #0 Fitness: 16 Error: 5.04307e-08 */
genomestart 0
trait 1 0.1 0.0576945 0 0 0 0.706582 0 0.74137 
trait 2 0.2 0 0.0210098 0.0202803 0.0336948 0 0 0.0346538 
trait 3 0.263249 0 0.023181 0 0.281361 0 0.0426411 0.00501003 
node 1 3 1 3
node 2 3 1 1
node 3 3 1 1
node 4 1 0 2
node 23 1 0 0
node 55 1 0 0
node 204 1 0 0
node 245 1 0 0
gene 2 1 4 8 0 1 8 1
gene 3 2 4 -5.38643 0 2 -5.38643 1
gene 1 3 4 -8 0 3 -8 1
gene 3 2 23 3.53449 0 40 3.53449 1
gene 3 23 4 -1.72653 0 41 -1.72653 1
gene 2 3 23 -1.3426 0 44 -1.3426 0
gene 1 3 55 1.25366 0 117 1.25366 0
gene 1 55 4 3.53051 0 118 3.53051 1
gene 2 1 55 1.01182 0 143 1.01182 1
gene 2 1 23 -0.632498 0 530 -0.632498 1
gene 1 3 204 1 0 635 0 1
gene 1 204 55 1.25366 0 636 0 1
gene 2 3 245 1 0 768 0 1
gene 2 245 23 -1.3426 0 769 0 1
genomeend 0

/* Organism #1 Fitness: 4.82634 Error: 1.80311 */
genomestart 1
trait 1 0.1 0.0576945 0 0 0 0.706582 0 0.74137 
trait 2 0.2 0 0.0210098 0.0202803 0.0336948 0 0 0.0346538 
trait 3 0.263249 0 0.023181 0 0.281361 0 0.0426411 0.00501003 
node 1 3 1 3
node 2 3 1 1
node 3 3 1 1
node 4 1 0 2
node 23 1 0 0
node 55 2 0 0
node 204 1 0 0
node 245 1 0 0
gene 2 1 4 7.27733 0 1 7.27733 1
gene 3 2 4 -5.31966 0 2 -5.31966 1
gene 1 3 4 -8 0 3 -8 1
gene 3 2 23 4.84046 0 40 4.84046 1
gene 3 23 4 -2.29321 0 41 -2.29321 1
gene 2 3 23 -4.81907 0 44 -4.81907 0
gene 1 3 55 -2.13799 0 117 -2.13799 0
gene 1 55 4 3.98111 0 118 3.98111 1
gene 2 1 55 0.145106 0 143 0.145106 1
gene 2 1 23 1.5152 0 530 1.5152 1
gene 1 3 204 0.942082 0 635 0.942082 1
gene 1 204 55 -2.63355 0 636 -2.63355 1
gene 2 3 245 1 0 768 1 1
gene 2 245 23 -3.8313 0 769 -3.8313 1
genomeend 1

/* Organism #2 Fitness: 15.9999 Error: 1.07611e-05 */
genomestart 2
trait 1 0.1 0.0576945 0 0 0 0.706582 0 0.74137 
trait 2 0.2 0 0.0210098 0.0202803 0.0336948 0 0 0.0346538 
trait 3 0.263249 0 0.023181 0 0.281361 0 0.0426411 0.00501003 
node 1 3 1 3
node 2 3 1 1
node 3 3 1 1
node 4 1 0 2
node 23 1 0 0
node 55 1 0 0
node 204 1 0 0
node 245 1 0 0
gene 2 1 4 7.09786 0 1 7.09786 1
gene 3 2 4 -5.18863 0 2 -5.18863 1
gene 1 3 4 -7.80179 0 3 -7.80179 1
gene 3 2 23 4.68871 0 40 4.68871 1
gene 3 23 4 0.163898 0 41 0.163898 1
gene 2 3 23 -2.46782 0 44 -2.46782 1
gene 1 3 55 -0.11559 0 117 -0.11559 0
gene 1 55 4 3.36194 0 118 3.36194 1
gene 2 1 55 1.04361 0 143 1.04361 1
gene 2 1 23 0.401921 0 530 0.401921 1
gene 1 3 204 1.70256 0 635 1.20256 1
gene 1 204 55 0.121827 0 636 -0.505005 1
gene 2 3 245 0.200238 0 768 -0.299762 1
gene 2 245 23 -2.3587 0 769 -1.6874 1
gene 3 23 55 0.634917 0 835 0.634917 1
genomeend 2

/* Organism #3 Fitness: 5.07687 Error: 1.74681 */
genomestart 3
trait 1 0.1 0.0576945 0 0 0 0.706582 0 0.74137 
trait 2 0.2 0 0.0210098 0.0202803 0.0336948 0 0 0.0346538 
trait 3 0.263249 0 0.023181 0 0.281361 0 0.0426411 0.00501003 
node 1 3 1 3
node 2 3 1 1
node 3 3 1 1
node 4 1 0 2
node 23 1 0 0
node 55 1 0 0
node 204 1 0 0
node 245 1 0 0
gene 2 1 4 -1.47239 0 1 -1.47239 1
gene 3 2 4 -4.76018 0 2 -4.76018 1
gene 1 3 4 -8 0 3 -8 1
gene 3 2 23 1.13566 0 40 1.13566 1
gene 3 23 4 -0.199848 0 41 -0.199848 1
gene 2 3 23 -3.41414 0 44 -3.41414 1
gene 1 3 55 2.39718 0 117 2.39718 1
gene 1 55 4 6.01314 0 118 6.01314 1
gene 2 1 55 0.586107 0 143 0.586107 1
gene 2 1 23 -3.06599 0 530 -3.06599 1
gene 1 3 204 0.037662 0 635 0.037662 1
gene 1 204 55 3.08166 0 636 3.08166 1
gene 2 3 245 -0.540547 0 768 -0.540547 1
gene 2 245 23 0.557626 0 769 0.557626 1
genomeend 3

/* Organism #4 Fitness: 16 Error: 1.64589e-06 */
genomestart 4
trait 1 0.1 0.0576945 0 0 0 0.706582 0 0.74137 
trait 2 0.2 0 0.0210098 0.0202803 0.0336948 0 0 0.0346538 
trait 3 0.263249 0 0.023181 0 0.281361 0 0.0426411 0.00501003 
node 1 3 1 3
node 2 3 1 1
node 3 3 1 1
node 4 1 0 2
node 23 1 0 0
node 55 1 0 0
node 204 1 0 0
node 245 1 0 0
gene 2 1 4 8 0 1 8 1
gene 3 2 4 -4.07019 0 2 -4.07019 1
gene 1 3 4 -6.55776 0 3 -6.55776 1
gene 3 2 23 5.20858 0 40 5.20858 1
gene 3 23 4 -3.3492 0 41 -3.3492 1
gene 2 3 23 -1.03968 0 44 -1.03968 0
gene 1 3 55 2.51835 0 117 2.51835 0
gene 1 55 4 2.12741 0 118 2.12741 1
gene 2 1 55 1.95982 0 143 1.95982 1
gene 2 1 23 -1.71445 0 530 -1.71445 1
gene 1 3 204 -0.128104 0 635 -0.128104 1
gene 1 204 55 2.77613 0 636 2.77613 1
gene 2 3 245 1.64513 0 768 1.64513 1
gene 2 245 23 -1.85543 0 769 -1.85543 1
genomeend 4

/* Organism #5 Fitness: 9.00105 Error: 0.999825 */
genomestart 5
trait 1 0.1 0.0576945 0 0 0 0.706582 0 0.74137 
trait 2 0.2 0 0.0210098 0.0202803 0.0336948 0 0 0.0346538 
trait 3 0.263249 0 0.023181 0 0.281361 0 0.0426411 0.00501003 
node 1 3 1 3
node 2 3 1 1
node 3 3 1 1
node 4 1 0 2
node 23 1 0 0
node 55 1 0 0
node 204 1 0 0
node 245 1 0 0
gene 2 1 4 7.12356 0 1 7.12356 1
gene 3 2 4 -4.67769 0 2 -4.67769 1
gene 1 3 4 -6.19704 0 3 -6.19704 1
gene 3 2 23 2.20574 0 40 2.20574 1
gene 3 23 4 2.6354 0 41 2.6354 1
gene 2 3 23 -4.37318 0 44 -4.37318 0
gene 1 3 55 -1.02702 0 117 -1.02702 0
gene 1 55 4 4.00915 0 118 4.00915 1
gene 2 1 55 1.88522 0 143 1.88522 1
gene 2 1 23 0.706417 0 530 0.706417 1
gene 1 3 204 1.54464 0 635 1.54464 1
gene 1 204 55 -1.69779 0 636 -1.69779 1
gene 2 3 245 1.99136 0 768 1.99136 1
gene 2 245 23 2.13512 0 769 2.13512 1
genomeend 5

/* Organism #6 Fitness: 15.997 Error: 0.000371614 */
genomestart 6
trait 1 0.1 0.0576945 0 0 0 0.706582 0 0.74137 
trait 2 0.2 0 0.0210098 0.0202803 0.0336948 0 0 0.0346538 
trait 3 0.263249 0 0.023181 0 0.281361 0 0.0426411 0.00501003 
node 1 3 1 3
node 2 3 1 1
node 3 3 1 1
node 4 1 0 2
node 23 1 0 0
node 55 1 0 0
node 204 1 0 0
node 245 1 0 0
gene 2 1 4 8 0 1 8 1
gene 3 2 4 -4.99083 0 2 -4.99083 1
gene 1 3 4 -8 0 3 -8 1
gene 3 2 23 3.53449 0 40 3.53449 1
gene 3 23 4 2.05433 0 41 2.05433 1
gene 2 3 23 -3.59304 0 44 -3.59304 0
gene 1 3 55 1.25366 0 117 1.25366 0
gene 1 55 4 3.19337 0 118 3.19337 1
gene 2 1 55 1.01182 0 143 1.01182 1
gene 2 1 23 -0.632498 0 530 -0.632498 1
gene 1 3 204 2.40511 0 635 2.40511 1
gene 1 204 55 -1.01001 0 636 -1.01001 1
gene 2 3 245 1 0 768 0 1
gene 2 245 23 -3.37481 0 769 -3.37481 1
genomeend 6

/* Species #10 : (Size 8) (AF 11.295) (Age 61)  */


/* Organism #7 Fitness: 16 Error: 1.77571e-09 */
genomestart 7
trait 1 0.1 0.0540886 0 0 0.0123676 0.0104437 0 0.0127597 
trait 2 0.143989 0.393233 0.105077 0 0.459931 0 0.30569 1 
trait 3 0.286753 0 0 0 0.00145798 0 0.0464483 0.00501003 
node 1 1 1 3
node 2 3 1 1
node 3 3 1 1
node 4 2 0 2
node 23 1 0 0
node 62 1 0 0
node 132 1 0 0
node 155 1 0 0
gene 2 1 4 8 0 1 8 1
gene 1 2 4 -5.92903 0 2 -5.92903 1
gene 1 3 4 -8 0 3 -8 1
gene 3 2 23 5.62465 0 40 5.62465 1
gene 3 23 4 -6.59856 0 41 -6.59856 1
gene 1 1 23 -4.10713 0 78 -4.10713 1
gene 2 3 23 2.29622 0 130 2.29622 1
gene 2 3 62 6.6199 0 139 6.6199 1
gene 2 62 23 -1.80563 0 140 -1.80563 1
gene 1 62 4 4.09599 0 152 4.09599 1
gene 1 1 62 4.47108 0 173 4.47108 1
gene 2 2 62 -1.69964 0 251 -1.69964 0
gene 2 2 132 5.95148 0 380 5.95148 0
gene 2 132 62 0.85246 0 381 0.85246 1
gene 2 2 155 -0.538645 0 461 -0.538645 1
gene 2 155 132 -0.590317 0 462 -0.590317 1
gene 3 1 155 -1.22898 0 546 -1.22898 1
gene 3 1 132 0.418127 0 807 0.418127 1
genomeend 7

/* Organism #8 Fitness: 15.9907 Error: 0.00116236 */
genomestart 8
trait 1 0.1 0.0540886 0 0 0.0123676 0.0104437 0 0.0127597 
trait 2 0.143989 0.393233 0.105077 0 0.459931 0 0.30569 1 
trait 3 0.286753 0 0 0 0.00145798 0 0.0464483 0.00501003 
node 1 1 1 3
node 2 3 1 1
node 3 3 1 1
node 4 2 0 2
node 23 1 0 0
node 62 1 0 0
node 132 1 0 0
node 155 1 0 0
gene 2 1 4 7.31033 0 1 7.31033 1
gene 1 2 4 -4.28162 0 2 -4.28162 1
gene 1 3 4 -8 0 3 -8 1
gene 3 2 23 8 0 40 8 1
gene 3 23 4 -3.38666 0 41 -3.38666 1
gene 1 1 23 -1.41725 0 78 -1.41725 1
gene 2 3 23 2.28732 0 130 2.28732 1
gene 2 3 62 8 0 139 8 1
gene 2 62 23 -2.92021 0 140 -2.92021 1
gene 1 62 4 2.09808 0 152 2.09808 1
gene 1 1 62 2.90038 0 173 2.90038 1
gene 2 2 62 -1.89683 0 251 -1.89683 0
gene 2 2 132 5.49471 0 380 5.49471 0
gene 2 132 62 0.226139 0 381 0.226139 1
gene 2 2 155 -2.43374 0 461 -2.43374 1
gene 2 155 132 -0.590317 0 462 -0.590317 1
gene 3 1 155 -0.00930922 0 546 -0.00930922 1
gene 3 1 132 -1.38367 0 807 -1.38367 1
genomeend 8

/* Organism #9 Fitness: 15.9998 Error: 3.02832e-05 */
genomestart 9
trait 1 0.1 0.0540886 0 0 0.0123676 0.0104437 0 0.0127597 
trait 2 0.143989 0.393233 0.105077 0 0.459931 0 0.30569 1 
trait 3 0.286753 0 0 0 0.00145798 0 0.0464483 0.00501003 
node 1 1 1 3
node 2 3 1 1
node 3 3 1 1
node 4 2 0 2
node 23 1 0 0
node 62 1 0 0
node 132 1 0 0
node 155 1 0 0
gene 2 1 4 8 0 1 8 1
gene 1 2 4 -5.84277 0 2 -5.84277 1
gene 1 3 4 -8 0 3 -8 1
gene 3 2 23 6.29846 0 40 6.29846 1
gene 3 23 4 -4.29182 0 41 -4.29182 1
gene 1 1 23 -1.72161 0 78 -1.72161 1
gene 2 3 23 2.57323 0 130 2.57323 1
gene 2 3 62 8 0 139 8 1
gene 2 62 23 -2.48708 0 140 -2.48708 1
gene 2 62 4 4.24745 0 152 4.24745 1
gene 1 1 62 2.50562 0 173 2.50562 1
gene 2 2 62 0.580506 0 251 0.580506 0
gene 2 2 132 2.76407 0 380 2.76407 0
gene 2 132 62 1.24244 0 381 1.24244 1
gene 2 2 155 -1.01555 0 461 -1.01555 1
gene 2 155 132 -0.981089 0 462 -0.981089 1
gene 3 1 155 -0.29432 0 546 -0.29432 1
gene 3 1 132 -2.47966 0 807 -2.47966 1
genomeend 9

/* Organism #10 Fitness: 14.7121 Error: 0.164358 */
genomestart 10
trait 1 0.1 0.0540886 0 0 0.0123676 0.0104437 0 0.0127597 
trait 2 0.143989 0.393233 0.105077 0 0.459931 0 0.30569 1 
trait 3 0.286753 0 0 0 0.00145798 0 0.0464483 0.00501003 
node 1 1 1 3
node 2 3 1 1
node 3 3 1 1
node 4 2 0 2
node 23 1 0 0
node 62 1 0 0
node 132 1 0 0
node 155 1 0 0
gene 2 1 4 8 0 1 8 1
gene 1 2 4 -5.48662 0 2 -5.48662 1
gene 1 3 4 -8 0 3 -8 1
gene 3 2 23 -1.12107 0 40 -1.12107 1
gene 3 23 4 0.413463 0 41 0.413463 1
gene 1 1 23 -2.99961 0 78 -2.99961 1
gene 2 3 23 2.47003 0 130 2.47003 1
gene 2 3 62 8 0 139 8 1
gene 2 62 23 1.59003 0 140 1.59003 1
gene 1 62 4 -0.0810027 0 152 -0.0810027 1
gene 1 1 62 0.928509 0 173 0.928509 1
gene 2 2 62 -0.786396 0 251 -0.786396 0
gene 2 2 132 5.45251 0 380 5.45251 0
gene 2 132 62 -0.394257 0 381 -0.394257 1
gene 2 2 155 -1.40742 0 461 -1.40742 1
gene 2 155 132 0.313555 0 462 0.313555 1
gene 3 1 155 2.33969 0 546 2.33969 1
genomeend 10

/* Organism #11 Fitness: 5.58157 Error: 1.63746 */
genomestart 11
trait 1 0.1 0.0540886 0 0 0.0123676 0.0104437 0 0.0127597 
trait 2 0.143989 0.393233 0.105077 0 0.459931 0 0.30569 1 
trait 3 0.286753 0 0 0 0.00145798 0 0.0464483 0.00501003 
node 1 1 1 3
node 2 3 1 1
node 3 3 1 1
node 4 2 0 2
node 23 1 0 0
node 62 1 0 0
node 132 1 0 0
node 155 1 0 0
gene 2 1 4 8 0 1 8 1
gene 1 2 4 -5.14512 0 2 -5.14512 1
gene 1 3 4 -5.76151 0 3 -5.76151 1
gene 3 2 23 5.72053 0 40 5.72053 1
gene 3 23 4 -8 0 41 -8 1
gene 1 1 23 -3.03484 0 78 -3.03484 1
gene 2 3 23 1.56991 0 130 1.56991 1
gene 2 3 62 2.36889 0 139 2.36889 1
gene 2 62 23 -2.36695 0 140 -2.36695 1
gene 1 62 4 -2.3531 0 152 -2.3531 1
gene 1 1 62 -0.460957 0 173 -0.460957 1
gene 2 2 62 0.121736 0 251 0.121736 0
gene 2 2 132 7.92548 0 380 7.92548 0
gene 2 132 62 1.54256 0 381 1.54256 1
gene 2 2 155 -2.84685 0 461 -2.84685 1
gene 2 155 132 -0.70139 0 462 -0.70139 1
gene 3 1 155 -2.34833 0 546 -2.34833 1
gene 3 1 132 2.78665 0 807 2.78665 1
genomeend 11

/* Organism #12 Fitness: 4.00355 Error: 1.99911 */
genomestart 12
trait 1 0.1 0.0540886 0 0 0.0123676 0.0104437 0 0.0127597 
trait 2 0.143989 0.393233 0.105077 0 0.459931 0 0.30569 1 
trait 3 0.286753 0 0 0 0.00145798 0 0.0464483 0.00501003 
node 1 1 1 3
node 2 3 1 1
node 3 3 1 1
node 4 2 0 2
node 23 1 0 0
node 62 1 0 0
node 132 1 0 0
node 155 1 0 0
gene 2 1 4 -1.27227 0 1 -1.27227 1
gene 1 2 4 -6.35266 0 2 -6.35266 1
gene 1 3 4 -6.60364 0 3 -6.60364 1
gene 3 2 23 3.78155 0 40 3.78155 1
gene 3 23 4 -0.479928 0 41 -0.479928 1
gene 1 1 23 -1.42496 0 78 -1.42496 1
gene 2 3 23 2.29622 0 130 2.29622 1
gene 2 3 62 -2.15653 0 139 -2.15653 1
gene 2 62 23 -3.50614 0 140 -3.50614 1
gene 1 62 4 6.14735 0 152 6.14735 1
gene 1 1 62 3.46193 0 173 3.46193 1
gene 2 2 62 -0.335909 0 251 -0.335909 0
gene 2 2 132 5.95148 0 380 5.95148 0
gene 2 132 62 3.34994 0 381 3.34994 1
gene 2 2 155 -0.976586 0 461 -0.976586 1
gene 2 155 132 -2.0929 0 462 -2.0929 1
gene 3 1 155 -0.680789 0 546 -0.680789 1
gene 3 1 132 1.49303 0 807 1.49303 1
genomeend 12

/* Organism #13 Fitness: 9.02346 Error: 0.996093 */
genomestart 13
trait 1 0.1 0.0540886 0 0 0.0123676 0.0104437 0 0.0127597 
trait 2 0.143989 0.393233 0.105077 0.497224 0 0 0.0944472 0.691686 
trait 3 0.286753 0 0 0 0.00145798 0 0.0464483 0.00501003 
node 1 1 1 3
node 2 3 1 1
node 3 3 1 1
node 4 2 0 2
node 23 1 0 0
node 62 1 0 0
node 132 1 0 0
node 155 1 0 0
gene 2 1 4 7.79494 0 1 7.79494 1
gene 1 2 4 -4.57014 0 2 -4.57014 1
gene 1 3 4 -6.23264 0 3 -6.23264 1
gene 3 2 23 6.11339 0 40 6.11339 1
gene 3 23 4 -3.24087 0 41 -3.24087 1
gene 1 1 23 -5.85468 0 78 -5.85468 1
gene 2 3 23 0.399937 0 130 0.399937 1
gene 2 3 62 8 0 139 8 1
gene 2 62 23 -3.08548 0 140 -3.08548 1
gene 1 62 4 4.13313 0 152 4.13313 1
gene 1 1 62 2.52867 0 173 2.52867 1
gene 2 2 62 -1.62548 0 251 -1.62548 0
gene 2 2 132 5.64663 0 380 5.64663 0
gene 2 132 62 3.669 0 381 3.669 1
gene 2 2 155 1.90629 0 461 1.90629 1
gene 2 155 132 -1.92499 0 462 -1.92499 1
gene 3 1 155 -0.361723 0 546 -0.361723 1
genomeend 13

/* Organism #14 Fitness: 9.04879 Error: 0.991879 */
genomestart 14
trait 1 0.1 0.0540886 0 0 0.0123676 0.0104437 0 0.0127597 
trait 2 0.143989 0.393233 0.105077 0 0.459931 0 0.30569 1 
trait 3 0.286753 0 0 0 0.00145798 0 0.0464483 0.00501003 
node 1 1 1 3
node 2 3 1 1
node 3 3 1 1
node 4 3 0 2
node 23 1 0 0
node 62 1 0 0
node 132 1 0 0
node 155 1 0 0
gene 2 1 4 8 0 1 8 1
gene 1 2 4 -8 0 2 -8 1
gene 1 3 4 -8 0 3 -8 1
gene 3 2 23 7.64066 0 40 7.64066 1
gene 3 23 4 -4.14489 0 41 -4.14489 1
gene 1 1 23 -4.0804 0 78 -4.0804 1
gene 2 3 23 3.5168 0 130 3.5168 1
gene 2 3 62 5.83576 0 139 5.83576 1
gene 2 62 23 -3.23453 0 140 -3.23453 1
gene 1 62 4 2.47533 0 152 2.47533 1
gene 1 1 62 4.93233 0 173 4.93233 1
gene 2 2 62 -2.57096 0 251 -2.57096 1
gene 2 2 132 3.55243 0 380 3.55243 0
gene 2 132 62 0.0600924 0 381 0.0600924 1
gene 2 2 155 -2.01356 0 461 -2.01356 1
gene 2 155 132 -2.84938 0 462 -2.84938 1
gene 3 1 155 -0.238156 0 546 -0.238156 1
gene 3 1 132 1.64749 0 807 1.64749 1
genomeend 14

/* Species #12 : (Size 5) (AF 11.7702) (Age 52)  */


/* Organism #15 Fitness: 16 Error: 5.53153e-06 */
genomestart 15
trait 1 0.311131 0.0446231 0.167149 0 0.153012 0 0 0.0312623 
trait 2 1 0 0.0430417 0.00887263 0.0918419 0.856818 0 0.46423 
trait 3 0.290573 0 0.00143787 0 0.00360311 0.00287801 0.0334238 0.00360096 
node 1 1 1 3
node 2 3 1 1
node 3 3 1 1
node 4 1 0 2
node 23 3 0 0
node 79 1 0 0
node 84 1 0 0
node 250 2 0 0
gene 2 1 4 6.11871 0 1 6.11871 1
gene 1 2 4 -5.72871 0 2 -5.72871 1
gene 1 3 4 -8 0 3 -8 1
gene 3 2 23 1.22076 0 40 1.22076 1
gene 3 23 4 5.89907 0 41 5.89907 1
gene 2 3 23 -5.49224 0 44 -5.49224 1
gene 3 1 23 2.29101 0 106 2.29101 1
gene 3 23 79 2.30705 0 200 2.30705 1
gene 3 79 4 -1.25897 0 201 -1.25897 1
gene 3 23 84 4.67771 0 215 4.67771 1
gene 3 84 4 2.0061 0 216 2.0061 0
gene 2 3 84 1.37292 0 293 1.37292 1
gene 3 2 84 2.25931 0 318 2.25931 1
gene 1 84 79 -2.65188 0 445 -2.65188 1
gene 3 3 79 4.51167 0 475 4.51167 1
gene 3 1 79 1.6857 0 560 1.6857 1
gene 2 2 79 -1.03504 0 754 -1.03504 1
gene 3 84 250 3.47635 0 784 3.47635 1
gene 3 250 4 5.60233 0 785 5.60233 1
genomeend 15

/* Organism #16 Fitness: 12.0815 Error: 0.524149 */
genomestart 16
trait 1 0.0436152 0.0446231 0 0 0.53777 0.980519 0 0.863822 
trait 2 1 0 0.0430417 0.00887263 0.0918419 0.856818 0 0.46423 
trait 3 0.290573 0 0.00143787 0 0.00360311 0.00287801 0.0334238 0.00360096 
node 1 1 1 3
node 2 3 1 1
node 3 3 1 1
node 4 1 0 2
node 23 3 0 0
node 79 1 0 0
node 84 1 0 0
gene 2 1 4 7.98073 0 1 7.98073 1
gene 1 2 4 -8 0 2 -8 1
gene 1 3 4 -6.41327 0 3 -6.41327 1
gene 3 2 23 -0.844071 0 40 -0.844071 1
gene 3 23 4 4.27348 0 41 4.27348 0
gene 2 3 23 -2.69456 0 44 -2.69456 1
gene 3 1 23 3.05011 0 106 3.05011 1
gene 3 23 79 -1.49556 0 200 -1.49556 1
gene 3 79 4 -1.13646 0 201 -1.13646 1
gene 3 23 84 4.69438 0 215 4.69438 1
gene 3 84 4 3.86678 0 216 3.86678 0
gene 2 3 84 -0.866049 0 293 -0.866049 1
gene 3 2 84 2.60491 0 318 2.60491 1
gene 1 84 79 -0.670766 0 445 -0.670766 1
gene 3 3 79 3.85767 0 475 3.85767 1
gene 3 1 79 -3.55546 0 560 -3.55546 1
gene 2 2 79 -0.107046 0 754 -0.107046 1
genomeend 16

/* Organism #17 Fitness: 11.9532 Error: 0.542659 */
genomestart 17
trait 1 0.311131 0.0446231 0.167149 0 0.153012 0 0 0.0312623 
trait 2 1 0 0.0430417 0 0.0918419 0.84213 0.512322 0.90327 
trait 3 0.290573 0 0.00143787 0 0.00360311 0.00287801 0.0334238 0.00360096 
node 1 1 1 3
node 2 3 1 1
node 3 3 1 1
node 4 1 0 2
node 23 3 0 0
node 79 1 0 0
node 84 1 0 0
gene 2 1 4 8 0 1 8 1
gene 1 2 4 -8 0 2 -8 1
gene 1 3 4 -5.05353 0 3 -5.05353 1
gene 3 2 23 -1.64165 0 40 -1.64165 1
gene 3 23 4 4.24588 0 41 4.24588 0
gene 2 3 23 -0.485914 0 44 -0.485914 1
gene 3 1 23 1.83456 0 106 1.83456 1
gene 3 23 79 0.48735 0 200 0.48735 1
gene 3 79 4 -0.61577 0 201 -0.61577 1
gene 3 23 84 6.24321 0 215 6.24321 1
gene 3 84 4 4.28554 0 216 4.28554 0
gene 2 3 84 -1.18794 0 293 -1.18794 1
gene 3 2 84 1.41248 0 318 1.41248 1
gene 1 84 79 0.801078 0 445 0.801078 1
gene 3 3 79 3.85767 0 475 3.85767 1
gene 3 1 79 -1.61759 0 560 -1.61759 1
gene 2 2 79 -0.107046 0 754 -0.107046 1
genomeend 17

/* Organism #18 Fitness: 9.81604 Error: 0.866943 */
genomestart 18
trait 1 0.311131 0.0446231 0.167149 0 0.153012 0 0 0.0312623 
trait 2 1 0 0.0430417 0.00887263 0.0918419 0.856818 0 0.46423 
trait 3 0.290573 0 0.00143787 0 0.00360311 0.00287801 0.0334238 0.00360096 
node 1 1 1 3
node 2 3 1 1
node 3 3 1 1
node 4 1 0 2
node 23 3 0 0
node 79 1 0 0
node 84 1 0 0
gene 2 1 4 8 0 1 8 1
gene 1 2 4 -6.1167 0 2 -6.1167 1
gene 1 3 4 -7.43116 0 3 -7.43116 1
gene 3 2 23 -1.53422 0 40 -1.53422 1
gene 3 23 4 3.35706 0 41 3.35706 0
gene 2 3 23 -1.72329 0 44 -1.72329 1
gene 3 1 23 2.8331 0 106 2.8331 1
gene 3 23 79 -2.2387 0 200 -2.2387 1
gene 3 79 4 -0.949276 0 201 -0.949276 1
gene 3 23 84 4.57299 0 215 4.57299 1
gene 3 84 4 4.43905 0 216 4.43905 0
gene 2 3 84 -2.81461 0 293 -2.81461 1
gene 3 2 84 3.81878 0 318 3.81878 1
gene 1 84 79 -0.209288 0 445 -0.209288 1
gene 3 3 79 3.85767 0 475 3.85767 1
gene 3 1 79 1.23943 0 560 1.23943 1
gene 2 2 79 -0.107046 0 754 -0.107046 1
genomeend 18

/* Organism #19 Fitness: 9 Error: 1 */
genomestart 19
trait 1 0.311131 0.0446231 0.167149 0 0.153012 0 0 0.0312623 
trait 2 1 0 0.0430417 0.00887263 0.0918419 0.856818 0 0.46423 
trait 3 0.290573 0 0.00143787 0 0.00360311 0.00287801 0.0334238 0.00360096 
node 1 1 1 3
node 2 3 1 1
node 3 3 1 1
node 4 1 0 2
node 23 3 0 0
node 79 1 0 0
node 84 1 0 0
node 250 2 0 0
gene 2 1 4 7.28671 0 1 7.28671 1
gene 1 2 4 -4.46099 0 2 -4.46099 1
gene 1 3 4 -4.55864 0 3 -4.55864 1
gene 3 2 23 4.90792 0 40 4.90792 1
gene 3 23 4 3.45211 0 41 3.45211 0
gene 2 3 23 -5.04814 0 44 -5.04814 1
gene 3 1 23 -0.670483 0 106 -0.670483 1
gene 3 23 79 -1.44809 0 200 -1.44809 1
gene 3 79 4 -1.80498 0 201 -1.80498 1
gene 3 23 84 3.49617 0 215 3.49617 1
gene 3 84 4 4.31594 0 216 4.31594 0
gene 2 3 84 0.546777 0 293 0.546777 1
gene 3 2 84 4.27808 0 318 4.27808 1
gene 1 84 79 -1.2011 0 445 -1.2011 1
gene 3 3 79 2.35055 0 475 2.35055 1
gene 3 1 79 -3.98038 0 560 -3.98038 1
gene 2 2 79 1.09344 0 754 1.09344 1
gene 3 84 250 4.01177 0 784 4.01177 1
gene 3 250 4 5.60233 0 785 5.60233 1
genomeend 19

/* Species #20 : (Size 7) (AF 10.9275) (Age 46)  */


/* Organism #20 Fitness: 16 Error: 1.45796e-08 */
genomestart 20
trait 1 0 0.0320869 0 0.344672 0.197339 0 0.628476 0.018245 
trait 2 0.2 0 0.0210098 0.0202803 0.0336948 0 0 0.0346538 
trait 3 0.150428 0 0 0 0.000764841 0 0.0243663 0.00501003 
node 1 3 1 3
node 2 3 1 1
node 3 3 1 1
node 4 2 0 2
node 23 1 0 0
node 48 3 0 0
node 106 1 0 0
gene 2 1 4 3.91234 0 1 3.91234 1
gene 3 2 4 -7.12415 0 2 -7.12415 1
gene 1 3 4 -7.64098 0 3 -7.64098 1
gene 3 2 23 4.90302 0 40 4.90302 1
gene 3 23 4 -1.01183 0 41 -1.01183 1
gene 2 3 23 -1.17816 0 44 -1.17816 1
gene 3 23 48 2.18565 0 100 2.18565 1
gene 3 48 4 8 0 101 8 1
gene 1 3 48 3.07219 0 203 3.07219 1
gene 3 3 106 2.1588 0 284 2.1588 1
gene 3 106 48 5.44454 0 285 5.44454 1
gene 3 2 106 -1.83981 0 534 -1.83981 1
genomeend 20

/* Organism #21 Fitness: 15.9979 Error: 0.000268408 */
genomestart 21
trait 1 0 0.0320869 0 0.344672 0.197339 0 0.628476 0.018245 
trait 2 0.2 0 0.0210098 0.0202803 0.0336948 0 0 0.0346538 
trait 3 0.150428 0 0 0 0.000764841 0 0.0243663 0.00501003 
node 1 3 1 3
node 2 3 1 1
node 3 2 1 1
node 4 2 0 2
node 23 1 0 0
node 48 3 0 0
node 106 1 0 0
gene 2 1 4 2.9115 0 1 2.9115 1
gene 3 2 4 -6.6888 0 2 -6.6888 1
gene 1 3 4 -6.89273 0 3 -6.89273 1
gene 3 2 23 3.69551 0 40 3.69551 1
gene 3 23 4 1.0002 0 41 1.0002 1
gene 2 3 23 0.406795 0 44 0.406795 1
gene 3 23 48 1.92596 0 100 1.92596 1
gene 3 48 4 8 0 101 8 1
gene 1 3 48 5.78963 0 203 5.78963 1
gene 3 3 106 2.46512 0 284 2.46512 1
gene 3 106 48 1.61876 0 285 1.61876 1
gene 3 2 106 5.282 0 534 5.282 1
genomeend 21

/* Organism #22 Fitness: 1.00009 Error: 2.99996 */
genomestart 22
trait 1 0 0.0320869 0 0.344672 0.197339 0 0.628476 0.018245 
trait 2 0.2 0 0.0210098 0.0202803 0.0336948 0 0 0.0346538 
trait 3 0.150428 0 0 0 0.000764841 0 0.0243663 0.00501003 
node 1 3 1 3
node 2 3 1 1
node 3 3 1 1
node 4 2 0 2
node 23 1 0 0
node 48 3 0 0
node 106 1 0 0
gene 2 1 4 -1.54125 0 1 -1.54125 1
gene 3 2 4 -1.6262 0 2 -1.6262 1
gene 1 3 4 -7.49223 0 3 -7.49223 1
gene 3 2 23 4.66308 0 40 4.66308 1
gene 3 23 4 -0.731941 0 41 -0.731941 1
gene 2 3 23 1.06906 0 44 1.06906 1
gene 3 23 48 2.13389 0 100 2.13389 1
gene 3 48 4 -0.135293 0 101 -0.135293 1
gene 1 3 48 3.90313 0 203 3.90313 1
gene 3 3 106 0.970979 0 284 0.970979 1
gene 3 106 48 7.37817 0 285 7.37817 1
gene 3 2 106 4.47299 0 534 4.47299 1
genomeend 22

/* Organism #23 Fitness: 15.9764 Error: 0.00295525 */
genomestart 23
trait 1 0 0.0320869 0 0.344672 0.197339 0 0.628476 0.018245 
trait 2 0.2 0 0.0210098 0.0202803 0.0336948 0 0 0.0346538 
trait 3 0.150428 0 0 0 0.000764841 0 0.0243663 0.00501003 
node 1 3 1 3
node 2 3 1 1
node 3 3 1 1
node 4 2 0 2
node 23 1 0 0
node 48 3 0 0
node 106 1 0 0
gene 2 1 4 2.58804 0 1 2.58804 1
gene 3 2 4 -8 0 2 -8 1
gene 1 3 4 -7.6564 0 3 -7.6564 1
gene 3 2 23 3.14828 0 40 3.14828 1
gene 3 23 4 -0.924113 0 41 -0.924113 1
gene 2 3 23 -1.60293 0 44 -1.60293 1
gene 3 23 48 0.752325 0 100 0.752325 1
gene 3 48 4 7.67772 0 101 7.67772 1
gene 1 3 48 3.52513 0 203 3.52513 1
gene 3 3 106 1.62116 0 284 1.62116 1
gene 3 106 48 0.676075 0 285 0.676075 1
gene 3 2 106 -0.620722 0 534 -0.620722 1
genomeend 23

/* Organism #24 Fitness: 15.9998 Error: 1.96883e-05 */
genomestart 24
trait 1 0 0.0320869 0 0.344672 0.197339 0 0.628476 0.018245 
trait 2 0.2 0 0.0210098 0.0202803 0.0336948 0 0 0.0346538 
trait 3 0.150428 0 0 0 0.000764841 0 0.0243663 0.00501003 
node 1 3 1 3
node 2 3 1 1
node 3 3 1 1
node 4 2 0 2
node 23 1 0 0
node 48 3 0 0
node 106 1 0 0
gene 2 1 4 4.52579 0 1 4.52579 1
gene 3 2 4 -8 0 2 -8 1
gene 1 3 4 -8 0 3 -8 1
gene 3 2 23 2.58888 0 40 2.58888 1
gene 3 23 4 1.27379 0 41 1.27379 1
gene 2 3 23 0.140667 0 44 0.140667 1
gene 3 23 48 2.32596 0 100 2.32596 1
gene 3 48 4 8 0 101 8 1
gene 1 3 48 5.6822 0 203 5.6822 1
gene 3 3 106 2.65893 0 284 2.65893 1
gene 3 106 48 0.283058 0 285 0.283058 1
gene 3 2 106 1.74064 0 534 1.74064 1
genomeend 24

/* Organism #25 Fitness: 4.00001 Error: 2 */
genomestart 25
trait 1 0 0.0320869 0 0.344672 0.197339 0 0.628476 0.018245 
trait 2 0.2 0 0.0210098 0.0202803 0.0336948 0 0 0.0346538 
trait 3 0.150428 0 0 0 0.000764841 0 0.0243663 0.00501003 
node 1 3 1 3
node 2 3 1 1
node 3 3 1 1
node 4 2 0 2
node 23 1 0 0
node 48 3 0 0
node 106 1 0 0
gene 2 1 4 3.91234 0 1 3.91234 1
gene 3 2 4 -8 0 2 -8 1
gene 1 3 4 -6.09 0 3 -6.09 1
gene 3 2 23 6.98053 0 40 6.98053 1
gene 3 23 4 -3.36297 0 41 -3.36297 1
gene 2 3 23 -0.0809838 0 44 -0.0809838 1
gene 3 23 48 3.456 0 100 3.456 1
gene 3 48 4 0.888306 0 101 0.888306 1
gene 1 3 48 1.28227 0 203 1.28227 1
gene 3 3 106 0.522236 0 284 0.522236 1
gene 3 106 48 7.83673 0 285 7.83673 1
gene 3 2 106 0.476611 0 534 0.476611 1
genomeend 25

/* Organism #26 Fitness: 7.51837 Error: 1.25804 */
genomestart 26
trait 1 0 0.0320869 0 0.344672 0.197339 0 0.628476 0.018245 
trait 2 0.2 0 0.0210098 0.0202803 0.0336948 0 0 0.0346538 
trait 3 0.150428 0 0 0 0.000764841 0 0.0243663 0.00501003 
node 1 3 1 3
node 2 3 1 1
node 3 3 1 1
node 4 2 0 2
node 23 1 0 0
node 48 3 0 0
node 106 1 0 0
gene 2 1 4 3.45731 0 1 3.45731 1
gene 3 2 4 -8 0 2 -8 1
gene 1 3 4 1.61996 0 3 1.61996 1
gene 3 2 23 2.63728 0 40 2.63728 1
gene 3 23 4 0.0130996 0 41 0.0130996 1
gene 2 3 23 0.836071 0 44 0.836071 1
gene 3 23 48 0.450623 0 100 0.450623 1
gene 3 48 4 4.74395 0 101 4.74395 1
gene 1 3 48 6.12041 0 203 6.12041 1
gene 3 3 106 2.36435 0 284 2.36435 1
gene 3 106 48 3.92397 0 285 3.92397 1
gene 3 2 106 2.41994 0 534 2.41994 1
genomeend 26

/* Species #21 : (Size 8) (AF 12.2946) (Age 44)  */


/* Organism #27 Fitness: 16 Error: 7.70725e-11 */
genomestart 27
trait 1 0.799732 0.0288473 0.251039 0.463087 0 0 0.603997 0.428254 
trait 2 0.2 0.213442 0.0999708 0.0202803 0.0168474 0.132647 0 0.0346538 
trait 3 0 0 0.379153 0 0.0764277 0 0.0313885 0.252965 
node 1 3 1 3
node 2 3 1 1
node 3 3 1 1
node 4 2 0 2
node 23 1 0 0
node 37 1 0 0
node 109 3 0 0
node 152 1 0 0
node 213 1 0 0
node 220 1 0 0
gene 3 1 4 8 0 1 8 1
gene 3 2 4 -4.07039 0 2 -4.07039 1
gene 1 3 4 -4.86983 0 3 -4.86983 1
gene 3 2 23 6.00723 0 40 6.00723 1
gene 3 23 4 -5.00607 0 41 -5.00607 1
gene 1 3 37 -5.30863 0 74 -5.30863 1
gene 1 37 4 5.86423 0 75 5.86423 1
gene 1 3 23 -6.31122 0 169 -6.31122 1
gene 2 1 23 2.42658 0 220 2.42658 1
gene 1 2 37 0.201142 0 235 0.201142 0
gene 1 2 109 -3.37558 0 297 -3.37558 1
gene 1 109 37 8 0 298 8 1
gene 1 109 152 2.24772 0 453 2.24772 1
gene 1 152 37 5.12139 0 454 5.12139 1
gene 2 109 23 2.45983 0 469 2.45983 1
gene 2 152 23 2.94239 0 587 2.94239 1
gene 1 2 213 4.32184 0 661 4.32184 0
gene 1 213 37 -0.0687104 0 662 -0.0687104 1
gene 1 2 220 -0.260149 0 681 -0.260149 1
gene 1 220 213 2.71685 0 682 2.71685 1
genomeend 27

/* Organism #28 Fitness: 15.9967 Error: 0.000416533 */
genomestart 28
trait 1 0.799732 0.0288473 0.251039 0.463087 0 0 0.603997 0.428254 
trait 2 0.2 0.213442 0.0999708 0.0202803 0.0168474 0.132647 0 0.0346538 
trait 3 0 0 0.379153 0 0.0764277 0 0.0313885 0.252965 
node 1 3 1 3
node 2 3 1 1
node 3 3 1 1
node 4 2 0 2
node 23 1 0 0
node 37 1 0 0
node 109 3 0 0
node 152 1 0 0
node 213 1 0 0
node 220 1 0 0
gene 3 1 4 8 0 1 8 1
gene 3 2 4 -1.61868 0 2 -1.61868 1
gene 1 3 4 -5.29964 0 3 -5.29964 1
gene 3 2 23 6.00723 0 40 6.00723 1
gene 3 23 4 -4.80247 0 41 -4.80247 1
gene 1 3 37 -0.213297 0 74 -0.213297 1
gene 1 37 4 2.34118 0 75 2.34118 1
gene 1 3 23 -6.09965 0 169 -6.09965 1
gene 2 1 23 1.98215 0 220 1.98215 1
gene 1 2 37 1.01689 0 235 1.01689 0
gene 1 2 109 -2.66731 0 297 -2.66731 1
gene 1 109 37 8 0 298 8 1
gene 1 109 152 1.11546 0 453 1.11546 1
gene 1 152 37 -1.18718 0 454 -1.18718 1
gene 2 109 23 0.975451 0 469 0.975451 1
gene 2 152 23 3.85019 0 587 3.85019 1
gene 1 2 213 -1.94059 0 661 -1.94059 0
gene 1 213 37 -1.5625 0 662 -1.5625 1
gene 1 2 220 -1.19223 0 681 -1.19223 1
gene 2 220 213 2.01023 0 682 2.01023 1
genomeend 28

/* Organism #29 Fitness: 16 Error: 8.59623e-07 */
genomestart 29
trait 1 0.799732 0.0288473 0.251039 0.75443 0 0 0.42654 1 
trait 2 0.2 0.213442 0.0999708 0.0202803 0.0168474 0.132647 0 0.0346538 
trait 3 0 0 0.379153 0 0.0764277 0 0.0313885 0.252965 
node 1 3 1 3
node 2 3 1 1
node 3 3 1 1
node 4 2 0 2
node 23 1 0 0
node 37 1 0 0
node 109 3 0 0
node 152 1 0 0
node 213 1 0 0
node 220 1 0 0
gene 3 1 4 8 0 1 8 1
gene 3 2 4 -2.1343 0 2 -2.1343 1
gene 1 3 4 -6.06548 0 3 -6.06548 1
gene 3 2 23 8 0 40 8 1
gene 3 23 4 -4.87189 0 41 -4.87189 1
gene 1 3 37 -6.23306 0 74 -6.23306 1
gene 1 37 4 5.77368 0 75 5.77368 1
gene 1 3 23 -2.06778 0 169 -2.06778 1
gene 2 1 23 3.2629 0 220 3.2629 1
gene 1 2 37 -0.983655 0 235 -0.983655 0
gene 1 2 109 -7.29115 0 297 -7.29115 1
gene 1 109 37 8 0 298 8 1
gene 1 109 152 2.89597 0 453 2.89597 1
gene 1 152 37 7.09914 0 454 7.09914 1
gene 2 109 23 2.33212 0 469 2.33212 1
gene 2 152 23 5.89997 0 587 5.89997 1
gene 1 2 213 0.23867 0 661 0.23867 0
gene 1 213 37 1.21244 0 662 1.21244 1
gene 1 2 220 2.21751 0 681 2.21751 1
gene 1 220 213 3.26482 0 682 3.26482 1
genomeend 29

/* Organism #30 Fitness: 8.99509 Error: 1.00082 */
genomestart 30
trait 1 0.799732 0.0288473 0.251039 0.75443 0 0 0.42654 1 
trait 2 0.2 0.213442 0.0999708 0.0202803 0.0168474 0.132647 0 0.0346538 
trait 3 0 0 0.379153 0 0.0764277 0 0.0313885 0.252965 
node 1 3 1 3
node 2 3 1 1
node 3 3 1 1
node 4 2 0 2
node 23 1 0 0
node 37 1 0 0
node 109 3 0 0
node 152 1 0 0
node 213 1 0 0
node 220 1 0 0
gene 3 1 4 8 0 1 8 1
gene 3 2 4 -4.12878 0 2 -4.12878 1
gene 1 3 4 -5.01602 0 3 -5.01602 1
gene 3 2 23 0.283733 0 40 0.283733 1
gene 3 23 4 -5.06712 0 41 -5.06712 1
gene 1 3 37 -6.23306 0 74 -6.23306 1
gene 1 37 4 0.144527 0 75 0.144527 1
gene 1 3 23 -8 0 169 -8 1
gene 2 1 23 2.30741 0 220 2.30741 1
gene 1 2 37 0.124315 0 235 0.124315 0
gene 1 2 109 -0.113024 0 297 -0.113024 1
gene 1 109 37 2.14454 0 298 2.14454 1
gene 1 109 152 4.91168 0 453 4.91168 1
gene 1 152 37 8 0 454 8 1
gene 2 109 23 1.12643 0 469 1.12643 1
gene 2 152 23 3.90715 0 587 3.90715 1
gene 1 2 213 1.83908 0 661 1.83908 0
gene 1 213 37 2.78382 0 662 2.78382 1
gene 1 2 220 -2.33309 0 681 -2.33309 1
gene 1 220 213 1.268 0 682 1.268 1
genomeend 30

/* Organism #31 Fitness: 1 Error: 3 */
genomestart 31
trait 1 0.799732 0.0288473 0.251039 0.463087 0 0 0.603997 0.428254 
trait 2 0.2 0.213442 0.0999708 0.0202803 0.0168474 0.132647 0 0.0346538 
trait 3 0 0 0.379153 0 0.0764277 0 0.0313885 0.252965 
node 1 3 1 3
node 2 3 1 1
node 3 3 1 1
node 4 2 0 2
node 23 1 0 0
node 37 1 0 0
node 109 3 0 0
node 152 1 0 0
node 213 1 0 0
node 220 1 0 0
gene 3 1 4 -1.83005 0 1 -1.83005 1
gene 3 2 4 -4.07039 0 2 -4.07039 1
gene 1 3 4 -5.63216 0 3 -5.63216 1
gene 3 2 23 6.00723 0 40 6.00723 1
gene 3 23 4 -4.87824 0 41 -4.87824 1
gene 1 3 37 -0.623134 0 74 -0.623134 1
gene 1 37 4 4.16668 0 75 4.16668 1
gene 1 3 23 2.23605 0 169 2.23605 1
gene 2 1 23 4.77826 0 220 4.77826 1
gene 1 2 37 1.8901 0 235 1.8901 0
gene 1 2 109 -1.11195 0 297 -1.11195 1
gene 1 109 37 8 0 298 8 1
gene 1 109 152 2.24985 0 453 2.24985 1
gene 1 152 37 -2.00686 0 454 -2.00686 1
gene 2 109 23 -2.37147 0 469 -2.37147 1
gene 2 152 23 3.10973 0 587 3.10973 1
gene 1 2 213 0.227555 0 661 0.227555 0
gene 1 213 37 -2.24515 0 662 -2.24515 1
gene 1 2 220 -2.36328 0 681 -2.36328 1
gene 1 220 213 4.05559 0 682 4.05559 1
genomeend 31

/* Organism #32 Fitness: 15.3725 Error: 0.0792262 */
genomestart 32
trait 1 0.799732 0.0288473 0.251039 0.75443 0 0 0.42654 1 
trait 2 0.2 0.213442 0.0999708 0.0202803 0.0168474 0.132647 0 0.0346538 
trait 3 0 0 0.379153 0 0.0764277 0 0.0313885 0.252965 
node 1 3 1 3
node 2 3 1 1
node 3 3 1 1
node 4 2 0 2
node 23 1 0 0
node 37 1 0 0
node 109 3 0 0
node 152 1 0 0
node 213 1 0 0
node 220 1 0 0
gene 3 1 4 5.88168 0 1 5.88168 1
gene 3 2 4 -0.913836 0 2 -0.913836 1
gene 1 3 4 -7.01554 0 3 -7.01554 1
gene 3 2 23 8 0 40 8 1
gene 3 23 4 -3.41292 0 41 -3.41292 1
gene 1 3 37 -4.96077 0 74 -4.96077 1
gene 1 37 4 5.04487 0 75 5.04487 1
gene 1 3 23 -4.69985 0 169 -4.69985 1
gene 2 1 23 2.38832 0 220 2.38832 1
gene 1 2 37 -3.55691 0 235 -3.55691 0
gene 1 2 109 -3.6199 0 297 -3.6199 1
gene 1 109 37 7.48043 0 298 7.48043 1
gene 1 109 152 4.45979 0 453 4.45979 1
gene 1 152 37 6.50952 0 454 6.50952 1
gene 2 109 23 1.34982 0 469 1.34982 1
gene 2 152 23 3.92641 0 587 3.92641 1
gene 1 2 213 0.790491 0 661 0.790491 0
gene 1 213 37 0.204189 0 662 0.204189 1
gene 1 2 220 0.563648 0 681 0.563648 1
gene 1 220 213 3.39231 0 682 3.39231 1
genomeend 32

/* Organism #33 Fitness: 8.99413 Error: 1.00098 */
genomestart 33
trait 1 0.799732 0.0288473 0.251039 0.75443 0 0 0.42654 1 
trait 2 0.2 0.213442 0.0999708 0.0202803 0.0168474 0.132647 0 0.0346538 
trait 3 0 0 0.379153 0 0.0764277 0 0.0313885 0.252965 
node 1 3 1 3
node 2 3 1 1
node 3 3 1 1
node 4 2 0 2
node 23 1 0 0
node 37 1 0 0
node 109 3 0 0
node 152 1 0 0
node 213 1 0 0
node 220 1 0 0
gene 3 1 4 6.66724 0 1 6.66724 1
gene 3 2 4 -0.0725141 0 2 -0.0725141 1
gene 1 3 4 0.304355 0 3 0.304355 1
gene 3 2 23 8 0 40 8 1
gene 3 23 4 -4.09304 0 41 -4.09304 1
gene 1 3 37 -5.29321 0 74 -5.29321 1
gene 1 37 4 -0.987008 0 75 -0.987008 1
gene 1 3 23 -6.50107 0 169 -6.50107 1
gene 2 1 23 1.00419 0 220 1.00419 1
gene 1 2 37 -3.57083 0 235 -3.57083 0
gene 1 2 109 -4.50903 0 297 -4.50903 1
gene 1 109 37 5.36497 0 298 5.36497 1
gene 1 109 152 5.24759 0 453 5.24759 1
gene 1 152 37 4.27647 0 454 4.27647 1
gene 2 109 23 1.58728 0 469 1.58728 1
gene 2 152 23 4.40487 0 587 4.40487 1
gene 1 2 213 1.19871 0 661 1.19871 0
gene 1 213 37 1.4951 0 662 1.4951 1
gene 1 2 220 0.284225 0 681 0.284225 1
gene 1 220 213 -1.47509 0 682 -1.47509 1
genomeend 33

/* Organism #34 Fitness: 15.9988 Error: 0.00014567 */
genomestart 34
trait 1 0.799732 0.0288473 0.251039 0.608759 0 0 0.515268 0.714127 
trait 2 0.2 0.213442 0.0999708 0.0202803 0.0168474 0.132647 0 0.0346538 
trait 3 0 0 0.379153 0 0.0764277 0 0.0313885 0.252965 
node 1 3 1 3
node 2 3 1 1
node 3 3 1 1
node 4 2 0 2
node 23 1 0 0
node 37 1 0 0
node 109 3 0 0
node 152 1 0 0
node 213 1 0 0
node 220 1 0 0
gene 3 1 4 7.2237 0 1 7.2237 1
gene 3 2 4 -1.73898 0 2 -1.73898 1
gene 1 3 4 -3.86158 0 3 -3.86158 1
gene 3 2 23 8 0 40 8 1
gene 3 23 4 -3.46246 0 41 -3.46246 1
gene 1 3 37 -7.27904 0 74 -7.27904 1
gene 1 37 4 4.63529 0 75 4.63529 1
gene 1 3 23 -4.6775 0 169 -4.6775 1
gene 2 1 23 4.37059 0 220 4.37059 1
gene 1 2 37 0.840336 0 235 0.840336 0
gene 1 2 109 -4.36305 0 297 -4.36305 1
gene 1 109 37 5.54515 0 298 5.54515 1
gene 1 109 152 4.69223 0 453 4.69223 1
gene 1 152 37 7.57525 0 454 7.57525 1
gene 2 109 23 1.12726 0 469 1.12726 1
gene 2 152 23 3.43253 0 587 3.43253 1
gene 1 2 213 0.208772 0 661 0.208772 0
gene 1 213 37 2.60718 0 662 2.60718 1
gene 1 2 220 -0.260149 0 681 -0.260149 1
gene 1 220 213 3.61227 0 682 3.61227 1
genomeend 34

/* Species #24 : (Size 9) (AF 14.2999) (Age 42)  */


/* Organism #35 Fitness: 16 Error: 3.65068e-08 */
genomestart 35
trait 1 0.1 0.0576945 0 0 0 0 0 0.0136104 
trait 2 0.2 0 0.0210098 0.0202803 0.0336948 0 0 0.0346538 
trait 3 0.928408 0.901072 0 0 0 0.511051 0 0.685961 
node 1 3 1 3
node 2 3 1 1
node 3 1 1 1
node 4 1 0 2
node 23 1 0 0
node 55 1 0 0
node 91 1 0 0
node 118 1 0 0
node 252 1 0 0
gene 2 1 4 6.81753 0 1 6.81753 1
gene 3 2 4 -7.91247 0 2 -7.91247 1
gene 1 3 4 -7.51612 0 3 -7.51612 1
gene 3 2 23 2.34918 0 40 2.34918 1
gene 3 23 4 -0.468007 0 41 -0.468007 1
gene 2 3 23 -3.31962 0 44 -3.31962 0
gene 1 3 55 5.07215 0 117 5.07215 1
gene 1 55 4 5.0876 0 118 5.0876 1
gene 2 1 55 3.70738 0 143 3.70738 1
gene 3 2 55 1.59414 0 208 1.59414 1
gene 3 2 91 2.00586 0 240 2.00586 1
gene 3 91 4 -0.557095 0 241 -0.557095 1
gene 3 2 118 5.26984 0 327 5.26984 1
gene 3 118 23 2.43212 0 328 2.43212 1
gene 3 1 118 1.16155 0 337 1.16155 1
gene 1 23 91 -2.61262 0 354 -2.61262 1
gene 2 3 252 1 0 789 0 1
gene 2 252 23 -3.31962 0 790 0 1
gene 2 3 91 -0.368346 0 810 -0.368346 1
genomeend 35

/* Organism #36 Fitness: 16 Error: 3.89581e-07 */
genomestart 36
trait 1 0.1 0.0576945 0 0 0 0 0 0.0136104 
trait 2 0.2 0 0.0210098 0.0202803 0.0336948 0 0 0.0346538 
trait 3 0.928408 0.901072 0 0 0 0.511051 0 0.685961 
node 1 3 1 3
node 2 3 1 1
node 3 1 1 1
node 4 1 0 2
node 23 1 0 0
node 55 1 0 0
node 91 1 0 0
node 118 1 0 0
node 252 1 0 0
gene 2 1 4 5.27201 0 1 5.27201 1
gene 3 2 4 -8 0 2 -8 1
gene 1 3 4 -7.33995 0 3 -7.33995 1
gene 3 2 23 2.01982 0 40 2.01982 1
gene 3 23 4 1.76007 0 41 1.76007 1
gene 2 3 23 -3.29424 0 44 -3.29424 0
gene 1 3 55 6.39645 0 117 6.39645 1
gene 1 55 4 5.04644 0 118 5.04644 1
gene 2 1 55 3.92267 0 143 3.92267 1
gene 3 2 55 4.00321 0 208 4.00321 1
gene 3 2 91 2.75331 0 240 2.75331 1
gene 3 91 4 -0.00562608 0 241 -0.00562608 1
gene 3 2 118 4.22483 0 327 4.22483 1
gene 3 118 23 0.661996 0 328 0.661996 1
gene 3 1 118 1.83937 0 337 1.83937 1
gene 1 23 91 -4.95989 0 354 -4.95989 1
gene 2 3 252 0.0625606 0 789 0.0625606 1
gene 2 252 23 -2.18009 0 790 -2.18009 1
gene 2 3 91 1.39812 0 810 1.39812 1
genomeend 36

/* Organism #37 Fitness: 9 Error: 1 */
genomestart 37
trait 1 0.1 0.0576945 0 0 0 0 0 0.0136104 
trait 2 0.2 0 0.0210098 0.0202803 0.0336948 0 0 0.0346538 
trait 3 0.928408 0.901072 0 0 0 0.511051 0 0.685961 
node 1 3 1 3
node 2 3 1 1
node 3 1 1 1
node 4 1 0 2
node 23 1 0 0
node 55 1 0 0
node 91 1 0 0
node 118 1 0 0
node 252 1 0 0
gene 2 1 4 5.71112 0 1 5.71112 1
gene 3 2 4 -0.168244 0 2 -0.168244 1
gene 1 3 4 -7.8166 0 3 -7.8166 1
gene 3 2 23 4.42185 0 40 4.42185 1
gene 3 23 4 1.1722 0 41 1.1722 1
gene 2 3 23 -4.37464 0 44 -4.37464 0
gene 1 3 55 0.532378 0 117 0.532378 1
gene 1 55 4 7.27744 0 118 7.27744 1
gene 2 1 55 0.245416 0 143 0.245416 1
gene 3 2 55 3.27835 0 208 3.27835 1
gene 3 2 91 4.06357 0 240 4.06357 1
gene 3 91 4 -0.557095 0 241 -0.557095 1
gene 3 2 118 2.42923 0 327 2.42923 1
gene 3 118 23 1.38142 0 328 1.38142 1
gene 3 1 118 0.47386 0 337 0.47386 1
gene 1 23 91 -2.61262 0 354 -2.61262 1
gene 2 3 252 -2.47085 0 789 -2.47085 1
gene 2 252 23 0.893605 0 790 0.893605 1
gene 2 3 91 1.10239 0 810 1.10239 1
genomeend 37

/* Organism #38 Fitness: 15.7297 Error: 0.0339295 */
genomestart 38
trait 1 0.1 0.0576945 0 0 0 0 0 0.0136104 
trait 2 0.2 0 0.0210098 0.0202803 0.0336948 0 0 0.0346538 
trait 3 0.928408 0.901072 0 0 0 0.511051 0 0.685961 
node 1 3 1 3
node 2 3 1 1
node 3 1 1 1
node 4 1 0 2
node 23 1 0 0
node 55 1 0 0
node 91 1 0 0
node 118 1 0 0
node 252 1 0 0
gene 2 1 4 6.56013 0 1 6.56013 1
gene 3 2 4 -7.91247 0 2 -7.91247 1
gene 1 3 4 -8 0 3 -8 1
gene 3 2 23 3.79535 0 40 3.79535 1
gene 3 23 4 1.07232 0 41 1.07232 1
gene 2 3 23 -4.51329 0 44 -4.51329 0
gene 1 3 55 4.25429 0 117 4.25429 1
gene 1 55 4 3.75195 0 118 3.75195 1
gene 2 1 55 3.25154 0 143 3.25154 1
gene 3 2 55 -0.601474 0 208 -0.601474 1
gene 3 2 91 4.48565 0 240 4.48565 1
gene 3 91 4 -2.6514 0 241 -2.6514 1
gene 3 2 118 0.0562081 0 327 0.0562081 1
gene 3 118 23 3.68606 0 328 3.68606 1
gene 3 1 118 3.34346 0 337 3.34346 1
gene 1 23 91 -1.29947 0 354 -1.29947 1
gene 2 3 252 -0.437133 0 789 -0.437133 1
gene 2 252 23 -1.32254 0 790 -1.32254 1
gene 2 3 91 1.96735 0 810 1.96735 1
genomeend 38

/* Organism #39 Fitness: 16 Error: 3.68238e-08 */
genomestart 39
trait 1 0.1 0.0576945 0 0 0 0 0 0.0136104 
trait 2 0.2 0 0.0210098 0.0202803 0.0336948 0 0 0.0346538 
trait 3 0.928408 0.901072 0 0 0 0.511051 0 0.685961 
node 1 3 1 3
node 2 3 1 1
node 3 1 1 1
node 4 1 0 2
node 23 1 0 0
node 55 1 0 0
node 91 1 0 0
node 118 1 0 0
node 252 1 0 0
node 264 1 0 0
gene 2 1 4 6.81753 0 1 6.81753 1
gene 3 2 4 -7.91247 0 2 -7.91247 1
gene 1 3 4 -7.51612 0 3 -7.51612 1
gene 3 2 23 2.34918 0 40 2.34918 1
gene 3 23 4 -0.468007 0 41 -0.468007 1
gene 2 3 23 -3.31962 0 44 -3.31962 1
gene 1 3 55 5.07215 0 117 5.07215 1
gene 1 55 4 5.0876 0 118 5.0876 1
gene 2 1 55 3.70738 0 143 3.70738 1
gene 3 2 55 1.59414 0 208 1.59414 1
gene 3 2 91 2.00586 0 240 2.00586 1
gene 3 91 4 -0.557095 0 241 -0.557095 1
gene 3 2 118 5.26984 0 327 5.26984 1
gene 3 118 23 2.43212 0 328 2.43212 1
gene 3 1 118 1.16155 0 337 1.16155 1
gene 1 23 91 -2.61262 0 354 -2.61262 0
gene 2 3 252 1 0 789 0 1
gene 2 252 23 -3.31962 0 790 0 1
gene 2 3 91 -0.368346 0 810 -0.368346 1
gene 1 23 264 1 0 836 0 1
gene 1 264 91 -2.61262 0 837 0 1
genomeend 39

/* Organism #40 Fitness: 8.99488 Error: 1.00085 */
genomestart 40
trait 1 0.1 0.0576945 0 0 0 0 0 0.0136104 
trait 2 0.2 0 0.0210098 0.0202803 0.0336948 0 0 0.0346538 
trait 3 0.928408 0.901072 0 0 0 0.511051 0 0.685961 
node 1 3 1 3
node 2 3 1 1
node 3 1 1 1
node 4 1 0 2
node 23 1 0 0
node 55 1 0 0
node 91 1 0 0
node 118 1 0 0
node 252 1 0 0
gene 2 1 4 5.2144 0 1 5.2144 1
gene 3 2 4 -8 0 2 -8 1
gene 1 3 4 -5.04386 0 3 -5.04386 1
gene 3 2 23 1.20018 0 40 1.20018 1
gene 3 23 4 1.70155 0 41 1.70155 1
gene 2 3 23 -3.03981 0 44 -3.03981 0
gene 1 3 55 4.33966 0 117 4.33966 1
gene 1 55 4 -0.38192 0 118 -0.38192 1
gene 2 1 55 6.19044 0 143 6.19044 1
gene 3 2 55 2.20869 0 208 2.20869 1
gene 3 2 91 -2.43975 0 240 -2.43975 1
gene 3 91 4 -0.557095 0 241 -0.557095 1
gene 3 2 118 5.26984 0 327 5.26984 1
gene 3 118 23 4.53147 0 328 4.53147 1
gene 3 1 118 0.678839 0 337 0.678839 1
gene 1 23 91 -1.47733 0 354 -1.47733 1
gene 2 3 252 3.06211 0 789 3.06211 1
gene 2 252 23 -1.7752 0 790 -1.7752 1
gene 2 3 91 1.32915 0 810 1.32915 1
genomeend 40

/* Organism #41 Fitness: 16 Error: 2.1021e-07 */
genomestart 41
trait 1 0.1 0.0576945 0 0 0 0 0 0.0136104 
trait 2 0.2 0 0.0210098 0.0202803 0.0336948 0 0 0.0346538 
trait 3 0.928408 0.901072 0 0 0 0.511051 0 0.685961 
node 1 3 1 3
node 2 3 1 1
node 3 1 1 1
node 4 1 0 2
node 23 1 0 0
node 55 1 0 0
node 91 1 0 0
node 118 1 0 0
node 252 1 0 0
gene 2 1 4 7.57656 0 1 7.57656 1
gene 3 2 4 -8 0 2 -8 1
gene 1 3 4 -7.40537 0 3 -7.40537 1
gene 3 2 23 1.03961 0 40 1.03961 1
gene 3 23 4 0.358419 0 41 0.358419 1
gene 2 3 23 -5.25816 0 44 -5.25816 0
gene 1 3 55 4.61709 0 117 4.61709 1
gene 1 55 4 7.23196 0 118 7.23196 1
gene 2 1 55 4.05325 0 143 4.05325 1
gene 3 2 55 0.538095 0 208 0.538095 1
gene 3 2 91 -0.342501 0 240 -0.342501 1
gene 3 91 4 -2.52593 0 241 -2.52593 1
gene 3 2 118 3.73998 0 327 3.73998 1
gene 3 118 23 2.41478 0 328 2.41478 1
gene 3 1 118 -0.307274 0 337 -0.307274 1
gene 1 23 91 -4.41704 0 354 -4.41704 1
gene 2 3 252 3.1503 0 789 3.1503 1
gene 2 252 23 -5.20291 0 790 -5.20291 1
gene 2 3 91 2.13868 0 810 2.13868 1
genomeend 41

/* Organism #42 Fitness: 14.9743 Error: 0.13034 */
genomestart 42
trait 1 0.1 0.0576945 0 0 0 0 0 0.0136104 
trait 2 0.2 0 0.0210098 0.0202803 0.0336948 0 0 0.0346538 
trait 3 0.928408 0.901072 0 0 0 0.511051 0 0.685961 
node 1 3 1 3
node 2 3 1 1
node 3 1 1 1
node 4 1 0 2
node 23 1 0 0
node 55 1 0 0
node 91 1 0 0
node 118 1 0 0
node 252 1 0 0
gene 2 1 4 5.48945 0 1 5.48945 1
gene 3 2 4 -7.00248 0 2 -7.00248 1
gene 1 3 4 -5.37521 0 3 -5.37521 1
gene 3 2 23 1.89838 0 40 1.89838 1
gene 3 23 4 0.855982 0 41 0.855982 1
gene 2 3 23 -3.35956 0 44 -3.35956 0
gene 1 3 55 4.4134 0 117 4.4134 1
gene 1 55 4 6.0605 0 118 6.0605 1
gene 2 1 55 1.88561 0 143 1.88561 1
gene 3 2 55 2.48598 0 208 2.48598 1
gene 3 2 91 -0.451143 0 240 -0.451143 1
gene 3 91 4 0.0711923 0 241 0.0711923 1
gene 3 2 118 6.74167 0 327 6.74167 1
gene 3 118 23 1.38522 0 328 1.38522 1
gene 3 1 118 3.31638 0 337 3.31638 1
gene 1 23 91 -1.78497 0 354 -1.78497 1
gene 2 3 252 0.850589 0 789 0.850589 1
gene 2 252 23 -3.31962 0 790 -3.31962 1
gene 2 3 91 -0.214069 0 810 -0.214069 1
genomeend 42

/* Organism #43 Fitness: 16 Error: 8.17233e-07 */
genomestart 43
trait 1 0.1 0.0576945 0 0 0 0 0 0.0136104 
trait 2 0.2 0 0.0210098 0.0202803 0.0336948 0 0 0.0346538 
trait 3 0.928408 0.901072 0 0 0 0.511051 0 0.685961 
node 1 3 1 3
node 2 3 1 1
node 3 1 1 1
node 4 1 0 2
node 23 1 0 0
node 55 3 0 0
node 91 1 0 0
node 118 1 0 0
node 252 1 0 0
gene 2 1 4 8 0 1 8 1
gene 3 2 4 -8 0 2 -8 1
gene 1 3 4 -8 0 3 -8 1
gene 3 2 23 4.54042 0 40 4.54042 1
gene 3 23 4 0.860869 0 41 0.860869 1
gene 2 3 23 -4.39906 0 44 -4.39906 1
gene 1 3 55 5.73029 0 117 5.73029 1
gene 1 55 4 3.21286 0 118 3.21286 1
gene 2 1 55 1.87438 0 143 1.87438 1
gene 3 2 55 -0.356736 0 208 -0.356736 1
gene 3 2 91 1.4813 0 240 1.4813 1
gene 3 91 4 1.93964 0 241 1.93964 1
gene 3 2 118 6.57356 0 327 6.57356 1
gene 3 118 23 0.952582 0 328 0.952582 1
gene 3 1 118 3.09421 0 337 3.09421 1
gene 1 23 91 -0.618251 0 354 -0.618251 1
gene 2 3 252 1.32737 0 789 1.32737 1
gene 2 252 23 -3.31962 0 790 -3.31962 1
gene 2 3 91 -0.368346 0 810 -0.368346 1
genomeend 43

/* Species #27 : (Size 6) (AF 11.5555) (Age 30)  */


/* Organism #44 Fitness: 15.1808 Error: 0.103749 */
genomestart 44
trait 1 0.1 0.0540886 0.033849 0 0.0123676 0.0104437 0.713287 0 
trait 2 0.0763565 0.393233 0.396842 0.0101402 0.729966 0 0.382566 0.223713 
trait 3 0 0 0.690756 1 0.00145798 0 1 0 
node 1 1 1 3
node 2 3 1 1
node 3 3 1 1
node 4 3 0 2
node 23 1 0 0
node 62 1 0 0
node 132 1 0 0
node 144 1 0 0
node 167 2 0 0
gene 2 1 4 5.58921 0 1 5.58921 1
gene 1 2 4 -4.61952 0 2 -4.61952 1
gene 1 3 4 -5.31012 0 3 -5.31012 1
gene 3 2 23 2.71104 0 40 2.71104 1
gene 3 23 4 -1.24398 0 41 -1.24398 1
gene 1 1 23 -7.85187 0 78 -7.85187 1
gene 2 3 23 -1.52078 0 130 -1.52078 1
gene 2 3 62 0.452602 0 139 0.452602 1
gene 2 62 23 -1.27279 0 140 -1.27279 1
gene 1 62 4 3.9026 0 152 3.9026 1
gene 1 1 62 0.942159 0 173 0.942159 1
gene 2 2 62 -6.30461 0 251 -6.30461 0
gene 2 2 132 -5.52437 0 380 -5.52437 0
gene 2 132 62 1.55178 0 381 1.55178 1
gene 1 62 144 -8 0 424 -8 1
gene 1 144 4 -1.93395 0 425 -1.93395 1
gene 2 2 167 -0.978792 0 495 -0.978792 1
gene 2 167 132 6.59739 0 496 6.59739 1
genomeend 44

/* Organism #45 Fitness: 9 Error: 1 */
genomestart 45
trait 1 0.1 0.0540886 0.033849 0 0.0123676 0.0104437 0.713287 0 
trait 2 0.0763565 0.393233 0.396842 0.0101402 0.729966 0 0.382566 0.223713 
trait 3 0 0 0.690756 1 0.00145798 0 1 0 
node 1 1 1 3
node 2 3 1 1
node 3 3 1 1
node 4 3 0 2
node 23 1 0 0
node 62 1 0 0
node 132 1 0 0
node 144 1 0 0
node 167 2 0 0
gene 2 1 4 6.68731 0 1 6.68731 1
gene 1 2 4 -2.86945 0 2 -2.86945 1
gene 1 3 4 -3.3035 0 3 -3.3035 1
gene 3 2 23 2.40735 0 40 2.40735 1
gene 3 23 4 -1.10673 0 41 -1.10673 1
gene 1 1 23 -5.56977 0 78 -5.56977 1
gene 2 3 23 -2.11662 0 130 -2.11662 1
gene 2 3 62 -1.94406 0 139 -1.94406 1
gene 2 62 23 -2.02465 0 140 -2.02465 1
gene 1 62 4 3.00848 0 152 3.00848 1
gene 1 1 62 3.34334 0 173 3.34334 1
gene 2 2 62 -6.68934 0 251 -6.68934 0
gene 2 2 132 -5.76577 0 380 -5.76577 0
gene 2 132 62 3.64134 0 381 3.64134 1
gene 1 62 144 -8 0 424 -8 1
gene 1 144 4 2.31493 0 425 2.31493 1
gene 2 2 167 -0.169106 0 495 -0.169106 1
gene 2 167 132 4.2622 0 496 4.2622 1
genomeend 45

/* Organism #46 Fitness: 15.9996 Error: 4.9462e-05 */
genomestart 46
trait 1 0.1 0.0540886 0.033849 0 0.0123676 0.0104437 0.713287 0 
trait 2 0.0763565 0.393233 0.396842 0.0101402 0.729966 0 0.382566 0.223713 
trait 3 0 0 0.690756 1 0.00145798 0 1 0 
node 1 1 1 3
node 2 3 1 1
node 3 3 1 1
node 4 3 0 2
node 23 1 0 0
node 62 1 0 0
node 132 1 0 0
node 144 1 0 0
node 167 2 0 0
gene 2 1 4 7.00488 0 1 7.00488 1
gene 1 2 4 -6.05869 0 2 -6.05869 1
gene 1 3 4 -3.20748 0 3 -3.20748 1
gene 3 2 23 3.27872 0 40 3.27872 1
gene 3 23 4 -2.62303 0 41 -2.62303 1
gene 1 1 23 -7.40961 0 78 -7.40961 1
gene 2 3 23 0.486618 0 130 0.486618 1
gene 2 3 62 -1.8663 0 139 -1.8663 1
gene 2 62 23 1.44856 0 140 1.44856 1
gene 1 62 4 4.86555 0 152 4.86555 1
gene 1 1 62 0.999315 0 173 0.999315 1
gene 2 2 62 -5.4149 0 251 -5.4149 0
gene 2 2 132 -3.86667 0 380 -3.86667 0
gene 2 132 62 -0.792178 0 381 -0.792178 1
gene 1 62 144 -7.65484 0 424 -7.65484 1
gene 1 144 4 -3.58998 0 425 -3.58998 1
gene 2 2 167 -1.2809 0 495 -1.2809 1
gene 2 167 132 4.45034 0 496 4.45034 1
genomeend 46

/* Organism #47 Fitness: 9.00016 Error: 0.999973 */
genomestart 47
trait 1 0.1 0.0540886 0.033849 0 0.0123676 0.0104437 0.713287 0 
trait 2 0.0763565 0.393233 0.396842 0.0101402 0.729966 0 0.382566 0.223713 
trait 3 0 0 0.690756 1 0.00145798 0 1 0 
node 1 1 1 3
node 2 3 1 1
node 3 3 1 1
node 4 3 0 2
node 23 1 0 0
node 62 1 0 0
node 132 1 0 0
node 144 1 0 0
node 167 2 0 0
gene 2 1 4 5.8146 0 1 5.8146 1
gene 1 2 4 -4.43578 0 2 -4.43578 1
gene 1 3 4 -4.06705 0 3 -4.06705 1
gene 3 2 23 1.28831 0 40 1.28831 1
gene 3 23 4 -0.1203 0 41 -0.1203 1
gene 1 1 23 -8 0 78 -8 1
gene 2 3 23 0.931547 0 130 0.931547 1
gene 2 3 62 -0.17777 0 139 -0.17777 1
gene 2 62 23 -3.48168 0 140 -3.48168 1
gene 1 62 4 4.82197 0 152 4.82197 1
gene 1 1 62 3.30591 0 173 3.30591 1
gene 2 2 62 -5.98967 0 251 -5.98967 0
gene 2 2 132 -4.84026 0 380 -4.84026 0
gene 2 132 62 3.05314 0 381 3.05314 1
gene 1 62 144 -8 0 424 -8 1
gene 1 144 4 -1.932 0 425 -1.932 1
gene 2 2 167 -0.121086 0 495 -0.121086 1
gene 2 167 132 -1.73093 0 496 -1.73093 1
genomeend 47

/* Organism #48 Fitness: 4.2383 Error: 1.94129 */
genomestart 48
trait 1 0.1 0.0540886 0.033849 0 0.0123676 0.0104437 0.713287 0 
trait 2 0.0763565 0.393233 0.396842 0.0101402 0.729966 0 0.382566 0.223713 
trait 3 0 0 0.690756 1 0.00145798 0 1 0 
node 1 1 1 3
node 2 3 1 1
node 3 3 1 1
node 4 3 0 2
node 23 1 0 0
node 62 1 0 0
node 132 1 0 0
node 144 1 0 0
node 167 2 0 0
gene 2 1 4 3.59785 0 1 3.59785 1
gene 1 2 4 -6.0736 0 2 -6.0736 1
gene 1 3 4 -5.92333 0 3 -5.92333 1
gene 3 2 23 2.38171 0 40 2.38171 1
gene 3 23 4 -0.327756 0 41 -0.327756 1
gene 1 1 23 -7.08169 0 78 -7.08169 1
gene 2 3 23 -2.91682 0 130 -2.91682 1
gene 2 3 62 -1.44763 0 139 -1.44763 1
gene 2 62 23 -3.72208 0 140 -3.72208 1
gene 1 62 4 1.67791 0 152 1.67791 1
gene 1 1 62 2.36551 0 173 2.36551 1
gene 2 2 62 -8 0 251 -8 0
gene 2 2 132 -6.53858 0 380 -6.53858 0
gene 2 132 62 0.976428 0 381 0.976428 1
gene 1 62 144 -8 0 424 -8 1
gene 1 144 4 -3.37513 0 425 -3.37513 1
gene 2 2 167 -1.31157 0 495 -1.31157 1
gene 2 167 132 0.217089 0 496 0.217089 1
genomeend 48

/* Organism #49 Fitness: 15.9143 Error: 0.0107211 */
genomestart 49
trait 1 0.1 0.0540886 0.033849 0 0.0123676 0.0104437 0.713287 0 
trait 2 0.0763565 0.393233 0.396842 0.0101402 0.729966 0 0.382566 0.223713 
trait 3 0 0 0.690756 1 0.00145798 0 1 0 
node 1 1 1 3
node 2 3 1 1
node 3 3 1 1
node 4 3 0 2
node 23 1 0 0
node 62 1 0 0
node 132 1 0 0
node 144 1 0 0
node 167 2 0 0
gene 2 1 4 4.17658 0 1 4.17658 1
gene 1 2 4 -3.70567 0 2 -3.70567 1
gene 1 3 4 -7.57164 0 3 -7.57164 1
gene 3 2 23 5.01857 0 40 5.01857 1
gene 3 23 4 1.20185 0 41 1.20185 1
gene 1 1 23 -8 0 78 -8 1
gene 2 3 23 -3.55302 0 130 -3.55302 1
gene 2 3 62 0.516091 0 139 0.516091 1
gene 2 62 23 -0.958633 0 140 -0.958633 1
gene 1 62 4 6.18184 0 152 6.18184 1
gene 1 1 62 2.45075 0 173 2.45075 1
gene 2 2 62 -5.4971 0 251 -5.4971 0
gene 2 2 132 -6.7559 0 380 -6.7559 0
gene 2 132 62 2.73373 0 381 2.73373 1
gene 1 62 144 -8 0 424 -8 1
gene 1 144 4 0.0299611 0 425 0.0299611 1
gene 2 2 167 -1.91882 0 495 -1.91882 1
gene 2 167 132 1.90415 0 496 1.90415 1
genomeend 49

/* Species #28 : (Size 8) (AF 14.1339) (Age 28)  */


/* Organism #50 Fitness: 16 Error: 5.99759e-14 */
genomestart 50
trait 1 0.311131 0.0446231 0.167149 0 0.153012 0 0 0.0312623 
trait 2 1 0 0.0430417 0.00887263 0.0918419 0.856818 0 0.46423 
trait 3 0.290573 0 0.00143787 0 0.00360311 0.00287801 0.0334238 0.00360096 
node 1 3 1 3
node 2 3 1 1
node 3 3 1 1
node 4 1 0 2
node 23 3 0 0
node 79 1 0 0
node 84 1 0 0
node 150 1 0 0
gene 2 1 4 7.60283 0 1 7.60283 1
gene 3 2 4 -6.08978 0 2 -6.08978 1
gene 1 3 4 -7.94054 0 3 -7.94054 1
gene 3 2 23 8 0 40 8 1
gene 3 23 4 1.41026 0 41 1.41026 0
gene 2 3 23 -3.13322 0 44 -3.13322 0
gene 3 1 23 7.46298 0 106 7.46298 1
gene 3 23 79 -6.87227 0 200 -6.87227 1
gene 3 79 4 5.40845 0 201 5.40845 1
gene 3 23 84 2.57113 0 215 2.57113 1
gene 3 84 4 7.66465 0 216 7.66465 1
gene 2 3 84 -1.17237 0 293 -1.17237 1
gene 3 2 84 -2.09212 0 318 -2.09212 1
gene 2 3 150 1.23282 0 446 1.23282 1
gene 2 150 23 -2.69049 0 447 -2.69049 1
gene 3 79 84 -1.32154 0 614 -1.32154 1
genomeend 50

/* Organism #51 Fitness: 16 Error: 5.99759e-14 */
genomestart 51
trait 1 0.311131 0.0446231 0.167149 0 0.153012 0 0 0.0312623 
trait 2 1 0 0.0430417 0.00887263 0.0918419 0.856818 0 0.46423 
trait 3 0.290573 0 0.00143787 0 0.00360311 0.00287801 0.0334238 0.00360096 
node 1 3 1 3
node 2 3 1 1
node 3 3 1 1
node 4 1 0 2
node 23 3 0 0
node 79 1 0 0
node 84 1 0 0
node 150 1 0 0
gene 2 1 4 7.60283 0 1 7.60283 1
gene 3 2 4 -6.08978 0 2 -6.08978 1
gene 1 3 4 -7.94054 0 3 -7.94054 1
gene 3 2 23 8 0 40 8 1
gene 3 23 4 1.41026 0 41 1.41026 0
gene 2 3 23 -3.13322 0 44 -3.13322 0
gene 3 1 23 7.46298 0 106 7.46298 1
gene 3 23 79 -6.87227 0 200 -6.87227 1
gene 3 79 4 5.40845 0 201 5.40845 1
gene 3 23 84 2.57113 0 215 2.57113 1
gene 3 84 4 7.66465 0 216 7.66465 1
gene 2 3 84 -1.17237 0 293 -1.17237 1
gene 3 2 84 -2.09212 0 318 -2.09212 1
gene 2 3 150 1.23282 0 446 1.23282 1
gene 2 150 23 -2.69049 0 447 -2.69049 1
gene 3 79 84 -1.32154 0 614 -1.32154 1
gene 1 1 150 -0.0306294 0 828 -0.0306294 1
genomeend 51

/* Organism #52 Fitness: 16 Error: 6.35627e-07 */
genomestart 52
trait 1 0.311131 0.0446231 0.167149 0 0.153012 0 0 0.0312623 
trait 2 1 0 0.0430417 0.00887263 0.0918419 0.856818 0 0.46423 
trait 3 0.290573 0 0.00143787 0 0.00360311 0.00287801 0.0334238 0.00360096 
node 1 3 1 3
node 2 3 1 1
node 3 3 1 1
node 4 1 0 2
node 23 3 0 0
node 79 1 0 0
node 84 1 0 0
node 150 1 0 0
gene 2 1 4 7.09021 0 1 7.09021 1
gene 3 2 4 -8 0 2 -8 1
gene 1 3 4 -8 0 3 -8 1
gene 3 2 23 5.77787 0 40 5.77787 1
gene 3 23 4 -0.229365 0 41 -0.229365 1
gene 2 3 23 -5.40396 0 44 -5.40396 1
gene 3 1 23 5.61241 0 106 5.61241 1
gene 3 23 79 -4.4441 0 200 -4.4441 1
gene 3 79 4 3.0101 0 201 3.0101 1
gene 3 23 84 2.21604 0 215 2.21604 1
gene 3 84 4 6.8796 0 216 6.8796 1
gene 2 3 84 -1.43494 0 293 -1.43494 1
gene 3 2 84 -0.317979 0 318 -0.317979 1
gene 2 3 150 2.77771 0 446 2.77771 1
gene 2 150 23 0.856907 0 447 0.856907 1
gene 3 79 84 -1.32154 0 614 -1.32154 1
genomeend 52

/* Organism #53 Fitness: 16 Error: 5.99759e-14 */
genomestart 53
trait 1 0.311131 0.0446231 0.167149 0 0.153012 0 0 0.0312623 
trait 2 1 0 0.0430417 0.00887263 0.0918419 0.856818 0 0.46423 
trait 3 0.290573 0 0.00143787 0 0.00360311 0.00287801 0.0334238 0.00360096 
node 1 3 1 3
node 2 3 1 1
node 3 3 1 1
node 4 1 0 2
node 23 3 0 0
node 79 1 0 0
node 84 1 0 0
node 150 1 0 0
gene 2 1 4 7.60283 0 1 7.60283 1
gene 3 2 4 -6.08978 0 2 -6.08978 1
gene 1 3 4 -7.94054 0 3 -7.94054 1
gene 3 2 23 8 0 40 8 1
gene 3 23 4 1.41026 0 41 1.41026 0
gene 2 3 23 -3.13322 0 44 -3.13322 1
gene 3 1 23 7.46298 0 106 7.46298 1
gene 3 23 79 -6.87227 0 200 -6.87227 1
gene 3 79 4 5.40845 0 201 5.40845 1
gene 3 23 84 2.57113 0 215 2.57113 1
gene 3 84 4 7.66465 0 216 7.66465 1
gene 2 3 84 -1.17237 0 293 -1.17237 1
gene 3 2 84 -2.09212 0 318 -2.09212 1
gene 2 3 150 1.23282 0 446 1.23282 1
gene 2 150 23 -2.69049 0 447 -2.69049 1
gene 3 79 84 -1.32154 0 614 -1.32154 1
genomeend 53

/* Organism #54 Fitness: 14.6614 Error: 0.17098 */
genomestart 54
trait 1 0.311131 0.0446231 0.167149 0 0.153012 0 0 0.0312623 
trait 2 1 0 0.0430417 0.00887263 0.0918419 0.856818 0 0.46423 
trait 3 0.290573 0 0.00143787 0 0.00360311 0.00287801 0.0334238 0.00360096 
node 1 3 1 3
node 2 3 1 1
node 3 3 1 1
node 4 1 0 2
node 23 3 0 0
node 79 1 0 0
node 84 1 0 0
node 150 1 0 0
gene 1 1 4 5.83759 0 1 5.83759 1
gene 3 2 4 -5.51742 0 2 -5.51742 1
gene 1 3 4 -8 0 3 -8 1
gene 3 2 23 8 0 40 8 1
gene 3 23 4 0.00321089 0 41 0.00321089 0
gene 2 3 23 -2.54935 0 44 -2.54935 0
gene 3 1 23 7.46298 0 106 7.46298 1
gene 3 23 79 -7.71067 0 200 -7.71067 1
gene 3 79 4 6.39106 0 201 6.39106 1
gene 3 23 84 1.28519 0 215 1.28519 1
gene 3 84 4 8 0 216 8 1
gene 2 3 84 -0.475517 0 293 -0.475517 1
gene 3 2 84 -3.2852 0 318 -3.2852 1
gene 2 3 150 -0.770535 0 446 -0.770535 1
gene 2 150 23 -1.05255 0 447 -1.05255 1
gene 3 79 84 -1.85907 0 614 -1.85907 1
genomeend 54

/* Organism #55 Fitness: 9.41529 Error: 0.931566 */
genomestart 55
trait 1 0.311131 0.0446231 0.167149 0 0.153012 0 0 0.0312623 
trait 2 1 0 0.0430417 0.00887263 0.0918419 0.856818 0 0.46423 
trait 3 0.290573 0 0.00143787 0 0.00360311 0.00287801 0.0334238 0.00360096 
node 1 3 1 3
node 2 3 1 1
node 3 3 1 1
node 4 1 0 2
node 23 3 0 0
node 79 1 0 0
node 84 1 0 0
node 150 1 0 0
gene 2 1 4 8 0 1 8 1
gene 3 2 4 -6.36345 0 2 -6.36345 1
gene 1 3 4 -8 0 3 -8 1
gene 3 2 23 6.52766 0 40 6.52766 1
gene 3 23 4 3.60616 0 41 3.60616 0
gene 2 3 23 -4.78662 0 44 -4.78662 0
gene 3 1 23 8 0 106 8 1
gene 3 23 79 -8 0 200 -8 1
gene 3 79 4 0.458857 0 201 0.458857 1
gene 3 23 84 3.38099 0 215 3.38099 1
gene 3 84 4 -0.517729 0 216 -0.517729 1
gene 2 3 84 2.27212 0 293 2.27212 1
gene 3 2 84 -1.69153 0 318 -1.69153 1
gene 2 3 150 -1.03546 0 446 -1.03546 1
gene 2 150 23 -0.940672 0 447 -0.940672 1
gene 3 79 84 -0.596983 0 614 -0.596983 1
genomeend 55

/* Organism #56 Fitness: 15.9947 Error: 0.000660327 */
genomestart 56
trait 1 0.311131 0.0446231 0.167149 0 0.153012 0 0 0.0312623 
trait 2 0.356847 0 0 0 0.0918419 0.856818 0 0.46423 
trait 3 0.290573 0 0.00143787 0 0.00360311 0.00287801 0.0334238 0.00360096 
node 1 3 1 3
node 2 3 1 1
node 3 3 1 1
node 4 1 0 2
node 23 3 0 0
node 79 1 0 0
node 84 1 0 0
node 150 1 0 0
gene 2 1 4 5.42459 0 1 5.42459 1
gene 3 2 4 -3.96408 0 2 -3.96408 1
gene 1 3 4 -7.5802 0 3 -7.5802 1
gene 3 2 23 8 0 40 8 1
gene 3 23 4 0.901019 0 41 0.901019 0
gene 2 3 23 -3.83282 0 44 -3.83282 0
gene 3 1 23 6.09864 0 106 6.09864 1
gene 3 23 79 -5.36265 0 200 -5.36265 1
gene 3 79 4 3.84461 0 201 3.84461 1
gene 3 23 84 2.10484 0 215 2.10484 1
gene 3 84 4 8 0 216 8 1
gene 2 3 84 -0.68859 0 293 -0.68859 1
gene 3 2 84 -3.26419 0 318 -3.26419 1
gene 2 3 150 1.23282 0 446 1.23282 1
gene 2 150 23 -2.50423 0 447 -2.50423 1
gene 3 79 84 -1.71862 0 614 -1.71862 1
genomeend 56

/* Organism #57 Fitness: 9 Error: 1 */
genomestart 57
trait 1 0.311131 0.0446231 0.167149 0 0.153012 0 0 0.0312623 
trait 2 1 0 0.0430417 0.00887263 0.0918419 0.856818 0 0.46423 
trait 3 0.290573 0 0.00143787 0 0.00360311 0.00287801 0.0334238 0.00360096 
node 1 3 1 3
node 2 3 1 1
node 3 3 1 1
node 4 1 0 2
node 23 3 0 0
node 79 1 0 0
node 84 1 0 0
node 150 1 0 0
gene 2 1 4 8 0 1 8 1
gene 3 2 4 -4.02537 0 2 -4.02537 1
gene 1 3 4 -8 0 3 -8 1
gene 3 2 23 7.45698 0 40 7.45698 1
gene 3 23 4 1.56603 0 41 1.56603 0
gene 2 3 23 -2.84372 0 44 -2.84372 0
gene 3 1 23 8 0 106 8 1
gene 3 23 79 -5.19027 0 200 -5.19027 1
gene 3 79 4 7.3956 0 201 7.3956 1
gene 3 23 84 4.69653 0 215 4.69653 1
gene 3 84 4 8 0 216 8 1
gene 2 3 84 0.742819 0 293 0.742819 1
gene 3 2 84 -2.95761 0 318 -2.95761 1
gene 2 3 150 2.38781 0 446 2.38781 1
gene 2 150 23 -0.463541 0 447 -0.463541 1
gene 3 79 84 -1.08329 0 614 -1.08329 1
genomeend 57

/* Species #30 : (Size 4) (AF 15.9616) (Age 27)  */


/* Organism #58 Fitness: 16 Error: 2.11839e-11 */
genomestart 58
trait 1 0.433843 0.0288473 0.251039 0 0 0 0 0.428254 
trait 2 0.2 0.213442 0.0999708 0.0202803 0.0168474 0.132647 0 0.0346538 
trait 3 0 0 0.379153 0 0.0764277 0.170974 0.0313885 0.252965 
node 1 3 1 3
node 2 3 1 1
node 3 3 1 1
node 4 2 0 2
node 23 2 0 0
node 37 1 0 0
node 109 3 0 0
node 152 1 0 0
node 160 1 0 0
gene 3 1 4 7.6255 0 1 7.6255 1
gene 3 2 4 -5.2706 0 2 -5.2706 1
gene 2 3 4 -2.3344 0 3 -2.3344 1
gene 3 2 23 5.83963 0 40 5.83963 1
gene 2 23 4 -5.30815 0 41 -5.30815 1
gene 1 3 37 -6.87238 0 74 -6.87238 1
gene 1 37 4 8 0 75 8 1
gene 1 3 23 -5.01589 0 169 -5.01589 1
gene 2 1 23 2.0508 0 220 2.0508 1
gene 1 2 37 1.17796 0 235 1.17796 1
gene 1 2 109 7.3263 0 297 7.3263 1
gene 1 109 37 1.12382 0 298 1.12382 1
gene 1 109 152 -1.66043 0 453 -1.66043 1
gene 1 152 37 6.81323 0 454 6.81323 1
gene 1 152 160 -1.5066 0 477 -1.5066 1
gene 1 160 37 5.22976 0 478 5.22976 1
gene 1 3 109 -4.76001 0 499 -4.76001 1
gene 2 3 160 0.841598 0 712 0.841598 1
gene 3 23 160 -0.763722 0 762 -0.763722 1
genomeend 58

/* Organism #59 Fitness: 15.8463 Error: 0.0192622 */
genomestart 59
trait 1 0.433843 0.0288473 0.251039 0 0 0 0 0.428254 
trait 2 0.2 0.213442 0.0999708 0.0202803 0.0168474 0.132647 0 0.0346538 
trait 3 0 0 0.379153 0 0.0764277 0.170974 0.0313885 0.252965 
node 1 3 1 3
node 2 3 1 1
node 3 3 1 1
node 4 2 0 2
node 23 2 0 0
node 37 1 0 0
node 109 3 0 0
node 152 1 0 0
node 160 1 0 0
gene 3 1 4 5.64466 0 1 5.64466 1
gene 3 2 4 -6.29337 0 2 -6.29337 1
gene 2 3 4 -3.83391 0 3 -3.83391 1
gene 3 2 23 3.96132 0 40 3.96132 1
gene 2 23 4 -6.55317 0 41 -6.55317 1
gene 1 3 37 -4.63712 0 74 -4.63712 1
gene 1 37 4 8 0 75 8 1
gene 1 3 23 -4.81524 0 169 -4.81524 1
gene 2 1 23 4.10806 0 220 4.10806 1
gene 1 2 37 3.24023 0 235 3.24023 1
gene 1 2 109 5.55914 0 297 5.55914 1
gene 1 109 37 -0.39447 0 298 -0.39447 1
gene 1 109 152 0.10463 0 453 0.10463 1
gene 1 152 37 5.50625 0 454 5.50625 1
gene 1 152 160 -3.7493 0 477 -3.7493 1
gene 1 160 37 6.37136 0 478 6.37136 1
gene 1 3 109 -5.45888 0 499 -5.45888 1
gene 2 3 160 2.12049 0 712 2.12049 1
gene 3 23 160 -0.763722 0 762 -0.763722 1
genomeend 59

/* Organism #60 Fitness: 16 Error: 2.19042e-06 */
genomestart 60
trait 1 0.433843 0.0288473 0.251039 0 0 0 0 0.428254 
trait 2 0.2 0.213442 0.0999708 0.0202803 0.0168474 0.132647 0 0.0346538 
trait 3 0 0 0.379153 0 0.0764277 0.170974 0.0313885 0.252965 
node 1 3 1 3
node 2 3 1 1
node 3 3 1 1
node 4 2 0 2
node 23 2 0 0
node 37 1 0 0
node 109 3 0 0
node 152 1 0 0
node 160 1 0 0
gene 3 1 4 6.21418 0 1 6.21418 1
gene 3 2 4 -6.98935 0 2 -6.98935 1
gene 2 3 4 -0.918234 0 3 -0.918234 1
gene 3 2 23 4.19327 0 40 4.19327 1
gene 2 23 4 -4.33736 0 41 -4.33736 1
gene 1 3 37 -8 0 74 -8 1
gene 1 37 4 7.83428 0 75 7.83428 1
gene 1 3 23 -4.80977 0 169 -4.80977 1
gene 2 1 23 4.50187 0 220 4.50187 1
gene 1 2 37 0.0282951 0 235 0.0282951 1
gene 1 2 109 5.31517 0 297 5.31517 1
gene 1 109 37 0.696863 0 298 0.696863 1
gene 1 109 152 -0.230563 0 453 -0.230563 1
gene 1 152 37 5.94603 0 454 5.94603 0
gene 3 152 160 0.604545 0 477 0.604545 1
gene 1 160 37 4.71597 0 478 4.71597 1
gene 1 3 109 -4.23515 0 499 -4.23515 1
gene 2 3 160 0.841598 0 712 0.841598 1
gene 3 23 160 -0.763722 0 762 -0.763722 1
genomeend 60

/* Organism #61 Fitness: 16 Error: 2.11839e-11 */
genomestart 61
trait 1 0.433843 0.0288473 0.251039 0 0 0 0 0.428254 
trait 2 0 0.213442 0.663307 0.0828135 0.0168474 0.132647 0.446517 0.616434 
trait 3 0 0 0.379153 0 0.0764277 0.170974 0.0313885 0.252965 
node 1 3 1 3
node 2 3 1 1
node 3 3 1 1
node 4 2 0 2
node 23 2 0 0
node 37 1 0 0
node 109 3 0 0
node 152 1 0 0
node 160 1 0 0
gene 3 1 4 7.6255 0 1 7.6255 1
gene 3 2 4 -5.2706 0 2 -5.2706 1
gene 2 3 4 -2.3344 0 3 -2.3344 1
gene 3 2 23 5.83963 0 40 5.83963 1
gene 2 23 4 -5.30815 0 41 -5.30815 1
gene 1 3 37 -6.87238 0 74 -6.87238 1
gene 1 37 4 8 0 75 8 1
gene 1 3 23 -5.01589 0 169 -5.01589 1
gene 2 1 23 2.0508 0 220 2.0508 1
gene 1 2 37 1.17796 0 235 1.17796 1
gene 1 2 109 7.3263 0 297 7.3263 1
gene 1 109 37 1.12382 0 298 1.12382 1
gene 1 109 152 -1.66043 0 453 -1.66043 1
gene 1 152 37 6.81323 0 454 6.81323 1
gene 1 152 160 -1.5066 0 477 -1.5066 1
gene 1 160 37 5.22976 0 478 5.22976 1
gene 1 3 109 -4.76001 0 499 -4.76001 1
gene 2 3 160 0.841598 0 712 0.841598 1
gene 3 23 160 -0.763722 0 762 -0.763722 1
genomeend 61

/* Species #31 : (Size 7) (AF 14.7811) (Age 24)  */


/* Organism #62 Fitness: 16 Error: 6.8386e-09 */
genomestart 62
trait 1 0.075 0.0288473 0.348385 0 0.288755 0 0 0.0136104 
trait 2 0.396227 0.633238 0.0532763 0 0.62192 0.925838 0.956433 0.596027 
trait 3 0.300856 0 0.00161445 0 0.00445539 0.00396113 0.024437 0.00250501 
node 1 2 1 3
node 2 3 1 1
node 3 3 1 1
node 4 2 0 2
node 23 2 0 0
node 112 1 0 0
node 172 1 0 0
node 190 3 0 0
gene 2 1 4 5.51921 0 1 5.51921 1
gene 3 2 4 -8 0 2 -8 1
gene 1 3 4 -1.3821 0 3 -1.3821 1
gene 3 2 23 0.010657 0 40 0.010657 1
gene 3 23 4 8 0 41 8 1
gene 2 3 23 -5.3559 0 44 -5.3559 1
gene 3 1 23 3.29135 0 83 3.29135 1
gene 3 2 112 -2.0149 0 305 -2.0149 1
gene 3 112 23 -2.1874 0 306 -2.1874 1
gene 2 112 4 1.84343 0 314 1.84343 1
gene 2 1 112 4.20319 0 365 4.20319 1
gene 1 3 112 -5.25487 0 508 -5.25487 1
gene 1 3 172 -0.745355 0 523 -0.745355 1
gene 1 172 112 -3.45613 0 524 -3.45613 1
gene 1 3 190 -4.89299 0 580 -4.89299 1
gene 1 190 172 0.892472 0 581 0.892472 1
gene 1 2 172 6.34958 0 592 6.34958 1
gene 1 190 23 0.115922 0 632 0.115922 1
gene 3 1 172 -3.51182 0 656 -3.51182 1
gene 2 190 112 1.74585 0 670 1.74585 1
genomeend 62

/* Organism #63 Fitness: 15.9567 Error: 0.00541966 */
genomestart 63
trait 1 0.075 0.0288473 0.348385 0 0.288755 0 0 0.0136104 
trait 2 0.396227 0.363516 0.0532763 0 0.62192 0.462919 0.544263 0.596027 
trait 3 0.300856 0 0.00161445 0 0.00445539 0.00396113 0.024437 0.00250501 
node 1 2 1 3
node 2 3 1 1
node 3 3 1 1
node 4 2 0 2
node 23 2 0 0
node 112 1 0 0
node 172 1 0 0
node 190 3 0 0
gene 2 1 4 4.49362 0 1 4.49362 1
gene 3 2 4 -6.72689 0 2 -6.72689 1
gene 1 3 4 -0.556823 0 3 -0.556823 0
gene 3 2 23 0.650595 0 40 0.650595 1
gene 3 23 4 8 0 41 8 1
gene 2 3 23 -4.84801 0 44 -4.84801 1
gene 3 1 23 0.0298374 0 83 0.0298374 1
gene 3 2 112 -3.96188 0 305 -3.96188 1
gene 3 112 23 -1.20142 0 306 -1.20142 1
gene 2 112 4 1.27346 0 314 1.27346 1
gene 2 1 112 5.45308 0 365 5.45308 1
gene 1 3 112 -2.80842 0 508 -2.80842 1
gene 1 3 172 -0.210451 0 523 -0.210451 1
gene 1 172 112 -3.64003 0 524 -3.64003 1
gene 1 3 190 1.53044 0 580 1.53044 1
gene 1 190 172 -0.675354 0 581 -0.675354 1
gene 1 2 172 3.48372 0 592 3.48372 1
gene 1 190 23 2.49512 0 632 2.49512 1
gene 3 1 172 -3.61601 0 656 -3.61601 1
gene 2 190 112 1.84527 0 670 1.84527 1
genomeend 63

/* Organism #64 Fitness: 16 Error: 7.84509e-09 */
genomestart 64
trait 1 0.075 0.0288473 0.348385 0 0.288755 0 0 0.0136104 
trait 2 0.396227 0.0937939 0.0532763 0 0.62192 0 0.132094 0.596027 
trait 3 0.300856 0 0.00161445 0 0.00445539 0.00396113 0.024437 0.00250501 
node 1 2 1 3
node 2 3 1 1
node 3 3 1 1
node 4 2 0 2
node 23 2 0 0
node 112 1 0 0
node 172 1 0 0
node 190 3 0 0
node 256 1 0 0
gene 2 1 4 3.82275 0 1 3.82275 1
gene 3 2 4 -8 0 2 -8 1
gene 1 3 4 0.340321 0 3 0.340321 0
gene 3 2 23 3.11598 0 40 3.11598 1
gene 3 23 4 8 0 41 8 1
gene 2 3 23 -7.85411 0 44 -7.85411 1
gene 3 1 23 -0.860505 0 83 -0.860505 1
gene 3 2 112 -5.94344 0 305 -5.94344 1
gene 3 112 23 0.627695 0 306 0.627695 1
gene 2 112 4 3.88087 0 314 3.88087 1
gene 2 1 112 1.97068 0 365 1.97068 1
gene 1 3 112 -0.361968 0 508 -0.361968 1
gene 1 3 172 0.324454 0 523 0.324454 1
gene 1 172 112 -1.60511 0 524 -1.60511 1
gene 1 3 190 -0.701853 0 580 -0.701853 1
gene 1 190 172 -0.148501 0 581 -0.148501 1
gene 1 2 172 4.11283 0 592 4.11283 1
gene 1 190 23 2.16175 0 632 2.16175 1
gene 3 1 172 -2.0796 0 656 -2.0796 1
gene 2 190 112 0.938452 0 670 0.938452 1
gene 1 190 256 0.417103 0 798 0.417103 1
gene 1 256 172 1.08885 0 799 1.08885 1
genomeend 64

/* Organism #65 Fitness: 16 Error: 1.45282e-08 */
genomestart 65
trait 1 0.075 0.0288473 0.348385 0 0.288755 0 0 0.0136104 
trait 2 0.396227 0.363516 0.0532763 0 0.62192 0.462919 0.544263 0.596027 
trait 3 0.300856 0 0.00161445 0 0.00445539 0.00396113 0.024437 0.00250501 
node 1 2 1 3
node 2 3 1 1
node 3 3 1 1
node 4 2 0 2
node 23 2 0 0
node 112 1 0 0
node 172 1 0 0
node 190 3 0 0
gene 2 1 4 3.82275 0 1 3.82275 1
gene 3 2 4 -8 0 2 -8 1
gene 1 3 4 0.340321 0 3 0.340321 0
gene 3 2 23 3.11598 0 40 3.11598 1
gene 3 23 4 8 0 41 8 1
gene 2 3 23 -7.85411 0 44 -7.85411 1
gene 3 1 23 -0.860505 0 83 -0.860505 1
gene 3 2 112 -5.94344 0 305 -5.94344 1
gene 3 112 23 -2.1874 0 306 -2.1874 1
gene 2 112 4 1.84343 0 314 1.84343 1
gene 2 1 112 1.97068 0 365 1.97068 1
gene 1 3 112 -5.25487 0 508 -5.25487 1
gene 1 3 172 -0.745355 0 523 -0.745355 1
gene 1 172 112 -1.60511 0 524 -1.60511 1
gene 1 3 190 -0.701853 0 580 -0.701853 1
gene 1 190 172 -0.148501 0 581 -0.148501 1
gene 1 2 172 4.11283 0 592 4.11283 1
gene 1 190 23 0.115922 0 632 0.115922 1
gene 3 1 172 -3.51182 0 656 -3.51182 1
gene 2 190 112 0.938452 0 670 0.938452 1
genomeend 65

/* Organism #66 Fitness: 14.5112 Error: 0.190647 */
genomestart 66
trait 1 0.075 0.0288473 0.348385 0 0.288755 0 0 0.0136104 
trait 2 0.396227 0.363516 0.0532763 0 0.62192 0.462919 0.544263 0.596027 
trait 3 0.300856 0 0.00161445 0 0.00445539 0.00396113 0.024437 0.00250501 
node 1 2 1 3
node 2 3 1 1
node 3 3 1 1
node 4 2 0 2
node 23 2 0 0
node 112 1 0 0
node 172 1 0 0
node 190 3 0 0
gene 2 1 4 6.38361 0 1 6.38361 1
gene 3 2 4 -8 0 2 -8 1
gene 1 3 4 -0.520892 0 3 -0.520892 0
gene 3 2 23 0.741069 0 40 0.741069 1
gene 3 23 4 7.88866 0 41 7.88866 1
gene 2 3 23 -5.9609 0 44 -5.9609 1
gene 3 1 23 0.976363 0 83 0.976363 1
gene 3 2 112 -2.57273 0 305 -2.57273 1
gene 3 112 23 -1.07471 0 306 -1.07471 1
gene 2 112 4 1.36522 0 314 1.36522 1
gene 2 1 112 3.08693 0 365 3.08693 1
gene 1 3 112 -2.80842 0 508 -2.80842 1
gene 1 3 172 1.36739 0 523 1.36739 1
gene 1 172 112 0.68496 0 524 0.68496 1
gene 1 3 190 -0.0171692 0 580 -0.0171692 1
gene 1 190 172 0.585798 0 581 0.585798 1
gene 1 2 172 5.28449 0 592 5.28449 1
gene 1 190 23 -2.35194 0 632 -2.35194 1
gene 3 1 172 -2.38634 0 656 -2.38634 1
gene 2 190 112 -0.519162 0 670 -0.519162 1
genomeend 66

/* Organism #67 Fitness: 9.00001 Error: 0.999999 */
genomestart 67
trait 1 0.075 0.0288473 0.348385 0 0.288755 0 0 0.0136104 
trait 2 0.396227 0.633238 0.0532763 0 0.62192 0.925838 0.956433 0.596027 
trait 3 0.300856 0 0.00161445 0 0.00445539 0.00396113 0.024437 0.00250501 
node 1 2 1 3
node 2 3 1 1
node 3 3 1 1
node 4 2 0 2
node 23 2 0 0
node 112 1 0 0
node 172 1 0 0
node 190 3 0 0
gene 2 1 4 7.42955 0 1 7.42955 1
gene 3 2 4 -5.8038 0 2 -5.8038 1
gene 1 3 4 1.05102 0 3 1.05102 1
gene 3 2 23 -0.0691984 0 40 -0.0691984 1
gene 3 23 4 7.8125 0 41 7.8125 1
gene 2 3 23 -4.31478 0 44 -4.31478 1
gene 3 1 23 2.09244 0 83 2.09244 1
gene 3 2 112 -2.31025 0 305 -2.31025 1
gene 3 112 23 -2.65868 0 306 -2.65868 1
gene 2 112 4 0.399074 0 314 0.399074 1
gene 2 1 112 4.91559 0 365 4.91559 1
gene 1 3 112 -6.85488 0 508 -6.85488 1
gene 1 3 172 -2.25831 0 523 -2.25831 1
gene 1 172 112 -2.16586 0 524 -2.16586 1
gene 1 3 190 -5.03646 0 580 -5.03646 1
gene 1 190 172 0.311874 0 581 0.311874 1
gene 1 2 172 7.64738 0 592 7.64738 1
gene 1 190 23 0.358089 0 632 0.358089 1
gene 3 1 172 -3.51182 0 656 -3.51182 1
gene 2 190 112 1.24726 0 670 1.24726 1
genomeend 67

/* Organism #68 Fitness: 16 Error: 4.95075e-06 */
genomestart 68
trait 1 0.075 0.0288473 0.348385 0 0.288755 0 0 0.0136104 
trait 2 0.396227 0.363516 0.0532763 0 0.62192 0.462919 0.544263 0.596027 
trait 3 0.300856 0 0.00161445 0 0.00445539 0.00396113 0.024437 0.00250501 
node 1 2 1 3
node 2 3 1 1
node 3 3 1 1
node 4 2 0 2
node 23 2 0 0
node 112 1 0 0
node 172 1 0 0
node 190 3 0 0
gene 2 1 4 5.51921 0 1 5.51921 1
gene 3 2 4 -8 0 2 -8 1
gene 1 3 4 -1.3821 0 3 -1.3821 0
gene 3 2 23 0.010657 0 40 0.010657 1
gene 3 23 4 8 0 41 8 1
gene 2 3 23 -5.3559 0 44 -5.3559 1
gene 3 1 23 -0.860505 0 83 -0.860505 1
gene 3 2 112 -2.0149 0 305 -2.0149 1
gene 3 112 23 0.627695 0 306 0.627695 1
gene 2 112 4 1.84343 0 314 1.84343 1
gene 2 1 112 4.20319 0 365 4.20319 1
gene 1 3 112 -5.25487 0 508 -5.25487 1
gene 1 3 172 0.324454 0 523 0.324454 1
gene 1 172 112 -3.45613 0 524 -3.45613 1
gene 1 3 190 -0.701853 0 580 -0.701853 1
gene 1 190 172 -0.148501 0 581 -0.148501 1
gene 1 2 172 6.34958 0 592 6.34958 1
gene 1 190 23 2.16175 0 632 2.16175 1
gene 3 1 172 -2.0796 0 656 -2.0796 1
gene 2 190 112 1.74585 0 670 1.74585 1
genomeend 68

/* Species #32 : (Size 8) (AF 15.1214) (Age 20)  */


/* Organism #69 Fitness: 16 Error: 6.20458e-09 */
genomestart 69
trait 1 0.311131 0.0446231 0.167149 0 0.153012 0 0 0.0312623 
trait 2 1 0 0.0430417 0.00887263 0.0918419 0.856818 0 0.46423 
trait 3 0.290573 0 0.00143787 0 0.00360311 0.00287801 0.0334238 0.00360096 
node 1 1 1 3
node 2 3 1 1
node 3 3 1 1
node 4 1 0 2
node 23 3 0 0
node 79 1 0 0
node 84 1 0 0
node 186 1 0 0
gene 2 1 4 5.26333 0 1 5.26333 1
gene 3 2 4 -8 0 2 -8 1
gene 1 3 4 -8 0 3 -8 1
gene 3 2 23 1.11833 0 40 1.11833 1
gene 3 23 4 2.31465 0 41 2.31465 0
gene 2 3 23 -2.12158 0 44 -2.12158 0
gene 3 1 23 -1.33485 0 106 -1.33485 1
gene 3 23 79 -1.66052 0 200 -1.66052 1
gene 3 79 4 2.12469 0 201 2.12469 1
gene 3 23 84 2.7026 0 215 2.7026 1
gene 3 84 4 6.7758 0 216 6.7758 1
gene 2 3 84 3.21157 0 293 3.21157 1
gene 3 2 84 5.28217 0 318 5.28217 1
gene 1 84 79 0.45039 0 445 0.45039 1
gene 3 3 79 -0.632731 0 475 -0.632731 1
gene 2 3 186 -4.24547 0 566 -4.24547 1
gene 2 186 23 0.452428 0 567 0.452428 1
gene 2 1 186 -0.0324487 0 816 -0.0324487 1
genomeend 69

/* Organism #70 Fitness: 16 Error: 2.80641e-06 */
genomestart 70
trait 1 0.311131 0.0446231 0.167149 0 0.153012 0 0 0.0312623 
trait 2 1 0 0.0430417 0.00887263 0.0918419 0.856818 0 0.46423 
trait 3 0.290573 0 0.00143787 0 0.00360311 0.00287801 0.0334238 0.00360096 
node 1 1 1 3
node 2 3 1 1
node 3 3 1 1
node 4 1 0 2
node 23 3 0 0
node 79 1 0 0
node 84 1 0 0
node 186 1 0 0
gene 2 1 4 4.75847 0 1 4.75847 1
gene 3 2 4 -8 0 2 -8 1
gene 1 3 4 -8 0 3 -8 1
gene 3 2 23 2.15054 0 40 2.15054 1
gene 3 23 4 3.58299 0 41 3.58299 0
gene 2 3 23 -0.210187 0 44 -0.210187 0
gene 3 1 23 -2.23141 0 106 -2.23141 1
gene 3 23 79 -1.17237 0 200 -1.17237 1
gene 3 79 4 1.0744 0 201 1.0744 1
gene 3 23 84 2.99965 0 215 2.99965 1
gene 3 84 4 7.76592 0 216 7.76592 1
gene 2 3 84 2.91895 0 293 2.91895 1
gene 3 2 84 1.00406 0 318 1.00406 1
gene 1 84 79 0.45039 0 445 0.45039 1
gene 3 3 79 -0.14211 0 475 -0.14211 1
gene 2 3 186 -0.873032 0 566 -0.873032 1
gene 2 186 23 -1.20082 0 567 -1.20082 1
gene 2 1 186 1.9845 0 816 1.9845 1
genomeend 70

/* Organism #71 Fitness: 16 Error: 6.20458e-09 */
genomestart 71
trait 1 0.311131 0.0446231 0.167149 0 0.153012 0 0 0.0312623 
trait 2 1 0 0.0430417 0.00887263 0.0918419 0.856818 0 0.46423 
trait 3 0.290573 0 0.00143787 0 0.00360311 0.00287801 0.0334238 0.00360096 
node 1 1 1 3
node 2 3 1 1
node 3 3 1 1
node 4 1 0 2
node 23 3 0 0
node 79 1 0 0
node 84 1 0 0
node 186 1 0 0
gene 2 1 4 5.26333 0 1 5.26333 1
gene 3 2 4 -8 0 2 -8 1
gene 1 3 4 -8 0 3 -8 1
gene 3 2 23 1.11833 0 40 1.11833 1
gene 3 23 4 2.31465 0 41 2.31465 0
gene 2 3 23 -2.12158 0 44 -2.12158 0
gene 3 1 23 -1.33485 0 106 -1.33485 1
gene 3 23 79 -1.66052 0 200 -1.66052 1
gene 3 79 4 2.12469 0 201 2.12469 1
gene 3 23 84 2.7026 0 215 2.7026 1
gene 3 84 4 6.7758 0 216 6.7758 1
gene 2 3 84 3.21157 0 293 3.21157 1
gene 3 2 84 5.28217 0 318 5.28217 1
gene 1 84 79 0.45039 0 445 0.45039 1
gene 3 3 79 -0.632731 0 475 -0.632731 1
gene 2 3 186 -4.24547 0 566 -4.24547 1
gene 2 186 23 0.452428 0 567 0.452428 1
gene 2 1 186 -0.0324487 0 816 -0.0324487 1
genomeend 71

/* Organism #72 Fitness: 9 Error: 1 */
genomestart 72
trait 1 0.311131 0.0446231 0.167149 0 0.153012 0 0 0.0312623 
trait 2 1 0 0.0430417 0.00887263 0.0918419 0.856818 0 0.46423 
trait 3 0.290573 0 0.00143787 0 0.00360311 0.00287801 0.0334238 0.00360096 
node 1 1 1 3
node 2 3 1 1
node 3 3 1 1
node 4 1 0 2
node 23 3 0 0
node 79 1 0 0
node 84 1 0 0
node 186 1 0 0
gene 2 1 4 5.60094 0 1 5.60094 1
gene 3 2 4 -5.77006 0 2 -5.77006 1
gene 1 3 4 -8 0 3 -8 1
gene 3 2 23 -0.840285 0 40 -0.840285 1
gene 3 23 4 1.59763 0 41 1.59763 1
gene 2 3 23 -3.90223 0 44 -3.90223 1
gene 3 1 23 -0.581037 0 106 -0.581037 1
gene 3 23 79 -0.612475 0 200 -0.612475 1
gene 3 79 4 3.2238 0 201 3.2238 1
gene 3 23 84 3.93897 0 215 3.93897 1
gene 3 84 4 8 0 216 8 1
gene 2 3 84 3.04631 0 293 3.04631 1
gene 3 2 84 6.47488 0 318 6.47488 1
gene 1 84 79 1.48538 0 445 1.48538 1
gene 3 3 79 1.86242 0 475 1.86242 1
gene 2 3 186 -4.24547 0 566 -4.24547 1
gene 2 186 23 2.88128 0 567 2.88128 1
gene 2 1 186 1.31301 0 816 1.31301 1
genomeend 72

/* Organism #73 Fitness: 15.997 Error: 0.000377885 */
genomestart 73
trait 1 0.311131 0.0446231 0.167149 0 0.153012 0 0 0.0312623 
trait 2 1 0 0.0430417 0.00887263 0.0918419 0.856818 0 0.46423 
trait 3 0.290573 0 0.00143787 0 0.00360311 0.00287801 0.0334238 0.00360096 
node 1 1 1 3
node 2 3 1 1
node 3 3 1 1
node 4 1 0 2
node 23 3 0 0
node 79 1 0 0
node 84 1 0 0
node 186 1 0 0
gene 2 1 4 6.68687 0 1 6.68687 1
gene 3 2 4 -8 0 2 -8 1
gene 1 3 4 -6.78243 0 3 -6.78243 1
gene 3 2 23 2.74151 0 40 2.74151 1
gene 3 23 4 3.03392 0 41 3.03392 0
gene 2 3 23 -4.13074 0 44 -4.13074 0
gene 3 1 23 -1.79687 0 106 -1.79687 1
gene 3 23 79 -2.48583 0 200 -2.48583 1
gene 3 79 4 4.58907 0 201 4.58907 1
gene 3 23 84 4.9572 0 215 4.9572 1
gene 3 84 4 6.49507 0 216 6.49507 1
gene 2 3 84 2.01333 0 293 2.01333 1
gene 3 2 84 3.94232 0 318 3.94232 1
gene 1 84 79 -0.341358 0 445 -0.341358 1
gene 3 3 79 0.695433 0 475 0.695433 1
gene 2 3 186 -2.092 0 566 -2.092 1
gene 2 186 23 -1.44989 0 567 -1.44989 1
gene 2 1 186 -0.0324487 0 816 -0.0324487 1
genomeend 73

/* Organism #74 Fitness: 15.9999 Error: 7.21216e-06 */
genomestart 74
trait 1 0.311131 0.0446231 0.167149 0 0.153012 0 0 0.0312623 
trait 2 1 0 0.0430417 0.00887263 0.0918419 0.856818 0 0.46423 
trait 3 0.290573 0 0.00143787 0 0.00360311 0.00287801 0.0334238 0.00360096 
node 1 1 1 3
node 2 3 1 1
node 3 3 1 1
node 4 1 0 2
node 23 3 0 0
node 79 1 0 0
node 84 1 0 0
node 186 1 0 0
gene 2 1 4 7.75048 0 1 7.75048 1
gene 3 2 4 -8 0 2 -8 1
gene 1 3 4 -8 0 3 -8 1
gene 3 2 23 1.11833 0 40 1.11833 1
gene 3 23 4 1.34744 0 41 1.34744 0
gene 2 3 23 -2.12158 0 44 -2.12158 1
gene 3 1 23 -0.678877 0 106 -0.678877 1
gene 3 23 79 0.819391 0 200 0.819391 1
gene 3 79 4 -0.548576 0 201 -0.548576 1
gene 3 23 84 2.36754 0 215 2.36754 1
gene 3 84 4 5.84516 0 216 5.84516 1
gene 2 3 84 0.912195 0 293 0.912195 1
gene 3 2 84 6.53248 0 318 6.53248 1
gene 1 84 79 -1.62451 0 445 -1.62451 1
gene 3 3 79 -0.632731 0 475 -0.632731 1
gene 2 3 186 1.49105 0 566 1.49105 1
gene 2 186 23 -1.72195 0 567 -1.72195 1
gene 2 1 186 0.850032 0 816 0.850032 1
genomeend 74

/* Organism #75 Fitness: 16 Error: 5.00672e-06 */
genomestart 75
trait 1 0.311131 0.0446231 0.167149 0 0.153012 0 0 0.0312623 
trait 2 1 0 0.0430417 0.00887263 0.0918419 0.856818 0 0.46423 
trait 3 0.290573 0 0.00143787 0 0.00360311 0.00287801 0.0334238 0.00360096 
node 1 1 1 3
node 2 3 1 1
node 3 3 1 1
node 4 1 0 2
node 23 3 0 0
node 79 1 0 0
node 84 1 0 0
node 186 1 0 0
gene 2 1 4 4.81771 0 1 4.81771 1
gene 3 2 4 -8 0 2 -8 1
gene 1 3 4 -5.50606 0 3 -5.50606 1
gene 3 2 23 1.37659 0 40 1.37659 1
gene 3 23 4 2.45726 0 41 2.45726 0
gene 2 3 23 -1.40874 0 44 -1.40874 0
gene 3 1 23 -1.7297 0 106 -1.7297 1
gene 3 23 79 0.0232201 0 200 0.0232201 1
gene 3 79 4 1.04729 0 201 1.04729 1
gene 3 23 84 4.94177 0 215 4.94177 1
gene 3 84 4 4.61429 0 216 4.61429 1
gene 2 3 84 2.32804 0 293 2.32804 1
gene 3 2 84 3.67156 0 318 3.67156 1
gene 1 84 79 2.3522 0 445 2.3522 1
gene 3 3 79 -2.39887 0 475 -2.39887 1
gene 2 3 186 -3.2956 0 566 -3.2956 1
gene 2 186 23 1.03167 0 567 1.03167 1
gene 2 1 186 -1.82643 0 816 -1.82643 1
genomeend 75

/* Organism #76 Fitness: 15.9746 Error: 0.00317067 */
genomestart 76
trait 1 0.311131 0.0446231 0.167149 0 0.153012 0 0 0.0312623 
trait 2 1 0 0.0430417 0.00887263 0.0918419 0.856818 0 0.46423 
trait 3 0.0887462 0 0.00143787 0 0.0821391 0.00287801 0 0.724088 
node 1 1 1 3
node 2 3 1 1
node 3 3 1 1
node 4 1 0 2
node 23 3 0 0
node 79 1 0 0
node 84 1 0 0
node 186 1 0 0
gene 2 1 4 4.95842 0 1 4.95842 1
gene 3 2 4 -7.25018 0 2 -7.25018 1
gene 1 3 4 -5.85969 0 3 -5.85969 1
gene 3 2 23 1.34932 0 40 1.34932 1
gene 3 23 4 3.57728 0 41 3.57728 0
gene 2 3 23 0.222924 0 44 0.222924 0
gene 3 1 23 -3.63723 0 106 -3.63723 1
gene 3 23 79 -1.01156 0 200 -1.01156 1
gene 3 79 4 2.66489 0 201 2.66489 1
gene 3 23 84 0.82883 0 215 0.82883 1
gene 3 84 4 6.98359 0 216 6.98359 1
gene 2 3 84 3.55259 0 293 3.55259 1
gene 3 2 84 7.10115 0 318 7.10115 1
gene 1 84 79 0.177258 0 445 0.177258 1
gene 3 3 79 -2.41647 0 475 -2.41647 1
gene 2 3 186 -2.4327 0 566 -2.4327 1
gene 2 186 23 1.339 0 567 1.339 1
gene 2 1 186 -0.0324487 0 816 -0.0324487 1
genomeend 76

/* Species #33 : (Size 8) (AF 13.975) (Age 19)  */


/* Organism #77 Fitness: 16 Error: 3.20705e-11 */
genomestart 77
trait 1 0.1 0.0576945 0 0 0 0 0 0.0136104 
trait 2 0.593919 0 0 0.0202803 0.593712 0 0 1 
trait 3 0.263249 0 0.023181 0 0.281361 0 0.0426411 0.00501003 
node 1 3 1 3
node 2 3 1 1
node 3 3 1 1
node 4 1 0 2
node 23 1 0 0
node 55 1 0 0
node 81 1 0 0
node 126 1 0 0
node 191 1 0 0
gene 2 1 4 8 0 1 8 1
gene 3 2 4 -8 0 2 -8 1
gene 1 3 4 -7.36631 0 3 -7.36631 1
gene 3 2 23 -1.77683 0 40 -1.77683 1
gene 3 23 4 4.95606 0 41 4.95606 1
gene 2 3 23 -6.89496 0 44 -6.89496 0
gene 1 3 55 3.14275 0 117 3.14275 1
gene 2 55 4 0.663512 0 118 0.663512 1
gene 2 1 55 -1.58866 0 143 -1.58866 1
gene 2 3 81 2.4092 0 206 2.4092 0
gene 2 81 23 2.79001 0 207 2.79001 1
gene 3 1 81 -0.384681 0 226 -0.384681 1
gene 2 3 126 -0.2865 0 356 -0.2865 1
gene 2 126 81 2.20947 0 357 2.20947 1
gene 1 55 81 -0.561273 0 568 -0.561273 0
gene 1 55 191 0.424476 0 585 0.424476 1
gene 1 191 81 -0.561273 0 586 0 1
gene 2 1 191 -0.60802 0 634 -0.60802 1
gene 2 191 4 0.0568186 0 735 0.0568186 1
genomeend 77

/* Organism #78 Fitness: 9.26882 Error: 0.955526 */
genomestart 78
trait 1 0.1 0.0576945 0 0 0 0 0 0.0136104 
trait 2 0.593919 0 0 0.0202803 0.593712 0 0 1 
trait 3 0.263249 0 0.023181 0 0.281361 0 0.0426411 0.00501003 
node 1 3 1 3
node 2 3 1 1
node 3 3 1 1
node 4 1 0 2
node 23 1 0 0
node 55 1 0 0
node 81 1 0 0
node 126 1 0 0
node 191 1 0 0
gene 2 1 4 7.34714 0 1 7.34714 1
gene 3 2 4 -8 0 2 -8 1
gene 1 3 4 -8 0 3 -8 1
gene 3 2 23 -3.65097 0 40 -3.65097 1
gene 3 23 4 7.04238 0 41 7.04238 1
gene 2 3 23 -4.9907 0 44 -4.9907 0
gene 1 3 55 1.79393 0 117 1.79393 1
gene 2 55 4 1.19918 0 118 1.19918 1
gene 2 1 55 -0.754056 0 143 -0.754056 1
gene 2 3 81 3.92632 0 206 3.92632 0
gene 2 81 23 0.787642 0 207 0.787642 1
gene 3 1 81 -1.60593 0 226 -1.60593 1
gene 2 3 126 -2.22946 0 356 -2.22946 1
gene 2 126 81 1.82576 0 357 1.82576 1
gene 1 55 81 0.995605 0 568 0.995605 0
gene 1 55 191 -1.91352 0 585 -1.91352 1
gene 1 191 81 0.11133 0 586 0.11133 1
gene 2 1 191 -0.703071 0 634 -0.703071 1
gene 2 191 4 0.0568186 0 735 0.0568186 1
genomeend 78

/* Organism #79 Fitness: 15.9999 Error: 9.35814e-06 */
genomestart 79
trait 1 0.1 0.0576945 0 0 0 0 0 0.0136104 
trait 2 0.593919 0 0 0.0202803 0.593712 0 0 1 
trait 3 0.263249 0 0.023181 0 0.281361 0 0.0426411 0.00501003 
node 1 3 1 3
node 2 3 1 1
node 3 3 1 1
node 4 1 0 2
node 23 1 0 0
node 55 1 0 0
node 81 1 0 0
node 126 1 0 0
node 191 1 0 0
gene 2 1 4 8 0 1 8 1
gene 3 2 4 -7.07922 0 2 -7.07922 1
gene 1 3 4 -5.41382 0 3 -5.41382 1
gene 3 2 23 0.264233 0 40 0.264233 1
gene 3 23 4 3.23386 0 41 3.23386 1
gene 2 3 23 -8 0 44 -8 0
gene 1 3 55 0.542217 0 117 0.542217 1
gene 2 55 4 2.41165 0 118 2.41165 1
gene 2 1 55 -3.88373 0 143 -3.88373 1
gene 2 3 81 1.569 0 206 1.569 0
gene 2 81 23 4.81563 0 207 4.81563 1
gene 3 1 81 -1.28821 0 226 -1.28821 1
gene 2 3 126 -2.52696 0 356 -2.52696 1
gene 2 126 81 3.82437 0 357 3.82437 1
gene 1 55 81 0.910757 0 568 0.910757 0
gene 1 55 191 -2.07399 0 585 -2.07399 1
gene 1 191 81 -2.02985 0 586 -2.02985 1
gene 2 1 191 1.06582 0 634 1.06582 1
gene 2 191 4 -1.1186 0 735 -1.1186 1
genomeend 79

/* Organism #80 Fitness: 9 Error: 1 */
genomestart 80
trait 1 0.1 0.0576945 0 0 0 0 0 0.0136104 
trait 2 0.593919 0 0 0.0202803 0.593712 0 0 1 
trait 3 0.263249 0 0.023181 0 0.281361 0 0.0426411 0.00501003 
node 1 3 1 3
node 2 3 1 1
node 3 3 1 1
node 4 1 0 2
node 23 1 0 0
node 55 1 0 0
node 81 1 0 0
node 126 1 0 0
node 191 1 0 0
gene 2 1 4 8 0 1 8 1
gene 3 2 4 -0.878358 0 2 -0.878358 1
gene 1 3 4 -8 0 3 -8 1
gene 3 2 23 -2.28643 0 40 -2.28643 1
gene 3 23 4 6.91569 0 41 6.91569 1
gene 2 3 23 -7.71629 0 44 -7.71629 0
gene 1 3 55 3.14275 0 117 3.14275 1
gene 2 55 4 -1.54033 0 118 -1.54033 1
gene 2 1 55 -3.54389 0 143 -3.54389 1
gene 2 3 81 1.91438 0 206 1.91438 0
gene 2 81 23 2.79001 0 207 2.79001 1
gene 3 1 81 -1.55452 0 226 -1.55452 1
gene 2 3 126 0.0368297 0 356 0.0368297 1
gene 2 126 81 3.61176 0 357 3.61176 1
gene 1 55 81 1.73633 0 568 1.73633 0
gene 1 55 191 -0.819726 0 585 -0.819726 1
gene 1 191 81 1.36622 0 586 1.36622 1
gene 2 1 191 2.33505 0 634 2.33505 1
gene 2 191 4 0.0568186 0 735 0.0568186 1
genomeend 80

/* Organism #81 Fitness: 15.9968 Error: 0.000405971 */
genomestart 81
trait 1 0.1 0.0576945 0 0 0 0 0 0.0136104 
trait 2 0.593919 0 0 0.0202803 0.593712 0 0 1 
trait 3 0.263249 0 0.023181 0 0.281361 0 0.0426411 0.00501003 
node 1 3 1 3
node 2 3 1 1
node 3 3 1 1
node 4 1 0 2
node 23 1 0 0
node 55 1 0 0
node 81 1 0 0
node 126 1 0 0
node 191 1 0 0
gene 2 1 4 6.69319 0 1 6.69319 1
gene 3 2 4 -6.44188 0 2 -6.44188 1
gene 1 3 4 -5.88299 0 3 -5.88299 1
gene 3 2 23 -4.36973 0 40 -4.36973 1
gene 3 23 4 3.8495 0 41 3.8495 1
gene 2 3 23 -8 0 44 -8 0
gene 1 3 55 0.74494 0 117 0.74494 1
gene 2 55 4 -0.270635 0 118 -0.270635 1
gene 2 1 55 -6.41556 0 143 -6.41556 1
gene 2 3 81 4.27601 0 206 4.27601 0
gene 2 81 23 3.83174 0 207 3.83174 1
gene 3 1 81 0.527364 0 226 0.527364 1
gene 2 3 126 0.178155 0 356 0.178155 1
gene 2 126 81 -2.39057 0 357 -2.39057 1
gene 1 55 81 -1.60101 0 568 -1.60101 1
gene 1 55 191 3.61741 0 585 3.61741 1
gene 1 191 81 0.245125 0 586 0.245125 1
gene 2 1 191 0.127272 0 634 0.127272 1
gene 2 191 4 2.04754 0 735 2.04754 1
genomeend 81

/* Organism #82 Fitness: 13.7412 Error: 0.293087 */
genomestart 82
trait 1 0.1 0.0576945 0 0 0 0 0 0.0136104 
trait 2 0.593919 0 0 0.0202803 0.593712 0 0 1 
trait 3 0.263249 0 0.023181 0 0.281361 0 0.0426411 0.00501003 
node 1 3 1 3
node 2 3 1 1
node 3 3 1 1
node 4 1 0 2
node 23 1 0 0
node 55 1 0 0
node 81 1 0 0
node 126 1 0 0
node 191 1 0 0
gene 2 1 4 8 0 1 8 1
gene 3 2 4 -8 0 2 -8 1
gene 1 3 4 -8 0 3 -8 1
gene 3 2 23 -2.48298 0 40 -2.48298 1
gene 3 23 4 3.18802 0 41 3.18802 1
gene 2 3 23 -5.1691 0 44 -5.1691 0
gene 1 3 55 4.11661 0 117 4.11661 1
gene 2 55 4 1.15395 0 118 1.15395 1
gene 2 1 55 -0.385178 0 143 -0.385178 1
gene 2 3 81 1.99877 0 206 1.99877 0
gene 2 81 23 3.85497 0 207 3.85497 1
gene 3 1 81 -1.51265 0 226 -1.51265 1
gene 2 3 126 -1.20316 0 356 -1.20316 1
gene 2 126 81 2.85311 0 357 2.85311 1
gene 1 55 81 1.3562 0 568 1.3562 0
gene 1 55 191 -0.828844 0 585 -0.828844 1
gene 1 191 81 -0.561273 0 586 -0.561273 1
gene 2 1 191 -2.38183 0 634 -2.38183 1
gene 2 191 4 0.0568186 0 735 0.0568186 1
genomeend 82

/* Organism #83 Fitness: 15.8009 Error: 0.0249683 */
genomestart 83
trait 1 0.1 0.0576945 0 0 0 0 0 0.0136104 
trait 2 0.593919 0 0 0.0202803 0.593712 0 0 1 
trait 3 0.263249 0 0.023181 0 0.281361 0 0.0426411 0.00501003 
node 1 3 1 3
node 2 3 1 1
node 3 3 1 1
node 4 1 0 2
node 23 1 0 0
node 55 1 0 0
node 81 1 0 0
node 126 1 0 0
node 191 1 0 0
gene 2 1 4 5.66219 0 1 5.66219 1
gene 3 2 4 -7.30969 0 2 -7.30969 1
gene 1 3 4 -4.93831 0 3 -4.93831 1
gene 3 2 23 -1.82167 0 40 -1.82167 1
gene 3 23 4 5.29777 0 41 5.29777 1
gene 2 3 23 -6.27747 0 44 -6.27747 0
gene 1 3 55 1.86169 0 117 1.86169 1
gene 2 55 4 2.06563 0 118 2.06563 1
gene 2 1 55 -2.01995 0 143 -2.01995 1
gene 2 3 81 1.58138 0 206 1.58138 0
gene 2 81 23 5.09174 0 207 5.09174 1
gene 3 1 81 2.81042 0 226 2.81042 1
gene 2 3 126 -1.72114 0 356 -1.72114 1
gene 2 126 81 -1.66849 0 357 -1.66849 1
gene 1 55 81 -0.785221 0 568 -0.785221 0
gene 1 55 191 4.36056 0 585 4.36056 1
gene 1 191 81 4.27544 0 586 4.27544 1
gene 2 1 191 -0.278444 0 634 -0.278444 1
gene 2 191 4 -0.106254 0 735 -0.106254 1
genomeend 83

/* Organism #84 Fitness: 15.9921 Error: 0.000984636 */
genomestart 84
trait 1 0.1 0.0576945 0 0 0 0 0 0.0136104 
trait 2 0.593919 0 0 0.0202803 0.593712 0 0 1 
trait 3 0.263249 0 0.023181 0 0.890514 0 0.0426411 0 
node 1 3 1 3
node 2 3 1 1
node 3 3 1 1
node 4 1 0 2
node 23 1 0 0
node 55 1 0 0
node 81 1 0 0
node 126 1 0 0
node 191 1 0 0
gene 2 1 4 6.98734 0 1 6.98734 1
gene 3 2 4 -6.56096 0 2 -6.56096 1
gene 1 3 4 -5.72809 0 3 -5.72809 1
gene 3 2 23 -3.88831 0 40 -3.88831 1
gene 3 23 4 4.17341 0 41 4.17341 1
gene 2 3 23 0.43562 0 44 0.43562 0
gene 1 3 55 5.35951 0 117 5.35951 1
gene 2 55 4 -0.244974 0 118 -0.244974 1
gene 2 1 55 -2.46557 0 143 -2.46557 1
gene 2 3 81 -0.0533264 0 206 -0.0533264 0
gene 2 81 23 4.84933 0 207 4.84933 1
gene 3 1 81 -2.44941 0 226 -2.44941 1
gene 2 3 126 0.745186 0 356 0.745186 1
gene 2 126 81 3.47762 0 357 3.47762 1
gene 1 55 81 -0.812554 0 568 -0.812554 0
gene 1 55 191 -2.16717 0 585 -2.16717 1
gene 1 191 81 -0.561273 0 586 -0.561273 1
gene 2 1 191 0.586011 0 634 0.586011 1
gene 2 191 4 1.63751 0 735 1.63751 1
genomeend 84

/* Species #35 : (Size 6) (AF 13.6581) (Age 15)  */


/* Organism #85 Fitness: 16 Error: 1.95582e-08 */
genomestart 85
trait 1 0.1 0.0576945 0 0 0 0 0 0.0136104 
trait 2 0.15 0.060921 0.0299824 0.00803096 0.286849 0.240724 0 0.19818 
trait 3 0.263249 0 0.023181 0 0.281361 0 0.0426411 0.00501003 
node 1 3 1 3
node 2 3 1 1
node 3 3 1 1
node 4 1 0 2
node 23 1 0 0
node 55 1 0 0
node 87 1 0 0
node 145 1 0 0
node 201 1 0 0
node 263 1 0 0
gene 2 1 4 6.46754 0 1 6.46754 1
gene 3 2 4 -7.49159 0 2 -7.49159 1
gene 1 3 4 -8 0 3 -8 1
gene 3 2 23 -5.31073 0 40 -5.31073 0
gene 3 23 4 -4.64706 0 41 -4.64706 1
gene 1 3 23 -2.24834 0 44 -2.24834 1
gene 1 3 55 -3.23194 0 117 -3.23194 1
gene 1 55 4 6.26392 0 118 6.26392 1
gene 2 1 55 0.553427 0 143 0.553427 1
gene 3 2 55 -2.09263 0 208 -2.09263 0
gene 2 3 87 1.60758 0 224 1.60758 1
gene 2 87 23 -0.400096 0 225 -0.400096 1
gene 1 55 87 4.97151 0 319 4.97151 1
gene 3 87 4 0.513762 0 326 0.513762 1
gene 1 55 145 -1.07527 0 427 -1.07527 1
gene 1 145 4 4.77827 0 428 4.77827 1
gene 2 1 87 0.567867 0 438 0.567867 1
gene 1 87 145 3.78768 0 502 3.78768 1
gene 2 55 23 0.306848 0 604 0.306848 0
gene 2 55 201 1 0 622 1 1
gene 2 201 23 0.0143875 0 623 0.0143875 1
gene 1 2 201 1.95655 0 642 1.95655 1
gene 3 2 263 1 0 829 0 1
gene 3 263 23 -5.31073 0 830 0 1
genomeend 85

/* Organism #86 Fitness: 9.00051 Error: 0.999915 */
genomestart 86
trait 1 0.1 0.0576945 0 0 0 0 0 0.0136104 
trait 2 0.15 0.060921 0.0299824 0.00803096 0.286849 0.240724 0 0.19818 
trait 3 0.263249 0 0.023181 0 0.281361 0 0.0426411 0.00501003 
node 1 3 1 3
node 2 3 1 1
node 3 3 1 1
node 4 1 0 2
node 23 1 0 0
node 55 1 0 0
node 87 1 0 0
node 145 1 0 0
node 201 1 0 0
node 263 1 0 0
gene 2 1 4 4.21585 0 1 4.21585 1
gene 3 2 4 -0.777234 0 2 -0.777234 1
gene 1 3 4 -7.56485 0 3 -7.56485 1
gene 3 2 23 -4.57099 0 40 -4.57099 0
gene 3 23 4 -0.28602 0 41 -0.28602 1
gene 1 3 23 -2.07697 0 44 -2.07697 1
gene 1 3 55 -3.54164 0 117 -3.54164 1
gene 1 55 4 -0.993804 0 118 -0.993804 1
gene 3 1 55 1.07693 0 143 1.07693 1
gene 3 2 55 -3.87796 0 208 -3.87796 0
gene 2 3 87 0.216084 0 224 0.216084 1
gene 2 87 23 -0.620504 0 225 -0.620504 1
gene 1 55 87 -1.32391 0 319 -1.32391 1
gene 3 87 4 -1.63773 0 326 -1.63773 1
gene 1 55 145 -0.120022 0 427 -0.120022 1
gene 1 145 4 3.10116 0 428 3.10116 1
gene 2 1 87 2.35297 0 438 2.35297 1
gene 1 87 145 2.21649 0 502 2.21649 1
gene 2 55 23 -1.04305 0 604 -1.04305 0
gene 2 55 201 1 0 622 1 1
gene 2 201 23 1.84494 0 623 1.84494 1
gene 1 2 201 2.4018 0 642 2.4018 1
gene 3 2 263 1.88829 0 829 1.88829 1
gene 3 263 23 2.44087 0 830 2.44087 1
genomeend 86

/* Organism #87 Fitness: 15.948 Error: 0.00650672 */
genomestart 87
trait 1 0.1 0.0576945 0 0 0 0 0 0.0136104 
trait 2 0.15 0.060921 0.0299824 0.00803096 0.286849 0.240724 0 0.19818 
trait 3 0.263249 0 0.023181 0 0.281361 0 0.0426411 0.00501003 
node 1 3 1 3
node 2 3 1 1
node 3 3 1 1
node 4 1 0 2
node 23 1 0 0
node 55 1 0 0
node 87 1 0 0
node 145 1 0 0
node 201 1 0 0
gene 2 1 4 6.91414 0 1 6.91414 1
gene 3 2 4 -5.57652 0 2 -5.57652 1
gene 1 3 4 -8 0 3 -8 1
gene 3 2 23 -6.85121 0 40 -6.85121 1
gene 3 23 4 -5.36146 0 41 -5.36146 1
gene 1 3 23 -1.99156 0 44 -1.99156 1
gene 1 3 55 -3.14356 0 117 -3.14356 1
gene 1 55 4 7.87459 0 118 7.87459 1
gene 2 1 55 -1.9227 0 143 -1.9227 1
gene 3 2 55 -0.879381 0 208 -0.879381 0
gene 2 3 87 2.99918 0 224 2.99918 1
gene 2 87 23 -0.351851 0 225 -0.351851 1
gene 1 55 87 4.01804 0 319 4.01804 1
gene 3 87 4 1.14814 0 326 1.14814 1
gene 1 55 145 1.07295 0 427 1.07295 1
gene 3 145 4 4.49311 0 428 4.49311 1
gene 2 1 87 -0.0139799 0 438 -0.0139799 1
gene 1 87 145 5.81172 0 502 5.81172 1
gene 2 55 23 1.22248 0 604 1.22248 0
gene 2 55 201 2.34771 0 622 2.34771 1
gene 2 201 23 0.0143875 0 623 0.0143875 1
gene 1 2 201 0.000153701 0 642 0.000153701 1
genomeend 87

/* Organism #88 Fitness: 16 Error: 9.3459e-08 */
genomestart 88
trait 1 0.1 0.0576945 0 0 0 0 0 0.0136104 
trait 2 0.15 0.060921 0.0299824 0.00803096 0.286849 0.240724 0 0.19818 
trait 3 0.263249 0 0.023181 0 0.281361 0 0.0426411 0.00501003 
node 1 3 1 3
node 2 3 1 1
node 3 3 1 1
node 4 2 0 2
node 23 1 0 0
node 55 1 0 0
node 87 1 0 0
node 145 1 0 0
node 201 1 0 0
node 263 1 0 0
gene 2 1 4 6.77304 0 1 6.77304 1
gene 3 2 4 -8 0 2 -8 1
gene 1 3 4 -8 0 3 -8 1
gene 3 2 23 -3.12854 0 40 -3.12854 0
gene 3 23 4 -5.97492 0 41 -5.97492 1
gene 1 3 23 -0.459502 0 44 -0.459502 1
gene 1 3 55 -2.49503 0 117 -2.49503 1
gene 1 55 4 7.44306 0 118 7.44306 1
gene 2 1 55 -1.00497 0 143 -1.00497 1
gene 3 2 55 -3.07591 0 208 -3.07591 0
gene 2 3 87 1.10715 0 224 1.10715 1
gene 2 87 23 -1.97503 0 225 -1.97503 1
gene 1 55 87 3.54212 0 319 3.54212 1
gene 3 87 4 -0.686741 0 326 -0.686741 1
gene 1 55 145 -1.52622 0 427 -1.52622 1
gene 1 145 4 5.3172 0 428 5.3172 1
gene 2 1 87 2.85049 0 438 2.85049 1
gene 1 87 145 4.88282 0 502 4.88282 1
gene 2 55 23 2.50119 0 604 2.50119 0
gene 2 55 201 3.4962 0 622 3.4962 1
gene 2 201 23 1.43997 0 623 1.43997 1
gene 1 2 201 -2.14381 0 642 -2.14381 1
gene 3 2 263 1 0 829 1 1
gene 1 263 23 -1.88662 0 830 -1.88662 1
genomeend 88

/* Organism #89 Fitness: 15.9998 Error: 2.48636e-05 */
genomestart 89
trait 1 0.1 0.0576945 0 0 0 0 0 0.0136104 
trait 2 0.15 0.060921 0.0299824 0.00803096 0.286849 0.240724 0 0.19818 
trait 3 0.263249 0 0.023181 0 0.281361 0 0.0426411 0.00501003 
node 1 3 1 3
node 2 3 1 1
node 3 3 1 1
node 4 1 0 2
node 23 1 0 0
node 55 1 0 0
node 87 1 0 0
node 145 1 0 0
node 201 1 0 0
node 263 1 0 0
gene 3 1 4 5.29968 0 1 5.29968 1
gene 3 2 4 -5.36925 0 2 -5.36925 1
gene 1 3 4 -8 0 3 -8 1
gene 3 2 23 -7.42671 0 40 -7.42671 0
gene 3 23 4 -3.96663 0 41 -3.96663 1
gene 1 3 23 -1.95809 0 44 -1.95809 1
gene 1 3 55 -2.45515 0 117 -2.45515 1
gene 1 55 4 8 0 118 8 1
gene 2 1 55 -0.71221 0 143 -0.71221 1
gene 3 2 55 0.00748239 0 208 0.00748239 0
gene 2 3 87 -0.0760435 0 224 -0.0760435 1
gene 2 87 23 -2.09476 0 225 -2.09476 1
gene 1 55 87 6.54936 0 319 6.54936 1
gene 3 87 4 1.54379 0 326 1.54379 1
gene 1 55 145 -3.19634 0 427 -3.19634 1
gene 1 145 4 4.3719 0 428 4.3719 1
gene 2 1 87 1.86393 0 438 1.86393 1
gene 1 87 145 3.45109 0 502 3.45109 1
gene 2 55 23 1.87463 0 604 1.87463 1
gene 2 55 201 1.22668 0 622 1.22668 1
gene 2 201 23 0.0143875 0 623 0.0143875 1
gene 1 2 201 0.783921 0 642 0.783921 1
gene 3 2 263 1 0 829 1 1
gene 3 263 23 -5.06857 0 830 -5.06857 1
genomeend 89

/* Organism #90 Fitness: 9 Error: 0.999999 */
genomestart 90
trait 1 0.1 0.0576945 0 0 0 0 0 0.0136104 
trait 2 0.15 0.060921 0.0299824 0.00803096 0.286849 0.240724 0 0.19818 
trait 3 0.263249 0 0.023181 0 0.281361 0 0.0426411 0.00501003 
node 1 3 1 3
node 2 3 1 1
node 3 3 1 1
node 4 1 0 2
node 23 2 0 0
node 55 1 0 0
node 87 1 0 0
node 145 1 0 0
node 201 1 0 0
gene 2 1 4 -0.792306 0 1 -0.792306 1
gene 3 2 4 -6.4726 0 2 -6.4726 1
gene 1 3 4 -8 0 3 -8 1
gene 3 2 23 -6.80687 0 40 -6.80687 1
gene 3 23 4 -2.34437 0 41 -2.34437 1
gene 1 3 23 -2.33487 0 44 -2.33487 1
gene 1 3 55 -2.49688 0 117 -2.49688 1
gene 1 55 4 6.81952 0 118 6.81952 1
gene 2 1 55 0.989563 0 143 0.989563 1
gene 3 2 55 -2.09263 0 208 -2.09263 0
gene 2 3 87 0.603617 0 224 0.603617 1
gene 2 87 23 -0.734307 0 225 -0.734307 1
gene 1 55 87 5.27351 0 319 5.27351 1
gene 3 87 4 1.10859 0 326 1.10859 1
gene 1 55 145 1.27001 0 427 1.27001 1
gene 1 145 4 4.95274 0 428 4.95274 1
gene 2 1 87 -0.238623 0 438 -0.238623 1
gene 1 87 145 3.78768 0 502 3.78768 1
gene 2 55 23 0.141212 0 604 0.141212 0
gene 2 55 201 1.35751 0 622 1.35751 1
gene 2 201 23 2.4199 0 623 2.4199 1
gene 1 2 201 0.351498 0 642 0.351498 1
genomeend 90

/* Species #36 : (Size 9) (AF 12.9866) (Age 15)  */


/* Organism #91 Fitness: 16 Error: 7.01666e-09 */
genomestart 91
trait 1 0 0 0 0 0 0 0.479005 0.0136104 
trait 2 0.593919 0 0.0821528 0.0202803 0.593712 0 0 0.277109 
trait 3 0.263249 0 0.023181 0 0.281361 0 0.0426411 0.00501003 
node 1 3 1 3
node 2 3 1 1
node 3 3 1 1
node 4 1 0 2
node 23 1 0 0
node 55 1 0 0
node 81 1 0 0
node 126 1 0 0
node 233 1 0 0
node 237 1 0 0
gene 2 1 4 5.67158 0 1 5.67158 1
gene 3 2 4 -8 0 2 -8 1
gene 1 3 4 -4.06381 0 3 -4.06381 1
gene 3 2 23 0.211492 0 40 0.211492 1
gene 3 23 4 5.57179 0 41 5.57179 1
gene 2 3 23 -8 0 44 -8 1
gene 2 3 55 5.38264 0 117 5.38264 1
gene 2 55 4 0.791227 0 118 0.791227 1
gene 2 1 55 -0.206814 0 143 -0.206814 1
gene 2 3 81 6.09055 0 206 6.09055 1
gene 2 81 23 6.77029 0 207 6.77029 1
gene 3 1 81 1.84457 0 226 1.84457 1
gene 2 3 126 -2.60575 0 356 -2.60575 1
gene 2 126 81 1.24296 0 357 1.24296 1
gene 3 2 55 3.80903 0 607 3.80903 0
gene 1 55 126 0.198432 0 625 0.198432 1
gene 1 81 4 1.45421 0 645 1.45421 1
gene 3 2 233 0.479493 0 723 0.479493 1
gene 3 233 55 1.38051 0 724 1.38051 1
gene 2 126 237 3.45944 0 736 3.45944 1
gene 2 237 81 0.478153 0 737 0.478153 1
genomeend 91

/* Organism #92 Fitness: 16 Error: 7.01666e-09 */
genomestart 92
trait 1 0 0 0 0 0 0 0.479005 0.0136104 
trait 2 0.593919 0 0.0821528 0.0202803 0.593712 0 0 0.277109 
trait 3 0.263249 0 0.023181 0 0.281361 0 0.0426411 0.00501003 
node 1 3 1 3
node 2 3 1 1
node 3 3 1 1
node 4 1 0 2
node 23 1 0 0
node 55 1 0 0
node 81 1 0 0
node 126 1 0 0
node 233 1 0 0
node 237 1 0 0
gene 2 1 4 5.67158 0 1 5.67158 1
gene 3 2 4 -8 0 2 -8 1
gene 1 3 4 -4.06381 0 3 -4.06381 1
gene 3 2 23 0.211492 0 40 0.211492 1
gene 3 23 4 5.57179 0 41 5.57179 1
gene 2 3 23 -8 0 44 -8 1
gene 2 3 55 5.38264 0 117 5.38264 1
gene 2 55 4 0.791227 0 118 0.791227 1
gene 2 1 55 -0.206814 0 143 -0.206814 1
gene 2 3 81 6.09055 0 206 6.09055 1
gene 2 81 23 6.77029 0 207 6.77029 1
gene 3 1 81 1.84457 0 226 1.84457 1
gene 2 3 126 -2.60575 0 356 -2.60575 1
gene 2 126 81 1.24296 0 357 1.24296 1
gene 3 2 55 3.80903 0 607 3.80903 0
gene 1 55 126 0.198432 0 625 0.198432 1
gene 1 81 4 1.45421 0 645 1.45421 1
gene 3 2 233 0.479493 0 723 0.479493 1
gene 3 233 55 1.38051 0 724 1.38051 1
gene 2 126 237 3.45944 0 736 3.45944 1
gene 2 237 81 0.478153 0 737 0.478153 1
genomeend 92

/* Organism #93 Fitness: 9.21205 Error: 0.964864 */
genomestart 93
trait 1 0 0 0 0 0 0 0.479005 0.0136104 
trait 2 0.593919 0 0.0821528 0.0202803 0.593712 0 0 0.277109 
trait 3 0.263249 0 0.023181 0 0.281361 0 0.0426411 0.00501003 
node 1 3 1 3
node 2 3 1 1
node 3 3 1 1
node 4 1 0 2
node 23 1 0 0
node 55 1 0 0
node 81 1 0 0
node 126 1 0 0
node 233 1 0 0
node 237 1 0 0
gene 2 1 4 3.99598 0 1 3.99598 1
gene 3 2 4 -7.25928 0 2 -7.25928 1
gene 1 3 4 -5.84784 0 3 -5.84784 1
gene 3 2 23 -2.26678 0 40 -2.26678 1
gene 3 23 4 -2.01989 0 41 -2.01989 1
gene 2 3 23 -8 0 44 -8 1
gene 2 3 55 3.16295 0 117 3.16295 1
gene 2 55 4 3.26198 0 118 3.26198 1
gene 2 1 55 -1.37998 0 143 -1.37998 1
gene 2 3 81 6.09055 0 206 6.09055 1
gene 2 81 23 4.9101 0 207 4.9101 1
gene 3 1 81 1.84457 0 226 1.84457 1
gene 2 3 126 -3.13234 0 356 -3.13234 1
gene 2 126 81 2.70495 0 357 2.70495 1
gene 3 2 55 3.35576 0 607 3.35576 0
gene 1 55 126 1.65551 0 625 1.65551 1
gene 1 81 4 1.37008 0 645 1.37008 1
gene 3 2 233 0.883926 0 723 0.883926 1
gene 3 233 55 2.42823 0 724 2.42823 1
gene 2 126 237 3.45944 0 736 3.45944 1
gene 2 237 81 1.32892 0 737 1.32892 1
genomeend 93

/* Organism #94 Fitness: 16 Error: 1.9038e-08 */
genomestart 94
trait 1 0.025 0.0144236 0 0 0 0 0.359254 0.0136104 
trait 2 0.593919 0 0.0821528 0.0202803 0.593712 0 0 0.277109 
trait 3 0.263249 0 0.023181 0 0.281361 0 0.0426411 0.00501003 
node 1 3 1 3
node 2 3 1 1
node 3 3 1 1
node 4 1 0 2
node 23 1 0 0
node 55 1 0 0
node 81 1 0 0
node 126 1 0 0
node 233 1 0 0
node 237 1 0 0
gene 2 1 4 8 0 1 8 1
gene 3 2 4 -7.66576 0 2 -7.66576 1
gene 1 3 4 -6.31067 0 3 -6.31067 1
gene 3 2 23 -0.0933203 0 40 -0.0933203 1
gene 3 23 4 4.69561 0 41 4.69561 1
gene 2 3 23 -8 0 44 -8 1
gene 2 3 55 6.52159 0 117 6.52159 1
gene 2 55 4 3.11972 0 118 3.11972 1
gene 2 1 55 -3.14958 0 143 -3.14958 1
gene 2 3 81 2.09953 0 206 2.09953 1
gene 2 81 23 6.09927 0 207 6.09927 1
gene 3 1 81 1.80678 0 226 1.80678 1
gene 2 3 126 -1.51168 0 356 -1.51168 1
gene 2 126 81 1.09164 0 357 1.09164 1
gene 3 2 55 1.49911 0 607 1.49911 0
gene 1 55 126 2.98741 0 625 2.98741 1
gene 1 81 4 -0.794407 0 645 -0.794407 1
gene 3 2 233 -2.7121 0 723 -2.7121 1
gene 3 233 55 1.93071 0 724 1.93071 1
gene 2 126 237 2.22972 0 736 2.22972 1
gene 2 237 81 1.97689 0 737 1.97689 1
genomeend 94

/* Organism #95 Fitness: 9 Error: 1 */
genomestart 95
trait 1 0 0 0 0 0 0 0.479005 0.0136104 
trait 2 0.593919 0 0.0821528 0.0202803 0.593712 0 0 0.277109 
trait 3 0.263249 0 0.023181 0 0.281361 0 0.0426411 0.00501003 
node 1 3 1 3
node 2 3 1 1
node 3 3 1 1
node 4 1 0 2
node 23 1 0 0
node 55 1 0 0
node 81 1 0 0
node 126 1 0 0
node 233 1 0 0
node 237 1 0 0
gene 2 1 4 7.71829 0 1 7.71829 1
gene 3 2 4 -8 0 2 -8 1
gene 1 3 4 -2.36634 0 3 -2.36634 1
gene 3 2 23 1.20428 0 40 1.20428 1
gene 3 23 4 7.79688 0 41 7.79688 1
gene 2 3 23 -5.94501 0 44 -5.94501 1
gene 2 3 55 3.22085 0 117 3.22085 1
gene 2 55 4 -1.16355 0 118 -1.16355 1
gene 2 1 55 -2.51052 0 143 -2.51052 1
gene 2 3 81 4.38901 0 206 4.38901 1
gene 1 81 23 7.94466 0 207 7.94466 1
gene 3 1 81 -0.531761 0 226 -0.531761 1
gene 2 3 126 -1.87033 0 356 -1.87033 1
gene 2 126 81 0.000905736 0 357 0.000905736 1
gene 3 2 55 2.76262 0 607 2.76262 0
gene 1 55 126 0.286145 0 625 0.286145 1
gene 1 81 4 -0.00120037 0 645 -0.00120037 1
gene 3 2 233 1.13645 0 723 1.13645 1
gene 3 233 55 1.38051 0 724 1.38051 1
gene 2 126 237 3.90155 0 736 3.90155 1
gene 2 237 81 0.478153 0 737 0.478153 1
genomeend 95

/* Organism #96 Fitness: 14.6659 Error: 0.170391 */
genomestart 96
