
/* Species #7 : (Size 6) (AF 13.7755) (Age 59)  */


/* Organism #0 Fitness: 16 Error: 5.0434e-08 */
genomestart 0
trait 1 0.1 0.0576945 0 0 0 0.706582 0 0.74137 
trait 2 0.2 0 0.0210098 0.0202803 0.0336948 0 0 0.0346538 
trait 3 0.263249 0 0.023181 0 0.281361 0 0.0426411 0.00501003 
node 1 3 1 3
node 2 3 1 1
node 3 3 1 1
node 4 1 0 2
node 23 1 0 0
node 55 1 0 0
node 204 1 0 0
gene 2 1 4 8 0 1 8 1
gene 3 2 4 -5.38643 0 2 -5.38643 1
gene 1 3 4 -8 0 3 -8 1
gene 3 2 23 3.53449 0 40 3.53449 1
gene 3 23 4 -1.72653 0 41 -1.72653 1
gene 2 3 23 -1.3426 0 44 -1.3426 1
gene 1 3 55 1.25366 0 117 1.25366 0
gene 1 55 4 3.53051 0 118 3.53051 1
gene 2 1 55 1.01182 0 143 1.01182 1
gene 2 1 23 -0.632498 0 530 -0.632498 1
gene 1 3 204 1 0 635 0 1
gene 1 204 55 1.25366 0 636 0 1
genomeend 0

/* Organism #1 Fitness: 16 Error: 5.06343e-08 */
genomestart 1
trait 1 0.1 0.0576945 0 0 0 0.706582 0 0.74137 
trait 2 0.2 0 0.0210098 0.0202803 0.0336948 0 0 0.0346538 
trait 3 0.263249 0 0.023181 0 0.281361 0 0.0426411 0.00501003 
node 1 3 1 3
node 2 3 1 1
node 3 3 1 1
node 4 1 0 2
node 23 1 0 0
node 55 1 0 0
node 204 1 0 0
gene 2 1 4 8 0 1 8 1
gene 3 2 4 -5.38643 0 2 -5.38643 1
gene 1 3 4 -8 0 3 -8 1
gene 3 2 23 3.53449 0 40 3.53449 1
gene 3 23 4 -1.72653 0 41 -1.72653 1
gene 2 3 23 -1.3426 0 44 -1.3426 1
gene 1 3 55 1.25366 0 117 1.25366 1
gene 1 55 4 3.53051 0 118 3.53051 1
gene 2 1 55 1.01182 0 143 1.01182 1
gene 2 1 23 -0.632498 0 530 -0.632498 1
gene 1 3 204 1 0 635 0 1
gene 1 204 55 1.25366 0 636 0 1
gene 1 2 55 -0.903538 0 751 -0.903538 1
genomeend 1

/* Organism #2 Fitness: 15.9989 Error: 0.000142191 */
genomestart 2
trait 1 0.1 0.0576945 0 0 0 0.706582 0 0.74137 
trait 2 0.2 0 0.0210098 0.0202803 0.0336948 0 0 0.0346538 
trait 3 0.263249 0 0.023181 0 0.281361 0 0.0426411 0.00501003 
node 1 3 1 3
node 2 3 1 1
node 3 3 1 1
node 4 1 0 2
node 23 1 0 0
node 55 1 0 0
node 204 1 0 0
gene 2 1 4 8 0 1 8 1
gene 3 2 4 -7.18407 0 2 -7.18407 1
gene 1 3 4 -8 0 3 -8 1
gene 3 2 23 3.53449 0 40 3.53449 1
gene 3 23 4 -1.72653 0 41 -1.72653 1
gene 2 3 23 -3.62915 0 44 -3.62915 1
gene 1 3 55 0.356025 0 117 0.356025 0
gene 1 55 4 2.71419 0 118 2.71419 1
gene 2 1 55 0.787524 0 143 0.787524 1
gene 2 1 23 -0.632498 0 530 -0.632498 1
gene 1 3 204 1 0 635 0 1
gene 1 204 55 1.27174 0 636 1.27174 1
genomeend 2

/* Organism #3 Fitness: 15.8776 Error: 0.0153273 */
genomestart 3
trait 1 0 0.0576945 0.799554 0.509526 0 1 0 1 
trait 2 0.2 0 0.0210098 0.0202803 0.0336948 0 0 0.0346538 
trait 3 0.263249 0 0.023181 0 0.281361 0 0.0426411 0.00501003 
node 1 3 1 3
node 2 3 1 1
node 3 3 1 1
node 4 1 0 2
node 23 1 0 0
node 55 1 0 0
node 204 1 0 0
gene 2 1 4 8 0 1 8 1
gene 3 2 4 -4.69959 0 2 -4.69959 1
gene 1 3 4 -8 0 3 -8 1
gene 3 2 23 2.67275 0 40 2.67275 1
gene 3 23 4 0.558941 0 41 0.558941 1
gene 2 3 23 -2.41298 0 44 -2.41298 1
gene 1 3 55 -1.521 0 117 -1.521 1
gene 1 55 4 3.91566 0 118 3.91566 1
gene 2 1 55 -0.770932 0 143 -0.770932 1
gene 2 1 23 -1.00829 0 530 -1.00829 1
gene 1 3 204 1 0 635 1 1
gene 1 204 55 3.11345 0 636 3.11345 1
genomeend 3

/* Organism #4 Fitness: 9.32778 Error: 0.945859 */
genomestart 4
trait 1 0.1 0.0576945 0 0 0 0.706582 0 0.74137 
trait 2 0.2 0 0.0210098 0.0202803 0.0336948 0 0 0.0346538 
trait 3 0.263249 0 0.023181 0 0.281361 0 0.0426411 0.00501003 
node 1 3 1 3
node 2 3 1 1
node 3 3 1 1
node 4 1 0 2
node 23 1 0 0
node 55 1 0 0
node 204 1 0 0
gene 2 1 4 8 0 1 8 1
gene 3 2 4 -4.88714 0 2 -4.88714 1
gene 1 3 4 -6.69224 0 3 -6.69224 1
gene 3 2 23 5.87356 0 40 5.87356 1
gene 3 23 4 1.15265 0 41 1.15265 1
gene 2 3 23 -1.33978 0 44 -1.33978 1
gene 1 3 55 -0.324969 0 117 -0.324969 0
gene 1 55 4 3.00763 0 118 3.00763 1
gene 2 1 55 3.06179 0 143 3.06179 1
gene 2 1 23 2.85782 0 530 2.85782 1
gene 1 3 204 1 0 635 1 1
gene 1 204 55 2.36716 0 636 2.36716 1
genomeend 4

/* Organism #5 Fitness: 9.4486 Error: 0.926142 */
genomestart 5
trait 1 0.1 0.0576945 0 0 0 0.706582 0 0.74137 
trait 2 0.2 0 0.0210098 0.0202803 0.0336948 0 0 0.0346538 
trait 3 0.263249 0 0.023181 0 0.281361 0 0.0426411 0.00501003 
node 1 3 1 3
node 2 3 1 1
node 3 3 1 1
node 4 1 0 2
node 23 1 0 0
node 55 1 0 0
node 204 1 0 0
gene 2 1 4 5.92359 0 1 5.92359 1
gene 3 2 4 -3.40151 0 2 -3.40151 1
gene 1 3 4 -8 0 3 -8 1
gene 3 2 23 5.18766 0 40 5.18766 1
gene 2 23 4 -0.85073 0 41 -0.85073 1
gene 2 3 23 -1.81607 0 44 -1.81607 1
gene 1 3 55 3.59755 0 117 3.59755 1
gene 1 55 4 2.02145 0 118 2.02145 1
gene 2 1 55 1.01884 0 143 1.01884 1
gene 2 1 23 1.84786 0 530 1.84786 1
gene 1 3 204 1 0 635 1 1
gene 1 204 55 -0.126939 0 636 -0.126939 1
genomeend 5

/* Species #10 : (Size 7) (AF 11.5759) (Age 56)  */


/* Organism #6 Fitness: 16 Error: 1.06291e-08 */
genomestart 6
trait 1 0.1 0.0540886 0 0 0.0123676 0.0104437 0 0.0127597 
trait 2 0.143989 0.393233 0.105077 0 0.459931 0 0.30569 1 
trait 3 0.286753 0 0 0 0.00145798 0 0.0464483 0.00501003 
node 1 1 1 3
node 2 3 1 1
node 3 3 1 1
node 4 2 0 2
node 23 1 0 0
node 62 1 0 0
node 132 1 0 0
node 155 1 0 0
gene 2 1 4 8 0 1 8 1
gene 1 2 4 -3.45524 0 2 -3.45524 1
gene 1 3 4 -8 0 3 -8 1
gene 3 2 23 8 0 40 8 1
gene 3 23 4 -7.19925 0 41 -7.19925 1
gene 1 1 23 -3.41934 0 78 -3.41934 1
gene 2 3 23 1.15961 0 130 1.15961 1
gene 2 3 62 8 0 139 8 1
gene 2 62 23 -2.09127 0 140 -2.09127 1
gene 1 62 4 6.39857 0 152 6.39857 1
gene 1 1 62 4.83262 0 173 4.83262 1
gene 2 2 62 -1.63386 0 251 -1.63386 0
gene 2 2 132 3.24455 0 380 3.24455 0
gene 2 132 62 -0.387938 0 381 -0.387938 1
gene 2 2 155 0.00279763 0 461 0.00279763 1
gene 2 155 132 -1.69436 0 462 -1.69436 1
gene 3 1 155 1.37789 0 546 1.37789 1
genomeend 6

/* Organism #7 Fitness: 9.00173 Error: 0.999711 */
genomestart 7
trait 1 0.1 0.0540886 0 0 0.0123676 0.0104437 0 0.0127597 
trait 2 0.143989 0.393233 0.105077 0 0.459931 0 0.30569 1 
trait 3 0.286753 0 0 0 0.00145798 0 0.0464483 0.00501003 
node 1 1 1 3
node 2 3 1 1
node 3 3 1 1
node 4 2 0 2
node 23 1 0 0
node 62 1 0 0
node 132 1 0 0
node 155 1 0 0
gene 2 1 4 7.53736 0 1 7.53736 1
gene 1 2 4 -1.13758 0 2 -1.13758 1
gene 1 3 4 -7.49894 0 3 -7.49894 1
gene 3 2 23 7.90174 0 40 7.90174 1
gene 3 23 4 -4.85158 0 41 -4.85158 1
gene 1 1 23 -1.8923 0 78 -1.8923 1
gene 2 3 23 -1.30173 0 130 -1.30173 1
gene 2 3 62 6.36038 0 139 6.36038 1
gene 2 62 23 -2.49232 0 140 -2.49232 1
gene 1 62 4 7.60546 0 152 7.60546 1
gene 1 1 62 5.38887 0 173 5.38887 1
gene 2 2 62 -1.33204 0 251 -1.33204 0
gene 2 2 132 3.67437 0 380 3.67437 1
gene 2 132 62 -0.557396 0 381 -0.557396 1
gene 2 2 155 -0.128 0 461 -0.128 1
gene 2 155 132 -1.69436 0 462 -1.69436 1
gene 3 1 155 1.37789 0 546 1.37789 1
genomeend 7

/* Organism #8 Fitness: 15.9046 Error: 0.0119455 */
genomestart 8
trait 1 0.1 0.0540886 0 0 0.0123676 0.0104437 0 0.0127597 
trait 2 0.143989 0.393233 0.105077 0 0.459931 0 0.30569 1 
trait 3 0.286753 0 0 0 0.00145798 0 0.0464483 0.00501003 
node 1 1 1 3
node 2 3 1 1
node 3 3 1 1
node 4 2 0 2
node 23 1 0 0
node 62 1 0 0
node 132 1 0 0
node 155 1 0 0
gene 2 1 4 8 0 1 8 1
gene 1 2 4 -5.23448 0 2 -5.23448 1
gene 1 3 4 -2.19686 0 3 -2.19686 1
gene 3 2 23 8 0 40 8 1
gene 3 23 4 -7.48798 0 41 -7.48798 1
gene 1 1 23 -3.41934 0 78 -3.41934 1
gene 2 3 23 2.69993 0 130 2.69993 1
gene 2 3 62 1.19599 0 139 1.19599 1
gene 2 62 23 -0.564973 0 140 -0.564973 1
gene 1 62 4 5.6565 0 152 5.6565 1
gene 1 1 62 3.86154 0 173 3.86154 1
gene 2 2 62 -4.03152 0 251 -4.03152 0
gene 2 2 132 3.60953 0 380 3.60953 0
gene 2 132 62 -0.387938 0 381 -0.387938 1
gene 2 2 155 -0.761889 0 461 -0.761889 1
gene 2 155 132 -3.19166 0 462 -3.19166 1
gene 3 1 155 -0.217975 0 546 -0.217975 1
genomeend 8

/* Organism #9 Fitness: 16 Error: 5.15077e-06 */
genomestart 9
trait 1 0.1 0.0540886 0 0 0.0123676 0.0104437 0 0.0127597 
trait 2 0.143989 0.393233 0.105077 0 0.459931 0 0.30569 1 
trait 3 0.286753 0 0 0 0.00145798 0 0.0464483 0.00501003 
node 1 1 1 3
node 2 3 1 1
node 3 3 1 1
node 4 2 0 2
node 23 1 0 0
node 62 1 0 0
node 132 1 0 0
node 155 1 0 0
gene 2 1 4 7.53535 0 1 7.53535 1
gene 1 2 4 -2.33486 0 2 -2.33486 1
gene 1 3 4 -8 0 3 -8 1
gene 3 2 23 8 0 40 8 1
gene 3 23 4 -8 0 41 -8 1
gene 1 1 23 -2.21784 0 78 -2.21784 1
gene 2 3 23 0.773521 0 130 0.773521 1
gene 2 3 62 7.07529 0 139 7.07529 1
gene 2 62 23 -3.93717 0 140 -3.93717 1
gene 1 62 4 5.27133 0 152 5.27133 1
gene 1 1 62 5.24407 0 173 5.24407 1
gene 2 2 62 0.864931 0 251 0.864931 0
gene 2 2 132 2.20184 0 380 2.20184 0
gene 2 132 62 -2.14247 0 381 -2.14247 1
gene 2 2 155 2.14342 0 461 2.14342 1
gene 2 155 132 -1.69436 0 462 -1.69436 1
gene 3 1 155 -0.0516182 0 546 -0.0516182 1
genomeend 9

/* Organism #10 Fitness: 9.00297 Error: 0.999505 */
genomestart 10
trait 1 0.1 0.0540886 0 0 0.0123676 0.0104437 0 0.0127597 
trait 2 0.143989 0.393233 0.105077 0 0.459931 0 0.30569 1 
trait 3 0.286753 0 0 0 0.00145798 0 0.0464483 0.00501003 
node 1 1 1 3
node 2 3 1 1
node 3 3 1 1
node 4 2 0 2
node 23 1 0 0
node 62 1 0 0
node 132 1 0 0
node 155 1 0 0
node 234 1 0 0
gene 2 1 4 8 0 1 8 1
gene 1 2 4 -0.964521 0 2 -0.964521 1
gene 1 3 4 -6.16767 0 3 -6.16767 1
gene 3 2 23 8 0 40 8 1
gene 3 23 4 -5.19294 0 41 -5.19294 1
gene 1 1 23 -2.94037 0 78 -2.94037 1
gene 2 3 23 1.03548 0 130 1.03548 1
gene 2 3 62 8 0 139 8 1
gene 2 62 23 -2.56584 0 140 -2.56584 1
gene 1 62 4 4.6094 0 152 4.6094 0
gene 1 1 62 5.29237 0 173 5.29237 1
gene 2 2 62 -1.04229 0 251 -1.04229 0
gene 2 2 132 2.80807 0 380 2.80807 0
gene 2 132 62 -1.29681 0 381 -1.29681 1
gene 2 2 155 -2.08387 0 461 -2.08387 1
gene 2 155 132 -2.82907 0 462 -2.82907 1
gene 3 1 155 -1.60928 0 546 -1.60928 1
gene 1 62 234 1 0 726 1 1
gene 1 234 4 5.91325 0 727 5.91325 1
genomeend 10

/* Organism #11 Fitness: 8.87238 Error: 1.02135 */
genomestart 11
trait 1 0.1 0.0540886 0 0 0.0123676 0.0104437 0 0.0127597 
trait 2 0.143989 0.393233 0.105077 0 0.459931 0 0.30569 1 
trait 3 0.286753 0 0 0 0.00145798 0 0.0464483 0.00501003 
node 1 1 1 3
node 2 3 1 1
node 3 3 1 1
node 4 2 0 2
node 23 1 0 0
node 62 1 0 0
node 132 1 0 0
node 155 1 0 0
gene 2 1 4 6.8503 0 1 6.8503 1
gene 1 2 4 2.18271 0 2 2.18271 1
gene 1 3 4 -8 0 3 -8 1
gene 3 2 23 7.11385 0 40 7.11385 1
gene 3 23 4 -5.43921 0 41 -5.43921 1
gene 1 1 23 1.92309 0 78 1.92309 1
gene 2 3 23 1.86726 0 130 1.86726 1
gene 2 3 62 8 0 139 8 1
gene 2 62 23 1.33089 0 140 1.33089 1
gene 1 62 4 -2.19822 0 152 -2.19822 1
gene 1 1 62 6.31363 0 173 6.31363 1
gene 2 2 62 -2.33251 0 251 -2.33251 0
gene 2 2 132 3.24455 0 380 3.24455 0
gene 2 132 62 -0.597468 0 381 -0.597468 1
gene 2 2 155 0.00279763 0 461 0.00279763 1
gene 2 155 132 -0.546118 0 462 -0.546118 1
gene 3 1 155 -1.8902 0 546 -1.8902 1
genomeend 11

/* Organism #12 Fitness: 6.25001 Error: 1.5 */
genomestart 12
trait 1 0.1 0.0540886 0 0 0.0123676 0.0104437 0 0.0127597 
trait 2 0.143989 0.393233 0.105077 0 0.459931 0 0.30569 1 
trait 3 0.286753 0 0 0 0.00145798 0 0.0464483 0.00501003 
node 1 1 1 3
node 2 3 1 1
node 3 3 1 1
node 4 2 0 2
node 23 1 0 0
node 62 1 0 0
node 132 1 0 0
node 155 1 0 0
gene 2 1 4 8 0 1 8 1
gene 1 2 4 -3.45524 0 2 -3.45524 1
gene 1 3 4 -8 0 3 -8 1
gene 3 2 23 8 0 40 8 1
gene 3 23 4 -7.19925 0 41 -7.19925 1
gene 1 1 23 -3.41934 0 78 -3.41934 1
gene 2 3 23 1.15961 0 130 1.15961 1
gene 2 3 62 8 0 139 8 1
gene 2 62 23 -2.09127 0 140 -2.09127 1
gene 1 62 4 6.39857 0 152 6.39857 0
gene 1 1 62 4.83262 0 173 4.83262 1
gene 2 2 62 -1.63386 0 251 -1.63386 0
gene 2 2 132 3.24455 0 380 3.24455 1
gene 2 132 62 -0.387938 0 381 -0.387938 1
gene 2 2 155 0.00279763 0 461 0.00279763 1
gene 2 155 132 -1.69436 0 462 -1.69436 1
gene 3 1 155 1.37789 0 546 1.37789 1
genomeend 12

/* Species #11 : (Size 8) (AF 12.6354) (Age 51)  */


/* Organism #13 Fitness: 16 Error: 2.68248e-15 */
genomestart 13
trait 1 0.1 0.0540886 0.033849 0.0622569 0.0123676 0.0104437 0 0.0127597 
trait 2 0.143989 0.549203 0.396842 0.0101402 1 0 0.382566 0.394902 
trait 3 0.286753 0 0 0 0.144672 0 0.0464483 0.00501003 
node 1 3 1 3
node 2 3 1 1
node 3 3 1 1
node 4 2 0 2
node 23 1 0 0
node 62 1 0 0
gene 2 1 4 3.38731 0 1 3.38731 1
gene 3 2 4 -7.04107 0 2 -7.04107 1
gene 1 3 4 -4.2264 0 3 -4.2264 1
gene 3 2 23 -0.471439 0 40 -0.471439 1
gene 3 23 4 2.46467 0 41 2.46467 1
gene 1 1 23 -0.378987 0 78 -0.378987 1
gene 2 3 23 -0.300339 0 130 -0.300339 0
gene 2 3 62 -2.90322 0 139 -2.90322 1
gene 2 62 23 2.47212 0 140 2.47212 1
gene 2 62 4 8 0 152 8 1
gene 1 2 62 -4.04892 0 166 -4.04892 1
gene 3 1 62 5.63487 0 184 5.63487 1
genomeend 13

/* Organism #14 Fitness: 15.2305 Error: 0.097368 */
genomestart 14
trait 1 0.561078 0.0604217 0 0 0 0 0 0 
trait 2 0.143989 0.549203 0.396842 0.0101402 1 0 0.382566 0.394902 
trait 3 0.286753 0 0 0 0.144672 0 0.0464483 0.00501003 
node 1 3 1 3
node 2 3 1 1
node 3 3 1 1
node 4 2 0 2
node 23 1 0 0
node 62 1 0 0
gene 2 1 4 2.56041 0 1 2.56041 1
gene 3 2 4 -5.15302 0 2 -5.15302 1
gene 1 3 4 -2.18686 0 3 -2.18686 1
gene 3 2 23 -1.68821 0 40 -1.68821 1
gene 3 23 4 4.46233 0 41 4.46233 1
gene 1 1 23 -0.393393 0 78 -0.393393 1
gene 2 3 23 0.775806 0 130 0.775806 0
gene 2 3 62 -3.26867 0 139 -3.26867 1
gene 2 62 23 0.330667 0 140 0.330667 1
gene 2 62 4 8 0 152 8 1
gene 1 2 62 -5.7338 0 166 -5.7338 1
gene 3 1 62 5.63487 0 184 5.63487 1
genomeend 14

/* Organism #15 Fitness: 15.9994 Error: 7.84446e-05 */
genomestart 15
trait 1 0.1 0.0540886 0.033849 0.0622569 0.0123676 0.0104437 0 0.0127597 
trait 2 0.143989 0.549203 0.396842 0.0101402 1 0 0.382566 0.394902 
trait 3 0.286753 0 0 0 0.144672 0 0.0464483 0.00501003 
node 1 3 1 3
node 2 3 1 1
node 3 3 1 1
node 4 2 0 2
node 23 1 0 0
node 62 1 0 0
gene 2 1 4 3.92938 0 1 3.92938 1
gene 3 2 4 -5.06921 0 2 -5.06921 1
gene 1 3 4 -2.42444 0 3 -2.42444 1
gene 3 2 23 -0.301449 0 40 -0.301449 1
gene 3 23 4 1.26529 0 41 1.26529 1
gene 1 1 23 -2.68892 0 78 -2.68892 1
gene 2 3 23 -2.23782 0 130 -2.23782 0
gene 2 3 62 -0.483109 0 139 -0.483109 1
gene 2 62 23 1.32852 0 140 1.32852 1
gene 2 62 4 8 0 152 8 1
gene 1 2 62 -3.83546 0 166 -3.83546 1
gene 3 1 62 4.04405 0 184 4.04405 1
genomeend 15

/* Organism #16 Fitness: 16 Error: 9.01732e-14 */
genomestart 16
trait 1 0.1 0.0540886 0.033849 0.0622569 0.0123676 0.0104437 0 0.0127597 
trait 2 0.143989 0.549203 0.396842 0.0101402 1 0 0.382566 0.394902 
trait 3 0.286753 0 0 0 0.144672 0 0.0464483 0.00501003 
node 1 3 1 3
node 2 3 1 1
node 3 3 1 1
node 4 2 0 2
node 23 1 0 0
node 62 1 0 0
node 241 1 0 0
gene 2 1 4 3.38731 0 1 3.38731 1
gene 3 2 4 -7.04107 0 2 -7.04107 0
gene 1 3 4 -4.2264 0 3 -4.2264 1
gene 3 2 23 -0.471439 0 40 -0.471439 1
gene 3 23 4 2.46467 0 41 2.46467 1
gene 1 1 23 -0.378987 0 78 -0.378987 1
gene 2 3 23 -0.300339 0 130 -0.300339 0
gene 2 3 62 -2.90322 0 139 -2.90322 1
gene 2 62 23 2.47212 0 140 2.47212 1
gene 2 62 4 8 0 152 8 1
gene 1 2 62 -4.04892 0 166 -4.04892 1
gene 3 1 62 5.63487 0 184 5.63487 1
gene 3 2 241 1 0 752 0 1
gene 3 241 4 -7.04107 0 753 0 1
genomeend 16

/* Organism #17 Fitness: 16 Error: 2.40716e-06 */
genomestart 17
trait 1 0.1 0.0540886 0.033849 0.0622569 0.0123676 0.0104437 0 0.0127597 
trait 2 0.143989 0.549203 0.396842 0.0101402 1 0 0.382566 0.394902 
trait 3 0.286753 0 0 0 0.144672 0 0.0464483 0.00501003 
node 1 3 1 3
node 2 3 1 1
node 3 3 1 1
node 4 2 0 2
node 23 1 0 0
node 62 1 0 0
gene 2 1 4 5.29591 0 1 5.29591 1
gene 3 2 4 -8 0 2 -8 1
gene 1 3 4 -4.99405 0 3 -4.99405 1
gene 3 2 23 1.47723 0 40 1.47723 1
gene 3 23 4 0.798182 0 41 0.798182 1
gene 1 1 23 1.04618 0 78 1.04618 1
gene 2 3 23 0.623201 0 130 0.623201 0
gene 2 3 62 -2.07213 0 139 -2.07213 1
gene 2 62 23 4.88104 0 140 4.88104 1
gene 2 62 4 7.36026 0 152 7.36026 1
gene 1 2 62 -5.45631 0 166 -5.45631 1
gene 3 1 62 5.55219 0 184 5.55219 1
genomeend 17

/* Organism #18 Fitness: 9 Error: 1 */
genomestart 18
trait 1 0.1 0.0540886 0.033849 0.0622569 0.0123676 0.0104437 0 0.0127597 
trait 2 0.143989 0.549203 0.396842 0.0101402 1 0 0.382566 0.394902 
trait 3 0.286753 0 0 0 0.144672 0 0.0464483 0.00501003 
node 1 3 1 3
node 2 3 1 1
node 3 3 1 1
node 4 2 0 2
node 23 1 0 0
node 62 1 0 0
gene 2 1 4 1.27211 0 1 1.27211 1
gene 3 2 4 -8 0 2 -8 1
gene 1 3 4 -1.77446 0 3 -1.77446 1
gene 3 2 23 -1.21122 0 40 -1.21122 1
gene 3 23 4 3.83467 0 41 3.83467 1
gene 1 1 23 -0.996184 0 78 -0.996184 1
gene 2 3 23 -0.391866 0 130 -0.391866 0
gene 2 3 62 -3.2463 0 139 -3.2463 1
gene 2 62 23 3.34203 0 140 3.34203 1
gene 2 62 4 8 0 152 8 1
gene 1 2 62 0.108217 0 166 0.108217 1
gene 3 1 62 4.72381 0 184 4.72381 1
genomeend 18

/* Organism #19 Fitness: 3.85367 Error: 2.03692 */
genomestart 19
trait 1 0.1 0.0540886 0.033849 0.0622569 0.0123676 0.0104437 0 0.0127597 
trait 2 0.143989 0.549203 0.396842 0.0101402 1 0 0.382566 0.394902 
trait 3 0.286753 0 0 0 0.144672 0 0.0464483 0.00501003 
node 1 3 1 3
node 2 3 1 1
node 3 3 1 1
node 4 2 0 2
node 23 1 0 0
node 62 1 0 0
gene 2 1 4 3.38731 0 1 3.38731 1
gene 3 2 4 1.14677 0 2 1.14677 1
gene 1 3 4 -2.94953 0 3 -2.94953 1
gene 3 2 23 1.27349 0 40 1.27349 1
gene 3 23 4 0.0121472 0 41 0.0121472 1
gene 1 1 23 0.743455 0 78 0.743455 1
gene 2 3 23 -2.49135 0 130 -2.49135 0
gene 2 3 62 -1.3304 0 139 -1.3304 1
gene 2 62 23 4.04777 0 140 4.04777 1
gene 2 62 4 0.211589 0 152 0.211589 1
gene 1 2 62 -0.477981 0 166 -0.477981 1
gene 3 1 62 7.1331 0 184 7.1331 1
genomeend 19

/* Organism #20 Fitness: 9.00002 Error: 0.999997 */
genomestart 20
trait 1 0.4567 0.0540886 0.303602 0.0622569 0.0123676 0 0 0 
trait 2 0.143989 0.549203 0.396842 0.0101402 1 0 0.382566 0.394902 
trait 3 0.286753 0 0 0 0.144672 0 0.0464483 0.00501003 
node 1 3 1 3
node 2 3 1 1
node 3 3 1 1
node 4 2 0 2
node 23 1 0 0
node 62 1 0 0
gene 2 1 4 4.15554 0 1 4.15554 1
gene 3 2 4 -5.5846 0 2 -5.5846 1
gene 1 3 4 -2.15386 0 3 -2.15386 1
gene 3 2 23 0.474313 0 40 0.474313 1
gene 3 23 4 -1.8375 0 41 -1.8375 1
gene 1 1 23 0.947035 0 78 0.947035 1
gene 2 3 23 2.4019 0 130 2.4019 0
gene 2 3 62 -3.61521 0 139 -3.61521 1
gene 2 62 23 2.01138 0 140 2.01138 1
gene 2 62 4 8 0 152 8 1
gene 1 2 62 1.1385 0 166 1.1385 1
gene 3 1 62 7.5276 0 184 7.5276 1
genomeend 20

/* Species #12 : (Size 7) (AF 14.2637) (Age 47)  */


/* Organism #21 Fitness: 16 Error: 6.76622e-09 */
genomestart 21
trait 1 0.311131 0.0446231 0.167149 0 0.153012 0 0 0.0312623 
trait 2 1 0 0.0430417 0.00887263 0.0918419 0.856818 0 0.46423 
trait 3 0.290573 0 0.00143787 0 0.00360311 0.00287801 0.0334238 0.00360096 
node 1 1 1 3
node 2 3 1 1
node 3 3 1 1
node 4 1 0 2
node 23 3 0 0
node 79 1 0 0
node 84 1 0 0
gene 2 1 4 7.92551 0 1 7.92551 1
gene 1 2 4 -8 0 2 -8 1
gene 1 3 4 -7.8743 0 3 -7.8743 1
gene 3 2 23 0.448994 0 40 0.448994 1
gene 3 23 4 5.34537 0 41 5.34537 0
gene 2 3 23 2.74721 0 44 2.74721 1
gene 3 1 23 3.05011 0 106 3.05011 1
gene 3 23 79 1.02897 0 200 1.02897 1
gene 3 79 4 -3.04157 0 201 -3.04157 1
gene 3 23 84 4.73582 0 215 4.73582 1
gene 3 84 4 5.97328 0 216 5.97328 1
gene 2 3 84 4.71439 0 293 4.71439 1
gene 3 2 84 4.83208 0 318 4.83208 1
gene 1 84 79 0.471965 0 445 0.471965 1
gene 3 3 79 1.20714 0 475 1.20714 1
gene 3 1 79 -2.52783 0 560 -2.52783 1
genomeend 21

/* Organism #22 Fitness: 4 Error: 2 */
genomestart 22
trait 1 0.311131 0.0446231 0.167149 0 0.153012 0 0 0.0312623 
trait 2 1 0 0.0430417 0.00887263 0.0918419 0.856818 0 0.46423 
trait 3 0.290573 0 0.00143787 0 0.00360311 0.00287801 0.0334238 0.00360096 
node 1 1 1 3
node 2 3 1 1
node 3 3 1 1
node 4 1 0 2
node 23 3 0 0
node 79 1 0 0
node 84 1 0 0
gene 2 1 4 -1.56093 0 1 -1.56093 1
gene 1 2 4 -7.91434 0 2 -7.91434 1
gene 1 3 4 -7.0913 0 3 -7.0913 1
gene 3 2 23 0.701929 0 40 0.701929 1
gene 3 23 4 2.14791 0 41 2.14791 0
gene 2 3 23 2.89693 0 44 2.89693 1
gene 3 1 23 1.72436 0 106 1.72436 1
gene 3 23 79 0.484481 0 200 0.484481 1
gene 3 79 4 -0.745145 0 201 -0.745145 1
gene 3 23 84 3.73045 0 215 3.73045 1
gene 3 84 4 4.91838 0 216 4.91838 1
gene 2 3 84 8 0 293 8 1
gene 3 2 84 4.19483 0 318 4.19483 1
gene 1 84 79 0.771211 0 445 0.771211 1
gene 3 3 79 1.44374 0 475 1.44374 1
gene 3 1 79 -2.78755 0 560 -2.78755 1
genomeend 22

/* Organism #23 Fitness: 15.9923 Error: 0.000967815 */
genomestart 23
trait 1 0.311131 0.0446231 0.167149 0 0.153012 0 0 0.0312623 
trait 2 1 0 0.0430417 0.00887263 0.0918419 0.856818 0 0.46423 
trait 3 0.290573 0 0.00143787 0 0.00360311 0.00287801 0.0334238 0.00360096 
node 1 1 1 3
node 2 3 1 1
node 3 3 1 1
node 4 1 0 2
node 23 3 0 0
node 79 1 0 0
node 84 1 0 0
gene 2 1 4 7.71017 0 1 7.71017 1
gene 1 2 4 -8 0 2 -8 1
gene 1 3 4 -7.75424 0 3 -7.75424 1
gene 3 2 23 -0.481248 0 40 -0.481248 1
gene 3 23 4 7.50398 0 41 7.50398 0
gene 2 3 23 1.06176 0 44 1.06176 1
gene 3 1 23 2.41484 0 106 2.41484 1
gene 3 23 79 0.36812 0 200 0.36812 1
gene 3 79 4 -1.40212 0 201 -1.40212 1
gene 3 23 84 5.03245 0 215 5.03245 1
gene 3 84 4 6.63636 0 216 6.63636 1
gene 2 3 84 5.00896 0 293 5.00896 1
gene 3 2 84 4.10017 0 318 4.10017 1
gene 1 84 79 0.032146 0 445 0.032146 1
gene 3 3 79 1.82427 0 475 1.82427 1
gene 3 1 79 -3.6088 0 560 -3.6088 1
genomeend 23

/* Organism #24 Fitness: 15.9719 Error: 0.00351618 */
genomestart 24
trait 1 0.311131 0.0446231 0.167149 0 0.153012 0 0 0.0312623 
trait 2 1 0 0.0430417 0.00887263 0.0918419 0.856818 0 0.46423 
trait 3 0.290573 0 0.00143787 0 0.00360311 0.00287801 0.0334238 0.00360096 
node 1 1 1 3
node 2 3 1 1
node 3 3 1 1
node 4 1 0 2
node 23 3 0 0
node 79 1 0 0
node 84 1 0 0
gene 2 1 4 8 0 1 8 1
gene 1 2 4 -8 0 2 -8 1
gene 1 3 4 -8 0 3 -8 1
gene 3 2 23 2.52513 0 40 2.52513 1
gene 3 23 4 4.60542 0 41 4.60542 0
gene 2 3 23 2.6496 0 44 2.6496 1
gene 3 1 23 5.08621 0 106 5.08621 1
gene 3 23 79 0.476091 0 200 0.476091 1
gene 3 79 4 -1.87765 0 201 -1.87765 1
gene 3 23 84 3.60155 0 215 3.60155 1
gene 3 84 4 6.85327 0 216 6.85327 1
gene 2 3 84 3.26636 0 293 3.26636 1
gene 3 2 84 4.34178 0 318 4.34178 1
gene 1 84 79 -0.115945 0 445 -0.115945 1
gene 3 3 79 1.30386 0 475 1.30386 1
gene 3 1 79 -4.19553 0 560 -4.19553 1
genomeend 24

/* Organism #25 Fitness: 15.9996 Error: 4.82438e-05 */
genomestart 25
trait 1 0.311131 0.0446231 0.167149 0 0.153012 0 0 0.0312623 
trait 2 1 0 0.0430417 0.00887263 0.0918419 0.856818 0 0.46423 
trait 3 0.290573 0 0.00143787 0 0.00360311 0.00287801 0.0334238 0.00360096 
node 1 1 1 3
node 2 3 1 1
node 3 3 1 1
node 4 1 0 2
node 23 3 0 0
node 79 1 0 0
node 84 1 0 0
gene 2 1 4 6.93289 0 1 6.93289 1
gene 1 2 4 -6.34827 0 2 -6.34827 1
gene 1 3 4 -8 0 3 -8 1
gene 3 2 23 -0.875424 0 40 -0.875424 1
gene 3 23 4 5.61776 0 41 5.61776 0
gene 2 3 23 2.89693 0 44 2.89693 1
gene 3 1 23 4.12483 0 106 4.12483 1
gene 3 23 79 -1.2596 0 200 -1.2596 1
gene 3 79 4 -1.12824 0 201 -1.12824 1
gene 3 23 84 5.90488 0 215 5.90488 1
gene 3 84 4 5.39711 0 216 5.39711 1
gene 2 3 84 6.91943 0 293 6.91943 1
gene 3 2 84 5.01845 0 318 5.01845 1
gene 1 84 79 0.135874 0 445 0.135874 1
gene 3 3 79 1.82427 0 475 1.82427 1
gene 3 1 79 -2.52783 0 560 -2.52783 1
genomeend 25

/* Organism #26 Fitness: 15.882 Error: 0.0147755 */
genomestart 26
trait 1 0.311131 0.0446231 0.167149 0 0.153012 0 0 0.0312623 
trait 2 1 0 0.0430417 0.00887263 0.0918419 0.856818 0 0.46423 
trait 3 0.290573 0 0.00143787 0 0.00360311 0.00287801 0.0334238 0.00360096 
node 1 1 1 3
node 2 3 1 1
node 3 1 1 1
node 4 1 0 2
node 23 3 0 0
node 79 1 0 0
node 84 1 0 0
gene 2 1 4 8 0 1 8 1
gene 1 2 4 -8 0 2 -8 1
gene 1 3 4 -7.09032 0 3 -7.09032 1
gene 3 2 23 1.62327 0 40 1.62327 1
gene 3 23 4 7.56032 0 41 7.56032 0
gene 2 3 23 2.52855 0 44 2.52855 1
gene 3 1 23 4.84177 0 106 4.84177 1
gene 3 23 79 -0.940794 0 200 -0.940794 1
gene 3 79 4 -1.51054 0 201 -1.51054 1
gene 3 23 84 4.56027 0 215 4.56027 1
gene 3 84 4 6.23742 0 216 6.23742 1
gene 2 3 84 4.78607 0 293 4.78607 1
gene 3 2 84 7.0076 0 318 7.0076 1
gene 1 84 79 0.0439032 0 445 0.0439032 1
gene 3 3 79 0.0448492 0 475 0.0448492 1
gene 3 1 79 -2.21873 0 560 -2.21873 1
genomeend 26

/* Organism #27 Fitness: 16 Error: 5.32141e-09 */
genomestart 27
trait 1 0.311131 0.0446231 0.167149 0 0.153012 0 0 0.0312623 
trait 2 1 0 0.0430417 0.00887263 0.0918419 0.856818 0 0.46423 
trait 3 0.290573 0 0.00143787 0 0.00360311 0.00287801 0.0334238 0.00360096 
node 1 1 1 3
node 2 3 1 1
node 3 3 1 1
node 4 1 0 2
node 23 3 0 0
node 79 1 0 0
node 84 1 0 0
gene 2 1 4 7.92551 0 1 7.92551 1
gene 1 2 4 -8 0 2 -8 1
gene 1 3 4 -7.8743 0 3 -7.8743 1
gene 3 2 23 0.448994 0 40 0.448994 1
gene 3 23 4 5.34537 0 41 5.34537 0
gene 2 3 23 2.74721 0 44 2.74721 1
gene 3 1 23 3.05011 0 106 3.05011 1
gene 3 23 79 1.02897 0 200 1.02897 1
gene 3 79 4 -3.04157 0 201 -3.04157 1
gene 3 23 84 4.73582 0 215 4.73582 1
gene 3 84 4 5.97328 0 216 5.97328 1
gene 2 3 84 4.71439 0 293 4.71439 1
gene 3 2 84 4.83208 0 318 4.83208 1
gene 1 84 79 0.471965 0 445 0.471965 1
gene 3 3 79 1.20714 0 475 1.20714 1
gene 3 1 79 -2.52783 0 560 -2.52783 1
gene 2 2 79 0.647012 0 754 0.647012 1
genomeend 27

/* Species #15 : (Size 7) (AF 13.6073) (Age 46)  */


/* Organism #28 Fitness: 16 Error: 1.44202e-10 */
genomestart 28
trait 1 0.1 0.0576945 0 0 0 0 0 0.0136104 
trait 2 0.593919 0 0.0821528 0.0202803 0.593712 0 0 0.277109 
trait 3 0.263249 0 0.023181 0 0.281361 0 0.0426411 0.00501003 
node 1 3 1 3
node 2 3 1 1
node 3 3 1 1
node 4 1 0 2
node 23 1 0 0
node 55 1 0 0
node 81 1 0 0
node 126 1 0 0
gene 2 1 4 8 0 1 8 1
gene 3 2 4 -8 0 2 -8 1
gene 1 3 4 -8 0 3 -8 1
gene 3 2 23 -3.42816 0 40 -3.42816 1
gene 3 23 4 4.39322 0 41 4.39322 1
gene 2 3 23 -7.36507 0 44 -7.36507 0
gene 2 3 55 3.92908 0 117 3.92908 1
gene 2 55 4 0.435801 0 118 0.435801 1
gene 2 1 55 0.137833 0 143 0.137833 1
gene 2 3 81 1.1737 0 206 1.1737 0
gene 2 81 23 5.30988 0 207 5.30988 1
gene 3 1 81 0.0562688 0 226 0.0562688 1
gene 2 3 126 -2.82832 0 356 -2.82832 1
gene 2 126 81 2.20947 0 357 2.20947 1
genomeend 28

/* Organism #29 Fitness: 5.54338 Error: 1.64556 */
genomestart 29
trait 1 0.1 0.0576945 0 0 0 0 0 0.0136104 
trait 2 0.593919 0 0.0821528 0.0202803 0.593712 0 0 0.277109 
trait 3 0 0 0.023181 0.89863 0 0 0.0426411 0.00501003 
node 1 3 1 3
node 2 3 1 1
node 3 3 1 1
node 4 1 0 2
node 23 1 0 0
node 55 1 0 0
node 81 1 0 0
node 126 1 0 0
gene 2 1 4 8 0 1 8 1
gene 3 2 4 -8 0 2 -8 1
gene 1 3 4 -8 0 3 -8 1
gene 3 2 23 -3.42816 0 40 -3.42816 1
gene 3 23 4 -0.36513 0 41 -0.36513 1
gene 2 3 23 -4.91469 0 44 -4.91469 0
gene 2 3 55 2.05473 0 117 2.05473 1
gene 2 55 4 -0.376732 0 118 -0.376732 1
gene 2 1 55 -1.67102 0 143 -1.67102 1
gene 2 3 81 1.64274 0 206 1.64274 0
gene 2 81 23 4.68661 0 207 4.68661 1
gene 3 1 81 0.822149 0 226 0.822149 1
gene 2 3 126 -2.19336 0 356 -2.19336 1
gene 2 126 81 -1.26765 0 357 -1.26765 1
gene 2 55 126 0.913477 0 728 0.913477 1
gene 3 55 23 0.682516 0 740 0.682516 1
genomeend 29

/* Organism #30 Fitness: 16 Error: 1.03784e-07 */
genomestart 30
trait 1 0.1 0.0576945 0 0 0 0 0 0.0136104 
trait 2 0.593919 0 0.0821528 0.0202803 0.593712 0 0 0.277109 
trait 3 0.263249 0 0.023181 0 0.281361 0 0.0426411 0.00501003 
node 1 3 1 3
node 2 3 1 1
node 3 3 1 1
node 4 1 0 2
node 23 1 0 0
node 55 1 0 0
node 81 1 0 0
node 126 1 0 0
gene 2 1 4 8 0 1 8 1
gene 3 2 4 -8 0 2 -8 1
gene 1 3 4 -8 0 3 -8 1
gene 3 2 23 1.68162 0 40 1.68162 1
gene 3 23 4 4.29812 0 41 4.29812 1
gene 2 3 23 -6.58746 0 44 -6.58746 0
gene 2 3 55 4.90482 0 117 4.90482 1
gene 2 55 4 0.435801 0 118 0.435801 1
gene 2 1 55 0.181778 0 143 0.181778 1
gene 2 3 81 -1.3134 0 206 -1.3134 0
gene 2 81 23 3.9899 0 207 3.9899 1
gene 3 1 81 0.0562688 0 226 0.0562688 1
gene 2 3 126 -1.44519 0 356 -1.44519 1
gene 2 126 81 2.41024 0 357 2.41024 1
gene 2 55 126 -2.91929 0 728 -2.91929 1
gene 3 55 23 -1.0722 0 740 -1.0722 1
genomeend 30

/* Organism #31 Fitness: 16 Error: 1.44202e-10 */
genomestart 31
trait 1 0.1 0.0576945 0 0 0 0 0 0.0136104 
trait 2 0.593919 0 0.0821528 0.0202803 0.593712 0 0 0.277109 
trait 3 0.263249 0 0.023181 0 0.281361 0 0.0426411 0.00501003 
node 1 3 1 3
node 2 3 1 1
node 3 3 1 1
node 4 1 0 2
node 23 1 0 0
node 55 1 0 0
node 81 1 0 0
node 126 1 0 0
gene 2 1 4 8 0 1 8 1
gene 3 2 4 -8 0 2 -8 1
gene 1 3 4 -8 0 3 -8 1
gene 3 2 23 -3.42816 0 40 -3.42816 1
gene 3 23 4 4.39322 0 41 4.39322 1
gene 2 3 23 -7.36507 0 44 -7.36507 0
gene 2 3 55 3.92908 0 117 3.92908 1
gene 2 55 4 0.435801 0 118 0.435801 1
gene 2 1 55 0.137833 0 143 0.137833 1
gene 2 3 81 1.1737 0 206 1.1737 0
gene 2 81 23 5.30988 0 207 5.30988 1
gene 3 1 81 0.0562688 0 226 0.0562688 1
gene 2 3 126 -2.82832 0 356 -2.82832 1
gene 2 126 81 2.20947 0 357 2.20947 1
genomeend 31

/* Organism #32 Fitness: 9.70743 Error: 0.884325 */
genomestart 32
trait 1 0.1 0.0576945 0 0 0 0 0 0.0136104 
trait 2 0.593919 0 0.0821528 0.0202803 0.593712 0 0 0.277109 
trait 3 0.263249 0 0.023181 0 0.281361 0 0.0426411 0.00501003 
node 1 3 1 3
node 2 3 1 1
node 3 3 1 1
node 4 1 0 2
node 23 1 0 0
node 55 1 0 0
node 81 1 0 0
node 126 1 0 0
gene 2 1 4 6.1736 0 1 6.1736 1
gene 3 2 4 -8 0 2 -8 1
gene 1 3 4 -8 0 3 -8 1
gene 3 2 23 -2.32866 0 40 -2.32866 1
gene 3 23 4 5.10588 0 41 5.10588 1
gene 2 3 23 -8 0 44 -8 0
gene 2 3 55 1.88297 0 117 1.88297 1
gene 2 55 4 1.47898 0 118 1.47898 1
gene 2 1 55 0.623275 0 143 0.623275 1
gene 2 3 81 2.67804 0 206 2.67804 0
gene 2 81 23 3.5377 0 207 3.5377 1
gene 3 1 81 -2.17477 0 226 -2.17477 1
gene 2 3 126 -2.38462 0 356 -2.38462 1
gene 2 126 81 0.680773 0 357 0.680773 1
genomeend 32

/* Organism #33 Fitness: 16 Error: 1.65196e-07 */
genomestart 33
trait 1 0.1 0.0576945 0 0 0 0 0 0.0136104 
trait 2 0.593919 0 0.0821528 0.0202803 0.593712 0 0 0.277109 
trait 3 0.263249 0 0.023181 0 0.281361 0 0.0426411 0.00501003 
node 1 3 1 3
node 2 3 1 1
node 3 3 1 1
node 4 1 0 2
node 23 1 0 0
node 55 1 0 0
node 81 1 0 0
node 126 1 0 0
node 242 1 0 0
gene 2 1 4 8 0 1 8 1
gene 3 2 4 -8 0 2 -8 1
gene 1 3 4 -8 0 3 -8 1
gene 3 2 23 -3.42816 0 40 -3.42816 1
gene 3 23 4 4.39322 0 41 4.39322 1
gene 2 3 23 -7.36507 0 44 -7.36507 0
gene 2 3 55 3.92908 0 117 3.92908 1
gene 2 55 4 0.435801 0 118 0.435801 1
gene 2 1 55 0.137833 0 143 0.137833 1
gene 2 3 81 1.1737 0 206 1.1737 0
gene 2 81 23 5.30988 0 207 5.30988 1
gene 3 1 81 0.0562688 0 226 0.0562688 1
gene 2 3 126 -2.82832 0 356 -2.82832 1
gene 2 126 81 2.20947 0 357 2.20947 0
gene 2 126 242 1 0 755 0 1
gene 2 242 81 2.20947 0 756 0 1
genomeend 33

/* Organism #34 Fitness: 16 Error: 1.44202e-10 */
genomestart 34
trait 1 0.894912 0.0576945 0.464985 0 0 0.175679 0 0.0136104 
trait 2 0.593919 0 0.0821528 0.0202803 0.593712 0 0 0.277109 
trait 3 0.263249 0 0.023181 0 0.281361 0 0.0426411 0.00501003 
node 1 3 1 3
node 2 3 1 1
node 3 3 1 1
node 4 1 0 2
node 23 1 0 0
node 55 1 0 0
node 81 1 0 0
node 126 1 0 0
gene 2 1 4 8 0 1 8 1
gene 3 2 4 -8 0 2 -8 1
gene 1 3 4 -8 0 3 -8 1
gene 3 2 23 -3.42816 0 40 -3.42816 1
gene 3 23 4 4.39322 0 41 4.39322 1
gene 2 3 23 -7.36507 0 44 -7.36507 0
gene 2 3 55 3.92908 0 117 3.92908 1
gene 2 55 4 0.435801 0 118 0.435801 1
gene 2 1 55 0.137833 0 143 0.137833 1
gene 2 3 81 1.1737 0 206 1.1737 0
gene 2 81 23 5.30988 0 207 5.30988 1
gene 3 1 81 0.0562688 0 226 0.0562688 1
gene 2 3 126 -2.82832 0 356 -2.82832 1
gene 2 126 81 2.20947 0 357 2.20947 1
genomeend 34

/* Species #19 : (Size 5) (AF 8.88683) (Age 41)  */


/* Organism #35 Fitness: 6.43455 Error: 1.46336 */
genomestart 35
trait 1 0.0667114 0.0384888 0 0 0 0 0 0.00907967 
trait 2 0.15 0.081228 0.0157573 0.0152102 0.0764529 0.240724 0 0.19818 
trait 3 0.530543 0 0.00579524 0 0.0354569 0 0.0144675 0.601548 
node 1 3 1 3
node 2 3 1 1
node 3 3 1 1
node 4 2 0 2
node 23 1 0 0
node 48 3 0 0
node 105 1 0 0
node 226 1 0 0
gene 2 1 4 4.63622 0 1 4.63622 1
gene 3 2 4 -5.38228 0 2 -5.38228 1
gene 1 3 4 -2.94947 0 3 -2.94947 1
gene 3 2 23 5.13239 0 40 5.13239 1
gene 3 23 4 -7.22409 0 41 -7.22409 1
gene 2 3 23 -5.10518 0 44 -5.10518 1
gene 3 23 48 4.55923 0 100 4.55923 1
gene 3 48 4 8 0 101 8 1
gene 3 3 48 -2.0366 0 203 -2.0366 1
gene 3 2 105 2.85692 0 282 2.85692 1
gene 3 105 4 -7.75078 0 283 -7.75078 1
gene 2 23 105 -2.30489 0 421 -2.30489 1
gene 3 1 105 1.55265 0 440 1.55265 1
gene 1 1 23 2.33726 0 504 2.33726 1
gene 1 48 105 -2.29846 0 572 -2.29846 1
gene 2 23 226 2.34007 0 697 2.34007 1
gene 2 226 105 -2.3351 0 698 -2.3351 1
genomeend 35

/* Organism #36 Fitness: 4 Error: 2 */
genomestart 36
trait 1 0.0667114 0.0384888 0 0 0 0 0 0.00907967 
trait 2 0.15 0.081228 0.0157573 0.0152102 0.0764529 0.240724 0 0.19818 
trait 3 0.530543 0 0.00579524 0 0.0354569 0 0.0144675 0.601548 
node 1 3 1 3
node 2 3 1 1
node 3 3 1 1
node 4 2 0 2
node 23 1 0 0
node 48 3 0 0
node 105 1 0 0
node 226 1 0 0
gene 2 1 4 8 0 1 8 1
gene 3 2 4 0.624894 0 2 0.624894 1
gene 1 3 4 -1.69919 0 3 -1.69919 1
gene 3 2 23 3.12119 0 40 3.12119 1
gene 3 23 4 -1.25988 0 41 -1.25988 1
gene 2 3 23 -4.40082 0 44 -4.40082 1
gene 3 23 48 5.92115 0 100 5.92115 1
gene 3 48 4 7.48479 0 101 7.48479 1
gene 3 3 48 -8 0 203 -8 1
gene 3 2 105 0.75783 0 282 0.75783 1
gene 3 105 4 -1.95611 0 283 -1.95611 1
gene 2 23 105 -1.157 0 421 -1.157 1
gene 3 1 105 -2.18124 0 440 -2.18124 1
gene 1 1 23 0.246443 0 504 0.246443 1
gene 1 48 105 -2.04926 0 572 -2.04926 1
gene 2 23 226 1 0 697 1 1
gene 2 226 105 -0.269471 0 698 -0.269471 1
genomeend 36

/* Organism #37 Fitness: 8.99933 Error: 1.00011 */
genomestart 37
trait 1 0.0667114 0.0384888 0 0 0 0 0 0.00907967 
trait 2 0.15 0.081228 0.0157573 0.0152102 0.0764529 0.240724 0 0.19818 
trait 3 0.530543 0 0.00579524 0 0.0354569 0 0.0144675 0.601548 
node 1 3 1 3
node 2 3 1 1
node 3 3 1 1
node 4 2 0 2
node 23 1 0 0
node 48 3 0 0
node 105 1 0 0
node 226 1 0 0
gene 2 1 4 8 0 1 8 1
gene 3 2 4 -7.51135 0 2 -7.51135 1
gene 1 3 4 -1.41835 0 3 -1.41835 1
gene 3 2 23 7.41874 0 40 7.41874 1
gene 3 23 4 -3.5139 0 41 -3.5139 1
gene 2 3 23 -5.63688 0 44 -5.63688 1
gene 3 23 48 5.99415 0 100 5.99415 1
gene 3 48 4 8 0 101 8 1
gene 3 3 48 -1.26816 0 203 -1.26816 1
gene 3 2 105 1.23153 0 282 1.23153 1
gene 3 105 4 -7.51456 0 283 -7.51456 1
gene 2 23 105 -5.35982 0 421 -5.35982 1
gene 3 1 105 1.9544 0 440 1.9544 1
gene 1 1 23 0.512192 0 504 0.512192 1
gene 1 48 105 1.21729 0 572 1.21729 1
gene 2 23 226 0.193695 0 697 0.193695 1
gene 2 226 105 -3.69364 0 698 -3.69364 1
genomeend 37

/* Organism #38 Fitness: 9.00033 Error: 0.999945 */
genomestart 38
trait 1 0.0667114 0.0384888 0 0 0 0 0 0.00907967 
trait 2 0.15 0.081228 0.0157573 0.0152102 0.0764529 0.240724 0 0.19818 
trait 3 0.530543 0 0.00579524 0 0.0354569 0 0.0144675 0.601548 
node 1 3 1 3
node 2 3 1 1
node 3 3 1 1
node 4 2 0 2
node 23 1 0 0
node 48 3 0 0
node 105 1 0 0
node 226 1 0 0
gene 2 1 4 6.70726 0 1 6.70726 1
gene 3 2 4 -5.60025 0 2 -5.60025 1
gene 1 3 4 -0.357775 0 3 -0.357775 1
gene 3 2 23 6.06526 0 40 6.06526 1
gene 3 23 4 -3.60953 0 41 -3.60953 1
gene 2 3 23 -4.48119 0 44 -4.48119 1
gene 3 23 48 5.33958 0 100 5.33958 1
gene 3 48 4 6.25389 0 101 6.25389 1
gene 3 3 48 -5.08682 0 203 -5.08682 1
gene 3 2 105 -1.67696 0 282 -1.67696 1
gene 3 105 4 -6.84011 0 283 -6.84011 1
gene 2 23 105 -4.69689 0 421 -4.69689 1
gene 3 1 105 -0.665528 0 440 -0.665528 1
gene 1 1 23 0.327854 0 504 0.327854 1
gene 1 48 105 1.11931 0 572 1.11931 1
gene 2 23 226 -0.412382 0 697 -0.412382 1
gene 2 226 105 -0.510704 0 698 -0.510704 1
genomeend 38

/* Organism #39 Fitness: 16 Error: 5.39291e-06 */
genomestart 39
trait 1 0.0667114 0.0384888 0 0 0 0 0 0.00907967 
trait 2 0.15 0.081228 0.0157573 0.0152102 0.0764529 0.240724 0 0.19818 
trait 3 0.530543 0 0.00579524 0 0.0354569 0 0.0144675 0.601548 
node 1 3 1 3
node 2 3 1 1
node 3 3 1 1
node 4 2 0 2
node 23 1 0 0
node 48 3 0 0
node 105 1 0 0
node 226 1 0 0
gene 2 1 4 5.68164 0 1 5.68164 1
gene 3 2 4 -7.51907 0 2 -7.51907 1
gene 1 3 4 -3.06066 0 3 -3.06066 1
gene 3 2 23 4.96863 0 40 4.96863 1
gene 3 23 4 -3.57382 0 41 -3.57382 1
gene 2 3 23 -5.54735 0 44 -5.54735 1
gene 3 23 48 6.81619 0 100 6.81619 1
gene 3 48 4 8 0 101 8 1
gene 3 3 48 -6.36902 0 203 -6.36902 1
gene 3 2 105 2.59973 0 282 2.59973 1
gene 3 105 4 -4.34623 0 283 -4.34623 1
gene 2 23 105 -2.3351 0 421 -2.3351 1
gene 3 1 105 -0.267542 0 440 -0.267542 1
gene 1 1 23 0.783927 0 504 0.783927 1
gene 1 48 105 -0.444696 0 572 -0.444696 1
gene 2 23 226 1 0 697 0 1
gene 2 226 105 -2.3351 0 698 -2.3351 1
gene 1 3 105 -0.652827 0 757 -0.652827 1
genomeend 39

/* Species #20 : (Size 8) (AF 12.4404) (Age 41)  */


/* Organism #40 Fitness: 16 Error: 1.35663e-08 */
genomestart 40
trait 1 0 0.0320869 0 0.344672 0.197339 0 0.628476 0.018245 
trait 2 0.2 0 0.0210098 0.0202803 0.0336948 0 0 0.0346538 
trait 3 0.150428 0 0 0 0.000764841 0 0.0243663 0.00501003 
node 1 3 1 3
node 2 3 1 1
node 3 3 1 1
node 4 2 0 2
node 23 1 0 0
node 48 3 0 0
node 106 1 0 0
gene 2 1 4 4.06273 0 1 4.06273 1
gene 3 2 4 -7.56279 0 2 -7.56279 1
gene 1 3 4 -7.69915 0 3 -7.69915 1
gene 3 2 23 1.91178 0 40 1.91178 1
gene 3 23 4 -0.516427 0 41 -0.516427 1
gene 2 3 23 -0.383458 0 44 -0.383458 1
gene 3 23 48 3.84401 0 100 3.84401 1
gene 3 48 4 7.95016 0 101 7.95016 1
gene 1 3 48 1.85848 0 203 1.85848 1
gene 3 3 106 1.94806 0 284 1.94806 1
gene 3 106 48 1.44847 0 285 1.44847 1
gene 3 2 106 0.930351 0 534 0.930351 1
genomeend 40

/* Organism #41 Fitness: 15.9999 Error: 1.02998e-05 */
genomestart 41
trait 1 0 0.0320869 0 0.344672 0.197339 0 0.628476 0.018245 
trait 2 0.2 0 0.0210098 0.0202803 0.0336948 0 0 0.0346538 
trait 3 0.150428 0 0 0 0.000764841 0 0.0243663 0.00501003 
node 1 3 1 3
node 2 3 1 1
node 3 3 1 1
node 4 2 0 2
node 23 1 0 0
node 48 3 0 0
node 106 1 0 0
gene 2 1 4 4.06273 0 1 4.06273 1
gene 3 2 4 -7.56279 0 2 -7.56279 1
gene 1 3 4 -8 0 3 -8 1
gene 3 2 23 0.75986 0 40 0.75986 1
gene 3 23 4 -2.21917 0 41 -2.21917 1
gene 2 3 23 -0.383458 0 44 -0.383458 1
gene 3 23 48 2.03609 0 100 2.03609 1
gene 3 48 4 8 0 101 8 1
gene 1 3 48 1.85848 0 203 1.85848 1
gene 3 3 106 1.94806 0 284 1.94806 1
gene 3 106 48 1.44847 0 285 1.44847 1
gene 3 2 106 0.0432631 0 534 0.0432631 1
genomeend 41

/* Organism #42 Fitness: 16 Error: 8.64011e-07 */
genomestart 42
trait 1 0 0.0320869 0 0.344672 0.197339 0 0.628476 0.018245 
trait 2 0.2 0 0.0210098 0.0202803 0.0336948 0 0 0.0346538 
trait 3 0.150428 0 0 0 0.000764841 0 0.0243663 0.00501003 
node 1 3 1 3
node 2 3 1 1
node 3 3 1 1
node 4 2 0 2
node 23 1 0 0
node 48 3 0 0
node 106 1 0 0
gene 2 1 4 7.81151 0 1 7.81151 1
gene 3 2 4 -7.82524 0 2 -7.82524 1
gene 1 3 4 -8 0 3 -8 1
gene 3 2 23 1.06293 0 40 1.06293 1
gene 3 23 4 -2.87722 0 41 -2.87722 1
gene 2 3 23 -0.350004 0 44 -0.350004 1
gene 3 23 48 0.82788 0 100 0.82788 1
gene 3 48 4 8 0 101 8 1
gene 1 3 48 -0.474071 0 203 -0.474071 1
gene 2 3 106 3.48048 0 284 3.48048 1
gene 3 106 48 0.298367 0 285 0.298367 1
gene 3 2 106 0.0432631 0 534 0.0432631 1
genomeend 42

/* Organism #43 Fitness: 9.00168 Error: 0.99972 */
genomestart 43
trait 1 0 0.0320869 0 0.344672 0.197339 0 0.628476 0.018245 
trait 2 0.2 0 0.0210098 0.0202803 0.0336948 0 0 0.0346538 
trait 3 0.150428 0 0 0 0.000764841 0 0.0243663 0.00501003 
node 1 3 1 3
node 2 3 1 1
node 3 3 1 1
node 4 2 0 2
node 23 1 0 0
node 48 3 0 0
node 106 1 0 0
gene 2 1 4 6.30853 0 1 6.30853 1
gene 3 2 4 -6.68963 0 2 -6.68963 1
gene 1 3 4 -6.6296 0 3 -6.6296 1
gene 3 2 23 1.19689 0 40 1.19689 1
gene 3 23 4 0.980829 0 41 0.980829 1
gene 2 3 23 -1.03902 0 44 -1.03902 1
gene 3 23 48 1.82398 0 100 1.82398 1
gene 3 48 4 8 0 101 8 1
gene 1 3 48 1.58587 0 203 1.58587 1
gene 3 3 106 3.00144 0 284 3.00144 1
gene 3 106 48 1.22003 0 285 1.22003 1
gene 3 2 106 1.41767 0 534 1.41767 1
genomeend 43

/* Organism #44 Fitness: 4 Error: 2 */
genomestart 44
trait 1 0 0.0320869 0 0.344672 0.197339 0 0.628476 0.018245 
trait 2 0.2 0 0.0210098 0.0202803 0.0336948 0 0 0.0346538 
trait 3 0.150428 0 0 0 0.000764841 0 0.0243663 0.00501003 
node 1 3 1 3
node 2 3 1 1
node 3 3 1 1
node 4 2 0 2
node 23 1 0 0
node 48 3 0 0
node 106 1 0 0
gene 2 1 4 3.80021 0 1 3.80021 1
gene 3 2 4 -6.65519 0 2 -6.65519 1
gene 1 3 4 -8 0 3 -8 1
gene 3 2 23 -1.43954 0 40 -1.43954 1
gene 3 23 4 -0.516427 0 41 -0.516427 1
gene 2 3 23 -2.12637 0 44 -2.12637 1
gene 3 23 48 3.54352 0 100 3.54352 1
gene 3 48 4 0.410943 0 101 0.410943 1
gene 1 3 48 -1.18208 0 203 -1.18208 1
gene 3 3 106 -0.927892 0 284 -0.927892 1
gene 3 106 48 -0.341309 0 285 -0.341309 1
gene 3 2 106 1.69372 0 534 1.69372 1
genomeend 44

/* Organism #45 Fitness: 9.02959 Error: 0.995072 */
genomestart 45
trait 1 0 0.0320869 0 0.344672 0.197339 0 0.628476 0.018245 
trait 2 0.2 0 0.0210098 0.0202803 0.0336948 0 0 0.0346538 
trait 3 0.150428 0 0 0 0.000764841 0 0.0243663 0.00501003 
node 1 3 1 3
node 2 3 1 1
node 3 3 1 1
node 4 2 0 2
node 23 1 0 0
node 48 3 0 0
node 106 1 0 0
gene 2 1 4 7.78551 0 1 7.78551 1
gene 3 2 4 -8 0 2 -8 1
gene 1 3 4 -6.70276 0 3 -6.70276 1
gene 3 2 23 -1.06362 0 40 -1.06362 1
gene 3 23 4 -2.14813 0 41 -2.14813 1
gene 2 3 23 -0.174065 0 44 -0.174065 1
gene 3 23 48 -0.498811 0 100 -0.498811 1
gene 3 48 4 8 0 101 8 1
gene 1 3 48 3.67498 0 203 3.67498 1
gene 3 3 106 2.35196 0 284 2.35196 1
gene 3 106 48 1.6348 0 285 1.6348 1
gene 3 2 106 0.0258163 0 534 0.0258163 1
genomeend 45

/* Organism #46 Fitness: 13.4917 Error: 0.32689 */
genomestart 46
trait 1 0 0.0320869 0 0.344672 0.197339 0 0.628476 0.018245 
trait 2 0.2 0 0.0210098 0.0202803 0.0336948 0 0 0.0346538 
trait 3 0.150428 0 0 0 0.000764841 0 0.0243663 0.00501003 
node 1 3 1 3
node 2 3 1 1
node 3 3 1 1
node 4 2 0 2
node 23 1 0 0
node 48 3 0 0
node 106 1 0 0
gene 2 1 4 4.52723 0 1 4.52723 1
gene 3 2 4 -5.54478 0 2 -5.54478 1
gene 1 3 4 -8 0 3 -8 1
gene 3 2 23 4.0466 0 40 4.0466 1
gene 3 23 4 0.870871 0 41 0.870871 1
gene 2 3 23 0.843641 0 44 0.843641 1
gene 3 23 48 4.06147 0 100 4.06147 1
gene 3 48 4 8 0 101 8 1
gene 1 3 48 2.93157 0 203 2.93157 1
gene 3 3 106 3.67194 0 284 3.67194 1
gene 3 106 48 1.44847 0 285 1.44847 1
gene 3 2 106 0.930351 0 534 0.930351 1
genomeend 46

/* Organism #47 Fitness: 16 Error: 1.50594e-07 */
genomestart 47
trait 1 0 0.0320869 0 0.344672 0.197339 0 0.628476 0.018245 
trait 2 0.2 0 0.0210098 0.0202803 0.0336948 0 0 0.0346538 
trait 3 0.150428 0 0 0 0.000764841 0 0.0243663 0.00501003 
node 1 3 1 3
node 2 3 1 1
node 3 3 1 1
node 4 2 0 2
node 23 1 0 0
node 48 3 0 0
node 106 1 0 0
gene 2 1 4 4.08238 0 1 4.08238 1
gene 3 2 4 -8 0 2 -8 1
gene 1 3 4 -8 0 3 -8 1
gene 3 2 23 -1.41867 0 40 -1.41867 1
gene 3 23 4 -1.60779 0 41 -1.60779 1
gene 2 3 23 -0.904005 0 44 -0.904005 1
gene 3 23 48 3.05357 0 100 3.05357 1
gene 3 48 4 7.29816 0 101 7.29816 1
gene 1 3 48 3.33965 0 203 3.33965 1
gene 3 3 106 3.08708 0 284 3.08708 1
gene 3 106 48 0.92484 0 285 0.92484 1
gene 3 2 106 2.35351 0 534 2.35351 1
genomeend 47

/* Species #21 : (Size 7) (AF 13.9335) (Age 39)  */


/* Organism #48 Fitness: 16 Error: 7.70725e-11 */
genomestart 48
trait 1 0.799732 0.0288473 0.251039 0.463087 0 0 0.603997 0.428254 
trait 2 0.2 0.213442 0.0999708 0.0202803 0.0168474 0.132647 0 0.0346538 
trait 3 0 0 0.379153 0 0.0764277 0 0.0313885 0.252965 
node 1 3 1 3
node 2 3 1 1
node 3 3 1 1
node 4 2 0 2
node 23 1 0 0
node 37 1 0 0
node 109 3 0 0
node 152 1 0 0
node 213 1 0 0
node 220 1 0 0
gene 3 1 4 8 0 1 8 1
gene 3 2 4 -4.07039 0 2 -4.07039 1
gene 1 3 4 -4.86983 0 3 -4.86983 1
gene 3 2 23 6.00723 0 40 6.00723 1
gene 3 23 4 -5.00607 0 41 -5.00607 1
gene 1 3 37 -5.30863 0 74 -5.30863 1
gene 1 37 4 5.86423 0 75 5.86423 1
gene 1 3 23 -6.31122 0 169 -6.31122 1
gene 2 1 23 2.42658 0 220 2.42658 1
gene 1 2 37 0.201142 0 235 0.201142 0
gene 1 2 109 -3.37558 0 297 -3.37558 1
gene 1 109 37 8 0 298 8 1
gene 1 109 152 2.24772 0 453 2.24772 1
gene 1 152 37 5.12139 0 454 5.12139 1
gene 2 109 23 2.45983 0 469 2.45983 1
gene 2 152 23 2.94239 0 587 2.94239 1
gene 1 2 213 4.32184 0 661 4.32184 0
gene 1 213 37 -0.0687104 0 662 -0.0687104 1
gene 1 2 220 -0.260149 0 681 -0.260149 1
gene 1 220 213 2.71685 0 682 2.71685 1
genomeend 48

/* Organism #49 Fitness: 8.55564 Error: 1.075 */
genomestart 49
trait 1 0.799732 0.0288473 0.251039 0.463087 0 0 0.603997 0.428254 
trait 2 0.2 0.213442 0.0999708 0.0202803 0.0168474 0.132647 0 0.0346538 
trait 3 0 0 0.379153 0 0.0764277 0 0.0313885 0.252965 
node 1 3 1 3
node 2 3 1 1
node 3 3 1 1
node 4 2 0 2
node 23 1 0 0
node 37 1 0 0
node 109 3 0 0
node 152 1 0 0
node 213 1 0 0
node 220 1 0 0
gene 3 1 4 8 0 1 8 1
gene 3 2 4 -4.27477 0 2 -4.27477 1
gene 1 3 4 -0.27407 0 3 -0.27407 1
gene 3 2 23 4.16896 0 40 4.16896 1
gene 3 23 4 -5.01209 0 41 -5.01209 1
gene 1 3 37 -5.30863 0 74 -5.30863 1
gene 1 37 4 -2.46309 0 75 -2.46309 1
gene 1 3 23 -5.73943 0 169 -5.73943 1
gene 2 1 23 1.47869 0 220 1.47869 1
gene 1 2 37 -1.50165 0 235 -1.50165 0
gene 1 2 109 -4.19679 0 297 -4.19679 1
gene 1 109 37 6.1562 0 298 6.1562 1
gene 1 109 152 2.15339 0 453 2.15339 1
gene 1 152 37 3.84678 0 454 3.84678 1
gene 2 109 23 -0.038833 0 469 -0.038833 1
gene 2 152 23 1.0956 0 587 1.0956 1
gene 1 2 213 2.38311 0 661 2.38311 0
gene 1 213 37 0.455994 0 662 0.455994 1
gene 1 2 220 -0.260149 0 681 -0.260149 1
gene 1 220 213 2.99717 0 682 2.99717 1
genomeend 49

/* Organism #50 Fitness: 16 Error: 3.52992e-09 */
genomestart 50
trait 1 0.799732 0.0288473 0.251039 0.463087 0 0 0.603997 0.428254 
trait 2 0.2 0.213442 0.0999708 0.0202803 0.0168474 0.132647 0 0.0346538 
trait 3 0 0 0.379153 0 0.0764277 0 0.0313885 0.252965 
node 1 3 1 3
node 2 3 1 1
node 3 3 1 1
node 4 2 0 2
node 23 1 0 0
node 37 1 0 0
node 109 3 0 0
node 152 1 0 0
node 213 1 0 0
node 220 1 0 0
node 243 1 0 0
gene 3 1 4 7.20295 0 1 7.20295 1
gene 3 2 4 -2.31805 0 2 -2.31805 1
gene 1 3 4 -3.80456 0 3 -3.80456 1
gene 3 2 23 7.45691 0 40 7.45691 0
gene 3 23 4 -5.03409 0 41 -5.03409 1
gene 1 3 37 -3.79903 0 74 -3.79903 1
gene 1 37 4 5.83048 0 75 5.83048 1
gene 1 3 23 -8 0 169 -8 1
gene 2 1 23 1.86904 0 220 1.86904 1
gene 1 2 37 1.03566 0 235 1.03566 0
gene 1 2 109 -2.62318 0 297 -2.62318 1
gene 1 109 37 8 0 298 8 1
gene 1 109 152 3.21872 0 453 3.21872 1
gene 1 152 37 4.01972 0 454 4.01972 1
gene 2 109 23 1.24255 0 469 1.24255 1
gene 2 152 23 0.770424 0 587 0.770424 1
gene 1 2 213 1.8469 0 661 1.8469 0
gene 1 213 37 -0.87816 0 662 -0.87816 1
gene 1 2 220 -0.260149 0 681 -0.260149 1
gene 1 220 213 2.71685 0 682 2.71685 1
gene 3 2 243 1 0 758 0 1
gene 3 243 23 7.45691 0 759 0 1
genomeend 50

/* Organism #51 Fitness: 15.9786 Error: 0.00267769 */
genomestart 51
trait 1 0.799732 0.0288473 0.251039 0.463087 0 0 0.603997 0.428254 
trait 2 0.2 0.213442 0.0999708 0.0202803 0.0168474 0.132647 0 0.0346538 
trait 3 0 0 0.379153 0 0.0764277 0 0.0313885 0.252965 
node 1 3 1 3
node 2 3 1 1
node 3 3 1 1
node 4 2 0 2
node 23 1 0 0
node 37 1 0 0
node 109 3 0 0
node 152 1 0 0
node 213 1 0 0
node 220 1 0 0
gene 3 1 4 4.71656 0 1 4.71656 1
gene 3 2 4 -2.31805 0 2 -2.31805 1
gene 1 3 4 -3.80456 0 3 -3.80456 1
gene 3 2 23 7.28164 0 40 7.28164 1
gene 2 23 4 -5.46853 0 41 -5.46853 1
gene 1 3 37 -3.79903 0 74 -3.79903 1
gene 1 37 4 4.27246 0 75 4.27246 1
gene 1 3 23 -5.82294 0 169 -5.82294 1
gene 2 1 23 2.27367 0 220 2.27367 1
gene 1 2 37 2.86979 0 235 2.86979 0
gene 1 2 109 -0.706077 0 297 -0.706077 1
gene 1 109 37 8 0 298 8 1
gene 1 109 152 1.93096 0 453 1.93096 1
gene 1 152 37 4.01972 0 454 4.01972 1
gene 2 109 23 -0.382933 0 469 -0.382933 1
gene 2 152 23 -0.716043 0 587 -0.716043 1
gene 1 2 213 -0.120343 0 661 -0.120343 0
gene 1 213 37 -0.87816 0 662 -0.87816 1
gene 1 2 220 -0.691512 0 681 -0.691512 1
gene 1 220 213 2.28178 0 682 2.28178 1
genomeend 51

/* Organism #52 Fitness: 9 Error: 1 */
genomestart 52
trait 1 0.799732 0.0288473 0.251039 0.463087 0 0 0.603997 0.428254 
trait 2 0.2 0.213442 0.0999708 0.0202803 0.0168474 0.132647 0 0.0346538 
trait 3 0 0 0.379153 0 0.0764277 0 0.0313885 0.252965 
node 1 3 1 3
node 2 3 1 1
node 3 3 1 1
node 4 2 0 2
node 23 1 0 0
node 37 1 0 0
node 109 3 0 0
node 152 1 0 0
node 213 1 0 0
node 220 1 0 0
gene 3 1 4 6.58011 0 1 6.58011 1
gene 3 2 4 -5.9214 0 2 -5.9214 1
gene 1 3 4 -2.63427 0 3 -2.63427 1
gene 3 2 23 4.68638 0 40 4.68638 1
gene 3 23 4 1.61424 0 41 1.61424 1
gene 1 3 37 -5.30863 0 74 -5.30863 1
gene 1 37 4 5.86423 0 75 5.86423 1
gene 1 3 23 1.66028 0 169 1.66028 1
gene 2 1 23 2.42658 0 220 2.42658 1
gene 1 2 37 -0.556046 0 235 -0.556046 0
gene 1 2 109 0.555803 0 297 0.555803 1
gene 1 109 37 8 0 298 8 1
gene 1 109 152 1.90259 0 453 1.90259 1
gene 1 152 37 6.02863 0 454 6.02863 1
gene 2 109 23 2.45983 0 469 2.45983 1
gene 2 152 23 1.60763 0 587 1.60763 1
gene 1 2 213 6.26879 0 661 6.26879 0
gene 1 213 37 0.312299 0 662 0.312299 1
gene 1 2 220 -0.260149 0 681 -0.260149 1
gene 1 220 213 0.306083 0 682 0.306083 1
genomeend 52

/* Organism #53 Fitness: 16 Error: 1.64289e-06 */
genomestart 53
trait 1 0.799732 0.0288473 0.251039 0.463087 0 0 0.603997 0.428254 
trait 2 0.2 0.213442 0.0999708 0.0202803 0.0168474 0.132647 0 0.0346538 
trait 3 0 0 0.379153 0 0.0764277 0 0.0313885 0.252965 
node 1 3 1 3
node 2 3 1 1
node 3 3 1 1
node 4 2 0 2
node 23 1 0 0
node 37 1 0 0
node 109 3 0 0
node 152 1 0 0
node 213 1 0 0
node 220 1 0 0
gene 3 1 4 7.41638 0 1 7.41638 1
gene 3 2 4 -3.26905 0 2 -3.26905 1
gene 1 3 4 -3.73203 0 3 -3.73203 1
gene 3 2 23 5.26799 0 40 5.26799 1
gene 3 23 4 -3.14364 0 41 -3.14364 1
gene 1 3 37 -4.97725 0 74 -4.97725 1
gene 1 37 4 6.89328 0 75 6.89328 1
gene 1 3 23 -7.6091 0 169 -7.6091 1
gene 2 1 23 1.82254 0 220 1.82254 1
gene 1 2 37 0.127789 0 235 0.127789 0
gene 1 2 109 -4.1377 0 297 -4.1377 1
gene 1 109 37 8 0 298 8 1
gene 1 109 152 3.76708 0 453 3.76708 1
gene 1 152 37 6.54984 0 454 6.54984 1
gene 2 109 23 0.994659 0 469 0.994659 1
gene 2 152 23 3.04144 0 587 3.04144 1
gene 1 2 213 3.75469 0 661 3.75469 0
gene 1 213 37 -0.0687104 0 662 -0.0687104 1
gene 1 2 220 1.86687 0 681 1.86687 1
gene 1 220 213 2.71685 0 682 2.71685 1
genomeend 53

/* Organism #54 Fitness: 16 Error: 3.52411e-09 */
genomestart 54
trait 1 0.799732 0.0288473 0.251039 0.463087 0 0 0.603997 0.428254 
trait 2 0.2 0.213442 0.0999708 0.0202803 0.0168474 0.132647 0 0.0346538 
trait 3 0 0 0.379153 0 0.0764277 0 0.0313885 0.252965 
node 1 3 1 3
node 2 3 1 1
node 3 3 1 1
node 4 2 0 2
node 23 1 0 0
node 37 1 0 0
node 109 3 0 0
node 152 1 0 0
node 213 1 0 0
node 220 1 0 0
gene 3 1 4 7.20295 0 1 7.20295 1
gene 3 2 4 -2.31805 0 2 -2.31805 1
gene 1 3 4 -3.80456 0 3 -3.80456 1
gene 3 2 23 7.45691 0 40 7.45691 1
gene 3 23 4 -5.03409 0 41 -5.03409 1
gene 1 3 37 -3.79903 0 74 -3.79903 1
gene 1 37 4 5.83048 0 75 5.83048 1
gene 1 3 23 -8 0 169 -8 1
gene 2 1 23 1.86904 0 220 1.86904 1
gene 1 2 37 1.03566 0 235 1.03566 0
gene 1 2 109 -2.62318 0 297 -2.62318 1
gene 1 109 37 8 0 298 8 1
gene 1 109 152 3.21872 0 453 3.21872 1
gene 1 152 37 4.01972 0 454 4.01972 1
gene 2 109 23 1.24255 0 469 1.24255 1
gene 2 152 23 0.770424 0 587 0.770424 1
gene 1 2 213 1.8469 0 661 1.8469 0
gene 1 213 37 -0.87816 0 662 -0.87816 1
gene 1 2 220 -0.260149 0 681 -0.260149 1
gene 1 220 213 2.71685 0 682 2.71685 1
genomeend 54

/* Species #24 : (Size 7) (AF 14.9688) (Age 37)  */


/* Organism #55 Fitness: 16 Error: 3.71177e-08 */
genomestart 55
trait 1 0.1 0.0576945 0 0 0 0 0 0.0136104 
trait 2 0.2 0 0.0210098 0.0202803 0.0336948 0 0 0.0346538 
trait 3 0.928408 0.901072 0.023181 0 0 0.122383 0 0.698748 
node 1 3 1 3
node 2 3 1 1
node 3 1 1 1
node 4 1 0 2
node 23 1 0 0
node 55 1 0 0
node 91 1 0 0
node 118 1 0 0
gene 2 1 4 6.81753 0 1 6.81753 1
gene 3 2 4 -7.91247 0 2 -7.91247 1
gene 1 3 4 -7.51612 0 3 -7.51612 1
gene 3 2 23 2.34918 0 40 2.34918 1
gene 3 23 4 -0.468007 0 41 -0.468007 1
gene 2 3 23 -3.31962 0 44 -3.31962 1
gene 1 3 55 5.07215 0 117 5.07215 1
gene 1 55 4 5.0876 0 118 5.0876 1
gene 2 1 55 3.70738 0 143 3.70738 1
gene 3 2 55 1.59414 0 208 1.59414 1
gene 3 2 91 2.00586 0 240 2.00586 1
gene 3 91 4 -0.557095 0 241 -0.557095 1
gene 3 2 118 5.26984 0 327 5.26984 1
gene 3 118 23 2.43212 0 328 2.43212 1
gene 3 1 118 1.16155 0 337 1.16155 1
gene 1 23 91 -2.61262 0 354 -2.61262 1
genomeend 55

/* Organism #56 Fitness: 16 Error: 3.71177e-08 */
genomestart 56
trait 1 0.1 0.0576945 0 0 0 0 0 0.0136104 
trait 2 0.2 0 0.0210098 0.0202803 0.0336948 0 0 0.0346538 
trait 3 0.928408 0.901072 0.023181 0 0 0.122383 0 0.698748 
node 1 3 1 3
node 2 3 1 1
node 3 1 1 1
node 4 1 0 2
node 23 1 0 0
node 55 1 0 0
node 91 1 0 0
node 118 1 0 0
gene 2 1 4 6.81753 0 1 6.81753 1
gene 3 2 4 -7.91247 0 2 -7.91247 1
gene 1 3 4 -7.51612 0 3 -7.51612 1
gene 3 2 23 2.34918 0 40 2.34918 1
gene 3 23 4 -0.468007 0 41 -0.468007 1
gene 2 3 23 -3.31962 0 44 -3.31962 1
gene 1 3 55 5.07215 0 117 5.07215 1
gene 1 55 4 5.0876 0 118 5.0876 1
gene 2 1 55 3.70738 0 143 3.70738 1
gene 3 2 55 1.59414 0 208 1.59414 1
gene 3 2 91 2.00586 0 240 2.00586 1
gene 3 91 4 -0.557095 0 241 -0.557095 1
gene 3 2 118 5.26984 0 327 5.26984 1
gene 3 118 23 2.43212 0 328 2.43212 1
gene 3 1 118 1.16155 0 337 1.16155 1
gene 1 23 91 -2.61262 0 354 -2.61262 1
genomeend 56

/* Organism #57 Fitness: 15.9999 Error: 8.56707e-06 */
genomestart 57
trait 1 0.1 0.0576945 0 0 0 0 0 0.0136104 
trait 2 0.2 0 0.0210098 0.0202803 0.0336948 0 0 0.0346538 
trait 3 0.928408 0.901072 0.023181 0 0 0.122383 0 0.698748 
node 1 3 1 3
node 2 3 1 1
node 3 1 1 1
node 4 1 0 2
node 23 1 0 0
node 55 1 0 0
node 91 1 0 0
node 118 1 0 0
gene 2 1 4 5.69835 0 1 5.69835 1
gene 3 2 4 -7.91247 0 2 -7.91247 1
gene 1 3 4 -7.51612 0 3 -7.51612 1
gene 3 2 23 2.34918 0 40 2.34918 1
gene 3 23 4 -0.468007 0 41 -0.468007 1
gene 2 3 23 -3.31962 0 44 -3.31962 1
gene 1 3 55 5.07215 0 117 5.07215 1
gene 1 55 4 5.0876 0 118 5.0876 1
gene 2 1 55 0.342193 0 143 0.342193 1
gene 3 2 55 1.59414 0 208 1.59414 1
gene 3 2 91 2.00586 0 240 2.00586 1
gene 3 91 4 -0.557095 0 241 -0.557095 1
gene 3 2 118 5.26984 0 327 5.26984 1
gene 3 118 23 2.43212 0 328 2.43212 1
gene 3 1 118 1.16155 0 337 1.16155 1
gene 1 23 91 -2.61262 0 354 -2.61262 1
genomeend 57

/* Organism #58 Fitness: 13.8928 Error: 0.272696 */
genomestart 58
trait 1 0.1 0.0576945 0 0 0 0 0 0.0136104 
trait 2 0.2 0 0.0210098 0.0202803 0.0336948 0 0 0.0346538 
trait 3 0.928408 0.901072 0.023181 0 0 0.122383 0 0.698748 
node 1 3 1 3
node 2 3 1 1
node 3 1 1 1
node 4 1 0 2
node 23 1 0 0
node 55 1 0 0
node 91 1 0 0
node 118 1 0 0
gene 2 1 4 7.2176 0 1 7.2176 1
gene 3 2 4 -8 0 2 -8 1
gene 1 3 4 -7.51612 0 3 -7.51612 1
gene 3 2 23 -1.7799 0 40 -1.7799 1
gene 3 23 4 -0.0458461 0 41 -0.0458461 1
gene 2 3 23 -3.31962 0 44 -3.31962 1
gene 1 3 55 7.36888 0 117 7.36888 1
gene 1 55 4 7.3914 0 118 7.3914 1
gene 2 1 55 3.70738 0 143 3.70738 1
gene 3 2 55 2.44913 0 208 2.44913 1
gene 3 2 91 2.95392 0 240 2.95392 1
gene 3 91 4 0.707907 0 241 0.707907 1
gene 3 2 118 7.64696 0 327 7.64696 1
gene 3 118 23 -1.28419 0 328 -1.28419 1
gene 3 1 118 -2.44347 0 337 -2.44347 1
gene 1 23 91 -0.235907 0 354 -0.235907 1
genomeend 58

/* Organism #59 Fitness: 16 Error: 3.71177e-08 */
genomestart 59
trait 1 0.1 0.0576945 0 0 0 0 0 0.0136104 
trait 2 0.2 0 0.0210098 0.0202803 0.0336948 0 0 0.0346538 
trait 3 0.928408 0.901072 0.023181 0 0 0.122383 0 0.698748 
node 1 3 1 3
node 2 3 1 1
node 3 1 1 1
node 4 1 0 2
node 23 1 0 0
node 55 1 0 0
node 91 1 0 0
node 118 1 0 0
gene 2 1 4 6.81753 0 1 6.81753 1
gene 3 2 4 -7.91247 0 2 -7.91247 1
gene 1 3 4 -7.51612 0 3 -7.51612 1
gene 3 2 23 2.34918 0 40 2.34918 1
gene 3 23 4 -0.468007 0 41 -0.468007 1
gene 2 3 23 -3.31962 0 44 -3.31962 1
gene 1 3 55 5.07215 0 117 5.07215 1
gene 1 55 4 5.0876 0 118 5.0876 1
gene 2 1 55 3.70738 0 143 3.70738 1
gene 3 2 55 1.59414 0 208 1.59414 1
gene 3 2 91 2.00586 0 240 2.00586 1
gene 3 91 4 -0.557095 0 241 -0.557095 1
gene 3 2 118 5.26984 0 327 5.26984 1
gene 3 118 23 2.43212 0 328 2.43212 1
gene 3 1 118 1.16155 0 337 1.16155 1
gene 1 23 91 -2.61262 0 354 -2.61262 1
gene 2 91 55 0.239972 0 760 0.239972 1
genomeend 59

/* Organism #60 Fitness: 10.9734 Error: 0.687393 */
genomestart 60
trait 1 0.1 0.0576945 0 0 0 0 0 0.0136104 
trait 2 0.2 0 0.0210098 0.0202803 0.0336948 0 0 0.0346538 
trait 3 0.928408 0.901072 0.023181 0 0 0.122383 0 0.698748 
node 1 3 1 3
node 2 3 1 1
node 3 1 1 1
node 4 1 0 2
node 23 1 0 0
node 55 1 0 0
node 91 1 0 0
node 118 1 0 0
gene 2 1 4 4.46515 0 1 4.46515 1
gene 3 2 4 -6.2047 0 2 -6.2047 1
gene 1 3 4 -6.77031 0 3 -6.77031 1
gene 3 2 23 2.22199 0 40 2.22199 1
gene 3 23 4 -2.86579 0 41 -2.86579 1
gene 2 3 23 -0.089997 0 44 -0.089997 1
gene 1 3 55 -0.500577 0 117 -0.500577 1
gene 1 55 4 5.0876 0 118 5.0876 1
gene 2 1 55 2.2957 0 143 2.2957 1
gene 3 2 55 1.59414 0 208 1.59414 1
gene 3 2 91 3.77514 0 240 3.77514 1
gene 3 91 4 -0.277943 0 241 -0.277943 1
gene 3 2 118 2.9506 0 327 2.9506 1
gene 3 118 23 4.35157 0 328 4.35157 1
gene 3 1 118 1.56648 0 337 1.56648 1
gene 1 23 91 -5.02305 0 354 -5.02305 1
genomeend 60

/* Organism #61 Fitness: 15.9154 Error: 0.010586 */
genomestart 61
trait 1 0.1 0.0576945 0 0 0 0 0 0.0136104 
trait 2 0.2 0 0.0210098 0.0202803 0.0336948 0 0 0.0346538 
trait 3 0.928408 0.901072 0.023181 0 0 0.122383 0 0.698748 
node 1 3 1 3
node 2 3 1 1
node 3 1 1 1
node 4 1 0 2
node 23 1 0 0
node 55 1 0 0
node 91 1 0 0
node 118 1 0 0
gene 2 1 4 4.86168 0 1 4.86168 1
gene 3 2 4 -8 0 2 -8 1
gene 1 3 4 -8 0 3 -8 1
gene 3 2 23 4.68325 0 40 4.68325 1
gene 3 23 4 -1.89507 0 41 -1.89507 1
gene 2 3 23 -4.55186 0 44 -4.55186 1
gene 1 3 55 6.5861 0 117 6.5861 1
gene 1 55 4 4.01381 0 118 4.01381 1
gene 2 1 55 3.54203 0 143 3.54203 1
gene 3 2 55 0.501052 0 208 0.501052 1
gene 3 2 91 4.50398 0 240 4.50398 1
gene 3 91 4 1.94333 0 241 1.94333 1
gene 3 2 118 4.17491 0 327 4.17491 1
gene 3 118 23 0.225994 0 328 0.225994 1
gene 3 1 118 -0.42324 0 337 -0.42324 1
gene 1 23 91 -2.47325 0 354 -2.47325 1
genomeend 61

/* Species #25 : (Size 6) (AF 9.8215) (Age 33)  */


/* Organism #62 Fitness: 15.7548 Error: 0.0307666 */
genomestart 62
trait 1 0.1 0.0576945 0 0 0 0 0 0.0136104 
trait 2 0.2 0 0.0210098 0.0202803 0.0336948 0 0 0.0346538 
trait 3 0.263249 0 0.08065 0.032296 0.00133847 0 0.0373109 0.00501003 
node 1 3 1 3
node 2 3 1 1
node 3 3 1 1
node 4 2 0 2
node 23 1 0 0
node 55 1 0 0
node 61 1 0 0
node 92 1 0 0
node 110 1 0 0
node 161 1 0 0
node 222 1 0 0
gene 2 1 4 4.78561 0 1 4.78561 1
gene 1 2 4 -1.01215 0 2 -1.01215 0
gene 1 3 4 -7.99003 0 3 -7.99003 1
gene 3 2 23 -0.321473 0 40 -0.321473 1
gene 3 23 4 1.20364 0 41 1.20364 1
gene 2 3 23 -0.682821 0 44 -0.682821 1
gene 1 3 55 -2.73581 0 117 -2.73581 0
gene 1 55 4 3.9283 0 118 3.9283 1
gene 1 2 55 -3.28004 0 125 -3.28004 0
gene 2 3 61 -2.54369 0 137 -2.54369 0
gene 2 61 23 1.49345 0 138 1.49345 1
gene 2 1 23 -0.446484 0 144 -0.446484 1
gene 2 3 92 -1.65465 0 242 -1.65465 0
gene 3 92 61 -2.11934 0 243 -2.11934 1
gene 2 61 4 3.72368 0 279 3.72368 1
gene 2 3 110 4.45136 0 300 4.45136 1
gene 2 110 92 0.620951 0 301 0.620951 1
gene 1 92 55 5.13664 0 358 5.13664 1
gene 2 1 92 -0.908271 0 410 -0.908271 1
gene 1 3 161 -1.08054 0 479 -1.08054 1
gene 1 161 55 3.10067 0 480 3.10067 1
gene 1 2 222 2.00832 0 685 2.00832 1
gene 1 222 55 -1.02254 0 686 -1.02254 1
genomeend 62

/* Organism #63 Fitness: 9.00024 Error: 0.99996 */
genomestart 63
trait 1 0.1 0.0576945 0 0 0 0 0 0.0136104 
trait 2 0.2 0 0.0210098 0.0202803 0.0336948 0 0 0.0346538 
trait 3 0.263249 0 0.08065 0.032296 0.00133847 0 0.0373109 0.00501003 
node 1 3 1 3
node 2 3 1 1
node 3 3 1 1
node 4 2 0 2
node 23 1 0 0
node 55 1 0 0
node 61 1 0 0
node 92 1 0 0
node 110 1 0 0
node 161 1 0 0
node 222 1 0 0
gene 2 1 4 4.78561 0 1 4.78561 1
gene 1 2 4 4.56618 0 2 4.56618 0
gene 1 3 4 -7.99003 0 3 -7.99003 1
gene 3 2 23 -0.321473 0 40 -0.321473 1
gene 3 23 4 1.20364 0 41 1.20364 1
gene 2 3 23 -0.682821 0 44 -0.682821 1
gene 1 3 55 -2.96149 0 117 -2.96149 0
gene 1 55 4 3.9283 0 118 3.9283 1
gene 1 2 55 -3.28004 0 125 -3.28004 0
gene 3 3 61 -5.97815 0 137 -5.97815 0
gene 2 61 23 1.49345 0 138 1.49345 1
gene 2 1 23 -0.446484 0 144 -0.446484 1
gene 2 3 92 -1.65465 0 242 -1.65465 0
gene 3 92 61 -5.93816 0 243 -5.93816 1
gene 2 61 4 0.124979 0 279 0.124979 1
gene 2 3 110 4.45136 0 300 4.45136 1
gene 2 110 92 -1.55769 0 301 -1.55769 1
gene 1 92 55 0.461117 0 358 0.461117 1
gene 2 1 92 0.402247 0 410 0.402247 1
gene 1 3 161 -3.57023 0 479 -3.57023 1
gene 1 161 55 3.10067 0 480 3.10067 1
gene 1 2 222 2.00832 0 685 2.00832 1
gene 1 222 55 -0.461849 0 686 -0.461849 1
gene 1 161 222 -0.795924 0 761 -0.795924 1
genomeend 63

/* Organism #64 Fitness: 1.01332 Error: 2.99336 */
genomestart 64
trait 1 0.1 0.0576945 0 0 0 0 0 0.0136104 
trait 2 0.2 0 0.0210098 0.0202803 0.0336948 0 0 0.0346538 
trait 3 0.263249 0 0.08065 0.032296 0.00133847 0 0.0373109 0.00501003 
node 1 3 1 3
node 2 3 1 1
node 3 3 1 1
node 4 2 0 2
node 23 1 0 0
node 55 1 0 0
node 61 1 0 0
node 92 1 0 0
node 110 1 0 0
node 161 1 0 0
node 222 1 0 0
gene 2 1 4 7.47875 0 1 7.47875 1
gene 1 2 4 6.80996 0 2 6.80996 1
gene 1 3 4 -8 0 3 -8 1
gene 3 2 23 -2.16569 0 40 -2.16569 1
gene 3 23 4 -1.47018 0 41 -1.47018 1
gene 2 3 23 1.12004 0 44 1.12004 1
gene 1 3 55 -4.33895 0 117 -4.33895 1
gene 1 55 4 4.06439 0 118 4.06439 1
gene 1 2 55 -1.3695 0 125 -1.3695 1
gene 3 3 61 -5.83787 0 137 -5.83787 1
gene 2 61 23 -2.68574 0 138 -2.68574 1
gene 2 1 23 -1.25721 0 144 -1.25721 1
gene 2 3 92 0.0239837 0 242 0.0239837 0
gene 3 92 61 -6.61074 0 243 -6.61074 1
gene 2 61 4 1.10885 0 279 1.10885 1
gene 2 3 110 0.820936 0 300 0.820936 1
gene 2 110 92 -2.76105 0 301 -2.76105 1
gene 1 92 55 2.01099 0 358 2.01099 1
gene 2 1 92 0.592602 0 410 0.592602 1
gene 1 3 161 -1.4197 0 479 -1.4197 1
gene 1 161 55 4.36636 0 480 4.36636 1
gene 1 2 222 -1.43795 0 685 -1.43795 1
gene 1 222 55 -0.209164 0 686 -0.209164 1
genomeend 64

/* Organism #65 Fitness: 8.20133 Error: 1.1362 */
genomestart 65
trait 1 0.1 0.0576945 0 0 0 0 0 0.0136104 
trait 2 0.2 0 0.0210098 0.0202803 0.0336948 0 0 0.0346538 
trait 3 0.263249 0 0.08065 0.032296 0.00133847 0 0.0373109 0.00501003 
node 1 3 1 3
node 2 3 1 1
node 3 3 1 1
node 4 2 0 2
node 23 1 0 0
node 55 1 0 0
node 61 1 0 0
node 92 1 0 0
node 110 1 0 0
node 161 1 0 0
node 222 1 0 0
gene 2 1 4 5.94829 0 1 5.94829 1
gene 1 2 4 -1.01215 0 2 -1.01215 0
gene 1 3 4 -7.99003 0 3 -7.99003 1
gene 3 2 23 -2.64273 0 40 -2.64273 1
gene 3 23 4 1.20364 0 41 1.20364 1
gene 2 3 23 -0.682821 0 44 -0.682821 1
gene 1 3 55 -2.73581 0 117 -2.73581 0
gene 1 55 4 4.06439 0 118 4.06439 1
gene 1 2 55 -3.28004 0 125 -3.28004 0
gene 2 3 61 -2.54369 0 137 -2.54369 0
gene 2 61 23 1.49345 0 138 1.49345 1
gene 2 1 23 -0.446484 0 144 -0.446484 1
gene 2 3 92 -1.65465 0 242 -1.65465 0
gene 3 92 61 -5.93816 0 243 -5.93816 1
gene 2 61 4 0.124979 0 279 0.124979 1
gene 2 3 110 4.45136 0 300 4.45136 1
gene 2 110 92 -1.55769 0 301 -1.55769 1
gene 1 92 55 0.461117 0 358 0.461117 1
gene 2 1 92 -0.908271 0 410 -0.908271 1
gene 1 3 161 -3.57023 0 479 -3.57023 1
gene 1 161 55 3.10067 0 480 3.10067 1
gene 1 2 222 -0.483245 0 685 -0.483245 1
gene 1 222 55 -1.02254 0 686 -1.02254 1
genomeend 65

/* Organism #66 Fitness: 15.9597 Error: 0.00504601 */
genomestart 66
trait 1 0.1 0.0576945 0 0 0 0 0 0.0136104 
trait 2 0.2 0 0.0210098 0.0202803 0.0336948 0 0 0.0346538 
trait 3 0.263249 0 0.08065 0.032296 0.00133847 0 0.0373109 0.00501003 
node 1 3 1 3
node 2 3 1 1
node 3 3 1 1
node 4 2 0 2
node 23 1 0 0
node 55 1 0 0
node 61 1 0 0
node 92 1 0 0
node 110 1 0 0
node 161 1 0 0
node 222 1 0 0
gene 2 1 4 5.96945 0 1 5.96945 1
gene 1 2 4 3.36006 0 2 3.36006 0
gene 1 3 4 -7.04255 0 3 -7.04255 1
gene 3 2 23 -3.09415 0 40 -3.09415 1
gene 3 23 4 1.5955 0 41 1.5955 1
gene 2 3 23 -5.59227 0 44 -5.59227 1
gene 1 3 55 -1.96913 0 117 -1.96913 0
gene 1 55 4 5.09959 0 118 5.09959 1
gene 1 2 55 -2.42882 0 125 -2.42882 1
gene 3 3 61 -6.09536 0 137 -6.09536 1
gene 2 61 23 -0.633502 0 138 -0.633502 1
gene 2 1 23 -2.72323 0 144 -2.72323 1
gene 2 3 92 0.0515681 0 242 0.0515681 0
gene 3 92 61 -3.53488 0 243 -3.53488 1
gene 2 61 4 0.528051 0 279 0.528051 1
gene 2 3 110 -0.699328 0 300 -0.699328 1
gene 2 110 92 -0.59677 0 301 -0.59677 1
gene 1 92 55 2.8592 0 358 2.8592 1
gene 2 1 92 -1.2605 0 410 -1.2605 1
gene 1 3 161 -3.57023 0 479 -3.57023 1
gene 1 161 55 2.18389 0 480 2.18389 1
gene 1 2 222 -1.54635 0 685 -1.54635 1
gene 1 222 55 1.44276 0 686 1.44276 1
genomeend 66

/* Organism #67 Fitness: 8.99963 Error: 1.00006 */
genomestart 67
trait 1 0.1 0.0576945 0 0 0 0 0 0.0136104 
trait 2 0.2 0 0.0210098 0.0202803 0.0336948 0 0 0.0346538 
trait 3 0.263249 0 0.08065 0.032296 0.00133847 0 0.0373109 0.00501003 
node 1 3 1 3
node 2 3 1 1
node 3 3 1 1
node 4 2 0 2
node 23 1 0 0
node 55 1 0 0
node 61 1 0 0
node 92 1 0 0
node 110 1 0 0
node 161 1 0 0
node 222 1 0 0
gene 2 1 4 2.28787 0 1 2.28787 1
gene 1 2 4 3.89979 0 2 3.89979 0
gene 1 3 4 -7.78074 0 3 -7.78074 1
gene 3 2 23 -5.03702 0 40 -5.03702 1
gene 3 23 4 1.96142 0 41 1.96142 1
gene 2 3 23 -1.81587 0 44 -1.81587 1
gene 1 3 55 -2.81551 0 117 -2.81551 0
gene 1 55 4 3.49081 0 118 3.49081 1
gene 1 2 55 -4.47984 0 125 -4.47984 0
gene 3 3 61 -5.37025 0 137 -5.37025 1
gene 2 61 23 2.60353 0 138 2.60353 1
gene 2 1 23 -0.539293 0 144 -0.539293 1
gene 2 3 92 -0.429299 0 242 -0.429299 0
gene 3 92 61 -2.86975 0 243 -2.86975 1
gene 2 61 4 4.68251 0 279 4.68251 1
gene 2 3 110 5.25076 0 300 5.25076 1
gene 2 110 92 0.694942 0 301 0.694942 1
gene 1 92 55 -1.83911 0 358 -1.83911 1
gene 2 1 92 -3.12612 0 410 -3.12612 1
gene 1 3 161 -5.8809 0 479 -5.8809 1
gene 1 161 55 0.66126 0 480 0.66126 1
gene 1 2 222 1.15039 0 685 1.15039 1
gene 1 222 55 -0.532555 0 686 -0.532555 1
genomeend 67

/* Species #27 : (Size 3) (AF 8.96275) (Age 25)  */


/* Organism #68 Fitness: 9.00135 Error: 0.999775 */
genomestart 68
trait 1 0.1 0.0540886 0.033849 0.0622569 0.0123676 0.0104437 0 0.0127597 
trait 2 0.0763565 0.393233 0.396842 0.0101402 0.729966 0 0.382566 0.223713 
trait 3 0 0 0.690756 1 0.00145798 0 1 0 
node 1 1 1 3
node 2 3 1 1
node 3 3 1 1
node 4 3 0 2
node 23 1 0 0
node 62 1 0 0
node 132 1 0 0
node 144 1 0 0
node 167 1 0 0
gene 2 1 4 4.40546 0 1 4.40546 1
gene 1 2 4 -3.18291 0 2 -3.18291 1
gene 1 3 4 -0.288983 0 3 -0.288983 1
gene 3 2 23 0.0639563 0 40 0.0639563 1
gene 3 23 4 -4.0854 0 41 -4.0854 1
gene 1 1 23 -7.61109 0 78 -7.61109 1
gene 2 3 23 0.865428 0 130 0.865428 1
gene 2 3 62 2.55724 0 139 2.55724 1
gene 2 62 23 -2.85582 0 140 -2.85582 1
gene 1 62 4 0.780777 0 152 0.780777 1
gene 1 1 62 -2.36891 0 173 -2.36891 1
gene 2 2 62 -6.44049 0 251 -6.44049 0
gene 2 2 132 -5.8582 0 380 -5.8582 0
gene 2 132 62 0.713063 0 381 0.713063 1
gene 1 62 144 -5.11948 0 424 -5.11948 1
gene 1 144 4 3.58885 0 425 3.58885 1
gene 2 2 167 0.791278 0 495 0.791278 1
gene 2 167 132 4.41691 0 496 4.41691 1
genomeend 68

/* Organism #69 Fitness: 8.99847 Error: 1.00026 */
genomestart 69
trait 1 0.1 0.0540886 0.033849 0.0622569 0.0123676 0.0104437 0 0.0127597 
trait 2 0.0763565 0.393233 0.396842 0.0101402 0.729966 0 0.382566 0.223713 
trait 3 0 0 0.690756 1 0.00145798 0 1 0 
node 1 1 1 3
node 2 3 1 1
node 3 3 1 1
node 4 3 0 2
node 23 1 0 0
node 62 1 0 0
node 132 1 0 0
node 144 1 0 0
node 167 1 0 0
gene 2 1 4 3.16067 0 1 3.16067 1
gene 1 2 4 -3.20636 0 2 -3.20636 1
gene 1 3 4 1.74271 0 3 1.74271 1
gene 3 2 23 0.226344 0 40 0.226344 1
gene 3 23 4 -6.55699 0 41 -6.55699 1
gene 1 1 23 -7.40424 0 78 -7.40424 1
gene 2 3 23 2.01548 0 130 2.01548 1
gene 2 3 62 1.37415 0 139 1.37415 1
gene 2 62 23 -2.55817 0 140 -2.55817 1
gene 1 62 4 0.145294 0 152 0.145294 1
gene 1 1 62 -3.36085 0 173 -3.36085 1
gene 2 2 62 -8 0 251 -8 0
gene 2 2 132 -5.98427 0 380 -5.98427 0
gene 2 132 62 1.98512 0 381 1.98512 1
gene 1 62 144 -6.71367 0 424 -6.71367 1
gene 1 144 4 3.31157 0 425 3.31157 1
gene 2 2 167 0.586118 0 495 0.586118 1
gene 2 167 132 4.41691 0 496 4.41691 1
genomeend 69

/* Organism #70 Fitness: 8.88844 Error: 1.01865 */
genomestart 70
trait 1 0.1 0.0540886 0.033849 0.0622569 0.0123676 0.0104437 0 0.0127597 
trait 2 0.0763565 0.393233 0.396842 0.0101402 0.729966 0 0.382566 0.223713 
trait 3 0 0 0.690756 1 0.00145798 0 1 0 
node 1 1 1 3
node 2 3 1 1
node 3 3 1 1
node 4 3 0 2
node 23 1 0 0
node 62 1 0 0
node 132 3 0 0
node 144 1 0 0
node 167 1 0 0
gene 2 1 4 5.84204 0 1 5.84204 1
gene 1 2 4 -5.30221 0 2 -5.30221 1
gene 1 3 4 1.29539 0 3 1.29539 1
gene 3 2 23 -0.475281 0 40 -0.475281 1
gene 3 23 4 -2.5141 0 41 -2.5141 1
gene 1 1 23 -8 0 78 -8 1
gene 2 3 23 2.18516 0 130 2.18516 1
gene 2 3 62 0.636157 0 139 0.636157 1
gene 2 62 23 -3.80175 0 140 -3.80175 1
gene 1 62 4 1.88911 0 152 1.88911 1
gene 1 1 62 -0.398688 0 173 -0.398688 1
gene 2 2 62 -6.84766 0 251 -6.84766 0
gene 2 2 132 -6.62859 0 380 -6.62859 0
gene 2 132 62 0.507247 0 381 0.507247 1
gene 1 62 144 -7.00014 0 424 -7.00014 1
gene 1 144 4 2.28711 0 425 2.28711 1
gene 2 2 167 0.791278 0 495 0.791278 1
gene 2 167 132 -1.95604 0 496 -1.95604 1
genomeend 70

/* Species #28 : (Size 7) (AF 12.443) (Age 23)  */


/* Organism #71 Fitness: 16 Error: 5.99759e-14 */
genomestart 71
trait 1 0.311131 0.0446231 0.167149 0 0.153012 0 0 0.0312623 
trait 2 1 0 0.0430417 0.00887263 0.0918419 0.856818 0 0.46423 
trait 3 0.290573 0 0.00143787 0 0.00360311 0.00287801 0.0334238 0.00360096 
node 1 3 1 3
node 2 3 1 1
node 3 3 1 1
node 4 1 0 2
node 23 3 0 0
node 79 1 0 0
node 84 1 0 0
node 150 1 0 0
gene 2 1 4 7.60283 0 1 7.60283 1
gene 3 2 4 -6.08978 0 2 -6.08978 1
gene 1 3 4 -7.94054 0 3 -7.94054 1
gene 3 2 23 8 0 40 8 1
gene 3 23 4 1.41026 0 41 1.41026 0
gene 2 3 23 -3.13322 0 44 -3.13322 0
gene 3 1 23 7.46298 0 106 7.46298 1
gene 3 23 79 -6.87227 0 200 -6.87227 1
gene 3 79 4 5.40845 0 201 5.40845 1
gene 3 23 84 2.57113 0 215 2.57113 1
gene 3 84 4 7.66465 0 216 7.66465 1
gene 2 3 84 -1.17237 0 293 -1.17237 1
gene 3 2 84 -2.09212 0 318 -2.09212 1
gene 2 3 150 1.23282 0 446 1.23282 1
gene 2 150 23 -2.69049 0 447 -2.69049 1
gene 3 79 84 -1.32154 0 614 -1.32154 1
genomeend 71

/* Organism #72 Fitness: 9 Error: 1 */
genomestart 72
trait 1 0.311131 0.0446231 0.167149 0 0.153012 0 0 0.0312623 
trait 2 1 0 0.0430417 0.00887263 0.0918419 0.856818 0 0.46423 
trait 3 0.290573 0 0.00143787 0 0.00360311 0.00287801 0.0334238 0.00360096 
node 1 3 1 3
node 2 3 1 1
node 3 3 1 1
node 4 1 0 2
node 23 3 0 0
node 79 1 0 0
node 84 1 0 0
node 150 1 0 0
node 239 1 0 0
gene 2 1 4 6.54504 0 1 6.54504 1
gene 3 2 4 -4.61336 0 2 -4.61336 1
gene 1 3 4 -6.07795 0 3 -6.07795 1
gene 3 2 23 8 0 40 8 1
gene 3 23 4 -0.124568 0 41 -0.124568 0
gene 2 3 23 -4.82387 0 44 -4.82387 0
gene 3 1 23 8 0 106 8 1
gene 3 23 79 -7.53576 0 200 -7.53576 1
gene 3 79 4 3.21612 0 201 3.21612 0
gene 3 23 84 2.50925 0 215 2.50925 1
gene 3 84 4 8 0 216 8 1
gene 2 3 84 -0.63427 0 293 -0.63427 1
gene 3 2 84 -1.06841 0 318 -1.06841 1
gene 2 3 150 2.15802 0 446 2.15802 1
gene 2 150 23 -4.1155 0 447 -4.1155 1
gene 3 79 84 0.766948 0 614 0.766948 1
gene 3 79 239 -0.309758 0 743 -0.309758 1
gene 3 239 4 5.40845 0 744 5.40845 1
genomeend 72

/* Organism #73 Fitness: 15.9618 Error: 0.00478279 */
genomestart 73
trait 1 0.311131 0.0446231 0.167149 0 0.153012 0 0 0.0312623 
trait 2 1 0 0.0430417 0.00887263 0.0918419 0.856818 0 0.46423 
trait 3 0.290573 0 0.00143787 0 0.00360311 0.00287801 0.0334238 0.00360096 
node 1 3 1 3
node 2 3 1 1
node 3 3 1 1
node 4 1 0 2
node 23 3 0 0
node 79 1 0 0
node 84 1 0 0
node 150 1 0 0
node 239 1 0 0
gene 2 1 4 8 0 1 8 1
gene 3 2 4 -7.80791 0 2 -7.80791 1
gene 1 3 4 -7.14987 0 3 -7.14987 1
gene 2 2 23 6.43596 0 40 6.43596 1
gene 3 23 4 3.58543 0 41 3.58543 0
gene 2 3 23 -4.66735 0 44 -4.66735 0
gene 3 1 23 8 0 106 8 1
gene 3 23 79 -8 0 200 -8 1
gene 3 79 4 4.53376 0 201 4.53376 1
gene 3 23 84 2.49439 0 215 2.49439 1
gene 3 84 4 8 0 216 8 1
gene 2 3 84 -1.36983 0 293 -1.36983 1
gene 3 2 84 -0.81563 0 318 -0.81563 1
gene 2 3 150 -0.134532 0 446 -0.134532 1
gene 2 150 23 -0.387443 0 447 -0.387443 1
gene 3 79 84 -1.32154 0 614 -1.32154 1
gene 3 79 239 2.31765 0 743 2.31765 1
gene 3 239 4 -1.38399 0 744 -1.38399 1
genomeend 73

/* Organism #74 Fitness: 15.9977 Error: 0.000288098 */
genomestart 74
trait 1 0.311131 0.0446231 0.167149 0 0.153012 0 0 0.0312623 
trait 2 1 0 0.0430417 0.00887263 0.0918419 0.856818 0 0.46423 
trait 3 0.290573 0 0.00143787 0 0.00360311 0.00287801 0.0334238 0.00360096 
node 1 3 1 3
node 2 3 1 1
node 3 3 1 1
node 4 1 0 2
node 23 3 0 0
node 79 1 0 0
node 84 1 0 0
node 150 1 0 0
gene 2 1 4 5.59447 0 1 5.59447 1
gene 3 2 4 -7.05575 0 2 -7.05575 1
gene 1 3 4 -8 0 3 -8 1
gene 3 2 23 8 0 40 8 1
gene 3 23 4 0.42835 0 41 0.42835 0
gene 2 3 23 -5.15671 0 44 -5.15671 0
gene 3 1 23 7.4983 0 106 7.4983 1
gene 3 23 79 -7.40263 0 200 -7.40263 1
gene 3 79 4 7.35024 0 201 7.35024 0
gene 3 23 84 4.80214 0 215 4.80214 1
gene 3 84 4 7.82035 0 216 7.82035 1
gene 2 3 84 -0.665618 0 293 -0.665618 1
gene 3 2 84 -2.85987 0 318 -2.85987 1
gene 2 3 150 0.941586 0 446 0.941586 1
gene 2 150 23 -1.4861 0 447 -1.4861 1
gene 3 79 84 -2.19112 0 614 -2.19112 1
genomeend 74

/* Organism #75 Fitness: 9 Error: 1 */
genomestart 75
trait 1 0.311131 0 1 0 0.440076 0 0 0.0312623 
trait 2 1 0 0.0430417 0.00887263 0.0918419 0.856818 0 0.46423 
trait 3 0.290573 0 0.00143787 0 0.00360311 0.00287801 0.0334238 0.00360096 
node 1 3 1 3
node 2 3 1 1
node 3 3 1 1
node 4 1 0 2
node 23 3 0 0
node 79 1 0 0
node 84 1 0 0
node 150 1 0 0
gene 2 1 4 8 0 1 8 1
gene 3 2 4 -7.98868 0 2 -7.98868 1
gene 1 3 4 2.47586 0 3 2.47586 1
gene 3 2 23 1.2635 0 40 1.2635 1
gene 3 23 4 1.41026 0 41 1.41026 0
gene 2 3 23 -3.13322 0 44 -3.13322 0
gene 3 1 23 8 0 106 8 1
gene 3 23 79 -5.95767 0 200 -5.95767 1
gene 3 79 4 5.40845 0 201 5.40845 1
gene 3 23 84 -0.485847 0 215 -0.485847 1
gene 3 84 4 8 0 216 8 1
gene 2 3 84 -1.12669 0 293 -1.12669 1
gene 3 2 84 1.8985 0 318 1.8985 1
gene 2 3 150 -0.89587 0 446 -0.89587 1
gene 2 150 23 -0.46546 0 447 -0.46546 1
gene 3 79 84 -1.32154 0 614 -1.32154 1
genomeend 75

/* Organism #76 Fitness: 9.97793 Error: 0.841213 */
genomestart 76
trait 1 0.311131 0.0446231 0.167149 0 0.153012 0 0 0.0312623 
trait 2 1 0 0.0430417 0.00887263 0.0918419 0.856818 0 0.46423 
trait 3 0.290573 0 0.00143787 0 0.00360311 0.00287801 0.0334238 0.00360096 
node 1 3 1 3
node 2 3 1 1
node 3 3 1 1
node 4 1 0 2
node 23 3 0 0
node 79 1 0 0
node 84 1 0 0
node 150 1 0 0
gene 2 1 4 7.60283 0 1 7.60283 1
gene 3 2 4 -6.08978 0 2 -6.08978 1
gene 1 3 4 -7.94054 0 3 -7.94054 1
gene 3 2 23 8 0 40 8 1
gene 3 23 4 3.49555 0 41 3.49555 0
gene 2 3 23 -0.27484 0 44 -0.27484 0
gene 3 1 23 7.48561 0 106 7.48561 1
gene 3 23 79 1.52298 0 200 1.52298 1
gene 3 79 4 5.40845 0 201 5.40845 0
gene 3 23 84 0.662177 0 215 0.662177 1
gene 3 84 4 7.73146 0 216 7.73146 1
gene 2 3 84 -2.16729 0 293 -2.16729 1
gene 3 2 84 -3.76988 0 318 -3.76988 1
gene 2 3 150 1.23282 0 446 1.23282 1
gene 2 150 23 -4.11369 0 447 -4.11369 1
gene 3 79 84 -1.32154 0 614 -1.32154 1
genomeend 76

/* Organism #77 Fitness: 11.1639 Error: 0.658755 */
genomestart 77
trait 1 0.311131 0.0446231 0.167149 0 0.153012 0 0 0.0312623 
trait 2 1 0 0.0430417 0.00887263 0.0918419 0.856818 0 0.46423 
trait 3 0.290573 0 0.00143787 0 0.00360311 0.00287801 0.0334238 0.00360096 
node 1 3 1 3
node 2 3 1 1
node 3 3 1 1
node 4 1 0 2
node 23 3 0 0
node 79 1 0 0
node 84 1 0 0
node 150 1 0 0
gene 2 1 4 7.68197 0 1 7.68197 1
gene 3 2 4 -6.10788 0 2 -6.10788 1
gene 1 3 4 -8 0 3 -8 1
gene 3 2 23 8 0 40 8 1
gene 3 23 4 -1.68676 0 41 -1.68676 0
gene 2 3 23 -4.23386 0 44 -4.23386 0
gene 3 1 23 0.326671 0 106 0.326671 1
gene 3 23 79 -6.04858 0 200 -6.04858 1
gene 3 79 4 5.2776 0 201 5.2776 1
gene 3 23 84 1.40247 0 215 1.40247 1
gene 3 84 4 7.66465 0 216 7.66465 1
gene 2 3 84 -1.17237 0 293 -1.17237 1
gene 3 2 84 -2.79982 0 318 -2.79982 1
gene 2 3 150 1.23282 0 446 1.23282 1
gene 2 150 23 -0.500265 0 447 -0.500265 1
gene 3 79 84 -0.84927 0 614 -0.84927 1
genomeend 77

/* Species #30 : (Size 7) (AF 12.3002) (Age 22)  */


/* Organism #78 Fitness: 16 Error: 2.33013e-10 */
genomestart 78
trait 1 0.433843 0.0288473 0.251039 0 0 0 0 0.428254 
trait 2 0.2 0.213442 0.0999708 0.0202803 0.0168474 0.132647 0 0.0346538 
trait 3 0 0 0.379153 0 0.0764277 0 0.0313885 0.252965 
node 1 3 1 3
node 2 3 1 1
node 3 3 1 1
node 4 2 0 2
node 23 2 0 0
node 37 1 0 0
node 109 3 0 0
node 152 1 0 0
node 160 1 0 0
gene 3 1 4 7.39549 0 1 7.39549 1
gene 3 2 4 -3.66457 0 2 -3.66457 1
gene 2 3 4 -1.45274 0 3 -1.45274 1
gene 3 2 23 5.63483 0 40 5.63483 1
gene 2 23 4 -6.87821 0 41 -6.87821 1
gene 1 3 37 -5.49747 0 74 -5.49747 1
gene 1 37 4 7.85059 0 75 7.85059 1
gene 1 3 23 -6.22501 0 169 -6.22501 1
gene 2 1 23 3.14971 0 220 3.14971 1
gene 1 2 37 -1.06648 0 235 -1.06648 1
gene 1 2 109 1.88827 0 297 1.88827 1
gene 1 109 37 0.134549 0 298 0.134549 1
gene 1 109 152 0.0959415 0 453 0.0959415 1
gene 1 152 37 5.43778 0 454 5.43778 0
gene 1 152 160 0.661511 0 477 0.661511 1
gene 1 160 37 4.16858 0 478 4.16858 1
gene 1 3 109 -3.67244 0 499 -3.67244 1
gene 2 3 160 0.434969 0 712 0.434969 1
genomeend 78

/* Organism #79 Fitness: 9 Error: 1 */
genomestart 79
trait 1 0.433843 0.0288473 0.251039 0 0 0 0 0.428254 
trait 2 0.2 0.213442 0.0999708 0.0202803 0.0168474 0.132647 0 0.0346538 
trait 3 0 0 0.379153 0 0.0764277 0 0.0313885 0.252965 
node 1 3 1 3
node 2 3 1 1
node 3 3 1 1
node 4 2 0 2
node 23 2 0 0
node 37 1 0 0
node 109 3 0 0
node 152 1 0 0
node 160 1 0 0
gene 3 1 4 7.28572 0 1 7.28572 1
gene 3 2 4 -3.66457 0 2 -3.66457 1
gene 2 3 4 2.4021 0 3 2.4021 1
gene 3 2 23 -0.337693 0 40 -0.337693 1
gene 2 23 4 0.337634 0 41 0.337634 1
gene 1 3 37 -4.27778 0 74 -4.27778 1
gene 1 37 4 8 0 75 8 1
gene 1 3 23 -8 0 169 -8 1
gene 2 1 23 4.72542 0 220 4.72542 1
gene 1 2 37 -1.06648 0 235 -1.06648 1
gene 1 2 109 1.88827 0 297 1.88827 1
gene 1 109 37 0.603434 0 298 0.603434 1
gene 1 109 152 -2.24059 0 453 -2.24059 1
gene 1 152 37 5.43778 0 454 5.43778 0
gene 1 152 160 -0.505771 0 477 -0.505771 1
gene 1 160 37 6.00543 0 478 6.00543 1
gene 1 3 109 -1.61081 0 499 -1.61081 1
gene 2 3 160 1.27602 0 712 1.27602 1
genomeend 79

/* Organism #80 Fitness: 9 Error: 1 */
genomestart 80
trait 1 0.433843 0.0288473 0.251039 0 0 0 0 0.428254 
trait 2 0.2 0.213442 0.0999708 0.0202803 0.0168474 0.132647 0 0.0346538 
trait 3 0 0 0.379153 0 0.0764277 0.170974 0.0313885 0.252965 
node 1 3 1 3
node 2 3 1 1
node 3 3 1 1
node 4 2 0 2
node 23 2 0 0
node 37 1 0 0
node 109 3 0 0
node 152 1 0 0
node 160 1 0 0
gene 3 1 4 8 0 1 8 1
gene 3 2 4 -2.42279 0 2 -2.42279 1
gene 2 3 4 -1.32697 0 3 -1.32697 1
gene 3 2 23 7.44208 0 40 7.44208 1
gene 2 23 4 -8 0 41 -8 1
gene 1 3 37 -3.0572 0 74 -3.0572 1
gene 1 37 4 8 0 75 8 1
gene 1 3 23 -2.54549 0 169 -2.54549 1
gene 2 1 23 2.72186 0 220 2.72186 1
gene 1 2 37 4.34542 0 235 4.34542 1
gene 1 2 109 4.22287 0 297 4.22287 1
gene 1 109 37 1.99088 0 298 1.99088 1
gene 1 109 152 -1.16254 0 453 -1.16254 1
gene 1 152 37 2.05913 0 454 2.05913 0
gene 1 152 160 -3.61103 0 477 -3.61103 1
gene 1 160 37 4.82771 0 478 4.82771 1
gene 1 3 109 2.41242 0 499 2.41242 1
gene 2 3 160 2.05728 0 712 2.05728 1
genomeend 80

/* Organism #81 Fitness: 16 Error: 2.54509e-08 */
genomestart 81
trait 1 0.433843 0.0288473 0.251039 0 0 0 0 0.428254 
trait 2 0.2 0.213442 0.0999708 0.0202803 0.0168474 0.132647 0 0.0346538 
trait 3 0 0 0.379153 0 0.0764277 0.170974 0.0313885 0.252965 
node 1 3 1 3
node 2 3 1 1
node 3 3 1 1
node 4 2 0 2
node 23 2 0 0
node 37 1 0 0
node 109 3 0 0
node 152 1 0 0
node 160 1 0 0
gene 3 1 4 7.39549 0 1 7.39549 1
gene 3 2 4 -4.81676 0 2 -4.81676 1
gene 2 3 4 -1.45274 0 3 -1.45274 1
gene 3 2 23 5.63483 0 40 5.63483 1
gene 2 23 4 -6.87821 0 41 -6.87821 1
gene 1 3 37 -6.5384 0 74 -6.5384 1
gene 1 37 4 7.85059 0 75 7.85059 1
gene 1 3 23 -6.22501 0 169 -6.22501 1
gene 2 1 23 2.0244 0 220 2.0244 1
gene 1 2 37 2.43984 0 235 2.43984 1
gene 1 2 109 1.88827 0 297 1.88827 1
gene 1 109 37 0.134549 0 298 0.134549 1
gene 1 109 152 0.0959415 0 453 0.0959415 1
gene 1 152 37 5.43778 0 454 5.43778 0
gene 1 152 160 -1.32764 0 477 -1.32764 1
gene 1 160 37 4.16858 0 478 4.16858 1
gene 1 3 109 1.2974 0 499 1.2974 1
gene 2 3 160 0.434969 0 712 0.434969 1
genomeend 81

/* Organism #82 Fitness: 16 Error: 3.83398e-06 */
genomestart 82
trait 1 0.433843 0.0288473 0.251039 0 0 0 0 0.428254 
trait 2 0.2 0.213442 0.0999708 0.0202803 0.0168474 0.132647 0 0.0346538 
trait 3 0 0 0.379153 0 0.0764277 0.170974 0.0313885 0.252965 
node 1 3 1 3
node 2 3 1 1
node 3 3 1 1
node 4 2 0 2
node 23 2 0 0
node 37 1 0 0
node 109 3 0 0
node 152 1 0 0
node 160 1 0 0
gene 3 1 4 8 0 1 8 1
gene 3 2 4 -5.78144 0 2 -5.78144 1
gene 2 3 4 0.687924 0 3 0.687924 1
gene 3 2 23 4.44465 0 40 4.44465 1
gene 2 23 4 -7.68588 0 41 -7.68588 1
gene 1 3 37 -4.69667 0 74 -4.69667 1
gene 1 37 4 8 0 75 8 1
gene 1 3 23 -3.10668 0 169 -3.10668 1
gene 2 1 23 1.96139 0 220 1.96139 1
gene 1 2 37 -0.209062 0 235 -0.209062 1
gene 1 2 109 4.57574 0 297 4.57574 1
gene 1 109 37 1.26412 0 298 1.26412 1
gene 1 109 152 -1.2495 0 453 -1.2495 1
gene 1 152 37 4.09082 0 454 4.09082 0
gene 1 152 160 1.88345 0 477 1.88345 1
gene 1 160 37 4.49815 0 478 4.49815 1
gene 1 3 109 -2.42485 0 499 -2.42485 1
gene 2 3 160 -2.20709 0 712 -2.20709 1
genomeend 82

/* Organism #83 Fitness: 4.10171 Error: 1.97473 */
genomestart 83
trait 1 0.433843 0.0288473 0.251039 0 0 0 0 0.428254 
trait 2 0.2 0.213442 0.0999708 0.0202803 0.0168474 0.132647 0 0.0346538 
trait 3 0 0 0.379153 0 0.0764277 0 0.0313885 0.252965 
node 1 3 1 3
node 2 3 1 1
node 3 3 1 1
node 4 2 0 2
node 23 2 0 0
node 37 1 0 0
node 109 3 0 0
node 152 1 0 0
node 160 1 0 0
gene 3 1 4 8 0 1 8 1
gene 3 2 4 -2.8392 0 2 -2.8392 1
gene 2 3 4 -1.45274 0 3 -1.45274 1
gene 3 2 23 3.47553 0 40 3.47553 1
gene 2 23 4 -6.62862 0 41 -6.62862 1
gene 1 3 37 -5.49747 0 74 -5.49747 1
gene 1 37 4 7.85059 0 75 7.85059 1
gene 1 3 23 -6.22501 0 169 -6.22501 1
gene 2 1 23 2.70469 0 220 2.70469 1
gene 1 2 37 -2.26405 0 235 -2.26405 1
gene 1 2 109 1.32047 0 297 1.32047 1
gene 1 109 37 -2.06443 0 298 -2.06443 1
gene 1 109 152 0.0959415 0 453 0.0959415 1
gene 1 152 37 5.08056 0 454 5.08056 0
gene 1 152 160 0.661511 0 477 0.661511 1
gene 1 160 37 4.0593 0 478 4.0593 1
gene 1 3 109 -4.57727 0 499 -4.57727 1
gene 2 3 160 -0.745281 0 712 -0.745281 1
genomeend 83

/* Organism #84 Fitness: 16 Error: 1.93454e-10 */
genomestart 84
trait 1 0.433843 0.0288473 0.251039 0 0 0 0 0.428254 
trait 2 0.2 0.213442 0.0999708 0.0202803 0.0168474 0.132647 0 0.0346538 
trait 3 0 0 0.379153 0 0.0764277 0.170974 0.0313885 0.252965 
node 1 3 1 3
node 2 3 1 1
node 3 3 1 1
node 4 2 0 2
node 23 2 0 0
node 37 1 0 0
node 109 3 0 0
node 152 1 0 0
node 160 1 0 0
gene 3 1 4 7.39549 0 1 7.39549 1
gene 3 2 4 -3.66457 0 2 -3.66457 1
gene 2 3 4 -1.45274 0 3 -1.45274 1
gene 3 2 23 5.63483 0 40 5.63483 1
gene 2 23 4 -6.87821 0 41 -6.87821 1
gene 1 3 37 -6.5384 0 74 -6.5384 1
gene 1 37 4 8 0 75 8 1
gene 1 3 23 -4.87325 0 169 -4.87325 1
gene 2 1 23 2.0244 0 220 2.0244 1
gene 1 2 37 -1.06648 0 235 -1.06648 1
gene 1 2 109 3.14724 0 297 3.14724 1
gene 1 109 37 -0.0821968 0 298 -0.0821968 1
gene 1 109 152 0.0959415 0 453 0.0959415 1
gene 1 152 37 5.43778 0 454 5.43778 0
gene 1 152 160 -1.32764 0 477 -1.32764 1
gene 1 160 37 4.16858 0 478 4.16858 1
gene 1 3 109 -3.67244 0 499 -3.67244 1
gene 2 3 160 0.434969 0 712 0.434969 1
gene 3 23 160 0.860377 0 762 0.860377 1
genomeend 84

/* Species #31 : (Size 6) (AF 11.3366) (Age 19)  */


/* Organism #85 Fitness: 16 Error: 8.50156e-08 */
genomestart 85
trait 1 0.075 0.0288473 0.348385 0 0.288755 0 0 0.0136104 
trait 2 0.396227 0.0937939 0.0532763 0 0.62192 0 0.132094 0.596027 
trait 3 0.300856 0 0.00161445 0 0.00445539 0.00396113 0.024437 0.00250501 
node 1 2 1 3
node 2 3 1 1
node 3 3 1 1
node 4 2 0 2
node 23 2 0 0
node 112 1 0 0
node 172 1 0 0
node 190 3 0 0
gene 2 1 4 3.89737 0 1 3.89737 1
gene 3 2 4 -7.23333 0 2 -7.23333 1
gene 1 3 4 -2.59933 0 3 -2.59933 0
gene 3 2 23 -0.326356 0 40 -0.326356 1
gene 3 23 4 7.12327 0 41 7.12327 1
gene 2 3 23 -8 0 44 -8 1
gene 3 1 23 3.28441 0 83 3.28441 1
gene 3 2 112 -4.46065 0 305 -4.46065 1
gene 3 112 23 -4.13238 0 306 -4.13238 1
gene 2 112 4 0.0480891 0 314 0.0480891 1
gene 2 1 112 1.9491 0 365 1.9491 1
gene 1 3 112 -0.154066 0 508 -0.154066 1
gene 1 3 172 -0.95151 0 523 -0.95151 1
gene 1 172 112 -1.01531 0 524 -1.01531 1
gene 1 3 190 -1.64629 0 580 -1.64629 1
gene 1 190 172 1.23296 0 581 1.23296 1
gene 1 2 172 2.25517 0 592 2.25517 1
gene 1 190 23 2.6021 0 632 2.6021 1
gene 3 1 172 0.036607 0 656 0.036607 1
gene 2 190 112 2.68341 0 670 2.68341 1
genomeend 85

/* Organism #86 Fitness: 9.01306 Error: 0.997824 */
genomestart 86
trait 1 0.075 0.0288473 0.348385 0 0.288755 0 0 0.0136104 
trait 2 0.396227 0.0937939 0.0532763 0 0.62192 0 0.132094 0.596027 
trait 3 0.300856 0 0.00161445 0 0.00445539 0.00396113 0.024437 0.00250501 
node 1 2 1 3
node 2 3 1 1
node 3 3 1 1
node 4 2 0 2
node 23 2 0 0
node 112 1 0 0
node 172 1 0 0
node 190 1 0 0
gene 2 1 4 6.72443 0 1 6.72443 1
gene 3 2 4 -7.43006 0 2 -7.43006 1
gene 1 3 4 0.67023 0 3 0.67023 1
gene 3 2 23 -0.167572 0 40 -0.167572 1
gene 3 23 4 2.19046 0 41 2.19046 1
gene 2 3 23 -7.3021 0 44 -7.3021 1
gene 3 1 23 4.01189 0 83 4.01189 1
gene 3 2 112 -0.360511 0 305 -0.360511 1
gene 3 112 23 1.33917 0 306 1.33917 1
gene 2 112 4 1.27966 0 314 1.27966 1
gene 2 1 112 1.52046 0 365 1.52046 1
gene 1 3 112 3.7057 0 508 3.7057 1
gene 1 3 172 -3.70347 0 523 -3.70347 1
gene 1 172 112 -0.32871 0 524 -0.32871 1
gene 1 3 190 -2.5353 0 580 -2.5353 1
gene 3 190 172 1.54006 0 581 1.54006 1
gene 1 2 172 1.63392 0 592 1.63392 1
gene 1 190 23 0.987226 0 632 0.987226 1
gene 3 1 172 1.49453 0 656 1.49453 1
gene 2 190 112 3.19924 0 670 3.19924 1
genomeend 86

/* Organism #87 Fitness: 9.00592 Error: 0.999014 */
genomestart 87
trait 1 0.075 0.0288473 0.348385 0 0.288755 0 0 0.0136104 
trait 2 0.396227 0.0937939 0.0532763 0 0.62192 0 0.132094 0.596027 
trait 3 0.300856 0 0.00161445 0 0.00445539 0.00396113 0.024437 0.00250501 
node 1 2 1 3
node 2 3 1 1
node 3 3 1 1
node 4 2 0 2
node 23 2 0 0
node 112 1 0 0
node 172 1 0 0
node 190 3 0 0
gene 2 1 4 5.0616 0 1 5.0616 1
gene 3 2 4 -8 0 2 -8 1
gene 1 3 4 -1.54142 0 3 -1.54142 0
gene 3 2 23 -0.556894 0 40 -0.556894 1
gene 3 23 4 1.533 0 41 1.533 1
gene 2 3 23 -8 0 44 -8 1
gene 3 1 23 3.27493 0 83 3.27493 1
gene 3 2 112 -3.79616 0 305 -3.79616 1
gene 3 112 23 -4.22414 0 306 -4.22414 1
gene 2 112 4 1.85069 0 314 1.85069 1
gene 2 1 112 -0.492841 0 365 -0.492841 1
gene 1 3 112 0.0515974 0 508 0.0515974 1
gene 1 3 172 0.991284 0 523 0.991284 1
gene 1 172 112 -3.05523 0 524 -3.05523 1
gene 1 3 190 -1.64629 0 580 -1.64629 1
gene 1 190 172 -1.03314 0 581 -1.03314 1
gene 1 2 172 -0.1046 0 592 -0.1046 1
gene 1 190 23 4.32549 0 632 4.32549 1
gene 3 1 172 -1.97681 0 656 -1.97681 1
gene 2 190 112 0.806323 0 670 0.806323 1
genomeend 87

/* Organism #88 Fitness: 9.00267 Error: 0.999555 */
genomestart 88
trait 1 0.075 0.0288473 0.348385 0 0.288755 0 0 0.0136104 
trait 2 0.396227 0.0937939 0.0532763 0 0.62192 0 0.132094 0.596027 
trait 3 0.300856 0 0.00161445 0 0.00445539 0.00396113 0.024437 0.00250501 
node 1 2 1 3
node 2 3 1 1
node 3 3 1 1
node 4 2 0 2
node 23 2 0 0
node 112 1 0 0
node 172 1 0 0
node 190 3 0 0
gene 2 1 4 5.98036 0 1 5.98036 1
gene 3 2 4 -8 0 2 -8 1
gene 1 3 4 -2.72713 0 3 -2.72713 0
gene 3 2 23 -2.79627 0 40 -2.79627 1
gene 3 23 4 8 0 41 8 1
gene 2 3 23 -8 0 44 -8 1
gene 3 1 23 3.29516 0 83 3.29516 1
gene 3 2 112 -3.03007 0 305 -3.03007 1
gene 3 112 23 -1.98254 0 306 -1.98254 1
gene 2 112 4 1.24111 0 314 1.24111 1
gene 2 1 112 1.1266 0 365 1.1266 1
gene 1 3 112 -0.559363 0 508 -0.559363 1
gene 1 3 172 -0.544182 0 523 -0.544182 1
gene 1 172 112 -2.87455 0 524 -2.87455 1
gene 1 3 190 -4.02504 0 580 -4.02504 1
gene 1 190 172 2.05529 0 581 2.05529 1
gene 1 2 172 3.1836 0 592 3.1836 1
gene 1 190 23 -2.12144 0 632 -2.12144 1
gene 3 1 172 -0.90565 0 656 -0.90565 1
gene 2 190 112 2.68341 0 670 2.68341 1
genomeend 88

/* Organism #89 Fitness: 9 Error: 1 */
genomestart 89
trait 1 0.075 0.0288473 0.348385 0 0.288755 0 0 0.0136104 
trait 2 0.396227 0.0937939 0.0532763 0 0.62192 0 0.132094 0.596027 
trait 3 0.300856 0 0.00161445 0 0.00445539 0.00396113 0.024437 0.00250501 
node 1 2 1 3
node 2 3 1 1
node 3 3 1 1
node 4 2 0 2
node 23 2 0 0
node 112 1 0 0
node 172 1 0 0
node 190 1 0 0
gene 2 1 4 6.70168 0 1 6.70168 1
gene 3 2 4 -8 0 2 -8 1
gene 1 3 4 1.50615 0 3 1.50615 1
gene 3 2 23 1.7192 0 40 1.7192 1
gene 3 23 4 5.93859 0 41 5.93859 1
gene 2 3 23 -8 0 44 -8 1
gene 3 1 23 4.93264 0 83 4.93264 1
gene 3 2 112 -3.50296 0 305 -3.50296 1
gene 3 112 23 -2.56809 0 306 -2.56809 1
gene 2 112 4 4.19187 0 314 4.19187 1
gene 2 1 112 1.59678 0 365 1.59678 1
gene 1 3 112 2.15739 0 508 2.15739 1
gene 1 3 172 0.438804 0 523 0.438804 1
gene 3 172 112 -1.35027 0 524 -1.35027 1
gene 1 3 190 1.01819 0 580 1.01819 1
gene 3 190 172 1.58606 0 581 1.58606 1
gene 1 2 172 2.27967 0 592 2.27967 1
gene 1 190 23 0.987226 0 632 0.987226 1
gene 3 1 172 -1.84995 0 656 -1.84995 1
gene 2 190 112 1.50921 0 670 1.50921 1
genomeend 89

/* Organism #90 Fitness: 15.998 Error: 0.00024423 */
genomestart 90
trait 1 0.075 0.0288473 0.348385 0 0.288755 0 0 0.0136104 
trait 2 0.396227 0.0937939 0.0532763 0 0.62192 0 0.132094 0.596027 
trait 3 0.300856 0 0.00161445 0 0.00445539 0.00396113 0.024437 0.00250501 
node 1 2 1 3
node 2 3 1 1
node 3 3 1 1
node 4 2 0 2
node 23 2 0 0
node 112 1 0 0
node 172 1 0 0
node 190 3 0 0
gene 2 1 4 4.59939 0 1 4.59939 1
gene 3 2 4 -8 0 2 -8 1
gene 1 3 4 1.7116 0 3 1.7116 1
gene 3 2 23 1.33227 0 40 1.33227 1
gene 3 23 4 8 0 41 8 1
gene 2 3 23 -8 0 44 -8 1
gene 3 1 23 3.20264 0 83 3.20264 1
gene 3 2 112 -3.86253 0 305 -3.86253 1
gene 3 112 23 -4.84521 0 306 -4.84521 1
gene 2 112 4 1.17671 0 314 1.17671 1
gene 2 1 112 2.24657 0 365 2.24657 1
gene 1 3 112 -1.35143 0 508 -1.35143 1
gene 1 3 172 -1.53381 0 523 -1.53381 1
gene 1 172 112 -2.16316 0 524 -2.16316 1
gene 1 3 190 -2.99414 0 580 -2.99414 1
gene 1 190 172 1.18533 0 581 1.18533 1
gene 1 2 172 4.56416 0 592 4.56416 1
gene 1 190 23 0.115922 0 632 0.115922 1
gene 3 1 172 -1.33136 0 656 -1.33136 1
gene 2 190 112 1.74585 0 670 1.74585 1
genomeend 90

/* Species #32 : (Size 7) (AF 13.4963) (Age 15)  */


/* Organism #91 Fitness: 16 Error: 6.32991e-09 */
genomestart 91
trait 1 0.311131 0.0446231 0.167149 0 0.153012 0 0 0.0312623 
trait 2 1 0 0.0430417 0.00887263 0.0918419 0.856818 0 0.46423 
trait 3 0.290573 0 0.00143787 0 0.00360311 0.00287801 0.0334238 0.00360096 
node 1 1 1 3
node 2 3 1 1
node 3 3 1 1
node 4 1 0 2
node 23 3 0 0
node 79 1 0 0
node 84 1 0 0
node 186 1 0 0
gene 2 1 4 5.26333 0 1 5.26333 1
gene 3 2 4 -8 0 2 -8 1
gene 1 3 4 -8 0 3 -8 1
gene 3 2 23 1.11833 0 40 1.11833 1
gene 3 23 4 2.31465 0 41 2.31465 0
gene 2 3 23 -2.12158 0 44 -2.12158 0
gene 3 1 23 -1.33485 0 106 -1.33485 1
gene 3 23 79 -1.66052 0 200 -1.66052 1
gene 3 79 4 2.12469 0 201 2.12469 1
gene 3 23 84 2.7026 0 215 2.7026 1
gene 3 84 4 6.7758 0 216 6.7758 1
gene 2 3 84 3.21157 0 293 3.21157 1
gene 3 2 84 5.28217 0 318 5.28217 1
gene 1 84 79 0.45039 0 445 0.45039 1
gene 3 3 79 -0.632731 0 475 -0.632731 1
gene 2 3 186 -4.24547 0 566 -4.24547 1
gene 2 186 23 0.452428 0 567 0.452428 1
genomeend 91

/* Organism #92 Fitness: 16 Error: 3.5356e-06 */
genomestart 92
trait 1 0.311131 0.0446231 0.167149 0 0.153012 0 0 0.0312623 
trait 2 1 0 0.0430417 0.00887263 0.0918419 0.856818 0 0.46423 
trait 3 0.290573 0 0.00143787 0 0.00360311 0.00287801 0.0334238 0.00360096 
node 1 1 1 3
node 2 3 1 1
node 3 3 1 1
node 4 1 0 2
node 23 3 0 0
node 79 1 0 0
node 84 1 0 0
node 186 1 0 0
gene 2 1 4 4.64928 0 1 4.64928 1
gene 3 2 4 -8 0 2 -8 1
gene 1 3 4 -8 0 3 -8 1
gene 3 2 23 -0.792476 0 40 -0.792476 1
gene 3 23 4 3.74488 0 41 3.74488 0
gene 2 3 23 -4.58968 0 44 -4.58968 0
gene 3 1 23 -2.04814 0 106 -2.04814 1
gene 3 23 79 -2.57299 0 200 -2.57299 1
gene 3 79 4 -0.785976 0 201 -0.785976 1
gene 3 23 84 0.787198 0 215 0.787198 1
gene 3 84 4 6.7758 0 216 6.7758 1
gene 2 3 84 2.39398 0 293 2.39398 1
gene 3 2 84 2.02028 0 318 2.02028 1
gene 1 84 79 0.45039 0 445 0.45039 1
gene 3 3 79 0.221722 0 475 0.221722 1
gene 2 3 186 -6.68775 0 566 -6.68775 1
gene 2 186 23 1.83702 0 567 1.83702 1
genomeend 92

/* Organism #93 Fitness: 16 Error: 1.18855e-08 */
genomestart 93
trait 1 0.311131 0.0446231 0.167149 0 0.153012 0 0 0.0312623 
trait 2 1 0 0.0430417 0.00887263 0.0918419 0.856818 0 0.46423 
trait 3 0.290573 0 0.00143787 0 0.00360311 0.00287801 0.0334238 0.00360096 
node 1 1 1 3
node 2 3 1 1
node 3 3 1 1
node 4 1 0 2
node 23 3 0 0
node 79 1 0 0
node 84 1 0 0
node 186 1 0 0
gene 2 1 4 5.51607 0 1 5.51607 1
gene 3 2 4 -6.78284 0 2 -6.78284 1
gene 1 3 4 -8 0 3 -8 1
gene 3 2 23 1.75756 0 40 1.75756 1
gene 3 23 4 1.32618 0 41 1.32618 0
gene 2 3 23 -0.386379 0 44 -0.386379 0
gene 3 1 23 -0.501682 0 106 -0.501682 1
gene 3 23 79 -1.42226 0 200 -1.42226 1
gene 3 79 4 2.1086 0 201 2.1086 1
gene 3 23 84 2.49618 0 215 2.49618 1
gene 3 84 4 5.53856 0 216 5.53856 1
gene 2 3 84 3.253 0 293 3.253 1
gene 3 2 84 4.48828 0 318 4.48828 1
gene 1 84 79 1.10518 0 445 1.10518 1
gene 3 3 79 -0.632731 0 475 -0.632731 1
gene 2 3 186 -4.24547 0 566 -4.24547 1
gene 2 186 23 0.679711 0 567 0.679711 1
genomeend 93

/* Organism #94 Fitness: 10.422 Error: 0.77169 */
genomestart 94
trait 1 0.311131 0.0446231 0.167149 0 0.153012 0 0 0.0312623 
trait 2 1 0 0.0430417 0.00887263 0.0918419 0.856818 0 0.46423 
trait 3 0.290573 0 0.00143787 0 0.00360311 0.00287801 0.0334238 0.00360096 
node 1 1 1 3
node 2 3 1 1
node 3 3 1 1
node 4 1 0 2
node 23 3 0 0
node 79 1 0 0
node 84 1 0 0
node 186 1 0 0
gene 2 1 4 7.48348 0 1 7.48348 1
gene 3 2 4 -8 0 2 -8 1
gene 1 3 4 -5.69838 0 3 -5.69838 1
gene 3 2 23 1.97478 0 40 1.97478 1
gene 3 23 4 1.179 0 41 1.179 0
gene 2 3 23 -1.9211 0 44 -1.9211 0
gene 3 1 23 -0.872085 0 106 -0.872085 1
gene 3 23 79 -2.36162 0 200 -2.36162 1
gene 3 79 4 -0.0313678 0 201 -0.0313678 1
gene 3 23 84 3.8061 0 215 3.8061 1
gene 3 84 4 6.46223 0 216 6.46223 1
gene 2 3 84 3.80317 0 293 3.80317 1
gene 3 2 84 4.50397 0 318 4.50397 1
gene 1 84 79 -1.22211 0 445 -1.22211 1
gene 3 3 79 1.50253 0 475 1.50253 1
gene 2 3 186 -4.35513 0 566 -4.35513 1
gene 2 186 23 0.452428 0 567 0.452428 1
genomeend 94

/* Organism #95 Fitness: 16 Error: 1.23433e-08 */
genomestart 95
trait 1 0.311131 0.0446231 0.167149 0 0.153012 0 0 0.0312623 
trait 2 1 0 0.0430417 0.00887263 0.0918419 0.856818 0 0.46423 
trait 3 0.290573 0 0.00143787 0 0.00360311 0.00287801 0.0334238 0.00360096 
node 1 1 1 3
node 2 3 1 1
node 3 3 1 1
node 4 1 0 2
node 23 3 0 0
node 79 1 0 0
node 84 1 0 0
node 186 1 0 0
node 244 1 0 0
gene 2 1 4 5.51607 0 1 5.51607 1
gene 3 2 4 -6.78284 0 2 -6.78284 1
gene 1 3 4 -8 0 3 -8 1
gene 3 2 23 1.75756 0 40 1.75756 1
gene 3 23 4 1.32618 0 41 1.32618 0
gene 2 3 23 -0.386379 0 44 -0.386379 1
gene 3 1 23 -0.501682 0 106 -0.501682 1
gene 3 23 79 -1.42226 0 200 -1.42226 1
gene 3 79 4 2.1086 0 201 2.1086 1
gene 3 23 84 2.49618 0 215 2.49618 1
gene 3 84 4 5.53856 0 216 5.53856 1
gene 2 3 84 3.253 0 293 3.253 1
gene 3 2 84 4.48828 0 318 4.48828 1
gene 1 84 79 1.10518 0 445 1.10518 1
gene 3 3 79 -0.632731 0 475 -0.632731 0
gene 2 3 186 -4.24547 0 566 -4.24547 1
gene 2 186 23 0.679711 0 567 0.679711 1
gene 3 3 244 1 0 763 0 1
gene 3 244 79 -0.632731 0 764 0 1
genomeend 95

/* Organism #96 Fitness: 15.9998 Error: 2.10416e-05 */
genomestart 96
trait 1 0.311131 0.0446231 0.167149 0 0.153012 0 0 0.0312623 
trait 2 1 0 0.0430417 0.00887263 0.0918419 0.856818 0 0.46423 
trait 3 0.290573 0 0.00143787 0 0.00360311 0.00287801 0.0334238 0.00360096 
node 1 2 1 3
node 2 3 1 1
node 3 3 1 1
node 4 1 0 2
node 23 3 0 0
node 79 1 0 0
node 84 1 0 0
node 186 1 0 0
gene 2 1 4 3.4495 0 1 3.4495 1
gene 3 2 4 -4.84806 0 2 -4.84806 1
gene 1 3 4 -7.47762 0 3 -7.47762 1
gene 3 2 23 2.01719 0 40 2.01719 1
gene 3 23 4 -0.341441 0 41 -0.341441 0
gene 2 3 23 0.199988 0 44 0.199988 0
gene 3 1 23 -0.970108 0 106 -0.970108 1
gene 3 23 79 -2.23237 0 200 -2.23237 1
gene 3 79 4 2.94084 0 201 2.94084 1
gene 3 23 84 4.4557 0 215 4.4557 1
gene 3 84 4 6.683 0 216 6.683 1
gene 2 3 84 5.10353 0 293 5.10353 1
gene 3 2 84 6.21399 0 318 6.21399 1
gene 1 84 79 0.162393 0 445 0.162393 1
gene 3 3 79 -0.632731 0 475 -0.632731 1
gene 2 3 186 -1.04564 0 566 -1.04564 1
gene 2 186 23 1.71715 0 567 1.71715 1
genomeend 96

/* Organism #97 Fitness: 4.05251 Error: 1.98692 */
genomestart 97
trait 1 0.311131 0.0446231 0.167149 0 0.153012 0 0 0.0312623 
trait 2 1 0 0.0430417 0.00887263 0.0918419 0.856818 0 0.46423 
trait 3 0.290573 0 0.00143787 0 0.00360311 0.00287801 0.0334238 0.00360096 
node 1 1 1 3
node 2 3 1 1
node 3 3 1 1
node 4 1 0 2
node 23 3 0 0
node 79 1 0 0
node 84 1 0 0
node 186 1 0 0
gene 2 1 4 5.26333 0 1 5.26333 1
gene 3 2 4 -6.12409 0 2 -6.12409 1
gene 1 3 4 -7.7095 0 3 -7.7095 1
gene 3 2 23 1.23283 0 40 1.23283 1
gene 3 23 4 0.650444 0 41 0.650444 0
gene 2 3 23 -1.5956 0 44 -1.5956 0
gene 3 1 23 -1.56413 0 106 -1.56413 1
gene 3 23 79 -1.66052 0 200 -1.66052 1
gene 3 79 4 3.27027 0 201 3.27027 1
gene 3 23 84 2.42291 0 215 2.42291 1
gene 3 84 4 8 0 216 8 1
gene 2 3 84 -0.600398 0 293 -0.600398 1
gene 3 2 84 5.35394 0 318 5.35394 1
gene 1 84 79 0.623921 0 445 0.623921 1
gene 3 3 79 -0.632731 0 475 -0.632731 1
gene 2 3 186 -0.0656415 0 566 -0.0656415 1
gene 2 186 23 -1.03361 0 567 -1.03361 1
genomeend 97

/* Species #33 : (Size 10) (AF 13.1235) (Age 14)  */


/* Organism #98 Fitness: 16 Error: 3.20705e-11 */
genomestart 98
trait 1 0.1 0.0576945 0 0 0 0 0 0.0136104 
trait 2 0.593919 0 0 0.0202803 0.593712 0 0 1 
trait 3 0.263249 0 0.023181 0 0.281361 0 0.0426411 0.00501003 
node 1 3 1 3
node 2 3 1 1
node 3 3 1 1
node 4 1 0 2
node 23 1 0 0
node 55 1 0 0
node 81 1 0 0
node 126 1 0 0
node 191 1 0 0
gene 2 1 4 8 0 1 8 1
gene 3 2 4 -8 0 2 -8 1
gene 1 3 4 -7.36631 0 3 -7.36631 1
gene 3 2 23 -1.77683 0 40 -1.77683 1
gene 3 23 4 4.95606 0 41 4.95606 1
gene 2 3 23 -6.89496 0 44 -6.89496 0
gene 1 3 55 3.14275 0 117 3.14275 1
gene 2 55 4 0.663512 0 118 0.663512 1
gene 2 1 55 -1.58866 0 143 -1.58866 1
gene 2 3 81 2.4092 0 206 2.4092 0
gene 2 81 23 2.79001 0 207 2.79001 1
gene 3 1 81 -0.384681 0 226 -0.384681 1
gene 2 3 126 -0.2865 0 356 -0.2865 1
gene 2 126 81 2.20947 0 357 2.20947 1
gene 1 55 81 -0.561273 0 568 -0.561273 0
gene 1 55 191 0.424476 0 585 0.424476 1
gene 1 191 81 -0.561273 0 586 0 1
gene 2 1 191 -0.60802 0 634 -0.60802 1
gene 2 191 4 0.0568186 0 735 0.0568186 1
genomeend 98

/* Organism #99 Fitness: 16 Error: 3.20719e-11 */
genomestart 99
trait 1 0.1 0.0576945 0 0 0 0 0 0.0136104 
trait 2 0.593919 0 0 0.0202803 0.593712 0 0 1 
trait 3 0.263249 0 0.023181 0 0.281361 0 0.0426411 0.00501003 
node 1 3 1 3
node 2 3 1 1
node 3 3 1 1
node 4 1 0 2
node 23 1 0 0
node 55 1 0 0
node 81 1 0 0
node 126 1 0 0
node 191 1 0 0
gene 2 1 4 8 0 1 8 1
gene 3 2 4 -8 0 2 -8 1
gene 1 3 4 -7.36631 0 3 -7.36631 1
gene 3 2 23 -1.77683 0 40 -1.77683 1
gene 3 23 4 4.95606 0 41 4.95606 1
gene 2 3 23 -6.89496 0 44 -6.89496 0
gene 1 3 55 3.14275 0 117 3.14275 1
gene 2 55 4 0.663512 0 118 0.663512 1
gene 2 1 55 -1.58866 0 143 -1.58866 1
gene 2 3 81 2.4092 0 206 2.4092 0
gene 2 81 23 2.79001 0 207 2.79001 1
gene 3 1 81 -0.384681 0 226 -0.384681 1
gene 2 3 126 -0.2865 0 356 -0.2865 1
gene 2 126 81 2.20947 0 357 2.20947 1
gene 1 55 81 -0.561273 0 568 -0.561273 0
gene 1 55 191 0.424476 0 585 0.424476 1
gene 1 191 81 -0.561273 0 586 0 1
gene 2 1 191 -0.60802 0 634 -0.60802 1
gene 2 191 4 0.0568186 0 735 0.0568186 1
gene 2 126 191 0.021818 0 765 0.021818 1
genomeend 99

/* Organism #100 Fitness: 10.0418 Error: 0.831118 */
genomestart 100
trait 1 0.1 0.0576945 0 0 0 0 0 0.0136104 
trait 2 0.593919 0 0 0.0202803 0.593712 0 0 1 
trait 3 0.117909 0 0.023181 0 1 0 0.0426411 0.00501003 
node 1 3 1 3
node 2 3 1 1
node 3 3 1 1
node 4 1 0 2
node 23 1 0 0
node 55 1 0 0
node 81 1 0 0
node 126 1 0 0
node 191 1 0 0
gene 2 1 4 8 0 1 8 1
gene 3 2 4 -8 0 2 -8 1
gene 1 3 4 -8 0 3 -8 1
gene 3 2 23 -3.21873 0 40 -3.21873 1
gene 3 23 4 3.54609 0 41 3.54609 1
gene 2 3 23 -8 0 44 -8 0
gene 1 3 55 1.16179 0 117 1.16179 1
gene 2 55 4 0.663512 0 118 0.663512 1
gene 2 1 55 -3.59614 0 143 -3.59614 1
gene 2 3 81 0.979345 0 206 0.979345 0
gene 2 81 23 0.921763 0 207 0.921763 1
gene 3 1 81 -1.11347 0 226 -1.11347 1
gene 2 3 126 1.68316 0 356 1.68316 1
gene 2 126 81 0.63545 0 357 0.63545 1
gene 1 55 81 0.447486 0 568 0.447486 0
gene 1 55 191 -2.1843 0 585 -2.1843 1
gene 1 191 81 -0.159238 0 586 -0.159238 1
gene 2 1 191 -0.189052 0 634 -0.189052 1
gene 2 191 4 -1.14359 0 735 -1.14359 1
genomeend 100

/* Organism #101 Fitness: 16 Error: 3.20705e-11 */
genomestart 101
trait 1 0.1 0.0576945 0 0 0 0 0 0.0136104 
trait 2 0.593919 0 0 0.0202803 0.593712 0 0 1 
trait 3 0.263249 0 0.023181 0 0.281361 0 0.0426411 0.00501003 
node 1 3 1 3
node 2 3 1 1
node 3 3 1 1
node 4 1 0 2
node 23 1 0 0
node 55 1 0 0
node 81 1 0 0
node 126 1 0 0
node 191 1 0 0
gene 2 1 4 8 0 1 8 1
gene 3 2 4 -8 0 2 -8 1
gene 1 3 4 -7.36631 0 3 -7.36631 1
gene 3 2 23 -1.77683 0 40 -1.77683 1
gene 3 23 4 4.95606 0 41 4.95606 1
gene 2 3 23 -6.89496 0 44 -6.89496 0
gene 1 3 55 3.14275 0 117 3.14275 1
gene 2 55 4 0.663512 0 118 0.663512 1
gene 2 1 55 -1.58866 0 143 -1.58866 1
gene 2 3 81 2.4092 0 206 2.4092 0
gene 2 81 23 2.79001 0 207 2.79001 1
gene 3 1 81 -0.384681 0 226 -0.384681 1
gene 2 3 126 -0.2865 0 356 -0.2865 1
gene 2 126 81 2.20947 0 357 2.20947 1
gene 1 55 81 -0.561273 0 568 -0.561273 0
gene 1 55 191 0.424476 0 585 0.424476 1
gene 1 191 81 -0.561273 0 586 0 1
gene 2 1 191 -0.60802 0 634 -0.60802 1
gene 2 191 4 0.0568186 0 735 0.0568186 1
genomeend 101

/* Organism #102 Fitness: 15.785 Error: 0.0269702 */
genomestart 102
trait 1 0.1 0.0576945 0 0 0 0 0 0.0136104 
