
/* Species #3 : (Size 8) (AF 9.18509) (Age 25)  */


/* Organism #0 Fitness: 15.9983 Error: 0.000210999 */
genomestart 0
trait 1 0.1 0.0576945 0.110738 0 0 0 0 0.428254 
trait 2 0.2 0 0.0210098 0.0202803 0.0336948 0.132647 0 0.0346538 
trait 3 0.300856 0.248196 0.958776 0 0.0764277 0.101405 0.0283942 0.00501003 
node 1 3 1 3
node 2 3 1 1
node 3 3 1 1
node 4 2 0 2
node 23 1 0 0
node 37 1 0 0
gene 2 1 4 6.27531 0 1 6.27531 1
gene 3 2 4 1.14246 0 2 1.14246 0
gene 1 3 4 -4.93347 0 3 -4.93347 1
gene 3 2 23 1.84175 0 40 1.84175 1
gene 3 23 4 -6.49062 0 41 -6.49062 1
gene 1 3 37 -0.452902 0 74 -0.452902 1
gene 1 37 4 4.68471 0 75 4.68471 1
gene 1 3 23 -0.909638 0 169 0 1
gene 3 1 23 -0.134594 0 199 -0.134594 1
genomeend 0

/* Organism #1 Fitness: 7.46644 Error: 1.26752 */
genomestart 1
trait 1 0.1 0.0576945 0.110738 0 0 0 0 0.428254 
trait 2 0.2 0 0.0210098 0.0202803 0.0336948 0.132647 0 0.0346538 
trait 3 0.300856 0.248196 0.958776 0 0.0764277 0.101405 0.0283942 0.00501003 
node 1 3 1 3
node 2 3 1 1
node 3 3 1 1
node 4 2 0 2
node 23 1 0 0
node 37 1 0 0
gene 2 1 4 4.91696 0 1 4.91696 1
gene 3 2 4 2.59619 0 2 2.59619 0
gene 1 3 4 -5.72191 0 3 -5.72191 1
gene 3 2 23 1.38508 0 40 1.38508 1
gene 3 23 4 -7.29267 0 41 -7.29267 1
gene 1 3 37 1.57132 0 74 1.57132 1
gene 1 37 4 5.51003 0 75 5.51003 1
gene 1 3 23 0.168766 0 169 0.168766 1
gene 3 1 23 2.2368 0 199 2.2368 1
genomeend 1

/* Organism #2 Fitness: 3.95991 Error: 2.01005 */
genomestart 2
trait 1 0.1 0.0576945 0.110738 0 0 0 0 0.428254 
trait 2 0.2 0 0.0210098 0.0202803 0.0336948 0.132647 0 0.0346538 
trait 3 0.300856 0.248196 0.958776 0 0.0764277 0.101405 0.0283942 0.00501003 
node 1 3 1 3
node 2 3 1 1
node 3 3 1 1
node 4 2 0 2
node 23 1 0 0
node 37 1 0 0
gene 2 1 4 -0.133129 0 1 -0.133129 1
gene 3 2 4 3.22188 0 2 3.22188 0
gene 1 3 4 -4.41801 0 3 -4.41801 1
gene 3 2 23 1.34078 0 40 1.34078 1
gene 3 23 4 -5.02608 0 41 -5.02608 1
gene 1 3 37 -1.72999 0 74 -1.72999 1
gene 1 37 4 -0.334944 0 75 -0.334944 1
gene 1 3 23 -0.909638 0 169 -0.909638 1
gene 3 1 23 -2.08568 0 199 -2.08568 1
genomeend 2

/* Organism #3 Fitness: 1.0008 Error: 2.9996 */
genomestart 3
trait 1 0.1 0.0576945 0.110738 0 0 0 0 0.428254 
trait 2 0.566441 0 0.0210098 0.0202803 0 0.132647 0 0.0346538 
trait 3 0.300856 0.248196 0.958776 0 0.0764277 0.101405 0.0283942 0.00501003 
node 1 3 1 3
node 2 3 1 1
node 3 3 1 1
node 4 2 0 2
node 23 1 0 0
node 37 1 0 0
gene 2 1 4 1.71861 0 1 1.71861 1
gene 3 2 4 -1.18846 0 2 -1.18846 0
gene 1 3 4 -2.44121 0 3 -2.44121 1
gene 3 2 23 3.2987 0 40 3.2987 1
gene 3 23 4 -6.94455 0 41 -6.94455 1
gene 1 3 37 0.355425 0 74 0.355425 1
gene 1 37 4 4.02094 0 75 4.02094 1
gene 1 3 23 0.509645 0 169 0.509645 1
gene 3 1 23 0.244987 0 199 0.244987 1
genomeend 3

/* Organism #4 Fitness: 9.01082 Error: 0.998196 */
genomestart 4
trait 1 0.1 0.0576945 0.110738 0 0 0 0 0.428254 
trait 2 0.2 0 0.0210098 0.0202803 0.0336948 0.132647 0 0.0346538 
trait 3 0.300856 0.248196 0.958776 0 0.0764277 0.101405 0.0283942 0.00501003 
node 1 3 1 3
node 2 3 1 1
node 3 3 1 1
node 4 2 0 2
node 23 1 0 0
node 37 1 0 0
gene 2 1 4 5.70828 0 1 5.70828 1
gene 3 2 4 -0.17058 0 2 -0.17058 0
gene 1 3 4 -6.72757 0 3 -6.72757 1
gene 3 2 23 3.256 0 40 3.256 1
gene 3 23 4 -5.72189 0 41 -5.72189 1
gene 1 3 37 -2.8428 0 74 -2.8428 1
gene 1 37 4 6.54086 0 75 6.54086 1
gene 1 3 23 -2.08424 0 169 -2.08424 1
gene 1 1 23 -2.07689 0 199 -2.07689 1
genomeend 4

/* Organism #5 Fitness: 4.04894 Error: 1.9878 */
genomestart 5
trait 1 0.1 0.0576945 0.110738 0 0 0 0 0.428254 
trait 2 0.2 0 0.0210098 0.0202803 0.0336948 0.132647 0 0.0346538 
trait 3 0.300856 0.248196 0.958776 0 0.0764277 0.101405 0.0283942 0.00501003 
node 1 3 1 3
node 2 3 1 1
node 3 3 1 1
node 4 2 0 2
node 23 1 0 0
node 37 1 0 0
node 104 1 0 0
gene 2 1 4 6.27531 0 1 6.27531 1
gene 3 2 4 1.14246 0 2 1.14246 0
gene 1 3 4 -4.93347 0 3 -4.93347 1
gene 3 2 23 1.84175 0 40 1.84175 1
gene 3 23 4 -6.49062 0 41 -6.49062 0
gene 1 3 37 -0.452902 0 74 -0.452902 1
gene 1 37 4 4.68471 0 75 4.68471 1
gene 1 3 23 -0.909638 0 169 0 1
gene 3 1 23 -0.134594 0 199 -0.134594 1
gene 3 23 104 1 0 280 0 1
gene 3 104 4 -6.49062 0 281 0 1
genomeend 5

/* Organism #6 Fitness: 15.9983 Error: 0.000210999 */
genomestart 6
trait 1 0.1 0.0576945 0.110738 0 0 0 0 0.428254 
trait 2 0.2 0 0.0210098 0.0202803 0.0336948 0.132647 0 0.0346538 
trait 3 0.300856 0.248196 0.958776 0 0.0764277 0.101405 0.0283942 0.00501003 
node 1 3 1 3
node 2 3 1 1
node 3 3 1 1
node 4 2 0 2
node 23 1 0 0
node 37 1 0 0
gene 2 1 4 6.27531 0 1 6.27531 1
gene 3 2 4 1.14246 0 2 1.14246 0
gene 1 3 4 -4.93347 0 3 -4.93347 1
gene 3 2 23 1.84175 0 40 1.84175 1
gene 3 23 4 -6.49062 0 41 -6.49062 1
gene 1 3 37 -0.452902 0 74 -0.452902 1
gene 1 37 4 4.68471 0 75 4.68471 1
gene 1 3 23 -0.909638 0 169 0 1
gene 3 1 23 -0.134594 0 199 -0.134594 1
genomeend 6

/* Organism #7 Fitness: 15.9972 Error: 0.000351303 */
genomestart 7
trait 1 0.1 0.0576945 0.110738 0 0 0 0 0.428254 
trait 2 0.2 0 0.0210098 0.0202803 0.0336948 0.132647 0 0.0346538 
trait 3 0.300856 0.248196 0.958776 0 0.0764277 0.101405 0.0283942 0.00501003 
node 1 3 1 3
node 2 3 1 1
node 3 3 1 1
node 4 2 0 2
node 23 1 0 0
node 37 1 0 0
gene 2 1 4 8 0 1 8 1
gene 3 2 4 -1.34553 0 2 -1.34553 0
gene 1 3 4 -4.44495 0 3 -4.44495 1
gene 3 2 23 4.21806 0 40 4.21806 1
gene 3 23 4 -6.16518 0 41 -6.16518 1
gene 1 3 37 -1.86985 0 74 -1.86985 1
gene 1 37 4 3.23344 0 75 3.23344 1
gene 1 3 23 -1.72643 0 169 -1.72643 1
gene 3 1 23 0.741639 0 199 0.741639 1
genomeend 7

/* Species #4 : (Size 13) (AF 12.6984) (Age 24)  */


/* Organism #8 Fitness: 16 Error: 1.43889e-08 */
genomestart 8
trait 1 0.0488281 0.0360591 0.182754 0.788551 0.349742 0 0 0 
trait 2 0.2 0 0.0298831 0.0202803 0.0336948 0 0 0.0346538 
trait 3 0.277351 0 0.825358 0.188892 0 0.00148542 0.0449784 0.00501003 
node 1 3 1 3
node 2 3 1 1
node 3 3 1 1
node 4 2 0 2
node 23 1 0 0
gene 2 1 4 8 0 1 8 1
gene 3 2 4 -7.80114 0 2 -7.80114 1
gene 1 3 4 -4.1635 0 3 -4.1635 1
gene 3 2 23 3.54201 0 40 3.54201 1
gene 3 23 4 5.9341 0 41 5.9341 1
gene 2 3 23 -0.926935 0 44 -0.926935 1
gene 3 1 23 -3.42047 0 106 -3.42047 1
genomeend 8

/* Organism #9 Fitness: 12.7889 Error: 0.423838 */
genomestart 9
trait 1 0.0488281 0.0360591 0.182754 0.788551 0.349742 0 0 0 
trait 2 0.2 0 0.0298831 0.0202803 0.0336948 0 0 0.0346538 
trait 3 0.277351 0 0.825358 0.188892 0 0.00148542 0.0449784 0.00501003 
node 1 3 1 3
node 2 3 1 1
node 3 3 1 1
node 4 2 0 2
node 23 1 0 0
gene 2 1 4 8 0 1 8 1
gene 3 2 4 -8 0 2 -8 1
gene 1 3 4 -2.24619 0 3 -2.24619 1
gene 3 2 23 2.46044 0 40 2.46044 1
gene 3 23 4 5.39045 0 41 5.39045 1
gene 2 3 23 -0.73402 0 44 -0.73402 1
gene 3 1 23 -3.36367 0 106 -3.36367 1
genomeend 9

/* Organism #10 Fitness: 15.5348 Error: 0.0585814 */
genomestart 10
trait 1 0.0488281 0.0360591 0.182754 0.281971 0.349742 0 0 0 
trait 2 0.2 0.029624 0.0298831 0.0202803 0.0336948 0.0664234 0 0.0346538 
trait 3 0.277351 0 0.825358 0.188892 0 0.00148542 0.0449784 0.00501003 
node 1 3 1 3
node 2 3 1 1
node 3 1 1 1
node 4 2 0 2
node 23 1 0 0
gene 2 1 4 7.21486 0 1 7.21486 1
gene 3 2 4 -6.6251 0 2 -6.6251 1
gene 1 3 4 -6.24791 0 3 -6.24791 1
gene 3 2 23 2.62596 0 40 2.62596 1
gene 3 23 4 3.64187 0 41 3.64187 1
gene 2 3 23 1.18496 0 44 1.18496 1
gene 3 1 23 -3.87501 0 106 -3.87501 1
genomeend 10

/* Organism #11 Fitness: 13.6116 Error: 0.310604 */
genomestart 11
trait 1 0.0488281 0.0360591 0.182754 0.788551 0.349742 0 0 0 
trait 2 0.2 0 0.0298831 0.0202803 0.0336948 0 0 0.0346538 
trait 3 0.277351 0 0.825358 0.188892 0 0.00148542 0.0449784 0.00501003 
node 1 3 1 3
node 2 3 1 1
node 3 3 1 1
node 4 2 0 2
node 23 1 0 0
gene 2 1 4 8 0 1 8 1
gene 3 2 4 -7.83809 0 2 -7.83809 1
gene 1 3 4 -4.05773 0 3 -4.05773 1
gene 3 2 23 -0.229925 0 40 -0.229925 1
gene 3 23 4 6.44176 0 41 6.44176 1
gene 2 3 23 -0.905151 0 44 -0.905151 1
gene 3 1 23 -6.44639 0 106 -6.44639 1
genomeend 11

/* Organism #12 Fitness: 15.9395 Error: 0.0075737 */
genomestart 12
trait 1 0.0488281 0.0360591 0.182754 0.788551 0.349742 0 0 0 
trait 2 0.2 0.029624 0.0298831 0.0202803 0.0336948 0.0664234 0 0.0346538 
trait 3 1 0.256353 0.829305 0.8721 0.194064 0.00148542 0.0449784 0.00501003 
node 1 3 1 3
node 2 3 1 1
node 3 1 1 1
node 4 2 0 2
node 23 1 0 0
gene 2 1 4 8 0 1 8 1
gene 3 2 4 -7.19437 0 2 -7.19437 1
gene 1 3 4 -4.27957 0 3 -4.27957 1
gene 3 2 23 5.18854 0 40 5.18854 1
gene 3 23 4 4.33001 0 41 4.33001 1
gene 2 3 23 -3.15273 0 44 -3.15273 1
gene 3 1 23 -5.82058 0 106 -5.82058 1
genomeend 12

/* Organism #13 Fitness: 4.10842 Error: 1.97308 */
genomestart 13
trait 1 0.0488281 0.0360591 0.182754 0.788551 0.349742 0 0 0 
trait 2 0.2 0 0.0298831 0.0202803 0.0336948 0 0 0.0346538 
trait 3 0.277351 0 0.825358 0.188892 0 0.00148542 0.0449784 0.00501003 
node 1 3 1 3
node 2 3 1 1
node 3 3 1 1
node 4 2 0 2
node 23 1 0 0
gene 2 1 4 5.67518 0 1 5.67518 1
gene 3 2 4 -6.07207 0 2 -6.07207 1
gene 1 3 4 -6.40389 0 3 -6.40389 1
gene 3 2 23 3.45236 0 40 3.45236 1
gene 3 23 4 -1.66935 0 41 -1.66935 1
gene 2 3 23 0.00929635 0 44 0.00929635 1
gene 3 1 23 -1.97358 0 106 -1.97358 1
genomeend 13

/* Organism #14 Fitness: 15.9493 Error: 0.00634776 */
genomestart 14
trait 1 0.0488281 0.0360591 0.182754 0.788551 0.349742 0 0 0 
trait 2 0.2 0 0.0298831 0.0202803 0.0336948 0 0 0.0346538 
trait 3 0.277351 0 0.825358 0.188892 0 0.00148542 0.0449784 0.00501003 
node 1 3 1 3
node 2 3 1 1
node 3 3 1 1
node 4 3 0 2
node 23 1 0 0
gene 2 1 4 7.42763 0 1 7.42763 1
gene 3 2 4 -4.28059 0 2 -4.28059 1
gene 1 3 4 -4.17325 0 3 -4.17325 1
gene 3 2 23 2.96916 0 40 2.96916 1
gene 3 23 4 7.47551 0 41 7.47551 1
gene 2 3 23 -0.997723 0 44 -0.997723 1
gene 3 1 23 -5.65913 0 106 -5.65913 1
genomeend 14

/* Organism #15 Fitness: 12.1644 Error: 0.512247 */
genomestart 15
trait 1 0.0488281 0.0360591 0.182754 0.788551 0.349742 0 0 0 
trait 2 0.2 0 0.0298831 0.0202803 0.0336948 0 0 0.0346538 
trait 3 0.277351 0 0.825358 0.188892 0 0.00148542 0.0449784 0.00501003 
node 1 3 1 3
node 2 3 1 1
node 3 3 1 1
node 4 2 0 2
node 23 1 0 0
gene 2 1 4 7.16687 0 1 7.16687 1
gene 3 2 4 -5.36312 0 2 -5.36312 1
gene 1 3 4 -4.36509 0 3 -4.36509 1
gene 3 2 23 4.01865 0 40 4.01865 1
gene 3 23 4 2.57351 0 41 2.57351 1
gene 2 3 23 -0.65687 0 44 -0.65687 1
gene 3 1 23 -1.93002 0 106 -1.93002 1
genomeend 15

/* Organism #16 Fitness: 8.97785 Error: 1.00369 */
genomestart 16
trait 1 0.0488281 0.0360591 0.182754 0.788551 0.349742 0 0 0 
trait 2 0.2 0 0.0298831 0.0202803 0.0336948 0 0 0.0346538 
trait 3 0.277351 0 0.825358 0.188892 0 0.00148542 0.0449784 0.00501003 
node 1 3 1 3
node 2 3 1 1
node 3 3 1 1
node 4 2 0 2
node 23 1 0 0
gene 2 1 4 2.4065 0 1 2.4065 1
gene 3 2 4 -7.80114 0 2 -7.80114 1
gene 1 3 4 0.481478 0 3 0.481478 1
gene 3 2 23 3.33076 0 40 3.33076 1
gene 3 23 4 3.79618 0 41 3.79618 1
gene 2 3 23 1.12836 0 44 1.12836 1
gene 3 1 23 -1.2261 0 106 -1.2261 1
genomeend 16

/* Organism #17 Fitness: 9.00242 Error: 0.999597 */
genomestart 17
trait 1 0.0488281 0.0360591 0.182754 0.788551 0.349742 0 0 0 
trait 2 0.2 0 0.0298831 0.0202803 0.0336948 0 0 0.0346538 
trait 3 0.277351 0 0.825358 0.188892 0 0.00148542 0.0449784 0.00501003 
node 1 3 1 3
node 2 3 1 1
node 3 3 1 1
node 4 2 0 2
node 23 1 0 0
gene 2 1 4 8 0 1 8 1
gene 3 2 4 -6.24625 0 2 -6.24625 1
gene 1 3 4 -0.240775 0 3 -0.240775 1
gene 3 2 23 3.15164 0 40 3.15164 1
gene 3 23 4 -1.83015 0 41 -1.83015 1
gene 2 3 23 -1.53599 0 44 -1.53599 1
gene 3 1 23 -6.67654 0 106 -6.67654 1
genomeend 17

/* Organism #18 Fitness: 15.9983 Error: 0.000208703 */
genomestart 18
trait 1 0.0488281 0.0360591 0.182754 0.788551 0.349742 0 0 0 
trait 2 0.2 0.059248 0.0298831 0.0202803 0.0336948 0.132847 0 0.0346538 
trait 3 0.277351 0 0.825358 0.188892 0 0.00148542 0.0449784 0.00501003 
node 1 3 1 3
node 2 3 1 1
node 3 1 1 1
node 4 2 0 2
node 23 1 0 0
gene 2 1 4 8 0 1 8 1
gene 3 2 4 -6.85272 0 2 -6.85272 1
gene 1 3 4 -4.1635 0 3 -4.1635 1
gene 3 2 23 4.81494 0 40 4.81494 1
gene 3 23 4 1.9932 0 41 1.9932 1
gene 2 3 23 -1.27771 0 44 -1.27771 1
gene 3 1 23 -4.99876 0 106 -4.99876 1
genomeend 18

/* Organism #19 Fitness: 16 Error: 1.7324e-06 */
genomestart 19
trait 1 0.075 0.0576945 0.155012 0 0 0 0 0.0136104 
trait 2 0.2 0 0.0532763 0 0.827144 0 0 0.798345 
trait 3 0.300856 0 0.00161445 0 0.00445539 0.00396113 0.024437 0.00250501 
node 1 2 1 3
node 2 3 1 1
node 3 3 1 1
node 4 2 0 2
node 23 1 0 0
gene 2 1 4 5.8652 0 1 5.8652 1
gene 3 2 4 -6.80308 0 2 -6.80308 1
gene 1 3 4 -1.75635 0 3 -1.75635 1
gene 3 2 23 -0.511458 0 40 -0.511458 1
gene 3 23 4 6.45787 0 41 6.45787 1
gene 2 3 23 -3.90471 0 44 -3.90471 1
gene 3 1 23 2.00926 0 83 2.00926 1
genomeend 19

/* Organism #20 Fitness: 9.00342 Error: 0.999431 */
genomestart 20
trait 1 0.075 0.0576945 0.155012 0 0 0 0 0.0136104 
trait 2 0.2 0 0.0532763 0 0.827144 0 0 0.798345 
trait 3 0.300856 0 0.00161445 0 0.00445539 0.00396113 0.024437 0.00250501 
node 1 2 1 3
node 2 3 1 1
node 3 3 1 1
node 4 2 0 2
node 23 1 0 0
gene 2 1 4 6.47494 0 1 6.47494 1
gene 3 2 4 -7.99226 0 2 -7.99226 1
gene 1 3 4 -2.86589 0 3 -2.86589 1
gene 3 2 23 -5.40555 0 40 -5.40555 1
gene 3 23 4 6.38375 0 41 6.38375 1
gene 2 3 23 -1.49355 0 44 -1.49355 1
gene 3 1 23 3.35005 0 83 3.35005 1
genomeend 20

/* Species #5 : (Size 8) (AF 11.5354) (Age 22)  */


/* Organism #21 Fitness: 15.985 Error: 0.00187047 */
genomestart 21
trait 1 0.0555664 0.0320588 0 0 0 0 0 0.00756279 
trait 2 0.2 0 0.0210098 0.0202803 0.0336948 0 0 0.0346538 
trait 3 0.150428 0 0 0 0.000764841 0 0.0243663 0.00501003 
node 1 3 1 3
node 2 3 1 1
node 3 3 1 1
node 4 2 0 2
node 23 1 0 0
node 48 3 0 0
node 101 1 0 0
gene 2 1 4 2.64148 0 1 2.64148 1
gene 3 2 4 -2.95361 0 2 -2.95361 1
gene 1 3 4 -2.45513 0 3 -2.45513 1
gene 3 2 23 -0.131147 0 40 -0.131147 0
gene 3 23 4 -1.17512 0 41 -1.17512 0
gene 2 3 23 -1.74339 0 44 -1.74339 1
gene 3 23 48 1.06614 0 100 1.06614 1
gene 3 48 4 2.19594 0 101 2.19594 1
gene 3 3 48 0.0938429 0 203 0.0938429 1
gene 3 2 101 1 0 268 0 1
gene 3 101 23 -0.131147 0 269 0 1
genomeend 21

/* Organism #22 Fitness: 3.99996 Error: 2.00001 */
genomestart 22
trait 1 0.0556641 0.0321151 0 0 0 0 0 0.00757608 
trait 2 0.2 0 0.0210098 0.0202803 0.0336948 0 0 0.0346538 
trait 3 0.150428 0 0 0 0.000764841 0 0.0243663 0.00501003 
node 1 3 1 3
node 2 3 1 1
node 3 3 1 1
node 4 2 0 2
node 23 1 0 0
node 48 3 0 0
gene 2 1 4 5.05599 0 1 5.05599 1
gene 3 2 4 1.99536 0 2 1.99536 1
gene 1 3 4 -2.7187 0 3 -2.7187 1
gene 3 2 23 1.96346 0 40 1.96346 1
gene 3 23 4 -2.30237 0 41 -2.30237 0
gene 2 3 23 -0.0630373 0 44 -0.0630373 1
gene 3 23 48 -0.252032 0 100 -0.252032 1
gene 3 48 4 3.82194 0 101 3.82194 1
gene 3 3 48 -2.19965 0 203 -2.19965 1
genomeend 22

/* Organism #23 Fitness: 4.00109 Error: 1.99973 */
genomestart 23
trait 1 0.0556152 0.0320869 0 0 0 0 0 0.00756943 
trait 2 0.2 0 0.0210098 0.0202803 0.0336948 0 0 0.0346538 
trait 3 0.150428 0 0 0 0.000764841 0 0.0243663 0.00501003 
node 1 3 1 3
node 2 3 1 1
node 3 3 1 1
node 4 2 0 2
node 23 1 0 0
node 48 3 0 0
node 101 1 0 0
gene 2 1 4 -0.505101 0 1 -0.505101 1
gene 3 2 4 -2.95361 0 2 -2.95361 1
gene 1 3 4 -3.53492 0 3 -3.53492 1
gene 3 2 23 -0.131147 0 40 -0.131147 0
gene 3 23 4 -0.919525 0 41 -0.919525 0
gene 2 3 23 -1.74339 0 44 -1.74339 1
gene 3 23 48 2.48349 0 100 2.48349 1
gene 3 48 4 3.72827 0 101 3.72827 1
gene 3 3 48 -0.827674 0 203 -0.827674 1
gene 3 2 101 2.44119 0 268 2.44119 1
gene 3 101 23 -1.31185 0 269 -1.31185 1
genomeend 23

/* Organism #24 Fitness: 9.00375 Error: 0.999376 */
genomestart 24
trait 1 0.0555664 0.0320588 0 0 0 0 0 0.00756279 
trait 2 0.2 0 0.0210098 0.0202803 0.0336948 0 0 0.0346538 
trait 3 0.150428 0 0 0 0.000764841 0 0.0243663 0.00501003 
node 1 3 1 3
node 2 3 1 1
node 3 3 1 1
node 4 2 0 2
node 23 1 0 0
node 48 3 0 0
node 101 1 0 0
gene 2 1 4 1.48798 0 1 1.48798 1
gene 3 2 4 -1.50122 0 2 -1.50122 1
gene 1 3 4 -2.63603 0 3 -2.63603 1
gene 3 2 23 -1.40511 0 40 -1.40511 0
gene 3 23 4 0.0680709 0 41 0.0680709 0
gene 2 3 23 -0.824616 0 44 -0.824616 1
gene 3 23 48 1.24537 0 100 1.24537 1
gene 3 48 4 2.32591 0 101 2.32591 1
gene 3 3 48 -1.3075 0 203 -1.3075 1
gene 3 2 101 1.35373 0 268 1.35373 1
gene 3 101 23 -0.94364 0 269 -0.94364 1
genomeend 24

/* Organism #25 Fitness: 15.3221 Error: 0.0856572 */
genomestart 25
trait 1 0.0556641 0.0321151 0 0 0 0 0 0.00757608 
trait 2 0.2 0 0.0210098 0.0202803 0.0336948 0 0 0.0346538 
trait 3 0.150428 0 0 0 0.000764841 0 0.0243663 0.00501003 
node 1 3 1 3
node 2 3 1 1
node 3 3 1 1
node 4 2 0 2
node 23 1 0 0
node 48 3 0 0
gene 2 1 4 2.63101 0 1 2.63101 1
gene 3 2 4 -2.95724 0 2 -2.95724 1
gene 1 3 4 -3.05747 0 3 -3.05747 1
gene 3 2 23 -1.55527 0 40 -1.55527 1
gene 3 23 4 -2.47288 0 41 -2.47288 0
gene 2 3 23 0.268886 0 44 0.268886 1
gene 3 23 48 3.37936 0 100 3.37936 1
gene 3 48 4 1.62273 0 101 1.62273 1
gene 3 3 48 -1.5157 0 203 -1.5157 1
genomeend 25

/* Organism #26 Fitness: 15.985 Error: 0.0018732 */
genomestart 26
trait 1 0.0556152 0.0320869 0 0 0 0 0 0.00756943 
trait 2 0.2 0 0.0210098 0.0202803 0.0336948 0 0 0.0346538 
trait 3 0.150428 0 0 0 0.000764841 0 0.0243663 0.00501003 
node 1 3 1 3
node 2 3 1 1
node 3 3 1 1
node 4 2 0 2
node 23 1 0 0
node 48 3 0 0
gene 2 1 4 2.64148 0 1 2.64148 1
gene 3 2 4 -2.95361 0 2 -2.95361 1
gene 1 3 4 -2.45513 0 3 -2.45513 1
gene 3 2 23 -0.131147 0 40 -0.131147 1
gene 3 23 4 -1.17512 0 41 -1.17512 0
gene 2 3 23 -1.74339 0 44 -1.74339 1
gene 3 23 48 1.06614 0 100 1.06614 1
gene 3 48 4 2.19594 0 101 2.19594 1
gene 3 3 48 0.0938429 0 203 0.0938429 1
genomeend 26

/* Organism #27 Fitness: 12.0016 Error: 0.535672 */
genomestart 27
trait 1 0.0556641 0.0321151 0 0 0 0 0 0.00757608 
trait 2 0.2 0 0.0210098 0.0202803 0.0336948 0 0 0.0346538 
trait 3 0.150428 0 0 0 0.000764841 0 0.0243663 0.00501003 
node 1 3 1 3
node 2 3 1 1
node 3 3 1 1
node 4 2 0 2
node 23 1 0 0
node 48 3 0 0
gene 2 1 4 4.98315 0 1 4.98315 1
gene 3 2 4 -3.07091 0 2 -3.07091 1
gene 1 3 4 -1.89722 0 3 -1.89722 1
gene 3 2 23 1.23786 0 40 1.23786 1
gene 3 23 4 -0.553179 0 41 -0.553179 0
gene 2 3 23 -2.25361 0 44 -2.25361 1
gene 3 23 48 -1.09161 0 100 -1.09161 1
gene 3 48 4 0.146933 0 101 0.146933 1
gene 3 3 48 -0.450809 0 203 -0.450809 1
genomeend 27

/* Organism #28 Fitness: 15.985 Error: 0.00187329 */
genomestart 28
trait 1 0.0556152 0.0320869 0 0 0 0 0 0.00756943 
trait 2 0.2 0 0.0210098 0.0202803 0.0336948 0 0 0.0346538 
trait 3 0.150428 0 0 0 0.000764841 0 0.0243663 0.00501003 
node 1 3 1 3
node 2 3 1 1
node 3 3 1 1
node 4 2 0 2
node 23 1 0 0
node 48 3 0 0
gene 2 1 4 2.64148 0 1 2.64148 1
gene 3 2 4 -2.95361 0 2 -2.95361 1
gene 1 3 4 -2.45513 0 3 -2.45513 1
gene 3 2 23 -0.131147 0 40 -0.131147 1
gene 3 23 4 -1.17512 0 41 -1.17512 0
gene 2 3 23 -2.10752 0 44 -2.10752 1
gene 3 23 48 1.06614 0 100 1.06614 1
gene 3 48 4 2.19594 0 101 2.19594 1
gene 3 3 48 0.0938429 0 203 0.0938429 1
genomeend 28

/* Species #6 : (Size 8) (AF 11.6404) (Age 20)  */


/* Organism #29 Fitness: 16 Error: 1.84089e-07 */
genomestart 29
trait 1 0.075 0.0576945 0.155012 0 0 0 0 0.0136104 
trait 2 0.2 0 0.0532763 0 0.827144 0 0 0.798345 
trait 3 0.300856 0 0.00161445 0 0.00445539 0.00396113 0.024437 0.00250501 
node 1 2 1 3
node 2 3 1 1
node 3 3 1 1
node 4 2 0 2
node 23 1 0 0
gene 2 1 4 5.15067 0 1 5.15067 1
gene 3 2 4 -8 0 2 -8 1
gene 1 3 4 -1.94922 0 3 -1.94922 1
gene 3 2 23 -2.43267 0 40 -2.43267 1
gene 3 23 4 7.18894 0 41 7.18894 1
gene 2 3 23 -4.99586 0 44 -4.99586 1
gene 3 1 23 2.83028 0 83 2.83028 1
genomeend 29

/* Organism #30 Fitness: 9.00001 Error: 0.999999 */
genomestart 30
trait 1 0.075 0.0576945 0.155012 0 0 0 0 0.0136104 
trait 2 0.2 0 0.0532763 0 0.827144 0 0 0.798345 
trait 3 0.300856 0 0.00161445 0 0.00445539 0.00396113 0.024437 0.00250501 
node 1 2 1 3
node 2 3 1 1
node 3 3 1 1
node 4 2 0 2
node 23 1 0 0
gene 2 1 4 3.11083 0 1 3.11083 1
gene 3 2 4 -5.66676 0 2 -5.66676 1
gene 1 3 4 -0.530399 0 3 -0.530399 1
gene 3 2 23 -3.1161 0 40 -3.1161 1
gene 3 23 4 6.53518 0 41 6.53518 1
gene 2 3 23 -5.64793 0 44 -5.64793 1
gene 3 1 23 2.16814 0 83 2.16814 1
genomeend 30

/* Organism #31 Fitness: 9.12282 Error: 0.9796 */
genomestart 31
trait 1 0.075 0.0576945 0.155012 0 0 0 0 0.0136104 
trait 2 0.2 0 0.0532763 0 0.827144 0 0 0.798345 
trait 3 0.300856 0 0.00161445 0 0.00445539 0.00396113 0.024437 0.00250501 
node 1 2 1 3
node 2 3 1 1
node 3 3 1 1
node 4 2 0 2
node 23 1 0 0
gene 2 1 4 3.15246 0 1 3.15246 1
gene 3 2 4 -5.16446 0 2 -5.16446 1
gene 1 3 4 0.078606 0 3 0.078606 1
gene 3 2 23 -2.29607 0 40 -2.29607 1
gene 3 23 4 8 0 41 8 1
gene 2 3 23 -6.15967 0 44 -6.15967 1
gene 3 1 23 1.94905 0 83 1.94905 1
genomeend 31

/* Organism #32 Fitness: 9.00016 Error: 0.999974 */
genomestart 32
trait 1 0.075 0.0576945 0.155012 0 0 0 0 0.0136104 
trait 2 0.2 0 0.0532763 0 0.827144 0 0 0.798345 
trait 3 0.300856 0 0.00161445 0 0.00445539 0.00396113 0.024437 0.00250501 
node 1 2 1 3
node 2 3 1 1
node 3 3 1 1
node 4 2 0 2
node 23 1 0 0
gene 2 1 4 6.16245 0 1 6.16245 1
gene 3 2 4 -8 0 2 -8 1
gene 1 3 4 -0.0514969 0 3 -0.0514969 1
gene 3 2 23 -4.14435 0 40 -4.14435 1
gene 3 23 4 6.10735 0 41 6.10735 1
gene 2 3 23 -3.33525 0 44 -3.33525 1
gene 3 1 23 -0.811105 0 83 -0.811105 1
genomeend 32

/* Organism #33 Fitness: 16 Error: 1.83117e-06 */
genomestart 33
trait 1 0.075 0.0576945 0.155012 0 0 0 0 0.0136104 
trait 2 0.2 0 0.0532763 0 0.827144 0 0 0.798345 
trait 3 0.300856 0 0.00161445 0 0.00445539 0.00396113 0.024437 0.00250501 
node 1 2 1 3
node 2 3 1 1
node 3 3 1 1
node 4 2 0 2
node 23 1 0 0
gene 2 1 4 4.85586 0 1 4.85586 1
gene 3 2 4 -8 0 2 -8 1
gene 1 3 4 -2.17287 0 3 -2.17287 1
gene 3 2 23 -0.95285 0 40 -0.95285 1
gene 3 23 4 7.18894 0 41 7.18894 1
gene 2 3 23 -4.99586 0 44 -4.99586 1
gene 3 1 23 2.32895 0 83 2.32895 1
genomeend 33

/* Organism #34 Fitness: 8.99998 Error: 1 */
genomestart 34
trait 1 0.075 0.0576945 0.155012 0 0 0 0 0.0136104 
trait 2 0.2 0 0.0532763 0 0.827144 0 0 0.798345 
trait 3 0.300856 0 0.00161445 0 0.00445539 0.00396113 0.024437 0.00250501 
node 1 2 1 3
node 2 3 1 1
node 3 3 1 1
node 4 2 0 2
node 23 1 0 0
gene 2 1 4 2.65681 0 1 2.65681 1
gene 3 2 4 -8 0 2 -8 1
gene 1 3 4 -0.0484469 0 3 -0.0484469 1
gene 3 2 23 -2.56077 0 40 -2.56077 1
gene 3 23 4 5.20125 0 41 5.20125 1
gene 2 3 23 -3.11237 0 44 -3.11237 1
gene 3 1 23 0.490717 0 83 0.490717 1
genomeend 34

/* Organism #35 Fitness: 16 Error: 3.77168e-07 */
genomestart 35
trait 1 0.075 0.0576945 0.155012 0 0 0 0 0.0136104 
trait 2 0.2 0 0.0532763 0 0.827144 0 0 0.798345 
trait 3 0.300856 0 0.00161445 0 0.00445539 0.00396113 0.024437 0.00250501 
node 1 2 1 3
node 2 3 1 1
node 3 3 1 1
node 4 2 0 2
node 23 1 0 0
gene 2 1 4 4.71066 0 1 4.71066 1
gene 3 2 4 -8 0 2 -8 1
gene 1 3 4 0.249171 0 3 0.249171 1
gene 3 2 23 -3.84739 0 40 -3.84739 1
gene 3 23 4 6.95781 0 41 6.95781 1
gene 2 3 23 -3.88823 0 44 -3.88823 1
gene 3 1 23 4.47783 0 83 4.47783 1
genomeend 35

/* Organism #36 Fitness: 8.99986 Error: 1.00002 */
genomestart 36
trait 1 0.075 0.0576945 0.155012 0 0 0 0 0.0136104 
trait 2 0.2 0 0.0532763 0 0.827144 0 0 0.798345 
trait 3 0.300856 0 0.00161445 0 0.00445539 0.00396113 0.024437 0.00250501 
node 1 2 1 3
node 2 3 1 1
node 3 3 1 1
node 4 2 0 2
node 23 1 0 0
gene 2 1 4 4.14557 0 1 4.14557 1
gene 3 2 4 -6.61947 0 2 -6.61947 1
gene 1 3 4 0.348628 0 3 0.348628 1
gene 3 2 23 -3.94691 0 40 -3.94691 1
gene 3 23 4 7.35053 0 41 7.35053 1
gene 2 3 23 -7.17512 0 44 -7.17512 1
gene 3 1 23 1.74269 0 83 1.74269 1
genomeend 36

/* Species #7 : (Size 12) (AF 14.1461) (Age 19)  */


/* Organism #37 Fitness: 16 Error: 2.67955e-07 */
genomestart 37
trait 1 0.1 0.0576945 0 0 0 0 0 0.0136104 
trait 2 0.2 0 0.0210098 0.0202803 0.0336948 0 0 0.0346538 
trait 3 0.263249 0 0.023181 0 0.281361 0 0.0426411 0.00501003 
node 1 3 1 3
node 2 3 1 1
node 3 3 1 1
node 4 1 0 2
node 23 1 0 0
node 55 1 0 0
gene 2 1 4 8 0 1 8 1
gene 3 2 4 -4.83619 0 2 -4.83619 1
gene 1 3 4 -7.84479 0 3 -7.84479 1
gene 3 2 23 3.69487 0 40 3.69487 1
gene 3 23 4 -2.67193 0 41 -2.67193 1
gene 2 3 23 -1.21073 0 44 -1.21073 1
gene 1 3 55 2.83709 0 117 2.83709 1
gene 1 55 4 2.97562 0 118 2.97562 1
gene 2 1 55 0.710841 0 143 0.710841 1
genomeend 37

/* Organism #38 Fitness: 9.02241 Error: 0.996267 */
genomestart 38
trait 1 0.1 0.0576945 0 0 0 0 0 0.0136104 
trait 2 0.2 0 0.0210098 0.0202803 0.0336948 0 0 0.0346538 
trait 3 0.263249 0 0.023181 0 0.281361 0 0.0426411 0.00501003 
node 1 3 1 3
node 2 3 1 1
node 3 3 1 1
node 4 1 0 2
node 23 1 0 0
node 55 1 0 0
gene 2 1 4 6.4359 0 1 6.4359 1
gene 3 2 4 -6.33399 0 2 -6.33399 1
gene 1 3 4 -8 0 3 -8 1
gene 3 2 23 6.11763 0 40 6.11763 1
gene 3 23 4 2.13891 0 41 2.13891 1
gene 2 3 23 -0.364724 0 44 -0.364724 1
gene 1 3 55 0.448524 0 117 0.448524 1
gene 1 55 4 0.126009 0 118 0.126009 1
gene 2 1 55 0.710841 0 143 0.710841 1
genomeend 38

/* Organism #39 Fitness: 15.9946 Error: 0.000674831 */
genomestart 39
trait 1 0.1 0.0576945 0 0 0 0 0 0.0136104 
trait 2 0 0 0.0210098 0.907954 0.872669 0 0 0.0346538 
trait 3 0.263249 0 0.023181 0 0.281361 0 0.0426411 0.00501003 
node 1 3 1 3
node 2 3 1 1
node 3 3 1 1
node 4 1 0 2
node 23 1 0 0
node 55 1 0 0
gene 2 1 4 5.32168 0 1 5.32168 1
gene 3 2 4 -4.10434 0 2 -4.10434 1
gene 1 3 4 -8 0 3 -8 1
gene 3 2 23 5.04636 0 40 5.04636 1
gene 3 23 4 0.518341 0 41 0.518341 1
gene 2 3 23 1.30395 0 44 1.30395 1
gene 1 3 55 1.25417 0 117 1.25417 1
gene 1 55 4 3.64421 0 118 3.64421 1
gene 2 1 55 0.862547 0 143 0.862547 1
genomeend 39

/* Organism #40 Fitness: 15.9997 Error: 3.64689e-05 */
genomestart 40
trait 1 0.1 0.0576945 0 0 0 0 0 0.0136104 
trait 2 0 0 0.0210098 0.907954 0.872669 0 0 0.0346538 
trait 3 0.263249 0 0.023181 0 0.281361 0 0.0426411 0.00501003 
node 1 3 1 3
node 2 3 1 1
node 3 3 1 1
node 4 1 0 2
node 23 1 0 0
node 55 1 0 0
gene 2 1 4 6.79772 0 1 6.79772 1
gene 3 2 4 -5.03289 0 2 -5.03289 1
gene 1 3 4 -6.28304 0 3 -6.28304 1
gene 3 2 23 5.04636 0 40 5.04636 1
gene 3 23 4 -0.238802 0 41 -0.238802 1
gene 2 3 23 -0.138571 0 44 -0.138571 1
gene 1 3 55 0.119532 0 117 0.119532 1
gene 1 55 4 1.64312 0 118 1.64312 1
gene 2 1 55 1.68045 0 143 1.68045 1
genomeend 40

/* Organism #41 Fitness: 15.9794 Error: 0.00257005 */
genomestart 41
trait 1 0.1 0.0576945 0 0 0 0 0 0.0136104 
trait 2 0.1 0 0.0210098 0.464117 0.453182 0 0 0.0346538 
trait 3 0.263249 0 0.023181 0 0.281361 0 0.0426411 0.00501003 
node 1 3 1 3
node 2 3 1 1
node 3 3 1 1
node 4 1 0 2
node 23 1 0 0
node 55 1 0 0
gene 2 1 4 8 0 1 8 1
gene 3 2 4 -4.03622 0 2 -4.03622 1
gene 1 3 4 -8 0 3 -8 1
gene 3 2 23 6.01383 0 40 6.01383 1
gene 3 23 4 0.72231 0 41 0.72231 1
gene 2 3 23 -0.881204 0 44 -0.881204 1
gene 1 3 55 1.62582 0 117 1.62582 1
gene 1 55 4 2.10088 0 118 2.10088 1
gene 2 1 55 3.81857 0 143 3.81857 1
genomeend 41

/* Organism #42 Fitness: 8.83939 Error: 1.02689 */
genomestart 42
trait 1 0.1 0.0576945 0 0 0 0 0 0.0136104 
trait 2 0.1 0 0.0210098 0.464117 0.453182 0 0 0.0346538 
trait 3 0.263249 0 0.023181 0 0.281361 0 0.0426411 0.00501003 
node 1 3 1 3
node 2 3 1 1
node 3 3 1 1
node 4 1 0 2
node 23 1 0 0
node 55 1 0 0
gene 2 1 4 4.89645 0 1 4.89645 1
gene 3 2 4 -6.6358 0 2 -6.6358 1
gene 1 3 4 -5.92897 0 3 -5.92897 1
gene 3 2 23 3.70233 0 40 3.70233 1
gene 3 23 4 -3.30259 0 41 -3.30259 1
gene 2 3 23 -1.05192 0 44 -1.05192 1
gene 1 3 55 -0.256825 0 117 -0.256825 1
gene 1 55 4 1.94286 0 118 1.94286 1
gene 2 1 55 0.742212 0 143 0.742212 1
genomeend 42

/* Organism #43 Fitness: 8.89894 Error: 1.01689 */
genomestart 43
trait 1 0.1 0.0576945 0 0 0 0 0 0.0136104 
trait 2 0 0 0.0210098 0.907954 0.872669 0 0 0.0346538 
trait 3 0.263249 0 0.023181 0 0.281361 0 0.0426411 0.00501003 
node 1 3 1 3
node 2 3 1 1
node 3 3 1 1
node 4 1 0 2
node 23 1 0 0
node 55 1 0 0
gene 2 1 4 1.68422 0 1 1.68422 1
gene 3 2 4 -1.48361 0 2 -1.48361 1
gene 1 3 4 -5.2475 0 3 -5.2475 1
gene 3 2 23 2.97903 0 40 2.97903 1
gene 3 23 4 -1.01937 0 41 -1.01937 1
gene 2 3 23 -1.43191 0 44 -1.43191 1
gene 1 3 55 -1.4325 0 117 -1.4325 1
gene 1 55 4 1.64312 0 118 1.64312 1
gene 2 1 55 3.11413 0 143 3.11413 1
genomeend 43

/* Organism #44 Fitness: 15.9961 Error: 0.000491604 */
genomestart 44
trait 1 0.1 0.0576945 0 0 0 0 0 0.0136104 
trait 2 0.2 0 0.0210098 0.0202803 0.0336948 0 0 0.0346538 
trait 3 0.263249 0 0.023181 0 0.281361 0 0.0426411 0.00501003 
node 1 3 1 3
node 2 3 1 1
node 3 3 1 1
node 4 1 0 2
node 23 1 0 0
node 55 1 0 0
gene 2 1 4 7.69419 0 1 7.69419 1
gene 3 2 4 -4.34686 0 2 -4.34686 1
gene 1 3 4 -6.62235 0 3 -6.62235 1
gene 3 2 23 5.48473 0 40 5.48473 1
gene 3 23 4 0.191831 0 41 0.191831 1
gene 2 3 23 -0.532971 0 44 -0.532971 1
gene 1 3 55 1.33073 0 117 1.33073 1
gene 1 55 4 3.42162 0 118 3.42162 1
gene 2 1 55 -1.37255 0 143 -1.37255 1
genomeend 44

/* Organism #45 Fitness: 15.0241 Error: 0.123904 */
genomestart 45
trait 1 0.1 0.0576945 0 0 0 0 0 0.0136104 
trait 2 0.2 0 0.0210098 0.0202803 0.0336948 0 0 0.0346538 
trait 3 0.263249 0 0.023181 0 0.281361 0 0.0426411 0.00501003 
node 1 3 1 3
node 2 3 1 1
node 3 3 1 1
node 4 1 0 2
node 23 1 0 0
node 55 1 0 0
gene 2 1 4 8 0 1 8 1
gene 3 2 4 -3.76253 0 2 -3.76253 1
gene 1 3 4 -8 0 3 -8 1
gene 3 2 23 3.6925 0 40 3.6925 1
gene 3 23 4 -1.35916 0 41 -1.35916 1
gene 2 3 23 0.795859 0 44 0.795859 1
gene 1 3 55 2.58181 0 117 2.58181 1
gene 1 55 4 1.7299 0 118 1.7299 1
gene 2 1 55 1.80498 0 143 1.80498 1
genomeend 45

/* Organism #46 Fitness: 15.9999 Error: 1.46275e-05 */
genomestart 46
trait 1 0.1 0.0576945 0 0 0 0 0 0.0136104 
trait 2 0.2 0 0.0210098 0.0202803 0.0336948 0 0 0.0346538 
trait 3 0.263249 0 0.023181 0 0.281361 0 0.0426411 0.00501003 
node 1 3 1 3
node 2 3 1 1
node 3 3 1 1
node 4 1 0 2
node 23 1 0 0
node 55 1 0 0
gene 2 1 4 7.39886 0 1 7.39886 1
gene 3 2 4 -4.26468 0 2 -4.26468 1
gene 1 3 4 -7.14152 0 3 -7.14152 1
gene 3 2 23 3.25112 0 40 3.25112 1
gene 3 23 4 -1.7754 0 41 -1.7754 1
gene 2 3 23 -0.292651 0 44 -0.292651 1
gene 1 3 55 1.66439 0 117 1.66439 1
gene 1 55 4 2.34398 0 118 2.34398 1
gene 2 1 55 1.05912 0 143 1.05912 1
genomeend 46

/* Organism #47 Fitness: 15.9997 Error: 3.64689e-05 */
genomestart 47
trait 1 0.1 0.0576945 0 0 0 0 0 0.0136104 
trait 2 0 0 0.0210098 0.907954 0.872669 0 0 0.0346538 
trait 3 0.263249 0 0.023181 0 0.281361 0 0.0426411 0.00501003 
node 1 3 1 3
node 2 3 1 1
node 3 3 1 1
node 4 1 0 2
node 23 1 0 0
node 55 1 0 0
gene 2 1 4 6.79772 0 1 6.79772 1
gene 3 2 4 -5.03289 0 2 -5.03289 1
gene 1 3 4 -6.28304 0 3 -6.28304 1
gene 3 2 23 5.04636 0 40 5.04636 1
gene 3 23 4 -0.238802 0 41 -0.238802 1
gene 2 3 23 -0.138571 0 44 -0.138571 1
gene 1 3 55 0.119532 0 117 0.119532 1
gene 1 55 4 1.64312 0 118 1.64312 1
gene 2 1 55 1.68045 0 143 1.68045 1
genomeend 47

/* Organism #48 Fitness: 15.9986 Error: 0.000172861 */
genomestart 48
trait 1 0.1 0.0576945 0 0 0 0 0 0.0136104 
trait 2 0.2 0 0.0210098 0.0202803 0.0336948 0 0 0.0346538 
trait 3 0.263249 0 0.023181 0 0.281361 0 0.0426411 0.00501003 
node 1 3 1 3
node 2 3 1 1
node 3 3 1 1
node 4 1 0 2
node 23 1 0 0
node 55 1 0 0
gene 2 1 4 8 0 1 8 1
gene 3 2 4 -3.55465 0 2 -3.55465 1
gene 1 3 4 -6.08681 0 3 -6.08681 1
gene 3 2 23 4.23117 0 40 4.23117 1
gene 3 23 4 -2.50725 0 41 -2.50725 1
gene 2 3 23 -2.44098 0 44 -2.44098 1
gene 1 3 55 2.67329 0 117 2.67329 1
gene 1 55 4 2.2857 0 118 2.2857 1
gene 2 1 55 -1.29076 0 143 -1.29076 1
genomeend 48

/* Species #8 : (Size 13) (AF 13.9563) (Age 17)  */


/* Organism #49 Fitness: 16 Error: 1.75772e-06 */
genomestart 49
trait 1 0.1 0.0576945 0 0 0 0 0 0.0136104 
trait 2 0.2 0 0.0210098 0.0202803 0.0336948 0 0 0.0346538 
trait 3 0.150428 0 0 0 0.000764841 0 0.0243663 0.00501003 
node 1 3 1 3
node 2 3 1 1
node 3 3 1 1
node 4 2 0 2
node 23 1 0 0
node 48 2 0 0
node 60 1 0 0
gene 2 1 4 5.04829 0 1 5.04829 1
gene 3 2 4 -6.84578 0 2 -6.84578 1
gene 1 3 4 -6.67565 0 3 -6.67565 1
gene 3 2 23 0.348502 0 40 0.348502 1
gene 3 23 4 5.56116 0 41 5.56116 0
gene 2 3 23 -1.23117 0 44 -1.23117 1
gene 3 23 48 1.48564 0 100 1.48564 1
gene 1 48 4 -0.158066 0 101 -0.158066 0
gene 3 48 60 0.838102 0 135 0.838102 1
gene 3 60 4 4.56206 0 136 4.56206 1
gene 3 2 48 -0.37812 0 148 -0.37812 1
gene 3 1 60 2.41133 0 164 2.41133 1
gene 1 3 60 -0.0751501 0 250 -0.0751501 1
genomeend 49

/* Organism #50 Fitness: 8.44436 Error: 1.09408 */
genomestart 50
trait 1 0.1 0.0576945 0 0 0 0 0 0.0136104 
trait 2 0.2 0 0.0210098 0.0202803 0.0336948 0 0 0.0346538 
trait 3 0.150428 0 0 0 0.000764841 0 0.0243663 0.00501003 
node 1 3 1 3
node 2 3 1 1
node 3 3 1 1
node 4 2 0 2
node 23 1 0 0
node 48 2 0 0
node 60 1 0 0
gene 2 1 4 3.69597 0 1 3.69597 1
gene 3 2 4 -8 0 2 -8 1
gene 1 3 4 -6.30616 0 3 -6.30616 1
gene 3 2 23 -0.170658 0 40 -0.170658 1
gene 3 23 4 7.36403 0 41 7.36403 0
gene 2 3 23 -1.71601 0 44 -1.71601 1
gene 3 23 48 2.176 0 100 2.176 1
gene 1 48 4 0.914931 0 101 0.914931 0
gene 3 48 60 1.007 0 135 1.007 1
gene 3 60 4 3.90843 0 136 3.90843 1
gene 3 2 48 -2.52428 0 148 -2.52428 1
gene 3 1 60 -0.165318 0 164 -0.165318 1
gene 1 3 60 -0.0751501 0 250 -0.0751501 1
genomeend 50

/* Organism #51 Fitness: 15.9998 Error: 2.38392e-05 */
genomestart 51
trait 1 0.1 0.0576945 0 0 0 0 0 0.0136104 
trait 2 0.2 0 0.0210098 0.0202803 0.0336948 0 0 0.0346538 
trait 3 0.150428 0 0 0 0.000764841 0 0.0243663 0.00501003 
node 1 3 1 3
node 2 3 1 1
node 3 3 1 1
node 4 2 0 2
node 23 1 0 0
node 48 2 0 0
node 60 1 0 0
gene 2 1 4 8 0 1 8 1
gene 3 2 4 -5.04119 0 2 -5.04119 1
gene 1 3 4 -7.67406 0 3 -7.67406 1
gene 3 2 23 -0.554232 0 40 -0.554232 1
gene 3 23 4 5.242 0 41 5.242 0
gene 2 3 23 -2.52416 0 44 -2.52416 1
gene 3 23 48 3.30262 0 100 3.30262 1
gene 1 48 4 -1.20952 0 101 -1.20952 0
gene 3 48 60 -0.43582 0 135 -0.43582 1
gene 3 60 4 1.84182 0 136 1.84182 1
gene 3 2 48 -2.06915 0 148 -2.06915 1
gene 3 1 60 4.8779 0 164 4.8779 1
gene 1 3 60 2.39649 0 250 2.39649 1
genomeend 51

/* Organism #52 Fitness: 15.9992 Error: 9.90322e-05 */
genomestart 52
trait 1 0.1 0.0576945 0 0 0 0 0 0.0136104 
trait 2 0.2 0 0.0210098 0.0202803 0.0336948 0 0 0.0346538 
trait 3 0.741973 0.898039 0 0.949191 0.000764841 0.818393 0.407215 0.00501003 
node 1 3 1 3
node 2 3 1 1
node 3 3 1 1
node 4 2 0 2
node 23 1 0 0
node 48 2 0 0
node 60 1 0 0
gene 2 1 4 6.19378 0 1 6.19378 1
gene 3 2 4 -8 0 2 -8 1
gene 1 3 4 -4.43014 0 3 -4.43014 1
gene 3 2 23 1.35365 0 40 1.35365 1
gene 3 23 4 4.95689 0 41 4.95689 0
gene 2 3 23 -3.36873 0 44 -3.36873 1
gene 3 23 48 2.10529 0 100 2.10529 1
gene 1 48 4 -1.05593 0 101 -1.05593 0
gene 3 48 60 -1.55563 0 135 -1.55563 1
gene 3 60 4 3.73479 0 136 3.73479 1
gene 3 2 48 2.00564 0 148 2.00564 1
gene 3 1 60 2.41133 0 164 2.41133 1
gene 1 3 60 -0.384482 0 250 -0.384482 1
genomeend 52

/* Organism #53 Fitness: 16 Error: 1.75772e-06 */
genomestart 53
trait 1 0.1 0.0576945 0 0 0 0 0 0.0136104 
trait 2 0.2 0 0.0210098 0.0202803 0.0336948 0 0 0.0346538 
trait 3 0.150428 0 0 0 0.000764841 0 0.0243663 0.00501003 
node 1 3 1 3
node 2 3 1 1
node 3 3 1 1
node 4 2 0 2
node 23 1 0 0
node 48 2 0 0
node 60 1 0 0
gene 2 1 4 5.04829 0 1 5.04829 1
gene 3 2 4 -6.84578 0 2 -6.84578 1
gene 1 3 4 -6.67565 0 3 -6.67565 1
gene 3 2 23 0.348502 0 40 0.348502 1
gene 3 23 4 5.56116 0 41 5.56116 0
gene 2 3 23 -1.23117 0 44 -1.23117 1
gene 3 23 48 1.48564 0 100 1.48564 1
gene 1 48 4 -0.158066 0 101 -0.158066 0
gene 3 48 60 0.838102 0 135 0.838102 1
gene 3 60 4 4.56206 0 136 4.56206 1
gene 3 2 48 -0.37812 0 148 -0.37812 1
gene 3 1 60 2.41133 0 164 2.41133 1
gene 1 3 60 -0.0751501 0 250 -0.0751501 1
genomeend 53

/* Organism #54 Fitness: 16 Error: 2.3945e-06 */
genomestart 54
trait 1 0.1 0.0576945 0 0 0 0 0 0.0136104 
trait 2 0.2 0 0.0210098 0.0202803 0.0336948 0 0 0.0346538 
trait 3 0.150428 0 0 0 0.000764841 0 0.0243663 0.00501003 
node 1 3 1 3
node 2 3 1 1
node 3 3 1 1
node 4 2 0 2
node 23 1 0 0
node 48 2 0 0
node 60 1 0 0
gene 2 1 4 5.89387 0 1 5.89387 1
gene 3 2 4 -7.26938 0 2 -7.26938 1
gene 1 3 4 -6.01348 0 3 -6.01348 1
gene 3 2 23 -0.117385 0 40 -0.117385 1
gene 3 23 4 5.6094 0 41 5.6094 0
gene 2 3 23 -1.38227 0 44 -1.38227 1
gene 3 23 48 1.23426 0 100 1.23426 1
gene 1 48 4 0.354542 0 101 0.354542 0
gene 3 48 60 -0.353416 0 135 -0.353416 1
gene 3 60 4 4.00929 0 136 4.00929 1
gene 3 2 48 -0.627248 0 148 -0.627248 1
gene 3 1 60 2.99915 0 164 2.99915 1
gene 1 3 60 -0.0751501 0 250 -0.0751501 1
genomeend 54

/* Organism #55 Fitness: 15.9976 Error: 0.000303742 */
genomestart 55
trait 1 0.1 0.0576945 0 0 0 0 0 0.0136104 
trait 2 0.2 0 0.0210098 0.0202803 0.0336948 0 0 0.0346538 
trait 3 0.150428 0 0 0 0.000764841 0 0.0243663 0.00501003 
node 1 3 1 3
node 2 3 1 1
node 3 3 1 1
node 4 2 0 2
node 23 1 0 0
node 48 2 0 0
node 60 1 0 0
gene 2 1 4 3.77774 0 1 3.77774 1
gene 3 2 4 -7.69737 0 2 -7.69737 1
gene 1 3 4 -6.92716 0 3 -6.92716 1
gene 3 2 23 1.66222 0 40 1.66222 1
gene 3 23 4 4.64656 0 41 4.64656 0
gene 2 3 23 -0.626202 0 44 -0.626202 1
gene 3 23 48 1.38574 0 100 1.38574 1
gene 1 48 4 -0.199079 0 101 -0.199079 0
gene 3 48 60 3.05018 0 135 3.05018 1
gene 3 60 4 5.56886 0 136 5.56886 1
gene 3 2 48 0.417055 0 148 0.417055 1
gene 3 1 60 2.54805 0 164 2.54805 1
gene 1 3 60 -1.16281 0 250 -1.16281 1
genomeend 55

/* Organism #56 Fitness: 9.00419 Error: 0.999302 */
genomestart 56
trait 1 0.1 0.0576945 0 0 0 0 0 0.0136104 
trait 2 0.2 0 0.0210098 0.0202803 0.0336948 0 0 0.0346538 
trait 3 0.150428 0 0 0 0.000764841 0 0.0243663 0.00501003 
node 1 3 1 3
node 2 3 1 1
node 3 3 1 1
node 4 2 0 2
node 23 1 0 0
node 48 2 0 0
node 60 1 0 0
gene 2 1 4 6.62 0 1 6.62 1
gene 3 2 4 -8 0 2 -8 1
gene 1 3 4 -5.24643 0 3 -5.24643 1
gene 3 2 23 0.671175 0 40 0.671175 1
gene 3 23 4 5.3814 0 41 5.3814 0
gene 2 3 23 -0.741365 0 44 -0.741365 1
gene 3 23 48 -0.836208 0 100 -0.836208 1
gene 1 48 4 0.952053 0 101 0.952053 0
gene 3 48 60 -3.27324 0 135 -3.27324 1
gene 3 60 4 4.71378 0 136 4.71378 1
gene 3 2 48 1.7353 0 148 1.7353 1
gene 3 1 60 2.41133 0 164 2.41133 1
gene 1 3 60 -1.8248 0 250 -1.8248 1
genomeend 56

/* Organism #57 Fitness: 16 Error: 2.3945e-06 */
genomestart 57
trait 1 0.1 0.0576945 0 0 0 0 0 0.0136104 
trait 2 0.2 0 0.0210098 0.0202803 0.0336948 0 0 0.0346538 
trait 3 0.150428 0 0 0 0.000764841 0 0.0243663 0.00501003 
node 1 3 1 3
node 2 3 1 1
node 3 3 1 1
node 4 2 0 2
node 23 1 0 0
node 48 2 0 0
node 60 1 0 0
gene 2 1 4 5.89387 0 1 5.89387 1
gene 3 2 4 -7.26938 0 2 -7.26938 1
gene 1 3 4 -6.01348 0 3 -6.01348 1
gene 3 2 23 -0.117385 0 40 -0.117385 1
gene 3 23 4 5.6094 0 41 5.6094 0
gene 2 3 23 -1.38227 0 44 -1.38227 1
gene 3 23 48 1.23426 0 100 1.23426 1
gene 1 48 4 0.354542 0 101 0.354542 0
gene 3 48 60 -0.353416 0 135 -0.353416 1
gene 3 60 4 4.00929 0 136 4.00929 1
gene 3 2 48 -0.627248 0 148 -0.627248 1
gene 3 1 60 2.99915 0 164 2.99915 1
gene 1 3 60 -0.0751501 0 250 -0.0751501 1
genomeend 57

/* Organism #58 Fitness: 16 Error: 1.75772e-06 */
genomestart 58
trait 1 0.1 0.0576945 0 0 0 0 0 0.0136104 
trait 2 0.2 0 0.0210098 0.0202803 0.0336948 0 0 0.0346538 
trait 3 0.150428 0 0 0 0.000764841 0 0.0243663 0.00501003 
node 1 3 1 3
node 2 3 1 1
node 3 3 1 1
node 4 2 0 2
node 23 1 0 0
node 48 2 0 0
node 60 1 0 0
gene 2 1 4 5.04829 0 1 5.04829 1
gene 3 2 4 -6.84578 0 2 -6.84578 1
gene 1 3 4 -6.67565 0 3 -6.67565 1
gene 3 2 23 0.348502 0 40 0.348502 1
gene 3 23 4 5.56116 0 41 5.56116 0
gene 2 3 23 -1.23117 0 44 -1.23117 1
gene 3 23 48 1.48564 0 100 1.48564 1
gene 1 48 4 -0.158066 0 101 -0.158066 0
gene 3 48 60 0.838102 0 135 0.838102 1
gene 3 60 4 4.56206 0 136 4.56206 1
gene 3 2 48 -0.37812 0 148 -0.37812 1
gene 3 1 60 2.41133 0 164 2.41133 1
gene 1 3 60 -0.0751501 0 250 -0.0751501 1
gene 1 2 60 0.917515 0 286 0.917515 1
genomeend 58

/* Organism #59 Fitness: 16 Error: 1.75772e-06 */
genomestart 59
trait 1 0.1 0.0576945 0 0 0 0 0 0.0136104 
trait 2 0.2 0 0.0210098 0.0202803 0.0336948 0 0 0.0346538 
trait 3 1 0 0 0 0.000764841 0 0.0243663 0.00501003 
node 1 3 1 3
node 2 3 1 1
node 3 3 1 1
node 4 2 0 2
node 23 1 0 0
node 48 2 0 0
node 60 1 0 0
gene 2 1 4 5.04829 0 1 5.04829 1
gene 3 2 4 -6.84578 0 2 -6.84578 1
gene 1 3 4 -6.67565 0 3 -6.67565 1
gene 3 2 23 0.348502 0 40 0.348502 1
gene 3 23 4 5.56116 0 41 5.56116 0
gene 2 3 23 -1.23117 0 44 -1.23117 1
gene 3 23 48 1.48564 0 100 1.48564 1
gene 1 48 4 -0.158066 0 101 -0.158066 0
gene 3 48 60 0.838102 0 135 0.838102 1
gene 3 60 4 4.56206 0 136 4.56206 1
gene 3 2 48 -0.37812 0 148 -0.37812 1
gene 3 1 60 2.41133 0 164 2.41133 1
gene 1 3 60 -0.0751501 0 250 -0.0751501 1
genomeend 59

/* Organism #60 Fitness: 15.9675 Error: 0.00406063 */
genomestart 60
trait 1 0.1 0.0576945 0 0 0 0 0 0.0136104 
trait 2 0.2 0 0.0210098 0.0202803 0.0336948 0 0 0.0346538 
trait 3 0.150428 0 0 0 0.000764841 0 0.0243663 0.00501003 
node 1 3 1 3
node 2 3 1 1
node 3 3 1 1
node 4 2 0 2
node 23 1 0 0
node 48 2 0 0
node 60 1 0 0
gene 2 1 4 5.14927 0 1 5.14927 1
gene 3 2 4 -6.00244 0 2 -6.00244 1
gene 1 3 4 -5.53662 0 3 -5.53662 1
gene 3 2 23 2.32218 0 40 2.32218 1
gene 3 23 4 7.6139 0 41 7.6139 0
gene 2 3 23 1.06795 0 44 1.06795 1
gene 3 23 48 0.0721451 0 100 0.0721451 1
gene 1 48 4 0.444788 0 101 0.444788 0
gene 3 48 60 -1.44784 0 135 -1.44784 1
gene 3 60 4 5.2724 0 136 5.2724 1
gene 3 2 48 -3.22077 0 148 -3.22077 1
gene 3 1 60 5.40504 0 164 5.40504 1
gene 1 3 60 1.21872 0 250 1.21872 1
genomeend 60

/* Organism #61 Fitness: 4.01935 Error: 1.99517 */
genomestart 61
trait 1 0.1 0.0576945 0 0 0 0 0 0.0136104 
trait 2 0.2 0 0.0210098 0.0202803 0.0336948 0 0 0.0346538 
trait 3 0.150428 0 0 0 0.000764841 0 0.0243663 0.00501003 
node 1 3 1 3
node 2 3 1 1
node 3 3 1 1
node 4 2 0 2
node 23 1 0 0
node 48 2 0 0
node 60 1 0 0
gene 2 1 4 4.84446 0 1 4.84446 1
gene 3 2 4 -8 0 2 -8 1
gene 1 3 4 -7.77337 0 3 -7.77337 1
gene 3 2 23 1.32428 0 40 1.32428 1
gene 3 23 4 4.84388 0 41 4.84388 0
gene 2 3 23 -2.384 0 44 -2.384 1
gene 3 23 48 1.62756 0 100 1.62756 1
gene 1 48 4 -0.498051 0 101 -0.498051 0
gene 3 48 60 -1.23962 0 135 -1.23962 1
gene 3 60 4 1.78902 0 136 1.78902 1
gene 3 2 48 -1.15831 0 148 -1.15831 1
gene 3 1 60 4.97188 0 164 4.97188 1
gene 1 3 60 -0.0751501 0 250 -0.0751501 1
genomeend 61

/* Species #9 : (Size 12) (AF 10.9919) (Age 17)  */


/* Organism #62 Fitness: 16 Error: 6.46427e-07 */
genomestart 62
trait 1 0.1 0.0576945 0 0 0 0 0 0.0136104 
trait 2 0.2 0 0.0210098 0.0202803 0.0336948 0 0 0.0346538 
trait 3 0.263249 0 0.040325 0.016148 0.00133847 0 0.039976 0.00501003 
node 1 3 1 3
node 2 3 1 1
node 3 3 1 1
node 4 2 0 2
node 23 1 0 0
node 55 1 0 0
node 61 1 0 0
gene 2 1 4 4.59868 0 1 4.59868 1
gene 3 2 4 -0.239417 0 2 -0.239417 1
gene 1 3 4 -7.75486 0 3 -7.75486 1
gene 3 2 23 -1.11542 0 40 -1.11542 1
gene 3 23 4 4.67907 0 41 4.67907 1
gene 2 3 23 2.01596 0 44 2.01596 0
gene 1 3 55 1.4223 0 117 1.4223 1
gene 1 55 4 4.78985 0 118 4.78985 1
gene 1 2 55 -3.79227 0 125 -3.79227 1
gene 2 3 61 0.578742 0 137 0.578742 1
gene 2 61 23 -0.282677 0 138 -0.282677 1
gene 2 1 23 -0.129809 0 144 -0.129809 1
gene 1 2 61 0.546561 0 228 0.546561 1
gene 3 55 61 -0.813659 0 260 -0.813659 1
genomeend 62

/* Organism #63 Fitness: 8.99985 Error: 1.00003 */
genomestart 63
trait 1 0.1 0.0576945 0 0 0 0 0 0.0136104 
trait 2 0.2 0 0.0210098 0.0202803 0.0336948 0 0 0.0346538 
trait 3 0.263249 0 0.0302438 0.012111 0.00133847 0 0.0406423 0.00501003 
node 1 3 1 3
node 2 3 1 1
node 3 3 1 1
node 4 2 0 2
node 23 1 0 0
node 55 1 0 0
node 61 1 0 0
gene 2 1 4 3.51062 0 1 3.51062 1
gene 3 2 4 1.37414 0 2 1.37414 0
gene 1 3 4 -6.75832 0 3 -6.75832 1
gene 3 2 23 0.99221 0 40 0.99221 1
gene 3 23 4 3.68307 0 41 3.68307 1
gene 2 3 23 1.79629 0 44 1.79629 0
gene 1 3 55 4.14746 0 117 4.14746 1
gene 1 55 4 3.22796 0 118 3.22796 1
gene 1 2 55 -1.72639 0 125 -1.72639 1
gene 2 3 61 1.91113 0 137 1.91113 1
gene 2 61 23 -2.30795 0 138 -2.30795 1
gene 2 1 23 -0.994303 0 144 -0.994303 1
gene 1 2 61 0.164985 0 228 0.164985 1
gene 3 55 61 0.740227 0 260 0.740227 1
genomeend 63

/* Organism #64 Fitness: 16 Error: 1.36904e-06 */
genomestart 64
trait 1 0.1 0.0576945 0 0 0 0 0 0.0136104 
trait 2 0.2 0 0.0210098 0.0202803 0.0336948 0 0 0.0346538 
trait 3 0.263249 0 0.0302438 0.012111 0.00133847 0 0.0406423 0.00501003 
node 1 3 1 3
node 2 3 1 1
node 3 3 1 1
node 4 2 0 2
node 23 1 0 0
node 55 1 0 0
node 61 1 0 0
gene 2 1 4 4.06339 0 1 4.06339 1
gene 3 2 4 0.567359 0 2 0.567359 0
gene 1 3 4 -7.06292 0 3 -7.06292 1
gene 3 2 23 -1.62364 0 40 -1.62364 1
gene 3 23 4 4.09851 0 41 4.09851 1
gene 2 3 23 1.50597 0 44 1.50597 1
gene 1 3 55 1.62645 0 117 1.62645 1
gene 1 55 4 4.9177 0 118 4.9177 1
gene 1 2 55 -3.80198 0 125 -3.80198 1
gene 2 3 61 0.55651 0 137 0.55651 1
gene 2 61 23 -0.109812 0 138 -0.109812 1
gene 2 1 23 -0.324345 0 144 -0.324345 1
gene 1 2 61 0.178815 0 228 0.178815 1
gene 3 55 61 -0.813659 0 260 -0.813659 1
genomeend 64

/* Organism #65 Fitness: 15.9928 Error: 0.000903919 */
genomestart 65
trait 1 0.1 0.0576945 0 0 0 0 0 0.0136104 
trait 2 0.2 0 0.0210098 0.0202803 0.0336948 0 0 0.0346538 
trait 3 0.263249 0 0.0302438 0.012111 0.00133847 0 0.0406423 0.00501003 
node 1 3 1 3
node 2 3 1 1
node 3 3 1 1
node 4 2 0 2
node 23 1 0 0
node 55 1 0 0
node 61 1 0 0
gene 2 1 4 3.42772 0 1 3.42772 1
gene 3 2 4 -0.239417 0 2 -0.239417 1
gene 1 3 4 -7.75486 0 3 -7.75486 1
gene 3 2 23 -1.11542 0 40 -1.11542 1
gene 3 23 4 3.51794 0 41 3.51794 1
gene 2 3 23 2.01596 0 44 2.01596 0
gene 1 3 55 1.4223 0 117 1.4223 1
gene 1 55 4 4.78985 0 118 4.78985 1
gene 1 2 55 -4.02734 0 125 -4.02734 1
gene 2 3 61 0.578742 0 137 0.578742 1
gene 2 61 23 -0.282677 0 138 -0.282677 1
gene 2 1 23 -0.129809 0 144 -0.129809 1
gene 1 2 61 0.546561 0 228 0.546561 1
gene 3 55 61 -0.813659 0 260 -0.813659 1
genomeend 65

/* Organism #66 Fitness: 4.44215 Error: 1.89236 */
genomestart 66
trait 1 0.1 0.0576945 0 0 0 0 0 0.0136104 
trait 2 0.2 0 0.0210098 0.0202803 0.0336948 0 0 0.0346538 
trait 3 0.263249 0 0.040325 0.016148 0.00133847 0 0.039976 0.00501003 
node 1 3 1 3
node 2 3 1 1
node 3 3 1 1
node 4 2 0 2
node 23 1 0 0
node 55 1 0 0
node 61 1 0 0
gene 2 1 4 0.923628 0 1 0.923628 1
gene 3 2 4 -1.45757 0 2 -1.45757 1
gene 1 3 4 -8 0 3 -8 1
gene 3 2 23 -2.18908 0 40 -2.18908 1
gene 3 23 4 2.67562 0 41 2.67562 1
gene 2 3 23 0.241839 0 44 0.241839 0
gene 1 3 55 -1.76177 0 117 -1.76177 1
gene 1 55 4 4.14052 0 118 4.14052 1
gene 1 2 55 -2.89637 0 125 -2.89637 1
gene 2 3 61 0.290573 0 137 0.290573 1
gene 2 61 23 1.66861 0 138 1.66861 1
gene 2 1 23 -0.129809 0 144 -0.129809 1
gene 1 2 61 1.73553 0 228 1.73553 1
gene 3 55 61 -2.27185 0 260 -2.27185 1
genomeend 66

/* Organism #67 Fitness: 15.9999 Error: 9.07901e-06 */
genomestart 67
trait 1 0.1 0.0576945 0 0 0 0 0 0.0136104 
trait 2 0.2 0 0.0210098 0.0202803 0.0336948 0 0 0.0346538 
trait 3 0.263249 0 0.0201625 0.00807401 0.00133847 0 0.0413085 0.00501003 
node 1 3 1 3
node 2 3 1 1
node 3 3 1 1
node 4 2 0 2
node 23 1 0 0
node 55 1 0 0
node 61 1 0 0
gene 2 1 4 3.42772 0 1 3.42772 1
gene 3 2 4 1.37414 0 2 1.37414 0
gene 1 3 4 -6.37097 0 3 -6.37097 1
gene 3 2 23 -2.13186 0 40 -2.13186 1
gene 3 23 4 3.51794 0 41 3.51794 1
gene 2 3 23 0.995977 0 44 0.995977 0
gene 1 3 55 1.8306 0 117 1.8306 1
gene 1 55 4 5.04555 0 118 5.04555 1
gene 1 2 55 -4.02734 0 125 -4.02734 1
gene 2 3 61 0.534279 0 137 0.534279 1
gene 2 61 23 0.0630521 0 138 0.0630521 1
gene 2 1 23 -0.518881 0 144 -0.518881 1
gene 1 2 61 -0.188931 0 228 -0.188931 1
gene 3 55 61 -0.813659 0 260 -0.813659 1
genomeend 67

/* Organism #68 Fitness: 8.99994 Error: 1.00001 */
genomestart 68
trait 1 0.1 0.0576945 0 0 0 0 0 0.0136104 
trait 2 0.2 0 0.0210098 0.0202803 0.0336948 0 0 0.0346538 
trait 3 0.263249 0 0.0302438 0.012111 0.00133847 0 0.0406423 0.00501003 
node 1 3 1 3
node 2 3 1 1
node 3 3 1 1
node 4 2 0 2
node 23 1 0 0
node 55 1 0 0
node 61 1 0 0
gene 2 1 4 4.06339 0 1 4.06339 1
gene 3 2 4 0.567359 0 2 0.567359 1
gene 1 3 4 -7.06292 0 3 -7.06292 1
gene 3 2 23 -1.62364 0 40 -1.62364 1
gene 3 23 4 4.09851 0 41 4.09851 1
gene 2 3 23 1.50597 0 44 1.50597 0
gene 1 3 55 1.62645 0 117 1.62645 1
gene 1 55 4 4.9177 0 118 4.9177 1
gene 1 2 55 -3.80198 0 125 -3.80198 1
gene 2 3 61 0.55651 0 137 0.55651 1
gene 2 61 23 -0.109812 0 138 -0.109812 1
gene 2 1 23 -0.324345 0 144 -0.324345 1
gene 1 2 61 0.178815 0 228 0.178815 1
gene 3 55 61 -0.813659 0 260 -0.813659 1
genomeend 68

/* Organism #69 Fitness: 9.00005 Error: 0.999992 */
genomestart 69
trait 1 0.1 0.0576945 0 0 0 0 0 0.0136104 
trait 2 0.2 0 0.0210098 0.0202803 0.0336948 0 0 0.0346538 
trait 3 0.263249 0 0.0302438 0.012111 0.00133847 0 0.0406423 0.00501003 
node 1 3 1 3
node 2 3 1 1
node 3 3 1 1
node 4 2 0 2
node 23 1 0 0
node 55 1 0 0
node 61 1 0 0
gene 2 1 4 3.21024 0 1 3.21024 1
gene 3 2 4 1.71931 0 2 1.71931 0
gene 1 3 4 -6.38702 0 3 -6.38702 1
gene 3 2 23 -0.555716 0 40 -0.555716 1
gene 3 23 4 5.43281 0 41 5.43281 1
gene 2 3 23 0.635011 0 44 0.635011 0
gene 1 3 55 2.31403 0 117 2.31403 1
gene 1 55 4 5.49417 0 118 5.49417 1
gene 1 2 55 -0.857348 0 125 -0.857348 1
gene 2 3 61 -1.91219 0 137 -1.91219 1
gene 2 61 23 0.722233 0 138 0.722233 1
gene 2 1 23 -0.518881 0 144 -0.518881 1
gene 2 2 61 0.546561 0 228 0.546561 1
gene 3 55 61 0.431048 0 260 0.431048 1
genomeend 69

/* Organism #70 Fitness: 14.1482 Error: 0.23859 */
genomestart 70
trait 1 0.1 0.0576945 0 0 0 0 0 0.0136104 
trait 2 0.2 0 0.0210098 0.0202803 0.0336948 0 0 0.0346538 
trait 3 0.263249 0 0.0201625 0.00807401 0.00133847 0 0.0413085 0.00501003 
node 1 3 1 3
node 2 3 1 1
node 3 3 1 1
node 4 2 0 2
node 23 1 0 0
node 55 1 0 0
node 61 1 0 0
gene 2 1 4 4.89118 0 1 4.89118 1
gene 3 2 4 0.0204194 0 2 0.0204194 0
gene 1 3 4 -7.21815 0 3 -7.21815 1
gene 3 2 23 -4.10267 0 40 -4.10267 1
gene 3 23 4 3.12952 0 41 3.12952 1
gene 2 3 23 -0.584888 0 44 -0.584888 0
gene 1 3 55 0.120833 0 117 0.120833 1
gene 1 55 4 3.97416 0 118 3.97416 1
gene 1 2 55 -6.18692 0 125 -6.18692 1
gene 2 3 61 0.015047 0 137 0.015047 1
gene 2 61 23 0.609993 0 138 0.609993 1
gene 2 1 23 -1.59418 0 144 -1.59418 1
gene 1 2 61 -1.65265 0 228 -1.65265 1
gene 3 55 61 -2.02889 0 260 -2.02889 1
genomeend 70

/* Organism #71 Fitness: 9.11453 Error: 0.980972 */
genomestart 71
trait 1 0.1 0.0576945 0 0 0 0 0 0.0136104 
trait 2 0.2 0 0.0210098 0.0202803 0.0336948 0 0 0.0346538 
trait 3 0.263249 0 0.0302438 0.012111 0.00133847 0 0.0406423 0.00501003 
node 1 3 1 3
node 2 3 1 1
node 3 3 1 1
node 4 2 0 2
node 23 1 0 0
node 55 1 0 0
node 61 1 0 0
gene 2 1 4 6.17338 0 1 6.17338 1
gene 3 2 4 3.17233 0 2 3.17233 0
gene 1 3 4 -7.16178 0 3 -7.16178 1
gene 3 2 23 -0.209039 0 40 -0.209039 1
gene 3 23 4 1.32618 0 41 1.32618 1
gene 2 3 23 3.05135 0 44 3.05135 0
gene 1 3 55 -1.04363 0 117 -1.04363 1
gene 1 55 4 5.18409 0 118 5.18409 1
gene 1 2 55 -3.14298 0 125 -3.14298 1
gene 2 3 61 2.94724 0 137 2.94724 1
gene 2 61 23 0.596204 0 138 0.596204 1
gene 2 1 23 1.38988 0 144 1.38988 1
gene 1 2 61 1.33867 0 228 1.33867 1
gene 3 55 61 -2.09152 0 260 -2.09152 1
genomeend 71

/* Organism #72 Fitness: 9.19001 Error: 0.968498 */
genomestart 72
trait 1 0.1 0.0576945 0 0 0 0 0 0.0136104 
trait 2 0.2 0 0.0210098 0.0202803 0.0336948 0 0 0.0346538 
trait 3 0.263249 0 0.0302438 0.012111 0.00133847 0 0.0406423 0.00501003 
node 1 3 1 3
node 2 3 1 1
node 3 3 1 1
node 4 2 0 2
node 23 1 0 0
node 55 1 0 0
node 61 1 0 0
gene 2 1 4 2.97913 0 1 2.97913 1
gene 3 2 4 2.05501 0 2 2.05501 0
gene 1 3 4 -5.64626 0 3 -5.64626 1
gene 3 2 23 -2.76316 0 40 -2.76316 1
gene 3 23 4 3.62424 0 41 3.62424 1
gene 2 3 23 1.72512 0 44 1.72512 1
gene 1 3 55 -0.0451347 0 117 -0.0451347 1
gene 1 55 4 4.17802 0 118 4.17802 1
gene 1 2 55 -3.53466 0 125 -3.53466 1
gene 2 3 61 -0.99771 0 137 -0.99771 1
gene 2 61 23 0.839155 0 138 0.839155 1
gene 2 1 23 1.54213 0 144 1.54213 1
gene 1 2 61 0.178815 0 228 0.178815 1
gene 3 55 61 -2.29545 0 260 -2.29545 1
genomeend 72

/* Organism #73 Fitness: 4.01504 Error: 1.99624 */
genomestart 73
trait 1 0.1 0.0576945 0 0 0 0 0 0.0136104 
trait 2 0.2 0 0.0210098 0.0202803 0.0336948 0 0 0.0346538 
trait 3 0.263249 0 0.0302438 0.012111 0.00133847 0 0.0406423 0.00501003 
node 1 3 1 3
node 2 3 1 1
node 3 3 1 1
node 4 2 0 2
node 23 1 0 0
node 55 1 0 0
node 61 1 0 0
gene 2 1 4 4.28463 0 1 4.28463 1
gene 3 2 4 1.24299 0 2 1.24299 1
gene 1 3 4 -8 0 3 -8 1
gene 3 2 23 -1.76922 0 40 -1.76922 1
gene 3 23 4 2.73105 0 41 2.73105 1
gene 2 3 23 1.36085 0 44 1.36085 0
gene 1 3 55 -0.659257 0 117 -0.659257 1
gene 1 55 4 5.18565 0 118 5.18565 1
gene 1 2 55 -2.32256 0 125 -2.32256 1
gene 2 3 61 0.55651 0 137 0.55651 1
gene 2 61 23 -1.03958 0 138 -1.03958 1
gene 2 1 23 1.38881 0 144 1.38881 1
gene 1 2 61 0.178815 0 228 0.178815 1
gene 3 55 61 1.93226 0 260 1.93226 1
genomeend 73

/* Species #10 : (Size 9) (AF 13.6815) (Age 16)  */


/* Organism #74 Fitness: 15.999 Error: 0.000124052 */
genomestart 74
trait 1 0.1 0.0540886 0.033849 0.0622569 0.0123676 0.0104437 0 0.0127597 
trait 2 0.143989 0.393233 0.396842 0.0101402 0.459931 0 0.382566 0.394902 
trait 3 0.286753 0 0 0 0.00145798 0 0.0464483 0.00501003 
node 1 3 1 3
node 2 3 1 1
node 3 3 1 1
node 4 2 0 2
node 23 1 0 0
node 62 1 0 0
gene 2 1 4 8 0 1 8 1
gene 3 2 4 -0.613773 0 2 -0.613773 1
gene 1 3 4 -4.00725 0 3 -4.00725 1
gene 3 2 23 3.78926 0 40 3.78926 1
gene 3 23 4 -5.25936 0 41 -5.25936 1
gene 1 1 23 -1.70917 0 78 -1.70917 1
gene 2 3 23 -0.620559 0 130 -0.620559 0
gene 2 3 62 0.799132 0 139 0.799132 1
gene 2 62 23 0.726045 0 140 0.726045 1
gene 1 62 4 0.0673233 0 152 0.0673233 1
gene 1 1 62 -0.632979 0 173 -0.632979 1
gene 2 2 62 -0.995947 0 251 -0.995947 1
genomeend 74

/* Organism #75 Fitness: 4.1026 Error: 1.97451 */
genomestart 75
trait 1 0.0893734 0.0540886 0.033849 0.179764 0.00927568 0.0672621 0.195363 0.0127597 
trait 2 0.143989 0.393233 0.396842 0.0101402 0.459931 0 0.382566 0.394902 
trait 3 0.286753 0 0 0 0.00145798 0 0.0464483 0.00501003 
node 1 3 1 3
node 2 3 1 1
node 3 3 1 1
node 4 2 0 2
node 23 1 0 0
node 62 1 0 0
gene 2 1 4 8 0 1 8 1
gene 3 2 4 0.876083 0 2 0.876083 1
gene 1 3 4 -1.75854 0 3 -1.75854 1
gene 3 2 23 4.10552 0 40 4.10552 1
gene 3 23 4 -6.37767 0 41 -6.37767 1
gene 1 1 23 -1.70917 0 78 -1.70917 1
gene 2 3 23 -1.89196 0 130 -1.89196 0
gene 2 3 62 1.05983 0 139 1.05983 1
gene 2 62 23 0.748389 0 140 0.748389 1
gene 1 62 4 -0.360858 0 152 -0.360858 1
gene 1 1 62 -2.33091 0 173 -2.33091 1
gene 2 2 62 -1.89811 0 251 -1.89811 1
genomeend 75

/* Organism #76 Fitness: 16 Error: 4.68721e-07 */
genomestart 76
trait 1 0.1 0.0540886 0.033849 0.0622569 0.0123676 0.0104437 0 0.0127597 
trait 2 0.143989 0.393233 0.396842 0.0101402 0.459931 0 0.382566 0.394902 
trait 3 0.286753 0 0 0 0.00145798 0 0.0464483 0.00501003 
node 1 3 1 3
node 2 3 1 1
node 3 3 1 1
node 4 2 0 2
node 23 1 0 0
node 62 1 0 0
gene 2 1 4 7.77562 0 1 7.77562 1
gene 3 2 4 -3.14277 0 2 -3.14277 1
gene 1 3 4 -7.75799 0 3 -7.75799 1
gene 3 2 23 8 0 40 8 1
gene 3 23 4 -5.1617 0 41 -5.1617 1
gene 1 1 23 -3.46695 0 78 -3.46695 1
gene 2 3 23 0.23606 0 130 0.23606 0
gene 2 3 62 2.86619 0 139 2.86619 1
gene 2 62 23 0.798449 0 140 0.798449 1
gene 1 62 4 3.50167 0 152 3.50167 1
gene 1 1 62 2.18509 0 173 2.18509 1
gene 2 2 62 1.6564 0 251 1.6564 1
genomeend 76

/* Organism #77 Fitness: 14.9463 Error: 0.133957 */
genomestart 77
trait 1 0.1 0.0540886 0.033849 0.0622569 0.0123676 0.0104437 0 0.0127597 
trait 2 0.143989 0.393233 0.396842 0.0101402 0.459931 0 0.382566 0.394902 
trait 3 0.286753 0 0 0 0.00145798 0 0.0464483 0.00501003 
node 1 3 1 3
node 2 1 1 1
node 3 3 1 1
node 4 2 0 2
node 23 1 0 0
node 62 1 0 0
gene 2 1 4 7.53101 0 1 7.53101 1
gene 3 2 4 -0.669558 0 2 -0.669558 1
gene 1 3 4 -4.89493 0 3 -4.89493 1
gene 3 2 23 4.81577 0 40 4.81577 1
gene 3 23 4 -5.47401 0 41 -5.47401 1
gene 1 1 23 -1.93058 0 78 -1.93058 1
gene 2 3 23 0.713525 0 130 0.713525 0
gene 2 3 62 1.02023 0 139 1.02023 1
gene 2 62 23 -1.28668 0 140 -1.28668 1
gene 1 62 4 -2.2646 0 152 -2.2646 1
gene 1 1 62 0.0866194 0 173 0.0866194 1
gene 2 2 62 -0.995947 0 251 -0.995947 1
genomeend 77

/* Organism #78 Fitness: 15.6743 Error: 0.0409261 */
genomestart 78
trait 1 0.0893734 0.0540886 0.033849 0.179764 0.00927568 0.0672621 0.195363 0.0127597 
trait 2 0.143989 0.393233 0.396842 0.0101402 0.459931 0 0.382566 0.394902 
trait 3 0.286753 0 0 0 0.00145798 0 0.0464483 0.00501003 
node 1 3 1 3
node 2 3 1 1
node 3 3 1 1
node 4 2 0 2
node 23 1 0 0
node 62 1 0 0
gene 2 1 4 7.83166 0 1 7.83166 1
gene 3 2 4 -3.37047 0 2 -3.37047 1
gene 1 3 4 -3.43318 0 3 -3.43318 1
gene 3 2 23 4.34178 0 40 4.34178 1
gene 3 23 4 -3.68584 0 41 -3.68584 1
gene 1 1 23 -4.80664 0 78 -4.80664 1
gene 2 3 23 0.997675 0 130 0.997675 0
gene 2 3 62 0.95349 0 139 0.95349 1
gene 2 62 23 0.995323 0 140 0.995323 1
gene 1 62 4 1.69105 0 152 1.69105 1
gene 1 1 62 0.255088 0 173 0.255088 1
gene 2 2 62 -0.995947 0 251 -0.995947 1
genomeend 78

/* Organism #79 Fitness: 15.4085 Error: 0.0746287 */
genomestart 79
trait 1 0.0893734 0.0540886 0.033849 0.179764 0.00927568 0.0672621 0.195363 0.0127597 
trait 2 0.143989 0.393233 0.396842 0.0101402 0.459931 0 0.382566 0.394902 
trait 3 0.286753 0 0 0 0.00145798 0 0.0464483 0.00501003 
node 1 3 1 3
node 2 3 1 1
node 3 3 1 1
node 4 2 0 2
node 23 1 0 0
node 62 1 0 0
gene 2 1 4 6.40602 0 1 6.40602 1
gene 3 2 4 -1.32934 0 2 -1.32934 1
gene 1 3 4 -4.43088 0 3 -4.43088 1
gene 3 2 23 1.83642 0 40 1.83642 1
gene 3 23 4 -4.59574 0 41 -4.59574 1
gene 1 1 23 -2.75327 0 78 -2.75327 1
gene 2 3 23 -1.4809 0 130 -1.4809 0
gene 2 3 62 3.28555 0 139 3.28555 1
gene 2 62 23 0.999656 0 140 0.999656 1
gene 1 62 4 -1.92889 0 152 -1.92889 1
gene 1 1 62 -3.05282 0 173 -3.05282 1
gene 2 2 62 0.608956 0 251 0.608956 1
genomeend 79

/* Organism #80 Fitness: 15.9967 Error: 0.000413141 */
genomestart 80
trait 1 0.1 0.0540886 0.033849 0.0622569 0.0123676 0.0104437 0 0.0127597 
trait 2 0.143989 0.393233 0.396842 0.0101402 0.459931 0 0.382566 0.394902 
trait 3 0.286753 0 0 0 0.00145798 0 0.0464483 0.00501003 
node 1 3 1 3
node 2 3 1 1
node 3 3 1 1
node 4 2 0 2
node 23 1 0 0
node 62 1 0 0
gene 2 1 4 6.00997 0 1 6.00997 1
gene 3 2 4 -0.137339 0 2 -0.137339 1
gene 1 3 4 -4.00725 0 3 -4.00725 1
gene 3 2 23 4.92635 0 40 4.92635 1
gene 3 23 4 -3.74097 0 41 -3.74097 1
gene 1 1 23 -4.23069 0 78 -4.23069 1
gene 2 3 23 -1.15334 0 130 -1.15334 0
gene 2 3 62 0.846896 0 139 0.846896 1
gene 2 62 23 1.83684 0 140 1.83684 1
gene 1 62 4 1.47851 0 152 1.47851 1
gene 1 1 62 -0.632979 0 173 -0.632979 1
gene 2 2 62 -0.526587 0 251 -0.526587 1
genomeend 80

/* Organism #81 Fitness: 15.9962 Error: 0.000480992 */
genomestart 81
trait 1 0.0893734 0.0540886 0.033849 0.179764 0.00927568 0.0672621 0.195363 0.0127597 
trait 2 0.143989 0.393233 0.396842 0.0101402 0.459931 0 0.382566 0.394902 
trait 3 0.286753 0 0 0 0.00145798 0 0.0464483 0.00501003 
node 1 3 1 3
node 2 3 1 1
node 3 3 1 1
node 4 2 0 2
node 23 1 0 0
node 62 1 0 0
gene 2 1 4 7.11224 0 1 7.11224 1
gene 3 2 4 -0.885636 0 2 -0.885636 1
gene 1 3 4 -5.12652 0 3 -5.12652 1
gene 3 2 23 4.8431 0 40 4.8431 1
gene 3 23 4 -4.69461 0 41 -4.69461 1
gene 1 1 23 -2.9344 0 78 -2.9344 1
gene 2 3 23 -0.100863 0 130 -0.100863 0
gene 2 3 62 0.622584 0 139 0.622584 1
gene 2 62 23 -0.44895 0 140 -0.44895 1
gene 1 62 4 0.769635 0 152 0.769635 1
gene 1 1 62 0.255088 0 173 0.255088 1
gene 2 2 62 -0.995947 0 251 -0.995947 1
genomeend 81

/* Organism #82 Fitness: 9.00965 Error: 0.998392 */
genomestart 82
trait 1 0.0893734 0.0540886 0.033849 0.179764 0.00927568 0.0672621 0.195363 0.0127597 
trait 2 0.143989 0.393233 0.396842 0.0101402 0.459931 0 0.382566 0.394902 
trait 3 0.286753 0 0 0 0.00145798 0 0.0464483 0.00501003 
node 1 3 1 3
node 2 3 1 1
node 3 3 1 1
node 4 2 0 2
node 23 1 0 0
node 62 1 0 0
gene 2 1 4 7.55752 0 1 7.55752 1
gene 3 2 4 -1.7153 0 2 -1.7153 1
gene 1 3 4 -4.35217 0 3 -4.35217 1
gene 3 2 23 2.34371 0 40 2.34371 1
gene 3 23 4 -5.49043 0 41 -5.49043 1
gene 1 1 23 -4.1489 0 78 -4.1489 1
gene 2 3 23 0.409845 0 130 0.409845 0
gene 2 3 62 3.14073 0 139 3.14073 1
gene 2 62 23 1.72589 0 140 1.72589 1
gene 1 62 4 2.03184 0 152 2.03184 1
gene 1 1 62 1.67646 0 173 1.67646 1
gene 2 2 62 -2.07569 0 251 -2.07569 1
genomeend 82

/* Species #11 : (Size 11) (AF 13.4493) (Age 11)  */


/* Organism #83 Fitness: 15.9999 Error: 1.4331e-05 */
genomestart 83
trait 1 0.1 0.0540886 0.033849 0.0622569 0.0123676 0.0104437 0 0.0127597 
trait 2 0.143989 0.393233 0.396842 0.0101402 0.459931 0 0.382566 0.394902 
trait 3 0.286753 0 0 0 0.157691 0 0.0464483 0.00501003 
node 1 3 1 3
node 2 3 1 1
node 3 3 1 1
node 4 2 0 2
node 23 1 0 0
node 62 1 0 0
gene 2 1 4 8 0 1 8 1
gene 3 2 4 -3.0757 0 2 -3.0757 1
gene 1 3 4 -7.05359 0 3 -7.05359 1
gene 3 2 23 1.13182 0 40 1.13182 1
gene 3 23 4 -3.75465 0 41 -3.75465 1
gene 1 1 23 -0.586974 0 78 -0.586974 1
gene 2 3 23 -1.18868 0 130 -1.18868 0
gene 2 3 62 0.151232 0 139 0.151232 1
gene 2 62 23 0.561668 0 140 0.561668 1
gene 1 62 4 3.58538 0 152 3.58538 1
gene 1 2 62 1.18528 0 166 1.18528 1
gene 3 1 62 1.35158 0 184 1.35158 1
genomeend 83

/* Organism #84 Fitness: 4.02496 Error: 1.99377 */
genomestart 84
trait 1 0.1 0.0540886 0.033849 0.0622569 0.0123676 0.0104437 0 0.0127597 
trait 2 0.143989 0.393233 0.396842 0.0101402 0.459931 0 0.382566 0.394902 
trait 3 0.286753 0 0 0 0.157691 0 0.0464483 0.00501003 
node 1 3 1 3
node 2 3 1 1
node 3 3 1 1
node 4 2 0 2
node 23 1 0 0
node 62 1 0 0
gene 2 1 4 5.68832 0 1 5.68832 1
gene 3 2 4 -4.63697 0 2 -4.63697 1
gene 1 3 4 -3.33099 0 3 -3.33099 1
gene 3 2 23 1.50337 0 40 1.50337 1
gene 3 23 4 -4.88881 0 41 -4.88881 1
gene 1 1 23 -0.659791 0 78 -0.659791 1
gene 2 3 23 -1.61546 0 130 -1.61546 0
gene 2 3 62 1.17109 0 139 1.17109 1
gene 2 62 23 0.983149 0 140 0.983149 1
gene 1 62 4 0.671175 0 152 0.671175 1
gene 1 2 62 1.52895 0 166 1.52895 1
gene 3 1 62 0.159745 0 184 0.159745 1
genomeend 84

/* Organism #85 Fitness: 13.8728 Error: 0.275375 */
genomestart 85
trait 1 0.1 0.0540886 0.033849 0.0622569 0.0123676 0.0104437 0 0.0127597 
trait 2 0.143989 0.393233 0.396842 0.0101402 0.459931 0 0.382566 0.394902 
trait 3 0.286753 0 0 0 0.157691 0 0.0464483 0.00501003 
node 1 3 1 3
node 2 3 1 1
node 3 3 1 1
node 4 2 0 2
node 23 1 0 0
node 62 1 0 0
gene 2 1 4 8 0 1 8 1
gene 3 2 4 -2.40314 0 2 -2.40314 1
gene 1 3 4 -6.21345 0 3 -6.21345 1
gene 3 2 23 1.42669 0 40 1.42669 1
gene 3 23 4 -3.16535 0 41 -3.16535 1
gene 1 1 23 1.65271 0 78 1.65271 1
gene 2 3 23 -2.98135 0 130 -2.98135 0
gene 2 3 62 2.24428 0 139 2.24428 1
gene 2 62 23 -0.900122 0 140 -0.900122 1
gene 1 62 4 3.58538 0 152 3.58538 1
gene 1 2 62 0.526609 0 166 0.526609 1
gene 3 1 62 2.89777 0 184 2.89777 1
genomeend 85

/* Organism #86 Fitness: 15.9999 Error: 1.17237e-05 */
genomestart 86
trait 1 0.1 0.0540886 0.033849 0.0622569 0.0123676 0.0104437 0 0.0127597 
trait 2 0.143989 0.393233 0.396842 0.0101402 0.459931 0 0.382566 0.394902 
trait 3 0.286753 0 0 0 0.144672 0 0.0464483 0.00501003 
node 1 3 1 3
node 2 3 1 1
node 3 3 1 1
node 4 2 0 2
node 23 1 0 0
node 62 1 0 0
gene 2 1 4 7.0814 0 1 7.0814 1
gene 3 2 4 -2.33709 0 2 -2.33709 1
gene 1 3 4 -7.05359 0 3 -7.05359 1
gene 3 2 23 1.13182 0 40 1.13182 1
gene 3 23 4 -3.75465 0 41 -3.75465 1
gene 1 1 23 -3.27437 0 78 -3.27437 1
gene 2 3 23 -1.18868 0 130 -1.18868 0
gene 2 3 62 0.151232 0 139 0.151232 1
gene 2 62 23 0.561668 0 140 0.561668 1
gene 1 62 4 3.58538 0 152 3.58538 1
gene 1 2 62 -2.3306 0 166 -2.3306 1
gene 3 1 62 0.759005 0 184 0.759005 1
genomeend 86

/* Organism #87 Fitness: 9.02089 Error: 0.99652 */
genomestart 87
trait 1 0.1 0.0540886 0.033849 0.0622569 0.0123676 0.0104437 0 0.0127597 
trait 2 0.143989 0.393233 0.396842 0.0101402 0.459931 0 0.382566 0.394902 
trait 3 0.286753 0 0 0 0.144672 0 0.0464483 0.00501003 
node 1 3 1 3
node 2 2 1 1
node 3 3 1 1
node 4 2 0 2
node 23 1 0 0
node 62 1 0 0
gene 2 1 4 7.0814 0 1 7.0814 1
gene 3 2 4 -2.33709 0 2 -2.33709 1
gene 1 3 4 -4.65972 0 3 -4.65972 1
gene 3 2 23 1.90597 0 40 1.90597 1
gene 3 23 4 -5.8932 0 41 -5.8932 1
gene 1 1 23 0.560925 0 78 0.560925 1
gene 2 3 23 -2.38685 0 130 -2.38685 0
gene 2 3 62 1.52924 0 139 1.52924 1
gene 2 62 23 -2.01281 0 140 -2.01281 1
gene 1 62 4 2.61445 0 152 2.61445 1
gene 1 2 62 -2.3306 0 166 -2.3306 1
gene 3 1 62 -0.102218 0 184 -0.102218 1
genomeend 87

/* Organism #88 Fitness: 16 Error: 3.69241e-06 */
genomestart 88
trait 1 0.1 0.0540886 0.033849 0.0622569 0.0123676 0.0104437 0 0.0127597 
trait 2 0.143989 0.393233 0.396842 0.0101402 0.459931 0 0.382566 0.394902 
trait 3 0.286753 0 0 0 0.144672 0 0.0464483 0.00501003 
node 1 3 1 3
node 2 3 1 1
node 3 3 1 1
node 4 2 0 2
node 23 1 0 0
node 62 1 0 0
gene 2 1 4 8 0 1 8 1
gene 3 2 4 -4.96297 0 2 -4.96297 1
gene 1 3 4 -5.67165 0 3 -5.67165 1
gene 3 2 23 -0.596221 0 40 -0.596221 1
gene 3 23 4 -6.80042 0 41 -6.80042 1
gene 1 1 23 -1.08463 0 78 -1.08463 1
gene 2 3 23 -1.63676 0 130 -1.63676 0
gene 2 3 62 0.985079 0 139 0.985079 1
gene 2 62 23 0.316443 0 140 0.316443 1
gene 1 62 4 3.48031 0 152 3.48031 1
gene 1 2 62 -2.8082 0 166 -2.8082 1
gene 3 1 62 1.05529 0 184 1.05529 1
genomeend 88

/* Organism #89 Fitness: 15.9997 Error: 3.78713e-05 */
genomestart 89
trait 1 0.1 0.0540886 0.033849 0.0622569 0.0123676 0.0104437 0 0.0127597 
trait 2 0.143989 0.393233 0.396842 0.0101402 0.459931 0 0.382566 0.394902 
trait 3 0.286753 0 0 0 0.157691 0 0.0464483 0.00501003 
node 1 3 1 3
node 2 3 1 1
node 3 3 1 1
node 4 2 0 2
node 23 1 0 0
node 62 1 0 0
gene 2 1 4 8 0 1 8 1
gene 3 2 4 -2.81046 0 2 -2.81046 1
gene 1 3 4 -4.65972 0 3 -4.65972 1
gene 3 2 23 1.90597 0 40 1.90597 1
gene 3 23 4 -5.8932 0 41 -5.8932 1
gene 1 1 23 0.560925 0 78 0.560925 1
gene 2 3 23 -2.27967 0 130 -2.27967 0
gene 2 3 62 1.52698 0 139 1.52698 1
gene 2 62 23 -2.01281 0 140 -2.01281 1
gene 1 62 4 2.2816 0 152 2.2816 1
gene 1 2 62 1.08979 0 166 1.08979 1
gene 3 1 62 -0.102218 0 184 -0.102218 1
genomeend 89

/* Organism #90 Fitness: 9.02936 Error: 0.995111 */
genomestart 90
trait 1 0.1 0.0540886 0.033849 0.0622569 0.0123676 0.0104437 0 0.0127597 
trait 2 0.143989 0.393233 0.396842 0.0101402 0.459931 0 0.382566 0.394902 
trait 3 0.286753 0 0 0 0.144672 0 0.0464483 0.00501003 
node 1 3 1 3
node 2 3 1 1
node 3 3 1 1
node 4 2 0 2
node 23 1 0 0
node 62 1 0 0
gene 2 1 4 7.5407 0 1 7.5407 1
gene 3 2 4 -2.57377 0 2 -2.57377 1
gene 1 3 4 -6.32986 0 3 -6.32986 1
gene 3 2 23 0.424649 0 40 0.424649 1
gene 3 23 4 -6.06667 0 41 -6.06667 1
gene 1 1 23 -1.35672 0 78 -1.35672 1
gene 2 3 23 -2.33326 0 130 -2.33326 1
gene 2 3 62 1.52811 0 139 1.52811 1
gene 2 62 23 -1.64899 0 140 -1.64899 1
gene 1 62 4 2.44803 0 152 2.44803 1
gene 1 2 62 -0.620406 0 166 -0.620406 1
gene 3 1 62 0.328393 0 184 0.328393 1
genomeend 90

/* Organism #91 Fitness: 15.996 Error: 0.000505648 */
genomestart 91
trait 1 0.1 0.0540886 0.033849 0.0622569 0.0123676 0.0104437 0 0.0127597 
trait 2 0.143989 0.393233 0.396842 0.0101402 0.459931 0 0.382566 0.394902 
trait 3 0.286753 0 0 0 0.144672 0 0.0464483 0.00501003 
node 1 3 1 3
node 2 3 1 1
node 3 3 1 1
node 4 2 0 2
node 23 1 0 0
node 62 1 0 0
gene 2 1 4 8 0 1 8 1
gene 3 2 4 -5.00733 0 2 -5.00733 1
gene 1 3 4 -7.02705 0 3 -7.02705 1
gene 3 2 23 -1.1597 0 40 -1.1597 1
gene 3 23 4 -4.84729 0 41 -4.84729 1
gene 1 1 23 -1.04295 0 78 -1.04295 1
gene 2 3 23 -0.619171 0 130 -0.619171 0
gene 2 3 62 2.70066 0 139 2.70066 1
gene 2 62 23 -4.14778 0 140 -4.14778 1
gene 1 62 4 0.568259 0 152 0.568259 1
gene 1 2 62 -2.1443 0 166 -2.1443 1
gene 3 1 62 2.33137 0 184 2.33137 1
genomeend 91

/* Organism #92 Fitness: 15.9999 Error: 6.79913e-06 */
genomestart 92
trait 1 0.1 0.0540886 0.033849 0.0622569 0.0123676 0.0104437 0 0.0127597 
trait 2 0.143989 0.393233 0.396842 0.0101402 0.459931 0 0.382566 0.394902 
trait 3 0.286753 0 0 0 0.144672 0 0.0464483 0.00501003 
node 1 3 1 3
node 2 3 1 1
node 3 3 1 1
node 4 2 0 2
node 23 1 0 0
node 62 1 0 0
gene 2 1 4 8 0 1 8 1
gene 3 2 4 -3.83452 0 2 -3.83452 1
gene 1 3 4 -6.90935 0 3 -6.90935 1
gene 3 2 23 -1.94078 0 40 -1.94078 1
gene 3 23 4 -4.30825 0 41 -4.30825 1
gene 1 1 23 -1.026 0 78 -1.026 1
gene 2 3 23 -2.39804 0 130 -2.39804 1
gene 2 3 62 -0.132574 0 139 -0.132574 1
gene 2 62 23 0.809569 0 140 0.809569 1
gene 1 62 4 3.98663 0 152 3.98663 1
gene 1 2 62 -2.40392 0 166 -2.40392 1
gene 3 1 62 2.04639 0 184 2.04639 1
genomeend 92

/* Organism #93 Fitness: 15.999 Error: 0.000128975 */
genomestart 93
trait 1 0.1 0.0540886 0.033849 0.0622569 0.0123676 0.0104437 0 0.0127597 
trait 2 0.143989 0.393233 0.396842 0.0101402 0.459931 0 0.382566 0.394902 
trait 3 0.286753 0 0 0 0.144672 0 0.0464483 0.00501003 
node 1 3 1 3
node 2 3 1 1
node 3 3 1 1
node 4 2 0 2
node 23 1 0 0
node 62 1 0 0
gene 2 1 4 8 0 1 8 1
gene 3 2 4 -2.13933 0 2 -2.13933 1
gene 1 3 4 -7.55633 0 3 -7.55633 1
gene 3 2 23 2.0204 0 40 2.0204 1
gene 3 23 4 -7.20982 0 41 -7.20982 1
gene 1 1 23 -2.6011 0 78 -2.6011 1
gene 2 3 23 -2.62157 0 130 -2.62157 0
gene 2 3 62 2.26424 0 139 2.26424 1
gene 2 62 23 -1.64899 0 140 -1.64899 1
gene 1 62 4 3.1207 0 152 3.1207 1
gene 1 2 62 -2.67475 0 166 -2.67475 1
gene 3 1 62 -0.199201 0 184 -0.199201 1
genomeend 93

/* Species #12 : (Size 10) (AF 12.7754) (Age 7)  */


/* Organism #94 Fitness: 15.9999 Error: 1.3671e-05 */
genomestart 94
trait 1 0.0815073 0.0446231 0.167149 0 0.153012 0 0 0.041683 
trait 2 0.2 0 0.0430417 0.00887263 0.0918419 0 0 0.46423 
trait 3 0.290573 0 0.00143787 0 0.00360311 0.00287801 0.0334238 0.00360096 
node 1 2 1 3
node 2 3 1 1
node 3 3 1 1
node 4 2 0 2
node 23 1 0 0
node 79 1 0 0
node 84 1 0 0
gene 2 1 4 3.23754 0 1 3.23754 1
gene 3 2 4 -5.81127 0 2 -5.81127 1
gene 1 3 4 -5.05638 0 3 -5.05638 1
gene 3 2 23 4.85125 0 40 4.85125 1
gene 3 23 4 5.58296 0 41 5.58296 0
gene 2 3 23 0.10505 0 44 0.10505 1
gene 3 1 23 1.14492 0 106 1.14492 1
gene 3 23 79 -0.340956 0 200 -0.340956 1
gene 3 79 4 2.23773 0 201 2.23773 1
gene 3 23 84 1 0 215 1 1
gene 3 84 4 5.02022 0 216 5.02022 1
genomeend 94

/* Organism #95 Fitness: 15.9998 Error: 2.16368e-05 */
genomestart 95
trait 1 0.0815073 0.0446231 0.167149 0 0.153012 0 0 0.041683 
trait 2 0.2 0 0.0430417 0.00887263 0.0918419 0 0 0.46423 
trait 3 0.290573 0 0.00143787 0 0.00360311 0.00287801 0.0334238 0.00360096 
node 1 2 1 3
node 2 3 1 1
node 3 3 1 1
node 4 2 0 2
node 23 1 0 0
node 79 1 0 0
node 84 1 0 0
gene 2 1 4 3.23754 0 1 3.23754 1
gene 3 2 4 -5.81127 0 2 -5.81127 1
gene 1 3 4 -6.38065 0 3 -6.38065 1
gene 3 2 23 4.85125 0 40 4.85125 1
gene 3 23 4 5.58296 0 41 5.58296 0
gene 2 3 23 0.10505 0 44 0.10505 1
gene 3 1 23 1.14492 0 106 1.14492 1
gene 3 23 79 -0.340956 0 200 -0.340956 1
gene 3 79 4 2.23773 0 201 2.23773 1
gene 3 23 84 1 0 215 1 1
gene 3 84 4 5.02022 0 216 5.02022 1
genomeend 95

/* Organism #96 Fitness: 15.511 Error: 0.0616006 */
genomestart 96
trait 1 0.0815073 0.0446231 0.167149 0 0.153012 0 0 0.041683 
trait 2 0.2 0 0.0430417 0.00887263 0.0918419 0 0 0.46423 
trait 3 0.290573 0 0.00143787 0 0.00360311 0.00287801 0.0334238 0.00360096 
node 1 2 1 3
node 2 3 1 1
node 3 3 1 1
node 4 2 0 2
node 23 1 0 0
node 79 1 0 0
node 84 1 0 0
gene 2 1 4 0.888984 0 1 0.888984 1
gene 3 2 4 -5.81127 0 2 -5.81127 1
gene 1 3 4 -5.05638 0 3 -5.05638 1
gene 3 2 23 3.5048 0 40 3.5048 1
gene 3 23 4 5.05228 0 41 5.05228 0
gene 2 3 23 -0.9888 0 44 -0.9888 1
gene 3 1 23 1.14492 0 106 1.14492 1
gene 3 23 79 1.06155 0 200 1.06155 1
gene 3 79 4 4.46543 0 201 4.46543 1
gene 3 23 84 1 0 215 1 1
gene 3 84 4 5.02022 0 216 5.02022 1
genomeend 96

/* Organism #97 Fitness: 2.79758 Error: 2.3274 */
genomestart 97
trait 1 0.0815073 0.0446231 0.167149 0 0.153012 0 0 0.041683 
trait 2 0.2 0 0.0430417 0.00887263 0.0918419 0 0 0.46423 
trait 3 0.290573 0 0.00143787 0 0.00360311 0.00287801 0.0334238 0.00360096 
node 1 2 1 3
node 2 3 1 1
node 3 3 1 1
node 4 2 0 2
node 23 1 0 0
node 79 1 0 0
node 84 1 0 0
gene 2 1 4 0.108345 0 1 0.108345 1
gene 3 2 4 -5.7076 0 2 -5.7076 1
gene 1 3 4 -5.05638 0 3 -5.05638 1
gene 3 2 23 3.84667 0 40 3.84667 1
gene 3 23 4 0.94286 0 41 0.94286 0
gene 2 3 23 -1.37191 0 44 -1.37191 1
gene 3 1 23 1.14492 0 106 1.14492 1
gene 3 23 79 -1.03065 0 200 -1.03065 1
gene 3 79 4 4.54317 0 201 4.54317 1
gene 3 23 84 -1.27148 0 215 -1.27148 1
gene 3 84 4 4.68835 0 216 4.68835 1
genomeend 97

/* Organism #98 Fitness: 15.9983 Error: 0.000210449 */
genomestart 98
trait 1 0.0815073 0.0446231 0.167149 0 0.153012 0 0 0.041683 
trait 2 0.2 0 0.0430417 0.00887263 0.0918419 0 0 0.46423 
trait 3 0.290573 0 0.00143787 0 0.00360311 0.00287801 0.0334238 0.00360096 
node 1 2 1 3
node 2 3 1 1
node 3 3 1 1
node 4 2 0 2
node 23 1 0 0
node 79 1 0 0
node 84 1 0 0
gene 2 1 4 2.06326 0 1 2.06326 1
gene 3 2 4 -6.02026 0 2 -6.02026 1
gene 1 3 4 -5.05638 0 3 -5.05638 1
gene 3 2 23 4.17802 0 40 4.17802 1
gene 3 23 4 5.31762 0 41 5.31762 0
gene 2 3 23 -0.441875 0 44 -0.441875 1
gene 3 1 23 1.41278 0 106 1.41278 1
gene 3 23 79 0.360296 0 200 0.360296 1
gene 3 79 4 3.35158 0 201 3.35158 1
gene 3 23 84 1 0 215 1 1
gene 3 84 4 4.46072 0 216 4.46072 1
genomeend 98

/* Organism #99 Fitness: 16 Error: 2.49657e-06 */
genomestart 99
trait 1 0.0815073 0.0446231 0.167149 0 0.153012 0 0 0.041683 
trait 2 0.2 0 0.0430417 0.00887263 0.0918419 0 0 0.46423 
trait 3 0.290573 0 0.00143787 0 0.00360311 0.00287801 0.0334238 0.00360096 
node 1 2 1 3
node 2 3 1 1
node 3 3 1 1
node 4 2 0 2
node 23 1 0 0
node 79 1 0 0
node 84 1 0 0
gene 2 1 4 3.23754 0 1 3.23754 1
gene 3 2 4 -5.81127 0 2 -5.81127 1
gene 1 3 4 -5.71852 0 3 -5.71852 1
gene 3 2 23 4.85125 0 40 4.85125 1
gene 3 23 4 5.58296 0 41 5.58296 0
gene 2 3 23 0.10505 0 44 0.10505 1
gene 3 1 23 1.14492 0 106 1.14492 1
gene 3 23 79 -0.340956 0 200 -0.340956 1
gene 3 79 4 2.23773 0 201 2.23773 1
gene 3 23 84 1 0 215 1 1
gene 3 84 4 5.02022 0 216 5.02022 1
genomeend 99

/* Organism #100 Fitness: 16 Error: 5.6719e-06 */
genomestart 100
trait 1 0.0815073 0.0446231 0.167149 0 0.153012 0 0 0.041683 
trait 2 0.2 0 0.0430417 0.00887263 0.0918419 0 0 0.46423 
trait 3 0.290573 0 0.00143787 0 0.00360311 0.00287801 0.0334238 0.00360096 
node 1 2 1 3
node 2 3 1 1
node 3 3 1 1
node 4 2 0 2
node 23 1 0 0
node 79 1 0 0
node 84 1 0 0
gene 2 1 4 2.73552 0 1 2.73552 1
gene 3 2 4 -6.74596 0 2 -6.74596 1
gene 1 3 4 -5.82838 0 3 -5.82838 1
gene 3 2 23 6.94559 0 40 6.94559 1
gene 3 23 4 4.41695 0 41 4.41695 1
gene 2 3 23 -1.43265 0 44 -1.43265 1
gene 3 1 23 2.91082 0 106 2.91082 1
gene 3 23 79 1.95474 0 200 1.95474 1
gene 3 79 4 -0.0127678 0 201 -0.0127678 1
gene 3 23 84 0.314812 0 215 0.314812 1
gene 3 84 4 3.61147 0 216 3.61147 1
genomeend 100

/* Organism #101 Fitness: 10.2286 Error: 0.801788 */
genomestart 101
trait 1 0.0815073 0.0446231 0.167149 0 0.153012 0 0 0.041683 
trait 2 0.2 0 0.0430417 0.00887263 0.0918419 0 0 0.46423 
trait 3 0 0 0.00143787 0 0.00360311 0.00287801 0.0334238 0 
node 1 2 1 3
node 2 3 1 1
node 3 3 1 1
node 4 2 0 2
node 23 1 0 0
node 79 1 0 0
node 84 1 0 0
gene 2 1 4 2.64563 0 1 2.64563 1
gene 3 2 4 -4.93163 0 2 -4.93163 1
gene 1 3 4 -6.28309 0 3 -6.28309 1
gene 3 2 23 1.8638 0 40 1.8638 1
gene 3 23 4 3.22865 0 41 3.22865 0
gene 2 3 23 -2.69151 0 44 -2.69151 1
gene 3 1 23 3.80178 0 106 3.80178 1
gene 3 23 79 -0.0160787 0 200 -0.0160787 1
gene 3 79 4 6.06205 0 201 6.06205 1
gene 3 23 84 1 0 215 1 1
gene 3 84 4 5.98499 0 216 5.98499 1
genomeend 101

/* Organism #102 Fitness: 15.2394 Error: 0.0962358 */
genomestart 102
trait 1 0.0815073 0.0446231 0.167149 0 0.153012 0 0 0.041683 
trait 2 0.2 0 0.0430417 0.00887263 0.0918419 0 0 0.46423 
trait 3 0.290573 0 0.00143787 0 0.00360311 0.00287801 0.0334238 0.00360096 
node 1 2 1 3
node 2 3 1 1
node 3 3 1 1
node 4 2 0 2
node 23 1 0 0
node 79 1 0 0
node 84 1 0 0
gene 2 1 4 4.12736 0 1 4.12736 1
gene 3 2 4 -5.30031 0 2 -5.30031 1
gene 1 3 4 -6.28203 0 3 -6.28203 1
gene 3 2 23 4.85125 0 40 4.85125 1
gene 3 23 4 1.96496 0 41 1.96496 0
gene 2 3 23 2.10125 0 44 2.10125 1
gene 3 1 23 0.180674 0 106 0.180674 1
gene 3 23 79 0.746339 0 200 0.746339 1
gene 3 79 4 1.3802 0 201 1.3802 1
gene 3 23 84 2.1444 0 215 2.1444 1
gene 3 84 4 5.6542 0 216 5.6542 1
genomeend 102

/* Organism #103 Fitness: 3.97993 Error: 2.00502 */
genomestart 103
trait 1 0.0815073 0.0446231 0.167149 0 0.153012 0 0 0.041683 
trait 2 0.2 0 0.0430417 0.00887263 0.0918419 0 0 0.46423 
trait 3 0.290573 0 0.00143787 0 0.00360311 0.00287801 0.0334238 0.00360096 
node 1 2 1 3
node 2 3 1 1
node 3 3 1 1
node 4 2 0 2
node 23 1 0 0
node 79 1 0 0
node 84 1 0 0
gene 2 1 4 1.94942 0 1 1.94942 1
gene 3 2 4 -7.52073 0 2 -7.52073 1
gene 1 3 4 -5.86904 0 3 -5.86904 1
gene 3 2 23 6.98755 0 40 6.98755 1
gene 3 23 4 6.42558 0 41 6.42558 0
gene 2 3 23 -2.12121 0 44 -2.12121 1
gene 3 1 23 -0.946575 0 106 -0.946575 1
gene 3 23 79 -2.16918 0 200 -2.16918 1
gene 3 79 4 0.280139 0 201 0.280139 1
gene 3 23 84 -1.16705 0 215 -1.16705 1
gene 3 84 4 -2.07281 0 216 -2.07281 1
genomeend 103

/* Species #14 : (Size 11) (AF 12.5273) (Age 7)  */


/* Organism #104 Fitness: 15.9917 Error: 0.0010433 */
genomestart 104
trait 1 0.1 0.0576945 0 0 0 0 0 0.0136104 
trait 2 0.2 0 0.0462988 0.00751716 0.407731 0 0 0.0346538 
trait 3 0.263249 0 0.023181 0 0.281361 0 0.0426411 0.00501003 
node 1 3 1 3
node 2 3 1 1
node 3 3 1 1
node 4 1 0 2
node 23 1 0 0
node 55 1 0 0
node 87 1 0 0
gene 2 1 4 7.23545 0 1 7.23545 1
gene 3 2 4 -4.20089 0 2 -4.20089 1
gene 1 3 4 -8 0 3 -8 1
gene 3 2 23 -2.14285 0 40 -2.14285 1
gene 3 23 4 -6.89901 0 41 -6.89901 1
gene 2 3 23 -6.21326 0 44 -6.21326 0
gene 1 3 55 5.09418 0 117 5.09418 1
gene 1 55 4 3.57122 0 118 3.57122 1
gene 2 1 55 -1.27157 0 143 -1.27157 1
gene 3 2 55 -1.27714 0 208 -1.27714 1
gene 2 3 87 3.24028 0 224 3.24028 1
gene 2 87 23 -3.29322 0 225 -3.29322 1
genomeend 104

/* Organism #105 Fitness: 9.01468 Error: 0.997554 */
genomestart 105
trait 1 0.1 0.0576945 0 0 0 0 0 0.0136104 
trait 2 0.2 0.615046 0.0336543 0 0.0473096 0 0 0.803787 
trait 3 0.263249 0 0.023181 0 0.281361 0 0.0426411 0.00501003 
node 1 3 1 3
node 2 3 1 1
node 3 3 1 1
node 4 1 0 2
node 23 1 0 0
node 55 1 0 0
node 87 1 0 0
gene 2 1 4 8 0 1 8 1
gene 3 2 4 -2.34911 0 2 -2.34911 1
gene 1 3 4 -5.85245 0 3 -5.85245 1
gene 3 2 23 -1.89325 0 40 -1.89325 1
gene 3 23 4 -8 0 41 -8 1
gene 2 3 23 -6.39415 0 44 -6.39415 0
gene 1 3 55 4.95312 0 117 4.95312 1
gene 1 55 4 1.42222 0 118 1.42222 1
gene 2 1 55 -1.34698 0 143 -1.34698 1
gene 3 2 55 1.01258 0 208 1.01258 1
gene 2 3 87 1.90462 0 224 1.90462 1
gene 2 87 23 -3.29322 0 225 -3.29322 1
genomeend 105

/* Organism #106 Fitness: 15.9848 Error: 0.00190097 */
genomestart 106
trait 1 0.1 0.0576945 0 0 0 0 0 0.0136104 
trait 2 0.2 0 0.0210098 0.0202803 0.0336948 0 0 0.0346538 
trait 3 0.263249 0 0.023181 0 0.281361 0 0.0426411 0.00501003 
node 1 3 1 3
node 2 3 1 1
node 3 3 1 1
node 4 1 0 2
node 23 1 0 0
node 55 1 0 0
node 87 1 0 0
gene 2 1 4 6.71638 0 1 6.71638 1
gene 3 2 4 -2.85767 0 2 -2.85767 1
gene 1 3 4 -8 0 3 -8 1
gene 3 2 23 0.173077 0 40 0.173077 1
gene 3 23 4 -4.93434 0 41 -4.93434 1
gene 2 3 23 -6.61807 0 44 -6.61807 1
gene 1 3 55 6.24908 0 117 6.24908 1
gene 1 55 4 2.79399 0 118 2.79399 1
gene 2 1 55 -0.16578 0 143 -0.16578 1
gene 3 2 55 -0.675525 0 208 -0.675525 1
gene 2 3 87 3.24028 0 224 3.24028 1
gene 2 87 23 -3.29322 0 225 -3.29322 1
gene 3 87 55 0.0435367 0 274 0.0435367 1
genomeend 106

/* Organism #107 Fitness: 11.0532 Error: 0.675367 */
genomestart 107
trait 1 0.1 0.0576945 0 0 0 0 0 0.0136104 
trait 2 0.2 0 0.0336543 0.0138987 0.220713 0 0 0.0346538 
trait 3 0.263249 0 0.023181 0 0.281361 0 0.0426411 0.00501003 
node 1 3 1 3
node 2 3 1 1
node 3 3 1 1
node 4 1 0 2
node 23 1 0 0
node 55 1 0 0
node 87 1 0 0
gene 2 1 4 7.69051 0 1 7.69051 1
gene 3 2 4 -6.09705 0 2 -6.09705 1
gene 1 3 4 -8 0 3 -8 1
gene 3 2 23 0.637607 0 40 0.637607 1
gene 3 23 4 -2.59192 0 41 -2.59192 1
gene 2 3 23 -8 0 44 -8 0
gene 1 3 55 4.40273 0 117 4.40273 1
gene 1 55 4 1.18876 0 118 1.18876 1
gene 2 1 55 2.26711 0 143 2.26711 1
gene 3 2 55 -1.10115 0 208 -1.10115 1
gene 2 3 87 -0.61694 0 224 -0.61694 1
gene 2 87 23 -1.8627 0 225 -1.8627 1
genomeend 107

/* Organism #108 Fitness: 15.9917 Error: 0.0010433 */
genomestart 108
trait 1 0.1 0.0576945 0 0 0 0 0 0.0136104 
trait 2 0.2 0 0.0462988 0.00751716 0.407731 0 0 0.0346538 
trait 3 0.263249 0 0.023181 0 0.281361 0 0.0426411 0.00501003 
node 1 3 1 3
node 2 3 1 1
node 3 3 1 1
node 4 1 0 2
node 23 1 0 0
node 55 1 0 0
node 87 1 0 0
gene 2 1 4 7.23545 0 1 7.23545 1
gene 3 2 4 -4.20089 0 2 -4.20089 1
gene 1 3 4 -8 0 3 -8 1
gene 3 2 23 -2.14285 0 40 -2.14285 1
gene 3 23 4 -6.89901 0 41 -6.89901 1
gene 2 3 23 -6.21326 0 44 -6.21326 0
gene 1 3 55 5.09418 0 117 5.09418 1
gene 1 55 4 3.57122 0 118 3.57122 1
gene 2 1 55 -1.27157 0 143 -1.27157 1
gene 3 2 55 -1.27714 0 208 -1.27714 1
gene 2 3 87 3.24028 0 224 3.24028 1
gene 2 87 23 -3.29322 0 225 -3.29322 1
genomeend 108

/* Organism #109 Fitness: 14.0952 Error: 0.245646 */
genomestart 109
trait 1 0.1 0.0576945 0 0 0 0 0 0.0136104 
trait 2 0.2 0 0.0336543 0.0138987 0.220713 0 0 0.0346538 
trait 3 0.263249 0 0.023181 0 0.281361 0 0.0426411 0.00501003 
node 1 3 1 3
node 2 3 1 1
node 3 3 1 1
node 4 1 0 2
node 23 1 0 0
node 55 1 0 0
node 87 1 0 0
gene 2 1 4 5.8593 0 1 5.8593 1
gene 3 2 4 -1.60505 0 2 -1.60505 1
gene 1 3 4 -7.95011 0 3 -7.95011 1
gene 3 2 23 -4.24544 0 40 -4.24544 1
gene 3 23 4 -6.90086 0 41 -6.90086 1
gene 2 3 23 -3.95518 0 44 -3.95518 0
gene 1 3 55 6.51842 0 117 6.51842 1
gene 1 55 4 2.3199 0 118 2.3199 1
gene 2 1 55 0.777188 0 143 0.777188 1
gene 3 2 55 0.883577 0 208 0.883577 1
gene 2 3 87 1.02967 0 224 1.02967 1
gene 2 87 23 -3.76241 0 225 -3.76241 1
genomeend 109

/* Organism #110 Fitness: 15.9893 Error: 0.00133934 */
genomestart 110
trait 1 0.1 0.0576945 0 0 0 0 0 0.0136104 
trait 2 0.2 0 0.0336543 0.0138987 0.220713 0 0 0.0346538 
trait 3 0.263249 0 0.023181 0 0.281361 0 0.0426411 0.00501003 
node 1 3 1 3
node 2 3 1 1
node 3 3 1 1
node 4 1 0 2
node 23 1 0 0
node 55 1 0 0
node 87 1 0 0
gene 2 1 4 7.15635 0 1 7.15635 1
gene 3 2 4 -3.06032 0 2 -3.06032 1
gene 1 3 4 -8 0 3 -8 1
gene 3 2 23 -2.26825 0 40 -2.26825 1
gene 3 23 4 -7.57502 0 41 -7.57502 1
gene 2 3 23 -8 0 44 -8 0
gene 1 3 55 5.45925 0 117 5.45925 1
gene 1 55 4 2.23168 0 118 2.23168 1
gene 2 1 55 -1.69175 0 143 -1.69175 1
gene 3 2 55 -1.77487 0 208 -1.77487 1
gene 2 3 87 1.1213 0 224 1.1213 1
gene 2 87 23 -3.7649 0 225 -3.7649 1
genomeend 110

/* Organism #111 Fitness: 13.6539 Error: 0.304888 */
genomestart 111
trait 1 0.1 0.0576945 0 0 0 0 0 0.0136104 
trait 2 0.2 0 0.0336543 0.0138987 0.220713 0 0 0.0346538 
trait 3 0.263249 0 0.023181 0 0.281361 0 0.0426411 0.00501003 
node 1 3 1 3
node 2 3 1 1
node 3 3 1 1
node 4 1 0 2
node 23 1 0 0
node 55 1 0 0
node 87 1 0 0
gene 2 1 4 5.13663 0 1 5.13663 1
gene 3 2 4 -3.2618 0 2 -3.2618 1
gene 1 3 4 -6.92689 0 3 -6.92689 1
gene 3 2 23 -0.430176 0 40 -0.430176 1
gene 3 23 4 -6.96418 0 41 -6.96418 1
gene 2 3 23 -5.29296 0 44 -5.29296 0
gene 1 3 55 5.6681 0 117 5.6681 1
gene 1 55 4 1.95771 0 118 1.95771 1
gene 2 1 55 0.135555 0 143 0.135555 1
gene 3 2 55 -2.73821 0 208 -2.73821 1
gene 2 3 87 3.2061 0 224 3.2061 1
gene 2 87 23 -5.33523 0 225 -5.33523 1
genomeend 111

/* Organism #112 Fitness: 9.00505 Error: 0.999158 */
genomestart 112
trait 1 0.1 0.0576945 0 0 0 0 0 0.0136104 
trait 2 0.2 0 0.0462988 0.00751716 0.407731 0 0 0.0346538 
trait 3 0.263249 0 0.023181 0 0.281361 0 0.0426411 0.00501003 
node 1 3 1 3
node 2 3 1 1
node 3 3 1 1
node 4 1 0 2
node 23 1 0 0
node 55 1 0 0
node 87 1 0 0
gene 2 1 4 6.91606 0 1 6.91606 1
gene 3 2 4 -4.20089 0 2 -4.20089 1
gene 1 3 4 -5.56835 0 3 -5.56835 1
gene 3 2 23 -2.14285 0 40 -2.14285 1
gene 3 23 4 -8 0 41 -8 1
gene 2 3 23 -8 0 44 -8 0
gene 1 3 55 5.68849 0 117 5.68849 1
gene 1 55 4 -1.87037 0 118 -1.87037 1
gene 2 1 55 0.0803113 0 143 0.0803113 1
gene 3 2 55 -3.74806 0 208 -3.74806 1
gene 2 3 87 3.24028 0 224 3.24028 1
gene 2 87 23 -0.415779 0 225 -0.415779 1
genomeend 112

/* Organism #113 Fitness: 15.9458 Error: 0.006779 */
genomestart 113
trait 1 0.1 0.0576945 0 0 0 0 0 0.0136104 
trait 2 0.315832 0 0 0.170639 0.0336948 0.201841 0.442596 0.643562 
trait 3 0.263249 0 0.023181 0 0.281361 0 0.0426411 0.00501003 
node 1 3 1 3
node 2 3 1 1
node 3 3 1 1
node 4 1 0 2
node 23 1 0 0
node 55 1 0 0
node 87 1 0 0
gene 2 1 4 7.56567 0 1 7.56567 1
gene 3 2 4 -2.78683 0 2 -2.78683 1
gene 1 3 4 -6.54788 0 3 -6.54788 1
gene 1 2 23 -1.57256 0 40 -1.57256 1
gene 3 23 4 -5.16785 0 41 -5.16785 1
gene 2 3 23 -6.77703 0 44 -6.77703 0
gene 1 3 55 -2.29935 0 117 -2.29935 1
gene 1 55 4 2.79399 0 118 2.79399 1
gene 2 1 55 -2.15583 0 143 -2.15583 1
gene 3 2 55 -0.951761 0 208 -0.951761 1
gene 2 3 87 4.88652 0 224 4.88652 1
gene 2 87 23 -3.17946 0 225 -3.17946 1
gene 3 87 55 0.34194 0 274 0.34194 1
genomeend 113

/* Organism #114 Fitness: 1.07473 Error: 2.96331 */
genomestart 114
trait 1 0.1 0.0576945 0 0 0 0 0 0.0136104 
trait 2 0.2 0 0.0462988 0.00751716 0.407731 0 0 0.0346538 
trait 3 0.263249 0 0.023181 0 0.281361 0 0.0426411 0.00501003 
node 1 3 1 3
node 2 3 1 1
node 3 3 1 1
node 4 1 0 2
node 23 1 0 0
node 55 1 0 0
node 87 1 0 0
gene 2 1 4 0.945335 0 1 0.945335 1
gene 3 2 4 -3.0575 0 2 -3.0575 1
gene 1 3 4 -6.16408 0 3 -6.16408 1
gene 3 2 23 -2.77612 0 40 -2.77612 1
gene 3 23 4 -6.6191 0 41 -6.6191 1
gene 2 3 23 -2.4974 0 44 -2.4974 0
gene 1 3 55 5.09418 0 117 5.09418 1
gene 1 55 4 -1.58225 0 118 -1.58225 1
gene 2 1 55 0.959436 0 143 0.959436 1
gene 3 2 55 -0.738417 0 208 -0.738417 1
gene 2 3 87 2.09449 0 224 2.09449 1
gene 2 87 23 -2.06628 0 225 -2.06628 1
genomeend 114

/* Species #15 : (Size 8) (AF 11.6076) (Age 6)  */


/* Organism #115 Fitness: 15.9997 Error: 3.31985e-05 */
genomestart 115
trait 1 0.1 0.0576945 0 0 0 0 0 0.0136104 
trait 2 0.2 0 0.0210098 0.0202803 0.0336948 0 0 0.0346538 
trait 3 0.263249 0 0.023181 0 0.281361 0 0.0426411 0.00501003 
node 1 3 1 3
node 2 3 1 1
node 3 3 1 1
node 4 1 0 2
node 23 1 0 0
node 55 1 0 0
node 81 1 0 0
gene 2 1 4 8 0 1 8 1
gene 3 2 4 -1.07115 0 2 -1.07115 1
gene 1 3 4 -6.28512 0 3 -6.28512 1
gene 3 2 23 3.18247 0 40 3.18247 1
gene 3 23 4 -4.62642 0 41 -4.62642 1
gene 2 3 23 -3.44064 0 44 -3.44064 0
gene 1 3 55 1.99746 0 117 1.99746 1
gene 2 55 4 0.868581 0 118 0.868581 1
gene 2 1 55 -1.78993 0 143 -1.78993 1
gene 2 3 81 3.54324 0 206 3.54324 1
gene 2 81 23 -0.665278 0 207 -0.665278 1
gene 3 1 81 0.79977 0 226 0.79977 1
genomeend 115

/* Organism #116 Fitness: 15.9664 Error: 0.00420436 */
genomestart 116
trait 1 0.1 0.0576945 0 0 0 0 0 0.0136104 
trait 2 0.2 0 0.0210098 0.0202803 0.0336948 0 0 0.0346538 
trait 3 0.263249 0 0.023181 0 0.281361 0 0.0426411 0.00501003 
node 1 3 1 3
node 2 3 1 1
node 3 3 1 1
node 4 1 0 2
node 23 1 0 0
node 55 1 0 0
node 81 1 0 0
gene 2 1 4 7.32768 0 1 7.32768 1
gene 3 2 4 -3.15059 0 2 -3.15059 1
gene 1 3 4 -4.04643 0 3 -4.04643 1
gene 3 2 23 2.11839 0 40 2.11839 1
gene 3 23 4 -3.06727 0 41 -3.06727 1
gene 2 3 23 -3.61423 0 44 -3.61423 0
gene 1 3 55 4.05416 0 117 4.05416 1
gene 2 55 4 -0.852077 0 118 -0.852077 1
gene 2 1 55 -2.05785 0 143 -2.05785 1
gene 2 3 81 3.11858 0 206 3.11858 1
gene 2 81 23 -0.553711 0 207 -0.553711 1
gene 3 1 81 0.765964 0 226 0.765964 1
genomeend 116

/* Organism #117 Fitness: 4.39678 Error: 1.90315 */
genomestart 117
trait 1 0.1 0.0576945 0 0 0 0 0 0.0136104 
trait 2 0.2 0 0.0210098 0.0202803 0.0336948 0 0 0.0346538 
trait 3 0.263249 0 0.023181 0 0.281361 0 0.0426411 0.00501003 
node 1 3 1 3
node 2 3 1 1
node 3 3 1 1
node 4 1 0 2
node 23 1 0 0
node 55 1 0 0
node 81 1 0 0
gene 2 1 4 8 0 1 8 1
gene 3 2 4 -2.2457 0 2 -2.2457 1
gene 1 3 4 -7.85777 0 3 -7.85777 1
gene 3 2 23 4.00909 0 40 4.00909 1
gene 3 23 4 -6.20771 0 41 -6.20771 1
gene 2 3 23 -1.83474 0 44 -1.83474 0
gene 1 3 55 3.14827 0 117 3.14827 1
gene 2 55 4 -0.177535 0 118 -0.177535 1
gene 2 1 55 -5.90914 0 143 -5.90914 1
gene 2 3 81 5.32987 0 206 5.32987 1
gene 2 81 23 0.474732 0 207 0.474732 1
gene 3 1 81 -1.69636 0 226 -1.69636 1
genomeend 117

/* Organism #118 Fitness: 11.3329 Error: 0.633566 */
genomestart 118
trait 1 0.1 0.0576945 0 0 0 0 0 0.0136104 
trait 2 0.2 0 0.0210098 0.0202803 0.0336948 0 0 0.0346538 
trait 3 0.263249 0 0.023181 0 0.281361 0 0.0426411 0.00501003 
node 1 3 1 3
node 2 3 1 1
node 3 3 1 1
node 4 1 0 2
node 23 1 0 0
node 55 1 0 0
node 81 1 0 0
gene 2 1 4 7.88925 0 1 7.88925 1
gene 3 2 4 -1.22282 0 2 -1.22282 1
gene 1 3 4 -8 0 3 -8 1
gene 3 2 23 3.28584 0 40 3.28584 1
gene 3 23 4 -4.22776 0 41 -4.22776 1
gene 2 3 23 -6.14344 0 44 -6.14344 0
gene 1 3 55 0.208145 0 117 0.208145 1
gene 2 55 4 1.11064 0 118 1.11064 1
gene 2 1 55 -2.59866 0 143 -2.59866 1
gene 2 3 81 2.54385 0 206 2.54385 1
gene 2 81 23 -1.85882 0 207 -1.85882 1
gene 3 1 81 -0.198449 0 226 -0.198449 1
genomeend 118

/* Organism #119 Fitness: 11.5877 Error: 0.595923 */
genomestart 119
trait 1 0.1 0.0576945 0 0 0 0 0 0.0136104 
trait 2 0.279928 0 0.0379628 0.418396 0.0336948 0 0 0.188304 
trait 3 0.263249 0 0.023181 0 0.281361 0 0.0426411 0.00501003 
node 1 3 1 3
node 2 3 1 1
node 3 3 1 1
node 4 1 0 2
node 23 1 0 0
node 55 1 0 0
node 81 1 0 0
gene 2 1 4 5.76077 0 1 5.76077 1
gene 3 2 4 -1.11733 0 2 -1.11733 1
gene 1 3 4 -7.29555 0 3 -7.29555 1
gene 3 2 23 4.18547 0 40 4.18547 1
gene 3 23 4 -4.15757 0 41 -4.15757 1
gene 2 3 23 -3.33207 0 44 -3.33207 1
gene 1 3 55 1.52988 0 117 1.52988 1
gene 2 55 4 1.48641 0 118 1.48641 1
gene 2 1 55 -0.728435 0 143 -0.728435 1
gene 2 3 81 2.34837 0 206 2.34837 1
gene 2 81 23 -4.57973 0 207 -4.57973 1
gene 3 1 81 1.83414 0 226 1.83414 1
genomeend 119

/* Organism #120 Fitness: 9 Error: 1 */
genomestart 120
trait 1 0.1 0.0576945 0 0 0 0 0 0.0136104 
trait 2 0.359857 0 0.0549158 0.816512 0.0336948 0 0 0.341954 
trait 3 0.263249 0 0.023181 0 0.281361 0 0.0426411 0.00501003 
node 1 3 1 3
node 2 3 1 1
node 3 3 1 1
node 4 1 0 2
node 23 1 0 0
node 55 1 0 0
node 81 1 0 0
gene 2 1 4 7.73488 0 1 7.73488 1
gene 3 2 4 -1.77075 0 2 -1.77075 1
gene 1 3 4 -4.55818 0 3 -4.55818 1
gene 3 2 23 1.03326 0 40 1.03326 1
gene 3 23 4 -1.42614 0 41 -1.42614 1
gene 2 3 23 -6.36362 0 44 -6.36362 0
gene 1 3 55 2.07666 0 117 2.07666 1
gene 2 55 4 3.95287 0 118 3.95287 1
gene 2 1 55 -1.46339 0 143 -1.46339 1
gene 2 3 81 2.84191 0 206 2.84191 1
gene 2 81 23 -2.33037 0 207 -2.33037 1
gene 3 1 81 4.22463 0 226 4.22463 1
genomeend 120

/* Organism #121 Fitness: 15.3371 Error: 0.0837327 */
genomestart 121
trait 1 0.1 0.0576945 0 0 0 0 0 0.0136104 
trait 2 0.279928 0 0.0379628 0.418396 0.0336948 0 0 0.188304 
trait 3 0.263249 0 0.023181 0 0.281361 0 0.0426411 0.00501003 
node 1 3 1 3
node 2 3 1 1
node 3 2 1 1
node 4 1 0 2
node 23 1 0 0
node 55 1 0 0
node 81 1 0 0
gene 2 1 4 5.63456 0 1 5.63456 1
gene 3 2 4 -2.21886 0 2 -2.21886 1
gene 1 3 4 -3.90212 0 3 -3.90212 1
gene 3 2 23 1.08613 0 40 1.08613 1
gene 3 23 4 0.364886 0 41 0.364886 1
gene 2 3 23 -4.61548 0 44 -4.61548 0
gene 1 3 55 -1.54748 0 117 -1.54748 1
gene 2 55 4 1.65941 0 118 1.65941 1
gene 2 1 55 -2.09406 0 143 -2.09406 1
gene 2 3 81 4.0117 0 206 4.0117 1
gene 2 81 23 -3.29208 0 207 -3.29208 1
gene 3 1 81 5.22342 0 226 5.22342 1
genomeend 121

/* Organism #122 Fitness: 9.23978 Error: 0.9603 */
genomestart 122
trait 1 0.1 0.0576945 0 0 0 0 0 0.0136104 
trait 2 0.2 0 0.0210098 0.0202803 0.0336948 0 0 0.0346538 
trait 3 0.263249 0 0.023181 0 0.281361 0 0.0426411 0.00501003 
node 1 3 1 3
node 2 3 1 1
node 3 3 1 1
node 4 1 0 2
node 23 1 0 0
node 55 1 0 0
node 81 1 0 0
gene 2 1 4 7.35973 0 1 7.35973 1
gene 3 2 4 -2.46504 0 2 -2.46504 1
gene 1 3 4 -8 0 3 -8 1
gene 3 2 23 3.46019 0 40 3.46019 1
gene 3 23 4 1.18451 0 41 1.18451 1
gene 2 3 23 -6.23782 0 44 -6.23782 0
gene 1 3 55 3.13554 0 117 3.13554 1
gene 2 55 4 -0.193443 0 118 -0.193443 1
gene 2 1 55 -3.82331 0 143 -3.82331 1
gene 2 3 81 6.19354 0 206 6.19354 1
gene 2 81 23 -2.21044 0 207 -2.21044 1
gene 3 1 81 -2.30342 0 226 -2.30342 1
genomeend 122

/* Species #16 : (Size 8) (AF 9.41939) (Age 5)  */


/* Organism #123 Fitness: 15.971 Error: 0.00363137 */
genomestart 123
trait 1 0.1 0.0576945 0.110738 0 0 0 0 0.428254 
trait 2 0.2 0 0.0210098 0.0202803 0.0336948 0.132647 0 0.0346538 
trait 3 0 0 0.379153 0 0.0764277 0 0.0313885 0.252965 
node 1 3 1 3
node 2 3 1 1
node 3 3 1 1
node 4 2 0 2
node 23 1 0 0
node 37 1 0 0
gene 2 1 4 5.70358 0 1 5.70358 1
gene 3 2 4 0.471954 0 2 0.471954 0
gene 1 3 4 -6.70719 0 3 -6.70719 1
gene 3 2 23 5.96638 0 40 5.96638 1
gene 3 23 4 -5.55837 0 41 -5.55837 1
gene 1 3 37 1.38165 0 74 1.38165 1
gene 1 37 4 2.90306 0 75 2.90306 1
gene 1 3 23 -2.84286 0 169 -2.84286 1
gene 2 1 23 0.817608 0 220 0.817608 1
gene 1 2 37 -0.126319 0 235 -0.126319 1
genomeend 123

/* Organism #124 Fitness: 4 Error: 2 */
genomestart 124
trait 1 0.1 0.0576945 0.110738 0 0 0 0 0.428254 
trait 2 0.2 0 0.0210098 0.0202803 0.0336948 0.132647 0 0.0346538 
trait 3 0.150428 0.108586 0.614207 0 0.0764277 0.0507024 0.0313885 0.128987 
node 1 3 1 3
node 2 3 1 1
node 3 3 1 1
node 4 2 0 2
node 23 1 0 0
node 37 1 0 0
gene 2 1 4 6.8739 0 1 6.8739 1
gene 3 2 4 2.49378 0 2 2.49378 1
gene 1 3 4 -0.620389 0 3 -0.620389 1
gene 3 2 23 5.05615 0 40 5.05615 1
gene 3 23 4 2.49075 0 41 2.49075 1
gene 2 3 37 2.37919 0 74 2.37919 1
gene 1 37 4 4.18052 0 75 4.18052 1
gene 1 3 23 1.08877 0 169 1.08877 1
gene 2 1 23 -0.725575 0 220 -0.725575 1
gene 1 2 37 1.25818 0 235 1.25818 1
genomeend 124

/* Organism #125 Fitness: 1.47333 Error: 2.78619 */
genomestart 125
trait 1 0.1 0.0576945 0.110738 0 0 0 0 0.428254 
trait 2 0.2 0 0.0210098 0.0202803 0.0336948 0.132647 0 0.0346538 
trait 3 0 0 0.379153 0 0.0764277 0 0.0313885 0.252965 
node 1 3 1 3
node 2 3 1 1
node 3 3 1 1
node 4 2 0 2
node 23 1 0 0
node 37 1 0 0
gene 2 1 4 6.4682 0 1 6.4682 1
gene 3 2 4 1.81857 0 2 1.81857 1
gene 1 3 4 -4.50689 0 3 -4.50689 1
gene 3 2 23 4.99639 0 40 4.99639 1
gene 3 23 4 -7.48778 0 41 -7.48778 1
gene 1 3 37 3.67001 0 74 3.67001 1
gene 1 37 4 3.96626 0 75 3.96626 1
gene 1 3 23 -1.10342 0 169 -1.10342 1
gene 2 1 23 1.74633 0 220 1.74633 1
gene 1 2 37 -2.27534 0 235 -2.27534 1
genomeend 125

/* Organism #126 Fitness: 15.971 Error: 0.00363137 */
genomestart 126
trait 1 0.1 0.0576945 0.110738 0 0 0 0 0.428254 
trait 2 0.2 0 0.0210098 0.0202803 0.0336948 0.132647 0 0.0346538 
trait 3 0 0 0.379153 0 0.0764277 0 0.0313885 0.252965 
node 1 3 1 3
node 2 3 1 1
node 3 3 1 1
node 4 2 0 2
node 23 1 0 0
node 37 1 0 0
gene 3 1 4 5.70358 0 1 5.70358 1
gene 3 2 4 0.471954 0 2 0.471954 0
gene 1 3 4 -6.70719 0 3 -6.70719 1
gene 3 2 23 5.96638 0 40 5.96638 1
gene 3 23 4 -5.55837 0 41 -5.55837 1
gene 1 3 37 1.38165 0 74 1.38165 1
gene 1 37 4 2.90306 0 75 2.90306 1
gene 1 3 23 -2.84286 0 169 -2.84286 1
gene 2 1 23 0.817608 0 220 0.817608 1
gene 1 2 37 -0.126319 0 235 -0.126319 1
genomeend 126

/* Organism #127 Fitness: 15.971 Error: 0.00363137 */
genomestart 127
trait 1 0.1 0.0576945 0.110738 0 0 0 0 0.428254 
trait 2 0.2 0 0.0210098 0.0202803 0.0336948 0.132647 0 0.0346538 
trait 3 0 0 0.379153 0 0.0764277 0 0.0313885 0.252965 
node 1 3 1 3
node 2 3 1 1
node 3 3 1 1
node 4 2 0 2
node 23 1 0 0
node 37 1 0 0
gene 2 1 4 5.70358 0 1 5.70358 1
gene 3 2 4 0.471954 0 2 0.471954 0
gene 1 3 4 -6.70719 0 3 -6.70719 1
gene 3 2 23 5.96638 0 40 5.96638 1
gene 3 23 4 -5.55837 0 41 -5.55837 1
gene 1 3 37 1.38165 0 74 1.38165 1
gene 1 37 4 2.90306 0 75 2.90306 1
gene 1 3 23 -2.84286 0 169 -2.84286 1
gene 2 1 23 0.817608 0 220 0.817608 1
gene 1 2 37 -0.126319 0 235 -0.126319 1
genomeend 127

/* Organism #128 Fitness: 6.10345 Error: 1.52948 */
genomestart 128
trait 1 0.1 0.0576945 0.110738 0 0 0 0 0.428254 
trait 2 0.2 0 0.0210098 0.0202803 0.0336948 0.132647 0 0.0346538 
trait 3 0.300856 0.217172 0.849261 0 0.0764277 0.101405 0.0313885 0.00501003 
node 1 3 1 3
node 2 3 1 1
node 3 3 1 1
node 4 2 0 2
node 23 1 0 0
node 37 1 0 0
gene 2 1 4 7.41073 0 1 7.41073 1
gene 3 2 4 -1.58807 0 2 -1.58807 0
gene 1 3 4 -8 0 3 -8 1
gene 3 2 23 3.92725 0 40 3.92725 1
gene 3 23 4 -3.79861 0 41 -3.79861 1
gene 2 3 37 -1.32499 0 74 -1.32499 1
gene 1 37 4 0.188388 0 75 0.188388 1
gene 1 3 23 -0.968909 0 169 -0.968909 1
gene 2 1 23 -3.71644 0 220 -3.71644 1
gene 1 2 37 2.25271 0 235 2.25271 1
genomeend 128

/* Organism #129 Fitness: 6.60171 Error: 1.43062 */
genomestart 129
trait 1 1 0.649435 0.110738 0 0 0 0.962781 0 
trait 2 0.2 0 0.0210098 0.0202803 0.0336948 0.132647 0 0.0346538 
trait 3 0.300856 0.217172 0.849261 0 0.0764277 0.101405 0.0313885 0.00501003 
node 1 3 1 3
node 2 3 1 1
node 3 3 1 1
node 4 2 0 2
node 23 1 0 0
node 37 1 0 0
gene 2 1 4 7.91674 0 1 7.91674 1
gene 3 2 4 -0.188611 0 2 -0.188611 0
gene 1 3 4 -8 0 3 -8 1
gene 3 2 23 3.25974 0 40 3.25974 1
gene 3 23 4 -8 0 41 -8 1
gene 2 3 37 -1.99976 0 74 -1.99976 1
gene 1 37 4 1.06375 0 75 1.06375 1
gene 1 3 23 0.223344 0 169 0.223344 1
gene 2 1 23 -0.911377 0 220 -0.911377 1
gene 1 2 37 -0.831425 0 235 -0.831425 1
genomeend 129

/* Organism #130 Fitness: 9.26376 Error: 0.956358 */
genomestart 130
trait 1 0.1 0.0576945 0.110738 0 0 0 0 0.428254 
trait 2 0.2 0 0.0210098 0.0202803 0.0336948 0.132647 0 0.0346538 
trait 3 0.150428 0.108586 0.614207 0 0.0764277 0.0507024 0.0313885 0.128987 
node 1 3 1 3
node 2 3 1 1
node 3 3 1 1
node 4 2 0 2
node 23 1 0 0
node 37 1 0 0
gene 2 1 4 7.45413 0 1 7.45413 1
gene 3 2 4 -1.50361 0 2 -1.50361 0
gene 1 3 4 -6.73875 0 3 -6.73875 1
gene 3 2 23 7.32451 0 40 7.32451 1
gene 3 23 4 -0.486519 0 41 -0.486519 1
gene 2 3 37 -1.91834 0 74 -1.91834 1
gene 1 37 4 0.318551 0 75 0.318551 1
gene 1 3 23 -1.4473 0 169 -1.4473 1
gene 2 1 23 -1.05567 0 220 -1.05567 1
gene 1 2 37 -1.17097 0 235 -1.17097 1
genomeend 130

/* Species #17 : (Size 7) (AF 6.71746) (Age 5)  */


/* Organism #131 Fitness: 15.7539 Error: 0.0308808 */
genomestart 131
trait 1 0.1 0.0576945 0 0 0 0 0 0.0136104 
trait 2 0.2 0 0.0210098 0.0202803 0.0336948 0 0 0.0346538 
trait 3 0.263249 0 0.023181 0 0.281361 0 0.0426411 0.00501003 
node 1 3 1 3
node 2 3 1 1
node 3 3 1 1
node 4 1 0 2
node 23 1 0 0
node 55 1 0 0
node 91 1 0 0
gene 2 1 4 8 0 1 8 1
gene 3 2 4 -1.02692 0 2 -1.02692 1
gene 1 3 4 -8 0 3 -8 1
gene 3 2 23 1.6881 0 40 1.6881 1
gene 3 23 4 -4.97624 0 41 -4.97624 1
gene 2 3 23 -3.09136 0 44 -3.09136 1
gene 1 3 55 5.34054 0 117 5.34054 1
gene 1 55 4 2.41817 0 118 2.41817 1
gene 2 1 55 -0.212546 0 143 -0.212546 1
gene 3 2 55 0.54392 0 208 0.54392 1
gene 3 2 91 2.70786 0 240 2.70786 1
gene 3 91 4 -3.16575 0 241 -3.16575 1
genomeend 131

/* Organism #132 Fitness: 2.50931 Error: 2.41592 */
genomestart 132
trait 1 0.1 0.0576945 0 0 0 0 0 0.0136104 
trait 2 0.2 0 0.0210098 0.0202803 0.0336948 0 0 0.0346538 
trait 3 0.263249 0 0.023181 0 0.281361 0 0.0426411 0.00501003 
node 1 3 1 3
node 2 3 1 1
node 3 3 1 1
node 4 1 0 2
node 23 1 0 0
node 55 1 0 0
node 91 1 0 0
node 103 1 0 0
gene 2 1 4 0.968148 0 1 0.968148 1
gene 3 2 4 -2.87443 0 2 -2.87443 0
gene 1 3 4 -5.78885 0 3 -5.78885 1
gene 3 2 23 4.91309 0 40 4.91309 1
gene 3 23 4 -6.36702 0 41 -6.36702 1
gene 2 3 23 -4.96149 0 44 -4.96149 1
gene 1 3 55 6.81156 0 117 6.81156 0
gene 1 55 4 4.823 0 118 4.823 1
gene 2 1 55 2.17134 0 143 2.17134 1
gene 3 2 55 3.35468 0 208 3.35468 1
gene 3 2 91 3.44573 0 240 3.44573 1
gene 3 91 4 -0.977226 0 241 -0.977226 1
gene 1 3 103 3.37963 0 277 3.37963 1
gene 1 103 55 5.50907 0 278 5.50907 1
genomeend 132

/* Organism #133 Fitness: 2.25245 Error: 2.49918 */
genomestart 133
trait 1 0.1 0.0576945 0 0 0 0 0 0.0136104 
trait 2 0.2 0 0.0210098 0.0202803 0.0336948 0 0 0.0346538 
trait 3 0.263249 0 0.023181 0 0.281361 0 0.0426411 0.00501003 
node 1 3 1 3
node 2 3 1 1
node 3 3 1 1
node 4 1 0 2
node 23 1 0 0
node 55 1 0 0
node 91 1 0 0
node 103 1 0 0
gene 2 1 4 6.66602 0 1 6.66602 1
gene 3 2 4 2.32885 0 2 2.32885 0
gene 1 3 4 -8 0 3 -8 1
gene 3 2 23 1.27519 0 40 1.27519 1
gene 3 23 4 -7.67965 0 41 -7.67965 1
gene 2 3 23 -2.88533 0 44 -2.88533 1
gene 1 3 55 3.70257 0 117 3.70257 0
gene 1 55 4 1.26116 0 118 1.26116 1
gene 2 1 55 1.68004 0 143 1.68004 1
gene 3 2 55 3.33778 0 208 3.33778 1
gene 3 2 91 1.8401 0 240 1.8401 1
gene 3 91 4 -2.74534 0 241 -2.74534 1
gene 1 3 103 0.801133 0 277 0.801133 1
gene 1 103 55 5.22411 0 278 5.22411 1
genomeend 133

/* Organism #134 Fitness: 4.00044 Error: 1.99989 */
genomestart 134
trait 1 0.1 0.0576945 0 0 0 0 0 0.0136104 
trait 2 0.2 0 0.0210098 0.0202803 0.0336948 0 0 0.0346538 
trait 3 0.263249 0 0.023181 0 0.281361 0 0.0426411 0.00501003 
node 1 3 1 3
node 2 3 1 1
node 3 3 1 1
node 4 1 0 2
node 23 1 0 0
node 55 1 0 0
node 91 1 0 0
gene 2 1 4 7.91056 0 1 7.91056 1
gene 3 2 4 -1.82831 0 2 -1.82831 1
gene 1 3 4 -7.86103 0 3 -7.86103 1
gene 3 2 23 0.69494 0 40 0.69494 1
gene 3 23 4 -4.71649 0 41 -4.71649 1
gene 2 3 23 -4.35374 0 44 -4.35374 1
gene 1 3 55 5.34054 0 117 5.34054 1
gene 1 55 4 -2.49287 0 118 -2.49287 1
gene 2 1 55 0.406547 0 143 0.406547 1
gene 3 2 55 -1.24878 0 208 -1.24878 1
gene 3 2 91 1.47071 0 240 1.47071 1
gene 3 91 4 -3.15064 0 241 -3.15064 1
genomeend 134

/* Organism #135 Fitness: 6.25 Error: 1.5 */
genomestart 135
trait 1 0.1 0.327293 0 0.0256375 0 0 0 0.130898 
trait 2 0.2 0 0.0210098 0.0202803 0.0336948 0 0 0.0346538 
trait 3 0.263249 0 0.023181 0 0.281361 0 0.0426411 0.00501003 
node 1 3 1 3
node 2 3 1 1
node 3 3 1 1
node 4 1 0 2
node 23 1 0 0
node 55 1 0 0
node 91 1 0 0
gene 2 1 4 6.47034 0 1 6.47034 1
gene 3 2 4 -2.84137 0 2 -2.84137 0
gene 1 3 4 1.38119 0 3 1.38119 1
gene 3 2 23 0.802925 0 40 0.802925 1
gene 3 23 4 1.46181 0 41 1.46181 1
