
/* Species #3 : (Size 11) (AF 9.93492) (Age 20)  */


/* Organism #0 Fitness: 15.9983 Error: 0.000210999 */
genomestart 0
trait 1 0.1 0.0576945 0.110738 0 0 0 0 0.428254 
trait 2 0.2 0 0.0210098 0.0202803 0.0336948 0.132647 0 0.0346538 
trait 3 0.300856 0.248196 0.958776 0 0.0764277 0.101405 0.0283942 0.00501003 
node 1 3 1 3
node 2 3 1 1
node 3 3 1 1
node 4 2 0 2
node 23 1 0 0
node 37 1 0 0
gene 2 1 4 6.27531 0 1 6.27531 1
gene 3 2 4 1.14246 0 2 1.14246 0
gene 1 3 4 -4.93347 0 3 -4.93347 1
gene 3 2 23 1.84175 0 40 1.84175 1
gene 3 23 4 -6.49062 0 41 -6.49062 1
gene 1 3 37 -0.452902 0 74 -0.452902 1
gene 1 37 4 4.68471 0 75 4.68471 1
gene 1 3 23 -0.909638 0 169 0 1
gene 3 1 23 -0.134594 0 199 -0.134594 1
genomeend 0

/* Organism #1 Fitness: 8.99999 Error: 1 */
genomestart 1
trait 1 0.1 0.0576945 0.110738 0 0 0 0 0.428254 
trait 2 0.2 0 0.0210098 0.0202803 0.0336948 0.132647 0 0.0346538 
trait 3 0.300856 0.186147 0.739747 0 0.0764277 0.101405 0.0343828 0.00501003 
node 1 3 1 3
node 2 3 1 1
node 3 3 1 1
node 4 2 0 2
node 23 1 0 0
node 37 1 0 0
gene 2 1 4 7.60658 0 1 7.60658 1
gene 3 2 4 2.5679 0 2 2.5679 0
gene 1 3 4 -3.06728 0 3 -3.06728 1
gene 3 2 23 1.9002 0 40 1.9002 1
gene 3 23 4 -7.25827 0 41 -7.25827 1
gene 1 3 37 3.16569 0 74 3.16569 1
gene 1 37 4 5.64895 0 75 5.64895 1
gene 1 3 23 -1.98878 0 169 -1.98878 1
genomeend 1

/* Organism #2 Fitness: 8.98984 Error: 1.00169 */
genomestart 2
trait 1 0.1 0.0576945 0.110738 0 0 0 0 0.428254 
trait 2 0.2 0 0.0210098 0.0202803 0.0336948 0.132647 0 0.0346538 
trait 3 0.300856 0.217172 0.849261 0 0.0764277 0.101405 0.0313885 0.00501003 
node 1 3 1 3
node 2 3 1 1
node 3 3 1 1
node 4 2 0 2
node 23 1 0 0
node 37 1 0 0
gene 2 1 4 8 0 1 8 1
gene 3 2 4 -2.32435 0 2 -2.32435 0
gene 1 3 4 -7.49515 0 3 -7.49515 1
gene 3 2 23 0.0492762 0 40 0.0492762 1
gene 3 23 4 -6.74889 0 41 -6.74889 1
gene 1 3 37 0.864954 0 74 0.864954 1
gene 1 37 4 2.59096 0 75 2.59096 1
gene 1 3 23 -1.52487 0 169 -1.52487 1
genomeend 2

/* Organism #3 Fitness: 8.76105 Error: 1.04009 */
genomestart 3
trait 1 0.1 0.0576945 0.110738 0 0 0 0 0.428254 
trait 2 0.2 0 0.0210098 0.0202803 0.0336948 0.132647 0 0.0346538 
trait 3 0.300856 0 0.79832 0 1 0.101405 0 0.539845 
node 1 3 1 3
node 2 3 1 1
node 3 3 1 1
node 4 2 0 2
node 23 1 0 0
node 37 1 0 0
gene 2 1 4 4.77865 0 1 4.77865 1
gene 3 2 4 0.520227 0 2 0.520227 0
gene 1 3 4 -6.80006 0 3 -6.80006 1
gene 3 2 23 3.05026 0 40 3.05026 1
gene 3 23 4 -4.44429 0 41 -4.44429 1
gene 1 3 37 3.18829 0 74 3.18829 1
gene 1 37 4 1.31195 0 75 1.31195 1
gene 1 3 23 -0.620732 0 169 -0.620732 1
gene 3 1 23 0.856416 0 199 0.856416 1
genomeend 3

/* Organism #4 Fitness: 8.99998 Error: 1 */
genomestart 4
trait 1 0.1 0.0576945 0.110738 0 0 0 0 0.428254 
trait 2 0.2 0 0.0210098 0.0202803 0.0336948 0.132647 0 0.0346538 
trait 3 0.300856 0.248196 0.958776 0 0.0764277 0.101405 0.0283942 0.00501003 
node 1 3 1 3
node 2 3 1 1
node 3 3 1 1
node 4 2 0 2
node 23 1 0 0
node 37 1 0 0
gene 2 1 4 6.41554 0 1 6.41554 1
gene 3 2 4 -1.2475 0 2 -1.2475 0
gene 1 3 4 -7.13645 0 3 -7.13645 1
gene 3 2 23 1.74618 0 40 1.74618 1
gene 3 23 4 -3.61746 0 41 -3.61746 1
gene 1 3 37 -2.26846 0 74 -2.26846 1
gene 1 37 4 5.19296 0 75 5.19296 1
gene 1 3 23 1.37642 0 169 1.37642 1
gene 3 1 23 0.972342 0 199 0.972342 1
genomeend 4

/* Organism #5 Fitness: 15.9964 Error: 0.000450302 */
genomestart 5
trait 1 0.1 0.0576945 0.110738 0 0 0 0 0.428254 
trait 2 0.2 0 0.0210098 0.0202803 0.0336948 0.132647 0 0.0346538 
trait 3 0.300856 0.217172 0.849261 0 0.0764277 0.101405 0.0313885 0.00501003 
node 1 3 1 3
node 2 3 1 1
node 3 3 1 1
node 4 2 0 2
node 23 1 0 0
node 37 1 0 0
gene 2 1 4 6.27531 0 1 6.27531 1
gene 3 2 4 0.520227 0 2 0.520227 0
gene 1 3 4 -5.35037 0 3 -5.35037 1
gene 3 2 23 2.29546 0 40 2.29546 1
gene 3 23 4 -6.05394 0 41 -6.05394 1
gene 1 3 37 0.947929 0 74 0.947929 1
gene 1 37 4 3.40248 0 75 3.40248 1
gene 1 3 23 -0.909638 0 169 0 1
gene 2 1 23 0.728519 0 220 0.728519 1
genomeend 5

/* Organism #6 Fitness: 9.05152 Error: 0.991425 */
genomestart 6
trait 1 0.1 0.0576945 0.110738 0 0 0 0 0.428254 
trait 2 0.2 0 0.0210098 0.0202803 0.0336948 0.132647 0 0.0346538 
trait 3 0.300856 0.186147 0.739747 0 0.0764277 0.101405 0.0343828 0.00501003 
node 1 3 1 3
node 2 3 1 1
node 3 3 1 1
node 4 2 0 2
node 23 1 0 0
node 37 1 0 0
gene 2 1 4 8 0 1 8 1
gene 3 2 4 0.178773 0 2 0.178773 0
gene 1 3 4 -4.27261 0 3 -4.27261 1
gene 3 2 23 3.82448 0 40 3.82448 1
gene 3 23 4 -7.15539 0 41 -7.15539 1
gene 1 3 37 0.443467 0 74 0.443467 1
gene 1 37 4 4.88719 0 75 4.88719 1
gene 1 3 23 -0.530555 0 169 -0.530555 1
genomeend 6

/* Organism #7 Fitness: 9.16849 Error: 0.972049 */
genomestart 7
trait 1 0.1 0.0576945 0.110738 0 0 0 0 0.428254 
trait 2 0.2 0 0.0210098 0.0202803 0.0336948 0.132647 0 0.0346538 
trait 3 0.300856 0.186147 0.739747 0 0.0764277 0.101405 0.0343828 0.00501003 
node 1 3 1 3
node 2 3 1 1
node 3 3 1 1
node 4 2 0 2
node 23 1 0 0
node 37 1 0 0
gene 2 1 4 6.05134 0 1 6.05134 1
gene 3 2 4 0.248864 0 2 0.248864 0
gene 1 3 4 -6.74933 0 3 -6.74933 1
gene 3 2 23 2.64774 0 40 2.64774 1
gene 3 23 4 -6.30485 0 41 -6.30485 1
gene 1 3 37 -1.9085 0 74 -1.9085 1
gene 1 37 4 6.88819 0 75 6.88819 1
gene 1 3 23 -1.13675 0 169 -1.13675 1
genomeend 7

/* Organism #8 Fitness: 3.99954 Error: 2.00012 */
genomestart 8
trait 1 0.1 0.0576945 0.110738 0 0 0 0 0.428254 
trait 2 0.2 0 0.0210098 0.0202803 0.0336948 0.132647 0 0.0346538 
trait 3 0.300856 0.186147 0.739747 0 0.0764277 0.101405 0.0343828 0.00501003 
node 1 3 1 3
node 2 3 1 1
node 3 3 1 1
node 4 2 0 2
node 23 1 0 0
node 37 1 0 0
gene 2 1 4 6.19802 0 1 6.19802 1
gene 3 2 4 1.91938 0 2 1.91938 0
gene 1 3 4 -4.1207 0 3 -4.1207 1
gene 3 2 23 -0.894453 0 40 -0.894453 1
gene 3 23 4 -6.03644 0 41 -6.03644 1
gene 1 3 37 0.597674 0 74 0.597674 1
gene 1 37 4 3.40248 0 75 3.40248 1
gene 1 3 23 0.06115 0 169 0.06115 1
genomeend 8

/* Organism #9 Fitness: 15.319 Error: 0.0860536 */
genomestart 9
trait 1 0.1 0.0576945 0.110738 0 0 0 0 0.428254 
trait 2 0.2 0 0.0210098 0.0202803 0.0336948 0.132647 0 0.0346538 
trait 3 0.300856 0.248196 0.958776 0 0.0764277 0.101405 0.0283942 0.00501003 
node 1 3 1 3
node 2 1 1 1
node 3 3 1 1
node 4 2 0 2
node 23 1 0 0
node 37 1 0 0
gene 2 1 4 7.1514 0 1 7.1514 1
gene 3 2 4 2.913 0 2 2.913 0
gene 1 3 4 -3.61531 0 3 -3.61531 1
gene 3 2 23 3.5523 0 40 3.5523 1
gene 3 23 4 -6.88459 0 41 -6.88459 1
gene 1 3 37 0.91186 0 74 0.91186 1
gene 1 37 4 2.89771 0 75 2.89771 1
gene 1 3 23 -0.909638 0 169 -0.909638 1
gene 3 1 23 -0.70594 0 199 -0.70594 1
genomeend 9

/* Organism #10 Fitness: 4 Error: 2 */
genomestart 10
trait 1 0.1 0.0576945 0.110738 0 0 0 0 0.428254 
trait 2 0.2 0 0.0210098 0.0202803 0.0336948 0.132647 0 0.0346538 
trait 3 0.300856 0.217172 0.849261 0 0.0764277 0.101405 0.0313885 0.00501003 
node 1 3 1 3
node 2 3 1 1
node 3 3 1 1
node 4 2 0 2
node 23 1 0 0
node 37 1 0 0
gene 2 1 4 5.91799 0 1 5.91799 1
gene 3 2 4 0.619761 0 2 0.619761 1
gene 1 3 4 -3.97715 0 3 -3.97715 1
gene 3 2 23 0.134867 0 40 0.134867 1
gene 3 23 4 -7.10755 0 41 -7.10755 1
gene 1 3 37 1.9388 0 74 1.9388 1
gene 1 37 4 6.06858 0 75 6.06858 1
gene 1 3 23 0.736847 0 169 0.736847 1
gene 3 1 23 -2.06005 0 199 -2.06005 1
genomeend 10

/* Species #4 : (Size 17) (AF 11.8013) (Age 19)  */


/* Organism #11 Fitness: 16 Error: 1.43889e-08 */
genomestart 11
trait 1 0.0488281 0.0360591 0.182754 0 0.349742 0 0 0.0777764 
trait 2 0.2 0 0.0298831 0.0202803 0.0336948 0 0 0.0346538 
trait 3 0.277351 0 0.825358 0.188892 0 0.00148542 0.0449784 0.00501003 
node 1 3 1 3
node 2 3 1 1
node 3 3 1 1
node 4 2 0 2
node 23 1 0 0
gene 2 1 4 8 0 1 8 1
gene 3 2 4 -7.80114 0 2 -7.80114 1
gene 1 3 4 -4.1635 0 3 -4.1635 1
gene 3 2 23 3.54201 0 40 3.54201 1
gene 3 23 4 5.9341 0 41 5.9341 1
gene 2 3 23 -0.926935 0 44 -0.926935 1
gene 3 1 23 -3.42047 0 106 -3.42047 1
genomeend 11

/* Organism #12 Fitness: 3.99988 Error: 2.00003 */
genomestart 12
trait 1 0.0488281 0.0360591 0.182754 0 0.349742 0 0 0.0777764 
trait 2 0.2 0 0.0298831 0.0202803 0.0336948 0 0 0.0346538 
trait 3 0.277351 0 0.00121084 0 0.00250732 0.00148542 0.0449784 0.00501003 
node 1 3 1 3
node 2 3 1 1
node 3 3 1 1
node 4 2 0 2
node 23 1 0 0
gene 2 1 4 1.77841 0 1 1.77841 1
gene 3 2 4 -4.96721 0 2 -4.96721 1
gene 1 3 4 -5.09777 0 3 -5.09777 1
gene 3 2 23 2.30014 0 40 2.30014 1
gene 3 23 4 0.329118 0 41 0.329118 1
gene 2 3 23 0.589709 0 44 0.589709 1
gene 3 1 23 1.58648 0 106 1.58648 1
genomeend 12

/* Organism #13 Fitness: 8.9903 Error: 1.00162 */
genomestart 13
trait 1 0.0488281 0.0360591 0.182754 0 0.349742 0 0 0.0777764 
trait 2 0.2 0 0.0298831 0.0202803 0.0336948 0 0 0.0346538 
trait 3 0.277351 0 0.00121084 0 0.00250732 0.00148542 0.0449784 0.00501003 
node 1 3 1 3
node 2 3 1 1
node 3 3 1 1
node 4 1 0 2
node 23 3 0 0
gene 2 1 4 2.39555 0 1 2.39555 1
gene 3 2 4 -7.50447 0 2 -7.50447 1
gene 1 3 4 2.19782 0 3 2.19782 1
gene 3 2 23 2.10049 0 40 2.10049 1
gene 3 23 4 -1.09166 0 41 -1.09166 1
gene 2 3 23 1.98557 0 44 1.98557 1
gene 3 1 23 1.40523 0 106 1.40523 1
genomeend 13

/* Organism #14 Fitness: 15.8998 Error: 0.0125421 */
genomestart 14
trait 1 0.0488281 0.0360591 0.182754 0 0.349742 0 0 0.0777764 
trait 2 0.2 0 0.0298831 0.0202803 0.0336948 0 0 0.0346538 
trait 3 0.277351 0 0.413285 0.0944458 0.00125366 0.00148542 0.0449784 0.00501003 
node 1 3 1 3
node 2 3 1 1
node 3 3 1 1
node 4 1 0 2
node 23 3 0 0
gene 2 1 4 7.95956 0 1 7.95956 1
gene 3 2 4 -4.20167 0 2 -4.20167 1
gene 1 3 4 -4.64454 0 3 -4.64454 1
gene 3 2 23 -2.24182 0 40 -2.24182 1
gene 3 23 4 0.700246 0 41 0.700246 1
gene 2 3 23 -3.26156 0 44 -3.26156 1
gene 3 1 23 -1.15744 0 106 -1.15744 1
genomeend 14

/* Organism #15 Fitness: 14.67 Error: 0.16986 */
genomestart 15
trait 1 0.0488281 0.0360591 0.182754 0 0.349742 0 0 0.0777764 
trait 2 0.2 0 0.0298831 0.0202803 0.0336948 0 0 0.0346538 
trait 3 0.277351 0 0.00121084 0 0.00250732 0.00148542 0.0449784 0.00501003 
node 1 3 1 3
node 2 3 1 1
node 3 3 1 1
node 4 1 0 2
node 23 3 0 0
gene 2 1 4 6.73298 0 1 6.73298 1
gene 3 2 4 -4.96219 0 2 -4.96219 1
gene 1 3 4 -3.4527 0 3 -3.4527 1
gene 3 2 23 2.89408 0 40 2.89408 1
gene 3 23 4 1.3597 0 41 1.3597 1
gene 2 3 23 2.42743 0 44 2.42743 1
gene 3 1 23 0.124207 0 106 0.124207 1
genomeend 15

/* Organism #16 Fitness: 16 Error: 1.43889e-08 */
genomestart 16
trait 1 0.0488281 0.0360591 0.182754 0.788551 0.349742 0 0 0 
trait 2 0.2 0 0.0298831 0.0202803 0.0336948 0 0 0.0346538 
trait 3 0.277351 0 0.825358 0.188892 0 0.00148542 0.0449784 0.00501003 
node 1 3 1 3
node 2 3 1 1
node 3 3 1 1
node 4 2 0 2
node 23 1 0 0
gene 2 1 4 8 0 1 8 1
gene 3 2 4 -7.80114 0 2 -7.80114 1
gene 1 3 4 -4.1635 0 3 -4.1635 1
gene 3 2 23 3.54201 0 40 3.54201 1
gene 3 23 4 5.9341 0 41 5.9341 1
gene 2 3 23 -0.926935 0 44 -0.926935 1
gene 3 1 23 -3.42047 0 106 -3.42047 1
genomeend 16

/* Organism #17 Fitness: 1.00009 Error: 2.99996 */
genomestart 17
trait 1 0.0488281 0.0360591 0.182754 0 0.349742 0 0 0.0777764 
trait 2 0.2 0 0.0298831 0.0202803 0.0336948 0 0 0.0346538 
trait 3 0.277351 0 0.413285 0.0944458 0.00125366 0.00148542 0.0449784 0.00501003 
node 1 3 1 3
node 2 3 1 1
node 3 3 1 1
node 4 1 0 2
node 23 2 0 0
gene 2 1 4 -2.04196 0 1 -2.04196 1
gene 3 2 4 -4.99059 0 2 -4.99059 1
gene 1 3 4 -5.4999 0 3 -5.4999 1
gene 3 2 23 2.41901 0 40 2.41901 1
gene 3 23 4 3.50472 0 41 3.50472 1
gene 2 3 23 -0.192329 0 44 -0.192329 1
gene 3 1 23 -3.99677 0 106 -3.99677 1
genomeend 17

/* Organism #18 Fitness: 8.30166 Error: 1.11874 */
genomestart 18
trait 1 0.0488281 0.0360591 0.182754 0 0.349742 0 0 0.0777764 
trait 2 0.2 0 0.0298831 0.0202803 0.0336948 0 0 0.0346538 
trait 3 0.277351 0 0.825358 0.188892 0 0.00148542 0.0449784 0.00501003 
node 1 3 1 3
node 2 3 1 1
node 3 3 1 1
node 4 2 0 2
node 23 1 0 0
gene 2 1 4 7.03448 0 1 7.03448 1
gene 3 2 4 -8 0 2 -8 1
gene 1 3 4 -6.64351 0 3 -6.64351 1
gene 3 2 23 2.87858 0 40 2.87858 1
gene 3 23 4 6.74714 0 41 6.74714 1
gene 2 3 23 -3.30355 0 44 -3.30355 1
gene 2 1 23 -5.56739 0 106 -5.56739 1
genomeend 18

/* Organism #19 Fitness: 9 Error: 1 */
genomestart 19
trait 1 0.0488281 0.0360591 0.182754 0 0.349742 0 0 0.0777764 
trait 2 0.2 0 0.0298831 0.0202803 0.0336948 0 0 0.0346538 
trait 3 0.277351 0 0.413285 0.0944458 0.00125366 0.00148542 0.0449784 0.00501003 
node 1 3 1 3
node 2 3 1 1
node 3 3 1 1
node 4 2 0 2
node 23 1 0 0
gene 2 1 4 8 0 1 8 1
gene 3 2 4 -5.20281 0 2 -5.20281 1
gene 1 3 4 -5.2225 0 3 -5.2225 1
gene 3 2 23 0.898988 0 40 0.898988 1
gene 3 23 4 5.5621 0 41 5.5621 1
gene 2 3 23 2.698 0 44 2.698 1
gene 3 1 23 1.30156 0 106 1.30156 1
genomeend 19

/* Organism #20 Fitness: 15.9999 Error: 7.08992e-06 */
genomestart 20
trait 1 0.0488281 0.0360591 0.182754 0 0.349742 0 0 0.0777764 
trait 2 0.2 0 0.0298831 0.0202803 0.0336948 0 0 0.0346538 
trait 3 0.277351 0 0.413285 0.0944458 0.00125366 0.00148542 0.0449784 0.00501003 
node 1 3 1 3
node 2 3 1 1
node 3 3 1 1
node 4 2 0 2
node 23 3 0 0
gene 2 1 4 8 0 1 8 1
gene 3 2 4 -5.48189 0 2 -5.48189 1
gene 1 3 4 -5.55056 0 3 -5.55056 1
gene 3 2 23 -0.246324 0 40 -0.246324 1
gene 3 23 4 0.601917 0 41 0.601917 1
gene 2 3 23 4.05249 0 44 4.05249 1
gene 3 1 23 0.464798 0 106 0.464798 1
genomeend 20

/* Organism #21 Fitness: 15.1922 Error: 0.102284 */
genomestart 21
trait 1 0.0488281 0.0360591 0.182754 0 0.349742 0 0 0.0777764 
trait 2 0.2 0 0.0298831 0.0202803 0.0336948 0 0 0.0346538 
trait 3 0.277351 0 0.413285 0.0944458 0.00125366 0.00148542 0.0449784 0.00501003 
node 1 3 1 3
node 2 3 1 1
node 3 3 1 1
node 4 2 0 2
node 23 1 0 0
gene 2 1 4 8 0 1 8 1
gene 3 2 4 -6.74315 0 2 -6.74315 1
gene 1 3 4 -5.24055 0 3 -5.24055 1
gene 3 2 23 3.29719 0 40 3.29719 1
gene 3 23 4 3.5426 0 41 3.5426 1
gene 2 3 23 0.747113 0 44 0.747113 1
gene 3 1 23 -1.15241 0 106 -1.15241 1
genomeend 21

/* Organism #22 Fitness: 9.46988 Error: 0.922684 */
genomestart 22
trait 1 0.0488281 0.0360591 0.182754 0 0.349742 0 0 0.0777764 
trait 2 0.2 0 0.0298831 0.0202803 0.0336948 0 0 0.0346538 
trait 3 0.277351 0 0.00121084 0 0.00250732 0.00148542 0.0449784 0.00501003 
node 1 3 1 3
node 2 3 1 1
node 3 3 1 1
node 4 2 0 2
node 23 1 0 0
gene 2 1 4 7.46106 0 1 7.46106 1
gene 3 2 4 -3.61912 0 2 -3.61912 1
gene 1 3 4 -8 0 3 -8 1
gene 3 2 23 2.78292 0 40 2.78292 1
gene 3 23 4 1.07083 0 41 1.07083 1
gene 2 3 23 0.223217 0 44 0.223217 1
gene 3 1 23 -0.908527 0 106 -0.908527 1
genomeend 22

/* Organism #23 Fitness: 9 Error: 1 */
genomestart 23
trait 1 0.0488281 0.0360591 0.182754 0 0.349742 0 0 0.0777764 
trait 2 0.2 0 0.0298831 0.0202803 0.0336948 0 0 0.0346538 
trait 3 0.277351 0 0.413285 0.0944458 0.00125366 0.00148542 0.0449784 0.00501003 
node 1 3 1 3
node 2 3 1 1
node 3 3 1 1
node 4 1 0 2
node 23 3 0 0
gene 2 1 4 8 0 1 8 1
gene 3 2 4 -6.26265 0 2 -6.26265 1
gene 1 3 4 -3.445 0 3 -3.445 1
gene 3 2 23 4.05523 0 40 4.05523 1
gene 3 23 4 5.04152 0 41 5.04152 1
gene 2 3 23 3.53663 0 44 3.53663 1
gene 3 1 23 -1.85275 0 106 -1.85275 1
genomeend 23

/* Organism #24 Fitness: 15.7615 Error: 0.0299243 */
genomestart 24
trait 1 0.0488281 0.0360591 0.182754 0 0.349742 0 0 0.0777764 
trait 2 0.2 0 0.0298831 0.0202803 0.0336948 0 0 0.0346538 
trait 3 0.277351 0 0.413285 0.0944458 0.00125366 0.00148542 0.0449784 0.00501003 
node 1 3 1 3
node 2 3 1 1
node 3 3 1 1
node 4 2 0 2
node 23 1 0 0
gene 2 1 4 8 0 1 8 1
gene 3 2 4 -7.26162 0 2 -7.26162 1
gene 1 3 4 -5.73344 0 3 -5.73344 1
gene 3 2 23 1.83279 0 40 1.83279 1
gene 3 23 4 -0.728164 0 41 -0.728164 1
gene 2 3 23 1.26534 0 44 1.26534 1
gene 3 1 23 -2.45933 0 106 -2.45933 1
genomeend 24

/* Organism #25 Fitness: 15.9896 Error: 0.00129981 */
genomestart 25
trait 1 0.0488281 0.0360591 0.182754 0 0.349742 0 0 0.0777764 
trait 2 0.2 0 0.0298831 0.0202803 0.0336948 0 0 0.0346538 
trait 3 0.277351 0 0.413285 0.0944458 0.00125366 0.00148542 0.0449784 0.00501003 
node 1 3 1 3
node 2 3 1 1
node 3 3 1 1
node 4 2 0 2
node 23 1 0 0
gene 2 1 4 8 0 1 8 1
gene 3 2 4 -7.80114 0 2 -7.80114 1
gene 1 3 4 -6.3176 0 3 -6.3176 1
gene 3 2 23 3.54201 0 40 3.54201 1
gene 3 23 4 1.1511 0 41 1.1511 1
gene 2 3 23 -0.926935 0 44 -0.926935 1
gene 3 1 23 1.11565 0 106 1.11565 1
genomeend 25

/* Organism #26 Fitness: 14.4976 Error: 0.192428 */
genomestart 26
trait 1 0.0488281 0.0360591 0.182754 0 0.349742 0 0 0.0777764 
trait 2 0.2 0 0.0298831 0.0202803 0.0336948 0 0 0.0346538 
trait 3 0.277351 0 0.413285 0.0944458 0.00125366 0.00148542 0.0449784 0.00501003 
node 1 3 1 3
node 2 3 1 1
node 3 3 1 1
node 4 2 0 2
node 23 3 0 0
gene 2 1 4 7.97978 0 1 7.97978 1
gene 3 2 4 -6.78931 0 2 -6.78931 1
gene 1 3 4 -4.98639 0 3 -4.98639 1
gene 3 2 23 2.26415 0 40 2.26415 1
gene 3 23 4 3.50472 0 41 3.50472 1
gene 2 3 23 1.4492 0 44 1.4492 1
gene 3 1 23 -1.5498 0 106 -1.5498 1
genomeend 26

/* Organism #27 Fitness: 10.8503 Error: 0.706028 */
genomestart 27
trait 1 0 0.0576945 0.155012 0 0.943689 0 0.165698 0.0136104 
trait 2 0.2 0 0.0532763 0 0.827144 0 0 0.798345 
trait 3 0.300856 0 0.00161445 0 0.00445539 0.00396113 0.024437 0.00250501 
node 1 2 1 3
node 2 3 1 1
node 3 3 1 1
node 4 2 0 2
node 23 3 0 0
gene 2 1 4 3.22524 0 1 3.22524 1
gene 3 2 4 -8 0 2 -8 1
gene 1 3 4 -0.370053 0 3 -0.370053 1
gene 3 2 23 2.47347 0 40 2.47347 1
gene 1 23 4 5.23877 0 41 5.23877 1
gene 2 3 23 0.135244 0 44 0.135244 1
gene 3 1 23 4.42924 0 83 4.42924 1
genomeend 27

/* Species #5 : (Size 14) (AF 13.2046) (Age 17)  */


/* Organism #28 Fitness: 15.973 Error: 0.00337349 */
genomestart 28
trait 1 0.05625 0.0324532 0 0 0 0 0 0.00765583 
trait 2 0.2 0 0.0210098 0.0202803 0.0336948 0 0 0.0346538 
trait 3 0.150428 0 0 0 0.000764841 0 0.0243663 0.00501003 
node 1 3 1 3
node 2 3 1 1
node 3 3 1 1
node 4 2 0 2
node 23 1 0 0
node 48 3 0 0
gene 2 1 4 2.64148 0 1 2.64148 1
gene 3 2 4 -2.95361 0 2 -2.95361 1
gene 1 3 4 -2.79334 0 3 -2.79334 1
gene 3 2 23 -0.131147 0 40 -0.131147 1
gene 3 23 4 -1.17512 0 41 -1.17512 0
gene 2 3 23 -2.47166 0 44 -2.47166 1
gene 3 23 48 1.06614 0 100 1.06614 1
gene 3 48 4 2.19594 0 101 2.19594 1
gene 3 3 48 0.0938429 0 203 0.0938429 1
genomeend 28

/* Organism #29 Fitness: 12.9072 Error: 0.407339 */
genomestart 29
trait 1 0.0546875 0.0315517 0 0 0 0 0 0.00744317 
trait 2 0.2 0 0.0210098 0.0202803 0.0336948 0 0 0.0346538 
trait 3 0.150428 0 0 0 0.000764841 0 0.0243663 0.00501003 
node 1 3 1 3
node 2 3 1 1
node 3 3 1 1
node 4 2 0 2
node 23 1 0 0
node 48 3 0 0
node 86 1 0 0
gene 2 1 4 2.66334 0 1 2.66334 1
gene 3 2 4 -3.05976 0 2 -3.05976 1
gene 1 3 4 -2.45513 0 3 -2.45513 0
gene 3 2 23 -0.327991 0 40 -0.327991 1
gene 3 23 4 -0.63412 0 41 -0.63412 0
gene 2 3 23 -1.01513 0 44 -1.01513 1
gene 3 23 48 0.595451 0 100 0.595451 1
gene 3 48 4 2.75041 0 101 2.75041 1
gene 3 3 48 0.0938429 0 203 0.0938429 1
gene 1 3 86 1 0 221 0 1
gene 1 86 4 -2.45513 0 222 0 1
genomeend 29

/* Organism #30 Fitness: 14.5236 Error: 0.189013 */
genomestart 30
trait 1 0.0554687 0.0320024 0 0 0 0 0 0.0075495 
trait 2 0.2 0 0.0210098 0.0202803 0.0336948 0 0 0.0346538 
trait 3 0.150428 0 0 0 0.000764841 0 0.0243663 0.00501003 
node 1 3 1 3
node 2 3 1 1
node 3 3 1 1
node 4 2 0 2
node 23 1 0 0
node 48 3 0 0
gene 2 1 4 1.12105 0 1 1.12105 1
gene 3 2 4 -2.26518 0 2 -2.26518 1
gene 1 3 4 -2.62491 0 3 -2.62491 1
gene 3 2 23 -1.57578 0 40 -1.57578 1
gene 3 23 4 -1.60615 0 41 -1.60615 0
gene 2 3 23 -2.00929 0 44 -2.00929 1
gene 3 23 48 0.202976 0 100 0.202976 1
gene 3 48 4 2.92365 0 101 2.92365 1
gene 3 3 48 1.82585 0 203 1.82585 1
genomeend 30

/* Organism #31 Fitness: 4.096 Error: 1.97614 */
genomestart 31
trait 1 0.0554687 0.0320024 0 0 0 0 0 0.0075495 
trait 2 0.2 0 0.0210098 0.0202803 0.0336948 0 0 0.0346538 
trait 3 0.150428 0 0 0 0.000764841 0 0.0243663 0.00501003 
node 1 3 1 3
node 2 3 1 1
node 3 3 1 1
node 4 2 0 2
node 23 1 0 0
node 48 3 0 0
gene 2 1 4 2.65241 0 1 2.65241 1
gene 3 2 4 -4.58275 0 2 -4.58275 1
gene 1 3 4 -2.39095 0 3 -2.39095 1
gene 3 2 23 -1.54052 0 40 -1.54052 1
gene 3 23 4 -1.42048 0 41 -1.42048 1
gene 2 3 23 0.189596 0 44 0.189596 1
gene 3 23 48 0.830796 0 100 0.830796 1
gene 3 48 4 0.736613 0 101 0.736613 1
gene 3 3 48 -2.08593 0 203 -2.08593 1
genomeend 31

/* Organism #32 Fitness: 15.5604 Error: 0.0553313 */
genomestart 32
trait 1 0.0546875 0.0315517 0 0 0 0 0 0.00744317 
trait 2 0.2 0 0.0210098 0.0202803 0.0336948 0 0 0.0346538 
trait 3 0.150428 0 0 0 0.000764841 0 0.0243663 0.00501003 
node 1 3 1 3
node 2 3 1 1
node 3 3 1 1
node 4 2 0 2
node 23 1 0 0
node 48 3 0 0
gene 2 1 4 3.11735 0 1 3.11735 1
gene 3 2 4 -4.18332 0 2 -4.18332 1
gene 1 3 4 -3.82012 0 3 -3.82012 1
gene 3 2 23 -0.390222 0 40 -0.390222 1
gene 3 23 4 1.66922 0 41 1.66922 0
gene 2 3 23 -1.67978 0 44 -1.67978 1
gene 3 23 48 0.278629 0 100 0.278629 1
gene 3 48 4 4.30252 0 101 4.30252 1
gene 3 3 48 2.15097 0 203 2.15097 1
genomeend 32

/* Organism #33 Fitness: 9.59364 Error: 0.90264 */
genomestart 33
trait 1 0.0546875 0.0315517 0 0 0 0 0 0.00744317 
trait 2 0.2 0 0.0210098 0.0202803 0.0336948 0 0 0.0346538 
trait 3 0.150428 0 0 0 0.000764841 0 0.0243663 0.00501003 
node 1 3 1 3
node 2 3 1 1
node 3 3 1 1
node 4 2 0 2
node 23 1 0 0
node 48 3 0 0
gene 2 1 4 3.70944 0 1 3.70944 1
gene 3 2 4 -3.21338 0 2 -3.21338 1
gene 1 3 4 -4.14466 0 3 -4.14466 1
gene 3 2 23 2.33019 0 40 2.33019 1
gene 3 23 4 1.52274 0 41 1.52274 0
gene 2 3 23 -2.24691 0 44 -2.24691 1
gene 3 23 48 2.92687 0 100 2.92687 1
gene 3 48 4 0.492917 0 101 0.492917 1
gene 3 3 48 -2.35275 0 203 -2.35275 1
genomeend 33

/* Organism #34 Fitness: 15.9601 Error: 0.00498587 */
genomestart 34
trait 1 0.0546875 0.0315517 0 0 0 0 0 0.00744317 
trait 2 0.2 0 0.0210098 0.0202803 0.0336948 0 0 0.0346538 
trait 3 0.150428 0 0 0 0.000764841 0 0.0243663 0.00501003 
node 1 3 1 3
node 2 3 1 1
node 3 3 1 1
node 4 2 0 2
node 23 1 0 0
node 48 3 0 0
gene 2 1 4 2.66334 0 1 2.66334 1
gene 3 2 4 -3.05976 0 2 -3.05976 1
gene 1 3 4 -2.45513 0 3 -2.45513 1
gene 3 2 23 -0.327991 0 40 -0.327991 1
gene 3 23 4 -0.63412 0 41 -0.63412 0
gene 2 3 23 -1.01513 0 44 -1.01513 1
gene 3 23 48 0.595451 0 100 0.595451 1
gene 3 48 4 2.75041 0 101 2.75041 1
gene 3 3 48 0.0938429 0 203 0.0938429 1
gene 2 1 23 0.728519 0 220 0 1
genomeend 34

/* Organism #35 Fitness: 15.9518 Error: 0.00602638 */
genomestart 35
trait 1 0.0546875 0.0315517 0 0 0 0 0 0.00744317 
trait 2 0.2 0 0.0210098 0.0202803 0.0336948 0 0 0.0346538 
trait 3 0.150428 0 0 0 0.000764841 0 0.0243663 0.00501003 
node 1 3 1 3
node 2 3 1 1
node 3 3 1 1
node 4 2 0 2
node 23 1 0 0
node 48 3 0 0
gene 2 1 4 2.66334 0 1 2.66334 1
gene 3 2 4 -3.05976 0 2 -3.05976 1
gene 1 3 4 -2.45513 0 3 -2.45513 1
gene 3 2 23 -0.327991 0 40 -0.327991 1
gene 3 23 4 -0.63412 0 41 -0.63412 1
gene 2 3 23 -1.01513 0 44 -1.01513 1
gene 3 23 48 0.595451 0 100 0.595451 1
gene 3 48 4 2.75041 0 101 2.75041 1
gene 3 3 48 0.0938429 0 203 0.0938429 1
genomeend 35

/* Organism #36 Fitness: 9.00008 Error: 0.999987 */
genomestart 36
trait 1 0.0546875 0.0315517 0 0 0 0 0 0.00744317 
trait 2 0.2 0 0.0210098 0.0202803 0.0336948 0 0 0.0346538 
trait 3 0.150428 0 0 0 0.000764841 0 0.0243663 0.00501003 
node 1 3 1 3
node 2 3 1 1
node 3 3 1 1
node 4 2 0 2
node 23 1 0 0
node 48 3 0 0
gene 2 1 4 5.0032 0 1 5.0032 1
gene 3 2 4 -3.05976 0 2 -3.05976 1
gene 1 3 4 -2.008 0 3 -2.008 1
gene 3 2 23 1.94048 0 40 1.94048 1
gene 3 23 4 -0.989081 0 41 -0.989081 1
gene 2 3 23 -1.97329 0 44 -1.97329 1
gene 3 23 48 0.0274603 0 100 0.0274603 1
gene 3 48 4 2.75041 0 101 2.75041 1
gene 3 3 48 0.881524 0 203 0.881524 1
genomeend 36

/* Organism #37 Fitness: 15.9612 Error: 0.00485711 */
genomestart 37
trait 1 0.0554687 0.0320024 0 0 0 0 0 0.0075495 
trait 2 0.2 0 0.0210098 0.0202803 0.0336948 0 0 0.0346538 
trait 3 0.150428 0 0 0 0.000764841 0 0.0243663 0.00501003 
node 1 3 1 3
node 2 3 1 1
node 3 3 1 1
node 4 2 0 2
node 23 1 0 0
node 48 3 0 0
gene 2 1 4 2.64148 0 1 2.64148 1
gene 3 2 4 -3.05976 0 2 -3.05976 1
gene 1 3 4 -2.45513 0 3 -2.45513 1
gene 3 2 23 -0.327991 0 40 -0.327991 1
gene 3 23 4 -0.63412 0 41 -0.63412 0
gene 2 3 23 -1.01513 0 44 -1.01513 1
gene 3 23 48 1.06614 0 100 1.06614 1
gene 3 48 4 2.19594 0 101 2.19594 1
gene 3 3 48 0.0938429 0 203 0.0938429 1
genomeend 37

/* Organism #38 Fitness: 15.2296 Error: 0.097487 */
genomestart 38
trait 1 0.0554687 0.0320024 0 0 0 0 0 0.0075495 
trait 2 0.2 0 0.0210098 0.0202803 0.0336948 0 0 0.0346538 
trait 3 0.150428 0 0 0 0.000764841 0 0.0243663 0.00501003 
node 1 3 1 3
node 2 3 1 1
node 3 3 1 1
node 4 2 0 2
node 23 1 0 0
node 48 3 0 0
gene 2 1 4 2.64148 0 1 2.64148 1
gene 3 2 4 -2.95361 0 2 -2.95361 1
gene 1 3 4 -2.79334 0 3 -2.79334 1
gene 3 2 23 -0.131147 0 40 -0.131147 1
gene 3 23 4 -1.17512 0 41 -1.17512 0
gene 2 3 23 -1.01513 0 44 -1.01513 1
gene 3 23 48 0.595451 0 100 0.595451 1
gene 3 48 4 2.75041 0 101 2.75041 1
gene 3 3 48 0.0938429 0 203 0.0938429 1
gene 3 1 48 0.57623 0 223 0.57623 1
genomeend 38

/* Organism #39 Fitness: 15.1247 Error: 0.110951 */
genomestart 39
trait 1 0.05625 0.0324532 0 0 0 0 0 0.00765583 
trait 2 0.2 0 0.0210098 0.0202803 0.0336948 0 0 0.0346538 
trait 3 0.150428 0 0 0 0.000764841 0 0.0243663 0.00501003 
node 1 3 1 3
node 2 3 1 1
node 3 3 1 1
node 4 2 0 2
node 23 1 0 0
node 48 3 0 0
gene 2 1 4 4.31835 0 1 4.31835 1
gene 3 2 4 -4.31066 0 2 -4.31066 1
gene 1 3 4 -2.79334 0 3 -2.79334 1
gene 3 2 23 -0.15531 0 40 -0.15531 1
gene 3 23 4 0.859057 0 41 0.859057 0
gene 2 3 23 -2.12806 0 44 -2.12806 1
gene 3 23 48 -0.0326107 0 100 -0.0326107 1
gene 3 48 4 0.851873 0 101 0.851873 1
gene 3 3 48 0.719709 0 203 0.719709 1
genomeend 39

/* Organism #40 Fitness: 15.985 Error: 0.0018733 */
genomestart 40
trait 1 0.0554687 0.0320024 0 0 0 0 0 0.0075495 
trait 2 0.2 0 0.0210098 0.0202803 0.0336948 0 0 0.0346538 
trait 3 0.150428 0 0 0 0.000764841 0 0.0243663 0.00501003 
node 1 3 1 3
node 2 3 1 1
node 3 3 1 1
node 4 2 0 2
node 23 1 0 0
node 48 3 0 0
gene 2 1 4 2.64148 0 1 2.64148 1
gene 3 2 4 -2.95361 0 2 -2.95361 1
gene 1 3 4 -2.45513 0 3 -2.45513 1
gene 3 2 23 -0.131147 0 40 -0.131147 1
gene 3 23 4 -1.17512 0 41 -1.17512 0
gene 2 3 23 -2.47166 0 44 -2.47166 1
gene 3 23 48 1.06614 0 100 1.06614 1
gene 3 48 4 2.19594 0 101 2.19594 1
gene 3 3 48 0.0938429 0 203 0.0938429 1
genomeend 40

/* Organism #41 Fitness: 8.99852 Error: 1.00025 */
genomestart 41
trait 1 0.0554687 0.0320024 0 0 0 0 0 0.0075495 
trait 2 0.2 0 0.0210098 0.0202803 0.0336948 0 0 0.0346538 
trait 3 0.150428 0 0 0 0.000764841 0 0.0243663 0.00501003 
node 1 3 1 3
node 2 3 1 1
node 3 3 1 1
node 4 2 0 2
node 23 1 0 0
node 48 3 0 0
gene 2 1 4 2.64148 0 1 2.64148 1
gene 3 2 4 -5.1746 0 2 -5.1746 1
gene 1 3 4 -0.446141 0 3 -0.446141 1
gene 3 2 23 0.172399 0 40 0.172399 1
gene 3 23 4 0.498881 0 41 0.498881 0
gene 2 3 23 -2.70464 0 44 -2.70464 1
gene 3 23 48 1.61448 0 100 1.61448 1
gene 3 48 4 -0.954246 0 101 -0.954246 1
gene 3 3 48 -1.61623 0 203 -1.61623 1
genomeend 41

/* Species #6 : (Size 10) (AF 10.3442) (Age 15)  */


/* Organism #42 Fitness: 15.8584 Error: 0.0177334 */
genomestart 42
trait 1 0.075 0.0576945 0.155012 0 0 0 0 0.0136104 
trait 2 0.2 0 0.0532763 0 0.827144 0 0 0.798345 
trait 3 0.300856 0 0.00161445 0 0.00445539 0.00396113 0.024437 0.00250501 
node 1 2 1 3
node 2 3 1 1
node 3 3 1 1
node 4 2 0 2
node 23 1 0 0
gene 2 1 4 3.2965 0 1 3.2965 1
gene 3 2 4 -7.74733 0 2 -7.74733 1
gene 1 3 4 -1.96414 0 3 -1.96414 1
gene 3 2 23 -4.08994 0 40 -4.08994 1
gene 3 23 4 5.53504 0 41 5.53504 1
gene 2 3 23 0.0789857 0 44 0.0789857 1
gene 3 1 23 6.28808 0 83 6.28808 1
genomeend 42

/* Organism #43 Fitness: 2.03091 Error: 2.5749 */
genomestart 43
trait 1 0.075 0.0576945 0.155012 0 0 0 0 0.0136104 
trait 2 0.2 0 0.0532763 0 0.827144 0 0 0.798345 
trait 3 0.300856 0 0.00161445 0 0.00445539 0.00396113 0.024437 0.00250501 
node 1 2 1 3
node 2 3 1 1
node 3 3 1 1
node 4 2 0 2
node 23 1 0 0
gene 2 1 4 -0.0634776 0 1 -0.0634776 1
gene 3 2 4 -6.87277 0 2 -6.87277 1
gene 1 3 4 -1.1671 0 3 -1.1671 1
gene 3 2 23 -3.22809 0 40 -3.22809 1
gene 3 23 4 1.87395 0 41 1.87395 1
gene 2 3 23 -0.351178 0 44 -0.351178 1
gene 3 1 23 -1.82142 0 83 -1.82142 1
genomeend 43

/* Organism #44 Fitness: 9 Error: 1 */
genomestart 44
trait 1 0.075 0.0576945 0.155012 0 0 0 0 0.0136104 
trait 2 0.2 0 0.0532763 0 0.827144 0 0 0.798345 
trait 3 0.300856 0 0.00161445 0 0.00445539 0.00396113 0.024437 0.00250501 
node 1 2 1 3
node 2 3 1 1
node 3 3 1 1
node 4 2 0 2
node 23 1 0 0
gene 2 1 4 1.14146 0 1 1.14146 1
gene 3 2 4 -6.19746 0 2 -6.19746 1
gene 1 3 4 -0.132993 0 3 -0.132993 1
gene 3 2 23 -0.600666 0 40 -0.600666 1
gene 3 23 4 1.91686 0 41 1.91686 1
gene 2 3 23 -1.29032 0 44 -1.29032 1
gene 3 1 23 7.20801 0 83 7.20801 1
genomeend 44

/* Organism #45 Fitness: 16 Error: 7.36101e-07 */
genomestart 45
trait 1 0.075 0.0576945 0.155012 0 0 0 0 0.0136104 
trait 2 0.2 0 0.0532763 0 0.827144 0 0 0.798345 
trait 3 0.300856 0 0.00161445 0 0.00445539 0.00396113 0.024437 0.00250501 
node 1 2 1 3
node 2 3 1 1
node 3 3 1 1
node 4 2 0 2
node 23 1 0 0
gene 2 1 4 5.16885 0 1 5.16885 1
gene 3 2 4 -6.95703 0 2 -6.95703 1
gene 1 3 4 -1.07993 0 3 -1.07993 1
gene 3 2 23 -3.9951 0 40 -3.9951 1
gene 3 23 4 6.10735 0 41 6.10735 1
gene 2 3 23 -3.33525 0 44 -3.33525 1
gene 3 1 23 5.1261 0 83 5.1261 1
genomeend 45

/* Organism #46 Fitness: 9 Error: 1 */
genomestart 46
trait 1 0.075 0.0576945 0.155012 0 0 0 0 0.0136104 
trait 2 0.2 0 0.0532763 0 0.827144 0 0 0.798345 
trait 3 0.300856 0 0.00161445 0 0.00445539 0.00396113 0.024437 0.00250501 
node 1 2 1 3
node 2 3 1 1
node 3 3 1 1
node 4 2 0 2
node 23 1 0 0
gene 2 1 4 1.64801 0 1 1.64801 1
gene 3 2 4 -6.49875 0 2 -6.49875 1
gene 1 3 4 -0.52624 0 3 -0.52624 1
gene 3 2 23 -5.33347 0 40 -5.33347 1
gene 3 23 4 5.18268 0 41 5.18268 1
gene 2 3 23 -1.50155 0 44 -1.50155 1
gene 3 1 23 2.22626 0 83 2.22626 1
genomeend 46

/* Organism #47 Fitness: 9.0354 Error: 0.994106 */
genomestart 47
trait 1 0.075 0.0576945 0.155012 0 0 0 0 0.0136104 
trait 2 0.2 0.121772 0.0532763 0 0.827144 0 0 1 
trait 3 0.300856 0 0.00161445 0 0.00445539 0.00396113 0.024437 0.00250501 
node 1 2 1 3
node 2 3 1 1
node 3 3 1 1
node 4 3 0 2
node 23 1 0 0
gene 2 1 4 0.952219 0 1 0.952219 1
gene 3 2 4 -7.07414 0 2 -7.07414 1
gene 1 3 4 -1.21846 0 3 -1.21846 1
gene 3 2 23 -4.16919 0 40 -4.16919 1
gene 3 23 4 5.80785 0 41 5.80785 1
gene 2 3 23 -2.47148 0 44 -2.47148 1
gene 3 1 23 4.56393 0 83 4.56393 1
genomeend 47

/* Organism #48 Fitness: 9.99675 Error: 0.838237 */
genomestart 48
trait 1 0.075 0.0576945 0.155012 0 0 0 0 0.0136104 
trait 2 0.2 0 0.0532763 0 0.827144 0 0 0.798345 
trait 3 0.300856 0 0.00161445 0 0.00445539 0.00396113 0.024437 0.00250501 
node 1 2 1 3
node 2 3 1 1
node 3 3 1 1
node 4 2 0 2
node 23 1 0 0
gene 2 1 4 3.26087 0 1 3.26087 1
gene 3 2 4 -7.68803 0 2 -7.68803 1
gene 1 3 4 -0.408348 0 3 -0.408348 1
gene 3 2 23 -2.72153 0 40 -2.72153 1
gene 3 23 4 4.11397 0 41 4.11397 1
gene 2 3 23 -2.18796 0 44 -2.18796 1
gene 3 1 23 5.5951 0 83 5.5951 1
genomeend 48

/* Organism #49 Fitness: 9.08758 Error: 0.985439 */
genomestart 49
trait 1 0.075 0.0576945 0.155012 0 0 0 0 0.0136104 
trait 2 0.2 0 0.0532763 0 0.827144 0 0 0.798345 
trait 3 0.300856 0 0.00161445 0 0.00445539 0.00396113 0.024437 0.00250501 
node 1 2 1 3
node 2 3 1 1
node 3 3 1 1
node 4 2 0 2
node 23 1 0 0
node 87 1 0 0
gene 2 1 4 3.2965 0 1 3.2965 1
gene 3 2 4 -7.37606 0 2 -7.37606 1
gene 1 3 4 -0.446643 0 3 -0.446643 1
gene 3 2 23 -3.07682 0 40 -3.07682 1
gene 3 23 4 3.46395 0 41 3.46395 1
gene 2 3 23 -2.22616 0 44 -2.22616 0
gene 3 1 23 4.71716 0 83 4.71716 1
gene 2 3 87 1 0 224 0 1
gene 2 87 23 -2.22616 0 225 0 1
genomeend 49

/* Organism #50 Fitness: 9.08309 Error: 0.986183 */
genomestart 50
trait 1 0.075 0.0576945 0.155012 0 0 0 0 0.0136104 
trait 2 0.2 0 0.0532763 0 0.827144 0 0 0.798345 
trait 3 0.300856 0 0.00161445 0 0.00445539 0.00396113 0.024437 0.00250501 
node 1 2 1 3
node 2 3 1 1
node 3 3 1 1
node 4 2 0 2
node 23 1 0 0
gene 2 1 4 2.9866 0 1 2.9866 1
gene 3 2 4 -5.43519 0 2 -5.43519 1
gene 1 3 4 -1.98436 0 3 -1.98436 1
gene 3 2 23 -2.81038 0 40 -2.81038 1
gene 3 23 4 5.29979 0 41 5.29979 1
gene 2 3 23 -2.95951 0 44 -2.95951 1
gene 3 1 23 7.91606 0 83 7.91606 1
genomeend 50

/* Organism #51 Fitness: 14.3498 Error: 0.211889 */
genomestart 51
trait 1 0.075 0.0576945 0.155012 0 0 0 0 0.0136104 
trait 2 0.2 0 0.0532763 0 0.827144 0 0 0.798345 
trait 3 0.300856 0 0.00161445 0 0.00445539 0.00396113 0.024437 0.00250501 
node 1 2 1 3
node 2 3 1 1
node 3 3 1 1
node 4 2 0 2
node 23 1 0 0
gene 2 1 4 3.2965 0 1 3.2965 1
gene 3 2 4 -5.2572 0 2 -5.2572 1
gene 1 3 4 -2.38647 0 3 -2.38647 1
gene 3 2 23 -1.8167 0 40 -1.8167 1
gene 3 23 4 5.89703 0 41 5.89703 1
gene 2 3 23 -2.22616 0 44 -2.22616 1
gene 3 1 23 4.20719 0 83 4.20719 1
genomeend 51

/* Species #7 : (Size 21) (AF 9.4292) (Age 14)  */


/* Organism #52 Fitness: 16 Error: 1.58073e-06 */
genomestart 52
trait 1 0.1 0.0576945 0 0 0 0 0 0.0136104 
trait 2 0.2 0 0.0210098 0.0202803 0.0336948 0 0 0.0346538 
trait 3 0.263249 0 0.023181 0 0.281361 0 0.0426411 0.00501003 
node 1 3 1 3
node 2 3 1 1
node 3 3 1 1
node 4 1 0 2
node 23 1 0 0
node 55 1 0 0
gene 2 1 4 8 0 1 8 1
gene 3 2 4 -3.49648 0 2 -3.49648 1
gene 1 3 4 -8 0 3 -8 1
gene 3 2 23 1.45588 0 40 1.45588 1
gene 3 23 4 -3.312 0 41 -3.312 1
gene 2 3 23 -0.446732 0 44 -0.446732 1
gene 1 3 55 3.20924 0 117 3.20924 1
gene 1 55 4 3.04485 0 118 3.04485 1
gene 2 1 55 0.437788 0 143 0.437788 1
genomeend 52

/* Organism #53 Fitness: 8.99577 Error: 1.0007 */
genomestart 53
trait 1 0.1 0.0576945 0 0 0 0 0 0.0136104 
trait 2 0.2 0 0.0210098 0.0202803 0.0336948 0 0 0.0346538 
trait 3 0.263249 0 0.023181 0 0.281361 0 0.0426411 0.00501003 
node 1 3 1 3
node 2 3 1 1
node 3 3 1 1
node 4 1 0 2
node 23 1 0 0
node 55 1 0 0
node 81 1 0 0
gene 2 1 4 8 0 1 8 1
gene 3 2 4 -3.17536 0 2 -3.17536 1
gene 1 3 4 -5.23298 0 3 -5.23298 1
gene 3 2 23 1.02947 0 40 1.02947 1
gene 3 23 4 -6.99629 0 41 -6.99629 1
gene 2 3 23 -2.64898 0 44 -2.64898 0
gene 1 3 55 2.49596 0 117 2.49596 1
gene 2 55 4 2.25214 0 118 2.25214 1
gene 2 1 55 -1.90084 0 143 -1.90084 1
gene 2 3 81 -2.34175 0 206 -2.34175 1
gene 2 81 23 -1.02263 0 207 -1.02263 1
genomeend 53

/* Organism #54 Fitness: 9.24149 Error: 0.960017 */
genomestart 54
trait 1 0.1 0.0576945 0 0 0 0 0 0.0136104 
trait 2 0.2 0 0.0210098 0.0202803 0.0336948 0 0 0.0346538 
trait 3 0.263249 0 0.023181 0 0.281361 0 0.0426411 0.00501003 
node 1 3 1 3
node 2 3 1 1
node 3 3 1 1
node 4 1 0 2
node 23 1 0 0
node 55 1 0 0
gene 2 1 4 6.69188 0 1 6.69188 1
gene 3 2 4 -3.57159 0 2 -3.57159 1
gene 1 3 4 -3.81449 0 3 -3.81449 1
gene 3 2 23 4.02468 0 40 4.02468 1
gene 3 23 4 -3.81467 0 41 -3.81467 1
gene 2 3 23 -4.72721 0 44 -4.72721 0
gene 1 3 55 2.88174 0 117 2.88174 1
gene 1 55 4 2.57866 0 118 2.57866 1
gene 2 1 55 -0.799675 0 143 -0.799675 1
genomeend 54

/* Organism #55 Fitness: 13.0905 Error: 0.381919 */
genomestart 55
trait 1 0.1 0.0576945 0 0 0 0 0 0.0136104 
trait 2 0.2 0 0.0210098 0.0202803 0.0336948 0 0 0.0346538 
trait 3 0.263249 0 0.023181 0 0.281361 0 0.0426411 0.00501003 
node 1 3 1 3
node 2 3 1 1
node 3 3 1 1
node 4 1 0 2
node 23 1 0 0
node 55 1 0 0
gene 2 1 4 6.64821 0 1 6.64821 1
gene 3 2 4 -3.91123 0 2 -3.91123 1
gene 1 3 4 -4.95247 0 3 -4.95247 1
gene 3 2 23 3.92466 0 40 3.92466 1
gene 3 23 4 -3.76503 0 41 -3.76503 1
gene 2 3 23 -0.709297 0 44 -0.709297 1
gene 1 3 55 3.10506 0 117 3.10506 1
gene 2 55 4 1.15833 0 118 1.15833 1
gene 2 1 55 0.7198 0 143 0.7198 1
genomeend 55

/* Organism #56 Fitness: 8.59081 Error: 1.06899 */
genomestart 56
trait 1 0.1 0.0576945 0 0 0 0 0 0.0136104 
trait 2 0.2 0 0.0210098 0.0202803 0.0336948 0 0 0.0346538 
trait 3 0.263249 0 0.023181 0 0.281361 0 0.0426411 0.00501003 
node 1 3 1 3
node 2 3 1 1
node 3 3 1 1
node 4 1 0 2
node 23 1 0 0
node 55 1 0 0
node 81 1 0 0
gene 2 1 4 7.12018 0 1 7.12018 1
gene 3 2 4 -3.99728 0 2 -3.99728 1
gene 1 3 4 -4.23279 0 3 -4.23279 1
gene 3 2 23 2.17131 0 40 2.17131 1
gene 3 23 4 -4.34844 0 41 -4.34844 1
gene 2 3 23 -1.33458 0 44 -1.33458 0
gene 1 3 55 1.41665 0 117 1.41665 1
gene 2 55 4 2.97839 0 118 2.97839 1
gene 2 1 55 -1.49039 0 143 -1.49039 1
gene 2 3 81 -0.292235 0 206 -0.292235 1
gene 2 81 23 1.64384 0 207 1.64384 1
genomeend 56

/* Organism #57 Fitness: 9.32429 Error: 0.94643 */
genomestart 57
trait 1 0.1 0.0576945 0 0 0 0 0 0.0136104 
trait 2 0.2 0 0.0210098 0.0202803 0.0336948 0 0 0.0346538 
trait 3 0.263249 0 0.023181 0 0.281361 0 0.0426411 0.00501003 
node 1 3 1 3
node 2 3 1 1
node 3 3 1 1
node 4 1 0 2
node 23 1 0 0
node 55 1 0 0
node 81 1 0 0
gene 2 1 4 8 0 1 8 1
gene 3 2 4 -2.18511 0 2 -2.18511 1
gene 1 3 4 -4.60159 0 3 -4.60159 1
gene 3 2 23 2.1617 0 40 2.1617 1
gene 3 23 4 -2.90186 0 41 -2.90186 1
gene 2 3 23 -0.609253 0 44 -0.609253 0
gene 1 3 55 0.736599 0 117 0.736599 1
gene 2 55 4 2.27419 0 118 2.27419 1
gene 2 1 55 0.645459 0 143 0.645459 1
gene 2 3 81 -1.98383 0 206 -1.98383 1
gene 2 81 23 0.567983 0 207 0.567983 1
genomeend 57

/* Organism #58 Fitness: 9.00003 Error: 0.999994 */
genomestart 58
trait 1 0.1 0.0576945 0 0 0 0 0 0.0136104 
trait 2 0.2 0 0.0210098 0.0202803 0.0336948 0 0 0.0346538 
trait 3 0.263249 0 0.023181 0 0.281361 0 0.0426411 0.00501003 
node 1 3 1 3
node 2 3 1 1
node 3 3 1 1
node 4 1 0 2
node 23 1 0 0
node 55 1 0 0
gene 2 1 4 8 0 1 8 1
gene 3 2 4 -0.108828 0 2 -0.108828 1
gene 1 3 4 -4.72799 0 3 -4.72799 1
gene 3 2 23 3.68515 0 40 3.68515 1
gene 3 23 4 -0.84027 0 41 -0.84027 1
gene 2 3 23 -3.33544 0 44 -3.33544 1
gene 1 3 55 -0.128182 0 117 -0.128182 1
gene 1 55 4 -2.90869 0 118 -2.90869 1
gene 2 1 55 -1.5226 0 143 -1.5226 1
genomeend 58

/* Organism #59 Fitness: 4.69727 Error: 1.83268 */
genomestart 59
trait 1 0.1 0.0576945 0 0 0 0 0 0.0136104 
trait 2 0.2 0 0.0210098 0.0202803 0.0336948 0 0 0.0346538 
trait 3 0.263249 0 0.023181 0 0.281361 0 0.0426411 0.00501003 
node 1 3 1 3
node 2 3 1 1
node 3 3 1 1
node 4 1 0 2
node 23 1 0 0
node 55 1 0 0
node 81 1 0 0
gene 2 1 4 4.91449 0 1 4.91449 1
gene 3 2 4 -1.25207 0 2 -1.25207 1
gene 1 3 4 -6.36331 0 3 -6.36331 1
gene 3 2 23 5.88036 0 40 5.88036 1
gene 3 23 4 -5.57954 0 41 -5.57954 1
gene 2 3 23 -1.21678 0 44 -1.21678 0
gene 1 3 55 2.5823 0 117 2.5823 1
gene 1 55 4 1.12838 0 118 1.12838 1
gene 2 1 55 -1.49132 0 143 -1.49132 1
gene 2 3 81 0.507314 0 206 0.507314 1
gene 2 81 23 -2.12779 0 207 -2.12779 1
genomeend 59

/* Organism #60 Fitness: 8.99995 Error: 1.00001 */
genomestart 60
trait 1 0.1 0.0576945 0 0 0 0 0 0.0136104 
trait 2 0.2 0 0.0210098 0.0202803 0.0336948 0 0 0.0346538 
trait 3 0.263249 0 0.023181 0 0.281361 0 0.0426411 0.00501003 
node 1 3 1 3
node 2 3 1 1
node 3 3 1 1
node 4 1 0 2
node 23 1 0 0
node 55 1 0 0
gene 2 1 4 5.57465 0 1 5.57465 1
gene 3 2 4 -0.209998 0 2 -0.209998 1
gene 1 3 4 -5.99029 0 3 -5.99029 1
gene 3 2 23 3.42522 0 40 3.42522 1
gene 3 23 4 -2.98608 0 41 -2.98608 1
gene 2 3 23 0.487191 0 44 0.487191 1
gene 1 3 55 1.62529 0 117 1.62529 1
gene 1 55 4 1.22592 0 118 1.22592 1
gene 2 1 55 -1.86543 0 143 -1.86543 1
genomeend 60

/* Organism #61 Fitness: 15.7545 Error: 0.0308023 */
genomestart 61
trait 1 0.1 0.0576945 0 0 0 0 0 0.0136104 
trait 2 0.2 0 0.0210098 0.0202803 0.0336948 0 0 0.0346538 
trait 3 0.263249 0 0.023181 0 0.281361 0 0.0426411 0.00501003 
node 1 3 1 3
node 2 3 1 1
node 3 3 1 1
node 4 1 0 2
node 23 1 0 0
node 55 1 0 0
gene 2 1 4 6.79253 0 1 6.79253 1
gene 3 2 4 -2.39067 0 2 -2.39067 1
gene 1 3 4 -8 0 3 -8 1
gene 3 2 23 3.7173 0 40 3.7173 1
gene 3 23 4 -5.28144 0 41 -5.28144 1
gene 2 3 23 -3.29322 0 44 -3.29322 1
gene 1 3 55 4.9694 0 117 4.9694 1
gene 1 55 4 1.94887 0 118 1.94887 1
gene 2 1 55 0.903635 0 143 0.903635 1
gene 3 2 55 0.10494 0 208 0.10494 1
genomeend 61

/* Organism #62 Fitness: 3.99903 Error: 2.00024 */
genomestart 62
trait 1 0.1 0.0576945 0 0 0 0 0 0.0136104 
trait 2 0.2 0 0.0210098 0.0202803 0.0336948 0 0 0.0346538 
trait 3 0.263249 0 0.023181 0 0.281361 0 0.0426411 0.00501003 
node 1 3 1 3
node 2 3 1 1
node 3 3 1 1
node 4 1 0 2
node 23 1 0 0
node 55 1 0 0
gene 2 1 4 4.52741 0 1 4.52741 1
gene 3 2 4 -4.01672 0 2 -4.01672 1
gene 1 3 4 -8 0 3 -8 1
gene 3 2 23 5.41496 0 40 5.41496 1
gene 3 23 4 -7.59976 0 41 -7.59976 1
gene 2 3 23 -5.28767 0 44 -5.28767 1
gene 1 3 55 6.71568 0 117 6.71568 1
gene 1 55 4 1.58548 0 118 1.58548 1
gene 2 1 55 0.0540023 0 143 0.0540023 1
gene 3 2 55 0.10494 0 208 0.10494 1
genomeend 62

/* Organism #63 Fitness: 4.01955 Error: 1.99512 */
genomestart 63
trait 1 0.1 0.0576945 0 0 0 0 0 0.0136104 
trait 2 0.2 0 0.0210098 0.0202803 0.0336948 0 0 0.0346538 
trait 3 0.263249 0 0.023181 0 0.281361 0 0.0426411 0.00501003 
node 1 3 1 3
node 2 3 1 1
node 3 3 1 1
node 4 1 0 2
node 23 1 0 0
node 55 1 0 0
gene 2 1 4 5.11806 0 1 5.11806 1
gene 3 2 4 -2.81182 0 2 -2.81182 1
gene 1 3 4 -8 0 3 -8 1
gene 3 2 23 2.74803 0 40 2.74803 1
gene 3 23 4 -7.69237 0 41 -7.69237 1
gene 2 3 23 -2.00953 0 44 -2.00953 1
gene 1 3 55 5.48524 0 117 5.48524 1
gene 1 55 4 1.80251 0 118 1.80251 1
gene 2 1 55 2.29867 0 143 2.29867 1
gene 3 2 55 1.92112 0 208 1.92112 1
genomeend 63

/* Organism #64 Fitness: 10.9227 Error: 0.695049 */
genomestart 64
trait 1 0.1 0.0576945 0 0 0 0 0 0.0136104 
trait 2 0.2 0 0.0210098 0.0202803 0.0336948 0 0 0.0346538 
trait 3 0.263249 0 0.023181 0 0.281361 0 0.0426411 0.00501003 
node 1 3 1 3
node 2 3 1 1
node 3 3 1 1
node 4 1 0 2
node 23 1 0 0
node 55 1 0 0
gene 2 1 4 7.04152 0 1 7.04152 1
gene 2 2 4 -0.605755 0 2 -0.605755 1
gene 1 3 4 -6.16963 0 3 -6.16963 1
gene 3 2 23 4.29309 0 40 4.29309 1
gene 3 23 4 -7.33181 0 41 -7.33181 1
gene 2 3 23 -4.40416 0 44 -4.40416 1
gene 1 3 55 2.95961 0 117 2.95961 1
gene 1 55 4 0.72933 0 118 0.72933 1
gene 2 1 55 2.59579 0 143 2.59579 1
gene 3 2 55 0.10494 0 208 0.10494 1
genomeend 64

/* Organism #65 Fitness: 5.81255 Error: 1.58908 */
genomestart 65
trait 1 0.1 0.0576945 0 0 0 0 0 0.0136104 
trait 2 0.2 0 0.0210098 0.0202803 0.0336948 0 0 0.0346538 
trait 3 0.263249 0 0.023181 0 0.281361 0 0.0426411 0.00501003 
node 1 3 1 3
node 2 3 1 1
node 3 3 1 1
node 4 1 0 2
node 23 1 0 0
node 55 1 0 0
gene 2 1 4 4.90789 0 1 4.90789 1
gene 3 2 4 -3.07553 0 2 -3.07553 1
gene 1 3 4 -5.73517 0 3 -5.73517 1
gene 3 2 23 1.45068 0 40 1.45068 1
gene 3 23 4 -6.27877 0 41 -6.27877 1
gene 2 3 23 -2.02584 0 44 -2.02584 1
gene 1 3 55 4.03669 0 117 4.03669 1
gene 1 55 4 0.754432 0 118 0.754432 1
gene 2 1 55 1.01768 0 143 1.01768 1
gene 3 2 55 -0.693963 0 208 -0.693963 1
genomeend 65

/* Organism #66 Fitness: 4.05286 Error: 1.98683 */
genomestart 66
trait 1 0.1 0.0576945 0 0 0 0 0 0.0136104 
trait 2 0.2 0 0.0210098 0.0202803 0.0336948 0 0 0.0346538 
trait 3 0.263249 0 0.023181 0 0.281361 0 0.0426411 0.00501003 
node 1 3 1 3
node 2 1 1 1
node 3 3 1 1
node 4 1 0 2
node 23 1 0 0
node 55 1 0 0
gene 2 1 4 4.86816 0 1 4.86816 1
gene 3 2 4 -3.10362 0 2 -3.10362 1
gene 1 3 4 -7.48817 0 3 -7.48817 1
gene 3 2 23 3.84883 0 40 3.84883 1
gene 3 23 4 -2.90389 0 41 -2.90389 1
gene 2 3 23 -3.18116 0 44 -3.18116 1
gene 1 3 55 2.90437 0 117 2.90437 1
gene 1 55 4 1.66817 0 118 1.66817 1
gene 2 1 55 -0.928488 0 143 -0.928488 1
gene 3 2 55 0.0450654 0 208 0.0450654 1
genomeend 66

/* Organism #67 Fitness: 15.7545 Error: 0.0308023 */
genomestart 67
trait 1 0.1 0.0576945 0 0 0 0 0 0.0136104 
trait 2 0.2 0 0.0210098 0.0202803 0.0336948 0 0 0.0346538 
trait 3 0.263249 0 0.023181 0 0.281361 0 0.0426411 0.00501003 
node 1 3 1 3
node 2 3 1 1
node 3 3 1 1
node 4 1 0 2
node 23 1 0 0
node 55 1 0 0
gene 2 1 4 6.79253 0 1 6.79253 1
gene 3 2 4 -2.39067 0 2 -2.39067 1
gene 1 3 4 -8 0 3 -8 1
gene 3 2 23 3.7173 0 40 3.7173 1
gene 3 23 4 -5.28144 0 41 -5.28144 1
gene 2 3 23 -3.29322 0 44 -3.29322 1
gene 1 3 55 4.9694 0 117 4.9694 1
gene 1 55 4 1.94887 0 118 1.94887 1
gene 2 1 55 0.903635 0 143 0.903635 1
gene 3 2 55 0.10494 0 208 0.10494 1
genomeend 67

/* Organism #68 Fitness: 4 Error: 2 */
genomestart 68
trait 1 0.1 0.0576945 0 0 0 0 0 0.0136104 
trait 2 0.2 0 0.0210098 0.0202803 0.0336948 0 0 0.0346538 
trait 3 0.263249 0 0.023181 0 0.281361 0 0.0426411 0.00501003 
node 1 3 1 3
node 2 3 1 1
node 3 3 1 1
node 4 1 0 2
node 23 1 0 0
node 55 1 0 0
gene 2 1 4 5.79211 0 1 5.79211 1
gene 3 2 4 0.705502 0 2 0.705502 1
gene 1 3 4 0.767666 0 3 0.767666 1
gene 3 2 23 3.7173 0 40 3.7173 1
gene 3 23 4 -2.86989 0 41 -2.86989 1
gene 2 3 23 -4.03937 0 44 -4.03937 1
gene 1 3 55 5.54633 0 117 5.54633 1
gene 1 55 4 2.48225 0 118 2.48225 1
gene 2 1 55 0.958342 0 143 0.958342 1
gene 3 2 55 -1.53612 0 208 -1.53612 1
genomeend 68

/* Organism #69 Fitness: 15.7545 Error: 0.0308023 */
genomestart 69
trait 1 0.1 0.0576945 0 0 0 0 0 0.0136104 
trait 2 0.2 0 0.0210098 0.0202803 0.0336948 0 0 0.0346538 
trait 3 0.263249 0 0.023181 0 0.281361 0 0.0426411 0.00501003 
node 1 3 1 3
node 2 3 1 1
node 3 3 1 1
node 4 1 0 2
node 23 1 0 0
node 55 1 0 0
gene 2 1 4 6.79253 0 1 6.79253 1
gene 3 2 4 -2.39067 0 2 -2.39067 1
gene 1 3 4 -8 0 3 -8 1
gene 3 2 23 3.7173 0 40 3.7173 1
gene 3 23 4 -5.28144 0 41 -5.28144 1
gene 2 3 23 -3.29322 0 44 -3.29322 1
gene 1 3 55 4.9694 0 117 4.9694 1
gene 1 55 4 1.94887 0 118 1.94887 1
gene 2 1 55 0.903635 0 143 0.903635 1
gene 3 2 55 0.10494 0 208 0.10494 1
genomeend 69

/* Organism #70 Fitness: 5.01681 Error: 1.76018 */
genomestart 70
trait 1 0.1 0.0576945 0 0 0 0 0 0.0136104 
trait 2 0.2 0 0.0210098 0.0202803 0.0336948 0 0 0.0346538 
trait 3 0.263249 0 0.023181 0 0.281361 0 0.0426411 0.00501003 
node 1 3 1 3
node 2 3 1 1
node 3 3 1 1
node 4 1 0 2
node 23 1 0 0
node 55 1 0 0
gene 2 1 4 6.09034 0 1 6.09034 1
gene 3 2 4 -0.224711 0 2 -0.224711 1
gene 1 3 4 -8 0 3 -8 1
gene 3 2 23 4.92958 0 40 4.92958 1
gene 3 23 4 -6.63585 0 41 -6.63585 1
gene 2 3 23 -5.29245 0 44 -5.29245 1
gene 1 3 55 5.18786 0 117 5.18786 1
gene 1 55 4 0.553838 0 118 0.553838 1
gene 2 1 55 0.518654 0 143 0.518654 1
gene 3 2 55 0.155882 0 208 0.155882 1
genomeend 70

/* Organism #71 Fitness: 9.61402 Error: 0.899351 */
genomestart 71
trait 1 0.1 0.0576945 0 0 0 0 0 0.0136104 
trait 2 0.2 0 0.0210098 0.0202803 0.0336948 0 0 0.0346538 
trait 3 0.263249 0 0.023181 0 0.281361 0 0.0426411 0.00501003 
node 1 3 1 3
node 2 3 1 1
node 3 3 1 1
node 4 1 0 2
node 23 1 0 0
node 55 1 0 0
gene 2 1 4 6.38116 0 1 6.38116 1
gene 3 2 4 -0.104979 0 2 -0.104979 1
gene 1 3 4 -8 0 3 -8 1
gene 3 2 23 1.95313 0 40 1.95313 1
gene 3 23 4 -5.32509 0 41 -5.32509 1
gene 2 3 23 -3.07833 0 44 -3.07833 1
gene 1 3 55 3.00345 0 117 3.00345 1
gene 1 55 4 1.40538 0 118 1.40538 1
gene 2 1 55 1.99624 0 143 1.99624 1
gene 3 2 55 0.878298 0 208 0.878298 1
genomeend 71

/* Organism #72 Fitness: 15.3719 Error: 0.0792994 */
genomestart 72
trait 1 0.1 0.0576945 0 0 0 0 0 0.0136104 
trait 2 0.2 0 0.0210098 0.0202803 0.0336948 0 0 0.0346538 
trait 3 0.263249 0 0.023181 0 0.281361 0 0.0426411 0.00501003 
node 1 3 1 3
node 2 3 1 1
node 3 3 1 1
node 4 1 0 2
node 23 1 0 0
node 55 1 0 0
gene 2 1 4 6.79253 0 1 6.79253 1
gene 3 2 4 -2.39067 0 2 -2.39067 1
gene 1 3 4 -8 0 3 -8 1
gene 3 2 23 3.7173 0 40 3.7173 1
gene 3 23 4 -5.28144 0 41 -5.28144 1
gene 2 3 23 -3.29322 0 44 -3.29322 1
gene 1 3 55 4.9694 0 117 4.9694 1
gene 1 55 4 1.94887 0 118 1.94887 1
gene 2 1 55 0.903635 0 143 0.903635 1
gene 3 2 55 0.10494 0 208 0.10494 1
gene 3 23 55 -0.785792 0 232 -0.785792 1
genomeend 72

/* Species #8 : (Size 13) (AF 10.9679) (Age 12)  */


/* Organism #73 Fitness: 15.9508 Error: 0.00616008 */
genomestart 73
trait 1 0.1 0.0576945 0 0 0 0 0 0.0136104 
trait 2 0.2 0 0.0210098 0.0202803 0.0336948 0 0 0.0346538 
trait 3 0.150428 0 0 0 0.000764841 0 0.0243663 0.00501003 
node 1 3 1 3
node 2 3 1 1
node 3 3 1 1
node 4 2 0 2
node 23 1 0 0
node 48 1 0 0
node 60 1 0 0
gene 2 1 4 0.975121 0 1 0.975121 1
gene 3 2 4 -3.76757 0 2 -3.76757 0
gene 1 3 4 -3.62045 0 3 -3.62045 1
gene 3 2 23 -1.21627 0 40 -1.21627 1
gene 3 23 4 5.10503 0 41 5.10503 0
gene 2 3 23 -2.00356 0 44 -2.00356 1
gene 3 23 48 0.867108 0 100 0.867108 1
gene 3 48 4 1.50712 0 101 1.50712 1
gene 3 48 60 1.37751 0 135 1.37751 1
gene 3 60 4 3.1192 0 136 3.1192 1
gene 3 2 48 -2.64725 0 148 -2.64725 1
gene 3 1 60 -0.114047 0 164 -0.114047 1
genomeend 73

/* Organism #74 Fitness: 9 Error: 1 */
genomestart 74
trait 1 0.1 0.0576945 0 0 0 0 0 0.0136104 
trait 2 0.2 0 0.0210098 0.0202803 0.0336948 0 0 0.0346538 
trait 3 0.150428 0 0 0 0.000764841 0 0.0243663 0.00501003 
node 1 3 1 3
node 2 3 1 1
node 3 3 1 1
node 4 2 0 2
node 23 1 0 0
node 48 1 0 0
node 60 1 0 0
gene 2 1 4 5.97057 0 1 5.97057 1
gene 3 2 4 -3.68069 0 2 -3.68069 0
gene 1 3 4 -4.8987 0 3 -4.8987 1
gene 3 2 23 3.10358 0 40 3.10358 1
gene 3 23 4 4.82683 0 41 4.82683 0
gene 2 3 23 1.22799 0 44 1.22799 1
gene 3 23 48 -0.797567 0 100 -0.797567 1
gene 3 48 4 1.06661 0 101 1.06661 0
gene 3 48 60 1.91447 0 135 1.91447 1
gene 3 60 4 2.88983 0 136 2.88983 1
gene 3 2 48 -5.03977 0 148 -5.03977 1
gene 3 1 60 2.30554 0 164 2.30554 1
genomeend 74

/* Organism #75 Fitness: 15.9367 Error: 0.0079233 */
genomestart 75
trait 1 0.1 0.0576945 0 0 0 0 0 0.0136104 
trait 2 0.2 0 0.0210098 0.0202803 0.0336948 0 0 0.0346538 
trait 3 0.150428 0 0 0 0.000764841 0 0.0243663 0.00501003 
node 1 3 1 3
node 2 3 1 1
node 3 3 1 1
node 4 2 0 2
node 23 1 0 0
node 48 2 0 0
node 60 1 0 0
gene 2 1 4 5.42199 0 1 5.42199 1
gene 3 2 4 -7.69299 0 2 -7.69299 1
gene 1 3 4 -4.52836 0 3 -4.52836 1
gene 3 2 23 1.7032 0 40 1.7032 1
gene 3 23 4 5.65765 0 41 5.65765 0
gene 2 3 23 -0.919524 0 44 -0.919524 1
gene 3 23 48 0.440886 0 100 0.440886 1
gene 3 48 4 -0.126388 0 101 -0.126388 0
gene 3 48 60 -0.325116 0 135 -0.325116 1
gene 3 60 4 3.25186 0 136 3.25186 1
gene 3 2 48 1.03049 0 148 1.03049 1
gene 3 1 60 3.11132 0 164 3.11132 1
genomeend 75

/* Organism #76 Fitness: 15.9516 Error: 0.00604908 */
genomestart 76
trait 1 0.1 0.0576945 0 0 0 0 0 0.0136104 
trait 2 0.2 0 0.0210098 0.0202803 0.0336948 0 0 0.0346538 
trait 3 0.150428 0 0 0 0.000764841 0 0.0243663 0.00501003 
node 1 3 1 3
node 2 3 1 1
node 3 3 1 1
node 4 2 0 2
node 23 1 0 0
node 48 1 0 0
node 60 1 0 0
gene 2 1 4 2.92675 0 1 2.92675 1
gene 3 2 4 -5.3139 0 2 -5.3139 0
gene 1 3 4 -4.83511 0 3 -4.83511 1
gene 3 2 23 -0.0263764 0 40 -0.0263764 1
gene 3 23 4 3.59876 0 41 3.59876 0
gene 2 3 23 -0.460513 0 44 -0.460513 1
gene 3 23 48 0.269736 0 100 0.269736 1
gene 3 48 4 0.347144 0 101 0.347144 0
gene 3 48 60 1.26661 0 135 1.26661 1
gene 3 60 4 3.0324 0 136 3.0324 1
gene 3 2 48 -2.44552 0 148 -2.44552 1
gene 3 1 60 -0.114047 0 164 -0.114047 1
gene 3 1 23 0.456485 0 217 0.456485 1
gene 2 2 60 -0.966002 0 227 -0.966002 1
genomeend 76

/* Organism #77 Fitness: 6.50584 Error: 1.44935 */
genomestart 77
trait 1 0.1 0.0576945 0 0 0 0 0 0.0136104 
trait 2 0.2 0 0.0210098 0.0202803 0.0336948 0 0 0.0346538 
trait 3 0.150428 0 0 0 0.000764841 0 0.0243663 0.00501003 
node 1 3 1 3
node 2 3 1 1
node 3 3 1 1
node 4 2 0 2
node 23 1 0 0
node 48 1 0 0
node 60 1 0 0
gene 2 1 4 3.02744 0 1 3.02744 1
gene 3 2 4 -6.65022 0 2 -6.65022 0
gene 1 3 4 -5.60061 0 3 -5.60061 1
gene 3 2 23 -1.8073 0 40 -1.8073 1
gene 3 23 4 2.83721 0 41 2.83721 0
gene 2 3 23 -1.91268 0 44 -1.91268 1
gene 3 23 48 -2.01848 0 100 -2.01848 1
gene 3 48 4 0.58634 0 101 0.58634 0
gene 3 48 60 -0.763126 0 135 -0.763126 1
gene 3 60 4 1.81071 0 136 1.81071 1
gene 3 2 48 -2.84918 0 148 -2.84918 1
gene 3 1 60 -2.18459 0 164 -2.18459 1
gene 3 1 23 1.70776 0 217 1.70776 1
genomeend 77

/* Organism #78 Fitness: 8.85699 Error: 1.02393 */
genomestart 78
trait 1 0.1 0.0576945 0 0 0 0 0 0.0136104 
trait 2 0.2 0 0.0210098 0.0202803 0.0336948 0 0 0.0346538 
trait 3 0.150428 0 0 0 0.000764841 0 0.0243663 0.00501003 
node 1 3 1 3
node 2 3 1 1
node 3 3 1 1
node 4 2 0 2
node 23 1 0 0
node 48 2 0 0
node 60 1 0 0
gene 2 1 4 -1.46992 0 1 -1.46992 1
gene 3 2 4 -5.62446 0 2 -5.62446 0
gene 1 3 4 -4.44266 0 3 -4.44266 1
gene 3 2 23 0.58151 0 40 0.58151 1
gene 3 23 4 5.39109 0 41 5.39109 0
gene 2 3 23 -1.02251 0 44 -1.02251 1
gene 3 23 48 2.90898 0 100 2.90898 1
gene 3 48 4 -0.530342 0 101 -0.530342 0
gene 3 48 60 3.17254 0 135 3.17254 1
gene 3 60 4 2.36616 0 136 2.36616 1
gene 3 2 48 -1.14548 0 148 -1.14548 1
gene 3 1 60 4.35946 0 164 4.35946 1
genomeend 78

/* Organism #79 Fitness: 8.99 Error: 1.00167 */
genomestart 79
trait 1 0.1 0.0576945 0 0 0 0 0 0.0136104 
trait 2 0.2 0 0.0210098 0.0202803 0.0336948 0 0 0.0346538 
trait 3 0.150428 0 0 0 0.000764841 0 0.0243663 0.00501003 
node 1 3 1 3
node 2 3 1 1
node 3 3 1 1
node 4 2 0 2
node 23 1 0 0
node 48 1 0 0
node 60 1 0 0
gene 2 1 4 3.77679 0 1 3.77679 1
gene 3 2 4 -2.64152 0 2 -2.64152 0
gene 1 3 4 -6.88111 0 3 -6.88111 1
gene 3 2 23 0.819449 0 40 0.819449 1
gene 3 23 4 2.97362 0 41 2.97362 0
gene 2 3 23 -2.60039 0 44 -2.60039 1
gene 3 23 48 -1.70945 0 100 -1.70945 1
gene 3 48 4 1.79426 0 101 1.79426 0
gene 3 48 60 2.5121 0 135 2.5121 1
gene 3 60 4 1.29863 0 136 1.29863 1
gene 3 2 48 -2.44552 0 148 -2.44552 1
gene 3 1 60 -2.30127 0 164 -2.30127 1
genomeend 79

/* Organism #80 Fitness: 15.8306 Error: 0.0212341 */
genomestart 80
trait 1 0.1 0.0576945 0 0 0 0 0 0.0136104 
trait 2 0.2 0 0.0210098 0.0202803 0.0336948 0 0 0.0346538 
trait 3 0.150428 0 0 0 0.000764841 0 0.0243663 0.00501003 
node 1 3 1 3
node 2 3 1 1
node 3 3 1 1
node 4 2 0 2
node 23 1 0 0
node 48 2 0 0
node 60 1 0 0
gene 2 1 4 5.54056 0 1 5.54056 1
gene 3 2 4 -5.23664 0 2 -5.23664 1
gene 1 3 4 -7.00493 0 3 -7.00493 1
gene 3 2 23 -0.37046 0 40 -0.37046 1
gene 3 23 4 2.68611 0 41 2.68611 0
gene 2 3 23 0.985783 0 44 0.985783 1
gene 3 23 48 0.322098 0 100 0.322098 1
gene 3 48 4 0.276626 0 101 0.276626 0
gene 3 48 60 3.22525 0 135 3.22525 1
gene 3 60 4 2.24233 0 136 2.24233 1
gene 3 2 48 -1.79949 0 148 -1.79949 1
gene 3 1 60 1.14165 0 164 1.14165 1
genomeend 80

/* Organism #81 Fitness: 10.2855 Error: 0.792895 */
genomestart 81
trait 1 0.1 0.0576945 0 0 0 0 0 0.0136104 
trait 2 0.2 0 0.0210098 0.0202803 0.0336948 0 0 0.0346538 
trait 3 0.150428 0 0 0 0.000764841 0 0.0243663 0.00501003 
node 1 3 1 3
node 2 3 1 1
node 3 3 1 1
node 4 2 0 2
node 23 1 0 0
node 48 1 0 0
node 60 1 0 0
gene 2 1 4 4.35677 0 1 4.35677 1
gene 3 2 4 -5.25376 0 2 -5.25376 0
gene 1 3 4 -4.13125 0 3 -4.13125 1
gene 3 2 23 2.70639 0 40 2.70639 1
gene 3 23 4 5.93779 0 41 5.93779 0
gene 2 3 23 -2.00356 0 44 -2.00356 1
gene 3 23 48 0.0775821 0 100 0.0775821 1
gene 3 48 4 -2.30254 0 101 -2.30254 0
gene 3 48 60 2.33656 0 135 2.33656 1
gene 3 60 4 2.41091 0 136 2.41091 1
gene 3 2 48 -0.367891 0 148 -0.367891 1
gene 3 1 60 -1.2609 0 164 -1.2609 1
genomeend 81

/* Organism #82 Fitness: 9.00009 Error: 0.999985 */
genomestart 82
trait 1 0.1 0.0576945 0 0 0 0 0 0.0136104 
trait 2 0.2 0 0.0210098 0.0202803 0.0336948 0 0 0.0346538 
trait 3 0.150428 0 0 0 0.000764841 0 0.0243663 0.00501003 
node 1 3 1 3
node 2 3 1 1
node 3 3 1 1
node 4 2 0 2
node 23 1 0 0
node 48 1 0 0
node 60 1 0 0
gene 2 1 4 4.49798 0 1 4.49798 1
gene 3 2 4 -2.99805 0 2 -2.99805 0
gene 1 3 4 -2.96357 0 3 -2.96357 1
gene 3 2 23 0.774018 0 40 0.774018 1
gene 3 23 4 5.10401 0 41 5.10401 0
gene 2 3 23 -0.439952 0 44 -0.439952 1
gene 3 23 48 0.342539 0 100 0.342539 1
gene 3 48 4 2.06945 0 101 2.06945 0
gene 3 48 60 2.01695 0 135 2.01695 1
gene 3 60 4 2.18977 0 136 2.18977 1
gene 3 2 48 -2.44552 0 148 -2.44552 1
gene 3 1 60 -2.11421 0 164 -2.11421 1
genomeend 82

/* Organism #83 Fitness: 9.00016 Error: 0.999973 */
genomestart 83
trait 1 0.1 0.0576945 0 0 0 0 0 0.0136104 
trait 2 0.2 0 0.0210098 0.0202803 0.0336948 0 0 0.0346538 
trait 3 0.150428 0 0 0 0.000764841 0 0.0243663 0.00501003 
node 1 3 1 3
node 2 3 1 1
node 3 3 1 1
node 4 2 0 2
node 23 1 0 0
node 48 1 0 0
node 60 1 0 0
gene 2 1 4 2.30637 0 1 2.30637 1
gene 3 2 4 -1.67529 0 2 -1.67529 0
gene 1 3 4 -5.88592 0 3 -5.88592 1
gene 3 2 23 0.823155 0 40 0.823155 1
gene 3 23 4 3.23506 0 41 3.23506 0
gene 2 3 23 -2.73304 0 44 -2.73304 1
gene 3 23 48 0.424187 0 100 0.424187 1
gene 3 48 4 2.97118 0 101 2.97118 1
gene 3 48 60 -0.793662 0 135 -0.793662 1
gene 3 60 4 1.48023 0 136 1.48023 1
gene 3 2 48 -4.0517 0 148 -4.0517 1
gene 3 1 60 -0.575498 0 164 -0.575498 1
genomeend 83

/* Organism #84 Fitness: 8.27965 Error: 1.12256 */
genomestart 84
trait 1 0.1 0.0576945 0 0 0 0 0 0.0136104 
trait 2 0.2 0 0.0210098 0.0202803 0.0336948 0 0 0.0346538 
trait 3 0.150428 0 0 0 0.000764841 0 0.0243663 0.00501003 
node 1 3 1 3
node 2 3 1 1
node 3 3 1 1
node 4 2 0 2
node 23 1 0 0
node 48 1 0 0
node 60 1 0 0
gene 2 1 4 -0.525449 0 1 -0.525449 1
gene 3 2 4 -4.54074 0 2 -4.54074 0
gene 1 3 4 1.16223 0 3 1.16223 1
gene 3 2 23 -0.621325 0 40 -0.621325 1
gene 3 23 4 1.44906 0 41 1.44906 0
gene 2 3 23 0.957577 0 44 0.957577 1
gene 3 23 48 1.35046 0 100 1.35046 1
gene 3 48 4 -1.98669 0 101 -1.98669 0
gene 3 48 60 1.21872 0 135 1.21872 1
gene 3 60 4 1.07087 0 136 1.07087 1
gene 3 2 48 -2.22237 0 148 -2.22237 1
gene 3 1 60 1.6402 0 164 1.6402 1
genomeend 84

/* Organism #85 Fitness: 8.99543 Error: 1.00076 */
genomestart 85
trait 1 0.1 0.0576945 0 0 0 0 0 0.0136104 
trait 2 0.2 0 0.0210098 0.0202803 0.0336948 0 0 0.0346538 
trait 3 0.150428 0 0 0 0.000764841 0 0.0243663 0.00501003 
node 1 3 1 3
node 2 3 1 1
node 3 3 1 1
node 4 2 0 2
node 23 1 0 0
node 48 1 0 0
node 60 1 0 0
gene 2 1 4 1.45328 0 1 1.45328 1
gene 3 2 4 -3.76757 0 2 -3.76757 0
gene 1 3 4 -6.10508 0 3 -6.10508 1
gene 3 2 23 -0.450406 0 40 -0.450406 1
gene 3 23 4 3.95855 0 41 3.95855 0
gene 2 3 23 -0.773758 0 44 -0.773758 1
gene 3 23 48 1.38787 0 100 1.38787 1
gene 3 48 4 3.35049 0 101 3.35049 1
gene 3 48 60 -0.460336 0 135 -0.460336 1
gene 3 60 4 4.09939 0 136 4.09939 1
gene 3 2 48 -5.03454 0 148 -5.03454 1
gene 3 1 60 -1.3827 0 164 -1.3827 1
genomeend 85

/* Species #9 : (Size 11) (AF 10.4196) (Age 12)  */


/* Organism #86 Fitness: 15.9991 Error: 0.000118059 */
genomestart 86
trait 1 0.1 0.0576945 0 0 0 0 0 0.0136104 
trait 2 0.2 0 0.0210098 0.0202803 0.0336948 0 0 0.0346538 
trait 3 0.263249 0 0 0 0.00133847 0 0.0426411 0.00501003 
node 1 3 1 3
node 2 3 1 1
node 3 3 1 1
node 4 2 0 2
node 23 1 0 0
node 55 1 0 0
node 61 1 0 0
gene 2 1 4 2.45752 0 1 2.45752 1
gene 3 2 4 1.54008 0 2 1.54008 0
gene 1 3 4 -4.58077 0 3 -4.58077 1
gene 3 2 23 -1.21315 0 40 -1.21315 1
gene 3 23 4 3.16232 0 41 3.16232 1
gene 2 3 23 1.38575 0 44 1.38575 0
gene 1 3 55 2.34731 0 117 2.34731 1
gene 1 55 4 4.00149 0 118 4.00149 1
gene 1 2 55 -3.83114 0 125 -3.83114 1
gene 2 3 61 -0.623247 0 137 -0.623247 1
gene 2 61 23 -0.931196 0 138 -0.931196 1
gene 2 1 23 -0.907954 0 144 -0.907954 1
genomeend 86

/* Organism #87 Fitness: 8.99325 Error: 1.00113 */
genomestart 87
trait 1 0.1 0.0576945 0 0 0 0 0 0.0136104 
trait 2 0.2 0 0.0210098 0.0202803 0.0336948 0 0 0.0346538 
trait 3 0.129408 0 0.159084 0.0645921 0.691645 0.72616 0 0.00501003 
node 1 3 1 3
node 2 3 1 1
node 3 3 1 1
node 4 2 0 2
node 23 1 0 0
node 55 1 0 0
node 61 1 0 0
gene 2 1 4 1.37903 0 1 1.37903 1
gene 3 2 4 3.44949 0 2 3.44949 0
gene 1 3 4 -6.52627 0 3 -6.52627 1
gene 3 2 23 -4.04548 0 40 -4.04548 1
gene 3 23 4 0.609015 0 41 0.609015 1
gene 2 3 23 -1.86357 0 44 -1.86357 0
gene 1 3 55 4.81919 0 117 4.81919 1
gene 1 55 4 2.2142 0 118 2.2142 1
gene 1 2 55 -6.25327 0 125 -6.25327 1
gene 2 3 61 -2.89517 0 137 -2.89517 1
gene 2 61 23 -0.256073 0 138 -0.256073 1
gene 2 1 23 -0.672086 0 144 -0.672086 1
genomeend 87

/* Organism #88 Fitness: 4.65833 Error: 1.84168 */
genomestart 88
trait 1 0.1 0.0576945 0 0 0 0 0 0.0136104 
trait 2 0.2 0 0.0210098 0.0202803 0.0336948 0 0 0.0346538 
trait 3 0.263249 0 0.1613 0.0645921 0.00133847 0 0.0319808 0.00501003 
node 1 3 1 3
node 2 3 1 1
node 3 3 1 1
node 4 2 0 2
node 23 1 0 0
node 55 1 0 0
node 61 1 0 0
gene 2 1 4 -0.339409 0 1 -0.339409 1
gene 3 2 4 0.747706 0 2 0.747706 0
gene 1 3 4 2.02761 0 3 2.02761 1
gene 3 2 23 -2.88963 0 40 -2.88963 1
gene 3 23 4 3.92674 0 41 3.92674 1
gene 2 3 23 2.03489 0 44 2.03489 0
gene 1 3 55 1.38551 0 117 1.38551 1
gene 1 55 4 1.27273 0 118 1.27273 1
gene 1 2 55 -6.98622 0 125 -6.98622 1
gene 2 3 61 1.5384 0 137 1.5384 1
gene 2 61 23 -0.0124197 0 138 -0.0124197 1
gene 2 1 23 -0.100322 0 144 -0.100322 1
genomeend 88

/* Organism #89 Fitness: 4.06426 Error: 1.984 */
genomestart 89
trait 1 0.1 0.0576945 0 0 0 0 0 0.0136104 
trait 2 0.2 0 0.0210098 0.0202803 0.0336948 0 0 0.0346538 
trait 3 0.263249 0 0 0 0.00133847 0 0.0426411 0.00501003 
node 1 3 1 3
node 2 3 1 1
node 3 3 1 1
node 4 2 0 2
node 23 1 0 0
node 55 3 0 0
node 61 1 0 0
gene 2 1 4 -1.45682 0 1 -1.45682 1
gene 3 2 4 -0.853519 0 2 -0.853519 0
gene 1 3 4 -5.01583 0 3 -5.01583 1
gene 3 2 23 0.000478435 0 40 0.000478435 1
gene 3 23 4 5.20458 0 41 5.20458 1
gene 2 3 23 -0.814928 0 44 -0.814928 0
gene 1 3 55 3.51445 0 117 3.51445 1
gene 1 55 4 -0.813257 0 118 -0.813257 1
gene 1 2 55 -5.45269 0 125 -5.45269 1
gene 2 3 61 6.29922 0 137 6.29922 1
gene 2 61 23 1.01025 0 138 1.01025 1
gene 2 1 23 2.22503 0 144 2.22503 1
genomeend 89

/* Organism #90 Fitness: 8.36281 Error: 1.10815 */
genomestart 90
trait 1 0.1 0.0576945 0 0 0 0 0 0.0136104 
trait 2 0.2 0 0.0210098 0.0202803 0.0336948 0 0 0.0346538 
trait 3 0.263249 0 0.1613 0.0645921 0.00133847 0 0.0319808 0.00501003 
node 1 3 1 3
node 2 3 1 1
node 3 3 1 1
node 4 2 0 2
node 23 1 0 0
node 55 3 0 0
node 61 1 0 0
gene 2 1 4 1.21495 0 1 1.21495 1
gene 3 2 4 -2.76621 0 2 -2.76621 1
gene 1 3 4 -3.59697 0 3 -3.59697 1
gene 3 2 23 -2.83428 0 40 -2.83428 1
gene 3 23 4 2.03389 0 41 2.03389 1
gene 2 3 23 -0.182834 0 44 -0.182834 1
gene 1 3 55 1.812 0 117 1.812 1
gene 1 55 4 1.02366 0 118 1.02366 1
gene 1 2 55 -5.17321 0 125 -5.17321 1
gene 2 3 61 1.67484 0 137 1.67484 1
gene 2 61 23 0.904991 0 138 0.904991 1
gene 2 1 23 -0.320953 0 144 -0.320953 1
genomeend 90

/* Organism #91 Fitness: 15.4027 Error: 0.0753762 */
genomestart 91
trait 1 0.1 0.0576945 0 0 0 0 0 0.0136104 
trait 2 0.2 0 0.0210098 0.0202803 0.0336948 0 0 0.0346538 
trait 3 0.445259 0 0 0.0645921 0.00133847 0 0.0319808 0.325181 
node 1 3 1 3
node 2 3 1 1
node 3 3 1 1
node 4 2 0 2
node 23 1 0 0
node 55 1 0 0
node 61 1 0 0
gene 2 1 4 3.69163 0 1 3.69163 1
gene 3 2 4 -0.968377 0 2 -0.968377 1
gene 1 3 4 -3.2333 0 3 -3.2333 1
gene 3 2 23 -3.85268 0 40 -3.85268 1
gene 3 23 4 3.43287 0 41 3.43287 1
gene 2 3 23 0.31847 0 44 0.31847 0
gene 1 3 55 3.74225 0 117 3.74225 1
gene 1 55 4 1.22252 0 118 1.22252 1
gene 1 2 55 -5.50224 0 125 -5.50224 1
gene 2 3 61 0.76518 0 137 0.76518 1
gene 2 61 23 -1.79643 0 138 -1.79643 1
gene 2 1 23 -0.281859 0 144 -0.281859 1
genomeend 91

/* Organism #92 Fitness: 8.99411 Error: 1.00098 */
genomestart 92
trait 1 0.1 0.0576945 0 0 0 0 0 0.0136104 
trait 2 0.2 0 0.0210098 0.0202803 0.0336948 0 0 0.0346538 
trait 3 0.263249 0 0.1613 0.0645921 0.00133847 0 0.0319808 0.00501003 
node 1 3 1 3
node 2 3 1 1
node 3 3 1 1
node 4 3 0 2
node 23 1 0 0
node 55 1 0 0
node 61 1 0 0
gene 2 1 4 1.82485 0 1 1.82485 1
gene 3 2 4 -3.71009 0 2 -3.71009 0
gene 1 3 4 -0.291885 0 3 -0.291885 1
gene 3 2 23 -4.90366 0 40 -4.90366 1
gene 3 23 4 -0.6002 0 41 -0.6002 1
gene 2 3 23 -1.11745 0 44 -1.11745 0
gene 1 3 55 0.602956 0 117 0.602956 1
gene 1 55 4 1.93673 0 118 1.93673 1
gene 1 2 55 -4.12228 0 125 -4.12228 1
gene 2 3 61 1.27599 0 137 1.27599 1
gene 2 61 23 0.799735 0 138 0.799735 1
gene 2 1 23 -0.907954 0 144 -0.907954 1
genomeend 92

/* Organism #93 Fitness: 12.2619 Error: 0.498293 */
genomestart 93
trait 1 0.1 0.0576945 0 0 0 0 0 0.0136104 
trait 2 0.2 0 0.0210098 0.0202803 0.0336948 0 0 0.0346538 
trait 3 0.263249 0 0 0 0.00133847 0 0.0426411 0.00501003 
node 1 3 1 3
node 2 3 1 1
node 3 3 1 1
node 4 2 0 2
node 23 1 0 0
node 55 1 0 0
node 61 1 0 0
gene 2 1 4 1.86697 0 1 1.86697 1
gene 3 2 4 1.54008 0 2 1.54008 0
gene 1 3 4 -3.39443 0 3 -3.39443 1
gene 3 2 23 -2.13528 0 40 -2.13528 1
gene 3 23 4 1.53153 0 41 1.53153 1
gene 2 3 23 -0.174697 0 44 -0.174697 0
gene 1 3 55 -1.7654 0 117 -1.7654 1
gene 1 55 4 5.87559 0 118 5.87559 1
gene 1 2 55 -6.02856 0 125 -6.02856 1
gene 2 3 61 -0.623247 0 137 -0.623247 1
gene 2 61 23 -1.32393 0 138 -1.32393 1
gene 2 1 23 1.31841 0 144 1.31841 1
genomeend 93

/* Organism #94 Fitness: 15.9168 Error: 0.0104141 */
genomestart 94
trait 1 0.1 0.0576945 0 0 0 0 0 0.0136104 
trait 2 0.2 0 0.0210098 0.0202803 0.0336948 0 0 0.0346538 
trait 3 0.263249 0 0.1613 0.0645921 0.00133847 0 0.0319808 0.00501003 
node 1 3 1 3
node 2 3 1 1
node 3 3 1 1
node 4 2 0 2
node 23 1 0 0
node 55 1 0 0
node 61 1 0 0
gene 2 1 4 1.65078 0 1 1.65078 1
gene 3 2 4 1.42622 0 2 1.42622 0
gene 1 3 4 -3.51792 0 3 -3.51792 1
gene 3 2 23 -2.5148 0 40 -2.5148 1
gene 3 23 4 1.72081 0 41 1.72081 1
gene 2 3 23 -0.239621 0 44 -0.239621 0
gene 1 3 55 2.92136 0 117 2.92136 1
gene 1 55 4 1.21853 0 118 1.21853 1
gene 1 2 55 -2.8021 0 125 -2.8021 1
gene 2 3 61 -0.497993 0 137 -0.497993 1
gene 2 61 23 -1.14567 0 138 -1.14567 1
gene 2 1 23 1.15052 0 144 1.15052 1
genomeend 94

/* Organism #95 Fitness: 3.9631 Error: 2.00925 */
genomestart 95
trait 1 0.1 0.0576945 0 0 0 0 0 0.0136104 
trait 2 0.2 0 0.0210098 0.0202803 0.0336948 0 0 0.0346538 
trait 3 0.263249 0 0.1613 0.0645921 0.00133847 0 0.0319808 0.00501003 
node 1 3 1 3
node 2 3 1 1
node 3 3 1 1
node 4 2 0 2
node 23 1 0 0
node 55 3 0 0
node 61 1 0 0
gene 2 1 4 -0.0575379 0 1 -0.0575379 1
gene 3 2 4 -2.99807 0 2 -2.99807 0
gene 1 3 4 -2.58854 0 3 -2.58854 1
gene 3 2 23 0.495038 0 40 0.495038 1
gene 3 23 4 1.83262 0 41 1.83262 1
gene 2 3 23 2.04176 0 44 2.04176 0
gene 1 3 55 2.92745 0 117 2.92745 1
gene 1 55 4 -1.15634 0 118 -1.15634 1
gene 1 2 55 -3.71984 0 125 -3.71984 1
gene 2 3 61 -1.07535 0 137 -1.07535 1
gene 2 61 23 1.69468 0 138 1.69468 1
gene 2 1 23 0.553277 0 144 0.553277 1
genomeend 95

/* Organism #96 Fitness: 15.9991 Error: 0.00011805 */
genomestart 96
trait 1 0.1 0.0576945 0 0 0 0 0 0.0136104 
trait 2 0.2 0 0.0210098 0.0202803 0.0336948 0 0 0.0346538 
trait 3 0.263249 0 0 0 0.00133847 0 0.0426411 0.00501003 
node 1 3 1 3
node 2 3 1 1
node 3 3 1 1
node 4 2 0 2
node 23 1 0 0
node 55 1 0 0
node 61 1 0 0
gene 2 1 4 2.45752 0 1 2.45752 1
gene 3 2 4 1.54008 0 2 1.54008 0
gene 1 3 4 -4.58077 0 3 -4.58077 1
gene 3 2 23 -1.21315 0 40 -1.21315 1
gene 3 23 4 3.16232 0 41 3.16232 1
gene 2 3 23 1.38575 0 44 1.38575 0
gene 1 3 55 2.34731 0 117 2.34731 1
gene 1 55 4 4.00149 0 118 4.00149 1
gene 1 2 55 -3.83114 0 125 -3.83114 1
gene 2 3 61 -0.623247 0 137 -0.623247 1
gene 2 61 23 -0.931196 0 138 -0.931196 1
gene 2 1 23 -0.907954 0 144 -0.907954 1
gene 1 2 61 0.546561 0 228 0.546561 1
genomeend 96

/* Species #10 : (Size 13) (AF 11.54) (Age 11)  */


/* Organism #97 Fitness: 15.9969 Error: 0.000393127 */
genomestart 97
trait 1 0.1 0.0540886 0.033849 0.0622569 0.0123676 0.0104437 0 0.0127597 
trait 2 0.143989 0.393233 0.396842 0.0101402 0.459931 0 0.382566 0.394902 
trait 3 0.286753 0 0 0 0.00145798 0 0.0464483 0.00501003 
node 1 3 1 3
node 2 3 1 1
node 3 3 1 1
node 4 2 0 2
node 23 1 0 0
node 62 1 0 0
gene 2 1 4 7.41558 0 1 7.41558 1
gene 3 2 4 -2.62921 0 2 -2.62921 1
gene 1 3 4 -3.55247 0 3 -3.55247 1
gene 3 2 23 2.38924 0 40 2.38924 1
gene 3 23 4 -3.47757 0 41 -3.01983 1
gene 1 1 23 0.299856 0 78 0.299856 1
gene 2 3 23 -0.230807 0 130 0 0
gene 2 3 62 1 0 139 0 1
gene 2 62 23 -0.230807 0 140 0 1
gene 1 62 4 0.539607 0 152 0.539607 1
gene 1 1 62 0.381605 0 173 0.381605 1
genomeend 97

/* Organism #98 Fitness: 15.2636 Error: 0.0931293 */
genomestart 98
trait 1 0.1 0.0540886 0.033849 0.0622569 0.0123676 0.0104437 0 0.0127597 
trait 2 0.143989 0.393233 0.396842 0.00507008 0.229966 0.298577 0.382566 0.394902 
trait 3 0.286753 0 0 0 0.00145798 0 0.0464483 0.00501003 
node 1 3 1 3
node 2 3 1 1
node 3 3 1 1
node 4 2 0 2
node 23 1 0 0
node 62 1 0 0
gene 2 1 4 6.94306 0 1 6.94306 1
gene 3 2 4 -2.80819 0 2 -2.80819 1
gene 1 3 4 -1.37966 0 3 -1.37966 1
gene 3 2 23 0.258462 0 40 0.258462 1
gene 3 23 4 -4.43607 0 41 -4.43607 1
gene 1 1 23 2.48353 0 78 2.48353 1
gene 2 3 23 -0.636203 0 130 -0.636203 0
gene 2 3 62 1.09795 0 139 1.09795 1
gene 2 62 23 0.293604 0 140 0.293604 1
gene 1 62 4 1.18619 0 152 1.18619 1
gene 1 1 62 3.14043 0 173 3.14043 1
genomeend 98

/* Organism #99 Fitness: 4 Error: 2 */
genomestart 99
trait 1 0.05 0.103009 0.32829 0.34337 0.0123676 0.0104437 0 0.354319 
trait 2 0.143989 0.393233 0.396842 0.0101402 0.459931 0 0.382566 0.394902 
trait 3 0.286753 0 0 0 0.00145798 0 0.0464483 0.00501003 
node 1 3 1 3
node 2 3 1 1
node 3 3 1 1
node 4 2 0 2
node 23 1 0 0
node 62 1 0 0
gene 2 1 4 8 0 1 8 1
gene 3 2 4 0.868426 0 2 0.868426 1
gene 1 3 4 -3.55247 0 3 -3.55247 1
gene 3 2 23 -0.845795 0 40 -0.845795 0
gene 1 23 4 -1.61755 0 41 -1.61755 1
gene 1 1 23 -1.48553 0 78 -1.48553 1
gene 2 3 23 -0.710312 0 130 -0.710312 0
gene 2 3 62 1.23911 0 139 1.23911 1
gene 2 62 23 -2.07249 0 140 -2.07249 1
gene 1 62 4 0.604656 0 152 0.604656 1
gene 1 1 62 -2.98347 0 173 -2.98347 1
genomeend 99

/* Organism #100 Fitness: 15.8791 Error: 0.0151445 */
genomestart 100
trait 1 0.1 0.0540886 0.033849 0.0622569 0.0123676 0.0104437 0 0.0127597 
trait 2 0.143989 0.393233 0.396842 0 0 0.597153 0.382566 0.394902 
trait 3 0.286753 0 0 0 0.00145798 0 0.0464483 0.00501003 
node 1 3 1 3
node 2 3 1 1
node 3 3 1 1
node 4 2 0 2
node 23 1 0 0
node 62 1 0 0
gene 2 1 4 6.33701 0 1 6.33701 1
gene 3 2 4 -3.76401 0 2 -3.76401 1
gene 1 3 4 -7.75946 0 3 -7.75946 1
gene 3 2 23 2.46136 0 40 2.46136 1
gene 3 23 4 -1.24933 0 41 -1.24933 1
gene 1 1 23 1.27384 0 78 1.27384 1
gene 2 3 23 -1.3303 0 130 -1.3303 0
gene 2 3 62 4.30237 0 139 4.30237 1
gene 1 62 23 -2.56086 0 140 -2.56086 1
gene 1 62 4 2.27247 0 152 2.27247 1
gene 1 1 62 3.14043 0 173 3.14043 1
genomeend 100

/* Organism #101 Fitness: 15.9988 Error: 0.000147683 */
genomestart 101
trait 1 0.1 0.0540886 0.033849 0.0622569 0.0123676 0.0104437 0 0.0127597 
trait 2 0.143989 0.393233 0.396842 0.0101402 0.459931 0 0.382566 0.394902 
trait 3 0.286753 0 0 0 0.00145798 0 0.0464483 0.00501003 
node 1 3 1 3
node 2 3 1 1
node 3 3 1 1
node 4 2 0 2
node 23 1 0 0
node 62 1 0 0
gene 2 1 4 8 0 1 8 1
gene 3 2 4 -0.613773 0 2 -0.613773 1
gene 1 3 4 -4.00725 0 3 -4.00725 1
gene 3 2 23 3.78926 0 40 3.78926 1
gene 3 23 4 -5.25936 0 41 -5.25936 1
gene 1 1 23 -1.70917 0 78 -1.70917 1
gene 2 3 23 -0.620559 0 130 -0.620559 0
gene 2 3 62 0.799132 0 139 0.799132 1
gene 2 62 23 0.726045 0 140 0.726045 1
gene 1 62 4 0.0673233 0 152 0.0673233 1
gene 1 1 62 -0.632979 0 173 -0.632979 1
genomeend 101

/* Organism #102 Fitness: 9.00663 Error: 0.998895 */
genomestart 102
trait 1 0.1 0.0540886 0.033849 0.0622569 0.0123676 0.0104437 0 0.0127597 
trait 2 0.143989 0.393233 0.396842 0.00507008 0.229966 0.298577 0.382566 0.394902 
trait 3 0.286753 0 0 0 0.00145798 0.682944 0.291782 0.53444 
node 1 3 1 3
node 2 3 1 1
node 3 3 1 1
node 4 2 0 2
node 23 1 0 0
node 62 1 0 0
gene 2 1 4 8 0 1 8 1
gene 3 2 4 -1.28057 0 2 -1.28057 1
gene 1 3 4 -5.03641 0 3 -5.03641 1
gene 3 2 23 0.185461 0 40 0.185461 1
gene 3 23 4 -2.40997 0 41 -2.40997 1
gene 1 1 23 0.831927 0 78 0.831927 1
gene 2 3 23 -2.57385 0 130 -2.57385 0
gene 2 3 62 -0.869686 0 139 -0.869686 1
gene 2 62 23 1.75487 0 140 1.75487 1
gene 1 62 4 -1.94744 0 152 -1.94744 1
gene 1 1 62 1.8769 0 173 1.8769 1
genomeend 102

/* Organism #103 Fitness: 1 Error: 3 */
genomestart 103
trait 1 0.1 0.0540886 0.033849 0.0622569 0.0123676 0.0104437 0 0.0127597 
trait 2 0.143989 0.393233 0.396842 0.0101402 0.459931 0 0.382566 0.394902 
trait 3 0.286753 0 0 0 0.00145798 0 0.0464483 0.00501003 
node 1 3 1 3
node 2 3 1 1
node 3 3 1 1
node 4 2 0 2
node 23 1 0 0
node 62 1 0 0
gene 2 1 4 -1.16439 0 1 -1.16439 1
gene 3 2 4 -4.91138 0 2 -4.91138 1
gene 1 3 4 1.32925 0 3 1.32925 1
gene 3 2 23 2.38597 0 40 2.38597 1
gene 3 23 4 -3.00339 0 41 -3.00339 1
gene 1 1 23 1.22634 0 78 1.22634 1
gene 2 3 23 -0.921413 0 130 -0.921413 0
gene 2 3 62 1 0 139 1 1
gene 2 62 23 0.566187 0 140 0.566187 1
gene 1 62 4 -1.33918 0 152 -1.33918 1
gene 1 1 62 -1.40699 0 173 -1.40699 1
genomeend 103

/* Organism #104 Fitness: 15.4072 Error: 0.0747994 */
genomestart 104
trait 1 0.1 0.0540886 0.033849 0.0622569 0.0123676 0.0104437 0 0.0127597 
trait 2 0.143989 0.393233 0.396842 0 0 0.597153 0.382566 0.394902 
trait 3 0.286753 0 0 0 0.00145798 0 0.0464483 0.00501003 
node 1 3 1 3
node 2 3 1 1
node 3 3 1 1
node 4 2 0 2
node 23 1 0 0
node 62 1 0 0
gene 2 1 4 6.16501 0 1 6.16501 1
gene 3 2 4 -6.2541 0 2 -6.2541 1
gene 1 3 4 -7.54291 0 3 -7.54291 1
gene 3 2 23 0.444238 0 40 0.444238 1
gene 3 23 4 -2.01066 0 41 -2.01066 1
gene 1 1 23 0.209896 0 78 0.209896 1
gene 2 3 23 0.751499 0 130 0.751499 0
gene 2 3 62 5.80318 0 139 5.80318 1
gene 1 62 23 -1.97296 0 140 -1.97296 1
gene 1 62 4 1.88944 0 152 1.88944 1
gene 1 1 62 3.99596 0 173 3.99596 1
genomeend 104

/* Organism #105 Fitness: 9 Error: 1 */
genomestart 105
trait 1 0.1 0.0540886 0.033849 0.0622569 0.0123676 0.0104437 0 0.0127597 
trait 2 0.143989 0.393233 0.396842 0.0101402 0.459931 0 0.382566 0.394902 
trait 3 0.286753 0 0 0 0.00145798 0 0.0464483 0.00501003 
node 1 3 1 3
node 2 3 1 1
node 3 3 1 1
node 4 2 0 2
node 23 1 0 0
node 62 1 0 0
gene 2 1 4 8 0 1 8 1
gene 3 2 4 -0.923607 0 2 -0.923607 1
gene 1 3 4 -1.90325 0 3 -1.90325 1
gene 3 2 23 2.38924 0 40 2.38924 1
gene 3 23 4 0.409905 0 41 0.409905 1
gene 1 1 23 2.34369 0 78 2.34369 1
gene 2 3 23 -0.230807 0 130 -0.230807 0
gene 2 3 62 0.566546 0 139 0.566546 1
gene 2 62 23 1.18082 0 140 1.18082 1
gene 1 62 4 1.67121 0 152 1.67121 1
gene 1 1 62 2.76637 0 173 2.76637 1
genomeend 105

/* Organism #106 Fitness: 1.00022 Error: 2.99989 */
genomestart 106
trait 1 0.1 0.0540886 0.033849 0.0622569 0.0123676 0.0104437 0 0.0127597 
trait 2 0.143989 0.393233 0.396842 0.0101402 0.459931 0 0.382566 0.394902 
trait 3 0.286753 0 0 0 0.00145798 0 0.0464483 0.00501003 
node 1 3 1 3
node 2 3 1 1
node 3 3 1 1
node 4 2 0 2
node 23 1 0 0
node 62 1 0 0
gene 2 1 4 1.29154 0 1 1.29154 1
gene 3 2 4 -3.51335 0 2 -3.51335 1
gene 1 3 4 -2.42186 0 3 -2.42186 1
gene 3 2 23 1.72416 0 40 1.72416 1
gene 3 23 4 -5.17057 0 41 -5.17057 1
gene 1 1 23 -0.962423 0 78 -0.962423 1
gene 2 3 23 2.03514 0 130 2.03514 0
gene 2 3 62 -0.275067 0 139 -0.275067 1
gene 2 62 23 2.2026 0 140 2.2026 1
gene 1 62 4 2.02186 0 152 2.02186 1
gene 1 1 62 1.32261 0 173 1.32261 1
genomeend 106

/* Organism #107 Fitness: 15.8849 Error: 0.0144138 */
genomestart 107
trait 1 0.05 0.103009 0.32829 0.34337 0.0123676 0.0104437 0 0.354319 
trait 2 0.143989 0.393233 0.396842 0.0101402 0.459931 0 0.382566 0.394902 
trait 3 0.286753 0 0 0 0.00145798 0 0.0464483 0.00501003 
node 1 3 1 3
node 2 3 1 1
node 3 3 1 1
node 4 2 0 2
node 23 1 0 0
node 62 1 0 0
gene 2 1 4 7.42041 0 1 7.42041 1
gene 3 2 4 -1.44059 0 2 -1.44059 1
gene 1 3 4 -5.00314 0 3 -5.00314 1
gene 3 2 23 2.2218 0 40 2.2218 1
gene 3 23 4 -2.02891 0 41 -2.02891 1
gene 1 1 23 -0.428503 0 78 -0.428503 1
gene 2 3 23 -1.80362 0 130 -1.80362 1
gene 2 3 62 1.22265 0 139 1.22265 1
gene 2 62 23 0.806045 0 140 0.806045 1
gene 1 62 4 -2.15605 0 152 -2.15605 1
gene 1 1 62 -1.49474 0 173 -1.49474 1
genomeend 107

/* Organism #108 Fitness: 15.9969 Error: 0.000393127 */
genomestart 108
trait 1 0.1 0.0540886 0.033849 0.0622569 0.0123676 0.0104437 0 0.0127597 
trait 2 0.143989 0.393233 0.396842 0.0101402 0.459931 0 0.382566 0.394902 
trait 3 0.286753 0 0 0 0.00145798 0 0.0464483 0.00501003 
node 1 3 1 3
node 2 3 1 1
node 3 3 1 1
node 4 2 0 2
node 23 1 0 0
node 62 1 0 0
gene 2 1 4 7.41558 0 1 7.41558 1
gene 3 2 4 -2.62921 0 2 -2.62921 1
gene 1 3 4 -3.55247 0 3 -3.55247 1
gene 3 2 23 2.38924 0 40 2.38924 1
gene 3 23 4 -3.47757 0 41 -3.01983 1
gene 1 1 23 0.299856 0 78 0.299856 1
gene 2 3 23 -0.230807 0 130 0 0
gene 2 3 62 1 0 139 0 1
gene 2 62 23 -0.230807 0 140 0 1
gene 1 62 4 0.539607 0 152 0.539607 1
gene 1 1 62 0.381605 0 173 0.381605 1
genomeend 108

/* Organism #109 Fitness: 15.5864 Error: 0.0520432 */
genomestart 109
trait 1 0.05 0.103009 0.32829 0.34337 0.0123676 0.0104437 0 0.354319 
trait 2 0.143989 0.393233 0.396842 0.00507008 0.229966 0.298577 0.382566 0.394902 
trait 3 0.286753 0 0 0 0.00145798 0 0.0464483 0.00501003 
node 1 3 1 3
node 2 3 1 1
node 3 2 1 1
node 4 2 0 2
node 23 1 0 0
node 62 1 0 0
gene 2 1 4 6.06823 0 1 6.06823 1
gene 3 2 4 -2.95916 0 2 -2.95916 1
gene 1 3 4 -6.34511 0 3 -6.34511 1
gene 3 2 23 0.383167 0 40 0.383167 0
gene 1 23 4 -1.26433 0 41 -1.26433 1
gene 1 1 23 -0.14526 0 78 -0.14526 1
gene 2 3 23 -0.864112 0 130 -0.864112 0
gene 2 3 62 2.46792 0 139 2.46792 1
gene 2 62 23 2.21289 0 140 2.21289 1
gene 1 62 4 2.17414 0 152 2.17414 1
gene 1 1 62 -1.67801 0 173 -1.67801 1
genomeend 109

/* Species #11 : (Size 12) (AF 13.8596) (Age 6)  */


/* Organism #110 Fitness: 15.9958 Error: 0.000519094 */
genomestart 110
trait 1 0.1 0.0540886 0.033849 0.0622569 0.0123676 0.0104437 0 0.0127597 
trait 2 0.143989 0.393233 0.396842 0.0101402 0.459931 0 0.382566 0.394902 
trait 3 0.286753 0 0 0 0.00145798 0 0.0464483 0.00501003 
node 1 3 1 3
node 2 3 1 1
node 3 3 1 1
node 4 2 0 2
node 23 1 0 0
node 62 1 0 0
gene 2 1 4 7.41558 0 1 7.41558 1
gene 3 2 4 -2.62921 0 2 -2.62921 1
gene 1 3 4 -3.55247 0 3 -3.55247 1
gene 3 2 23 2.38924 0 40 2.38924 1
gene 3 23 4 -3.47757 0 41 -3.01983 1
gene 1 1 23 0.299856 0 78 0.299856 1
gene 2 3 23 -0.230807 0 130 0 0
gene 2 3 62 1 0 139 0 1
gene 2 62 23 -0.230807 0 140 0 1
gene 1 62 4 0.539607 0 152 0.539607 1
gene 1 2 62 0.00449287 0 166 0.00449287 1
gene 3 1 62 0.116996 0 184 0.116996 1
genomeend 110

/* Organism #111 Fitness: 15.9958 Error: 0.000519094 */
genomestart 111
trait 1 0.1 0.0540886 0.033849 0.0622569 0.0123676 0.0104437 0 0.0127597 
trait 2 0.143989 0.393233 0.396842 0.0101402 0.459931 0 0.382566 0.394902 
trait 3 0.286753 0 0 0 0.00145798 0 0.0464483 0.00501003 
node 1 3 1 3
node 2 3 1 1
node 3 3 1 1
node 4 2 0 2
node 23 1 0 0
node 62 1 0 0
gene 2 1 4 7.41558 0 1 7.41558 1
gene 3 2 4 -2.62921 0 2 -2.62921 1
gene 1 3 4 -3.55247 0 3 -3.55247 1
gene 3 2 23 2.38924 0 40 2.38924 1
gene 3 23 4 -3.47757 0 41 -3.01983 1
gene 1 1 23 0.299856 0 78 0.299856 1
gene 2 3 23 -0.230807 0 130 0 0
gene 2 3 62 1 0 139 0 1
gene 2 62 23 -0.230807 0 140 0 1
gene 1 62 4 0.539607 0 152 0.539607 1
gene 1 2 62 0.00449287 0 166 0.00449287 1
gene 3 1 62 0.116996 0 184 0.116996 1
genomeend 111

/* Organism #112 Fitness: 11.1187 Error: 0.665533 */
genomestart 112
trait 1 0.1 0.0540886 0.033849 0.0622569 0.0123676 0.0104437 0 0.0127597 
trait 2 0.143989 0.393233 0.396842 0.0101402 0.459931 0 0.382566 0.394902 
trait 3 0.286753 0 0 0 0.00145798 0 0.0464483 0.00501003 
node 1 3 1 3
node 2 3 1 1
node 3 3 1 1
node 4 2 0 2
node 23 1 0 0
node 62 1 0 0
gene 2 1 4 8 0 1 8 1
gene 3 2 4 -3.93953 0 2 -3.93953 1
gene 1 3 4 -6.16691 0 3 -6.16691 1
gene 3 2 23 3.29819 0 40 3.29819 1
gene 3 23 4 -7.8122 0 41 -7.8122 1
gene 1 1 23 -3.75372 0 78 -3.75372 1
gene 2 3 23 2.79497 0 130 2.79497 0
gene 2 3 62 -0.680768 0 139 -0.680768 1
gene 2 62 23 2.41045 0 140 2.41045 1
gene 1 62 4 3.61498 0 152 3.61498 1
gene 1 2 62 1.29442 0 166 1.29442 1
gene 3 1 62 0.116996 0 184 0.116996 1
genomeend 112

/* Organism #113 Fitness: 15.6809 Error: 0.0400867 */
genomestart 113
trait 1 0.1 0.0540886 0.033849 0.0622569 0.0123676 0.0104437 0 0.0127597 
trait 2 0.143989 0.393233 0.396842 0.0101402 0.459931 0 0.382566 0.394902 
trait 3 0.286753 0 0 0 0.00145798 0 0.0464483 0.00501003 
node 1 3 1 3
node 2 3 1 1
node 3 3 1 1
node 4 2 0 2
node 23 1 0 0
node 62 1 0 0
gene 2 1 4 7.41558 0 1 7.41558 1
gene 3 2 4 -1.76182 0 2 -1.76182 1
gene 1 3 4 -3.38449 0 3 -3.38449 1
gene 3 2 23 2.16334 0 40 2.16334 1
gene 3 23 4 -3.06475 0 41 -3.06475 1
gene 1 1 23 -1.64402 0 78 -1.64402 1
gene 2 3 23 0.362232 0 130 0.362232 0
gene 2 3 62 0.225005 0 139 0.225005 1
gene 2 62 23 -0.0756132 0 140 -0.0756132 1
gene 1 62 4 -0.159329 0 152 -0.159329 1
gene 1 2 62 2.18741 0 166 2.18741 1
gene 3 1 62 1.1233 0 184 1.1233 1
genomeend 113

/* Organism #114 Fitness: 14.5732 Error: 0.182514 */
genomestart 114
trait 1 0.1 0.0540886 0.033849 0.0622569 0.0123676 0.0104437 0 0.0127597 
trait 2 0.143989 0.393233 0.396842 0.0101402 0.459931 0 0.382566 0.394902 
trait 3 0.286753 0 0 0 0.209769 0 0.0464483 0.00501003 
node 1 3 1 3
node 2 3 1 1
node 3 3 1 1
node 4 2 0 2
node 23 2 0 0
node 62 1 0 0
gene 3 1 4 7.64254 0 1 7.64254 1
gene 3 2 4 -2.33345 0 2 -2.33345 1
gene 1 3 4 -6.28973 0 3 -6.28973 1
gene 3 2 23 2.91393 0 40 2.91393 1
gene 3 23 4 0.287127 0 41 0.287127 1
gene 1 1 23 -1.69245 0 78 -1.69245 1
gene 2 3 23 -0.895837 0 130 -0.895837 1
gene 2 3 62 2.66888 0 139 2.66888 1
gene 2 62 23 -0.535881 0 140 -0.535881 1
gene 1 62 4 0.600816 0 152 0.600816 1
gene 1 2 62 2.12786 0 166 2.12786 1
gene 3 1 62 -0.988344 0 184 -0.988344 1
genomeend 114

/* Organism #115 Fitness: 15.9578 Error: 0.00527983 */
genomestart 115
trait 1 0.1 0.0540886 0.033849 0.0622569 0.0123676 0.0104437 0 0.0127597 
trait 2 0.143989 0.393233 0.396842 0.0101402 0.459931 0 0.382566 0.394902 
trait 3 0.286753 0 0 0 0.418079 0 0.0464483 0.00501003 
node 1 3 1 3
node 2 3 1 1
node 3 3 1 1
node 4 2 0 2
node 23 1 0 0
node 62 1 0 0
gene 2 1 4 6.45839 0 1 6.45839 1
gene 3 2 4 -2.10197 0 2 -2.10197 1
gene 1 3 4 -3.99902 0 3 -3.99902 1
gene 3 2 23 2.27709 0 40 2.27709 1
gene 3 23 4 -3.29255 0 41 -3.06368 1
gene 1 1 23 0.248077 0 78 0.248077 1
gene 2 3 23 -1.17578 0 130 -1.06038 0
gene 2 3 62 1.35719 0 139 0.857187 1
gene 2 62 23 -1.45443 0 140 -1.33903 1
gene 1 62 4 1.62251 0 152 1.62251 1
gene 1 2 62 -0.274957 0 166 -0.274957 1
gene 3 1 62 -0.951182 0 184 -0.951182 1
genomeend 115

/* Organism #116 Fitness: 15.9976 Error: 0.000296824 */
genomestart 116
trait 1 0.1 0.0540886 0.033849 0.0622569 0.0123676 0.0104437 0 0.0127597 
trait 2 0.143989 0.393233 0.396842 0.0101402 0.459931 0 0.382566 0.394902 
trait 3 0.286753 0 0 0 0.209769 0 0.0464483 0.00501003 
node 1 3 1 3
node 2 3 1 1
node 3 3 1 1
node 4 2 0 2
node 23 1 0 0
node 62 1 0 0
gene 2 1 4 8 0 1 8 1
gene 3 2 4 -1.57473 0 2 -1.57473 1
gene 1 3 4 -4.98808 0 3 -4.98808 1
gene 3 2 23 4.15363 0 40 4.15363 1
gene 3 23 4 -3.10753 0 41 -3.10753 1
gene 1 1 23 0.196298 0 78 0.196298 1
gene 2 3 23 -2.12076 0 130 -2.12076 0
gene 2 3 62 1.71437 0 139 1.71437 1
gene 2 62 23 -2.67806 0 140 -2.67806 1
gene 1 62 4 1.36212 0 152 1.36212 1
gene 1 2 62 -0.554407 0 166 -0.554407 1
gene 3 1 62 -2.01936 0 184 -2.01936 1
genomeend 116

/* Organism #117 Fitness: 8.8625 Error: 1.023 */
genomestart 117
trait 1 0.1 0.0540886 0.033849 0.0622569 0.0123676 0.0104437 0 0.0127597 
trait 2 0.143989 0.393233 0.396842 0.0101402 0.459931 0 0.382566 0.394902 
trait 3 0.286753 0 0 0 0.00145798 0 0.0464483 0.00501003 
node 1 3 1 3
node 2 3 1 1
node 3 3 1 1
node 4 2 0 2
node 23 1 0 0
node 62 1 0 0
gene 2 1 4 5.51969 0 1 5.51969 1
gene 3 2 4 -3.99802 0 2 -3.99802 1
gene 1 3 4 -4.75462 0 3 -4.75462 1
gene 3 2 23 3.85799 0 40 3.85799 1
gene 3 23 4 -4.52513 0 41 -4.52513 1
gene 1 1 23 -2.18763 0 78 -2.18763 1
gene 2 3 23 0.748816 0 130 0.748816 1
gene 2 3 62 -0.261815 0 139 -0.261815 1
gene 2 62 23 1.84056 0 140 1.84056 1
gene 1 62 4 0.524712 0 152 0.524712 1
gene 1 2 62 1.13131 0 166 1.13131 1
gene 3 1 62 -2.31509 0 184 -2.31509 1
genomeend 117

/* Organism #118 Fitness: 15.9817 Error: 0.00229031 */
genomestart 118
trait 1 0.1 0.0540886 0.033849 0.0622569 0.0123676 0.0104437 0 0.0127597 
trait 2 0.143989 0.393233 0.396842 0.0101402 0.459931 0 0.382566 0.394902 
trait 3 0.286753 0 0 0 0.00145798 0 0.0464483 0.00501003 
node 1 3 1 3
node 2 3 1 1
node 3 3 1 1
node 4 2 0 2
node 23 1 0 0
node 62 1 0 0
gene 2 1 4 8 0 1 8 1
gene 3 2 4 -5.33216 0 2 -5.33216 1
gene 1 3 4 -4.74928 0 3 -4.74928 1
gene 3 2 23 2.98099 0 40 2.98099 1
gene 3 23 4 -1.15122 0 41 -1.15122 1
gene 1 1 23 2.19282 0 78 2.19282 1
gene 2 3 23 1.55617 0 130 1.55617 0
gene 2 3 62 3.13996 0 139 3.13996 1
gene 2 62 23 1.58101 0 140 1.58101 1
gene 1 62 4 1.99862 0 152 1.99862 1
gene 1 2 62 1.83331 0 166 1.83331 1
gene 3 1 62 0.575395 0 184 0.575395 1
genomeend 118

/* Organism #119 Fitness: 9.78482 Error: 0.87193 */
genomestart 119
trait 1 0.1 0.0540886 0.033849 0.0622569 0.0123676 0.0104437 0 0.0127597 
trait 2 0.143989 0.393233 0.396842 0.0101402 0.459931 0 0.382566 0.394902 
trait 3 0.286753 0 0 0 0.418079 0 0.0464483 0.00501003 
node 1 3 1 3
node 2 3 1 1
node 3 3 1 1
node 4 2 0 2
node 23 1 0 0
node 62 1 0 0
gene 2 1 4 8 0 1 8 1
gene 3 2 4 -2.62921 0 2 -2.62921 1
gene 1 3 4 -4.50122 0 3 -4.50122 1
gene 3 2 23 0.759732 0 40 0.759732 1
gene 3 23 4 -5.32226 0 41 -5.32226 1
gene 1 1 23 0.133414 0 78 0.133414 1
gene 2 3 23 -0.230807 0 130 -0.230807 0
gene 2 3 62 -0.819167 0 139 -0.819167 1
gene 2 62 23 -0.230807 0 140 -0.230807 1
gene 1 62 4 0.921267 0 152 0.921267 1
gene 1 2 62 -0.50625 0 166 -0.50625 1
gene 3 1 62 -1.89867 0 184 -1.89867 1
genomeend 119

/* Organism #120 Fitness: 10.4614 Error: 0.765588 */
genomestart 120
trait 1 0.1 0.0540886 0.033849 0.0622569 0.0123676 0.0104437 0 0.0127597 
trait 2 0.143989 0.393233 0.396842 0.0101402 0.459931 0 0.382566 0.394902 
trait 3 0.286753 0 0 0 0.00145798 0 0.0464483 0.00501003 
node 1 3 1 3
node 2 3 1 1
node 3 3 1 1
node 4 2 0 2
node 23 1 0 0
node 62 1 0 0
gene 2 1 4 5.73025 0 1 5.73025 1
gene 3 2 4 -2.61474 0 2 -2.61474 1
gene 1 3 4 -4.83454 0 3 -4.83454 1
gene 3 2 23 2.78426 0 40 2.78426 1
gene 3 23 4 -1.01548 0 41 -1.01548 1
gene 1 1 23 1.98191 0 78 1.98191 1
gene 2 3 23 0.980091 0 130 0.980091 0
gene 2 3 62 2.9746 0 139 2.9746 1
gene 2 62 23 -0.276656 0 140 -0.276656 1
gene 1 62 4 -0.121069 0 152 -0.121069 1
gene 1 2 62 -1.94274 0 166 -1.94274 1
gene 3 1 62 -1.74534 0 184 -1.74534 1
genomeend 120

/* Organism #121 Fitness: 15.905 Error: 0.0118982 */
genomestart 121
trait 1 0.1 0.0540886 0.033849 0.0622569 0.0123676 0.0104437 0 0.0127597 
trait 2 0.143989 0.393233 0.396842 0.0101402 0.459931 0 0.382566 0.394902 
trait 3 0.286753 0 0 0 0.00145798 0 0.0464483 0.00501003 
node 1 3 1 3
node 2 3 1 1
node 3 3 1 1
node 4 2 0 2
node 23 1 0 0
node 62 1 0 0
gene 2 1 4 7.70779 0 1 7.70779 1
gene 3 2 4 -3.23406 0 2 -3.23406 1
gene 1 3 4 -4.27028 0 3 -4.27028 1
gene 3 2 23 3.27144 0 40 3.27144 1
gene 3 23 4 -4.52513 0 41 -4.29626 1
gene 1 1 23 -0.774607 0 78 -0.774607 1
gene 2 3 23 0.445233 0 130 0.560636 0
gene 2 3 62 0.159616 0 139 -0.340384 1
gene 2 62 23 -0.14457 0 140 -0.0291666 1
gene 1 62 4 0.950866 0 152 0.950866 1
gene 1 2 62 1.13131 0 166 1.13131 1
gene 3 1 62 0.116996 0 184 0.116996 1
genomeend 121

/* Species #12 : (Size 9) (AF 7.48186) (Age 2)  */


/* Organism #122 Fitness: 4 Error: 2 */
genomestart 122
trait 1 0.0815073 0 0.167149 0.725735 0.2542 0 0.59374 0.831942 
trait 2 0.2 0 0.0430417 0.00887263 0.0918419 0 0 0.46423 
trait 3 0.290573 0 0.00143787 0 0.00360311 0.00287801 0.0334238 0.00360096 
node 1 3 1 3
node 2 3 1 1
node 3 3 1 1
node 4 1 0 2
node 23 1 0 0
node 79 1 0 0
gene 2 1 4 3.52034 0 1 3.52034 1
gene 3 2 4 2.03403 0 2 2.03403 1
gene 1 3 4 0.43131 0 3 0.43131 1
gene 3 2 23 -0.724564 0 40 -0.724564 1
gene 3 23 4 2.94693 0 41 2.94693 1
gene 3 3 23 4.86303 0 44 4.86303 1
gene 3 1 23 0.761348 0 106 0.761348 1
gene 3 23 79 1.12772 0 200 1.12772 1
gene 3 79 4 -2.4007 0 201 -2.4007 1
genomeend 122

/* Organism #123 Fitness: 4 Error: 2 */
genomestart 123
trait 1 0.0815073 0 0.167149 0.725735 0.2542 0 0.59374 0.831942 
trait 2 0.2 0 0.0430417 0.00887263 0.0918419 0 0 0.46423 
trait 3 0.290573 0 0.00143787 0 0.00360311 0.00287801 0.0334238 0.00360096 
node 1 3 1 3
node 2 3 1 1
node 3 3 1 1
node 4 1 0 2
node 23 1 0 0
node 79 1 0 0
gene 2 1 4 6.41893 0 1 6.41893 1
gene 3 2 4 3.93823 0 2 3.93823 1
gene 1 3 4 -8 0 3 -8 1
gene 3 2 23 -0.691154 0 40 -0.691154 1
gene 3 23 4 3.72104 0 41 3.72104 1
gene 3 3 23 2.59654 0 44 2.59654 1
gene 3 1 23 2.48424 0 106 2.48424 1
gene 3 23 79 1.4928 0 200 1.4928 1
gene 3 79 4 2.78409 0 201 2.78409 1
genomeend 123

/* Organism #124 Fitness: 3.05576 Error: 2.25193 */
genomestart 124
trait 1 0.0815073 0 0.167149 0.725735 0.2542 0 0.59374 0.831942 
trait 2 0.2 0 0.0430417 0.00887263 0.0918419 0 0 0.46423 
trait 3 0.290573 0 0.00143787 0 0.00360311 0.00287801 0.0334238 0.00360096 
node 1 3 1 3
node 2 3 1 1
node 3 3 1 1
node 4 1 0 2
node 23 1 0 0
node 79 1 0 0
gene 2 1 4 4.97338 0 1 4.97338 1
gene 3 2 4 3.84557 0 2 3.84557 1
gene 1 3 4 -6.95481 0 3 -6.95481 1
gene 3 2 23 -0.0867882 0 40 -0.0867882 1
gene 3 23 4 2.85439 0 41 2.85439 1
gene 3 3 23 2.22903 0 44 2.22903 1
gene 3 1 23 3.2594 0 106 3.2594 1
gene 3 23 79 1.05725 0 200 1.05725 1
gene 3 79 4 -0.655523 0 201 -0.655523 1
genomeend 124

/* Organism #125 Fitness: 4 Error: 2 */
genomestart 125
trait 1 0.0815073 0 0.167149 0.725735 0.2542 0 0.59374 0.831942 
trait 2 0.2 0 0.0430417 0.00887263 0.0918419 0 0 0.46423 
trait 3 0.290573 0 0.00143787 0 0.00360311 0.00287801 0.0334238 0.00360096 
node 1 3 1 3
node 2 3 1 1
node 3 3 1 1
node 4 1 0 2
node 23 1 0 0
node 79 1 0 0
gene 2 1 4 5.81972 0 1 5.81972 1
gene 3 2 4 3.93015 0 2 3.93015 1
gene 1 3 4 -0.837667 0 3 -0.837667 1
gene 3 2 23 -0.310061 0 40 -0.310061 1
gene 3 23 4 1.164 0 41 1.164 1
gene 3 3 23 0.520509 0 44 0.520509 1
gene 3 1 23 1.78402 0 106 1.78402 1
gene 3 23 79 -0.535672 0 200 -0.535672 1
gene 3 79 4 1.96489 0 201 1.96489 1
genomeend 125

/* Organism #126 Fitness: 3.99725 Error: 2.00069 */
genomestart 126
trait 1 0.0815073 0.0446231 0.167149 0 0.153012 0 0 0.041683 
trait 2 0.2 0 0.0430417 0.00887263 0.0918419 0 0 0.46423 
trait 3 0.290573 0 0.00143787 0 0.00360311 0.00287801 0.0334238 0.00360096 
node 1 2 1 3
node 2 3 1 1
node 3 3 1 1
node 4 2 0 2
node 23 1 0 0
node 79 1 0 0
node 84 1 0 0
gene 2 1 4 -1.92229 0 1 -1.92229 1
gene 3 2 4 1.98062 0 2 1.98062 1
gene 1 3 4 -6.41181 0 3 -6.41181 1
gene 3 2 23 4.04388 0 40 4.04388 1
gene 3 23 4 5.89558 0 41 5.89558 0
gene 2 3 23 2.31815 0 44 2.31815 1
gene 3 1 23 0.109831 0 106 0.109831 1
gene 3 23 79 -0.248266 0 200 -0.248266 1
gene 3 79 4 2.32504 0 201 2.32504 1
gene 3 23 84 1.69466 0 215 1.69466 1
gene 3 84 4 4.34677 0 216 4.34677 1
genomeend 126

/* Organism #127 Fitness: 14.2873 Error: 0.220148 */
genomestart 127
trait 1 0.0815073 0.0446231 0.167149 0 0.153012 0 0 0.041683 
trait 2 0.2 0 0.0430417 0.00887263 0.0918419 0 0 0.46423 
trait 3 0.290573 0 0.00143787 0 0.00360311 0.00287801 0.0334238 0.00360096 
node 1 2 1 3
node 2 3 1 1
node 3 3 1 1
node 4 2 0 2
node 23 1 0 0
node 79 1 0 0
node 84 1 0 0
gene 2 1 4 3.75082 0 1 3.75082 1
gene 3 2 4 -5.42723 0 2 -5.42723 1
gene 1 3 4 -6.50479 0 3 -6.50479 1
gene 3 2 23 4.05694 0 40 4.05694 1
gene 3 23 4 4.83971 0 41 4.83971 0
gene 2 3 23 0.140939 0 44 0.140939 1
gene 3 1 23 0.278678 0 106 0.278678 1
gene 3 23 79 0.755717 0 200 0.755717 1
gene 3 79 4 3.69628 0 201 3.69628 1
gene 3 23 84 1 0 215 1 1
gene 1 84 4 4.34677 0 216 4.34677 1
genomeend 127

/* Organism #128 Fitness: 9 Error: 1 */
genomestart 128
trait 1 0.0815073 0.0446231 0.167149 0 0.153012 0 0 0.041683 
trait 2 0.2 0 0.0430417 0.00887263 0.0918419 0 0 0.46423 
trait 3 0.290573 0 0.00143787 0 0.00360311 0.00287801 0.0334238 0.00360096 
node 1 2 1 3
node 2 3 1 1
node 3 3 1 1
node 4 2 0 2
node 23 1 0 0
node 79 1 0 0
node 84 1 0 0
gene 2 1 4 4.59841 0 1 4.59841 1
gene 3 2 4 -3.35999 0 2 -3.35999 1
gene 1 3 4 -4.88894 0 3 -4.88894 1
gene 3 2 23 -0.489246 0 40 -0.489246 1
gene 3 23 4 0.365672 0 41 0.365672 0
gene 2 3 23 -0.478179 0 44 -0.478179 1
gene 3 1 23 1.8723 0 106 1.8723 1
gene 3 23 79 2.29491 0 200 2.29491 1
gene 3 79 4 4.26942 0 201 4.26942 1
gene 3 23 84 1.10006 0 215 1.10006 1
gene 3 84 4 6.82899 0 216 6.82899 1
genomeend 128

/* Organism #129 Fitness: 15.9964 Error: 0.000443916 */
genomestart 129
trait 1 0.0815073 0.0446231 0.167149 0 0.153012 0 0 0.041683 
trait 2 0.2 0 0.0430417 0.00887263 0.0918419 0 0 0.46423 
trait 3 0.290573 0 0.00143787 0 0.00360311 0.00287801 0.0334238 0.00360096 
node 1 2 1 3
node 2 3 1 1
node 3 3 1 1
node 4 2 0 2
node 23 1 0 0
node 79 1 0 0
node 84 1 0 0
gene 2 1 4 4.01009 0 1 4.01009 1
gene 3 2 4 -4.20168 0 2 -4.20168 1
gene 1 3 4 -5.05638 0 3 -5.05638 1
gene 3 2 23 4.43979 0 40 4.43979 1
gene 3 23 4 2.96994 0 41 2.96994 0
gene 2 3 23 -0.527083 0 44 -0.527083 1
gene 3 1 23 0.439359 0 106 0.439359 1
gene 3 23 79 -0.340956 0 200 -0.340956 1
gene 3 79 4 1.15862 0 201 1.15862 1
gene 3 23 84 1.58396 0 215 1.58396 1
gene 3 84 4 3.49879 0 216 3.49879 1
genomeend 129

/* Organism #130 Fitness: 9 Error: 1 */
genomestart 130
trait 1 0.0815073 0.0446231 0.167149 0 0.153012 0 0 0.041683 
trait 2 0.2 0 0.0430417 0.00887263 0.0918419 0 0 0.46423 
trait 3 0.290573 0 0.00143787 0 0.00360311 0.00287801 0.0334238 0.00360096 
node 1 2 1 3
node 2 3 1 1
node 3 3 1 1
node 4 2 0 2
node 23 1 0 0
node 79 1 0 0
node 84 1 0 0
gene 2 1 4 5.07378 0 1 5.07378 1
gene 3 2 4 -1.24312 0 2 -1.24312 1
gene 1 3 4 -8 0 3 -8 1
gene 3 2 23 0.020044 0 40 0.020044 1
gene 3 23 4 4.94667 0 41 4.94667 0
gene 2 3 23 0.333811 0 44 0.333811 1
gene 3 1 23 0.777485 0 106 0.777485 1
gene 3 23 79 3.46158 0 200 3.46158 1
gene 3 79 4 3.37893 0 201 3.37893 1
gene 3 23 84 1.58326 0 215 1.58326 1
gene 3 84 4 4.34677 0 216 4.34677 1
genomeend 130

/* Species #13 : (Size 15) (AF 10.8399) (Age 2)  */


/* Organism #131 Fitness: 15.3454 Error: 0.0826742 */
genomestart 131
trait 1 0.0815073 0.0446231 0.167149 0 0.153012 0 0 0.041683 
trait 2 0.2 0 0.0430417 0.00887263 0.0918419 0 0 0.46423 
trait 3 0.290573 0 0.00143787 0 0.00360311 0.00287801 0.0334238 0.00360096 
node 1 2 1 3
node 2 3 1 1
node 3 3 1 1
node 4 2 0 2
node 23 1 0 0
node 79 1 0 0
node 84 1 0 0
gene 2 1 4 4.96754 0 1 4.96754 1
gene 3 2 4 -5.74738 0 2 -5.74738 1
gene 1 3 4 -6.70189 0 3 -6.70189 1
gene 3 2 23 5.90039 0 40 5.90039 1
gene 3 23 4 4.34677 0 41 4.34677 0
gene 2 3 23 -0.458966 0 44 -0.458966 1
gene 3 1 23 -0.36705 0 106 -0.36705 1
gene 3 23 79 1 0 200 0 1
gene 3 79 4 2.69687 0 201 0 1
gene 3 23 84 1 0 215 0 1
gene 3 84 4 4.34677 0 216 0 1
genomeend 131

/* Organism #132 Fitness: 8.99998 Error: 1 */
genomestart 132
trait 1 0.0815073 0.0446231 0.167149 0 0.153012 0 0 0.041683 
trait 2 0.2 0 0.0430417 0.00887263 0.0918419 0 0 0.46423 
trait 3 0.290573 0 0.00143787 0 0.00360311 0.00287801 0.0334238 0.00360096 
node 1 2 1 3
node 2 3 1 1
node 3 3 1 1
node 4 2 0 2
node 23 1 0 0
node 79 1 0 0
node 84 1 0 0
gene 2 1 4 -1.64866 0 1 -1.64866 1
gene 3 2 4 -3.45299 0 2 -3.45299 1
gene 1 3 4 -6.70189 0 3 -6.70189 1
gene 3 2 23 6.65026 0 40 6.65026 1
gene 3 23 4 5.70142 0 41 5.70142 0
gene 2 3 23 -2.24366 0 44 -2.24366 1
gene 3 1 23 -2.77888 0 106 -2.77888 1
gene 3 23 79 3.43071 0 200 3.43071 1
gene 3 79 4 3.39336 0 201 3.39336 1
gene 3 23 84 1 0 215 1 1
gene 3 84 4 5.08995 0 216 5.08995 1
genomeend 132

/* Organism #133 Fitness: 4 Error: 2 */
genomestart 133
trait 1 0.0815073 0.0446231 0.167149 0 0.153012 0 0 0.041683 
trait 2 0.2 0 0.0430417 0.00887263 0.0918419 0 0 0.46423 
trait 3 0.290573 0 0.00143787 0 0.00360311 0.00287801 0.0334238 0.00360096 
node 1 2 1 3
node 2 3 1 1
node 3 3 1 1
node 4 2 0 2
node 23 1 0 0
node 79 1 0 0
node 84 1 0 0
gene 2 1 4 3.71978 0 1 3.71978 1
gene 3 2 4 1.81428 0 2 1.81428 1
gene 1 3 4 0.348769 0 3 0.348769 1
gene 3 2 23 7.64524 0 40 7.64524 1
gene 3 23 4 4.34677 0 41 4.34677 0
gene 2 3 23 -0.593283 0 44 -0.593283 1
gene 3 1 23 1.63031 0 106 1.63031 1
gene 3 23 79 -0.247798 0 200 -0.247798 1
gene 3 79 4 0.385689 0 201 0.385689 1
gene 3 23 84 -0.363818 0 215 -0.363818 1
gene 3 84 4 0.782123 0 216 0.782123 1
genomeend 133

/* Organism #134 Fitness: 9.00897 Error: 0.998506 */
genomestart 134
trait 1 0.0815073 0.0446231 0.167149 0 0.153012 0 0 0.041683 
trait 2 0.2 0 0.0430417 0.00887263 0.0918419 0 0 0.46423 
trait 3 0.290573 0 0.00143787 0 0.00360311 0.00287801 0.0334238 0.00360096 
node 1 2 1 3
node 2 3 1 1
node 3 3 1 1
node 4 2 0 2
node 23 1 0 0
node 79 1 0 0
node 84 1 0 0
gene 2 1 4 6.31937 0 1 6.31937 1
gene 3 2 4 -5.95304 0 2 -5.95304 1
gene 1 3 4 -4.87378 0 3 -4.87378 1
gene 3 2 23 5.56637 0 40 5.56637 1
gene 3 23 4 5.25736 0 41 5.25736 0
gene 2 3 23 -0.567353 0 44 -0.567353 1
gene 3 1 23 -2.33209 0 106 -2.33209 1
gene 3 23 79 2.89731 0 200 2.89731 1
gene 3 79 4 1.68388 0 201 1.68388 1
gene 3 23 84 1 0 215 1 1
gene 3 84 4 4.17465 0 216 4.17465 1
genomeend 134

/* Organism #135 Fitness: 15.3201 Error: 0.0859141 */
genomestart 135
trait 1 0.0815073 0.0446231 0.167149 0 0.153012 0 0 0.041683 
trait 2 0.2 0 0.0430417 0.00887263 0.0918419 0 0 0.46423 
trait 3 0.290573 0 0.00143787 0 0.00360311 0.00287801 0.0334238 0.00360096 
node 1 2 1 3
node 2 3 1 1
node 3 3 1 1
node 4 2 0 2
node 23 1 0 0
node 79 1 0 0
node 84 1 0 0
gene 2 1 4 4.96754 0 1 4.96754 1
gene 3 2 4 -5.74738 0 2 -5.74738 1
gene 1 3 4 -6.70189 0 3 -6.70189 1
gene 3 2 23 5.90039 0 40 5.90039 1
gene 3 23 4 4.34677 0 41 4.34677 0
gene 2 3 23 -0.458966 0 44 -0.458966 1
gene 3 1 23 -0.36705 0 106 -0.36705 1
gene 3 23 79 1 0 200 0 1
gene 3 79 4 2.69687 0 201 0 1
gene 3 23 84 1 0 215 0 1
gene 3 84 4 4.34677 0 216 0 1
gene 3 3 79 0.12085 0 229 0.12085 1
genomeend 135

/* Organism #136 Fitness: 8.89753 Error: 1.01713 */
genomestart 136
trait 1 0.0815073 0.0446231 0.167149 0 0.153012 0 0 0.041683 
trait 2 0.2 0 0.0430417 0.00887263 0.0918419 0 0 0.46423 
trait 3 0.290573 0 0.00143787 0 0.00360311 0.00287801 0.0334238 0.00360096 
node 1 2 1 3
node 2 3 1 1
node 3 3 1 1
node 4 2 0 2
node 23 1 0 0
node 79 1 0 0
node 84 1 0 0
gene 2 1 4 1.36383 0 1 1.36383 1
gene 3 2 4 -7.84213 0 2 -7.84213 1
gene 1 3 4 0.0563639 0 3 0.0563639 1
gene 3 2 23 5.07771 0 40 5.07771 1
gene 3 23 4 4.24478 0 41 4.24478 0
gene 2 3 23 -1.05892 0 44 -1.05892 1
gene 3 1 23 -1.6371 0 106 -1.6371 1
gene 3 23 79 1.8769 0 200 1.8769 1
gene 3 79 4 2.69687 0 201 2.69687 1
gene 3 23 84 0.303107 0 215 0.303107 1
gene 3 84 4 5.25658 0 216 5.25658 1
genomeend 136

/* Organism #137 Fitness: 15.9891 Error: 0.00136623 */
genomestart 137
trait 1 0.0815073 0.0446231 0.167149 0 0.153012 0 0 0.041683 
trait 2 0.2 0 0.0430417 0.00887263 0.0918419 0 0 0.46423 
trait 3 0.290573 0 0.00143787 0 0.00360311 0.00287801 0.0334238 0.00360096 
node 1 2 1 3
node 2 3 1 1
node 3 3 1 1
node 4 2 0 2
node 23 1 0 0
node 79 1 0 0
node 84 1 0 0
gene 2 1 4 4.1253 0 1 4.1253 1
gene 3 2 4 -5.74738 0 2 -5.74738 1
gene 1 3 4 -7.67605 0 3 -7.67605 1
gene 3 2 23 5.90039 0 40 5.90039 1
gene 3 23 4 4.88625 0 41 4.88625 0
gene 2 3 23 -1.55451 0 44 -1.55451 1
gene 3 1 23 1.43338 0 106 1.43338 1
gene 3 23 79 1.90699 0 200 1.90699 1
gene 3 79 4 0.43696 0 201 0.43696 1
gene 3 23 84 0.789609 0 215 0.789609 1
gene 3 84 4 5.59102 0 216 5.59102 1
genomeend 137

/* Organism #138 Fitness: 15.9968 Error: 0.000395454 */
genomestart 138
trait 1 0.0815073 0.0446231 0.167149 0 0.153012 0 0 0.041683 
trait 2 0.2 0 0.0430417 0.00887263 0.0918419 0 0 0.46423 
trait 3 0.060355 0 0.00143787 0 0.00360311 0.00287801 0.648632 0.00360096 
node 1 2 1 3
node 2 3 1 1
node 3 3 1 1
node 4 2 0 2
node 23 1 0 0
node 79 1 0 0
node 84 1 0 0
gene 2 1 4 4.43158 0 1 4.43158 1
gene 3 2 4 -4.43971 0 2 -4.43971 1
gene 1 3 4 -4.97166 0 3 -4.97166 1
gene 3 2 23 8 0 40 8 1
gene 3 23 4 3.4921 0 41 3.4921 0
gene 2 3 23 0.846747 0 44 0.846747 1
gene 3 1 23 -1.40334 0 106 -1.40334 1
gene 3 23 79 2.4423 0 200 2.4423 1
gene 3 79 4 4.28901 0 201 4.28901 1
gene 3 23 84 0.600192 0 215 0.600192 1
gene 3 84 4 -1.33095 0 216 -1.33095 1
genomeend 138

/* Organism #139 Fitness: 4.00091 Error: 1.99977 */
genomestart 139
trait 1 0.0815073 0.0446231 0.167149 0 0.153012 0 0 0.041683 
trait 2 0.2 0 0.0430417 0.00887263 0.0918419 0 0 0.46423 
trait 3 0.290573 0 0.00143787 0 0.00360311 0.00287801 0.0334238 0.00360096 
node 1 2 1 3
node 2 3 1 1
node 3 3 1 1
node 4 2 0 2
node 23 1 0 0
node 79 1 0 0
node 84 1 0 0
gene 2 1 4 2.55453 0 1 2.55453 1
gene 3 2 4 -6.69668 0 2 -6.69668 1
gene 1 3 4 -6.70189 0 3 -6.70189 1
gene 3 2 23 3.64337 0 40 3.64337 1
gene 3 23 4 -1.45322 0 41 -1.45322 0
gene 2 3 23 0.730485 0 44 0.730485 1
gene 3 1 23 -0.36705 0 106 -0.36705 1
gene 3 23 79 2.57934 0 200 2.57934 1
gene 3 79 4 2.29914 0 201 2.29914 1
gene 3 23 84 -1.39081 0 215 -1.39081 1
gene 3 84 4 0.689592 0 216 0.689592 1
genomeend 139

/* Organism #140 Fitness: 9 Error: 1 */
genomestart 140
trait 1 0.0815073 0.0446231 0.167149 0 0.153012 0 0 0.041683 
trait 2 0.2 0 0.0430417 0.00887263 0.0918419 0 0 0.46423 
trait 3 0.290573 0 0.00143787 0 0.00360311 0.00287801 0.0334238 0.00360096 
node 1 2 1 3
node 2 3 1 1
node 3 3 1 1
node 4 2 0 2
node 23 1 0 0
node 79 1 0 0
node 84 1 0 0
gene 2 1 4 6.34103 0 1 6.34103 1
gene 3 2 4 -3.89774 0 2 -3.89774 1
gene 1 3 4 -4.75052 0 3 -4.75052 1
gene 3 2 23 4.57457 0 40 4.57457 1
gene 3 23 4 4.84817 0 41 4.84817 0
gene 2 3 23 -0.458966 0 44 -0.458966 1
gene 3 1 23 -2.3199 0 106 -2.3199 1
gene 3 23 79 -0.0843726 0 200 -0.0843726 1
gene 3 79 4 2.5141 0 201 2.5141 1
gene 3 23 84 1.5382 0 215 1.5382 1
gene 3 84 4 6.19361 0 216 6.19361 1
genomeend 140

/* Organism #141 Fitness: 10.9246 Error: 0.694761 */
genomestart 141
trait 1 0.0815073 0.0446231 0.167149 0 0.153012 0 0 0.041683 
trait 2 0.2 0 0.0430417 0.00887263 0.0918419 0 0 0.46423 
trait 3 0.290573 0 0.00143787 0 0.00360311 0.00287801 0.0334238 0.00360096 
node 1 2 1 3
node 2 3 1 1
node 3 3 1 1
node 4 2 0 2
node 23 1 0 0
node 79 1 0 0
node 84 1 0 0
gene 2 1 4 5.53051 0 1 5.53051 1
gene 3 2 4 -3.82747 0 2 -3.82747 1
gene 1 3 4 -4.66693 0 3 -4.66693 1
gene 3 2 23 4.75063 0 40 4.75063 1
gene 3 23 4 5.08056 0 41 5.08056 0
gene 2 3 23 1.01006 0 44 1.01006 1
gene 3 1 23 -2.45877 0 106 -2.45877 1
