
/* Species #1 : (Size 10) (AF 8.90357) (Age 22)  */


/* Organism #0 Fitness: 9 Error: 1 */
genomestart 0
trait 1 0.1 0 0 0 0 0 0 0 
trait 2 0.2 0 0 0 0 0 0 0 
trait 3 0.227051 0 0 0 0.0802609 0 0 0 
node 1 3 1 3
node 2 2 1 1
node 3 1 1 1
node 4 2 0 2
gene 2 1 4 -3.95727 0 1 -3.95727 1
gene 1 2 4 7.89094 0 2 7.89094 1
gene 2 3 4 8 0 3 8 1
genomeend 0

/* Organism #1 Fitness: 9 Error: 1 */
genomestart 1
trait 1 0.1 0 0 0 0 0 0 0 
trait 2 0.2 0 0 0 0 0 0 0 
trait 3 0.227051 0 0 0 0.0802609 0 0 0 
node 1 3 1 3
node 2 2 1 1
node 3 1 1 1
node 4 2 0 2
gene 2 1 4 -3.0403 0 1 -3.0403 1
gene 1 2 4 8 0 2 8 1
gene 2 3 4 8 0 3 8 1
genomeend 1

/* Organism #2 Fitness: 9 Error: 1 */
genomestart 2
trait 1 0.1 0 0 0 0 0 0 0 
trait 2 0.2 0 0 0 0 0 0 0 
trait 3 0.227051 0 0 0 0.0802609 0 0 0 
node 1 3 1 3
node 2 2 1 1
node 3 1 1 1
node 4 2 0 2
gene 2 1 4 -4.17412 0 1 -4.17412 1
gene 1 2 4 7.50652 0 2 7.50652 1
gene 2 3 4 8 0 3 8 1
genomeend 2

/* Organism #3 Fitness: 8.03626 Error: 1.16517 */
genomestart 3
trait 1 0.1 0 0 0 0 0 0 0 
trait 2 0.2 0 0 0 0 0 0 0 
trait 3 0.227051 0 0 0 0.0802609 0 0 0 
node 1 3 1 3
node 2 2 1 1
node 3 1 1 1
node 4 2 0 2
gene 2 1 4 -0.329034 0 1 -0.329034 1
gene 1 2 4 7.89094 0 2 7.89094 1
gene 2 3 4 8 0 3 8 1
genomeend 3

/* Organism #4 Fitness: 8.99999 Error: 1 */
genomestart 4
trait 1 0.1 0 0 0 0 0 0 0 
trait 2 0.2 0 0 0 0 0 0 0 
trait 3 0.227051 0 0 0 0.0802609 0 0 0 
node 1 3 1 3
node 2 2 1 1
node 3 1 1 1
node 4 2 0 2
gene 2 1 4 -4.66485 0 1 -4.66485 1
gene 3 2 4 7.74045 0 2 7.74045 1
gene 2 3 4 7.57127 0 3 7.57127 1
genomeend 4

/* Organism #5 Fitness: 8.99992 Error: 1.00001 */
genomestart 5
trait 1 0.1 0 0 0 0 0 0 0 
trait 2 0.2 0 0 0 0 0 0 0 
trait 3 0.227051 0 0 0 0.0802609 0 0 0 
node 1 3 1 3
node 2 1 1 1
node 3 1 1 1
node 4 2 0 2
gene 2 1 4 -2.28065 0 1 -2.28065 1
gene 1 2 4 7.70047 0 2 7.70047 1
gene 2 3 4 8 0 3 8 1
genomeend 5

/* Organism #6 Fitness: 9 Error: 1 */
genomestart 6
trait 1 0.1 0 0 0 0 0 0 0 
trait 2 0.2 0 0 0 0 0 0 0 
trait 3 0.227051 0 0 0 0.0802609 0 0 0 
node 1 3 1 3
node 2 2 1 1
node 3 1 1 1
node 4 2 0 2
gene 2 1 4 -3.95727 0 1 -3.95727 1
gene 1 2 4 7.89094 0 2 7.89094 1
gene 2 3 4 8 0 3 8 1
genomeend 6

/* Organism #7 Fitness: 8.99956 Error: 1.00007 */
genomestart 7
trait 1 0.1 0 0 0 0 0 0 0 
trait 2 0.2 0 0 0 0 0 0 0 
trait 3 0.227051 0 0 0 0.0802609 0 0 0 
node 1 3 1 3
node 2 2 1 1
node 3 1 1 1
node 4 2 0 2
gene 2 1 4 -1.93144 0 1 -1.93144 1
gene 1 2 4 8 0 2 8 1
gene 2 3 4 8 0 3 8 1
genomeend 7

/* Organism #8 Fitness: 8.99999 Error: 1 */
genomestart 8
trait 1 0.1 0 0 0 0 0 0 0 
trait 2 0.2 0 0 0 0 0 0 0 
trait 3 0.227051 0 0 0 0.0802609 0 0 0 
node 1 3 1 3
node 2 2 1 1
node 3 1 1 1
node 4 2 0 2
gene 2 1 4 -2.66404 0 1 -2.66404 1
gene 1 2 4 6.06933 0 2 6.06933 1
gene 2 3 4 8 0 3 8 1
genomeend 8

/* Organism #9 Fitness: 9 Error: 1 */
genomestart 9
trait 1 0.1 0 0 0 0 0 0 0 
trait 2 0.2 0 0 0 0 0 0 0 
trait 3 0.227051 0 0 0 0.0802609 0 0 0 
node 1 3 1 3
node 2 2 1 1
node 3 1 1 1
node 4 2 0 2
gene 2 1 4 -3.95727 0 1 -3.95727 1
gene 1 2 4 7.89094 0 2 7.89094 1
gene 2 3 4 8 0 3 8 1
genomeend 9

/* Species #2 : (Size 10) (AF 6.47962) (Age 20)  */


/* Organism #10 Fitness: 9 Error: 1 */
genomestart 10
trait 1 0.1 0 0.0188771 0 0 0 0 0 
trait 2 0.2 0 0 0 0 0 0 0 
trait 3 0.32141 0.082394 0 0.218571 0 0 0 0.0358282 
node 1 1 1 3
node 2 2 1 1
node 3 3 1 1
node 4 3 0 2
node 6 1 0 0
gene 1 1 4 3.30456 0 1 3.30456 1
gene 2 2 4 -7.78091 0 2 -7.78091 0
gene 3 3 4 -4.06718 0 3 -4.06718 1
gene 2 2 6 -3.08407 0 6 -3.08407 1
gene 2 6 4 -8 0 7 -8 1
gene 2 3 6 0.75193 0 95 0.75193 1
gene 3 1 6 2.38442 0 148 2.38442 1
genomeend 10

/* Organism #11 Fitness: 8.99984 Error: 1.00003 */
genomestart 11
trait 1 0.1 0 0.0188771 0 0 0 0 0 
trait 2 0.2 0 0 0 0 0 0 0 
trait 3 0.32141 0.082394 0 0.218571 0 0 0 0.0358282 
node 1 1 1 3
node 2 2 1 1
node 3 3 1 1
node 4 3 0 2
node 6 1 0 0
gene 1 1 4 2.13724 0 1 2.13724 1
gene 2 2 4 -7.78091 0 2 -7.78091 0
gene 3 3 4 -4.06718 0 3 -4.06718 1
gene 2 2 6 -4.83868 0 6 -4.83868 1
gene 2 6 4 -8 0 7 -8 1
gene 3 3 6 3.71595 0 95 3.71595 1
gene 3 1 6 2.38442 0 148 2.38442 1
genomeend 11

/* Organism #12 Fitness: 4.00624 Error: 1.99844 */
genomestart 12
trait 1 0.1 0 0.0188771 0 0 0 0 0 
trait 2 0.2 0 0 0 0 0 0 0 
trait 3 0.32141 0.082394 0 0.218571 0 0 0 0.0358282 
node 1 1 1 3
node 2 2 1 1
node 3 3 1 1
node 4 3 0 2
node 6 1 0 0
gene 1 1 4 3.74834 0 1 3.74834 1
gene 2 2 4 -6.72643 0 2 -6.72643 0
gene 3 3 4 -6.2359 0 3 -6.2359 1
gene 2 2 6 -3.17477 0 6 -3.17477 1
gene 2 6 4 2.15735 0 7 2.15735 1
gene 3 3 6 4.33014 0 95 4.33014 1
gene 3 1 6 0.23279 0 148 0.23279 1
genomeend 12

/* Organism #13 Fitness: 9 Error: 1 */
genomestart 13
trait 1 0.1 0 0.0188771 0 0 0 0 0 
trait 2 0.2 0 0 0 0 0 0 0 
trait 3 0.32141 0.082394 0 0.218571 0 0 0 0.0358282 
node 1 1 1 3
node 2 2 1 1
node 3 3 1 1
node 4 3 0 2
node 6 1 0 0
gene 1 1 4 4.47366 0 1 4.47366 1
gene 2 2 4 -5.34411 0 2 -5.34411 0
gene 3 3 4 -5.58403 0 3 -5.58403 1
gene 2 2 6 -3.63424 0 6 -3.63424 1
gene 2 6 4 -8 0 7 -8 1
gene 2 3 6 3.04414 0 95 3.04414 1
gene 3 1 6 0.833175 0 148 0.833175 1
genomeend 13

/* Organism #14 Fitness: 4.00045 Error: 1.99989 */
genomestart 14
trait 1 0.1 0 0.0188771 0 0 0 0 0 
trait 2 0.2 0 0 0 0 0 0 0 
trait 3 0.32141 0.082394 0 0.218571 0 0 0 0.0358282 
node 1 1 1 3
node 2 2 1 1
node 3 3 1 1
node 4 3 0 2
node 6 1 0 0
gene 1 1 4 1.63966 0 1 1.63966 1
gene 2 2 4 -3.39276 0 2 -3.39276 0
gene 3 3 4 -6.82227 0 3 -6.82227 1
gene 2 2 6 -4.30662 0 6 -4.30662 1
gene 2 6 4 -6.86347 0 7 -6.86347 1
gene 3 3 6 1.36412 0 95 1.36412 1
gene 3 1 6 -0.950895 0 148 -0.950895 1
genomeend 14

/* Organism #15 Fitness: 8.76087 Error: 1.04012 */
genomestart 15
trait 1 0.1 0 0.0188771 0 0 0 0 0 
trait 2 0.2 0 0 0 0 0 0 0 
trait 3 0.32141 0.082394 0 0.218571 0 0 0 0.0358282 
node 1 1 1 3
node 2 2 1 1
node 3 3 1 1
node 4 3 0 2
node 6 1 0 0
gene 1 1 4 3.9842 0 1 3.9842 1
gene 2 2 4 -4.40833 0 2 -4.40833 0
gene 3 3 4 -4.4734 0 3 -4.4734 1
gene 2 2 6 -2.82743 0 6 -2.82743 1
gene 2 6 4 -8 0 7 -8 1
gene 3 3 6 4.538 0 95 4.538 1
gene 3 1 6 0.0643946 0 148 0.0643946 1
genomeend 15

/* Organism #16 Fitness: 4 Error: 2 */
genomestart 16
trait 1 0.1 0 0.0188771 0 0 0 0 0 
trait 2 0.2 0 0 0 0 0 0 0 
trait 3 0.32141 0.082394 0 0.218571 0 0 0 0.0358282 
node 1 1 1 3
node 2 2 1 1
node 3 3 1 1
node 4 3 0 2
node 6 1 0 0
node 64 1 0 0
gene 1 1 4 3.30456 0 1 3.30456 1
gene 2 2 4 -4.29065 0 2 -4.29065 0
gene 3 3 4 -6.44851 0 3 -6.44851 1
gene 2 2 6 -3.08407 0 6 -3.08407 0
gene 2 6 4 -8 0 7 -8 1
gene 3 3 6 3.3781 0 95 3.3781 1
gene 3 1 6 0.23279 0 148 0.23279 1
gene 2 2 64 1 0 204 0 1
gene 2 64 6 -3.08407 0 205 0 1
genomeend 16

/* Organism #17 Fitness: 8.9994 Error: 1.0001 */
genomestart 17
trait 1 0.1 0 0.0188771 0 0 0 0 0 
trait 2 0.2 0 0 0 0 0 0 0 
trait 3 0.32141 0.082394 0 0.218571 0 0 0 0.0358282 
node 1 1 1 3
node 2 2 1 1
node 3 3 1 1
node 4 3 0 2
node 6 1 0 0
gene 1 1 4 2.13724 0 1 2.13724 1
gene 2 2 4 -2.4141 0 2 -2.4141 0
gene 3 3 4 -4.06718 0 3 -4.06718 1
gene 1 2 6 -4.83868 0 6 -4.83868 1
gene 2 6 4 -8 0 7 -8 1
gene 2 3 6 0.75193 0 95 0.75193 1
gene 3 1 6 2.38442 0 148 2.38442 1
genomeend 17

/* Organism #18 Fitness: 4.00042 Error: 1.9999 */
genomestart 18
trait 1 0.1 0 0.0188771 0 0 0 0 0 
trait 2 0.2 0 0 0 0 0 0 0 
trait 3 0.32141 0.082394 0 0.218571 0 0 0 0.0358282 
node 1 1 1 3
node 2 2 1 1
node 3 3 1 1
node 4 3 0 2
node 6 1 0 0
node 65 1 0 0
gene 1 1 4 2.13724 0 1 2.13724 1
gene 2 2 4 -2.4141 0 2 -2.4141 0
gene 3 3 4 -5.60795 0 3 -5.60795 1
gene 2 2 6 -4.83868 0 6 -4.83868 1
gene 2 6 4 -8 0 7 -8 0
gene 3 3 6 3.71595 0 95 3.71595 1
gene 3 1 6 0.0459 0 148 0.0459 1
gene 2 6 65 1 0 206 0 1
gene 2 65 4 -8 0 207 0 1
genomeend 18

/* Organism #19 Fitness: 4.02902 Error: 1.99276 */
genomestart 19
trait 1 0.1 0 0.0188771 0 0 0 0 0 
trait 2 0.2 0 0 0 0 0 0 0 
trait 3 0.32141 0.082394 0 0.218571 0 0 0 0.0358282 
node 1 1 1 3
node 2 2 1 1
node 3 3 1 1
node 4 3 0 2
node 6 1 0 0
node 65 1 0 0
gene 1 1 4 3.30456 0 1 3.30456 1
gene 2 2 4 -7.78091 0 2 -7.78091 0
gene 3 3 4 -4.06718 0 3 -4.06718 1
gene 2 2 6 -3.08407 0 6 -3.08407 1
gene 2 6 4 -8 0 7 -8 0
gene 2 3 6 0.75193 0 95 0.75193 1
gene 3 1 6 2.38442 0 148 2.38442 1
gene 2 6 65 1 0 206 0 1
gene 2 65 4 -8 0 207 0 1
genomeend 19

/* Species #3 : (Size 12) (AF 6.91322) (Age 19)  */


/* Organism #20 Fitness: 8.99999 Error: 1 */
genomestart 20
trait 1 0.1 0 0 0 0 0 0 0 
trait 2 0.2 0 0 0 0 0 0 0 
trait 3 0.3 0 0 0 0 0 0 0 
node 1 3 1 3
node 2 3 1 1
node 3 3 1 1
node 4 3 0 2
node 7 1 0 0
gene 1 1 4 -3.60417 0 1 -3.60417 1
gene 1 2 4 -1.84502 0 2 -1.84502 0
gene 2 3 4 2.35396 0 3 2.35396 1
gene 1 2 7 2.94268 0 8 2.94268 1
gene 1 7 4 6.30921 0 9 6.30921 1
gene 3 1 7 -1.8183 0 77 -1.8183 1
gene 3 3 7 2.87792 0 112 2.87792 1
genomeend 20

/* Organism #21 Fitness: 9 Error: 1 */
genomestart 21
trait 1 0.1 0 0 0 0 0 0 0 
trait 2 0.2 0 0 0 0 0 0 0 
trait 3 0.3 0 0 0 0 0 0 0 
node 1 3 1 3
node 2 3 1 1
node 3 3 1 1
node 4 3 0 2
node 7 1 0 0
gene 1 1 4 -3.58116 0 1 -3.58116 1
gene 1 2 4 0.558264 0 2 0.558264 0
gene 2 3 4 -2.80808 0 3 -2.80808 1
gene 1 2 7 5.15765 0 8 5.15765 1
gene 1 7 4 6.54005 0 9 6.54005 1
gene 3 1 7 -2.09046 0 77 -2.09046 1
gene 3 3 7 -3.70123 0 112 -3.70123 1
genomeend 21

/* Organism #22 Fitness: 5.76781 Error: 1.59837 */
genomestart 22
trait 1 0.1 0 0 0 0 0 0 0 
trait 2 0.2 0 0 0 0 0 0 0 
trait 3 0.3 0 0 0 0 0 0 0 
node 1 3 1 3
node 2 3 1 1
node 3 3 1 1
node 4 3 0 2
node 7 1 0 0
gene 1 1 4 -0.495859 0 1 -0.495859 1
gene 1 2 4 -0.764438 0 2 -0.764438 0
gene 2 3 4 3.03206 0 3 3.03206 1
gene 1 2 7 0.875051 0 8 0.875051 1
gene 1 7 4 8 0 9 8 1
gene 3 1 7 -0.518822 0 77 -0.518822 1
gene 3 3 7 -4.27228 0 112 -4.27228 1
genomeend 22

/* Organism #23 Fitness: 8.99999 Error: 1 */
genomestart 23
trait 1 0.1 0 0 0 0 0 0 0 
trait 2 0.2 0 0 0 0 0 0 0 
trait 3 0.3 0 0 0 0 0 0 0 
node 1 3 1 3
node 2 3 1 1
node 3 3 1 1
node 4 3 0 2
node 7 1 0 0
gene 1 1 4 -3.60417 0 1 -3.60417 1
gene 1 2 4 -1.84502 0 2 -1.84502 0
gene 2 3 4 2.35396 0 3 2.35396 1
gene 1 2 7 2.94268 0 8 2.94268 1
gene 1 7 4 6.30921 0 9 6.30921 1
gene 3 1 7 -1.8183 0 77 -1.8183 1
gene 3 3 7 2.87792 0 112 2.87792 1
genomeend 23

/* Organism #24 Fitness: 4.00006 Error: 1.99998 */
genomestart 24
trait 1 0.1 0 0 0 0 0 0 0 
trait 2 0.2 0 0 0 0 0 0 0 
trait 3 0.3 0 0 0 0 0 0 0 
node 1 3 1 3
node 2 3 1 1
node 3 3 1 1
node 4 3 0 2
node 7 1 0 0
gene 1 1 4 -5.89228 0 1 -5.89228 1
gene 1 2 4 -1.7442 0 2 -1.7442 0
gene 2 3 4 2.65589 0 3 2.65589 1
gene 1 2 7 1.06814 0 8 1.06814 1
gene 1 7 4 8 0 9 8 1
gene 3 1 7 0.921473 0 77 0.921473 1
gene 3 3 7 5.74946 0 112 5.74946 1
genomeend 24

/* Organism #25 Fitness: 4.02118 Error: 1.99471 */
genomestart 25
trait 1 0.1 0 0.37127 0 0 0.978625 0 0 
trait 2 0.2 0 0 0 0 0 0 0 
trait 3 0.3 0 0 0 0 0 0 0 
node 1 3 1 3
node 2 3 1 1
node 3 3 1 1
node 4 3 0 2
node 7 1 0 0
gene 1 1 4 -5.70679 0 1 -5.70679 1
gene 1 2 4 -1.30615 0 2 -1.30615 0
gene 2 3 4 4.02125 0 3 4.02125 1
gene 1 2 7 4.85305 0 8 4.85305 1
gene 1 7 4 6.93921 0 9 6.93921 1
gene 3 1 7 0.673468 0 77 0.673468 1
gene 3 3 7 5.09806 0 112 5.09806 1
genomeend 25

/* Organism #26 Fitness: 8.99543 Error: 1.00076 */
genomestart 26
trait 1 0.1 0 0 0 0 0 0 0 
trait 2 0.2 0 0 0 0 0 0 0 
trait 3 0.3 0 0 0 0 0 0 0 
node 1 3 1 3
node 2 3 1 1
node 3 3 1 1
node 4 3 0 2
node 7 1 0 0
gene 1 1 4 -2.40892 0 1 -2.40892 1
gene 1 2 4 0.19526 0 2 0.19526 0
gene 2 3 4 -4.56457 0 3 -4.56457 1
gene 1 2 7 3.51059 0 8 3.51059 1
gene 1 7 4 5.39978 0 9 5.39978 1
gene 3 1 7 -0.360395 0 77 -0.360395 1
gene 3 3 7 -1.44351 0 112 -1.44351 1
genomeend 26

/* Organism #27 Fitness: 3.49941 Error: 2.12933 */
genomestart 27
trait 1 0.1 0 0 0 0 0 0 0 
trait 2 0.2 0 0 0 0 0 0 0 
trait 3 0.3 0 0 0 0 0 0 0 
node 1 3 1 3
node 2 3 1 1
node 3 3 1 1
node 4 3 0 2
node 7 1 0 0
gene 1 1 4 -4.63486 0 1 -4.63486 1
gene 1 2 4 -3.30246 0 2 -3.30246 0
gene 2 3 4 3.78489 0 3 3.78489 1
gene 1 2 7 0.804747 0 8 0.804747 1
gene 1 7 4 6.02785 0 9 6.02785 1
gene 3 1 7 1.3506 0 77 1.3506 1
gene 3 3 7 -2.64788 0 112 -2.64788 1
genomeend 27

/* Organism #28 Fitness: 2.69907 Error: 2.35712 */
genomestart 28
trait 1 0.1 0 0 0 0 0 0 0 
trait 2 0.2 0 0 0 0 0 0 0 
trait 3 0.3 0 0 0 0 0 0 0 
node 1 3 1 3
node 2 3 1 1
node 3 3 1 1
node 4 3 0 2
node 7 1 0 0
gene 1 1 4 -0.129771 0 1 -0.129771 1
gene 1 2 4 0.917491 0 2 0.917491 0
gene 2 3 4 -3.44667 0 3 -3.44667 1
gene 1 2 7 6.59306 0 8 6.59306 1
gene 1 7 4 5.65312 0 9 5.65312 1
gene 3 1 7 -1.24257 0 77 -1.24257 1
gene 3 3 7 -4.99705 0 112 -4.99705 1
genomeend 28

/* Organism #29 Fitness: 8.98168 Error: 1.00306 */
genomestart 29
trait 1 0.1 0 0 0 0 0 0 0 
trait 2 0.2 0 0 0 0 0 0 0 
trait 3 0.3 0 0 0 0 0 0 0 
node 1 3 1 3
node 2 3 1 1
node 3 3 1 1
node 4 3 0 2
node 7 1 0 0
gene 1 1 4 -2.57438 0 1 -2.57438 1
gene 1 2 4 0.558264 0 2 0.558264 0
gene 2 3 4 -2.80808 0 3 -2.80808 1
gene 1 2 7 5.15765 0 8 5.15765 1
gene 1 7 4 6.54005 0 9 6.54005 1
gene 3 1 7 -2.09046 0 77 -2.09046 1
gene 3 3 7 2.87792 0 112 2.87792 1
genomeend 29

/* Organism #30 Fitness: 8.99998 Error: 1 */
genomestart 30
trait 1 0.1 0 0 0 0 0 0 0 
trait 2 0.2 0 0 0 0 0 0 0 
trait 3 0.3 0 0 0 0 0 0 0 
node 1 3 1 3
node 2 3 1 1
node 3 3 1 1
node 4 3 0 2
node 7 1 0 0
gene 1 1 4 -3.60417 0 1 -3.60417 1
gene 1 2 4 -1.84581 0 2 -1.84581 0
gene 2 3 4 4.5802 0 3 4.5802 1
gene 1 2 7 1.3318 0 8 1.3318 1
gene 1 7 4 6.30921 0 9 6.30921 1
gene 3 1 7 -0.360395 0 77 -0.360395 1
gene 3 3 7 2.87792 0 112 2.87792 1
genomeend 30

/* Organism #31 Fitness: 8.99406 Error: 1.00099 */
genomestart 31
trait 1 0.1 0 0 0 0 0 0 0 
trait 2 0.2 0 0 0 0 0 0 0 
trait 3 0.3 0 0 0 0 0 0 0 
node 1 3 1 3
node 2 3 1 1
node 3 3 1 1
node 4 3 0 2
node 7 1 0 0
gene 1 1 4 -1.44724 0 1 -1.44724 1
gene 1 2 4 -1.84581 0 2 -1.84581 0
gene 2 3 4 -1.08383 0 3 -1.08383 1
gene 1 2 7 1.26586 0 8 1.26586 1
gene 1 7 4 7.446 0 9 7.446 1
gene 3 1 7 -1.04699 0 77 -1.04699 1
gene 3 3 7 3.16217 0 112 3.16217 1
genomeend 31

/* Species #4 : (Size 9) (AF 6.6372) (Age 18)  */


/* Organism #32 Fitness: 8.99995 Error: 1.00001 */
genomestart 32
trait 1 0.1 0 0 0 0 0 0 0 
trait 2 0.2 0.426843 0 0 0 0 0 0.698162 
trait 3 0.3 0 0 0 0 0 0 0 
node 1 3 1 3
node 2 1 1 1
node 3 1 1 1
node 4 1 0 2
node 13 3 0 0
gene 1 1 4 -5.62054 0 1 -5.62054 1
gene 2 2 4 1.69715 0 2 1.69715 0
gene 1 3 4 -6.75221 0 3 -6.75221 1
gene 2 2 13 2.741 0 22 2.741 1
gene 3 13 4 8 0 23 8 1
gene 2 1 13 -0.968226 0 37 -0.968226 1
gene 2 3 13 3.09325 0 119 3.09325 1
genomeend 32

/* Organism #33 Fitness: 8.99179 Error: 1.00137 */
genomestart 33
trait 1 0.1 0 0 0 0 0 0 0 
trait 2 0.2 0.320132 0 0 0 0 0 0.523621 
trait 3 0.3 0 0 0 0 0 0 0 
node 1 3 1 3
node 2 1 1 1
node 3 1 1 1
node 4 1 0 2
node 13 3 0 0
gene 1 1 4 -4.47247 0 1 -4.47247 1
gene 2 2 4 -3.67627 0 2 -3.67627 0
gene 1 3 4 -4.26866 0 3 -4.26866 1
gene 2 2 13 6.44662 0 22 6.44662 1
gene 3 13 4 7.40224 0 23 7.40224 1
gene 2 1 13 -3.64704 0 37 -3.64704 1
gene 2 3 13 1.76542 0 119 1.76542 1
genomeend 33

/* Organism #34 Fitness: 5.77993 Error: 1.59585 */
genomestart 34
trait 1 0.1 0 0 0 0 0 0 0 
trait 2 0.2 0.320132 0 0 0 0 0 0.523621 
trait 3 0.3 0 0 0 0 0 0 0 
node 1 3 1 3
node 2 1 1 1
node 3 1 1 1
node 4 1 0 2
node 13 3 0 0
gene 1 1 4 -2.08944 0 1 -2.08944 1
gene 2 2 4 -0.165071 0 2 -0.165071 0
gene 1 3 4 -4.84323 0 3 -4.84323 1
gene 2 2 13 4.90617 0 22 4.90617 1
gene 3 13 4 7.08801 0 23 7.08801 1
gene 2 1 13 -3.21357 0 37 -3.21357 1
gene 2 3 13 3.68488 0 119 3.68488 1
genomeend 34

/* Organism #35 Fitness: 5.28969 Error: 1.70007 */
genomestart 35
trait 1 0.1 0 0 0 0 0 0 0 
trait 2 0.2 0.213422 0 0 0 0 0 0.349081 
trait 3 0.3 0 0 0 0 0 0 0 
node 1 3 1 3
node 2 1 1 1
node 3 1 1 1
node 4 1 0 2
node 13 3 0 0
gene 1 1 4 -0.526866 0 1 -0.526866 1
gene 2 2 4 -0.946888 0 2 -0.946888 0
gene 1 3 4 -4.54701 0 3 -4.54701 1
gene 2 2 13 8 0 22 8 1
gene 3 13 4 0.418288 0 23 0.418288 1
gene 2 1 13 -4.05857 0 37 -4.05857 1
gene 2 3 13 5.24542 0 119 5.24542 1
genomeend 35

/* Organism #36 Fitness: 4.01183 Error: 1.99704 */
genomestart 36
trait 1 0.1 0 0 0 0 0 0 0 
trait 2 0.2 0.320132 0 0 0 0 0 0.523621 
trait 3 0.3 0 0 0 0 0 0 0 
node 1 3 1 3
node 2 1 1 1
node 3 1 1 1
node 4 1 0 2
node 13 3 0 0
gene 1 1 4 -3.44104 0 1 -3.44104 1
gene 2 2 4 0.971278 0 2 0.971278 0
gene 1 3 4 -5.45436 0 3 -5.45436 1
gene 2 2 13 6.39394 0 22 6.39394 1
gene 3 13 4 2.35012 0 23 2.35012 1
gene 2 1 13 0.473971 0 37 0.473971 1
gene 2 3 13 4.21109 0 119 4.21109 1
genomeend 36

/* Organism #37 Fitness: 4 Error: 2 */
genomestart 37
trait 1 0.1 0 0 0 0 0 0 0 
trait 2 0.2 0.426843 0 0 0 0 0 0.698162 
trait 3 0.3 0 0 0 0 0 0 0 
node 1 3 1 3
node 2 1 1 1
node 3 1 1 1
node 4 1 0 2
node 13 3 0 0
gene 1 1 4 -5.3175 0 1 -5.3175 1
gene 2 2 4 -0.0950381 0 2 -0.0950381 0
gene 1 3 4 -0.320092 0 3 -0.320092 1
gene 2 2 13 4.29593 0 22 4.29593 1
gene 3 13 4 2.1852 0 23 2.1852 1
gene 2 1 13 -3.40649 0 37 -3.40649 1
gene 2 3 13 -1.54361 0 119 -1.54361 1
genomeend 37

/* Organism #38 Fitness: 5.25208 Error: 1.70826 */
genomestart 38
trait 1 0.1 0 0 0 0 0 0 0 
trait 2 0.2 0.213422 0 0 0 0 0 0.349081 
trait 3 0.3 0 0 0 0 0 0 0 
node 1 3 1 3
node 2 1 1 1
node 3 1 1 1
node 4 1 0 2
node 13 3 0 0
gene 1 1 4 0.152802 0 1 0.152802 1
gene 2 2 4 -3.34096 0 2 -3.34096 0
gene 1 3 4 -4.94586 0 3 -4.94586 1
gene 3 2 13 6.70418 0 22 6.70418 1
gene 3 13 4 4.07467 0 23 4.07467 1
gene 2 1 13 -1.95643 0 37 -1.95643 1
gene 2 3 13 -1.31541 0 119 -1.31541 1
genomeend 38

/* Organism #39 Fitness: 8.92737 Error: 1.01213 */
genomestart 39
trait 1 0.1 0 0 0 0 0 0 0 
trait 2 0.2 0.320132 0 0 0 0 0 0.523621 
trait 3 0.3 0 0 0 0 0 0 0 
node 1 3 1 3
node 2 1 1 1
node 3 1 1 1
node 4 1 0 2
node 13 3 0 0
gene 1 1 4 -1.26154 0 1 -1.26154 1
gene 2 2 4 1.06224 0 2 1.06224 0
gene 1 3 4 -4.1565 0 3 -4.1565 1
gene 2 2 13 7.17874 0 22 7.17874 1
gene 3 13 4 4.48749 0 23 4.48749 1
gene 2 1 13 -2.3896 0 37 -2.3896 1
gene 2 3 13 0.698578 0 119 0.698578 1
genomeend 39

/* Organism #40 Fitness: 8.4822 Error: 1.08758 */
genomestart 40
trait 1 0.1 0 0 0 0 0 0 0 
trait 2 0.2 0.213422 0 0 0 0 0 0.349081 
trait 3 0.3 0 0 0 0 0 0 0 
node 1 3 1 3
node 2 1 1 1
node 3 1 1 1
node 4 1 0 2
node 13 3 0 0
gene 1 1 4 -3.48483 0 1 -3.48483 1
gene 2 2 4 -0.879701 0 2 -0.879701 0
gene 1 3 4 -4.24676 0 3 -4.24676 1
gene 2 2 13 6.57682 0 22 6.57682 1
gene 3 13 4 3.96077 0 23 3.96077 1
gene 2 1 13 -4.05572 0 37 -4.05572 1
gene 2 3 13 2.91469 0 119 2.91469 1
genomeend 40

/* Species #5 : (Size 9) (AF 5.79888) (Age 17)  */


/* Organism #41 Fitness: 8.9956 Error: 1.00073 */
genomestart 41
trait 1 0 0 0.4575 0.873036 0 0 0.588399 0 
trait 2 0.865326 0 0 0 0 0 0.701787 0 
trait 3 0.597366 0.236497 0 0 0 0 0 0.270601 
node 1 3 1 3
node 2 3 1 1
node 3 3 1 1
node 4 3 0 2
node 7 1 0 0
node 15 1 0 0
gene 1 1 4 -0.398028 0 1 -0.398028 1
gene 1 2 4 -2.38791 0 2 -2.38791 0
gene 2 3 4 -4.40544 0 3 -4.40544 1
gene 1 2 7 -2.7246 0 8 -2.7246 0
gene 1 7 4 6.49214 0 9 6.49214 1
gene 1 2 15 -1.80639 0 30 -1.80639 1
gene 1 15 7 2.55439 0 31 2.55439 1
genomeend 41

/* Organism #42 Fitness: 3.99987 Error: 2.00003 */
genomestart 42
trait 1 0 0 0.4575 0.873036 0 0 0.588399 0 
trait 2 0.865326 0 0 0 0 0 0.701787 0 
trait 3 0.597366 0.236497 0 0 0 0 0 0.270601 
node 1 3 1 3
node 2 3 1 1
node 3 3 1 1
node 4 3 0 2
node 7 2 0 0
node 15 1 0 0
gene 1 1 4 1.72931 0 1 1.72931 1
gene 1 2 4 0.156728 0 2 0.156728 1
gene 2 3 4 -6.57726 0 3 -6.57726 1
gene 1 2 7 -1.67073 0 8 -1.67073 1
gene 1 7 4 2.7248 0 9 2.7248 1
gene 1 2 15 0.841493 0 30 0.841493 1
gene 1 15 7 6.04381 0 31 6.04381 1
genomeend 42

/* Organism #43 Fitness: 4.00017 Error: 1.99996 */
genomestart 43
trait 1 0 0 0.4575 0.873036 0 0 0.588399 0 
trait 2 0.865326 0 0 0 0 0 0.701787 0 
trait 3 0.597366 0.236497 0 0 0 0 0 0.270601 
node 1 3 1 3
node 2 3 1 1
node 3 3 1 1
node 4 3 0 2
node 7 1 0 0
node 15 1 0 0
gene 1 1 4 1.09719 0 1 1.09719 1
gene 1 2 4 -2.38791 0 2 -2.38791 0
gene 2 3 4 -4.40544 0 3 -4.40544 1
gene 1 2 7 -2.7246 0 8 -2.7246 0
gene 1 7 4 4.28673 0 9 4.28673 1
gene 1 2 15 -0.0651464 0 30 -0.0651464 1
gene 1 15 7 3.88437 0 31 3.88437 1
genomeend 43

/* Organism #44 Fitness: 4.01453 Error: 1.99637 */
genomestart 44
trait 1 0 0 0.4575 0.873036 0 0 0.588399 0 
trait 2 0.865326 0 0 0 0 0 0.701787 0 
trait 3 0.597366 0.236497 0 0 0 0 0 0.270601 
node 1 3 1 3
node 2 3 1 1
node 3 3 1 1
node 4 3 0 2
node 7 2 0 0
node 15 1 0 0
gene 1 1 4 1.01159 0 1 1.01159 1
gene 1 2 4 0.333565 0 2 0.333565 0
gene 2 3 4 -2.64022 0 3 -2.64022 1
gene 1 2 7 -2.66072 0 8 -2.66072 0
gene 1 7 4 -0.13516 0 9 -0.13516 1
gene 1 2 15 -2.87354 0 30 -2.87354 1
gene 1 15 7 4.21299 0 31 4.21299 1
genomeend 44

/* Organism #45 Fitness: 4.8019 Error: 1.80868 */
genomestart 45
trait 1 0 0 0.4575 0.873036 0 0 0.588399 0 
trait 2 0.865326 0 0 0 0 0 0.701787 0 
trait 3 0.801738 0.236497 0 0 0 0 0 0.3173 
node 1 3 1 3
node 2 3 1 1
node 3 3 1 1
node 4 3 0 2
node 7 1 0 0
node 15 1 0 0
gene 1 1 4 -0.398028 0 1 -0.398028 1
gene 1 2 4 -1.42862 0 2 -1.42862 0
gene 2 3 4 -2.04704 0 3 -2.04704 1
gene 1 2 7 -1.56013 0 8 -1.56013 0
gene 1 7 4 5.47554 0 9 5.47554 1
gene 1 2 15 -3.12987 0 30 -3.12987 1
gene 1 15 7 2.22826 0 31 2.22826 1
genomeend 45

/* Organism #46 Fitness: 8.94759 Error: 1.00875 */
genomestart 46
trait 1 0 0 0.4575 0.873036 0 0 0.588399 0 
trait 2 0.865326 0 0 0 0 0 0.701787 0 
trait 3 0.597366 0.236497 0 0 0 0 0 0.270601 
node 1 3 1 3
node 2 3 1 1
node 3 3 1 1
node 4 3 0 2
node 7 2 0 0
node 15 1 0 0
gene 1 1 4 0.34958 0 1 0.34958 1
gene 1 2 4 -2.20429 0 2 -2.20429 1
gene 2 3 4 -4.56539 0 3 -4.56539 1
gene 1 2 7 -2.19381 0 8 -2.19381 0
gene 1 7 4 5.38943 0 9 5.38943 1
gene 1 2 15 -0.935766 0 30 -0.935766 1
gene 1 15 7 3.21938 0 31 3.21938 1
genomeend 46

/* Organism #47 Fitness: 4.43547 Error: 1.89395 */
genomestart 47
trait 1 0 0 0.4575 0.873036 0 0 0.588399 0 
trait 2 0.865326 0 0 0 0 0 0.701787 0 
trait 3 0.597366 0.236497 0 0 0 0 0 0.270601 
node 1 3 1 3
node 2 3 1 1
node 3 3 1 1
node 4 3 0 2
node 7 2 0 0
node 15 1 0 0
gene 1 1 4 2.98877 0 1 2.98877 1
gene 1 2 4 -1.30046 0 2 -1.30046 0
gene 2 3 4 -6.71235 0 3 -6.71235 1
gene 1 2 7 -2.8046 0 8 -2.8046 0
gene 1 7 4 7.64677 0 9 7.64677 1
gene 1 2 15 -1.01982 0 30 -1.01982 1
gene 1 15 7 5.41659 0 31 5.41659 1
genomeend 47

/* Organism #48 Fitness: 4.00367 Error: 1.99908 */
genomestart 48
trait 1 0 0 0.4575 0.873036 0 0 0.588399 0 
trait 2 0.865326 0 0 0 0 0 0.701787 0 
trait 3 0.597366 0.236497 0 0 0 0 0 0.270601 
node 1 3 1 3
node 2 3 1 1
node 3 3 1 1
node 4 3 0 2
node 7 2 0 0
node 15 1 0 0
gene 1 1 4 0.966363 0 1 0.966363 1
gene 1 2 4 -2.34616 0 2 -2.34616 0
gene 2 3 4 -2.86528 0 3 -2.86528 1
gene 1 2 7 -1.97062 0 8 -1.97062 0
gene 1 7 4 4.55194 0 9 4.55194 1
gene 1 2 15 -0.472342 0 30 -0.472342 1
gene 1 15 7 2.25893 0 31 2.25893 1
genomeend 48

/* Organism #49 Fitness: 8.99113 Error: 1.00148 */
genomestart 49
trait 1 0 0 0.4575 0.873036 0 0 0.588399 0 
trait 2 0.865326 0 0 0 0 0 0.701787 0 
trait 3 0.597366 0.236497 0 0 0 0 0 0.270601 
node 1 3 1 3
node 2 3 1 1
node 3 3 1 1
node 4 3 0 2
node 7 1 0 0
node 15 1 0 0
gene 1 1 4 -0.398028 0 1 -0.398028 1
gene 1 2 4 -2.38791 0 2 -2.38791 0
gene 2 3 4 -4.40544 0 3 -4.40544 1
gene 1 2 7 -2.7246 0 8 -2.7246 0
gene 1 7 4 6.49214 0 9 6.49214 1
gene 1 2 15 -1.80639 0 30 -1.80639 1
gene 1 15 7 2.55439 0 31 2.55439 1
gene 2 3 7 0.0240942 0 208 0.0240942 1
genomeend 49

/* Species #6 : (Size 9) (AF 6.72752) (Age 17)  */


/* Organism #50 Fitness: 8.96176 Error: 1.00638 */
genomestart 50
trait 1 0.1 0 0 0 0 0 0 0 
trait 2 0.266601 0 0 0 0 0 0.244588 0 
trait 3 0.3 0 0 0 0 0 0 0 
node 1 3 1 3
node 2 3 1 1
node 3 3 1 1
node 4 3 0 2
node 7 1 0 0
node 16 3 0 0
gene 2 1 4 -0.342727 0 1 -0.342727 1
gene 1 2 4 -0.525154 0 2 -0.525154 0
gene 2 3 4 -2.37352 0 3 -2.37352 1
gene 1 2 7 -1.85782 0 8 -1.85782 1
gene 3 7 4 4.36651 0 9 4.36651 1
gene 1 7 16 4.45618 0 32 4.45618 1
gene 1 16 4 2.87155 0 33 2.87155 1
genomeend 50

/* Organism #51 Fitness: 8.97887 Error: 1.00352 */
genomestart 51
trait 1 0.1 0 0 0 0 0 0 0 
trait 2 0.266601 0 0 0 0 0 0.244588 0 
trait 3 0.3 0 0.762479 0 0 0 0 0.87228 
node 1 3 1 3
node 2 3 1 1
node 3 3 1 1
node 4 3 0 2
node 7 1 0 0
node 16 3 0 0
gene 2 1 4 -0.595417 0 1 -0.595417 1
gene 1 2 4 0.39959 0 2 0.39959 0
gene 2 3 4 -3.5469 0 3 -3.5469 1
gene 1 2 7 -2.96642 0 8 -2.96642 1
gene 3 7 4 0.687991 0 9 0.687991 1
gene 1 7 16 2.76082 0 32 2.76082 1
gene 1 16 4 4.97325 0 33 4.97325 1
genomeend 51

/* Organism #52 Fitness: 4 Error: 2 */
genomestart 52
trait 1 0.1 0 0 0 0 0 0 0 
trait 2 0.266601 0 0 0 0 0 0.244588 0 
trait 3 0.3 0 0.179434 0 0 0.536268 0 0.87228 
node 1 3 1 3
node 2 3 1 1
node 3 3 1 1
node 4 3 0 2
node 7 1 0 0
node 16 3 0 0
gene 2 1 4 2.36367 0 1 2.36367 1
gene 1 2 4 2.40417 0 2 2.40417 0
gene 2 3 4 1.19295 0 3 1.19295 1
gene 1 2 7 -3.09879 0 8 -3.09879 1
gene 3 7 4 2.66438 0 9 2.66438 1
gene 1 7 16 0.990343 0 32 0.990343 1
gene 1 16 4 4.12073 0 33 4.12073 1
genomeend 52

/* Organism #53 Fitness: 8.95519 Error: 1.00748 */
genomestart 53
trait 1 0.1 0 0 0 0 0 0 0 
trait 2 0.266601 0 0 0 0 0 0.244588 0 
trait 3 0.3 0 0.381239 0 0 0 0 0.43614 
node 1 3 1 3
node 2 3 1 1
node 3 3 1 1
node 4 3 0 2
node 7 1 0 0
node 16 3 0 0
gene 2 1 4 1.29396 0 1 1.29396 1
gene 1 2 4 2.06202 0 2 2.06202 0
gene 2 3 4 -3.41156 0 3 -3.41156 1
gene 1 2 7 -3.28876 0 8 -3.28876 1
gene 3 7 4 2.66057 0 9 2.66057 1
gene 1 7 16 3.78934 0 32 3.78934 1
gene 1 16 4 2.19086 0 33 2.19086 1
genomeend 53

/* Organism #54 Fitness: 3.99877 Error: 2.00031 */
genomestart 54
trait 1 0.1 0 0 0 0 0 0 0 
trait 2 0.266601 0 0 0 0 0 0.244588 0 
trait 3 0.3 0 0 0 0 0 0 0 
node 1 3 1 3
node 2 3 1 1
node 3 3 1 1
node 4 3 0 2
node 7 1 0 0
node 16 3 0 0
gene 2 1 4 -0.811328 0 1 -0.811328 1
gene 1 2 4 1.40717 0 2 1.40717 0
gene 2 3 4 -4.32613 0 3 -4.32613 1
gene 1 2 7 -3.09127 0 8 -3.09127 1
gene 3 7 4 2.96875 0 9 2.96875 1
gene 1 7 16 6.85096 0 32 6.85096 1
gene 1 16 4 -2.27428 0 33 -2.27428 1
genomeend 54

/* Organism #55 Fitness: 5.57222 Error: 1.63944 */
genomestart 55
trait 1 0.1 0 0 0 0 0 0 0 
trait 2 0.266601 0 0 0 0 0 0.244588 0 
trait 3 0.3 0 0 0 0 0 0 0 
node 1 3 1 3
node 2 3 1 1
node 3 3 1 1
node 4 3 0 2
node 7 1 0 0
node 16 3 0 0
gene 2 1 4 -0.23863 0 1 -0.23863 1
gene 1 2 4 1.2262 0 2 1.2262 0
gene 2 3 4 -0.850656 0 3 -0.850656 1
gene 1 2 7 -2.23033 0 8 -2.23033 1
gene 3 7 4 2.81488 0 9 2.81488 1
gene 1 7 16 4.97376 0 32 4.97376 1
gene 1 16 4 2.39525 0 33 2.39525 1
genomeend 55

/* Organism #56 Fitness: 8.80205 Error: 1.03318 */
genomestart 56
trait 1 0.1 0 0 0 0 0 0 0 
trait 2 0.266601 0 0 0 0 0 0.244588 0 
trait 3 0.3 0 0 0 0 0 0 0 
node 1 3 1 3
node 2 3 1 1
node 3 3 1 1
node 4 3 0 2
node 7 1 0 0
node 16 3 0 0
gene 2 1 4 -0.742025 0 1 -0.742025 1
gene 1 2 4 0.89231 0 2 0.89231 0
gene 2 3 4 -4.36279 0 3 -4.36279 1
gene 1 2 7 -2.69068 0 8 -2.69068 1
gene 3 7 4 6.64705 0 9 6.64705 1
gene 1 7 16 3.2703 0 32 3.2703 1
gene 1 16 4 2.90643 0 33 2.90643 1
genomeend 56

/* Organism #57 Fitness: 8.13805 Error: 1.14727 */
genomestart 57
trait 1 0.1 0 0 0 0 0 0 0 
trait 2 0.266601 0 0 0 0 0 0.244588 0 
trait 3 0.3 0 0.762479 0 0 0 0 0.87228 
node 1 3 1 3
node 2 3 1 1
node 3 3 1 1
node 4 3 0 2
node 7 1 0 0
node 16 3 0 0
gene 2 1 4 -1.47839 0 1 -1.47839 1
gene 1 2 4 0.639151 0 2 0.639151 1
gene 2 3 4 -1.35244 0 3 -1.35244 1
gene 1 2 7 -1.33069 0 8 -1.33069 1
gene 3 7 4 5.03028 0 9 5.03028 1
gene 1 7 16 4.50007 0 32 4.50007 1
gene 1 16 4 3.57343 0 33 3.57343 1
genomeend 57

/* Organism #58 Fitness: 3.14073 Error: 2.22779 */
genomestart 58
trait 1 0.1 0 0 0 0 0 0 0 
trait 2 0.2 0 0 0 0 0 0 0 
trait 3 0.3 0 0 0 0 0 0 0.138877 
node 1 3 1 3
node 2 3 1 1
node 3 3 1 1
node 4 3 0 2
node 7 1 0 0
node 16 3 0 0
node 38 1 0 0
gene 1 1 4 1.91001 0 1 1.91001 1
gene 1 2 4 -2.0442 0 2 -2.0442 1
gene 2 3 4 1.69404 0 3 1.69404 1
gene 1 2 7 0.759547 0 8 0.759547 1
gene 3 7 4 7.57775 0 9 7.57775 0
gene 1 7 16 2.28102 0 32 2.28102 1
gene 1 16 4 4.37996 0 33 4.37996 0
gene 1 16 38 2.08483 0 104 2.08483 1
gene 1 38 4 0.382024 0 105 0.382024 1
genomeend 58

/* Species #7 : (Size 7) (AF 7.1625) (Age 16)  */


/* Organism #59 Fitness: 8.99602 Error: 1.00066 */
genomestart 59
trait 1 0.1 0 0 0 0 0 0 0 
trait 2 0.2 0 0 0 0 0 0 0 
trait 3 0.509901 0 0 0 0 0.0275661 0 0.305989 
node 1 3 1 3
node 2 3 1 1
node 3 3 1 1
node 4 3 0 2
node 7 1 0 0
node 18 1 0 0
gene 1 1 4 -1.74427 0 1 -1.74427 1
gene 1 2 4 0.136292 0 2 0.136292 0
gene 2 3 4 -2.56611 0 3 -2.56611 1
gene 1 2 7 2.08762 0 8 2.08762 1
gene 1 7 4 3.4148 0 9 3.4148 1
gene 2 3 18 1.11609 0 38 1.11609 1
gene 2 18 4 -3.16104 0 39 -3.16104 1
gene 3 3 7 1.56989 0 56 1.56989 1
gene 1 2 18 -1.22297 0 160 -1.22297 1
genomeend 59

/* Organism #60 Fitness: 8.99029 Error: 1.00162 */
genomestart 60
trait 1 0.1 0 0 0 0 0 0 0 
trait 2 0.2 0 0 0 0 0 0 0 
trait 3 0.509901 0 0 0 0 0.0275661 0 0.305989 
node 1 3 1 3
node 2 3 1 1
node 3 3 1 1
node 4 3 0 2
node 7 1 0 0
node 18 1 0 0
gene 1 1 4 -1.94471 0 1 -1.94471 1
gene 1 2 4 -0.315613 0 2 -0.315613 0
gene 2 3 4 -2.85277 0 3 -2.85277 1
gene 1 2 7 2.51229 0 8 2.51229 1
gene 1 7 4 3.37953 0 9 3.37953 1
gene 2 3 18 0.902407 0 38 0.902407 1
gene 2 18 4 -3.5834 0 39 -3.5834 1
gene 3 3 7 2.16188 0 56 2.16188 1
gene 1 2 18 -1.7617 0 160 -1.7617 1
genomeend 60

/* Organism #61 Fitness: 4 Error: 2 */
genomestart 61
trait 1 0.176909 0 0.5502 0.0295011 0 0 0 0 
trait 2 0.2 0 0 0 0 0 0 0 
trait 3 0.509901 0 0 0 0 0.0275661 0 0.305989 
node 1 3 1 3
node 2 3 1 1
node 3 3 1 1
node 4 3 0 2
node 7 1 0 0
node 18 1 0 0
gene 1 1 4 -2.36547 0 1 -2.36547 1
gene 1 2 4 1.31382 0 2 1.31382 0
gene 2 3 4 -3.84065 0 3 -3.84065 1
gene 1 2 7 2.08762 0 8 2.08762 1
gene 1 7 4 1.60917 0 9 1.60917 1
gene 2 3 18 2.59155 0 38 2.59155 1
gene 2 18 4 -1.9905 0 39 -1.9905 1
gene 3 3 7 1.05048 0 56 1.05048 1
gene 1 2 18 0.44056 0 160 0.44056 1
genomeend 61

/* Organism #62 Fitness: 3.6977 Error: 2.07706 */
genomestart 62
trait 1 0.1 0 0 0 0 0 0 0 
trait 2 0.2 0 0 0 0 0 0 0 
trait 3 0.509901 0 0 0 0 0.0275661 0 0.305989 
node 1 3 1 3
node 2 3 1 1
node 3 3 1 1
node 4 3 0 2
node 7 1 0 0
node 18 1 0 0
gene 1 1 4 -0.416379 0 1 -0.416379 1
gene 1 2 4 0.374239 0 2 0.374239 0
gene 2 3 4 1.51491 0 3 1.51491 1
gene 1 2 7 -0.937365 0 8 -0.937365 1
gene 1 7 4 1.51411 0 9 1.51411 1
gene 2 3 18 -0.150267 0 38 -0.150267 1
gene 2 18 4 -1.33238 0 39 -1.33238 1
gene 3 3 7 -1.33163 0 56 -1.33163 1
gene 1 2 18 -3.81121 0 160 -3.81121 1
genomeend 62

/* Organism #63 Fitness: 6.49365 Error: 1.45174 */
genomestart 63
trait 1 0.1 0 0 0 0 0 0 0 
trait 2 0.2 0 0 0 0 0 0 0 
trait 3 0.509901 0 0 0 0 0.0275661 0 0.305989 
node 1 3 1 3
node 2 3 1 1
node 3 3 1 1
node 4 3 0 2
node 7 1 0 0
node 18 1 0 0
gene 1 1 4 -2.46159 0 1 -2.46159 1
gene 1 2 4 1.8591 0 2 1.8591 0
gene 2 3 4 -3.33326 0 3 -3.33326 1
gene 1 2 7 2.23768 0 8 2.23768 1
gene 1 7 4 4.64756 0 9 4.64756 1
gene 2 3 18 -0.82552 0 38 -0.82552 1
gene 2 18 4 -4.41152 0 39 -4.41152 1
gene 3 3 7 2.15436 0 56 2.15436 1
gene 1 2 18 -0.01091 0 160 -0.01091 1
genomeend 63

/* Organism #64 Fitness: 8.97657 Error: 1.00391 */
genomestart 64
trait 1 0.1 0 0 0 0 0 0 0 
trait 2 0.2 0 0 0 0 0 0 0 
trait 3 0.509901 0 0 0 0 0.0275661 0 0.305989 
node 1 3 1 3
node 2 3 1 1
node 3 3 1 1
node 4 3 0 2
node 7 1 0 0
node 18 1 0 0
gene 1 1 4 -2.14514 0 1 -2.14514 1
gene 1 2 4 0.136292 0 2 0.136292 0
gene 2 3 4 -2.56611 0 3 -2.56611 1
gene 1 2 7 2.93696 0 8 2.93696 1
gene 1 7 4 3.34426 0 9 3.34426 1
gene 2 3 18 0.688728 0 38 0.688728 1
gene 2 18 4 -4.00577 0 39 -4.00577 1
gene 3 3 7 2.75387 0 56 2.75387 1
gene 1 2 18 -2.30043 0 160 -2.30043 1
genomeend 64

/* Organism #65 Fitness: 8.98324 Error: 1.0028 */
genomestart 65
trait 1 0.1 0 0 0 0 0 0 0 
trait 2 0.2 0 0 0 0 0 0 0 
trait 3 0.509901 0 0 0 0 0.0275661 0 0.305989 
node 1 3 1 3
node 2 3 1 1
node 3 3 1 1
node 4 3 0 2
node 7 1 0 0
node 18 1 0 0
gene 1 1 4 -2.14514 0 1 -2.14514 1
gene 1 2 4 -0.767519 0 2 -0.767519 0
gene 2 3 4 -3.13943 0 3 -3.13943 1
gene 1 2 7 2.93696 0 8 2.93696 1
gene 1 7 4 3.34426 0 9 3.34426 1
gene 2 3 18 0.688728 0 38 0.688728 1
gene 2 18 4 -4.00577 0 39 -4.00577 1
gene 3 3 7 2.75387 0 56 2.75387 1
gene 1 2 18 -2.30043 0 160 -2.30043 1
genomeend 65

/* Species #8 : (Size 10) (AF 7.42143) (Age 14)  */


/* Organism #66 Fitness: 9 Error: 1 */
genomestart 66
trait 1 0.851345 0 0 0 0 0 0 0 
trait 2 0.2 0 0 0 0 0 0 0 
trait 3 0.3 0 0 0 0 0 0 0 
node 1 3 1 3
node 2 1 1 1
node 3 1 1 1
node 4 1 0 2
node 13 1 0 0
node 24 1 0 0
gene 1 1 4 -2.53776 0 1 -2.53776 1
gene 2 2 4 0.863606 0 2 0.863606 1
gene 1 3 4 -3.25612 0 3 -3.25612 1
gene 2 2 13 1.00823 0 22 1.00823 1
gene 2 13 4 4.93454 0 23 4.93454 1
gene 1 3 24 3.42562 0 61 3.42562 1
gene 1 24 4 -3.99519 0 62 -3.99519 1
gene 3 2 24 -2.34315 0 142 -2.34315 1
gene 3 1 24 0.389688 0 197 0.389688 1
genomeend 66

/* Organism #67 Fitness: 8.99998 Error: 1 */
genomestart 67
trait 1 0.475673 0 0 0 0 0 0 0 
trait 2 0.2 0 0 0 0 0 0 0 
trait 3 0.3 0 0 0 0 0 0 0 
node 1 3 1 3
node 2 1 1 1
node 3 1 1 1
node 4 1 0 2
node 13 1 0 0
node 24 1 0 0
gene 1 1 4 -3.59326 0 1 -3.59326 1
gene 2 2 4 2.67525 0 2 2.67525 1
gene 1 3 4 -2.49761 0 3 -2.49761 1
gene 2 2 13 1.15199 0 22 1.15199 1
gene 2 13 4 3.5129 0 23 3.5129 1
gene 1 3 24 5.84467 0 61 5.84467 1
gene 1 24 4 -4.19136 0 62 -4.19136 1
gene 3 2 24 -5.13893 0 142 -5.13893 1
genomeend 67

/* Organism #68 Fitness: 7.72163 Error: 1.22122 */
genomestart 68
trait 1 0.287836 0 0 0 0 0 0 0 
trait 2 0.2 0 0 0 0 0 0 0 
trait 3 0.3 0 0 0 0 0 0 0 
node 1 3 1 3
node 2 1 1 1
node 3 1 1 1
node 4 1 0 2
node 13 1 0 0
node 24 1 0 0
gene 1 1 4 -0.0417685 0 1 -0.0417685 1
gene 2 2 4 1.91199 0 2 1.91199 1
gene 1 3 4 -5.34914 0 3 -5.34914 1
gene 2 2 13 1.34566 0 22 1.34566 1
gene 2 13 4 -1.61677 0 23 -1.61677 1
gene 1 3 24 0.228471 0 61 0.228471 1
gene 1 24 4 -4.90001 0 62 -4.90001 1
gene 3 2 24 -4.7967 0 142 -4.7967 1
genomeend 68

/* Organism #69 Fitness: 3.99848 Error: 2.00038 */
genomestart 69
trait 1 0.475673 0 0 0 0 0 0 0 
trait 2 0.2 0 0 0 0 0 0 0 
trait 3 0.3 0 0 0 0 0 0 0 
node 1 3 1 3
node 2 1 1 1
node 3 1 1 1
node 4 1 0 2
node 13 1 0 0
node 24 1 0 0
gene 1 1 4 -4.47182 0 1 -4.47182 1
gene 2 2 4 2.63029 0 2 2.63029 1
gene 1 3 4 -1.1302 0 3 -1.1302 1
gene 2 2 13 0.792095 0 22 0.792095 1
gene 2 13 4 6.93887 0 23 6.93887 1
gene 1 3 24 2.76855 0 61 2.76855 1
gene 1 24 4 -2.46566 0 62 -2.46566 1
gene 3 2 24 -4.79062 0 142 -4.79062 1
gene 3 1 24 -0.231745 0 197 -0.231745 1
genomeend 69

/* Organism #70 Fitness: 6.93426 Error: 1.3667 */
genomestart 70
trait 1 0.475673 0 0 0 0 0 0 0 
trait 2 0.2 0 0 0 0 0 0 0 
trait 3 0.3 0 0 0 0 0 0 0 
node 1 3 1 3
node 2 1 1 1
node 3 1 1 1
node 4 1 0 2
node 13 1 0 0
node 24 1 0 0
gene 1 1 4 -2.12939 0 1 -2.12939 1
gene 2 2 4 3.21019 0 2 3.21019 1
gene 1 3 4 -3.53244 0 3 -3.53244 1
gene 2 2 13 3.14042 0 22 3.14042 1
gene 2 13 4 4.24745 0 23 4.24745 1
gene 1 3 24 5.80549 0 61 5.80549 1
gene 1 24 4 -4.00467 0 62 -4.00467 1
gene 3 2 24 -3.7932 0 142 -3.7932 1
gene 2 1 13 0.583965 0 209 0.583965 1
genomeend 70

/* Organism #71 Fitness: 6.59426 Error: 1.43207 */
genomestart 71
trait 1 0.287836 0 0 0 0 0 0 0 
trait 2 0.2 0 0 0 0 0 0 0 
trait 3 0.3 0 0 0 0 0 0 0 
node 1 3 1 3
node 2 1 1 1
node 3 1 1 1
node 4 1 0 2
node 13 1 0 0
node 24 1 0 0
gene 1 1 4 -0.843473 0 1 -0.843473 1
gene 2 2 4 2.80722 0 2 2.80722 1
gene 1 3 4 -4.64842 0 3 -4.64842 1
gene 2 2 13 0.14003 0 22 0.14003 1
gene 2 13 4 3.92863 0 23 3.92863 1
gene 1 3 24 -1.47447 0 61 -1.47447 1
gene 1 24 4 -3.91759 0 62 -3.91759 1
gene 3 2 24 -3.23094 0 142 -3.23094 1
genomeend 71

/* Organism #72 Fitness: 8.99984 Error: 1.00003 */
genomestart 72
trait 1 0.475673 0 0 0 0 0 0 0 
trait 2 0.2 0 0 0 0 0 0 0 
trait 3 0.3 0 0 0 0 0 0 0 
node 1 3 1 3
node 2 1 1 1
node 3 1 1 1
node 4 1 0 2
node 13 1 0 0
node 24 1 0 0
gene 1 1 4 -3.71265 0 1 -3.71265 1
gene 2 2 4 3.25774 0 2 3.25774 1
gene 1 3 4 -2.71144 0 3 -2.71144 1
gene 2 2 13 0.143782 0 22 0.143782 1
gene 2 13 4 3.88092 0 23 3.88092 1
gene 1 3 24 4.49323 0 61 4.49323 1
gene 1 24 4 -5.64874 0 62 -5.64874 1
gene 3 2 24 -4.07158 0 142 -4.07158 1
gene 3 1 24 2.78422 0 197 2.78422 1
genomeend 72

/* Organism #73 Fitness: 8.95957 Error: 1.00675 */
genomestart 73
trait 1 0.851345 0 0 0 0 0 0 0 
trait 2 0.2 0 0 0 0 0 0 0 
trait 3 0.3 0 0 0 0 0 0 0 
node 1 3 1 3
node 2 1 1 1
node 3 1 1 1
node 4 1 0 2
node 13 1 0 0
node 24 1 0 0
gene 1 1 4 -3.2882 0 1 -3.2882 1
gene 2 2 4 1.80291 0 2 1.80291 1
gene 1 3 4 -2.35492 0 3 -2.35492 1
gene 2 2 13 1.57464 0 22 1.57464 1
gene 2 13 4 2.64913 0 23 2.64913 1
gene 1 3 24 5.7294 0 61 5.7294 1
gene 1 24 4 -6.20223 0 62 -6.20223 1
gene 3 2 24 -3.32972 0 142 -3.32972 1
gene 3 1 24 2.57739 0 197 2.57739 1
genomeend 73

/* Organism #74 Fitness: 8.99992 Error: 1.00001 */
genomestart 74
trait 1 0.851345 0 0 0 0 0 0 0 
trait 2 0.2 0 0 0 0 0 0 0 
trait 3 0.3 0 0 0 0 0 0 0 
node 1 3 1 3
node 2 1 1 1
node 3 1 1 1
node 4 1 0 2
node 13 1 0 0
node 24 1 0 0
node 66 1 0 0
gene 1 1 4 -2.53776 0 1 -2.53776 1
gene 2 2 4 0.863606 0 2 0.863606 1
gene 1 3 4 -3.25612 0 3 -3.25612 1
gene 2 2 13 1.00823 0 22 1.00823 1
gene 2 13 4 4.93454 0 23 4.93454 1
gene 1 3 24 3.42562 0 61 3.42562 0
gene 1 24 4 -3.99519 0 62 -3.99519 1
gene 3 2 24 -2.34315 0 142 -2.34315 1
gene 3 1 24 0.389688 0 197 0.389688 1
gene 1 3 66 1 0 210 0 1
gene 1 66 24 3.42562 0 211 0 1
genomeend 74

/* Organism #75 Fitness: 4.00631 Error: 1.99842 */
genomestart 75
trait 1 0.1 0 0 0 0 0 0 0 
trait 2 0.2 0 0 0 0 0 0 0 
trait 3 0.3 0 0 0 0 0 0 0 
node 1 3 1 3
node 2 1 1 1
node 3 1 1 1
node 4 1 0 2
node 13 1 0 0
node 24 1 0 0
gene 1 1 4 -2.89186 0 1 -2.89186 1
gene 2 2 4 -0.681371 0 2 -0.681371 1
gene 1 3 4 -4.78622 0 3 -4.78622 1
gene 2 2 13 0.528162 0 22 0.528162 1
gene 2 13 4 2.62616 0 23 2.62616 1
gene 1 3 24 1.77641 0 61 1.77641 1
gene 1 24 4 -6.03262 0 62 -6.03262 1
gene 3 2 24 -0.705368 0 142 -0.705368 1
genomeend 75

/* Species #9 : (Size 10) (AF 6.93144) (Age 14)  */


/* Organism #76 Fitness: 8.99735 Error: 1.00044 */
genomestart 76
trait 1 0.05 0 0.493885 0 0.483737 0 0 0 
trait 2 0.865326 0 0 0 0 0 0.701787 0 
trait 3 0.3 0 0 0 0 0 0 0 
node 1 3 1 3
node 2 3 1 1
node 3 3 1 1
node 4 3 0 2
node 7 1 0 0
node 15 1 0 0
node 25 1 0 0
node 60 1 0 0
gene 1 1 4 -1.68589 0 1 -1.68589 1
gene 1 2 4 5.33934 0 2 5.33934 1
gene 2 3 4 4.64482 0 3 4.64482 1
gene 1 2 7 -3.79443 0 8 -3.79443 0
gene 1 7 4 -5.36474 0 9 -5.36474 0
gene 1 2 15 4.76424 0 30 4.76424 1
gene 3 15 7 2.00405 0 31 2.00405 0
gene 2 15 4 0.25736 0 44 0.25736 1
gene 1 7 25 -0.601506 0 65 -0.601506 1
gene 1 25 4 -2.20872 0 66 -2.20872 1
gene 3 1 15 0.401912 0 143 0.401912 1
gene 3 15 60 1 0 188 0 1
gene 3 60 7 2.00405 0 189 0 1
gene 1 2 60 -0.182812 0 202 -0.182812 1
genomeend 76

/* Organism #77 Fitness: 8.97279 Error: 1.00454 */
genomestart 77
trait 1 0.05 0 0.493885 0 0.483737 0 0 0 
trait 2 0.865326 0 0 0 0 0 0.701787 0 
trait 3 0.3 0 0 0 0 0 0 0 
node 1 3 1 3
node 2 3 1 1
node 3 3 1 1
node 4 3 0 2
node 7 1 0 0
node 15 1 0 0
node 25 1 0 0
node 60 1 0 0
gene 1 1 4 -0.954607 0 1 -0.954607 1
gene 1 2 4 3.58233 0 2 3.58233 1
gene 2 3 4 2.82782 0 3 2.82782 1
gene 1 2 7 -1.92432 0 8 -1.92432 0
gene 1 7 4 -3.80068 0 9 -3.80068 0
gene 1 2 15 4.8212 0 30 4.8212 1
gene 3 15 7 0.175298 0 31 0.175298 0
gene 2 15 4 -0.136539 0 44 -0.136539 1
gene 1 7 25 -0.605112 0 65 -0.605112 1
gene 1 25 4 -3.0232 0 66 -3.0232 1
gene 3 1 15 -0.886361 0 143 -0.886361 1
gene 3 15 60 2.04606 0 188 2.04606 1
gene 3 60 7 2.00405 0 189 2.00405 1
gene 1 2 60 0.373084 0 202 0.373084 1
genomeend 77

/* Organism #78 Fitness: 8.95243 Error: 1.00794 */
genomestart 78
trait 1 0.05 0 0.493885 0 0.483737 0 0 0 
trait 2 0.865326 0 0 0.0840914 0 0 1 0 
trait 3 0.3 0 0 0 0 0 0 0 
node 1 3 1 3
node 2 3 1 1
node 3 3 1 1
node 4 3 0 2
node 7 1 0 0
node 15 1 0 0
node 25 1 0 0
node 60 1 0 0
gene 1 1 4 -2.08941 0 1 -2.08941 1
gene 1 2 4 2.35568 0 2 2.35568 1
gene 2 3 4 2.62005 0 3 2.62005 1
gene 1 2 7 -3.42407 0 8 -3.42407 0
gene 1 7 4 -5.66461 0 9 -5.66461 0
gene 1 2 15 6.88767 0 30 6.88767 1
gene 3 15 7 3.55573 0 31 3.55573 0
gene 2 15 4 1.87082 0 44 1.87082 1
gene 1 7 25 0.104961 0 65 0.104961 1
gene 1 25 4 -1.27781 0 66 -1.27781 1
gene 3 1 15 0.998082 0 143 0.998082 1
gene 3 15 60 0.0334657 0 188 0.0334657 1
gene 3 60 7 2.62272 0 189 2.62272 1
genomeend 78

/* Organism #79 Fitness: 8.99485 Error: 1.00086 */
genomestart 79
trait 1 0.05 0 0.493885 0 0.483737 0 0 0 
trait 2 0.865326 0 0 0 0 0 0.701787 0 
trait 3 0.3 0 0 0 0 0 0 0 
node 1 3 1 3
node 2 3 1 1
node 3 3 1 1
node 4 3 0 2
node 7 1 0 0
node 15 1 0 0
node 25 1 0 0
node 60 1 0 0
gene 1 1 4 -0.131542 0 1 -0.131542 1
gene 1 2 4 5.33934 0 2 5.33934 1
gene 2 3 4 4.64482 0 3 4.64482 1
gene 1 2 7 -3.79443 0 8 -3.79443 0
gene 1 7 4 -5.36474 0 9 -5.36474 0
gene 1 2 15 4.76424 0 30 4.76424 1
gene 3 15 7 2.00405 0 31 2.00405 0
gene 2 15 4 0.82132 0 44 0.82132 1
gene 1 7 25 0.485713 0 65 0.485713 1
gene 1 25 4 -2.20872 0 66 -2.20872 1
gene 3 1 15 0.401912 0 143 0.401912 1
gene 3 15 60 1 0 188 0 1
gene 3 60 7 2.00405 0 189 0 1
gene 2 3 15 0.691726 0 212 0.691726 1
genomeend 79

/* Organism #80 Fitness: 1.63364 Error: 2.72186 */
genomestart 80
trait 1 0.05 0 0.493885 0 0.483737 0 0 0 
trait 2 0.865326 0 0 0 0 0 0.701787 0 
trait 3 0.3 0 0 0 0 0 0 0 
node 1 3 1 3
node 2 3 1 1
node 3 3 1 1
node 4 3 0 2
node 7 1 0 0
node 15 1 0 0
node 25 1 0 0
node 60 1 0 0
gene 1 1 4 -2.8983 0 1 -2.8983 1
gene 1 2 4 4.74633 0 2 4.74633 1
gene 2 3 4 3.29989 0 3 3.29989 1
gene 1 2 7 -3.22056 0 8 -3.22056 0
gene 1 7 4 -4.7468 0 9 -4.7468 0
gene 1 2 15 4.35913 0 30 4.35913 1
gene 3 15 7 2.49888 0 31 2.49888 0
gene 2 15 4 2.36178 0 44 2.36178 1
gene 1 7 25 1.04341 0 65 1.04341 1
gene 1 25 4 -4.42934 0 66 -4.42934 1
gene 3 1 15 -1.1144 0 143 -1.1144 1
gene 3 15 60 0.985023 0 188 0.985023 1
gene 3 60 7 2.00405 0 189 2.00405 1
gene 1 2 60 -0.182812 0 202 -0.182812 1
genomeend 80

/* Organism #81 Fitness: 4.17404 Error: 1.95695 */
genomestart 81
trait 1 0.05 0 0.493885 0 0.483737 0 0 0 
trait 2 0.865326 0 0 0 0 0 0.701787 0 
trait 3 0.3 0 0 0 0 0 0 0 
node 1 3 1 3
node 2 3 1 1
node 3 3 1 1
node 4 3 0 2
node 7 1 0 0
node 15 1 0 0
node 25 1 0 0
node 60 1 0 0
gene 1 1 4 1.18794 0 1 1.18794 1
gene 1 2 4 1.88651 0 2 1.88651 1
gene 2 3 4 5.92561 0 3 5.92561 1
gene 1 2 7 -3.79443 0 8 -3.79443 0
gene 1 7 4 0.296676 0 9 0.296676 0
gene 1 2 15 6.12172 0 30 6.12172 1
gene 3 15 7 3.43866 0 31 3.43866 0
gene 2 15 4 1.10192 0 44 1.10192 1
gene 1 7 25 -0.898348 0 65 -0.898348 1
gene 1 25 4 -3.42575 0 66 -3.42575 1
gene 3 1 15 -0.875392 0 143 -0.875392 1
gene 3 15 60 -1.26677 0 188 -1.26677 1
gene 3 60 7 -0.238259 0 189 -0.238259 1
gene 1 2 60 -0.182812 0 202 -0.182812 1
genomeend 81

/* Organism #82 Fitness: 3.93571 Error: 2.01614 */
genomestart 82
trait 1 0.05 0 0.493885 0 0.483737 0 0 0 
trait 2 0.865326 0 0 0 0 0 0.701787 0 
trait 3 0.3 0 0 0 0 0 0 0 
node 1 3 1 3
node 2 3 1 1
node 3 3 1 1
node 4 3 0 2
node 7 1 0 0
node 15 1 0 0
node 25 1 0 0
node 60 1 0 0
gene 1 1 4 2.03897 0 1 2.03897 1
gene 1 2 4 6.63401 0 2 6.63401 1
gene 2 3 4 -2.18931 0 3 -2.18931 1
gene 1 2 7 -0.18059 0 8 -0.18059 0
gene 1 7 4 -5.30636 0 9 -5.30636 0
gene 1 2 15 3.54728 0 30 3.54728 1
gene 3 15 7 0.636643 0 31 0.636643 0
gene 2 15 4 -0.993206 0 44 -0.993206 1
gene 1 7 25 1.60485 0 65 1.60485 1
gene 1 25 4 1.85835 0 66 1.85835 1
gene 3 1 15 0.401912 0 143 0.401912 1
gene 3 15 60 1.83747 0 188 1.83747 1
gene 3 60 7 3.69653 0 189 3.69653 1
genomeend 82

/* Organism #83 Fitness: 8.71301 Error: 1.04822 */
genomestart 83
trait 1 0.05 0 0.493885 0 0.483737 0 0 0 
trait 2 0.865326 0 0 0 0 0 0.701787 0 
trait 3 0.3 0 0 0 0 0 0 0 
node 1 3 1 3
node 2 3 1 1
node 3 3 1 1
node 4 3 0 2
node 7 1 0 0
node 15 1 0 0
node 25 1 0 0
node 60 1 0 0
gene 1 1 4 -0.131542 0 1 -0.131542 1
gene 1 2 4 5.33934 0 2 5.33934 1
gene 2 3 4 4.64482 0 3 4.64482 1
gene 1 2 7 -3.79443 0 8 -3.79443 0
gene 1 7 4 -5.36474 0 9 -5.36474 0
gene 1 2 15 4.76424 0 30 4.76424 1
gene 3 15 7 2.00405 0 31 2.00405 0
gene 2 15 4 0.53934 0 44 0.53934 1
gene 1 7 25 -0.0578964 0 65 -0.0578964 1
gene 1 25 4 -2.20872 0 66 -2.20872 1
gene 3 1 15 0.401912 0 143 0.401912 1
gene 3 15 60 1 0 188 0 1
gene 3 60 7 2.00405 0 189 0 1
genomeend 83

/* Organism #84 Fitness: 5.95 Error: 1.56074 */
genomestart 84
trait 1 0.05 0 0.493885 0 0.483737 0 0 0 
trait 2 0.865326 0 0 0 0 0 0.701787 0 
trait 3 0.3 0 0 0 0 0 0 0 
node 1 3 1 3
node 2 3 1 1
node 3 3 1 1
node 4 3 0 2
node 7 1 0 0
node 15 1 0 0
node 25 1 0 0
node 60 1 0 0
gene 1 1 4 0.767527 0 1 0.767527 1
gene 1 2 4 -1.01301 0 2 -1.01301 1
gene 2 3 4 6.96646 0 3 6.96646 1
gene 1 2 7 -3.46448 0 8 -3.46448 0
gene 1 7 4 -6.47097 0 9 -6.47097 0
gene 1 2 15 5.2656 0 30 5.2656 1
gene 3 15 7 -0.150256 0 31 -0.150256 0
gene 2 15 4 3.22747 0 44 3.22747 1
gene 1 7 25 -0.0407877 0 65 -0.0407877 1
gene 1 25 4 -1.60065 0 66 -1.60065 1
gene 3 1 15 -1.42648 0 143 -1.42648 1
gene 3 15 60 0.2168 0 188 0.2168 1
gene 3 60 7 1.97768 0 189 1.97768 1
genomeend 84

/* Organism #85 Fitness: 8.9906 Error: 1.00157 */
genomestart 85
trait 1 0.05 0 0.493885 0 0.483737 0 0 0 
trait 2 0.865326 0 0 0 0 0 0.701787 0 
trait 3 0.3 0 0 0 0 0 0 0 
node 1 3 1 3
node 2 3 1 1
node 3 3 1 1
node 4 3 0 2
node 7 1 0 0
node 15 1 0 0
node 25 1 0 0
node 60 1 0 0
gene 1 1 4 -1.2973 0 1 -1.2973 1
gene 1 2 4 4.91832 0 2 4.91832 1
gene 2 3 4 4.64482 0 3 4.64482 1
gene 1 2 7 -3.79443 0 8 -3.79443 0
gene 1 7 4 -5.36474 0 9 -5.36474 0
gene 1 2 15 4.72891 0 30 4.72891 1
gene 3 15 7 2.00405 0 31 2.00405 0
gene 2 15 4 0.39835 0 44 0.39835 1
gene 1 7 25 -0.329701 0 65 -0.329701 1
gene 1 25 4 -2.20872 0 66 -2.20872 1
gene 3 1 15 0.401912 0 143 0.401912 1
gene 3 15 60 1 0 188 0 1
gene 3 60 7 2.00405 0 189 0 1
gene 1 2 60 -0.182812 0 202 -0.182812 1
genomeend 85

/* Species #10 : (Size 8) (AF 6.55424) (Age 12)  */


/* Organism #86 Fitness: 8.98301 Error: 1.00283 */
genomestart 86
trait 1 0.1 0 0 0 0 0 0 0 
trait 2 0.402221 0 0.310262 0 0 0.124393 0.267443 0.0860638 
trait 3 0.3 0 0 0 0 0 0 0 
node 1 3 1 3
node 2 3 1 1
node 3 3 1 1
node 4 3 0 2
node 7 3 0 0
node 33 1 0 0
gene 1 1 4 -1.31115 0 1 -1.31115 1
gene 1 2 4 -4.08429 0 2 -4.08429 1
gene 2 3 4 -5.29716 0 3 -5.29716 1
gene 1 2 7 8 0 8 8 1
gene 1 7 4 4.89664 0 9 4.89664 0
gene 3 3 7 -1.98119 0 63 -1.98119 1
gene 1 7 33 -2.66172 0 87 -2.66172 1
gene 1 33 4 7.21606 0 88 7.21606 1
gene 2 2 33 3.21102 0 144 3.21102 1
genomeend 86

/* Organism #87 Fitness: 3.99992 Error: 2.00002 */
genomestart 87
trait 1 0.1 0 0 0 0 0 0 0 
trait 2 0.514305 0 0.282408 0 0 0.124393 0.267443 0.0699268 
trait 3 0.3 0 0 0 0 0 0 0 
node 1 3 1 3
node 2 3 1 1
node 3 3 1 1
node 4 3 0 2
node 7 3 0 0
node 33 1 0 0
gene 1 1 4 -0.731253 0 1 -0.731253 1
gene 1 2 4 -6.16968 0 2 -6.16968 1
gene 2 3 4 -3.33226 0 3 -3.33226 0
gene 1 2 7 8 0 8 8 1
gene 1 7 4 3.9192 0 9 3.9192 0
gene 3 3 7 0.29022 0 63 0.29022 1
gene 1 7 33 -2.9221 0 87 -2.9221 1
gene 1 33 4 0.222199 0 88 0.222199 1
gene 2 2 33 -1.40152 0 144 -1.40152 1
genomeend 87

/* Organism #88 Fitness: 13.6671 Error: 0.303101 */
/* ##------$ WINNER 88 SPECIES #10 $------## */
genomestart 88
trait 1 0.1 0 0 0 0 0 0 0 
trait 2 0.402221 0 0.310262 0 0 0.124393 0.267443 0.0860638 
trait 3 0.3 0 0 0 0 0 0 0 
node 1 3 1 3
node 2 3 1 1
node 3 3 1 1
node 4 3 0 2
node 7 3 0 0
node 33 1 0 0
gene 1 1 4 -1.31115 0 1 -1.31115 1
gene 1 2 4 -4.08429 0 2 -4.08429 1
gene 2 3 4 -5.29716 0 3 -5.29716 1
gene 1 2 7 8 0 8 8 1
gene 1 7 4 4.89664 0 9 4.89664 0
gene 3 3 7 -1.98119 0 63 -1.98119 1
gene 1 7 33 -2.66172 0 87 -2.66172 1
gene 1 33 4 7.21606 0 88 7.21606 1
gene 2 2 33 3.21102 0 144 3.21102 1
gene 2 1 33 0.55778 0 213 0.55778 1
genomeend 88

/* Organism #89 Fitness: 4 Error: 2 */
genomestart 89
trait 1 0.1 0 0 0 0 0 0 0 
trait 2 0.402221 0 0.310262 0 0 0.124393 0.267443 0.0860638 
trait 3 0.3 0 0 0 0 0 0 0 
node 1 3 1 3
node 2 3 1 1
node 3 3 1 1
node 4 3 0 2
node 7 3 0 0
node 33 1 0 0
gene 1 1 4 -3.75637 0 1 -3.75637 1
gene 1 2 4 -4.33972 0 2 -4.33972 1
gene 2 3 4 -6.21406 0 3 -6.21406 1
gene 1 2 7 6.96183 0 8 6.96183 1
gene 1 7 4 6.05208 0 9 6.05208 0
gene 3 3 7 -3.0088 0 63 -3.0088 1
gene 1 7 33 -4.56217 0 87 -4.56217 1
gene 1 33 4 1.97046 0 88 1.97046 1
gene 2 2 33 2.46992 0 144 2.46992 1
genomeend 89

/* Organism #90 Fitness: 4.12161 Error: 1.96982 */
genomestart 90
trait 1 0.1 0 0 0 0 0 0 0 
trait 2 0.626388 0 0.254553 0 0 0.124393 0.267443 0.0537899 
trait 3 0.3 0 0 0 0 0 0 0 
node 1 3 1 3
node 2 3 1 1
node 3 3 1 1
node 4 3 0 2
node 7 3 0 0
node 33 1 0 0
gene 1 1 4 0.704588 0 1 0.704588 1
gene 1 2 4 -5.18628 0 2 -5.18628 1
gene 2 3 4 -5.31923 0 3 -5.31923 0
gene 1 2 7 7.78546 0 8 7.78546 1
gene 1 7 4 5.83032 0 9 5.83032 0
gene 3 3 7 -3.15028 0 63 -3.15028 1
gene 1 7 33 -4.41532 0 87 -4.41532 1
gene 1 33 4 5.32997 0 88 5.32997 1
gene 2 2 33 3.19195 0 144 3.19195 1
genomeend 90

/* Organism #91 Fitness: 4.77214 Error: 1.81548 */
genomestart 91
trait 1 0.1 0 0 0 0 0 0 0 
trait 2 0.402221 0 0.310262 0 0 0.124393 0.267443 0.0860638 
trait 3 0.3 0 0 0 0 0 0 0 
node 1 3 1 3
node 2 3 1 1
node 3 3 1 1
node 4 3 0 2
node 7 3 0 0
node 33 1 0 0
gene 1 1 4 -1.31115 0 1 -1.31115 1
gene 1 2 4 -4.08429 0 2 -4.08429 1
gene 2 3 4 -5.29716 0 3 -5.29716 1
gene 1 2 7 8 0 8 8 1
gene 1 7 4 4.89664 0 9 4.89664 0
gene 3 3 7 -1.98119 0 63 -1.98119 1
gene 1 7 33 -2.66172 0 87 -2.66172 1
gene 1 33 4 7.21606 0 88 7.21606 1
gene 2 2 33 3.21102 0 144 3.21102 1
gene 2 1 7 -0.457495 0 214 -0.457495 1
genomeend 91

/* Organism #92 Fitness: 8.96076 Error: 1.00655 */
genomestart 92
trait 1 0.1 0 0 0 0 0 0 0 
trait 2 0.514305 0 0.282408 0 0 0.124393 0.267443 0.0699268 
trait 3 0.3 0 0 0 0 0 0 0 
node 1 3 1 3
node 2 3 1 1
node 3 3 1 1
node 4 3 0 2
node 7 3 0 0
node 33 1 0 0
gene 1 1 4 -2.97978 0 1 -2.97978 1
gene 1 2 4 -5.4338 0 2 -5.4338 1
gene 2 3 4 -3.44183 0 3 -3.44183 0
gene 1 2 7 8 0 8 8 1
gene 1 7 4 4.64733 0 9 4.64733 0
gene 3 3 7 -2.37101 0 63 -2.37101 1
gene 1 7 33 -3.92455 0 87 -3.92455 1
gene 1 33 4 8 0 88 8 1
gene 2 2 33 1.29696 0 144 1.29696 1
genomeend 92

/* Organism #93 Fitness: 3.92938 Error: 2.01773 */
genomestart 93
trait 1 0.1 0 0 0 0 0 0 0 
trait 2 0.626388 0 0.254553 0 0 0.124393 0.267443 0.0537899 
trait 3 0.3 0 0 0 0 0 0 0 
node 1 3 1 3
node 2 3 1 1
node 3 3 1 1
node 4 3 0 2
node 7 3 0 0
node 33 1 0 0
gene 1 1 4 -0.731253 0 1 -0.731253 1
gene 1 2 4 -3.91477 0 2 -3.91477 1
gene 2 3 4 -3.33226 0 3 -3.33226 1
gene 1 2 7 7.7268 0 8 7.7268 1
gene 1 7 4 3.9192 0 9 3.9192 0
gene 3 3 7 -1.88093 0 63 -1.88093 1
gene 1 7 33 -2.31663 0 87 -2.31663 1
gene 1 33 4 6.3269 0 88 6.3269 1
gene 2 2 33 1.66207 0 144 1.66207 1
genomeend 93

/* Species #11 : (Size 11) (AF 7.7678) (Age 11)  */


/* Organism #94 Fitness: 9 Error: 1 */
genomestart 94
trait 1 0.1 0 0 0 0 0 0 0 
trait 2 0.2 0 0 0 0 0 0 0 
trait 3 0.3 0 0 0 0 0 0 0.134398 
node 1 3 1 3
node 2 3 1 1
node 3 3 1 1
node 4 3 0 2
node 7 1 0 0
node 16 3 0 0
node 38 1 0 0
gene 1 1 4 -4.19188 0 1 -4.19188 1
gene 1 2 4 8 0 2 8 1
gene 2 3 4 8 0 3 8 1
gene 1 2 7 -1.20062 0 8 -1.20062 1
gene 3 7 4 7.14976 0 9 7.14976 0
gene 1 7 16 1.14981 0 32 1.14981 1
gene 1 16 4 2.36792 0 33 2.36792 0
gene 1 16 38 -4.96729 0 104 -4.96729 1
gene 1 38 4 0.831829 0 105 0.831829 1
gene 3 2 16 -0.968884 0 203 -0.968884 1
genomeend 94

/* Organism #95 Fitness: 9 Error: 1 */
genomestart 95
trait 1 0.1 0 0 0 0 0 0 0 
trait 2 0.2 0 0 0 0 0 0 0 
trait 3 0.3 0 0 0 0 0 0 0.134398 
node 1 3 1 3
node 2 3 1 1
node 3 3 1 1
node 4 3 0 2
node 7 1 0 0
node 16 3 0 0
node 38 1 0 0
gene 1 1 4 -4.19188 0 1 -4.19188 1
gene 1 2 4 8 0 2 8 1
gene 2 3 4 8 0 3 8 1
gene 2 2 7 -1.20062 0 8 -1.20062 1
gene 3 7 4 7.14976 0 9 7.14976 0
gene 1 7 16 0.086154 0 32 0.086154 1
gene 1 16 4 2.36792 0 33 2.36792 0
gene 1 16 38 -4.96729 0 104 -4.96729 1
gene 1 38 4 -0.59682 0 105 -0.59682 1
genomeend 95

/* Organism #96 Fitness: 8.75803 Error: 1.0406 */
genomestart 96
trait 1 0.1 0 0 0 0 0 0 0 
trait 2 0.394575 0 0.0727851 0 0 0.0987745 0 0 
trait 3 0.3 0 0 0 0 0 0 0.138877 
node 1 3 1 3
node 2 3 1 1
node 3 3 1 1
node 4 3 0 2
node 7 1 0 0
node 16 3 0 0
node 38 1 0 0
gene 1 1 4 -4.19188 0 1 -4.19188 1
gene 1 2 4 8 0 2 8 1
gene 2 3 4 2.30134 0 3 2.30134 1
gene 1 2 7 -1.1725 0 8 -1.1725 1
gene 3 7 4 7.09633 0 9 7.09633 1
gene 2 7 16 0.641882 0 32 0.641882 1
gene 1 16 4 2.78678 0 33 2.78678 0
gene 1 16 38 -5.63309 0 104 -5.63309 1
gene 1 38 4 0.822088 0 105 0.822088 1
genomeend 96

/* Organism #97 Fitness: 4.34474 Error: 1.9156 */
genomestart 97
trait 1 0.1 0 0 0 0 0 0 0 
trait 2 0.2 0 0 0 0 0 0 0 
trait 3 0.3 0 0 0 0 0 0 0.134398 
node 1 3 1 3
node 2 3 1 1
node 3 3 1 1
node 4 3 0 2
node 7 1 0 0
node 16 3 0 0
node 38 1 0 0
gene 1 1 4 -2.75284 0 1 -2.75284 1
gene 1 2 4 2.26872 0 2 2.26872 1
gene 2 3 4 5.85925 0 3 5.85925 1
gene 1 2 7 1.77474 0 8 1.77474 1
gene 3 7 4 -1.19336 0 9 -1.19336 0
gene 1 7 16 1.07737 0 32 1.07737 1
gene 1 16 4 1.70344 0 33 1.70344 0
gene 1 16 38 -5.98417 0 104 -5.98417 1
gene 1 38 4 0.137798 0 105 0.137798 1
genomeend 97

/* Organism #98 Fitness: 8.98339 Error: 1.00277 */
genomestart 98
trait 1 0.1 0 0 0 0 0 0 0 
trait 2 0.2 0 0 0 0 0 0 0 
trait 3 0.3 0 0 0 0 0 0 0.134398 
node 1 3 1 3
node 2 3 1 1
node 3 3 1 1
node 4 3 0 2
node 7 1 0 0
node 16 3 0 0
node 38 1 0 0
gene 1 1 4 -5.94702 0 1 -5.94702 1
gene 1 2 4 8 0 2 8 1
gene 2 3 4 7.14559 0 3 7.14559 1
gene 1 2 7 -0.142224 0 8 -0.142224 1
gene 3 7 4 8 0 9 8 0
gene 1 7 16 1.99465 0 32 1.99465 1
gene 1 16 4 4.19296 0 33 4.19296 0
gene 1 16 38 -3.59457 0 104 -3.59457 1
gene 1 38 4 -0.235073 0 105 -0.235073 1
gene 3 2 16 -0.968884 0 203 -0.968884 1
genomeend 98

/* Organism #99 Fitness: 9 Error: 1 */
genomestart 99
trait 1 0.1 0 0 0 0 0 0 0 
trait 2 0.2 0 0 0 0 0 0 0 
trait 3 0.3 0 0 0 0 0 0 0.134398 
node 1 3 1 3
node 2 3 1 1
node 3 3 1 1
node 4 3 0 2
node 7 1 0 0
node 16 3 0 0
node 38 1 0 0
gene 1 1 4 -3.50291 0 1 -3.50291 1
gene 1 2 4 8 0 2 8 1
gene 2 3 4 7.38131 0 3 7.38131 1
gene 1 2 7 -1.16125 0 8 -1.16125 1
gene 3 7 4 8 0 9 8 0
gene 1 7 16 2.61467 0 32 2.61467 1
gene 1 16 4 1.52027 0 33 1.52027 0
gene 1 16 38 -5.38983 0 104 -5.38983 1
gene 1 38 4 2.10051 0 105 2.10051 1
gene 3 2 16 0.214805 0 203 0.214805 1
genomeend 99

/* Organism #100 Fitness: 9 Error: 1 */
genomestart 100
trait 1 0.1 0 0 0 0 0 0 0 
trait 2 0.2 0 0 0 0 0 0 0 
trait 3 0.3 0 0 0 0 0 0 0.134398 
node 1 3 1 3
node 2 3 1 1
node 3 3 1 1
node 4 3 0 2
node 7 1 0 0
node 16 3 0 0
node 38 1 0 0
gene 1 1 4 -4.19188 0 1 -4.19188 1
gene 1 2 4 8 0 2 8 1
gene 2 3 4 8 0 3 8 1
gene 1 2 7 -0.643568 0 8 -0.643568 1
gene 3 7 4 7.14976 0 9 7.14976 0
gene 1 7 16 0.617981 0 32 0.617981 1
gene 1 16 4 2.52353 0 33 2.52353 0
gene 1 16 38 -4.96729 0 104 -4.96729 1
gene 1 38 4 0.117505 0 105 0.117505 1
gene 3 2 16 -0.968884 0 203 -0.968884 1
genomeend 100

/* Organism #101 Fitness: 6.43221 Error: 1.46382 */
genomestart 101
trait 1 0.1 0 0 0 0 0 0 0 
trait 2 0.2 0 0 0 0 0 0 0 
trait 3 0.3 0 0 0 0 0 0 0.136637 
node 1 3 1 3
node 2 3 1 1
node 3 3 1 1
node 4 3 0 2
node 7 1 0 0
node 16 3 0 0
node 38 1 0 0
gene 1 1 4 -5.70378 0 1 -5.70378 1
gene 1 2 4 7.59045 0 2 7.59045 1
gene 2 3 4 5.73329 0 3 5.73329 1
gene 1 2 7 -2.2345 0 8 -2.2345 1
gene 3 7 4 1.84524 0 9 1.84524 0
gene 1 7 16 2.59777 0 32 2.59777 1
gene 1 16 4 2.2523 0 33 2.2523 0
gene 1 16 38 -6.27585 0 104 -6.27585 1
gene 1 38 4 3.11435 0 105 3.11435 1
genomeend 101

/* Organism #102 Fitness: 2.9275 Error: 2.28901 */
genomestart 102
trait 1 0.1 0 0 0 0 0 0 0 
trait 2 0.2 0 0 0 0 0 0 0 
trait 3 0.3 0 0 0 0 0 0 0.136637 
node 1 3 1 3
node 2 3 1 1
node 3 3 1 1
node 4 3 0 2
node 7 1 0 0
node 16 3 0 0
node 38 1 0 0
gene 1 1 4 -5.53721 0 1 -5.53721 1
gene 1 2 4 5.71997 0 2 5.71997 1
gene 2 3 4 1.82102 0 3 1.82102 1
gene 1 2 7 0.403065 0 8 0.403065 1
gene 3 7 4 5.31341 0 9 5.31341 0
gene 1 7 16 1.31261 0 32 1.31261 1
gene 1 16 4 2.36792 0 33 2.36792 0
gene 1 16 38 -3.03051 0 104 -3.03051 1
gene 1 38 4 1.22753 0 105 1.22753 1
genomeend 102

/* Organism #103 Fitness: 9 Error: 1 */
genomestart 103
trait 1 0.1 0 0 0 0 0 0 0 
trait 2 0.2 0 0 0 0 0 0 0 
trait 3 0.3 0 0 0 0 0 0 0.134398 
node 1 3 1 3
node 2 3 1 1
node 3 3 1 1
node 4 3 0 2
node 7 1 0 0
node 16 3 0 0
node 38 1 0 0
gene 1 1 4 -3.67504 0 1 -3.67504 1
gene 1 2 4 8 0 2 8 1
gene 2 3 4 8 0 3 8 1
gene 1 2 7 0.267988 0 8 0.267988 1
gene 3 7 4 8 0 9 8 0
gene 1 7 16 -1.38578 0 32 -1.38578 1
gene 1 16 4 2.52353 0 33 2.52353 0
gene 1 16 38 -6.59293 0 104 -6.59293 1
gene 1 38 4 0.117505 0 105 0.117505 1
gene 3 2 16 -1.29454 0 203 -1.29454 1
genomeend 103

/* Organism #104 Fitness: 8.99994 Error: 1.00001 */
genomestart 104
trait 1 0.1 0 0 0 0 0 0 0 
trait 2 0.2 0 0 0 0 0 0 0 
trait 3 0.3 0 0 0 0 0 0 0.136637 
node 1 3 1 3
node 2 3 1 1
node 3 3 1 1
node 4 3 0 2
node 7 1 0 0
node 16 3 0 0
node 38 1 0 0
gene 1 1 4 -4.19188 0 1 -4.19188 1
gene 1 2 4 8 0 2 8 1
gene 2 3 4 8 0 3 8 1
gene 1 2 7 -0.0286821 0 8 -0.0286821 1
gene 3 7 4 7.14976 0 9 7.14976 0
gene 1 7 16 0.416632 0 32 0.416632 1
gene 1 16 4 2.52353 0 33 2.52353 1
gene 1 16 38 -4.96729 0 104 -4.96729 1
gene 1 38 4 -0.231711 0 105 -0.231711 1
genomeend 104

/* Species #12 : (Size 8) (AF 4.37797) (Age 11)  */


/* Organism #105 Fitness: 8.99848 Error: 1.00025 */
genomestart 105
trait 1 0.1 0 0 0 0 0 0 0 
trait 2 0.865326 0 0 0 0 0 0.701787 0 
trait 3 0.3 0 0 0 0 0 0 0 
node 1 3 1 3
node 2 3 1 1
node 3 3 1 1
node 4 3 0 2
node 7 1 0 0
node 15 1 0 0
node 25 1 0 0
node 34 1 0 0
node 50 1 0 0
gene 1 1 4 0.282097 0 1 0.282097 1
gene 1 2 4 2.42675 0 2 2.42675 1
gene 2 3 4 3.47288 0 3 3.47288 1
gene 1 2 7 -6.08468 0 8 -6.08468 0
gene 1 7 4 5.48473 0 9 5.48473 0
gene 1 2 15 1.46816 0 30 1.46816 1
gene 1 15 7 2.70426 0 31 2.70426 1
gene 2 15 4 2.73104 0 44 2.73104 1
gene 1 7 25 2.90999 0 65 2.90999 1
gene 1 25 4 -3.90564 0 66 -3.90564 1
gene 1 7 34 5.55052 0 90 5.55052 1
gene 1 34 25 -2.41053 0 91 -2.41053 1
gene 1 3 7 -0.824497 0 108 -0.824497 1
gene 1 7 50 -2.2716 0 145 -2.2716 1
gene 1 50 34 4.58059 0 146 4.58059 1
genomeend 105

/* Organism #106 Fitness: 3.87525 Error: 2.03143 */
genomestart 106
trait 1 0.1 0 0 0 0 0 0 0 
trait 2 0.865326 0 0 0 0 0 0.701787 0 
trait 3 0.3 0 0 0 0 0 0 0 
node 1 3 1 3
node 2 3 1 1
node 3 3 1 1
node 4 3 0 2
node 7 1 0 0
node 15 1 0 0
node 25 1 0 0
node 34 1 0 0
node 50 1 0 0
gene 1 1 4 2.00012 0 1 2.00012 1
gene 1 2 4 3.64088 0 2 3.64088 1
gene 2 3 4 2.40169 0 3 2.40169 1
gene 1 2 7 -6.88642 0 8 -6.88642 0
gene 1 7 4 4.10177 0 9 4.10177 0
gene 1 2 15 1.6054 0 30 1.6054 1
gene 1 15 7 0.398455 0 31 0.398455 1
gene 2 15 4 -3.18133 0 44 -3.18133 1
gene 1 7 25 4.0145 0 65 4.0145 1
gene 1 25 4 -3.32856 0 66 -3.32856 1
gene 1 7 34 5.61317 0 90 5.61317 1
gene 1 34 25 -3.25675 0 91 -3.25675 1
gene 1 3 7 -0.428608 0 108 -0.428608 1
gene 1 7 50 -2.80472 0 145 -2.80472 1
gene 1 50 34 6.35969 0 146 6.35969 1
genomeend 106

/* Organism #107 Fitness: 1.35176 Error: 2.83735 */
genomestart 107
trait 1 0.1 0 0 0 0 0 0 0 
trait 2 0.865326 0 0 0 0 0 0.701787 0 
trait 3 0.3 0 0 0 0 0 0 0 
node 1 3 1 3
node 2 3 1 1
node 3 3 1 1
node 4 3 0 2
node 7 1 0 0
node 15 1 0 0
node 25 1 0 0
node 34 1 0 0
node 50 1 0 0
gene 1 1 4 -4.08715 0 1 -4.08715 1
gene 1 2 4 2.59311 0 2 2.59311 1
gene 2 3 4 1.46559 0 3 1.46559 1
gene 1 2 7 -5.89094 0 8 -5.89094 0
gene 1 7 4 8 0 9 8 0
gene 1 2 15 -2.3303 0 30 -2.3303 1
gene 2 15 7 2.41605 0 31 2.41605 1
gene 2 15 4 -3.32901 0 44 -3.32901 1
gene 1 7 25 1.38108 0 65 1.38108 1
gene 1 25 4 0.825516 0 66 0.825516 1
gene 1 7 34 3.52937 0 90 3.52937 1
gene 1 34 25 0.145183 0 91 0.145183 1
gene 1 3 7 -5.06329 0 108 -5.06329 1
gene 1 7 50 -1.09976 0 145 -1.09976 1
gene 1 50 34 -1.50268 0 146 -1.50268 1
genomeend 107

/* Organism #108 Fitness: 4 Error: 2 */
genomestart 108
trait 1 0.1 0 0 0 0 0 0 0 
trait 2 0.865326 0 0 0 0 0 0.701787 0 
trait 3 0.3 0 0 0 0 0 0 0 
node 1 3 1 3
node 2 3 1 1
node 3 3 1 1
node 4 3 0 2
node 7 1 0 0
node 15 1 0 0
node 25 1 0 0
node 34 1 0 0
node 50 1 0 0
gene 1 1 4 0.751749 0 1 0.751749 1
gene 1 2 4 3.92655 0 2 3.92655 1
gene 2 3 4 2.24915 0 3 2.24915 1
gene 1 2 7 -3.70379 0 8 -3.70379 0
gene 1 7 4 3.93733 0 9 3.93733 0
gene 1 2 15 2.50537 0 30 2.50537 1
gene 1 15 7 2.04736 0 31 2.04736 1
gene 2 15 4 4.67749 0 44 4.67749 1
gene 1 7 25 1.87125 0 65 1.87125 1
gene 1 25 4 -2.92436 0 66 -2.92436 1
gene 1 7 34 7.09381 0 90 7.09381 1
gene 1 34 25 -4.65111 0 91 -4.65111 1
gene 1 3 7 1.10969 0 108 1.10969 1
gene 1 7 50 -2.2716 0 145 -2.2716 1
gene 1 50 34 -1.72308 0 146 -1.72308 1
genomeend 108

/* Organism #109 Fitness: 4 Error: 2 */
genomestart 109
trait 1 0.1 0 0 0 0 0 0 0 
trait 2 0.865326 0 0 0 0 0 0.701787 0 
trait 3 0.3 0 0 0 0 0 0 0 
node 1 3 1 3
node 2 3 1 1
node 3 3 1 1
node 4 3 0 2
node 7 1 0 0
node 15 1 0 0
node 25 1 0 0
node 34 1 0 0
node 50 1 0 0
gene 1 1 4 -0.697626 0 1 -0.697626 1
gene 1 2 4 2.44432 0 2 2.44432 1
gene 2 3 4 3.34255 0 3 3.34255 1
gene 1 2 7 -4.87993 0 8 -4.87993 0
gene 1 7 4 6.55418 0 9 6.55418 1
gene 1 2 15 -0.926163 0 30 -0.926163 1
gene 1 15 7 2.04424 0 31 2.04424 1
gene 2 15 4 0.901201 0 44 0.901201 1
gene 1 7 25 2.47767 0 65 2.47767 1
gene 1 25 4 -1.54713 0 66 -1.54713 1
gene 1 7 34 4.45408 0 90 4.45408 1
gene 1 34 25 -1.80926 0 91 -1.80926 1
gene 1 3 7 -2.3686 0 108 -2.3686 1
gene 1 7 50 -1.68568 0 145 -1.68568 1
gene 1 50 34 4.55244 0 146 4.55244 1
genomeend 109

/* Organism #110 Fitness: 3.8897 Error: 2.02777 */
genomestart 110
trait 1 0 0 0 0 0 0 0.923912 0.812331 
trait 2 0.865326 0 0 0 0 0 0.701787 0 
trait 3 0.3 0 0 0 0 0 0 0 
node 1 3 1 3
node 2 3 1 1
node 3 3 1 1
node 4 3 0 2
node 7 1 0 0
node 15 1 0 0
node 25 1 0 0
node 34 1 0 0
node 50 1 0 0
gene 1 1 4 1.89554 0 1 1.89554 1
gene 1 2 4 0.734515 0 2 0.734515 1
gene 2 3 4 -2.20349 0 3 -2.20349 1
gene 1 2 7 -4.89917 0 8 -4.89917 0
gene 1 7 4 6.14468 0 9 6.14468 0
gene 1 2 15 2.87562 0 30 2.87562 1
gene 1 15 7 2.70426 0 31 2.70426 1
gene 2 15 4 2.05999 0 44 2.05999 1
gene 1 7 25 2.01755 0 65 2.01755 1
gene 1 25 4 -3.20258 0 66 -3.20258 1
gene 1 7 34 6.80384 0 90 6.80384 1
gene 1 34 25 -4.82545 0 91 -4.82545 1
gene 1 3 7 -0.844021 0 108 -0.844021 1
gene 1 7 50 -3.90766 0 145 -3.90766 1
gene 1 50 34 6.96717 0 146 6.96717 1
genomeend 110

/* Organism #111 Fitness: 4.01323 Error: 1.99669 */
genomestart 111
trait 1 0.1 0 0 0 0 0 0 0 
trait 2 0.865326 0 0 0 0 0 0.701787 0 
trait 3 0.3 0 0 0 0 0 0 0 
node 1 3 1 3
node 2 3 1 1
node 3 3 1 1
node 4 3 0 2
node 7 1 0 0
node 15 1 0 0
node 25 1 0 0
node 34 1 0 0
node 50 1 0 0
gene 1 1 4 -1.00712 0 1 -1.00712 1
gene 1 2 4 2.56313 0 2 2.56313 1
gene 2 3 4 5.66755 0 3 5.66755 1
gene 1 2 7 -1.25069 0 8 -1.25069 0
gene 1 7 4 6.06532 0 9 6.06532 0
gene 1 2 15 -3.31032 0 30 -3.31032 1
gene 2 15 7 3.28853 0 31 3.28853 1
gene 2 15 4 -1.97689 0 44 -1.97689 1
gene 1 7 25 2.88212 0 65 2.88212 1
gene 1 25 4 3.15674 0 66 3.15674 1
gene 1 7 34 1.02703 0 90 1.02703 1
gene 1 34 25 -1.36956 0 91 -1.36956 1
gene 1 3 7 -5.9523 0 108 -5.9523 1
gene 1 7 50 0.950004 0 145 0.950004 1
gene 1 50 34 1.14132 0 146 1.14132 1
genomeend 111

/* Organism #112 Fitness: 4.89536 Error: 1.78745 */
genomestart 112
trait 1 0.1 0 0 0 0 0 0 0 
trait 2 0.865326 0 0 0 0 0 0.701787 0 
trait 3 0.3 0 0 0 0 0 0 0 
node 1 3 1 3
node 2 3 1 1
node 3 3 1 1
node 4 3 0 2
node 7 1 0 0
node 15 1 0 0
node 25 1 0 0
node 34 1 0 0
node 50 2 0 0
gene 1 1 4 -2.04623 0 1 -2.04623 1
gene 1 2 4 0.104757 0 2 0.104757 1
gene 2 3 4 2.10617 0 3 2.10617 1
gene 1 2 7 -3.67518 0 8 -3.67518 0
gene 1 7 4 6.12162 0 9 6.12162 0
gene 1 2 15 -0.963999 0 30 -0.963999 1
gene 2 15 7 -1.04663 0 31 -1.04663 1
gene 2 15 4 0.837509 0 44 0.837509 1
gene 1 7 25 1.57509 0 65 1.57509 1
gene 1 25 4 0.52994 0 66 0.52994 1
gene 1 7 34 0.50478 0 90 0.50478 1
gene 1 34 25 -1.20799 0 91 -1.20799 1
gene 1 3 7 -5.9988 0 108 -5.9988 1
gene 1 7 50 -0.613023 0 145 -0.613023 1
gene 1 50 34 3.02813 0 146 3.02813 1
genomeend 112

/* Species #13 : (Size 8) (AF 6.95213) (Age 11)  */


/* Organism #113 Fitness: 8.94719 Error: 1.00881 */
genomestart 113
trait 1 0.1 0 0 0 0 0 0 0 
trait 2 0.865326 0 0 0 0 0 0.701787 0 
trait 3 0.3 0 0 0 0 0 0 0 
node 1 3 1 3
node 2 3 1 1
node 3 3 1 1
node 4 3 0 2
node 7 1 0 0
node 15 1 0 0
node 25 1 0 0
node 40 1 0 0
gene 1 1 4 -3.0742 0 1 -3.0742 1
gene 2 2 4 1.87266 0 2 1.87266 1
gene 2 3 4 3.13377 0 3 3.13377 1
gene 1 2 7 -0.84873 0 8 -0.84873 0
gene 1 7 4 0.301542 0 9 0.301542 0
gene 1 2 15 -2.10243 0 30 -2.10243 1
gene 1 15 7 5.47265 0 31 5.47265 1
gene 2 15 4 -0.350219 0 44 -0.350219 1
gene 1 7 25 0.715106 0 65 0.715106 0
gene 1 25 4 5.45461 0 66 5.45461 1
gene 1 2 25 0.365429 0 92 0.365429 1
gene 1 2 40 -1.58436 0 109 -1.58436 1
gene 1 40 25 -0.570448 0 110 -0.570448 1
genomeend 113

/* Organism #114 Fitness: 8.94719 Error: 1.00881 */
genomestart 114
trait 1 0.1 0 0 0 0 0 0 0 
trait 2 0.865326 0 0 0 0 0 0.701787 0 
trait 3 0.3 0 0 0 0.497126 0.366192 0 0 
node 1 3 1 3
node 2 3 1 1
node 3 3 1 1
node 4 3 0 2
node 7 1 0 0
node 15 1 0 0
node 25 1 0 0
node 40 1 0 0
gene 1 1 4 -3.0742 0 1 -3.0742 1
gene 2 2 4 1.87266 0 2 1.87266 1
gene 2 3 4 3.13377 0 3 3.13377 1
gene 1 2 7 -0.84873 0 8 -0.84873 0
gene 1 7 4 0.301542 0 9 0.301542 1
gene 1 2 15 -2.10243 0 30 -2.10243 1
gene 1 15 7 5.47265 0 31 5.47265 0
gene 2 15 4 -0.350219 0 44 -0.350219 1
gene 1 7 25 0.715106 0 65 0.715106 0
gene 1 25 4 5.45461 0 66 5.45461 1
gene 1 2 25 0.365429 0 92 0.365429 1
gene 1 2 40 -1.58436 0 109 -1.58436 1
gene 1 40 25 -0.570448 0 110 -0.570448 1
genomeend 114

/* Organism #115 Fitness: 8.94719 Error: 1.00881 */
genomestart 115
trait 1 0.1 0 0 0 0 0 0 0 
trait 2 0.865326 0 0 0 0 0 0.701787 0 
trait 3 0.3 0 0 0 0.994252 0.732385 0 0 
node 1 3 1 3
node 2 3 1 1
node 3 3 1 1
node 4 3 0 2
node 7 1 0 0
node 15 1 0 0
node 25 1 0 0
node 40 1 0 0
gene 1 1 4 -3.0742 0 1 -3.0742 1
gene 2 2 4 1.87266 0 2 1.87266 1
gene 2 3 4 3.13377 0 3 3.13377 1
gene 1 2 7 -0.84873 0 8 -0.84873 0
gene 1 7 4 0.301542 0 9 0.301542 1
gene 1 2 15 -2.10243 0 30 -2.10243 1
gene 1 15 7 5.47265 0 31 5.47265 0
gene 2 15 4 -0.350219 0 44 -0.350219 1
gene 1 7 25 0.715106 0 65 0.715106 0
gene 1 25 4 5.45461 0 66 5.45461 1
gene 1 2 25 0.365429 0 92 0.365429 1
gene 1 2 40 -1.58436 0 109 -1.58436 1
gene 1 40 25 -0.570448 0 110 -0.570448 1
genomeend 115

/* Organism #116 Fitness: 8.95405 Error: 1.00767 */
genomestart 116
trait 1 0.1 0 0 0 0 0 0 0 
trait 2 0.865326 0 0 0 0 0 0.701787 0 
trait 3 0.3 0 0 0 0.497126 0.366192 0 0 
node 1 3 1 3
node 2 3 1 1
node 3 3 1 1
node 4 3 0 2
node 7 1 0 0
node 15 1 0 0
node 25 1 0 0
node 40 1 0 0
gene 1 1 4 -3.0742 0 1 -3.0742 1
gene 2 2 4 1.87266 0 2 1.87266 1
gene 2 3 4 3.13377 0 3 3.13377 1
gene 1 2 7 -0.84873 0 8 -0.84873 0
gene 1 7 4 0.301542 0 9 0.301542 1
gene 1 2 15 -2.10243 0 30 -2.10243 1
gene 1 15 7 5.47265 0 31 5.47265 0
gene 2 15 4 -0.350219 0 44 -0.350219 1
gene 1 7 25 0.715106 0 65 0.715106 0
gene 1 25 4 5.45461 0 66 5.45461 1
gene 1 2 25 0.365429 0 92 0.365429 1
gene 1 2 40 -1.58436 0 109 -1.58436 1
gene 1 40 25 -0.570448 0 110 -0.570448 1
gene 2 1 7 -0.457495 0 214 0 1
genomeend 116

/* Organism #117 Fitness: 8.98599 Error: 1.00234 */
genomestart 117
trait 1 0.1 0 0 0 0 0 0 0 
trait 2 0.865326 0 0 0 0 0 0.701787 0 
trait 3 0.3 0 0 0 0 0 0 0 
node 1 3 1 3
node 2 3 1 1
node 3 3 1 1
node 4 3 0 2
node 7 1 0 0
node 15 1 0 0
node 25 1 0 0
node 40 1 0 0
node 68 1 0 0
gene 1 1 4 -3.0742 0 1 -3.0742 1
gene 2 2 4 1.87266 0 2 1.87266 0
gene 2 3 4 3.13377 0 3 3.13377 1
gene 1 2 7 -0.84873 0 8 -0.84873 0
gene 1 7 4 0.301542 0 9 0.301542 0
gene 1 2 15 -2.10243 0 30 -2.10243 1
gene 1 15 7 5.47265 0 31 5.47265 1
gene 2 15 4 -0.350219 0 44 -0.350219 1
gene 1 7 25 0.715106 0 65 0.715106 0
gene 1 25 4 5.45461 0 66 5.45461 1
gene 1 2 25 0.365429 0 92 0.365429 1
gene 1 2 40 -1.58436 0 109 -1.58436 1
gene 1 40 25 -0.570448 0 110 -0.570448 1
gene 2 2 68 1 0 217 0 1
gene 2 68 4 1.87266 0 218 0 1
genomeend 117

/* Organism #118 Fitness: 4.00013 Error: 1.99997 */
genomestart 118
trait 1 0.1 0 0 0 0 0 0 0 
trait 2 0.865326 0 0 0 0 0 0.701787 0 
trait 3 1 0.672473 0 0 0.833561 0.868625 0.696986 0 
node 1 3 1 3
node 2 3 1 1
node 3 3 1 1
node 4 3 0 2
node 7 1 0 0
node 15 1 0 0
node 25 1 0 0
node 40 1 0 0
gene 1 1 4 -3.896 0 1 -3.896 1
gene 2 2 4 4.19103 0 2 4.19103 1
gene 2 3 4 2.14046 0 3 2.14046 1
gene 1 2 7 -1.70645 0 8 -1.70645 0
gene 1 7 4 0.674915 0 9 0.674915 0
gene 1 2 15 -1.68539 0 30 -1.68539 1
gene 1 15 7 3.59504 0 31 3.59504 0
gene 2 15 4 0.386377 0 44 0.386377 1
gene 1 7 25 2.85803 0 65 2.85803 0
gene 1 25 4 6.13852 0 66 6.13852 1
gene 1 2 25 0.415054 0 92 0.415054 1
gene 1 2 40 0.907344 0 109 0.907344 1
gene 1 40 25 1.15818 0 110 1.15818 1
genomeend 118

/* Organism #119 Fitness: 2.83616 Error: 2.31591 */
genomestart 119
trait 1 0.1 0 0 0 0 0 0 0 
trait 2 0.865326 0 0 0 0 0 0.701787 0 
trait 3 0.3 0 0 0 0.497126 0.366192 0 0 
node 1 3 1 3
node 2 3 1 1
node 3 3 1 1
node 4 3 0 2
node 7 1 0 0
node 15 1 0 0
node 25 1 0 0
node 40 1 0 0
gene 1 1 4 -4.60341 0 1 -4.60341 1
gene 2 2 4 0.58998 0 2 0.58998 1
gene 2 3 4 5.1715 0 3 5.1715 1
gene 1 2 7 -1.87001 0 8 -1.87001 1
gene 1 7 4 -0.878705 0 9 -0.878705 0
gene 1 2 15 -1.48396 0 30 -1.48396 1
gene 1 15 7 4.85796 0 31 4.85796 0
gene 2 15 4 -2.45121 0 44 -2.45121 1
gene 1 7 25 2.00212 0 65 2.00212 0
gene 1 25 4 3.60764 0 66 3.60764 1
gene 1 2 25 2.65535 0 92 2.65535 1
gene 1 2 40 -2.39556 0 109 -2.39556 1
gene 1 40 25 -0.570448 0 110 -0.570448 1
genomeend 119

/* Organism #120 Fitness: 3.99912 Error: 2.00022 */
genomestart 120
trait 1 0.947658 0.563773 0 0.0514337 0.0459954 0 0 0 
trait 2 0.865326 0 0 0 0 0 0.701787 0 
trait 3 0.3 0 0 0 0.497126 0.366192 0 0 
node 1 3 1 3
node 2 3 1 1
node 3 3 1 1
node 4 3 0 2
node 7 1 0 0
node 15 1 0 0
node 25 1 0 0
node 40 1 0 0
gene 1 1 4 -0.829763 0 1 -0.829763 1
gene 2 2 4 2.53748 0 2 2.53748 1
gene 2 3 4 3.83662 0 3 3.83662 1
gene 1 2 7 0.190036 0 8 0.190036 0
gene 1 7 4 -2.22855 0 9 -2.22855 0
gene 1 2 15 -3.97116 0 30 -3.97116 1
gene 1 15 7 -1.82951 0 31 -1.82951 0
gene 2 15 4 1.7119 0 44 1.7119 1
gene 1 7 25 0.569031 0 65 0.569031 0
gene 1 25 4 6.52877 0 66 6.52877 1
gene 1 2 25 -1.61303 0 92 -1.61303 1
gene 1 2 40 -1.73323 0 109 -1.73323 1
gene 1 40 25 1.39661 0 110 1.39661 1
genomeend 120

/* Species #14 : (Size 10) (AF 7.06066) (Age 9)  */


/* Organism #121 Fitness: 8.99936 Error: 1.00011 */
genomestart 121
trait 1 0.075 0 0 0 0 0.0151028 0.223507 0 
trait 2 0.402221 0 0.310262 0 0 0.124393 0.267443 0.0860638 
trait 3 0.3 0 0 0 0 0 0 0 
node 1 3 1 3
node 2 3 1 1
node 3 3 1 1
node 4 3 0 2
node 7 3 0 0
gene 1 1 4 -5.9804 0 1 -5.9804 1
gene 1 2 4 1.49346 0 2 1.49346 0
gene 2 3 4 -3.44045 0 3 -3.44045 1
gene 1 2 7 4.41946 0 8 4.41946 1
gene 1 7 4 8 0 9 8 1
gene 3 3 7 3.95014 0 63 3.95014 1
genomeend 121

/* Organism #122 Fitness: 4.48552 Error: 1.8821 */
genomestart 122
trait 1 0.075 0 0 0 0.484165 0.0151028 0.223507 0.441827 
trait 2 0.402221 0 0.310262 0 0 0.124393 0.267443 0.0860638 
trait 3 0.3 0 0 0 0 0 0 0 
node 1 3 1 3
node 2 3 1 1
node 3 3 1 1
node 4 3 0 2
node 7 3 0 0
gene 1 1 4 -3.59132 0 1 -3.59132 1
gene 1 2 4 -0.0928495 0 2 -0.0928495 0
gene 2 3 4 0.849091 0 3 0.849091 1
gene 1 2 7 0.908778 0 8 0.908778 1
gene 1 7 4 8 0 9 8 1
gene 3 3 7 3.95014 0 63 3.95014 1
genomeend 122

/* Organism #123 Fitness: 4 Error: 2 */
genomestart 123
trait 1 0.075 0 0 0 0.968329 0.0151028 0.223507 0.883654 
trait 2 0.402221 0 0.310262 0 0 0.124393 0.267443 0.0860638 
trait 3 0.3 0 0 0 0 0 0 0 
node 1 3 1 3
node 2 3 1 1
node 3 3 1 1
node 4 3 0 2
node 7 3 0 0
gene 1 1 4 -5.1038 0 1 -5.1038 1
gene 1 2 4 -2.31984 0 2 -2.31984 0
gene 2 3 4 0.238683 0 3 0.238683 1
gene 1 2 7 2.45538 0 8 2.45538 1
gene 1 7 4 0.638299 0 9 0.638299 1
gene 3 3 7 0.097252 0 63 0.097252 1
genomeend 123

/* Organism #124 Fitness: 8.99936 Error: 1.00011 */
genomestart 124
trait 1 0.0625 0 0 0 0 0.0226543 0.335261 0 
trait 2 0.402221 0 0.310262 0 0 0.124393 0.267443 0.0860638 
trait 3 0.3 0 0 0 0 0 0 0 
node 1 3 1 3
node 2 3 1 1
node 3 3 1 1
node 4 3 0 2
node 7 3 0 0
gene 1 1 4 -6.0314 0 1 -6.0314 1
gene 1 2 4 0.178739 0 2 0.178739 0
gene 2 3 4 -1.8093 0 3 -1.8093 1
gene 1 2 7 4.49229 0 8 4.49229 1
gene 3 7 4 8 0 9 8 1
gene 3 3 7 3.44768 0 63 3.44768 1
genomeend 124

/* Organism #125 Fitness: 8.99931 Error: 1.00011 */
genomestart 125
trait 1 0.0625 0 0 0 0 0.0226543 0.335261 0 
trait 2 0.402221 0 0.310262 0 0 0.124393 0.267443 0.0860638 
trait 3 0.3 0 0 0 0 0 0 0 
node 1 3 1 3
node 2 3 1 1
node 3 3 1 1
node 4 3 0 2
node 7 3 0 0
gene 1 1 4 -6.08241 0 1 -6.08241 1
gene 1 2 4 -1.13598 0 2 -1.13598 0
gene 2 3 4 -0.17814 0 3 -0.17814 1
gene 1 2 7 4.41946 0 8 4.41946 1
gene 3 7 4 8 0 9 8 1
gene 3 3 7 2.94523 0 63 2.94523 1
genomeend 125

/* Organism #126 Fitness: 8.99931 Error: 1.00011 */
genomestart 126
trait 1 0.0625 0 0 0 0 0.0226543 0.335261 0 
trait 2 0.402221 0 0.310262 0 0 0.124393 0.267443 0.0860638 
trait 3 0.3 0 0 0 0 0 0 0 
node 1 3 1 3
node 2 3 1 1
node 3 3 1 1
node 4 3 0 2
node 7 3 0 0
gene 1 1 4 -6.08241 0 1 -6.08241 1
gene 1 2 4 -1.13598 0 2 -1.13598 0
gene 2 3 4 -0.17814 0 3 -0.17814 1
gene 1 2 7 4.41946 0 8 4.41946 1
gene 1 7 4 8 0 9 8 1
gene 3 3 7 2.94523 0 63 2.94523 1
genomeend 126

/* Organism #127 Fitness: 8.54251 Error: 1.07724 */
genomestart 127
trait 1 0.0625 0 0 0 0.484165 0.0226543 0.335261 0.441827 
trait 2 0.402221 0 0.310262 0 0 0.124393 0.267443 0.0860638 
trait 3 0.3 0 0 0 0 0 0 0 
node 1 3 1 3
node 2 3 1 1
node 3 3 1 1
node 4 3 0 2
node 7 3 0 0
gene 1 1 4 -6.62708 0 1 -6.62708 1
gene 1 2 4 0.853675 0 2 0.853675 1
gene 2 3 4 -2.56649 0 3 -2.56649 1
gene 1 2 7 5.40245 0 8 5.40245 1
gene 1 7 4 7.83967 0 9 7.83967 1
gene 3 3 7 3.13753 0 63 3.13753 1
genomeend 127

/* Organism #128 Fitness: 6.77157 Error: 1.39778 */
genomestart 128
trait 1 0.0625 0 0 0 0.484165 0.0226543 0.335261 0.441827 
trait 2 0.402221 0 0.310262 0 0 0.124393 0.267443 0.0860638 
trait 3 0.3 0 0 0 0 0 0 0 
node 1 3 1 3
node 2 3 1 1
node 3 3 1 1
node 4 3 0 2
node 7 3 0 0
gene 1 1 4 -6.18827 0 1 -6.18827 1
gene 1 2 4 1.29222 0 2 1.29222 0
gene 2 3 4 -2.73807 0 3 -2.73807 1
gene 1 2 7 2.09053 0 8 2.09053 1
gene 3 7 4 6.27271 0 9 6.27271 1
gene 3 3 7 0.492563 0 63 0.492563 1
genomeend 128

/* Organism #129 Fitness: 8.98744 Error: 1.00209 */
genomestart 129
trait 1 0.075 0 0 0 0 0.0151028 0.223507 0 
trait 2 0.402221 0 0.310262 0 0 0.124393 0.267443 0.0860638 
trait 3 0.3 0 0 0 0 0 0 0 
node 1 3 1 3
node 2 3 1 1
node 3 3 1 1
node 4 3 0 2
node 7 3 0 0
gene 1 1 4 -5.56294 0 1 -5.56294 1
gene 1 2 4 1.85301 0 2 1.85301 0
gene 2 3 4 -1.9594 0 3 -1.9594 1
gene 1 2 7 2.57721 0 8 2.57721 1
gene 1 7 4 6.81768 0 9 6.81768 1
gene 3 3 7 4.24066 0 63 4.24066 1
genomeend 129

/* Organism #130 Fitness: 1.82218 Error: 2.65012 */
genomestart 130
trait 1 0.0625 0 0 0 0 0.0226543 0.335261 0 
trait 2 0.402221 0 0.310262 0 0 0.124393 0.267443 0.0860638 
trait 3 0.3 0 0.0587157 0 0 0.140513 0.458507 0.719862 
node 1 3 1 3
node 2 3 1 1
node 3 3 1 1
node 4 3 0 2
node 7 3 0 0
gene 1 1 4 -3.87416 0 1 -3.87416 1
gene 1 2 4 -1.79763 0 2 -1.79763 0
gene 2 3 4 -3.959 0 3 -3.959 1
gene 1 2 7 -0.879998 0 8 -0.879998 1
gene 3 7 4 8 0 9 8 1
gene 3 3 7 3.45662 0 63 3.45662 1
genomeend 130

/* Species #15 : (Size 8) (AF 5.74611) (Age 4)  */


/* Organism #131 Fitness: 8.98973 Error: 1.00171 */
genomestart 131
trait 1 0.1 0 0 0 0 0 0 0 
trait 2 0.2 0 0 0 0 0 0 0 
trait 3 0.3 0 0 0 0 0 0 0 
node 1 3 1 3
node 2 1 1 1
node 3 1 1 1
node 4 1 0 2
node 13 1 0 0
node 24 1 0 0
node 57 1 0 0
gene 1 1 4 -0.803143 0 1 -0.803143 1
gene 2 2 4 1.3285 0 2 1.3285 1
gene 1 3 4 -1.55595 0 3 -1.55595 0
gene 2 2 13 0.433012 0 22 0.433012 1
gene 2 13 4 3.44854 0 23 3.44854 1
gene 1 3 24 1.09658 0 61 1.09658 1
gene 1 24 4 -5.29707 0 62 -5.29707 1
gene 3 2 24 -0.540287 0 142 -0.540287 1
gene 1 3 13 0.349815 0 169 0.349815 0
gene 1 3 57 1 0 177 0 1
gene 1 57 13 0.349815 0 178 0 1
gene 1 1 13 -0.298061 0 192 -0.298061 1
genomeend 131

/* Organism #132 Fitness: 4 Error: 2 */
genomestart 132
trait 1 0.1 0 0 0 0 0 0 0 
trait 2 0.2 0 0 0 0 0 0 0 
trait 3 0.3 0 0 0 0 0 0 0 
node 1 3 1 3
node 2 1 1 1
node 3 1 1 1
node 4 1 0 2
node 13 1 0 0
node 24 1 0 0
node 57 1 0 0
gene 1 1 4 -1.15947 0 1 -1.15947 1
gene 2 2 4 0.650149 0 2 0.650149 1
gene 1 3 4 -5.03955 0 3 -5.03955 0
gene 2 2 13 1.60884 0 22 1.60884 1
gene 2 13 4 2.09923 0 23 2.09923 1
gene 1 3 24 1.56326 0 61 1.56326 1
gene 1 24 4 -5.98856 0 62 -5.98856 1
gene 3 2 24 0.767179 0 142 0.767179 1
gene 1 3 13 -0.917767 0 169 -0.917767 0
gene 1 3 57 0.357733 0 177 0.357733 1
gene 1 57 13 0.631829 0 178 0.631829 1
gene 1 1 13 -0.298061 0 192 -0.298061 1
genomeend 132

/* Organism #133 Fitness: 3.98524 Error: 2.00369 */
genomestart 133
trait 1 0.1 0 0 0 0 0 0 0 
trait 2 0.2 0 0 0 0 0 0 0 
trait 3 0.3 0 0 0 0 0 0 0 
node 1 3 1 3
node 2 1 1 1
node 3 1 1 1
node 4 1 0 2
node 13 1 0 0
node 24 1 0 0
node 57 1 0 0
gene 1 1 4 -1.41633 0 1 -1.41633 1
gene 2 2 4 2.43372 0 2 2.43372 1
gene 1 3 4 -1.31756 0 3 -1.31756 0
gene 2 2 13 0.505823 0 22 0.505823 1
gene 2 13 4 4.75319 0 23 4.75319 1
gene 1 3 24 0.516027 0 61 0.516027 1
gene 1 24 4 -6.50242 0 62 -6.50242 1
gene 3 2 24 -1.18345 0 142 -1.18345 1
gene 1 3 13 0.895138 0 169 0.895138 0
gene 1 3 57 3.28313 0 177 3.28313 1
gene 1 57 13 1.02695 0 178 1.02695 1
gene 1 1 13 -0.298061 0 192 -0.298061 1
genomeend 133

/* Organism #134 Fitness: 8.92617 Error: 1.01233 */
genomestart 134
trait 1 0.1 0 0 0 0 0 0 0 
trait 2 0.2 0 0 0 0 0 0 0 
trait 3 0.3 0 0 0 0 0 0 0 
node 1 3 1 3
node 2 1 1 1
node 3 1 1 1
node 4 1 0 2
node 13 1 0 0
node 24 1 0 0
node 57 1 0 0
gene 1 1 4 -0.803143 0 1 -0.803143 1
gene 2 2 4 1.41409 0 2 1.41409 1
gene 1 3 4 -2.8998 0 3 -2.8998 0
gene 2 2 13 0.433012 0 22 0.433012 1
gene 2 13 4 1.69172 0 23 1.69172 1
gene 1 3 24 1.09658 0 61 1.09658 1
gene 1 24 4 -3.58274 0 62 -3.58274 1
gene 3 2 24 -0.540287 0 142 -0.540287 1
gene 1 3 13 0.349815 0 169 0.349815 0
gene 1 3 57 1 0 177 0 1
gene 1 57 13 1.70408 0 178 1.70408 1
gene 1 1 13 -0.298061 0 192 -0.298061 1
genomeend 134

/* Organism #135 Fitness: 8.99524 Error: 1.00079 */
genomestart 135
trait 1 0.1 0 0 0 0 0 0 0 
trait 2 0.2 0 0 0 0 0 0 0 
trait 3 0.3 0 0 0 0 0 0 0 
node 1 3 1 3
node 2 1 1 1
node 3 1 1 1
node 4 1 0 2
node 13 1 0 0
node 24 1 0 0
node 57 1 0 0
gene 1 1 4 -0.333714 0 1 -0.333714 1
gene 2 2 4 3.3758 0 2 3.3758 1
gene 1 3 4 -4.68534 0 3 -4.68534 0
gene 2 2 13 -1.50264 0 22 -1.50264 1
gene 2 13 4 2.16389 0 23 2.16389 1
gene 1 3 24 1.09658 0 61 1.09658 1
gene 1 24 4 -5.86566 0 62 -5.86566 1
gene 3 2 24 -0.856033 0 142 -0.856033 1
gene 1 3 13 0.597201 0 169 0.597201 0
gene 1 3 57 1 0 177 1 1
gene 1 57 13 -1.33513 0 178 -1.33513 1
gene 1 1 13 -1.60026 0 192 -1.60026 1
genomeend 135

/* Organism #136 Fitness: 4.05498 Error: 1.9863 */
genomestart 136
trait 1 0.1 0 0 0 0 0 0 0 
trait 2 0.2 0 0 0 0 0 0 0 
trait 3 0.3 0 0.130416 0 0 0.867021 0 0 
node 1 3 1 3
node 2 1 1 1
node 3 1 1 1
node 4 1 0 2
node 13 1 0 0
node 24 1 0 0
node 57 1 0 0
gene 1 1 4 -1.62637 0 1 -1.62637 1
gene 2 2 4 0.764969 0 2 0.764969 1
gene 1 3 4 -0.791768 0 3 -0.791768 0
gene 2 2 13 -0.804325 0 22 -0.804325 1
gene 2 13 4 5.01192 0 23 5.01192 1
gene 1 3 24 1.09658 0 61 1.09658 1
gene 1 24 4 -3.64792 0 62 -3.64792 1
gene 3 2 24 -1.3167 0 142 -1.3167 1
gene 1 3 13 -0.236302 0 169 -0.236302 0
gene 1 3 57 2.74031 0 177 2.74031 1
gene 1 57 13 0.444844 0 178 0.444844 1
gene 1 1 13 -1.19572 0 192 -1.19572 1
genomeend 136

/* Organism #137 Fitness: 4.00054 Error: 1.99987 */
genomestart 137
trait 1 0.1 0 0 0 0 0 0 0 
trait 2 0.2 0 0 0 0 0 0 0 
trait 3 0.3 0 0 0 0 0 0 0 
node 1 2 1 3
node 2 1 1 1
node 3 1 1 1
node 4 1 0 2
node 13 1 0 0
node 24 1 0 0
node 57 1 0 0
gene 1 1 4 0.48386 0 1 0.48386 1
gene 2 2 4 2.38323 0 2 2.38323 1
gene 1 3 4 -1.07648 0 3 -1.07648 1
gene 2 2 13 -1.96339 0 22 -1.96339 1
gene 2 13 4 4.24062 0 23 4.24062 1
gene 1 3 24 -0.307432 0 61 -0.307432 1
gene 1 24 4 -6.79047 0 62 -6.79047 1
gene 3 2 24 0.488401 0 142 0.488401 1
gene 1 3 13 -1.89891 0 169 -1.89891 0
gene 1 3 57 3.05833 0 177 3.05833 1
gene 1 57 13 0.458404 0 178 0.458404 1
gene 1 1 13 -1.7439 0 192 -1.7439 1
genomeend 137

/* Organism #138 Fitness: 3.01702 Error: 2.26304 */
genomestart 138
trait 1 0.1 0 0 0 0 0 0 0 
trait 2 0.2 0 0 0 0 0 0 0 
trait 3 0.3 0 0 0 0 0 0 0 
node 1 3 1 3
node 2 1 1 1
node 3 1 1 1
node 4 1 0 2
node 13 1 0 0
node 24 1 0 0
node 57 1 0 0
gene 1 1 4 -1.0335 0 1 -1.0335 1
gene 2 2 4 0.28381 0 2 0.28381 1
gene 1 3 4 -4.65523 0 3 -4.65523 0
gene 2 2 13 -1.20365 0 22 -1.20365 1
gene 2 13 4 3.44854 0 23 3.44854 1
gene 1 3 24 1.55773 0 61 1.55773 1
gene 1 24 4 1.22223 0 62 1.22223 1
gene 3 2 24 -0.540287 0 142 -0.540287 1
gene 1 3 13 2.45682 0 169 2.45682 0
gene 1 3 57 1 0 177 1 1
gene 1 57 13 0.13302 0 178 0.13302 1
gene 1 1 13 -1.42284 0 192 -1.42284 1
genomeend 138

/* Species #16 : (Size 10) (AF 6.85177) (Age 2)  */


/* Organism #139 Fitness: 7.6625 Error: 1.23188 */
genomestart 139
trait 1 0.05 0 0.493885 0 0.483737 0 0 0 
trait 2 0.865326 0 0 0 0 0 0.701787 0 
trait 3 0.3 0 0 0 0 0 0 0 
node 1 3 1 3
node 2 3 1 1
node 3 3 1 1
node 4 3 0 2
node 7 1 0 0
node 15 1 0 0
node 25 1 0 0
gene 1 1 4 -1.68589 0 1 -1.68589 1
gene 1 2 4 3.65528 0 2 3.65528 1
gene 2 3 4 4.64482 0 3 4.64482 1
gene 1 2 7 -3.79443 0 8 -3.79443 1
gene 1 7 4 -5.36474 0 9 -5.36474 0
gene 1 2 15 4.62294 0 30 4.62294 1
gene 3 15 7 2.00405 0 31 2.00405 1
gene 2 15 4 0.25736 0 44 0.25736 1
gene 1 7 25 -0.601506 0 65 -0.601506 1
gene 1 25 4 -2.20872 0 66 -2.20872 1
gene 3 1 15 0.401912 0 143 0.401912 1
gene 1 2 25 0.4414 0 201 0.4414 1
genomeend 139

/* Organism #140 Fitness: 8.91216 Error: 1.01468 */
genomestart 140
trait 1 0.05 0 0.493885 0 0.483737 0 0 0 
trait 2 0.865326 0 0 0 0 0 0.701787 0 
trait 3 0.3 0 0 0 0 0 0 0 
node 1 3 1 3
node 2 3 1 1
node 3 3 1 1
node 4 3 0 2
node 7 3 0 0
node 15 1 0 0
node 25 1 0 0
gene 1 1 4 -1.25774 0 1 -1.25774 1
gene 1 2 4 2.59167 0 2 2.59167 1
gene 2 3 4 5.31543 0 3 5.31543 1
gene 1 2 7 -1.47673 0 8 -1.47673 1
gene 1 7 4 -7.81546 0 9 -7.81546 0
gene 1 2 15 -1.0755 0 30 -1.0755 1
gene 3 15 7 0.931155 0 31 0.931155 1
gene 2 15 4 2.48958 0 44 2.48958 1
gene 1 7 25 1.14197 0 65 1.14197 1
gene 1 25 4 -2.20872 0 66 -2.20872 1
gene 3 1 15 1.31258 0 143 1.31258 1
gene 1 2 25 2.77567 0 201 2.77567 1
genomeend 140

/* Organism #141 Fitness: 5.25735 Error: 1.70711 */
genomestart 141
trait 1 0.05 0 0.493885 0 0.483737 0 0 0 
trait 2 0.865326 0 0 0 0 0 0.701787 0 
trait 3 0.3 0 0 0 0 0 0 0 
node 1 3 1 3
node 2 3 1 1
node 3 3 1 1
node 4 3 0 2
node 7 1 0 0
node 15 1 0 0
node 25 1 0 0
gene 1 1 4 0.19188 0 1 0.19188 1
gene 1 2 4 2.12014 0 2 2.12014 1
gene 2 3 4 2.47812 0 3 2.47812 1
gene 1 2 7 -3.91764 0 8 -3.91764 1
gene 1 7 4 -4.69591 0 9 -4.69591 0
gene 1 2 15 6.76694 0 30 6.76694 1
gene 3 15 7 0.842563 0 31 0.842563 1
gene 2 15 4 2.39412 0 44 2.39412 1
gene 1 7 25 -2.13682 0 65 -2.13682 1
gene 1 25 4 -2.51616 0 66 -2.51616 1
gene 3 1 15 -2.07223 0 143 -2.07223 1
gene 1 2 25 -1.92321 0 201 -1.92321 1
genomeend 141

/* Organism #142 Fitness: 6.98844 Error: 1.35643 */
genomestart 142
trait 1 0.05 0 0.493885 0 0.483737 0 0 0 
trait 2 0.202646 0 0 0.803103 0 0.727894 1 0 
trait 3 0.3 0 0 0 0 0 0 0 
node 1 3 1 3
node 2 3 1 1
node 3 3 1 1
node 4 3 0 2
node 7 1 0 0
node 15 1 0 0
node 25 1 0 0
gene 1 1 4 -2.82885 0 1 -2.82885 1
gene 1 2 4 2.08797 0 2 2.08797 1
gene 2 3 4 5.93549 0 3 5.93549 1
gene 1 2 7 -5.96994 0 8 -5.96994 1
gene 1 7 4 -0.303894 0 9 -0.303894 0
gene 1 2 15 2.31128 0 30 2.31128 1
gene 3 15 7 0.977992 0 31 0.977992 1
gene 2 15 4 2.70914 0 44 2.70914 1
gene 1 7 25 -2.00121 0 65 -2.00121 1
gene 1 25 4 -2.42096 0 66 -2.42096 1
gene 3 1 15 1.93175 0 143 1.93175 1
gene 1 2 25 -0.874735 0 201 -0.874735 1
genomeend 142

/* Organism #143 Fitness: 1.38731 Error: 2.82216 */
genomestart 143
trait 1 0.05 0 0.493885 0 0.483737 0 0 0 
trait 2 0.865326 0 0 0 0 0 0.701787 0 
trait 3 0.3 0 0 0 0 0 0 0 
node 1 3 1 3
node 2 3 1 1
node 3 3 1 1
node 4 3 0 2
node 7 1 0 0
node 15 1 0 0
node 25 1 0 0
gene 1 1 4 -4.00726 0 1 -4.00726 1
gene 1 2 4 3.26049 0 2 3.26049 1
gene 2 3 4 4.64482 0 3 4.64482 1
gene 1 2 7 -5.57665 0 8 -5.57665 1
gene 1 7 4 -6.34248 0 9 -6.34248 0
gene 1 2 15 5.93914 0 30 5.93914 1
gene 3 15 7 -0.72198 0 31 -0.72198 1
gene 2 15 4 -1.16106 0 44 -1.16106 1
gene 1 7 25 -2.39188 0 65 -2.39188 1
gene 1 25 4 0.257502 0 66 0.257502 1
gene 3 1 15 0.453719 0 143 0.453719 1
gene 1 2 25 2.36061 0 201 2.36061 1
genomeend 143

/* Organism #144 Fitness: 8.83481 Error: 1.02766 */
genomestart 144
trait 1 0.05 0 0.493885 0 0.483737 0 0 0 
trait 2 0.865326 0 0 0 0 0 0.701787 0 
trait 3 0.3 0 0 0 0 0 0 0 
node 1 3 1 3
node 2 3 1 1
node 3 3 1 1
node 4 3 0 2
node 7 1 0 0
node 15 1 0 0
node 25 1 0 0
gene 1 1 4 -2.06008 0 1 -2.06008 1
gene 1 2 4 3.5684 0 2 3.5684 1
gene 2 3 4 -1.91016 0 3 -1.91016 1
gene 1 2 7 -2.16341 0 8 -2.16341 1
gene 1 7 4 -7.78432 0 9 -7.78432 0
gene 1 2 15 4.09342 0 30 4.09342 1
gene 3 15 7 0.469812 0 31 0.469812 1
gene 2 15 4 0.25736 0 44 0.25736 1
gene 1 7 25 -2.77145 0 65 -2.77145 1
gene 1 25 4 -0.606645 0 66 -0.606645 1
gene 3 1 15 0.0423649 0 143 0.0423649 1
gene 1 2 25 1.27583 0 201 1.27583 1
genomeend 144

/* Organism #145 Fitness: 8.99414 Error: 1.00098 */
genomestart 145
trait 1 0.05 0 0.493885 0 0.483737 0 0 0 
trait 2 0.865326 0 0 0 0 0 0.701787 0 
trait 3 0.3 0 0 0 0 0 0 0 
node 1 3 1 3
node 2 3 1 1
node 3 3 1 1
node 4 3 0 2
node 7 1 0 0
node 15 1 0 0
node 25 1 0 0
gene 1 1 4 -1.68589 0 1 -1.68589 1
gene 1 2 4 -0.13376 0 2 -0.13376 1
gene 2 3 4 4.64482 0 3 4.64482 1
gene 1 2 7 0.41035 0 8 0.41035 1
gene 1 7 4 -5.36474 0 9 -5.36474 0
gene 1 2 15 3.01861 0 30 3.01861 1
gene 3 15 7 0.171982 0 31 0.171982 1
gene 2 15 4 0.25736 0 44 0.25736 1
gene 1 7 25 -1.4063 0 65 -1.4063 1
gene 1 25 4 -4.67846 0 66 -4.67846 1
gene 3 1 15 0.157506 0 143 0.157506 1
gene 1 2 25 2.20457 0 201 2.20457 1
genomeend 145

/* Organism #146 Fitness: 7.6625 Error: 1.23188 */
genomestart 146
trait 1 0.05 0 0.493885 0 0.483737 0 0 0 
trait 2 0.865326 0 0 0 0 0 0.701787 0 
trait 3 0.3 0 0 0 0 0 0 0 
node 1 3 1 3
node 2 3 1 1
node 3 3 1 1
node 4 3 0 2
node 7 1 0 0
node 15 1 0 0
node 25 1 0 0
gene 1 1 4 -1.68589 0 1 -1.68589 1
gene 1 2 4 3.65528 0 2 3.65528 1
gene 2 3 4 4.64482 0 3 4.64482 1
gene 1 2 7 -3.79443 0 8 -3.79443 1
gene 1 7 4 -5.36474 0 9 -5.36474 0
gene 1 2 15 4.62294 0 30 4.62294 1
gene 3 15 7 2.00405 0 31 2.00405 1
gene 2 15 4 0.25736 0 44 0.25736 1
gene 1 7 25 -0.601506 0 65 -0.601506 1
gene 1 25 4 -2.20872 0 66 -2.20872 1
gene 3 1 15 0.401912 0 143 0.401912 1
gene 1 2 25 0.4414 0 201 0.4414 1
genomeend 146

/* Organism #147 Fitness: 8.99793 Error: 1.00034 */
genomestart 147
trait 1 0.05 0 0.493885 0 0.483737 0 0 0 
trait 2 0.865326 0 0 0 0 0 0.701787 0 
trait 3 0.3 0 0 0 0 0 0 0 
node 1 3 1 3
node 2 3 1 1
node 3 3 1 1
node 4 3 0 2
node 7 1 0 0
node 15 1 0 0
node 25 1 0 0
gene 1 1 4 -2.10769 0 1 -2.10769 1
gene 1 2 4 5.60895 0 2 5.60895 1
gene 2 3 4 5.82612 0 3 5.82612 1
gene 1 2 7 -2.96982 0 8 -2.96982 1
gene 1 7 4 -0.47399 0 9 -0.47399 0
gene 1 2 15 4.2422 0 30 4.2422 1
gene 3 15 7 2.36031 0 31 2.36031 1
gene 2 15 4 0.556216 0 44 0.556216 1
gene 1 7 25 -2.61844 0 65 -2.61844 1
gene 1 25 4 -3.65869 0 66 -3.65869 1
gene 3 1 15 0.401912 0 143 0.401912 1
gene 1 2 25 -1.98514 0 201 -1.98514 1
genomeend 147

/* Organism #148 Fitness: 3.82052 Error: 2.04538 */
genomestart 148
trait 1 0.05 0 0.493885 0 0.483737 0 0 0 
trait 2 0.865326 0 0 0 0 0 0.701787 0 
trait 3 0.3 0 0 0 0 0 0 0 
node 1 3 1 3
node 2 3 1 1
node 3 3 1 1
node 4 3 0 2
node 7 1 0 0
node 15 1 0 0
node 25 1 0 0
gene 1 1 4 -1.68589 0 1 -1.68589 1
gene 1 2 4 2.52373 0 2 2.52373 1
gene 2 3 4 3.54014 0 3 3.54014 1
gene 1 2 7 -3.78765 0 8 -3.78765 1
gene 1 7 4 -7.5303 0 9 -7.5303 0
gene 1 2 15 6.86908 0 30 6.86908 1
gene 3 15 7 3.78445 0 31 3.78445 1
gene 2 15 4 -2.23859 0 44 -2.23859 1
gene 1 7 25 0.934611 0 65 0.934611 1
gene 1 25 4 -1.15845 0 66 -1.15845 1
gene 3 1 15 -0.543251 0 143 -0.543251 1
gene 1 2 25 1.63773 0 201 1.63773 1
genomeend 148

/* Species #17 : (Size 1) (AF 8.72773) (Age 1)  */


/* Organism #149 Fitness: 8.72773 Error: 1.04573 */
genomestart 149
trait 1 0.1 0 0 0 0 0 0 0 
trait 2 0.2 0 0 0 0 0 0 0 
trait 3 0.3 0 0 0 0 0 0 0.134398 
node 1 3 1 3
node 2 3 1 1
node 3 3 1 1
node 4 3 0 2
node 7 1 0 0
node 16 3 0 0
node 38 1 0 0
node 67 1 0 0
gene 1 1 4 -4.19188 0 1 -4.19188 1
gene 1 2 4 8 0 2 8 1
gene 2 3 4 8 0 3 8 1
gene 1 2 7 -0.643568 0 8 -0.643568 1
gene 3 7 4 7.14976 0 9 7.14976 1
gene 1 7 16 0.617981 0 32 0.617981 0
gene 1 16 4 2.52353 0 33 2.52353 0
gene 1 16 38 -4.96729 0 104 -4.96729 1
gene 1 38 4 0.117505 0 105 0.117505 1
gene 1 7 67 1 0 215 0 1
gene 1 67 16 0.617981 0 216 0 1
genomeend 149
