
/* Species #1 : (Size 15) (AF 9.51722) (Age 10)  */


/* Organism #0 Fitness: 15.9126 Error: 0.0109373 */
genomestart 0
trait 1 0.1 0 0 0 0 0 0 0 
trait 2 0.2 0 0 0 0 0 0 0 
trait 3 0.3 0 0 0 0 0 0 0 
node 1 1 1 3
node 2 2 1 1
node 3 2 1 1
node 4 2 0 2
node 7 1 0 0
node 9 1 0 0
gene 1 1 4 1.05393 0 1 1.05393 1
gene 1 2 4 1.42548 0 2 1.42548 0
gene 1 3 4 -4.23277 0 3 -4.23277 1
gene 1 2 7 -1.39201 0 8 -1.39201 1
gene 1 7 4 3.31722 0 9 3.31722 0
gene 1 7 9 3.48985 0 12 3.48985 1
gene 1 9 4 4.2876 0 13 4.2876 1
genomeend 0

/* Organism #1 Fitness: 9.00053 Error: 0.999911 */
genomestart 1
trait 1 0.1 0 0 0 0 0 0 0 
trait 2 0.2 0 0 0 0 0 0 0 
trait 3 0.3 0 0 0 0 0 0 0 
node 1 1 1 3
node 2 2 1 1
node 3 2 1 1
node 4 2 0 2
node 7 1 0 0
node 9 1 0 0
gene 1 1 4 3.36979 0 1 3.36979 1
gene 1 2 4 3.23809 0 2 3.23809 0
gene 1 3 4 -5.37375 0 3 -5.37375 1
gene 1 2 7 -3.31468 0 8 -3.31468 1
gene 1 7 4 3.68011 0 9 3.68011 0
gene 1 7 9 3.29347 0 12 3.29347 1
gene 1 9 4 3.68047 0 13 3.68047 1
gene 2 1 9 -2.22338 0 45 -2.22338 1
genomeend 1

/* Organism #2 Fitness: 4.39305 Error: 1.90404 */
genomestart 2
trait 1 0.1 0 0 0 0 0 0 0 
trait 2 0.2 0 0 0 0 0 0 0 
trait 3 0.3 0 0 0 0 0 0 0 
node 1 1 1 3
node 2 2 1 1
node 3 2 1 1
node 4 2 0 2
node 7 1 0 0
node 9 1 0 0
gene 1 1 4 4.17235 0 1 4.17235 1
gene 1 2 4 0.525717 0 2 0.525717 0
gene 1 3 4 -6.67865 0 3 -6.67865 1
gene 1 2 7 1.25116 0 8 1.25116 1
gene 1 7 4 3.29919 0 9 3.29919 0
gene 1 7 9 3.9888 0 12 3.9888 1
gene 1 9 4 2.96737 0 13 2.96737 1
gene 2 1 9 -2.70557 0 45 -2.70557 1
genomeend 2

/* Organism #3 Fitness: 12.8998 Error: 0.408373 */
genomestart 3
trait 1 0 0.5311 0 0 0 0 0 0 
trait 2 0.2 0 0 0 0 0 0 0 
trait 3 0.3 0 0 0 0 0 0 0 
node 1 1 1 3
node 2 2 1 1
node 3 2 1 1
node 4 2 0 2
node 7 1 0 0
node 9 1 0 0
gene 1 1 4 3.4332 0 1 3.4332 1
gene 1 2 4 -1.9553 0 2 -1.9553 0
gene 1 3 4 -4.37712 0 3 -4.37712 1
gene 1 2 7 -3.59029 0 8 -3.59029 1
gene 1 7 4 5.7333 0 9 5.7333 0
gene 1 7 9 3.99251 0 12 3.99251 1
gene 1 9 4 4.17048 0 13 4.17048 1
gene 2 1 9 -2.22338 0 45 -2.22338 1
genomeend 3

/* Organism #4 Fitness: 8.99672 Error: 1.00055 */
genomestart 4
trait 1 0.1 0 0 0 0 0 0 0 
trait 2 0.2 0 0 0 0 0 0 0 
trait 3 0.3 0 0 0 0 0 0 0 
node 1 1 1 3
node 2 2 1 1
node 3 2 1 1
node 4 2 0 2
node 7 1 0 0
node 9 1 0 0
gene 1 1 4 1.65835 0 1 1.65835 1
gene 1 2 4 1.91733 0 2 1.91733 0
gene 1 3 4 -5.8542 0 3 -5.8542 1
gene 1 2 7 -5.39423 0 8 -5.39423 1
gene 1 7 4 2.05359 0 9 2.05359 0
gene 1 7 9 7.17513 0 12 7.17513 1
gene 1 9 4 3.60342 0 13 3.60342 1
gene 2 1 9 -4.6838 0 45 -4.6838 1
genomeend 4

/* Organism #5 Fitness: 9.85061 Error: 0.861432 */
genomestart 5
trait 1 0.197024 0.928841 0 0 0 0 0 0 
trait 2 0.2 0 0 0 0 0 0 0 
trait 3 0.3 0 0 0 0 0 0 0 
node 1 1 1 3
node 2 2 1 1
node 3 2 1 1
node 4 2 0 2
node 7 1 0 0
node 9 1 0 0
gene 1 1 4 1.46257 0 1 1.46257 1
gene 1 2 4 -1.9553 0 2 -1.9553 0
gene 1 3 4 -2.93471 0 3 -2.93471 1
gene 1 2 7 -1.73218 0 8 -1.73218 1
gene 1 7 4 4.70761 0 9 4.70761 0
gene 1 7 9 3.29347 0 12 3.29347 1
gene 1 9 4 3.68047 0 13 3.68047 1
genomeend 5

/* Organism #6 Fitness: 8.87135 Error: 1.02152 */
genomestart 6
trait 1 0.1 0 0 0 0 0 0 0 
trait 2 0.2 0 0 0 0 0 0 0 
trait 3 0.3 0 0 0 0 0 0 0 
node 1 1 1 3
node 2 2 1 1
node 3 2 1 1
node 4 2 0 2
node 7 1 0 0
node 9 1 0 0
gene 1 1 4 -1.50487 0 1 -1.50487 1
gene 1 2 4 0.338577 0 2 0.338577 0
gene 1 3 4 -7.66893 0 3 -7.66893 1
gene 1 2 7 -0.997098 0 8 -0.997098 1
gene 1 7 4 5.28054 0 9 5.28054 0
gene 1 7 9 1.25737 0 12 1.25737 1
gene 1 9 4 4.45907 0 13 4.45907 1
genomeend 6

/* Organism #7 Fitness: 8.59598 Error: 1.06811 */
genomestart 7
trait 1 0.1 0 0 0 0 0 0 0 
trait 2 0.2 0 0 0 0 0 0 0 
trait 3 0.3 0 0 0 0 0 0 0 
node 1 1 1 3
node 2 2 1 1
node 3 2 1 1
node 4 2 0 2
node 7 1 0 0
node 9 1 0 0
gene 1 1 4 -0.910712 0 1 -0.910712 1
gene 1 2 4 0.392299 0 2 0.392299 0
gene 1 3 4 -3.65397 0 3 -3.65397 1
gene 1 2 7 -3.71642 0 8 -3.71642 1
gene 1 7 4 3.49468 0 9 3.49468 0
gene 1 7 9 3.34036 0 12 3.34036 1
gene 1 9 4 2.88273 0 13 2.88273 1
genomeend 7

/* Organism #8 Fitness: 8.99874 Error: 1.00021 */
genomestart 8
trait 1 0.1 0 0 0 0 0 0 0 
trait 2 0.2 0 0 0 0 0 0 0 
trait 3 0.3 0 0 0 0 0 0 0 
node 1 1 1 3
node 2 2 1 1
node 3 2 1 1
node 4 2 0 2
node 7 1 0 0
node 9 1 0 0
gene 1 1 4 -1.15394 0 1 -1.15394 1
gene 1 2 4 2.26399 0 2 2.26399 0
gene 1 3 4 -6.63404 0 3 -6.63404 1
gene 1 2 7 -0.697712 0 8 -0.697712 1
gene 1 7 4 5.40635 0 9 5.40635 0
gene 1 7 9 3.80982 0 12 3.80982 1
gene 1 9 4 4.4732 0 13 4.4732 1
genomeend 8

/* Organism #9 Fitness: 9.16076 Error: 0.973326 */
genomestart 9
trait 1 0.1 0 0 0 0 0 0 0 
trait 2 0.2 0 0 0 0 0 0 0 
trait 3 0.3 0 0 0 0 0 0 0 
node 1 1 1 3
node 2 2 1 1
node 3 2 1 1
node 4 2 0 2
node 7 1 0 0
node 9 1 0 0
gene 1 1 4 3.4251 0 1 3.4251 1
gene 1 2 4 2.70639 0 2 2.70639 1
gene 1 3 4 -5.41123 0 3 -5.41123 1
gene 1 2 7 -1.88005 0 8 -1.88005 1
gene 1 7 4 3.93556 0 9 3.93556 0
gene 1 7 9 6.01299 0 12 6.01299 1
gene 1 9 4 3.62522 0 13 3.62522 1
gene 2 1 9 -2.51443 0 45 -2.51443 1
genomeend 9

/* Organism #10 Fitness: 9 Error: 1 */
genomestart 10
trait 1 0.1 0 0 0 0 0 0 0 
trait 2 0.2 0 0 0 0 0 0 0 
trait 3 0.3 0 0 0 0 0 0 0 
node 1 1 1 3
node 2 2 1 1
node 3 3 1 1
node 4 2 0 2
node 7 1 0 0
node 9 1 0 0
gene 1 1 4 5.62148 0 1 5.62148 1
gene 1 2 4 2.49657 0 2 2.49657 0
gene 1 3 4 1.92307 0 3 1.92307 1
gene 1 2 7 -2.22632 0 8 -2.22632 1
gene 1 7 4 3.97006 0 9 3.97006 0
gene 1 7 9 4.94547 0 12 4.94547 1
gene 1 9 4 4.27196 0 13 4.27196 1
gene 2 1 9 0.428149 0 45 0.428149 1
genomeend 10

/* Organism #11 Fitness: 10.8261 Error: 0.709692 */
genomestart 11
trait 1 0.1 0 0 0 0 0 0 0 
trait 2 0.2 0 0 0 0 0 0 0 
trait 3 0.3 0 0 0 0 0 0 0 
node 1 1 1 3
node 2 2 1 1
node 3 2 1 1
node 4 2 0 2
node 7 1 0 0
node 9 1 0 0
gene 1 1 4 5.82466 0 1 5.82466 1
gene 1 2 4 1.58823 0 2 1.58823 0
gene 1 3 4 -5.64317 0 3 -5.64317 1
gene 1 2 7 -1.57362 0 8 -1.57362 1
gene 1 7 4 3.03064 0 9 3.03064 0
gene 1 7 9 6.88944 0 12 6.88944 1
gene 1 9 4 3.77343 0 13 3.77343 1
gene 2 1 9 -2.35031 0 45 -2.35031 1
genomeend 11

/* Organism #12 Fitness: 9.00233 Error: 0.999612 */
genomestart 12
trait 1 0.1 0 0 0 0 0 0 0 
trait 2 0.2 0 0 0 0 0 0 0 
trait 3 0.3 0 0 0 0 0 0 0 
node 1 1 1 3
node 2 2 1 1
node 3 2 1 1
node 4 2 0 2
node 7 1 0 0
node 9 1 0 0
gene 1 1 4 0.894505 0 1 0.894505 1
gene 1 2 4 3.10013 0 2 3.10013 0
gene 1 3 4 -5.17773 0 3 -5.17773 1
gene 1 2 7 -1.88833 0 8 -1.88833 1
gene 1 7 4 5.13458 0 9 5.13458 0
gene 1 7 9 1.44067 0 12 1.44067 1
gene 1 9 4 2.77397 0 13 2.77397 1
genomeend 12

/* Organism #13 Fitness: 8.99342 Error: 1.0011 */
genomestart 13
trait 1 0.1 0.0805592 0 0 0.0247777 0 0 0 
trait 2 0.2 0 0 0 0 0 0 0 
trait 3 0.3 0 0 0 0 0 0 0 
node 1 1 1 3
node 2 2 1 1
node 3 2 1 1
node 4 2 0 2
node 7 1 0 0
node 9 1 0 0
gene 1 1 4 3.4804 0 1 3.4804 1
gene 1 2 4 -2.12008 0 2 -2.12008 0
gene 1 3 4 -7.54182 0 3 -7.54182 1
gene 1 2 7 -1.97884 0 8 -1.97884 1
gene 1 7 4 -0.447957 0 9 -0.447957 0
gene 1 7 9 4.83808 0 12 4.83808 1
gene 1 9 4 1.3835 0 13 1.3835 1
gene 2 1 9 -1.81958 0 45 -1.81958 1
genomeend 13

/* Organism #14 Fitness: 8.25625 Error: 1.12663 */
genomestart 14
trait 1 0.1 0 0 0 0 0 0 0 
trait 2 0.2 0 0 0 0 0 0 0 
trait 3 0.3 0 0 0 0 0 0 0 
node 1 1 1 3
node 2 2 1 1
node 3 2 1 1
node 4 2 0 2
node 7 1 0 0
node 9 1 0 0
gene 1 1 4 2.97536 0 1 2.97536 1
gene 1 2 4 2.77658 0 2 2.77658 1
gene 1 3 4 -6.03993 0 3 -6.03993 1
gene 1 2 7 -0.289029 0 8 -0.289029 1
gene 1 7 4 -1.48409 0 9 -1.48409 0
gene 1 7 9 6.01299 0 12 6.01299 1
gene 1 9 4 4.54635 0 13 4.54635 1
gene 2 1 9 -2.95939 0 45 -2.95939 1
genomeend 14

/* Species #2 : (Size 23) (AF 12.0876) (Age 8)  */


/* Organism #15 Fitness: 15.9991 Error: 0.000116156 */
genomestart 15
trait 1 0.1 0 0 0 0 0 0 0 
trait 2 0.2 0 0 0 0 0 0 0 
trait 3 0.3 0.310001 0 0.200674 0 0 0.559189 0 
node 1 2 1 3
node 2 3 1 1
node 3 3 1 1
node 4 3 0 2
node 5 1 0 0
gene 2 1 4 3.53586 0 1 3.53586 1
gene 3 2 4 -5.44612 0 2 -5.44612 1
gene 3 3 4 -7.91109 0 3 -7.91109 0
gene 2 3 5 -5.90445 0 4 -5.90445 1
gene 3 5 4 8 0 5 8 1
genomeend 15

/* Organism #16 Fitness: 8.99986 Error: 1.00002 */
genomestart 16
trait 1 0.1 0 0 0 0 0 0 0 
trait 2 0.2 0 0 0 0 0 0 0 
trait 3 0.3 0.310001 0 0.200674 0 0 0.559189 0 
node 1 2 1 3
node 2 3 1 1
node 3 3 1 1
node 4 3 0 2
node 5 1 0 0
gene 2 1 4 2.17939 0 1 2.17939 1
gene 3 2 4 -8 0 2 -8 1
gene 3 3 4 -4.65923 0 3 -4.65923 0
gene 2 3 5 -5.71275 0 4 -5.71275 1
gene 3 5 4 5.52896 0 5 5.52896 1
genomeend 16

/* Organism #17 Fitness: 9.00051 Error: 0.999915 */
genomestart 17
trait 1 0.1 0 0 0 0 0 0 0 
trait 2 0.2 0 0 0 0 0 0 0 
trait 3 0.3 0.310001 0 0.200674 0 0 0.559189 0 
node 1 2 1 3
node 2 3 1 1
node 3 3 1 1
node 4 3 0 2
node 5 1 0 0
gene 2 1 4 4.98571 0 1 4.98571 1
gene 3 2 4 -3.08121 0 2 -3.08121 1
gene 3 3 4 -8 0 3 -8 0
gene 2 3 5 -3.49841 0 4 -3.49841 1
gene 3 5 4 7.19011 0 5 7.19011 1
genomeend 17

/* Organism #18 Fitness: 9.73799 Error: 0.879425 */
genomestart 18
trait 1 0.1 0 0 0 0 0 0 0 
trait 2 0.2 0 0 0 0 0 0 0 
trait 3 0.3 0.310001 0 0.200674 0 0 0.559189 0 
node 1 2 1 3
node 2 3 1 1
node 3 3 1 1
node 4 3 0 2
node 5 1 0 0
gene 2 1 4 5.91279 0 1 5.91279 1
gene 3 2 4 -5.50929 0 2 -5.50929 1
gene 3 3 4 -6.20531 0 3 -6.20531 0
gene 2 3 5 -3.05004 0 4 -3.05004 1
gene 3 5 4 7.53106 0 5 7.53106 1
genomeend 18

/* Organism #19 Fitness: 9.00059 Error: 0.999902 */
genomestart 19
trait 1 0.1 0 0 0 0 0 0 0 
trait 2 0.2 0 0 0 0 0 0 0 
trait 3 0.3 0.310001 0 0.200674 0 0 0.559189 0 
node 1 2 1 3
node 2 3 1 1
node 3 3 1 1
node 4 3 0 2
node 5 1 0 0
gene 2 1 4 6.84374 0 1 6.84374 1
gene 3 2 4 -4.98149 0 2 -4.98149 1
gene 3 3 4 -4.06458 0 3 -4.06458 0
gene 2 3 5 -1.625 0 4 -1.625 1
gene 3 5 4 4.97481 0 5 4.97481 1
genomeend 19

/* Organism #20 Fitness: 9.00114 Error: 0.999809 */
genomestart 20
trait 1 0.1 0 0 0 0 0 0 0 
trait 2 0.2 0 0 0 0 0 0 0 
trait 3 0.3 0.310001 0 0.200674 0 0 0.559189 0 
node 1 2 1 3
node 2 3 1 1
node 3 3 1 1
node 4 3 0 2
node 5 1 0 0
gene 2 1 4 2.21835 0 1 2.21835 1
gene 3 2 4 -7.54981 0 2 -7.54981 1
gene 3 3 4 -4.986 0 3 -4.986 0
gene 2 3 5 -4.10225 0 4 -4.10225 1
gene 3 5 4 7.22107 0 5 7.22107 1
genomeend 20

/* Organism #21 Fitness: 9.1561 Error: 0.974095 */
genomestart 21
trait 1 0.1 0 0 0 0 0 0 0 
trait 2 0.859247 0.435315 0 0.700459 0 0 0 0 
trait 3 0.3 0.310001 0 0.200674 0 0 0.559189 0 
node 1 2 1 3
node 2 3 1 1
node 3 3 1 1
node 4 3 0 2
node 5 1 0 0
gene 2 1 4 2.77347 0 1 2.77347 1
gene 3 2 4 -7.08975 0 2 -7.08975 1
gene 3 3 4 -4.69418 0 3 -4.69418 0
gene 1 3 5 -3.26595 0 4 -3.26595 1
gene 3 5 4 7.15943 0 5 7.15943 1
genomeend 21

/* Organism #22 Fitness: 13.4666 Error: 0.330319 */
genomestart 22
trait 1 0.1 0 0 0 0 0 0 0 
trait 2 0.2 0 0 0 0 0 0 0 
trait 3 0.3 0.372001 0 0.240809 0 0 0.671026 0 
node 1 2 1 3
node 2 3 1 1
node 3 3 1 1
node 4 3 0 2
node 5 1 0 0
gene 2 1 4 3.02007 0 1 3.02007 1
gene 3 2 4 -6.87655 0 2 -6.87655 1
gene 3 3 4 -2.70909 0 3 -2.70909 0
gene 2 3 5 -0.939334 0 4 -0.939334 1
gene 3 5 4 8 0 5 8 1
genomeend 22

/* Organism #23 Fitness: 9.23078 Error: 0.96178 */
genomestart 23
trait 1 0.1 0 0 0 0 0 0 0 
trait 2 0.2 0 0 0 0 0 0 0 
trait 3 0.3 0.341001 0 0.220742 0 0 0.615108 0 
node 1 2 1 3
node 2 3 1 1
node 3 3 1 1
node 4 3 0 2
node 5 1 0 0
gene 2 1 4 3.98994 0 1 3.98994 1
gene 3 2 4 -8 0 2 -8 1
gene 3 3 4 -5.35049 0 3 -5.35049 0
gene 2 3 5 -2.83766 0 4 -2.83766 1
gene 3 5 4 6.7101 0 5 6.7101 1
genomeend 23

/* Organism #24 Fitness: 8.99946 Error: 1.00009 */
genomestart 24
trait 1 0.1 0 0 0 0 0 0 0 
trait 2 0.2 0 0 0 0 0 0 0 
trait 3 0.3 0.310001 0 0.200674 0 0 0.559189 0 
node 1 2 1 3
node 2 3 1 1
node 3 3 1 1
node 4 3 0 2
node 5 1 0 0
gene 2 1 4 1.81322 0 1 1.81322 1
gene 3 2 4 -7.86112 0 2 -7.86112 1
gene 3 3 4 -8 0 3 -8 0
gene 2 3 5 -3.48749 0 4 -3.48749 1
gene 3 5 4 8 0 5 8 1
genomeend 24

/* Organism #25 Fitness: 15.8706 Error: 0.0162026 */
genomestart 25
trait 1 0.1 0 0 0 0 0 0 0 
trait 2 0.2 0 0 0 0 0 0 0 
trait 3 0.3 0.341001 0 0.220742 0 0 0.615108 0 
node 1 2 1 3
node 2 3 1 1
node 3 3 1 1
node 4 3 0 2
node 5 1 0 0
gene 2 1 4 3.24045 0 1 3.24045 1
gene 3 2 4 -6.26793 0 2 -6.26793 1
gene 3 3 4 -1.37443 0 3 -1.37443 0
gene 2 3 5 -1.78545 0 4 -1.78545 1
gene 3 5 4 7.72273 0 5 7.72273 1
genomeend 25

/* Organism #26 Fitness: 15.9121 Error: 0.0110059 */
genomestart 26
trait 1 0.1 0 0 0 0 0 0 0 
trait 2 0.2 0 0 0 0 0 0 0 
trait 3 0.3 0.341001 0 0.220742 0 0 0.615108 0 
node 1 2 1 3
node 2 3 1 1
node 3 3 1 1
node 4 3 0 2
node 5 1 0 0
gene 2 1 4 4.78117 0 1 4.78117 1
gene 3 2 4 -5.71566 0 2 -5.71566 1
gene 3 3 4 -1.37443 0 3 -1.37443 0
gene 2 3 5 -1.78545 0 4 -1.78545 1
gene 3 5 4 8 0 5 8 1
gene 1 2 5 0.579243 0 81 0.579243 1
genomeend 26

/* Organism #27 Fitness: 10.2327 Error: 0.801136 */
genomestart 27
trait 1 0.1 0 0 0 0 0 0 0 
trait 2 0.2 0 0 0 0 0 0 0 
trait 3 0.3 0.310001 0 0.200674 0 0 0.559189 0 
node 1 2 1 3
node 2 3 1 1
node 3 3 1 1
node 4 3 0 2
node 5 1 0 0
gene 2 1 4 5.81118 0 1 5.81118 1
gene 3 2 4 -5.52828 0 2 -5.52828 1
gene 3 3 4 -6.66689 0 3 -6.66689 0
gene 1 3 5 -2.36208 0 4 -2.36208 1
gene 3 5 4 7.52139 0 5 7.52139 1
genomeend 27

/* Organism #28 Fitness: 15.5546 Error: 0.0560643 */
genomestart 28
trait 1 0.1 0 0 0 0 0 0 0 
trait 2 0.2 0 0 0 0 0 0 0 
trait 3 0.3 0.341001 0 0.220742 0 0 0.615108 0 
node 1 2 1 3
node 2 3 1 1
node 3 3 1 1
node 4 3 0 2
node 5 1 0 0
gene 2 1 4 4.99859 0 1 4.99859 1
gene 3 2 4 -5.58707 0 2 -5.58707 1
gene 3 3 4 -2.29463 0 3 -2.29463 0
gene 2 3 5 -1.2432 0 4 -1.2432 1
gene 3 5 4 6.88789 0 5 6.88789 1
genomeend 28

/* Organism #29 Fitness: 15.7189 Error: 0.0352994 */
genomestart 29
trait 1 0.1 0 0 0 0 0 0 0 
trait 2 0.2 0 0 0 0 0 0 0 
trait 3 0.3 0.372001 0 0.240809 0 0 0.671026 0 
node 1 2 1 3
node 2 3 1 1
node 3 3 1 1
node 4 3 0 2
node 5 1 0 0
gene 2 1 4 2.86054 0 1 2.86054 1
gene 3 2 4 -3.53231 0 2 -3.53231 1
gene 3 3 4 -3.72433 0 3 -3.72433 0
gene 2 3 5 -2.95997 0 4 -2.95997 1
gene 3 5 4 8 0 5 8 1
genomeend 29

/* Organism #30 Fitness: 15.9913 Error: 0.00109012 */
genomestart 30
trait 1 0 0 0 0 0 0 0 0.657305 
trait 2 0.2 0 0 0 0 0 0 0 
trait 3 0.3 0.310001 0 0.200674 0 0 0.559189 0 
node 1 2 1 3
node 2 2 1 1
node 3 3 1 1
node 4 3 0 2
node 5 1 0 0
gene 2 1 4 2.7205 0 1 2.7205 1
gene 3 2 4 -4.55467 0 2 -4.55467 1
gene 3 3 4 -6.05541 0 3 -6.05541 0
gene 2 3 5 -4.12881 0 4 -4.12881 1
gene 3 5 4 6.48634 0 5 6.48634 1
genomeend 30

/* Organism #31 Fitness: 9.01031 Error: 0.998283 */
genomestart 31
trait 1 0.1 0 0 0 0 0 0 0 
trait 2 0.2 0 0 0 0 0 0 0 
trait 3 0.3 0.310001 0 0.200674 0 0 0.559189 0 
node 1 2 1 3
node 2 3 1 1
node 3 3 1 1
node 4 3 0 2
node 5 1 0 0
gene 2 1 4 6.4785 0 1 6.4785 1
gene 3 2 4 -8 0 2 -8 1
gene 3 3 4 -1.01081 0 3 -1.01081 0
gene 2 3 5 -3.19938 0 4 -3.19938 1
gene 3 5 4 1.54199 0 5 1.54199 1
genomeend 31

/* Organism #32 Fitness: 15.9206 Error: 0.00993531 */
genomestart 32
trait 1 0.1 0 0 0 0 0 0 0 
trait 2 0.2 0 0 0 0 0 0 0 
trait 3 0.3 0.341001 0 0.220742 0 0 0.615108 0 
node 1 2 1 3
node 2 3 1 1
node 3 3 1 1
node 4 3 0 2
node 5 1 0 0
gene 2 1 4 4.78117 0 1 4.78117 1
gene 3 2 4 -5.71566 0 2 -5.71566 1
gene 3 3 4 -6.56181 0 3 -6.56181 0
gene 2 3 5 -3.88988 0 4 -3.88988 1
gene 3 5 4 8 0 5 8 1
genomeend 32

/* Organism #33 Fitness: 15.9956 Error: 0.000548942 */
genomestart 33
trait 1 0.1 0 0 0 0 0 0 0 
trait 2 0.2 0 0 0 0 0 0 0 
trait 3 0.3 0.310001 0 0.200674 0 0 0.559189 0 
node 1 2 1 3
node 2 3 1 1
node 3 3 1 1
node 4 3 0 2
node 5 1 0 0
gene 2 1 4 3.49515 0 1 3.49515 1
gene 3 2 4 -5.02217 0 2 -5.02217 1
gene 3 3 4 -8 0 3 -8 0
gene 2 3 5 -5.84476 0 4 -5.84476 1
gene 3 5 4 7.88739 0 5 7.88739 1
genomeend 33

/* Organism #34 Fitness: 15.7386 Error: 0.032807 */
genomestart 34
trait 1 0.1 0 0 0 0 0 0 0 
trait 2 0.2 0 0 0 0 0 0 0 
trait 3 0.3 0.310001 0 0.200674 0 0 0.559189 0 
node 1 2 1 3
node 2 3 1 1
node 3 3 1 1
node 4 3 0 2
node 5 1 0 0
gene 2 1 4 2.26067 0 1 2.26067 1
gene 3 2 4 -2.94792 0 2 -2.94792 1
gene 3 3 4 -7.11363 0 3 -7.11363 0
gene 2 3 5 -6.66737 0 4 -6.66737 1
gene 3 5 4 8 0 5 8 1
genomeend 34

/* Organism #35 Fitness: 9.01112 Error: 0.998148 */
genomestart 35
trait 1 0.1 0 0 0 0 0 0 0 
trait 2 0.2 0 0 0 0 0 0 0 
trait 3 0.3 0.310001 0 0.200674 0 0 0.559189 0 
node 1 2 1 3
node 2 3 1 1
node 3 3 1 1
node 4 3 0 2
node 5 1 0 0
gene 2 1 4 4.06587 0 1 4.06587 1
gene 3 2 4 -4.22742 0 2 -4.22742 1
gene 3 3 4 -5.34314 0 3 -5.34314 1
gene 2 3 5 -7.08409 0 4 -7.08409 1
gene 3 5 4 8 0 5 8 1
genomeend 35

/* Organism #36 Fitness: 4.46808 Error: 1.88622 */
genomestart 36
trait 1 0.1 0 0 0 0 0 0 0 
trait 2 0.2 0 0 0 0 0 0 0 
trait 3 0.3 0.310001 0 0.200674 0 0 0.559189 0 
node 1 2 1 3
node 2 3 1 1
node 3 3 1 1
node 4 3 0 2
node 5 1 0 0
gene 2 1 4 6.00728 0 1 6.00728 1
gene 3 2 4 -7.08975 0 2 -7.08975 1
gene 3 3 4 -4.58885 0 3 -4.58885 0
gene 2 3 5 -5.59348 0 4 -5.59348 1
gene 3 5 4 -0.817154 0 5 -0.817154 1
genomeend 36

/* Organism #37 Fitness: 15.9987 Error: 0.000156949 */
genomestart 37
trait 1 0.1 0 0 0 0 0 0 0 
trait 2 0.2 0 0 0 0 0 0 0 
trait 3 0.3 0.341001 0 0.220742 0 0 0.615108 0 
node 1 2 1 3
node 2 3 1 1
node 3 3 1 1
node 4 3 0 2
node 5 1 0 0
gene 2 1 4 3.38816 0 1 3.38816 1
gene 3 2 4 -5.58089 0 2 -5.58089 1
gene 3 3 4 -4.64276 0 3 -4.64276 0
gene 2 3 5 -3.84495 0 4 -3.84495 1
gene 3 5 4 8 0 5 8 1
genomeend 37

/* Species #4 : (Size 15) (AF 8.99607) (Age 6)  */


/* Organism #38 Fitness: 8.99999 Error: 1 */
genomestart 38
trait 1 0.1 0 0 0 0 0 0 0 
trait 2 0.2 0 0 0 0 0 0 0 
trait 3 0.39581 0 0 0 0.157155 0 0.201236 0 
node 1 2 1 3
node 2 1 1 1
node 3 1 1 1
node 4 3 0 2
node 17 1 0 0
gene 2 1 4 4.04047 0 1 4.04047 1
gene 1 2 4 -0.486108 0 2 -0.486108 0
gene 3 3 4 -0.473793 0 3 -0.473793 0
gene 1 2 17 -0.553689 0 39 -0.553689 1
gene 1 17 4 5.65089 0 40 5.65089 1
genomeend 38

/* Organism #39 Fitness: 8.99319 Error: 1.00114 */
genomestart 39
trait 1 0.1 0 0 0 0 0 0 0 
trait 2 0.2 0 0 0 0 0 0 0 
trait 3 0.3 0 0 0 0 0 0 0 
node 1 2 1 3
node 2 1 1 1
node 3 1 1 1
node 4 3 0 2
node 17 1 0 0
gene 2 1 4 4.62192 0 1 4.62192 1
gene 1 2 4 1.08472 0 2 1.08472 0
gene 3 3 4 -4.10284 0 3 -4.10284 0
gene 1 2 17 3.44022 0 39 3.44022 1
gene 1 17 4 2.75363 0 40 2.75363 1
genomeend 39

/* Organism #40 Fitness: 8.99998 Error: 1 */
genomestart 40
trait 1 0.1 0 0 0 0 0 0 0 
trait 2 0.2 0 0 0 0 0 0 0 
trait 3 0.3 0 0 0 0 0 0 0 
node 1 2 1 3
node 2 3 1 1
node 3 1 1 1
node 4 3 0 2
node 17 1 0 0
gene 2 1 4 2.33145 0 1 2.33145 1
gene 1 2 4 2.44594 0 2 2.44594 0
gene 3 3 4 -2.22122 0 3 -2.22122 0
gene 1 2 17 1.53733 0 39 1.53733 1
gene 1 17 4 5.14581 0 40 5.14581 1
genomeend 40

/* Organism #41 Fitness: 8.99891 Error: 1.00018 */
genomestart 41
trait 1 0.1 0 0 0 0 0 0 0 
trait 2 0.2 0 0 0 0 0 0 0 
trait 3 0.3 0 0 0 0 0 0 0 
node 1 2 1 3
node 2 1 1 1
node 3 1 1 1
node 4 3 0 2
node 17 1 0 0
gene 2 1 4 2.49855 0 1 2.49855 1
gene 1 2 4 1.39949 0 2 1.39949 0
gene 3 3 4 -4.58718 0 3 -4.58718 0
gene 1 2 17 1.7722 0 39 1.7722 1
gene 1 17 4 3.49653 0 40 3.49653 1
genomeend 41

/* Organism #42 Fitness: 8.99998 Error: 1 */
genomestart 42
trait 1 0.1 0 0 0 0 0 0 0 
trait 2 0.485333 0 0 0 0.061614 0.180265 0 0.146308 
trait 3 0.347905 0 0 0 0.0785777 0 0.100618 0 
node 1 2 1 3
node 2 1 1 1
node 3 1 1 1
node 4 3 0 2
node 17 1 0 0
gene 2 1 4 0.702738 0 1 0.702738 1
gene 1 2 4 0.999339 0 2 0.999339 1
gene 3 3 4 1.71604 0 3 1.71604 0
gene 2 2 17 -1.00152 0 39 -1.00152 1
gene 1 17 4 5.13399 0 40 5.13399 1
genomeend 42

/* Organism #43 Fitness: 9 Error: 1 */
genomestart 43
trait 1 0.1 0 0 0 0 0 0 0 
trait 2 0.2 0 0 0 0 0 0 0 
trait 3 0.3 0 0 0 0 0 0 0 
node 1 2 1 3
node 2 1 1 1
node 3 1 1 1
node 4 3 0 2
node 17 3 0 0
gene 2 1 4 6.89625 0 1 6.89625 1
gene 1 2 4 -0.661567 0 2 -0.661567 0
gene 3 3 4 -5.93993 0 3 -5.93993 0
gene 1 2 17 2.28387 0 39 2.28387 1
gene 1 17 4 6.51915 0 40 6.51915 1
genomeend 43

/* Organism #44 Fitness: 8.99994 Error: 1.00001 */
genomestart 44
trait 1 0.1 0 0 0 0 0 0 0 
trait 2 0.2 0 0 0 0 0 0 0 
trait 3 0.39581 0 0 0 0.157155 0 0.201236 0 
node 1 2 1 3
node 2 1 1 1
node 3 1 1 1
node 4 3 0 2
node 17 1 0 0
gene 2 1 4 4.04047 0 1 4.04047 1
gene 1 2 4 -1.05581 0 2 -1.05581 0
gene 3 3 4 -1.22564 0 3 -1.22564 0
gene 1 2 17 -1.0161 0 39 -1.0161 1
gene 1 17 4 4.66018 0 40 4.66018 1
genomeend 44

/* Organism #45 Fitness: 8.99999 Error: 1 */
genomestart 45
trait 1 0.1 0 0 0 0 0 0 0 
trait 2 0.485333 0 0 0 0.061614 0.180265 0 0.146308 
trait 3 0.3 0 0 0 0 0 0 0 
node 1 2 1 3
node 2 1 1 1
node 3 1 1 1
node 4 3 0 2
node 17 3 0 0
gene 2 1 4 1.27171 0 1 1.27171 1
gene 1 2 4 -1.2533 0 2 -1.2533 0
gene 3 3 4 1.28676 0 3 1.28676 0
gene 1 2 17 -0.559501 0 39 -0.559501 1
gene 1 17 4 5.45899 0 40 5.45899 1
genomeend 45

/* Organism #46 Fitness: 8.99993 Error: 1.00001 */
genomestart 46
trait 1 0.1 0 0 0 0 0 0 0 
trait 2 0.2 0 0 0 0 0 0 0 
trait 3 0.3 0 0 0 0 0 0 0 
node 1 2 1 3
node 2 1 1 1
node 3 1 1 1
node 4 3 0 2
node 17 1 0 0
gene 2 1 4 3.84078 0 1 3.84078 1
gene 1 2 4 2.12435 0 2 2.12435 0
gene 3 3 4 -1.05689 0 3 -1.05689 0
gene 1 2 17 0.450449 0 39 0.450449 1
gene 1 17 4 4.59333 0 40 4.59333 1
genomeend 46

/* Organism #47 Fitness: 8.99921 Error: 1.00013 */
genomestart 47
trait 1 0.1 0 0 0 0 0 0 0 
trait 2 0.2 0 0 0 0 0 0 0 
trait 3 0.3 0 0 0 0 0 0 0 
node 1 2 1 3
node 2 1 1 1
node 3 1 1 1
node 4 3 0 2
node 17 1 0 0
gene 2 1 4 3.24904 0 1 3.24904 1
gene 1 2 4 1.60338 0 2 1.60338 0
gene 3 3 4 -2.7286 0 3 -2.7286 0
gene 1 2 17 0.918869 0 39 0.918869 1
gene 1 17 4 3.62671 0 40 3.62671 1
genomeend 47

/* Organism #48 Fitness: 8.99997 Error: 1.00001 */
genomestart 48
trait 1 0.1 0 0 0 0 0 0 0 
trait 2 0.679538 0 0 0 0 0.134488 0.614855 0.850214 
trait 3 0.3 0 0 0 0 0 0 0 
node 1 2 1 3
node 2 1 1 1
node 3 1 1 1
node 4 3 0 2
node 17 1 0 0
gene 2 1 4 2.11898 0 1 2.11898 1
gene 1 2 4 0.00755652 0 2 0.00755652 0
gene 3 3 4 0.0372644 0 3 0.0372644 0
gene 1 2 17 2.06992 0 39 2.06992 1
gene 1 17 4 4.92679 0 40 4.92679 1
genomeend 48

/* Organism #49 Fitness: 8.96284 Error: 1.0062 */
genomestart 49
trait 1 0.1 0 0 0 0 0 0 0 
trait 2 0.2 0 0 0 0 0 0 0 
trait 3 0.3 0 0 0 0 0 0 0 
node 1 2 1 3
node 2 1 1 1
node 3 1 1 1
node 4 3 0 2
node 17 1 0 0
node 33 1 0 0
gene 2 1 4 2.07289 0 1 2.07289 1
gene 1 2 4 2.42102 0 2 2.42102 0
gene 3 3 4 -2.33645 0 3 -2.33645 0
gene 1 2 17 0.974277 0 39 0.974277 1
gene 1 17 4 4.40285 0 40 4.40285 1
gene 3 3 33 1 0 82 0 1
gene 3 33 4 -2.33645 0 83 0 1
genomeend 49

/* Organism #50 Fitness: 8.98795 Error: 1.00201 */
genomestart 50
trait 1 0.1 0 0 0 0 0 0 0 
trait 2 0.2 0 0 0 0 0 0 0 
trait 3 0.347905 0 0 0 0.0785777 0 0.100618 0 
node 1 2 1 3
node 2 1 1 1
node 3 3 1 1
node 4 3 0 2
node 17 1 0 0
gene 2 1 4 2.12973 0 1 2.12973 1
gene 1 2 4 0.741685 0 2 0.741685 0
gene 3 3 4 -1.55784 0 3 -1.55784 0
gene 1 2 17 -0.681636 0 39 -0.681636 1
gene 1 17 4 2.52133 0 40 2.52133 1
genomeend 50

/* Organism #51 Fitness: 8.99999 Error: 1 */
genomestart 51
trait 1 0.1 0 0 0 0 0 0 0 
trait 2 0.2 0 0 0 0 0 0 0 
trait 3 0.3 0 0 0 0 0 0 0 
node 1 2 1 3
node 2 1 1 1
node 3 1 1 1
node 4 3 0 2
node 17 1 0 0
gene 2 1 4 1.98268 0 1 1.98268 1
gene 1 2 4 2.24856 0 2 2.24856 0
gene 3 3 4 -1.006 0 3 -1.006 0
gene 1 2 17 -1.86194 0 39 -1.86194 1
gene 1 17 4 5.25238 0 40 5.25238 1
genomeend 51

/* Organism #52 Fitness: 8.99921 Error: 1.00013 */
genomestart 52
trait 1 0.1 0 0 0 0 0 0 0 
trait 2 0.2 0 0 0 0 0 0 0 
trait 3 0.347905 0 0 0 0.0785777 0 0.100618 0 
node 1 2 1 3
node 2 1 1 1
node 3 1 1 1
node 4 3 0 2
node 17 1 0 0
gene 2 1 4 4.04047 0 1 4.04047 1
gene 1 2 4 -0.486108 0 2 -0.486108 0
gene 3 3 4 -0.473793 0 3 -0.473793 0
gene 1 2 17 0.918869 0 39 0.918869 1
gene 1 17 4 3.62671 0 40 3.62671 1
genomeend 52

/* Species #5 : (Size 15) (AF 8.04854) (Age 6)  */


/* Organism #53 Fitness: 14.1539 Error: 0.237833 */
genomestart 53
trait 1 0.1 0 0 0 0 0 0 0 
trait 2 0.2 0 0 0 0 0 0 0 
trait 3 0.3 0 0 0 0 0 0 0 
node 1 1 1 3
node 2 2 1 1
node 3 2 1 1
node 4 2 0 2
node 7 1 0 0
node 8 1 0 0
node 12 1 0 0
gene 1 1 4 -0.635366 0 1 -0.635366 1
gene 1 2 4 -1.35269 0 2 -1.35269 0
gene 1 3 4 -1.59919 0 3 -1.59919 1
gene 1 2 7 -0.656259 0 8 -0.656259 1
gene 1 7 4 4.21833 0 9 4.21833 0
gene 1 2 8 -2.34791 0 10 -2.34791 1
gene 1 8 7 1.6723 0 11 1.6723 1
gene 1 7 12 0.848893 0 22 0.848893 1
gene 1 12 4 2.55953 0 23 2.55953 1
genomeend 53

/* Organism #54 Fitness: 8.99993 Error: 1.00001 */
genomestart 54
trait 1 0.1 0 0 0 0 0 0 0 
trait 2 0.2 0 0 0 0 0 0 0 
trait 3 0.3 0 0 0 0 0 0 0 
node 1 1 1 3
node 2 2 1 1
node 3 1 1 1
node 4 2 0 2
node 7 1 0 0
node 8 1 0 0
node 12 1 0 0
gene 1 1 4 1.02445 0 1 1.02445 1
gene 1 2 4 0.0403527 0 2 0.0403527 0
gene 1 3 4 -0.274295 0 3 -0.274295 1
gene 1 2 7 0.315357 0 8 0.315357 0
gene 2 7 4 5.74542 0 9 5.74542 0
gene 1 2 8 -1.52353 0 10 -1.52353 1
gene 1 8 7 2.58942 0 11 2.58942 1
gene 1 7 12 0.38881 0 22 0.38881 1
gene 1 12 4 2.63252 0 23 2.63252 1
genomeend 54

/* Organism #55 Fitness: 9.62568 Error: 0.897472 */
genomestart 55
trait 1 0.1 0 0 0 0 0 0 0 
trait 2 0.2 0 0 0 0 0 0 0 
trait 3 0.3 0 0 0 0 0 0 0 
node 1 1 1 3
node 2 2 1 1
node 3 1 1 1
node 4 2 0 2
node 7 1 0 0
node 8 1 0 0
node 12 1 0 0
gene 1 1 4 -1.08426 0 1 -1.08426 1
gene 1 2 4 -0.118449 0 2 -0.118449 1
gene 1 3 4 -4.29013 0 3 -4.29013 1
gene 1 2 7 -1.97057 0 8 -1.97057 0
gene 2 7 4 4.91858 0 9 4.91858 1
gene 1 2 8 -1.53662 0 10 -1.53662 1
gene 1 8 7 0.584971 0 11 0.584971 1
gene 1 7 12 3.04022 0 22 3.04022 1
gene 1 12 4 0.957294 0 23 0.957294 1
genomeend 55

/* Organism #56 Fitness: 8.98354 Error: 1.00274 */
genomestart 56
trait 1 0.1 0 0 0 0 0 0 0 
trait 2 0.2 0 0 0 0 0 0 0 
trait 3 0.3 0 0 0 0 0 0 0 
node 1 1 1 3
node 2 2 1 1
node 3 2 1 1
node 4 2 0 2
node 7 1 0 0
node 8 1 0 0
node 12 1 0 0
gene 1 1 4 1.42952 0 1 1.42952 1
gene 1 2 4 -3.15218 0 2 -3.15218 0
gene 1 3 4 -1.90063 0 3 -1.90063 1
gene 1 2 7 -0.743306 0 8 -0.743306 1
gene 1 7 4 -0.91151 0 9 -0.91151 0
gene 1 2 8 -1.2835 0 10 -1.2835 1
gene 1 8 7 -0.199307 0 11 -0.199307 1
gene 1 7 12 -0.074691 0 22 -0.074691 1
gene 1 12 4 3.28929 0 23 3.28929 1
genomeend 56

/* Organism #57 Fitness: 9.00029 Error: 0.999951 */
genomestart 57
trait 1 0.1 0 0 0 0 0 0 0 
trait 2 0.2 0 0 0 0 0 0 0 
trait 3 0.3 0 0 0 0 0 0 0 
node 1 1 1 3
node 2 2 1 1
node 3 2 1 1
node 4 2 0 2
node 7 1 0 0
node 8 1 0 0
node 12 1 0 0
gene 1 1 4 1.36916 0 1 1.36916 1
gene 1 2 4 -1.59551 0 2 -1.59551 0
gene 1 3 4 -2.46562 0 3 -2.46562 1
gene 1 2 7 -0.164278 0 8 -0.164278 1
gene 1 7 4 3.87766 0 9 3.87766 0
gene 1 2 8 -1.0236 0 10 -1.0236 1
gene 1 8 7 2.30186 0 11 2.30186 1
gene 1 7 12 3.52779 0 22 3.52779 1
gene 1 12 4 2.4564 0 23 2.4564 1
genomeend 57

/* Organism #58 Fitness: 1.01651 Error: 2.99178 */
genomestart 58
trait 1 0.1 0 0 0 0 0 0 0 
trait 2 0.2 0 0 0 0 0 0 0 
trait 3 0.3 0 0 0 0 0 0 0 
node 1 1 1 3
node 2 2 1 1
node 3 1 1 1
node 4 2 0 2
node 7 1 0 0
node 8 1 0 0
node 12 1 0 0
gene 1 1 4 -3.40826 0 1 -3.40826 1
gene 1 2 4 0.26203 0 2 0.26203 0
gene 1 3 4 -4.81782 0 3 -4.81782 1
gene 1 2 7 -1.98809 0 8 -1.98809 0
gene 2 7 4 4.02781 0 9 4.02781 1
gene 1 2 8 -0.955802 0 10 -0.955802 1
gene 1 8 7 -0.517143 0 11 -0.517143 1
gene 1 7 12 3.17559 0 22 3.17559 1
gene 1 12 4 0.154072 0 23 0.154072 1
genomeend 58

/* Organism #59 Fitness: 13.4542 Error: 0.332006 */
genomestart 59
trait 1 0.1 0 0 0 0 0 0 0 
trait 2 0.2 0 0 0 0 0 0 0 
trait 3 0.3 0 0 0 0 0 0 0 
node 1 1 1 3
node 2 2 1 1
node 3 2 1 1
node 4 2 0 2
node 7 1 0 0
node 8 1 0 0
node 12 1 0 0
gene 1 1 4 -0.635366 0 1 -0.635366 1
gene 1 2 4 -1.35269 0 2 -1.35269 0
gene 1 3 4 -1.59919 0 3 -1.59919 1
gene 1 2 7 -0.656259 0 8 -0.656259 1
gene 1 7 4 1.55005 0 9 1.55005 0
gene 1 2 8 0.157508 0 10 0.157508 1
gene 1 8 7 -0.00769204 0 11 -0.00769204 1
gene 1 7 12 1.14879 0 22 1.14879 1
gene 1 12 4 2.55953 0 23 2.55953 1
genomeend 59

/* Organism #60 Fitness: 9.02492 Error: 0.995849 */
genomestart 60
trait 1 0 0 0 0 0 0 0 0 
trait 2 0.2 0 0 0 0 0 0 0 
trait 3 0.3 0 0 0 0 0 0 0 
node 1 1 1 3
node 2 2 1 1
node 3 2 1 1
node 4 2 0 2
node 7 1 0 0
node 8 1 0 0
node 12 1 0 0
gene 1 1 4 0.126946 0 1 0.126946 1
gene 1 2 4 0.040575 0 2 0.040575 0
gene 1 3 4 -1.02243 0 3 -1.02243 1
gene 1 2 7 -0.824803 0 8 -0.824803 1
gene 1 7 4 5.33614 0 9 5.33614 0
gene 1 2 8 1.06765 0 10 1.06765 1
gene 1 8 7 -1.33329 0 11 -1.33329 1
gene 1 7 12 0.697544 0 22 0.697544 1
gene 1 12 4 3.6575 0 23 3.6575 1
genomeend 60

/* Organism #61 Fitness: 6.28547 Error: 1.49292 */
genomestart 61
trait 1 0.1 0 0 0 0 0 0 0 
trait 2 0.2 0 0 0 0 0 0 0 
trait 3 0.3 0 0 0 0 0 0 0 
node 1 1 1 3
node 2 2 1 1
node 3 2 1 1
node 4 2 0 2
node 7 1 0 0
node 8 1 0 0
node 12 1 0 0
gene 1 1 4 2.32487 0 1 2.32487 1
gene 1 2 4 -1.90548 0 2 -1.90548 0
gene 1 3 4 -3.26268 0 3 -3.26268 1
gene 1 2 7 -3.06666 0 8 -3.06666 0
gene 2 7 4 5.55263 0 9 5.55263 0
gene 1 2 8 -2.26944 0 10 -2.26944 1
gene 1 8 7 0.418942 0 11 0.418942 1
gene 1 7 12 -1.63478 0 22 -1.63478 1
gene 1 12 4 2.91606 0 23 2.91606 1
genomeend 61

/* Organism #62 Fitness: 8.4908 Error: 1.0861 */
genomestart 62
trait 1 0.1 0 0 0 0 0 0 0 
trait 2 0.2 0 0 0 0 0 0 0 
trait 3 0.3 0 0 0 0 0 0 0 
node 1 1 1 3
node 2 2 1 1
node 3 2 1 1
node 4 2 0 2
node 7 1 0 0
node 8 1 0 0
node 12 1 0 0
gene 1 1 4 1.53518 0 1 1.53518 1
gene 1 2 4 0.0901928 0 2 0.0901928 0
gene 1 3 4 -0.805223 0 3 -0.805223 1
gene 1 2 7 -1.41283 0 8 -1.41283 1
gene 1 7 4 2.53885 0 9 2.53885 0
gene 1 2 8 -3.27002 0 10 -3.27002 1
gene 1 8 7 0.0404945 0 11 0.0404945 1
gene 1 7 12 -0.757556 0 22 -0.757556 1
gene 1 12 4 3.93068 0 23 3.93068 1
genomeend 62

/* Organism #63 Fitness: 4.04056 Error: 1.98989 */
genomestart 63
trait 1 0.1 0 0 0 0 0 0 0 
trait 2 0.2 0 0 0 0 0 0 0 
trait 3 0.3 0 0 0 0 0 0 0 
node 1 1 1 3
node 2 2 1 1
node 3 2 1 1
node 4 2 0 2
node 7 1 0 0
node 8 1 0 0
node 12 1 0 0
gene 1 1 4 -2.75533 0 1 -2.75533 1
gene 1 2 4 0.533524 0 2 0.533524 0
gene 1 3 4 -2.20468 0 3 -2.20468 1
gene 1 2 7 -0.987177 0 8 -0.987177 0
gene 2 7 4 4.69616 0 9 4.69616 1
gene 1 2 8 -3.29374 0 10 -3.29374 1
gene 1 8 7 1.97995 0 11 1.97995 1
gene 1 7 12 1.50981 0 22 1.50981 1
gene 1 12 4 -0.687943 0 23 -0.687943 1
genomeend 63

/* Organism #64 Fitness: 9.02256 Error: 0.996242 */
genomestart 64
trait 1 0.1 0 0 0 0 0 0 0 
trait 2 0.2 0 0 0 0 0 0 0 
trait 3 0.3 0 0 0 0 0 0 0 
node 1 1 1 3
node 2 2 1 1
node 3 2 1 1
node 4 2 0 2
node 7 1 0 0
node 8 1 0 0
node 12 1 0 0
gene 1 1 4 -0.511088 0 1 -0.511088 1
gene 1 2 4 -1.79801 0 2 -1.79801 0
gene 1 3 4 -0.0255769 0 3 -0.0255769 1
gene 1 2 7 0.397231 0 8 0.397231 1
gene 1 7 4 4.09965 0 9 4.09965 0
gene 1 2 8 -2.93864 0 10 -2.93864 1
gene 1 8 7 -0.698181 0 11 -0.698181 1
gene 1 7 12 -0.893278 0 22 -0.893278 1
gene 1 12 4 4.78891 0 23 4.78891 1
genomeend 64

/* Organism #65 Fitness: 3.9139 Error: 2.02164 */
genomestart 65
trait 1 0.1 0 0 0 0 0 0 0 
trait 2 0.2 0 0 0 0 0 0 0 
trait 3 0.3 0 0 0 0 0 0 0 
node 1 1 1 3
node 2 2 1 1
node 3 3 1 1
node 4 2 0 2
node 7 1 0 0
node 8 1 0 0
node 12 1 0 0
gene 1 1 4 -0.152322 0 1 -0.152322 1
gene 1 2 4 -3.43538 0 2 -3.43538 0
gene 1 3 4 -0.930783 0 3 -0.930783 1
gene 1 2 7 -0.77499 0 8 -0.77499 1
gene 1 7 4 2.73688 0 9 2.73688 0
gene 1 2 8 -0.0484613 0 10 -0.0484613 1
gene 1 8 7 0.170532 0 11 0.170532 1
gene 1 7 12 -1.02759 0 22 -1.02759 1
gene 1 12 4 3.10784 0 23 3.10784 1
genomeend 65

/* Organism #66 Fitness: 12.5185 Error: 0.461844 */
genomestart 66
trait 1 0.1 0 0 0 0 0 0 0 
trait 2 0.2 0 0 0 0 0 0 0 
trait 3 0.3 0 0 0 0 0 0 0 
node 1 1 1 3
node 2 2 1 1
node 3 2 1 1
node 4 2 0 2
node 7 1 0 0
node 8 1 0 0
node 12 1 0 0
gene 1 1 4 0.0270582 0 1 0.0270582 1
gene 1 2 4 -1.47485 0 2 -1.47485 0
gene 1 3 4 -1.49394 0 3 -1.49394 1
gene 1 2 7 -0.431009 0 8 -0.431009 1
gene 1 7 4 2.88419 0 9 2.88419 0
gene 1 2 8 -1.0952 0 10 -1.0952 1
gene 1 8 7 0.832304 0 11 0.832304 1
gene 1 7 12 0.998843 0 22 0.998843 1
gene 1 12 4 2.24408 0 23 2.24408 1
genomeend 66

/* Organism #67 Fitness: 2.19727 Error: 2.51768 */
genomestart 67
trait 1 0.1 0 0 0 0 0 0 0 
trait 2 0.2 0 0 0 0 0 0 0 
trait 3 0.3 0 0 0 0 0 0 0 
node 1 1 1 3
node 2 2 1 1
node 3 2 1 1
node 4 2 0 2
node 7 1 0 0
node 8 1 0 0
node 12 1 0 0
gene 1 1 4 -0.635366 0 1 -0.635366 1
gene 1 2 4 -1.35269 0 2 -1.35269 0
gene 1 3 4 -2.73447 0 3 -2.73447 1
gene 1 2 7 1.49746 0 8 1.49746 1
gene 1 7 4 5.38044 0 9 5.38044 0
gene 1 2 8 -2.34791 0 10 -2.34791 1
gene 1 8 7 0.517516 0 11 0.517516 1
gene 1 7 12 3.19544 0 22 3.19544 1
gene 1 12 4 0.192087 0 23 0.192087 1
genomeend 67

/* Species #6 : (Size 15) (AF 8.87393) (Age 5)  */


/* Organism #68 Fitness: 14.8841 Error: 0.142009 */
genomestart 68
trait 1 0.1 0 0 0 0 0 0 0 
trait 2 0.2 0 0 0 0.131903 0.537336 0 0 
trait 3 0.3 0 0 0 0 0 0 0 
node 1 1 1 3
node 2 2 1 1
node 3 2 1 1
node 4 2 0 2
node 7 1 0 0
node 9 1 0 0
node 25 1 0 0
gene 1 1 4 -0.0379419 0 1 -0.0379419 1
gene 1 2 4 1.83411 0 2 1.83411 0
gene 1 3 4 -1.97209 0 3 -1.97209 1
gene 1 2 7 -2.49121 0 8 -2.49121 1
gene 1 7 4 6.16551 0 9 6.16551 0
gene 1 7 9 4.45079 0 12 4.45079 1
gene 1 9 4 4.44527 0 13 4.44527 0
gene 2 1 9 -2.43756 0 45 -2.43756 1
gene 1 9 25 2.45507 0 60 2.45507 1
gene 1 25 4 3.27523 0 61 3.27523 1
genomeend 68

/* Organism #69 Fitness: 6.00365 Error: 1.54976 */
genomestart 69
trait 1 0.1 0 0 0 0 0 0 0 
trait 2 0.2 0 0.595418 0 0.0782714 0.0801069 0 0.767054 
trait 3 0.3 0 0 0 0 0 0 0 
node 1 1 1 3
node 2 2 1 1
node 3 2 1 1
node 4 2 0 2
node 7 1 0 0
node 9 1 0 0
node 25 1 0 0
gene 1 1 4 2.06099 0 1 2.06099 1
gene 1 2 4 1.66999 0 2 1.66999 0
gene 1 3 4 -3.24713 0 3 -3.24713 1
gene 1 2 7 -3.35088 0 8 -3.35088 1
gene 1 7 4 3.68255 0 9 3.68255 0
gene 1 7 9 2.75218 0 12 2.75218 1
gene 1 9 4 3.14744 0 13 3.14744 0
gene 2 1 9 -1.51314 0 45 -1.51314 1
gene 1 9 25 -1.43629 0 60 -1.43629 1
gene 1 25 4 1.22663 0 61 1.22663 1
genomeend 69

/* Organism #70 Fitness: 11.3391 Error: 0.632642 */
genomestart 70
trait 1 0.1 0 0 0 0 0 0 0 
trait 2 0.2 0 0 0 0.0659515 0.268668 0 0 
trait 3 0.3 0 0 0 0 0 0 0 
node 1 1 1 3
node 2 2 1 1
node 3 2 1 1
node 4 2 0 2
node 7 1 0 0
node 9 1 0 0
node 25 1 0 0
gene 1 1 4 -1.2597 0 1 -1.2597 1
gene 1 2 4 0.16186 0 2 0.16186 0
gene 1 3 4 -0.804013 0 3 -0.804013 1
gene 1 2 7 -4.58403 0 8 -4.58403 1
gene 1 7 4 1.78106 0 9 1.78106 1
gene 1 7 9 5.26782 0 12 5.26782 1
gene 1 9 4 4.15896 0 13 4.15896 0
gene 2 1 9 -0.606294 0 45 -0.606294 1
gene 1 9 25 4.05421 0 60 4.05421 1
gene 1 25 4 1.69295 0 61 1.69295 1
genomeend 70

/* Organism #71 Fitness: 14.3353 Error: 0.213796 */
genomestart 71
trait 1 0.1 0 0 0 0 0 0 0 
trait 2 0.2 0 0 0 0 0 0 0 
trait 3 0.3 0 0 0 0 0 0 0 
node 1 1 1 3
node 2 2 1 1
node 3 2 1 1
node 4 2 0 2
node 7 1 0 0
node 9 1 0 0
node 25 1 0 0
gene 1 1 4 -1.91518 0 1 -1.91518 1
gene 1 2 4 0.101349 0 2 0.101349 0
gene 1 3 4 -0.953958 0 3 -0.953958 1
gene 1 2 7 -2.43522 0 8 -2.43522 1
gene 1 7 4 1.7841 0 9 1.7841 0
gene 1 7 9 3.50102 0 12 3.50102 1
gene 1 9 4 4.01608 0 13 4.01608 1
gene 2 1 9 -0.863775 0 45 -0.863775 1
gene 1 9 25 2.33738 0 60 2.33738 1
gene 1 25 4 4.61495 0 61 4.61495 1
genomeend 71

/* Organism #72 Fitness: 8.78635 Error: 1.03582 */
genomestart 72
trait 1 0.1 0 0 0 0 0 0 0 
trait 2 0.2 0 0 0 0 0 0 0 
trait 3 0.3 0 0 0 0 0 0 0 
node 1 1 1 3
node 2 2 1 1
node 3 2 1 1
node 4 2 0 2
node 7 1 0 0
node 9 1 0 0
node 25 1 0 0
gene 1 1 4 -0.824761 0 1 -0.824761 1
gene 1 2 4 -1.55234 0 2 -1.55234 0
gene 1 3 4 -1.99825 0 3 -1.99825 1
gene 1 2 7 -1.691 0 8 -1.691 1
gene 1 7 4 2.51385 0 9 2.51385 0
gene 2 7 9 -0.0322469 0 12 -0.0322469 1
gene 1 9 4 1.82901 0 13 1.82901 0
gene 2 1 9 -2.16058 0 45 -2.16058 1
gene 1 9 25 3.42063 0 60 3.42063 1
gene 1 25 4 3.27523 0 61 3.27523 1
genomeend 72

/* Organism #73 Fitness: 13.9901 Error: 0.259662 */
genomestart 73
trait 1 0.1 0 0 0 0 0 0 0 
trait 2 0.2 0 0 0 0 0 0 0 
trait 3 0.3 0 0 0 0 0 0 0 
node 1 1 1 3
node 2 2 1 1
node 3 2 1 1
node 4 2 0 2
node 7 1 0 0
node 9 1 0 0
node 25 1 0 0
gene 1 1 4 -2.04388 0 1 -2.04388 1
gene 1 2 4 0.646913 0 2 0.646913 0
gene 1 3 4 -1.41322 0 3 -1.41322 1
gene 1 2 7 -0.572577 0 8 -0.572577 1
gene 1 7 4 2.30198 0 9 2.30198 0
gene 1 7 9 2.09826 0 12 2.09826 1
gene 1 9 4 5.75297 0 13 5.75297 0
gene 2 1 9 -1.35644 0 45 -1.35644 1
gene 1 9 25 3.79648 0 60 3.79648 1
gene 1 25 4 4.45818 0 61 4.45818 1
genomeend 73

/* Organism #74 Fitness: 8.99943 Error: 1.0001 */
genomestart 74
trait 1 0.1 0 0 0 0 0 0 0 
trait 2 0.2 0 0 0 0 0 0 0 
trait 3 0.3 0 0 0 0 0 0 0 
node 1 1 1 3
node 2 2 1 1
node 3 2 1 1
node 4 2 0 2
node 7 1 0 0
node 9 1 0 0
node 25 1 0 0
gene 1 1 4 3.07692 0 1 3.07692 1
gene 1 2 4 -2.09581 0 2 -2.09581 0
gene 1 3 4 -2.80579 0 3 -2.80579 1
gene 1 2 7 -2.26519 0 8 -2.26519 1
gene 1 7 4 2.77358 0 9 2.77358 0
gene 1 7 9 1.35224 0 12 1.35224 1
gene 1 9 4 5.11103 0 13 5.11103 0
gene 2 1 9 0.224606 0 45 0.224606 1
gene 1 9 25 1.44561 0 60 1.44561 1
gene 1 25 4 1.87923 0 61 1.87923 1
genomeend 74

/* Organism #75 Fitness: 5.35825 Error: 1.68521 */
genomestart 75
trait 1 0.1 0 0 0 0 0 0 0 
trait 2 0.2 0 0 0 0.0659515 0.268668 0 0 
trait 3 0.3 0 0 0 0 0 0 0 
node 1 1 1 3
node 2 2 1 1
node 3 2 1 1
node 4 2 0 2
node 7 1 0 0
node 9 1 0 0
node 25 1 0 0
gene 1 1 4 -1.92725 0 1 -1.92725 1
gene 1 2 4 2.96647 0 2 2.96647 0
gene 1 3 4 -5.53595 0 3 -5.53595 1
gene 1 2 7 -2.66021 0 8 -2.66021 1
gene 1 7 4 5.52712 0 9 5.52712 1
gene 1 7 9 1.66683 0 12 1.66683 1
gene 1 9 4 1.75065 0 13 1.75065 0
gene 2 1 9 -3.64286 0 45 -3.64286 1
gene 1 9 25 0.124661 0 60 0.124661 1
gene 1 25 4 3.53856 0 61 3.53856 1
genomeend 75

/* Organism #76 Fitness: 1.04678 Error: 2.97688 */
genomestart 76
trait 1 0.1 0 0 0 0 0 0 0 
trait 2 0.2 0 0 0 0.0659515 0.268668 0 0 
trait 3 0.3 0 0 0 0 0 0 0 
node 1 1 1 3
node 2 2 1 1
node 3 2 1 1
node 4 2 0 2
node 7 1 0 0
node 9 1 0 0
node 25 1 0 0
gene 1 1 4 -2.48345 0 1 -2.48345 1
gene 1 2 4 -1.51961 0 2 -1.51961 0
gene 1 3 4 -2.39688 0 3 -2.39688 1
gene 1 2 7 -2.62392 0 8 -2.62392 1
gene 1 7 4 4.15555 0 9 4.15555 0
gene 1 7 9 6.80474 0 12 6.80474 1
gene 1 9 4 6.34689 0 13 6.34689 0
gene 2 1 9 -1.6432 0 45 -1.6432 1
gene 1 9 25 0.202275 0 60 0.202275 1
gene 1 25 4 1.04438 0 61 1.04438 1
genomeend 76

/* Organism #77 Fitness: 1.03502 Error: 2.98264 */
genomestart 77
trait 1 0.1 0 0 0 0 0 0 0 
trait 2 0.2 0 0 0 0.0659515 0.268668 0 0 
trait 3 0.3 0 0 0 0 0 0 0 
node 1 1 1 3
node 2 2 1 1
node 3 2 1 1
node 4 2 0 2
node 7 1 0 0
node 9 1 0 0
node 25 1 0 0
gene 1 1 4 -1.95646 0 1 -1.95646 1
gene 1 2 4 2.83177 0 2 2.83177 0
gene 1 3 4 -3.71974 0 3 -3.71974 1
gene 1 2 7 -3.35955 0 8 -3.35955 1
gene 1 7 4 6.21638 0 9 6.21638 0
gene 1 7 9 0.0438555 0 12 0.0438555 1
gene 1 9 4 -0.055257 0 13 -0.055257 0
gene 2 1 9 -3.20737 0 45 -3.20737 1
gene 1 9 25 2.96313 0 60 2.96313 1
gene 1 25 4 1.98723 0 61 1.98723 1
genomeend 77

/* Organism #78 Fitness: 6.25802 Error: 1.4984 */
genomestart 78
trait 1 0.1 0 0 0 0 0 0 0 
trait 2 0.2 0 0 0 0 0 0 0 
trait 3 0.3 0 0 0 0 0 0 0 
node 1 1 1 3
node 2 2 1 1
node 3 2 1 1
node 4 2 0 2
node 7 1 0 0
node 9 1 0 0
node 25 1 0 0
gene 1 1 4 1.07044 0 1 1.07044 1
gene 1 2 4 2.44973 0 2 2.44973 0
gene 1 3 4 -5.65622 0 3 -5.65622 1
gene 1 2 7 -1.40521 0 8 -1.40521 1
gene 1 7 4 1.39459 0 9 1.39459 0
gene 1 7 9 5.2249 0 12 5.2249 1
gene 1 9 4 2.73367 0 13 2.73367 0
gene 2 1 9 0.619536 0 45 0.619536 1
gene 1 9 25 -1.57568 0 60 -1.57568 1
gene 1 25 4 3.02958 0 61 3.02958 1
genomeend 78

/* Organism #79 Fitness: 8.99889 Error: 1.00019 */
genomestart 79
trait 1 0.1 0 0.157198 0.493717 0 0 0 0.298581 
trait 2 0.2 0 0 0 0 0 0 0 
trait 3 0.3 0 0 0 0 0 0 0 
node 1 1 1 3
node 2 2 1 1
node 3 2 1 1
node 4 2 0 2
node 7 1 0 0
node 9 1 0 0
node 25 1 0 0
gene 1 1 4 1.59333 0 1 1.59333 1
gene 1 2 4 -2.33638 0 2 -2.33638 0
gene 1 3 4 -4.42752 0 3 -4.42752 1
gene 1 2 7 -0.882119 0 8 -0.882119 1
gene 1 7 4 4.08 0 9 4.08 0
gene 1 7 9 5.86236 0 12 5.86236 1
gene 1 9 4 6.37739 0 13 6.37739 0
gene 2 1 9 1.02109 0 45 1.02109 1
gene 1 9 25 2.38568 0 60 2.38568 1
gene 1 25 4 1.74499 0 61 1.74499 1
genomeend 79

/* Organism #80 Fitness: 14.0797 Error: 0.24771 */
genomestart 80
trait 1 0.1 0 0 0 0 0 0 0 
trait 2 0.2 0 0 0 0 0 0 0 
trait 3 0.3 0 0 0 0 0 0 0 
node 1 1 1 3
node 2 2 1 1
node 3 2 1 1
node 4 2 0 2
node 7 1 0 0
node 9 1 0 0
node 25 1 0 0
gene 1 1 4 0.460378 0 1 0.460378 1
gene 1 2 4 2.64859 0 2 2.64859 0
gene 1 3 4 -2.39113 0 3 -2.39113 1
gene 1 2 7 -2.03426 0 8 -2.03426 1
gene 1 7 4 3.68255 0 9 3.68255 0
gene 1 7 9 3.54531 0 12 3.54531 1
gene 1 9 4 2.73367 0 13 2.73367 0
gene 2 1 9 -0.899102 0 45 -0.899102 1
gene 1 9 25 1.38726 0 60 1.38726 1
gene 1 25 4 3.27523 0 61 3.27523 1
genomeend 80

/* Organism #81 Fitness: 8.92897 Error: 1.01186 */
genomestart 81
trait 1 0.1 0 0 0 0 0 0 0 
trait 2 0.2 0 0 0 0 0 0 0 
trait 3 0 0 0 0.299294 0 0 0 0 
node 1 1 1 3
node 2 2 1 1
node 3 2 1 1
node 4 2 0 2
node 7 1 0 0
node 9 1 0 0
node 25 1 0 0
gene 1 1 4 -1.11994 0 1 -1.11994 1
gene 1 2 4 1.53187 0 2 1.53187 0
gene 1 3 4 -4.96151 0 3 -4.96151 1
gene 1 2 7 -2.83777 0 8 -2.83777 1
gene 1 7 4 0.575138 0 9 0.575138 0
gene 1 7 9 0.913496 0 12 0.913496 1
gene 1 9 4 3.82887 0 13 3.82887 0
gene 2 1 9 1.33956 0 45 1.33956 1
gene 1 9 25 1.28785 0 60 1.28785 1
gene 1 25 4 2.16341 0 61 2.16341 1
genomeend 81

/* Organism #82 Fitness: 9.06521 Error: 0.98915 */
genomestart 82
trait 1 0.1 0 0 0 0 0 0 0 
trait 2 0.2 0 0 0 0 0 0 0 
trait 3 0.3 0 0 0 0 0 0 0 
node 1 1 1 3
node 2 2 1 1
node 3 2 1 1
node 4 2 0 2
node 7 1 0 0
node 9 1 0 0
node 25 1 0 0
gene 1 1 4 0.225549 0 1 0.225549 1
gene 1 2 4 1.13713 0 2 1.13713 0
gene 1 3 4 -2.63362 0 3 -2.63362 1
gene 1 2 7 -1.30288 0 8 -1.30288 1
gene 1 7 4 3.46319 0 9 3.46319 0
gene 1 7 9 2.88475 0 12 2.88475 1
gene 1 9 4 4.79092 0 13 4.79092 1
gene 2 1 9 -0.253775 0 45 -0.253775 1
gene 1 9 25 1.33755 0 60 1.33755 1
gene 1 25 4 2.74035 0 61 2.74035 1
genomeend 82

/* Species #7 : (Size 42) (AF 8.54699) (Age 5)  */


/* Organism #83 Fitness: 9 Error: 1 */
genomestart 83
trait 1 0.1 0 0 0 0 0 0 0 
trait 2 0.2 0 0 0 0 0 0 0 
trait 3 0.3 0 0 0 0 0 0 0 
node 1 1 1 3
node 2 2 1 1
node 3 3 1 1
node 4 2 0 2
node 7 1 0 0
node 13 1 0 0
node 26 1 0 0
gene 1 1 4 2.57139 0 1 2.57139 1
gene 1 2 4 5.55838 0 2 5.55838 0
gene 1 3 4 2.00992 0 3 2.00992 1
gene 1 2 7 2.48285 0 8 2.48285 0
gene 1 7 4 6.05825 0 9 6.05825 1
gene 1 2 13 0.35675 0 24 0.35675 0
gene 1 13 7 1.98427 0 25 1.98427 1
gene 1 2 26 -0.335071 0 62 -0.335071 1
gene 1 26 13 -0.12345 0 63 -0.12345 1
genomeend 83

/* Organism #84 Fitness: 9 Error: 1 */
genomestart 84
trait 1 0.1 0 0 0 0 0 0 0 
trait 2 0.2 0 0 0 0 0 0 0 
trait 3 0.3 0 0 0 0 0 0 0 
node 1 1 1 3
node 2 2 1 1
node 3 3 1 1
node 4 2 0 2
node 7 1 0 0
node 13 1 0 0
gene 1 1 4 1.61741 0 1 1.61741 1
gene 1 2 4 6.07443 0 2 6.07443 0
gene 1 3 4 2.7494 0 3 2.7494 1
gene 1 2 7 -0.558844 0 8 -0.558844 0
gene 1 7 4 4.87798 0 9 4.87798 1
gene 1 2 13 -1.22318 0 24 -1.22318 1
gene 1 13 7 2.42628 0 25 2.42628 1
genomeend 84

/* Organism #85 Fitness: 2.24961 Error: 2.50013 */
genomestart 85
trait 1 0.1 0 0 0 0 0 0 0 
trait 2 0.2 0 0 0 0 0 0 0 
trait 3 0.3 0 0 0 0 0 0 0 
node 1 1 1 3
node 2 2 1 1
node 3 3 1 1
node 4 2 0 2
node 7 1 0 0
node 13 1 0 0
node 26 1 0 0
gene 1 1 4 -1.52254 0 1 -1.52254 1
gene 1 2 4 5.21874 0 2 5.21874 0
gene 1 3 4 -1.16745 0 3 -1.16745 1
gene 1 2 7 4.28201 0 8 4.28201 0
gene 1 7 4 2.14354 0 9 2.14354 1
gene 1 2 13 -2.21156 0 24 -2.21156 0
gene 1 13 7 -1.55556 0 25 -1.55556 1
gene 1 2 26 1.25144 0 62 1.25144 1
gene 1 26 13 3.69428 0 63 3.69428 1
genomeend 85

/* Organism #86 Fitness: 8.99919 Error: 1.00014 */
genomestart 86
trait 1 0.1 0 0 0 0 0 0 0 
trait 2 0.366224 0 0 0 0 0 0 0 
trait 3 0.3 0 0 0 0 0 0 0 
node 1 1 1 3
node 2 2 1 1
node 3 3 1 1
node 4 2 0 2
node 7 1 0 0
node 13 1 0 0
node 26 3 0 0
gene 1 1 4 -0.576678 0 1 -0.576678 1
gene 1 2 4 2.60311 0 2 2.60311 1
gene 1 3 4 2.65264 0 3 2.65264 0
gene 1 2 7 5.14973 0 8 5.14973 0
gene 1 7 4 4.91651 0 9 4.91651 1
gene 1 2 13 -0.0521537 0 24 -0.0521537 0
gene 1 13 7 1.15644 0 25 1.15644 1
gene 1 2 26 0.494703 0 62 0.494703 1
gene 1 26 13 -1.91954 0 63 -1.91954 1
genomeend 86

/* Organism #87 Fitness: 9 Error: 1 */
genomestart 87
trait 1 0.1 0 0 0 0 0 0 0 
trait 2 0.2 0 0 0 0 0 0 0 
trait 3 0.3 0 0 0 0 0 0 0 
node 1 1 1 3
node 2 2 1 1
node 3 3 1 1
node 4 2 0 2
node 7 1 0 0
node 13 1 0 0
gene 1 1 4 1.43537 0 1 1.43537 1
gene 1 2 4 3.71979 0 2 3.71979 0
gene 1 3 4 0.66878 0 3 0.66878 1
gene 1 2 7 0.143669 0 8 0.143669 0
gene 1 7 4 5.38229 0 9 5.38229 1
gene 1 2 13 1.61302 0 24 1.61302 1
gene 1 13 7 1.8346 0 25 1.8346 1
genomeend 87

/* Organism #88 Fitness: 8.99999 Error: 1 */
genomestart 88
trait 1 0.1 0 0 0 0 0 0 0 
trait 2 0.628889 0 0 0 0.797815 0 0 0 
trait 3 0.3 0 0 0 0 0 0 0 
node 1 1 1 3
node 2 2 1 1
node 3 2 1 1
node 4 2 0 2
node 7 1 0 0
node 13 1 0 0
gene 1 1 4 1.64236 0 1 1.64236 1
gene 1 2 4 6.73048 0 2 6.73048 0
gene 1 3 4 1.69363 0 3 1.69363 0
gene 1 2 7 -0.651161 0 8 -0.651161 0
gene 1 7 4 4.40029 0 9 4.40029 1
gene 1 2 13 2.96949 0 24 2.96949 1
gene 1 13 7 0.193746 0 25 0.193746 1
genomeend 88

/* Organism #89 Fitness: 9 Error: 1 */
genomestart 89
trait 1 0.1 0 0 0 0 0 0 0 
trait 2 0.2 0 0 0 0 0 0 0 
trait 3 0.3 0 0 0 0 0 0 0 
node 1 1 1 3
node 2 2 1 1
node 3 3 1 1
node 4 2 0 2
node 7 1 0 0
node 13 1 0 0
gene 1 1 4 -1.21691 0 1 -1.21691 1
gene 1 2 4 4.42508 0 2 4.42508 0
gene 1 3 4 1.66286 0 3 1.66286 1
gene 1 2 7 -0.270951 0 8 -0.270951 0
gene 1 7 4 4.89889 0 9 4.89889 1
gene 1 2 13 0.186922 0 24 0.186922 1
gene 1 13 7 1.45342 0 25 1.45342 1
genomeend 89

/* Organism #90 Fitness: 9 Error: 1 */
genomestart 90
trait 1 0.1 0 0 0 0 0 0 0 
trait 2 0.532449 0 0 0 0 0 0 0 
trait 3 0.3 0 0 0 0 0 0 0 
node 1 1 1 3
node 2 2 1 1
node 3 2 1 1
node 4 2 0 2
node 7 1 0 0
node 13 1 0 0
gene 1 1 4 0.243984 0 1 0.243984 1
gene 1 2 4 5.18698 0 2 5.18698 1
gene 1 3 4 1.43645 0 3 1.43645 0
gene 1 2 7 0.892089 0 8 0.892089 0
gene 1 7 4 5.14319 0 9 5.14319 1
gene 1 2 13 -0.00396267 0 24 -0.00396267 1
gene 1 13 7 0.11593 0 25 0.11593 1
genomeend 90

/* Organism #91 Fitness: 9 Error: 1 */
genomestart 91
trait 1 0.1 0 0 0 0 0 0 0 
trait 2 0.366224 0 0 0 0 0 0 0 
trait 3 0.3 0 0 0 0 0 0 0 
node 1 1 1 3
node 2 2 1 1
node 3 3 1 1
node 4 2 0 2
node 7 1 0 0
node 13 1 0 0
node 26 1 0 0
gene 1 1 4 0.552379 0 1 0.552379 1
gene 1 2 4 5.34315 0 2 5.34315 0
gene 1 3 4 -2.08037 0 3 -2.08037 1
gene 1 2 7 1.54852 0 8 1.54852 0
gene 1 7 4 6.59007 0 9 6.59007 1
gene 1 2 13 3.28409 0 24 3.28409 1
gene 1 13 7 1.90943 0 25 1.90943 1
gene 1 2 26 1.9078 0 62 1.9078 1
gene 1 26 13 1.36133 0 63 1.36133 1
genomeend 91

/* Organism #92 Fitness: 9 Error: 1 */
genomestart 92
trait 1 0.1 0 0 0 0 0 0 0 
trait 2 0.2 0 0 0 0 0 0 0 
trait 3 0.3 0 0 0 0 0 0 0 
node 1 1 1 3
node 2 2 1 1
node 3 3 1 1
node 4 2 0 2
node 7 1 0 0
node 13 1 0 0
node 26 1 0 0
gene 2 1 4 2.40173 0 1 2.40173 1
gene 1 2 4 5.44736 0 2 5.44736 0
gene 1 3 4 4.0013 0 3 4.0013 1
gene 1 2 7 1.88159 0 8 1.88159 0
gene 1 7 4 5.47857 0 9 5.47857 1
gene 1 2 13 0.921916 0 24 0.921916 0
gene 1 13 7 0.505343 0 25 0.505343 1
gene 1 2 26 -0.335071 0 62 -0.335071 1
gene 1 26 13 -0.12345 0 63 -0.12345 1
genomeend 92

/* Organism #93 Fitness: 9 Error: 1 */
genomestart 93
trait 1 0.1 0 0 0 0 0 0 0 
trait 2 0.366224 0 0 0 0 0 0 0 
trait 3 0.3 0 0 0 0 0 0 0 
node 1 1 1 3
node 2 2 1 1
node 3 3 1 1
node 4 2 0 2
node 7 1 0 0
node 13 1 0 0
node 26 1 0 0
gene 1 1 4 0.733709 0 1 0.733709 1
gene 1 2 4 3.60972 0 2 3.60972 1
gene 1 3 4 2.24144 0 3 2.24144 0
gene 1 2 7 3.34112 0 8 3.34112 0
gene 1 7 4 4.05473 0 9 4.05473 1
gene 1 2 13 2.32873 0 24 2.32873 0
gene 1 13 7 0.901045 0 25 0.901045 1
gene 1 2 26 1 0 62 0 1
gene 1 26 13 1.45555 0 63 0 1
genomeend 93

/* Organism #94 Fitness: 9 Error: 1 */
genomestart 94
trait 1 0.1 0 0 0 0 0 0 0 
trait 2 0.366224 0 0 0 0 0 0 0 
trait 3 0.3 0 0 0 0 0 0 0 
node 1 1 1 3
node 2 2 1 1
node 3 2 1 1
node 4 2 0 2
node 7 1 0 0
node 13 1 0 0
node 26 1 0 0
gene 1 1 4 2.57139 0 1 2.57139 1
gene 1 2 4 5.55838 0 2 5.55838 0
gene 1 3 4 2.00992 0 3 2.00992 0
gene 1 2 7 0.807736 0 8 0.807736 0
gene 1 7 4 6.05825 0 9 6.05825 1
gene 1 2 13 1.48708 0 24 1.48708 0
gene 1 13 7 1.98427 0 25 1.98427 1
gene 1 2 26 -0.335071 0 62 -0.335071 1
gene 1 26 13 -0.12345 0 63 -0.12345 1
genomeend 94

/* Organism #95 Fitness: 9 Error: 1 */
genomestart 95
trait 1 0.1 0 0 0 0 0 0 0 
trait 2 0.2 0 0 0 0 0 0 0 
trait 3 0.3 0 0 0 0 0 0 0 
node 1 1 1 3
node 2 2 1 1
node 3 3 1 1
node 4 2 0 2
node 7 1 0 0
node 13 1 0 0
node 26 1 0 0
gene 1 1 4 1.90619 0 1 1.90619 1
gene 1 2 4 4.86116 0 2 4.86116 0
gene 1 3 4 2.31207 0 3 2.31207 1
gene 1 2 7 2.79374 0 8 2.79374 0
gene 1 7 4 3.8841 0 9 3.8841 1
gene 1 2 13 1.45555 0 24 1.45555 0
gene 1 13 7 0.729575 0 25 0.729575 1
gene 1 2 26 1 0 62 0 1
gene 1 26 13 1.45555 0 63 0 1
gene 3 26 7 -0.0838857 0 71 -0.0838857 1
genomeend 95

/* Organism #96 Fitness: 9 Error: 1 */
genomestart 96
trait 1 0.1 0 0 0 0 0 0 0 
trait 2 0.2 0 0 0 0 0 0 0 
trait 3 0.3 0 0 0 0 0 0 0 
node 1 1 1 3
node 2 2 1 1
node 3 3 1 1
node 4 2 0 2
node 7 1 0 0
node 13 1 0 0
node 26 1 0 0
gene 1 1 4 0.384754 0 1 0.384754 1
gene 1 2 4 2.37048 0 2 2.37048 0
gene 1 3 4 1.94814 0 3 1.94814 1
gene 1 2 7 0.676745 0 8 0.676745 0
gene 1 7 4 4.77626 0 9 4.77626 1
gene 1 2 13 -0.607707 0 24 -0.607707 0
gene 1 13 7 0.622088 0 25 0.622088 1
gene 1 2 26 1.88015 0 62 1.88015 1
gene 1 26 13 2.22338 0 63 2.22338 1
gene 3 26 7 0.674622 0 71 0.674622 1
genomeend 96

/* Organism #97 Fitness: 8.99989 Error: 1.00002 */
genomestart 97
trait 1 0.1 0 0 0 0 0 0 0 
trait 2 0.2 0 0 0 0 0 0 0 
trait 3 0.3 0 0 0 0 0 0 0 
node 1 1 1 3
node 2 2 1 1
node 3 3 1 1
node 4 2 0 2
node 7 1 0 0
node 13 1 0 0
node 26 1 0 0
gene 1 1 4 0.0170594 0 1 0.0170594 1
gene 1 2 4 4.09422 0 2 4.09422 0
gene 1 3 4 1.43764 0 3 1.43764 1
gene 1 2 7 2.79374 0 8 2.79374 0
gene 1 7 4 2.21827 0 9 2.21827 1
gene 1 2 13 1.51812 0 24 1.51812 0
gene 1 13 7 -0.740319 0 25 -0.740319 1
gene 1 2 26 0.74115 0 62 0.74115 1
gene 1 26 13 -0.91061 0 63 -0.91061 1
gene 3 26 7 1.98166 0 71 1.98166 1
genomeend 97

/* Organism #98 Fitness: 8.943 Error: 1.00951 */
genomestart 98
trait 1 0.1 0 0 0 0 0 0 0 
trait 2 0.2 0 0 0 0 0 0 0 
trait 3 0.3 0 0 0 0 0 0 0 
node 1 1 1 3
node 2 2 1 1
node 3 3 1 1
node 4 2 0 2
node 7 1 0 0
node 13 1 0 0
node 26 1 0 0
gene 1 1 4 2.55802 0 1 2.55802 1
gene 1 2 4 2.69574 0 2 2.69574 0
gene 1 3 4 1.34293 0 3 1.34293 1
gene 1 2 7 1.26764 0 8 1.26764 0
gene 1 7 4 5.19228 0 9 5.19228 1
gene 1 2 13 3.39758 0 24 3.39758 0
gene 1 13 7 -0.264164 0 25 -0.264164 1
gene 1 2 26 2.68694 0 62 2.68694 1
gene 1 26 13 2.55721 0 63 2.55721 1
gene 3 26 7 -0.0838857 0 71 -0.0838857 1
genomeend 98

/* Organism #99 Fitness: 9 Error: 1 */
genomestart 99
trait 1 0.1 0 0 0 0 0 0 0 
trait 2 0.2 0 0 0 0 0 0 0 
trait 3 0.3 0 0 0 0 0 0 0 
node 1 1 1 3
node 2 2 1 1
node 3 3 1 1
node 4 2 0 2
node 7 1 0 0
node 13 1 0 0
node 26 1 0 0
gene 1 1 4 1.90619 0 1 1.90619 1
gene 1 2 4 4.86116 0 2 4.86116 0
gene 1 3 4 2.31207 0 3 2.31207 1
gene 1 2 7 2.79374 0 8 2.79374 0
gene 1 7 4 3.8841 0 9 3.8841 1
gene 1 2 13 1.45555 0 24 1.45555 0
gene 1 13 7 0.729575 0 25 0.729575 1
gene 1 2 26 1 0 62 0 1
gene 1 26 13 1.45555 0 63 0 1
gene 3 26 7 -0.0838857 0 71 -0.0838857 1
gene 2 3 7 0.313375 0 84 0 1
genomeend 99

/* Organism #100 Fitness: 9.01795 Error: 0.99701 */
genomestart 100
trait 1 0.1 0 0 0 0 0 0 0 
trait 2 0.2 0 0 0 0 0 0 0 
trait 3 0.3 0 0 0 0 0 0 0 
node 1 1 1 3
node 2 2 1 1
node 3 3 1 1
node 4 2 0 2
node 7 1 0 0
node 13 1 0 0
node 26 1 0 0
gene 1 1 4 -1.20374 0 1 -1.20374 1
gene 1 2 4 5.04664 0 2 5.04664 0
gene 1 3 4 -0.0598397 0 3 -0.0598397 1
gene 1 2 7 5.03062 0 8 5.03062 0
gene 1 7 4 3.8841 0 9 3.8841 1
gene 1 2 13 -0.0436781 0 24 -0.0436781 0
gene 1 13 7 1.97275 0 25 1.97275 1
gene 1 2 26 1.41509 0 62 1.41509 1
gene 2 26 13 0.874813 0 63 0.874813 1
gene 3 26 7 -2.44813 0 71 -2.44813 1
genomeend 100

/* Organism #101 Fitness: 8.6504 Error: 1.05884 */
genomestart 101
trait 1 0.1 0 0 0 0 0 0 0 
trait 2 0.2 0 0 0 0 0 0 0 
trait 3 0.604925 0 0 0 0.862732 0 0 0 
node 1 1 1 3
node 2 2 1 1
node 3 3 1 1
node 4 2 0 2
node 7 1 0 0
node 13 1 0 0
node 26 1 0 0
gene 1 1 4 3.95243 0 1 3.95243 1
gene 1 2 4 5.35921 0 2 5.35921 0
gene 1 3 4 1.80419 0 3 1.80419 1
gene 1 2 7 0.328229 0 8 0.328229 0
gene 1 7 4 1.92431 0 9 1.92431 1
gene 1 2 13 0.80908 0 24 0.80908 0
gene 1 13 7 -0.137426 0 25 -0.137426 1
gene 1 2 26 0.932083 0 62 0.932083 1
gene 1 26 13 3.18281 0 63 3.18281 1
gene 3 26 7 -0.0838857 0 71 -0.0838857 1
genomeend 101

/* Organism #102 Fitness: 4.00007 Error: 1.99998 */
genomestart 102
trait 1 0.1 0 0 0 0 0 0 0 
trait 2 0.2 0 0 0 0 0 0 0 
trait 3 0.3 0 0 0 0 0 0 0 
node 1 1 1 3
node 2 2 1 1
node 3 1 1 1
node 4 2 0 2
node 7 1 0 0
node 13 1 0 0
node 26 1 0 0
gene 1 1 4 4.27208 0 1 4.27208 1
gene 1 2 4 4.86116 0 2 4.86116 0
gene 1 3 4 -0.181289 0 3 -0.181289 1
gene 1 2 7 2.32356 0 8 2.32356 0
gene 1 7 4 -2.19744 0 9 -2.19744 1
gene 1 2 13 3.3783 0 24 3.3783 0
gene 1 13 7 2.00921 0 25 2.00921 1
gene 1 2 26 -1.0835 0 62 -1.0835 1
gene 1 26 13 1.55219 0 63 1.55219 1
gene 3 26 7 0.0695522 0 71 0.0695522 1
genomeend 102

/* Organism #103 Fitness: 9 Error: 1 */
genomestart 103
trait 1 0.1 0 0 0 0 0 0 0 
trait 2 0.2 0 0 0 0 0 0 0 
trait 3 0.3 0 0 0 0 0 0 0 
node 1 1 1 3
node 2 2 1 1
node 3 3 1 1
node 4 2 0 2
node 7 1 0 0
node 13 1 0 0
node 26 1 0 0
gene 1 1 4 2.14737 0 1 2.14737 1
gene 1 2 4 4.22805 0 2 4.22805 0
gene 1 3 4 4.10872 0 3 4.10872 1
gene 1 2 7 3.85892 0 8 3.85892 0
gene 1 7 4 5.54652 0 9 5.54652 1
gene 1 2 13 -0.590549 0 24 -0.590549 0
gene 1 13 7 -1.70035 0 25 -1.70035 1
gene 1 2 26 -0.0664875 0 62 -0.0664875 1
gene 1 26 13 -0.405967 0 63 -0.405967 1
gene 3 26 7 2.41074 0 71 2.41074 1
genomeend 103

/* Organism #104 Fitness: 9 Error: 1 */
genomestart 104
trait 1 0.1 0 0 0 0 0 0 0 
trait 2 0.2 0 0 0 0 0 0 0 
trait 3 0.3 0 0 0 0 0 0 0 
node 1 1 1 3
node 2 2 1 1
node 3 3 1 1
node 4 2 0 2
node 7 1 0 0
node 13 1 0 0
node 26 1 0 0
gene 1 1 4 2.63322 0 1 2.63322 1
gene 1 2 4 2.63508 0 2 2.63508 0
gene 1 3 4 0.156056 0 3 0.156056 1
gene 1 2 7 1.3501 0 8 1.3501 0
gene 1 7 4 4.8949 0 9 4.8949 1
gene 1 2 13 2.76857 0 24 2.76857 0
gene 1 13 7 1.02003 0 25 1.02003 1
gene 1 2 26 -0.0237053 0 62 -0.0237053 1
gene 1 26 13 -0.377478 0 63 -0.377478 1
gene 3 26 7 0.00936802 0 71 0.00936802 1
genomeend 104

/* Organism #105 Fitness: 9 Error: 1 */
genomestart 105
trait 1 0.1 0 0 0 0 0 0 0 
trait 2 0.2 0 0 0 0 0 0 0 
trait 3 0.3 0 0 0 0 0 0 0 
node 1 1 1 3
node 2 2 1 1
node 3 3 1 1
node 4 2 0 2
node 7 1 0 0
node 13 1 0 0
node 26 1 0 0
gene 1 1 4 0.875009 0 1 0.875009 1
gene 1 2 4 4.25932 0 2 4.25932 0
gene 3 3 4 0.383948 0 3 0.383948 1
gene 1 2 7 1.97932 0 8 1.97932 0
gene 1 7 4 3.83835 0 9 3.83835 1
gene 1 2 13 0.141207 0 24 0.141207 0
gene 1 13 7 0.864495 0 25 0.864495 1
gene 1 2 26 1.14648 0 62 1.14648 1
gene 1 26 13 0.159468 0 63 0.159468 1
gene 3 26 7 1.89793 0 71 1.89793 1
genomeend 105

/* Organism #106 Fitness: 9 Error: 1 */
genomestart 106
trait 1 0.1 0 0 0 0 0 0 0 
trait 2 0.2 0 0 0 0 0 0 0 
trait 3 0.3 0 0 0 0 0 0 0 
node 1 1 1 3
node 2 2 1 1
node 3 3 1 1
node 4 2 0 2
node 7 1 0 0
node 13 1 0 0
node 26 1 0 0
gene 1 1 4 1.90619 0 1 1.90619 1
gene 1 2 4 4.86116 0 2 4.86116 0
gene 1 3 4 2.31207 0 3 2.31207 1
gene 1 2 7 2.79374 0 8 2.79374 0
gene 1 7 4 3.8841 0 9 3.8841 1
gene 1 2 13 1.45555 0 24 1.45555 0
gene 1 13 7 0.729575 0 25 0.729575 1
gene 1 2 26 1 0 62 0 1
gene 1 26 13 1.45555 0 63 0 1
gene 3 26 7 -0.0838857 0 71 -0.0838857 1
genomeend 106

/* Organism #107 Fitness: 9 Error: 1 */
genomestart 107
trait 1 0.1 0 0 0 0 0 0 0 
trait 2 0.2 0 0 0 0 0 0 0 
trait 3 0.3 0 0 0 0 0 0 0 
node 1 1 1 3
node 2 2 1 1
node 3 3 1 1
node 4 2 0 2
node 7 1 0 0
node 13 1 0 0
node 26 1 0 0
gene 1 1 4 1.90619 0 1 1.90619 1
gene 1 2 4 4.86116 0 2 4.86116 0
gene 1 3 4 2.31207 0 3 2.31207 1
gene 1 2 7 2.79374 0 8 2.79374 0
gene 1 7 4 3.8841 0 9 3.8841 1
gene 1 2 13 1.45555 0 24 1.45555 0
gene 1 13 7 0.729575 0 25 0.729575 1
gene 1 2 26 1 0 62 0 1
gene 1 26 13 1.45555 0 63 0 1
gene 3 26 7 -0.0838857 0 71 -0.0838857 1
genomeend 107

/* Organism #108 Fitness: 6.78516 Error: 1.39517 */
genomestart 108
trait 1 0.1 0 0 0 0 0 0 0 
trait 2 0.2 0 0 0 0 0 0 0 
trait 3 0.3 0 0 0 0 0 0 0 
node 1 1 1 3
node 2 2 1 1
node 3 3 1 1
node 4 2 0 2
node 7 1 0 0
node 13 1 0 0
node 26 1 0 0
gene 1 1 4 1.36186 0 1 1.36186 1
gene 1 2 4 3.88169 0 2 3.88169 0
gene 1 3 4 1.39275 0 3 1.39275 1
gene 1 2 7 -1.41622 0 8 -1.41622 0
gene 1 7 4 2.43112 0 9 2.43112 1
gene 1 2 13 1.45555 0 24 1.45555 0
gene 1 13 7 0.729575 0 25 0.729575 1
gene 1 2 26 2.53841 0 62 2.53841 1
gene 1 26 13 0.153732 0 63 0.153732 1
gene 3 26 7 -2.20477 0 71 -2.20477 1
genomeend 108

/* Organism #109 Fitness: 9 Error: 1 */
genomestart 109
trait 1 0.1 0 0 0 0 0 0 0 
trait 2 0.2 0 0 0 0 0 0 0 
trait 3 0.3 0 0 0 0 0 0 0 
node 1 1 1 3
node 2 2 1 1
node 3 3 1 1
node 4 2 0 2
node 7 1 0 0
node 13 1 0 0
node 26 1 0 0
gene 1 1 4 0.804468 0 1 0.804468 1
gene 1 2 4 7.04382 0 2 7.04382 0
gene 1 3 4 1.70316 0 3 1.70316 1
gene 1 2 7 0.646425 0 8 0.646425 0
gene 1 7 4 2.93496 0 9 2.93496 1
gene 1 2 13 0.885527 0 24 0.885527 0
gene 1 13 7 2.22333 0 25 2.22333 1
gene 1 2 26 0.465265 0 62 0.465265 1
gene 1 26 13 -0.583876 0 63 -0.583876 1
gene 3 26 7 1.38848 0 71 1.38848 1
genomeend 109

/* Organism #110 Fitness: 9 Error: 1 */
genomestart 110
trait 1 0.1 0 0 0 0 0 0 0 
trait 2 0.2 0 0 0 0 0 0 0 
trait 3 0.3 0 0 0 0 0 0 0 
node 1 1 1 3
node 2 2 1 1
node 3 3 1 1
node 4 2 0 2
node 7 1 0 0
node 13 1 0 0
node 26 1 0 0
gene 1 1 4 1.90619 0 1 1.90619 1
gene 1 2 4 1.117 0 2 1.117 0
gene 1 3 4 2.30071 0 3 2.30071 1
gene 1 2 7 -1.76131 0 8 -1.76131 0
gene 1 7 4 6.23044 0 9 6.23044 1
gene 1 2 13 1.64131 0 24 1.64131 0
gene 1 13 7 2.42535 0 25 2.42535 1
gene 1 2 26 2.80751 0 62 2.80751 1
gene 1 26 13 1.45555 0 63 1.45555 1
gene 3 26 7 -2.00523 0 71 -2.00523 1
genomeend 110

/* Organism #111 Fitness: 9 Error: 1 */
genomestart 111
trait 1 0.1 0 0 0 0 0 0 0 
trait 2 0.532449 0 0 0 0 0 0 0 
trait 3 0.3 0 0 0 0 0 0 0 
node 1 1 1 3
node 2 2 1 1
node 3 3 1 1
node 4 2 0 2
node 7 1 0 0
node 13 1 0 0
node 26 1 0 0
node 29 1 0 0
gene 1 1 4 1.20372 0 1 1.20372 1
gene 1 2 4 4.38538 0 2 4.38538 1
gene 1 3 4 2.42466 0 3 2.42466 0
gene 1 2 7 1.80074 0 8 1.80074 0
gene 1 7 4 4.03572 0 9 4.03572 1
gene 1 2 13 1.1237 0 24 1.1237 0
gene 1 13 7 0.738153 0 25 0.738153 0
gene 1 2 26 1 0 62 0 1
gene 1 26 13 1.45555 0 63 0 1
gene 1 13 29 1 0 72 0 1
gene 1 29 7 0.738153 0 73 0 1
genomeend 111

/* Organism #112 Fitness: 8.99997 Error: 1 */
genomestart 112
trait 1 0.1 0 0 0 0 0 0 0 
trait 2 0.532449 0 0 0 0 0 0 0 
trait 3 0.3 0 0 0 0 0 0 0 
node 1 1 1 3
node 2 2 1 1
node 3 3 1 1
node 4 2 0 2
node 7 1 0 0
node 13 1 0 0
node 26 1 0 0
node 29 1 0 0
gene 1 1 4 1.61373 0 1 1.61373 1
gene 1 2 4 2.39314 0 2 2.39314 1
gene 1 3 4 0.300159 0 3 0.300159 0
gene 1 2 7 3.42937 0 8 3.42937 0
gene 1 7 4 2.57466 0 9 2.57466 1
gene 1 2 13 0.520934 0 24 0.520934 0
gene 1 13 7 1.22941 0 25 1.22941 0
gene 1 2 26 0.434132 0 62 0.434132 1
gene 1 26 13 2.32707 0 63 2.32707 1
gene 1 13 29 1 0 72 1 1
gene 1 29 7 0.738153 0 73 0.738153 1
genomeend 112

/* Organism #113 Fitness: 9 Error: 1 */
genomestart 113
trait 1 0.1 0 0 0 0 0 0 0 
trait 2 0.532449 0 0 0 0 0 0 0 
trait 3 0.3 0 0 0 0 0 0 0 
node 1 1 1 3
node 2 2 1 1
node 3 3 1 1
node 4 2 0 2
node 7 1 0 0
node 13 1 0 0
node 26 1 0 0
node 29 1 0 0
gene 1 1 4 1.20372 0 1 1.20372 1
gene 1 2 4 4.38538 0 2 4.38538 1
gene 1 3 4 2.42466 0 3 2.42466 0
gene 1 2 7 1.80074 0 8 1.80074 0
gene 1 7 4 4.03572 0 9 4.03572 1
gene 1 2 13 1.1237 0 24 1.1237 0
gene 1 13 7 0.738153 0 25 0.738153 0
gene 1 2 26 1 0 62 0 1
gene 1 26 13 1.45555 0 63 0 1
gene 1 13 29 1 0 72 0 1
gene 1 29 7 0.738153 0 73 0 1
genomeend 113

/* Organism #114 Fitness: 8.96177 Error: 1.00638 */
genomestart 114
trait 1 0.1 0 0 0 0 0 0 0 
trait 2 0.532449 0 0 0 0 0 0 0 
trait 3 0.3 0 0 0 0 0 0 0 
node 1 1 1 3
node 2 2 1 1
node 3 3 1 1
node 4 2 0 2
node 7 1 0 0
node 13 1 0 0
node 26 1 0 0
node 29 1 0 0
gene 1 1 4 0.0469285 0 1 0.0469285 1
gene 1 2 4 6.71562 0 2 6.71562 1
gene 1 3 4 0.777281 0 3 0.777281 0
gene 1 2 7 1.06711 0 8 1.06711 0
gene 1 7 4 1.77654 0 9 1.77654 1
gene 1 2 13 -1.15907 0 24 -1.15907 0
gene 1 13 7 -1.29594 0 25 -1.29594 0
gene 1 2 26 2.41688 0 62 2.41688 1
gene 1 26 13 1.95839 0 63 1.95839 1
gene 1 13 29 -0.33308 0 72 -0.33308 1
gene 1 29 7 0.384294 0 73 0.384294 1
genomeend 114

/* Organism #115 Fitness: 8.25379 Error: 1.12706 */
genomestart 115
trait 1 0.1 0 0 0 0 0 0 0 
trait 2 0.532449 0 0 0 0 0 0 0 
trait 3 0.3 0 0 0 0 0 0 0 
node 1 1 1 3
node 2 2 1 1
node 3 3 1 1
node 4 2 0 2
node 7 1 0 0
node 13 1 0 0
node 26 1 0 0
node 29 1 0 0
gene 1 1 4 2.00562 0 1 2.00562 1
gene 1 2 4 6.09402 0 2 6.09402 1
gene 1 3 4 1.40571 0 3 1.40571 0
gene 1 2 7 1.07042 0 8 1.07042 0
gene 1 7 4 2.86637 0 9 2.86637 1
gene 1 2 13 -0.779244 0 24 -0.779244 0
gene 1 13 7 3.0389 0 25 3.0389 0
gene 1 2 26 -1.37376 0 62 -1.37376 1
gene 1 26 13 1.87505 0 63 1.87505 1
gene 1 13 29 2.12813 0 72 2.12813 1
gene 1 29 7 -0.374551 0 73 -0.374551 1
genomeend 115

/* Organism #116 Fitness: 7.21283 Error: 1.31433 */
genomestart 116
trait 1 0.1 0 0 0 0 0 0 0 
trait 2 0.532449 0 0 0 0 0 0 0 
trait 3 0.3 0 0 0 0 0 0 0 
node 1 1 1 3
node 2 2 1 1
node 3 3 1 1
node 4 2 0 2
node 7 1 0 0
node 13 1 0 0
node 26 1 0 0
node 29 1 0 0
gene 1 1 4 -1.25924 0 1 -1.25924 1
gene 1 2 4 6.64909 0 2 6.64909 1
gene 1 3 4 3.79171 0 3 3.79171 0
gene 1 2 7 0.896142 0 8 0.896142 0
gene 1 7 4 1.74251 0 9 1.74251 1
gene 1 2 13 1.73027 0 24 1.73027 0
gene 1 13 7 2.43888 0 25 2.43888 0
gene 1 2 26 -0.0294892 0 62 -0.0294892 1
gene 1 26 13 1.58881 0 63 1.58881 1
gene 1 13 29 2.73867 0 72 2.73867 1
gene 1 29 7 0.491126 0 73 0.491126 1
genomeend 116

/* Organism #117 Fitness: 9 Error: 1 */
genomestart 117
trait 1 0.1 0 0 0 0 0 0 0 
trait 2 0.532449 0 0 0 0 0 0 0 
trait 3 0.3 0 0 0 0 0 0 0 
node 1 1 1 3
node 2 2 1 1
node 3 3 1 1
node 4 2 0 2
node 7 1 0 0
node 13 1 0 0
node 26 1 0 0
node 29 1 0 0
gene 2 1 4 1.20372 0 1 1.20372 1
gene 1 2 4 4.38538 0 2 4.38538 1
gene 1 3 4 2.42466 0 3 2.42466 0
gene 1 2 7 1.80074 0 8 1.80074 0
gene 1 7 4 4.03572 0 9 4.03572 1
gene 1 2 13 1.1237 0 24 1.1237 0
gene 1 13 7 0.738153 0 25 0.738153 0
gene 1 2 26 1 0 62 0 1
gene 1 26 13 1.45555 0 63 0 1
gene 1 13 29 1 0 72 0 1
gene 1 29 7 0.738153 0 73 0 1
genomeend 117

/* Organism #118 Fitness: 8.94235 Error: 1.00962 */
genomestart 118
trait 1 0.1 0 0 0 0 0 0 0 
trait 2 0.532449 0 0 0 0 0 0 0 
trait 3 0.3 0 0 0 0 0 0 0 
node 1 1 1 3
node 2 2 1 1
node 3 3 1 1
node 4 2 0 2
node 7 1 0 0
node 13 1 0 0
node 26 1 0 0
node 29 1 0 0
gene 1 1 4 -0.154944 0 1 -0.154944 1
gene 1 2 4 3.31507 0 2 3.31507 1
gene 3 3 4 1.16643 0 3 1.16643 0
gene 1 2 7 0.00404608 0 8 0.00404608 0
gene 1 7 4 2.19077 0 9 2.19077 1
gene 1 2 13 0.324426 0 24 0.324426 0
gene 1 13 7 1.11849 0 25 1.11849 0
gene 1 2 26 3.27947 0 62 3.27947 1
gene 1 26 13 3.72954 0 63 3.72954 1
gene 1 13 29 -0.844299 0 72 -0.844299 1
gene 1 29 7 2.11973 0 73 2.11973 1
genomeend 118

/* Organism #119 Fitness: 9 Error: 1 */
genomestart 119
trait 1 0.1 0 0 0 0 0 0 0 
trait 2 0.532449 0 0 0 0 0 0 0 
trait 3 0.3 0 0 0 0 0 0 0 
node 1 1 1 3
node 2 2 1 1
node 3 3 1 1
node 4 2 0 2
node 7 1 0 0
node 13 1 0 0
node 26 1 0 0
node 29 1 0 0
gene 1 1 4 1.20372 0 1 1.20372 1
gene 1 2 4 4.38538 0 2 4.38538 1
gene 1 3 4 2.42466 0 3 2.42466 0
gene 1 2 7 1.80074 0 8 1.80074 0
gene 1 7 4 4.03572 0 9 4.03572 1
gene 1 2 13 1.1237 0 24 1.1237 0
gene 1 13 7 0.738153 0 25 0.738153 0
gene 1 2 26 1 0 62 0 1
gene 1 26 13 1.45555 0 63 0 1
gene 1 13 29 1 0 72 0 1
gene 2 29 7 0.738153 0 73 0 1
genomeend 119

/* Organism #120 Fitness: 9 Error: 1 */
genomestart 120
trait 1 0.1 0 0 0 0 0 0 0 
trait 2 0.532449 0 0 0 0 0 0 0 
trait 3 0.3 0 0 0 0 0 0 0 
node 1 1 1 3
node 2 2 1 1
node 3 3 1 1
node 4 2 0 2
node 7 1 0 0
node 13 1 0 0
node 26 1 0 0
node 29 1 0 0
gene 1 1 4 3.31568 0 1 3.31568 1
gene 1 2 4 0.506374 0 2 0.506374 1
gene 1 3 4 2.58368 0 3 2.58368 0
gene 1 2 7 3.60596 0 8 3.60596 0
gene 1 7 4 4.8302 0 9 4.8302 1
gene 1 2 13 1.1237 0 24 1.1237 0
gene 1 13 7 2.94295 0 25 2.94295 0
gene 1 2 26 1.46802 0 62 1.46802 1
gene 1 26 13 2.35617 0 63 2.35617 1
gene 1 13 29 0.636796 0 72 0.636796 1
gene 1 29 7 0.738153 0 73 0.738153 1
genomeend 120

/* Organism #121 Fitness: 6.95947 Error: 1.36192 */
genomestart 121
trait 1 0.1 0 0 0 0 0 0 0 
trait 2 0.532449 0 0 0 0 0 0 0 
trait 3 0.3 0 0 0 0 0 0 0 
node 1 1 1 3
node 2 2 1 1
node 3 3 1 1
node 4 2 0 2
node 7 1 0 0
node 13 1 0 0
node 26 1 0 0
node 29 1 0 0
gene 1 1 4 1.99188 0 1 1.99188 1
gene 1 2 4 3.89243 0 2 3.89243 1
gene 1 3 4 3.38564 0 3 3.38564 0
gene 1 2 7 1.80074 0 8 1.80074 0
gene 1 7 4 6.53411 0 9 6.53411 1
gene 1 2 13 0.978347 0 24 0.978347 0
gene 1 13 7 0.0913861 0 25 0.0913861 0
gene 1 2 26 0.615781 0 62 0.615781 1
gene 1 26 13 1.45555 0 63 1.45555 1
gene 1 13 29 1.30248 0 72 1.30248 1
gene 1 29 7 -0.818109 0 73 -0.818109 1
genomeend 121

/* Organism #122 Fitness: 8.99998 Error: 1 */
genomestart 122
trait 1 0.1 0 0 0 0 0 0 0 
trait 2 0.532449 0 0 0 0 0 0 0 
trait 3 0.3 0 0 0 0 0 0 0 
node 1 2 1 3
node 2 2 1 1
node 3 3 1 1
node 4 2 0 2
node 7 1 0 0
node 13 1 0 0
node 26 1 0 0
node 29 1 0 0
gene 1 1 4 -0.308928 0 1 -0.308928 1
gene 1 2 4 3.42969 0 2 3.42969 1
gene 1 3 4 3.76457 0 3 3.76457 0
gene 1 2 7 2.28877 0 8 2.28877 0
gene 1 7 4 3.24521 0 9 3.24521 1
gene 1 2 13 -2.34677 0 24 -2.34677 0
gene 1 13 7 0.738153 0 25 0.738153 0
gene 1 2 26 1.23381 0 62 1.23381 1
gene 1 26 13 -0.680901 0 63 -0.680901 1
gene 1 13 29 -1.38395 0 72 -1.38395 1
gene 1 29 7 2.01448 0 73 2.01448 1
genomeend 122

/* Organism #123 Fitness: 9 Error: 1 */
genomestart 123
trait 1 0.1 0 0 0 0 0 0 0 
trait 2 0.532449 0 0 0 0 0 0 0 
trait 3 0.3 0 0 0 0 0 0 0 
node 1 1 1 3
node 2 2 1 1
node 3 3 1 1
node 4 2 0 2
node 7 1 0 0
node 13 1 0 0
node 26 1 0 0
node 29 1 0 0
gene 1 1 4 1.20372 0 1 1.20372 1
gene 1 2 4 4.38538 0 2 4.38538 1
gene 1 3 4 2.42466 0 3 2.42466 0
gene 1 2 7 1.80074 0 8 1.80074 0
gene 1 7 4 4.03572 0 9 4.03572 1
gene 1 2 13 1.1237 0 24 1.1237 0
gene 1 13 7 0.738153 0 25 0.738153 0
gene 1 2 26 1 0 62 0 1
gene 1 26 13 1.45555 0 63 0 1
gene 1 13 29 1 0 72 0 1
gene 1 29 7 0.738153 0 73 0 1
genomeend 123

/* Organism #124 Fitness: 8.99816 Error: 1.00031 */
genomestart 124
trait 1 0.1 0 0 0 0 0 0 0 
trait 2 0.532449 0 0 0 0 0 0 0 
trait 3 0.3 0 0 0 0 0 0 0 
node 1 1 1 3
node 2 2 1 1
node 3 3 1 1
node 4 2 0 2
node 7 1 0 0
node 13 1 0 0
node 26 1 0 0
node 29 1 0 0
gene 1 1 4 0.191391 0 1 0.191391 1
gene 1 2 4 3.62333 0 2 3.62333 1
gene 1 3 4 4.4705 0 3 4.4705 0
gene 1 2 7 3.68553 0 8 3.68553 0
gene 1 7 4 3.07585 0 9 3.07585 1
gene 1 2 13 2.14836 0 24 2.14836 0
gene 1 13 7 3.14858 0 25 3.14858 0
gene 1 2 26 0.662466 0 62 0.662466 1
gene 1 26 13 0.870685 0 63 0.870685 1
gene 1 13 29 2.34693 0 72 2.34693 1
gene 1 29 7 0.0277972 0 73 0.0277972 1
genomeend 124

/* Species #9 : (Size 11) (AF 8.20165) (Age 3)  */


/* Organism #125 Fitness: 14.9927 Error: 0.127964 */
genomestart 125
trait 1 0.0875 0 0 0.0148478 0 0.0366957 0 0 
trait 2 0.2 0 0 0 0 0 0 0 
trait 3 0.3 0 0 0 0 0 0 0 
node 1 1 1 3
node 2 2 1 1
node 3 2 1 1
node 4 2 0 2
node 7 2 0 0
gene 1 1 4 -0.236479 0 1 -0.236479 1
gene 1 2 4 5.99804 0 2 5.99804 0
gene 1 3 4 -1.71354 0 3 -1.71354 1
gene 1 2 7 -0.315012 0 8 -0.315012 1
gene 1 7 4 4.12147 0 9 4.12147 1
gene 3 1 7 0.21201 0 51 0.21201 1
genomeend 125

/* Organism #126 Fitness: 8.9998 Error: 1.00003 */
genomestart 126
trait 1 0.0875 0 0 0.0148478 0 0.0366957 0 0 
trait 2 0.2 0 0 0 0 0 0 0 
trait 3 0.15 0 0.217179 0 0.191023 0 0.245477 0 
node 1 1 1 3
node 2 2 1 1
node 3 2 1 1
node 4 2 0 2
node 7 2 0 0
gene 1 1 4 2.14713 0 1 2.14713 1
gene 1 2 4 8 0 2 8 1
gene 1 3 4 -2.67222 0 3 -2.67222 1
gene 1 2 7 -0.31224 0 8 -0.31224 1
gene 1 7 4 4.19459 0 9 4.19459 1
gene 3 1 7 0.817467 0 51 0.817467 1
genomeend 126

/* Organism #127 Fitness: 6.25 Error: 1.5 */
genomestart 127
trait 1 0.0875 0 0 0.0148478 0 0.0366957 0 0 
trait 2 0.2 0 0 0 0 0 0 0 
trait 3 0.3 0 0 0 0 0 0 0 
node 1 1 1 3
node 2 2 1 1
node 3 2 1 1
node 4 2 0 2
node 7 2 0 0
gene 1 1 4 1.43663 0 1 1.43663 1
gene 1 2 4 3.97604 0 2 3.97604 0
gene 1 3 4 -2.24463 0 3 -2.24463 1
gene 1 2 7 -2.20617 0 8 -2.20617 1
gene 1 7 4 4.5243 0 9 4.5243 0
gene 3 1 7 1.05409 0 51 1.05409 1
genomeend 127

/* Organism #128 Fitness: 9.01748 Error: 0.997088 */
genomestart 128
trait 1 0.0875 0 0 0.0148478 0 0.0366957 0 0 
trait 2 0.2 0 0 0 0 0 0 0 
trait 3 0.3 0 0 0 0 0 0 0 
node 1 1 1 3
node 2 2 1 1
node 3 2 1 1
node 4 2 0 2
node 7 2 0 0
gene 1 1 4 -0.236479 0 1 -0.236479 1
gene 1 2 4 5.99804 0 2 5.99804 0
gene 1 3 4 -1.71354 0 3 -1.71354 1
gene 1 2 7 -0.315012 0 8 -0.315012 1
gene 1 7 4 4.12147 0 9 4.12147 1
gene 3 1 7 0.21201 0 51 0.21201 1
gene 2 3 7 0.313375 0 84 0.313375 1
genomeend 128

/* Organism #129 Fitness: 8.99984 Error: 1.00003 */
genomestart 129
trait 1 0.0875 0 0 0.0148478 0 0.0366957 0 0 
trait 2 0.2 0 0 0 0 0 0 0 
trait 3 0.15 0 0.217179 0 0.191023 0 0.245477 0 
node 1 1 1 3
node 2 2 1 1
node 3 2 1 1
node 4 2 0 2
node 7 2 0 0
gene 1 1 4 -0.581331 0 1 -0.581331 1
gene 1 2 4 2.28944 0 2 2.28944 0
gene 3 3 4 0.768233 0 3 0.768233 1
gene 1 2 7 0.315607 0 8 0.315607 1
gene 1 7 4 6.68432 0 9 6.68432 1
gene 3 1 7 -0.075916 0 51 -0.075916 1
genomeend 129

/* Organism #130 Fitness: 3.05356 Error: 2.25256 */
genomestart 130
trait 1 0.0875 0 0 0.0148478 0 0.0366957 0 0 
trait 2 0.2 0 0 0 0 0 0 0 
trait 3 0.15 0 0.217179 0 0.191023 0 0.245477 0 
node 1 1 1 3
node 2 2 1 1
node 3 2 1 1
node 4 2 0 2
node 7 2 0 0
node 31 1 0 0
gene 1 1 4 2.08564 0 1 2.08564 1
gene 1 2 4 5.21859 0 2 5.21859 0
gene 1 3 4 -3.34089 0 3 -3.34089 1
gene 1 2 7 -1.25776 0 8 -1.25776 1
gene 1 7 4 4.41382 0 9 4.41382 0
gene 3 1 7 -0.0765026 0 51 -0.0765026 1
gene 1 7 31 -1.33101 0 76 -1.33101 1
gene 1 31 4 5.68097 0 77 5.68097 1
genomeend 130

/* Organism #131 Fitness: 2.9049 Error: 2.29562 */
genomestart 131
trait 1 0.0875 0 0 0.0148478 0 0.0366957 0 0 
trait 2 0.2 0 0 0 0 0 0 0 
trait 3 0.539322 0 0 0 0 0 0 0 
node 1 1 1 3
node 2 2 1 1
node 3 2 1 1
node 4 2 0 2
node 7 2 0 0
gene 1 1 4 -0.669859 0 1 -0.669859 1
gene 1 2 4 5.36615 0 2 5.36615 0
gene 1 3 4 -0.608688 0 3 -0.608688 1
gene 1 2 7 -0.44143 0 8 -0.44143 1
gene 1 7 4 5.01342 0 9 5.01342 1
gene 3 1 7 -0.356139 0 51 -0.356139 1
genomeend 131

/* Organism #132 Fitness: 8.99993 Error: 1.00001 */
genomestart 132
trait 1 0.0875 0 0 0.0148478 0 0.0366957 0 0 
trait 2 0.2 0 0 0 0 0 0 0 
trait 3 0 0 0.434357 0 0.382045 0 0.490955 0 
node 1 1 1 3
node 2 2 1 1
node 3 2 1 1
node 4 2 0 2
node 7 2 0 0
gene 1 1 4 -0.0667664 0 1 -0.0667664 1
gene 1 2 4 6.31062 0 2 6.31062 1
gene 1 3 4 -4.70917 0 3 -4.70917 1
gene 1 2 7 -0.921081 0 8 -0.921081 1
gene 1 7 4 7.08332 0 9 7.08332 1
gene 3 1 7 3.4835 0 51 3.4835 1
genomeend 132

/* Organism #133 Fitness: 9 Error: 1 */
genomestart 133
trait 1 0.0875 0 0 0.0148478 0 0.0366957 0 0 
trait 2 0.2 0 0 0 0 0 0 0 
trait 3 0.539322 0 0 0 0 0 0 0 
node 1 1 1 3
node 2 2 1 1
node 3 2 1 1
node 4 2 0 2
node 7 2 0 0
node 31 1 0 0
gene 1 1 4 -0.236479 0 1 -0.236479 1
gene 1 2 4 7.79756 0 2 7.79756 0
gene 1 3 4 -1.71354 0 3 -1.71354 1
gene 1 2 7 1.93777 0 8 1.93777 1
gene 1 7 4 4.12147 0 9 4.12147 0
gene 3 1 7 1.11559 0 51 1.11559 1
gene 1 7 31 1 0 76 0 1
gene 1 31 4 4.12147 0 77 0 1
genomeend 133

/* Organism #134 Fitness: 8.99998 Error: 1 */
genomestart 134
trait 1 0.0875 0 0 0.0148478 0 0.0366957 0 0 
trait 2 0.2 0 0 0 0 0 0 0 
trait 3 0.778644 0 0 0 0 0 0 0 
node 1 1 1 3
node 2 2 1 1
node 3 2 1 1
node 4 2 0 2
node 7 2 0 0
gene 1 1 4 2.23804 0 1 2.23804 1
gene 1 2 4 5.8106 0 2 5.8106 0
gene 1 3 4 -1.14602 0 3 -1.14602 1
gene 1 2 7 2.4107 0 8 2.4107 1
gene 1 7 4 5.14197 0 9 5.14197 1
gene 3 1 7 0.373945 0 51 0.373945 1
genomeend 134

/* Organism #135 Fitness: 9 Error: 1 */
genomestart 135
trait 1 0.0875 0 0 0.0148478 0 0.0366957 0 0 
trait 2 0.2 0 0 0 0 0 0 0 
trait 3 0.15 0 0.217179 0 0.191023 0 0.245477 0 
node 1 1 1 3
node 2 2 1 1
node 3 2 1 1
node 4 2 0 2
node 7 2 0 0
node 31 1 0 0
gene 1 1 4 2.08564 0 1 2.08564 1
gene 1 2 4 7.59368 0 2 7.59368 0
gene 1 3 4 -1.71354 0 3 -1.71354 1
gene 1 2 7 -0.315012 0 8 -0.315012 1
gene 1 7 4 5.92134 0 9 5.92134 0
gene 3 1 7 0.21201 0 51 0.21201 1
gene 1 7 31 1 0 76 0 1
gene 1 31 4 4.12147 0 77 0 1
genomeend 135

/* Species #10 : (Size 11) (AF 6.52561) (Age 3)  */


/* Organism #136 Fitness: 8.98871 Error: 1.00188 */
genomestart 136
trait 1 0.1 0 0 0 0 0 0 0 
trait 2 0.532449 0 0 0 0 0 0 0 
trait 3 0.3 0 0 0 0 0 0 0 
node 1 1 1 3
node 2 2 1 1
node 3 2 1 1
node 4 2 0 2
node 7 1 0 0
node 13 1 0 0
node 19 1 0 0
gene 1 1 4 -1.89183 0 1 -1.89183 1
gene 1 2 4 4.03846 0 2 4.03846 1
gene 1 3 4 1.13537 0 3 1.13537 0
gene 1 2 7 3.82223 0 8 3.82223 0
gene 1 7 4 3.00544 0 9 3.00544 1
gene 1 2 13 1.89365 0 24 1.89365 1
gene 1 13 7 1.58901 0 25 1.58901 1
gene 1 3 19 -0.235125 0 47 -0.235125 1
gene 1 19 4 1.10218 0 48 1.10218 1
genomeend 136

/* Organism #137 Fitness: 4.2034 Error: 1.94978 */
genomestart 137
trait 1 0.1 0 0 0 0 0 0 0 
trait 2 0.532449 0 0 0 0 0 0 0 
trait 3 0.3 0 0 0 0 0 0 0 
node 1 1 1 3
node 2 2 1 1
node 3 2 1 1
node 4 2 0 2
node 7 1 0 0
node 13 1 0 0
node 19 1 0 0
gene 1 1 4 0.215262 0 1 0.215262 1
gene 1 2 4 -0.434178 0 2 -0.434178 1
gene 1 3 4 2.34962 0 3 2.34962 1
gene 1 2 7 -2.36944 0 8 -2.36944 0
gene 1 7 4 3.82618 0 9 3.82618 1
gene 1 2 13 4.70447 0 24 4.70447 1
gene 1 13 7 -0.823948 0 25 -0.823948 1
gene 1 3 19 1.87033 0 47 1.87033 1
gene 1 19 4 -0.331773 0 48 -0.331773 1
genomeend 137

/* Organism #138 Fitness: 12.1019 Error: 0.521222 */
genomestart 138
trait 1 0.1 0 0 0 0 0 0 0 
trait 2 0.2 0 0 0 0 0 0 0 
trait 3 0.3 0 0 0 0 0 0 0 
node 1 1 1 3
node 2 2 1 1
node 3 2 1 1
node 4 2 0 2
node 7 1 0 0
node 13 1 0 0
node 19 1 0 0
gene 1 1 4 1.58919 0 1 1.58919 1
gene 1 2 4 0.107312 0 2 0.107312 0
gene 1 3 4 -1.20668 0 3 -1.20668 0
gene 1 2 7 -3.913 0 8 -3.913 0
gene 1 7 4 1.81733 0 9 1.81733 1
gene 1 2 13 -1.23122 0 24 -1.23122 1
gene 1 13 7 5.75995 0 25 5.75995 1
gene 1 3 19 2.85653 0 47 2.85653 1
gene 1 19 4 -2.58332 0 48 -2.58332 1
genomeend 138

/* Organism #139 Fitness: 4.01673 Error: 1.99582 */
genomestart 139
trait 1 0.1 0 0 0 0 0 0 0 
trait 2 0.2 0 0 0 0 0 0 0 
trait 3 0.3 0 0 0 0 0 0 0 
node 1 1 1 3
node 2 2 1 1
node 3 2 1 1
node 4 2 0 2
node 7 1 0 0
node 13 1 0 0
node 19 1 0 0
gene 1 1 4 -0.0485229 0 1 -0.0485229 1
gene 1 2 4 0.559415 0 2 0.559415 0
gene 1 3 4 0.853418 0 3 0.853418 0
gene 1 2 7 -3.913 0 8 -3.913 0
gene 1 7 4 3.03126 0 9 3.03126 1
gene 1 2 13 -3.09307 0 24 -3.09307 0
gene 1 13 7 2.52456 0 25 2.52456 1
gene 1 3 19 -0.133569 0 47 -0.133569 1
gene 1 19 4 -1.99891 0 48 -1.99891 1
genomeend 139

/* Organism #140 Fitness: 8.99405 Error: 1.00099 */
genomestart 140
trait 1 0.1 0 0 0 0 0 0 0 
trait 2 0.366224 0 0 0 0 0 0 0 
trait 3 0.3 0 0 0 0 0 0 0 
node 1 1 1 3
node 2 2 1 1
node 3 2 1 1
node 4 2 0 2
node 7 1 0 0
node 13 1 0 0
node 19 1 0 0
node 32 1 0 0
gene 1 1 4 0.0833695 0 1 0.0833695 1
gene 1 2 4 1.01305 0 2 1.01305 1
gene 1 3 4 0.893368 0 3 0.893368 0
gene 1 2 7 -2.1025 0 8 -2.1025 0
gene 1 7 4 2.59956 0 9 2.59956 1
gene 1 2 13 2.52195 0 24 2.52195 0
gene 1 13 7 1.31645 0 25 1.31645 1
gene 1 3 19 1.23064 0 47 1.23064 1
gene 1 19 4 -1.24999 0 48 -1.24999 1
gene 1 2 32 1 0 79 0 1
gene 1 32 13 0.33943 0 80 0 1
genomeend 140

/* Organism #141 Fitness: 8.98927 Error: 1.00179 */
genomestart 141
trait 1 0.1 0 0 0 0 0 0 0 
trait 2 0.532449 0 0 0 0 0 0 0 
trait 3 0.3 0 0 0 0 0 0 0 
node 1 1 1 3
node 2 2 1 1
node 3 2 1 1
node 4 2 0 2
node 7 1 0 0
node 13 1 0 0
node 19 1 0 0
gene 1 1 4 -1.35488 0 1 -1.35488 1
gene 1 2 4 1.39135 0 2 1.39135 1
gene 1 3 4 3.61491 0 3 3.61491 1
gene 1 2 7 0.0937687 0 8 0.0937687 0
gene 1 7 4 3.82618 0 9 3.82618 1
gene 1 2 13 4.73955 0 24 4.73955 1
gene 1 13 7 1.05031 0 25 1.05031 1
gene 1 3 19 -0.528316 0 47 -0.528316 1
gene 1 19 4 -1.83827 0 48 -1.83827 1
genomeend 141

/* Organism #142 Fitness: 2.33799 Error: 2.47095 */
genomestart 142
trait 1 0.1 0 0 0 0 0 0 0 
trait 2 0.2 0 0 0 0 0 0 0 
trait 3 0.3 0 0 0 0 0 0 0 
node 1 1 1 3
node 2 2 1 1
node 3 2 1 1
node 4 2 0 2
node 7 1 0 0
node 13 1 0 0
node 19 1 0 0
gene 1 1 4 -1.22905 0 1 -1.22905 1
gene 1 2 4 -1.60349 0 2 -1.60349 0
gene 1 3 4 -2.95961 0 3 -2.95961 0
gene 1 2 7 -5.29071 0 8 -5.29071 0
gene 1 7 4 0.456229 0 9 0.456229 1
gene 1 2 13 -2.8097 0 24 -2.8097 1
gene 1 13 7 6.92502 0 25 6.92502 1
gene 1 3 19 4.38145 0 47 4.38145 1
gene 1 19 4 -0.954911 0 48 -0.954911 1
genomeend 142

/* Organism #143 Fitness: 5.51955 Error: 1.65063 */
genomestart 143
trait 1 0.1 0 0 0 0 0 0 0 
trait 2 0.2 0 0 0 0 0 0 0 
trait 3 0.3 0 0 0 0 0 0 0 
node 1 1 1 3
node 2 2 1 1
node 3 2 1 1
node 4 2 0 2
node 7 1 0 0
node 13 1 0 0
node 19 1 0 0
gene 1 1 4 0.42806 0 1 0.42806 1
gene 1 2 4 1.84998 0 2 1.84998 0
gene 1 3 4 -0.915134 0 3 -0.915134 0
gene 1 2 7 -2.55895 0 8 -2.55895 0
gene 1 7 4 0.470861 0 9 0.470861 1
gene 1 2 13 -2.07675 0 24 -2.07675 0
gene 1 13 7 4.91743 0 25 4.91743 1
gene 1 3 19 4.02442 0 47 4.02442 1
gene 1 19 4 -0.252545 0 48 -0.252545 1
genomeend 143

/* Organism #144 Fitness: 8.72644 Error: 1.04595 */
genomestart 144
trait 1 0.1 0 0 0 0 0 0 0 
trait 2 0.2 0 0 0 0 0 0 0 
trait 3 0.3 0 0 0 0 0 0 0 
node 1 1 1 3
node 2 2 1 1
node 3 2 1 1
node 4 2 0 2
node 7 1 0 0
node 13 1 0 0
node 19 1 0 0
node 32 1 0 0
gene 1 1 4 -0.0485229 0 1 -0.0485229 1
gene 1 2 4 4.44783 0 2 4.44783 0
gene 1 3 4 -2.36873 0 3 -2.36873 0
gene 1 2 7 -0.148369 0 8 -0.148369 0
gene 1 7 4 2.41297 0 9 2.41297 1
gene 1 2 13 0.775144 0 24 0.775144 0
gene 1 13 7 4.00273 0 25 4.00273 1
gene 1 3 19 1.69272 0 47 1.69272 1
gene 1 19 4 -1.9492 0 48 -1.9492 1
gene 1 2 32 1.88494 0 79 1.88494 1
gene 1 32 13 -1.1918 0 80 -1.1918 1
genomeend 144

/* Organism #145 Fitness: 3.90352 Error: 2.02427 */
genomestart 145
trait 1 0.1 0 0 0 0 0 0 0 
trait 2 0.532449 0 0 0 0 0 0 0 
trait 3 0.3 0 0 0 0 0 0 0 
node 1 1 1 3
node 2 2 1 1
node 3 2 1 1
node 4 2 0 2
node 7 1 0 0
node 13 1 0 0
node 19 1 0 0
gene 1 1 4 -3.25523 0 1 -3.25523 1
gene 1 2 4 2.35138 0 2 2.35138 1
gene 1 3 4 0.172787 0 3 0.172787 1
gene 1 2 7 3.19229 0 8 3.19229 1
gene 1 7 4 3.45945 0 9 3.45945 1
gene 1 2 13 1.34772 0 24 1.34772 1
gene 1 13 7 -1.34646 0 25 -1.34646 1
gene 1 3 19 -1.49472 0 47 -1.49472 1
gene 1 19 4 -1.7472 0 48 -1.7472 1
genomeend 145

/* Organism #146 Fitness: 4.0002 Error: 1.99995 */
genomestart 146
trait 1 0.1 0 0 0 0 0 0 0 
trait 2 0.2 0 0 0 0 0 0 0 
trait 3 0.3 0 0 0 0 0 0 0 
node 1 1 1 3
node 2 2 1 1
node 3 2 1 1
node 4 2 0 2
node 7 1 0 0
node 13 1 0 0
node 19 1 0 0
node 32 1 0 0
gene 1 1 4 -0.0485229 0 1 -0.0485229 1
gene 1 2 4 4.13986 0 2 4.13986 0
gene 1 3 4 -1.59584 0 3 -1.59584 0
gene 1 2 7 -1.88503 0 8 -1.88503 0
gene 1 7 4 0.0598919 0 9 0.0598919 1
gene 1 2 13 1.04923 0 24 1.04923 0
gene 1 13 7 4.44514 0 25 4.44514 1
gene 1 3 19 2.00217 0 47 2.00217 1
gene 1 19 4 -3.91928 0 48 -3.91928 1
gene 1 2 32 0.140188 0 79 0.140188 1
gene 1 32 13 0.240425 0 80 0.240425 1
genomeend 146

/* Species #12 : (Size 3) (AF 9) (Age 2)  */


/* Organism #147 Fitness: 9 Error: 1 */
genomestart 147
trait 1 0.1 0 0 0 0 0 0 0 
trait 2 0.532449 0 0 0 0 0 0 0 
trait 3 0.3 0 0 0 0 0 0 0 
node 1 1 1 3
node 2 2 1 1
node 3 3 1 1
node 4 2 0 2
node 7 1 0 0
node 13 1 0 0
node 26 1 0 0
node 29 1 0 0
gene 1 1 4 1.20372 0 1 1.20372 1
gene 1 2 4 4.38538 0 2 4.38538 1
gene 1 3 4 2.42466 0 3 2.42466 0
gene 1 2 7 1.80074 0 8 1.80074 0
gene 1 7 4 4.03572 0 9 4.03572 1
gene 1 2 13 1.1237 0 24 1.1237 0
gene 1 13 7 0.738153 0 25 0.738153 0
gene 1 2 26 1 0 62 0 1
gene 1 26 13 1.45555 0 63 0 1
gene 1 13 29 1 0 72 0 1
gene 1 29 7 0.738153 0 73 0 1
gene 3 29 4 0.74985 0 85 0.74985 1
genomeend 147

/* Organism #148 Fitness: 9 Error: 1 */
genomestart 148
trait 1 0.1 0 0 0 0 0 0 0 
trait 2 0.532449 0 0 0 0 0 0 0 
trait 3 0.3 0 0 0 0 0 0 0 
node 1 1 1 3
node 2 2 1 1
node 3 3 1 1
node 4 2 0 2
node 7 1 0 0
node 13 1 0 0
node 26 1 0 0
node 29 1 0 0
node 34 1 0 0
gene 1 1 4 1.20372 0 1 1.20372 1
gene 1 2 4 4.38538 0 2 4.38538 1
gene 1 3 4 2.42466 0 3 2.42466 0
gene 1 2 7 1.80074 0 8 1.80074 0
gene 1 7 4 4.03572 0 9 4.03572 1
gene 1 2 13 1.1237 0 24 1.1237 0
gene 1 13 7 0.738153 0 25 0.738153 0
gene 1 2 26 1 0 62 0 1
gene 1 26 13 1.45555 0 63 0 0
gene 1 13 29 1 0 72 0 1
gene 1 29 7 0.738153 0 73 0 1
gene 1 26 34 1 0 86 0 1
gene 1 34 13 1.45555 0 87 0 1
genomeend 148

/* Organism #149 Fitness: 9 Error: 1 */
genomestart 149
trait 1 0.1 0 0 0 0 0 0 0 
trait 2 0.532449 0 0 0 0 0 0 0 
trait 3 0.3 0 0 0 0 0 0 0 
node 1 1 1 3
node 2 2 1 1
node 3 3 1 1
node 4 2 0 2
node 7 1 0 0
node 13 1 0 0
node 26 1 0 0
node 29 1 0 0
node 35 1 0 0
gene 1 1 4 1.20372 0 1 1.20372 1
gene 1 2 4 4.38538 0 2 4.38538 1
gene 1 3 4 2.42466 0 3 2.42466 0
gene 1 2 7 1.80074 0 8 1.80074 0
gene 1 7 4 4.03572 0 9 4.03572 1
gene 1 2 13 1.1237 0 24 1.1237 0
gene 1 13 7 0.738153 0 25 0.738153 0
gene 1 2 26 1 0 62 0 1
gene 1 26 13 1.45555 0 63 0 1
gene 1 13 29 1 0 72 0 1
gene 1 29 7 0.738153 0 73 0 0
gene 1 29 35 1 0 88 0 1
gene 1 35 7 0.738153 0 89 0 1
genomeend 149
