
/* Species #7 : (Size 6) (AF 12.3502) (Age 39)  */


/* Organism #0 Fitness: 16 Error: 5.07041e-08 */
genomestart 0
trait 1 0.1 0.0576945 0 0 0 0.706582 0 0.74137 
trait 2 0.2 0 0.0210098 0.0202803 0.0336948 0 0 0.0346538 
trait 3 0.263249 0 0.023181 0 0.281361 0 0.0426411 0.00501003 
node 1 3 1 3
node 2 3 1 1
node 3 3 1 1
node 4 1 0 2
node 23 1 0 0
node 55 1 0 0
gene 2 1 4 8 0 1 8 1
gene 3 2 4 -5.38643 0 2 -5.38643 1
gene 1 3 4 -8 0 3 -8 1
gene 3 2 23 3.53449 0 40 3.53449 1
gene 3 23 4 -1.72653 0 41 -1.72653 1
gene 2 3 23 -1.3426 0 44 -1.3426 1
gene 1 3 55 1.25366 0 117 1.25366 1
gene 1 55 4 3.53051 0 118 3.53051 1
gene 2 1 55 1.01182 0 143 1.01182 1
genomeend 0

/* Organism #1 Fitness: 16 Error: 1.64042e-07 */
genomestart 1
trait 1 0.1 0.0576945 0 0 0 0.706582 0 0.74137 
trait 2 0.2 0 0.0210098 0.0202803 0.0336948 0 0 0.0346538 
trait 3 0.263249 0 0.023181 0 0.281361 0 0.0426411 0.00501003 
node 1 3 1 3
node 2 3 1 1
node 3 3 1 1
node 4 1 0 2
node 23 1 0 0
node 55 1 0 0
node 163 1 0 0
gene 2 1 4 8 0 1 8 1
gene 3 2 4 -5.28596 0 2 -5.28596 1
gene 1 3 4 -8 0 3 -8 1
gene 3 2 23 3.19608 0 40 3.19608 1
gene 3 23 4 -1.91756 0 41 -1.91756 1
gene 2 3 23 -1.18833 0 44 -1.18833 0
gene 1 3 55 1.75943 0 117 1.75943 1
gene 1 55 4 3.18555 0 118 3.18555 1
gene 2 1 55 1.35862 0 143 1.35862 1
gene 2 3 163 1 0 485 0 1
gene 2 163 23 -1.18833 0 486 0 1
genomeend 1

/* Organism #2 Fitness: 9.0108 Error: 0.998201 */
genomestart 2
trait 1 0.1 0.0576945 0 0 0 0.706582 0 0.74137 
trait 2 0 0 1 0.0202803 0.0336948 0.171066 0.274051 0.0346538 
trait 3 0.263249 0 0.023181 0 0.281361 0 0.0426411 0.00501003 
node 1 3 1 3
node 2 3 1 1
node 3 3 1 1
node 4 1 0 2
node 23 1 0 0
node 55 1 0 0
gene 2 1 4 1.24405 0 1 1.24405 1
gene 3 2 4 -2.30827 0 2 -2.30827 1
gene 1 3 4 -8 0 3 -8 1
gene 3 2 23 1.22205 0 40 1.22205 1
gene 3 23 4 0.518857 0 41 0.518857 1
gene 2 3 23 1.25679 0 44 1.25679 1
gene 1 3 55 3.27798 0 117 3.27798 1
gene 1 55 4 5.13176 0 118 5.13176 1
gene 2 1 55 -0.131337 0 143 -0.131337 1
genomeend 2

/* Organism #3 Fitness: 4.00008 Error: 1.99998 */
genomestart 3
trait 1 0.1 0.0576945 0 0 0 0.706582 0 0.74137 
trait 2 0.2 0 0.0210098 0.0202803 0.0336948 0 0 0.0346538 
trait 3 0.263249 0 0.023181 0 0.281361 0 0.0426411 0.00501003 
node 1 3 1 3
node 2 3 1 1
node 3 3 1 1
node 4 1 0 2
node 23 1 0 0
node 55 1 0 0
gene 2 1 4 0.53193 0 1 0.53193 1
gene 3 2 4 2.2204 0 2 2.2204 1
gene 1 3 4 1.80471 0 3 1.80471 1
gene 3 2 23 4.09468 0 40 4.09468 1
gene 3 23 4 -0.849564 0 41 -0.849564 1
gene 2 3 23 -0.926537 0 44 -0.926537 1
gene 1 3 55 3.38635 0 117 3.38635 1
gene 1 55 4 2.10471 0 118 2.10471 1
gene 2 1 55 1.05164 0 143 1.05164 1
genomeend 3

/* Organism #4 Fitness: 13.0901 Error: 0.381971 */
genomestart 4
trait 1 0.1 0.0576945 0 0 0 0.706582 0 0.74137 
trait 2 0.2 0 0.523767 0.211895 0.0336948 0 0 0.730918 
trait 3 0.263249 0 0.023181 0 0.281361 0 0.0426411 0.00501003 
node 1 3 1 3
node 2 3 1 1
node 3 3 1 1
node 4 1 0 2
node 23 1 0 0
node 55 1 0 0
gene 2 1 4 8 0 1 8 1
gene 3 2 4 -1.49747 0 2 -1.49747 1
gene 1 3 4 -8 0 3 -8 1
gene 3 2 23 1.10689 0 40 1.10689 1
gene 3 23 4 -1.07147 0 41 -1.07147 1
gene 2 3 23 -2.51346 0 44 -2.51346 1
gene 1 3 55 1.71448 0 117 1.71448 1
gene 1 55 4 1.39993 0 118 1.39993 1
gene 2 1 55 2.45315 0 143 2.45315 1
genomeend 4

/* Organism #5 Fitness: 16 Error: 5.07041e-08 */
genomestart 5
trait 1 0.1 0.0576945 0 0 0 0.706582 0 0.74137 
trait 2 0.2 0 0.0210098 0.0202803 0.0336948 0 0 0.0346538 
trait 3 0.263249 0 0.023181 0 0.281361 0 0.0426411 0.00501003 
node 1 3 1 3
node 2 3 1 1
node 3 3 1 1
node 4 1 0 2
node 23 1 0 0
node 55 1 0 0
gene 2 1 4 8 0 1 8 1
gene 3 2 4 -5.38643 0 2 -5.38643 1
gene 1 3 4 -8 0 3 -8 1
gene 3 2 23 3.53449 0 40 3.53449 1
gene 3 23 4 -1.72653 0 41 -1.72653 1
gene 2 3 23 -1.3426 0 44 -1.3426 1
gene 1 3 55 1.25366 0 117 1.25366 1
gene 1 55 4 3.53051 0 118 3.53051 1
gene 2 1 55 1.01182 0 143 1.01182 1
genomeend 5

/* Species #8 : (Size 7) (AF 12.9235) (Age 37)  */


/* Organism #6 Fitness: 16 Error: 8.54567e-10 */
genomestart 6
trait 1 0.1 0.0576945 0 0 0 0.627648 0 0 
trait 2 0.2 0.151223 0.0427849 0.0101402 0.0168474 0 0 0.0346538 
trait 3 0.150428 0 0 0 0.000764841 0 0.0243663 0.00501003 
node 1 3 1 3
node 2 3 1 1
node 3 1 1 1
node 4 2 0 2
node 23 1 0 0
node 48 2 0 0
node 60 1 0 0
gene 2 1 4 5.57318 0 1 5.57318 1
gene 3 2 4 -6.83603 0 2 -6.83603 1
gene 1 3 4 -3.73063 0 3 -3.73063 1
gene 3 2 23 1.6489 0 40 1.6489 1
gene 3 23 4 5.9526 0 41 5.9526 0
gene 2 3 23 4.23107 0 44 4.23107 1
gene 3 23 48 -0.67489 0 100 -0.67489 1
gene 1 48 4 -4.55507 0 101 -4.55507 0
gene 3 48 60 2.05586 0 135 2.05586 1
gene 3 60 4 6.18259 0 136 6.18259 1
gene 3 2 48 -2.99747 0 148 -2.99747 1
gene 3 1 60 2.24285 0 164 2.24285 1
gene 1 3 60 -3.26797 0 250 -3.26797 1
gene 3 3 48 3.50263 0 290 3.50263 1
genomeend 6

/* Organism #7 Fitness: 9 Error: 1 */
genomestart 7
trait 1 0.1 0.0576945 0 0 0 0.627648 0 0 
trait 2 0.2 0 0.0210098 0.0202803 0.0336948 0 0 0.0346538 
trait 3 0.150428 0 0 0 0.000764841 0 0.0243663 0.00501003 
node 1 3 1 3
node 2 3 1 1
node 3 1 1 1
node 4 2 0 2
node 23 1 0 0
node 48 2 0 0
node 60 1 0 0
gene 2 1 4 8 0 1 8 1
gene 3 2 4 -0.593057 0 2 -0.593057 1
gene 1 3 4 -3.3124 0 3 -3.3124 1
gene 3 2 23 -0.875131 0 40 -0.875131 1
gene 3 23 4 8 0 41 8 0
gene 2 3 23 4.6753 0 44 4.6753 1
gene 3 23 48 -0.819288 0 100 -0.819288 1
gene 1 48 4 -5.29 0 101 -5.29 0
gene 3 48 60 1.06459 0 135 1.06459 1
gene 3 60 4 -2.2691 0 136 -2.2691 1
gene 3 2 48 -1.00522 0 148 -1.00522 1
gene 3 1 60 1.78917 0 164 1.78917 1
gene 1 3 60 -3.98439 0 250 -3.98439 1
gene 3 3 48 -0.391039 0 290 -0.391039 1
genomeend 7

/* Organism #8 Fitness: 16 Error: 5.17726e-10 */
genomestart 8
trait 1 0.1 0.0576945 0 0 0 0.627648 0 0 
trait 2 0.2 0.0756116 0.0318973 0.0152102 0.0252711 0 0 0.0346538 
trait 3 0.150428 0 0 0 0.000764841 0 0.0243663 0.00501003 
node 1 3 1 3
node 2 3 1 1
node 3 1 1 1
node 4 2 0 2
node 23 1 0 0
node 48 2 0 0
node 60 1 0 0
gene 2 1 4 5.89123 0 1 5.89123 1
gene 3 2 4 -6.96508 0 2 -6.96508 1
gene 1 3 4 -3.3124 0 3 -3.3124 1
gene 3 2 23 1.24105 0 40 1.24105 1
gene 3 23 4 6.29186 0 41 6.29186 0
gene 2 3 23 4.23107 0 44 4.23107 1
gene 3 23 48 -0.67489 0 100 -0.67489 1
gene 1 48 4 -3.31767 0 101 -3.31767 0
gene 3 48 60 2.05586 0 135 2.05586 1
gene 3 60 4 6.18259 0 136 6.18259 1
gene 3 2 48 -2.99747 0 148 -2.99747 1
gene 3 1 60 2.24285 0 164 2.24285 1
gene 1 3 60 -3.26797 0 250 -3.26797 1
gene 3 3 48 1.42141 0 290 1.42141 1
genomeend 8

/* Organism #9 Fitness: 13.7962 Error: 0.28568 */
genomestart 9
trait 1 0.1 0.0576945 0 0 0 0.627648 0 0 
trait 2 0.2 0.151223 0.0427849 0.0101402 0.0168474 0 0 0.0346538 
trait 3 0.150428 0 0 0 0.000764841 0 0.0243663 0.00501003 
node 1 3 1 3
node 2 3 1 1
node 3 1 1 1
node 4 2 0 2
node 23 1 0 0
node 48 2 0 0
node 60 1 0 0
gene 2 1 4 5.56855 0 1 5.56855 1
gene 3 2 4 -7.47416 0 2 -7.47416 1
gene 1 3 4 -5.38357 0 3 -5.38357 1
gene 3 2 23 1.69905 0 40 1.69905 1
gene 3 23 4 3.94931 0 41 3.94931 0
gene 2 3 23 3.57989 0 44 3.57989 1
gene 3 23 48 -1.1494 0 100 -1.1494 1
gene 1 48 4 -4.07632 0 101 -4.07632 0
gene 3 48 60 -0.077545 0 135 -0.077545 1
gene 3 60 4 5.65769 0 136 5.65769 1
gene 3 2 48 -5.37829 0 148 -5.37829 1
gene 3 1 60 1.61488 0 164 1.61488 1
gene 1 3 60 -3.26797 0 250 -3.26797 1
gene 3 3 48 3.1181 0 290 3.1181 1
genomeend 9

/* Organism #10 Fitness: 15.9196 Error: 0.0100585 */
genomestart 10
trait 1 0.1 0.0576945 0 0 0 0.627648 0 0 
trait 2 0.2 0 0.0210098 0.0202803 0.0336948 0 0 0.0346538 
trait 3 0.150428 0 0 0 0.000764841 0 0.0243663 0.00501003 
node 1 3 1 3
node 2 3 1 1
node 3 1 1 1
node 4 2 0 2
node 23 1 0 0
node 48 2 0 0
node 60 1 0 0
gene 2 1 4 3.9606 0 1 3.9606 1
gene 3 2 4 -7.43936 0 2 -7.43936 1
gene 1 3 4 -2.14804 0 3 -2.14804 1
gene 3 2 23 0.939107 0 40 0.939107 1
gene 3 23 4 5.15957 0 41 5.15957 0
gene 2 3 23 2.14273 0 44 2.14273 1
gene 3 23 48 0.973597 0 100 0.973597 1
gene 1 48 4 -5.62451 0 101 -5.62451 0
gene 3 48 60 2.72314 0 135 2.72314 1
gene 3 60 4 4.55215 0 136 4.55215 1
gene 3 2 48 -1.60796 0 148 -1.60796 1
gene 3 1 60 1.71264 0 164 1.71264 1
gene 1 3 60 -0.309151 0 250 -0.309151 1
gene 3 3 48 0.507184 0 290 0.507184 1
genomeend 10

/* Organism #11 Fitness: 4.00001 Error: 2 */
genomestart 11
trait 1 0.1 0.0576945 0 0 0 0.627648 0 0 
trait 2 0.2 0 0.0210098 0.0202803 0.0336948 0 0 0.0346538 
trait 3 0.150428 0 0 0 0.000764841 0 0.0243663 0.00501003 
node 1 3 1 3
node 2 3 1 1
node 3 1 1 1
node 4 2 0 2
node 23 1 0 0
node 48 2 0 0
node 60 1 0 0
gene 2 1 4 -0.309171 0 1 -0.309171 1
gene 3 2 4 -8 0 2 -8 1
gene 1 3 4 -2.51297 0 3 -2.51297 1
gene 3 2 23 2.00935 0 40 2.00935 1
gene 3 23 4 0.0557865 0 41 0.0557865 0
gene 2 3 23 4.52853 0 44 4.52853 1
gene 3 23 48 -1.61161 0 100 -1.61161 1
gene 1 48 4 -0.766893 0 101 -0.766893 0
gene 3 48 60 2.77371 0 135 2.77371 1
gene 3 60 4 5.29914 0 136 5.29914 1
gene 3 2 48 -2.3814 0 148 -2.3814 1
gene 3 1 60 2.11071 0 164 2.11071 1
gene 1 3 60 -3.77339 0 250 -3.77339 1
gene 3 3 48 -0.0786026 0 290 -0.0786026 1
genomeend 11

/* Organism #12 Fitness: 15.7486 Error: 0.0315441 */
genomestart 12
trait 1 0.1 0.0576945 0 0 0 0.627648 0 0 
trait 2 0.2 0.0756116 0.0318973 0.0152102 0.0252711 0 0 0.0346538 
trait 3 0.150428 0 0 0 0.000764841 0 0.0243663 0.00501003 
node 1 3 1 3
node 2 3 1 1
node 3 1 1 1
node 4 2 0 2
node 23 1 0 0
node 48 2 0 0
node 60 1 0 0
gene 2 1 4 3.35205 0 1 3.35205 1
gene 3 2 4 -6.06676 0 2 -6.06676 1
gene 1 3 4 -3.57914 0 3 -3.57914 1
gene 3 2 23 3.59454 0 40 3.59454 1
gene 3 23 4 5.85059 0 41 5.85059 0
gene 2 3 23 3.24849 0 44 3.24849 1
gene 3 23 48 -1.20954 0 100 -1.20954 1
gene 1 48 4 -3.45838 0 101 -3.45838 0
gene 3 48 60 3.02752 0 135 3.02752 1
gene 3 60 4 4.36339 0 136 4.36339 1
gene 3 2 48 -2.22853 0 148 -2.22853 1
gene 3 1 60 1.70221 0 164 1.70221 1
gene 1 3 60 -2.02772 0 250 -2.02772 1
gene 3 3 48 0.41291 0 290 0.41291 1
genomeend 12

/* Species #9 : (Size 5) (AF 6.8679) (Age 37)  */


/* Organism #13 Fitness: 3.34064 Error: 2.17226 */
genomestart 13
trait 1 0.1 0.0576945 0 0 0 0 0 0.0136104 
trait 2 0.2 0 0.0210098 0.0202803 0.0336948 0 0 0.0346538 
trait 3 0.263249 0 0.040325 0.016148 0.00133847 0 0.039976 0.00501003 
node 1 3 1 3
node 2 3 1 1
node 3 3 1 1
node 4 2 0 2
node 23 1 0 0
node 55 1 0 0
node 61 1 0 0
gene 2 1 4 6.8934 0 1 6.8934 1
gene 3 2 4 0.0444717 0 2 0.0444717 1
gene 1 3 4 -8 0 3 -8 1
gene 3 2 23 1.17806 0 40 1.17806 1
gene 3 23 4 1.99427 0 41 1.99427 1
gene 2 3 23 -0.522936 0 44 -0.522936 0
gene 1 3 55 -0.835889 0 117 -0.835889 1
gene 1 55 4 7.67678 0 118 7.67678 1
gene 1 2 55 -1.86322 0 125 -1.86322 1
gene 2 3 61 3.28973 0 137 3.28973 1
gene 2 61 23 3.00068 0 138 3.00068 1
gene 2 1 23 -4.2796 0 144 -4.2796 1
gene 1 2 61 3.40241 0 228 3.40241 1
gene 3 55 61 -1.6805 0 260 -1.6805 1
gene 1 55 23 -1.59533 0 355 -1.59533 1
genomeend 13

/* Organism #14 Fitness: 4 Error: 2 */
genomestart 14
trait 1 0.1 0.0576945 0 0 0 0 0 0.0136104 
trait 2 0.2 0 0.0210098 0.0202803 0.0336948 0 0 0.0346538 
trait 3 0.263249 0 0.040325 0.016148 0.00133847 0 0.039976 0.00501003 
node 1 3 1 3
node 2 3 1 1
node 3 3 1 1
node 4 2 0 2
node 23 1 0 0
node 55 1 0 0
node 61 1 0 0
gene 2 1 4 8 0 1 8 1
gene 3 2 4 0.215331 0 2 0.215331 1
gene 1 3 4 -8 0 3 -8 1
gene 3 2 23 -0.335182 0 40 -0.335182 1
gene 3 23 4 5.48005 0 41 5.48005 1
gene 2 3 23 -2.24803 0 44 -2.24803 1
gene 1 3 55 2.4212 0 117 2.4212 1
gene 1 55 4 8 0 118 8 1
gene 1 2 55 -1.13694 0 125 -1.13694 1
gene 2 3 61 -0.539158 0 137 -0.539158 1
gene 2 61 23 3.02305 0 138 3.02305 1
gene 2 1 23 -4.16298 0 144 -4.16298 1
gene 1 2 61 2.13745 0 228 2.13745 1
gene 3 55 61 1.15772 0 260 1.15772 1
gene 1 55 23 3.02716 0 355 3.02716 1
genomeend 14

/* Organism #15 Fitness: 9 Error: 1 */
genomestart 15
trait 1 0 0.0576945 0 0 0 0 0 0 
trait 2 0.2 0 0.0210098 0.0202803 0.0336948 0 0 0.0346538 
trait 3 0.263249 0 0.040325 0.016148 0.00133847 0 0.039976 0.00501003 
node 1 3 1 3
node 2 3 1 1
node 3 3 1 1
node 4 2 0 2
node 23 1 0 0
node 55 1 0 0
node 61 1 0 0
gene 2 1 4 8 0 1 8 1
gene 3 2 4 -0.225643 0 2 -0.225643 1
gene 1 3 4 -6.14471 0 3 -6.14471 1
gene 3 2 23 2.03664 0 40 2.03664 1
gene 3 23 4 3.7854 0 41 3.7854 1
gene 2 3 23 -2.79732 0 44 -2.79732 0
gene 1 3 55 0.689456 0 117 0.689456 1
gene 1 55 4 8 0 118 8 1
gene 1 2 55 -1.05015 0 125 -1.05015 1
gene 2 3 61 1.74427 0 137 1.74427 1
gene 2 61 23 1.89542 0 138 1.89542 1
gene 2 1 23 -1.40553 0 144 -1.40553 1
gene 1 2 61 0.239237 0 228 0.239237 1
gene 3 55 61 0.0199922 0 260 0.0199922 1
gene 1 55 23 3.13372 0 355 3.13372 1
genomeend 15

/* Organism #16 Fitness: 9 Error: 1 */
genomestart 16
trait 1 0.1 0.0576945 0 0 0 0 0 0.0136104 
trait 2 0.2 0 0.0210098 0.0202803 0.0336948 0 0 0.0346538 
trait 3 0.263249 0 0.040325 0.016148 0.00133847 0 0.039976 0.00501003 
node 1 3 1 3
node 2 3 1 1
node 3 3 1 1
node 4 2 0 2
node 23 1 0 0
node 55 1 0 0
node 61 1 0 0
gene 2 1 4 6.60152 0 1 6.60152 1
gene 3 2 4 -1.87959 0 2 -1.87959 1
gene 1 3 4 -8 0 3 -8 1
gene 3 2 23 0.656141 0 40 0.656141 1
gene 3 23 4 5.05542 0 41 5.05542 1
gene 2 3 23 0.961758 0 44 0.961758 0
gene 1 3 55 3.25522 0 117 3.25522 1
gene 1 55 4 4.58055 0 118 4.58055 1
gene 1 2 55 -0.98953 0 125 -0.98953 1
gene 2 3 61 3.61222 0 137 3.61222 1
gene 2 61 23 1.37454 0 138 1.37454 1
gene 2 1 23 -1.89224 0 144 -1.89224 1
gene 1 2 61 3.15317 0 228 3.15317 1
gene 3 55 61 0.607123 0 260 0.607123 1
gene 1 55 23 1.90865 0 355 1.90865 1
genomeend 16

/* Organism #17 Fitness: 8.99884 Error: 1.00019 */
genomestart 17
trait 1 0.1 0.0576945 0 0 0 0 0 0.0136104 
trait 2 0.2 0 0.0210098 0.0202803 0.0336948 0 0 0.0346538 
trait 3 0.263249 0 0.040325 0.016148 0.00133847 0 0.039976 0.00501003 
node 1 3 1 3
node 2 3 1 1
node 3 3 1 1
node 4 2 0 2
node 23 1 0 0
node 55 1 0 0
node 61 1 0 0
gene 2 1 4 5.35659 0 1 5.35659 1
gene 3 2 4 -3.62396 0 2 -3.62396 1
gene 1 3 4 -8 0 3 -8 1
gene 3 2 23 0.796924 0 40 0.796924 1
gene 3 23 4 5.39522 0 41 5.39522 1
gene 2 3 23 -0.674673 0 44 -0.674673 1
gene 1 3 55 -0.878799 0 117 -0.878799 1
gene 1 55 4 5.40547 0 118 5.40547 1
gene 1 2 55 -2.07088 0 125 -2.07088 1
gene 2 3 61 0.92907 0 137 0.92907 1
gene 2 61 23 -0.32526 0 138 -0.32526 1
gene 2 1 23 -4.62898 0 144 -4.62898 1
gene 1 2 61 -0.82269 0 228 -0.82269 1
gene 3 55 61 -1.24722 0 260 -1.24722 1
gene 1 55 23 1.82417 0 355 1.82417 1
genomeend 17

/* Species #10 : (Size 6) (AF 14.8654) (Age 36)  */


/* Organism #18 Fitness: 16 Error: 2.07547e-08 */
genomestart 18
trait 1 0.1 0.0540886 0.033849 0.0622569 0.0123676 0.0104437 0 0.0127597 
trait 2 0.143989 0.393233 0.396842 0.0101402 0.459931 0 0.382566 0.394902 
trait 3 0.286753 0 0 0 0.00145798 0 0.0464483 0.00501003 
node 1 1 1 3
node 2 3 1 1
node 3 3 1 1
node 4 2 0 2
node 23 1 0 0
node 62 1 0 0
node 132 1 0 0
node 155 1 0 0
gene 2 1 4 8 0 1 8 1
gene 1 2 4 -2.6605 0 2 -2.6605 1
gene 1 3 4 -7.75799 0 3 -7.75799 1
gene 3 2 23 8 0 40 8 1
gene 3 23 4 -4.89295 0 41 -4.89295 1
gene 1 1 23 -3.46695 0 78 -3.46695 1
gene 2 3 23 -0.920916 0 130 -0.920916 1
gene 2 3 62 1.96327 0 139 1.96327 1
gene 2 62 23 1.16399 0 140 1.16399 1
gene 1 62 4 3.50167 0 152 3.50167 1
gene 1 1 62 2.18509 0 173 2.18509 1
gene 2 2 62 -0.995947 0 251 -0.995947 0
gene 2 2 132 1 0 380 0 0
gene 2 132 62 -0.995947 0 381 0 1
gene 2 2 155 1 0 461 0 1
gene 2 155 132 1 0 462 0 1
genomeend 18

/* Organism #19 Fitness: 16 Error: 8.15779e-08 */
genomestart 19
trait 1 0.1 0.0540886 0.033849 0.0622569 0.0123676 0.0104437 0 0.0127597 
trait 2 0.143989 0.393233 0.396842 0.0101402 0.459931 0 0.382566 0.394902 
trait 3 0.286753 0 0 0 0.00145798 0 0.0464483 0.00501003 
node 1 1 1 3
node 2 3 1 1
node 3 3 1 1
node 4 2 0 2
node 23 1 0 0
node 62 1 0 0
node 132 1 0 0
node 155 1 0 0
gene 2 1 4 6.40943 0 1 6.40943 1
gene 1 2 4 -2.16061 0 2 -2.16061 1
gene 1 3 4 -7.11019 0 3 -7.11019 1
gene 3 2 23 5.96859 0 40 5.96859 1
gene 3 23 4 -6.12541 0 41 -6.12541 1
gene 2 1 23 -2.82706 0 78 -2.82706 1
gene 2 3 23 -1.34244 0 130 -1.34244 1
gene 2 3 62 -0.67826 0 139 -0.67826 1
gene 2 62 23 2.50695 0 140 2.50695 1
gene 1 62 4 5.64975 0 152 5.64975 1
gene 1 1 62 3.84441 0 173 3.84441 1
gene 2 2 62 -1.34932 0 251 -1.34932 0
gene 2 2 132 -0.642978 0 380 -0.642978 1
gene 2 132 62 0.984601 0 381 0.984601 1
gene 2 2 155 -0.329896 0 461 -0.329896 1
gene 2 155 132 1 0 462 1 1
genomeend 19

/* Organism #20 Fitness: 15.9999 Error: 1.64721e-05 */
genomestart 20
trait 1 0.1 0.0540886 0.033849 0.0622569 0.0123676 0.0104437 0 0.0127597 
trait 2 0.143989 0.393233 0.396842 0.0101402 0.459931 0 0.382566 0.394902 
trait 3 0.286753 0 0 0 0.00145798 0 0.0464483 0.00501003 
node 1 1 1 3
node 2 3 1 1
node 3 3 1 1
node 4 2 0 2
node 23 1 0 0
node 62 1 0 0
node 132 1 0 0
gene 2 1 4 7.91935 0 1 7.91935 1
gene 1 2 4 -1.44041 0 2 -1.44041 1
gene 1 3 4 -7.13072 0 3 -7.13072 1
gene 3 2 23 8 0 40 8 1
gene 3 23 4 -4.76244 0 41 -4.76244 1
gene 1 1 23 -4.66868 0 78 -4.66868 1
gene 2 3 23 0.893324 0 130 0.893324 1
gene 2 3 62 0.920647 0 139 0.920647 1
gene 2 62 23 0.215862 0 140 0.215862 1
gene 1 62 4 3.17753 0 152 3.17753 1
gene 1 1 62 2.28452 0 173 2.28452 1
gene 2 2 62 -2.603 0 251 -2.603 0
gene 2 2 132 1 0 380 1 1
gene 2 132 62 0.562581 0 381 0.562581 1
genomeend 20

/* Organism #21 Fitness: 11.6662 Error: 0.584421 */
genomestart 21
trait 1 0.1 0.0540886 0.033849 0.0622569 0.0123676 0.0104437 0 0.0127597 
trait 2 0.143989 0.393233 0.396842 0.0101402 0.459931 0 0.382566 0.394902 
trait 3 0.286753 0 0 0 0.00145798 0 0.0464483 0.00501003 
node 1 1 1 3
node 2 3 1 1
node 3 3 1 1
node 4 2 0 2
node 23 1 0 0
node 62 1 0 0
node 132 1 0 0
node 155 1 0 0
gene 2 1 4 8 0 1 8 1
gene 1 2 4 -0.258683 0 2 -0.258683 1
gene 1 3 4 -8 0 3 -8 1
gene 3 2 23 8 0 40 8 1
gene 3 23 4 -3.66913 0 41 -3.66913 1
gene 1 1 23 -4.4435 0 78 -4.4435 1
gene 2 3 23 0.946235 0 130 0.946235 1
gene 2 3 62 3.33641 0 139 3.33641 1
gene 2 62 23 -0.0242813 0 140 -0.0242813 1
gene 1 62 4 3.99705 0 152 3.99705 1
gene 1 1 62 1.48276 0 173 1.48276 1
gene 2 2 62 0.77265 0 251 0.77265 0
gene 2 2 132 2.94098 0 380 2.94098 0
gene 2 132 62 -1.04142 0 381 -1.04142 1
gene 2 2 155 -1.13001 0 461 -1.13001 1
gene 2 155 132 -0.107383 0 462 -0.107383 1
genomeend 21

/* Organism #22 Fitness: 13.5261 Error: 0.322209 */
genomestart 22
trait 1 0.1 0.0540886 0.033849 0.0622569 0.0123676 0.0104437 0 0.0127597 
trait 2 0.143989 0.393233 0.396842 0.0101402 0.459931 0 0.382566 0.394902 
trait 3 0.286753 0 0 0 0.00145798 0 0.0464483 0.00501003 
node 1 1 1 3
node 2 3 1 1
node 3 3 1 1
node 4 2 0 2
node 23 1 0 0
node 62 1 0 0
node 132 1 0 0
gene 2 1 4 5.46687 0 1 5.46687 1
gene 1 2 4 -3.70925 0 2 -3.70925 1
gene 1 3 4 -8 0 3 -8 1
gene 3 2 23 7.02506 0 40 7.02506 1
gene 3 23 4 -4.76244 0 41 -4.76244 1
gene 1 1 23 -6.05738 0 78 -6.05738 1
gene 2 3 23 0.893324 0 130 0.893324 1
gene 2 3 62 1.84628 0 139 1.84628 1
gene 2 62 23 0.175515 0 140 0.175515 1
gene 1 62 4 3.17753 0 152 3.17753 1
gene 1 1 62 3.42622 0 173 3.42622 1
gene 2 2 62 -2.74539 0 251 -2.74539 0
gene 2 2 132 1.91169 0 380 1.91169 1
gene 2 132 62 0.562581 0 381 0.562581 1
genomeend 22

/* Organism #23 Fitness: 16 Error: 2.39674e-08 */
genomestart 23
trait 1 0 0 0.99155 1 0.0123676 0 0 0.0127597 
trait 2 0.143989 0.393233 0.396842 0.0101402 0.459931 0 0.382566 0.394902 
trait 3 0.286753 0 0 0 0.00145798 0 0.0464483 0.00501003 
node 1 1 1 3
node 2 3 1 1
node 3 3 1 1
node 4 2 0 2
node 23 1 0 0
node 62 1 0 0
node 132 1 0 0
node 155 1 0 0
gene 2 1 4 8 0 1 8 1
gene 1 2 4 -4.68602 0 2 -4.68602 1
gene 1 3 4 -8 0 3 -8 1
gene 3 2 23 8 0 40 8 1
gene 3 23 4 -4.89295 0 41 -4.89295 1
gene 1 1 23 -3.46695 0 78 -3.46695 1
gene 2 3 23 -2.53801 0 130 -2.53801 1
gene 2 3 62 -0.389696 0 139 -0.389696 1
gene 2 62 23 -0.0533476 0 140 -0.0533476 1
gene 1 62 4 5.14515 0 152 5.14515 1
gene 1 1 62 3.84915 0 173 3.84915 1
gene 2 2 62 0.0479095 0 251 0.0479095 0
gene 2 2 132 -0.534659 0 380 -0.534659 0
gene 2 132 62 -0.863201 0 381 -0.863201 1
gene 2 2 155 -1.32613 0 461 -1.32613 1
gene 2 155 132 0.391213 0 462 0.391213 1
genomeend 23

/* Species #11 : (Size 9) (AF 10.784) (Age 31)  */


/* Organism #24 Fitness: 9 Error: 1 */
genomestart 24
trait 1 0.1 0.0540886 0.033849 0.0622569 0.0123676 0.0104437 0 0.0127597 
trait 2 0.143989 0.471218 0.396842 0.0101402 0.729966 0 0.382566 0.394902 
trait 3 0.286753 0 0 0 0.0730648 0 0.0464483 0.00501003 
node 1 3 1 3
node 2 3 1 1
node 3 3 1 1
node 4 2 0 2
node 23 1 0 0
node 62 1 0 0
node 164 1 0 0
gene 2 1 4 5.87733 0 1 5.87733 1
gene 1 2 4 -1.44041 0 2 -1.44041 1
gene 1 3 4 -6.34847 0 3 -6.34847 0
gene 3 2 23 -2.43506 0 40 -2.43506 1
gene 3 23 4 -4.76244 0 41 -4.76244 1
gene 1 1 23 -2.9345 0 78 -2.9345 1
gene 2 3 23 1.01423 0 130 1.01423 0
gene 2 3 62 0.920647 0 139 0.920647 1
gene 2 62 23 0.215862 0 140 0.215862 1
gene 1 62 4 7.75772 0 152 7.75772 1
gene 1 2 62 -4.04892 0 166 -4.04892 1
gene 3 1 62 5.05958 0 184 5.05958 1
gene 1 3 164 1 0 487 0 1
gene 1 164 4 -6.34847 0 488 0 1
genomeend 24

/* Organism #25 Fitness: 16 Error: 7.45427e-15 */
genomestart 25
trait 1 0.1 0.0540886 0.033849 0.0622569 0.0123676 0.0104437 0 0.0127597 
trait 2 0.143989 0.549203 0.396842 0.0101402 1 0 0.382566 0.394902 
trait 3 0.286753 0 0 0 0.144672 0 0.0464483 0.00501003 
node 1 3 1 3
node 2 3 1 1
node 3 3 1 1
node 4 2 0 2
node 23 1 0 0
node 62 1 0 0
gene 2 1 4 5.87733 0 1 5.87733 1
gene 3 2 4 -6.9649 0 2 -6.9649 1
gene 1 3 4 -6.34847 0 3 -6.34847 1
gene 3 2 23 -2.43506 0 40 -2.43506 1
gene 3 23 4 0.204918 0 41 0.204918 1
gene 1 1 23 -2.9345 0 78 -2.9345 1
gene 2 3 23 1.01423 0 130 1.01423 0
gene 2 3 62 -2.62963 0 139 -2.62963 1
gene 2 62 23 1.92351 0 140 1.92351 1
gene 1 62 4 7.75772 0 152 7.75772 1
gene 1 2 62 -4.04892 0 166 -4.04892 1
gene 3 1 62 5.05958 0 184 5.05958 1
genomeend 25

/* Organism #26 Fitness: 9 Error: 1 */
genomestart 26
trait 1 0.1 0.0540886 0.033849 0.0622569 0.0123676 0.0104437 0 0.0127597 
trait 2 0.143989 0.510211 0.396842 0.0101402 0.864983 0 0.382566 0.394902 
trait 3 0.286753 0 0 0 0.108868 0 0.0464483 0.00501003 
node 1 3 1 3
node 2 3 1 1
node 3 3 1 1
node 4 2 0 2
node 23 1 0 0
node 62 1 0 0
gene 2 1 4 5.86149 0 1 5.86149 1
gene 1 2 4 -4.33959 0 2 -4.33959 1
gene 1 3 4 -4.03686 0 3 -4.03686 0
gene 3 2 23 -3.13897 0 40 -3.13897 1
gene 3 23 4 -0.921067 0 41 -0.921067 1
gene 1 1 23 -3.74212 0 78 -3.74212 1
gene 2 3 23 -1.40266 0 130 -1.40266 0
gene 2 3 62 0.157135 0 139 0.157135 1
gene 2 62 23 -1.13094 0 140 -1.13094 1
gene 1 62 4 5.69326 0 152 5.69326 1
gene 1 2 62 -3.40927 0 166 -3.40927 1
gene 3 1 62 3.32137 0 184 3.32137 1
genomeend 26

/* Organism #27 Fitness: 9 Error: 1 */
genomestart 27
trait 1 0.1 0 0.033849 0.11463 0.0123676 0 0 0.0127597 
trait 2 0.143989 0.510211 0.396842 0.0101402 0.864983 0 0.382566 0.394902 
trait 3 0.286753 0 0 0 0.108868 0 0.0464483 0.00501003 
node 1 3 1 3
node 2 3 1 1
node 3 3 1 1
node 4 2 0 2
node 23 1 0 0
node 62 1 0 0
gene 2 1 4 5.87733 0 1 5.87733 1
gene 1 2 4 -1.81363 0 2 -1.81363 1
gene 1 3 4 -0.476336 0 3 -0.476336 1
gene 3 2 23 0.143903 0 40 0.143903 1
gene 3 23 4 0.656039 0 41 0.656039 1
gene 1 1 23 -0.437957 0 78 -0.437957 1
gene 2 3 23 -0.473577 0 130 -0.473577 0
gene 2 3 62 -3.04936 0 139 -3.04936 1
gene 2 62 23 0.842055 0 140 0.842055 1
gene 1 62 4 7.75772 0 152 7.75772 1
gene 1 2 62 -4.04892 0 166 -4.04892 1
gene 3 1 62 1.83403 0 184 1.83403 1
genomeend 27

/* Organism #28 Fitness: 9 Error: 1 */
genomestart 28
trait 1 0.1 0.0540886 0.033849 0.0622569 0.0123676 0.0104437 0 0.0127597 
trait 2 0.143989 0.510211 0.396842 0.0101402 0.864983 0 0.382566 0.394902 
trait 3 0.286753 0 0 0 0.108868 0 0.0464483 0.00501003 
node 1 3 1 3
node 2 3 1 1
node 3 3 1 1
node 4 2 0 2
node 23 1 0 0
node 62 1 0 0
gene 2 1 4 4.04206 0 1 4.04206 1
gene 1 2 4 -1.82517 0 2 -1.82517 1
gene 1 3 4 -4.77031 0 3 -4.77031 0
gene 3 2 23 -1.71236 0 40 -1.71236 1
gene 3 23 4 -7.1262 0 41 -7.1262 1
gene 1 1 23 -3.42713 0 78 -3.42713 1
gene 2 3 23 -0.527002 0 130 -0.527002 0
gene 2 3 62 -3.34565 0 139 -3.34565 1
gene 2 62 23 1.67088 0 140 1.67088 1
gene 1 62 4 -2.355 0 152 -2.355 1
gene 1 2 62 -2.75753 0 166 -2.75753 1
gene 3 1 62 -0.992785 0 184 -0.992785 1
genomeend 28

/* Organism #29 Fitness: 9.05585 Error: 0.990706 */
genomestart 29
trait 1 0.1 0.0540886 0.033849 0.0622569 0.0123676 0.0104437 0 0.0127597 
trait 2 0.143989 0.549203 0.396842 0.0101402 1 0 0.382566 0.394902 
trait 3 0.286753 0 0 0 0.144672 0 0.0464483 0.00501003 
node 1 3 1 3
node 2 3 1 1
node 3 3 1 1
node 4 2 0 2
node 23 1 0 0
node 62 1 0 0
gene 2 1 4 4.42449 0 1 4.42449 1
gene 3 2 4 -5.37405 0 2 -5.37405 1
gene 1 3 4 -5.49545 0 3 -5.49545 1
gene 3 2 23 -0.822261 0 40 -0.822261 1
gene 3 23 4 1.60299 0 41 1.60299 1
gene 1 1 23 -2.75461 0 78 -2.75461 1
gene 2 3 23 -1.35988 0 130 -1.35988 0
gene 2 3 62 -2.49135 0 139 -2.49135 1
gene 2 62 23 2.4453 0 140 2.4453 1
gene 1 62 4 8 0 152 8 1
gene 1 2 62 -6.23589 0 166 -6.23589 1
gene 3 1 62 4.47715 0 184 4.47715 1
genomeend 29

/* Organism #30 Fitness: 16 Error: 5.96697e-13 */
genomestart 30
trait 1 0.1 0.0540886 0.033849 0.0622569 0.0123676 0.0104437 0 0.0127597 
trait 2 0.143989 0.549203 0.396842 0.0101402 1 0 0.382566 0.394902 
trait 3 0.286753 0 0 0 0.144672 0 0.0464483 0.00501003 
node 1 3 1 3
node 2 3 1 1
node 3 3 1 1
node 4 2 0 2
node 23 1 0 0
node 62 1 0 0
gene 2 1 4 6.32697 0 1 6.32697 1
gene 3 2 4 -6.80483 0 2 -6.80483 1
gene 1 3 4 -5.3647 0 3 -5.3647 1
gene 3 2 23 -4.60428 0 40 -4.60428 1
gene 3 23 4 2.51805 0 41 2.51805 1
gene 1 1 23 -5.42379 0 78 -5.42379 1
gene 2 3 23 3.39995 0 130 3.39995 0
gene 2 3 62 -5.10077 0 139 -5.10077 1
gene 2 62 23 0.36679 0 140 0.36679 1
gene 1 62 4 6.35584 0 152 6.35584 1
gene 1 2 62 -4.04892 0 166 -4.04892 1
gene 3 1 62 5.57852 0 184 5.57852 1
genomeend 30

/* Organism #31 Fitness: 16 Error: 7.45427e-15 */
genomestart 31
trait 1 0.1 0.0540886 0.033849 0.0622569 0.0123676 0.0104437 0 0.0127597 
trait 2 0.143989 0.549203 0.396842 0.0101402 1 0 0.382566 0.394902 
trait 3 0.286753 0 0 0 0.144672 0 0.0464483 0.00501003 
node 1 3 1 3
node 2 3 1 1
node 3 3 1 1
node 4 2 0 2
node 23 1 0 0
node 62 1 0 0
node 165 1 0 0
gene 2 1 4 5.87733 0 1 5.87733 1
gene 3 2 4 -6.9649 0 2 -6.9649 1
gene 1 3 4 -6.34847 0 3 -6.34847 1
gene 3 2 23 -2.43506 0 40 -2.43506 1
gene 3 23 4 0.204918 0 41 0.204918 1
gene 1 1 23 -2.9345 0 78 -2.9345 1
gene 2 3 23 1.01423 0 130 1.01423 0
gene 2 3 62 -2.62963 0 139 -2.62963 1
gene 2 62 23 1.92351 0 140 1.92351 0
gene 1 62 4 7.75772 0 152 7.75772 1
gene 1 2 62 -4.04892 0 166 -4.04892 1
gene 3 1 62 5.05958 0 184 5.05958 1
gene 2 62 165 1 0 489 0 1
gene 2 165 23 1.92351 0 490 0 1
genomeend 31

/* Organism #32 Fitness: 4.00037 Error: 1.99991 */
genomestart 32
trait 1 0.1 0.0540886 0.033849 0.0622569 0.0123676 0.0104437 0 0.0127597 
trait 2 0.143989 0.549203 0.396842 0.0101402 1 0 0.382566 0.394902 
trait 3 0.286753 0 0 0 0.144672 0 0.0464483 0.00501003 
node 1 3 1 3
node 2 3 1 1
node 3 3 1 1
node 4 2 0 2
node 23 1 0 0
node 62 1 0 0
gene 2 1 4 5.87733 0 1 5.87733 1
gene 3 2 4 -8 0 2 -8 1
gene 1 3 4 -7.84046 0 3 -7.84046 1
gene 3 2 23 -1.2848 0 40 -1.2848 1
gene 3 23 4 -1.63466 0 41 -1.63466 1
gene 1 1 23 -2.06141 0 78 -2.06141 1
gene 2 3 23 -0.366437 0 130 -0.366437 0
gene 2 3 62 -2.62963 0 139 -2.62963 1
gene 2 62 23 1.54276 0 140 1.54276 1
gene 1 62 4 0.213413 0 152 0.213413 1
gene 1 2 62 -5.56124 0 166 -5.56124 1
gene 3 1 62 0.365822 0 184 0.365822 1
genomeend 32

/* Species #12 : (Size 7) (AF 14.8728) (Age 27)  */


/* Organism #33 Fitness: 16 Error: 1.34519e-06 */
genomestart 33
trait 1 0.311131 0.0446231 0.167149 0 0.153012 0 0 0.0312623 
trait 2 1 0 0.0430417 0.00887263 0.0918419 0.856818 0 0.46423 
trait 3 0.290573 0 0.00143787 0 0.00360311 0.00287801 0.0334238 0.00360096 
node 1 3 1 3
node 2 3 1 1
node 3 3 1 1
node 4 1 0 2
node 23 3 0 0
node 79 1 0 0
node 84 1 0 0
gene 2 1 4 5.28439 0 1 5.28439 1
gene 3 2 4 -5.8328 0 2 -5.8328 1
gene 1 3 4 -7.89019 0 3 -7.89019 1
gene 3 2 23 4.97498 0 40 4.97498 1
gene 3 23 4 3.66169 0 41 3.66169 0
gene 2 3 23 -0.476039 0 44 -0.476039 1
gene 3 1 23 2.34344 0 106 2.34344 1
gene 3 23 79 -1.50324 0 200 -1.50324 1
gene 3 79 4 -0.20548 0 201 -0.20548 1
gene 3 23 84 2.25623 0 215 2.25623 1
gene 3 84 4 5.40862 0 216 5.40862 1
gene 2 3 84 0.203212 0 293 0.203212 1
gene 3 2 84 1.66457 0 318 1.66457 1
gene 1 84 79 -0.539349 0 445 -0.539349 1
genomeend 33

/* Organism #34 Fitness: 15.9825 Error: 0.00218891 */
genomestart 34
trait 1 0.311131 0.0446231 0.167149 0 0.153012 0 0 0.0312623 
trait 2 1 0 0.0430417 0.00887263 0.0918419 0.856818 0 0.46423 
trait 3 0.290573 0 0.00143787 0 0.00360311 0.00287801 0.0334238 0.00360096 
node 1 3 1 3
node 2 3 1 1
node 3 3 1 1
node 4 1 0 2
node 23 3 0 0
node 79 1 0 0
node 84 1 0 0
gene 2 1 4 4.57595 0 1 4.57595 1
gene 3 2 4 -5.9562 0 2 -5.9562 1
gene 1 3 4 -8 0 3 -8 1
gene 3 2 23 6.89373 0 40 6.89373 1
gene 3 23 4 5.3452 0 41 5.3452 0
gene 2 3 23 -0.949706 0 44 -0.949706 1
gene 3 1 23 1.58912 0 106 1.58912 1
gene 3 23 79 0.709119 0 200 0.709119 1
gene 3 79 4 0.793015 0 201 0.793015 1
gene 3 23 84 3.15987 0 215 3.15987 1
gene 3 84 4 7.34398 0 216 7.34398 1
gene 2 3 84 2.86239 0 293 2.86239 1
gene 3 2 84 1.66457 0 318 1.66457 1
gene 1 84 79 2.36254 0 445 2.36254 1
genomeend 34

/* Organism #35 Fitness: 15.3678 Error: 0.0798239 */
genomestart 35
trait 1 0.311131 0.0446231 0.167149 0 0.153012 0 0 0.0312623 
trait 2 1 0 0.0430417 0.00887263 0.0918419 0.856818 0 0.46423 
trait 3 0.290573 0 0.00143787 0 0.00360311 0.00287801 0.0334238 0.00360096 
node 1 3 1 3
node 2 3 1 1
node 3 3 1 1
node 4 1 0 2
node 23 3 0 0
node 79 1 0 0
node 84 1 0 0
gene 2 1 4 6.55135 0 1 6.55135 1
gene 3 2 4 -4.61616 0 2 -4.61616 1
gene 1 3 4 -7.28027 0 3 -7.28027 1
gene 3 2 23 3.06446 0 40 3.06446 1
gene 3 23 4 1.72578 0 41 1.72578 0
gene 2 3 23 -1.72148 0 44 -1.72148 1
gene 3 1 23 1.40673 0 106 1.40673 1
gene 3 23 79 0.801163 0 200 0.801163 1
gene 3 79 4 2.0447 0 201 2.0447 1
gene 3 23 84 1.36058 0 215 1.36058 1
gene 3 84 4 3.43803 0 216 3.43803 1
gene 2 3 84 -1.50376 0 293 -1.50376 1
gene 3 2 84 0.521682 0 318 0.521682 1
gene 1 84 79 -0.539349 0 445 -0.539349 1
genomeend 35

/* Organism #36 Fitness: 16 Error: 2.64155e-06 */
genomestart 36
trait 1 0.311131 0.0446231 0.167149 0 0.153012 0 0 0.0312623 
trait 2 1 0 0.0430417 0.00887263 0.0918419 0.856818 0 0.46423 
trait 3 0.290573 0 0.00143787 0 0.00360311 0.00287801 0.0334238 0.00360096 
node 1 1 1 3
node 2 3 1 1
node 3 3 1 1
node 4 1 0 2
node 23 3 0 0
node 79 1 0 0
node 84 1 0 0
gene 2 1 4 6.70388 0 1 6.70388 1
gene 3 2 4 -6.37048 0 2 -6.37048 1
gene 1 3 4 -8 0 3 -8 1
gene 3 2 23 4.98671 0 40 4.98671 1
gene 3 23 4 2.55321 0 41 2.55321 0
gene 2 3 23 0.165999 0 44 0.165999 1
gene 3 1 23 0.987214 0 106 0.987214 1
gene 3 23 79 -1.87995 0 200 -1.87995 1
gene 3 79 4 0.941673 0 201 0.941673 1
gene 3 23 84 2.33963 0 215 2.33963 1
gene 3 84 4 3.04631 0 216 3.04631 1
gene 2 3 84 2.03052 0 293 2.03052 1
gene 3 2 84 3.06669 0 318 3.06669 1
gene 1 84 79 -0.539349 0 445 -0.539349 1
gene 3 3 79 2.9006 0 475 2.9006 1
genomeend 36

/* Organism #37 Fitness: 15.7695 Error: 0.0289138 */
genomestart 37
trait 1 0.311131 0.0446231 0.167149 0 0.153012 0 0 0.0312623 
trait 2 1 0 0.0430417 0.00887263 0.0918419 0.856818 0 0.46423 
trait 3 0.290573 0 0.00143787 0 0.00360311 0.00287801 0.0334238 0.00360096 
node 1 1 1 3
node 2 3 1 1
node 3 3 1 1
node 4 1 0 2
node 23 3 0 0
node 79 1 0 0
node 84 1 0 0
gene 2 1 4 7.26656 0 1 7.26656 1
gene 3 2 4 -5.85221 0 2 -5.85221 1
gene 1 3 4 -8 0 3 -8 1
gene 3 2 23 4.18467 0 40 4.18467 1
gene 3 23 4 5.16167 0 41 5.16167 0
gene 2 3 23 -4.24323 0 44 -4.24323 1
gene 3 1 23 -1.72732 0 106 -1.72732 1
gene 3 23 79 1.56256 0 200 1.56256 1
gene 3 79 4 2.95403 0 201 2.95403 1
gene 3 23 84 3.33552 0 215 3.33552 1
gene 3 84 4 1.50651 0 216 1.50651 1
gene 2 3 84 0.647902 0 293 0.647902 1
gene 3 2 84 1.17591 0 318 1.17591 1
gene 1 84 79 -1.64263 0 445 -1.64263 1
gene 3 3 79 -0.490129 0 475 -0.490129 1
genomeend 37

/* Organism #38 Fitness: 15.9822 Error: 0.0022229 */
genomestart 38
trait 1 0.311131 0.0446231 0.167149 0 0.153012 0 0 0.0312623 
trait 2 1 0 0.0430417 0.00887263 0.0918419 0.856818 0 0.46423 
trait 3 0.290573 0 0.00143787 0 0.00360311 0.00287801 0.0334238 0.00360096 
node 1 1 1 3
node 2 3 1 1
node 3 3 1 1
node 4 1 0 2
node 23 3 0 0
node 79 1 0 0
node 84 1 0 0
gene 2 1 4 5.16669 0 1 5.16669 1
gene 3 2 4 -3.39306 0 2 -3.39306 1
gene 1 3 4 -5.57206 0 3 -5.57206 1
gene 3 2 23 4.65333 0 40 4.65333 1
gene 3 23 4 1.92565 0 41 1.92565 0
gene 2 3 23 -2.71548 0 44 -2.71548 1
gene 3 1 23 2.89 0 106 2.89 1
gene 3 23 79 -0.680828 0 200 -0.680828 1
gene 3 79 4 -1.79806 0 201 -1.79806 1
gene 3 23 84 1.04376 0 215 1.04376 1
gene 3 84 4 1.93968 0 216 1.93968 1
gene 2 3 84 -0.368907 0 293 -0.368907 1
gene 3 2 84 3.97273 0 318 3.97273 1
gene 1 84 79 -0.728746 0 445 -0.728746 1
genomeend 38

/* Organism #39 Fitness: 9.00777 Error: 0.998706 */
genomestart 39
trait 1 0.311131 0.0446231 0.167149 0 0.153012 0 0 0.0312623 
trait 2 1 0 0.0430417 0.00887263 0.0918419 0.856818 0 0.46423 
trait 3 0.290573 0 0.00143787 0 0.00360311 0.00287801 0.0334238 0.00360096 
node 1 3 1 3
node 2 3 1 1
node 3 3 1 1
node 4 1 0 2
node 23 3 0 0
node 79 1 0 0
node 84 1 0 0
gene 2 1 4 5.43105 0 1 5.43105 1
gene 3 2 4 -4.47366 0 2 -4.47366 1
gene 1 3 4 -7.89019 0 3 -7.89019 1
gene 3 2 23 6.6458 0 40 6.6458 1
gene 3 23 4 2.65597 0 41 2.65597 0
gene 2 3 23 -0.425069 0 44 -0.425069 1
gene 3 1 23 2.34344 0 106 2.34344 1
gene 3 23 79 -3.2521 0 200 -3.2521 1
gene 3 79 4 1.75795 0 201 1.75795 1
gene 3 23 84 1.82018 0 215 1.82018 1
gene 3 84 4 5.90988 0 216 5.90988 1
gene 2 3 84 -2.09878 0 293 -2.09878 1
gene 3 2 84 0.781693 0 318 0.781693 1
gene 1 84 79 -1.83732 0 445 -1.83732 1
genomeend 39

/* Species #14 : (Size 7) (AF 12.7769) (Age 27)  */


/* Organism #40 Fitness: 16 Error: 1.43662e-08 */
genomestart 40
trait 1 0.1 0.0576945 0 0 0 0 0 0.0136104 
trait 2 0.2 0 0.0399766 0.0107079 0.314222 0 0 0.0346538 
trait 3 0.263249 0 0.023181 0 0.281361 0 0.0426411 0.00501003 
node 1 3 1 3
node 2 3 1 1
node 3 3 1 1
node 4 1 0 2
node 23 1 0 0
node 55 1 0 0
node 87 1 0 0
node 145 1 0 0
gene 2 1 4 7.93369 0 1 7.93369 1
gene 3 2 4 -7.50163 0 2 -7.50163 1
gene 1 3 4 -8 0 3 -8 1
gene 3 2 23 -4.12549 0 40 -4.12549 1
gene 3 23 4 -7.23702 0 41 -7.23702 1
gene 1 3 23 -1.82937 0 44 -1.82937 1
gene 1 3 55 -0.151332 0 117 -0.151332 1
gene 1 55 4 4.74857 0 118 4.74857 1
gene 2 1 55 0.11006 0 143 0.11006 1
gene 3 2 55 -0.731466 0 208 -0.731466 1
gene 2 3 87 1.23692 0 224 1.23692 1
gene 2 87 23 -3.3504 0 225 -3.3504 1
gene 1 55 87 2.18123 0 319 2.18123 1
gene 3 87 4 2.56931 0 326 2.56931 1
gene 1 55 145 -0.642928 0 427 -0.642928 1
gene 1 145 4 2.53119 0 428 2.53119 1
gene 2 1 87 1.65277 0 438 1.65277 1
genomeend 40

/* Organism #41 Fitness: 15.3999 Error: 0.0757271 */
genomestart 41
trait 1 0.1 0.0576945 0 0 0 0 0 0.0136104 
trait 2 0.2 0 0.0399766 0.0107079 0.314222 0 0 0.0346538 
trait 3 0.263249 0 0.023181 0 0.281361 0 0.0426411 0.00501003 
node 1 3 1 3
node 2 3 1 1
node 3 3 1 1
node 4 1 0 2
node 23 1 0 0
node 55 1 0 0
node 87 1 0 0
node 145 1 0 0
gene 2 1 4 5.59054 0 1 5.59054 1
gene 3 2 4 -6.58156 0 2 -6.58156 1
gene 1 3 4 -8 0 3 -8 1
gene 3 2 23 -3.34596 0 40 -3.34596 1
gene 3 23 4 -7.80838 0 41 -7.80838 1
gene 1 3 23 -2.44538 0 44 -2.44538 1
gene 1 3 55 1.16547 0 117 1.16547 1
gene 1 55 4 2.26571 0 118 2.26571 1
gene 2 1 55 -0.791303 0 143 -0.791303 1
gene 3 2 55 -1.13955 0 208 -1.13955 1
gene 2 3 87 1.06542 0 224 1.06542 1
gene 2 87 23 -4.6999 0 225 -4.6999 1
gene 1 55 87 4.0633 0 319 4.0633 1
gene 3 87 4 0.524485 0 326 0.524485 1
gene 1 55 145 0.218696 0 427 0.218696 1
gene 1 145 4 1.95296 0 428 1.95296 1
gene 2 1 87 3.51466 0 438 3.51466 1
genomeend 41

/* Organism #42 Fitness: 16 Error: 1.2157e-06 */
genomestart 42
trait 1 0.1 0.0576945 0 0 0 0 0 0.0136104 
trait 2 0.2 0 0.0399766 0.0107079 0.314222 0 0 0.0346538 
trait 3 0.263249 0 0.023181 0 0.281361 0 0.0426411 0.00501003 
node 1 3 1 3
node 2 3 1 1
node 3 3 1 1
node 4 1 0 2
node 23 1 0 0
node 55 1 0 0
node 87 1 0 0
node 145 1 0 0
gene 2 1 4 6.4765 0 1 6.4765 1
gene 3 2 4 -5.6199 0 2 -5.6199 1
gene 1 3 4 -8 0 3 -8 1
gene 3 2 23 -5.65033 0 40 -5.65033 1
gene 3 23 4 -0.707285 0 41 -0.707285 1
gene 1 3 23 -3.68541 0 44 -3.68541 1
gene 1 3 55 -0.0496205 0 117 -0.0496205 1
gene 1 55 4 3.14374 0 118 3.14374 1
gene 2 1 55 1.23826 0 143 1.23826 1
gene 3 2 55 -0.731466 0 208 -0.731466 1
gene 2 3 87 -0.922805 0 224 -0.922805 1
gene 2 87 23 -5.77519 0 225 -5.77519 1
gene 1 55 87 4.25996 0 319 4.25996 1
gene 3 87 4 1.48973 0 326 1.48973 1
gene 1 55 145 -1.99566 0 427 -1.99566 1
gene 1 145 4 0.822162 0 428 0.822162 1
gene 2 1 87 1.435 0 438 1.435 1
genomeend 42

/* Organism #43 Fitness: 1.04091 Error: 2.97975 */
genomestart 43
trait 1 0.1 0.0576945 0 0 0 0 0 0.0136104 
trait 2 0.2 0 0.0399766 0.0107079 0.314222 0 0 0.0346538 
trait 3 0.263249 0 0.023181 0 0.281361 0 0.0426411 0.00501003 
node 1 3 1 3
node 2 3 1 1
node 3 3 1 1
node 4 1 0 2
node 23 1 0 0
node 55 1 0 0
node 87 1 0 0
node 145 1 0 0
gene 2 1 4 0.408098 0 1 0.408098 1
gene 3 2 4 -8 0 2 -8 1
gene 1 3 4 -8 0 3 -8 1
gene 3 2 23 -5.49464 0 40 -5.49464 1
gene 3 23 4 -5.36393 0 41 -5.36393 1
gene 1 3 23 -4.08607 0 44 -4.08607 0
gene 1 3 55 -2.06698 0 117 -2.06698 1
gene 1 55 4 3.56217 0 118 3.56217 0
gene 2 1 55 0.0433904 0 143 0.0433904 1
gene 3 2 55 0.11218 0 208 0.11218 1
gene 2 3 87 0.300987 0 224 0.300987 1
gene 2 87 23 -4.71802 0 225 -4.71802 1
gene 1 55 87 1.69593 0 319 1.69593 1
gene 3 87 4 -1.19781 0 326 -1.19781 1
gene 1 55 145 -2.42078 0 427 -2.42078 1
gene 1 145 4 1.42992 0 428 1.42992 1
gene 2 1 87 2.58124 0 438 2.58124 1
genomeend 43

/* Organism #44 Fitness: 16 Error: 1.43662e-08 */
genomestart 44
trait 1 0.1 0.0576945 0 0 0 0 0 0.0136104 
trait 2 0.2 0 0.0399766 0.0107079 0.314222 0 0 0.0346538 
trait 3 0.263249 0 0.023181 0 0.281361 0 0.0426411 0.00501003 
node 1 3 1 3
node 2 3 1 1
node 3 3 1 1
node 4 1 0 2
node 23 1 0 0
node 55 1 0 0
node 87 1 0 0
node 145 1 0 0
gene 2 1 4 7.93369 0 1 7.93369 1
gene 3 2 4 -7.50163 0 2 -7.50163 1
gene 1 3 4 -8 0 3 -8 1
gene 3 2 23 -4.12549 0 40 -4.12549 1
gene 3 23 4 -7.23702 0 41 -7.23702 1
gene 1 3 23 -1.82937 0 44 -1.82937 1
gene 1 3 55 -0.151332 0 117 -0.151332 1
gene 1 55 4 4.74857 0 118 4.74857 1
gene 2 1 55 0.11006 0 143 0.11006 1
gene 3 2 55 -0.731466 0 208 -0.731466 1
gene 2 3 87 1.23692 0 224 1.23692 1
gene 2 87 23 -3.3504 0 225 -3.3504 1
gene 1 55 87 2.18123 0 319 2.18123 1
gene 3 87 4 2.56931 0 326 2.56931 1
gene 1 55 145 -0.642928 0 427 -0.642928 1
gene 1 145 4 2.53119 0 428 2.53119 1
gene 2 1 87 1.65277 0 438 1.65277 1
genomeend 44

/* Organism #45 Fitness: 15.9972 Error: 0.000348714 */
genomestart 45
trait 1 0.1 0.0576945 0 0 0 0 0 0.0136104 
trait 2 0.2 0 0.0399766 0.0107079 0.314222 0 0 0.0346538 
trait 3 0.263249 0 0.023181 0 0.281361 0 0.0426411 0.00501003 
node 1 3 1 3
node 2 3 1 1
node 3 3 1 1
node 4 1 0 2
node 23 1 0 0
node 55 1 0 0
node 87 1 0 0
node 145 1 0 0
gene 2 1 4 8 0 1 8 1
gene 3 2 4 -4.3591 0 2 -4.3591 1
gene 1 3 4 -8 0 3 -8 1
gene 3 2 23 -1.23208 0 40 -1.23208 1
gene 3 23 4 -7.91168 0 41 -7.91168 1
gene 1 3 23 -5.14407 0 44 -5.14407 0
gene 2 3 55 3.51523 0 117 3.51523 1
gene 1 55 4 1.80951 0 118 1.80951 0
gene 2 1 55 0.714765 0 143 0.714765 1
gene 3 2 55 -0.428068 0 208 -0.428068 1
gene 2 3 87 2.05702 0 224 2.05702 1
gene 2 87 23 -0.991248 0 225 -0.991248 1
gene 1 55 87 2.33327 0 319 2.33327 1
gene 3 87 4 1.65897 0 326 1.65897 1
gene 1 55 145 -0.215254 0 427 -0.215254 1
gene 1 145 4 0.0713299 0 428 0.0713299 1
genomeend 45

/* Organism #46 Fitness: 9 Error: 1 */
genomestart 46
trait 1 0.1 0.0576945 0 0 0 0 0 0.0136104 
trait 2 0.2 0 0.0399766 0.0107079 0.314222 0 0 0.0346538 
trait 3 0.263249 0 0.023181 0 0.281361 0 0.0426411 0.00501003 
node 1 3 1 3
node 2 3 1 1
node 3 3 1 1
node 4 1 0 2
node 23 1 0 0
node 55 1 0 0
node 87 1 0 0
node 145 1 0 0
gene 2 1 4 7.93369 0 1 7.93369 1
gene 3 2 4 -0.0352855 0 2 -0.0352855 1
gene 1 3 4 -6.90453 0 3 -6.90453 1
gene 3 2 23 -4.90755 0 40 -4.90755 1
gene 3 23 4 -8 0 41 -8 1
gene 1 3 23 -2.61545 0 44 -2.61545 1
gene 1 3 55 -2.35402 0 117 -2.35402 1
gene 1 55 4 7.21703 0 118 7.21703 1
gene 2 1 55 0.809264 0 143 0.809264 1
gene 3 2 55 -2.83278 0 208 -2.83278 1
gene 2 3 87 -0.306754 0 224 -0.306754 1
gene 2 87 23 -4.02342 0 225 -4.02342 1
gene 1 55 87 2.09227 0 319 2.09227 1
gene 3 87 4 0.736455 0 326 0.736455 1
gene 1 55 145 1.4735 0 427 1.4735 1
gene 1 145 4 3.64645 0 428 3.64645 1
gene 2 1 87 4.08167 0 438 4.08167 1
genomeend 46

/* Species #15 : (Size 7) (AF 10.7247) (Age 26)  */


/* Organism #47 Fitness: 16 Error: 1.13005e-09 */
genomestart 47
trait 1 0.1 0.0576945 0 0 0 0 0 0.0136104 
trait 2 0.593919 0 0.0821528 0.0202803 0.593712 0 0 0.277109 
trait 3 0.263249 0 0.023181 0 0.281361 0 0.0426411 0.00501003 
node 1 3 1 3
node 2 3 1 1
node 3 3 1 1
node 4 1 0 2
node 23 1 0 0
node 55 1 0 0
node 81 1 0 0
node 126 1 0 0
gene 2 1 4 8 0 1 8 1
gene 3 2 4 -8 0 2 -8 1
gene 1 3 4 -7.36631 0 3 -7.36631 1
gene 3 2 23 -1.77683 0 40 -1.77683 1
gene 3 23 4 4.39322 0 41 4.39322 1
gene 2 3 23 -7.36507 0 44 -7.36507 0
gene 1 3 55 3.14275 0 117 3.14275 1
gene 2 55 4 -0.342303 0 118 -0.342303 1
gene 2 1 55 0.041774 0 143 0.041774 1
gene 2 3 81 2.4092 0 206 2.4092 0
gene 2 81 23 3.46381 0 207 3.46381 1
gene 3 1 81 0.0235323 0 226 0.0235323 1
gene 2 3 126 -1.41029 0 356 -1.41029 1
gene 2 126 81 2.20947 0 357 2.20947 1
genomeend 47

/* Organism #48 Fitness: 15.8014 Error: 0.0249029 */
genomestart 48
trait 1 0.1 0.0576945 0 0 0 0 0 0.0136104 
trait 2 0.593919 0 0.0821528 0.0202803 0.593712 0 0 0.277109 
trait 3 0.263249 0 0.023181 0 0.281361 0 0.0426411 0.00501003 
node 1 3 1 3
node 2 3 1 1
node 3 3 1 1
node 4 1 0 2
node 23 1 0 0
node 55 1 0 0
node 81 1 0 0
node 126 1 0 0
gene 2 1 4 8 0 1 8 1
gene 3 2 4 -6.74869 0 2 -6.74869 1
gene 1 3 4 -5.68084 0 3 -5.68084 1
gene 3 2 23 0.0248146 0 40 0.0248146 1
gene 3 23 4 3.68603 0 41 3.68603 1
gene 2 3 23 -8 0 44 -8 0
gene 1 3 55 3.84298 0 117 3.84298 1
gene 3 55 4 0.00427267 0 118 0.00427267 1
gene 2 1 55 0.041774 0 143 0.041774 1
gene 2 3 81 4.44217 0 206 4.44217 0
gene 2 81 23 1.29406 0 207 1.29406 1
gene 3 1 81 1.87892 0 226 1.87892 1
gene 2 3 126 -2.99941 0 356 -2.99941 1
gene 2 126 81 2.20947 0 357 2.20947 1
genomeend 48

/* Organism #49 Fitness: 9 Error: 1 */
genomestart 49
trait 1 0.1 0.0576945 0 0 0 0 0 0.0136104 
trait 2 0.593919 0 0.0821528 0.0202803 0.593712 0 0 0.277109 
trait 3 0.263249 0 0.023181 0 0.281361 0 0.0426411 0.00501003 
node 1 3 1 3
node 2 3 1 1
node 3 3 1 1
node 4 1 0 2
node 23 1 0 0
node 55 1 0 0
node 81 1 0 0
node 126 1 0 0
gene 2 1 4 6.20915 0 1 6.20915 1
gene 3 2 4 -6.10863 0 2 -6.10863 1
gene 1 3 4 1.77651 0 3 1.77651 1
gene 3 2 23 -1.77683 0 40 -1.77683 1
gene 3 23 4 5.00866 0 41 5.00866 1
gene 2 3 23 -8 0 44 -8 0
gene 1 3 55 3.14275 0 117 3.14275 1
gene 2 55 4 -0.342303 0 118 -0.342303 1
gene 2 1 55 -1.82816 0 143 -1.82816 1
gene 2 3 81 0.603369 0 206 0.603369 0
gene 2 81 23 3.11944 0 207 3.11944 1
gene 3 1 81 0.0235323 0 226 0.0235323 1
gene 2 3 126 -2.25464 0 356 -2.25464 1
gene 2 126 81 0.457531 0 357 0.457531 1
genomeend 49

/* Organism #50 Fitness: 15.9998 Error: 2.33398e-05 */
genomestart 50
trait 1 0.1 0.0576945 0 0 0 0 0 0.0136104 
trait 2 0.606128 0 0.0923433 0.0202803 0.593712 0 0 0.317518 
trait 3 0.263249 0 0.023181 0 0.281361 0 0.0426411 0.00501003 
node 1 3 1 3
node 2 3 1 1
node 3 3 1 1
node 4 1 0 2
node 23 1 0 0
node 55 1 0 0
node 81 1 0 0
node 126 1 0 0
gene 2 1 4 6.11524 0 1 6.11524 1
gene 3 2 4 -6.74542 0 2 -6.74542 1
gene 1 3 4 -8 0 3 -8 1
gene 3 2 23 -1.9582 0 40 -1.9582 1
gene 3 23 4 4.39322 0 41 4.39322 1
gene 2 3 23 -3.7088 0 44 -3.7088 0
gene 1 3 55 3.14275 0 117 3.14275 1
gene 2 55 4 -0.342303 0 118 -0.342303 1
gene 2 1 55 0.041774 0 143 0.041774 1
gene 2 3 81 4.07835 0 206 4.07835 0
gene 2 81 23 2.7949 0 207 2.7949 1
gene 3 1 81 1.34974 0 226 1.34974 1
gene 2 3 126 -1.41029 0 356 -1.41029 1
gene 2 126 81 2.20947 0 357 2.20947 1
gene 2 55 81 -0.317637 0 491 -0.317637 1
genomeend 50

/* Organism #51 Fitness: 4.00001 Error: 2 */
genomestart 51
trait 1 0.1 0.0576945 0 0 0 0 0 0.0136104 
trait 2 0.606128 0 0.0923433 0.0202803 0.593712 0 0 0.317518 
trait 3 0.263249 0 0.023181 0 0.281361 0 0.0426411 0.00501003 
node 1 3 1 3
node 2 3 1 1
node 3 3 1 1
node 4 1 0 2
node 23 1 0 0
node 55 1 0 0
node 81 1 0 0
node 126 1 0 0
gene 2 1 4 -2.49323 0 1 -2.49323 1
gene 3 2 4 -8 0 2 -8 1
gene 1 3 4 -7.44928 0 3 -7.44928 1
gene 3 2 23 -0.0936735 0 40 -0.0936735 1
gene 3 23 4 7.33104 0 41 7.33104 1
gene 2 3 23 -5.77751 0 44 -5.77751 0
gene 1 3 55 0.809936 0 117 0.809936 1
gene 2 55 4 0.596165 0 118 0.596165 1
gene 2 1 55 -2.27711 0 143 -2.27711 1
gene 2 3 81 2.91236 0 206 2.91236 1
gene 2 81 23 5.11855 0 207 5.11855 1
gene 3 1 81 2.63446 0 226 2.63446 1
gene 2 3 126 0.38006 0 356 0.38006 1
gene 2 126 81 2.32449 0 357 2.32449 1
genomeend 51

/* Organism #52 Fitness: 4.23932 Error: 1.94104 */
genomestart 52
trait 1 0.1 0.0576945 0 0 0 0 0 0.0136104 
trait 2 0.618337 0 0.102534 0.0202803 0.593712 0 0 0.357927 
trait 3 0.263249 0 0.023181 0 0.281361 0 0.0426411 0.00501003 
node 1 3 1 3
node 2 3 1 1
node 3 3 1 1
node 4 1 0 2
node 23 1 0 0
node 55 1 0 0
node 81 1 0 0
node 126 1 0 0
gene 2 1 4 7.61746 0 1 7.61746 1
gene 3 2 4 -7.49744 0 2 -7.49744 1
gene 1 3 4 -8 0 3 -8 1
gene 3 2 23 -2.49876 0 40 -2.49876 1
gene 3 23 4 -0.513053 0 41 -0.513053 1
gene 2 3 23 -2.46569 0 44 -2.46569 1
gene 1 3 55 2.03515 0 117 2.03515 1
gene 2 55 4 -0.463284 0 118 -0.463284 1
gene 2 1 55 0.545655 0 143 0.545655 1
gene 2 3 81 4.021 0 206 4.021 0
gene 2 81 23 2.62661 0 207 2.62661 1
gene 3 1 81 -1.03005 0 226 -1.03005 1
gene 2 3 126 -0.741761 0 356 -0.741761 1
gene 2 126 81 3.7872 0 357 3.7872 1
genomeend 52

/* Organism #53 Fitness: 10.032 Error: 0.832663 */
genomestart 53
trait 1 0.1 0.0576945 0 0 0 0 0 0.0136104 
trait 2 0.593919 0 0.0821528 0.0202803 0.593712 0 0 0.277109 
trait 3 0.263249 0 0.023181 0 0.281361 0 0.0426411 0.00501003 
node 1 3 1 3
node 2 3 1 1
node 3 3 1 1
node 4 1 0 2
node 23 1 0 0
node 55 1 0 0
node 81 1 0 0
node 126 1 0 0
gene 2 1 4 8 0 1 8 1
gene 3 2 4 -7.01754 0 2 -7.01754 1
gene 1 3 4 -8 0 3 -8 1
gene 3 2 23 -4.0301 0 40 -4.0301 1
gene 3 23 4 4.16588 0 41 4.16588 1
gene 2 3 23 -7.75361 0 44 -7.75361 0
gene 1 3 55 4.94315 0 117 4.94315 1
gene 2 55 4 -2.38727 0 118 -2.38727 1
gene 2 1 55 -0.566221 0 143 -0.566221 1
gene 2 3 81 1.9425 0 206 1.9425 0
gene 2 81 23 5.86423 0 207 5.86423 1
gene 3 1 81 -2.46116 0 226 -2.46116 1
gene 2 3 126 -1.19826 0 356 -1.19826 1
gene 2 126 81 1.09101 0 357 1.09101 1
genomeend 53

/* Species #16 : (Size 7) (AF 13.3205) (Age 25)  */


/* Organism #54 Fitness: 15.9999 Error: 1.0054e-05 */
genomestart 54
trait 1 0.1 0.0576945 0.110738 0 0 0 0 0.428254 
trait 2 0.2 0 0.0210098 0.0202803 0.0336948 0.132647 0 0.0346538 
trait 3 0 0 0.379153 0 0.0764277 0 0.0313885 0.252965 
node 1 3 1 3
node 2 3 1 1
node 3 3 1 1
node 4 1 0 2
node 23 1 0 0
node 37 1 0 0
node 123 1 0 0
gene 2 1 4 6.43871 0 1 6.43871 1
gene 3 2 4 1.55944 0 2 1.55944 0
gene 1 3 4 -5.95426 0 3 -5.95426 1
gene 3 2 23 8 0 40 8 1
gene 3 23 4 -2.8222 0 41 -2.8222 1
gene 1 3 37 1.8182 0 74 1.8182 1
gene 1 37 4 6.10421 0 75 6.10421 1
gene 1 3 23 -5.83524 0 169 -5.83524 1
gene 2 1 23 1.48766 0 220 1.48766 1
gene 1 2 37 -3.73461 0 235 -3.73461 1
gene 3 37 23 -2.98756 0 299 -2.98756 1
gene 3 37 123 0.186954 0 342 0.186954 1
gene 3 123 23 -1.80385 0 343 -1.80385 1
gene 1 2 123 -0.391886 0 450 -0.391886 1
genomeend 54

/* Organism #55 Fitness: 15.9999 Error: 1.0054e-05 */
genomestart 55
trait 1 0.1 0.0576945 0.110738 0 0 0 0 0.428254 
trait 2 0.2 0 0.0210098 0.0202803 0.0336948 0.132647 0 0.0346538 
trait 3 0 0 0.379153 0 0.0764277 0 0.0313885 0.252965 
node 1 3 1 3
node 2 3 1 1
node 3 3 1 1
node 4 3 0 2
node 23 1 0 0
node 37 1 0 0
node 123 1 0 0
gene 2 1 4 6.43871 0 1 6.43871 1
gene 3 2 4 1.55944 0 2 1.55944 0
gene 1 3 4 -5.95426 0 3 -5.95426 1
gene 3 2 23 8 0 40 8 1
gene 3 23 4 -2.8222 0 41 -2.8222 1
gene 1 3 37 1.8182 0 74 1.8182 1
gene 1 37 4 6.10421 0 75 6.10421 1
gene 1 3 23 -5.83524 0 169 -5.83524 1
gene 2 1 23 1.48766 0 220 1.48766 1
gene 1 2 37 -3.73461 0 235 -3.73461 1
gene 3 37 23 -2.98756 0 299 -2.98756 1
gene 3 37 123 0.186954 0 342 0.186954 1
gene 3 123 23 -1.80385 0 343 -1.80385 1
gene 1 2 123 -0.391886 0 450 -0.391886 1
genomeend 55

/* Organism #56 Fitness: 11.244 Error: 0.646787 */
genomestart 56
trait 1 0.1 0.0576945 0.110738 0 0 0 0 0.428254 
trait 2 0.2 0 0.0210098 0.0202803 0.0336948 0.132647 0 0.0346538 
trait 3 0 0 0.379153 0 0.0764277 0 0.0313885 0.252965 
node 1 3 1 3
node 2 3 1 1
node 3 3 1 1
node 4 1 0 2
node 23 1 0 0
node 37 1 0 0
node 123 1 0 0
gene 2 1 4 4.20813 0 1 4.20813 1
gene 3 2 4 1.29751 0 2 1.29751 0
gene 1 3 4 -4.99996 0 3 -4.99996 1
gene 3 2 23 8 0 40 8 1
gene 3 23 4 -4.33098 0 41 -4.33098 1
gene 1 3 37 1.09887 0 74 1.09887 1
gene 1 37 4 5.37454 0 75 5.37454 1
gene 1 3 23 -7.96909 0 169 -7.96909 1
gene 2 1 23 3.40149 0 220 3.40149 1
gene 1 2 37 -4.47866 0 235 -4.47866 1
gene 3 37 23 -3.34544 0 299 -3.34544 1
gene 3 37 123 0.389581 0 342 0.389581 1
gene 3 123 23 -1.80385 0 343 -1.80385 1
gene 1 2 123 2.12896 0 450 2.12896 1
genomeend 56

/* Organism #57 Fitness: 15.9353 Error: 0.00809041 */
genomestart 57
trait 1 0.1 0.0576945 0.110738 0 0 0 0 0.428254 
trait 2 0.2 0 0.0210098 0.0202803 0.0336948 0.132647 0 0.0346538 
trait 3 0 0 0.379153 0 0.0764277 0 0.0313885 0.252965 
node 1 3 1 3
node 2 3 1 1
node 3 3 1 1
node 4 1 0 2
node 23 1 0 0
node 37 1 0 0
node 123 1 0 0
gene 2 1 4 6.98692 0 1 6.98692 1
gene 3 2 4 2.07161 0 2 2.07161 0
gene 1 3 4 -6.62066 0 3 -6.62066 1
gene 3 2 23 8 0 40 8 1
gene 3 23 4 -1.34446 0 41 -1.34446 1
gene 1 3 37 4.15 0 74 4.15 1
gene 1 37 4 7.05343 0 75 7.05343 1
gene 1 3 23 -4.85372 0 169 -4.85372 1
gene 2 1 23 0.598754 0 220 0.598754 1
gene 1 2 37 -5.85206 0 235 -5.85206 1
gene 3 37 23 -2.64595 0 299 -2.64595 1
gene 3 37 123 -0.362896 0 342 -0.362896 1
gene 3 123 23 -1.80385 0 343 -1.80385 1
gene 1 2 123 -0.391886 0 450 -0.391886 1
genomeend 57

/* Organism #58 Fitness: 9.03229 Error: 0.994623 */
genomestart 58
trait 1 0.1 0.0576945 0.110738 0 0 0 0 0.428254 
trait 2 0.2 0 0.0210098 0.0202803 0.0336948 0.132647 0 0.0346538 
trait 3 0 0 0.379153 0 0.0764277 0 0.0313885 0.252965 
node 1 3 1 3
node 2 3 1 1
node 3 3 1 1
node 4 1 0 2
node 23 1 0 0
node 37 1 0 0
node 123 1 0 0
gene 2 1 4 7.90244 0 1 7.90244 1
gene 3 2 4 -1.58446 0 2 -1.58446 0
gene 1 3 4 -6.78147 0 3 -6.78147 1
gene 3 2 23 8 0 40 8 1
gene 3 23 4 -0.330615 0 41 -0.330615 1
gene 1 3 37 -0.886715 0 74 -0.886715 1
gene 1 37 4 5.13562 0 75 5.13562 1
gene 1 3 23 -1.60031 0 169 -1.60031 1
gene 2 1 23 3.24729 0 220 3.24729 1
gene 1 2 37 -3.74493 0 235 -3.74493 1
gene 1 37 23 -5.19237 0 299 -5.19237 1
gene 3 37 123 0.186954 0 342 0.186954 1
gene 3 123 23 -0.33964 0 343 -0.33964 1
gene 1 2 123 0.648493 0 450 0.648493 1
genomeend 58

/* Organism #59 Fitness: 15.9999 Error: 1.05125e-05 */
genomestart 59
trait 1 0.1 0.0576945 0.110738 0 0 0 0 0.428254 
trait 2 0.2 0 0.0210098 0.0202803 0.0336948 0.132647 0 0.0346538 
trait 3 0 0 0.379153 0 0.0764277 0 0.0313885 0.252965 
node 1 3 1 3
node 2 3 1 1
node 3 3 1 1
node 4 1 0 2
node 23 1 0 0
node 37 1 0 0
node 123 1 0 0
node 166 1 0 0
gene 2 1 4 6.43871 0 1 6.43871 1
gene 3 2 4 1.55944 0 2 1.55944 0
gene 1 3 4 -5.95426 0 3 -5.95426 1
gene 3 2 23 8 0 40 8 1
gene 3 23 4 -2.8222 0 41 -2.8222 1
gene 1 3 37 1.8182 0 74 1.8182 1
gene 1 37 4 6.10421 0 75 6.10421 1
gene 1 3 23 -5.83524 0 169 -5.83524 1
gene 2 1 23 1.48766 0 220 1.48766 1
gene 1 2 37 -3.73461 0 235 -3.73461 0
gene 3 37 23 -2.98756 0 299 -2.98756 1
gene 3 37 123 0.186954 0 342 0.186954 1
gene 3 123 23 -1.80385 0 343 -1.80385 1
gene 1 2 123 -0.391886 0 450 -0.391886 1
gene 1 2 166 1 0 492 0 1
gene 1 166 37 -3.73461 0 493 0 1
genomeend 59

/* Organism #60 Fitness: 9.03195 Error: 0.99468 */
genomestart 60
trait 1 0.1 0 0.272895 0 0 0 0 0.428254 
trait 2 0.2 0 0.0210098 0.0202803 0.0336948 0.132647 0 0.0346538 
trait 3 0 0 0.379153 0 0.0764277 0 0.0313885 0.252965 
node 1 3 1 3
node 2 3 1 1
node 3 3 1 1
node 4 1 0 2
node 23 1 0 0
node 37 1 0 0
node 123 1 0 0
gene 2 1 4 6.39261 0 1 6.39261 1
gene 3 2 4 1.72114 0 2 1.72114 0
gene 1 3 4 -4.58251 0 3 -4.58251 1
gene 3 2 23 8 0 40 8 1
gene 3 23 4 -0.751807 0 41 -0.751807 1
gene 1 3 37 -1.00995 0 74 -1.00995 1
gene 1 37 4 7.51956 0 75 7.51956 1
gene 1 3 23 -5.83524 0 169 -5.83524 1
gene 2 1 23 0.0520345 0 220 0.0520345 1
gene 1 2 37 -4.23312 0 235 -4.23312 1
gene 3 37 23 -4.13385 0 299 -4.13385 1
gene 3 37 123 1.64537 0 342 1.64537 1
gene 3 123 23 -0.12639 0 343 -0.12639 1
gene 1 2 123 0.32363 0 450 0.32363 1
genomeend 60

/* Species #17 : (Size 6) (AF 13.8444) (Age 25)  */


/* Organism #61 Fitness: 15.7103 Error: 0.0363737 */
genomestart 61
trait 1 0.1 0.0576945 0 0 0 0 0 0.0136104 
trait 2 0.1 0 0.0210098 0.0202803 0.18112 0 0.358384 0.0346538 
trait 3 0.263249 0 0.023181 0 0.281361 0 0.0426411 0.00501003 
node 1 3 1 3
node 2 3 1 1
node 3 3 1 1
node 4 3 0 2
node 23 1 0 0
node 55 1 0 0
node 91 1 0 0
gene 2 1 4 6.58738 0 1 6.58738 1
gene 3 2 4 -2.84558 0 2 -2.84558 1
gene 1 3 4 -3.62889 0 3 -3.62889 1
gene 3 2 23 0.104034 0 40 0.104034 1
gene 3 23 4 -0.277931 0 41 -0.277931 1
gene 2 3 23 -2.65702 0 44 -2.65702 1
gene 1 3 55 -2.22847 0 117 -2.22847 1
gene 1 55 4 3.00413 0 118 3.00413 1
gene 2 1 55 -0.0406323 0 143 -0.0406323 1
gene 3 2 55 -0.988566 0 208 -0.988566 1
gene 3 2 91 6.53012 0 240 6.53012 1
gene 3 91 4 -0.774933 0 241 -0.774933 1
gene 3 1 91 -0.492283 0 321 -0.492283 1
gene 2 1 23 1.66423 0 335 1.66423 1
genomeend 61

/* Organism #62 Fitness: 4.0004 Error: 1.9999 */
genomestart 62
trait 1 0.1 0.0576945 0 0 0 0 0 0.0136104 
trait 2 0.15 0 0.0210098 0.0202803 0.107408 0 0.179192 0.0346538 
trait 3 0.263249 0 0.023181 0 0.281361 0 0.0426411 0.00501003 
node 1 3 1 3
node 2 3 1 1
node 3 3 1 1
node 4 3 0 2
node 23 1 0 0
node 55 1 0 0
node 91 1 0 0
gene 2 1 4 7.29369 0 1 7.29369 1
gene 3 2 4 0.881086 0 2 0.881086 1
gene 1 3 4 -5.82464 0 3 -5.82464 1
gene 3 2 23 -2.80042 0 40 -2.80042 1
gene 3 23 4 0.95379 0 41 0.95379 1
gene 2 3 23 -0.332847 0 44 -0.332847 1
gene 1 3 55 -0.526206 0 117 -0.526206 1
gene 1 55 4 0.902231 0 118 0.902231 1
gene 2 1 55 0.343939 0 143 0.343939 1
gene 3 2 55 -2.30878 0 208 -2.30878 1
gene 3 2 91 6.66957 0 240 6.66957 1
gene 3 91 4 -0.486443 0 241 -0.486443 1
gene 3 1 91 -1.08243 0 321 -1.08243 1
gene 2 1 23 0.980932 0 335 0.980932 1
genomeend 62

/* Organism #63 Fitness: 15.9979 Error: 0.000265138 */
genomestart 63
trait 1 0.1 0.0576945 0 0 0 0 0 0.0136104 
trait 2 0.15 0 0.0210098 0.0202803 0.107408 0 0.179192 0.0346538 
trait 3 0.263249 0 0.023181 0 0.281361 0 0.0426411 0.00501003 
node 1 3 1 3
node 2 3 1 1
node 3 3 1 1
node 4 3 0 2
node 23 1 0 0
node 55 1 0 0
node 91 1 0 0
gene 2 1 4 6.58738 0 1 6.58738 1
gene 3 2 4 -3.1668 0 2 -3.1668 1
gene 1 3 4 -4.43008 0 3 -4.43008 1
gene 3 2 23 -1.92392 0 40 -1.92392 1
gene 3 23 4 -0.277931 0 41 -0.277931 1
gene 2 3 23 -1.26162 0 44 -1.26162 1
gene 1 3 55 -3.04204 0 117 -3.04204 1
gene 1 55 4 3.00413 0 118 3.00413 1
gene 2 1 55 -0.0406323 0 143 -0.0406323 1
gene 3 2 55 -0.692401 0 208 -0.692401 1
gene 3 2 91 8 0 240 8 1
gene 3 91 4 -0.774933 0 241 -0.774933 1
gene 3 1 91 -0.492283 0 321 -0.492283 1
gene 2 1 23 1.66423 0 335 1.66423 1
genomeend 63

/* Organism #64 Fitness: 15.7103 Error: 0.0363733 */
genomestart 64
trait 1 0.1 0.0576945 0 0 0 0 0 0.0136104 
trait 2 0.15 0 0.0210098 0.0202803 0.107408 0 0.179192 0.0346538 
trait 3 0.263249 0 0.023181 0 0.281361 0 0.0426411 0.00501003 
node 1 3 1 3
node 2 3 1 1
node 3 3 1 1
node 4 3 0 2
node 23 1 0 0
node 55 1 0 0
node 91 1 0 0
gene 2 1 4 6.58738 0 1 6.58738 1
gene 3 2 4 -2.84558 0 2 -2.84558 1
gene 1 3 4 -3.62889 0 3 -3.62889 1
gene 3 2 23 0.104034 0 40 0.104034 1
gene 3 23 4 -0.277931 0 41 -0.277931 1
gene 2 3 23 -2.65702 0 44 -2.65702 1
gene 1 3 55 -3.04204 0 117 -3.04204 1
gene 1 55 4 3.00413 0 118 3.00413 1
gene 2 1 55 -0.187449 0 143 -0.187449 1
gene 3 2 55 -0.692401 0 208 -0.692401 1
gene 3 2 91 6.53012 0 240 6.53012 1
gene 3 91 4 -0.774933 0 241 -0.774933 1
gene 3 1 91 -1.24893 0 321 -1.24893 1
gene 2 1 23 1.66423 0 335 1.66423 1
genomeend 64

/* Organism #65 Fitness: 15.7103 Error: 0.0363737 */
genomestart 65
trait 1 0.1 0.0576945 0 0 0 0 0 0.0136104 
trait 2 0.1 0 0.0210098 0.0202803 0.18112 0 0.358384 0.0346538 
trait 3 0.263249 0 0.023181 0 0.281361 0 0.0426411 0.00501003 
node 1 3 1 3
node 2 3 1 1
node 3 3 1 1
node 4 3 0 2
node 23 1 0 0
node 55 1 0 0
node 91 1 0 0
gene 2 1 4 6.58738 0 1 6.58738 1
gene 3 2 4 -2.84558 0 2 -2.84558 1
gene 1 3 4 -3.62889 0 3 -3.62889 1
gene 3 2 23 0.104034 0 40 0.104034 1
gene 3 23 4 -0.277931 0 41 -0.277931 1
gene 2 3 23 -2.65702 0 44 -2.65702 1
gene 1 3 55 -2.22847 0 117 -2.22847 1
gene 1 55 4 3.00413 0 118 3.00413 1
gene 2 1 55 -0.0406323 0 143 -0.0406323 1
gene 3 2 55 -0.988566 0 208 -0.988566 1
gene 3 2 91 6.53012 0 240 6.53012 1
gene 3 91 4 -0.774933 0 241 -0.774933 1
gene 3 1 91 -0.492283 0 321 -0.492283 1
gene 2 1 23 1.66423 0 335 1.66423 1
genomeend 65

/* Organism #66 Fitness: 15.9374 Error: 0.00783235 */
genomestart 66
trait 1 0.1 0.0576945 0 0 0 0 0 0.0136104 
trait 2 0.15 0 0.0210098 0.0202803 0.107408 0 0.179192 0.0346538 
trait 3 0.263249 0 0.023181 0 0.281361 0 0.0426411 0.00501003 
node 1 3 1 3
node 2 3 1 1
node 3 3 1 1
node 4 3 0 2
node 23 1 0 0
node 55 1 0 0
node 91 1 0 0
gene 2 1 4 6.58738 0 1 6.58738 1
gene 3 2 4 -3.1668 0 2 -3.1668 1
gene 1 3 4 -3.62889 0 3 -3.62889 1
gene 3 2 23 -1.92392 0 40 -1.92392 1
gene 3 23 4 1.93461 0 41 1.93461 1
gene 2 3 23 -2.65702 0 44 -2.65702 1
gene 1 3 55 -2.22847 0 117 -2.22847 1
gene 1 55 4 3.00413 0 118 3.00413 1
gene 2 1 55 -0.0406323 0 143 -0.0406323 1
gene 3 2 55 -0.692401 0 208 -0.692401 1
gene 3 2 91 6.53012 0 240 6.53012 1
gene 3 91 4 -0.774933 0 241 -0.774933 1
gene 3 1 91 -1.24893 0 321 -1.24893 1
gene 2 1 23 1.66423 0 335 1.66423 1
genomeend 66

/* Species #18 : (Size 5) (AF 7.24814) (Age 25)  */


/* Organism #67 Fitness: 3.91628 Error: 2.02104 */
genomestart 67
trait 1 0.1 0.0576945 0 0 0 0 0 0.0136104 
trait 2 0.2 0 0.0210098 0.0202803 0.0336948 0 0 0.0346538 
trait 3 0.263249 0 0.08065 0.032296 0.00133847 0 0.0373109 0.00501003 
node 1 3 1 3
node 2 1 1 1
node 3 3 1 1
node 4 2 0 2
node 23 1 0 0
node 55 1 0 0
node 61 1 0 0
node 92 1 0 0
node 110 1 0 0
node 124 1 0 0
gene 2 1 4 4.66932 0 1 4.66932 1
gene 3 2 4 0.55827 0 2 0.55827 1
gene 1 3 4 -6.82002 0 3 -6.82002 1
gene 3 2 23 -1.14802 0 40 -1.14802 1
gene 3 23 4 2.74488 0 41 2.74488 1
gene 2 3 23 0.864439 0 44 0.864439 1
gene 1 3 55 -0.683609 0 117 -0.683609 1
gene 1 55 4 3.61471 0 118 3.61471 1
gene 1 2 55 -4.61963 0 125 -4.61963 1
gene 2 3 61 0.371014 0 137 0.371014 0
gene 2 61 23 -0.364737 0 138 -0.364737 1
gene 2 1 23 -1.09139 0 144 -1.09139 1
gene 2 3 92 3.35437 0 242 3.35437 1
gene 2 92 61 1.02074 0 243 1.02074 1
gene 2 61 4 2.62739 0 279 2.62739 1
gene 2 3 110 1.29795 0 300 1.29795 1
gene 2 110 92 1.20946 0 301 1.20946 1
gene 2 61 124 -2.20234 0 344 -2.20234 1
gene 2 124 23 -0.507091 0 345 -0.507091 1
genomeend 67

/* Organism #68 Fitness: 15.9729 Error: 0.00338861 */
genomestart 68
trait 1 0.1 0.0576945 0 0 0 0 0 0.0136104 
trait 2 0.2 0 0.0210098 0.0202803 0.0336948 0 0 0.0346538 
trait 3 0.263249 0 0.08065 0.032296 0.00133847 0 0.0373109 0.00501003 
node 1 3 1 3
node 2 1 1 1
node 3 3 1 1
node 4 2 0 2
node 23 1 0 0
node 55 1 0 0
node 61 1 0 0
node 92 1 0 0
node 110 1 0 0
node 124 1 0 0
gene 2 1 4 2.65409 0 1 2.65409 1
gene 3 2 4 -0.478828 0 2 -0.478828 1
gene 2 3 4 -5.26563 0 3 -5.26563 1
gene 3 2 23 0.879491 0 40 0.879491 1
gene 3 23 4 0.3255 0 41 0.3255 1
gene 2 3 23 -3.34708 0 44 -3.34708 1
gene 1 3 55 0.385642 0 117 0.385642 1
gene 1 55 4 4.316 0 118 4.316 1
gene 1 2 55 -5.67439 0 125 -5.67439 1
gene 2 3 61 -1.25176 0 137 -1.25176 1
gene 2 61 23 -1.82447 0 138 -1.82447 1
gene 2 1 23 -0.61564 0 144 -0.61564 1
gene 2 3 92 0.373196 0 242 0.373196 1
gene 2 92 61 0.324429 0 243 0.324429 1
gene 2 61 4 1.34202 0 279 1.34202 1
gene 2 3 110 -0.442553 0 300 -0.442553 1
gene 2 110 92 0.811794 0 301 0.811794 1
gene 2 61 124 -1.04157 0 344 -1.04157 1
gene 2 124 23 0.918336 0 345 0.918336 1
genomeend 68

/* Organism #69 Fitness: 3.98454 Error: 2.00387 */
genomestart 69
trait 1 0.1 0.0576945 0 0 0 0 0 0.0136104 
trait 2 0.2 0 0.0210098 0.0202803 0.0336948 0 0 0.0346538 
trait 3 0.263249 0 0.08065 0.032296 0.00133847 0 0.0373109 0.00501003 
node 1 3 1 3
node 2 1 1 1
node 3 3 1 1
node 4 2 0 2
node 23 1 0 0
node 55 1 0 0
node 61 1 0 0
node 92 1 0 0
node 110 1 0 0
node 124 1 0 0
gene 2 1 4 1.36898 0 1 1.36898 1
gene 3 2 4 0.333492 0 2 0.333492 1
gene 2 3 4 -7.38399 0 3 -7.38399 1
gene 3 2 23 -1.12916 0 40 -1.12916 1
gene 3 23 4 0.380988 0 41 0.380988 1
gene 2 3 23 -1.83421 0 44 -1.83421 1
gene 1 3 55 0.781936 0 117 0.781936 1
gene 1 55 4 4.13415 0 118 4.13415 1
gene 1 2 55 -6.5204 0 125 -6.5204 1
gene 2 3 61 -0.28033 0 137 -0.28033 1
gene 2 61 23 -3.92176 0 138 -3.92176 1
gene 2 1 23 -2.44565 0 144 -2.44565 1
gene 2 3 92 4.09813 0 242 4.09813 1
gene 2 92 61 0.296939 0 243 0.296939 1
gene 2 61 4 -0.748893 0 279 -0.748893 1
gene 2 3 110 -2.50599 0 300 -2.50599 1
gene 2 110 92 0.619566 0 301 0.619566 1
gene 2 61 124 -1.04157 0 344 -1.04157 1
gene 2 124 23 -1.78212 0 345 -1.78212 1
genomeend 69

/* Organism #70 Fitness: 3.98957 Error: 2.00261 */
genomestart 70
trait 1 0.1 0.0576945 0 0 0 0 0 0.0136104 
trait 2 0.2 0 0.0210098 0.0202803 0.0336948 0 0 0.0346538 
trait 3 0.263249 0 0.08065 0.032296 0.00133847 0 0.0373109 0.00501003 
node 1 3 1 3
node 2 1 1 1
node 3 3 1 1
node 4 2 0 2
node 23 1 0 0
node 55 1 0 0
node 61 1 0 0
node 92 1 0 0
node 110 1 0 0
node 124 1 0 0
gene 2 1 4 -0.00271174 0 1 -0.00271174 1
gene 3 2 4 1.24142 0 2 1.24142 1
gene 2 3 4 -6.98389 0 3 -6.98389 1
gene 3 2 23 -1.01088 0 40 -1.01088 1
gene 3 23 4 -1.80763 0 41 -1.80763 1
gene 2 3 23 -3.34708 0 44 -3.34708 1
gene 1 3 55 -1.82081 0 117 -1.82081 1
gene 1 55 4 6.3028 0 118 6.3028 1
gene 1 2 55 -5.29989 0 125 -5.29989 1
gene 2 3 61 -1.50199 0 137 -1.50199 1
gene 2 61 23 -2.93662 0 138 -2.93662 1
gene 2 1 23 -1.74069 0 144 -1.74069 1
gene 2 3 92 2.57501 0 242 2.57501 1
gene 2 92 61 0.638632 0 243 0.638632 1
gene 2 61 4 -0.0601781 0 279 -0.0601781 1
gene 2 3 110 -1.51252 0 300 -1.51252 1
gene 2 110 92 -1.48443 0 301 -1.48443 1
gene 2 61 124 -2.92824 0 344 -2.92824 1
gene 2 124 23 -0.43092 0 345 -0.43092 1
genomeend 70

/* Organism #71 Fitness: 8.3774 Error: 1.10563 */
genomestart 71
trait 1 0.1 0.0576945 0 0 0 0 0 0.0136104 
trait 2 0.2 0 0.0210098 0.0202803 0.0336948 0 0 0.0346538 
trait 3 0.263249 0 0.08065 0.032296 0.00133847 0 0.0373109 0.00501003 
node 1 3 1 3
node 2 1 1 1
node 3 3 1 1
node 4 2 0 2
node 23 1 0 0
node 55 1 0 0
node 61 1 0 0
node 92 1 0 0
node 110 1 0 0
node 124 1 0 0
gene 2 1 4 2.25009 0 1 2.25009 1
gene 3 2 4 -1.51767 0 2 -1.51767 1
gene 1 3 4 -7.50679 0 3 -7.50679 1
gene 3 2 23 1.31084 0 40 1.31084 1
gene 3 23 4 0.262078 0 41 0.262078 1
gene 2 3 23 -1.2769 0 44 -1.2769 1
gene 1 3 55 -0.06101 0 117 -0.06101 1
gene 1 55 4 7.88219 0 118 7.88219 1
gene 2 2 55 -3.63221 0 125 -3.63221 1
gene 2 3 61 -3.65668 0 137 -3.65668 0
gene 2 61 23 -2.40698 0 138 -2.40698 0
gene 2 1 23 3.15846 0 144 3.15846 1
gene 2 3 92 -1.28426 0 242 -1.28426 1
gene 2 92 61 4.40635 0 243 4.40635 1
gene 2 61 4 -1.06368 0 279 -1.06368 1
gene 2 3 110 2.11951 0 300 2.11951 1
gene 2 110 92 -2.14886 0 301 -2.14886 1
gene 2 61 124 -1.85002 0 344 -1.85002 1
gene 2 124 23 0.0418252 0 345 0.0418252 1
genomeend 71

/* Species #19 : (Size 7) (AF 11.3404) (Age 21)  */


/* Organism #72 Fitness: 16 Error: 2.6616e-07 */
genomestart 72
trait 1 0.0556152 0.0320869 0 0 0 0 0 0.00756943 
trait 2 0.2 0 0.0210098 0.0202803 0.0336948 0 0 0.0346538 
trait 3 0.619642 0 0 0 0.000764841 0 0.0243663 0.553175 
node 1 3 1 3
node 2 3 1 1
node 3 3 1 1
node 4 2 0 2
node 23 1 0 0
node 48 3 0 0
node 105 1 0 0
gene 2 1 4 8 0 1 8 1
gene 3 2 4 -5.08236 0 2 -5.08236 1
gene 1 3 4 -4.19203 0 3 -4.19203 1
gene 3 2 23 5.27044 0 40 5.27044 1
gene 3 23 4 1.13385 0 41 1.13385 1
gene 2 3 23 -7.82194 0 44 -7.82194 1
gene 3 23 48 1.69129 0 100 1.69129 1
gene 3 48 4 8 0 101 8 1
gene 3 3 48 -7.6794 0 203 -7.6794 1
gene 3 2 105 4.86327 0 282 4.86327 1
gene 3 105 4 -3.47239 0 283 -3.47239 1
gene 2 23 105 -0.168963 0 421 -0.168963 1
gene 3 1 105 -0.267542 0 440 -0.267542 1
genomeend 72

/* Organism #73 Fitness: 16 Error: 5.04845e-07 */
genomestart 73
trait 1 0.0556152 0.0320869 0 0 0 0 0 0.00756943 
trait 2 0.2 0 0.0210098 0.0202803 0.0336948 0 0 0.0346538 
trait 3 0.619642 0 0 0 0.000764841 0 0.0243663 0.553175 
node 1 3 1 3
node 2 3 1 1
node 3 3 1 1
node 4 2 0 2
node 23 1 0 0
node 48 3 0 0
node 105 1 0 0
gene 2 1 4 7.60883 0 1 7.60883 1
gene 3 2 4 -4.47666 0 2 -4.47666 1
gene 1 3 4 -4.03675 0 3 -4.03675 1
gene 3 2 23 4.4473 0 40 4.4473 1
gene 3 23 4 0.163335 0 41 0.163335 1
gene 2 3 23 -7.23608 0 44 -7.23608 1
gene 3 23 48 1.59531 0 100 1.59531 1
gene 3 48 4 7.41915 0 101 7.41915 1
gene 3 3 48 -7.8397 0 203 -7.8397 1
gene 3 2 105 5.64666 0 282 5.64666 1
gene 3 105 4 -2.96105 0 283 -2.96105 1
gene 2 23 105 -1.03723 0 421 -1.03723 1
gene 3 1 105 -0.267542 0 440 -0.267542 1
genomeend 73

/* Organism #74 Fitness: 4.00001 Error: 2 */
genomestart 74
trait 1 0.0556152 0.0320869 0 0 0 0 0 0.00756943 
trait 2 0.2 0 0.0210098 0.0202803 0.0336948 0 0 0.0346538 
trait 3 0.619642 0 0 0 0.000764841 0 0.0243663 0.553175 
node 1 3 1 3
node 2 3 1 1
node 3 3 1 1
node 4 2 0 2
node 23 1 0 0
node 48 3 0 0
node 105 1 0 0
gene 2 1 4 8 0 1 8 1
gene 3 2 4 -7.26247 0 2 -7.26247 1
gene 1 3 4 -6.55328 0 3 -6.55328 1
gene 3 2 23 1.80156 0 40 1.80156 1
gene 3 23 4 -1.89919 0 41 -1.89919 1
gene 2 3 23 -7.83736 0 44 -7.83736 1
gene 3 23 48 -0.611467 0 100 -0.611467 1
gene 3 48 4 5.72153 0 101 5.72153 1
gene 3 3 48 -5.57244 0 203 -5.57244 1
gene 3 2 105 4.46739 0 282 4.46739 1
gene 3 105 4 -4.16064 0 283 -4.16064 1
gene 2 23 105 -1.20248 0 421 -1.20248 1
gene 3 1 105 2.43244 0 440 2.43244 1
genomeend 74

/* Organism #75 Fitness: 9.00023 Error: 0.999961 */
genomestart 75
trait 1 0.0556152 0.0320869 0 0 0 0 0 0.00756943 
trait 2 0.2 0 0.0210098 0.0202803 0.0336948 0 0 0.0346538 
trait 3 0.619642 0 0 0 0.000764841 0 0.0243663 0.553175 
node 1 2 1 3
node 2 3 1 1
node 3 3 1 1
node 4 2 0 2
node 23 1 0 0
node 48 3 0 0
node 105 1 0 0
gene 2 1 4 6.86657 0 1 6.86657 1
gene 3 2 4 -5.20123 0 2 -5.20123 1
gene 1 3 4 -6.01516 0 3 -6.01516 1
gene 3 2 23 4.17366 0 40 4.17366 1
gene 3 23 4 -2.42859 0 41 -2.42859 1
gene 2 3 23 -8 0 44 -8 1
gene 3 23 48 0.752279 0 100 0.752279 1
gene 3 48 4 8 0 101 8 1
gene 3 3 48 -8 0 203 -8 1
gene 3 2 105 5.16677 0 282 5.16677 1
gene 3 105 4 -3.20833 0 283 -3.20833 1
gene 2 23 105 -0.22029 0 421 -0.22029 1
gene 3 1 105 -0.267542 0 440 -0.267542 1
gene 2 3 105 0.733981 0 468 0.733981 1
genomeend 75

/* Organism #76 Fitness: 16 Error: 2.6616e-07 */
genomestart 76
trait 1 0.0556152 0.0320869 0 0 0 0 0 0.00756943 
trait 2 0.2 0 0.0210098 0.0202803 0.0336948 0 0 0.0346538 
trait 3 0.619642 0 0 0 0.000764841 0 0.0243663 0.553175 
node 1 3 1 3
node 2 3 1 1
node 3 3 1 1
node 4 2 0 2
node 23 1 0 0
node 48 3 0 0
node 105 1 0 0
gene 2 1 4 8 0 1 8 1
gene 3 2 4 -5.08236 0 2 -5.08236 1
gene 1 3 4 -4.19203 0 3 -4.19203 1
gene 3 2 23 5.27044 0 40 5.27044 1
gene 3 23 4 1.13385 0 41 1.13385 1
gene 2 3 23 -7.82194 0 44 -7.82194 1
gene 3 23 48 1.69129 0 100 1.69129 1
gene 3 48 4 8 0 101 8 1
gene 3 3 48 -7.6794 0 203 -7.6794 1
gene 3 2 105 4.86327 0 282 4.86327 1
gene 3 105 4 -3.47239 0 283 -3.47239 1
gene 2 23 105 -0.168963 0 421 -0.168963 1
gene 3 1 105 -0.267542 0 440 -0.267542 1
genomeend 76

/* Organism #77 Fitness: 9.00014 Error: 0.999977 */
genomestart 77
trait 1 0.0556152 0.0320869 0 0 0 0 0 0.00756943 
trait 2 0.2 0 0.0210098 0.0202803 0.0336948 0 0 0.0346538 
trait 3 0.619642 0 0 0 0.000764841 0 0.0243663 0.553175 
node 1 3 1 3
node 2 3 1 1
node 3 3 1 1
node 4 2 0 2
node 23 1 0 0
node 48 3 0 0
node 105 1 0 0
gene 2 1 4 6.75234 0 1 6.75234 1
gene 3 2 4 -1.86211 0 2 -1.86211 1
gene 1 3 4 -3.5158 0 3 -3.5158 1
gene 3 2 23 4.96131 0 40 4.96131 1
gene 3 23 4 1.11118 0 41 1.11118 1
gene 2 3 23 -8 0 44 -8 1
gene 3 23 48 1.49933 0 100 1.49933 1
gene 3 48 4 5.74309 0 101 5.74309 1
gene 3 3 48 -7.29232 0 203 -7.29232 1
gene 3 2 105 5.64614 0 282 5.64614 1
gene 3 105 4 0.792218 0 283 0.792218 1
gene 2 23 105 0.0379398 0 421 0.0379398 1
gene 3 1 105 0.35726 0 440 0.35726 1
genomeend 77

/* Organism #78 Fitness: 9.38226 Error: 0.936952 */
genomestart 78
trait 1 0.0556152 0.0320869 0 0 0 0 0 0.00756943 
trait 2 0.2 0 0.0210098 0.0202803 0.0336948 0 0 0.0346538 
trait 3 0.619642 0 0 0 0.000764841 0 0.0243663 0.553175 
node 1 3 1 3
node 2 3 1 1
node 3 3 1 1
node 4 2 0 2
node 23 1 0 0
node 48 3 0 0
node 105 1 0 0
gene 2 1 4 6.8783 0 1 6.8783 1
gene 3 2 4 -4.04123 0 2 -4.04123 1
gene 1 3 4 1.02127 0 3 1.02127 1
gene 3 2 23 1.33487 0 40 1.33487 1
gene 3 23 4 1.13385 0 41 1.13385 1
gene 2 3 23 -6.54166 0 44 -6.54166 1
gene 3 23 48 1.09235 0 100 1.09235 1
gene 3 48 4 5.67514 0 101 5.67514 1
gene 3 3 48 -6.13263 0 203 -6.13263 1
gene 3 2 105 3.33783 0 282 3.33783 1
gene 3 105 4 -3.47239 0 283 -3.47239 1
gene 2 23 105 -1.64203 0 421 -1.64203 1
gene 3 1 105 -2.72523 0 440 -2.72523 1
genomeend 78

/* Species #20 : (Size 8) (AF 12.4493) (Age 21)  */


/* Organism #79 Fitness: 16 Error: 4.1882e-07 */
genomestart 79
trait 1 0 0.0320869 0 0.344672 0.197339 0 0.628476 0.018245 
trait 2 0.2 0 0.0210098 0.0202803 0.0336948 0 0 0.0346538 
trait 3 0.150428 0 0 0 0.000764841 0 0.0243663 0.00501003 
node 1 3 1 3
node 2 3 1 1
node 3 3 1 1
node 4 2 0 2
node 23 1 0 0
node 48 3 0 0
node 106 1 0 0
gene 2 1 4 5.24054 0 1 5.24054 1
gene 3 2 4 -6.33597 0 2 -6.33597 1
gene 1 3 4 -7.5246 0 3 -7.5246 1
gene 3 2 23 -0.173423 0 40 -0.173423 1
gene 3 23 4 -2.08961 0 41 -2.08961 1
gene 2 3 23 -3.32862 0 44 -3.32862 1
gene 3 23 48 4.40126 0 100 4.40126 1
gene 3 48 4 5.65845 0 101 5.65845 1
gene 1 3 48 -0.459947 0 203 -0.459947 1
gene 3 3 106 0.469558 0 284 0.469558 1
gene 3 106 48 1.48486 0 285 1.48486 1
genomeend 79

/* Organism #80 Fitness: 16 Error: 3.45226e-07 */
genomestart 80
trait 1 0 0.0320869 0 0.344672 0.197339 0 0.628476 0.018245 
trait 2 0.2 0 0.0210098 0.0202803 0.0336948 0 0 0.0346538 
trait 3 0.150428 0 0 0 0.000764841 0 0.0243663 0.00501003 
node 1 3 1 3
node 2 3 1 1
node 3 3 1 1
node 4 2 0 2
node 23 1 0 0
node 48 3 0 0
node 106 1 0 0
gene 2 1 4 4.89697 0 1 4.89697 1
gene 3 2 4 -6.55141 0 2 -6.55141 1
gene 1 3 4 -7.39603 0 3 -7.39603 1
gene 3 2 23 -0.173423 0 40 -0.173423 1
gene 3 23 4 -2.08961 0 41 -2.08961 1
gene 2 3 23 -3.93855 0 44 -3.93855 1
gene 3 23 48 4.80826 0 100 4.80826 1
gene 3 48 4 5.65845 0 101 5.65845 1
gene 1 3 48 -0.459947 0 203 -0.459947 1
gene 3 3 106 0.469558 0 284 0.469558 1
gene 3 106 48 1.48486 0 285 1.48486 1
genomeend 80

/* Organism #81 Fitness: 13.652 Error: 0.305135 */
genomestart 81
trait 1 0 0.0320869 0 0.344672 0.197339 0 0.628476 0.018245 
trait 2 0.2 0 0.0210098 0.0202803 0.0336948 0 0 0.0346538 
trait 3 0.150428 0 0 0 0.000764841 0 0.0243663 0.00501003 
node 1 3 1 3
node 2 3 1 1
node 3 3 1 1
node 4 2 0 2
node 23 1 0 0
node 48 3 0 0
node 106 1 0 0
gene 2 1 4 4.14734 0 1 4.14734 1
gene 3 2 4 -8 0 2 -8 1
gene 1 3 4 -7.45295 0 3 -7.45295 1
gene 3 2 23 -1.57541 0 40 -1.57541 1
gene 3 23 4 -3.52346 0 41 -3.52346 1
gene 2 3 23 -2.77165 0 44 -2.77165 1
gene 3 23 48 2.45765 0 100 2.45765 1
gene 3 48 4 4.14072 0 101 4.14072 1
gene 1 3 48 1.07592 0 203 1.07592 1
gene 3 3 106 0.469558 0 284 0.469558 1
gene 3 106 48 1.48486 0 285 1.48486 1
genomeend 81

/* Organism #82 Fitness: 3.99999 Error: 2 */
genomestart 82
trait 1 0 0.0320869 0 0.344672 0.197339 0 0.628476 0.018245 
trait 2 0.2 0 0.0210098 0.0202803 0.0336948 0 0 0.0346538 
trait 3 0.150428 0 0 0 0.000764841 0 0.0243663 0.00501003 
node 1 3 1 3
node 2 3 1 1
node 3 3 1 1
node 4 2 0 2
node 23 1 0 0
node 48 3 0 0
node 106 1 0 0
gene 2 1 4 5.1424 0 1 5.1424 1
gene 3 2 4 -7.56159 0 2 -7.56159 1
gene 1 3 4 -5.35491 0 3 -5.35491 1
gene 3 2 23 -1.96423 0 40 -1.96423 1
gene 3 23 4 -0.666816 0 41 -0.666816 1
gene 2 3 23 1.41573 0 44 1.41573 1
gene 3 23 48 2.8803 0 100 2.8803 1
gene 3 48 4 -2.27195 0 101 -2.27195 1
gene 1 3 48 -0.459947 0 203 -0.459947 1
gene 3 3 106 -0.431871 0 284 -0.431871 1
gene 3 106 48 3.77163 0 285 3.77163 1
genomeend 82

/* Organism #83 Fitness: 16 Error: 1.6763e-07 */
genomestart 83
trait 1 0 0.0320869 0 0.344672 0.197339 0 0.628476 0.018245 
trait 2 0.2 0 0.0210098 0.0202803 0.0336948 0 0 0.0346538 
trait 3 0.150428 0 0 0 0.000764841 0 0.0243663 0.00501003 
node 1 3 1 3
node 2 3 1 1
node 3 3 1 1
node 4 2 0 2
node 23 1 0 0
node 48 3 0 0
node 106 1 0 0
gene 2 1 4 4.21297 0 1 4.21297 1
gene 3 2 4 -7.73789 0 2 -7.73789 1
gene 1 3 4 -7.83335 0 3 -7.83335 1
gene 3 2 23 0.71841 0 40 0.71841 1
gene 3 23 4 -1.10487 0 41 -1.10487 1
gene 2 3 23 -2.16883 0 44 -2.16883 1
gene 3 23 48 3.35173 0 100 3.35173 1
gene 3 48 4 7.80063 0 101 7.80063 1
gene 1 3 48 1.37342 0 203 1.37342 1
gene 3 3 106 1.45834 0 284 1.45834 1
gene 3 106 48 3.05185 0 285 3.05185 1
genomeend 83

/* Organism #84 Fitness: 9.00024 Error: 0.99996 */
genomestart 84
trait 1 0 0.0320869 0 0.344672 0.197339 0 0.628476 0.018245 
trait 2 0.2 0 0.0210098 0.0202803 0.0336948 0 0 0.0346538 
trait 3 0.150428 0 0 0 0.000764841 0 0.0243663 0.00501003 
node 1 3 1 3
node 2 3 1 1
node 3 3 1 1
node 4 2 0 2
node 23 1 0 0
node 48 3 0 0
node 106 1 0 0
gene 2 1 4 6.81536 0 1 6.81536 1
gene 3 2 4 -7.78561 0 2 -7.78561 1
gene 1 3 4 -4.97196 0 3 -4.97196 1
gene 3 2 23 -0.173423 0 40 -0.173423 1
gene 3 23 4 -1.07878 0 41 -1.07878 1
gene 2 3 23 -2.74931 0 44 -2.74931 1
gene 3 23 48 2.74814 0 100 2.74814 1
gene 3 48 4 8 0 101 8 1
gene 1 3 48 1.71236 0 203 1.71236 1
gene 3 3 106 -0.709799 0 284 -0.709799 1
gene 3 106 48 1.17518 0 285 1.17518 1
genomeend 84

/* Organism #85 Fitness: 16 Error: 4.18817e-07 */
genomestart 85
trait 1 0 0.0320869 0 0.344672 0.197339 0 0.628476 0.018245 
trait 2 0.2 0 0.0210098 0.0202803 0.0336948 0 0 0.0346538 
trait 3 0.150428 0 0 0 0.000764841 0 0.0243663 0.00501003 
node 1 3 1 3
node 2 3 1 1
node 3 3 1 1
node 4 2 0 2
node 23 1 0 0
node 48 3 0 0
node 106 1 0 0
gene 2 1 4 5.24054 0 1 5.24054 1
gene 3 2 4 -6.33597 0 2 -6.33597 1
gene 1 3 4 -7.5246 0 3 -7.5246 1
gene 3 2 23 -0.173423 0 40 -0.173423 1
gene 3 23 4 -2.08961 0 41 -2.08961 1
gene 2 3 23 -4.54847 0 44 -4.54847 1
gene 3 23 48 5.21527 0 100 5.21527 1
gene 3 48 4 5.65845 0 101 5.65845 1
gene 1 3 48 -0.459947 0 203 -0.459947 1
gene 3 3 106 0.469558 0 284 0.469558 1
gene 3 106 48 1.48486 0 285 1.48486 1
genomeend 85

/* Organism #86 Fitness: 8.94209 Error: 1.00967 */
genomestart 86
trait 1 0 0.0320869 0 0.344672 0.197339 0 0.628476 0.018245 
trait 2 0.2 0 0.0210098 0.0202803 0.0336948 0 0 0.0346538 
trait 3 0.150428 0 0 0 0.000764841 0 0.0243663 0.00501003 
node 1 3 1 3
node 2 3 1 1
node 3 3 1 1
node 4 2 0 2
node 23 1 0 0
node 48 3 0 0
node 106 1 0 0
gene 2 1 4 4.45914 0 1 4.45914 1
gene 3 2 4 -8 0 2 -8 1
gene 1 3 4 -8 0 3 -8 1
gene 3 2 23 -2.51249 0 40 -2.51249 1
gene 3 23 4 -2.35418 0 41 -2.35418 1
gene 2 3 23 -4.35135 0 44 -4.35135 1
gene 3 23 48 3.49442 0 100 3.49442 1
gene 3 48 4 5.31251 0 101 5.31251 1
gene 1 3 48 -1.29633 0 203 -1.29633 1
gene 3 3 106 0.469558 0 284 0.469558 1
gene 3 106 48 0.684056 0 285 0.684056 1
genomeend 86

/* Species #21 : (Size 6) (AF 10.0039) (Age 19)  */


/* Organism #87 Fitness: 16 Error: 6.20611e-09 */
genomestart 87
trait 1 0.433843 0.0288473 0.251039 0 0 0 0 0.428254 
trait 2 0.2 0.213442 0.0999708 0.0202803 0.0168474 0.132647 0 0.0346538 
trait 3 0 0 0.379153 0 0.0764277 0 0.0313885 0.252965 
node 1 3 1 3
node 2 3 1 1
node 3 3 1 1
node 4 2 0 2
node 23 1 0 0
node 37 1 0 0
node 109 3 0 0
node 152 1 0 0
gene 3 1 4 6.25562 0 1 6.25562 1
gene 3 2 4 -1.61459 0 2 -1.61459 1
gene 1 3 4 -3.33338 0 3 -3.33338 1
gene 3 2 23 8 0 40 8 1
gene 3 23 4 -5.15717 0 41 -5.15717 1
gene 1 3 37 -3.33529 0 74 -3.33529 1
gene 1 37 4 6.1533 0 75 6.1533 1
gene 1 3 23 -7.44612 0 169 -7.44612 1
gene 2 1 23 1.58046 0 220 1.58046 1
gene 1 2 37 -2.51848 0 235 -2.51848 0
gene 1 2 109 -0.544504 0 297 -0.544504 1
gene 1 109 37 3.56753 0 298 3.56753 0
gene 1 109 152 1 0 453 0 1
gene 1 152 37 3.56753 0 454 0 1
gene 2 109 23 0.435693 0 469 0.435693 1
genomeend 87

/* Organism #88 Fitness: 9.40301 Error: 0.933568 */
genomestart 88
trait 1 0.433843 0.0288473 0.251039 0 0 0 0 0.428254 
trait 2 0.2 0.213442 0.0999708 0.0202803 0.0168474 0.132647 0 0.0346538 
trait 3 0 0.403744 0.379153 0 0.0382139 0.392583 0.0313885 0.252965 
node 1 3 1 3
node 2 3 1 1
node 3 3 1 1
node 4 2 0 2
node 23 1 0 0
node 37 1 0 0
node 109 3 0 0
node 152 1 0 0
gene 3 1 4 6.32609 0 1 6.32609 1
gene 3 2 4 -2.15318 0 2 -2.15318 1
gene 1 3 4 -4.12153 0 3 -4.12153 1
gene 3 2 23 7.12431 0 40 7.12431 1
gene 3 23 4 -6.01973 0 41 -6.01973 1
gene 1 3 37 -1.45444 0 74 -1.45444 1
gene 1 37 4 5.94157 0 75 5.94157 1
gene 1 3 23 -8 0 169 -8 1
gene 2 1 23 1.08793 0 220 1.08793 1
gene 1 2 37 -4.90878 0 235 -4.90878 0
gene 1 2 109 1.90373 0 297 1.90373 1
gene 1 109 37 3.18448 0 298 3.18448 0
gene 1 109 152 0.173722 0 453 0.173722 1
gene 1 152 37 -0.207132 0 454 -0.207132 1
gene 2 109 23 -1.63053 0 469 -1.63053 1
genomeend 88

/* Organism #89 Fitness: 9 Error: 1 */
genomestart 89
trait 1 0.433843 0.0288473 0.251039 0 0 0 0 0.428254 
trait 2 0.2 0.213442 0.0999708 0.0202803 0.0168474 0.132647 0 0.0346538 
trait 3 0 0 0.379153 0 0.0764277 0 0.0313885 0.252965 
node 1 3 1 3
node 2 3 1 1
node 3 3 1 1
node 4 2 0 2
node 23 1 0 0
node 37 1 0 0
node 109 3 0 0
node 152 1 0 0
gene 3 1 4 7.73407 0 1 7.73407 1
gene 3 2 4 -0.620839 0 2 -0.620839 1
gene 1 3 4 -3.96814 0 3 -3.96814 1
gene 3 2 23 8 0 40 8 1
gene 3 23 4 -6.05232 0 41 -6.05232 1
gene 1 3 37 -1.17671 0 74 -1.17671 1
gene 1 37 4 7.71079 0 75 7.71079 1
gene 1 3 23 -6.21835 0 169 -6.21835 1
gene 2 1 23 0.404348 0 220 0.404348 1
gene 1 2 37 -1.02746 0 235 -1.02746 0
gene 1 2 109 -0.319126 0 297 -0.319126 1
gene 1 109 37 3.52073 0 298 3.52073 0
gene 1 109 152 0.562136 0 453 0.562136 1
gene 1 152 37 3.56753 0 454 3.56753 1
gene 2 109 23 2.21779 0 469 2.21779 1
genomeend 89

/* Organism #90 Fitness: 15.6218 Error: 0.0475599 */
genomestart 90
trait 1 0.433843 0.0288473 0.251039 0 0 0 0 0.428254 
trait 2 0.2 0.213442 0.0999708 0.0202803 0.0168474 0.132647 0 0.0346538 
trait 3 0 0.807488 0.379153 0 0 0.785166 0.0313885 0.252965 
node 1 3 1 3
node 2 3 1 1
node 3 3 1 1
node 4 2 0 2
node 23 1 0 0
node 37 1 0 0
node 109 3 0 0
node 152 1 0 0
gene 3 1 4 8 0 1 8 1
gene 3 2 4 -1.92586 0 2 -1.92586 1
gene 1 3 4 -2.57651 0 3 -2.57651 1
gene 3 2 23 8 0 40 8 1
gene 3 23 4 -4.93029 0 41 -4.93029 1
gene 1 3 37 -2.69637 0 74 -2.69637 1
gene 1 37 4 8 0 75 8 1
gene 1 3 23 -7.89057 0 169 -7.89057 1
gene 2 1 23 0.243984 0 220 0.243984 1
gene 1 2 37 -4.79115 0 235 -4.79115 0
gene 1 2 109 -2.63568 0 297 -2.63568 1
gene 1 109 37 2.21622 0 298 2.21622 0
gene 1 109 152 2.86279 0 453 2.86279 1
gene 1 152 37 3.56581 0 454 3.56581 1
gene 2 109 23 0.909484 0 469 0.909484 1
genomeend 90

/* Organism #91 Fitness: 8.99855 Error: 1.00024 */
genomestart 91
trait 1 0.433843 0.0288473 0.251039 0 0 0 0 0.428254 
trait 2 0.2 0.213442 0.0999708 0.0202803 0.0168474 0.132647 0 0.0346538 
trait 3 0 0.403744 0.379153 0 0.0382139 0.392583 0.0313885 0.252965 
node 1 3 1 3
node 2 3 1 1
node 3 3 1 1
node 4 2 0 2
node 23 1 0 0
node 37 1 0 0
node 109 3 0 0
node 152 1 0 0
gene 3 1 4 7.0937 0 1 7.0937 1
gene 3 2 4 0.0968854 0 2 0.0968854 1
gene 1 3 4 -5.066 0 3 -5.066 1
gene 3 2 23 8 0 40 8 1
gene 3 23 4 -3.85933 0 41 -3.85933 1
gene 1 3 37 -3.20027 0 74 -3.20027 1
gene 1 37 4 6.7037 0 75 6.7037 1
gene 1 3 23 -7.44612 0 169 -7.44612 1
gene 2 1 23 1.62838 0 220 1.62838 1
gene 1 2 37 -1.43775 0 235 -1.43775 0
gene 1 2 109 0.394551 0 297 0.394551 1
gene 3 109 37 1.72039 0 298 1.72039 0
gene 1 109 152 -1.30638 0 453 -1.30638 1
gene 1 152 37 -2.14205 0 454 -2.14205 1
gene 2 109 23 -0.509657 0 469 -0.509657 1
genomeend 91

/* Organism #92 Fitness: 1 Error: 3 */
genomestart 92
trait 1 0.433843 0.0288473 0.251039 0 0 0 0 0.428254 
trait 2 0.2 0.213442 0.0999708 0.0202803 0.0168474 0.132647 0 0.0346538 
trait 3 0 0 0.379153 0 0.0764277 0 0.0313885 0.252965 
node 1 3 1 3
node 2 3 1 1
node 3 3 1 1
node 4 2 0 2
node 23 1 0 0
node 37 1 0 0
node 109 3 0 0
node 152 1 0 0
gene 3 1 4 -0.426765 0 1 -0.426765 1
gene 3 2 4 -0.175792 0 2 -0.175792 1
gene 1 3 4 -3.31648 0 3 -3.31648 1
gene 3 2 23 8 0 40 8 1
gene 3 23 4 -4.30023 0 41 -4.30023 1
gene 3 3 37 0.68781 0 74 0.68781 1
gene 1 37 4 4.47667 0 75 4.47667 1
gene 1 3 23 -0.683812 0 169 -0.683812 1
gene 2 1 23 2.27858 0 220 2.27858 1
gene 1 2 37 -4.65626 0 235 -4.65626 0
gene 1 2 109 -0.544504 0 297 -0.544504 1
gene 1 109 37 3.56753 0 298 3.56753 0
gene 1 109 152 0.994236 0 453 0.994236 1
gene 1 152 37 -0.525614 0 454 -0.525614 1
gene 2 109 23 0.766517 0 469 0.766517 1
genomeend 92

/* Species #22 : (Size 7) (AF 13.3378) (Age 18)  */


/* Organism #93 Fitness: 16 Error: 7.73556e-09 */
genomestart 93
trait 1 0.075 0.0576945 0.155012 0 0 0 0 0.0136104 
trait 2 0.2 0 0.0532763 0 0.827144 0 0 0.798345 
trait 3 0.300856 0 0.00161445 0 0.00445539 0.00396113 0.024437 0.00250501 
node 1 2 1 3
node 2 3 1 1
node 3 3 1 1
node 4 2 0 2
node 23 2 0 0
node 112 1 0 0
gene 2 1 4 3.9497 0 1 3.9497 1
gene 3 2 4 -8 0 2 -8 1
gene 1 3 4 -1.40759 0 3 -1.40759 0
gene 3 2 23 -4.26831 0 40 -4.26831 0
gene 3 23 4 8 0 41 8 1
gene 2 3 23 -8 0 44 -8 1
gene 3 1 23 3.12775 0 83 3.12775 1
gene 3 2 112 -4.72182 0 305 -4.72182 1
gene 3 112 23 -2.84446 0 306 -2.84446 1
gene 2 112 4 0.126478 0 314 0.126478 1
gene 2 1 112 0.582937 0 365 0.582937 1
genomeend 93

/* Organism #94 Fitness: 16 Error: 7.27253e-08 */
genomestart 94
trait 1 0.075 0.0576945 0.155012 0 0 0 0 0.0136104 
trait 2 0.2 0 0.0532763 0 0.827144 0 0 0.798345 
trait 3 0.300856 0 0.00161445 0 0.00445539 0.00396113 0.024437 0.00250501 
node 1 2 1 3
node 2 3 1 1
node 3 3 1 1
node 4 1 0 2
node 23 2 0 0
node 112 3 0 0
gene 2 1 4 3.72303 0 1 3.72303 1
gene 3 2 4 -7.06365 0 2 -7.06365 1
gene 1 3 4 -0.173985 0 3 -0.173985 0
gene 3 2 23 -4.04041 0 40 -4.04041 0
gene 3 23 4 8 0 41 8 1
gene 2 3 23 -8 0 44 -8 1
gene 3 1 23 2.38451 0 83 2.38451 1
gene 3 2 112 -5.26563 0 305 -5.26563 1
gene 3 112 23 -3.94931 0 306 -3.94931 1
gene 2 112 4 1.06908 0 314 1.06908 1
gene 2 1 112 -0.0157948 0 365 -0.0157948 1
genomeend 94

/* Organism #95 Fitness: 15.9748 Error: 0.00314555 */
genomestart 95
trait 1 0.075 0.0576945 0.155012 0 0 0 0 0.0136104 
trait 2 0.2 0 0.0532763 0 0.827144 0 0 0.798345 
trait 3 0.300856 0 0.00161445 0 0.00445539 0.00396113 0.024437 0.00250501 
node 1 2 1 3
node 2 3 1 1
node 3 3 1 1
node 4 1 0 2
node 23 2 0 0
node 112 3 0 0
gene 2 1 4 1.16942 0 1 1.16942 1
gene 3 2 4 -6.56677 0 2 -6.56677 1
gene 1 3 4 -1.27852 0 3 -1.27852 0
gene 3 2 23 -6.27231 0 40 -6.27231 0
gene 3 23 4 8 0 41 8 1
gene 2 3 23 -6.87165 0 44 -6.87165 1
gene 3 1 23 2.77516 0 83 2.77516 1
gene 3 2 112 -6.54216 0 305 -6.54216 1
gene 3 112 23 -7.45573 0 306 -7.45573 1
gene 2 112 4 1.67063 0 314 1.67063 1
gene 2 1 112 -1.84048 0 365 -1.84048 1
genomeend 95

/* Organism #96 Fitness: 15.9881 Error: 0.00149378 */
genomestart 96
trait 1 0.075 0.0576945 0.155012 0 0 0 0 0.0136104 
trait 2 0.2 0 0.0532763 0 0.827144 0 0 0.798345 
trait 3 0.300856 0 0.00161445 0 0.00445539 0.00396113 0.024437 0.00250501 
node 1 2 1 3
node 2 3 1 1
node 3 3 1 1
node 4 2 0 2
node 23 2 0 0
node 112 1 0 0
gene 2 1 4 3.29395 0 1 3.29395 1
gene 3 2 4 -8 0 2 -8 1
gene 1 3 4 -1.97479 0 3 -1.97479 1
gene 3 2 23 -3.05023 0 40 -3.05023 0
gene 3 23 4 6.99657 0 41 6.99657 1
gene 2 3 23 -6.44484 0 44 -6.44484 1
gene 3 1 23 2.27159 0 83 2.27159 1
gene 3 2 112 -4.47394 0 305 -4.47394 1
gene 3 112 23 -2.73813 0 306 -2.73813 1
gene 2 112 4 0.126478 0 314 0.126478 1
gene 2 1 112 -0.718913 0 365 -0.718913 1
genomeend 96

/* Organism #97 Fitness: 16 Error: 9.69588e-09 */
genomestart 97
trait 1 0.075 0.0576945 0.155012 0 0 0 0 0.0136104 
trait 2 0.2 0 0.0532763 0 0.827144 0 0 0.798345 
trait 3 0.300856 0 0.00161445 0 0.00445539 0.00396113 0.024437 0.00250501 
node 1 2 1 3
node 2 3 1 1
node 3 3 1 1
node 4 1 0 2
node 23 2 0 0
node 112 1 0 0
gene 2 1 4 3.9497 0 1 3.9497 1
gene 3 2 4 -8 0 2 -8 1
gene 1 3 4 1.05962 0 3 1.05962 0
gene 3 2 23 -3.81252 0 40 -3.81252 0
gene 3 23 4 8 0 41 8 1
gene 2 3 23 -8 0 44 -8 1
gene 3 1 23 3.12775 0 83 3.12775 1
gene 3 2 112 -4.72182 0 305 -4.72182 1
gene 3 112 23 -5.05415 0 306 -5.05415 1
gene 2 112 4 0.126478 0 314 0.126478 1
gene 2 1 112 0.582937 0 365 0.582937 1
genomeend 97

/* Organism #98 Fitness: 4 Error: 2 */
genomestart 98
trait 1 0.075 0.0576945 0.155012 0 0 0 0 0.0136104 
trait 2 0.2 0 0.0532763 0 0.827144 0 0 0.798345 
trait 3 0.300856 0 0.00161445 0 0.00445539 0.00396113 0.024437 0.00250501 
node 1 2 1 3
node 2 3 1 1
node 3 3 1 1
node 4 1 0 2
node 23 2 0 0
node 112 3 0 0
gene 2 1 4 4.77259 0 1 4.77259 1
gene 3 2 4 1.87612 0 2 1.87612 1
gene 1 3 4 1.07942 0 3 1.07942 0
gene 3 2 23 -5.23867 0 40 -5.23867 1
gene 3 23 4 5.58021 0 41 5.58021 1
gene 2 3 23 -8 0 44 -8 1
gene 3 1 23 3.5847 0 83 3.5847 1
gene 3 2 112 -8 0 305 -8 1
gene 3 112 23 -4.85738 0 306 -4.85738 1
gene 2 112 4 2.01168 0 314 2.01168 1
gene 2 1 112 -1.33276 0 365 -1.33276 1
genomeend 98

/* Organism #99 Fitness: 9.40156 Error: 0.933804 */
genomestart 99
trait 1 0.075 0.0576945 0.155012 0 0 0 0 0.0136104 
trait 2 0.2 0 0.0532763 0 0.827144 0 0 0.798345 
trait 3 0.300856 0 0.00161445 0 0.00445539 0.00396113 0.024437 0.00250501 
node 1 2 1 3
node 2 3 1 1
node 3 3 1 1
node 4 2 0 2
node 23 2 0 0
node 112 1 0 0
gene 2 1 4 1.52837 0 1 1.52837 1
gene 3 2 4 -7.58387 0 2 -7.58387 1
gene 1 3 4 -0.652263 0 3 -0.652263 0
gene 3 2 23 -5.50492 0 40 -5.50492 0
gene 3 23 4 5.74662 0 41 5.74662 1
gene 2 3 23 -7.08605 0 44 -7.08605 1
gene 3 1 23 0.655878 0 83 0.655878 1
gene 3 2 112 -4.46527 0 305 -4.46527 1
gene 3 112 23 -3.31426 0 306 -3.31426 1
gene 2 112 4 -0.212011 0 314 -0.212011 1
gene 2 1 112 2.04716 0 365 2.04716 1
genomeend 99

/* Species #23 : (Size 5) (AF 9.44746) (Age 18)  */


/* Organism #100 Fitness: 15.1518 Error: 0.107466 */
genomestart 100
trait 1 0.1 0.0576945 0 0 0 0 0 0.0136104 
trait 2 0.1 0 0.0210098 0.464117 0.453182 0 0 0.0346538 
trait 3 0.263249 0 0.023181 0 0.281361 0 0.0426411 0.00501003 
node 1 3 1 3
node 2 3 1 1
node 3 3 1 1
node 4 1 0 2
node 23 1 0 0
node 55 1 0 0
node 115 1 0 0
node 131 1 0 0
gene 2 1 4 5.76398 0 1 5.76398 1
gene 2 2 4 -8 0 2 -8 0
gene 1 3 4 -6.91947 0 3 -6.91947 1
gene 3 2 23 4.2954 0 40 4.2954 1
gene 3 23 4 -1.55113 0 41 -1.55113 0
gene 2 3 23 0.406178 0 44 0.406178 1
gene 1 3 55 0.702071 0 117 0.702071 1
gene 1 55 4 1.36589 0 118 1.36589 1
gene 2 1 55 2.85902 0 143 2.85902 1
gene 2 23 55 -0.472765 0 307 -0.472765 1
gene 2 2 115 2.65514 0 316 2.65514 1
gene 2 115 4 -8 0 317 -8 1
gene 3 23 115 -2.18598 0 366 -2.18598 1
gene 3 23 131 -0.0255567 0 378 -0.0255567 1
gene 3 131 4 1.24576 0 379 1.24576 1
gene 1 3 131 0.563003 0 494 0.563003 1
genomeend 100

/* Organism #101 Fitness: 15.0882 Error: 0.115644 */
genomestart 101
trait 1 0.1 0.0576945 0 0 0 0 0 0.0136104 
trait 2 0.1 0 0.0210098 0.464117 0.453182 0 0 0.0346538 
trait 3 0.263249 0 0.023181 0 0.281361 0 0.0426411 0.00501003 
node 1 3 1 3
node 2 3 1 1
node 3 3 1 1
node 4 1 0 2
node 23 1 0 0
node 55 1 0 0
node 115 1 0 0
node 131 1 0 0
gene 2 1 4 8 0 1 8 1
gene 2 2 4 -8 0 2 -8 0
gene 1 3 4 -6.47425 0 3 -6.47425 1
gene 3 2 23 6.5337 0 40 6.5337 1
gene 3 23 4 -2.36047 0 41 -2.36047 0
gene 2 3 23 0.93589 0 44 0.93589 1
gene 1 3 55 0.195189 0 117 0.195189 1
gene 1 55 4 1.17102 0 118 1.17102 1
gene 2 1 55 0.917215 0 143 0.917215 1
gene 2 23 55 -0.805334 0 307 -0.805334 1
gene 2 2 115 4.23994 0 316 4.23994 1
gene 2 115 4 -7.91817 0 317 -7.91817 1
gene 3 23 115 -3.46108 0 366 -3.46108 1
gene 3 23 131 -1.80481 0 378 -1.80481 1
gene 3 131 4 -0.314073 0 379 -0.314073 1
genomeend 101

/* Organism #102 Fitness: 3.99993 Error: 2.00002 */
genomestart 102
trait 1 0.1 0.0576945 0 0 0 0 0 0.0136104 
trait 2 0.1 0 0.0210098 0.464117 0.453182 0 0 0.0346538 
trait 3 0.263249 0 0.023181 0 0.281361 0 0.0426411 0.00501003 
node 1 3 1 3
node 2 3 1 1
node 3 3 1 1
node 4 1 0 2
node 23 1 0 0
node 55 1 0 0
node 115 1 0 0
node 131 1 0 0
gene 2 1 4 6.98741 0 1 6.98741 1
gene 2 2 4 -1.19547 0 2 -1.19547 0
gene 1 3 4 -5.41944 0 3 -5.41944 1
gene 3 2 23 2.98491 0 40 2.98491 1
gene 3 23 4 -2.25422 0 41 -2.25422 0
gene 2 3 23 1.0666 0 44 1.0666 1
gene 1 3 55 -1.25409 0 117 -1.25409 1
gene 1 55 4 2.72251 0 118 2.72251 1
gene 2 1 55 2.78786 0 143 2.78786 1
gene 2 23 55 0.0181337 0 307 0.0181337 1
gene 2 2 115 -0.738759 0 316 -0.738759 1
gene 2 115 4 -7.15158 0 317 -7.15158 1
gene 1 23 115 1.20365 0 366 1.20365 1
gene 3 23 131 -1.06278 0 378 -1.06278 1
gene 3 131 4 -0.530767 0 379 -0.530767 1
genomeend 102

/* Organism #103 Fitness: 3.99906 Error: 2.00024 */
genomestart 103
trait 1 0.137716 0.149606 0 0.74923 0.053287 0 0.0387411 0.0136104 
trait 2 0.1 0 0.0210098 0.464117 0.453182 0 0 0.0346538 
trait 3 0.263249 0 0.023181 0 0.281361 0 0.0426411 0.00501003 
node 1 3 1 3
node 2 3 1 1
node 3 3 1 1
node 4 1 0 2
node 23 1 0 0
node 55 1 0 0
node 115 1 0 0
node 131 1 0 0
gene 2 1 4 3.3099 0 1 3.3099 1
gene 2 2 4 -8 0 2 -8 0
gene 1 3 4 -4.42463 0 3 -4.42463 1
gene 3 2 23 6.50287 0 40 6.50287 1
gene 3 23 4 -3.33099 0 41 -3.33099 1
gene 2 3 23 -0.876966 0 44 -0.876966 1
gene 1 3 55 -0.00665285 0 117 -0.00665285 1
gene 1 55 4 -1.16614 0 118 -1.16614 1
gene 2 1 55 4.12201 0 143 4.12201 1
gene 2 23 55 0.548244 0 307 0.548244 1
gene 2 2 115 2.70664 0 316 2.70664 1
gene 2 115 4 -6.97617 0 317 -6.97617 1
gene 3 23 115 -0.90535 0 366 -0.90535 1
gene 3 23 131 1.60616 0 378 1.60616 1
gene 3 131 4 -2.21259 0 379 -2.21259 1
genomeend 103

/* Organism #104 Fitness: 8.99827 Error: 1.00029 */
genomestart 104
trait 1 0.706196 0.0576945 0 0 0 0 0 0.0136104 
trait 2 0.1 0 0.0210098 0.464117 0.453182 0 0 0.0346538 
trait 3 0.263249 0 0.023181 0 0.281361 0 0.0426411 0.00501003 
node 1 3 1 3
node 2 3 1 1
node 3 3 1 1
node 4 2 0 2
node 23 1 0 0
node 55 1 0 0
node 115 1 0 0
node 131 1 0 0
gene 2 1 4 2.4048 0 1 2.4048 1
gene 2 2 4 0.0361392 0 2 0.0361392 0
gene 1 3 4 -4.66413 0 3 -4.66413 1
gene 3 2 23 5.82778 0 40 5.82778 1
gene 3 23 4 -0.827129 0 41 -0.827129 0
gene 2 3 23 -1.69202 0 44 -1.69202 1
gene 1 3 55 -1.42323 0 117 -1.42323 1
gene 1 55 4 3.44431 0 118 3.44431 1
gene 2 1 55 2.74015 0 143 2.74015 1
gene 2 23 55 -0.645859 0 307 -0.645859 1
gene 2 2 115 -0.289275 0 316 -0.289275 1
gene 2 115 4 -0.336589 0 317 -0.336589 1
gene 3 23 115 -2.18598 0 366 -2.18598 1
gene 3 23 131 1.47964 0 378 1.47964 1
gene 3 131 4 1.33479 0 379 1.33479 1
genomeend 104

/* Species #24 : (Size 6) (AF 10.3307) (Age 17)  */


/* Organism #105 Fitness: 15.9954 Error: 0.000581157 */
genomestart 105
trait 1 0.1 0.0576945 0 0 0 0 0 0.0136104 
trait 2 0.2 0 0.0210098 0.0202803 0.0336948 0 0 0.0346538 
trait 3 0.263249 0 0.023181 0 0.281361 0 0.0426411 0.00501003 
node 1 3 1 3
node 2 3 1 1
node 3 3 1 1
node 4 1 0 2
node 23 1 0 0
node 55 1 0 0
node 91 1 0 0
node 118 1 0 0
gene 2 1 4 5.58726 0 1 5.58726 1
gene 3 2 4 -2.24117 0 2 -2.24117 1
gene 1 3 4 -6.30359 0 3 -6.30359 1
gene 3 2 23 4.40675 0 40 4.40675 0
gene 3 23 4 -3.92683 0 41 -3.92683 1
gene 2 3 23 -4.00603 0 44 -4.00603 1
gene 1 3 55 5.8678 0 117 5.8678 1
gene 1 55 4 3.40613 0 118 3.40613 1
gene 2 1 55 1.13857 0 143 1.13857 1
gene 3 2 55 1.07768 0 208 1.07768 1
gene 3 2 91 2.59253 0 240 2.59253 1
gene 3 91 4 -2.16444 0 241 -2.16444 1
gene 3 2 118 0.465835 0 327 0.465835 1
gene 3 118 23 1.6881 0 328 1.6881 1
gene 3 1 118 -3.25732 0 337 -3.25732 1
gene 1 23 91 -0.620005 0 354 -0.620005 1
genomeend 105

/* Organism #106 Fitness: 15.9954 Error: 0.000581157 */
genomestart 106
trait 1 0.1 0.0576945 0 0 0 0 0 0.0136104 
trait 2 0.2 0 0.0210098 0.0202803 0.0336948 0 0 0.0346538 
trait 3 0.263249 0 0.023181 0 0.281361 0 0.0426411 0.00501003 
node 1 3 1 3
node 2 3 1 1
node 3 3 1 1
node 4 1 0 2
node 23 1 0 0
node 55 1 0 0
node 91 1 0 0
node 118 1 0 0
gene 2 1 4 5.58726 0 1 5.58726 1
gene 3 2 4 -2.24117 0 2 -2.24117 1
gene 1 3 4 -6.30359 0 3 -6.30359 1
gene 3 2 23 4.40675 0 40 4.40675 0
gene 3 23 4 -3.92683 0 41 -3.92683 1
gene 2 3 23 -4.00603 0 44 -4.00603 1
gene 1 3 55 5.8678 0 117 5.8678 1
gene 1 55 4 3.40613 0 118 3.40613 1
gene 2 1 55 1.13857 0 143 1.13857 1
gene 3 2 55 1.07768 0 208 1.07768 1
gene 3 2 91 2.59253 0 240 2.59253 1
gene 3 91 4 -2.16444 0 241 -2.16444 1
gene 3 2 118 0.465835 0 327 0.465835 1
gene 3 118 23 1.6881 0 328 1.6881 1
gene 3 1 118 -3.25732 0 337 -3.25732 1
gene 1 23 91 -0.620005 0 354 -0.620005 1
genomeend 106

/* Organism #107 Fitness: 8.99703 Error: 1.0005 */
genomestart 107
trait 1 0.1 0.0576945 0 0 0 0 0 0.0136104 
trait 2 0.15 0 0.0210098 0.0202803 0.0336948 0 0 0.197325 
trait 3 0.263249 0 0.023181 0 0.281361 0 0.0426411 0.00501003 
node 1 3 1 3
node 2 3 1 1
node 3 3 1 1
node 4 1 0 2
node 23 1 0 0
node 55 1 0 0
node 91 1 0 0
node 118 1 0 0
gene 2 1 4 1.89177 0 1 1.89177 1
gene 2 2 4 -0.149084 0 2 -0.149084 1
gene 1 3 4 -1.36832 0 3 -1.36832 1
gene 3 2 23 7.65572 0 40 7.65572 0
gene 3 23 4 -6.02907 0 41 -6.02907 1
gene 2 3 23 -4.00603 0 44 -4.00603 1
gene 1 3 55 7.6523 0 117 7.6523 1
gene 1 55 4 2.76635 0 118 2.76635 1
gene 2 1 55 0.963189 0 143 0.963189 1
gene 3 2 55 1.52818 0 208 1.52818 1
gene 3 2 91 0.383745 0 240 0.383745 1
gene 3 91 4 0.314092 0 241 0.314092 1
gene 3 2 118 0.00342799 0 327 0.00342799 1
gene 3 118 23 1.6881 0 328 1.6881 1
gene 3 1 118 -4.0152 0 337 -4.0152 1
gene 1 23 91 -0.565015 0 354 -0.565015 1
genomeend 107

/* Organism #108 Fitness: 4.01619 Error: 1.99596 */
genomestart 108
trait 1 0.1 0.0576945 0 0 0 0 0 0.0136104 
trait 2 0.15 0 0.0210098 0.0202803 0.0336948 0 0 0.197325 
trait 3 0.263249 0 0.023181 0 0.281361 0 0.0426411 0.00501003 
node 1 3 1 3
node 2 3 1 1
node 3 3 1 1
node 4 1 0 2
node 23 1 0 0
node 55 1 0 0
node 91 1 0 0
node 118 1 0 0
gene 2 1 4 3.16074 0 1 3.16074 1
gene 3 2 4 -0.944551 0 2 -0.944551 1
gene 1 3 4 -6.37697 0 3 -6.37697 1
gene 3 2 23 7.15396 0 40 7.15396 1
gene 3 23 4 -6.99387 0 41 -6.99387 1
gene 2 3 23 -0.691466 0 44 -0.691466 1
gene 1 3 55 4.77868 0 117 4.77868 1
gene 1 55 4 3.35653 0 118 3.35653 1
gene 2 1 55 2.53808 0 143 2.53808 1
gene 3 2 55 1.1305 0 208 1.1305 1
gene 3 2 91 3.87752 0 240 3.87752 1
gene 3 91 4 -1.69013 0 241 -1.69013 1
gene 3 2 118 2.88246 0 327 2.88246 1
gene 3 118 23 2.44328 0 328 2.44328 1
gene 3 1 118 -2.98614 0 337 -2.98614 1
gene 1 23 91 1.9653 0 354 1.9653 1
genomeend 108

/* Organism #109 Fitness: 1.00017 Error: 2.99991 */
genomestart 109
trait 1 0.1 0.0576945 0 0 0 0 0 0.0136104 
trait 2 0.1 0 0.0210098 0.0202803 0.0336948 0 0 0.359996 
trait 3 0.263249 0 0.023181 0 0.281361 0 0.0426411 0.00501003 
node 1 3 1 3
node 2 3 1 1
node 3 3 1 1
node 4 1 0 2
node 23 1 0 0
node 55 1 0 0
node 91 1 0 0
node 118 1 0 0
gene 2 1 4 1.42608 0 1 1.42608 1
gene 3 2 4 -2.50068 0 2 -2.50068 1
gene 1 3 4 -8 0 3 -8 1
gene 3 2 23 5.78523 0 40 5.78523 0
gene 3 23 4 -7.59652 0 41 -7.59652 1
gene 2 3 23 -1.65942 0 44 -1.65942 1
gene 1 3 55 5.41752 0 117 5.41752 1
gene 1 55 4 4.27158 0 118 4.27158 1
gene 2 1 55 1.74576 0 143 1.74576 1
gene 3 2 55 0.892085 0 208 0.892085 1
gene 3 2 91 4.33373 0 240 4.33373 1
gene 3 91 4 -1.47901 0 241 -1.47901 1
gene 3 2 118 3.99501 0 327 3.99501 1
gene 3 118 23 2.61187 0 328 2.61187 1
gene 3 1 118 0.691369 0 337 0.691369 1
gene 1 23 91 -1.72562 0 354 -1.72562 1
genomeend 109

/* Organism #110 Fitness: 15.9802 Error: 0.00247559 */
genomestart 110
trait 1 0.1 0.0576945 0 0 0 0 0 0.0136104 
trait 2 0.2 0 0.0210098 0.0202803 0.0336948 0 0 0.0346538 
trait 3 0.263249 0 0.023181 0 0.281361 0 0.0426411 0.00501003 
node 1 3 1 3
node 2 3 1 1
node 3 3 1 1
node 4 1 0 2
node 23 1 0 0
node 55 1 0 0
node 91 1 0 0
node 118 1 0 0
gene 2 1 4 4.67024 0 1 4.67024 1
gene 3 2 4 -2.7322 0 2 -2.7322 1
gene 1 3 4 -6.69547 0 3 -6.69547 1
gene 3 2 23 4.44934 0 40 4.44934 0
gene 3 23 4 -4.05135 0 41 -4.05135 1
gene 2 3 23 -5.53311 0 44 -5.53311 1
gene 1 3 55 3.84272 0 117 3.84272 1
gene 1 55 4 5.66038 0 118 5.66038 1
gene 2 1 55 1.81335 0 143 1.81335 1
gene 3 2 55 1.07768 0 208 1.07768 1
gene 3 2 91 3.31485 0 240 3.31485 1
gene 3 91 4 -4.29215 0 241 -4.29215 1
gene 3 2 118 0.875588 0 327 0.875588 1
gene 3 118 23 -0.485429 0 328 -0.485429 1
gene 3 1 118 -5.19106 0 337 -5.19106 1
gene 1 23 91 1.28339 0 354 1.28339 1
genomeend 110

/* Species #25 : (Size 6) (AF 12.4391) (Age 13)  */


/* Organism #111 Fitness: 16 Error: 1.19063e-07 */
genomestart 111
trait 1 0.1 0.0576945 0 0 0 0 0 0.0136104 
trait 2 0.2 0 0.0210098 0.0202803 0.0336948 0 0 0.0346538 
trait 3 0.263249 0 0.08065 0.032296 0.00133847 0 0.0373109 0.00501003 
node 1 3 1 3
node 2 3 1 1
node 3 3 1 1
node 4 2 0 2
node 23 1 0 0
node 55 1 0 0
node 61 1 0 0
node 92 1 0 0
node 110 1 0 0
node 161 1 0 0
gene 2 1 4 2.44042 0 1 2.44042 1
gene 3 2 4 3.52596 0 2 3.52596 0
gene 1 3 4 -5.7359 0 3 -5.7359 1
gene 3 2 23 -4.41759 0 40 -4.41759 1
gene 3 23 4 0.813093 0 41 0.813093 1
gene 2 3 23 2.80974 0 44 2.80974 1
gene 1 3 55 2.18371 0 117 2.18371 0
gene 1 55 4 8 0 118 8 1
gene 1 2 55 -5.43826 0 125 -5.43826 1
gene 2 3 61 -0.709064 0 137 -0.709064 0
gene 2 61 23 -2.70451 0 138 -2.70451 1
gene 2 1 23 -0.163151 0 144 -0.163151 1
gene 2 3 92 -0.700028 0 242 -0.700028 0
gene 2 92 61 -0.950477 0 243 -0.950477 1
gene 2 61 4 5.1354 0 279 5.1354 1
gene 2 3 110 1.90196 0 300 1.90196 1
gene 2 110 92 2.26933 0 301 2.26933 1
gene 1 92 55 0.816048 0 358 0.816048 1
gene 2 1 92 -1.63214 0 410 -1.63214 1
gene 1 3 161 1 0 479 0 1
gene 1 161 55 2.18371 0 480 0 1
genomeend 111

/* Organism #112 Fitness: 9.00166 Error: 0.999723 */
genomestart 112
trait 1 0.1 0.0576945 0 0 0 0 0 0.0136104 
trait 2 0.2 0 0.0210098 0.0202803 0.0336948 0 0 0.0346538 
trait 3 0.263249 0 0.08065 0.032296 0.00133847 0 0.0373109 0.00501003 
node 1 3 1 3
node 2 3 1 1
node 3 3 1 1
node 4 2 0 2
node 23 1 0 0
node 55 1 0 0
node 61 1 0 0
node 92 1 0 0
node 110 1 0 0
gene 2 1 4 4.7961 0 1 4.7961 1
gene 3 2 4 1.07315 0 2 1.07315 0
gene 1 3 4 -7.13472 0 3 -7.13472 1
gene 3 2 23 -3.49769 0 40 -3.49769 1
gene 3 23 4 2.18633 0 41 2.18633 1
gene 2 3 23 0.826554 0 44 0.826554 1
gene 1 3 55 2.81843 0 117 2.81843 1
gene 1 55 4 8 0 118 8 1
gene 1 2 55 -4.67482 0 125 -4.67482 1
gene 2 3 61 -3.02735 0 137 -3.02735 0
gene 2 61 23 -3.34353 0 138 -3.34353 1
gene 2 1 23 0.421595 0 144 0.421595 1
gene 2 3 92 -1.96158 0 242 -1.96158 0
gene 2 92 61 0.480958 0 243 0.480958 1
gene 2 61 4 7.41442 0 279 7.41442 1
gene 2 3 110 0.0612826 0 300 0.0612826 1
gene 2 110 92 2.37345 0 301 2.37345 1
gene 1 92 55 -0.00432584 0 358 -0.00432584 1
gene 2 1 92 -1.89919 0 410 -1.89919 1
genomeend 112

/* Organism #113 Fitness: 16 Error: 5.74592e-06 */
genomestart 113
trait 1 0.1 0.0576945 0 0 0 0 0 0.0136104 
trait 2 0.2 0 0.0210098 0.0202803 0.0336948 0 0 0.0346538 
trait 3 0.263249 0 0.08065 0.032296 0.00133847 0 0.0373109 0.00501003 
node 1 3 1 3
node 2 3 1 1
node 3 3 1 1
node 4 2 0 2
node 23 1 0 0
node 55 1 0 0
node 61 1 0 0
node 92 1 0 0
node 110 1 0 0
gene 2 1 4 4.7579 0 1 4.7579 1
gene 3 2 4 1.90586 0 2 1.90586 0
gene 1 3 4 -7.36127 0 3 -7.36127 1
gene 3 2 23 -2.61406 0 40 -2.61406 1
gene 3 23 4 2.09755 0 41 2.09755 1
gene 2 3 23 0.880896 0 44 0.880896 1
gene 1 3 55 0.090768 0 117 0.090768 1
gene 1 55 4 8 0 118 8 1
gene 1 2 55 -6.28705 0 125 -6.28705 1
gene 2 3 61 0.430577 0 137 0.430577 0
gene 2 61 23 -4.17437 0 138 -4.17437 1
gene 2 1 23 1.21667 0 144 1.21667 1
gene 2 3 92 -2.34902 0 242 -2.34902 0
gene 2 92 61 -3.09714 0 243 -3.09714 1
gene 2 61 4 5.94984 0 279 5.94984 1
gene 2 3 110 4.16436 0 300 4.16436 1
gene 2 110 92 2.26933 0 301 2.26933 1
gene 1 92 55 0.235973 0 358 0.235973 1
gene 2 1 92 -0.122404 0 410 -0.122404 1
genomeend 113

/* Organism #114 Fitness: 8.65477 Error: 1.0581 */
genomestart 114
trait 1 0.1 0.0576945 0 0 0 0 0 0.0136104 
trait 2 0.2 0 0.0210098 0.0202803 0.0336948 0 0 0.0346538 
trait 3 0.263249 0 0.08065 0.032296 0.00133847 0 0.0373109 0.00501003 
node 1 3 1 3
node 2 3 1 1
node 3 3 1 1
node 4 2 0 2
node 23 1 0 0
node 55 1 0 0
node 61 1 0 0
node 92 1 0 0
node 110 1 0 0
gene 2 1 4 4.6092 0 1 4.6092 1
gene 3 2 4 5.20594 0 2 5.20594 0
gene 1 3 4 -1.05142 0 3 -1.05142 1
gene 3 2 23 -5.65488 0 40 -5.65488 1
gene 3 23 4 -1.2149 0 41 -1.2149 1
gene 2 3 23 5.08874 0 44 5.08874 1
gene 1 3 55 1.86285 0 117 1.86285 1
gene 1 55 4 1.78048 0 118 1.78048 1
gene 1 2 55 -5.43826 0 125 -5.43826 1
gene 2 3 61 -0.845052 0 137 -0.845052 0
gene 2 61 23 -2.32454 0 138 -2.32454 1
gene 2 1 23 1.20935 0 144 1.20935 1
gene 2 3 92 -0.960255 0 242 -0.960255 0
gene 2 92 61 -2.23323 0 243 -2.23323 1
