
/* Species #1 : (Size 24) (AF 13.8761) (Age 25)  */


/* Organism #0 Fitness: 15.9999 Error: 6.35377e-06 */
genomestart 0
trait 1 0.130853 0.299115 0.0643348 0.182264 0 0 0 0.0836582 
trait 2 0.2 0.00371727 0.0383264 0.0503469 0.0868424 0 0 0.0562157 
trait 3 0.286066 0.00735071 0.00293232 0.0660015 0.0173826 0.00158429 0.107147 0.0119282 
node 1 2 1 3
node 2 3 1 1
node 3 1 1 1
node 4 3 0 2
gene 1 1 4 7.98779 0 1 7.98779 1
gene 2 2 4 -5.27203 0 2 -5.27203 1
gene 1 3 4 -5.4095 0 3 -5.4095 1
genomeend 0

/* Organism #1 Fitness: 15.9999 Error: 6.74641e-06 */
genomestart 1
trait 1 0.130379 0.299642 0.0656105 0.185878 0 0 0 0.0934302 
trait 2 0.2 0.00443749 0.0364721 0.0484629 0.085461 0 0 0.0538125 
trait 3 0.288455 0.00987751 0.00304524 0.0612632 0.0219757 0.0016453 0.104107 0.0115016 
node 1 2 1 3
node 2 3 1 1
node 3 1 1 1
node 4 3 0 2
gene 2 1 4 7.98205 0 1 7.98205 1
gene 2 2 4 -5.24224 0 2 -5.24224 1
gene 1 3 4 -5.44226 0 3 -5.44226 1
genomeend 1

/* Organism #2 Fitness: 12.5626 Error: 0.45562 */
genomestart 2
trait 1 0.130067 0.302165 0.0678863 0.192326 0 0 0 0.107068 
trait 2 0.2 0.00548298 0.0340998 0.0461765 0.083948 0 0 0.0507635 
trait 3 0.291416 0.0137826 0.0223342 0.0540221 0.0291012 0.00172739 0.0952931 0.0567537 
node 1 2 1 3
node 2 3 1 1
node 3 1 1 1
node 4 3 0 2
gene 1 1 4 7.52177 0 1 7.52177 1
gene 2 2 4 -3.1956 0 2 -3.1956 1
gene 1 3 4 -4.36232 0 3 -4.36232 1
genomeend 2

/* Organism #3 Fitness: 15.9687 Error: 0.00391737 */
genomestart 3
trait 1 0.130257 0.300814 0.066631 0.188769 0 0 0 0.101256 
trait 2 0.2 0.00504155 0.035354 0.0473566 0.0847196 0 0 0.0523484 
trait 3 0.289933 0.0112558 0.012693 0.0574398 0.0244708 0.0016881 0.0995311 0.0341467 
node 1 2 1 3
node 2 2 1 1
node 3 1 1 1
node 4 3 0 2
gene 2 1 4 7.2243 0 1 7.2243 1
gene 1 2 4 -6.09481 0 2 -6.09481 1
gene 1 3 4 -5.33384 0 3 -5.33384 1
genomeend 3

/* Organism #4 Fitness: 4.51261 Error: 1.87571 */
genomestart 4
trait 1 0.130032 0.301165 0.0673352 0.190764 0 0 0 0.103142 
trait 2 0.2 0.00534358 0.0344332 0.0463715 0.0840684 0 0 0.0510877 
trait 3 0.291136 0.0133232 0.0223141 0.0536511 0.0282714 0.00171653 0.0951392 0.0568484 
node 1 2 1 3
node 2 3 1 1
node 3 1 1 1
node 4 3 0 2
gene 1 1 4 4.39036 0 1 4.39036 1
gene 2 2 4 -4.78687 0 2 -4.78687 1
gene 1 3 4 -6.76617 0 3 -6.76617 1
genomeend 4

/* Organism #5 Fitness: 15.9999 Error: 7.29496e-06 */
genomestart 5
trait 1 0.129986 0.301167 0.0673862 0.190909 0 0 0 0.105135 
trait 2 0.2 0.00532035 0.0343589 0.0463777 0.0840138 0 0 0.0510864 
trait 3 0.291131 0.0130934 0.0127462 0.0552735 0.027835 0.00171685 0.0981805 0.0339143 
node 1 2 1 3
node 2 3 1 1
node 3 1 1 1
node 4 3 0 2
gene 2 1 4 7.97631 0 1 7.97631 1
gene 2 2 4 -5.21246 0 2 -5.21246 1
gene 1 3 4 -5.47502 0 3 -5.47502 1
genomeend 5

/* Organism #6 Fitness: 15.6502 Error: 0.0439699 */
genomestart 6
trait 1 0.130159 0.302162 0.0677843 0.192037 0 0 0 0.103081 
trait 2 0.2 0.00552944 0.0342486 0.0461641 0.0840571 0 0 0.050766 
trait 3 0.291426 0.014242 0.0414701 0.0507774 0.029974 0.00172675 0.0892104 0.102622 
node 1 2 1 3
node 2 3 1 1
node 3 1 1 1
node 4 3 0 2
gene 1 1 4 5.78701 0 1 5.78701 1
gene 3 2 4 -2.88154 0 2 -2.88154 1
gene 1 3 4 -3.53088 0 3 -3.53088 1
genomeend 6

/* Organism #7 Fitness: 15.9999 Error: 6.8207e-06 */
genomestart 7
trait 1 0.130731 0.300287 0.0653554 0.185155 0 0 0 0.0914844 
trait 2 0.2 0.00432133 0.0372082 0.0492406 0.086101 0 0 0.0547516 
trait 3 0.287544 0.00872896 0.0125801 0.0621782 0.0198777 0.00162709 0.10257 0.0345733 
node 1 2 1 3
node 2 3 1 1
node 3 1 1 1
node 4 3 0 2
gene 1 1 4 7.98779 0 1 7.98779 1
gene 2 2 4 -5.27203 0 2 -5.27203 1
gene 1 3 4 -5.45874 0 3 -5.45874 1
genomeend 7

/* Organism #8 Fitness: 15.9873 Error: 0.00158765 */
genomestart 8
trait 1 0.130124 0.301162 0.0672332 0.190475 0 0 0 0.0991547 
trait 2 0.2 0.00539004 0.034582 0.0463591 0.0841775 0 0 0.0510902 
trait 3 0.291146 0.0137826 0.04145 0.0504064 0.0291442 0.00171589 0.0890564 0.102717 
node 1 2 1 3
node 2 3 1 1
node 3 1 1 1
node 4 1 0 2
gene 1 1 4 6.68228 0 1 6.68228 1
gene 3 2 4 -4.8745 0 2 -4.8745 1
gene 1 3 4 -5.35545 0 3 -5.35545 1
genomeend 8

/* Organism #9 Fitness: 15.995 Error: 0.000629177 */
genomestart 9
trait 1 0.130506 0.300638 0.0660595 0.18715 0 0 0 0.0933695 
trait 2 0.2 0.00462336 0.0362875 0.0482555 0.0854497 0 0 0.0534908 
trait 3 0.288746 0.0107964 0.0222012 0.0583894 0.0236783 0.00165552 0.0981786 0.057275 
node 1 2 1 3
node 2 3 1 1
node 3 1 1 1
node 4 3 0 2
gene 1 1 4 7.92384 0 1 7.92384 1
gene 2 2 4 -5.80094 0 2 -5.80094 1
gene 1 3 4 -3.6292 0 3 -3.6292 1
genomeend 9

/* Organism #10 Fitness: 10.6909 Error: 0.730304 */
genomestart 10
trait 1 0.130379 0.299642 0.0656105 0.185878 0 0 0 0.0934302 
trait 2 0.2 0.00443749 0.0364721 0.0484629 0.085461 0 0 0.0538125 
trait 3 0.288455 0.00987751 0.00304524 0.0612632 0.0219757 0.0016453 0.104107 0.0115016 
node 1 2 1 3
node 2 3 1 1
node 3 1 1 1
node 4 3 0 2
gene 2 1 4 6.51181 0 1 6.51181 1
gene 2 2 4 -4.26956 0 2 -4.26956 1
gene 1 3 4 -6.71409 0 3 -6.71409 1
genomeend 10

/* Organism #11 Fitness: 15.9999 Error: 7.55872e-06 */
genomestart 11
trait 1 0.130067 0.302165 0.0678863 0.192326 0 0 0 0.107068 
trait 2 0.2 0.00548298 0.0340998 0.0461765 0.083948 0 0 0.0507635 
trait 3 0.291416 0.0137826 0.0223342 0.0540221 0.0291012 0.00172739 0.0952931 0.0567537 
node 1 2 1 3
node 2 3 1 1
node 3 1 1 1
node 4 3 0 2
gene 1 1 4 7.98779 0 1 7.98779 1
gene 2 2 4 -5.22007 0 2 -5.22007 1
gene 1 3 4 -5.50798 0 3 -5.50798 1
genomeend 11

/* Organism #12 Fitness: 15.9823 Error: 0.00221422 */
genomestart 12
trait 1 0.130384 0.30181 0.0670801 0.190042 0 0 0 0.101196 
trait 2 0.2 0.00522741 0.0351693 0.0471492 0.0847083 0 0 0.0520268 
trait 3 0.290224 0.0121746 0.031849 0.0545661 0.0261734 0.00169832 0.0936023 0.0799202 
node 1 2 1 3
node 2 3 1 1
node 3 1 1 1
node 4 3 0 2
gene 1 1 4 8 0 1 8 1
gene 1 2 4 -4.57112 0 2 -4.57112 1
gene 1 3 4 -4.66981 0 3 -4.66981 1
genomeend 12

/* Organism #13 Fitness: 15.9954 Error: 0.000571722 */
genomestart 13
trait 1 0.130032 0.301165 0.0673352 0.190764 0 0 0 0.103142 
trait 2 0.2 0.00534358 0.0344332 0.0463715 0.0840684 0 0 0.0510877 
trait 3 0.291136 0.0133232 0.0223141 0.0536511 0.0282714 0.00171653 0.0951392 0.0568484 
node 1 2 1 3
node 2 3 1 1
node 3 1 1 1
node 4 3 0 2
gene 2 1 4 8 0 1 8 1
gene 2 2 4 -5.47679 0 2 -5.47679 1
gene 1 3 4 -4.04086 0 3 -4.04086 1
genomeend 13

/* Organism #14 Fitness: 9.01998 Error: 0.996672 */
genomestart 14
trait 1 0.130159 0.302162 0.0677843 0.192037 0 0 0 0.103081 
trait 2 0.2 0.00552944 0.0342486 0.0461641 0.0840571 0 0 0.050766 
trait 3 0.291426 0.014242 0.0414701 0.0507774 0.029974 0.00172675 0.0892104 0.102622 
node 1 2 1 3
node 2 3 1 1
node 3 1 1 1
node 4 3 0 2
gene 1 1 4 6.36629 0 1 6.36629 1
gene 3 2 4 -4.8745 0 2 -4.8745 1
gene 1 3 4 -0.369959 0 3 -0.369959 1
genomeend 14

/* Organism #15 Fitness: 14.5234 Error: 0.189043 */
genomestart 15
trait 1 0.130067 0.302165 0.0678863 0.192326 0 0 0 0.107068 
trait 2 0.2 0.00548298 0.0340998 0.0461765 0.083948 0 0 0.0507635 
trait 3 0.291416 0.0137826 0.0223342 0.0540221 0.0291012 0.00172739 0.0952931 0.0567537 
node 1 2 1 3
node 2 3 1 1
node 3 1 1 1
node 4 3 0 2
gene 1 1 4 8 0 1 8 1
gene 2 2 4 -4.66055 0 2 -4.66055 1
gene 1 3 4 -7.70427 0 3 -7.70427 1
genomeend 15

/* Organism #16 Fitness: 14.5063 Error: 0.191283 */
genomestart 16
trait 1 0.13035 0.30081 0.066529 0.18848 0 0 0 0.0972697 
trait 2 0.2 0.00508802 0.0355027 0.0473442 0.0848287 0 0 0.052351 
trait 3 0.289943 0.0117152 0.0318289 0.0541951 0.0253436 0.00168746 0.0934483 0.080015 
node 1 2 1 3
node 2 3 1 1
node 3 1 1 1
node 4 3 0 2
gene 1 1 4 6.337 0 1 6.337 1
gene 1 2 4 -4.18195 0 2 -4.18195 1
gene 1 3 4 -6.0442 0 3 -6.0442 1
genomeend 16

/* Organism #17 Fitness: 12.1663 Error: 0.511984 */
genomestart 17
trait 1 0.130113 0.302163 0.0678353 0.192181 0 0 0 0.105074 
trait 2 0.2 0.00550621 0.0341742 0.0461703 0.0840025 0 0 0.0507647 
trait 3 0.291421 0.0140123 0.0319022 0.0523997 0.0295376 0.00172707 0.0922518 0.0796878 
node 1 2 1 3
node 2 3 1 1
node 3 1 1 1
node 4 3 0 2
gene 1 1 4 5.53501 0 1 5.53501 1
gene 2 2 4 -4.91559 0 2 -4.91559 1
gene 1 3 4 -5.50798 0 3 -5.50798 1
genomeend 17

/* Organism #18 Fitness: 13.5873 Error: 0.313903 */
genomestart 18
trait 1 0.130113 0.302163 0.0678353 0.192181 0 0 0 0.105074 
trait 2 0.2 0.00550621 0.0341742 0.0461703 0.0840025 0 0 0.0507647 
trait 3 0.291421 0.0140123 0.0319022 0.0523997 0.0295376 0.00172707 0.0922518 0.0796878 
node 1 2 1 3
node 2 3 1 1
node 3 1 1 1
node 4 3 0 2
gene 1 1 4 7.60168 0 1 7.60168 1
gene 2 2 4 -7.44288 0 2 -7.44288 1
gene 1 3 4 -4.71073 0 3 -4.71073 1
genomeend 18

/* Organism #19 Fitness: 9.00076 Error: 0.999873 */
genomestart 19
trait 1 0.130124 0.301162 0.0672332 0.190475 0 0 0 0.0991547 
trait 2 0.2 0.00539004 0.034582 0.0463591 0.0841775 0 0 0.0510902 
trait 3 0.291146 0.0137826 0.04145 0.0504064 0.0291442 0.00171589 0.0890564 0.102717 
node 1 2 1 3
node 2 3 1 1
node 3 1 1 1
node 4 3 0 2
gene 1 1 4 8 0 1 8 1
gene 3 2 4 -3.73524 0 2 -3.73524 1
gene 1 3 4 -2.44309 0 3 -2.44309 1
genomeend 19

/* Organism #20 Fitness: 15.8737 Error: 0.0158233 */
genomestart 20
trait 1 0.130494 0.30055 0.0659932 0.186962 0 0 0 0.0963705 
trait 2 0.2 0.00468144 0.0362811 0.0482986 0.0854103 0 0 0.05355 
trait 3 0.288738 0.00999237 0.0126365 0.059809 0.0221743 0.00165759 0.101051 0.03436 
node 1 2 1 3
node 2 3 1 1
node 3 1 1 1
node 4 3 0 2
gene 2 1 4 7.54837 0 1 7.54837 1
gene 2 2 4 -6.70957 0 2 -6.70957 1
gene 1 3 4 -3.47349 0 3 -3.47349 1
genomeend 20

/* Organism #21 Fitness: 15.9999 Error: 7.55872e-06 */
genomestart 21
trait 1 0.130067 0.302165 0.0678863 0.192326 0 0 0 0.107068 
trait 2 0.2 0.00548298 0.0340998 0.0461765 0.083948 0 0 0.0507635 
trait 3 0.291416 0.0137826 0.0223342 0.0540221 0.0291012 0.00172739 0.0952931 0.0567537 
node 1 2 1 3
node 2 3 1 1
node 3 1 1 1
node 4 3 0 2
gene 1 1 4 7.98779 0 1 7.98779 1
gene 2 2 4 -5.22007 0 2 -5.22007 1
gene 1 3 4 -5.50798 0 3 -5.50798 1
genomeend 21

/* Organism #22 Fitness: 15.9999 Error: 7.27317e-06 */
genomestart 22
trait 1 0.130257 0.300814 0.066631 0.188769 0 0 0 0.101256 
trait 2 0.2 0.00504155 0.035354 0.0473566 0.0847196 0 0 0.0523484 
trait 3 0.289933 0.0112558 0.012693 0.0574398 0.0244708 0.0016881 0.0995311 0.0341467 
node 1 2 1 3
node 2 3 1 1
node 3 1 1 1
node 4 3 0 2
gene 2 1 4 7.97631 0 1 7.97631 1
gene 1 2 4 -5.24605 0 2 -5.24605 1
gene 1 3 4 -5.47502 0 3 -5.47502 1
genomeend 22

/* Organism #23 Fitness: 9.004 Error: 0.999334 */
genomestart 23
trait 1 0.130113 0.302163 0.0678353 0.192181 0 0 0 0.105074 
trait 2 0.2 0.00550621 0.0341742 0.0461703 0.0840025 0 0 0.0507647 
trait 3 0.291421 0.0140123 0.0319022 0.0523997 0.0295376 0.00172707 0.0922518 0.0796878 
node 1 2 1 3
node 2 2 1 1
node 3 1 1 1
node 4 3 0 2
gene 1 1 4 8 0 1 8 1
gene 3 2 4 -4.45408 0 2 -4.45408 1
gene 1 3 4 -2.06067 0 3 -2.06067 1
genomeend 23

/* Species #2 : (Size 19) (AF 10.6552) (Age 15)  */


/* Organism #24 Fitness: 15.9979 Error: 0.000259963 */
genomestart 24
trait 1 0.1 0.0576945 0 0 0 0 0 0.0136104 
trait 2 0.171995 0.196616 0.208926 0.0152102 0.246813 0 0.191283 0.214778 
trait 3 0.291454 0 0 0 0.00148188 0 0.0472098 0.00501003 
node 1 3 1 3
node 2 3 1 1
node 3 3 1 1
node 4 1 0 2
node 23 1 0 0
gene 2 1 4 5.94243 0 1 5.94243 1
gene 3 2 4 -0.992002 0 2 -0.992002 1
gene 1 3 4 -3.79359 0 3 -3.79359 1
gene 3 2 23 2.58696 0 40 2.52446 1
gene 3 23 4 -2.94436 0 41 -2.71549 1
gene 1 1 23 -1.77392 0 78 -1.77392 1
genomeend 24

/* Organism #25 Fitness: 15.997 Error: 0.000380934 */
genomestart 25
trait 1 0.1 0.0576945 0 0 0 0 0 0.0136104 
trait 2 0.157992 0.294924 0.302884 0.0126752 0.353372 0 0.286924 0.30484 
trait 3 0.291454 0 0 0 0.00148188 0 0.0472098 0.00501003 
node 1 3 1 3
node 2 3 1 1
node 3 3 1 1
node 4 2 0 2
node 23 1 0 0
gene 2 1 4 5.9603 0 1 5.9603 1
gene 3 2 4 -1.04203 0 2 -1.04203 1
gene 1 3 4 -3.48495 0 3 -3.48495 1
gene 3 2 23 2.24782 0 40 2.21657 1
gene 3 23 4 -3.21096 0 41 -2.86766 1
gene 1 1 23 -1.28137 0 78 -1.28137 1
genomeend 25

/* Organism #26 Fitness: 9.28195 Error: 0.953371 */
genomestart 26
trait 1 0.1 0.0468768 0.101547 0.186771 0.0371027 0.031331 0 0.0110584 
trait 2 0.185997 0.0983081 0.114968 0.0177453 0.140254 0 0.0956414 0.124716 
trait 3 0.272651 0 0 0 0.00138627 0 0.044164 0.00501003 
node 1 3 1 3
node 2 3 1 1
node 3 3 1 1
node 4 2 0 2
node 23 1 0 0
gene 2 1 4 4.16475 0 1 4.16475 1
gene 3 2 4 -3.56622 0 2 -3.56622 1
gene 1 3 4 -0.137693 0 3 -0.137693 1
gene 3 2 23 -1.36404 0 40 -1.36404 1
gene 3 23 4 -2.96087 0 41 -2.96087 1
gene 1 1 23 0.336107 0 78 0.336107 1
genomeend 26

/* Organism #27 Fitness: 12.7353 Error: 0.431347 */
genomestart 27
trait 1 0.1 0.0540886 0.033849 0.0622569 0.0123676 0.0104437 0 0.0127597 
trait 2 0.143989 0.393233 0.396842 0.0101402 0.459931 0 0.382566 0.394902 
trait 3 0.286753 0 0 0 0.00145798 0 0.0464483 0.00501003 
node 1 3 1 3
node 2 3 1 1
node 3 3 1 1
node 4 2 0 2
node 23 1 0 0
gene 2 1 4 7.08968 0 1 7.08968 1
gene 3 2 4 -1.40016 0 2 -1.40016 1
gene 3 3 4 -5.74675 0 3 -5.74675 1
gene 3 2 23 -0.292785 0 40 -0.292785 1
gene 3 23 4 -4.78431 0 41 -4.78431 1
gene 1 1 23 -1.96458 0 78 -1.96458 1
gene 2 3 23 -1.37541 0 130 -1.37541 1
genomeend 27

/* Organism #28 Fitness: 15.9936 Error: 0.000793994 */
genomestart 28
trait 1 0.1 0.0540886 0.033849 0.0622569 0.0123676 0.0104437 0 0.0127597 
trait 2 0.143989 0.393233 0.396842 0.0101402 0.459931 0 0.382566 0.394902 
trait 3 0.286753 0 0 0 0.00145798 0 0.0464483 0.00501003 
node 1 3 1 3
node 2 3 1 1
node 3 3 1 1
node 4 2 0 2
node 23 1 0 0
gene 2 1 4 6.69687 0 1 6.69687 1
gene 3 2 4 -1.86063 0 2 -1.86063 1
gene 1 3 4 -3.36439 0 3 -3.36439 1
gene 3 2 23 2.14897 0 40 2.14897 1
gene 3 23 4 -3.36221 0 41 -3.13334 1
gene 1 1 23 -0.244479 0 78 -0.244479 1
gene 2 3 23 -0.230807 0 130 0 1
genomeend 28

/* Organism #29 Fitness: 15.9923 Error: 0.000965278 */
genomestart 29
trait 1 0.1 0.0432709 0.135396 0.249028 0.0494703 0.0417746 0 0.0102078 
trait 2 0.2 0 0.0210098 0.0202803 0.0336948 0 0 0.0346538 
trait 3 0.263249 0 0 0 0.00133847 0 0.0426411 0.00501003 
node 1 3 1 3
node 2 3 1 1
node 3 3 1 1
node 4 2 0 2
node 23 1 0 0
gene 2 1 4 6.83116 0 1 6.83116 1
gene 3 2 4 -1.37559 0 2 -1.37559 1
gene 1 3 4 -3.3701 0 3 -3.3701 1
gene 3 2 23 2.8698 0 40 2.8698 1
gene 3 23 4 -3.5106 0 41 -3.5106 1
gene 1 1 23 -0.66826 0 78 -0.66826 1
gene 2 3 23 -0.230807 0 130 0 1
genomeend 29

/* Organism #30 Fitness: 9.00045 Error: 0.999926 */
genomestart 30
trait 1 0.1 0.0504827 0.0676981 0.124514 0.0247352 0.0208873 0 0.0119091 
trait 2 0.171995 0.196616 0.208926 0.0152102 0.246813 0 0.191283 0.214778 
trait 3 0.277351 0 0 0 0.00141018 0 0.0449254 0.00501003 
node 1 3 1 3
node 2 3 1 1
node 3 3 1 1
node 4 2 0 2
node 23 1 0 0
gene 2 1 4 5.92273 0 1 5.92273 1
gene 3 2 4 -0.355217 0 2 -0.355217 1
gene 1 3 4 -5.52258 0 3 -5.52258 1
gene 3 2 23 2.25964 0 40 2.25964 1
gene 3 23 4 -2.49348 0 41 -2.49348 1
gene 1 1 23 -0.728537 0 78 -0.728537 1
gene 2 3 23 1.24907 0 130 1.24907 1
genomeend 30

/* Organism #31 Fitness: 3.99972 Error: 2.00007 */
genomestart 31
trait 1 0.1 0.0540886 0.033849 0.0622569 0.0123676 0.0104437 0 0.0127597 
trait 2 0.157992 0.294924 0.302884 0.0126752 0.353372 0 0.286924 0.30484 
trait 3 0.286753 0 0 0 0.00145798 0 0.0464483 0.00501003 
node 1 3 1 3
node 2 3 1 1
node 3 3 1 1
node 4 3 0 2
node 23 1 0 0
gene 2 1 4 -1.87468 0 1 -1.87468 1
gene 3 2 4 0.87896 0 2 0.87896 1
gene 1 3 4 -3.52334 0 3 -3.52334 1
gene 3 2 23 1.92202 0 40 1.92202 1
gene 3 23 4 -3.47757 0 41 -3.47757 1
gene 1 1 23 -0.788814 0 78 -0.788814 1
genomeend 31

/* Organism #32 Fitness: 15.9983 Error: 0.000208711 */
genomestart 32
trait 1 0.1 0.0540886 0.033849 0.0622569 0.0123676 0.0104437 0 0.0127597 
trait 2 0.157992 0.294924 0.302884 0.0126752 0.353372 0 0.286924 0.30484 
trait 3 0.286753 0 0 0 0.00145798 0 0.0464483 0.00501003 
node 1 3 1 3
node 2 3 1 1
node 3 3 1 1
node 4 2 0 2
node 23 1 0 0
gene 2 1 4 6.36893 0 1 6.36893 1
gene 3 2 4 -1.13377 0 2 -1.13377 1
gene 1 3 4 -3.89048 0 3 -3.89048 1
gene 3 2 23 2.94784 0 40 2.94784 1
gene 3 23 4 -3.47757 0 41 -3.01983 1
gene 1 1 23 -0.788814 0 78 -0.788814 1
genomeend 32

/* Organism #33 Fitness: 8.65145 Error: 1.05867 */
genomestart 33
trait 1 0.1 0.0504827 0.0676981 0.124514 0.0247352 0.0208873 0 0.0119091 
trait 2 0.171995 0.196616 0.208926 0.0152102 0.246813 0 0.191283 0.214778 
trait 3 0.282052 0 0 0 0.00143408 0 0.0456869 0.00501003 
node 1 3 1 3
node 2 3 1 1
node 3 3 1 1
node 4 1 0 2
node 23 1 0 0
gene 2 1 4 6.58348 0 1 6.58348 1
gene 3 2 4 -2.43774 0 2 -2.43774 1
gene 1 3 4 -6.03034 0 3 -6.03034 1
gene 3 2 23 3.86979 0 40 3.86979 1
gene 3 23 4 -5.35556 0 41 -5.35556 1
gene 1 1 23 -2.78216 0 78 -2.78216 1
genomeend 33

/* Organism #34 Fitness: 15.9684 Error: 0.0039528 */
genomestart 34
trait 1 0.1 0.0504827 0.0676981 0.124514 0.0247352 0.0208873 0 0.0119091 
trait 2 0.171995 0.196616 0.208926 0.0152102 0.246813 0 0.191283 0.214778 
trait 3 0.277351 0 0 0 0.00141018 0 0.0449254 0.00501003 
node 1 3 1 3
node 2 3 1 1
node 3 3 1 1
node 4 2 0 2
node 23 1 0 0
gene 2 1 4 5.97817 0 1 5.97817 1
gene 3 2 4 -1.37559 0 2 -1.37559 1
gene 1 3 4 -3.17631 0 3 -3.17631 1
gene 3 2 23 2.8698 0 40 2.8698 1
gene 3 23 4 -3.47757 0 41 -3.01983 1
gene 1 1 23 -0.66826 0 78 -0.66826 1
gene 2 3 23 -0.230807 0 130 0 1
genomeend 34

/* Organism #35 Fitness: 9.02629 Error: 0.995621 */
genomestart 35
trait 1 0.1 0.0468768 0.101547 0.186771 0.0371027 0.031331 0 0.0110584 
trait 2 0.185997 0.0983081 0.114968 0.0177453 0.140254 0 0.0956414 0.124716 
trait 3 0.272651 0 0 0 0.00138627 0 0.044164 0.00501003 
node 1 3 1 3
node 2 3 1 1
node 3 3 1 1
node 4 2 0 2
node 23 1 0 0
gene 2 1 4 4.80496 0 1 4.80496 1
gene 3 2 4 -0.348404 0 2 -0.348404 1
gene 1 3 4 -2.63242 0 3 -2.63242 1
gene 3 2 23 0.89362 0 40 0.89362 1
gene 3 23 4 -0.75555 0 41 -0.75555 1
gene 1 1 23 -0.253711 0 78 -0.253711 1
genomeend 35

/* Organism #36 Fitness: 11.8755 Error: 0.55392 */
genomestart 36
trait 1 0.1 0.0432709 0.135396 0.249028 0.0494703 0.0417746 0 0.0102078 
trait 2 0.2 0 0.0210098 0.0202803 0.0336948 0 0 0.0346538 
trait 3 0.263249 0 0 0 0.00133847 0 0.0426411 0.00501003 
node 1 3 1 3
node 2 3 1 1
node 3 3 1 1
node 4 2 0 2
node 23 1 0 0
gene 2 1 4 8 0 1 8 1
gene 3 2 4 -3.76661 0 2 -3.76661 1
gene 1 3 4 -4.33667 0 3 -4.33667 1
gene 3 2 23 1.99722 0 40 1.99722 1
gene 3 23 4 -4.27915 0 41 -4.27915 1
gene 1 1 23 -0.418047 0 78 -0.418047 1
genomeend 36

/* Organism #37 Fitness: 8.62529 Error: 1.06312 */
genomestart 37
trait 1 0.1 0.0432709 0.135396 0.249028 0.0494703 0.0417746 0 0.0102078 
trait 2 0.2 0 0.0210098 0.0202803 0.0336948 0 0 0.0346538 
trait 3 0.263249 0 0 0 0.00133847 0 0.0426411 0.00501003 
node 1 3 1 3
node 2 3 1 1
node 3 3 1 1
node 4 2 0 2
node 23 1 0 0
gene 2 1 4 6.84763 0 1 6.84763 1
gene 3 2 4 -2.2686 0 2 -2.2686 1
gene 1 3 4 -5.05773 0 3 -5.05773 1
gene 3 2 23 0.905862 0 40 0.905862 1
gene 3 23 4 -4.03687 0 41 -4.03687 1
gene 1 1 23 0.443216 0 78 0.443216 1
genomeend 37

/* Organism #38 Fitness: 15.3044 Error: 0.0879146 */
genomestart 38
trait 1 0.1 0.0504827 0.0676981 0.124514 0.0247352 0.0208873 0 0.0119091 
trait 2 0.185997 0.0983081 0.114968 0.0177453 0.140254 0 0.0956414 0.124716 
trait 3 0.277351 0 0 0 0.00141018 0 0.0449254 0.00501003 
node 1 3 1 3
node 2 3 1 1
node 3 3 1 1
node 4 1 0 2
node 23 1 0 0
gene 2 1 4 6.83116 0 1 6.83116 1
gene 3 2 4 -0.992002 0 2 -0.992002 1
gene 1 3 4 -3.3701 0 3 -3.3701 1
gene 3 2 23 2.58696 0 40 2.52446 1
gene 3 23 4 -2.94436 0 41 -2.71549 1
gene 1 1 23 -0.66826 0 78 -0.66826 1
genomeend 38

/* Organism #39 Fitness: 1.00001 Error: 3 */
genomestart 39
trait 1 0.1 0.0576945 0 0 0 0 0 0.0136104 
trait 2 0.171995 0.196616 0.208926 0.0152102 0.246813 0 0.191283 0.214778 
trait 3 0.291454 0 0 0 0.00148188 0 0.0472098 0.00501003 
node 1 3 1 3
node 2 3 1 1
node 3 3 1 1
node 4 1 0 2
node 23 1 0 0
gene 2 1 4 -2.48011 0 1 -2.48011 1
gene 3 2 4 -1.27369 0 2 -1.27369 1
gene 1 3 4 -3.79359 0 3 -3.79359 1
gene 3 2 23 1.07508 0 40 1.07508 1
gene 3 23 4 -0.0146594 0 41 -0.0146594 1
gene 1 1 23 -1.80796 0 78 -1.80796 1
genomeend 39

/* Organism #40 Fitness: 4 Error: 2 */
genomestart 40
trait 1 0.1 0.0468768 0.101547 0.186771 0.0371027 0.031331 0 0.0110584 
trait 2 0.171995 0.196616 0.208926 0.0152102 0.246813 0 0.191283 0.214778 
trait 3 0.272651 0 0 0 0.00138627 0 0.044164 0.00501003 
node 1 3 1 3
node 2 3 1 1
node 3 3 1 1
node 4 2 0 2
node 23 1 0 0
gene 2 1 4 7.36645 0 1 7.36645 1
gene 3 2 4 0.262285 0 2 0.262285 1
gene 1 3 4 -1.71748 0 3 -1.71748 1
gene 3 2 23 1.77586 0 40 1.77586 1
gene 3 23 4 -4.62446 0 41 -4.62446 1
gene 1 1 23 -2.21815 0 78 -2.21815 1
gene 2 3 23 -0.230807 0 130 -0.230807 1
genomeend 40

/* Organism #41 Fitness: 4 Error: 2 */
genomestart 41
trait 1 0.1 0.0576945 0 0 0 0 0 0.0136104 
trait 2 0.171995 0.196616 0.208926 0.0152102 0.246813 0 0.191283 0.214778 
trait 3 0.291454 0 0 0 0.00148188 0 0.0472098 0.00501003 
node 1 3 1 3
node 2 3 1 1
node 3 3 1 1
node 4 1 0 2
node 23 1 0 0
gene 2 1 4 5.94243 0 1 5.94243 1
gene 3 2 4 0.477683 0 2 0.477683 1
gene 1 3 4 -1.30909 0 3 -1.30909 1
gene 3 2 23 4.5179 0 40 4.5179 1
gene 3 23 4 -1.00777 0 41 -1.00777 1
gene 1 1 23 -1.48559 0 78 -1.48559 1
genomeend 41

/* Organism #42 Fitness: 9.00002 Error: 0.999997 */
genomestart 42
trait 1 0.1 0.0468768 0.101547 0.186771 0.0371027 0.031331 0 0.0110584 
trait 2 0.185997 0.0983081 0.114968 0.0177453 0.140254 0 0.0956414 0.124716 
trait 3 0.272651 0 0 0 0.00138627 0 0.044164 0.00501003 
node 1 3 1 3
node 2 3 1 1
node 3 3 1 1
node 4 1 0 2
node 23 3 0 0
gene 2 1 4 8 0 1 8 1
gene 3 2 4 -3.0598 0 2 -3.0598 1
gene 1 3 4 -2.38177 0 3 -2.38177 1
gene 3 2 23 -2.47917 0 40 -2.47917 1
gene 3 23 4 -2.58061 0 41 -2.58061 1
gene 1 1 23 -1.68385 0 78 -1.68385 1
genomeend 42

/* Species #3 : (Size 17) (AF 10.7772) (Age 10)  */


/* Organism #43 Fitness: 15.9855 Error: 0.00181801 */
genomestart 43
trait 1 0.1 0.0576945 0 0 0 0 0 0.0136104 
trait 2 0.2 0 0.0210098 0.0202803 0.0336948 0.132647 0 0.0346538 
trait 3 0.300856 0 0.0826598 0 0.0764277 0.101405 0.0523488 0.00501003 
node 1 3 1 3
node 2 3 1 1
node 3 3 1 1
node 4 2 0 2
node 23 1 0 0
node 37 1 0 0
gene 2 1 4 6.12573 0 1 6.12573 1
gene 3 2 4 0.520227 0 2 0.520227 0
gene 1 3 4 -4.82048 0 3 -4.82048 1
gene 3 2 23 3.65658 0 40 3.65658 1
gene 3 23 4 -6.05394 0 41 -6.05394 1
gene 1 3 37 0.947929 0 74 0.947929 1
gene 1 37 4 3.40248 0 75 3.40248 1
genomeend 43

/* Organism #44 Fitness: 4 Error: 2 */
genomestart 44
trait 1 0.1 0.0576945 0 0 0 0 0 0.0136104 
trait 2 0.2 0 0.0210098 0.0202803 0.0336948 0.176863 0 0.0346538 
trait 3 0.300856 0 0.0826598 0 0.0764277 0.101405 0.0523488 0.00501003 
node 1 3 1 3
node 2 3 1 1
node 3 3 1 1
node 4 2 0 2
node 23 1 0 0
node 37 1 0 0
gene 2 1 4 6.76584 0 1 6.76584 1
gene 3 2 4 0.287781 0 2 0.287781 0
gene 1 3 4 -3.92371 0 3 -3.92371 1
gene 3 2 23 -0.791331 0 40 -0.791331 1
gene 3 23 4 -5.36416 0 41 -5.36416 1
gene 1 3 37 0.716975 0 74 0.716975 1
gene 1 37 4 3.62984 0 75 3.62984 1
gene 2 3 23 -0.0962935 0 130 -0.0962935 1
genomeend 44

/* Organism #45 Fitness: 7.92961 Error: 1.18404 */
genomestart 45
trait 1 0.1 0.0576945 0 0 0 0 0 0.0136104 
trait 2 0.2 0 0.0210098 0.0202803 0.0336948 0.176863 0 0.0346538 
trait 3 0.300856 0 0.0826598 0 0.0764277 0.101405 0.0523488 0.00501003 
node 1 3 1 3
node 2 3 1 1
node 3 3 1 1
node 4 2 0 2
node 23 1 0 0
node 37 1 0 0
node 63 1 0 0
gene 2 1 4 6.6045 0 1 6.6045 1
gene 3 2 4 -0.758587 0 2 -0.758587 0
gene 1 3 4 -2.03965 0 3 -2.03965 0
gene 3 2 23 0.926358 0 40 0.926358 1
gene 3 23 4 -8 0 41 -8 1
gene 1 3 37 -2.81623 0 74 -2.81623 1
gene 1 37 4 2.77993 0 75 2.77993 1
gene 1 3 63 1 0 141 0 1
gene 1 63 4 -2.03965 0 142 0 1
genomeend 45

/* Organism #46 Fitness: 13.0507 Error: 0.387424 */
genomestart 46
trait 1 0.1 0.0576945 0 0 0 0 0 0.0136104 
trait 2 0.2 0 0.0210098 0.0202803 0.0336948 0.132647 0 0.0346538 
trait 3 0.300856 0 0.0826598 0 0.0764277 0.101405 0.0523488 0.00501003 
node 1 3 1 3
node 2 3 1 1
node 3 3 1 1
node 4 2 0 2
node 23 1 0 0
node 37 1 0 0
gene 2 1 4 5.61338 0 1 5.61338 1
gene 3 2 4 4.46004 0 2 4.46004 0
gene 1 3 4 -4.53032 0 3 -4.53032 1
gene 3 2 23 3.39423 0 40 3.39423 1
gene 3 23 4 -5.64197 0 41 -5.64197 1
gene 1 3 37 0.0621417 0 74 0.0621417 1
gene 1 37 4 1.87055 0 75 1.87055 1
gene 1 23 37 1.53452 0 131 1.53452 1
genomeend 46

/* Organism #47 Fitness: 14.7719 Error: 0.156582 */
genomestart 47
trait 1 0.1 0.0576945 0 0 0 0 0 0.0136104 
trait 2 0.2 0 0.0210098 0.0202803 0.0336948 0.132647 0 0.0346538 
trait 3 0.300856 0 0.0826598 0 0.0764277 0.101405 0.0523488 0.00501003 
node 1 3 1 3
node 2 3 1 1
node 3 3 1 1
node 4 2 0 2
node 23 1 0 0
node 37 1 0 0
gene 2 1 4 6.32059 0 1 6.32059 1
gene 3 2 4 2.74795 0 2 2.74795 0
gene 1 3 4 -4.93334 0 3 -4.93334 1
gene 3 2 23 1.61495 0 40 1.61495 1
gene 3 23 4 -5.33799 0 41 -5.33799 1
gene 1 3 37 2.22146 0 74 2.22146 1
gene 1 37 4 3.60658 0 75 3.60658 1
gene 1 23 37 -0.283924 0 131 0 1
genomeend 47

/* Organism #48 Fitness: 10.0749 Error: 0.825909 */
genomestart 48
trait 1 0.1 0.0576945 0 0 0 0 0 0.0136104 
trait 2 0.166303 0.653713 0.0199043 0 0 0.132647 0 0 
trait 3 0.300856 0 0.0826598 0 0.0764277 0.101405 0.0523488 0.00501003 
node 1 3 1 3
node 2 3 1 1
node 3 3 1 1
node 4 2 0 2
node 23 1 0 0
node 37 1 0 0
gene 2 1 4 5.7465 0 1 5.7465 1
gene 3 2 4 -1.97195 0 2 -1.97195 0
gene 1 3 4 -7.01854 0 3 -7.01854 1
gene 3 2 23 5.75689 0 40 5.75689 1
gene 3 23 4 -6.1643 0 41 -6.1643 1
gene 1 3 37 1.79749 0 74 1.79749 1
gene 1 37 4 4.0392 0 75 4.0392 1
genomeend 48

/* Organism #49 Fitness: 14.7719 Error: 0.156582 */
genomestart 49
trait 1 0.1 0.0576945 0 0 0 0 0 0.0136104 
trait 2 0.2 0 0.0210098 0.0202803 0.0336948 0.132647 0 0.0346538 
trait 3 0.300856 0 0.0826598 0 0.0764277 0.101405 0.0523488 0.00501003 
node 1 3 1 3
node 2 3 1 1
node 3 3 1 1
node 4 2 0 2
node 23 1 0 0
node 37 1 0 0
gene 2 1 4 6.32059 0 1 6.32059 1
gene 3 2 4 2.74795 0 2 2.74795 0
gene 1 3 4 -4.93334 0 3 -4.93334 1
gene 3 2 23 1.61495 0 40 1.61495 1
gene 3 23 4 -5.33799 0 41 -5.33799 1
gene 1 3 37 2.22146 0 74 2.22146 1
gene 1 37 4 3.60658 0 75 3.60658 1
gene 1 23 37 -0.283924 0 131 0 1
genomeend 49

/* Organism #50 Fitness: 9.0409 Error: 0.993191 */
genomestart 50
trait 1 0.1 0.0576945 0 0 0 0 0 0.0136104 
trait 2 0.2 0 0.0210098 0.0202803 0.0336948 0.110539 0 0.0346538 
trait 3 0.300856 0 0.0826598 0 0.0764277 0.101405 0.0523488 0.00501003 
node 1 3 1 3
node 2 3 1 1
node 3 3 1 1
node 4 2 0 2
node 23 1 0 0
node 37 1 0 0
gene 2 1 4 4.32248 0 1 4.32248 1
gene 3 2 4 1.96347 0 2 1.96347 0
gene 1 3 4 -7.61132 0 3 -7.61132 1
gene 3 2 23 6.0851 0 40 6.0851 1
gene 3 23 4 -2.99423 0 41 -2.99423 1
gene 1 3 37 1.64096 0 74 1.64096 1
gene 1 37 4 3.77812 0 75 3.77812 1
genomeend 50

/* Organism #51 Fitness: 15.2496 Error: 0.0949322 */
genomestart 51
trait 1 0.1 0.0576945 0 0 0 0 0 0.0136104 
trait 2 0.2 0 0.0210098 0.0202803 0.0336948 0.0884315 0 0.0346538 
trait 3 0.300856 0 0.0826598 0 0.0764277 0.101405 0.0523488 0.00501003 
node 1 3 1 3
node 2 3 1 1
node 3 3 1 1
node 4 2 0 2
node 23 1 0 0
node 37 1 0 0
gene 2 1 4 6.05257 0 1 6.05257 1
gene 3 2 4 -1.88548 0 2 -1.88548 0
gene 1 3 4 -3.49661 0 3 -3.49661 1
gene 3 2 23 5.23611 0 40 5.23611 1
gene 3 23 4 -3.68486 0 41 -3.68486 1
gene 1 3 37 -0.160146 0 74 -0.160146 1
gene 1 37 4 2.09314 0 75 2.09314 1
genomeend 51

/* Organism #52 Fitness: 15.7268 Error: 0.0342958 */
genomestart 52
trait 1 0.1 0.0576945 0 0 0 0 0 0.0136104 
trait 2 0.2 0 0.0210098 0.0202803 0.0336948 0.132647 0 0.0346538 
trait 3 0.300856 0 0.0826598 0 0.0764277 0.101405 0.0523488 0.00501003 
node 1 3 1 3
node 2 3 1 1
node 3 3 1 1
node 4 2 0 2
node 23 1 0 0
node 37 1 0 0
gene 2 1 4 6.70692 0 1 6.70692 1
gene 3 2 4 -0.29255 0 2 -0.29255 0
gene 1 3 4 -5.66943 0 3 -5.66943 1
gene 3 2 23 2.49476 0 40 2.49476 1
gene 3 23 4 -3.77825 0 41 -3.77825 1
gene 1 3 37 3.3798 0 74 3.3798 1
gene 1 37 4 1.723 0 75 1.723 1
genomeend 52

/* Organism #53 Fitness: 9.00329 Error: 0.999451 */
genomestart 53
trait 1 0.1 0.0576945 0 0 0 0 0 0.0136104 
trait 2 0.2 0 0.0210098 0.0202803 0.0336948 0.132647 0 0.0346538 
trait 3 0.300856 0 0.0826598 0 0.0764277 0.101405 0.0523488 0.00501003 
node 1 3 1 3
node 2 3 1 1
node 3 3 1 1
node 4 2 0 2
node 23 1 0 0
node 37 1 0 0
gene 2 1 4 4.24365 0 1 4.24365 1
gene 3 2 4 1.72325 0 2 1.72325 0
gene 1 3 4 -2.50487 0 3 -2.50487 1
gene 1 2 23 3.7282 0 40 3.7282 1
gene 3 23 4 -7.02279 0 41 -7.02279 1
gene 1 3 37 1.18976 0 74 1.18976 1
gene 1 37 4 3.11466 0 75 3.11466 1
genomeend 53

/* Organism #54 Fitness: 7.77135 Error: 1.21229 */
genomestart 54
trait 1 0.1 0.0576945 0 0 0 0 0 0.0136104 
trait 2 0.2 0 0.0210098 0.0202803 0.0336948 0.0884315 0 0.0346538 
trait 3 0.300856 0 0.0826598 0 0.0764277 0.101405 0.0523488 0.00501003 
node 1 3 1 3
node 2 3 1 1
node 3 3 1 1
node 4 2 0 2
node 23 2 0 0
node 37 1 0 0
gene 2 1 4 4.21126 0 1 4.21126 1
gene 3 2 4 0.896049 0 2 0.896049 0
gene 1 3 4 -6.63187 0 3 -6.63187 1
gene 3 2 23 1.70971 0 40 1.70971 1
gene 3 23 4 -6.50073 0 41 -6.50073 1
gene 1 3 37 2.43988 0 74 2.43988 1
gene 1 37 4 5.01972 0 75 5.01972 1
genomeend 54

/* Organism #55 Fitness: 14.7719 Error: 0.156582 */
genomestart 55
trait 1 0.1 0.0576945 0 0 0 0 0 0.0136104 
trait 2 0.2 0 0.0210098 0.0202803 0.0336948 0.132647 0 0.0346538 
trait 3 0.300856 0 0.0826598 0 0.0764277 0.101405 0.0523488 0.00501003 
node 1 3 1 3
node 2 3 1 1
node 3 3 1 1
node 4 2 0 2
node 23 1 0 0
node 37 1 0 0
gene 2 1 4 6.32059 0 1 6.32059 1
gene 3 2 4 2.74795 0 2 2.74795 0
gene 1 3 4 -4.93334 0 3 -4.93334 1
gene 3 2 23 1.61495 0 40 1.61495 1
gene 3 23 4 -5.33799 0 41 -5.33799 1
gene 1 3 37 2.22146 0 74 2.22146 1
gene 1 37 4 3.60658 0 75 3.60658 1
gene 1 23 37 -0.283924 0 131 0 1
genomeend 55

/* Organism #56 Fitness: 8.88258 Error: 1.01963 */
genomestart 56
trait 1 0.1 0.0576945 0 0 0 0 0 0.0136104 
trait 2 0.2 0 0.0210098 0.0202803 0.0336948 0.132647 0 0.0346538 
trait 3 0.300856 0 0.0826598 0 0.0764277 0.101405 0.0523488 0.00501003 
node 1 3 1 3
node 2 3 1 1
node 3 3 1 1
node 4 2 0 2
node 23 1 0 0
node 37 1 0 0
gene 2 1 4 4.77006 0 1 4.77006 1
gene 3 2 4 0.940193 0 2 0.940193 0
gene 1 3 4 -3.77493 0 3 -3.77493 1
gene 3 2 23 2.49814 0 40 2.49814 1
gene 3 23 4 -5.07801 0 41 -5.07801 1
gene 1 3 37 -0.119334 0 74 -0.119334 1
gene 1 37 4 2.02555 0 75 2.02555 1
genomeend 56

/* Organism #57 Fitness: 4.92369 Error: 1.78106 */
genomestart 57
trait 1 0.1 0.0576945 0 0 0 0 0 0.0136104 
trait 2 0.2 0 0.0210098 0.0202803 0.0336948 0.110539 0 0.0346538 
trait 3 0.300856 0 0.0826598 0 0.0764277 0.101405 0.0523488 0.00501003 
node 1 3 1 3
node 2 3 1 1
node 3 3 1 1
node 4 2 0 2
node 23 1 0 0
node 37 1 0 0
gene 2 1 4 6.32059 0 1 6.32059 1
gene 3 2 4 1.18873 0 2 1.18873 1
gene 1 3 4 -5.32625 0 3 -5.32625 1
gene 3 2 23 2.85692 0 40 2.85692 1
gene 3 23 4 -5.33799 0 41 -5.33799 1
gene 1 3 37 2.22146 0 74 2.22146 1
gene 1 37 4 3.41304 0 75 3.41304 1
genomeend 57

/* Organism #58 Fitness: 8.24332 Error: 1.12888 */
genomestart 58
trait 1 0.1 0.0576945 0 0 0 0 0 0.0136104 
trait 2 0.2 0 0.0210098 0.0202803 0.0336948 0.154755 0 0.0346538 
trait 3 0.300856 0 0.0826598 0 0.0764277 0.101405 0.0523488 0.00501003 
node 1 3 1 3
node 2 3 1 1
node 3 3 1 1
node 4 2 0 2
node 23 1 0 0
node 37 1 0 0
gene 2 1 4 6.6045 0 1 6.6045 1
gene 3 2 4 0.520227 0 2 0.520227 0
gene 1 3 4 -4.82048 0 3 -4.82048 1
gene 3 2 23 0.926358 0 40 0.926358 1
gene 3 23 4 -8 0 41 -8 1
gene 1 3 37 -2.81623 0 74 -2.81623 1
gene 1 37 4 3.40248 0 75 3.40248 1
genomeend 58

/* Organism #59 Fitness: 9.01522 Error: 0.997464 */
genomestart 59
trait 1 0.1 0.0576945 0 0 0 0 0 0.0136104 
trait 2 0.2 0 0.0210098 0.0202803 0.0336948 0.176863 0 0.0346538 
trait 3 0.300856 0 0.0826598 0 0.0764277 0.101405 0.0523488 0.00501003 
node 1 3 1 3
node 2 3 1 1
node 3 3 1 1
node 4 2 0 2
node 23 1 0 0
node 37 1 0 0
gene 2 1 4 5.84892 0 1 5.84892 1
gene 3 2 4 0.844999 0 2 0.844999 0
gene 1 3 4 -4.93334 0 3 -4.93334 1
gene 3 2 23 1.86658 0 40 1.86658 1
gene 3 23 4 -2.43118 0 41 -2.43118 1
gene 1 3 37 1.81649 0 74 1.81649 1
gene 1 37 4 2.6325 0 75 2.6325 1
gene 2 3 23 -0.0261312 0 130 -0.0261312 1
genomeend 59

/* Species #4 : (Size 20) (AF 8.51039) (Age 9)  */


/* Organism #60 Fitness: 15.9828 Error: 0.00215352 */
genomestart 60
trait 1 0.1 0.0576945 0 0 0 0 0 0.0136104 
trait 2 0.2 0 0.0210098 0.0202803 0.0336948 0 0 0.0346538 
trait 3 0.263249 0 0 0 0.00133847 0 0.0426411 0.00501003 
node 1 3 1 3
node 2 3 1 1
node 3 3 1 1
node 4 2 0 2
node 23 3 0 0
gene 2 1 4 5.13135 0 1 5.13135 1
gene 3 2 4 -0.270622 0 2 -0.270622 1
gene 1 3 4 -3.12065 0 3 -3.12065 1
gene 3 2 23 1.34875 0 40 1.09875 1
gene 3 23 4 -3.44454 0 41 -2.52906 1
gene 2 3 23 -0.626521 0 44 -0.626521 1
gene 3 1 23 -0.276134 0 106 0 1
genomeend 60

/* Organism #61 Fitness: 11.6055 Error: 0.593315 */
genomestart 61
trait 1 0.078125 0.0576945 0.135635 0 0 0 0 0.0136104 
trait 2 0.2 0 0.0298831 0.0202803 0.0336948 0 0 0.0346538 
trait 3 0.277351 0 0.00121084 0 0.00250732 0.00148542 0.0449784 0.00501003 
node 1 3 1 3
node 2 3 1 1
node 3 3 1 1
node 4 2 0 2
node 23 1 0 0
gene 2 1 4 5.12028 0 1 5.12028 1
gene 3 2 4 -2.97906 0 2 -2.97906 1
gene 1 3 4 -6.19919 0 3 -6.19919 1
gene 3 2 23 2.71913 0 40 2.71913 1
gene 3 23 4 1.00221 0 41 1.00221 1
gene 2 3 23 2.72876 0 44 2.72876 1
gene 2 1 23 1.60494 0 106 1.60494 1
genomeend 61

/* Organism #62 Fitness: 8.94174 Error: 1.00973 */
genomestart 62
trait 1 0.096875 0.0576945 0.0193765 0 0 0 0 0.0136104 
trait 2 0.2 0 0.0250431 0.0202803 0.0336948 0 0 0.0346538 
trait 3 0.263249 0 0.000726502 0 0.00199676 0.000891254 0.0426729 0.00501003 
node 1 3 1 3
node 2 3 1 1
node 3 3 1 1
node 4 2 0 2
node 23 3 0 0
node 63 1 0 0
gene 2 1 4 5.13135 0 1 5.13135 1
gene 3 2 4 -0.270622 0 2 -0.270622 1
gene 1 3 4 -7.21662 0 3 -7.21662 0
gene 3 2 23 1.34875 0 40 1.09875 1
gene 3 23 4 -0.298889 0 41 -0.298889 1
gene 2 3 23 0.985193 0 44 0.985193 1
gene 3 1 23 -0.276134 0 106 0 1
gene 1 3 63 1 0 141 0 1
gene 1 63 4 -7.21662 0 142 0 1
genomeend 62

/* Organism #63 Fitness: 4.80209 Error: 1.80863 */
genomestart 63
trait 1 0.078125 0.0576945 0.135635 0 0 0 0 0.0136104 
trait 2 0.2 0 0.0298831 0.0202803 0.0336948 0 0 0.0346538 
trait 3 0.277351 0 0.00121084 0 0.00250732 0.00148542 0.0449784 0.00501003 
node 1 3 1 3
node 2 3 1 1
node 3 3 1 1
node 4 2 0 2
node 23 1 0 0
gene 2 1 4 0.410832 0 1 0.410832 1
gene 3 2 4 0.179357 0 2 0.179357 1
gene 1 3 4 -2.43291 0 3 -2.43291 1
gene 3 2 23 1.8292 0 40 1.8292 1
gene 3 23 4 -0.583523 0 41 -0.583523 1
gene 2 3 23 -0.00935611 0 44 -0.00935611 1
gene 3 1 23 0.716276 0 106 0.716276 1
genomeend 63

/* Organism #64 Fitness: 14.6045 Error: 0.178415 */
genomestart 64
trait 1 0.0859375 0.0576945 0.0871941 0 0 0 0 0.0136104 
trait 2 0.2 0 0.0294797 0.0202803 0.0336948 0 0 0.0346538 
trait 3 0.2703 0 0.00133192 0 0.00258118 0.00163397 0.0438415 0.00501003 
node 1 3 1 3
node 2 3 1 1
node 3 3 1 1
node 4 2 0 2
node 23 1 0 0
gene 2 1 4 6.68605 0 1 6.68605 1
gene 3 2 4 -1.81274 0 2 -1.81274 1
gene 1 3 4 -5.4812 0 3 -5.4812 1
gene 3 2 23 2.60458 0 40 2.60458 1
gene 3 23 4 -2.50152 0 41 -2.50152 1
gene 2 3 23 0.985193 0 44 0.985193 1
gene 3 1 23 -1.10409 0 106 -1.10409 1
genomeend 64

/* Organism #65 Fitness: 15.882 Error: 0.0147831 */
genomestart 65
trait 1 0.0859375 0.0576945 0.0871941 0 0 0 0 0.0136104 
trait 2 0.2 0 0.0294797 0.0202803 0.0336948 0 0 0.0346538 
trait 3 0.2703 0 0.00133192 0 0.00258118 0.00163397 0.0438415 0.00501003 
node 1 3 1 3
node 2 3 1 1
node 3 3 1 1
node 4 2 0 2
node 23 1 0 0
gene 2 1 4 7.23706 0 1 7.23706 1
gene 3 2 4 -1.58221 0 2 -1.58221 1
gene 1 3 4 -6.34891 0 3 -6.34891 1
gene 3 2 23 2.87973 0 40 2.87973 1
gene 3 23 4 -1.4002 0 41 -1.4002 1
gene 2 3 23 -0.329818 0 44 -0.329818 1
gene 3 1 23 -0.414821 0 106 -0.414821 1
genomeend 65

/* Organism #66 Fitness: 6.25 Error: 1.5 */
genomestart 66
trait 1 0.1 0.0576945 0 0 0 0 0 0.0136104 
trait 2 0.2 0 0.0242364 0.0202803 0.0336948 0 0 0.0346538 
trait 3 0.260898 0 0.00064578 0 0.00191166 0.000792226 0.0422886 0.00501003 
node 1 3 1 3
node 2 3 1 1
node 3 3 1 1
node 4 2 0 2
node 23 3 0 0
gene 2 1 4 5.74276 0 1 5.74276 1
gene 3 2 4 0.960322 0 2 0.960322 0
gene 1 3 4 -4.52945 0 3 -4.52945 1
gene 3 2 23 2.61573 0 40 2.61573 1
gene 3 23 4 -2.72619 0 41 -2.72619 1
gene 2 3 23 -2.47172 0 44 -2.47172 1
gene 3 1 23 -2.62744 0 106 -2.62744 1
genomeend 66

/* Organism #67 Fitness: 6.25 Error: 1.5 */
genomestart 67
trait 1 0.096875 0.0576945 0.0193765 0 0 0 0 0.0136104 
trait 2 0.2 0 0.0282697 0.0202803 0.0336948 0 0 0.0346538 
trait 3 0.260898 0 0.00137228 0 0.00256995 0.00168348 0.0423204 0.00501003 
node 1 3 1 3
node 2 3 1 1
node 3 3 1 1
node 4 2 0 2
node 23 1 0 0
gene 2 1 4 8 0 1 8 1
gene 3 2 4 -1.67045 0 2 -1.67045 0
gene 1 3 4 -3.12065 0 3 -3.12065 1
gene 3 2 23 4.37916 0 40 4.37916 1
gene 3 23 4 1.05573 0 41 1.05573 1
gene 2 3 23 -2.19242 0 44 -2.19242 1
gene 3 1 23 0.552498 0 106 0.552498 1
genomeend 67

/* Organism #68 Fitness: 4.00021 Error: 1.99995 */
genomestart 68
trait 1 0.1 0.0576945 0 0 0 0 0 0.0136104 
trait 2 0.2 0 0.0210098 0.0202803 0.0336948 0 0 0.0346538 
trait 3 0.263249 0 0 0 0.00133847 0 0.0426411 0.00501003 
node 1 3 1 3
node 2 3 1 1
node 3 3 1 1
node 4 2 0 2
node 23 3 0 0
gene 2 1 4 6.88401 0 1 6.88401 1
gene 3 2 4 0.300734 0 2 0.300734 1
gene 1 3 4 -2.34516 0 3 -2.34516 1
gene 3 2 23 3.06856 0 40 3.06856 1
gene 3 23 4 -2.85943 0 41 -2.85943 1
gene 2 3 23 0.475821 0 44 0.475821 1
gene 3 1 23 -2.56212 0 106 -2.56212 1
genomeend 68

/* Organism #69 Fitness: 6.24984 Error: 1.50003 */
genomestart 69
trait 1 0.0890625 0.0576945 0.0678177 0 0 0 0 0.0136104 
trait 2 0.2 0 0.0286731 0.0202803 0.0336948 0 0 0.0346538 
trait 3 0.26795 0 0.0012512 0 0.00249608 0.00153494 0.0434573 0.00501003 
node 1 3 1 3
node 2 3 1 1
node 3 3 1 1
node 4 2 0 2
node 23 3 0 0
gene 2 1 4 3.87584 0 1 3.87584 1
gene 3 2 4 -0.270622 0 2 -0.270622 0
gene 1 3 4 -3.12065 0 3 -3.12065 1
gene 3 2 23 1.34875 0 40 1.09875 1
gene 3 23 4 0.70414 0 41 0.70414 1
gene 2 3 23 1.16978 0 44 1.16978 1
gene 3 1 23 -0.276134 0 106 0 1
genomeend 69

/* Organism #70 Fitness: 11.3731 Error: 0.627591 */
genomestart 70
trait 1 0.1 0.0576945 0 0 0 0 0 0.0136104 
trait 2 0.2 0 0.0274631 0.0202803 0.0336948 0 0 0.0346538 
trait 3 0.97529 0 0.00129156 0 0.00248485 0 0.0419361 0.00501003 
node 1 3 1 3
node 2 3 1 1
node 3 3 1 1
node 4 2 0 2
node 23 3 0 0
gene 2 1 4 3.87584 0 1 3.87584 1
gene 3 2 4 -0.270622 0 2 -0.270622 0
gene 1 3 4 -3.12065 0 3 -3.12065 1
gene 3 2 23 1.34875 0 40 1.09875 1
gene 3 23 4 -3.44454 0 41 -2.52906 1
gene 2 3 23 -0.626521 0 44 -0.626521 1
gene 3 1 23 -0.276134 0 106 0 1
genomeend 70

/* Organism #71 Fitness: 2.25264 Error: 2.49912 */
genomestart 71
trait 1 0.1 0.0576945 0 0 0 0 0 0.0136104 
trait 2 0.2 0 0.0274631 0.0202803 0.0336948 0 0 0.0346538 
trait 3 0.258548 0 0.00129156 0 0.00248485 0.00158445 0.0419361 0.00501003 
node 1 3 1 3
node 2 3 1 1
node 3 3 1 1
node 4 2 0 2
node 23 3 0 0
gene 2 1 4 -0.445663 0 1 -0.445663 1
gene 3 2 4 -2.0313 0 2 -2.0313 0
gene 1 3 4 -2.06812 0 3 -2.06812 1
gene 3 2 23 0.173157 0 40 0.173157 1
gene 3 23 4 -4.82706 0 41 -4.82706 1
gene 2 3 23 1.61815 0 44 1.61815 1
gene 3 1 23 -0.276134 0 106 -0.276134 1
genomeend 71

/* Organism #72 Fitness: 15.6153 Error: 0.0483769 */
genomestart 72
trait 1 0.0890625 0.0576945 0.0678177 0 0 0 0 0.0136104 
trait 2 0.2 0 0.0254464 0.0202803 0.0336948 0 0 0.0346538 
trait 3 0.2703 0 0.000605419 0 0.00192289 0.000742712 0.0438097 0.00501003 
node 1 3 1 3
node 2 3 1 1
node 3 3 1 1
node 4 2 0 2
node 23 3 0 0
gene 2 1 4 5.68031 0 1 5.68031 1
gene 3 2 4 -1.09424 0 2 -1.09424 1
gene 1 3 4 -4.00233 0 3 -4.00233 1
gene 3 2 23 1.37071 0 40 1.24571 1
gene 3 23 4 -1.3702 0 41 -0.91246 1
gene 2 3 23 0.271629 0 44 0.271629 1
gene 3 1 23 -0.100981 0 106 0.0370862 1
genomeend 72

/* Organism #73 Fitness: 6.25 Error: 1.5 */
genomestart 73
trait 1 0.0890625 0.0576945 0.0678177 0 0 0 0 0.0136104 
trait 2 0.2 0 0.0286731 0.0202803 0.0336948 0 0 0.0346538 
trait 3 0.26795 0 0.0012512 0 0.00249608 0.00153494 0.0434573 0.00501003 
node 1 3 1 3
node 2 3 1 1
node 3 3 1 1
node 4 2 0 2
node 23 3 0 0
gene 2 1 4 6.22927 0 1 6.22927 1
gene 3 2 4 -0.270622 0 2 -0.270622 0
gene 1 3 4 -4.88401 0 3 -4.88401 1
gene 3 2 23 1.34875 0 40 1.09875 1
gene 3 23 4 -3.44454 0 41 -2.52906 1
gene 2 3 23 1.16978 0 44 1.16978 1
gene 3 1 23 0.0741723 0 106 0.0741723 1
genomeend 73

/* Organism #74 Fitness: 9 Error: 1 */
genomestart 74
trait 1 0.09375 0.0576945 0.038753 0 0 0 0 0.0136104 
trait 2 0.954821 0 0.0290764 0.0202803 0.0336948 0.0906875 0 0.0346538 
trait 3 0.263249 0 0.001453 0 0.00265504 0.00178251 0.0427046 0.00501003 
node 1 3 1 3
node 2 3 1 1
node 3 3 1 1
node 4 2 0 2
node 23 1 0 0
gene 2 1 4 5.70327 0 1 5.70327 1
gene 3 2 4 -0.853124 0 2 -0.853124 1
gene 1 3 4 -8 0 3 -8 1
gene 3 2 23 3.78063 0 40 3.78063 1
gene 3 23 4 -1.47101 0 41 -1.47101 1
gene 2 3 23 1.57839 0 44 1.57839 1
gene 3 1 23 -0.681636 0 106 -0.681636 1
genomeend 74

/* Organism #75 Fitness: 15.9917 Error: 0.00103666 */
genomestart 75
trait 1 0.078125 0.0576945 0.135635 0 0 0 0 0.0136104 
trait 2 0.2 0 0.0298831 0.0202803 0.0336948 0 0 0.0346538 
trait 3 0.277351 0 0.00121084 0 0.00250732 0.00148542 0.0449784 0.00501003 
node 1 3 1 3
node 2 3 1 1
node 3 3 1 1
node 4 2 0 2
node 23 1 0 0
gene 2 1 4 8 0 1 8 1
gene 3 2 4 -4.3896 0 2 -4.3896 1
gene 1 3 4 -4.14953 0 3 -4.14953 1
gene 3 2 23 0.953181 0 40 0.953181 1
gene 3 23 4 -0.856438 0 41 -0.856438 1
gene 2 3 23 2.83132 0 44 2.83132 1
gene 3 1 23 -0.306464 0 106 -0.306464 1
genomeend 75

/* Organism #76 Fitness: 6.08957 Error: 1.53229 */
genomestart 76
trait 1 0.075 0.0576945 0.155012 0 0 0 0 0.0136104 
trait 2 0.2 0 0.0532763 0 0.827144 0 0 0.798345 
trait 3 0.300856 0 0.00161445 0 0.00445539 0.00396113 0.024437 0.00250501 
node 1 3 1 3
node 2 3 1 1
node 3 3 1 1
node 4 2 0 2
node 23 1 0 0
gene 2 1 4 -0.58544 0 1 -0.58544 1
gene 3 2 4 4.80227 0 2 4.80227 1
gene 1 3 4 -1.85213 0 3 -1.85213 1
gene 3 2 23 1.00328 0 40 1.00328 1
gene 3 23 4 -2.33936 0 41 -2.33936 1
gene 2 3 23 -1.70506 0 44 -1.70506 1
gene 3 1 23 2.30953 0 83 2.30953 1
genomeend 76

/* Organism #77 Fitness: 1.06676 Error: 2.96716 */
genomestart 77
trait 1 0.075 0.0576945 0.155012 0 0 0 0 0.0136104 
trait 2 0.2 0 0.0532763 0 0.827144 0 0 0.798345 
trait 3 0.300856 0 0.00161445 0 0.00445539 0.00396113 0.024437 0.00250501 
node 1 3 1 3
node 2 3 1 1
node 3 3 1 1
node 4 2 0 2
node 23 1 0 0
gene 2 1 4 2.81824 0 1 2.81824 1
gene 3 2 4 4.35181 0 2 4.35181 1
gene 1 3 4 -2.43134 0 3 -2.43134 1
gene 3 2 23 2.27661 0 40 2.27661 1
gene 3 23 4 -1.08152 0 41 -1.08152 1
gene 2 3 23 -3.43209 0 44 -3.43209 1
gene 3 1 23 4.47194 0 83 4.47194 1
genomeend 77

/* Organism #78 Fitness: 4.00001 Error: 2 */
genomestart 78
trait 1 0.075 0.0576945 0.155012 0 0 0 0 0.0136104 
trait 2 0.2 0 0.0532763 0 0.827144 0 0 0.798345 
trait 3 0.300856 0 0.00161445 0 0.00445539 0.00396113 0.024437 0.00250501 
node 1 3 1 3
node 2 3 1 1
node 3 3 1 1
node 4 2 0 2
node 23 1 0 0
gene 2 1 4 3.64586 0 1 3.64586 1
gene 3 2 4 1.08412 0 2 1.08412 1
gene 1 3 4 0.2078 0 3 0.2078 1
gene 3 2 23 6.40611 0 40 6.40611 1
gene 3 23 4 -1.19916 0 41 -1.19916 1
gene 2 3 23 -2.53592 0 44 -2.53592 1
gene 3 1 23 4.24936 0 83 4.24936 1
genomeend 78

/* Organism #79 Fitness: 4 Error: 2 */
genomestart 79
trait 1 0.075 0.0576945 0.155012 0 0 0 0 0.0136104 
trait 2 0.2 0 0.0532763 0 0.827144 0 0 0.798345 
trait 3 0.300856 0 0.00161445 0 0.00445539 0.00396113 0.024437 0.00250501 
node 1 2 1 3
node 2 3 1 1
node 3 3 1 1
node 4 2 0 2
node 23 1 0 0
gene 2 1 4 3.33302 0 1 3.33302 1
gene 3 2 4 4.13972 0 2 4.13972 1
gene 1 3 4 0.412013 0 3 0.412013 1
gene 3 2 23 2.25108 0 40 2.25108 1
gene 3 23 4 -0.215385 0 41 -0.215385 1
gene 2 3 23 -2.07612 0 44 -2.07612 1
gene 3 1 23 5.79121 0 83 5.79121 1
genomeend 79

/* Species #5 : (Size 31) (AF 8.02252) (Age 7)  */


/* Organism #80 Fitness: 9 Error: 1 */
genomestart 80
trait 1 0.1 0.0576945 0 0 0 0 0 0.0136104 
trait 2 0.2 0 0.0210098 0.0202803 0.0336948 0 0 0.0346538 
trait 3 0.150428 0 0 0 0.000764841 0 0.0243663 0.00501003 
node 1 3 1 3
node 2 3 1 1
node 3 3 1 1
node 4 2 0 2
node 23 1 0 0
node 48 1 0 0
gene 2 1 4 3.99212 0 1 3.99212 1
gene 3 2 4 -0.580349 0 2 -0.580349 0
gene 1 3 4 0.476272 0 3 0.476272 1
gene 3 2 23 -0.758695 0 40 -0.758695 1
gene 3 23 4 0.830616 0 41 0.830616 0
gene 2 3 23 0.31461 0 44 0.31461 1
gene 3 23 48 1.25438 0 100 1.25438 1
gene 3 48 4 5.40819 0 101 5.40819 1
genomeend 80

/* Organism #81 Fitness: 3.74449 Error: 2.06493 */
genomestart 81
trait 1 0.1 0.0576945 0 0 0 0 0 0.0136104 
trait 2 0.2 0 0.0210098 0.0202803 0.0336948 0 0 0.0346538 
trait 3 0.150428 0 0 0 0.000764841 0 0.0243663 0.00501003 
node 1 3 1 3
node 2 3 1 1
node 3 3 1 1
node 4 2 0 2
node 23 1 0 0
node 48 1 0 0
gene 2 1 4 2.12745 0 1 2.12745 1
gene 3 2 4 1.89318 0 2 1.89318 1
gene 1 3 4 -3.17422 0 3 -3.17422 1
gene 3 2 23 -0.0715086 0 40 -0.0715086 1
gene 3 23 4 -1.95885 0 41 -1.95885 0
gene 2 3 23 -1.44273 0 44 -1.44273 1
gene 3 23 48 0.881255 0 100 0.881255 1
gene 3 48 4 3.17116 0 101 3.17116 1
genomeend 81

/* Organism #82 Fitness: 9 Error: 1 */
genomestart 82
trait 1 0.1 0.0576945 0 0 0 0 0 0.0136104 
trait 2 0.2 0 0.0210098 0.0202803 0.0336948 0 0 0.0346538 
trait 3 0.150428 0 0 0 0.000764841 0 0.0243663 0.00501003 
node 1 3 1 3
node 2 3 1 1
node 3 3 1 1
node 4 2 0 2
node 23 1 0 0
node 48 1 0 0
gene 2 1 4 1.85344 0 1 1.85344 1
gene 3 2 4 -0.137529 0 2 -0.137529 0
gene 1 3 4 1.33108 0 3 1.33108 1
gene 3 2 23 -2.39598 0 40 -2.39598 1
gene 3 23 4 -5.45585 0 41 -5.45585 0
gene 2 3 23 -2.04909 0 44 -2.04909 1
gene 3 23 48 2.20197 0 100 2.20197 1
gene 3 48 4 3.82436 0 101 3.82436 1
genomeend 82

/* Organism #83 Fitness: 9 Error: 1 */
genomestart 83
trait 1 0.1 0.0576945 0 0 0 0 0 0.0136104 
trait 2 0.2 0 0.0210098 0.0202803 0.0336948 0 0 0.0346538 
trait 3 0.150428 0 0 0 0.000764841 0 0.0243663 0.00501003 
node 1 3 1 3
node 2 3 1 1
node 3 3 1 1
node 4 2 0 2
node 23 1 0 0
node 48 1 0 0
gene 2 1 4 3.86468 0 1 3.86468 1
gene 3 2 4 -1.54571 0 2 -1.54571 0
gene 1 3 4 -1.67354 0 3 -1.67354 1
gene 3 2 23 -0.50253 0 40 -0.50253 1
gene 3 23 4 2.89244 0 41 2.89244 0
gene 2 3 23 0.164292 0 44 0.164292 1
gene 3 23 48 1.12761 0 100 1.12761 1
gene 3 48 4 5.59858 0 101 5.59858 1
genomeend 83

/* Organism #84 Fitness: 8.9999 Error: 1.00002 */
genomestart 84
trait 1 0.1 0.0576945 0 0 0 0 0 0.0136104 
trait 2 0.2 0 0.0210098 0.0202803 0.0336948 0 0 0.0346538 
trait 3 0.150428 0 0 0 0.000764841 0 0.0243663 0.00501003 
node 1 3 1 3
node 2 3 1 1
node 3 3 1 1
node 4 2 0 2
node 23 1 0 0
node 48 1 0 0
gene 2 1 4 0.220014 0 1 0.220014 1
gene 3 2 4 0.854733 0 2 0.854733 0
gene 1 3 4 -0.201656 0 3 -0.201656 1
gene 3 2 23 0.0943168 0 40 0.0943168 1
gene 3 23 4 -6.09268 0 41 -6.09268 0
gene 2 3 23 0.414285 0 44 0.414285 1
gene 3 23 48 2.0476 0 100 2.0476 1
gene 3 48 4 4.48748 0 101 4.48748 1
genomeend 84

/* Organism #85 Fitness: 8.9976 Error: 1.0004 */
genomestart 85
trait 1 0.1 0.0576945 0 0 0 0 0 0.0136104 
trait 2 0.2 0 0.0210098 0.0202803 0.0336948 0 0 0.0346538 
trait 3 0.150428 0 0 0 0.000764841 0 0.0243663 0.00501003 
node 1 3 1 3
node 2 3 1 1
node 3 3 1 1
node 4 2 0 2
node 23 1 0 0
node 48 1 0 0
gene 2 1 4 4.84495 0 1 4.84495 1
gene 3 2 4 -0.847047 0 2 -0.847047 0
gene 1 3 4 0.377544 0 3 0.377544 1
gene 3 2 23 0.172078 0 40 0.172078 1
gene 3 23 4 -1.78483 0 41 -1.78483 0
gene 2 3 23 0.90856 0 44 0.90856 1
gene 3 23 48 0.714003 0 100 0.714003 1
gene 3 48 4 3.17811 0 101 3.17811 1
genomeend 85

/* Organism #86 Fitness: 6.89559 Error: 1.37406 */
genomestart 86
trait 1 0.1 0.0576945 0 0 0 0 0 0.0136104 
trait 2 0.2 0 0.0210098 0.0202803 0.0336948 0 0 0.0346538 
trait 3 0.150428 0 0 0 0.000764841 0 0.0243663 0.00501003 
node 1 3 1 3
node 2 3 1 1
node 3 3 1 1
node 4 2 0 2
node 23 1 0 0
node 48 1 0 0
gene 2 1 4 3.99212 0 1 3.99212 1
gene 3 2 4 -1.76634 0 2 -1.76634 0
gene 1 3 4 1.7901 0 3 1.7901 1
gene 3 2 23 -0.758695 0 40 -0.758695 1
gene 3 23 4 1.59507 0 41 1.59507 0
gene 2 3 23 0.31461 0 44 0.31461 1
gene 3 23 48 -0.738847 0 100 -0.738847 1
gene 3 48 4 4.08044 0 101 4.08044 1
genomeend 86

/* Organism #87 Fitness: 9 Error: 1 */
genomestart 87
trait 1 0.1 0.0576945 0 0 0 0 0 0.0136104 
trait 2 0.2 0 0.0210098 0.0202803 0.0336948 0 0 0.0346538 
trait 3 0.150428 0 0 0 0.000764841 0 0.0243663 0.00501003 
node 1 3 1 3
node 2 3 1 1
node 3 3 1 1
node 4 2 0 2
node 23 1 0 0
node 48 3 0 0
gene 2 1 4 2.30308 0 1 2.30308 1
gene 3 2 4 -2.7444 0 2 -2.7444 0
gene 1 3 4 0.758487 0 3 0.758487 1
gene 3 2 23 -2.23219 0 40 -2.23219 1
gene 3 23 4 0.692586 0 41 0.692586 0
gene 2 3 23 1.47651 0 44 1.47651 1
gene 3 23 48 3.88391 0 100 3.88391 1
gene 3 48 4 6.85795 0 101 6.85795 1
genomeend 87

/* Organism #88 Fitness: 8.9996 Error: 1.00007 */
genomestart 88
trait 1 0.1 0.0576945 0 0 0 0 0 0.0136104 
trait 2 0.2 0 0.0210098 0.0202803 0.0336948 0 0 0.0346538 
trait 3 0.150428 0 0 0 0.000764841 0 0.0243663 0.00501003 
node 1 1 1 3
node 2 3 1 1
node 3 3 1 1
node 4 2 0 2
node 23 1 0 0
node 48 1 0 0
gene 2 1 4 2.03445 0 1 2.03445 1
gene 3 2 4 -1.76634 0 2 -1.76634 0
gene 1 3 4 1.7901 0 3 1.7901 1
gene 3 2 23 1.35473 0 40 1.35473 1
gene 3 23 4 1.59507 0 41 1.59507 0
gene 2 3 23 -1.44273 0 44 -1.44273 1
gene 3 23 48 -0.738847 0 100 -0.738847 1
gene 3 48 4 4.08044 0 101 4.08044 1
genomeend 88

/* Organism #89 Fitness: 8.9725 Error: 1.00459 */
genomestart 89
trait 1 0.1 0.0576945 0 0 0 0 0 0.0136104 
trait 2 0.2 0 0.0210098 0.0202803 0.0336948 0 0 0.0346538 
trait 3 0.150428 0 0 0 0.000764841 0 0.0243663 0.00501003 
node 1 3 1 3
node 2 3 1 1
node 3 3 1 1
node 4 2 0 2
node 23 1 0 0
node 48 1 0 0
gene 2 1 4 0.729254 0 1 0.729254 1
gene 3 2 4 3.22823 0 2 3.22823 0
gene 1 3 4 -4.90279 0 3 -4.90279 1
gene 3 2 23 1.59615 0 40 1.59615 1
gene 3 23 4 -2.588 0 41 -2.588 0
gene 2 3 23 -3.70414 0 44 -3.70414 1
gene 3 23 48 1.68929 0 100 1.68929 1
gene 3 48 4 2.18509 0 101 2.18509 1
genomeend 89

/* Organism #90 Fitness: 6.26485 Error: 1.49703 */
genomestart 90
trait 1 0.1 0.0576945 0 0 0 0 0 0.0136104 
trait 2 0.2 0 0.0210098 0.0202803 0.0336948 0 0 0.0346538 
trait 3 0.150428 0 0 0 0.000764841 0 0.0243663 0.00501003 
node 1 3 1 3
node 2 3 1 1
node 3 3 1 1
node 4 2 0 2
node 23 1 0 0
node 48 1 0 0
gene 2 1 4 2.92514 0 1 2.92514 1
gene 3 2 4 -0.374302 0 2 -0.374302 0
gene 1 3 4 -0.298495 0 3 -0.298495 1
gene 3 2 23 -0.495273 0 40 -0.495273 1
gene 3 23 4 -2.07181 0 41 -2.07181 0
gene 2 3 23 0.613542 0 44 0.613542 1
gene 3 23 48 -0.776819 0 100 -0.776819 1
gene 3 48 4 0.112922 0 101 0.112922 1
genomeend 90

/* Organism #91 Fitness: 8.98655 Error: 1.00224 */
genomestart 91
trait 1 0.1 0.0576945 0 0 0 0 0 0.0136104 
trait 2 0.2 0 0.0210098 0.0202803 0.0336948 0 0 0.0346538 
trait 3 0.150428 0 0 0 0.000764841 0 0.0243663 0.00501003 
node 1 3 1 3
node 2 3 1 1
node 3 3 1 1
node 4 2 0 2
node 23 1 0 0
node 48 1 0 0
gene 2 1 4 1.64945 0 1 1.64945 1
gene 1 2 4 4.61038 0 2 4.61038 0
gene 1 3 4 -1.66565 0 3 -1.66565 1
gene 3 2 23 0.0761991 0 40 0.0761991 1
gene 3 23 4 -1.06882 0 41 -1.06882 0
gene 2 3 23 -0.383117 0 44 -0.383117 1
gene 3 23 48 1.8421 0 100 1.8421 1
gene 3 48 4 2.48629 0 101 2.48629 1
genomeend 91

/* Organism #92 Fitness: 8.99915 Error: 1.00014 */
genomestart 92
trait 1 0.1 0.0576945 0 0 0 0 0 0.0136104 
trait 2 0.2 0 0.0210098 0.0202803 0.0336948 0 0 0.0346538 
trait 3 0.150428 0 0 0 0.000764841 0 0.0243663 0.00501003 
node 1 3 1 3
node 2 3 1 1
node 3 3 1 1
node 4 2 0 2
node 23 1 0 0
node 48 1 0 0
gene 2 1 4 3.25746 0 1 3.25746 1
gene 3 2 4 -3.04582 0 2 -3.04582 0
gene 1 3 4 1.85928 0 3 1.85928 1
gene 3 2 23 1.16028 0 40 1.16028 1
gene 3 23 4 -0.634185 0 41 -0.634185 0
gene 2 3 23 -3.6803 0 44 -3.6803 1
gene 3 23 48 -1.34527 0 100 -1.34527 1
gene 3 48 4 3.59928 0 101 3.59928 1
genomeend 92

/* Organism #93 Fitness: 7.68514 Error: 1.22779 */
genomestart 93
trait 1 0.1 0.0576945 0 0 0 0 0 0.0136104 
trait 2 0.2 0 0.0210098 0.0202803 0.0336948 0 0 0.0346538 
trait 3 0.150428 0 0 0 0.000764841 0 0.0243663 0.00501003 
node 1 3 1 3
node 2 3 1 1
node 3 3 1 1
node 4 2 0 2
node 23 1 0 0
node 48 1 0 0
gene 2 1 4 1.64983 0 1 1.64983 1
gene 3 2 4 0.0610213 0 2 0.0610213 0
gene 1 3 4 -4.58211 0 3 -4.58211 1
gene 3 2 23 -0.62364 0 40 -0.62364 1
gene 3 23 4 2.79329 0 41 2.79329 0
gene 2 3 23 -3.31045 0 44 -3.31045 1
gene 3 23 48 2.31531 0 100 2.31531 1
gene 3 48 4 0.24798 0 101 0.24798 1
genomeend 93

/* Organism #94 Fitness: 8.99852 Error: 1.00025 */
genomestart 94
trait 1 0.1 0.0576945 0 0 0 0 0 0.0136104 
trait 2 0.2 0 0.0210098 0.0202803 0.0336948 0 0 0.0346538 
trait 3 0.150428 0 0 0 0.000764841 0 0.0243663 0.00501003 
node 1 3 1 3
node 2 3 1 1
node 3 3 1 1
node 4 2 0 2
node 23 1 0 0
node 48 1 0 0
gene 2 1 4 3.69452 0 1 3.69452 1
gene 3 2 4 -0.941538 0 2 -0.941538 0
gene 1 3 4 0.460144 0 3 0.460144 1
gene 3 2 23 1.42054 0 40 1.42054 1
gene 3 23 4 3.46544 0 41 3.46544 0
gene 2 3 23 -2.14262 0 44 -2.14262 1
gene 3 23 48 -2.65512 0 100 -2.65512 1
gene 3 48 4 3.37288 0 101 3.37288 1
genomeend 94

/* Organism #95 Fitness: 9 Error: 1 */
genomestart 95
trait 1 0.1 0.0576945 0 0 0 0 0 0.0136104 
trait 2 0.2 0 0.0210098 0.0202803 0.0336948 0 0 0.0346538 
trait 3 0.150428 0 0 0 0.000764841 0 0.0243663 0.00501003 
node 1 3 1 3
node 2 3 1 1
node 3 3 1 1
node 4 2 0 2
node 23 1 0 0
node 48 1 0 0
node 60 1 0 0
gene 2 1 4 4.17627 0 1 4.17627 1
gene 3 2 4 0.0536742 0 2 0.0536742 0
gene 1 3 4 0.476272 0 3 0.476272 1
gene 3 2 23 1.51942 0 40 1.51942 1
gene 3 23 4 1.88937 0 41 1.88937 0
gene 2 3 23 0.31461 0 44 0.31461 1
gene 3 23 48 0.60116 0 100 0.60116 1
gene 3 48 4 3.27806 0 101 3.27806 0
gene 3 48 60 1 0 135 0 1
gene 3 60 4 3.27806 0 136 0 1
genomeend 95

/* Organism #96 Fitness: 9 Error: 1 */
genomestart 96
trait 1 0.1 0.0576945 0 0 0 0 0 0.0136104 
trait 2 0.2 0 0.0210098 0.0202803 0.0336948 0 0 0.0346538 
trait 3 0.150428 0 0 0 0.000764841 0 0.0243663 0.00501003 
node 1 3 1 3
node 2 3 1 1
node 3 3 1 1
node 4 2 0 2
node 23 1 0 0
node 48 1 0 0
node 60 1 0 0
gene 2 1 4 5.17955 0 1 5.17955 1
gene 3 2 4 -0.9243 0 2 -0.9243 0
gene 1 3 4 -0.781976 0 3 -0.781976 1
gene 3 2 23 -0.504929 0 40 -0.504929 1
gene 3 23 4 0.175994 0 41 0.175994 0
gene 2 3 23 2.58872 0 44 2.58872 1
gene 3 23 48 2.52108 0 100 2.52108 1
gene 3 48 4 0.798489 0 101 0.798489 0
gene 3 48 60 1.01182 0 135 1.01182 1
gene 3 60 4 4.26785 0 136 4.26785 1
genomeend 96

/* Organism #97 Fitness: 1.20115 Error: 2.90403 */
genomestart 97
trait 1 0.1 0.0576945 0 0 0 0 0 0.0136104 
trait 2 0.2 0 0.0210098 0.0202803 0.0336948 0 0 0.0346538 
trait 3 0.150428 0 0 0 0.000764841 0 0.0243663 0.00501003 
node 1 3 1 3
node 2 3 1 1
node 3 3 1 1
node 4 2 0 2
node 23 1 0 0
node 48 1 0 0
node 60 1 0 0
gene 2 1 4 -1.39002 0 1 -1.39002 1
gene 3 2 4 -2.38941 0 2 -2.38941 0
gene 1 3 4 2.33928 0 3 2.33928 1
gene 3 2 23 0.117981 0 40 0.117981 1
gene 3 23 4 1.88937 0 41 1.88937 0
gene 2 3 23 2.32197 0 44 2.32197 1
gene 3 23 48 -1.30323 0 100 -1.30323 1
gene 3 48 4 3.27806 0 101 3.27806 0
gene 3 48 60 -0.0228258 0 135 -0.0228258 1
gene 3 60 4 1.13785 0 136 1.13785 1
genomeend 97

/* Organism #98 Fitness: 8.99953 Error: 1.00008 */
genomestart 98
trait 1 0.1 0.0576945 0 0 0 0 0 0.0136104 
trait 2 0.2 0 0.0210098 0.0202803 0.0336948 0 0 0.0346538 
trait 3 0.150428 0 0 0 0.000764841 0 0.0243663 0.00501003 
node 1 3 1 3
node 2 3 1 1
node 3 3 1 1
node 4 2 0 2
node 23 2 0 0
node 48 1 0 0
node 60 1 0 0
gene 2 1 4 2.59902 0 1 2.59902 1
gene 3 2 4 -1.08461 0 2 -1.08461 0
gene 1 3 4 -0.0127203 0 3 -0.0127203 1
gene 3 2 23 0.470766 0 40 0.470766 1
gene 3 23 4 1.88937 0 41 1.88937 0
gene 2 3 23 -1.39707 0 44 -1.39707 1
gene 3 23 48 0.612781 0 100 0.612781 1
gene 3 48 4 4.32695 0 101 4.32695 0
gene 3 48 60 0.139541 0 135 0.139541 1
gene 3 60 4 3.27806 0 136 3.27806 1
genomeend 98

/* Organism #99 Fitness: 8.99979 Error: 1.00004 */
genomestart 99
trait 1 0.1 0.0576945 0 0 0 0 0 0.0136104 
trait 2 0.2 0 0.0210098 0.0202803 0.0336948 0 0 0.0346538 
trait 3 0.150428 0 0 0 0.000764841 0 0.0243663 0.00501003 
node 1 3 1 3
node 2 3 1 1
node 3 3 1 1
node 4 2 0 2
node 23 1 0 0
node 48 1 0 0
node 60 1 0 0
gene 2 1 4 2.71692 0 1 2.71692 1
gene 3 2 4 -1.52312 0 2 -1.52312 0
gene 1 3 4 1.55424 0 3 1.55424 1
gene 3 2 23 1.51942 0 40 1.51942 1
gene 3 23 4 -0.455267 0 41 -0.455267 0
gene 2 3 23 1.23084 0 44 1.23084 1
gene 3 23 48 0.60116 0 100 0.60116 1
gene 3 48 4 3.17882 0 101 3.17882 0
gene 3 48 60 1 0 135 1 1
gene 3 60 4 2.26037 0 136 2.26037 1
genomeend 99

/* Organism #100 Fitness: 9 Error: 1 */
genomestart 100
trait 1 0.1 0.0576945 0 0 0 0 0 0.0136104 
trait 2 0.2 0 0.0210098 0.0202803 0.0336948 0 0 0.0346538 
trait 3 0.150428 0 0 0 0.000764841 0 0.0243663 0.00501003 
node 1 3 1 3
node 2 3 1 1
node 3 3 1 1
node 4 2 0 2
node 23 1 0 0
node 48 1 0 0
node 60 1 0 0
gene 2 1 4 3.70131 0 1 3.70131 1
gene 3 2 4 1.0102 0 2 1.0102 0
gene 1 3 4 2.82497 0 3 2.82497 1
gene 3 2 23 3.9847 0 40 3.9847 1
gene 3 23 4 2.74588 0 41 2.74588 0
gene 2 3 23 1.02747 0 44 1.02747 1
gene 3 23 48 0.994162 0 100 0.994162 1
gene 3 48 4 2.65037 0 101 2.65037 0
gene 3 48 60 0.943614 0 135 0.943614 1
gene 3 60 4 3.27806 0 136 3.27806 1
genomeend 100

/* Organism #101 Fitness: 9 Error: 1 */
genomestart 101
trait 1 0.1 0.0576945 0 0 0 0 0 0.0136104 
trait 2 0.2 0 0.0210098 0.0202803 0.0336948 0 0 0.0346538 
trait 3 0.150428 0 0 0 0.000764841 0 0.0243663 0.00501003 
node 1 3 1 3
node 2 3 1 1
node 3 3 1 1
node 4 2 0 2
node 23 1 0 0
node 48 1 0 0
node 60 1 0 0
gene 2 1 4 4.17627 0 1 4.17627 1
gene 3 2 4 0.0536742 0 2 0.0536742 0
gene 1 3 4 0.476272 0 3 0.476272 1
gene 3 2 23 1.51942 0 40 1.51942 1
gene 3 23 4 1.88937 0 41 1.88937 0
gene 2 3 23 0.31461 0 44 0.31461 1
gene 3 23 48 0.60116 0 100 0.60116 1
gene 3 48 4 3.27806 0 101 3.27806 0
gene 3 48 60 1 0 135 0 1
gene 3 60 4 3.27806 0 136 0 1
genomeend 101

/* Organism #102 Fitness: 4.32586 Error: 1.92013 */
genomestart 102
trait 1 0.1 0.0576945 0 0 0 0 0 0.0136104 
trait 2 0.2 0 0.0210098 0.0202803 0.0336948 0 0 0.0346538 
trait 3 0.150428 0 0 0 0.000764841 0 0.0243663 0.00501003 
node 1 3 1 3
node 2 3 1 1
node 3 3 1 1
node 4 2 0 2
node 23 1 0 0
node 48 1 0 0
node 60 1 0 0
gene 2 1 4 5.08871 0 1 5.08871 1
gene 3 2 4 -1.248 0 2 -1.248 0
gene 1 3 4 1.88112 0 3 1.88112 1
gene 3 2 23 2.92981 0 40 2.92981 1
gene 3 23 4 0.797054 0 41 0.797054 0
gene 2 3 23 0.885012 0 44 0.885012 1
gene 3 23 48 2.67449 0 100 2.67449 1
gene 3 48 4 5.06717 0 101 5.06717 0
gene 3 48 60 3.48255 0 135 3.48255 1
gene 3 60 4 -0.496436 0 136 -0.496436 1
genomeend 102

/* Organism #103 Fitness: 6.27859 Error: 1.49429 */
genomestart 103
trait 1 0.1 0.0576945 0 0 0 0 0 0.0136104 
trait 2 0.2 0 0.0210098 0.0202803 0.0336948 0 0 0.0346538 
trait 3 0.150428 0 0 0 0.000764841 0 0.0243663 0.00501003 
node 1 3 1 3
node 2 3 1 1
node 3 3 1 1
node 4 2 0 2
node 23 1 0 0
node 48 1 0 0
node 60 1 0 0
gene 2 1 4 6.42734 0 1 6.42734 1
gene 3 2 4 -2.22331 0 2 -2.22331 0
gene 1 3 4 2.36828 0 3 2.36828 1
gene 3 2 23 -0.498184 0 40 -0.498184 1
gene 3 23 4 0.270958 0 41 0.270958 0
gene 2 3 23 0.642238 0 44 0.642238 1
gene 3 23 48 2.89901 0 100 2.89901 1
gene 3 48 4 3.05857 0 101 3.05857 0
gene 3 48 60 -1.15138 0 135 -1.15138 1
gene 3 60 4 1.3497 0 136 1.3497 1
genomeend 103

/* Organism #104 Fitness: 8.9994 Error: 1.0001 */
genomestart 104
trait 1 0.1 0.0576945 0 0 0 0 0 0.0136104 
trait 2 0.2 0 0.0210098 0.0202803 0.0336948 0 0 0.0346538 
trait 3 0.150428 0 0 0 0.000764841 0 0.0243663 0.00501003 
node 1 3 1 3
node 2 3 1 1
node 3 3 1 1
node 4 2 0 2
node 23 1 0 0
node 48 1 0 0
node 60 1 0 0
gene 2 1 4 4.47956 0 1 4.47956 1
gene 3 2 4 0.129908 0 2 0.129908 0
gene 1 3 4 -1.81901 0 3 -1.81901 1
gene 3 2 23 3.73998 0 40 3.73998 1
gene 3 23 4 -0.0419209 0 41 -0.0419209 0
gene 2 3 23 0.301462 0 44 0.301462 1
gene 3 23 48 2.01829 0 100 2.01829 1
gene 3 48 4 1.45148 0 101 1.45148 0
gene 3 48 60 -0.137367 0 135 -0.137367 1
gene 3 60 4 4.49166 0 136 4.49166 1
genomeend 104

/* Organism #105 Fitness: 9 Error: 1 */
genomestart 105
trait 1 0.1 0.0576945 0 0 0 0 0 0.0136104 
trait 2 0.2 0 0.0210098 0.0202803 0.0336948 0 0 0.0346538 
trait 3 0.150428 0 0 0 0.000764841 0 0.0243663 0.00501003 
node 1 3 1 3
node 2 3 1 1
node 3 3 1 1
node 4 2 0 2
node 23 1 0 0
node 48 1 0 0
node 60 1 0 0
gene 2 1 4 2.56018 0 1 2.56018 1
gene 3 2 4 -1.06981 0 2 -1.06981 0
gene 1 3 4 -0.12674 0 3 -0.12674 1
gene 3 2 23 1.15072 0 40 1.15072 1
gene 3 23 4 2.11744 0 41 2.11744 0
gene 2 3 23 -1.1648 0 44 -1.1648 1
gene 3 23 48 3.04504 0 100 3.04504 1
gene 3 48 4 3.47939 0 101 3.47939 0
gene 3 48 60 2.47344 0 135 2.47344 1
gene 3 60 4 3.27806 0 136 3.27806 1
genomeend 105

/* Organism #106 Fitness: 8.99287 Error: 1.00119 */
genomestart 106
trait 1 0.1 0.0576945 0 0 0 0 0 0.0136104 
trait 2 0.2 0 0.0210098 0.0202803 0.0336948 0 0 0.0346538 
trait 3 0.150428 0 0 0 0.000764841 0 0.0243663 0.00501003 
node 1 3 1 3
node 2 3 1 1
node 3 3 1 1
node 4 2 0 2
node 23 1 0 0
node 48 1 0 0
node 60 1 0 0
gene 2 1 4 6.4306 0 1 6.4306 1
gene 3 2 4 1.23595 0 2 1.23595 0
gene 1 3 4 -0.0225332 0 3 -0.0225332 1
gene 3 2 23 2.90805 0 40 2.90805 1
gene 3 23 4 3.39305 0 41 3.39305 0
gene 2 3 23 -0.138505 0 44 -0.138505 1
gene 3 23 48 1.81913 0 100 1.81913 1
gene 3 48 4 4.31505 0 101 4.31505 0
gene 3 48 60 1.70805 0 135 1.70805 1
gene 3 60 4 1.38773 0 136 1.38773 1
genomeend 106

/* Organism #107 Fitness: 6.97845 Error: 1.35832 */
genomestart 107
trait 1 0.1 0.0576945 0 0 0 0 0 0.0136104 
trait 2 0.2 0 0.0210098 0.0202803 0.0336948 0 0 0.0346538 
trait 3 0.150428 0 0 0 0.000764841 0 0.0243663 0.00501003 
node 1 3 1 3
node 2 3 1 1
node 3 3 1 1
node 4 2 0 2
node 23 1 0 0
node 48 1 0 0
node 60 1 0 0
gene 2 1 4 4.10633 0 1 4.10633 1
gene 3 2 4 -2.15291 0 2 -2.15291 0
gene 1 3 4 -0.448281 0 3 -0.448281 1
gene 3 2 23 0.783321 0 40 0.783321 1
gene 3 23 4 1.82574 0 41 1.82574 0
gene 2 3 23 0.832111 0 44 0.832111 1
gene 3 23 48 -1.48766 0 100 -1.48766 1
gene 3 48 4 1.61911 0 101 1.61911 0
gene 3 48 60 -1.33414 0 135 -1.33414 1
gene 3 60 4 3.27806 0 136 3.27806 1
genomeend 107

/* Organism #108 Fitness: 7.3787 Error: 1.28362 */
genomestart 108
trait 1 0.1 0.0576945 0 0 0 0 0 0.0136104 
trait 2 0.2 0 0.0210098 0.0202803 0.0336948 0 0 0.0346538 
trait 3 0.150428 0 0 0 0.000764841 0 0.0243663 0.00501003 
node 1 3 1 3
node 2 3 1 1
node 3 3 1 1
node 4 2 0 2
node 23 1 0 0
node 48 1 0 0
node 60 1 0 0
gene 2 1 4 2.62154 0 1 2.62154 1
gene 3 2 4 -2.18794 0 2 -2.18794 0
gene 1 3 4 -0.373644 0 3 -0.373644 1
gene 3 2 23 1.40688 0 40 1.40688 1
gene 3 23 4 2.05438 0 41 2.05438 0
gene 2 3 23 1.1311 0 44 1.1311 1
gene 3 23 48 0.555966 0 100 0.555966 1
gene 3 48 4 1.29207 0 101 1.29207 0
gene 3 48 60 -0.844231 0 135 -0.844231 1
gene 3 60 4 1.69221 0 136 1.69221 1
genomeend 108

/* Organism #109 Fitness: 9 Error: 1 */
genomestart 109
trait 1 0.1 0.0576945 0 0 0 0 0 0.0136104 
trait 2 0.2 0 0.0210098 0.0202803 0.0336948 0 0 0.0346538 
trait 3 0.150428 0 0 0 0.000764841 0 0.0243663 0.00501003 
node 1 3 1 3
node 2 3 1 1
node 3 3 1 1
node 4 2 0 2
node 23 1 0 0
node 48 1 0 0
node 60 1 0 0
gene 2 1 4 1.83312 0 1 1.83312 1
gene 3 2 4 -0.422426 0 2 -0.422426 0
gene 1 3 4 1.37661 0 3 1.37661 1
gene 3 2 23 1.51942 0 40 1.51942 1
gene 3 23 4 1.553 0 41 1.553 0
gene 2 3 23 -1.60761 0 44 -1.60761 1
gene 3 23 48 0.60116 0 100 0.60116 1
gene 3 48 4 4.87487 0 101 4.87487 0
gene 3 48 60 1.83169 0 135 1.83169 1
gene 3 60 4 3.50964 0 136 3.50964 1
genomeend 109

/* Organism #110 Fitness: 9 Error: 1 */
genomestart 110
trait 1 0.1 0.0576945 0 0 0 0 0 0.0136104 
trait 2 0.2 0 0.0210098 0.0202803 0.0336948 0 0 0.0346538 
trait 3 0.150428 0 0 0 0.000764841 0 0.0243663 0.00501003 
node 1 3 1 3
node 2 3 1 1
node 3 3 1 1
node 4 2 0 2
node 23 1 0 0
node 48 3 0 0
node 60 1 0 0
gene 2 1 4 2.76561 0 1 2.76561 1
gene 3 2 4 -0.779203 0 2 -0.779203 0
gene 1 3 4 2.59829 0 3 2.59829 1
gene 3 2 23 2.73825 0 40 2.73825 1
gene 3 23 4 -0.161155 0 41 -0.161155 0
gene 2 3 23 0.31461 0 44 0.31461 1
gene 3 23 48 2.95224 0 100 2.95224 1
gene 3 48 4 2.06568 0 101 2.06568 0
gene 3 48 60 0.220742 0 135 0.220742 1
gene 3 60 4 4.5803 0 136 4.5803 1
genomeend 110

/* Species #6 : (Size 8) (AF 7.01078) (Age 5)  */


/* Organism #111 Fitness: 8.98177 Error: 1.00304 */
genomestart 111
trait 1 0.075 0.0576945 0.155012 0 0 0 0 0.0136104 
trait 2 0.2 0 0.0532763 0 0.827144 0 0 0.798345 
trait 3 0.300856 0 0.00161445 0 0.00445539 0.00396113 0.024437 0.00250501 
node 1 2 1 3
node 2 3 1 1
node 3 3 1 1
node 4 2 0 2
node 23 1 0 0
gene 2 1 4 1.24321 0 1 1.24321 1
gene 3 2 4 -4.40492 0 2 -4.40492 1
gene 1 3 4 0.605903 0 3 0.605903 1
gene 3 2 23 6.63493 0 40 6.63493 1
gene 3 23 4 -0.0589648 0 41 -0.0589648 1
gene 2 3 23 -4.90295 0 44 -4.90295 1
gene 3 1 23 4.20647 0 83 4.20647 1
genomeend 111

/* Organism #112 Fitness: 4.0203 Error: 1.99493 */
genomestart 112
trait 1 0.075 0.0576945 0.155012 0 0 0 0 0.0136104 
trait 2 0.2 0 0.0532763 0 0.827144 0 0 0.798345 
trait 3 0.300856 0 0.00161445 0 0.00445539 0.00396113 0.024437 0.00250501 
node 1 3 1 3
node 2 3 1 1
node 3 3 1 1
node 4 2 0 2
node 23 1 0 0
gene 2 1 4 1.08752 0 1 1.08752 1
gene 3 2 4 1.94193 0 2 1.94193 1
gene 1 3 4 1.87622 0 3 1.87622 1
gene 3 2 23 4.62225 0 40 4.62225 1
gene 3 23 4 -0.0154187 0 41 -0.0154187 1
gene 2 3 23 -4.93039 0 44 -4.93039 1
gene 3 1 23 4.67831 0 83 4.67831 1
genomeend 112

/* Organism #113 Fitness: 13.0125 Error: 0.392712 */
genomestart 113
trait 1 0.075 0.0576945 0.155012 0 0 0 0 0.0136104 
trait 2 0.2 0 0.0532763 0 0.827144 0 0 0.798345 
trait 3 0.300856 0 0.00161445 0 0.00445539 0.00396113 0.024437 0.00250501 
node 1 2 1 3
node 2 3 1 1
node 3 3 1 1
node 4 2 0 2
node 23 3 0 0
gene 2 1 4 2.08302 0 1 2.08302 1
gene 3 2 4 -3.42089 0 2 -3.42089 1
gene 1 3 4 -0.584888 0 3 -0.584888 1
gene 3 2 23 8 0 40 8 1
gene 3 23 4 1.69507 0 41 1.69507 1
gene 2 3 23 -4.71025 0 44 -4.71025 1
gene 3 1 23 5.30936 0 83 5.30936 1
genomeend 113

/* Organism #114 Fitness: 3.99718 Error: 2.0007 */
genomestart 114
trait 1 0.075 0.0576945 0.155012 0 0 0 0 0.0136104 
trait 2 0.2 0 0.0532763 0 0.827144 0 0 0.798345 
trait 3 0.300856 0 0.00161445 0 0.00445539 0.00396113 0.024437 0.00250501 
node 1 2 1 3
node 2 3 1 1
node 3 3 1 1
node 4 2 0 2
node 23 1 0 0
gene 2 1 4 -0.620354 0 1 -0.620354 1
gene 3 2 4 -5.55256 0 2 -5.55256 1
gene 1 3 4 2.11177 0 3 2.11177 1
gene 3 2 23 4.90359 0 40 4.90359 1
gene 3 23 4 -2.48957 0 41 -2.48957 1
gene 2 3 23 -6.16093 0 44 -6.16093 1
gene 3 1 23 5.15952 0 83 5.15952 1
genomeend 114

/* Organism #115 Fitness: 1.11676 Error: 2.94323 */
genomestart 115
trait 1 0.075 0.0576945 0.155012 0 0 0 0 0.0136104 
trait 2 0.2 0 0.0532763 0 0.827144 0 0 0.798345 
trait 3 0.300856 0 0.00161445 0 0.00445539 0.00396113 0.024437 0.00250501 
node 1 3 1 3
node 2 3 1 1
node 3 3 1 1
node 4 2 0 2
node 23 1 0 0
gene 2 1 4 1.03974 0 1 1.03974 1
gene 3 2 4 -0.250869 0 2 -0.250869 1
gene 1 3 4 1.82573 0 3 1.82573 1
gene 3 2 23 4.99854 0 40 4.99854 1
gene 3 23 4 -1.71546 0 41 -1.71546 1
gene 2 3 23 -4.16752 0 44 -4.16752 1
gene 3 1 23 2.37893 0 83 2.37893 1
genomeend 115

/* Organism #116 Fitness: 11.9014 Error: 0.550158 */
genomestart 116
trait 1 0.075 0.0576945 0.155012 0 0 0 0 0.0136104 
trait 2 0.2 0 0.0532763 0 0.827144 0 0 0.798345 
trait 3 0.300856 0 0.00161445 0 0.00445539 0.00396113 0.024437 0.00250501 
node 1 2 1 3
node 2 3 1 1
node 3 3 1 1
node 4 2 0 2
node 23 1 0 0
gene 2 1 4 2.63415 0 1 2.63415 1
gene 3 2 4 -3.89399 0 2 -3.89399 1
gene 1 3 4 -0.54235 0 3 -0.54235 1
gene 3 2 23 7.56592 0 40 7.56592 1
gene 3 23 4 1.78639 0 41 1.78639 1
gene 2 3 23 -2.83988 0 44 -2.83988 1
gene 3 1 23 5.25357 0 83 5.25357 1
genomeend 116

/* Organism #117 Fitness: 4.05175 Error: 1.9871 */
genomestart 117
trait 1 0.075 0.0576945 0.155012 0 0 0 0 0.0136104 
trait 2 0.2 0 0.0532763 0 0.827144 0 0 0.798345 
trait 3 0.300856 0 0.00161445 0 0.00445539 0.00396113 0.024437 0.00250501 
node 1 2 1 3
node 2 3 1 1
node 3 3 1 1
node 4 2 0 2
node 23 1 0 0
gene 2 1 4 -0.0336976 0 1 -0.0336976 1
gene 3 2 4 1.17562 0 2 1.17562 1
gene 1 3 4 2.27218 0 3 2.27218 1
gene 3 2 23 2.96045 0 40 2.96045 1
gene 3 23 4 0.913971 0 41 0.913971 1
gene 2 3 23 1.13114 0 44 1.13114 1
gene 3 1 23 5.92877 0 83 5.92877 1
genomeend 117

/* Organism #118 Fitness: 9.00457 Error: 0.999238 */
genomestart 118
trait 1 0.075 0.0576945 0.155012 0 0 0 0 0.0136104 
trait 2 0.2 0 0.0532763 0 0.827144 0 0 0.798345 
trait 3 0.300856 0 0.00161445 0 0.00445539 0.00396113 0.024437 0.00250501 
node 1 2 1 3
node 2 3 1 1
node 3 3 1 1
node 4 2 0 2
node 23 1 0 0
gene 2 1 4 3.72385 0 1 3.72385 1
gene 3 2 4 -5.11885 0 2 -5.11885 1
gene 1 3 4 -1.45473 0 3 -1.45473 1
gene 3 2 23 6.63493 0 40 6.63493 1
gene 3 23 4 -0.0589648 0 41 -0.0589648 1
gene 2 3 23 -5.46667 0 44 -5.46667 1
gene 3 1 23 2.39738 0 83 2.39738 1
genomeend 118

/* Species #7 : (Size 13) (AF 6.37964) (Age 4)  */


/* Organism #119 Fitness: 8.98527 Error: 1.00246 */
genomestart 119
trait 1 0.1 0.0576945 0 0 0 0 0 0.0136104 
trait 2 0.2 0 0.0210098 0.0202803 0.0336948 0 0 0.0346538 
trait 3 0.263249 0 0 0 0.00133847 0 0.0426411 0.00501003 
node 1 3 1 3
node 2 3 1 1
node 3 3 1 1
node 4 2 0 2
node 23 1 0 0
node 55 1 0 0
gene 2 1 4 8 0 1 8 1
gene 3 2 4 -1.55596 0 2 -1.55596 0
gene 1 3 4 -2.36492 0 3 -2.36492 0
gene 3 2 23 1.64535 0 40 1.64535 1
gene 3 23 4 -5.774 0 41 -5.774 1
gene 2 3 23 -0.70984 0 44 -0.70984 1
gene 1 3 55 -0.123439 0 117 -0.123439 1
gene 1 55 4 2.43969 0 118 2.43969 1
genomeend 119

/* Organism #120 Fitness: 8.97764 Error: 1.00373 */
genomestart 120
trait 1 0.1 0.0576945 0 0 0 0 0 0.0136104 
trait 2 0.2 0 0.0210098 0.0202803 0.0336948 0 0 0.0346538 
trait 3 0.263249 0 0 0 0.00133847 0 0.0426411 0.00501003 
node 1 3 1 3
node 2 3 1 1
node 3 3 1 1
node 4 2 0 2
node 23 1 0 0
node 55 1 0 0
gene 2 1 4 5.13135 0 1 5.13135 1
gene 3 2 4 -0.270622 0 2 -0.270622 0
gene 1 3 4 -3.12065 0 3 -3.12065 0
gene 3 2 23 1.42626 0 40 1.17626 1
gene 3 23 4 -3.44454 0 41 -2.52906 1
gene 2 3 23 -0.626521 0 44 -0.626521 1
gene 1 3 55 1 0 117 0 1
gene 1 55 4 -3.12065 0 118 0 1
gene 3 23 55 -0.434587 0 124 -0.434587 1
gene 2 1 55 0.0419126 0 143 0.0419126 1
genomeend 120

/* Organism #121 Fitness: 8.52513 Error: 1.08022 */
genomestart 121
trait 1 0.1 0.0576945 0 0 0 0 0 0.0136104 
trait 2 0.2 0 0.0210098 0.0202803 0.0336948 0 0 0.0346538 
trait 3 0.263249 0 0 0 0.00133847 0 0.0426411 0.00501003 
node 1 3 1 3
node 2 3 1 1
node 3 3 1 1
node 4 2 0 2
node 23 1 0 0
node 55 1 0 0
gene 2 1 4 8 0 1 8 1
gene 3 2 4 -1.55596 0 2 -1.55596 0
gene 1 3 4 -4.46414 0 3 -4.46414 0
gene 3 2 23 1.22671 0 40 1.22671 1
gene 3 23 4 -5.774 0 41 -5.774 1
gene 2 3 23 -1.96823 0 44 -1.96823 1
gene 1 3 55 -0.123439 0 117 -0.123439 1
gene 1 55 4 0.990775 0 118 0.990775 1
genomeend 121

/* Organism #122 Fitness: 3.79898 Error: 2.0509 */
genomestart 122
trait 1 0.1 0.0576945 0 0 0 0 0 0.0136104 
trait 2 0.2 0 0.0210098 0.0202803 0.0336948 0 0 0.0346538 
trait 3 0.263249 0 0 0 0.00133847 0 0.0426411 0.00501003 
node 1 3 1 3
node 2 3 1 1
node 3 3 1 1
node 4 2 0 2
node 23 1 0 0
node 55 1 0 0
gene 2 1 4 -2.26955 0 1 -2.26955 1
gene 2 2 4 -1.66475 0 2 -1.66475 0
gene 1 3 4 -3.12065 0 3 -3.12065 0
gene 3 2 23 3.12931 0 40 3.12931 1
gene 3 23 4 -1.83866 0 41 -1.83866 1
gene 2 3 23 1.50593 0 44 1.50593 1
gene 1 3 55 0.86597 0 117 0.86597 1
gene 1 55 4 -1.18823 0 118 -1.18823 1
gene 3 23 55 0.769032 0 124 0.769032 1
genomeend 122

/* Organism #123 Fitness: 4.00366 Error: 1.99908 */
genomestart 123
trait 1 0.1 0.0576945 0 0 0 0 0 0.0136104 
trait 2 0.2 0 0.0210098 0.0202803 0.0336948 0 0 0.0346538 
trait 3 0.263249 0 0 0 0.00133847 0 0.0426411 0.00501003 
node 1 3 1 3
node 2 3 1 1
node 3 3 1 1
node 4 2 0 2
node 23 1 0 0
node 55 1 0 0
gene 2 1 4 6.19269 0 1 6.19269 1
gene 3 2 4 -1.81869 0 2 -1.81869 0
gene 1 3 4 -4.34921 0 3 -4.34921 0
gene 3 2 23 1.00425 0 40 1.00425 1
gene 3 23 4 -2.55506 0 41 -2.55506 1
gene 2 3 23 -2.81816 0 44 -2.81816 1
gene 1 3 55 1.77292 0 117 1.77292 1
gene 1 55 4 -2.84095 0 118 -2.84095 1
gene 3 23 55 -1.10577 0 124 -1.10577 1
genomeend 123

/* Organism #124 Fitness: 9.0306 Error: 0.994904 */
genomestart 124
trait 1 0.1 0.0576945 0 0 0 0 0 0.0136104 
trait 2 0.2 0 0.0210098 0.0202803 0.0336948 0 0 0.0346538 
trait 3 0.263249 0 0 0 0.00133847 0 0.0426411 0.00501003 
node 1 3 1 3
node 2 3 1 1
node 3 3 1 1
node 4 2 0 2
node 23 1 0 0
node 55 1 0 0
gene 2 1 4 6.56567 0 1 6.56567 1
gene 3 2 4 -0.913289 0 2 -0.913289 1
gene 1 3 4 -2.74279 0 3 -2.74279 0
gene 3 2 23 1.5358 0 40 1.4108 1
gene 3 23 4 -4.60927 0 41 -4.15153 1
gene 2 3 23 -0.66818 0 44 -0.66818 1
gene 1 3 55 0.43828 0 117 -0.0617196 1
gene 1 55 4 -0.340482 0 118 1.21984 1
gene 2 1 55 0.0419126 0 143 0 1
genomeend 124

/* Organism #125 Fitness: 4.49246 Error: 1.88046 */
genomestart 125
trait 1 0.1 0.0576945 0 0 0 0 0 0.0136104 
trait 2 0.2 0 0.0210098 0.0202803 0.0336948 0 0 0.0346538 
trait 3 0.263249 0 0 0 0.00133847 0 0.0426411 0.00501003 
node 1 3 1 3
node 2 3 1 1
node 3 3 1 1
node 4 2 0 2
node 23 1 0 0
node 55 1 0 0
gene 2 1 4 3.77769 0 1 3.77769 1
gene 3 2 4 0.949689 0 2 0.949689 0
gene 1 3 4 -3.8964 0 3 -3.8964 0
gene 3 2 23 -0.83597 0 40 -0.83597 1
gene 3 23 4 -2.46922 0 41 -2.46922 1
gene 2 3 23 -1.34127 0 44 -1.34127 1
gene 1 3 55 1.72545 0 117 1.72545 1
gene 1 55 4 -2.39398 0 118 -2.39398 1
gene 3 23 55 0.861407 0 124 0.861407 1
genomeend 125

/* Organism #126 Fitness: 4.34542 Error: 1.91543 */
genomestart 126
trait 1 0.1 0.0576945 0 0 0 0 0 0.0136104 
trait 2 0.2 0 0.0210098 0.0202803 0.0336948 0 0 0.0346538 
trait 3 0.263249 0 0 0 0.00133847 0 0.0426411 0.00501003 
node 1 3 1 3
node 2 3 1 1
node 3 3 1 1
node 4 2 0 2
node 23 1 0 0
node 55 1 0 0
gene 2 1 4 0.46366 0 1 0.46366 1
gene 3 2 4 0.592421 0 2 0.592421 0
gene 1 3 4 -1.96836 0 3 -1.96836 0
gene 3 2 23 0.904558 0 40 0.904558 1
gene 3 23 4 -6.34303 0 41 -6.34303 1
gene 2 3 23 -0.67831 0 44 -0.67831 1
gene 1 3 55 2.92738 0 117 2.92738 1
gene 1 55 4 -0.340482 0 118 -0.340482 1
genomeend 126

/* Organism #127 Fitness: 1.59102 Error: 2.73864 */
genomestart 127
trait 1 0.1 0.0576945 0 0 0 0 0 0.0136104 
trait 2 0.2 0 0.0210098 0.0202803 0.0336948 0 0 0.0346538 
trait 3 0.263249 0 0 0 0.00133847 0 0.0426411 0.00501003 
node 1 3 1 3
node 2 3 1 1
node 3 3 1 1
node 4 2 0 2
node 23 1 0 0
node 55 1 0 0
gene 2 1 4 -1.25994 0 1 -1.25994 1
gene 3 2 4 -1.79188 0 2 -1.79188 0
gene 1 3 4 -2.13852 0 3 -2.13852 0
gene 3 2 23 3.5011 0 40 3.5011 1
gene 3 23 4 -5.58758 0 41 -5.58758 1
gene 2 3 23 -2.7665 0 44 -2.7665 1
gene 1 3 55 0.386189 0 117 0.386189 1
gene 1 55 4 1.12871 0 118 1.12871 1
genomeend 127

/* Organism #128 Fitness: 7.23275 Error: 1.31062 */
genomestart 128
trait 1 0.1 0.0576945 0 0 0 0 0 0.0136104 
trait 2 0.2 0 0.0210098 0.0202803 0.0336948 0 0 0.0346538 
trait 3 0.263249 0 0 0 0.00133847 0 0.0426411 0.00501003 
node 1 3 1 3
node 2 3 1 1
node 3 3 1 1
node 4 2 0 2
node 23 1 0 0
node 55 1 0 0
gene 2 1 4 7.1296 0 1 7.1296 1
gene 3 2 4 -3.73734 0 2 -3.73734 0
gene 1 3 4 -2.36492 0 3 -2.36492 0
gene 3 2 23 3.97463 0 40 3.97463 1
gene 3 23 4 -1.72403 0 41 -1.72403 1
gene 2 3 23 -0.130256 0 44 -0.130256 1
gene 1 3 55 -0.777114 0 117 -0.777114 1
gene 1 55 4 0.323786 0 118 0.323786 1
genomeend 128

/* Organism #129 Fitness: 3.98544 Error: 2.00364 */
genomestart 129
trait 1 0.1 0.0576945 0 0 0 0 0 0.0136104 
trait 2 0.2 0 0.0210098 0.0202803 0.0336948 0 0 0.0346538 
trait 3 0.263249 0 0 0 0.00133847 0 0.0426411 0.00501003 
node 1 3 1 3
node 2 3 1 1
node 3 3 1 1
node 4 2 0 2
node 23 1 0 0
node 55 1 0 0
gene 2 1 4 5.27954 0 1 5.27954 1
gene 3 2 4 -0.270622 0 2 -0.270622 0
gene 1 3 4 -0.845309 0 3 -0.845309 0
gene 3 2 23 1.31404 0 40 1.31404 1
gene 3 23 4 -3.95436 0 41 -3.95436 1
gene 2 3 23 -2.57681 0 44 -2.57681 1
gene 1 3 55 -0.50845 0 117 -0.50845 1
gene 1 55 4 -3.12065 0 118 -3.12065 1
gene 3 23 55 -0.528367 0 124 -0.528367 1
genomeend 129

/* Organism #130 Fitness: 8.98893 Error: 1.00185 */
genomestart 130
trait 1 0.1 0.0576945 0 0 0 0 0 0.0136104 
trait 2 0.2 0 0.0210098 0.0202803 0.0336948 0 0 0.0346538 
trait 3 0.263249 0 0 0 0.00133847 0 0.0426411 0.00501003 
node 1 3 1 3
node 2 3 1 1
node 3 3 1 1
node 4 2 0 2
node 23 1 0 0
node 55 1 0 0
gene 2 1 4 8 0 1 8 1
gene 3 2 4 0.762615 0 2 0.762615 0
gene 1 3 4 -3.50791 0 3 -3.50791 0
gene 1 2 23 2.53543 0 40 2.53543 1
gene 3 23 4 -6.8058 0 41 -6.8058 1
gene 2 3 23 -2.52919 0 44 -2.52919 1
gene 1 3 55 -1.68421 0 117 -1.68421 1
gene 1 55 4 2.55717 0 118 2.55717 1
genomeend 130

/* Organism #131 Fitness: 8.97808 Error: 1.00366 */
genomestart 131
trait 1 0.1 0.0576945 0 0 0 0 0 0.0136104 
trait 2 0.2 0 0.0210098 0.0202803 0.0336948 0 0 0.0346538 
trait 3 0.263249 0 0 0 0.00133847 0 0.0426411 0.00501003 
node 1 3 1 3
node 2 3 1 1
node 3 3 1 1
node 4 2 0 2
node 23 1 0 0
node 55 1 0 0
gene 2 1 4 5.13135 0 1 5.13135 1
gene 3 2 4 -0.270622 0 2 -0.270622 0
gene 1 3 4 -3.12065 0 3 -3.12065 0
gene 3 2 23 1.42626 0 40 1.17626 1
gene 3 23 4 -3.44454 0 41 -2.52906 1
gene 2 3 23 -0.626521 0 44 -0.626521 1
gene 1 3 55 1 0 117 0 1
gene 1 55 4 -3.12065 0 118 0 1
gene 3 23 55 -0.434587 0 124 -0.434587 1
genomeend 131

/* Species #8 : (Size 1) (AF 3.98954) (Age 2)  */


/* Organism #132 Fitness: 3.98954 Error: 2.00262 */
genomestart 132
trait 1 0.1 0.0576945 0 0 0 0 0 0.0136104 
trait 2 0.2 0 0.0210098 0.0202803 0.0336948 0 0 0.0346538 
trait 3 0.150428 0 0 0 0.000764841 0 0.0243663 0.00501003 
node 1 3 1 3
node 2 3 1 1
node 3 3 1 1
node 4 2 0 2
node 23 1 0 0
node 48 1 0 0
node 60 1 0 0
gene 2 1 4 -1.5097 0 1 -1.5097 1
gene 3 2 4 0.362922 0 2 0.362922 0
gene 1 3 4 -2.47482 0 3 -2.47482 1
gene 3 2 23 3.8957 0 40 3.8957 1
gene 3 23 4 -0.195496 0 41 -0.195496 0
gene 2 3 23 0.8038 0 44 0.8038 1
gene 3 23 48 1.14062 0 100 1.14062 1
gene 3 48 4 -0.65967 0 101 -0.65967 0
gene 3 48 60 1.48646 0 135 1.48646 1
gene 3 60 4 -1.23781 0 136 -1.23781 1
genomeend 132

/* Species #9 : (Size 16) (AF 4.92136) (Age 2)  */


/* Organism #133 Fitness: 7.87012 Error: 1.19463 */
genomestart 133
trait 1 0.1 0.0576945 0 0 0 0 0 0.0136104 
trait 2 0.2 0 0.0210098 0.0202803 0.0336948 0 0 0.0346538 
trait 3 0.263249 0 0 0 0.00133847 0 0.0426411 0.00501003 
node 1 3 1 3
node 2 3 1 1
node 3 3 1 1
node 4 2 0 2
node 23 1 0 0
node 55 1 0 0
node 61 1 0 0
gene 2 1 4 5.13135 0 1 5.13135 1
gene 3 2 4 -0.270622 0 2 -0.270622 0
gene 1 3 4 -3.12065 0 3 -3.12065 0
gene 3 2 23 1.42626 0 40 1.17626 1
gene 3 23 4 -3.44454 0 41 -2.52906 1
gene 2 3 23 -0.626521 0 44 -0.626521 0
gene 1 3 55 1 0 117 0 1
gene 1 55 4 -3.12065 0 118 0 1
gene 1 2 55 -0.0390361 0 125 -0.0390361 1
gene 2 3 61 1 0 137 0 1
gene 2 61 23 -0.626521 0 138 0 1
genomeend 133

/* Organism #134 Fitness: 4.05698 Error: 1.98581 */
genomestart 134
trait 1 0.1 0.0576945 0 0 0 0 0 0.0136104 
trait 2 0.2 0 0.0210098 0.0202803 0.0336948 0 0 0.0346538 
trait 3 0.263249 0 0 0 0.00133847 0 0.0426411 0.00501003 
node 1 3 1 3
node 2 3 1 1
node 3 3 1 1
node 4 2 0 2
node 23 1 0 0
node 55 1 0 0
node 61 1 0 0
gene 2 1 4 3.90642 0 1 3.90642 1
gene 3 2 4 -1.88067 0 2 -1.88067 0
gene 1 3 4 -3.33861 0 3 -3.33861 0
gene 3 2 23 0.420078 0 40 0.420078 1
gene 3 23 4 -3.49432 0 41 -3.49432 1
gene 2 3 23 -1.79651 0 44 -1.79651 0
gene 1 3 55 2.62355 0 117 2.62355 1
gene 1 55 4 -4.54116 0 118 -4.54116 1
gene 1 2 55 -0.309521 0 125 -0.309521 1
gene 2 3 61 1 0 137 1 1
gene 2 61 23 -0.626521 0 138 -0.626521 1
genomeend 134

/* Organism #135 Fitness: 4 Error: 2 */
genomestart 135
trait 1 0.1 0.0576945 0 0 0 0 0 0.0136104 
trait 2 0.2 0 0.0210098 0.0202803 0.0336948 0 0 0.0346538 
trait 3 0.263249 0 0 0 0.00133847 0 0.0426411 0.00501003 
node 1 3 1 3
node 2 3 1 1
node 3 3 1 1
node 4 2 0 2
node 23 1 0 0
node 55 1 0 0
node 61 1 0 0
gene 2 1 4 6.07793 0 1 6.07793 1
gene 3 2 4 -0.0701349 0 2 -0.0701349 0
gene 1 3 4 -2.94984 0 3 -2.94984 0
gene 3 2 23 1.62542 0 40 1.62542 1
gene 3 23 4 -1.44165 0 41 -1.44165 1
gene 2 3 23 -2.17386 0 44 -2.17386 0
gene 1 3 55 -0.870978 0 117 -0.870978 1
gene 1 55 4 -3.56981 0 118 -3.56981 1
gene 1 2 55 -0.439643 0 125 -0.439643 1
gene 2 3 61 0.0816446 0 137 0.0816446 1
gene 2 61 23 -0.73261 0 138 -0.73261 1
genomeend 135

/* Organism #136 Fitness: 3.99186 Error: 2.00204 */
genomestart 136
trait 1 0.1 0.0576945 0 0 0 0 0 0.0136104 
trait 2 0.2 0 0.0210098 0.0202803 0.0336948 0 0 0.0346538 
trait 3 0.263249 0 0 0 0.00133847 0 0.0426411 0.00501003 
node 1 3 1 3
node 2 3 1 1
node 3 3 1 1
node 4 2 0 2
node 23 1 0 0
node 55 1 0 0
node 61 1 0 0
gene 2 1 4 6.61853 0 1 6.61853 1
gene 3 2 4 1.8986 0 2 1.8986 0
gene 1 3 4 -2.59558 0 3 -2.59558 0
gene 3 2 23 -0.142537 0 40 -0.142537 1
gene 3 23 4 -1.9011 0 41 -1.9011 1
gene 2 3 23 -0.837109 0 44 -0.837109 0
gene 1 3 55 3.41358 0 117 3.41358 1
gene 1 55 4 -5.6202 0 118 -5.6202 1
gene 1 2 55 -1.21815 0 125 -1.21815 1
gene 2 3 61 1 0 137 1 1
gene 2 61 23 -0.626521 0 138 -0.626521 1
genomeend 136

/* Organism #137 Fitness: 8.90042 Error: 1.01664 */
genomestart 137
trait 1 0.1 0.0576945 0 0 0 0 0 0.0136104 
trait 2 0.2 0 0.0210098 0.0202803 0.0336948 0 0 0.0346538 
trait 3 0.263249 0 0 0 0.00133847 0 0.0426411 0.00501003 
node 1 3 1 3
node 2 3 1 1
node 3 3 1 1
node 4 2 0 2
node 23 1 0 0
node 55 1 0 0
node 61 1 0 0
gene 2 1 4 3.91747 0 1 3.91747 1
gene 3 2 4 0.112135 0 2 0.112135 0
gene 1 3 4 -3.54848 0 3 -3.54848 0
gene 3 2 23 -0.707757 0 40 -0.707757 1
gene 3 23 4 -5.20233 0 41 -5.20233 1
gene 2 3 23 -1.17183 0 44 -1.17183 0
gene 1 3 55 -0.577203 0 117 -0.577203 1
gene 1 55 4 -4.16397 0 118 -4.16397 1
gene 1 2 55 -0.440994 0 125 -0.440994 1
gene 2 3 61 0.784715 0 137 0.784715 1
gene 2 61 23 1.42182 0 138 1.42182 1
genomeend 137

/* Organism #138 Fitness: 4.22877 Error: 1.9436 */
genomestart 138
trait 1 0.1 0.0576945 0 0 0 0 0 0.0136104 
trait 2 0.2 0 0.0210098 0.0202803 0.0336948 0 0 0.0346538 
trait 3 0.263249 0 0 0 0.00133847 0 0.0426411 0.00501003 
node 1 3 1 3
node 2 3 1 1
node 3 3 1 1
node 4 2 0 2
node 23 1 0 0
node 55 1 0 0
node 61 1 0 0
gene 2 1 4 6.58134 0 1 6.58134 1
gene 3 2 4 0.75435 0 2 0.75435 0
gene 1 3 4 -2.58063 0 3 -2.58063 0
gene 3 2 23 2.34624 0 40 2.34624 1
gene 3 23 4 -4.85368 0 41 -4.85368 1
gene 2 3 23 0.0566014 0 44 0.0566014 0
gene 1 3 55 -0.392733 0 117 -0.392733 1
gene 1 55 4 -2.1149 0 118 -2.1149 1
gene 1 2 55 0.301295 0 125 0.301295 1
gene 2 3 61 -0.365303 0 137 -0.365303 1
gene 2 61 23 -2.66596 0 138 -2.66596 1
genomeend 138

/* Organism #139 Fitness: 4.86579 Error: 1.79415 */
genomestart 139
trait 1 0.1 0.0576945 0 0 0 0 0 0.0136104 
trait 2 0.2 0 0.0210098 0.0202803 0.0336948 0 0 0.0346538 
trait 3 0.263249 0 0 0 0.00133847 0 0.0426411 0.00501003 
node 1 3 1 3
node 2 3 1 1
node 3 3 1 1
node 4 2 0 2
node 23 1 0 0
node 55 1 0 0
node 61 1 0 0
gene 2 1 4 4.08105 0 1 4.08105 1
gene 3 2 4 -2.71366 0 2 -2.71366 0
gene 1 3 4 -3.12065 0 3 -3.12065 0
gene 3 2 23 1.42626 0 40 1.42626 1
gene 3 23 4 -1.59185 0 41 -1.59185 1
gene 2 3 23 0.115729 0 44 0.115729 0
gene 1 3 55 0.171832 0 117 0.171832 1
gene 1 55 4 -5.57961 0 118 -5.57961 1
gene 1 2 55 1.13189 0 125 1.13189 1
gene 2 3 61 1 0 137 1 1
gene 2 61 23 -2.97119 0 138 -2.97119 1
genomeend 139

/* Organism #140 Fitness: 7.87012 Error: 1.19463 */
genomestart 140
trait 1 0.1 0.0576945 0 0 0 0 0 0.0136104 
trait 2 0.2 0 0.0210098 0.0202803 0.0336948 0 0 0.0346538 
trait 3 0.263249 0 0 0 0.00133847 0 0.0426411 0.00501003 
node 1 3 1 3
node 2 3 1 1
node 3 3 1 1
node 4 2 0 2
node 23 1 0 0
node 55 1 0 0
node 61 1 0 0
gene 2 1 4 5.13135 0 1 5.13135 1
gene 3 2 4 -0.270622 0 2 -0.270622 0
gene 1 3 4 -3.12065 0 3 -3.12065 0
gene 3 2 23 1.42626 0 40 1.17626 1
gene 3 23 4 -3.44454 0 41 -2.52906 1
gene 2 3 23 -0.626521 0 44 -0.626521 0
gene 1 3 55 1 0 117 0 1
gene 1 55 4 -3.12065 0 118 0 1
gene 1 2 55 -0.0390361 0 125 -0.0390361 1
gene 2 3 61 1 0 137 0 1
gene 2 61 23 -0.626521 0 138 0 1
genomeend 140

/* Organism #141 Fitness: 3.99992 Error: 2.00002 */
genomestart 141
trait 1 0.1 0.0576945 0 0 0 0 0 0.0136104 
trait 2 0.2 0 0.0210098 0.0202803 0.0336948 0 0 0.0346538 
trait 3 0.263249 0 0 0 0.00133847 0 0.0426411 0.00501003 
node 1 3 1 3
node 2 3 1 1
node 3 3 1 1
node 4 2 0 2
node 23 1 0 0
node 55 1 0 0
node 61 1 0 0
gene 2 1 4 7.12173 0 1 7.12173 1
gene 3 2 4 -2.68586 0 2 -2.68586 0
gene 1 3 4 -3.31286 0 3 -3.31286 0
gene 3 2 23 3.27019 0 40 3.27019 1
gene 3 23 4 -3.1871 0 41 -3.1871 1
gene 2 3 23 -2.18107 0 44 -2.18107 0
gene 1 3 55 1.52139 0 117 1.52139 1
gene 1 55 4 -3.34926 0 118 -3.34926 1
gene 1 2 55 -2.48695 0 125 -2.48695 1
gene 2 3 61 -1.36315 0 137 -1.36315 1
gene 2 61 23 -1.5518 0 138 -1.5518 1
genomeend 141

/* Organism #142 Fitness: 4.75811 Error: 1.81869 */
genomestart 142
trait 1 0.1 0.0576945 0 0 0 0 0 0.0136104 
trait 2 0.2 0 0.0210098 0.0202803 0.0336948 0 0 0.0346538 
trait 3 0.263249 0 0 0 0.00133847 0 0.0426411 0.00501003 
node 1 3 1 3
node 2 3 1 1
node 3 3 1 1
node 4 2 0 2
node 23 1 0 0
node 55 1 0 0
node 61 1 0 0
gene 2 1 4 3.45844 0 1 3.45844 1
gene 3 2 4 1.16457 0 2 1.16457 0
gene 1 3 4 -4.68132 0 3 -4.68132 0
gene 3 2 23 1.07955 0 40 1.07955 1
gene 3 23 4 -5.74534 0 41 -5.74534 1
gene 2 3 23 -0.0486076 0 44 -0.0486076 0
gene 1 3 55 -1.43187 0 117 -1.43187 1
gene 1 55 4 -4.86256 0 118 -4.86256 1
gene 1 2 55 2.11803 0 125 2.11803 1
gene 2 3 61 -0.0922588 0 137 -0.0922588 1
gene 2 61 23 0.156721 0 138 0.156721 1
genomeend 142

/* Organism #143 Fitness: 1.3147 Error: 2.8534 */
genomestart 143
trait 1 0.1 0.0576945 0 0 0 0 0 0.0136104 
trait 2 0.2 0 0.0210098 0.0202803 0.0336948 0 0 0.0346538 
trait 3 0.263249 0 0 0 0.00133847 0 0.0426411 0.00501003 
node 1 3 1 3
node 2 3 1 1
node 3 3 1 1
node 4 2 0 2
node 23 1 0 0
node 55 1 0 0
node 61 1 0 0
gene 2 1 4 3.82765 0 1 3.82765 1
gene 3 2 4 2.15011 0 2 2.15011 0
gene 1 3 4 -5.27819 0 3 -5.27819 0
gene 3 2 23 -0.531609 0 40 -0.531609 1
gene 3 23 4 -5.88069 0 41 -5.88069 1
gene 2 3 23 0.254025 0 44 0.254025 0
gene 1 3 55 1.22577 0 117 1.22577 1
gene 1 55 4 -3.83948 0 118 -3.83948 1
gene 1 2 55 2.15012 0 125 2.15012 1
gene 2 3 61 2.10988 0 137 2.10988 1
gene 2 61 23 -0.626521 0 138 -0.626521 1
genomeend 143

/* Organism #144 Fitness: 8.08166 Error: 1.15717 */
genomestart 144
trait 1 0.1 0.0576945 0 0 0 0 0 0.0136104 
trait 2 0.2 0 0.0210098 0.0202803 0.0336948 0 0 0.0346538 
trait 3 0.263249 0 0 0 0.00133847 0 0.0426411 0.00501003 
node 1 3 1 3
node 2 3 1 1
node 3 3 1 1
node 4 2 0 2
node 23 1 0 0
node 55 1 0 0
node 61 1 0 0
gene 2 1 4 5.13135 0 1 5.13135 1
gene 3 2 4 -0.270622 0 2 -0.270622 0
gene 1 3 4 -3.12065 0 3 -3.12065 0
gene 3 2 23 1.42626 0 40 1.17626 1
gene 3 23 4 -3.44454 0 41 -2.52906 1
gene 2 3 23 -0.626521 0 44 -0.626521 0
gene 1 3 55 1 0 117 0 1
gene 1 55 4 -3.12065 0 118 0 1
gene 1 2 55 -0.0390361 0 125 -0.0390361 1
gene 2 3 61 1 0 137 0 1
gene 2 61 23 -0.626521 0 138 0 1
gene 2 1 23 -0.604791 0 144 -0.604791 1
genomeend 144

/* Organism #145 Fitness: 1.02737 Error: 2.98641 */
genomestart 145
trait 1 0.1 0.0576945 0 0 0 0 0 0.0136104 
trait 2 0.2 0 0.0210098 0.0202803 0.0336948 0 0 0.0346538 
trait 3 0.263249 0 0 0 0.00133847 0 0.0426411 0.00501003 
node 1 3 1 3
node 2 3 1 1
node 3 3 1 1
node 4 2 0 2
node 23 1 0 0
node 55 1 0 0
node 61 1 0 0
gene 2 1 4 4.37091 0 1 4.37091 1
gene 3 2 4 -0.270622 0 2 -0.270622 0
gene 1 3 4 -2.91582 0 3 -2.91582 0
gene 3 2 23 -0.49122 0 40 -0.49122 1
gene 3 23 4 -5.45521 0 41 -5.45521 1
gene 2 3 23 -2.68927 0 44 -2.68927 0
gene 1 3 55 1.22978 0 117 1.22978 1
gene 1 55 4 -3.12065 0 118 -3.12065 1
gene 1 2 55 2.41188 0 125 2.41188 1
gene 2 3 61 -0.765938 0 137 -0.765938 1
gene 2 61 23 -2.22096 0 138 -2.22096 1
genomeend 145

/* Organism #146 Fitness: 5.60158 Error: 1.63323 */
genomestart 146
trait 1 0.1 0.0576945 0 0 0 0 0 0.0136104 
trait 2 0.2 0 0.0210098 0.0202803 0.0336948 0 0 0.0346538 
trait 3 0.263249 0 0 0 0.00133847 0 0.0426411 0.00501003 
node 1 3 1 3
node 2 3 1 1
node 3 3 1 1
node 4 2 0 2
node 23 1 0 0
node 55 1 0 0
node 61 1 0 0
gene 2 1 4 4.74119 0 1 4.74119 1
gene 3 2 4 -2.15403 0 2 -2.15403 0
gene 1 3 4 -4.17814 0 3 -4.17814 0
gene 3 2 23 2.72559 0 40 2.72559 1
gene 3 23 4 -4.28231 0 41 -4.28231 1
gene 2 3 23 -1.20248 0 44 -1.20248 0
gene 1 3 55 2.07458 0 117 2.07458 1
gene 1 55 4 -1.41336 0 118 -1.41336 1
gene 1 2 55 -0.083869 0 125 -0.083869 1
gene 2 3 61 1.29986 0 137 1.29986 1
gene 2 61 23 -0.692086 0 138 -0.692086 1
genomeend 146

/* Organism #147 Fitness: 4 Error: 2 */
genomestart 147
trait 1 0.1 0.0576945 0 0 0 0 0 0.0136104 
trait 2 0.2 0 0.0210098 0.0202803 0.0336948 0 0 0.0346538 
trait 3 0.263249 0 0 0 0.00133847 0 0.0426411 0.00501003 
node 1 3 1 3
node 2 3 1 1
node 3 3 1 1
node 4 2 0 2
node 23 1 0 0
node 55 1 0 0
node 61 1 0 0
gene 2 1 4 5.09932 0 1 5.09932 1
gene 3 2 4 0.928439 0 2 0.928439 0
gene 1 3 4 -3.50287 0 3 -3.50287 0
gene 3 2 23 -0.189877 0 40 -0.189877 1
gene 3 23 4 -4.26114 0 41 -4.26114 1
gene 2 3 23 0.640126 0 44 0.640126 0
gene 1 3 55 0.0524374 0 117 0.0524374 1
gene 1 55 4 -1.69033 0 118 -1.69033 1
gene 1 2 55 2.02281 0 125 2.02281 1
gene 2 3 61 0.23909 0 137 0.23909 1
gene 2 61 23 -0.626521 0 138 -0.626521 1
genomeend 147

/* Organism #148 Fitness: 4.17433 Error: 1.95688 */
genomestart 148
trait 1 0.458687 0.0576945 0.718047 0 0 0 0 0.286879 
trait 2 0.2 0 0.0210098 0.0202803 0.0336948 0 0 0.0346538 
trait 3 0.263249 0 0 0 0.00133847 0 0.0426411 0.00501003 
node 1 3 1 3
node 2 3 1 1
node 3 3 1 1
node 4 2 0 2
node 23 1 0 0
node 55 1 0 0
node 61 1 0 0
gene 2 1 4 5.24269 0 1 5.24269 1
gene 3 2 4 -2.0004 0 2 -2.0004 0
gene 1 3 4 -1.52139 0 3 -1.52139 0
gene 3 2 23 1.42626 0 40 1.42626 1
gene 3 23 4 -0.682068 0 41 -0.682068 1
gene 2 3 23 -0.626521 0 44 -0.626521 0
gene 1 3 55 -0.220417 0 117 -0.220417 1
gene 1 55 4 -0.629487 0 118 -0.629487 1
gene 1 2 55 -1.53995 0 125 -1.53995 1
gene 2 3 61 1.10853 0 137 1.10853 1
gene 2 61 23 -0.626521 0 138 -0.626521 1
genomeend 148

/* Species #10 : (Size 1) (AF 15.9862) (Age 1)  */


/* Organism #149 Fitness: 15.9862 Error: 0.00172715 */
genomestart 149
trait 1 0.1 0.0540886 0.033849 0.0622569 0.0123676 0.0104437 0 0.0127597 
trait 2 0.143989 0.393233 0.396842 0.0101402 0.459931 0 0.382566 0.394902 
trait 3 0.286753 0 0 0 0.00145798 0 0.0464483 0.00501003 
node 1 3 1 3
node 2 3 1 1
node 3 3 1 1
node 4 2 0 2
node 23 1 0 0
node 62 1 0 0
gene 2 1 4 7.41558 0 1 7.41558 1
gene 3 2 4 -2.62921 0 2 -2.62921 1
gene 1 3 4 -3.55247 0 3 -3.55247 1
gene 3 2 23 2.38924 0 40 2.38924 1
gene 3 23 4 -3.47757 0 41 -3.01983 1
gene 1 1 23 0.299856 0 78 0.299856 1
gene 2 3 23 -0.230807 0 130 0 0
gene 2 3 62 1 0 139 0 1
gene 2 62 23 -0.230807 0 140 0 1
genomeend 149
