
/* Species #1 : (Size 11) (AF 13.539) (Age 18)  */


/* Organism #0 Fitness: 15.9999 Error: 9.84685e-06 */
genomestart 0
trait 1 0.075 0.132775 0 0 0 0 0 0 
trait 2 0.2 0 0 0 0 0 0 0 
trait 3 0.3 0 0 0 0 0 0 0 
node 1 1 1 3
node 2 2 1 1
node 3 2 1 1
node 4 2 0 2
node 7 1 0 0
node 9 1 0 0
gene 1 1 4 0.645668 0 1 0.645668 1
gene 1 2 4 -3.68894 0 2 -3.68894 0
gene 1 3 4 -6.87659 0 3 -6.87659 1
gene 1 2 7 -6.82167 0 8 -6.82167 1
gene 1 7 4 2.37502 0 9 2.37502 1
gene 1 7 9 7.62865 0 12 7.62865 1
gene 1 9 4 7.56648 0 13 7.56648 1
genomeend 0

/* Organism #1 Fitness: 15.6303 Error: 0.0464796 */
genomestart 1
trait 1 0.075 0.132775 0 0 0 0 0 0 
trait 2 0.2 0 0 0 0 0 0 0 
trait 3 0.3 0 0 0 0 0 0 0 
node 1 1 1 3
node 2 2 1 1
node 3 2 1 1
node 4 2 0 2
node 7 1 0 0
node 9 1 0 0
gene 1 1 4 0.576016 0 1 0.576016 1
gene 1 2 4 1.05533 0 2 1.05533 0
gene 1 3 4 -6.90176 0 3 -6.90176 1
gene 1 2 7 -6.87714 0 8 -6.87714 1
gene 1 7 4 3.76478 0 9 3.76478 1
gene 1 7 9 7.68132 0 12 7.68132 1
gene 1 9 4 8 0 13 8 1
gene 1 1 9 -1.08808 0 142 -1.08808 1
genomeend 1

/* Organism #2 Fitness: 15.9954 Error: 0.000574145 */
genomestart 2
trait 1 0.075 0.132775 0 0 0 0 0 0 
trait 2 0.175 0 0.0375079 0.124577 0.0920861 0.0102091 0 0 
trait 3 0.3 0 0 0 0 0 0 0 
node 1 1 1 3
node 2 2 1 1
node 3 2 1 1
node 4 2 0 2
node 7 1 0 0
node 9 1 0 0
gene 1 1 4 1.48811 0 1 1.48811 1
gene 1 2 4 -3.04524 0 2 -3.04524 0
gene 1 3 4 -6.66394 0 3 -6.66394 1
gene 1 2 7 -3.80105 0 8 -3.80105 1
gene 1 7 4 3.6241 0 9 3.6241 1
gene 1 7 9 6.15082 0 12 6.15082 1
gene 1 9 4 5.39835 0 13 5.39835 1
gene 2 1 9 -0.0855516 0 142 -0.0855516 1
gene 2 2 9 -0.891058 0 157 -0.891058 1
genomeend 2

/* Organism #3 Fitness: 8.99979 Error: 1.00004 */
genomestart 3
trait 1 0.075 0.132775 0 0 0 0 0 0 
trait 2 0.1875 0 0.0187539 0.0622885 0.046043 0.00510455 0 0 
trait 3 0.3 0 0 0 0 0 0 0 
node 1 1 1 3
node 2 2 1 1
node 3 2 1 1
node 4 2 0 2
node 7 1 0 0
node 9 1 0 0
gene 1 1 4 -0.165098 0 1 -0.165098 1
gene 1 2 4 -3.99174 0 2 -3.99174 0
gene 1 3 4 0.933892 0 3 0.933892 1
gene 1 2 7 -0.496046 0 8 -0.496046 1
gene 1 7 4 3.92973 0 9 3.92973 1
gene 1 7 9 -1.31014 0 12 -1.31014 1
gene 1 9 4 5.92544 0 13 5.92544 1
genomeend 3

/* Organism #4 Fitness: 16 Error: 5.49706e-08 */
genomestart 4
trait 1 0.075 0.132775 0 0 0 0 0 0 
trait 2 0.175 0 0.0375079 0.124577 0.0920861 0.0102091 0 0 
trait 3 0.3 0 0 0 0 0 0 0 
node 1 1 1 3
node 2 2 1 1
node 3 2 1 1
node 4 2 0 2
node 7 1 0 0
node 9 1 0 0
gene 1 1 4 3.40171 0 1 3.40171 1
gene 1 2 4 -5.36874 0 2 -5.36874 0
gene 1 3 4 -7.74051 0 3 -7.74051 1
gene 1 2 7 -1.49159 0 8 -1.49159 1
gene 1 7 4 3.88644 0 9 3.88644 1
gene 1 7 9 4.43165 0 12 4.43165 1
gene 1 9 4 6.46714 0 13 6.46714 1
gene 2 1 9 -0.605117 0 142 -0.605117 1
gene 2 2 9 -2.37773 0 157 -2.37773 1
genomeend 4

/* Organism #5 Fitness: 10.3011 Error: 0.790471 */
genomestart 5
trait 1 0.075 0.132775 0 0 0 0 0 0 
trait 2 0.2 0 0 0 0 0 0 0 
trait 3 0.3 0 0 0 0 0 0 0 
node 1 1 1 3
node 2 2 1 1
node 3 2 1 1
node 4 2 0 2
node 7 1 0 0
node 9 1 0 0
gene 1 1 4 2.66763 0 1 2.66763 1
gene 1 2 4 -0.673698 0 2 -0.673698 0
gene 1 3 4 -6.398 0 3 -6.398 1
gene 1 2 7 -8 0 8 -8 1
gene 1 7 4 -2.48758 0 9 -2.48758 1
gene 1 7 9 5.72857 0 12 5.72857 1
gene 1 9 4 8 0 13 8 1
genomeend 5

/* Organism #6 Fitness: 15.9806 Error: 0.00243176 */
genomestart 6
trait 1 0.075 0.132775 0 0 0 0 0 0 
trait 2 0.175 0 0.0375079 0.124577 0.0920861 0.0102091 0 0 
trait 3 0.3 0 0 0 0 0 0 0 
node 1 1 1 3
node 2 2 1 1
node 3 2 1 1
node 4 2 0 2
node 7 1 0 0
node 9 1 0 0
gene 1 1 4 -0.213885 0 1 -0.213885 1
gene 1 2 4 -2.0611 0 2 -2.0611 0
gene 1 3 4 -7.98866 0 3 -7.98866 1
gene 1 2 7 -4.47964 0 8 -4.47964 1
gene 1 7 4 5.6782 0 9 5.6782 1
gene 1 7 9 6.48004 0 12 6.48004 1
gene 1 9 4 6.62393 0 13 6.62393 1
gene 2 1 9 1.15058 0 142 1.15058 1
gene 2 2 9 1.46485 0 157 1.46485 1
genomeend 6

/* Organism #7 Fitness: 9.04525 Error: 0.992468 */
genomestart 7
trait 1 0.075 0.132775 0 0 0 0 0 0 
trait 2 0.1875 0 0.0187539 0.0622885 0.046043 0.00510455 0 0 
trait 3 0.3 0 0 0 0 0 0 0 
node 1 1 1 3
node 2 2 1 1
node 3 2 1 1
node 4 2 0 2
node 7 1 0 0
node 9 1 0 0
gene 1 1 4 1.48615 0 1 1.48615 1
gene 1 2 4 -3.5547 0 2 -3.5547 0
gene 1 3 4 -6.65561 0 3 -6.65561 1
gene 1 2 7 -7.14049 0 8 -7.14049 1
gene 1 7 4 0.0464743 0 9 0.0464743 1
gene 1 7 9 6.67112 0 12 6.67112 1
gene 1 9 4 4.15501 0 13 4.15501 1
genomeend 7

/* Organism #8 Fitness: 15.9999 Error: 1.28107e-05 */
genomestart 8
trait 1 0.075 0.132775 0 0 0 0 0 0 
trait 2 0.2 0 0 0 0 0 0 0 
trait 3 0.3 0 0 0 0 0 0 0 
node 1 1 1 3
node 2 2 1 1
node 3 2 1 1
node 4 2 0 2
node 7 1 0 0
node 9 1 0 0
gene 1 1 4 0.448752 0 1 0.448752 1
gene 1 2 4 -1.37008 0 2 -1.37008 0
gene 1 3 4 -6.87659 0 3 -6.87659 1
gene 1 2 7 -6.82167 0 8 -6.82167 1
gene 1 7 4 2.37502 0 9 2.37502 1
gene 1 7 9 6.28905 0 12 6.28905 1
gene 1 9 4 7.56648 0 13 7.56648 1
genomeend 8

/* Organism #9 Fitness: 9.00041 Error: 0.999931 */
genomestart 9
trait 1 0.075 0.132775 0 0 0 0 0 0 
trait 2 0.847723 0 0.477312 0.43744 0.046043 0.00510455 0.60011 0 
trait 3 0.3 0 0 0 0 0 0 0 
node 1 1 1 3
node 2 2 1 1
node 3 2 1 1
node 4 2 0 2
node 7 1 0 0
node 9 1 0 0
gene 1 1 4 2.44816 0 1 2.44816 1
gene 1 2 4 -1.05872 0 2 -1.05872 0
gene 1 3 4 -4.4482 0 3 -4.4482 1
gene 1 2 7 -5.6635 0 8 -5.6635 1
gene 1 7 4 3.98561 0 9 3.98561 1
gene 1 7 9 7.30452 0 12 7.30452 1
gene 1 9 4 4.47071 0 13 4.47071 1
gene 2 1 9 0.410145 0 142 0.410145 1
genomeend 9

/* Organism #10 Fitness: 15.9764 Error: 0.00294771 */
genomestart 10
trait 1 0.075 0.132775 0 0 0 0 0 0 
trait 2 0.2 0 0 0 0 0 0 0 
trait 3 0.3 0 0 0 0 0 0 0 
node 1 1 1 3
node 2 2 1 1
node 3 2 1 1
node 4 2 0 2
node 7 1 0 0
node 9 1 0 0
gene 1 1 4 0.298311 0 1 0.298311 1
gene 1 2 4 -4.62389 0 2 -4.62389 0
gene 1 3 4 -5.48098 0 3 -5.48098 1
gene 3 2 7 -4.52208 0 8 -4.52208 1
gene 1 7 4 2.16435 0 9 2.16435 1
gene 1 7 9 8 0 12 8 1
gene 1 9 4 8 0 13 8 1
genomeend 10

/* Species #2 : (Size 17) (AF 11.9182) (Age 16)  */


/* Organism #11 Fitness: 16 Error: 5.03629e-07 */
genomestart 11
trait 1 0.090625 0 0 0 0 0 0 0.0616224 
trait 2 0.2 0 0 0 0 0 0 0 
trait 3 0.3 0.316782 0 0.205064 0 0 0.571421 0 
node 1 2 1 3
node 2 3 1 1
node 3 3 1 1
node 4 3 0 2
node 5 1 0 0
gene 2 1 4 3.22124 0 1 3.22124 1
gene 3 2 4 -6.25077 0 2 -6.25077 1
gene 3 3 4 -6.19497 0 3 -6.19497 0
gene 2 3 5 -4.94566 0 4 -4.94566 1
gene 3 5 4 6.93816 0 5 6.93816 1
gene 3 2 5 1.88617 0 109 1.88617 1
genomeend 11

/* Organism #12 Fitness: 15.9841 Error: 0.00198928 */
genomestart 12
trait 1 0.0910156 0 0 0 0 0 0 0.0590548 
trait 2 0.2 0 0 0 0 0 0 0 
trait 3 0.3 0.316661 0 0.204986 0 0 0.571203 0 
node 1 2 1 3
node 2 3 1 1
node 3 3 1 1
node 4 3 0 2
node 5 1 0 0
gene 2 1 4 1.26524 0 1 1.26524 1
gene 3 2 4 -5.12637 0 2 -5.12637 1
gene 3 3 4 -4.94578 0 3 -4.94578 0
gene 2 3 5 -5.27825 0 4 -5.27825 1
gene 3 5 4 6.0204 0 5 6.0204 1
gene 3 2 5 2.16308 0 109 2.16308 1
genomeend 12

/* Organism #13 Fitness: 14.0681 Error: 0.249251 */
genomestart 13
trait 1 0.0914063 0 0 0 0 0 0 0.0564872 
trait 2 0.2 0 0 0 0 0 0 0 
trait 3 0.3 0.31654 0 0.204907 0 0 0.570984 0 
node 1 2 1 3
node 2 3 1 1
node 3 3 1 1
node 4 3 0 2
node 5 1 0 0
gene 2 1 4 4.71946 0 1 4.71946 1
gene 3 2 4 -4.94338 0 2 -4.94338 1
gene 3 3 4 -7.9363 0 3 -7.9363 0
gene 2 3 5 -7.6255 0 4 -7.6255 1
gene 3 5 4 6.67727 0 5 6.67727 1
gene 3 2 5 3.47547 0 109 3.47547 1
genomeend 13

/* Organism #14 Fitness: 9 Error: 1 */
genomestart 14
trait 1 0.0910156 0 0 0 0 0 0 0.0590548 
trait 2 0.2 0 0 0 0 0 0 0 
trait 3 0.3 0.316661 0 0.204986 0 0 0.571203 0 
node 1 2 1 3
node 2 3 1 1
node 3 3 1 1
node 4 3 0 2
node 5 1 0 0
gene 2 1 4 4.38807 0 1 4.38807 1
gene 3 2 4 -8 0 2 -8 1
gene 3 3 4 -4.90899 0 3 -4.90899 0
gene 2 3 5 -4.91009 0 4 -4.91009 1
gene 3 5 4 8 0 5 8 1
gene 3 2 5 -0.549077 0 109 -0.549077 1
genomeend 14

/* Organism #15 Fitness: 9 Error: 1 */
genomestart 15
trait 1 0.0910156 0 0 0 0 0 0 0.0590548 
trait 2 0.2 0 0 0 0 0 0 0 
trait 3 0.3 0.316661 0 0.204986 0 0 0.571203 0 
node 1 2 1 3
node 2 3 1 1
node 3 3 1 1
node 4 3 0 2
node 5 1 0 0
gene 2 1 4 3.02306 0 1 3.02306 1
gene 3 2 4 -5.90459 0 2 -5.90459 1
gene 3 3 4 -6.67067 0 3 -6.67067 1
gene 2 3 5 -5.81507 0 4 -5.81507 1
gene 3 5 4 7.46908 0 5 7.46908 1
gene 3 2 5 1.88617 0 109 1.88617 1
genomeend 15

/* Organism #16 Fitness: 16 Error: 6.20685e-08 */
genomestart 16
trait 1 0.0910156 0 0 0 0 0 0 0.0590548 
trait 2 0.2 0 0 0 0 0 0 0 
trait 3 0.3 0.316661 0 0.204986 0 0 0.571203 0 
node 1 2 1 3
node 2 3 1 1
node 3 3 1 1
node 4 3 0 2
node 5 1 0 0
gene 2 1 4 4.30965 0 1 4.30965 1
gene 3 2 4 -7.75691 0 2 -7.75691 1
gene 3 3 4 -8 0 3 -8 0
gene 2 3 5 -7.86411 0 4 -7.86411 1
gene 3 5 4 7.33794 0 5 7.33794 1
gene 3 2 5 2.66765 0 109 2.66765 1
genomeend 16

/* Organism #17 Fitness: 5.85803 Error: 1.57966 */
genomestart 17
trait 1 0.0914063 0 0 0 0 0 0 0.0564872 
trait 2 0.2 0 0 0 0 0 0 0 
trait 3 0.3 0.31654 0 0.204907 0 0 0.570984 0 
node 1 2 1 3
node 2 3 1 1
node 3 3 1 1
node 4 3 0 2
node 5 1 0 0
gene 2 1 4 0.433263 0 1 0.433263 1
gene 3 2 4 -7.46773 0 2 -7.46773 1
gene 3 3 4 -7.14636 0 3 -7.14636 0
gene 2 3 5 -4.74905 0 4 -4.74905 1
gene 1 5 4 -0.593206 0 5 -0.593206 1
gene 3 2 5 3.26086 0 109 3.26086 1
genomeend 17

/* Organism #18 Fitness: 15.9896 Error: 0.00130082 */
genomestart 18
trait 1 0.090625 0 0 0 0 0 0 0.0616224 
trait 2 0.2 0 0 0 0 0 0 0 
trait 3 0 0.316782 0 0.205064 0 0 0.464518 0 
node 1 2 1 3
node 2 3 1 1
node 3 3 1 1
node 4 3 0 2
node 5 1 0 0
gene 2 1 4 2.76012 0 1 2.76012 1
gene 3 2 4 -4.10946 0 2 -4.10946 1
gene 3 3 4 -8 0 3 -8 0
gene 2 3 5 -5.44616 0 4 -5.44616 1
gene 3 5 4 6.40744 0 5 6.40744 1
gene 3 2 5 1.92022 0 109 1.92022 1
genomeend 18

/* Organism #19 Fitness: 10.0468 Error: 0.830336 */
genomestart 19
trait 1 0.0914063 0 0 0 0 0 0 0.0564872 
trait 2 0.2 0 0 0 0 0 0 0 
trait 3 0.3 0.31654 0 0.204907 0 0 0.570984 0 
node 1 2 1 3
node 2 3 1 1
node 3 3 1 1
node 4 3 0 2
node 5 1 0 0
gene 2 1 4 -0.318609 0 1 -0.318609 1
gene 3 2 4 -5.589 0 2 -5.589 1
gene 3 3 4 -5.48911 0 3 -5.48911 0
gene 2 3 5 -8 0 4 -8 1
gene 3 5 4 8 0 5 8 1
gene 3 2 5 0.421387 0 109 0.421387 1
genomeend 19

/* Organism #20 Fitness: 8.98066 Error: 1.00323 */
genomestart 20
trait 1 0.090625 0 0 0 0 0 0 0.0616224 
trait 2 0.2 0 0 0 0 0 0 0 
trait 3 0.3 0.316782 0 0.205064 0 0 0.571421 0 
node 1 2 1 3
node 2 3 1 1
node 3 3 1 1
node 4 3 0 2
node 5 1 0 0
gene 2 1 4 1.16434 0 1 1.16434 1
gene 3 2 4 -8 0 2 -8 1
gene 3 3 4 -4.82979 0 3 -4.82979 0
gene 2 3 5 -3.18281 0 4 -3.18281 1
gene 3 5 4 6.92943 0 5 6.92943 1
gene 3 2 5 -0.26925 0 109 -0.26925 1
genomeend 20

/* Organism #21 Fitness: 16 Error: 4.63936e-07 */
genomestart 21
trait 1 0.0898438 0 0 0 0 0 0 0.0667576 
trait 2 0.2 0 0 0 0 0 0 0 
trait 3 0.3 0.316782 0 0.205064 0 0 0.571421 0 
node 1 2 1 3
node 2 3 1 1
node 3 3 1 1
node 4 3 0 2
node 5 1 0 0
gene 2 1 4 3.22124 0 1 3.22124 1
gene 3 2 4 -6.25077 0 2 -6.25077 1
gene 3 3 4 -5.24298 0 3 -5.24298 0
gene 2 3 5 -6.68447 0 4 -6.68447 1
gene 3 5 4 8 0 5 8 1
gene 3 2 5 1.88617 0 109 1.88617 1
genomeend 21

/* Organism #22 Fitness: 8.91857 Error: 1.0136 */
genomestart 22
trait 1 0.0882813 0 0 0 0 0 0 0.0770279 
trait 2 0.2 0 0 0 0 0 0 0 
trait 3 0.3 0.317024 0 0.205221 0 0 0.571858 0 
node 1 2 1 3
node 2 3 1 1
node 3 3 1 1
node 4 1 0 2
node 5 1 0 0
gene 2 1 4 0.869845 0 1 0.869845 1
gene 2 2 4 -8 0 2 -8 1
gene 3 3 4 1.09422 0 3 1.09422 0
gene 2 3 5 -6.0203 0 4 -6.0203 1
gene 3 5 4 7.63292 0 5 7.63292 1
gene 3 2 5 0.0959347 0 109 0.0959347 1
genomeend 22

/* Organism #23 Fitness: 9.00003 Error: 0.999995 */
genomestart 23
trait 1 0.090625 0 0 0 0 0 0 0.0616224 
trait 2 0.2 0 0 0 0 0.857863 0 0 
trait 3 0.3 0.316782 0 0.205064 0 0 0.571421 0 
node 1 2 1 3
node 2 3 1 1
node 3 3 1 1
node 4 3 0 2
node 5 1 0 0
gene 2 1 4 3.41437 0 1 3.41437 1
gene 3 2 4 -6.06496 0 2 -6.06496 1
gene 3 3 4 -5.27622 0 3 -5.27622 0
gene 2 3 5 -3.77573 0 4 -3.77573 1
gene 3 5 4 7.88624 0 5 7.88624 1
gene 3 2 5 3.90077 0 109 3.90077 1
genomeend 23

/* Organism #24 Fitness: 4.0103 Error: 1.99743 */
genomestart 24
trait 1 0.0898438 0 0 0 0 0 0 0.0667576 
trait 2 0.2 0 0 0 0 0 0 0 
trait 3 0.3 0.316782 0 0.205064 0 0 0.571421 0 
node 1 2 1 3
node 2 3 1 1
node 3 3 1 1
node 4 3 0 2
node 5 1 0 0
gene 2 1 4 -1.21024 0 1 -1.21024 1
gene 3 2 4 -8 0 2 -8 1
gene 3 3 4 -8 0 3 -8 0
gene 2 3 5 -8 0 4 -8 1
gene 3 5 4 8 0 5 8 1
gene 3 2 5 -0.492827 0 109 -0.492827 1
genomeend 24

/* Organism #25 Fitness: 16 Error: 1.04121e-06 */
genomestart 25
trait 1 0.0910156 0 0 0 0 0 0 0.0590548 
trait 2 0.2 0 0 0 0 0 0 0 
trait 3 0.3 0.316661 0 0.204986 0 0 0.571203 0 
node 1 2 1 3
node 2 3 1 1
node 3 3 1 1
node 4 3 0 2
node 5 1 0 0
gene 2 1 4 3.02306 0 1 3.02306 1
gene 3 2 4 -5.90459 0 2 -5.90459 1
gene 3 3 4 -6.67067 0 3 -6.67067 0
gene 2 3 5 -5.81507 0 4 -5.81507 1
gene 3 5 4 7.46908 0 5 7.46908 1
gene 3 2 5 1.88617 0 109 1.88617 1
genomeend 25

/* Organism #26 Fitness: 11.8686 Error: 0.554921 */
genomestart 26
trait 1 0.0898438 0 0 0 0 0 0 0.0667576 
trait 2 0.2 0 0 0 0 0 0 0 
trait 3 0.3 0.316782 0 0.205064 0 0 0.571421 0 
node 1 2 1 3
node 2 3 1 1
node 3 3 1 1
node 4 3 0 2
node 5 1 0 0
gene 2 1 4 2.27985 0 1 2.27985 1
gene 3 2 4 -8 0 2 -8 1
gene 3 3 4 -4.34932 0 3 -4.34932 0
gene 2 3 5 -5.34977 0 4 -5.34977 1
gene 3 5 4 5.67537 0 5 5.67537 1
gene 3 2 5 4.00997 0 109 4.00997 1
genomeend 26

/* Organism #27 Fitness: 15.8851 Error: 0.0143827 */
genomestart 27
trait 1 0.0882813 0 0 0 0 0 0 0.0770279 
trait 2 0.2 0 0 0 0 0 0 0 
trait 3 0.3 0.317024 0 0.205221 0 0 0.571858 0 
node 1 2 1 3
node 2 3 1 1
node 3 3 1 1
node 4 3 0 2
node 5 1 0 0
gene 2 1 4 1.05113 0 1 1.05113 1
gene 3 2 4 -5.23365 0 2 -5.23365 1
gene 3 3 4 -2.13958 0 3 -2.13958 0
gene 2 3 5 -4.46627 0 4 -4.46627 1
gene 3 5 4 5.1428 0 5 5.1428 1
gene 3 2 5 2.7824 0 109 2.7824 1
genomeend 27

/* Species #4 : (Size 13) (AF 12.4417) (Age 14)  */


/* Organism #28 Fitness: 15.9978 Error: 0.00027545 */
genomestart 28
trait 1 0.1 0 0 0 0 0 0 0 
trait 2 0.2 0.0797305 0 0 0 0 0.372508 0 
trait 3 0.329941 0 0 0 0.049111 0 0.0628862 0 
node 1 2 1 3
node 2 1 1 1
node 3 1 1 1
node 4 3 0 2
node 17 1 0 0
gene 2 1 4 5.30962 0 1 5.30962 1
gene 1 2 4 -3.63851 0 2 -3.63851 1
gene 3 3 4 -4.76515 0 3 -4.76515 1
gene 1 2 17 -3.57107 0 39 -3.57107 1
gene 1 17 4 4.74321 0 40 4.74321 1
gene 2 1 17 0.171727 0 104 0.171727 1
genomeend 28

/* Organism #29 Fitness: 8.99976 Error: 1.00004 */
genomestart 29
trait 1 0.1 0 0 0 0 0 0 0 
trait 2 0.2 0.0797305 0 0 0 0 0.372508 0 
trait 3 0.329941 0 0 0 0.049111 0 0.0628862 0 
node 1 2 1 3
node 2 1 1 1
node 3 1 1 1
node 4 3 0 2
node 17 1 0 0
gene 2 1 4 6.67258 0 1 6.67258 1
gene 1 2 4 -1.25459 0 2 -1.25459 1
gene 3 3 4 -2.93497 0 3 -2.93497 1
gene 1 2 17 -0.900244 0 39 -0.900244 1
gene 1 17 4 4.06441 0 40 4.06441 1
gene 2 1 17 -0.832237 0 104 -0.832237 1
genomeend 29

/* Organism #30 Fitness: 5.22179 Error: 1.71488 */
genomestart 30
trait 1 0.1 0 0 0 0 0 0 0 
trait 2 0.2 0.0797305 0 0 0 0 0.372508 0 
trait 3 0.329941 0 0 0 0.049111 0 0.0628862 0 
node 1 2 1 3
node 2 1 1 1
node 3 1 1 1
node 4 3 0 2
node 17 1 0 0
gene 2 1 4 3.46476 0 1 3.46476 1
gene 1 2 4 -0.325148 0 2 -0.325148 1
gene 3 3 4 -5.06748 0 3 -5.06748 1
gene 1 2 17 -1.88304 0 39 -1.88304 1
gene 1 17 4 -0.373302 0 40 -0.373302 1
gene 2 1 17 0.864974 0 104 0.864974 1
genomeend 30

/* Organism #31 Fitness: 9.00322 Error: 0.999463 */
genomestart 31
trait 1 0.1 0 0 0 0 0 0 0 
trait 2 0.2 0.0797305 0 0 0 0 0.372508 0 
trait 3 0.329941 0 0 0 0.049111 0 0.0628862 0 
node 1 2 1 3
node 2 1 1 1
node 3 1 1 1
node 4 3 0 2
node 17 1 0 0
gene 2 1 4 3.56163 0 1 3.56163 1
gene 1 2 4 -5.0909 0 2 -5.0909 1
gene 3 3 4 -6.60077 0 3 -6.60077 1
gene 1 2 17 -2.84827 0 39 -2.84827 1
gene 1 17 4 7.21293 0 40 7.21293 1
gene 2 1 17 0.826954 0 104 0.826954 1
genomeend 31

/* Organism #32 Fitness: 8.93173 Error: 1.0114 */
genomestart 32
trait 1 0.1 0 0 0 0 0 0 0 
trait 2 0.2 0.0797305 0 0 0 0 0.372508 0 
trait 3 0.329941 0 0 0 0.049111 0 0.0628862 0 
node 1 2 1 3
node 2 1 1 1
node 3 1 1 1
node 4 3 0 2
node 17 1 0 0
gene 2 1 4 6.61083 0 1 6.61083 1
gene 1 2 4 -1.78492 0 2 -1.78492 1
gene 3 3 4 -3.88936 0 3 -3.88936 1
gene 1 2 17 -1.80808 0 39 -1.80808 1
gene 1 17 4 1.55584 0 40 1.55584 1
gene 2 1 17 -2.18745 0 104 -2.18745 1
genomeend 32

/* Organism #33 Fitness: 9 Error: 1 */
genomestart 33
trait 1 0.1 0 0 0 0 0 0 0 
trait 2 0.2 0.0697642 0 0 0 0 0.325944 0 
trait 3 0.329192 0 0 0 0.0478833 0 0.061314 0 
node 1 2 1 3
node 2 1 1 1
node 3 1 1 1
node 4 3 0 2
node 17 1 0 0
gene 2 1 4 5.05468 0 1 5.05468 1
gene 1 2 4 -4.84272 0 2 -4.84272 0
gene 3 3 4 -3.58156 0 3 -3.58156 1
gene 1 2 17 -2.27687 0 39 -2.27687 1
gene 1 17 4 8 0 40 8 1
gene 1 1 17 2.63218 0 104 2.63218 1
genomeend 33

/* Organism #34 Fitness: 15.9999 Error: 1.21341e-05 */
genomestart 34
trait 1 0.1 0 0 0 0 0 0 0 
trait 2 0.2 0.0797305 0 0 0 0 0.372508 0 
trait 3 0.329941 0 0 0 0.049111 0 0.0628862 0 
node 1 2 1 3
node 2 1 1 1
node 3 1 1 1
node 4 3 0 2
node 17 1 0 0
gene 2 1 4 6.29079 0 1 6.29079 1
gene 1 2 4 -3.28727 0 2 -3.28727 1
gene 3 3 4 -6.08224 0 3 -6.08224 1
gene 1 2 17 -0.627243 0 39 -0.627243 1
gene 1 17 4 8 0 40 8 1
gene 2 1 17 0.175287 0 104 0.175287 1
genomeend 34

/* Organism #35 Fitness: 8.99998 Error: 1 */
genomestart 35
trait 1 0.1 0 0 0 0 0 0 0 
trait 2 0.2 0.0697642 0 0 0 0 0.325944 0 
trait 3 0.329192 0 0 0 0.0478833 0 0.061314 0 
node 1 2 1 3
node 2 1 1 1
node 3 1 1 1
node 4 3 0 2
node 17 1 0 0
gene 2 1 4 4.98361 0 1 4.98361 1
gene 1 2 4 -5.38934 0 2 -5.38934 0
gene 3 3 4 -7.7716 0 3 -7.7716 1
gene 1 2 17 -1.80808 0 39 -1.80808 1
gene 1 17 4 5.05558 0 40 5.05558 1
gene 2 1 17 0.0029969 0 104 0.0029969 1
gene 3 3 17 -0.913885 0 161 -0.913885 1
genomeend 35

/* Organism #36 Fitness: 15.9864 Error: 0.00170491 */
genomestart 36
trait 1 0.1 0 0 0 0 0 0 0 
trait 2 0.2 0.0597979 0 0 0 0 0.279381 0 
trait 3 0.328444 0 0 0 0.0466555 0 0.0597419 0 
node 1 2 1 3
node 2 1 1 1
node 3 1 1 1
node 4 3 0 2
node 17 1 0 0
gene 2 1 4 5.30962 0 1 5.30962 1
gene 1 2 4 -6.12968 0 2 -6.12968 0
gene 3 3 4 -8 0 3 -8 1
gene 1 2 17 -1.80808 0 39 -1.80808 1
gene 1 17 4 8 0 40 8 1
gene 2 1 17 1.06021 0 104 1.06021 1
gene 3 3 17 0.432326 0 161 0.432326 1
genomeend 36

/* Organism #37 Fitness: 15.9596 Error: 0.00505472 */
genomestart 37
trait 1 0.1 0 0 0 0 0 0 0 
trait 2 0.2 0.0697642 0 0 0 0 0.325944 0 
trait 3 0.329192 0 0 0 0.0478833 0 0.061314 0 
node 1 2 1 3
node 2 1 1 1
node 3 1 1 1
node 4 3 0 2
node 17 1 0 0
gene 2 1 4 5.30962 0 1 5.30962 1
gene 1 2 4 -4.88409 0 2 -4.88409 0
gene 3 3 4 -6.38258 0 3 -6.38258 1
gene 1 2 17 -2.68957 0 39 -2.68957 1
gene 1 17 4 6.37161 0 40 6.37161 1
gene 2 1 17 0.615969 0 104 0.615969 1
genomeend 37

/* Organism #38 Fitness: 15.9961 Error: 0.000483182 */
genomestart 38
trait 1 0.1 0 0 0 0 0 0 0 
trait 2 0.2 0.0697642 0 0 0 0 0.325944 0 
trait 3 0.329192 0 0 0 0.0478833 0 0.061314 0 
node 1 2 1 3
node 2 1 1 1
node 3 1 1 1
node 4 3 0 2
node 17 1 0 0
gene 2 1 4 6.93471 0 1 6.93471 1
gene 1 2 4 -5.38281 0 2 -5.38281 1
gene 3 3 4 -4.24395 0 3 -4.24395 1
gene 1 2 17 -0.994138 0 39 -0.994138 1
gene 1 17 4 7.43887 0 40 7.43887 1
gene 2 1 17 -2.06355 0 104 -2.06355 1
gene 3 3 17 -0.667573 0 161 -0.667573 1
genomeend 38

/* Organism #39 Fitness: 15.9921 Error: 0.000990903 */
genomestart 39
trait 1 0.1 0 0 0 0 0 0 0 
trait 2 0.2 0.0797305 0 0 0 0 0.372508 0 
trait 3 0.329941 0 0 0 0.049111 0 0.0628862 0 
node 1 2 1 3
node 2 1 1 1
node 3 1 1 1
node 4 3 0 2
node 17 1 0 0
gene 2 1 4 3.12506 0 1 3.12506 1
gene 1 2 4 -1.71415 0 2 -1.71415 1
gene 3 3 4 -6.13157 0 3 -6.13157 1
gene 1 2 17 -3.85296 0 39 -3.85296 1
gene 1 17 4 4.9485 0 40 4.9485 1
gene 2 1 17 2.58569 0 104 2.58569 1
genomeend 39

/* Organism #40 Fitness: 15.6541 Error: 0.0434785 */
genomestart 40
trait 1 0.1 0 0 0 0 0 0 0 
trait 2 0.2 0.0797305 0 0 0 0 0.372508 0 
trait 3 0.329941 0 0 0 0.049111 0 0.0628862 0 
node 1 2 1 3
node 2 1 1 1
node 3 1 1 1
node 4 3 0 2
node 17 1 0 0
gene 2 1 4 4.97754 0 1 4.97754 1
gene 1 2 4 -2.40316 0 2 -2.40316 1
gene 3 3 4 -4.3645 0 3 -4.3645 1
gene 1 2 17 -1.7949 0 39 -1.7949 1
gene 1 17 4 4.24897 0 40 4.24897 1
gene 2 1 17 -1.13851 0 104 -1.13851 1
genomeend 40

/* Species #5 : (Size 9) (AF 9.27744) (Age 14)  */


/* Organism #41 Fitness: 15.5655 Error: 0.0546816 */
genomestart 41
trait 1 0.1 0 0 0 0 0 0 0 
trait 2 0.2 0 0 0 0 0 0 0 
trait 3 0.3 0 0 0 0 0 0 0 
node 1 1 1 3
node 2 2 1 1
node 3 2 1 1
node 4 2 0 2
node 7 1 0 0
node 8 1 0 0
node 12 1 0 0
gene 1 1 4 0.417969 0 1 0.417969 1
gene 1 2 4 -0.130317 0 2 -0.130317 0
gene 1 3 4 -2.68795 0 3 -2.68795 1
gene 1 2 7 -3.05324 0 8 -3.05324 1
gene 1 7 4 6.16625 0 9 6.16625 0
gene 1 2 8 -0.376331 0 10 -0.376331 1
gene 1 8 7 0.779162 0 11 0.779162 1
gene 1 7 12 1.97325 0 22 1.97325 1
gene 1 12 4 2.94161 0 23 2.94161 1
genomeend 41

/* Organism #42 Fitness: 9.05824 Error: 0.99031 */
genomestart 42
trait 1 0.1 0 0 0 0 0 0 0 
trait 2 0.2 0 0 0 0 0 0 0 
trait 3 0.957192 0.918031 0 0 0 0 0 0 
node 1 1 1 3
node 2 2 1 1
node 3 2 1 1
node 4 2 0 2
node 7 1 0 0
node 8 1 0 0
node 12 1 0 0
gene 1 1 4 -0.554813 0 1 -0.554813 1
gene 1 2 4 0.151904 0 2 0.151904 0
gene 1 3 4 -2.1394 0 3 -2.1394 1
gene 1 2 7 -2.05481 0 8 -2.05481 1
gene 1 7 4 5.58261 0 9 5.58261 0
gene 1 2 8 -1.13233 0 10 -1.13233 1
gene 1 8 7 0.746272 0 11 0.746272 1
gene 1 7 12 2.36284 0 22 2.36284 1
gene 1 12 4 7.26591 0 23 7.26591 1
gene 2 3 8 -3.70447 0 123 -3.70447 1
genomeend 42

/* Organism #43 Fitness: 15.3124 Error: 0.0868939 */
genomestart 43
trait 1 0.1 0 0 0 0 0 0 0 
trait 2 0.2 0 0 0 0 0 0 0 
trait 3 0.3 0 0 0 0 0 0 0 
node 1 1 1 3
node 2 2 1 1
node 3 2 1 1
node 4 2 0 2
node 7 1 0 0
node 8 1 0 0
node 12 1 0 0
gene 1 1 4 0.122228 0 1 0.122228 1
gene 1 2 4 1.51455 0 2 1.51455 0
gene 1 3 4 -2.41177 0 3 -2.41177 1
gene 1 2 7 -2.36436 0 8 -2.36436 1
gene 1 7 4 4.9501 0 9 4.9501 0
gene 1 2 8 -1.92894 0 10 -1.92894 1
gene 1 8 7 0.735538 0 11 0.735538 1
gene 1 7 12 1.90047 0 22 1.90047 1
gene 1 12 4 3.61428 0 23 3.61428 1
gene 1 3 8 -3.70447 0 123 -3.70447 1
genomeend 43

/* Organism #44 Fitness: 9 Error: 1 */
genomestart 44
trait 1 0.1 0 0 0 0 0 0 0 
trait 2 0.2 0 0 0 0 0 0 0 
trait 3 0.3 0 0 0 0 0 0 0 
node 1 1 1 3
node 2 2 1 1
node 3 2 1 1
node 4 2 0 2
node 7 1 0 0
node 8 1 0 0
node 12 1 0 0
gene 1 1 4 0.270499 0 1 0.270499 1
gene 1 2 4 0.152108 0 2 0.152108 0
gene 1 3 4 -2.23259 0 3 -2.23259 1
gene 1 2 7 -0.0540133 0 8 -0.0540133 1
gene 1 7 4 7.18675 0 9 7.18675 0
gene 1 2 8 -1.93028 0 10 -1.93028 1
gene 1 8 7 -0.257866 0 11 -0.257866 1
gene 1 7 12 4.13077 0 22 4.13077 1
gene 1 12 4 6.2015 0 23 6.2015 1
gene 1 3 8 -1.9087 0 123 -1.9087 1
genomeend 44

/* Organism #45 Fitness: 9.99556 Error: 0.838425 */
genomestart 45
trait 1 0.1 0 0 0 0 0 0 0 
trait 2 0.2 0 0 0 0 0 0 0 
trait 3 0.3 0 0 0 0 0 0 0 
node 1 1 1 3
node 2 2 1 1
node 3 2 1 1
node 4 2 0 2
node 7 1 0 0
node 8 1 0 0
node 12 1 0 0
gene 1 1 4 0.417969 0 1 0.417969 1
gene 1 2 4 0.952697 0 2 0.952697 0
gene 1 3 4 -2.68795 0 3 -2.68795 1
gene 1 2 7 -1.92754 0 8 -1.92754 1
gene 1 7 4 6.62283 0 9 6.62283 0
gene 1 2 8 -0.376331 0 10 -0.376331 1
gene 1 8 7 -0.864057 0 11 -0.864057 1
gene 1 7 12 1.97325 0 22 1.97325 1
gene 1 12 4 5.20632 0 23 5.20632 1
genomeend 45

/* Organism #46 Fitness: 5.13018 Error: 1.73501 */
genomestart 46
trait 1 0.1 0 0 0 0 0 0 0 
trait 2 0.2 0 0 0 0 0 0 0 
trait 3 0.3 0 0 0 0 0 0 0 
node 1 1 1 3
node 2 2 1 1
node 3 2 1 1
node 4 2 0 2
node 7 1 0 0
node 8 1 0 0
node 12 1 0 0
gene 1 1 4 -1.72045 0 1 -1.72045 1
gene 1 2 4 2.35948 0 2 2.35948 0
gene 1 3 4 -2.61546 0 3 -2.61546 1
gene 1 2 7 -2.21464 0 8 -2.21464 1
gene 1 7 4 7.08616 0 9 7.08616 0
gene 1 2 8 1.12382 0 10 1.12382 1
gene 1 8 7 -0.40768 0 11 -0.40768 1
gene 1 7 12 2.38284 0 22 2.38284 1
gene 1 12 4 3.03075 0 23 3.03075 1
genomeend 46

/* Organism #47 Fitness: 9 Error: 1 */
genomestart 47
trait 1 0.1 0 0 0 0 0 0 0 
trait 2 0.2 0 0 0 0 0 0 0 
trait 3 0.3 0 0 0 0 0 0 0 
node 1 1 1 3
node 2 2 1 1
node 3 2 1 1
node 4 2 0 2
node 7 1 0 0
node 8 1 0 0
node 12 1 0 0
gene 1 1 4 1.05955 0 1 1.05955 1
gene 1 2 4 2.31559 0 2 2.31559 0
gene 1 3 4 -1.5698 0 3 -1.5698 1
gene 1 2 7 -3.91256 0 8 -3.91256 1
gene 1 7 4 5.71708 0 9 5.71708 0
gene 1 2 8 -0.765313 0 10 -0.765313 1
gene 1 8 7 -1.39084 0 11 -1.39084 1
gene 1 7 12 2.68087 0 22 2.68087 1
gene 1 12 4 7.11304 0 23 7.11304 1
gene 1 3 8 -0.769611 0 123 -0.769611 1
genomeend 47

/* Organism #48 Fitness: 9.32615 Error: 0.946125 */
genomestart 48
trait 1 0.1 0 0 0 0 0 0 0 
trait 2 0.2 0 0 0 0 0 0 0 
trait 3 0.3 0 0 0 0 0 0 0 
node 1 1 1 3
node 2 2 1 1
node 3 2 1 1
node 4 2 0 2
node 7 1 0 0
node 8 1 0 0
node 12 1 0 0
gene 1 1 4 -0.0848739 0 1 -0.0848739 1
gene 1 2 4 0.41119 0 2 0.41119 0
gene 1 3 4 -1.37052 0 3 -1.37052 1
gene 1 2 7 -2.49039 0 8 -2.49039 1
gene 1 7 4 6.39454 0 9 6.39454 1
gene 1 2 8 -0.90822 0 10 -0.90822 1
gene 1 8 7 -0.0424477 0 11 -0.0424477 1
gene 1 7 12 3.09867 0 22 3.09867 1
gene 1 12 4 4.07397 0 23 4.07397 1
genomeend 48

/* Organism #49 Fitness: 1.10885 Error: 2.94698 */
genomestart 49
trait 1 0.1 0 0 0 0.0831259 0 0 0 
trait 2 0.2 0 0 0 0 0 0 0 
trait 3 0.3 0 0 0 0 0 0 0 
node 1 1 1 3
node 2 2 1 1
node 3 2 1 1
node 4 2 0 2
node 7 1 0 0
node 8 1 0 0
node 12 1 0 0
gene 1 1 4 -3.0071 0 1 -3.0071 1
gene 1 2 4 -1.12728 0 2 -1.12728 0
gene 1 3 4 -0.451533 0 3 -0.451533 1
gene 1 2 7 -5.22266 0 8 -5.22266 1
gene 1 7 4 4.73356 0 9 4.73356 0
gene 1 2 8 -0.0024271 0 10 -0.0024271 1
gene 1 8 7 -1.07509 0 11 -1.07509 1
gene 1 7 12 4.39809 0 22 4.39809 1
gene 1 12 4 0.725098 0 23 0.725098 1
genomeend 49

/* Species #6 : (Size 7) (AF 9.92901) (Age 13)  */


/* Organism #50 Fitness: 15.9608 Error: 0.00490857 */
genomestart 50
trait 1 0.417461 0 0 0 0 0 0 0 
trait 2 0.2 0 0 0 0.0577076 0.235084 0 0 
trait 3 0.3 0 0 0 0 0 0 0 
node 1 1 1 3
node 2 2 1 1
node 3 2 1 1
node 4 2 0 2
node 7 1 0 0
node 9 1 0 0
node 25 1 0 0
gene 1 1 4 -0.842981 0 1 -0.842981 1
gene 1 2 4 1.03333 0 2 1.03333 0
gene 1 3 4 -2.828 0 3 -2.828 1
gene 1 2 7 -1.49285 0 8 -1.49285 1
gene 1 7 4 3.90258 0 9 3.90258 0
gene 1 7 9 4.45079 0 12 4.45079 1
gene 1 9 4 7.08943 0 13 7.08943 0
gene 2 1 9 -2.18888 0 45 -2.18888 1
gene 1 9 25 4.51791 0 60 4.51791 1
gene 1 25 4 4.95689 0 61 4.95689 1
genomeend 50

/* Organism #51 Fitness: 9 Error: 1 */
genomestart 51
trait 1 0.338465 0 0.150596 0 0 0.0602028 0 0.144479 
trait 2 0.2 0 0 0 0.0391587 0.218293 0 0 
trait 3 0.3 0 0 0 0 0 0 0 
node 1 1 1 3
node 2 2 1 1
node 3 2 1 1
node 4 2 0 2
node 7 1 0 0
node 9 1 0 0
node 25 1 0 0
gene 1 1 4 -0.842981 0 1 -0.842981 1
gene 1 2 4 1.03333 0 2 1.03333 0
gene 1 3 4 -2.828 0 3 -2.828 0
gene 1 2 7 -1.49285 0 8 -1.49285 1
gene 1 7 4 1.91541 0 9 1.91541 0
gene 1 7 9 4.45079 0 12 4.45079 1
gene 1 9 4 7.08943 0 13 7.08943 0
gene 2 1 9 0.841117 0 45 0.841117 1
gene 1 9 25 4.51791 0 60 4.51791 1
gene 1 25 4 5.92142 0 61 5.92142 1
genomeend 51

/* Organism #52 Fitness: 9 Error: 1 */
genomestart 52
trait 1 0.338465 0 0.150596 0 0 0.0602028 0 0.144479 
trait 2 0.2 0 0 0 0.0391587 0.218293 0 0 
trait 3 0.3 0 0 0 0 0 0 0 
node 1 1 1 3
node 2 2 1 1
node 3 2 1 1
node 4 2 0 2
node 7 1 0 0
node 9 1 0 0
node 25 1 0 0
gene 1 1 4 -1.05707 0 1 -1.05707 1
gene 1 2 4 1.02057 0 2 1.02057 0
gene 1 3 4 -2.10443 0 3 -2.10443 0
gene 1 2 7 -2.97972 0 8 -2.97972 1
gene 1 7 4 4.49731 0 9 4.49731 1
gene 1 7 9 3.15872 0 12 3.15872 1
gene 1 9 4 6.79657 0 13 6.79657 1
gene 2 1 9 -1.06749 0 45 -1.06749 1
gene 1 9 25 1.76438 0 60 1.76438 1
gene 1 25 4 5.43915 0 61 5.43915 1
genomeend 52

/* Organism #53 Fitness: 8.54229 Error: 1.07728 */
genomestart 53
trait 1 0.417461 0 0 0 0 0 0 0 
trait 2 0.2 0 0 0 0.0577076 0.235084 0 0 
trait 3 0.3 0 0 0 0 0 0 0 
node 1 1 1 3
node 2 2 1 1
node 3 2 1 1
node 4 2 0 2
node 7 1 0 0
node 9 1 0 0
node 25 3 0 0
gene 1 1 4 -0.842981 0 1 -0.842981 1
gene 1 2 4 -2.26576 0 2 -2.26576 0
gene 1 3 4 -4.07739 0 3 -4.07739 1
gene 1 2 7 -3.49355 0 8 -3.49355 1
gene 1 7 4 6.16973 0 9 6.16973 0
gene 1 7 9 1.53948 0 12 1.53948 1
gene 1 9 4 5.52948 0 13 5.52948 0
gene 2 1 9 -3.60954 0 45 -3.60954 1
gene 1 9 25 2.13958 0 60 2.13958 1
gene 1 25 4 2.99135 0 61 2.99135 1
genomeend 53

/* Organism #54 Fitness: 9 Error: 1 */
genomestart 54
trait 1 0.417461 0 0 0 0 0 0 0 
trait 2 0.2 0 0 0 0.0577076 0.235084 0 0 
trait 3 0.3 0 0 0 0 0 0 0 
node 1 1 1 3
node 2 2 1 1
node 3 2 1 1
node 4 2 0 2
node 7 1 0 0
node 9 1 0 0
node 25 1 0 0
gene 1 1 4 0.606338 0 1 0.606338 1
gene 1 2 4 1.73664 0 2 1.73664 0
gene 1 3 4 -1.81772 0 3 -1.81772 1
gene 1 2 7 -1.46562 0 8 -1.46562 1
gene 1 7 4 1.61439 0 9 1.61439 0
gene 1 7 9 3.6487 0 12 3.6487 1
gene 1 9 4 7.37494 0 13 7.37494 0
gene 2 1 9 -4.21023 0 45 -4.21023 1
gene 1 9 25 4.00857 0 60 4.00857 1
gene 1 25 4 7.12394 0 61 7.12394 1
genomeend 54

/* Organism #55 Fitness: 9 Error: 1 */
genomestart 55
trait 1 0.417461 0 0 0 0 0 0 0 
trait 2 0.2 0 0 0 0.0577076 0.235084 0 0 
trait 3 0.3 0 0 0 0 0 0 0 
node 1 1 1 3
node 2 2 1 1
node 3 2 1 1
node 4 2 0 2
node 7 1 0 0
node 9 1 0 0
node 25 1 0 0
gene 1 1 4 0.83522 0 1 0.83522 1
gene 1 2 4 0.0527963 0 2 0.0527963 0
gene 1 3 4 -1.03478 0 3 -1.03478 1
gene 1 2 7 0.691033 0 8 0.691033 1
gene 1 7 4 2.00163 0 9 2.00163 1
gene 1 7 9 6.60681 0 12 6.60681 1
gene 1 9 4 5.63118 0 13 5.63118 0
gene 2 1 9 -0.150945 0 45 -0.150945 1
gene 1 9 25 1.41858 0 60 1.41858 1
gene 1 25 4 6.70489 0 61 6.70489 1
genomeend 55

/* Organism #56 Fitness: 9 Error: 1 */
genomestart 56
trait 1 0.338465 0 0.150596 0 0 0.0602028 0 0.144479 
trait 2 0.2 0 0 0 0.0391587 0.218293 0 0 
trait 3 0.3 0 0 0 0 0 0 0 
node 1 1 1 3
node 2 2 1 1
node 3 2 1 1
node 4 2 0 2
node 7 1 0 0
node 9 1 0 0
node 25 1 0 0
gene 1 1 4 -1.52962 0 1 -1.52962 1
gene 1 2 4 3.11658 0 2 3.11658 0
gene 1 3 4 1.3185 0 3 1.3185 0
gene 1 2 7 -2.37486 0 8 -2.37486 1
gene 1 7 4 3.52183 0 9 3.52183 0
gene 1 7 9 3.49448 0 12 3.49448 1
gene 1 9 4 7.62539 0 13 7.62539 0
gene 2 1 9 2.2716 0 45 2.2716 1
gene 1 9 25 1.57797 0 60 1.57797 1
gene 1 25 4 5.92142 0 61 5.92142 1
genomeend 56

/* Species #7 : (Size 7) (AF 9.00512) (Age 13)  */


/* Organism #57 Fitness: 9.01795 Error: 0.99701 */
genomestart 57
trait 1 0.1 0 0 0 0 0 0 0 
trait 2 0.2 0 0 0 0 0 0 0 
trait 3 0.3 0 0 0 0 0 0 0 
node 1 1 1 3
node 2 2 1 1
node 3 3 1 1
node 4 2 0 2
node 7 1 0 0
node 13 1 0 0
node 26 1 0 0
gene 1 1 4 -1.20374 0 1 -1.20374 1
gene 1 2 4 5.04664 0 2 5.04664 0
gene 1 3 4 -0.0598397 0 3 -0.0598397 1
gene 1 2 7 5.03062 0 8 5.03062 0
gene 1 7 4 3.8841 0 9 3.8841 1
gene 1 2 13 -0.0436781 0 24 -0.0436781 0
gene 1 13 7 1.97275 0 25 1.97275 1
gene 1 2 26 1.41509 0 62 1.41509 1
gene 2 26 13 0.874813 0 63 0.874813 1
gene 3 26 7 -2.44813 0 71 -2.44813 1
genomeend 57

/* Organism #58 Fitness: 8.99991 Error: 1.00001 */
genomestart 58
trait 1 0.1 0 0 0 0 0 0 0 
trait 2 0.2 0 0 0 0 0 0 0 
trait 3 0.3 0 0 0 0 0 0 0 
node 1 1 1 3
node 2 2 1 1
node 3 3 1 1
node 4 2 0 2
node 7 1 0 0
node 13 1 0 0
node 26 1 0 0
gene 1 1 4 -1.20374 0 1 -1.20374 1
gene 1 2 4 5.04664 0 2 5.04664 1
gene 1 3 4 -0.0598397 0 3 -0.0598397 1
gene 1 2 7 5.03062 0 8 5.03062 0
gene 1 7 4 3.8841 0 9 3.8841 1
gene 1 2 13 -0.0436781 0 24 -0.0436781 0
gene 1 13 7 1.97275 0 25 1.97275 1
gene 1 2 26 1.41509 0 62 1.41509 1
gene 2 26 13 0.874813 0 63 0.874813 1
gene 3 26 7 -2.44813 0 71 -2.44813 1
genomeend 58

/* Organism #59 Fitness: 9 Error: 1 */
genomestart 59
trait 1 0.1 0 0 0 0 0 0 0 
trait 2 0.2 0 0 0 0 0 0 0 
trait 3 0.3 0 0 0 0 0 0 0 
node 1 1 1 3
node 2 2 1 1
node 3 3 1 1
node 4 2 0 2
node 7 1 0 0
node 13 1 0 0
node 26 1 0 0
gene 1 1 4 -0.924399 0 1 -0.924399 1
gene 1 2 4 4.68549 0 2 4.68549 0
gene 1 3 4 1.04618 0 3 1.04618 1
gene 1 2 7 5.38053 0 8 5.38053 1
gene 1 7 4 4.74972 0 9 4.74972 1
gene 1 2 13 1.01225 0 24 1.01225 1
gene 1 13 7 4.42398 0 25 4.42398 1
gene 1 2 26 0.295424 0 62 0.295424 1
gene 2 26 13 1.121 0 63 1.121 1
gene 3 26 7 -1.84079 0 71 -1.84079 1
genomeend 59

/* Organism #60 Fitness: 9 Error: 1 */
genomestart 60
trait 1 0.1 0 0 0 0 0 0 0 
trait 2 0.205195 0 0 0 0 0 0 0 
trait 3 0.3 0 0 0 0 0 0 0 
node 1 1 1 3
node 2 2 1 1
node 3 3 1 1
node 4 2 0 2
node 7 1 0 0
node 13 1 0 0
node 26 1 0 0
gene 1 1 4 -0.0070274 0 1 -0.0070274 1
gene 1 2 4 6.30459 0 2 6.30459 0
gene 1 3 4 1.89206 0 3 1.89206 1
gene 1 2 7 4.70001 0 8 4.70001 0
gene 1 7 4 5.94205 0 9 5.94205 1
gene 1 2 13 3.00349 0 24 3.00349 0
gene 1 13 7 3.3626 0 25 3.3626 1
gene 1 2 26 1.9674 0 62 1.9674 1
gene 2 26 13 1.58866 0 63 1.58866 1
gene 3 26 7 -1.80367 0 71 -1.80367 1
genomeend 60

/* Organism #61 Fitness: 9 Error: 1 */
genomestart 61
trait 1 0.1 0 0 0 0 0 0 0 
trait 2 0.210389 0 0 0 0 0 0 0 
trait 3 0.3 0 0 0 0 0 0 0 
node 1 1 1 3
node 2 1 1 1
node 3 3 1 1
node 4 2 0 2
node 7 1 0 0
node 13 1 0 0
node 26 1 0 0
gene 1 1 4 1.77746 0 1 1.77746 1
gene 1 2 4 7.62269 0 2 7.62269 1
gene 1 3 4 2.70021 0 3 2.70021 1
gene 1 2 7 4.6927 0 8 4.6927 0
gene 1 7 4 6.04273 0 9 6.04273 1
gene 1 2 13 8 0 24 8 0
gene 1 13 7 5.40481 0 25 5.40481 1
gene 1 2 26 4.47463 0 62 4.47463 1
gene 2 26 13 4.17668 0 63 4.17668 1
gene 3 26 7 -3.28319 0 71 -3.28319 1
gene 2 3 26 -0.947868 0 140 -0.947868 1
genomeend 61

/* Organism #62 Fitness: 9 Error: 1 */
genomestart 62
trait 1 0.1 0 0 0 0 0 0 0 
trait 2 0.205195 0 0 0 0 0 0 0 
trait 3 0.3 0 0 0 0 0 0 0 
node 1 1 1 3
node 2 2 1 1
node 3 3 1 1
node 4 2 0 2
node 7 1 0 0
node 13 1 0 0
node 26 1 0 0
gene 1 1 4 1.18969 0 1 1.18969 1
gene 1 2 4 7.56253 0 2 7.56253 1
gene 1 3 4 3.84397 0 3 3.84397 1
gene 1 2 7 4.36941 0 8 4.36941 0
gene 1 7 4 3.8841 0 9 3.8841 1
gene 1 2 13 6.05065 0 24 6.05065 0
gene 1 13 7 4.75245 0 25 4.75245 1
gene 1 2 26 2.51971 0 62 2.51971 1
gene 2 26 13 2.30252 0 63 2.30252 1
gene 3 26 7 -2.44813 0 71 -2.44813 1
genomeend 62

/* Organism #63 Fitness: 9.01795 Error: 0.99701 */
genomestart 63
trait 1 0.1 0 0 0 0 0 0 0 
trait 2 0.2 0 0 0 0 0 0 0 
trait 3 0.3 0 0 0 0 0 0 0 
node 1 1 1 3
node 2 2 1 1
node 3 3 1 1
node 4 2 0 2
node 7 1 0 0
node 13 1 0 0
node 26 1 0 0
gene 1 1 4 -1.20374 0 1 -1.20374 1
gene 1 2 4 5.04664 0 2 5.04664 0
gene 3 3 4 -0.0598397 0 3 -0.0598397 1
gene 1 2 7 5.03062 0 8 5.03062 0
gene 1 7 4 3.8841 0 9 3.8841 1
gene 1 2 13 -0.0436781 0 24 -0.0436781 0
gene 1 13 7 1.97275 0 25 1.97275 1
gene 1 2 26 1.41509 0 62 1.41509 1
gene 2 26 13 0.874813 0 63 0.874813 1
gene 3 26 7 -2.44813 0 71 -2.44813 1
genomeend 63

/* Species #9 : (Size 10) (AF 9.49134) (Age 11)  */


/* Organism #64 Fitness: 15.9866 Error: 0.00167846 */
genomestart 64
trait 1 0.0875 0 0 0.0148478 0 0.0366957 0 0 
trait 2 0.2 0 0 0.140535 0.180323 0.242967 0 0.167134 
trait 3 0.297656 0 0.00339342 0 0.00298473 0 0.00383558 0 
node 1 1 1 3
node 2 2 1 1
node 3 2 1 1
node 4 2 0 2
node 7 2 0 0
gene 1 1 4 1.7401 0 1 1.7401 1
gene 1 2 4 6.87052 0 2 6.87052 0
gene 1 3 4 -3.10212 0 3 -3.10212 1
gene 1 2 7 -1.41365 0 8 -1.41365 1
gene 1 7 4 4.12147 0 9 4.12147 1
gene 3 1 7 0.21201 0 51 0.21201 1
gene 3 3 7 0.234799 0 146 0.234799 1
genomeend 64

/* Organism #65 Fitness: 7.34367 Error: 1.29008 */
genomestart 65
trait 1 0.0875 0 0 0.0148478 0 0.0366957 0 0 
trait 2 0.2 0 0 0.210803 0.270484 0.36445 0 0.2507 
trait 3 0.296484 0 0.00509013 0 0.00447709 0 0.00575337 0 
node 1 1 1 3
node 2 2 1 1
node 3 2 1 1
node 4 2 0 2
node 7 2 0 0
gene 1 1 4 4.41551 0 1 4.41551 1
gene 1 2 4 -2.39008 0 2 -2.39008 0
gene 1 3 4 -2.10501 0 3 -2.10501 1
gene 1 2 7 -1.61539 0 8 -1.61539 1
gene 1 7 4 0.363489 0 9 0.363489 1
gene 3 1 7 -0.359218 0 51 -0.359218 1
gene 3 3 7 0.752625 0 146 0.752625 1
genomeend 65

/* Organism #66 Fitness: 3.98633 Error: 2.00342 */
genomestart 66
trait 1 0.0875 0 0 0.0148478 0 0.0366957 0 0 
trait 2 0.2 0 0 0.105402 0.135242 0.182225 0 0.12535 
trait 3 0.298242 0 0.00254506 0 0.00223855 0 0.00287669 0 
node 1 1 1 3
node 2 2 1 1
node 3 2 1 1
node 4 2 0 2
node 7 2 0 0
gene 1 1 4 -2.04581 0 1 -2.04581 1
gene 1 2 4 6.33809 0 2 6.33809 0
gene 1 3 4 -1.45907 0 3 -1.45907 1
gene 1 2 7 -1.41365 0 8 -1.41365 1
gene 1 7 4 -2.30487 0 9 -2.30487 1
gene 3 1 7 2.48123 0 51 2.48123 1
gene 3 3 7 1.82385 0 146 1.82385 1
genomeend 66

/* Organism #67 Fitness: 4.7524 Error: 1.82 */
genomestart 67
trait 1 0.0875 0 0 0.0148478 0 0.0366957 0 0 
trait 2 0.2 0 0 0.210803 0.270484 0.36445 0 0.2507 
trait 3 0.296484 0 0.00509013 0 0.00447709 0 0.00575337 0 
node 1 1 1 3
node 2 2 1 1
node 3 2 1 1
node 4 2 0 2
node 7 2 0 0
gene 1 1 4 2.32523 0 1 2.32523 1
gene 1 2 4 6.12331 0 2 6.12331 1
gene 1 3 4 -3.70016 0 3 -3.70016 1
gene 1 2 7 -1.42092 0 8 -1.42092 1
gene 1 7 4 5.35431 0 9 5.35431 1
gene 3 1 7 -0.88575 0 51 -0.88575 1
gene 3 3 7 0.603312 0 146 0.603312 1
genomeend 67

/* Organism #68 Fitness: 8.98358 Error: 1.00274 */
genomestart 68
trait 1 0.0875 0 0 0.0148478 0 0.0366957 0 0 
trait 2 0.2 0 0 0.140535 0.180323 0.242967 0 0.167134 
trait 3 0.297656 0 0.00339342 0 0.00298473 0 0.00383558 0 
node 1 1 1 3
node 2 2 1 1
node 3 2 1 1
node 4 2 0 2
node 7 2 0 0
gene 1 1 4 1.86556 0 1 1.86556 1
gene 1 2 4 6.98455 0 2 6.98455 0
gene 1 3 4 -0.961336 0 3 -0.961336 1
gene 1 2 7 -1.67713 0 8 -1.67713 1
gene 1 7 4 2.39532 0 9 2.39532 1
gene 3 1 7 2.29463 0 51 2.29463 1
gene 3 3 7 0.202475 0 146 0.202475 1
genomeend 68

/* Organism #69 Fitness: 9.0468 Error: 0.992211 */
genomestart 69
trait 1 0.0875 0 0 0.0148478 0 0.0366957 0 0 
trait 2 0.2 0 0 0.105402 0.135242 0.182225 0 0.12535 
trait 3 0.298242 0 0.00254506 0 0.00223855 0 0.00287669 0 
node 1 1 1 3
node 2 2 1 1
node 3 2 1 1
node 4 2 0 2
node 7 2 0 0
gene 1 1 4 1.80725 0 1 1.80725 1
gene 1 2 4 7.50779 0 2 7.50779 0
gene 1 3 4 -1.45852 0 3 -1.45852 1
gene 1 2 7 -1.01955 0 8 -1.01955 1
gene 1 7 4 5.64636 0 9 5.64636 1
gene 3 1 7 -0.356704 0 51 -0.356704 1
gene 3 3 7 -0.878912 0 146 -0.878912 1
genomeend 69

/* Organism #70 Fitness: 9.2818 Error: 0.953395 */
genomestart 70
trait 1 0.0875 0 0 0.0148478 0 0.0366957 0 0 
trait 2 0.2 0 0 0.175669 0.225403 0.303708 0 0.208917 
trait 3 0.29707 0 0.00424177 0 0.00373091 0 0.00479448 0 
node 1 1 1 3
node 2 2 1 1
node 3 2 1 1
node 4 2 0 2
node 7 2 0 0
gene 1 1 4 2.91037 0 1 2.91037 1
gene 1 2 4 6.87052 0 2 6.87052 0
gene 1 3 4 -3.10212 0 3 -3.10212 1
gene 1 2 7 -1.42819 0 8 -1.42819 1
gene 1 7 4 6.58714 0 9 6.58714 1
gene 3 1 7 -1.98351 0 51 -1.98351 1
gene 3 3 7 0.971825 0 146 0.971825 1
genomeend 70

/* Organism #71 Fitness: 9.00159 Error: 0.999736 */
genomestart 71
trait 1 0.0875 0 0 0.0148478 0 0.0366957 0 0 
trait 2 0.2 0 0 0.175669 0.225403 0.303708 0 0.208917 
trait 3 0.29707 0 0.00424177 0 0.00373091 0 0.00479448 0 
node 1 1 1 3
node 2 2 1 1
node 3 2 1 1
node 4 2 0 2
node 7 2 0 0
gene 1 1 4 2.91037 0 1 2.91037 1
gene 1 2 4 6.87052 0 2 6.87052 0
gene 1 3 4 -4.2982 0 3 -4.2982 1
gene 1 2 7 -1.42819 0 8 -1.42819 1
gene 1 7 4 6.58714 0 9 6.58714 1
gene 3 1 7 -1.98351 0 51 -1.98351 1
gene 3 3 7 0.971825 0 146 0.971825 1
genomeend 71

/* Organism #72 Fitness: 10.5906 Error: 0.745684 */
genomestart 72
trait 1 0.0875 0 0 0.0148478 0 0.0366957 0 0 
trait 2 0.2 0 0 0.175669 0.225403 0.303708 0 0.208917 
trait 3 0.29707 0 0.00424177 0 0.00373091 0 0.00479448 0 
node 1 1 1 3
node 2 2 1 1
node 3 2 1 1
node 4 2 0 2
node 7 2 0 0
gene 1 1 4 2.91037 0 1 2.91037 1
gene 1 2 4 5.3761 0 2 5.3761 0
gene 1 3 4 -4.2982 0 3 -4.2982 1
gene 1 2 7 -1.41365 0 8 -1.41365 1
gene 1 7 4 6.58714 0 9 6.58714 1
gene 3 1 7 0.21201 0 51 0.21201 1
gene 3 3 7 0.971825 0 146 0.971825 1
genomeend 72

/* Organism #73 Fitness: 15.9401 Error: 0.00749747 */
genomestart 73
trait 1 0.0875 0 0 0.0148478 0 0.0366957 0 0 
trait 2 0.2 0 0 0.0702677 0.0901613 0.121483 0 0.0835668 
trait 3 0.298828 0 0.00169671 0 0.00149236 0 0.00191779 0 
node 1 1 1 3
node 2 2 1 1
node 3 2 1 1
node 4 2 0 2
node 7 2 0 0
gene 1 1 4 2.88464 0 1 2.88464 1
gene 1 2 4 4.70503 0 2 4.70503 0
gene 1 3 4 -3.8939 0 3 -3.8939 1
gene 1 2 7 -1.66237 0 8 -1.66237 1
gene 1 7 4 4.77236 0 9 4.77236 1
gene 3 1 7 -1.33097 0 51 -1.33097 1
gene 3 3 7 1.84789 0 146 1.84789 1
genomeend 73

/* Species #10 : (Size 10) (AF 8.53018) (Age 11)  */


/* Organism #74 Fitness: 15.9829 Error: 0.00214069 */
genomestart 74
trait 1 0.1 0 0 0 0 0 0 0 
trait 2 0.2 0 0 0 0 0 0 0 
trait 3 0.3 0 0 0 0 0 0 0 
node 1 1 1 3
node 2 2 1 1
node 3 2 1 1
node 4 2 0 2
node 7 1 0 0
node 13 1 0 0
node 19 1 0 0
gene 1 1 4 1.19828 0 1 1.19828 1
gene 1 2 4 -2.33364 0 2 -2.33364 0
gene 1 3 4 2.18121 0 3 2.18121 0
gene 1 2 7 -3.68535 0 8 -3.68535 0
gene 1 7 4 6.69563 0 9 6.69563 1
gene 1 2 13 -4.47416 0 24 -4.47416 1
gene 1 13 7 4.11389 0 25 4.11389 1
gene 1 3 19 3.76315 0 47 3.76315 1
gene 1 19 4 -6.41226 0 48 -6.41226 1
gene 1 1 13 0.620147 0 165 0.620147 1
genomeend 74

/* Organism #75 Fitness: 8.99989 Error: 1.00002 */
genomestart 75
trait 1 0.1 0 0 0 0 0 0 0 
trait 2 0.2 0 0 0 0 0 0 0 
trait 3 0.3 0 0 0 0 0 0 0 
node 1 1 1 3
node 2 2 1 1
node 3 2 1 1
node 4 2 0 2
node 7 1 0 0
node 13 1 0 0
node 19 1 0 0
gene 1 1 4 1.65493 0 1 1.65493 1
gene 1 2 4 -3.38964 0 2 -3.38964 0
gene 1 3 4 1.62843 0 3 1.62843 0
gene 1 2 7 -4.14918 0 8 -4.14918 0
gene 1 7 4 6.09259 0 9 6.09259 1
gene 1 2 13 1.84928 0 24 1.84928 1
gene 1 13 7 6.12026 0 25 6.12026 1
gene 1 3 19 3.76315 0 47 3.76315 1
gene 1 19 4 -7.70859 0 48 -7.70859 1
genomeend 75

/* Organism #76 Fitness: 4.02366 Error: 1.99409 */
genomestart 76
trait 1 0.1 0 0 0 0 0 0 0 
trait 2 0.2 0 0 0 0 0 0 0 
trait 3 0.3 0 0 0 0 0 0 0 
node 1 1 1 3
node 2 2 1 1
node 3 2 1 1
node 4 2 0 2
node 7 1 0 0
node 13 1 0 0
node 19 1 0 0
gene 1 1 4 -0.354784 0 1 -0.354784 1
gene 1 2 4 -0.521395 0 2 -0.521395 0
gene 1 3 4 1.40807 0 3 1.40807 0
gene 1 2 7 -4.18116 0 8 -4.18116 0
gene 1 7 4 6.22859 0 9 6.22859 1
gene 1 2 13 -3.25793 0 24 -3.25793 1
gene 1 13 7 5.70937 0 25 5.70937 1
gene 1 3 19 4.90789 0 47 4.90789 1
gene 1 19 4 -8 0 48 -8 1
gene 1 1 13 2.16623 0 165 2.16623 1
genomeend 76

/* Organism #77 Fitness: 9.04062 Error: 0.993237 */
genomestart 77
trait 1 0.1 0 0 0 0 0 0 0 
trait 2 0.2 0 0 0 0 0 0 0 
trait 3 0.3 0 0 0 0 0 0 0 
node 1 1 1 3
node 2 2 1 1
node 3 2 1 1
node 4 2 0 2
node 7 1 0 0
node 13 1 0 0
node 19 1 0 0
gene 1 1 4 1.19828 0 1 1.19828 1
gene 1 2 4 -2.33364 0 2 -2.33364 1
gene 1 3 4 3.57092 0 3 3.57092 0
gene 1 2 7 -4.24255 0 8 -4.24255 0
gene 1 7 4 6.69563 0 9 6.69563 1
gene 1 2 13 -4.47416 0 24 -4.47416 1
gene 1 13 7 4.11389 0 25 4.11389 1
gene 1 3 19 3.76315 0 47 3.76315 1
gene 1 19 4 -6.41226 0 48 -6.41226 1
genomeend 77

/* Organism #78 Fitness: 5.37439 Error: 1.68173 */
genomestart 78
trait 1 0.1 0 0 0 0 0 0 0 
trait 2 0.2 0 0 0 0 0 0 0 
trait 3 0.3 0 0 0 0 0 0 0 
node 1 1 1 3
node 2 2 1 1
node 3 2 1 1
node 4 2 0 2
node 7 1 0 0
node 13 1 0 0
node 19 1 0 0
gene 1 1 4 1.105 0 1 1.105 1
gene 1 2 4 -2.33364 0 2 -2.33364 1
gene 1 3 4 1.97049 0 3 1.97049 0
gene 1 2 7 -4.57854 0 8 -4.57854 0
gene 1 7 4 1.2411 0 9 1.2411 1
gene 1 2 13 -4.12101 0 24 -4.12101 1
gene 1 13 7 5.92562 0 25 5.92562 1
gene 1 3 19 -1.3338 0 47 -1.3338 1
gene 1 19 4 -4.45296 0 48 -4.45296 1
gene 1 1 13 1.71038 0 165 1.71038 1
genomeend 78

/* Organism #79 Fitness: 8.89355 Error: 1.0178 */
genomestart 79
trait 1 0.1 0 0 0 0 0 0 0 
trait 2 0.2 0 0 0 0 0 0 0 
trait 3 0.3 0 0 0 0 0 0 0 
node 1 1 1 3
node 2 2 1 1
node 3 2 1 1
node 4 2 0 2
node 7 1 0 0
node 13 1 0 0
node 19 1 0 0
gene 1 1 4 0.760128 0 1 0.760128 1
gene 1 2 4 -2.33364 0 2 -2.33364 0
gene 1 3 4 4.00648 0 3 4.00648 1
gene 1 2 7 -3.54235 0 8 -3.54235 1
gene 1 7 4 7.40428 0 9 7.40428 1
gene 1 2 13 1.05891 0 24 1.05891 1
gene 1 13 7 3.12866 0 25 3.12866 1
gene 1 3 19 4.90501 0 47 4.90501 1
gene 1 19 4 -6.3706 0 48 -6.3706 1
genomeend 79

/* Organism #80 Fitness: 15.9829 Error: 0.00214069 */
genomestart 80
trait 1 0.1 0 0 0 0 0 0 0 
trait 2 0.2 0 0 0 0 0 0 0 
trait 3 0.3 0 0 0 0 0 0 0 
node 1 1 1 3
node 2 2 1 1
node 3 2 1 1
node 4 2 0 2
node 7 1 0 0
node 13 1 0 0
node 19 1 0 0
gene 1 1 4 1.19828 0 1 1.19828 1
gene 1 2 4 -2.33364 0 2 -2.33364 0
gene 1 3 4 2.18121 0 3 2.18121 0
gene 1 2 7 -4.24255 0 8 -4.24255 0
gene 1 7 4 6.69563 0 9 6.69563 1
gene 1 2 13 -4.47416 0 24 -4.47416 1
gene 1 13 7 4.11389 0 25 4.11389 1
gene 1 3 19 3.76315 0 47 3.76315 1
gene 1 19 4 -6.41226 0 48 -6.41226 1
gene 1 1 13 0.620147 0 165 0.620147 1
genomeend 80

/* Organism #81 Fitness: 4.00127 Error: 1.99968 */
genomestart 81
trait 1 0.1 0 0 0 0 0 0 0 
trait 2 0.2 0 0 0 0 0 0 0 
trait 3 0.3 0 0 0 0 0 0 0 
node 1 1 1 3
node 2 2 1 1
node 3 2 1 1
node 4 2 0 2
node 7 1 0 0
node 13 1 0 0
node 19 1 0 0
gene 1 1 4 2.18638 0 1 2.18638 1
gene 1 2 4 -1.69276 0 2 -1.69276 0
gene 1 3 4 2.91302 0 3 2.91302 0
gene 1 2 7 -4.20299 0 8 -4.20299 0
gene 1 7 4 7.43466 0 9 7.43466 1
gene 1 2 13 1.66062 0 24 1.66062 1
gene 1 13 7 4.11389 0 25 4.11389 1
gene 1 3 19 2.78313 0 47 2.78313 1
gene 1 19 4 -8 0 48 -8 1
gene 1 1 13 -1.35049 0 165 -1.35049 1
genomeend 81

/* Organism #82 Fitness: 4.00269 Error: 1.99933 */
genomestart 82
trait 1 0.1 0 0 0 0 0 0 0 
trait 2 0.2 0 0 0 0 0 0 0 
trait 3 0.3 0 0 0 0 0 0 0 
node 1 1 1 3
node 2 2 1 1
node 3 2 1 1
node 4 2 0 2
node 7 1 0 0
node 13 1 0 0
node 19 1 0 0
gene 1 1 4 -0.24065 0 1 -0.24065 1
gene 1 2 4 -3.94219 0 2 -3.94219 0
gene 1 3 4 3.21545 0 3 3.21545 0
gene 1 2 7 -5.39002 0 8 -5.39002 0
gene 1 7 4 5.17835 0 9 5.17835 1
gene 1 2 13 -4.47416 0 24 -4.47416 1
gene 1 13 7 -1.19337 0 25 -1.19337 1
gene 1 3 19 1.11433 0 47 1.11433 1
gene 1 19 4 -7.66376 0 48 -7.66376 1
genomeend 82

/* Organism #83 Fitness: 9 Error: 1 */
genomestart 83
trait 1 0.1 0 0 0 0 0 0 0 
trait 2 0.2 0 0 0 0 0 0 0 
trait 3 0.3 0 0 0 0 0 0 0 
node 1 1 1 3
node 2 2 1 1
node 3 2 1 1
node 4 2 0 2
node 7 1 0 0
node 13 1 0 0
node 19 1 0 0
gene 1 1 4 2.82506 0 1 2.82506 1
gene 1 2 4 -2.33364 0 2 -2.33364 0
gene 1 3 4 1.03596 0 3 1.03596 0
gene 1 2 7 -2.95285 0 8 -2.95285 0
gene 1 7 4 6.02042 0 9 6.02042 1
gene 1 2 13 1.76539 0 24 1.76539 1
gene 1 13 7 5.98673 0 25 5.98673 1
gene 1 3 19 2.67086 0 47 2.67086 1
gene 1 19 4 -4.90715 0 48 -4.90715 1
gene 1 1 13 0.620147 0 165 0.620147 1
genomeend 83

/* Species #12 : (Size 9) (AF 8.99012) (Age 10)  */


/* Organism #84 Fitness: 9 Error: 1 */
genomestart 84
trait 1 0.1 0 0 0 0 0 0 0 
trait 2 0.532449 0 0 0 0 0 0 0 
trait 3 0.3 0 0 0 0 0 0 0 
node 1 1 1 3
node 2 2 1 1
node 3 3 1 1
node 4 2 0 2
node 7 1 0 0
node 13 1 0 0
node 26 1 0 0
node 29 3 0 0
gene 1 1 4 1.54861 0 1 1.54861 1
gene 1 2 4 3.73782 0 2 3.73782 1
gene 1 3 4 -2.16758 0 3 -2.16758 0
gene 1 2 7 2.76463 0 8 2.76463 0
gene 1 7 4 7.38736 0 9 7.38736 1
gene 1 2 13 1.65751 0 24 1.65751 0
gene 1 13 7 2.16317 0 25 2.16317 0
gene 1 2 26 2.36226 0 62 2.36226 1
gene 1 26 13 2.06994 0 63 2.06994 1
gene 1 13 29 0.628092 0 72 0.628092 1
gene 1 29 7 2.9123 0 73 2.9123 1
gene 3 29 4 -0.133637 0 85 -0.133637 1
genomeend 84

/* Organism #85 Fitness: 9 Error: 1 */
genomestart 85
trait 1 0.1 0 0 0 0 0 0 0 
trait 2 0.532449 0 0 0 0 0 0 0 
trait 3 0.3 0 0 0 0 0 0 0 
node 1 1 1 3
node 2 2 1 1
node 3 3 1 1
node 4 2 0 2
node 7 1 0 0
node 13 1 0 0
node 26 1 0 0
node 29 3 0 0
gene 1 1 4 1.54861 0 1 1.54861 1
gene 1 2 4 3.73782 0 2 3.73782 1
gene 1 3 4 -4.3489 0 3 -4.3489 0
gene 1 2 7 2.76463 0 8 2.76463 0
gene 1 7 4 7.38736 0 9 7.38736 1
gene 1 2 13 1.65751 0 24 1.65751 0
gene 1 13 7 2.16317 0 25 2.16317 0
gene 1 2 26 1.19148 0 62 1.19148 1
gene 1 26 13 0.806167 0 63 0.806167 1
gene 1 13 29 0.628092 0 72 0.628092 1
gene 2 29 7 2.20309 0 73 2.20309 1
gene 3 29 4 -0.133637 0 85 -0.133637 1
gene 3 26 29 0.304694 0 166 0.304694 1
genomeend 85

/* Organism #86 Fitness: 9 Error: 1 */
genomestart 86
trait 1 0.1 0 0 0 0 0 0 0 
trait 2 0.532449 0 0 0 0 0 0 0 
trait 3 0.3 0 0 0 0 0 0 0 
node 1 1 1 3
node 2 2 1 1
node 3 3 1 1
node 4 2 0 2
node 7 1 0 0
node 13 1 0 0
node 26 1 0 0
node 29 3 0 0
gene 1 1 4 4.03695 0 1 4.03695 1
gene 1 2 4 1.60685 0 2 1.60685 1
gene 1 3 4 -3.87072 0 3 -3.87072 0
gene 1 2 7 3.87875 0 8 3.87875 0
gene 1 7 4 5.81624 0 9 5.81624 1
gene 1 2 13 -0.698549 0 24 -0.698549 0
gene 1 13 7 2.90711 0 25 2.90711 0
gene 1 2 26 2.19436 0 62 2.19436 1
gene 1 26 13 2.76252 0 63 2.76252 1
gene 1 13 29 2.70116 0 72 2.70116 1
gene 1 29 7 2.9123 0 73 2.9123 1
gene 3 29 4 2.10557 0 85 2.10557 1
genomeend 86

/* Organism #87 Fitness: 9 Error: 1 */
genomestart 87
trait 1 0.1 0 0 0 0 0 0 0 
trait 2 0.532449 0 0 0 0 0 0 0 
trait 3 0.3 0 0 0 0 0 0 0 
node 1 1 1 3
node 2 2 1 1
node 3 3 1 1
node 4 2 0 2
node 7 1 0 0
node 13 1 0 0
node 26 1 0 0
node 29 3 0 0
gene 1 1 4 1.54861 0 1 1.54861 1
gene 1 2 4 3.73782 0 2 3.73782 1
gene 3 3 4 -2.16758 0 3 -2.16758 0
gene 1 2 7 2.76463 0 8 2.76463 0
gene 1 7 4 7.38736 0 9 7.38736 1
gene 1 2 13 1.65751 0 24 1.65751 0
gene 1 13 7 2.16317 0 25 2.16317 0
gene 1 2 26 2.36226 0 62 2.36226 1
gene 1 26 13 2.06994 0 63 2.06994 1
gene 1 13 29 0.628092 0 72 0.628092 1
gene 1 29 7 2.9123 0 73 2.9123 1
gene 3 29 4 -0.133637 0 85 -0.133637 1
genomeend 87

/* Organism #88 Fitness: 9 Error: 1 */
genomestart 88
trait 1 0.1 0 0 0 0 0 0 0 
trait 2 0.532449 0 0 0 0 0 0 0 
trait 3 0.3 0 0 0 0 0 0 0 
node 1 1 1 3
node 2 2 1 1
node 3 3 1 1
node 4 2 0 2
node 7 1 0 0
node 13 1 0 0
node 26 1 0 0
node 29 3 0 0
gene 1 1 4 2.80108 0 1 2.80108 1
gene 1 2 4 4.39498 0 2 4.39498 1
gene 1 3 4 -1.19184 0 3 -1.19184 0
gene 1 2 7 1.1266 0 8 1.1266 0
gene 1 7 4 8 0 9 8 1
gene 1 2 13 -0.83695 0 24 -0.83695 0
gene 1 13 7 0.910911 0 25 0.910911 0
gene 1 2 26 0.563266 0 62 0.563266 1
gene 1 26 13 4.23704 0 63 4.23704 1
gene 1 13 29 0.560948 0 72 0.560948 1
gene 1 29 7 3.67811 0 73 3.67811 1
gene 3 29 4 -0.133637 0 85 -0.133637 1
genomeend 88

/* Organism #89 Fitness: 9 Error: 1 */
genomestart 89
trait 1 0.1 0 0 0 0 0 0 0 
trait 2 0.532449 0 0 0 0 0 0 0 
trait 3 0.3 0 0 0 0 0 0 0 
node 1 1 1 3
node 2 2 1 1
node 3 3 1 1
node 4 2 0 2
node 7 1 0 0
node 13 1 0 0
node 26 1 0 0
node 29 3 0 0
gene 1 1 4 1.54861 0 1 1.54861 1
gene 1 2 4 3.73782 0 2 3.73782 1
gene 1 3 4 -4.3489 0 3 -4.3489 0
gene 1 2 7 2.76463 0 8 2.76463 0
gene 1 7 4 7.38736 0 9 7.38736 1
gene 1 2 13 1.65751 0 24 1.65751 0
gene 1 13 7 2.16317 0 25 2.16317 1
gene 2 2 26 1.19148 0 62 1.19148 1
gene 1 26 13 0.806167 0 63 0.806167 1
gene 1 13 29 0.628092 0 72 0.628092 1
gene 2 29 7 2.20309 0 73 2.20309 1
gene 3 29 4 -0.133637 0 85 -0.133637 1
gene 3 26 29 0.304694 0 166 0.304694 1
genomeend 89

/* Organism #90 Fitness: 9 Error: 1 */
genomestart 90
trait 1 0.1 0 0 0 0 0 0 0 
trait 2 0.532449 0 0 0 0 0 0 0 
trait 3 0.3 0 0 0 0 0 0 0 
node 1 1 1 3
node 2 2 1 1
node 3 3 1 1
node 4 2 0 2
node 7 1 0 0
node 13 1 0 0
node 26 1 0 0
node 29 3 0 0
gene 1 1 4 1.39588 0 1 1.39588 1
gene 1 2 4 2.1045 0 2 2.1045 1
gene 1 3 4 -6.06218 0 3 -6.06218 0
gene 1 2 7 3.36081 0 8 3.36081 0
gene 1 7 4 6.0155 0 9 6.0155 1
gene 1 2 13 0.397508 0 24 0.397508 1
gene 1 13 7 4.29821 0 25 4.29821 0
gene 1 2 26 1.53297 0 62 1.53297 1
gene 1 26 13 -1.27777 0 63 -1.27777 1
gene 1 13 29 1.11232 0 72 1.11232 1
gene 2 29 7 2.87891 0 73 2.87891 1
gene 3 29 4 -0.133637 0 85 -0.133637 1
gene 3 26 29 -2.15388 0 166 -2.15388 1
genomeend 90

/* Organism #91 Fitness: 9 Error: 1 */
genomestart 91
trait 1 0.1 0 0 0 0 0 0 0 
trait 2 0.532449 0 0 0 0 0 0 0 
trait 3 0.3 0 0 0 0 0 0 0 
node 1 1 1 3
node 2 2 1 1
node 3 3 1 1
node 4 2 0 2
node 7 1 0 0
node 13 1 0 0
node 26 1 0 0
node 29 3 0 0
gene 1 1 4 1.54861 0 1 1.54861 1
gene 1 2 4 3.73782 0 2 3.73782 1
gene 1 3 4 -2.16758 0 3 -2.16758 0
gene 1 2 7 2.76463 0 8 2.76463 0
gene 1 7 4 7.38736 0 9 7.38736 1
gene 1 2 13 1.65751 0 24 1.65751 0
gene 1 13 7 2.16317 0 25 2.16317 0
gene 1 2 26 1.19148 0 62 1.19148 1
gene 1 26 13 2.06994 0 63 2.06994 1
gene 1 13 29 0.628092 0 72 0.628092 1
gene 1 29 7 2.9123 0 73 2.9123 1
gene 3 29 4 -0.133637 0 85 -0.133637 1
genomeend 91

/* Organism #92 Fitness: 8.91109 Error: 1.01486 */
genomestart 92
trait 1 0.1 0 0 0 0 0 0 0 
trait 2 0.532449 0 0 0 0 0 0 0 
trait 3 0.3 0 0 0 0 0 0 0 
node 1 1 1 3
node 2 2 1 1
node 3 3 1 1
node 4 2 0 2
node 7 1 0 0
node 13 1 0 0
node 26 1 0 0
node 29 3 0 0
gene 1 1 4 1.18433 0 1 1.18433 1
gene 1 2 4 5.85686 0 2 5.85686 1
gene 1 3 4 -2.62249 0 3 -2.62249 0
gene 1 2 7 1.67661 0 8 1.67661 0
gene 1 7 4 0.811261 0 9 0.811261 1
gene 1 2 13 -0.109791 0 24 -0.109791 0
gene 1 13 7 1.43937 0 25 1.43937 0
gene 1 2 26 2.10716 0 62 2.10716 1
gene 1 26 13 0.22521 0 63 0.22521 1
gene 1 13 29 0.581359 0 72 0.581359 1
gene 1 29 7 5.95002 0 73 5.95002 1
gene 3 29 4 0.0470942 0 85 0.0470942 1
genomeend 92

/* Species #13 : (Size 9) (AF 9) (Age 8)  */


/* Organism #93 Fitness: 9 Error: 1 */
genomestart 93
trait 1 0.1 0 0 0.843742 0 0 0 0.286308 
trait 2 0.2 0 0 0 0 0 0 0 
trait 3 0.3 0 0 0 0 0 0 0 
node 1 2 1 3
node 2 1 1 1
node 3 1 1 1
node 4 3 0 2
node 17 1 0 0
node 38 1 0 0
node 48 1 0 0
gene 2 1 4 -1.37352 0 1 -1.37352 1
gene 1 2 4 2.89104 0 2 2.89104 0
gene 3 3 4 0.209301 0 3 0.209301 0
gene 1 2 17 -1.79689 0 39 -1.79689 1
gene 1 17 4 7.86938 0 40 7.86938 1
gene 1 17 38 -0.335849 0 96 -0.335849 1
gene 1 38 4 6.65915 0 97 6.65915 0
gene 1 38 48 1 0 132 0 1
gene 1 48 4 6.65915 0 133 0 1
genomeend 93

/* Organism #94 Fitness: 9 Error: 1 */
genomestart 94
trait 1 0.1 0 0 0.843742 0 0 0 0.286308 
trait 2 0.2 0 0 0 0 0 0 0 
trait 3 0.3 0 0 0 0 0 0 0 
node 1 2 1 3
node 2 1 1 1
node 3 1 1 1
node 4 3 0 2
node 17 1 0 0
node 38 1 0 0
node 48 1 0 0
gene 2 1 4 -2.72032 0 1 -2.72032 1
gene 1 2 4 0.87009 0 2 0.87009 0
gene 3 3 4 -1.50573 0 3 -1.50573 0
gene 1 2 17 0.571506 0 39 0.571506 1
gene 1 17 4 8 0 40 8 1
gene 1 17 38 1.47646 0 96 1.47646 1
gene 1 38 4 5.0559 0 97 5.0559 0
gene 1 38 48 1.89494 0 132 1.89494 1
gene 1 48 4 8 0 133 8 1
genomeend 94

/* Organism #95 Fitness: 9 Error: 1 */
genomestart 95
trait 1 0.1 0 0 0.843742 0 0 0 0.286308 
trait 2 0.2 0 0 0 0 0 0 0 
trait 3 0.3 0 0 0 0 0 0 0 
node 1 2 1 3
node 2 1 1 1
node 3 1 1 1
node 4 3 0 2
node 17 1 0 0
node 38 1 0 0
node 48 1 0 0
gene 2 1 4 0.879606 0 1 0.879606 1
gene 1 2 4 1.3256 0 2 1.3256 0
gene 3 3 4 1.08322 0 3 1.08322 0
gene 1 2 17 -1.79689 0 39 -1.79689 1
gene 1 17 4 8 0 40 8 1
gene 1 17 38 -2.01639 0 96 -2.01639 1
gene 1 38 4 6.24331 0 97 6.24331 0
gene 1 38 48 3.36121 0 132 3.36121 1
gene 1 48 4 8 0 133 8 1
genomeend 95

/* Organism #96 Fitness: 9 Error: 1 */
genomestart 96
trait 1 0.1 0 0 0.843742 0 0 0 0.286308 
trait 2 0.2 0 0 0 0 0 0 0 
trait 3 0.3 0 0 0 0 0 0 0 
node 1 1 1 3
node 2 1 1 1
node 3 1 1 1
node 4 3 0 2
node 17 1 0 0
node 38 1 0 0
node 48 1 0 0
gene 2 1 4 0.302814 0 1 0.302814 1
gene 1 2 4 2.94047 0 2 2.94047 0
gene 3 3 4 0.209301 0 3 0.209301 0
gene 1 2 17 -2.16422 0 39 -2.16422 1
gene 1 17 4 8 0 40 8 1
gene 1 17 38 -2.62615 0 96 -2.62615 1
gene 1 38 4 1.11387 0 97 1.11387 0
gene 1 38 48 2.61799 0 132 2.61799 1
gene 1 48 4 6.62119 0 133 6.62119 1
genomeend 96

/* Organism #97 Fitness: 9 Error: 1 */
genomestart 97
trait 1 0.1 0 0 0.843742 0 0 0 0.286308 
trait 2 0.2 0 0 0 0 0 0 0 
trait 3 0.3 0 0 0 0 0 0 0 
node 1 2 1 3
node 2 1 1 1
node 3 1 1 1
node 4 3 0 2
node 17 1 0 0
node 38 1 0 0
node 48 1 0 0
gene 2 1 4 -2.31139 0 1 -2.31139 1
gene 1 2 4 0.773675 0 2 0.773675 0
gene 3 3 4 -1.68587 0 3 -1.68587 0
gene 1 2 17 -0.748189 0 39 -0.748189 1
gene 1 17 4 8 0 40 8 1
gene 1 17 38 -0.94177 0 96 -0.94177 1
gene 1 38 4 7.25891 0 97 7.25891 0
gene 1 38 48 -0.121565 0 132 -0.121565 1
gene 1 48 4 7.41046 0 133 7.41046 1
genomeend 97

/* Organism #98 Fitness: 9 Error: 1 */
genomestart 98
trait 1 0.1 0 0 0.843742 0 0 0 0.286308 
trait 2 0.2 0 0 0 0 0 0 0 
trait 3 0.3 0 0 0 0 0 0 0 
node 1 2 1 3
node 2 1 1 1
node 3 1 1 1
node 4 3 0 2
node 17 1 0 0
node 38 1 0 0
node 48 1 0 0
gene 2 1 4 -3.54076 0 1 -3.54076 1
gene 1 2 4 2.89104 0 2 2.89104 0
gene 3 3 4 0.0348678 0 3 0.0348678 0
gene 1 2 17 -1.79689 0 39 -1.79689 1
gene 1 17 4 8 0 40 8 1
gene 1 17 38 -2.13364 0 96 -2.13364 1
gene 1 38 4 4.37494 0 97 4.37494 0
gene 1 38 48 2.33078 0 132 2.33078 1
gene 1 48 4 7.63625 0 133 7.63625 1
genomeend 98

/* Organism #99 Fitness: 9 Error: 1 */
genomestart 99
trait 1 0.1 0 0 0.843742 0 0 0 0.286308 
trait 2 0.2 0 0 0 0 0 0 0 
trait 3 0.3 0 0 0 0 0 0 0 
node 1 2 1 3
node 2 1 1 1
node 3 1 1 1
node 4 3 0 2
node 17 1 0 0
node 38 1 0 0
node 48 1 0 0
gene 2 1 4 -0.179834 0 1 -0.179834 1
gene 1 2 4 1.87783 0 2 1.87783 0
gene 3 3 4 -0.855683 0 3 -0.855683 0
gene 1 2 17 -0.0245772 0 39 -0.0245772 1
gene 1 17 4 8 0 40 8 1
gene 1 17 38 0.753813 0 96 0.753813 1
gene 1 38 4 8 0 97 8 0
gene 1 38 48 0.897167 0 132 0.897167 1
gene 1 48 4 8 0 133 8 1
genomeend 99

/* Organism #100 Fitness: 9 Error: 1 */
genomestart 100
trait 1 0.1 0 0 0.843742 0 0 0 0.286308 
trait 2 0.2 0 0 0 0 0 0 0 
trait 3 0.3 0 0 0 0 0 0 0 
node 1 2 1 3
node 2 1 1 1
node 3 1 1 1
node 4 3 0 2
node 17 1 0 0
node 38 1 0 0
node 48 1 0 0
gene 2 1 4 -1.37352 0 1 -1.37352 1
gene 1 2 4 2.89104 0 2 2.89104 0
gene 3 3 4 0.209301 0 3 0.209301 0
gene 1 2 17 -1.79689 0 39 -1.79689 1
gene 1 17 4 7.86938 0 40 7.86938 1
gene 1 17 38 -0.335849 0 96 -0.335849 1
gene 1 38 4 6.65915 0 97 6.65915 0
gene 1 38 48 1 0 132 0 1
gene 1 48 4 6.65915 0 133 0 1
gene 2 1 38 -0.0556193 0 177 -0.0556193 1
genomeend 100

/* Organism #101 Fitness: 9 Error: 1 */
genomestart 101
trait 1 0.1 0 0 0.843742 0 0 0 0.286308 
trait 2 0.2 0 0 0 0 0 0 0 
trait 3 0.3 0 0 0 0 0 0 0 
node 1 2 1 3
node 2 1 1 1
node 3 1 1 1
node 4 3 0 2
node 17 1 0 0
node 38 1 0 0
node 48 1 0 0
gene 2 1 4 -2.13409 0 1 -2.13409 1
gene 1 2 4 3.24153 0 2 3.24153 0
gene 3 3 4 0.547567 0 3 0.547567 0
gene 1 2 17 -3.39071 0 39 -3.39071 1
gene 1 17 4 6.36097 0 40 6.36097 1
gene 1 17 38 1.78103 0 96 1.78103 1
gene 1 38 4 4.33175 0 97 4.33175 0
gene 1 38 48 0.885036 0 132 0.885036 1
gene 1 48 4 7.86906 0 133 7.86906 1
genomeend 101

/* Species #14 : (Size 8) (AF 8.0852) (Age 8)  */


/* Organism #102 Fitness: 9.00087 Error: 0.999855 */
genomestart 102
trait 1 0.1 0 0 0 0 0 0 0 
trait 2 0.2 0 0 0 0 0 0 0 
trait 3 0.3 0 0 0 0 0 0 0 
node 1 1 1 3
node 2 2 1 1
node 3 3 1 1
node 4 2 0 2
node 7 1 0 0
node 13 1 0 0
gene 1 1 4 -1.96125 0 1 -1.96125 1
gene 1 2 4 0.191264 0 2 0.191264 1
gene 1 3 4 -1.35647 0 3 -1.35647 1
gene 1 2 7 -1.69146 0 8 -1.69146 1
gene 1 7 4 8 0 9 8 1
gene 1 2 13 3.88852 0 24 3.88852 0
gene 1 13 7 3.38328 0 25 3.38328 1
gene 2 1 13 -1.06615 0 108 -1.06615 1
gene 2 3 7 1.11958 0 122 1.11958 1
genomeend 102

/* Organism #103 Fitness: 4.00078 Error: 1.99981 */
genomestart 103
trait 1 0.373251 0 0 0 0 0 0 0 
trait 2 0.2 0 0 0 0 0 0 0 
trait 3 0.3 0 0 0 0 0 0 0 
node 1 1 1 3
node 2 2 1 1
node 3 3 1 1
node 4 2 0 2
node 7 1 0 0
node 13 1 0 0
gene 1 1 4 -1.72611 0 1 -1.72611 1
gene 1 2 4 -0.00644686 0 2 -0.00644686 1
gene 1 3 4 -1.86637 0 3 -1.86637 1
gene 1 2 7 -1.61355 0 8 -1.61355 1
gene 1 7 4 7.57033 0 9 7.57033 1
gene 1 2 13 5.74819 0 24 5.74819 0
gene 1 13 7 3.93894 0 25 3.93894 1
gene 2 1 13 -0.931421 0 108 -0.931421 1
gene 2 3 7 -1.50991 0 122 -1.50991 1
genomeend 103

/* Organism #104 Fitness: 8.99903 Error: 1.00016 */
genomestart 104
trait 1 0.1 0 0 0 0 0 0 0 
trait 2 0.2 0 0 0 0 0 0 0 
trait 3 0.3 0 0 0 0 0 0 0 
node 1 1 1 3
node 2 2 1 1
node 3 3 1 1
node 4 2 0 2
node 7 1 0 0
node 13 1 0 0
gene 1 1 4 -0.96647 0 1 -0.96647 1
gene 1 2 4 1.41808 0 2 1.41808 1
gene 1 3 4 -2.86955 0 3 -2.86955 1
gene 1 2 7 2.06873 0 8 2.06873 1
gene 1 7 4 8 0 9 8 1
gene 1 2 13 1.50471 0 24 1.50471 0
gene 1 13 7 4.18816 0 25 4.18816 1
gene 2 1 13 -2.11586 0 108 -2.11586 1
gene 2 3 7 0.173076 0 122 0.173076 1
genomeend 104

/* Organism #105 Fitness: 6.97313 Error: 1.35933 */
/* ##------$ WINNER 105 SPECIES #14 $------## */
genomestart 105
trait 1 0.1 0 0 0 0 0 0 0 
trait 2 0.2 0 0 0 0 0 0 0 
trait 3 0.3 0 0 0 0 0 0 0 
node 1 1 1 3
node 2 2 1 1
node 3 3 1 1
node 4 2 0 2
node 7 1 0 0
node 13 1 0 0
gene 1 1 4 -3.78683 0 1 -3.78683 1
gene 1 2 4 -1.38927 0 2 -1.38927 1
gene 1 3 4 -1.13782 0 3 -1.13782 1
gene 1 2 7 0.626545 0 8 0.626545 1
gene 1 7 4 6.21305 0 9 6.21305 1
gene 1 2 13 2.78136 0 24 2.78136 0
gene 1 13 7 3.38328 0 25 3.38328 1
gene 2 1 13 -1.2824 0 108 -1.2824 1
gene 2 3 7 1.4837 0 122 1.4837 1
genomeend 105

/* Organism #106 Fitness: 9.00087 Error: 0.999855 */
genomestart 106
trait 1 0.1 0 0 0 0 0 0 0 
trait 2 0.2 0 0 0 0 0 0 0 
trait 3 0.3 0 0 0 0 0 0 0 
node 1 1 1 3
node 2 2 1 1
node 3 3 1 1
node 4 2 0 2
node 7 1 0 0
node 13 1 0 0
gene 1 1 4 -1.96125 0 1 -1.96125 1
gene 1 2 4 0.191264 0 2 0.191264 1
gene 1 3 4 -1.35647 0 3 -1.35647 1
gene 1 2 7 -1.69146 0 8 -1.69146 1
gene 1 7 4 8 0 9 8 1
gene 1 2 13 3.88852 0 24 3.88852 0
gene 1 13 7 3.38328 0 25 3.38328 1
gene 2 1 13 -1.06615 0 108 -1.06615 1
gene 2 3 7 1.11958 0 122 1.11958 1
genomeend 106

/* Organism #107 Fitness: 8.7069 Error: 1.04925 */
genomestart 107
trait 1 0.1 0 0 0 0 0 0 0 
trait 2 0.2 0 0 0 0 0 0 0 
trait 3 0.3 0 0 0 0 0 0 0 
node 1 2 1 3
node 2 2 1 1
node 3 3 1 1
node 4 2 0 2
node 7 1 0 0
node 13 1 0 0
gene 1 1 4 -0.21885 0 1 -0.21885 1
gene 1 2 4 -1.34149 0 2 -1.34149 1
gene 1 3 4 -0.29505 0 3 -0.29505 1
gene 1 2 7 -2.78398 0 8 -2.78398 1
gene 1 7 4 6.84336 0 9 6.84336 1
gene 1 2 13 5.15699 0 24 5.15699 0
gene 1 13 7 2.62657 0 25 2.62657 1
gene 2 1 13 2.14112 0 108 2.14112 1
gene 2 3 7 0.141132 0 122 0.141132 1
genomeend 107

/* Organism #108 Fitness: 9 Error: 1 */
genomestart 108
trait 1 0.1 0 0 0 0 0 0 0 
trait 2 0.2 0 0 0 0 0 0 0 
trait 3 0.3 0 0 0 0 0 0 0 
node 1 1 1 3
node 2 2 1 1
node 3 3 1 1
node 4 2 0 2
node 7 1 0 0
node 13 1 0 0
gene 1 1 4 1.7831 0 1 1.7831 1
gene 1 2 4 -2.01361 0 2 -2.01361 1
gene 1 3 4 -3.01588 0 3 -3.01588 1
gene 1 2 7 -2.12881 0 8 -2.12881 1
gene 1 7 4 8 0 9 8 1
gene 1 2 13 1.63528 0 24 1.63528 0
gene 1 13 7 5.1249 0 25 5.1249 1
gene 2 1 13 0.0800178 0 108 0.0800178 1
gene 2 3 7 2.53701 0 122 2.53701 1
genomeend 108

/* Organism #109 Fitness: 9 Error: 1 */
genomestart 109
trait 1 0.1 0 0 0 0 0 0 0 
trait 2 0.2 0 0 0 0 0 0 0 
trait 3 0.3 0 0 0 0 0 0 0 
node 1 1 1 3
node 2 2 1 1
node 3 3 1 1
node 4 2 0 2
node 7 1 0 0
node 13 1 0 0
gene 1 1 4 -1.04547 0 1 -1.04547 1
gene 1 2 4 2.33322 0 2 2.33322 1
gene 1 3 4 -1.04164 0 3 -1.04164 1
gene 1 2 7 0.705879 0 8 0.705879 1
gene 1 7 4 8 0 9 8 1
gene 1 2 13 1.093 0 24 1.093 0
gene 1 13 7 2.84763 0 25 2.84763 1
gene 2 1 13 -1.96523 0 108 -1.96523 1
gene 2 3 7 3.36747 0 122 3.36747 1
genomeend 109

/* Species #15 : (Size 7) (AF 9.09062) (Age 8)  */


/* Organism #110 Fitness: 9.27353 Error: 0.954752 */
genomestart 110
trait 1 0.1 0 0 0 0 0 0 0 
trait 2 0.449337 0 0 0 0 0 0 0 
trait 3 0.3 0 0 0 0 0 0 0 
node 1 1 1 3
node 2 2 1 1
node 3 2 1 1
node 4 2 0 2
node 7 1 0 0
node 13 1 0 0
node 19 1 0 0
node 32 1 0 0
gene 1 1 4 -2.15727 0 1 -2.15727 1
gene 1 2 4 0.156555 0 2 0.156555 1
gene 1 3 4 3.92159 0 3 3.92159 0
gene 1 2 7 2.10078 0 8 2.10078 0
gene 1 7 4 4.90942 0 9 4.90942 1
gene 1 2 13 3.45274 0 24 3.45274 0
gene 1 13 7 1.64647 0 25 1.64647 1
gene 1 3 19 -1.13574 0 47 -1.13574 1
gene 1 19 4 0.780213 0 48 0.780213 1
gene 1 2 32 1.765 0 79 1.765 1
gene 1 32 13 -0.907295 0 80 -0.907295 1
genomeend 110

/* Organism #111 Fitness: 9.0336 Error: 0.994406 */
genomestart 111
trait 1 0.1 0 0 0 0 0 0 0 
trait 2 0.449337 0 0 0 0 0 0 0 
trait 3 0.3 0 0 0 0 0 0 0 
node 1 1 1 3
node 2 2 1 1
node 3 2 1 1
node 4 2 0 2
node 7 1 0 0
node 13 1 0 0
node 19 1 0 0
node 32 1 0 0
node 61 1 0 0
gene 1 1 4 -2.15727 0 1 -2.15727 1
gene 1 2 4 0.156555 0 2 0.156555 1
gene 1 3 4 3.92159 0 3 3.92159 0
gene 1 2 7 2.10078 0 8 2.10078 0
gene 1 7 4 4.90942 0 9 4.90942 1
gene 1 2 13 3.45274 0 24 3.45274 0
gene 1 13 7 1.64647 0 25 1.64647 1
gene 1 3 19 -1.13574 0 47 -1.13574 0
gene 1 19 4 0.780213 0 48 0.780213 1
gene 1 2 32 1.765 0 79 1.765 1
gene 1 32 13 -0.907295 0 80 -0.907295 1
gene 1 3 61 1 0 178 0 1
gene 1 61 19 -1.13574 0 179 0 1
genomeend 111

/* Organism #112 Fitness: 9.01137 Error: 0.998105 */
genomestart 112
trait 1 0.1 0 0 0 0 0 0 0 
trait 2 0.449337 0 0.967253 0 0.970269 0 0 0 
trait 3 0.3 0 0 0 0 0 0 0 
node 1 1 1 3
node 2 2 1 1
node 3 2 1 1
node 4 2 0 2
node 7 1 0 0
node 13 1 0 0
node 19 1 0 0
node 32 1 0 0
gene 1 1 4 -2.92539 0 1 -2.92539 1
gene 1 2 4 -0.822653 0 2 -0.822653 1
gene 1 3 4 1.47158 0 3 1.47158 0
gene 1 2 7 2.20594 0 8 2.20594 0
gene 1 7 4 4.99145 0 9 4.99145 1
gene 1 2 13 4.23744 0 24 4.23744 0
gene 1 13 7 5.50155 0 25 5.50155 1
gene 1 3 19 -5.53401 0 47 -5.53401 1
gene 1 19 4 0.8821 0 48 0.8821 1
gene 1 2 32 -0.421193 0 79 -0.421193 1
gene 1 32 13 1.03706 0 80 1.03706 1
genomeend 112

/* Organism #113 Fitness: 9.04231 Error: 0.992956 */
genomestart 113
trait 1 0.1 0 0 0 0 0 0 0 
trait 2 0.449337 0 0 0 0 0 0 0 
trait 3 0.3 0 0 0 0 0 0 0 
node 1 1 1 3
node 2 2 1 1
node 3 2 1 1
node 4 2 0 2
node 7 1 0 0
node 13 1 0 0
node 19 1 0 0
node 32 1 0 0
gene 1 1 4 -1.6442 0 1 -1.6442 1
gene 1 2 4 -0.646327 0 2 -0.646327 1
gene 1 3 4 3.31906 0 3 3.31906 0
gene 1 2 7 2.74334 0 8 2.74334 0
gene 1 7 4 6.48737 0 9 6.48737 1
gene 1 2 13 5.30977 0 24 5.30977 0
gene 1 13 7 -0.367246 0 25 -0.367246 1
gene 2 3 19 -0.719496 0 47 -0.719496 1
gene 1 19 4 1.71957 0 48 1.71957 1
gene 1 2 32 3.50724 0 79 3.50724 1
gene 1 32 13 -0.907295 0 80 -0.907295 1
genomeend 113

/* Organism #114 Fitness: 8.99999 Error: 1 */
genomestart 114
trait 1 0.1 0 0 0 0 0 0 0 
trait 2 0.449337 0 0 0 0 0 0 0 
trait 3 0.3 0 0 0 0 0 0 0 
node 1 1 1 3
node 2 2 1 1
node 3 2 1 1
node 4 2 0 2
node 7 1 0 0
node 13 1 0 0
node 19 1 0 0
node 32 1 0 0
gene 1 1 4 0.897142 0 1 0.897142 1
gene 1 2 4 -1.94391 0 2 -1.94391 1
gene 1 3 4 5.57257 0 3 5.57257 0
gene 1 2 7 3.03819 0 8 3.03819 0
gene 1 7 4 4.22044 0 9 4.22044 1
gene 1 2 13 2.60638 0 24 2.60638 0
gene 1 13 7 1.64124 0 25 1.64124 1
gene 1 3 19 -2.84503 0 47 -2.84503 1
gene 1 19 4 -0.872999 0 48 -0.872999 1
gene 1 2 32 1.765 0 79 1.765 1
gene 1 32 13 0.0531183 0 80 0.0531183 1
genomeend 114

/* Organism #115 Fitness: 9.27353 Error: 0.954752 */
genomestart 115
trait 1 0.1 0 0 0 0 0 0 0 
trait 2 0.449337 0 0 0 0 0 0 0 
trait 3 0.3 0 0 0 0 0 0 0 
node 1 1 1 3
node 2 2 1 1
node 3 2 1 1
node 4 2 0 2
node 7 1 0 0
node 13 1 0 0
node 19 1 0 0
node 32 1 0 0
gene 1 1 4 -2.15727 0 1 -2.15727 1
gene 1 2 4 0.156555 0 2 0.156555 1
gene 1 3 4 3.92159 0 3 3.92159 0
gene 1 2 7 2.10078 0 8 2.10078 0
gene 1 7 4 4.90942 0 9 4.90942 1
gene 1 2 13 3.45274 0 24 3.45274 0
gene 1 13 7 1.64647 0 25 1.64647 1
gene 1 3 19 -1.13574 0 47 -1.13574 1
gene 1 19 4 0.780213 0 48 0.780213 1
gene 1 2 32 1.765 0 79 1.765 1
gene 1 32 13 -0.907295 0 80 -0.907295 1
genomeend 115

/* Organism #116 Fitness: 9 Error: 0.999999 */
genomestart 116
trait 1 0.1 0 0 0 0 0 0 0 
trait 2 0.449337 0 0 0 0 0 0 0 
trait 3 0.3 0 0 0 0 0 0 0 
node 1 1 1 3
node 2 2 1 1
node 3 2 1 1
node 4 2 0 2
node 7 1 0 0
node 13 1 0 0
node 19 1 0 0
node 32 1 0 0
gene 1 1 4 0.36007 0 1 0.36007 1
gene 1 2 4 -1.42477 0 2 -1.42477 1
gene 1 3 4 2.74924 0 3 2.74924 0
gene 1 2 7 -0.562607 0 8 -0.562607 0
gene 1 7 4 8 0 9 8 1
gene 1 2 13 6.7798 0 24 6.7798 0
gene 1 13 7 5.78371 0 25 5.78371 1
gene 1 3 19 -3.17434 0 47 -3.17434 1
gene 1 19 4 1.89364 0 48 1.89364 1
gene 1 2 32 1.765 0 79 1.765 1
gene 1 32 13 -2.24616 0 80 -2.24616 1
genomeend 116

/* Species #16 : (Size 8) (AF 7.57032) (Age 4)  */


/* Organism #117 Fitness: 13.7566 Error: 0.291012 */
genomestart 117
trait 1 0.1 0 0 0 0 0 0 0 
trait 2 0.2 0 0 0 0 0 0 0 
trait 3 0.3 0 0 0 0 0 0 0 
node 1 1 1 3
node 2 2 1 1
node 3 2 1 1
node 4 2 0 2
node 7 1 0 0
node 8 1 0 0
node 12 1 0 0
node 50 1 0 0
node 54 1 0 0
gene 1 1 4 -0.635366 0 1 -0.635366 1
gene 1 2 4 -1.35269 0 2 -1.35269 0
gene 1 3 4 -1.59919 0 3 -1.59919 1
gene 1 2 7 -0.656259 0 8 -0.656259 0
gene 1 7 4 4.21833 0 9 4.21833 0
gene 1 2 8 -2.34791 0 10 -2.34791 1
gene 1 8 7 1.6723 0 11 1.6723 1
gene 1 7 12 0.848893 0 22 0.848893 1
gene 1 12 4 2.55953 0 23 2.55953 1
gene 1 2 50 1 0 138 0 0
gene 1 50 7 -0.656259 0 139 0 1
gene 1 2 54 1 0 155 0 1
gene 1 54 50 1 0 156 0 1
genomeend 117

/* Organism #118 Fitness: 7.80999 Error: 1.20536 */
genomestart 118
trait 1 0.1 0 0 0 0 0 0 0 
trait 2 0.2 0 0 0 0 0 0 0 
trait 3 0.3 0 0 0 0 0 0 0 
node 1 1 1 3
node 2 2 1 1
node 3 2 1 1
node 4 2 0 2
node 7 1 0 0
node 8 1 0 0
node 12 1 0 0
node 50 1 0 0
node 54 1 0 0
gene 1 1 4 0.509684 0 1 0.509684 1
gene 1 2 4 2.13647 0 2 2.13647 0
gene 1 3 4 -1.49217 0 3 -1.49217 1
gene 1 2 7 -0.170424 0 8 -0.170424 0
gene 1 7 4 3.14471 0 9 3.14471 0
gene 1 2 8 -3.02645 0 10 -3.02645 1
gene 1 8 7 0.263165 0 11 0.263165 1
gene 1 7 12 -0.391109 0 22 -0.391109 1
gene 1 12 4 3.18594 0 23 3.18594 1
gene 1 2 50 1 0 138 1 0
gene 1 50 7 -1.80637 0 139 -1.80637 1
gene 1 2 54 -0.453286 0 155 -0.453286 0
gene 1 54 50 3.27756 0 156 3.27756 1
genomeend 118

/* Organism #119 Fitness: 8.75443 Error: 1.04121 */
genomestart 119
trait 1 0.1 0 0 0 0 0 0 0 
trait 2 0.2 0 0 0 0 0 0 0 
trait 3 0.3 0 0 0 0 0 0 0 
node 1 1 1 3
node 2 2 1 1
node 3 2 1 1
node 4 2 0 2
node 7 1 0 0
node 8 1 0 0
node 12 1 0 0
node 50 1 0 0
node 54 1 0 0
node 57 1 0 0
gene 1 1 4 0.204761 0 1 0.204761 1
gene 1 2 4 1.32631 0 2 1.32631 0
gene 1 3 4 -1.59984 0 3 -1.59984 1
gene 1 2 7 -0.656259 0 8 -0.656259 0
gene 1 7 4 2.69746 0 9 2.69746 0
gene 1 2 8 0.142059 0 10 0.142059 1
gene 1 8 7 4.12354 0 11 4.12354 1
gene 1 7 12 1.24725 0 22 1.24725 1
gene 1 12 4 0.640447 0 23 0.640447 1
gene 1 2 50 -0.618348 0 138 -0.618348 0
gene 1 50 7 -0.656259 0 139 -0.656259 1
gene 1 2 54 -0.934319 0 155 -0.934319 0
gene 1 54 50 1.41427 0 156 1.41427 1
gene 1 2 57 -0.752215 0 168 -0.752215 1
gene 1 57 54 -1.74028 0 169 -1.74028 1
genomeend 119

/* Organism #120 Fitness: 1.56356 Error: 2.74958 */
genomestart 120
trait 1 0.1 0 0 0 0 0 0 0 
trait 2 0.2 0 0 0 0 0 0 0 
trait 3 0.3 0 0 0 0 0 0 0 
node 1 1 1 3
node 2 2 1 1
node 3 2 1 1
node 4 2 0 2
node 7 1 0 0
node 8 1 0 0
node 12 1 0 0
node 50 1 0 0
node 54 1 0 0
gene 1 1 4 -2.65907 0 1 -2.65907 1
gene 1 2 4 -0.331157 0 2 -0.331157 0
gene 1 3 4 -3.68134 0 3 -3.68134 1
gene 1 2 7 0.671645 0 8 0.671645 0
gene 1 7 4 2.35571 0 9 2.35571 0
gene 1 2 8 -1.25072 0 10 -1.25072 1
gene 1 8 7 -0.742248 0 11 -0.742248 1
gene 1 7 12 -0.763273 0 22 -0.763273 1
gene 1 12 4 4.82817 0 23 4.82817 1
gene 1 2 50 0.617192 0 138 0.617192 0
gene 1 50 7 -0.587118 0 139 -0.587118 1
gene 1 2 54 -0.397045 0 155 -0.397045 1
gene 1 54 50 3.04016 0 156 3.04016 1
genomeend 120

/* Organism #121 Fitness: 8.99619 Error: 1.00063 */
genomestart 121
trait 1 0.1 0 0 0 0 0 0 0 
trait 2 0.2 0 0 0 0 0 0 0 
trait 3 0.3 0 0 0 0 0 0 0 
node 1 1 1 3
node 2 2 1 1
node 3 2 1 1
node 4 2 0 2
node 7 1 0 0
node 8 1 0 0
node 12 1 0 0
node 50 1 0 0
node 54 1 0 0
gene 1 1 4 -3.09542 0 1 -3.09542 1
gene 1 2 4 -1.82581 0 2 -1.82581 0
gene 1 3 4 -2.69783 0 3 -2.69783 1
gene 1 2 7 -2.14163 0 8 -2.14163 0
gene 1 7 4 2.41187 0 9 2.41187 1
gene 1 2 8 -0.635282 0 10 -0.635282 1
gene 1 8 7 0.714305 0 11 0.714305 1
gene 1 7 12 2.70106 0 22 2.70106 1
gene 1 12 4 4.40301 0 23 4.40301 1
gene 1 2 50 2.08318 0 138 2.08318 1
gene 1 50 7 1.09579 0 139 1.09579 1
gene 1 2 54 1.73742 0 155 1.73742 0
gene 1 54 50 0.515978 0 156 0.515978 1
genomeend 121

/* Organism #122 Fitness: 8.08657 Error: 1.15631 */
genomestart 122
trait 1 0.1 0 0 0 0 0 0 0 
trait 2 0.2 0 0 0 0 0 0 0 
trait 3 0.3 0 0 0 0 0 0 0 
node 1 1 1 3
node 2 2 1 1
node 3 2 1 1
node 4 2 0 2
node 7 1 0 0
node 8 1 0 0
node 12 1 0 0
node 50 1 0 0
node 54 1 0 0
gene 1 1 4 1.55536 0 1 1.55536 1
gene 1 2 4 0.834184 0 2 0.834184 1
gene 1 3 4 -3.4437 0 3 -3.4437 1
gene 1 2 7 -2.64994 0 8 -2.64994 1
gene 1 7 4 4.21833 0 9 4.21833 0
gene 1 2 8 -4.60806 0 10 -4.60806 1
gene 1 8 7 2.77119 0 11 2.77119 1
gene 1 7 12 1.86623 0 22 1.86623 1
gene 1 12 4 0.789853 0 23 0.789853 1
gene 1 2 50 0.851196 0 138 0.851196 0
gene 1 50 7 -2.63817 0 139 -2.63817 1
gene 1 2 54 -1.38633 0 155 -1.38633 1
gene 1 54 50 1 0 156 1 1
genomeend 122

/* Organism #123 Fitness: 10.5514 Error: 0.751705 */
genomestart 123
trait 1 0.1 0 0 0 0 0 0 0 
trait 2 0.2 0 0 0 0 0 0 0 
trait 3 0.3 0 0 0 0 0 0 0 
node 1 1 1 3
node 2 2 1 1
node 3 2 1 1
node 4 2 0 2
node 7 1 0 0
node 8 1 0 0
node 12 1 0 0
node 50 1 0 0
node 54 1 0 0
gene 1 1 4 -0.635366 0 1 -0.635366 1
gene 1 2 4 -1.35269 0 2 -1.35269 0
gene 1 3 4 -1.59919 0 3 -1.59919 1
gene 1 2 7 -0.656259 0 8 -0.656259 0
gene 1 7 4 4.21833 0 9 4.21833 0
gene 1 2 8 -2.34791 0 10 -2.34791 1
gene 1 8 7 1.6723 0 11 1.6723 1
gene 1 7 12 0.848893 0 22 0.848893 1
gene 1 12 4 2.55953 0 23 2.55953 1
gene 1 2 50 1 0 138 0 0
gene 1 50 7 -0.656259 0 139 0 1
gene 1 2 54 1 0 155 0 0
gene 1 54 50 1 0 156 0 1
genomeend 123

/* Organism #124 Fitness: 1.04378 Error: 2.97834 */
genomestart 124
trait 1 0.1 0 0 0 0 0 0 0 
trait 2 0.2 0 0 0 0 0 0 0 
trait 3 0.3 0 0 0 0 0 0 0 
node 1 1 1 3
node 2 2 1 1
node 3 2 1 1
node 4 2 0 2
node 7 1 0 0
node 8 1 0 0
node 12 1 0 0
node 50 1 0 0
node 54 1 0 0
node 57 1 0 0
gene 1 1 4 -2.59059 0 1 -2.59059 1
gene 1 2 4 1.1366 0 2 1.1366 0
gene 1 3 4 -3.52808 0 3 -3.52808 1
gene 1 2 7 0.661759 0 8 0.661759 0
gene 1 7 4 4.48721 0 9 4.48721 0
gene 1 2 8 -2.5852 0 10 -2.5852 1
gene 1 8 7 -0.435475 0 11 -0.435475 1
gene 1 7 12 1.70265 0 22 1.70265 1
gene 1 12 4 1.54655 0 23 1.54655 1
gene 1 2 50 2.5398 0 138 2.5398 0
gene 1 50 7 -1.19724 0 139 -1.19724 1
gene 1 2 54 2.91091 0 155 2.91091 0
gene 1 54 50 1.18772 0 156 1.18772 1
gene 1 2 57 1 0 168 1 1
gene 1 57 54 1 0 169 1 1
genomeend 124

/* Species #17 : (Size 6) (AF 7.69849) (Age 3)  */


/* Organism #125 Fitness: 10.2091 Error: 0.804829 */
genomestart 125
trait 1 0.1 0 0 0 0 0 0 0 
trait 2 0.2 0 0 0 0 0 0 0 
trait 3 0.3 0 0 0 0 0 0 0 
node 1 1 1 3
node 2 2 1 1
node 3 2 1 1
node 4 2 0 2
node 7 1 0 0
node 8 1 0 0
node 12 1 0 0
node 51 1 0 0
gene 1 1 4 -0.635366 0 1 -0.635366 1
gene 1 2 4 -1.35269 0 2 -1.35269 0
gene 1 3 4 -1.59919 0 3 -1.59919 1
gene 1 2 7 -0.656259 0 8 -0.656259 1
gene 1 7 4 4.21833 0 9 4.21833 0
gene 1 2 8 -2.34791 0 10 -2.34791 1
gene 1 8 7 1.6723 0 11 1.6723 1
gene 1 7 12 0.848893 0 22 0.848893 0
gene 1 12 4 2.55953 0 23 2.55953 1
gene 1 3 8 0.658397 0 123 0.658397 1
gene 1 7 51 1 0 144 0 1
gene 1 51 12 0.848893 0 145 0 1
genomeend 125

/* Organism #126 Fitness: 9.00644 Error: 0.998926 */
genomestart 126
trait 1 0.1 0 0 0 0 0 0 0 
trait 2 0.2 0 0 0 0 0 0 0 
trait 3 0.3 0 0 0 0 0 0 0 
node 1 1 1 3
node 2 2 1 1
node 3 2 1 1
node 4 2 0 2
node 7 1 0 0
node 8 1 0 0
node 12 1 0 0
node 51 1 0 0
gene 1 1 4 -1.35751 0 1 -1.35751 1
gene 1 2 4 -2.19613 0 2 -2.19613 0
gene 1 3 4 -0.83147 0 3 -0.83147 1
gene 1 2 7 -0.913181 0 8 -0.913181 1
gene 1 7 4 4.32062 0 9 4.32062 0
gene 1 2 8 -1.87535 0 10 -1.87535 1
gene 1 8 7 1.63112 0 11 1.63112 1
gene 1 7 12 1.58634 0 22 1.58634 0
gene 1 12 4 3.46386 0 23 3.46386 1
gene 1 3 8 -0.352947 0 123 -0.352947 1
gene 1 7 51 1 0 144 0.5 1
gene 1 51 12 1.38784 0 145 0.963396 1
genomeend 126

/* Organism #127 Fitness: 7.97267 Error: 1.17641 */
genomestart 127
trait 1 0.1 0 0 0 0 0 0 0 
trait 2 0.2 0 0 0 0 0 0 0 
trait 3 0.3 0 0 0 0 0 0 0 
node 1 1 1 3
node 2 2 1 1
node 3 2 1 1
node 4 2 0 2
node 7 1 0 0
node 8 1 0 0
node 12 1 0 0
node 51 1 0 0
gene 1 1 4 0.397449 0 1 0.397449 1
gene 1 2 4 -2.5958 0 2 -2.5958 0
gene 1 3 4 -0.49545 0 3 -0.49545 1
gene 1 2 7 -3.5354 0 8 -3.5354 1
gene 1 7 4 2.22542 0 9 2.22542 0
gene 1 2 8 0.889577 0 10 0.889577 1
gene 1 8 7 1.44863 0 11 1.44863 1
gene 1 7 12 2.58963 0 22 2.58963 0
gene 1 12 4 2.10479 0 23 2.10479 1
gene 1 3 8 -1.62767 0 123 -1.62767 1
gene 1 7 51 1 0 144 1 1
gene 3 51 12 -0.269395 0 145 -0.269395 1
genomeend 127

/* Organism #128 Fitness: 1.00287 Error: 2.99856 */
genomestart 128
trait 1 0.1 0 0 0 0 0 0 0 
trait 2 0.2 0 0 0 0 0 0 0 
trait 3 0.3 0 0 0 0 0 0 0 
node 1 1 1 3
node 2 2 1 1
node 3 2 1 1
node 4 2 0 2
node 7 1 0 0
node 8 1 0 0
node 12 1 0 0
node 51 1 0 0
gene 1 1 4 -2.99298 0 1 -2.99298 1
gene 1 2 4 -2.09677 0 2 -2.09677 0
gene 1 3 4 -2.16753 0 3 -2.16753 1
gene 1 2 7 -0.98764 0 8 -0.98764 1
gene 1 7 4 3.53128 0 9 3.53128 0
gene 1 2 8 -0.397217 0 10 -0.397217 1
gene 1 8 7 0.0981322 0 11 0.0981322 1
gene 1 7 12 -0.463299 0 22 -0.463299 0
gene 1 12 4 4.81168 0 23 4.81168 1
gene 1 3 8 -0.0112887 0 123 -0.0112887 1
gene 1 7 51 -0.238023 0 144 -0.238023 1
gene 1 51 12 -0.521717 0 145 -0.521717 1
genomeend 128

/* Organism #129 Fitness: 8.99985 Error: 1.00002 */
genomestart 129
trait 1 0.1 0 0 0 0 0 0 0 
trait 2 0.2 0 0 0 0 0 0 0 
trait 3 0.3 0 0 0 0 0 0 0 
node 1 1 1 3
node 2 2 1 1
node 3 2 1 1
node 4 2 0 2
node 7 1 0 0
node 8 1 0 0
node 12 1 0 0
node 51 1 0 0
gene 1 1 4 -2.07965 0 1 -2.07965 1
gene 1 2 4 -3.03957 0 2 -3.03957 0
gene 1 3 4 -0.0637528 0 3 -0.0637528 1
gene 1 2 7 -1.1701 0 8 -1.1701 1
gene 1 7 4 4.42291 0 9 4.42291 0
gene 1 2 8 -1.4028 0 10 -1.4028 1
gene 1 8 7 1.58993 0 11 1.58993 1
gene 1 7 12 2.32379 0 22 2.32379 0
gene 1 12 4 4.3682 0 23 4.3682 1
gene 1 3 8 -1.36429 0 123 -1.36429 1
gene 1 7 51 1 0 144 1 1
gene 1 51 12 1.92679 0 145 1.92679 1
gene 3 1 7 0.419935 0 180 0.419935 1
genomeend 129

/* Organism #130 Fitness: 9 Error: 1 */
genomestart 130
trait 1 0.1 0 0 0 0 0 0 0 
trait 2 0.2 0 0 0 0 0 0 0 
trait 3 0.3 0 0 0 0 0 0 0 
node 1 1 1 3
node 2 2 1 1
node 3 2 1 1
node 4 2 0 2
node 7 1 0 0
node 8 1 0 0
node 12 1 0 0
node 51 1 0 0
gene 1 1 4 -0.420647 0 1 -0.420647 1
gene 1 2 4 -1.27669 0 2 -1.27669 1
gene 1 3 4 -0.857996 0 3 -0.857996 1
gene 1 2 7 0.561508 0 8 0.561508 1
gene 1 7 4 3.28429 0 9 3.28429 1
gene 1 2 8 -1.93504 0 10 -1.93504 1
gene 1 8 7 5.27474 0 11 5.27474 1
gene 1 7 12 0.606425 0 22 0.606425 0
gene 1 12 4 3.01533 0 23 3.01533 1
gene 1 3 8 2.63888 0 123 2.63888 1
gene 1 7 51 1.54803 0 144 1.54803 1
gene 1 51 12 1.14478 0 145 1.14478 1
genomeend 130

/* Species #18 : (Size 9) (AF 9) (Age 3)  */


/* Organism #131 Fitness: 9 Error: 1 */
genomestart 131
trait 1 0.1 0 0 0 0 0 0 0 
trait 2 0.532449 0 0 0 0 0 0 0 
trait 3 0.3 0 0 0 0 0 0 0 
node 1 1 1 3
node 2 2 1 1
node 3 3 1 1
node 4 2 0 2
node 7 1 0 0
node 13 1 0 0
node 26 1 0 0
node 29 3 0 0
node 52 1 0 0
gene 1 1 4 0.145031 0 1 0.145031 1
gene 1 2 4 1.01854 0 2 1.01854 1
gene 1 3 4 -4.3489 0 3 -4.3489 0
gene 1 2 7 1.10797 0 8 1.10797 1
gene 1 7 4 8 0 9 8 1
gene 1 2 13 2.17557 0 24 2.17557 0
gene 1 13 7 4.46988 0 25 4.46988 0
gene 1 2 26 1.19148 0 62 1.19148 0
gene 1 26 13 0.806167 0 63 0.806167 1
gene 1 13 29 0.233653 0 72 0.233653 1
gene 2 29 7 2.20309 0 73 2.20309 1
gene 3 29 4 0.402179 0 85 0.402179 1
gene 1 13 4 0.804525 0 141 0.804525 1
gene 1 2 52 1 0 148 0 1
gene 1 52 26 1.19148 0 149 0 1
genomeend 131

/* Organism #132 Fitness: 9 Error: 1 */
genomestart 132
trait 1 0.1 0 0 0 0 0 0 0 
trait 2 0.532449 0 0 0 0 0 0 0 
trait 3 0.3 0 0 0 0 0 0 0 
node 1 1 1 3
node 2 2 1 1
node 3 3 1 1
node 4 2 0 2
node 7 1 0 0
node 13 1 0 0
node 26 1 0 0
node 29 3 0 0
node 52 1 0 0
gene 1 1 4 0.2617 0 1 0.2617 1
gene 1 2 4 3.28842 0 2 3.28842 1
gene 1 3 4 -3.31822 0 3 -3.31822 0
gene 1 2 7 2.56896 0 8 2.56896 1
gene 1 7 4 7.52438 0 9 7.52438 1
gene 1 2 13 2.30927 0 24 2.30927 0
gene 1 13 7 2.3203 0 25 2.3203 0
gene 1 2 26 5.16379 0 62 5.16379 0
gene 1 26 13 -1.52809 0 63 -1.52809 1
gene 1 13 29 0.54923 0 72 0.54923 1
gene 2 29 7 2.74278 0 73 2.74278 1
gene 3 29 4 1.06426 0 85 1.06426 1
gene 1 13 4 -3.35519 0 141 -3.35519 1
gene 1 2 52 3.4022 0 148 3.4022 1
gene 1 52 26 -2.42254 0 149 -2.42254 1
genomeend 132

/* Organism #133 Fitness: 9 Error: 1 */
genomestart 133
trait 1 0.1 0 0 0 0 0 0 0 
trait 2 0.532449 0 0 0 0 0 0 0 
trait 3 0.3 0 0 0 0 0 0 0 
node 1 1 1 3
node 2 2 1 1
node 3 3 1 1
node 4 2 0 2
node 7 1 0 0
node 13 1 0 0
node 26 1 0 0
node 29 3 0 0
node 52 1 0 0
gene 1 1 4 0.446346 0 1 0.446346 1
gene 1 2 4 2.24318 0 2 2.24318 1
gene 1 3 4 -4.50682 0 3 -4.50682 0
gene 1 2 7 -0.500416 0 8 -0.500416 1
gene 1 7 4 8 0 9 8 1
gene 1 2 13 2.17557 0 24 2.17557 1
gene 1 13 7 5.44177 0 25 5.44177 1
gene 1 2 26 2.17979 0 62 2.17979 0
gene 1 26 13 0.719082 0 63 0.719082 1
gene 1 13 29 0.233653 0 72 0.233653 1
gene 2 29 7 2.32002 0 73 2.32002 1
gene 3 29 4 0.577946 0 85 0.577946 1
gene 1 13 4 -0.141083 0 141 -0.141083 1
gene 1 2 52 1.29646 0 148 0.796457 1
gene 1 52 26 1.52378 0 149 0.92804 1
genomeend 133

/* Organism #134 Fitness: 9 Error: 1 */
genomestart 134
trait 1 0.1 0 0 0 0 0 0 0 
trait 2 0.532449 0 0 0 0 0 0 0 
trait 3 0.3 0 0 0 0 0 0 0 
node 1 1 1 3
node 2 2 1 1
node 3 3 1 1
node 4 2 0 2
node 7 1 0 0
node 13 1 0 0
node 26 1 0 0
node 29 3 0 0
node 52 1 0 0
gene 1 1 4 1.79404 0 1 1.79404 1
gene 1 2 4 1.63129 0 2 1.63129 1
gene 1 3 4 -2.61308 0 3 -2.61308 0
gene 1 2 7 2.30525 0 8 2.30525 1
gene 1 7 4 8 0 9 8 1
gene 1 2 13 3.44031 0 24 3.44031 0
gene 1 13 7 4.03529 0 25 4.03529 0
gene 1 2 26 0.374477 0 62 0.374477 0
gene 1 26 13 1.42849 0 63 1.42849 1
gene 1 13 29 -0.964973 0 72 -0.964973 1
gene 2 29 7 -0.293171 0 73 -0.293171 1
gene 3 29 4 -0.744219 0 85 -0.744219 1
gene 1 13 4 0.804525 0 141 0.804525 1
gene 1 2 52 3.39731 0 148 3.39731 1
gene 1 52 26 0.369754 0 149 0.369754 1
genomeend 134

/* Organism #135 Fitness: 9 Error: 1 */
genomestart 135
trait 1 0.1 0 0 0 0 0 0 0 
trait 2 0.532449 0 0 0 0 0 0 0 
trait 3 0.3 0 0 0 0 0 0 0 
node 1 1 1 3
node 2 2 1 1
node 3 3 1 1
node 4 2 0 2
node 7 1 0 0
node 13 1 0 0
node 26 1 0 0
node 29 3 0 0
node 52 1 0 0
gene 1 1 4 -1.8275 0 1 -1.8275 1
gene 1 2 4 2.22039 0 2 2.22039 1
gene 1 3 4 -4.97992 0 3 -4.97992 0
gene 1 2 7 0.183065 0 8 0.183065 1
gene 1 7 4 6.90687 0 9 6.90687 1
gene 1 2 13 2.56723 0 24 2.56723 1
gene 1 13 7 2.94661 0 25 2.94661 0
gene 1 2 26 3.4808 0 62 3.4808 1
gene 1 26 13 -1.08127 0 63 -1.08127 1
gene 1 13 29 1.54056 0 72 1.54056 1
gene 2 29 7 0.846929 0 73 0.846929 1
gene 3 29 4 2.12842 0 85 2.12842 1
gene 1 13 4 -1.36969 0 141 -1.36969 1
gene 1 2 52 1.62026 0 148 1.62026 1
gene 1 52 26 -0.292614 0 149 -0.292614 1
genomeend 135

/* Organism #136 Fitness: 9 Error: 1 */
genomestart 136
trait 1 0.1 0 0 0 0 0 0 0 
trait 2 0 0 0 0.600037 0.586691 0 0.601102 0 
trait 3 0.3 0 0 0 0 0 0 0 
node 1 1 1 3
node 2 2 1 1
node 3 3 1 1
node 4 2 0 2
node 7 1 0 0
node 13 1 0 0
node 26 1 0 0
node 29 3 0 0
node 52 1 0 0
gene 1 1 4 2.15758 0 1 2.15758 1
gene 1 2 4 2.042 0 2 2.042 1
gene 1 3 4 -0.372612 0 3 -0.372612 0
gene 1 2 7 -0.967516 0 8 -0.967516 1
gene 1 7 4 8 0 9 8 1
gene 1 2 13 3.3351 0 24 3.3351 0
gene 1 13 7 7.7572 0 25 7.7572 0
gene 1 2 26 1.59787 0 62 1.59787 0
gene 1 26 13 -1.36306 0 63 -1.36306 1
gene 1 13 29 1.86773 0 72 1.86773 1
gene 2 29 7 4.6691 0 73 4.6691 1
gene 3 29 4 1.00263 0 85 1.00263 1
gene 1 13 4 0.791538 0 141 0.791538 1
gene 1 2 52 0.250669 0 148 0.250669 1
gene 1 52 26 -0.30742 0 149 -0.30742 1
genomeend 136

/* Organism #137 Fitness: 9 Error: 1 */
genomestart 137
trait 1 0.1 0 0 0 0 0 0 0 
trait 2 0.532449 0 0 0 0 0 0 0 
trait 3 0.3 0 0 0 0 0 0 0 
node 1 1 1 3
node 2 2 1 1
node 3 3 1 1
node 4 2 0 2
node 7 1 0 0
node 13 1 0 0
node 26 1 0 0
node 29 3 0 0
node 52 1 0 0
gene 1 1 4 2.41915 0 1 2.41915 1
gene 1 2 4 1.15011 0 2 1.15011 1
gene 1 3 4 -2.13136 0 3 -2.13136 0
gene 1 2 7 -3.33418 0 8 -3.33418 1
gene 1 7 4 7.97848 0 9 7.97848 1
gene 1 2 13 1.39937 0 24 1.39937 0
gene 1 13 7 7.36364 0 25 7.36364 0
gene 1 2 26 3.46935 0 62 3.46935 0
gene 1 26 13 -0.989805 0 63 -0.989805 1
gene 1 13 29 0.496758 0 72 0.496758 1
gene 2 29 7 0.514007 0 73 0.514007 1
gene 3 29 4 -1.03596 0 85 -1.03596 1
gene 1 13 4 1.18641 0 141 1.18641 1
gene 1 2 52 1 0 148 1 1
gene 1 52 26 -0.437709 0 149 -0.437709 1
genomeend 137

/* Organism #138 Fitness: 9 Error: 1 */
genomestart 138
trait 1 0.1 0 0 0 0 0 0 0 
trait 2 0.532449 0 0 0 0 0 0 0 
trait 3 0.3 0 0 0 0 0 0 0 
node 1 1 1 3
node 2 2 1 1
node 3 3 1 1
node 4 2 0 2
node 7 1 0 0
node 13 1 0 0
node 26 1 0 0
node 29 3 0 0
node 52 1 0 0
gene 1 1 4 1.7313 0 1 1.7313 1
gene 1 2 4 2.86153 0 2 2.86153 1
gene 1 3 4 -3.24764 0 3 -3.24764 1
gene 1 2 7 -0.266008 0 8 -0.266008 1
gene 1 7 4 7.21649 0 9 7.21649 1
gene 1 2 13 2.23008 0 24 2.23008 0
gene 1 13 7 4.46988 0 25 4.46988 1
gene 1 2 26 1.19148 0 62 1.19148 0
gene 1 26 13 -0.216054 0 63 -0.216054 1
gene 1 13 29 -1.90412 0 72 -1.90412 1
gene 2 29 7 -0.271914 0 73 -0.271914 1
gene 3 29 4 0.402179 0 85 0.402179 1
gene 1 13 4 -1.51617 0 141 -1.51617 1
gene 1 2 52 1 0 148 1 1
gene 1 52 26 -0.491637 0 149 -0.491637 1
genomeend 138

/* Organism #139 Fitness: 9 Error: 1 */
genomestart 139
trait 1 0.1 0 0 0 0 0 0 0 
trait 2 0.532449 0 0 0 0 0 0 0 
trait 3 0.3 0 0 0 0 0 0 0 
node 1 1 1 3
node 2 2 1 1
node 3 3 1 1
node 4 2 0 2
node 7 1 0 0
node 13 1 0 0
node 26 1 0 0
node 29 3 0 0
node 52 1 0 0
gene 1 1 4 0.145031 0 1 0.145031 1
gene 1 2 4 1.01854 0 2 1.01854 1
gene 1 3 4 -4.3489 0 3 -4.3489 0
gene 1 2 7 1.10797 0 8 1.10797 1
gene 1 7 4 8 0 9 8 1
gene 1 2 13 2.17557 0 24 2.17557 0
gene 1 13 7 4.46988 0 25 4.46988 0
gene 1 2 26 1.19148 0 62 1.19148 0
gene 1 26 13 0.806167 0 63 0.806167 1
gene 1 13 29 0.233653 0 72 0.233653 1
gene 2 29 7 2.20309 0 73 2.20309 1
gene 3 29 4 0.402179 0 85 0.402179 1
gene 1 13 4 0.804525 0 141 0.804525 1
gene 1 2 52 1 0 148 0 1
gene 1 52 26 1.19148 0 149 0 1
genomeend 139

/* Species #19 : (Size 9) (AF 7.23101) (Age 2)  */


/* Organism #140 Fitness: 9 Error: 1 */
genomestart 140
trait 1 0.1 0 0 0.843742 0 0 0 0.286308 
trait 2 0.2 0 0 0 0 0 0 0 
trait 3 0.3 0 0.462728 0 0.332814 0 0 0 
node 1 2 1 3
node 2 1 1 1
node 3 1 1 1
node 4 3 0 2
node 17 1 0 0
node 38 1 0 0
node 48 1 0 0
node 53 1 0 0
gene 2 1 4 -1.87131 0 1 -1.87131 1
gene 1 2 4 2.89104 0 2 2.89104 0
gene 3 3 4 -0.816559 0 3 -0.816559 0
gene 1 2 17 -1.43388 0 39 -1.43388 1
gene 1 17 4 7.05076 0 40 7.05076 1
gene 1 17 38 0.480462 0 96 0.480462 1
gene 1 38 4 8 0 97 8 0
gene 1 38 48 -0.441464 0 132 -0.441464 1
gene 1 48 4 0.388738 0 133 0.388738 1
gene 1 38 53 1 0 151 0 1
gene 1 53 4 8 0 152 0 1
gene 3 53 48 -0.134777 0 167 -0.134777 1
genomeend 140

/* Organism #141 Fitness: 8.99998 Error: 1 */
genomestart 141
trait 1 0.1 0 0 0.843742 0 0 0 0.286308 
trait 2 0.2 0 0 0 0 0 0 0 
trait 3 0.3 0 0.462728 0 0.332814 0 0 0 
node 1 2 1 3
node 2 1 1 1
node 3 1 1 1
node 4 3 0 2
node 17 1 0 0
node 38 1 0 0
node 48 1 0 0
node 53 1 0 0
gene 2 1 4 -1.75968 0 1 -1.75968 1
gene 1 2 4 1.80611 0 2 1.80611 0
gene 3 3 4 -3.23236 0 3 -3.23236 0
gene 1 2 17 0.016439 0 39 0.016439 1
gene 1 17 4 -1.17399 0 40 -1.17399 1
gene 1 17 38 -0.9573 0 96 -0.9573 1
gene 1 38 4 7.11825 0 97 7.11825 0
gene 1 38 48 0.305332 0 132 0.305332 1
gene 1 48 4 2.47786 0 133 2.47786 1
gene 1 38 53 2.64004 0 151 2.64004 1
gene 1 53 4 6.75749 0 152 6.75749 1
gene 3 53 48 -2.13259 0 167 -2.13259 1
genomeend 141

/* Organism #142 Fitness: 9.00004 Error: 0.999994 */
genomestart 142
trait 1 0.1 0 0 0.843742 0 0 0 0.286308 
trait 2 0.2 0 0 0 0 0 0 0 
trait 3 0.3 0 0.462728 0 0.332814 0 0 0 
node 1 2 1 3
node 2 1 1 1
node 3 1 1 1
node 4 3 0 2
node 17 1 0 0
node 38 1 0 0
node 48 1 0 0
node 53 1 0 0
gene 2 1 4 -1.87131 0 1 -1.87131 1
gene 1 2 4 2.89104 0 2 2.89104 0
gene 3 3 4 -0.816559 0 3 -0.816559 0
gene 1 2 17 -1.43388 0 39 -1.43388 1
gene 1 17 4 7.05076 0 40 7.05076 1
gene 1 17 38 0.480462 0 96 0.480462 1
gene 1 38 4 8 0 97 8 0
gene 1 38 48 -0.441464 0 132 -0.441464 1
gene 1 48 4 0.388738 0 133 0.388738 1
gene 1 38 53 1 0 151 0 1
gene 1 53 4 8 0 152 0 1
gene 3 53 48 -0.134777 0 167 -0.134777 1
gene 3 3 38 -0.861172 0 181 -0.861172 1
genomeend 142

/* Organism #143 Fitness: 9 Error: 1 */
genomestart 143
trait 1 0.1 0 0 0.843742 0 0 0 0.286308 
trait 2 0.2 0 0 0 0 0 0 0 
trait 3 0.3 0 0.462728 0 0.332814 0 0 0 
node 1 2 1 3
node 2 1 1 1
node 3 1 1 1
node 4 3 0 2
node 17 1 0 0
node 38 1 0 0
node 48 1 0 0
node 53 1 0 0
gene 2 1 4 -1.87131 0 1 -1.87131 1
gene 1 2 4 2.89104 0 2 2.89104 0
gene 3 3 4 -0.816559 0 3 -0.816559 0
gene 1 2 17 -1.43388 0 39 -1.43388 1
gene 1 17 4 7.05076 0 40 7.05076 1
gene 1 17 38 0.480462 0 96 0.480462 1
gene 1 38 4 8 0 97 8 0
gene 1 38 48 -0.441464 0 132 -0.441464 1
gene 1 48 4 0.388738 0 133 0.388738 1
gene 1 38 53 1 0 151 0 1
gene 1 53 4 8 0 152 0 1
gene 3 53 48 -0.134777 0 167 -0.134777 1
gene 1 2 53 -0.466402 0 182 -0.466402 1
genomeend 143

/* Organism #144 Fitness: 9 Error: 1 */
genomestart 144
trait 1 0.1 0 0 0.843742 0 0 0 0.286308 
trait 2 0.2 0 0 0 0 0 0 0 
trait 3 0.3 0 0.462728 0 0.332814 0 0 0 
node 1 2 1 3
node 2 1 1 1
node 3 1 1 1
node 4 3 0 2
node 17 1 0 0
node 38 1 0 0
node 48 1 0 0
node 53 1 0 0
gene 2 1 4 -1.87131 0 1 -1.87131 1
gene 1 2 4 2.7134 0 2 2.7134 0
gene 3 3 4 0.97247 0 3 0.97247 0
gene 1 2 17 0.616682 0 39 0.616682 1
gene 1 17 4 7.93528 0 40 7.93528 1
gene 1 17 38 -0.0534065 0 96 -0.0534065 1
gene 1 38 4 -1.74167 0 97 -1.74167 0
gene 1 38 48 -1.93411 0 132 -1.93411 1
gene 1 48 4 0.388738 0 133 0.388738 1
gene 1 38 53 1.65244 0 151 1.65244 1
gene 1 53 4 8 0 152 8 1
gene 3 53 48 -0.40382 0 167 -0.40382 1
genomeend 144

/* Organism #145 Fitness: 9 Error: 1 */
genomestart 145
trait 1 0.1 0 0 0.843742 0 0 0 0.286308 
trait 2 0.2 0 0 0 0 0 0 0 
trait 3 0.3 0 0.462728 0 0.332814 0 0 0 
node 1 2 1 3
node 2 1 1 1
node 3 1 1 1
node 4 3 0 2
node 17 1 0 0
node 38 1 0 0
node 48 1 0 0
node 53 1 0 0
gene 2 1 4 -1.24308 0 1 -1.24308 1
gene 1 2 4 1.99421 0 2 1.99421 0
gene 3 3 4 -2.38522 0 3 -2.38522 0
gene 1 2 17 0.214995 0 39 0.214995 1
gene 1 17 4 6.06901 0 40 6.06901 1
gene 1 17 38 -2.17489 0 96 -2.17489 1
gene 1 38 4 6.95434 0 97 6.95434 0
gene 1 38 48 1.264 0 132 1.264 1
gene 1 48 4 2.30457 0 133 2.30457 1
gene 1 38 53 0.489276 0 151 0.489276 1
gene 1 53 4 8 0 152 8 1
gene 3 53 48 0.50991 0 167 0.50991 1
genomeend 145

/* Organism #146 Fitness: 9 Error: 1 */
genomestart 146
trait 1 0.1 0 0 0.843742 0 0 0 0.286308 
trait 2 0.2 0 0 0 0 0 0 0 
trait 3 0.3 0 0.462728 0 0.332814 0 0 0 
node 1 2 1 3
node 2 1 1 1
node 3 1 1 1
node 4 3 0 2
node 17 1 0 0
node 38 1 0 0
node 48 1 0 0
node 53 1 0 0
gene 2 1 4 -3.27082 0 1 -3.27082 1
gene 1 2 4 4.8768 0 2 4.8768 0
gene 3 3 4 -0.0641674 0 3 -0.0641674 0
gene 1 2 17 -2.30324 0 39 -2.30324 1
gene 1 17 4 8 0 40 8 1
gene 1 17 38 -0.860519 0 96 -0.860519 1
gene 1 38 4 8 0 97 8 0
gene 1 38 48 -0.288162 0 132 -0.288162 1
gene 1 48 4 -1.10491 0 133 -1.10491 1
gene 1 38 53 2.62207 0 151 2.62207 1
gene 1 53 4 5.62554 0 152 5.62554 1
gene 3 53 48 -0.134777 0 167 -0.134777 1
genomeend 146

/* Organism #147 Fitness: 1.05531 Error: 2.97272 */
genomestart 147
trait 1 0.1 0 0 0.843742 0 0 0 0.286308 
trait 2 0.2 0 0 0 0 0 0 0 
trait 3 0.3 0 0.462728 0 0.332814 0 0 0 
node 1 2 1 3
node 2 1 1 1
node 3 1 1 1
node 4 3 0 2
node 17 1 0 0
node 38 1 0 0
node 48 1 0 0
node 53 1 0 0
gene 2 1 4 -3.9496 0 1 -3.9496 1
gene 1 2 4 0.659446 0 2 0.659446 0
gene 3 3 4 -2.10096 0 3 -2.10096 0
gene 1 2 17 -3.57895 0 39 -3.57895 1
gene 1 17 4 6.15728 0 40 6.15728 1
gene 1 17 38 0.978554 0 96 0.978554 1
gene 1 38 4 7.02794 0 97 7.02794 0
gene 1 38 48 -2.12417 0 132 -2.12417 1
gene 1 48 4 -2.08695 0 133 -2.08695 1
gene 1 38 53 -1.86488 0 151 -1.86488 1
gene 1 53 4 8 0 152 8 1
gene 3 53 48 0.522558 0 167 0.522558 1
genomeend 147

/* Organism #148 Fitness: 1.02374 Error: 2.9882 */
genomestart 148
trait 1 0.1 0 0 0.843742 0 0 0 0.286308 
trait 2 0.2 0 0 0 0 0 0 0 
trait 3 0 0.738461 0.462728 0 0.243478 0 0.273237 0 
node 1 2 1 3
node 2 1 1 1
node 3 1 1 1
node 4 3 0 2
node 17 1 0 0
node 38 1 0 0
node 48 1 0 0
node 53 1 0 0
gene 2 1 4 -2.36758 0 1 -2.36758 1
gene 1 2 4 2.54907 0 2 2.54907 0
gene 3 3 4 0.475081 0 3 0.475081 0
gene 1 2 17 -2.34019 0 39 -2.34019 1
gene 1 17 4 4.76971 0 40 4.76971 1
gene 1 17 38 -1.49387 0 96 -1.49387 1
gene 1 38 4 6.36359 0 97 6.36359 0
gene 1 38 48 -2.75036 0 132 -2.75036 1
gene 1 48 4 -0.518832 0 133 -0.518832 1
gene 1 38 53 0.397226 0 151 0.397226 1
gene 1 53 4 -1.89441 0 152 -1.89441 1
gene 3 53 48 1.17476 0 167 1.17476 1
genomeend 148

/* Species #20 : (Size 1) (AF 9) (Age 1)  */


/* Organism #149 Fitness: 9 Error: 1 */
genomestart 149
trait 1 0.1 0 0 0 0 0 0 0 
trait 2 0.210389 0 0 0 0 0 0 0 
trait 3 0.3 0 0 0 0 0 0 0 
node 1 1 1 3
node 2 2 1 1
node 3 3 1 1
node 4 2 0 2
node 7 1 0 0
node 13 1 0 0
node 26 1 0 0
node 60 1 0 0
gene 1 1 4 1.18969 0 1 1.18969 1
gene 1 2 4 7.56253 0 2 7.56253 0
gene 1 3 4 3.84397 0 3 3.84397 1
gene 1 2 7 4.36941 0 8 4.36941 1
gene 1 7 4 8 0 9 8 1
gene 1 2 13 6.05065 0 24 6.05065 0
gene 1 13 7 4.75245 0 25 4.75245 1
gene 1 2 26 2.51971 0 62 2.51971 1
gene 2 26 13 2.30252 0 63 2.30252 1
gene 3 26 7 -1.15921 0 71 -1.15921 1
gene 2 3 26 -1.25466 0 140 -1.25466 1
gene 1 2 60 1 0 175 0 1
gene 1 60 4 7.56253 0 176 0 1
genomeend 149
