
/* Species #1 : (Size 50) (AF 13.6136) (Age 20)  */


/* Organism #0 Fitness: 15.9999 Error: 6.35377e-06 */
genomestart 0
trait 1 0.130853 0.299115 0.0643348 0.182264 0 0 0 0.0836582 
trait 2 0.2 0.00371727 0.0383264 0.0503469 0.0868424 0 0 0.0562157 
trait 3 0.286066 0.00735071 0.00293232 0.0660015 0.0173826 0.00158429 0.107147 0.0119282 
node 1 2 1 3
node 2 3 1 1
node 3 1 1 1
node 4 3 0 2
gene 1 1 4 7.98779 0 1 7.98779 1
gene 2 2 4 -5.27203 0 2 -5.27203 1
gene 1 3 4 -5.4095 0 3 -5.4095 1
genomeend 0

/* Organism #1 Fitness: 15.9858 Error: 0.0017811 */
genomestart 1
trait 1 0.12942 0.301916 0.06956 0.197067 0 0 0 0.0827916 
trait 2 0.2 0.00631936 0.0315557 0.0424169 0.0820687 0 0 0.0461399 
trait 3 0.295725 0.0257275 0.156445 0.0227129 0.0512785 0.00180916 0.0476805 0.377015 
node 1 2 1 3
node 2 3 1 1
node 3 3 1 1
node 4 3 0 2
gene 3 1 4 8 0 1 8 1
gene 2 2 4 -3.83403 0 2 -3.83403 1
gene 1 3 4 -5.45159 0 3 -5.45159 1
genomeend 1

/* Organism #2 Fitness: 15.9934 Error: 0.000825045 */
genomestart 2
trait 1 0.129761 0.286877 0.0589464 0.166998 0 0 0 0.0522637 
trait 2 0.2 0.00334554 0.0398447 0.0499466 0.0862219 0 0 0.0567143 
trait 3 0.286287 0.00367535 0.00286611 0.0530227 0.010693 0.00154851 0.0997712 0.0125202 
node 1 3 1 3
node 2 3 1 1
node 3 3 1 1
node 4 2 0 2
gene 2 1 4 8 0 1 8 1
gene 2 2 4 -6.50917 0 2 -6.50917 1
gene 3 3 4 -6.24585 0 3 -6.24585 1
genomeend 2

/* Organism #3 Fitness: 15.9999 Error: 9.6507e-06 */
genomestart 3
trait 1 0.128688 0.294384 0.0658044 0.186428 0 0 0 0.115109 
trait 2 0.2 0.00706282 0.0322122 0.0429057 0.0811278 0 0 0.047336 
trait 3 0.295713 0.0110261 0.0033769 0.0389364 0.023869 0.00182449 0.0899481 0.0106708 
node 1 2 1 3
node 2 3 1 1
node 3 1 1 1
node 4 3 0 2
gene 3 1 4 8 0 1 8 1
gene 2 2 4 -5.16811 0 2 -5.16811 1
gene 1 3 4 -5.60647 0 3 -5.60647 1
genomeend 3

/* Organism #4 Fitness: 13.9372 Error: 0.266746 */
genomestart 4
trait 1 0.130388 0.302632 0.0682537 0.193367 0 0 0 0.0829582 
trait 2 0.2 0.00706282 0.0327046 0.043098 0.0825131 0 0 0.0472085 
trait 3 0.295669 0.0183768 0.00340527 0.0616493 0.0376215 0.00183982 0.103143 0.0107099 
node 1 2 1 3
node 2 3 1 1
node 3 1 1 1
node 4 3 0 2
gene 3 1 4 8 0 1 8 1
gene 1 2 4 -4.7607 0 2 -4.7607 1
gene 1 3 4 -3.44465 0 3 -3.44465 1
genomeend 4

/* Organism #5 Fitness: 4 Error: 2 */
genomestart 5
trait 1 0.133191 0.308005 0.0669474 0.189666 0 0 0 0.0830486 
trait 2 0.2 0.00966491 0.0353719 0.0444702 0.0843827 0 0 0.0490154 
trait 3 0.29554 0.00735071 0.0035377 0.0778728 0.0172093 0.00191137 0.110926 0.0113606 
node 1 3 1 3
node 2 3 1 1
node 3 3 1 1
node 4 2 0 2
gene 3 1 4 6.0448 0 1 6.0448 1
gene 2 2 4 1.19724 0 2 1.19724 1
gene 1 3 4 -2.24764 0 3 -2.24764 1
genomeend 5

/* Organism #6 Fitness: 10.2335 Error: 0.801017 */
genomestart 6
trait 1 0.132224 0.307289 0.0682537 0.193367 0 0 0 0.082882 
trait 2 0.2 0.00892145 0.0342229 0.0437892 0.0839382 0 0 0.0479467 
trait 3 0.295596 0.0147014 0.156577 0.0389364 0.0308662 0.0018807 0.0554629 0.377665 
node 1 2 1 3
node 2 3 1 1
node 3 1 1 1
node 4 3 0 2
gene 3 1 4 6.09835 0 1 6.09835 1
gene 2 2 4 -6.15131 0 2 -6.15131 1
gene 1 3 4 -5.85999 0 3 -5.85999 1
genomeend 6

/* Organism #7 Fitness: 15.9521 Error: 0.00599208 */
genomestart 7
trait 1 0.132559 0.299806 0.0622121 0.17625 0 0 0 0.0519305 
trait 2 0.2 0.00483245 0.0406654 0.050929 0.0881596 0 0 0.0573047 
trait 3 0.28609 0.00367535 0.00297961 0.0789803 0.010708 0.00160984 0.113948 0.0125691 
node 1 3 1 3
node 2 3 1 1
node 3 3 1 1
node 4 2 0 2
gene 3 1 4 8 0 1 8 1
gene 2 2 4 -2.88899 0 2 -2.88899 1
gene 1 3 4 -6.15285 0 3 -6.15285 1
genomeend 7

/* Organism #8 Fitness: 15.9999 Error: 9.41628e-06 */
genomestart 8
trait 1 0.12867 0.274638 0.0535579 0.151733 0 0 0 0.0208692 
trait 2 0.2 0.00297382 0.041363 0.0495463 0.0856015 0 0 0.0572129 
trait 3 0.286508 0 0.00279989 0.0400439 0.00400346 0.00151274 0.0923957 0.0131122 
node 1 3 1 3
node 2 3 1 1
node 3 3 1 1
node 4 2 0 2
gene 2 1 4 8 0 1 8 1
gene 1 2 4 -5.51292 0 2 -5.51292 1
gene 1 3 4 -5.48748 0 3 -5.48748 1
genomeend 8

/* Organism #9 Fitness: 15.9995 Error: 6.46193e-05 */
genomestart 9
trait 1 0.129761 0.286877 0.0589464 0.166998 0 0 0 0.0522637 
trait 2 0.2 0.00334554 0.0398447 0.0499466 0.0862219 0 0 0.0567143 
trait 3 0.286287 0.00367535 0.00286611 0.0530227 0.010693 0.00154851 0.0997712 0.0125202 
node 1 3 1 3
node 2 3 1 1
node 3 3 1 1
node 4 2 0 2
gene 1 1 4 6.90734 0 1 6.90734 1
gene 2 2 4 -4.59574 0 2 -4.59574 1
gene 1 3 4 -4.89733 0 3 -4.89733 1
genomeend 9

/* Organism #10 Fitness: 15.9999 Error: 8.64495e-06 */
genomestart 10
trait 1 0.128836 0.298714 0.068417 0.193829 0 0 0 0.0829493 
trait 2 0.2 0.00631936 0.0322943 0.0442959 0.0825023 0 0 0.0482979 
trait 3 0.443021 0.0183768 0.156303 0.369675 0.290686 0.0017325 0 0.371985 
node 1 2 1 3
node 2 3 1 1
node 3 1 1 1
node 4 3 0 2
gene 1 1 4 7.97558 0 1 7.97558 1
gene 2 2 4 -5.06243 0 2 -5.06243 1
gene 1 3 4 -5.50375 0 3 -5.50375 1
genomeend 10

/* Organism #11 Fitness: 15.9994 Error: 7.94971e-05 */
genomestart 11
trait 1 0.129779 0.306623 0.0711929 0.201693 0 0 0 0.146504 
trait 2 0.2 0.00743454 0.0306939 0.043306 0.0817483 0 0 0.0468374 
trait 3 0.295493 0.0147014 0.00344311 0.0519152 0.0305585 0.00186026 0.0973235 0.0100788 
node 1 2 1 3
node 2 3 1 1
node 3 1 1 1
node 4 3 0 2
gene 3 1 4 8 0 1 8 1
gene 2 2 4 -5.53338 0 2 -5.53338 1
gene 1 3 4 -6.06894 0 3 -6.06894 1
genomeend 11

/* Organism #12 Fitness: 15.9966 Error: 0.000426585 */
genomestart 12
trait 1 0.12867 0.274638 0.0535579 0.151733 0 0 0 0.0208692 
trait 2 0.2 0.00297382 0.041363 0.0495463 0.0856015 0 0 0.0572129 
trait 3 0.286508 0 0.00279989 0.0400439 0.44157 0 0 0.0131122 
node 1 2 1 3
node 2 3 1 1
node 3 3 1 1
node 4 2 0 2
gene 2 1 4 7.76313 0 1 7.76313 1
gene 1 2 4 -3.94415 0 2 -3.94415 1
gene 1 3 4 -5.39893 0 3 -5.39893 1
genomeend 12

/* Organism #13 Fitness: 9.05341 Error: 0.991112 */
genomestart 13
trait 1 0.127591 0.289702 0.064988 0.184115 0 0 0 0.0832914 
trait 2 0.2 0.00557591 0.031884 0.0421156 0.0805755 0 0 0.0466182 
trait 3 0.295866 0.0183768 0.00329176 0.0356917 0.0376066 0.00177849 0.0889668 0.010661 
node 1 2 1 3
node 2 3 1 1
node 3 1 1 1
node 4 3 0 2
gene 2 1 4 6.67381 0 1 6.67381 1
gene 1 2 4 -6.9253 0 2 -6.9253 1
gene 1 3 4 -6.4118 0 3 -6.4118 1
genomeend 13

/* Organism #14 Fitness: 9.03161 Error: 0.994736 */
genomestart 14
trait 1 0.128097 0.298739 0.0692334 0.196142 0 0 0 0.114844 
trait 2 0.2 0.00594764 0.0311043 0.0443948 0.0816296 0 0 0.0482776 
trait 3 0.442942 0.0147014 0.00321609 0.395633 0.283704 0.00173761 0.0486618 0.00503938 
node 1 2 1 3
node 2 3 1 1
node 3 1 1 1
node 4 3 0 2
gene 1 1 4 6.26834 0 1 6.26834 1
gene 2 2 4 -7.16274 0 2 -7.16274 1
gene 1 3 4 -5.25659 0 3 -5.25659 1
genomeend 14

/* Organism #15 Fitness: 15.9999 Error: 6.98817e-06 */
genomestart 15
trait 1 0.128694 0.285774 0.0600894 0.170237 0 0 0 0.0203447 
trait 2 0.2 0.00594764 0.033156 0.040058 0.0794825 0 0 0.0454867 
trait 3 0.295598 0.0294028 0.00348095 0.0519152 0.0583505 0.0018807 0.0984505 0.0110964 
node 1 3 1 3
node 2 3 1 1
node 3 3 1 1
node 4 2 0 2
gene 1 1 4 8 0 1 8 1
gene 1 2 4 -5.22057 0 2 -5.22057 1
gene 1 3 4 -5.48748 0 3 -5.48748 1
genomeend 15

/* Organism #16 Fitness: 15.9981 Error: 0.000234631 */
genomestart 16
trait 1 0.127597 0.282145 0.060416 0.171162 0 0 0 0.0837149 
trait 2 0.2 0.00669109 0.0337305 0.0425054 0.0805074 0 0 0.0478346 
trait 3 0.295934 0.00735071 0.00331068 0.0259576 0.0171794 0.00178871 0.0825726 0.0112628 
node 1 2 1 3
node 2 3 1 1
node 3 1 1 1
node 4 3 0 2
gene 2 1 4 7.98122 0 1 7.98122 1
gene 2 2 4 -6.19182 0 2 -6.19182 1
gene 1 3 4 -6.07937 0 3 -6.07937 1
genomeend 16

/* Organism #17 Fitness: 15.9999 Error: 9.87977e-06 */
genomestart 17
trait 1 0.12864 0.291451 0.0635184 0.179951 0 0 0 0.0836901 
trait 2 0.2 0.00446073 0.0345512 0.044458 0.0825745 0 0 0.0498845 
trait 3 0.293337 0.0110261 0.00326339 0.0521921 0.0240213 0.00176316 0.0955723 0.0111698 
node 1 2 1 3
node 2 3 1 1
node 3 1 1 1
node 4 3 0 2
gene 1 1 4 7.91283 0 1 7.91283 1
gene 1 2 4 -5.02976 0 2 -5.02976 1
gene 1 3 4 -5.48748 0 3 -5.48748 1
genomeend 17

/* Organism #18 Fitness: 3.99999 Error: 2 */
genomestart 18
trait 1 0.129378 0.291426 0.062702 0.177638 0 0 0 0.0517959 
trait 2 0.2 0 0.0357412 0.0443591 0.0834472 0 0 0.0499049 
trait 3 0.293417 0.0147014 0.15635 0.0262345 0.0310037 0.00175805 0.0469105 0.378116 
node 1 3 1 3
node 2 3 1 1
node 3 3 1 1
node 4 2 0 2
gene 1 1 4 8 0 1 8 1
gene 2 2 4 1.39497 0 2 1.39497 1
gene 1 3 4 -5.38141 0 3 -5.38141 1
genomeend 18

/* Organism #19 Fitness: 1.01803 Error: 2.99103 */
genomestart 19
trait 1 0.129755 0.294433 0.0635184 0.179951 0 0 0 0.0518402 
trait 2 0.2 0.00223036 0.0379981 0.0495568 0.08629 0 0 0.0554978 
trait 3 0.286218 0.0147014 0.00284719 0.0627568 0.0311202 0.00153829 0.106165 0.0119184 
node 1 2 1 3
node 2 3 1 1
node 3 1 1 1
node 4 3 0 2
gene 3 1 4 -0.955361 0 1 -0.955361 1
gene 1 2 4 -3.02853 0 2 -3.02853 1
gene 2 3 4 -7.42166 0 3 -7.42166 1
genomeend 19

/* Organism #20 Fitness: 15.7182 Error: 0.035378 */
genomestart 20
trait 1 0.127591 0.289702 0.064988 0.184115 0 0 0 0.0832914 
trait 2 0.2 0.00557591 0.031884 0.0421156 0.0805755 0 0 0.0466182 
trait 3 0.295866 0.0183768 0.00329176 0.0356917 0.0376066 0.00177849 0.0889668 0.010661 
node 1 2 1 3
node 2 3 1 1
node 3 1 1 1
node 4 3 0 2
gene 3 1 4 8 0 1 8 1
gene 1 2 4 -7.3287 0 2 -7.3287 1
gene 1 3 4 -4.00115 0 3 -4.00115 1
genomeend 20

/* Organism #21 Fitness: 15.9999 Error: 1.26195e-05 */
genomestart 21
trait 1 0.127597 0.282145 0.060416 0.171162 0 0 0 0.0837149 
trait 2 0.2 0.00669109 0.0337305 0.0425054 0.0805074 0 0 0.0478346 
trait 3 0.295934 0.00735071 0.00331068 0.0259576 0.0171794 0.00178871 0.0825726 0.0112628 
node 1 2 1 3
node 2 3 1 1
node 3 1 1 1
node 4 3 0 2
gene 2 1 4 8 0 1 8 1
gene 1 2 4 -5.51292 0 2 -5.51292 1
gene 1 3 4 -5.60647 0 3 -5.60647 1
genomeend 21

/* Organism #22 Fitness: 15.975 Error: 0.00312683 */
genomestart 22
trait 1 0.129779 0.306623 0.0711929 0.201693 0 0 0 0.146504 
trait 2 0.2 0.00743454 0.0306939 0.043306 0.0817483 0 0 0.0468374 
trait 3 0.295493 0.0147014 0.00344311 0.0519152 0.0305585 0.00186026 0.0973235 0.0100788 
node 1 2 1 3
node 2 3 1 1
node 3 1 1 1
node 4 3 0 2
gene 3 1 4 8 0 1 8 1
gene 2 2 4 -6.62741 0 2 -6.62741 1
gene 1 3 4 -6.73507 0 3 -6.73507 1
genomeend 22

/* Organism #23 Fitness: 15.9925 Error: 0.000941731 */
genomestart 23
trait 1 0.128097 0.281027 0.0579667 0.164223 0 0 0 0.0206105 
trait 2 0.2 0.00371727 0.0357823 0.042834 0.0814416 0 0 0.0492092 
trait 3 0.29339 0.0183768 0.00328231 0.0521921 0.0379173 0.00177338 0.0961357 0.0116787 
node 1 3 1 3
node 2 3 1 1
node 3 3 1 1
node 4 2 0 2
gene 1 1 4 7.14254 0 1 7.14254 1
gene 1 2 4 -5.65935 0 2 -5.65935 1
gene 1 3 4 -5.47322 0 3 -5.47322 1
genomeend 23

/* Organism #24 Fitness: 15.9999 Error: 9.6507e-06 */
genomestart 24
trait 1 0.129779 0.306623 0.0711929 0.201693 0 0 0 0.146504 
trait 2 0.2 0.00743454 0.0306939 0.043306 0.0817483 0 0 0.0468374 
trait 3 0.295493 0.0147014 0.00344311 0.0519152 0.0305585 0.00186026 0.0973235 0.0100788 
node 1 2 1 3
node 2 3 1 1
node 3 1 1 1
node 4 3 0 2
gene 3 1 4 8 0 1 8 1
gene 2 2 4 -5.16811 0 2 -5.16811 1
gene 1 3 4 -5.60647 0 3 -5.60647 1
genomeend 24

/* Organism #25 Fitness: 15.1371 Error: 0.109361 */
genomestart 25
trait 1 0.127597 0.282145 0.060416 0.171162 0 0 0 0.0837149 
trait 2 0.2 0.00669109 0.0337305 0.0425054 0.0805074 0 0 0.0478346 
trait 3 0.770323 0.00735071 0 0.0259576 0 0.00178871 0.0825726 0 
node 1 2 1 3
node 2 3 1 1
node 3 1 1 1
node 4 3 0 2
gene 2 1 4 8 0 1 8 1
gene 2 2 4 -4.95119 0 2 -4.95119 1
gene 1 3 4 -7.57409 0 3 -7.57409 1
genomeend 25

/* Organism #26 Fitness: 8.65709 Error: 1.05771 */
genomestart 26
trait 1 0.130518 0.306598 0.0703764 0.19938 0 0 0 0.11461 
trait 2 0.2 0.00780627 0.031884 0.043207 0.082621 0 0 0.0468577 
trait 3 0.295572 0.0183768 0.15653 0.0259576 0.0375409 0.00185515 0.0486618 0.377025 
node 1 2 1 3
node 2 3 1 1
node 3 1 1 1
node 4 3 0 2
gene 3 1 4 -0.568091 0 1 -0.568091 1
gene 2 2 4 2.25758 0 2 2.25758 1
gene 1 3 4 -5.60647 0 3 -5.60647 1
genomeend 26

/* Organism #27 Fitness: 15.9999 Error: 1.11581e-05 */
genomestart 27
trait 1 0.128127 0.285948 0.061559 0.1744 0 0 0 0.0518685 
trait 2 0 0.451096 0.350746 0.045636 0 0 0.599025 0.0513073 
trait 3 0.291152 0.0147014 0.00303637 0.0427349 0.0310186 0.00164051 0.0938784 0.0115857 
node 1 3 1 3
node 2 3 1 1
node 3 3 1 1
node 4 2 0 2
gene 3 1 4 8 0 1 8 1
gene 1 2 4 -5.50642 0 2 -5.50642 1
gene 1 3 4 -5.56629 0 3 -5.56629 1
genomeend 27

/* Organism #28 Fitness: 15.9892 Error: 0.00134486 */
genomestart 28
trait 1 0.127597 0.282145 0.060416 0.171162 0 0 0 0.0837149 
trait 2 0.2 0.00669109 0.0337305 0.0425054 0.0805074 0 0 0.0478346 
trait 3 0.295934 0.00735071 0.00331068 0.0259576 0.0171794 0.00178871 0.0825726 0.0112628 
node 1 2 1 3
node 2 3 1 1
node 3 1 1 1
node 4 2 0 2
gene 2 1 4 7.71944 0 1 7.71944 1
gene 2 2 4 -4.13271 0 2 -4.13271 1
gene 1 3 4 -4.92925 0 3 -4.92925 1
genomeend 28

/* Organism #29 Fitness: 9.00593 Error: 0.999012 */
genomestart 29
trait 1 0.127555 0.288314 0.0636817 0.180414 0 0 0 0.051764 
trait 2 0.2 0.00520418 0.0323353 0.0427708 0.0804967 0 0 0.0476022 
trait 3 0.442994 0.0220521 0.00323501 0.395633 0.2976 0.00174783 0.0492252 0.00554822 
node 1 3 1 3
node 2 3 1 1
node 3 3 1 1
node 4 2 0 2
gene 1 1 4 6.36464 0 1 6.36464 1
gene 1 2 4 -4.11781 0 2 -4.11781 1
gene 1 3 4 -7.7665 0 3 -7.7665 1
genomeend 29

/* Organism #30 Fitness: 15.9999 Error: 8.81551e-06 */
genomestart 30
trait 1 0.127549 0.279212 0.0581299 0.164685 0 0 0 0.0522956 
trait 2 0.2 0.004089 0.0360695 0.0440577 0.081954 0 0 0.0503832 
trait 3 0.293558 0.00735071 0.00319717 0.0392133 0.0173318 0.00172739 0.0881968 0.0117618 
node 1 2 1 3
node 2 3 1 1
node 3 1 1 1
node 4 3 0 2
gene 2 1 4 8 0 1 8 1
gene 1 2 4 -5.02976 0 2 -5.02976 1
gene 1 3 4 -5.48748 0 3 -5.48748 1
genomeend 30

/* Organism #31 Fitness: 15.9983 Error: 0.000207887 */
genomestart 31
trait 1 0.127501 0.276279 0.0558439 0.158209 0 0 0 0.0208763 
trait 2 0.2 0.00148691 0.0384085 0.04561 0.0834007 0 0 0.0529317 
trait 3 0.291182 0.00735071 0.00308366 0.052469 0.0174842 0.00166606 0.093821 0.0122609 
node 1 3 1 3
node 2 1 1 1
node 3 3 1 1
node 4 2 0 2
gene 1 1 4 8 0 1 8 1
gene 1 2 4 -4.98442 0 2 -4.98442 1
gene 1 3 4 -4.73777 0 3 -4.73777 1
genomeend 31

/* Organism #32 Fitness: 15.9999 Error: 8.52031e-06 */
genomestart 32
trait 1 0.127585 0.297258 0.06956 0.197067 0 0 0 0.0828678 
trait 2 0.2 0.00446073 0.0300374 0.0417258 0.0806435 0 0 0.0454017 
trait 3 0.295797 0.0294028 0.00327285 0.0454258 0.0580338 0.00176827 0.095361 0.0100592 
node 1 2 1 3
node 2 3 1 1
node 3 1 1 1
node 4 3 0 2
gene 3 1 4 7.92968 0 1 7.92968 1
gene 1 2 4 -5.13766 0 2 -5.13766 1
gene 1 3 4 -5.47461 0 3 -5.47461 1
genomeend 32

/* Organism #33 Fitness: 15.9999 Error: 8.54629e-06 */
genomestart 33
trait 1 0.131591 0.299091 0.0635184 0.179951 0 0 0 0.051764 
trait 2 0.2 0.004089 0.0395164 0.050248 0.0877151 0 0 0.056236 
trait 3 0.286146 0.0110261 0.156019 0.0400439 0.0243649 0.00157918 0.0584849 0.378874 
node 1 2 1 3
node 2 3 1 1
node 3 1 1 1
node 4 3 0 2
gene 1 1 4 7.97558 0 1 7.97558 1
gene 2 2 4 -5.37594 0 2 -5.37594 1
gene 1 3 4 -5.50375 0 3 -5.50375 1
genomeend 33

/* Organism #34 Fitness: 15.9777 Error: 0.00279171 */
genomestart 34
trait 1 0.126958 0.283567 0.061559 0.1744 0 0 0 0.0520298 
trait 2 0.2 0.00297382 0.0349616 0.0455469 0.0824558 0 0 0.0513248 
trait 3 0.440787 0.0110261 0.00303637 0.39591 0.277167 0.00164051 0.0469105 0.00613044 
node 1 3 1 3
node 2 3 1 1
node 3 3 1 1
node 4 2 0 2
gene 1 1 4 8 0 1 8 1
gene 1 2 4 -4.84075 0 2 -4.84075 1
gene 3 3 4 -6.80625 0 3 -6.80625 1
genomeend 34

/* Organism #35 Fitness: 15.9999 Error: 7.39785e-06 */
genomestart 35
trait 1 0.130518 0.306598 0.0703764 0.19938 0 0 0 0.11461 
trait 2 0.2 0.00780627 0.031884 0.043207 0.082621 0 0 0.0468577 
trait 3 0.295572 0.0183768 0.15653 0.0259576 0.0375409 0.00185515 0.0486618 0.377025 
node 1 2 1 3
node 2 3 1 1
node 3 1 1 1
node 4 3 0 2
gene 3 1 4 8 0 1 8 1
gene 2 2 4 -5.16811 0 2 -5.16811 1
gene 1 3 4 -5.50375 0 3 -5.50375 1
genomeend 35

/* Organism #36 Fitness: 9.00006 Error: 0.99999 */
genomestart 36
trait 1 0.126415 0.290855 0.067274 0.190591 0 0 0 0.0831833 
trait 2 0.2 0.00446073 0.0315146 0.0454837 0.0815109 0 0 0.0497178 
trait 3 0.590391 0.0147014 0.00298907 0.73935 0.536849 0.00161495 0 0 
node 1 3 1 3
node 2 3 1 1
node 3 3 1 1
node 4 2 0 2
gene 3 1 4 8 0 1 8 1
gene 2 2 4 -0.279286 0 2 -0.279286 1
gene 1 3 4 -5.44837 0 3 -5.44837 1
genomeend 36

/* Organism #37 Fitness: 15.9992 Error: 0.000101294 */
genomestart 37
trait 1 0.131926 0.291608 0.0574768 0.162835 0 0 0 0.0208125 
trait 2 0.2 0 0.0459589 0.0573878 0.0919365 0 0 0.0655939 
trait 3 0.276639 0 0.00242153 0.0800879 0.00420663 0.00130832 0.11697 0.0137776 
node 1 3 1 3
node 2 3 1 1
node 3 3 1 1
node 4 2 0 2
gene 1 1 4 8 0 1 8 1
gene 2 2 4 -4.06914 0 2 -4.06914 1
gene 1 3 4 -6.07045 0 3 -6.07045 1
genomeend 37

/* Organism #38 Fitness: 15.9999 Error: 1.51945e-05 */
genomestart 38
trait 1 0.133191 0.308005 0.0669474 0.189666 0 0 0 0.0830486 
trait 2 0.2 0.00966491 0.0353719 0.0444702 0.0843827 0 0 0.0490154 
trait 3 0.29554 0.00735071 0.0035377 0.0778728 0.0172093 0.00191137 0.110926 0.0113606 
node 1 3 1 3
node 2 3 1 1
node 3 3 1 1
node 4 2 0 2
gene 3 1 4 8 0 1 8 1
gene 2 2 4 -5.16811 0 2 -5.16811 1
gene 1 3 4 -5.72546 0 3 -5.72546 1
genomeend 38

/* Organism #39 Fitness: 15.9978 Error: 0.000278133 */
genomestart 39
trait 1 0.130853 0.299115 0.0643348 0.182264 0 0 0 0.0836582 
trait 2 0.2 0.00371727 0.0383264 0.0503469 0.0868424 0 0 0.0562157 
trait 3 0.286066 0.00735071 0.00293232 0.0660015 0.0173826 0.00158429 0.107147 0.0119282 
node 1 2 1 3
node 2 3 1 1
node 3 1 1 1
node 4 3 0 2
gene 1 1 4 8 0 1 8 1
gene 2 2 4 -6.1155 0 2 -6.1155 1
gene 1 3 4 -3.63009 0 3 -3.63009 1
genomeend 39

/* Organism #40 Fitness: 15.9999 Error: 9.6507e-06 */
genomestart 40
trait 1 0.129779 0.306623 0.0711929 0.201693 0 0 0 0.146504 
trait 2 0.2 0.00743454 0.0306939 0.043306 0.0817483 0 0 0.0468374 
trait 3 0.295493 0.0147014 0.00344311 0.0519152 0.0305585 0.00186026 0.0973235 0.0100788 
node 1 2 1 3
node 2 3 1 1
node 3 1 1 1
node 4 3 0 2
gene 3 1 4 8 0 1 8 1
gene 2 2 4 -5.16811 0 2 -5.16811 1
gene 1 3 4 -5.60647 0 3 -5.60647 1
genomeend 40

/* Organism #41 Fitness: 3.99445 Error: 2.00139 */
genomestart 41
trait 1 0.129225 0.29063 0.0623754 0.176713 0 0 0 0.0836866 
trait 2 0.2 0.00520418 0.0360285 0.0464261 0.0836749 0 0 0.0520251 
trait 3 0.291 0.00735071 0.0031215 0.0459796 0.017281 0.0016865 0.0948596 0.0115955 
node 1 3 1 3
node 2 3 1 1
node 3 3 1 1
node 4 2 0 2
gene 3 1 4 8 0 1 8 1
gene 1 2 4 1.41169 0 2 1.41169 1
gene 1 3 4 -6.66442 0 3 -6.66442 1
genomeend 41

/* Organism #42 Fitness: 14.3599 Error: 0.210551 */
genomestart 42
trait 1 0.129755 0.294433 0.0635184 0.179951 0 0 0 0.0518402 
trait 2 0.2 0.00223036 0.0379981 0.0495568 0.08629 0 0 0.0554978 
trait 3 0.286218 0.0147014 0.00284719 0.0627568 0.0311202 0.00153829 0.106165 0.0119184 
node 1 3 1 3
node 2 3 1 1
node 3 3 1 1
node 4 2 0 2
gene 3 1 4 8 0 1 8 1
gene 2 2 4 -7.73086 0 2 -7.73086 1
gene 1 3 4 -6.49819 0 3 -6.49819 1
genomeend 42

/* Organism #43 Fitness: 8.99393 Error: 1.00101 */
genomestart 43
trait 1 0.128694 0.285774 0.0600894 0.170237 0 0 0 0.0203447 
trait 2 0.2 0.00594764 0.033156 0.040058 0.0794825 0 0 0.0454867 
trait 3 0.295598 0.0294028 0.00348095 0.0519152 0.0583505 0.0018807 0.0984505 0.0110964 
node 1 3 1 3
node 2 3 1 1
node 3 3 1 1
node 4 2 0 2
gene 1 1 4 1.58096 0 1 1.58096 1
gene 1 2 4 -0.073705 0 2 -0.073705 1
gene 1 3 4 0.906912 0 3 0.906912 1
genomeend 43

/* Organism #44 Fitness: 1.00007 Error: 2.99996 */
genomestart 44
trait 1 0.13031 0.288691 0.0587831 0.166536 0 0 0 0.0205786 
trait 2 0.2 0.00297382 0.0395574 0.0487229 0.0857095 0 0 0.0555403 
trait 3 0.286118 0.0147014 0.00295124 0.0660015 0.0312785 0.00159451 0.10771 0.012437 
node 1 3 1 3
node 2 3 1 1
node 3 3 1 1
node 4 2 0 2
gene 1 1 4 -2.0754 0 1 -2.0754 1
gene 1 2 4 -3.55796 0 2 -3.55796 1
gene 1 3 4 -4.92314 0 3 -4.92314 1
genomeend 44

/* Organism #45 Fitness: 15.9743 Error: 0.00321113 */
genomestart 45
trait 1 0.126415 0.290855 0.067274 0.190591 0 0 0 0.0831833 
trait 2 0.2 0.00446073 0.0315146 0.0454837 0.0815109 0 0 0.0497178 
trait 3 0.590391 0.0147014 0.00298907 0.73935 0.536849 0.00161495 0 0 
node 1 3 1 3
node 2 3 1 1
node 3 3 1 1
node 4 2 0 2
gene 1 1 4 8 0 1 8 1
gene 2 2 4 -6.8347 0 2 -6.8347 1
gene 1 3 4 -5.22405 0 3 -5.22405 1
genomeend 45

/* Organism #46 Fitness: 15.98 Error: 0.00250515 */
genomestart 46
trait 1 0.130931 0.291321 0.0602527 0.170699 0 0 0 0.0519589 
trait 2 0.2 0.00631936 0.0383674 0.0470083 0.0849921 0 0 0.0531141 
trait 3 0.291024 0.00367535 0.0031688 0.0589583 0.0106064 0.00171205 0.101661 0.0122364 
node 1 3 1 3
node 2 3 1 1
node 3 3 1 1
node 4 2 0 2
gene 2 1 4 8 0 1 8 1
gene 2 2 4 -4.49673 0 2 -4.49673 1
gene 1 3 4 -6.7842 0 3 -6.7842 1
genomeend 46

/* Organism #47 Fitness: 15.7409 Error: 0.0325254 */
genomestart 47
trait 1 0.128688 0.294384 0.0658044 0.186428 0 0 0 0.115109 
trait 2 0.2 0.00706282 0.0322122 0.0429057 0.0811278 0 0 0.047336 
trait 3 0.295713 0.0110261 0.0033769 0.0389364 0.023869 0.00182449 0.0899481 0.0106708 
node 1 2 1 3
node 2 3 1 1
node 3 1 1 1
node 4 3 0 2
gene 2 1 4 5.95652 0 1 5.95652 1
gene 2 2 4 -3.05587 0 2 -3.05587 1
gene 1 3 4 -3.58968 0 3 -3.58968 1
genomeend 47

/* Organism #48 Fitness: 15.9925 Error: 0.000936545 */
genomestart 48
trait 1 0.128688 0.294384 0.0658044 0.186428 0 0 0 0.115109 
trait 2 0.2 0.00706282 0.0322122 0.0429057 0.0811278 0 0 0.047336 
trait 3 0.295713 0.0110261 0.0033769 0.0389364 0.023869 0.00182449 0.0899481 0.0106708 
node 1 2 1 3
node 2 3 1 1
node 3 1 1 1
node 4 3 0 2
gene 2 1 4 8 0 1 8 1
gene 1 2 4 -6.56705 0 2 -6.56705 1
gene 1 3 4 -3.36105 0 3 -3.36105 1
genomeend 48

/* Organism #49 Fitness: 15.9999 Error: 6.35377e-06 */
genomestart 49
trait 1 0.129761 0.286877 0.0589464 0.166998 0 0 0 0.0522637 
trait 2 0.2 0.00334554 0.0398447 0.0499466 0.0862219 0 0 0.0567143 
trait 3 0.286287 0.00367535 0.00286611 0.0530227 0.010693 0.00154851 0.0997712 0.0125202 
node 1 2 1 3
node 2 3 1 1
node 3 1 1 1
node 4 3 0 2
gene 2 1 4 7.98779 0 1 7.98779 1
gene 2 2 4 -5.27203 0 2 -5.27203 1
gene 1 3 4 -5.4095 0 3 -5.4095 1
genomeend 49

/* Species #2 : (Size 30) (AF 8.93962) (Age 10)  */


/* Organism #50 Fitness: 15.991 Error: 0.00112925 */
genomestart 50
trait 1 0.1 0.0576945 0 0 0 0 0 0.0136104 
trait 2 0.2 0 0.0210098 0.0202803 0.0336948 0 0 0.0346538 
trait 3 0.300856 0 0 0 0.00152968 0 0.0487327 0.00501003 
node 1 3 1 3
node 2 3 1 1
node 3 3 1 1
node 4 2 0 2
node 23 1 0 0
gene 2 1 4 6.82498 0 1 6.82498 1
gene 3 2 4 -1.9135 0 2 -1.9135 1
gene 1 3 4 -3.23198 0 3 -3.23198 1
gene 3 2 23 2.8698 0 40 2.8698 1
gene 3 23 4 -3.5106 0 41 -3.5106 1
gene 1 1 23 -0.788814 0 78 -0.788814 1
genomeend 50

/* Organism #51 Fitness: 6.25064 Error: 1.49987 */
genomestart 51
trait 1 0.1 0.0288473 0.270792 0.498055 0.0989406 0.0835492 0 0.00680518 
trait 2 0.2 0 0.0210098 0.0202803 0.0336948 0 0 0.0346538 
trait 3 0.263249 0 0 0 0.00133847 0 0.0426411 0.00501003 
node 1 3 1 3
node 2 3 1 1
node 3 3 1 1
node 4 2 0 2
node 23 1 0 0
gene 2 1 4 5.13135 0 1 5.13135 1
gene 3 2 4 -3.4401 0 2 -3.4401 0
gene 1 3 4 -3.31799 0 3 -3.31799 1
gene 3 2 23 1.64613 0 40 1.64613 1
gene 3 23 4 -1.12387 0 41 -1.12387 1
gene 1 1 23 -2.04768 0 78 -2.04768 1
genomeend 51

/* Organism #52 Fitness: 12.2264 Error: 0.503376 */
genomestart 52
trait 1 0.1 0.0288473 0.270792 0.498055 0.0989406 0.0835492 0 0.00680518 
trait 2 0.2 0 0.0210098 0.0202803 0.0336948 0 0 0.0346538 
trait 3 0.225642 0 0 0 0.00114726 0 0.0365495 0.00501003 
node 1 3 1 3
node 2 3 1 1
node 3 3 1 1
node 4 2 0 2
node 23 1 0 0
gene 2 1 4 7.93901 0 1 7.93901 1
gene 3 2 4 2.4386 0 2 2.4386 0
gene 1 3 4 -5.20913 0 3 -5.20913 1
gene 3 2 23 2.50707 0 40 2.50707 1
gene 3 23 4 -3.88552 0 41 -3.88552 1
gene 1 1 23 -0.66826 0 78 -0.66826 1
genomeend 52

/* Organism #53 Fitness: 6.65101 Error: 1.42104 */
genomestart 53
trait 1 0.1 0.0576945 0 0 0 0 0 0.0136104 
trait 2 0.2 0 0.0210098 0.0202803 0.0336948 0 0 0.0346538 
trait 3 0.225642 0 0 0 0.00114726 0 0.0365495 0.00501003 
node 1 3 1 3
node 2 3 1 1
node 3 3 1 1
node 4 2 0 2
node 23 1 0 0
node 50 1 0 0
gene 2 1 4 5.51106 0 1 5.51106 1
gene 3 2 4 0.31829 0 2 0.31829 0
gene 1 3 4 -3.32812 0 3 -3.32812 0
gene 3 2 23 1.81091 0 40 1.68591 1
gene 3 23 4 -3.78258 0 41 -2.8671 1
gene 1 1 23 -0.239805 0 78 -0.239805 1
gene 1 3 50 1 0 104 0 1
gene 1 50 4 -3.32812 0 105 0 1
genomeend 53

/* Organism #54 Fitness: 2.40827 Error: 2.44814 */
genomestart 54
trait 1 0.1 0.0576945 0 0 0 0 0 0.0136104 
trait 2 0.2 0 0.0210098 0.0202803 0.0336948 0 0 0.0346538 
trait 3 0.225642 0 0 0 0.00114726 0 0.0365495 0.00501003 
node 1 3 1 3
node 2 3 1 1
node 3 3 1 1
node 4 2 0 2
node 23 1 0 0
gene 2 1 4 5.16229 0 1 5.16229 1
gene 3 2 4 1.1277 0 2 1.1277 0
gene 1 3 4 -2.40782 0 3 -2.40782 1
gene 3 2 23 -1.1752 0 40 -1.1752 1
gene 3 23 4 -4.32034 0 41 -4.32034 1
gene 1 1 23 0.106144 0 78 0.106144 1
genomeend 54

/* Organism #55 Fitness: 12.2466 Error: 0.50048 */
genomestart 55
trait 1 0.1 0.0576945 0 0 0 0 0 0.0136104 
trait 2 0.2 0 0.0210098 0.0202803 0.0336948 0 0 0.0346538 
trait 3 0.188035 0 0 0 0.000956051 0 0.0304579 0.00501003 
node 1 3 1 3
node 2 3 1 1
node 3 3 1 1
node 4 2 0 2
node 23 1 0 0
gene 2 1 4 5.74385 0 1 5.74385 1
gene 3 2 4 -0.266957 0 2 -0.266957 0
gene 1 3 4 -3.67108 0 3 -3.67108 1
gene 3 2 23 2.779 0 40 2.654 1
gene 3 23 4 -4.15754 0 41 -3.6998 1
gene 2 3 23 -1.13163 0 44 -1.13163 1
genomeend 55

/* Organism #56 Fitness: 3.07132 Error: 2.24748 */
genomestart 56
trait 1 0.1 0.0576945 0 0 0 0 0 0.0136104 
trait 2 0.2 0 0.0210098 0.0202803 0.0336948 0 0 0.0346538 
trait 3 0.225642 0 0 0 0.00114726 0 0.0365495 0.00501003 
node 1 3 1 3
node 2 3 1 1
node 3 3 1 1
node 4 2 0 2
node 23 3 0 0
gene 2 1 4 3.36546 0 1 3.36546 1
gene 3 2 4 0.687512 0 2 0.687512 0
gene 1 3 4 -3.57201 0 3 -3.57201 1
gene 3 2 23 2.60404 0 40 2.60404 1
gene 3 23 4 -3.58632 0 41 -3.58632 1
gene 2 3 23 1.36807 0 44 1.36807 1
genomeend 56

/* Organism #57 Fitness: 6.25 Error: 1.5 */
genomestart 57
trait 1 0.1 0.0288473 0.270792 0.498055 0.0989406 0.0835492 0 0.00680518 
trait 2 0.2 0 0.0210098 0.0202803 0.0336948 0 0 0.0346538 
trait 3 0.300856 0 0 0 0.00152968 0 0.0487327 0.00501003 
node 1 3 1 3
node 2 3 1 1
node 3 3 1 1
node 4 2 0 2
node 23 3 0 0
gene 2 1 4 7.92211 0 1 7.92211 1
gene 3 2 4 -1.80161 0 2 -1.80161 0
gene 1 3 4 -1.11158 0 3 -1.11158 1
gene 3 2 23 1.70074 0 40 1.70074 1
gene 3 23 4 -3.43846 0 41 -3.43846 1
gene 1 1 23 0.950177 0 78 0.950177 1
genomeend 57

/* Organism #58 Fitness: 4.09596 Error: 1.97615 */
genomestart 58
trait 1 0.1 0.0288473 0.270792 0.498055 0.0989406 0.0835492 0 0.00680518 
trait 2 0.2 0 0.0210098 0.0202803 0.0336948 0 0 0.0346538 
trait 3 0.263249 0 0 0 0.00133847 0 0.0426411 0.00501003 
node 1 3 1 3
node 2 3 1 1
node 3 3 1 1
node 4 2 0 2
node 23 1 0 0
gene 2 1 4 4.96957 0 1 4.96957 1
gene 3 2 4 0.473289 0 2 0.473289 1
gene 1 3 4 -1.509 0 3 -1.509 1
gene 3 2 23 2.90075 0 40 2.90075 1
gene 3 23 4 -4.55117 0 41 -4.55117 1
gene 1 1 23 0.784854 0 78 0.784854 1
genomeend 58

/* Organism #59 Fitness: 6.25 Error: 1.5 */
genomestart 59
trait 1 0.1 0.0576945 0 0 0 0 0 0.0136104 
trait 2 0.2 0 0.0210098 0.0202803 0.0336948 0 0 0.0346538 
trait 3 0.225642 0 0 0 0.00114726 0 0.0365495 0.00501003 
node 1 3 1 3
node 2 3 1 1
node 3 3 1 1
node 4 2 0 2
node 23 1 0 0
gene 2 1 4 7.66148 0 1 7.66148 1
gene 3 2 4 -2.5051 0 2 -2.5051 0
gene 1 3 4 -1.72206 0 3 -1.72206 1
gene 3 2 23 3.20629 0 40 3.20629 1
gene 3 23 4 -2.32998 0 41 -2.32998 1
gene 2 3 23 -3.03034 0 44 -3.03034 1
genomeend 59

/* Organism #60 Fitness: 2.38738 Error: 2.45488 */
genomestart 60
trait 1 0.1 0.0576945 0 0 0 0 0 0.0136104 
trait 2 0.2 0 0.0210098 0.0202803 0.0336948 0 0 0.0346538 
trait 3 0.346071 0 0.0103325 0 0.0105095 0.0112307 0 0.00501003 
node 1 3 1 3
node 2 3 1 1
node 3 3 1 1
node 4 2 0 2
node 23 1 0 0
gene 2 1 4 4.05965 0 1 4.05965 1
gene 3 2 4 1.66906 0 2 1.66906 0
gene 1 3 4 -4.41956 0 3 -4.41956 1
gene 3 2 23 0.284761 0 40 0.284761 1
gene 3 23 4 -5.85399 0 41 -5.85399 1
gene 2 3 23 -2.90284 0 44 -2.90284 1
genomeend 60

/* Organism #61 Fitness: 6.25 Error: 1.5 */
genomestart 61
trait 1 0.1 0.0576945 0 0 0 0 0 0.0136104 
trait 2 0.2 0 0.0210098 0.0202803 0.0336948 0 0 0.0346538 
trait 3 0.263249 0 0.00516624 0 0.0060196 0.00633781 0.0428671 0.00501003 
node 1 3 1 3
node 2 3 1 1
node 3 3 1 1
node 4 2 0 2
node 23 1 0 0
gene 2 1 4 7.73623 0 1 7.73623 1
gene 3 2 4 -0.222331 0 2 -0.222331 0
gene 1 3 4 -3.26399 0 3 -3.26399 1
gene 3 2 23 2.70987 0 40 2.70987 1
gene 3 23 4 -1.70015 0 41 -1.70015 1
gene 1 1 23 1.63495 0 78 1.63495 1
genomeend 61

/* Organism #62 Fitness: 15.9782 Error: 0.00272997 */
genomestart 62
trait 1 0.1 0.0576945 0 0 0 0 0 0.0136104 
trait 2 0.2 0 0.0210098 0.0202803 0.0336948 0 0 0.0346538 
trait 3 0.225642 0 0 0 0.00114726 0 0.0365495 0.00501003 
node 1 3 1 3
node 2 3 1 1
node 3 3 1 1
node 4 2 0 2
node 23 1 0 0
gene 2 1 4 5.58669 0 1 5.58669 1
gene 3 2 4 -0.38989 0 2 -0.38989 1
gene 1 3 4 -3.36393 0 3 -3.36393 1
gene 3 2 23 1.61859 0 40 1.43109 1
gene 3 23 4 -3.83405 0 41 -3.03301 1
gene 1 1 23 -0.239805 0 78 -0.239805 1
genomeend 62

/* Organism #63 Fitness: 12.0949 Error: 0.522226 */
genomestart 63
trait 1 0.1 0.0576945 0 0 0 0 0 0.0136104 
trait 2 0.2 0 0.0210098 0.0202803 0.0336948 0 0 0.0346538 
trait 3 0.225642 0 0 0 0.00114726 0 0.0365495 0.00501003 
node 1 3 1 3
node 2 3 1 1
node 3 3 1 1
node 4 2 0 2
node 23 1 0 0
gene 2 1 4 6.24365 0 1 6.24365 1
gene 3 2 4 -0.797605 0 2 -0.797605 0
gene 1 3 4 -3.31585 0 3 -3.31585 1
gene 3 2 23 2.34035 0 40 2.27785 1
gene 3 23 4 -3.69806 0 41 -3.35476 1
gene 1 1 23 -0.788814 0 78 -0.788814 1
genomeend 63

/* Organism #64 Fitness: 4.00001 Error: 2 */
genomestart 64
trait 1 0.1 0.0576945 0 0 0 0 0 0.0136104 
trait 2 0.2 0 0.0210098 0.0202803 0.0336948 0 0 0.0346538 
trait 3 0.225642 0 0 0 0.00114726 0 0.0365495 0.00501003 
node 1 3 1 3
node 2 3 1 1
node 3 3 1 1
node 4 2 0 2
node 23 3 0 0
gene 2 1 4 4.92351 0 1 4.92351 1
gene 3 2 4 -2.08141 0 2 -2.08141 0
gene 1 3 4 -3.12065 0 3 -3.12065 1
gene 3 2 23 -0.270794 0 40 -0.270794 1
gene 3 23 4 -4.87054 0 41 -4.87054 1
gene 1 3 23 0.730109 0 44 0.730109 1
genomeend 64

/* Organism #65 Fitness: 11.8566 Error: 0.556661 */
genomestart 65
trait 1 0.1 0.0576945 0 0 0 0 0 0.0136104 
trait 2 0.2 0 0.0210098 0.0202803 0.0336948 0 0 0.0346538 
trait 3 0.263249 0 0 0 0.00133847 0 0.0426411 0.00501003 
node 1 3 1 3
node 2 2 1 1
node 3 3 1 1
node 4 2 0 2
node 23 1 0 0
gene 2 1 4 6.06682 0 1 6.06682 1
gene 3 2 4 -0.0943403 0 2 -0.0943403 0
gene 1 3 4 -3.17631 0 3 -3.17631 1
gene 3 2 23 2.30343 0 40 2.30343 1
gene 3 23 4 -3.47757 0 41 -3.47757 1
gene 1 1 23 -1.21062 0 78 -1.21062 1
genomeend 65

/* Organism #66 Fitness: 12.2393 Error: 0.501534 */
genomestart 66
trait 1 0.1 0.0576945 0 0 0 0 0 0.0136104 
trait 2 0.2 0 0.0210098 0.0202803 0.0336948 0 0 0.0346538 
trait 3 0.263249 0 0 0 0.00133847 0 0.0426411 0.00501003 
node 1 3 1 3
node 2 3 1 1
node 3 3 1 1
node 4 2 0 2
node 23 1 0 0
gene 2 1 4 5.13135 0 1 5.13135 1
gene 3 2 4 -0.270622 0 2 -0.270622 0
gene 1 3 4 -3.12065 0 3 -3.12065 1
gene 3 2 23 1.42626 0 40 1.17626 1
gene 3 23 4 -3.44454 0 41 -2.52906 1
gene 2 3 23 -0.626521 0 44 -0.626521 1
genomeend 66

/* Organism #67 Fitness: 12.2211 Error: 0.504134 */
genomestart 67
trait 1 0.1 0.0576945 0 0 0 0 0 0.0136104 
trait 2 0.2 0 0.0210098 0.0202803 0.0336948 0 0 0.0346538 
trait 3 0.188035 0 0 0 0.000956051 0 0.0304579 0.00501003 
node 1 3 1 3
node 2 3 1 1
node 3 3 1 1
node 4 2 0 2
node 23 1 0 0
gene 2 1 4 5.66232 0 1 5.66232 1
gene 3 2 4 0.31829 0 2 0.31829 0
gene 1 3 4 -3.39973 0 3 -3.39973 1
gene 3 2 23 1.42626 0 40 1.17626 1
gene 3 23 4 -3.44454 0 41 -2.52906 1
gene 2 3 23 -0.626521 0 44 -0.626521 1
genomeend 67

/* Organism #68 Fitness: 15.8888 Error: 0.01392 */
genomestart 68
trait 1 0.1 0.0576945 0 0 0 0 0 0.0136104 
trait 2 0.2 0 0.0210098 0.0202803 0.0336948 0 0 0.0346538 
trait 3 0.225642 0 0 0 0.00114726 0 0.0365495 0.00501003 
node 1 3 1 3
node 2 3 1 1
node 3 3 1 1
node 4 2 0 2
node 23 1 0 0
gene 2 1 4 5.93371 0 1 5.93371 1
gene 3 2 4 -0.680681 0 2 -0.680681 1
gene 1 3 4 -3.77482 0 3 -3.77482 1
gene 3 2 23 2.779 0 40 2.654 1
gene 3 23 4 -4.32656 0 41 -3.86882 1
gene 1 1 23 -0.239805 0 78 -0.239805 1
genomeend 68

/* Organism #69 Fitness: 3.99984 Error: 2.00004 */
genomestart 69
trait 1 0.1 0.0576945 0 0 0 0 0 0.0136104 
trait 2 0.2 0 0.0210098 0.0202803 0.0336948 0 0 0.0346538 
trait 3 0.225642 0 0 0 0.00114726 0 0.0365495 0.00501003 
node 1 3 1 3
node 2 3 1 1
node 3 3 1 1
node 4 2 0 2
node 23 1 0 0
gene 2 1 4 3.34805 0 1 3.34805 1
gene 3 2 4 1.13676 0 2 1.13676 0
gene 1 3 4 -3.31093 0 3 -3.31093 1
gene 3 2 23 -0.317263 0 40 -0.317263 1
gene 3 23 4 -3.69695 0 41 -3.69695 1
gene 1 1 23 -2.30915 0 78 -2.30915 1
genomeend 69

/* Organism #70 Fitness: 6.25003 Error: 1.49999 */
genomestart 70
trait 1 0.1 0.0576945 0 0 0 0 0 0.0136104 
trait 2 0.2 0 0.0210098 0.0202803 0.0336948 0 0 0.0346538 
trait 3 0.300856 0 0 0 0.00152968 0 0.0487327 0.00501003 
node 1 3 1 3
node 2 3 1 1
node 3 3 1 1
node 4 2 0 2
node 23 1 0 0
gene 2 1 4 3.58472 0 1 3.58472 1
gene 3 2 4 1.06871 0 2 1.06871 0
gene 1 3 4 -5.44804 0 3 -5.44804 1
gene 3 2 23 2.85319 0 40 2.85319 1
gene 3 23 4 -0.982196 0 41 -0.982196 1
gene 1 1 23 -0.00176382 0 78 -0.00176382 1
genomeend 70

/* Organism #71 Fitness: 15.9112 Error: 0.0111155 */
genomestart 71
trait 1 0.1 0.0288473 0.270792 0.498055 0.0989406 0.0835492 0 0.00680518 
trait 2 0.2 0 0.0210098 0.0202803 0.0336948 0 0 0.0346538 
trait 3 0.225642 0 0 0 0.00114726 0 0.0365495 0.00501003 
node 1 3 1 3
node 2 3 1 1
node 3 3 1 1
node 4 2 0 2
node 23 1 0 0
gene 2 1 4 6.83116 0 1 6.83116 1
gene 3 2 4 -1.37559 0 2 -1.37559 1
gene 1 3 4 -3.3701 0 3 -3.3701 1
gene 3 2 23 1.72852 0 40 1.66602 1
gene 3 23 4 -3.21605 0 41 -2.87274 1
gene 1 1 23 -0.66826 0 78 -0.66826 1
gene 1 3 23 -0.528802 0 107 -0.528802 1
genomeend 71

/* Organism #72 Fitness: 4.93786 Error: 1.77787 */
genomestart 72
trait 1 0.1 0.0576945 0 0 0 0 0 0.0136104 
trait 2 0.2 0 0.0210098 0.0202803 0.0336948 0 0 0.0346538 
trait 3 0.263249 0 0 0 0.00133847 0 0.0426411 0.00501003 
node 1 3 1 3
node 2 3 1 1
node 3 3 1 1
node 4 2 0 2
node 23 1 0 0
gene 2 1 4 3.53112 0 1 3.53112 1
gene 3 2 4 0.797781 0 2 0.797781 1
gene 1 3 4 -3.22439 0 3 -3.22439 1
gene 3 2 23 -0.0464825 0 40 -0.0464825 1
gene 3 23 4 -3.29734 0 41 -3.29734 1
gene 1 1 23 1.10682 0 78 1.10682 1
genomeend 72

/* Organism #73 Fitness: 12.2286 Error: 0.503059 */
genomestart 73
trait 1 0.1 0.0288473 0.0341833 0.498055 0.0989406 0.712331 0.255998 0.00680518 
trait 2 0.2 0 0.0210098 0.0202803 0.0336948 0 0 0.0346538 
trait 3 0.263249 0 0 0 0.00133847 0 0.0426411 0.00501003 
node 1 3 1 3
node 2 3 1 1
node 3 3 1 1
node 4 2 0 2
node 23 1 0 0
gene 2 1 4 8 0 1 8 1
gene 3 2 4 -1.22911 0 2 -1.22911 0
gene 1 3 4 -4.74549 0 3 -4.74549 1
gene 3 2 23 3.39104 0 40 3.39104 1
gene 3 23 4 -4.42983 0 41 -4.42983 1
gene 1 1 23 -1.31663 0 78 -1.31663 1
genomeend 73

/* Organism #74 Fitness: 11.0386 Error: 0.677567 */
genomestart 74
trait 1 0.1 0.0288473 0.270792 0.498055 0.0989406 0.0835492 0 0.00680518 
trait 2 0.2 0 0.0210098 0.0202803 0.0336948 0 0 0.0346538 
trait 3 0.225642 0 0 0 0.00114726 0 0.0365495 0.00501003 
node 1 3 1 3
node 2 3 1 1
node 3 3 1 1
node 4 2 0 2
node 23 1 0 0
gene 2 1 4 7.17818 0 1 7.17818 1
gene 3 2 4 -1.66639 0 2 -1.66639 0
gene 1 3 4 -3.78099 0 3 -3.78099 1
gene 3 2 23 2.88893 0 40 2.88893 1
gene 3 23 4 -3.70856 0 41 -3.70856 1
gene 1 1 23 -0.66826 0 78 -0.66826 1
genomeend 74

/* Organism #75 Fitness: 12.239 Error: 0.50157 */
genomestart 75
trait 1 0.1 0.0576945 0 0 0 0 0 0.0136104 
trait 2 0.2 0 0.0210098 0.0202803 0.0336948 0 0 0.0346538 
trait 3 0.225642 0 0 0 0.00114726 0 0.0365495 0.00501003 
node 1 3 1 3
node 2 3 1 1
node 3 3 1 1
node 4 2 0 2
node 23 1 0 0
gene 2 1 4 5.66232 0 1 5.66232 1
gene 3 2 4 -1.09807 0 2 -1.09807 0
gene 1 3 4 -3.32812 0 3 -3.32812 1
gene 3 2 23 1.42626 0 40 1.17626 1
gene 3 23 4 -3.88552 0 41 -3.19892 1
gene 1 1 23 -0.239805 0 78 -0.239805 1
genomeend 75

/* Organism #76 Fitness: 9 Error: 1 */
genomestart 76
trait 1 0.1 0 0.541585 0.996111 0.197881 0.167098 0 0 
trait 2 0.2 0 0.0210098 0.0202803 0.0336948 0 0 0.0346538 
trait 3 0.300856 0 0 0 0.00152968 0 0.0487327 0.00501003 
node 1 3 1 3
node 2 3 1 1
node 3 3 1 1
node 4 2 0 2
node 23 1 0 0
gene 2 1 4 6.43805 0 1 6.43805 1
gene 3 2 4 -0.56581 0 2 -0.56581 1
gene 1 3 4 0.661927 0 3 0.661927 1
gene 3 2 23 -0.844175 0 40 -0.844175 1
gene 3 23 4 -1.17888 0 41 -1.17888 1
gene 1 1 23 0.283394 0 78 0.283394 1
genomeend 76

/* Organism #77 Fitness: 5.77009 Error: 1.5979 */
genomestart 77
trait 1 0.1 0.0576945 0 0 0 0 0 0.0136104 
trait 2 0.2 0 0.0210098 0.0202803 0.0336948 0 0 0.0346538 
trait 3 0.188035 0 0 0 0.000956051 0 0.0304579 0.00501003 
node 1 3 1 3
node 2 3 1 1
node 3 3 1 1
node 4 2 0 2
node 23 1 0 0
gene 2 1 4 3.90437 0 1 3.90437 1
gene 3 2 4 -0.118538 0 2 -0.118538 0
gene 1 3 4 -2.40043 0 3 -2.40043 1
gene 3 2 23 1.54144 0 40 1.54144 1
gene 3 23 4 -3.45517 0 41 -3.45517 1
gene 2 3 23 1.96223 0 44 1.96223 1
genomeend 77

/* Organism #78 Fitness: 12.206 Error: 0.506293 */
genomestart 78
trait 1 0.1 0.0576945 0 0 0 0 0 0.0136104 
trait 2 0.2 0 0.0210098 0.0202803 0.0336948 0 0 0.0346538 
trait 3 0.225642 0 0.00516624 0 0.00582839 0.00633781 0.0367755 0.00501003 
node 1 3 1 3
node 2 3 1 1
node 3 3 1 1
node 4 2 0 2
node 23 1 0 0
gene 2 1 4 5.47246 0 1 5.47246 1
gene 3 2 4 0.179036 0 2 0.179036 0
gene 1 3 4 -3.12065 0 3 -3.12065 1
gene 3 2 23 1.43656 0 40 1.24906 1
gene 3 23 4 -3.44454 0 41 -2.52906 1
gene 2 3 23 -0.626521 0 44 -0.626521 1
genomeend 78

/* Organism #79 Fitness: 6.25 Error: 1.5 */
genomestart 79
trait 1 0.1 0.0576945 0 0 0 0 0 0.0136104 
trait 2 0.2 0 0.0210098 0.0202803 0.0336948 0 0 0.0346538 
trait 3 0.188035 0 0.00516624 0 0.00563718 0.00633781 0.0306839 0.00501003 
node 1 3 1 3
node 2 3 1 1
node 3 3 1 1
node 4 2 0 2
node 23 1 0 0
gene 2 1 4 6.54111 0 1 6.54111 1
gene 3 2 4 2.27469 0 2 2.27469 0
gene 1 3 4 -3.00842 0 3 -3.00842 1
gene 3 2 23 2.09647 0 40 2.09647 1
gene 3 23 4 -0.443879 0 41 -0.443879 1
gene 2 3 23 -1.02909 0 44 -1.02909 1
genomeend 79

/* Species #3 : (Size 26) (AF 7.86388) (Age 5)  */


/* Organism #80 Fitness: 12.0447 Error: 0.529452 */
genomestart 80
trait 1 0.1 0.0576945 0 0 0 0 0 0.0136104 
trait 2 0.2 0 0.0210098 0.0202803 0.0336948 0 0 0.0346538 
trait 3 0.300856 0 0.0826598 0 0.0764277 0.101405 0.0523488 0.00501003 
node 1 3 1 3
node 2 3 1 1
node 3 3 1 1
node 4 2 0 2
node 23 1 0 0
node 37 1 0 0
gene 2 1 4 5.38806 0 1 5.38806 1
gene 3 2 4 0.0421844 0 2 0.0421844 0
gene 1 3 4 -2.67917 0 3 -2.67917 1
gene 3 2 23 2.92316 0 40 2.92316 1
gene 3 23 4 -3.39424 0 41 -3.39424 1
gene 1 3 37 1.98201 0 74 1.98201 1
gene 1 37 4 0.527005 0 75 0.527005 1
genomeend 80

/* Organism #81 Fitness: 8.94605 Error: 1.00901 */
genomestart 81
trait 1 0.1 0.0576945 0 0 0 0 0 0.0136104 
trait 2 0.172866 0.0852916 0.0210098 0.0202803 0.0336948 0.449787 0.231699 0.0346538 
trait 3 0.300856 0 0.0826598 0 0.0764277 0.101405 0.0523488 0.00501003 
node 1 3 1 3
node 2 3 1 1
node 3 3 1 1
node 4 2 0 2
node 23 1 0 0
node 37 1 0 0
gene 2 1 4 4.27357 0 1 4.27357 1
gene 3 2 4 0.970795 0 2 0.970795 0
gene 1 3 4 -0.510295 0 3 -0.510295 0
gene 3 2 23 4.43558 0 40 4.43558 1
gene 3 23 4 1.58025 0 41 1.58025 1
gene 1 3 37 -1.79348 0 74 -1.79348 1
gene 1 37 4 1.90925 0 75 1.90925 1
genomeend 81

/* Organism #82 Fitness: 8.95328 Error: 1.0078 */
genomestart 82
trait 1 0.1 0.0576945 0 0 0 0 0 0.0136104 
trait 2 0.2 0 0.0210098 0.0202803 0.0336948 0 0 0.0346538 
trait 3 0.300856 0 0.0826598 0 0.0764277 0.101405 0.0523488 0.00501003 
node 1 3 1 3
node 2 3 1 1
node 3 3 1 1
node 4 2 0 2
node 23 1 0 0
node 37 1 0 0
gene 2 1 4 6.61402 0 1 6.61402 1
gene 3 2 4 2.06331 0 2 2.06331 0
gene 1 3 4 -3.12568 0 3 -3.12568 0
gene 3 2 23 2.89566 0 40 2.89566 1
gene 3 23 4 -3.72158 0 41 -3.72158 1
gene 1 3 37 0.686458 0 74 0.686458 1
gene 1 37 4 1.96831 0 75 1.96831 1
genomeend 82

/* Organism #83 Fitness: 10.4531 Error: 0.766869 */
genomestart 83
trait 1 0.1 0.0576945 0 0 0 0 0 0.0136104 
trait 2 0.2 0 0.0210098 0.0202803 0.0336948 0 0 0.0346538 
trait 3 0.300856 0 0.0826598 0 0.0764277 0.101405 0.0523488 0.00501003 
node 1 3 1 3
node 2 3 1 1
node 3 3 1 1
node 4 2 0 2
node 23 1 0 0
node 37 1 0 0
gene 2 1 4 2.89906 0 1 2.89906 1
gene 3 2 4 1.2079 0 2 1.2079 0
gene 1 3 4 -2.67917 0 3 -2.67917 1
gene 3 2 23 2.75167 0 40 2.75167 1
gene 3 23 4 -0.783447 0 41 -0.783447 1
gene 1 3 37 -0.12374 0 74 -0.12374 1
gene 1 37 4 2.09818 0 75 2.09818 1
genomeend 83

/* Organism #84 Fitness: 4 Error: 2 */
genomestart 84
trait 1 0.1 0.0576945 0 0 0 0 0 0.0136104 
trait 2 0.2 0.650903 0.0210098 0.47098 0.0336948 0 0 0.0346538 
trait 3 0.300856 0 0.0826598 0 0.0764277 0.101405 0.0523488 0.00501003 
node 1 3 1 3
node 2 3 1 1
node 3 3 1 1
node 4 2 0 2
node 23 1 0 0
node 37 1 0 0
gene 2 1 4 5.83978 0 1 5.83978 1
gene 3 2 4 0.619554 0 2 0.619554 0
gene 1 3 4 1.23173 0 3 1.23173 0
gene 3 2 23 -0.863572 0 40 -0.863572 1
gene 3 23 4 -4.74343 0 41 -4.74343 1
gene 1 3 37 2.95798 0 74 2.95798 1
gene 1 37 4 1.02261 0 75 1.02261 1
genomeend 84

/* Organism #85 Fitness: 8.99999 Error: 1 */
genomestart 85
trait 1 0.1 0.0576945 0 0 0 0 0 0.0136104 
trait 2 0.2 0 0.0210098 0.0202803 0.0336948 0 0 0.0346538 
trait 3 0.300856 0 0.0826598 0 0.0764277 0 0.900843 0.00501003 
node 1 3 1 3
node 2 3 1 1
node 3 3 1 1
node 4 2 0 2
node 23 1 0 0
node 37 1 0 0
gene 2 1 4 2.72859 0 1 2.72859 1
gene 3 2 4 -0.713681 0 2 -0.713681 0
gene 1 3 4 -1.96744 0 3 -1.96744 0
gene 3 2 23 -1.08246 0 40 -1.08246 1
gene 3 23 4 1.53986 0 41 1.53986 1
gene 1 3 37 2.93049 0 74 2.93049 1
gene 1 37 4 2.30384 0 75 2.30384 1
genomeend 85

/* Organism #86 Fitness: 7.75603 Error: 1.21504 */
genomestart 86
trait 1 0.1 0.0576945 0 0 0 0 0 0.0136104 
trait 2 0.2 0 0.0210098 0.0202803 0.0336948 0 0 0.0346538 
trait 3 0.300856 0 0.0826598 0 0.0764277 0.101405 0.0523488 0.00501003 
node 1 3 1 3
node 2 3 1 1
node 3 3 1 1
node 4 2 0 2
node 23 1 0 0
node 37 1 0 0
gene 2 1 4 4.62662 0 1 4.62662 1
gene 3 2 4 0.734188 0 2 0.734188 0
gene 1 3 4 -2.67917 0 3 -2.67917 0
gene 3 2 23 2.92316 0 40 2.92316 1
gene 3 23 4 -3.39424 0 41 -3.39424 1
gene 1 3 37 2.89356 0 74 2.89356 1
gene 1 37 4 0.527005 0 75 0.527005 1
genomeend 86

/* Organism #87 Fitness: 8.99365 Error: 1.00106 */
genomestart 87
trait 1 0.1 0.0576945 0 0 0 0 0 0.0136104 
trait 2 0.2 0 0.0210098 0.0202803 0.0336948 0.530589 0 0.0346538 
trait 3 0 0 0.0826598 0 0 0.775244 0.0523488 0.00501003 
node 1 3 1 3
node 2 3 1 1
node 3 1 1 1
node 4 2 0 2
node 23 1 0 0
node 37 1 0 0
gene 2 1 4 4.32223 0 1 4.32223 1
gene 3 2 4 -0.241119 0 2 -0.241119 0
gene 1 3 4 -4.4778 0 3 -4.4778 0
gene 3 2 23 2.2644 0 40 2.2644 1
gene 3 23 4 -1.8221 0 41 -1.8221 1
gene 1 3 37 1.49392 0 74 1.49392 1
gene 1 37 4 2.78233 0 75 2.78233 1
genomeend 87

/* Organism #88 Fitness: 4.32332 Error: 1.92074 */
genomestart 88
trait 1 0.1 0.0576945 0 0 0 0 0 0.0136104 
trait 2 0.2 0 0.0210098 0.0202803 0.0336948 0.176863 0 0.0346538 
trait 3 0.300856 0 0.0826598 0 0.0764277 0.101405 0.0523488 0.00501003 
node 1 3 1 3
node 2 3 1 1
node 3 3 1 1
node 4 2 0 2
node 23 1 0 0
node 37 1 0 0
gene 2 1 4 3.73641 0 1 3.73641 1
gene 3 2 4 1.18045 0 2 1.18045 0
gene 1 3 4 0.421404 0 3 0.421404 1
gene 3 2 23 3.07997 0 40 3.07997 1
gene 3 23 4 -4.43118 0 41 -4.43118 1
gene 1 3 37 -0.0441857 0 74 -0.0441857 1
gene 1 37 4 -2.06108 0 75 -2.06108 1
genomeend 88

/* Organism #89 Fitness: 4.03394 Error: 1.99153 */
genomestart 89
trait 1 0.1 0.0576945 0 0 0 0 0 0.0136104 
trait 2 0.2 0 0.0210098 0.0202803 0.0336948 0.353726 0 0.0346538 
trait 3 0.300856 0 0.0826598 0 0.0764277 0.101405 0.0523488 0.00501003 
node 1 3 1 3
node 2 3 1 1
node 3 3 1 1
node 4 2 0 2
node 23 1 0 0
node 37 1 0 0
gene 2 1 4 2.08939 0 1 2.08939 1
gene 3 2 4 0.85616 0 2 0.85616 1
gene 1 3 4 -3.99113 0 3 -3.99113 1
gene 3 2 23 3.47851 0 40 3.47851 1
gene 3 23 4 -1.89857 0 41 -1.89857 1
gene 1 3 37 3.48111 0 74 3.48111 1
gene 1 37 4 3.70216 0 75 3.70216 1
genomeend 89

/* Organism #90 Fitness: 7.86167 Error: 1.19613 */
genomestart 90
trait 1 0.1 0.0576945 0 0 0 0 0 0.0136104 
trait 2 0.2 0 0.0210098 0.0202803 0.0336948 0 0 0.0346538 
trait 3 0.300856 0 0.0826598 0 0.0764277 0.101405 0.0523488 0.00501003 
node 1 3 1 3
node 2 3 1 1
node 3 3 1 1
node 4 2 0 2
node 23 1 0 0
node 37 1 0 0
gene 2 1 4 1.08423 0 1 1.08423 1
gene 3 2 4 0.0111875 0 2 0.0111875 0
gene 1 3 4 -2.06089 0 3 -2.06089 1
gene 3 2 23 3.56072 0 40 3.56072 1
gene 3 23 4 -1.58609 0 41 -1.58609 1
gene 1 3 37 -0.719454 0 74 -0.719454 1
gene 1 37 4 1.61324 0 75 1.61324 1
genomeend 90

/* Organism #91 Fitness: 9 Error: 1 */
genomestart 91
trait 1 0.1 0.0576945 0 0 0 0 0 0.0136104 
trait 2 0.2 0 0.0210098 0.0202803 0.0336948 0.353726 0 0.0346538 
trait 3 0.300856 0 0.0826598 0 0.0764277 0.101405 0.0523488 0.00501003 
node 1 3 1 3
node 2 3 1 1
node 3 1 1 1
node 4 2 0 2
node 23 1 0 0
node 37 1 0 0
gene 2 1 4 5.1436 0 1 5.1436 1
gene 3 2 4 0.768957 0 2 0.768957 0
gene 1 3 4 -1.73852 0 3 -1.73852 0
gene 3 2 23 -0.293483 0 40 -0.293483 1
gene 3 23 4 2.14623 0 41 2.14623 1
gene 1 3 37 1.42031 0 74 1.42031 1
gene 1 37 4 3.20283 0 75 3.20283 1
genomeend 91

/* Organism #92 Fitness: 14.4505 Error: 0.198617 */
genomestart 92
trait 1 0.1 0.0576945 0 0 0 0 0 0.0136104 
trait 2 0.2 0 0.0210098 0.0202803 0.0336948 0.176863 0 0.0346538 
trait 3 0.300856 0 0.0826598 0 0.0764277 0.101405 0.0523488 0.00501003 
node 1 3 1 3
node 2 3 1 1
node 3 1 1 1
node 4 2 0 2
node 23 1 0 0
node 37 1 0 0
gene 2 1 4 4.89591 0 1 4.89591 1
gene 3 2 4 1.85417 0 2 1.85417 0
gene 1 3 4 -3.41822 0 3 -3.41822 1
gene 3 2 23 2.59466 0 40 2.59466 1
gene 3 23 4 -2.69724 0 41 -2.69724 1
gene 1 3 37 -0.12374 0 74 -0.12374 1
gene 1 37 4 2.6325 0 75 2.6325 1
genomeend 92

/* Organism #93 Fitness: 8.99083 Error: 1.00153 */
genomestart 93
trait 1 0.1 0.0576945 0 0 0 0 0 0.0136104 
trait 2 0.2 0 0.0210098 0.0202803 0.0336948 0 0 0.0346538 
trait 3 0.300856 0 0.0826598 0 0.0764277 0.101405 0.0523488 0.00501003 
node 1 3 1 3
node 2 3 1 1
node 3 3 1 1
node 4 2 0 2
node 23 1 0 0
node 37 1 0 0
gene 2 1 4 4.7097 0 1 4.7097 1
gene 3 2 4 3.69077 0 2 3.69077 0
gene 1 3 4 0.532762 0 3 0.532762 1
gene 3 2 23 0.845907 0 40 0.845907 1
gene 3 23 4 -0.755679 0 41 -0.755679 1
gene 1 3 37 -0.671454 0 74 -0.671454 1
gene 1 37 4 2.6325 0 75 2.6325 1
genomeend 93

/* Organism #94 Fitness: 4.03396 Error: 1.99153 */
genomestart 94
trait 1 0.1 0.0576945 0 0 0 0 0 0.0136104 
trait 2 0.2 0 0.0210098 0.0202803 0.0336948 0.530589 0 0.0346538 
trait 3 0.300856 0 0.0826598 0 0.0764277 0.101405 0.0523488 0.00501003 
node 1 3 1 3
node 2 3 1 1
node 3 1 1 1
node 4 2 0 2
node 23 1 0 0
node 37 1 0 0
gene 2 1 4 3.25859 0 1 3.25859 1
gene 3 2 4 2.85617 0 2 2.85617 0
gene 1 3 4 -4.56249 0 3 -4.56249 0
gene 3 2 23 -0.599637 0 40 -0.599637 1
gene 3 23 4 -0.946125 0 41 -0.946125 1
gene 1 3 37 -0.0686052 0 74 -0.0686052 1
gene 1 37 4 -0.0419786 0 75 -0.0419786 1
genomeend 94

/* Organism #95 Fitness: 1.60008 Error: 2.73506 */
genomestart 95
trait 1 0.1 0.0576945 0 0 0 0 0 0.0136104 
trait 2 0.2 0 0.0210098 0.0202803 0.0336948 0 0 0.0346538 
trait 3 0.300856 0 0.0826598 0 0.0764277 0.101405 0.0523488 0.00501003 
node 1 3 1 3
node 2 3 1 1
node 3 3 1 1
node 4 2 0 2
node 23 1 0 0
node 37 1 0 0
gene 2 1 4 0.194794 0 1 0.194794 1
gene 3 2 4 -1.09326 0 2 -1.09326 0
gene 1 3 4 -5.31961 0 3 -5.31961 0
gene 3 2 23 1.3741 0 40 1.3741 1
gene 3 23 4 -6.35692 0 41 -6.35692 1
gene 1 3 37 0.935344 0 74 0.935344 1
gene 1 37 4 2.80269 0 75 2.80269 1
genomeend 95

/* Organism #96 Fitness: 8.98399 Error: 1.00267 */
genomestart 96
trait 1 0.1 0.0576945 0 0 0 0 0 0.0136104 
trait 2 0.2 0 0.0210098 0.0202803 0.0336948 0.707452 0 0.0346538 
trait 3 0.300856 0 0.0826598 0 0.0764277 0.101405 0.0523488 0.00501003 
node 1 3 1 3
node 2 3 1 1
node 3 1 1 1
node 4 2 0 2
node 23 1 0 0
node 37 1 0 0
gene 2 1 4 3.31794 0 1 3.31794 1
gene 3 2 4 -0.76074 0 2 -0.76074 0
gene 1 3 4 -1.25809 0 3 -1.25809 0
gene 3 2 23 2.32041 0 40 2.32041 1
gene 3 23 4 1.14555 0 41 1.14555 1
gene 1 3 37 -1.59953 0 74 -1.59953 1
gene 1 37 4 2.40567 0 75 2.40567 1
genomeend 96

/* Organism #97 Fitness: 8.98399 Error: 1.00267 */
genomestart 97
trait 1 0.1 0.0576945 0 0 0 0 0 0.0136104 
trait 2 0.2 0 0.0210098 0.0202803 0.0336948 0 0 0.0346538 
trait 3 0.300856 0 0.0826598 0 0.0764277 0.101405 0.0523488 0.00501003 
node 1 3 1 3
node 2 3 1 1
node 3 3 1 1
node 4 2 0 2
node 23 1 0 0
node 37 1 0 0
gene 2 1 4 4.03671 0 1 4.03671 1
gene 3 2 4 0.971044 0 2 0.971044 0
gene 1 3 4 -1.97328 0 3 -1.97328 0
gene 3 2 23 2.56694 0 40 2.56694 1
gene 3 23 4 -3.52167 0 41 -3.52167 1
gene 1 3 37 1.38491 0 74 1.38491 1
gene 1 37 4 2.43674 0 75 2.43674 1
genomeend 97

/* Organism #98 Fitness: 8.96279 Error: 1.00621 */
genomestart 98
trait 1 0.1 0.0576945 0 0 0 0 0 0.0136104 
trait 2 0.2 0 0.0210098 0.0202803 0.0336948 0.353726 0 0.0346538 
trait 3 0.300856 0 0.0826598 0 0.0764277 0.101405 0.0523488 0.00501003 
node 1 3 1 3
node 2 3 1 1
node 3 1 1 1
node 4 2 0 2
node 23 1 0 0
node 37 1 0 0
gene 2 1 4 2.74273 0 1 2.74273 1
gene 3 2 4 1.79838 0 2 1.79838 0
gene 1 3 4 1.74805 0 3 1.74805 1
gene 3 2 23 4.98163 0 40 4.98163 1
gene 3 23 4 1.14555 0 41 1.14555 1
gene 1 3 37 0.802365 0 74 0.802365 1
gene 1 37 4 2.06152 0 75 2.06152 1
genomeend 98

/* Organism #99 Fitness: 8.97602 Error: 1.004 */
genomestart 99
trait 1 0.1 0.0576945 0 0 0 0 0 0.0136104 
trait 2 0.2 0 0.0210098 0.0202803 0.0336948 0.176863 0 0.0346538 
trait 3 0.300856 0 0.0826598 0 0.0764277 0.101405 0.0523488 0.00501003 
node 1 3 1 3
node 2 3 1 1
node 3 3 1 1
node 4 2 0 2
node 23 1 0 0
node 37 1 0 0
gene 2 1 4 4.62662 0 1 4.62662 1
gene 3 2 4 1.85417 0 2 1.85417 0
gene 1 3 4 -2.55986 0 3 -2.55986 0
gene 3 2 23 4.02537 0 40 4.02537 1
gene 3 23 4 -2.74538 0 41 -2.74538 1
gene 1 3 37 2.89356 0 74 2.89356 1
gene 1 37 4 2.24098 0 75 2.24098 1
genomeend 99

/* Organism #100 Fitness: 9.16645 Error: 0.972385 */
genomestart 100
trait 1 0.1 0.0576945 0 0 0 0 0 0.0136104 
trait 2 0.2 0 0.0210098 0.0202803 0.0336948 0.176863 0 0.0346538 
trait 3 0.300856 0 0.0826598 0 0.0764277 0.101405 0.0523488 0.00501003 
node 1 3 1 3
node 2 3 1 1
node 3 3 1 1
node 4 2 0 2
node 23 1 0 0
node 37 1 0 0
gene 2 1 4 6.65656 0 1 6.65656 1
gene 3 2 4 -0.688105 0 2 -0.688105 1
gene 1 3 4 -3.13734 0 3 -3.13734 1
gene 3 2 23 1.08142 0 40 1.08142 1
gene 3 23 4 -4.41418 0 41 -4.41418 1
gene 1 3 37 1.43832 0 74 1.43832 1
gene 1 37 4 2.28682 0 75 2.28682 1
genomeend 100

/* Organism #101 Fitness: 8.90513 Error: 1.01585 */
genomestart 101
trait 1 0.1 0.0576945 0 0 0 0 0 0.0136104 
trait 2 0.2 0 0.0210098 0.0202803 0.0336948 0.353726 0 0.0346538 
trait 3 0.300856 0 0.0826598 0 0.0764277 0.101405 0.0523488 0.00501003 
node 1 3 1 3
node 2 3 1 1
node 3 1 1 1
node 4 2 0 2
node 23 1 0 0
node 37 1 0 0
gene 2 1 4 3.6326 0 1 3.6326 1
gene 3 2 4 -0.305765 0 2 -0.305765 0
gene 1 3 4 -2.87213 0 3 -2.87213 1
gene 3 2 23 5.30026 0 40 5.30026 1
gene 3 23 4 -0.739797 0 41 -0.739797 1
gene 1 3 37 1.21406 0 74 1.21406 1
gene 1 37 4 1.67141 0 75 1.67141 1
genomeend 101

/* Organism #102 Fitness: 1.00428 Error: 2.99786 */
genomestart 102
trait 1 0.1 0.0576945 0 0 0 0 0 0.0136104 
trait 2 0.2 0 0.0210098 0.0202803 0.0336948 0 0 0.0346538 
trait 3 0.300856 0 0.0826598 0 0.0764277 0.101405 0.0523488 0.00501003 
node 1 3 1 3
node 2 3 1 1
node 3 3 1 1
node 4 2 0 2
node 23 1 0 0
node 37 1 0 0
gene 2 1 4 -1.23758 0 1 -1.23758 1
gene 3 2 4 -0.909305 0 2 -0.909305 0
gene 1 3 4 -4.97413 0 3 -4.97413 0
gene 3 2 23 1.23495 0 40 1.23495 1
gene 3 23 4 -5.79233 0 41 -5.79233 1
gene 1 3 37 2.72816 0 74 2.72816 1
gene 1 37 4 2.64244 0 75 2.64244 1
genomeend 102

/* Organism #103 Fitness: 8.90211 Error: 1.01636 */
genomestart 103
trait 1 0.1 0.0576945 0 0 0 0 0 0.0136104 
trait 2 0.2 0 0.0210098 0.0202803 0.0336948 0.530589 0 0.0346538 
trait 3 0.300856 0 0.0826598 0 0.0764277 0.101405 0.0523488 0.00501003 
node 1 3 1 3
node 2 3 1 1
node 3 1 1 1
node 4 2 0 2
node 23 1 0 0
node 37 1 0 0
gene 2 1 4 3.21403 0 1 3.21403 1
gene 3 2 4 0.803852 0 2 0.803852 0
gene 1 3 4 -3.42517 0 3 -3.42517 0
gene 3 2 23 2.27398 0 40 2.27398 1
gene 3 23 4 -1.49693 0 41 -1.49693 1
gene 1 3 37 2.13113 0 74 2.13113 1
gene 1 37 4 1.66387 0 75 1.66387 1
genomeend 103

/* Organism #104 Fitness: 8.64076 Error: 1.06048 */
genomestart 104
trait 1 0.1 0.0576945 0 0 0 0 0 0.0136104 
trait 2 0.2 0 0.0210098 0.0202803 0.0336948 0.176863 0 0.0346538 
trait 3 0.300856 0 0.0826598 0 0.0764277 0.101405 0.0523488 0.00501003 
node 1 3 1 3
node 2 3 1 1
node 3 1 1 1
node 4 2 0 2
node 23 1 0 0
node 37 1 0 0
gene 2 1 4 4.76127 0 1 4.76127 1
gene 3 2 4 1.29418 0 2 1.29418 0
gene 1 3 4 -2.98904 0 3 -2.98904 0
gene 3 2 23 3.28229 0 40 3.28229 1
gene 3 23 4 -3.54574 0 41 -3.54574 1
gene 1 3 37 1.64308 0 74 1.64308 1
gene 1 37 4 1.11515 0 75 1.11515 1
genomeend 104

/* Organism #105 Fitness: 7.49407 Error: 1.26247 */
genomestart 105
trait 1 0.1 0.0576945 0 0 0 0 0 0.0136104 
trait 2 0.2 0 0.0210098 0.0202803 0.0336948 0.176863 0 0.0346538 
trait 3 0.300856 0 0.0826598 0 0.0764277 0.101405 0.0523488 0.00501003 
node 1 3 1 3
node 2 3 1 1
node 3 3 1 1
node 4 2 0 2
node 23 1 0 0
node 37 1 0 0
gene 2 1 4 4.89591 0 1 4.89591 1
gene 3 2 4 0.0421844 0 2 0.0421844 0
gene 1 3 4 -3.41822 0 3 -3.41822 1
gene 3 2 23 2.92316 0 40 2.92316 1
gene 3 23 4 -3.39424 0 41 -3.39424 1
gene 1 3 37 0.392599 0 74 0.392599 1
gene 1 37 4 -0.0106806 0 75 -0.0106806 1
genomeend 105

/* Species #4 : (Size 23) (AF 7.39892) (Age 4)  */


/* Organism #106 Fitness: 12.2454 Error: 0.500657 */
genomestart 106
trait 1 0.1 0.0576945 0 0 0 0 0 0.0136104 
trait 2 0.2 0 0.0210098 0.0202803 0.0336948 0 0 0.0346538 
trait 3 0.188035 0 0.00516624 0 0.00563718 0.00633781 0.0306839 0.00501003 
node 1 3 1 3
node 2 3 1 1
node 3 3 1 1
node 4 2 0 2
node 23 1 0 0
gene 2 1 4 6.35636 0 1 6.35636 1
gene 3 2 4 -0.263292 0 2 -0.263292 0
gene 1 3 4 -4.22151 0 3 -4.22151 1
gene 3 2 23 1.43656 0 40 1.24906 1
gene 3 23 4 -4.87054 0 41 -4.87054 1
gene 2 3 23 -0.626521 0 44 -0.626521 1
gene 3 1 23 -0.276134 0 106 -0.276134 1
genomeend 106

/* Organism #107 Fitness: 6.25 Error: 1.5 */
genomestart 107
trait 1 0.1 0.0576945 0 0 0 0 0 0.0136104 
trait 2 0.2 0 0.0210098 0.0202803 0.0336948 0 0 0.0346538 
trait 3 0.188035 0 0.00516624 0 0.00563718 0.00633781 0.0306839 0.00501003 
node 1 3 1 3
node 2 3 1 1
node 3 3 1 1
node 4 2 0 2
node 23 1 0 0
gene 2 1 4 5.1522 0 1 5.1522 1
gene 3 2 4 1.41056 0 2 1.41056 0
gene 1 3 4 -1.99024 0 3 -1.99024 1
gene 3 2 23 5.94645 0 40 5.94645 1
gene 3 23 4 1.0409 0 41 1.0409 1
gene 2 3 23 0.207771 0 44 0.207771 1
genomeend 107

/* Organism #108 Fitness: 12.2154 Error: 0.50495 */
genomestart 108
trait 1 0.1 0.0576945 0 0 0 0 0 0.0136104 
trait 2 0.2 0 0.0210098 0.0202803 0.0336948 0 0 0.0346538 
trait 3 0.263249 0 0 0 0.00133847 0 0.0426411 0.00501003 
node 1 3 1 3
node 2 3 1 1
node 3 3 1 1
node 4 2 0 2
node 23 3 0 0
gene 2 1 4 5.13135 0 1 5.13135 1
gene 3 2 4 -0.270622 0 2 -0.270622 0
gene 1 3 4 -3.12065 0 3 -3.12065 1
gene 3 2 23 1.34875 0 40 1.09875 1
gene 3 23 4 -3.44454 0 41 -2.52906 1
gene 2 3 23 -0.626521 0 44 -0.626521 1
gene 3 1 23 -0.276134 0 106 0 1
genomeend 108

/* Organism #109 Fitness: 11.0545 Error: 0.675173 */
genomestart 109
trait 1 0.1 0.0576945 0 0 0 0 0 0.0136104 
trait 2 0.2 0 0.0726362 0.0202803 0.0336948 0 0 0.0346538 
trait 3 0.300856 0 0.00516624 0 0.00621081 0.00633781 0.0489587 0.00501003 
node 1 3 1 3
node 2 3 1 1
node 3 3 1 1
node 4 2 0 2
node 23 1 0 0
gene 2 1 4 5.88507 0 1 5.88507 1
gene 3 2 4 1.52801 0 2 1.52801 0
gene 1 3 4 -3.04076 0 3 -3.04076 1
gene 3 2 23 1.77867 0 40 1.77867 1
gene 3 23 4 -5.71498 0 41 -5.71498 1
gene 2 3 23 -0.935697 0 44 -0.935697 1
gene 3 1 23 0.652266 0 83 0.652266 1
genomeend 109

/* Organism #110 Fitness: 6.24116 Error: 1.50177 */
genomestart 110
trait 1 0.1 0.0576945 0 0 0 0 0 0.0136104 
trait 2 0.2 0 0.0210098 0.0202803 0.0336948 0 0 0.0346538 
trait 3 0.188035 0 0.00516624 0 0.00563718 0.00633781 0.0306839 0.00501003 
node 1 3 1 3
node 2 3 1 1
node 3 3 1 1
node 4 2 0 2
node 23 1 0 0
gene 2 1 4 4.27966 0 1 4.27966 1
gene 3 2 4 0.723647 0 2 0.723647 0
gene 1 3 4 -3.05698 0 3 -3.05698 1
gene 3 2 23 4.79754 0 40 4.79754 1
gene 3 23 4 3.07529 0 41 3.07529 1
gene 2 3 23 -0.782485 0 44 -0.782485 1
genomeend 110

/* Organism #111 Fitness: 6.28026 Error: 1.49396 */
genomestart 111
trait 1 0.1 0.0576945 0 0 0 0 0 0.0136104 
trait 2 0.2 0 0.0210098 0.0202803 0.0336948 0 0 0.0346538 
trait 3 0.244445 0 0.00258312 0 0.00358343 0.0031689 0.0397083 0.00501003 
node 1 3 1 3
node 2 3 1 1
node 3 3 1 1
node 4 2 0 2
node 23 1 0 0
gene 2 1 4 5.46539 0 1 5.46539 1
gene 3 2 4 -0.0526087 0 2 -0.0526087 0
gene 1 3 4 -3.33406 0 3 -3.33406 1
gene 3 2 23 3.86056 0 40 3.86056 1
gene 3 23 4 -1.09845 0 41 -1.09845 1
gene 2 3 23 0.309245 0 44 0.309245 1
gene 3 1 23 -2.92578 0 83 -2.92578 1
genomeend 111

/* Organism #112 Fitness: 2.77067 Error: 2.33547 */
genomestart 112
trait 1 0.05 0.0576945 0.310024 0 0 0 0 0.0136104 
trait 2 0.2 0 0.0339164 0.0202803 0.0336948 0 0 0.0346538 
trait 3 0.282052 0 0.00129156 0 0.00260436 0.00158445 0.0457434 0.00501003 
node 1 3 1 3
node 2 3 1 1
node 3 3 1 1
node 4 2 0 2
node 23 1 0 0
gene 2 1 4 -0.182868 0 1 -0.182868 1
gene 3 2 4 -1.1354 0 2 -1.1354 0
gene 1 3 4 -4.94965 0 3 -4.94965 1
gene 3 2 23 1.08784 0 40 1.08784 1
gene 3 23 4 -0.306943 0 41 -0.306943 1
gene 2 3 23 -2.01318 0 44 -2.01318 1
gene 3 1 23 2.0951 0 83 2.0951 1
genomeend 112

/* Organism #113 Fitness: 6.25363 Error: 1.49927 */
genomestart 113
trait 1 0.1 0.0576945 0 0 0 0 0 0.0136104 
trait 2 0.2 0 0.0210098 0.0202803 0.0336948 0 0 0.0346538 
trait 3 0.300856 0 0 0 0.00152968 0 0.0487327 0.00501003 
node 1 3 1 3
node 2 3 1 1
node 3 3 1 1
node 4 2 0 2
node 23 1 0 0
gene 2 1 4 5.77857 0 1 5.77857 1
gene 3 2 4 -1.51577 0 2 -1.51577 0
gene 1 3 4 -4.67788 0 3 -4.67788 1
gene 3 2 23 1.77468 0 40 1.77468 1
gene 3 23 4 -3.2378 0 41 -3.2378 1
gene 2 3 23 0.2097 0 44 0.2097 1
gene 3 1 23 -2.92578 0 83 -2.92578 1
genomeend 113

/* Organism #114 Fitness: 6.25 Error: 1.5 */
genomestart 114
trait 1 0.1 0.0576945 0 0 0 0 0 0.0136104 
trait 2 0.2 0 0.0210098 0.0202803 0.0336948 0 0 0.0346538 
trait 3 0.188035 0 0.00516624 0 0.00563718 0.00633781 0.0306839 0.00501003 
node 1 3 1 3
node 2 3 1 1
node 3 3 1 1
node 4 2 0 2
node 23 1 0 0
gene 2 1 4 5.1522 0 1 5.1522 1
gene 3 2 4 2.23067 0 2 2.23067 0
gene 1 3 4 -0.516576 0 3 -0.516576 1
gene 3 2 23 5.94645 0 40 5.94645 1
gene 3 23 4 1.0409 0 41 1.0409 1
gene 2 3 23 0.293624 0 44 0.293624 1
genomeend 114

/* Organism #115 Fitness: 6.25005 Error: 1.49999 */
genomestart 115
trait 1 0.1 0.0576945 0 0 0 0 0 0.0136104 
trait 2 0.2 0 0.0210098 0.0202803 0.0336948 0 0 0.0346538 
trait 3 0.300856 0 0 0 0.00152968 0 0.0487327 0.00501003 
node 1 3 1 3
node 2 3 1 1
node 3 3 1 1
node 4 2 0 2
node 23 1 0 0
gene 2 1 4 7.13991 0 1 7.13991 1
gene 3 2 4 -0.545243 0 2 -0.545243 0
gene 1 3 4 -1.92527 0 3 -1.92527 1
gene 3 2 23 1.77867 0 40 1.77867 1
gene 3 23 4 -2.89735 0 41 -2.89735 1
gene 2 3 23 0.2097 0 44 0.2097 1
gene 3 1 23 0.0949337 0 83 0.0949337 1
genomeend 115

/* Organism #116 Fitness: 3.9251 Error: 2.01881 */
genomestart 116
trait 1 0.1 0.0576945 0 0 0 0 0 0.0136104 
trait 2 0.2 0 0.0339164 0.0202803 0.0336948 0 0 0.0346538 
trait 3 0.300856 0 0.00129156 0 0.00269996 0.00158445 0.0487892 0.00501003 
node 1 3 1 3
node 2 3 1 1
node 3 3 1 1
node 4 2 0 2
node 23 1 0 0
gene 2 1 4 5.91307 0 1 5.91307 1
gene 3 2 4 2.36018 0 2 2.36018 0
gene 1 3 4 -4.97224 0 3 -4.97224 1
gene 1 2 23 -0.591143 0 40 -0.591143 1
gene 3 23 4 -1.06881 0 41 -1.06881 1
gene 2 3 23 0.322033 0 44 0.322033 1
gene 3 1 23 -0.548004 0 83 -0.548004 1
genomeend 116

/* Organism #117 Fitness: 5.82794 Error: 1.58589 */
genomestart 117
trait 1 0 0.0576945 0.620047 0 0 0 0 0.0136104 
trait 2 0.2 0 0.046823 0.0202803 0.0336948 0 0 0.0346538 
trait 3 0.300856 0 0.00258312 0 0.00387025 0.0031689 0.0488457 0.00501003 
node 1 3 1 3
node 2 3 1 1
node 3 3 1 1
node 4 2 0 2
node 23 1 0 0
gene 2 1 4 4.84469 0 1 4.84469 1
gene 3 2 4 -2.69902 0 2 -2.69902 1
gene 1 3 4 -6.09332 0 3 -6.09332 1
gene 3 2 23 5.45273 0 40 5.45273 1
gene 3 23 4 4.33232 0 41 4.33232 1
gene 2 3 23 -0.174272 0 44 -0.174272 1
gene 3 1 23 -0.0545933 0 83 -0.0545933 1
genomeend 117

/* Organism #118 Fitness: 6.25286 Error: 1.49943 */
genomestart 118
trait 1 0.1 0.0576945 0 0 0 0 0 0.0136104 
trait 2 0.2 0 0.0339164 0.0202803 0.0336948 0 0 0.0346538 
trait 3 0.244445 0 0.00387468 0 0.00475371 0.00475335 0.0397648 0.00501003 
node 1 3 1 3
node 2 3 1 1
node 3 3 1 1
node 4 2 0 2
node 23 1 0 0
gene 2 1 4 8 0 1 8 1
gene 3 2 4 0.816449 0 2 0.816449 0
gene 1 3 4 -4.27194 0 3 -4.27194 1
gene 3 2 23 3.17042 0 40 3.17042 1
gene 3 23 4 -2.90258 0 41 -2.90258 1
gene 2 3 23 1.44168 0 44 1.44168 1
gene 3 1 23 -0.221461 0 83 -0.221461 1
genomeend 118

/* Organism #119 Fitness: 2.95062 Error: 2.28226 */
genomestart 119
trait 1 0.05 0.0576945 0.310024 0 0 0 0 0.0136104 
trait 2 0.2 0 0.0339164 0.0202803 0.0336948 0 0 0.0346538 
trait 3 0.244445 0 0.00387468 0 0.00475371 0.00475335 0.0397648 0.00501003 
node 1 3 1 3
node 2 3 1 1
node 3 3 1 1
node 4 2 0 2
node 23 1 0 0
gene 2 1 4 4.30264 0 1 4.30264 1
gene 3 2 4 2.06113 0 2 2.06113 0
gene 1 3 4 -4.56774 0 3 -4.56774 1
gene 3 2 23 3.0838 0 40 3.0838 1
gene 3 23 4 3.2486 0 41 3.2486 1
gene 2 3 23 0.224331 0 44 0.224331 1
gene 3 1 23 -3.37428 0 83 -3.37428 1
genomeend 119

/* Organism #120 Fitness: 6.25 Error: 1.5 */
genomestart 120
trait 1 0.1 0.0576945 0 0 0 0 0 0.0136104 
trait 2 0.2 0 0.0210098 0.0202803 0.0336948 0 0 0.0346538 
trait 3 0.282052 0 0 0 0.00143408 0 0.0456869 0.00501003 
node 1 3 1 3
node 2 3 1 1
node 3 3 1 1
node 4 2 0 2
node 23 1 0 0
gene 1 1 4 6.54833 0 1 6.54833 1
gene 3 2 4 -2.31969 0 2 -2.31969 0
gene 1 3 4 0.49551 0 3 0.49551 1
gene 3 2 23 1.83909 0 40 1.83909 1
gene 3 23 4 -2.92608 0 41 -2.92608 1
gene 2 3 23 0.800901 0 44 0.800901 1
gene 3 1 23 2.00717 0 83 2.00717 1
genomeend 120

/* Organism #121 Fitness: 6.25 Error: 1.5 */
genomestart 121
trait 1 0.1 0.0576945 0 0 0 0 0 0.0136104 
trait 2 0.2 0 0.0210098 0.0202803 0.0336948 0 0 0.0346538 
trait 3 0.263249 0 0 0 0.00133847 0 0.0426411 0.00501003 
node 1 3 1 3
node 2 3 1 1
node 3 3 1 1
node 4 2 0 2
node 23 3 0 0
gene 2 1 4 4.26174 0 1 4.26174 1
gene 3 2 4 -1.06725 0 2 -1.06725 0
gene 1 3 4 -2.11977 0 3 -2.11977 1
gene 3 2 23 3.16786 0 40 3.16786 1
gene 3 23 4 -2.86054 0 41 -2.86054 1
gene 2 3 23 1.06634 0 44 1.06634 1
gene 3 1 23 2.17411 0 106 2.17411 1
genomeend 121

/* Organism #122 Fitness: 4 Error: 2 */
genomestart 122
trait 1 0.1 0.0576945 0 0 0 0 0 0.0136104 
trait 2 0.2 0 0.0726362 0.0202803 0.0336948 0 0 0.0346538 
trait 3 0.300856 0 0.00516624 0 0.00621081 0.00633781 0.0489587 0.00501003 
node 1 3 1 3
node 2 3 1 1
node 3 3 1 1
node 4 2 0 2
node 23 1 0 0
gene 2 1 4 5.88507 0 1 5.88507 1
gene 3 2 4 -0.17419 0 2 -0.17419 0
gene 1 3 4 -5.10508 0 3 -5.10508 1
gene 3 2 23 -0.148312 0 40 -0.148312 1
gene 3 23 4 -7.69275 0 41 -7.69275 1
gene 2 3 23 -3.02564 0 44 -3.02564 1
gene 3 1 23 -1.4384 0 83 -1.4384 1
genomeend 122

/* Organism #123 Fitness: 6.25 Error: 1.5 */
genomestart 123
trait 1 0.1 0.0576945 0 0 0 0 0 0.0136104 
trait 2 0.2 0 0.046823 0.0202803 0.0336948 0 0 0.0346538 
trait 3 0.282052 0 0.00258312 0 0.00377464 0.0031689 0.0457999 0.00501003 
node 1 3 1 3
node 2 3 1 1
node 3 3 1 1
node 4 2 0 2
node 23 3 0 0
gene 2 1 4 7.58646 0 1 7.58646 1
gene 3 2 4 3.12474 0 2 3.12474 0
gene 1 3 4 -0.981828 0 3 -0.981828 1
gene 3 2 23 3.65311 0 40 3.65311 1
gene 3 23 4 -3.8018 0 41 -3.8018 1
gene 2 3 23 1.15878 0 44 1.15878 1
gene 3 1 23 -0.80956 0 83 -0.80956 1
genomeend 123

/* Organism #124 Fitness: 8.97868 Error: 1.00355 */
genomestart 124
trait 1 0 0.0576945 0.620047 0 0 0 0 0.0136104 
trait 2 0.2 0 0.046823 0.0202803 0.0336948 0 0 0.0346538 
trait 3 0.300856 0 0.00258312 0 0.00387025 0.0031689 0.0488457 0.00501003 
node 1 3 1 3
node 2 3 1 1
node 3 3 1 1
node 4 2 0 2
node 23 1 0 0
gene 2 1 4 7.09855 0 1 7.09855 1
gene 3 2 4 -1.074 0 2 -1.074 1
gene 1 3 4 -5.95469 0 3 -5.95469 1
gene 3 2 23 3.16544 0 40 3.16544 1
gene 3 23 4 2.28849 0 41 2.28849 1
gene 2 3 23 -0.910163 0 44 -0.910163 1
gene 3 1 23 -1.42245 0 83 -1.42245 1
genomeend 124

/* Organism #125 Fitness: 6.25 Error: 1.5 */
genomestart 125
trait 1 0.1 0.0576945 0 0 0 0 0 0.0136104 
trait 2 0.2 0 0.0210098 0.0202803 0.0336948 0 0 0.0346538 
trait 3 0.300856 0 0 0 0.00152968 0 0.0487327 0.00501003 
node 1 3 1 3
node 2 3 1 1
node 3 3 1 1
node 4 2 0 2
node 23 1 0 0
gene 2 1 4 8 0 1 8 1
gene 3 2 4 1.36351 0 2 1.36351 0
gene 1 3 4 -0.230682 0 3 -0.230682 1
gene 3 2 23 1.21993 0 40 1.21993 1
gene 3 23 4 -2.50839 0 41 -2.50839 1
gene 2 3 23 2.57088 0 44 2.57088 1
gene 3 1 23 2.57267 0 83 2.57267 1
genomeend 125

/* Organism #126 Fitness: 15.9828 Error: 0.00215352 */
genomestart 126
trait 1 0.1 0.0576945 0 0 0 0 0 0.0136104 
trait 2 0.2 0 0.0210098 0.0202803 0.0336948 0 0 0.0346538 
trait 3 0.263249 0 0 0 0.00133847 0 0.0426411 0.00501003 
node 1 3 1 3
node 2 3 1 1
node 3 3 1 1
node 4 2 0 2
node 23 3 0 0
gene 2 1 4 5.13135 0 1 5.13135 1
gene 3 2 4 -0.270622 0 2 -0.270622 1
gene 1 3 4 -3.12065 0 3 -3.12065 1
gene 3 2 23 1.34875 0 40 1.09875 1
gene 3 23 4 -3.44454 0 41 -2.52906 1
gene 2 3 23 -0.626521 0 44 -0.626521 1
gene 3 1 23 -0.276134 0 106 0 1
genomeend 126

/* Organism #127 Fitness: 6.29992 Error: 1.49004 */
genomestart 127
trait 1 0.1 0.0576945 0 0 0 0 0 0.0136104 
trait 2 0 0 0 0.0202803 0 0 0 0.30429 
trait 3 0.300856 0 0.00129156 0 0.00269996 0.00158445 0.0487892 0.00501003 
node 1 3 1 3
node 2 3 1 1
node 3 3 1 1
node 4 2 0 2
node 23 1 0 0
gene 2 1 4 5.35446 0 1 5.35446 1
gene 3 2 4 0.0228971 0 2 0.0228971 0
gene 1 3 4 -2.0728 0 3 -2.0728 1
gene 3 2 23 1.11874 0 40 1.11874 1
gene 3 23 4 -3.13794 0 41 -3.13794 1
gene 2 3 23 1.39712 0 44 1.39712 1
gene 3 1 23 -0.214996 0 83 -0.214996 1
genomeend 127

/* Organism #128 Fitness: 15.1461 Error: 0.108195 */
genomestart 128
trait 1 0.05 0.0576945 0.310024 0 0 0 0 0.0136104 
trait 2 0.2 0 0.0339164 0.0202803 0.0336948 0 0 0.0346538 
trait 3 0.300856 0 0.00129156 0 0.00269996 0.00158445 0.0487892 0.00501003 
node 1 3 1 3
node 2 3 1 1
node 3 3 1 1
node 4 2 0 2
node 23 1 0 0
gene 2 1 4 6.43856 0 1 6.43856 1
gene 3 2 4 -1.29489 0 2 -1.29489 1
gene 1 3 4 -5.31628 0 3 -5.31628 1
gene 3 2 23 2.47006 0 40 2.47006 1
gene 3 23 4 -0.474653 0 41 -0.474653 1
gene 2 3 23 -0.249722 0 44 -0.249722 1
gene 3 1 23 -2.17411 0 83 -2.17411 1
genomeend 128

/* Species #5 : (Size 21) (AF 4.5474) (Age 2)  */


/* Organism #129 Fitness: 5.74944 Error: 1.6022 */
genomestart 129
trait 1 0.1 0.0576945 0 0 0 0 0 0.0136104 
trait 2 0.2 0 0.0210098 0.0202803 0.0336948 0 0 0.0346538 
trait 3 0.150428 0 0 0 0.000764841 0 0.0243663 0.00501003 
node 1 3 1 3
node 2 3 1 1
node 3 3 1 1
node 4 2 0 2
node 23 1 0 0
node 48 1 0 0
gene 2 1 4 5.13135 0 1 5.13135 1
gene 3 2 4 -0.270622 0 2 -0.270622 0
gene 1 3 4 -3.12065 0 3 -3.12065 1
gene 3 2 23 1.42626 0 40 1.17626 1
gene 3 23 4 -3.78258 0 41 -2.8671 0
gene 2 3 23 -0.626521 0 44 -0.626521 1
gene 3 23 48 1 0 100 0 1
gene 3 48 4 -3.78258 0 101 0 1
genomeend 129

/* Organism #130 Fitness: 4.00646 Error: 1.99838 */
genomestart 130
trait 1 0.1 0.0576945 0 0 0 0 0 0.0136104 
trait 2 0.2 0 0.0210098 0.0202803 0.0336948 0 0 0.0346538 
trait 3 0.150428 0 0 0 0.000764841 0 0.0243663 0.00501003 
node 1 3 1 3
node 2 3 1 1
node 3 3 1 1
node 4 2 0 2
node 23 1 0 0
node 48 1 0 0
gene 2 1 4 6.06503 0 1 6.06503 1
gene 3 2 4 -1.04141 0 2 -1.04141 0
gene 1 3 4 -5.3942 0 3 -5.3942 1
gene 3 2 23 1.90045 0 40 1.90045 1
gene 3 23 4 -1.69403 0 41 -1.69403 0
gene 2 3 23 -0.604615 0 44 -0.604615 1
gene 3 23 48 2.1987 0 100 2.1987 1
gene 3 48 4 -3.22489 0 101 -3.22489 1
genomeend 130

/* Organism #131 Fitness: 4.0006 Error: 1.99985 */
genomestart 131
trait 1 0.1 0.0576945 0 0 0 0 0 0.0136104 
trait 2 0.2 0 0.0210098 0.0202803 0.0336948 0 0 0.0346538 
trait 3 0.150428 0 0 0 0.000764841 0 0.0243663 0.00501003 
node 1 3 1 3
node 2 3 1 1
node 3 1 1 1
node 4 2 0 2
node 23 1 0 0
node 48 1 0 0
gene 2 1 4 4.93502 0 1 4.93502 1
gene 3 2 4 -1.2904 0 2 -1.2904 0
gene 1 3 4 -2.54202 0 3 -2.54202 1
gene 3 2 23 -0.351072 0 40 -0.351072 1
gene 3 23 4 -6.03017 0 41 -6.03017 0
gene 2 3 23 -1.46085 0 44 -1.46085 1
gene 2 23 48 -0.0296102 0 100 -0.0296102 1
gene 3 48 4 -4.74562 0 101 -4.74562 1
genomeend 131

/* Organism #132 Fitness: 3.99122 Error: 2.0022 */
genomestart 132
trait 1 0.1 0.0576945 0 0 0 0 0 0.0136104 
trait 2 0.2 0 0.0210098 0.0202803 0.0336948 0 0 0.0346538 
trait 3 0.150428 0 0 0 0.000764841 0 0.0243663 0.00501003 
node 1 3 1 3
node 2 2 1 1
node 3 3 1 1
node 4 2 0 2
node 23 1 0 0
node 48 1 0 0
gene 2 1 4 -1.66659 0 1 -1.66659 1
gene 3 2 4 0.673305 0 2 0.673305 0
gene 1 3 4 -2.42914 0 3 -2.42914 1
gene 3 2 23 2.95211 0 40 2.95211 1
gene 3 23 4 -3.72713 0 41 -3.72713 0
gene 2 3 23 1.01849 0 44 1.01849 1
gene 3 23 48 2.6885 0 100 2.6885 1
gene 3 48 4 -2.48526 0 101 -2.48526 1
genomeend 132

/* Organism #133 Fitness: 4.00173 Error: 1.99957 */
genomestart 133
trait 1 0.1 0.0576945 0 0 0 0 0 0.0136104 
trait 2 0.2 0 0.0210098 0.0202803 0.0336948 0 0 0.0346538 
trait 3 0.150428 0 0 0 0.000764841 0 0.0243663 0.00501003 
node 1 3 1 3
node 2 3 1 1
node 3 3 1 1
node 4 2 0 2
node 23 1 0 0
node 48 1 0 0
gene 2 1 4 2.92582 0 1 2.92582 1
gene 3 2 4 0.881562 0 2 0.881562 0
gene 1 3 4 -4.09117 0 3 -4.09117 1
gene 3 2 23 3.63571 0 40 3.63571 1
gene 3 23 4 -6.26502 0 41 -6.26502 0
gene 2 3 23 -0.626521 0 44 -0.626521 1
gene 3 23 48 -0.332008 0 100 -0.332008 1
gene 3 48 4 -4.54348 0 101 -4.54348 1
genomeend 133

/* Organism #134 Fitness: 1.58929 Error: 2.73933 */
genomestart 134
trait 1 0.1 0.0576945 0 0 0 0 0 0.0136104 
trait 2 0.2 0 0.0210098 0.0202803 0.0336948 0 0 0.0346538 
trait 3 0.150428 0 0 0 0.000764841 0 0.0243663 0.00501003 
node 1 3 1 3
node 2 3 1 1
node 3 3 1 1
node 4 2 0 2
node 23 1 0 0
node 48 1 0 0
gene 2 1 4 4.3792 0 1 4.3792 1
gene 3 2 4 -1.04979 0 2 -1.04979 0
gene 1 3 4 -3.80528 0 3 -3.80528 1
gene 3 2 23 1.34362 0 40 1.34362 1
gene 3 23 4 -6.1084 0 41 -6.1084 0
gene 2 3 23 1.14205 0 44 1.14205 1
gene 3 23 48 0.401471 0 100 0.401471 1
gene 3 48 4 -5.3433 0 101 -5.3433 1
genomeend 134

/* Organism #135 Fitness: 4.00195 Error: 1.99951 */
genomestart 135
trait 1 0.1 0.0576945 0 0 0 0 0 0.0136104 
trait 2 0.2 0 0.0210098 0.0202803 0.0336948 0 0 0.0346538 
trait 3 0.150428 0 0 0 0.000764841 0 0.0243663 0.00501003 
node 1 3 1 3
node 2 3 1 1
node 3 3 1 1
node 4 2 0 2
node 23 2 0 0
node 48 1 0 0
gene 2 1 4 1.96462 0 1 1.96462 1
gene 3 2 4 1.79044 0 2 1.79044 0
gene 1 3 4 -3.51465 0 3 -3.51465 1
gene 3 2 23 3.88501 0 40 3.88501 1
gene 3 23 4 -2.67054 0 41 -2.67054 0
gene 2 3 23 -0.453756 0 44 -0.453756 1
gene 3 23 48 -1.48564 0 100 -1.48564 1
gene 3 48 4 -2.83174 0 101 -2.83174 1
genomeend 135

/* Organism #136 Fitness: 3.99911 Error: 2.00022 */
genomestart 136
trait 1 0.1 0.0576945 0 0 0 0 0 0.0136104 
trait 2 0.2 0 0.0210098 0.0202803 0.0336948 0 0 0.0346538 
trait 3 0.150428 0 0 0 0.000764841 0 0.0243663 0.00501003 
node 1 3 1 3
node 2 3 1 1
node 3 3 1 1
node 4 2 0 2
node 23 1 0 0
node 48 1 0 0
gene 2 1 4 6.37411 0 1 6.37411 1
gene 3 2 4 -1.35644 0 2 -1.35644 0
gene 1 3 4 -5.05958 0 3 -5.05958 1
gene 3 2 23 -0.249119 0 40 -0.249119 1
gene 3 23 4 -2.66701 0 41 -2.66701 0
gene 2 3 23 -1.23453 0 44 -1.23453 1
gene 3 23 48 3.00561 0 100 3.00561 1
gene 3 48 4 -4.85256 0 101 -4.85256 1
genomeend 136

/* Organism #137 Fitness: 4.00308 Error: 1.99923 */
genomestart 137
trait 1 0.1 0.0576945 0 0 0 0 0 0.0136104 
trait 2 0.2 0 0.0210098 0.0202803 0.0336948 0 0 0.0346538 
trait 3 0.150428 0 0 0 0.000764841 0 0.0243663 0.00501003 
node 1 3 1 3
node 2 3 1 1
node 3 3 1 1
node 4 2 0 2
node 23 1 0 0
node 48 1 0 0
gene 2 1 4 4.87871 0 1 4.87871 1
gene 3 2 4 -2.17808 0 2 -2.17808 0
gene 1 3 4 -1.00799 0 3 -1.00799 1
gene 3 2 23 -0.648577 0 40 -0.648577 1
gene 3 23 4 -5.5873 0 41 -5.5873 0
gene 2 3 23 -0.441497 0 44 -0.441497 1
gene 3 23 48 0.789172 0 100 0.789172 1
gene 3 48 4 -4.06414 0 101 -4.06414 1
genomeend 137

/* Organism #138 Fitness: 5.16808 Error: 1.72666 */
genomestart 138
trait 1 0.1 0.0576945 0 0 0 0 0 0.0136104 
trait 2 0.2 0 0.0210098 0.0202803 0.0336948 0 0 0.0346538 
trait 3 0.150428 0 0 0 0.000764841 0 0.0243663 0.00501003 
node 1 3 1 3
node 2 3 1 1
node 3 3 1 1
node 4 2 0 2
node 23 1 0 0
node 48 1 0 0
gene 2 1 4 7.03888 0 1 7.03888 1
gene 3 2 4 -0.542685 0 2 -0.542685 0
gene 1 3 4 -5.33745 0 3 -5.33745 1
gene 3 2 23 1.0876 0 40 1.0876 1
gene 3 23 4 -1.37359 0 41 -1.37359 0
gene 2 3 23 -1.69346 0 44 -1.69346 1
gene 3 23 48 3.30813 0 100 3.30813 1
gene 3 48 4 -3.76743 0 101 -3.76743 1
genomeend 138

/* Organism #139 Fitness: 6.64911 Error: 1.42141 */
genomestart 139
trait 1 0.1 0.0576945 0 0 0 0 0 0.0136104 
trait 2 0.2 0 0.0210098 0.0202803 0.0336948 0 0 0.0346538 
trait 3 0.150428 0 0 0 0.000764841 0 0.0243663 0.00501003 
node 1 3 1 3
node 2 3 1 1
node 3 3 1 1
node 4 2 0 2
node 23 1 0 0
node 48 1 0 0
gene 2 1 4 5.13135 0 1 5.13135 1
gene 3 2 4 -0.270622 0 2 -0.270622 0
gene 1 3 4 -3.12065 0 3 -3.12065 1
gene 3 2 23 1.42626 0 40 1.17626 1
gene 3 23 4 -3.78258 0 41 -2.8671 0
gene 2 3 23 -0.626521 0 44 -0.626521 1
gene 3 23 48 1 0 100 0 1
gene 3 48 4 -3.78258 0 101 0 1
gene 3 1 23 -0.276134 0 106 0 1
genomeend 139

/* Organism #140 Fitness: 7.98226 Error: 1.17471 */
genomestart 140
trait 1 0.1 0.0576945 0 0 0 0 0 0.0136104 
trait 2 0.2 0 0.0210098 0.0202803 0.0336948 0 0 0.0346538 
trait 3 0.150428 0 0 0 0.000764841 0 0.0243663 0.00501003 
node 1 3 1 3
node 2 3 1 1
node 3 3 1 1
node 4 2 0 2
node 23 1 0 0
node 48 1 0 0
gene 2 1 4 6.64879 0 1 6.64879 1
gene 3 2 4 0.961574 0 2 0.961574 0
gene 1 3 4 -4.16097 0 3 -4.16097 1
gene 3 2 23 0.909597 0 40 0.909597 1
gene 3 23 4 -5.46278 0 41 -5.46278 0
gene 2 3 23 -2.38061 0 44 -2.38061 1
gene 3 23 48 -0.333939 0 100 -0.333939 1
gene 3 48 4 0.630592 0 101 0.630592 1
genomeend 140

/* Organism #141 Fitness: 4.05546 Error: 1.98618 */
genomestart 141
trait 1 0.1 0.0576945 0 0 0 0 0 0.0136104 
trait 2 0.2 0 0.0210098 0.0202803 0.0336948 0 0 0.0346538 
trait 3 0.150428 0 0 0 0.000764841 0 0.0243663 0.00501003 
node 1 3 1 3
node 2 3 1 1
node 3 3 1 1
node 4 2 0 2
node 23 1 0 0
node 48 1 0 0
gene 2 1 4 4.86043 0 1 4.86043 1
gene 3 2 4 -1.48103 0 2 -1.48103 0
gene 1 3 4 -1.71919 0 3 -1.71919 1
gene 3 2 23 0.833013 0 40 0.833013 1
gene 3 23 4 -1.63866 0 41 -1.63866 0
gene 2 3 23 0.457059 0 44 0.457059 1
gene 3 23 48 2.76357 0 100 2.76357 1
gene 3 48 4 -1.73342 0 101 -1.73342 1
genomeend 141

/* Organism #142 Fitness: 3.99996 Error: 2.00001 */
genomestart 142
trait 1 0.1 0.0576945 0 0 0 0 0 0.0136104 
trait 2 0.2 0 0.0210098 0.0202803 0.0336948 0 0 0.0346538 
trait 3 0.150428 0 0 0 0.000764841 0 0.0243663 0.00501003 
node 1 3 1 3
node 2 3 1 1
node 3 3 1 1
node 4 2 0 2
node 23 1 0 0
node 48 1 0 0
gene 2 1 4 5.13135 0 1 5.13135 1
gene 3 2 4 -1.01231 0 2 -1.01231 0
gene 1 3 4 -5.28423 0 3 -5.28423 1
gene 3 2 23 2.17342 0 40 2.17342 1
gene 3 23 4 -3.78258 0 41 -3.78258 0
gene 2 3 23 1.87496 0 44 1.87496 1
gene 3 23 48 -1.13253 0 100 -1.13253 1
gene 3 48 4 -5.4958 0 101 -5.4958 1
genomeend 142

/* Organism #143 Fitness: 3.85483 Error: 2.03663 */
genomestart 143
trait 1 0.1 0.0576945 0 0 0 0 0 0.0136104 
trait 2 0.2 0 0.0210098 0.0202803 0.0336948 0 0 0.0346538 
trait 3 0.150428 0 0 0 0.000764841 0 0.0243663 0.00501003 
node 1 2 1 3
node 2 3 1 1
node 3 3 1 1
node 4 2 0 2
node 23 1 0 0
node 48 1 0 0
gene 2 1 4 4.5214 0 1 4.5214 1
gene 3 2 4 1.08649 0 2 1.08649 0
gene 1 3 4 -3.19735 0 3 -3.19735 1
gene 3 2 23 -1.95166 0 40 -1.95166 1
gene 3 23 4 -5.36677 0 41 -5.36677 0
gene 2 3 23 0.170887 0 44 0.170887 1
gene 3 23 48 1.80171 0 100 1.80171 1
gene 3 48 4 -3.78258 0 101 -3.78258 1
genomeend 143

/* Organism #144 Fitness: 5.02654 Error: 1.758 */
genomestart 144
trait 1 0.1 0.0576945 0 0 0 0 0 0.0136104 
trait 2 0.2 0 0.0210098 0.0202803 0.0336948 0 0 0.0346538 
trait 3 0.150428 0 0 0 0.000764841 0 0.0243663 0.00501003 
node 1 3 1 3
node 2 3 1 1
node 3 3 1 1
node 4 2 0 2
node 23 1 0 0
node 48 1 0 0
gene 2 1 4 6.8392 0 1 6.8392 1
gene 3 2 4 1.32649 0 2 1.32649 0
gene 1 3 4 -1.44137 0 3 -1.44137 1
gene 3 2 23 2.31676 0 40 2.31676 1
gene 3 23 4 -3.83419 0 41 -3.83419 0
gene 2 3 23 1.7749 0 44 1.7749 1
gene 3 23 48 0.919769 0 100 0.919769 1
gene 3 48 4 -0.463732 0 101 -0.463732 1
genomeend 144

/* Organism #145 Fitness: 6.05532 Error: 1.53924 */
genomestart 145
trait 1 0.1 0.0576945 0 0 0 0 0 0.0136104 
trait 2 0.2 0 0.0210098 0.0202803 0.0336948 0 0 0.0346538 
trait 3 0.150428 0 0 0 0.000764841 0 0.0243663 0.00501003 
node 1 3 1 3
node 2 1 1 1
node 3 3 1 1
node 4 2 0 2
node 23 1 0 0
node 48 1 0 0
gene 2 1 4 0.642139 0 1 0.642139 1
gene 3 2 4 -1.53264 0 2 -1.53264 0
gene 1 3 4 -1.53641 0 3 -1.53641 1
gene 3 2 23 -0.0594015 0 40 -0.0594015 1
gene 3 23 4 -5.34848 0 41 -5.34848 0
gene 2 3 23 -2.65615 0 44 -2.65615 1
gene 3 23 48 -1.32324 0 100 -1.32324 1
gene 3 48 4 -3.72591 0 101 -3.72591 1
genomeend 145

/* Organism #146 Fitness: 4.04938 Error: 1.98769 */
genomestart 146
trait 1 0.1 0.0576945 0 0 0 0 0 0.0136104 
trait 2 0.2 0 0.0210098 0.0202803 0.0336948 0 0 0.0346538 
trait 3 0.150428 0 0 0 0.000764841 0 0.0243663 0.00501003 
node 1 3 1 3
node 2 3 1 1
node 3 3 1 1
node 4 2 0 2
node 23 1 0 0
node 48 1 0 0
gene 2 1 4 3.9265 0 1 3.9265 1
gene 3 2 4 0.596991 0 2 0.596991 0
gene 1 3 4 -2.52126 0 3 -2.52126 1
gene 3 2 23 0.232158 0 40 0.232158 1
gene 3 23 4 -2.93953 0 41 -2.93953 0
gene 2 3 23 0.568066 0 44 0.568066 1
gene 3 23 48 2.04181 0 100 2.04181 1
gene 3 48 4 -1.78188 0 101 -1.78188 1
genomeend 146

/* Organism #147 Fitness: 3.92818 Error: 2.01804 */
genomestart 147
trait 1 0.1 0.0576945 0 0 0 0 0 0.473356 
trait 2 0.2 0 0.0210098 0.0202803 0.0336948 0 0 0.0346538 
trait 3 0.150428 0 0 0 0.000764841 0 0.0243663 0.00501003 
node 1 3 1 3
node 2 3 1 1
node 3 3 1 1
node 4 2 0 2
node 23 1 0 0
node 48 1 0 0
gene 2 1 4 7.25565 0 1 7.25565 1
gene 3 2 4 1.58433 0 2 1.58433 0
gene 1 3 4 -4.58307 0 3 -4.58307 1
gene 3 2 23 1.64148 0 40 1.64148 1
gene 2 23 4 -3.78633 0 41 -3.78633 0
gene 2 3 23 -2.14752 0 44 -2.14752 1
gene 3 23 48 -0.711529 0 100 -0.711529 1
gene 3 48 4 -3.86412 0 101 -3.86412 1
genomeend 147

/* Organism #148 Fitness: 1.93341 Error: 2.60953 */
genomestart 148
trait 1 0.1 0.0576945 0 0 0 0 0 0.0136104 
trait 2 0.2 0 0.0210098 0.0202803 0.0336948 0 0 0.0346538 
trait 3 0.150428 0 0 0 0.000764841 0 0.0243663 0.00501003 
node 1 3 1 3
node 2 3 1 1
node 3 3 1 1
node 4 2 0 2
node 23 1 0 0
node 48 1 0 0
gene 2 1 4 4.89889 0 1 4.89889 1
gene 3 2 4 0.156703 0 2 0.156703 0
gene 1 3 4 -3.45921 0 3 -3.45921 1
gene 3 2 23 3.38319 0 40 3.38319 1
gene 3 23 4 -5.61933 0 41 -5.61933 0
gene 2 3 23 -0.391705 0 44 -0.391705 1
gene 3 23 48 -0.276542 0 100 -0.276542 1
gene 3 48 4 -3.39582 0 101 -3.39582 1
genomeend 148

/* Organism #149 Fitness: 7.45003 Error: 1.27053 */
genomestart 149
trait 1 0.1 0.0576945 0 0 0 0 0 0.0136104 
trait 2 0.2 0 0.0210098 0.0202803 0.0336948 0 0 0.0346538 
trait 3 0.150428 0 0 0 0.000764841 0 0.0243663 0.00501003 
node 1 3 1 3
node 2 3 1 1
node 3 3 1 1
node 4 2 0 2
node 23 1 0 0
node 48 1 0 0
gene 2 1 4 3.02602 0 1 3.02602 1
gene 3 2 4 -1.43567 0 2 -1.43567 0
gene 1 3 4 1.48762 0 3 1.48762 1
gene 3 2 23 -0.296175 0 40 -0.296175 1
gene 3 23 4 -5.00703 0 41 -5.00703 0
gene 2 3 23 -0.513219 0 44 -0.513219 1
gene 3 23 48 1 0 100 1 1
gene 3 48 4 -3.68511 0 101 -3.68511 1
genomeend 149
